-102
-35
25
67
127
38
-18
-6
-16
25
8
-17
9
-68
35
69
-20
-39
12
22
-20
-11
28
25
17
81
-38
-17
13
-54
-5
60
37
-37
-36
-13
-22
-52
-8
-14
-6
-8
-27
43
-20
5
-57
15
70
-12
66
12
3
-18
34
3
-24
18
23
16
70
-8
13
-25
-4
-35
-67
-36
-25
58
-3
-9
14
-12
12
-10
12
-26
12
0
-30
-18
6
-45
9
64
4
3
105
80
11
-29
-22
19
-20
36
-102
42
-22
57
2
56
-46
38
-52
-17
8
-74
-35
48
9
60
-10
-5
59
-4
-57
-29
-16
47
34
0
23
7
26
-62
16
51
15
-2
22
4
16
-41
-2
9
-41
-12
-16
-6
39
-14
43
-3
-41
82
9
40
9
-6
-51
12
8
-102
-52
-61
-23
2
7
10
-29
-17
-9
18
-1
0
8
25
-46
-17
19
50
11
-5
-14
-73
-37
-3
26
-99
15
-30
-40
-57
-53
14
13
6
32
-17
-23
48
12
-29
-13
5
-26
26
-11
-3
-64
-16
11
-24
18
10
1
99
3
45
81
-5
-43
57
26
-6
-10
-44
45
42
-21
60
-45
-9
-19
-41
-2
22
-5
14
25
-49
-25
42
-1
-32
-27
3
2
-17
-46
50
64
9
-57
20
-7
-18
-5
44
-19
-11
59
53
24
10
-9
-6
-5
-24
-3
17
11
-17
-19
-9
-17
-4
-7
8
16
2
3
-16
-5
12
14
-20
-16
9
7
-33
-3
12
-16
-28
10
17
-15
19
-9
3
-9
-32
2
-14
10
-16
-14
0
6
2
-74
3
87
6
-4
6
-3
-36
-70
-7
-2
-6
2
-37
14
19
11
-42
-1
-20
-14
8
-1
-1
0
-4
-15
-2
11
18
-43
20
-22
-43
1
8
-30
-4
23
-24
11
7
127
48
-3
-14
1
-18
-10
-17
-27
1
-4
30
13
-16
56
9
7
-13
-18
-20
18
5
2
13
-8
35
-4
13
5
-20
51
12
11
16
-6
-2
10
-15
-5
-33
-1
-18
25
-9
5
34
-22
-1
13
4
3
16
-9
10
-13
5
-9
-6
-3
-32
19
0
19
1
-18
18
3
104
6
22
-6
33
18
-10
7
-24
9
-11
-25
-7
27
-20
-6
1
2
-3
-3
19
-18
-14
-20
22
27
6
-21
-46
9
-5
-63
13
-41
-11
-23
-2
7
-5
-10
10
-7
5
-5
5
38
12
1
10
1
-14
9
55
8
-20
18
-12
-17
-10
-33
13
-7
3
-21
9
13
5
13
10
22
-61
-33
0
-27
20
-28
42
-2
-30
-4
7
-20
3
26
-22
-4
14
-1
4
21
-7
21
-13
-7
-33
-4
13
-21
14
-7
-11
-18
17
-7
0
-112
19
-25
-88
-57
-14
-97
36
30
38
42
-57
59
20
-6
-80
36
-24
-10
-37
-44
-17
52
41
43
-10
11
-19
-69
31
-1
2
-64
-127
-5
-51
55
18
108
25
13
14
45
-23
-54
-22
-39
53
-5
-38
104
2
-53
-46
-6
-39
0
-46
-56
54
-10
19
-100
-37
-29
-39
61
-33
41
41
21
-7
-6
101
26
-30
118
-28
10
-10
-11
-23
-46
50
51
61
-42
0
-4
21
19
-28
4
-44
-10
31
-5
34
11
-28
43
-6
-5
-46
-67
-11
-81
25
4
25
-70
-22
18
24
-56
1
-40
-20
-37
-16
-42
19
1
-41
-104
-24
49
-68
5
-1
-62
-34
-62
9
-27
-4
53
85
-22
13
29
-17
67
34
-2
16
96
-14
-77
1
-50
-4
4
63
-1
-30
34
-36
-103
-8
-3
56
-28
-8
7
89
-45
12
0
13
-31
-7
-19
-29
6
9
6
-26
-85
4
1
30
14
-7
35
-29
-2
11
1
-4
31
62
41
-40
3
25
90
11
-60
-6
54
-112
57
71
-28
-63
37
-100
-75
-30
37
-26
52
75
13
-39
16
-79
-7
57
-30
10
-39
-32
-38
-14
33
-8
-3
41
6
13
-49
-42
-34
-89
-14
-34
-1
-38
-30
-30
-11
-29
63
48
-2
82
6
-18
13
46
-28
-20
-20
2
-6
5
22
10
37
16
89
-1
-7
-16
-32
-44
-8
13
-46
35
34
-23
25
-60
-7
45
-42
21
-12
-10
5
-29
-3
-15
-43
3
7
-35
35
55
-10
127
-32
4
4
20
-5
37
69
28
-32
12
-36
-62
57
21
13
-3
2
25
19
5
0
54
13
-26
3
-32
-1
-5
-1
-36
-22
-23
-33
-18
-42
30
18
46
-50
-31
2
-42
-24
17
-60
-11
9
-20
1
19
-38
1
9
-18
-13
11
29
18
19
-44
9
-34
-52
5
-37
6
17
-21
10
18
-7
-4
8
-31
-44
28
-1
8
0
8
-38
-19
-30
35
-24
-13
12
-25
1
-45
11
-10
-33
15
-24
-14
55
-18
41
32
-44
52
-23
6
9
-54
4
21
79
-14
-66
3
-37
3
-19
-4
7
-25
-28
33
105
28
-36
19
-38
26
-8
-15
-3
0
-8
1
-46
-21
-60
8
37
64
25
52
-51
-5
-39
42
36
-10
-34
-11
25
14
12
12
-20
-17
-20
6
9
-23
23
-2
-3
-14
37
51
8
-79
43
-60
-16
-6
6
19
10
-58
22
-6
56
74
-24
20
4
-29
21
-18
-6
-29
-26
-36
76
-61
9
-33
37
-8
34
2
-23
26
-20
-4
29
-18
-40
-86
-13
27
10
-32
-45
-6
-47
24
-32
20
45
-91
64
-15
35
-31
-11
105
12
-50
-32
-12
28
46
5
39
15
-3
11
53
-23
0
-40
-33
23
47
-19
8
2
28
-90
-27
-65
3
12
-15
-101
-33
41
-48
-40
72
-18
-11
5
-36
77
-102
6
-29
10
-38
23
-72
-46
5
-30
-25
5
-48
-52
-56
26
17
-18
-6
105
-33
0
-17
-37
31
-25
21
-70
30
24
-3
-2
22
-33
35
-39
-113
-41
-43
-71
57
10
33
14
-4
1
38
-29
-18
83
50
-40
25
-106
-2
55
5
-107
-31
66
-13
-77
12
-7
-23
-7
-10
9
-9
-23
41
7
-120
-14
16
39
-70
-42
17
-11
5
-9
7
23
0
-6
1
-44
-48
2
-49
-2
24
76
12
19
48
-1
-13
-41
-51
53
-76
-2
27
-30
-27
-21
-2
-51
36
-5
-50
3
-36
24
-95
-15
-52
23
59
23
18
-9
85
-2
-20
14
37
-17
-13
-48
-20
74
71
-72
27
41
-2
22
-15
0
-76
-74
-10
-11
-33
-33
54
-69
-41
22
-34
-12
10
-21
37
-46
-25
6
27
-28
-18
-127
-44
39
57
67
-104
-17
-28
43
26
-6
1
-9
27
40
61
-49
44
-85
-7
-82
-2
-2
55
41
-91
-16
-120
-45
12
-26
-39
-41
8
27
33
28
81
-39
23
-3
23
-41
8
-71
48
-17
8
25
18
-8
8
-26
-2
10
11
18
12
-8
-14
0
3
2
-12
4
-3
-26
-6
5
-5
-1
-70
-11
16
-7
-16
4
-6
-18
4
15
-2
12
-5
-4
-17
26
-16
9
-11
6
3
-12
38
-16
0
-6
-9
-20
23
-21
18
21
1
-10
-26
-4
8
4
-16
-33
8
-19
-10
-6
-12
6
-3
127
38
16
20
-22
0
0
7
20
0
1
15
7
16
7
12
-15
-31
6
-37
-15
-12
11
-18
8
-4
1
30
14
-5
-9
4
4
6
-8
6
-8
-13
-12
-11
1
20
4
-16
-11
7
-21
11
4
37
8
-1
-12
-7
-7
-23
-12
-4
2
-6
0
-3
-9
2
-15
-5
-18
20
12
-1
19
27
-40
22
11
-26
-11
-1
-30
6
-3
11
-11
6
10
0
-14
-20
12
6
-33
-2
5
5
-4
-15
5
12
-6
1
-13
-1
-4
-14
42
26
-7
9
-2
-31
-16
36
-20
2
21
-13
-4
2
-39
4
-27
-4
23
7
12
-33
9
23
-65
-23
20
3
10
-1
-5
53
46
-9
8
8
-1
-7
5
19
26
-2
28
-40
-7
5
18
-2
24
14
0
3
-20
-57
24
-20
1
-15
-3
9
7
-6
16
10
-11
11
-6
-7
11
32
-1
15
2
7
3
0
57
38
-19
14
21
-35
-6
2
-1
-6
-12
-6
10
43
-8
-8
17
-1
2
0
-21
-6
-39
18
-11
37
-8
-13
-10
-10
-8
-7
-10
-2
-3
-10
-38
5
-6
13
21
8
1
-16
13
9
-4
27
-15
31
7
-1
4
9
5
27
15
20
0
3
26
-98
-9
21
2
-3
-2
-8
12
4
-36
22
4
5
-30
-41
-5
5
3
-16
-12
-15
-31
-7
-17
-17
-9
4
-40
25
12
-38
11
7
-12
59
18
-6
-7
-5
-9
2
-2
-10
11
6
1
-10
14
3
-4
18
1
24
-21
13
-4
-6
-32
-13
-3
-35
5
-16
-4
2
2
-32
-6
32
38
28
44
-29
-6
-17
-12
-7
-21
22
-127
5
-7
-19
-11
1
-3
4
2
120
1
-4
-21
24
8
21
9
-4
36
-3
-25
-16
1
14
-6
-7
-1
16
3
2
-23
-1
15
-2
50
11
-26
-47
71
-12
-7
10
-26
-16
-32
0
6
-2
-8
-8
22
-16
1
77
14
-1
-1
32
-34
-31
21
15
-20
8
-20
10
34
-2
-5
22
-12
12
-1
-6
4
5
6
16
-11
-14
-10
-11
-11
-5
56
40
-64
-24
-3
-9
7
10
9
-11
-5
-24
-26
-5
1
-31
-11
17
1
19
12
-1
-7
-38
15
-20
22
-7
-1
-5
-39
13
10
15
-40
14
-68
-28
77
-12
-21
79
126
42
0
12
61
-12
14
-6
2
-6
11
3
44
33
84
13
-11
24
-14
124
-26
66
-32
-61
-1
-32
16
98
-48
-2
-26
15
27
-24
47
-105
78
-73
0
-4
-45
74
-38
47
10
0
10
19
-1
-10
4
33
30
-66
0
3
68
18
-40
46
15
-57
21
-19
-29
31
-28
-58
-12
30
-39
3
-17
-53
-54
-34
-34
-15
8
51
19
23
-25
-11
-24
24
-3
-34
23
-5
-19
-11
61
55
-46
-3
34
10
109
-25
36
-10
48
26
-9
12
0
-57
-45
1
50
19
-61
-22
0
-3
55
17
-17
-40
-9
-13
-14
20
42
18
18
19
-67
-3
-21
27
-50
-46
-48
-36
-1
78
-57
-95
-25
7
6
-33
-57
-27
-11
25
-5
-12
39
5
62
85
27
-38
-60
-26
-31
-5
-13
-35
-3
-38
19
-53
47
-8
-11
27
12
-27
14
90
-10
76
-27
1
127
6
35
-20
3
-7
-6
52
14
-114
-4
31
-36
19
15
52
51
60
-21
-6
38
-52
-2
18
-39
-17
-30
-11
29
33
-14
-7
51
32
-23
-13
4
-34
32
40
-26
-1
-7
-59
-45
-102
32
-24
-12
-4
-2
-2
-33
38
41
16
-54
-25
33
39
58
4
24
12
-30
-69
38
-3
-94
-21
47
10
-23
7
-75
-27
-58
-79
26
-12
62
9
7
11
8
-55
23
42
16
11
-52
7
37
2
-31
-31
-2
-54
5
41
-3
21
11
27
-9
13
20
-5
-7
-37
72
11
72
-87
28
-24
31
5
47
-65
22
-27
-31
4
22
-26
2
13
-5
-6
-26
-21
27
35
-5
1
1
-41
100
33
-34
-6
-6
36
-47
14
-23
-23
21
-7
5
-11
4
30
55
-127
9
-1
-19
-35
-36
37
-20
100
17
7
17
-24
63
-27
-23
69
-15
-28
41
24
28
25
-6
-29
30
-6
30
-23
1
29
-5
-30
21
-46
-30
-19
-2
29
13
35
-9
23
-18
9
33
10
11
10
-41
-19
-25
-22
-5
16
-26
-27
19
5
-45
-72
85
56
-18
28
19
29
1
62
7
-36
-11
7
-12
6
4
40
-47
7
22
-10
-14
-33
8
-6
-2
43
-4
51
-12
10
28
27
-4
-24
-35
-15
-46
-2
27
31
107
-50
75
-35
-10
11
14
-27
1
-8
-21
-33
13
-56
14
-36
-16
-35
1
17
-20
27
4
108
-71
-42
8
9
-29
-30
17
-3
48
-14
13
27
11
-8
6
1
19
12
-3
-29
9
-76
10
8
-7
-76
0
8
76
25
-14
10
63
1
14
-18
7
45
-17
12
5
5
-40
36
75
-21
-45
10
30
-36
-23
31
25
26
22
43
-27
0
-21
-40
33
8
-19
74
14
18
-54
-44
71
8
-4
0
5
7
-27
-73
89
-11
33
8
-8
4
-9
-14
-24
48
-39
-5
-13
35
-35
28
19
-11
95
-76
-76
-11
-13
-8
3
5
-24
-63
-4
15
29
127
-52
-32
36
-107
59
6
11
21
-113
-18
32
17
33
-51
27
-46
73
15
0
14
-9
10
70
-1
4
-18
-34
-38
14
20
0
2
5
-54
17
32
17
-15
-12
38
75
-40
20
77
-27
-20
44
-34
23
-32
-3
-31
-15
-69
45
45
-16
-45
-4
11
-61
32
2
-8
7
11
20
17
-3
17
0
-26
-8
-38
-2
12
-35
-17
21
-11
-82
15
-45
-8
43
47
37
51
99
4
50
36
12
-99
-44
-37
37
-12
-11
-27
30
81
11
-5
9
-26
-55
21
10
3
9
26
15
-1
38
-27
-23
49
-35
45
76
20
20
-121
20
-20
0
43
-6
16
38
-28
36
-2
-12
-36
11
-11
-7
45
45
-3
-5
54
-35
16
27
-48
66
-65
-90
28
4
9
9
33
48
-21
16
-1
-15
25
-25
-13
54
-80
-124
76
-11
21
-15
-29
-16
1
-42
33
-16
29
-20
-35
45
-16
-53
-76
-27
74
35
-34
22
123
-77
-45
-1
35
-4
-29
26
-54
9
-41
26
-58
-42
-19
30
-39
-6
-33
-28
-20
0
4
20
65
13
-35
-32
3
-24
-51
-16
-21
3
55
108
-28
8
12
-47
55
2
-12
-30
43
20
-12
40
57
-17
47
40
-28
25
-31
-56
-5
-5
8
17
-29
-69
-1
29
16
-54
-8
-25
19
-57
41
-83
-49
13
51
50
-3
-20
18
-63
26
0
-1
-11
-13
-23
-55
-36
32
30
-21
5
-25
-56
-12
-59
-1
16
-21
-20
-17
3
37
-45
12
-40
70
53
-27
17
66
-74
55
45
-22
19
-53
0
11
37
-7
32
28
12
-20
-50
-17
-21
31
-69
-5
45
56
-1
-11
4
-6
-56
-53
-5
56
-12
-12
-17
-4
6
12
10
54
-12
26
100
7
-17
-4
48
-6
-8
-20
31
-40
-23
73
12
4
6
38
-4
33
49
57
2
26
-23
-11
50
-29
10
4
-22
4
32
73
80
37
-31
-25
-6
7
-2
40
11
-35
-10
-16
-31
30
5
127
46
-10
48
0
38
27
10
86
-34
1
-38
3
-24
22
0
-91
43
-22
-60
-70
-45
16
-28
23
13
-3
22
-29
0
34
35
12
-17
10
23
-2
-27
-13
-48
32
30
-70
15
13
21
3
30
-1
16
-32
-12
-13
-27
88
-15
36
13
10
-7
-43
50
-48
31
10
31
117
-21
-101
57
-6
-10
89
-34
50
21
6
87
47
-5
1
34
-44
3
-3
-14
-11
67
67
32
14
86
-38
24
48
-50
-4
-24
-49
22
-42
-32
16
-56
-35
-24
22
8
-19
-20
4
13
-26
49
14
19
18
-61
16
21
7
-95
18
43
60
-10
-2
20
-26
-19
-40
-93
-73
47
56
81
54
28
-25
-23
-2
-27
-76
-35
-24
-29
-8
-6
-24
4
17
-23
88
-50
-32
-34
-37
22
-6
-50
-25
9
-11
35
-51
-3
-9
1
28
-45
2
-20
-1
15
121
-19
-28
-17
3
89
3
78
16
27
60
34
-59
2
-54
7
93
61
-44
-4
2
-43
-30
22
-9
-22
-65
43
-28
0
-33
-17
50
10
76
-18
54
78
45
15
41
-33
19
-30
3
33
17
-19
-3
-27
-38
7
-112
-21
-14
-23
12
49
127
-22
-23
9
53
54
-40
-46
13
4
-2
50
-39
67
0
7
-1
-38
-35
4
22
-27
27
15
18
5
95
-19
81
-92
48
-39
-8
37
-39
-91
18
1
-71
27
48
16
22
-8
-29
-43
-10
52
-28
-46
25
34
-16
-24
98
-21
52
-18
-16
21
-56
-93
7
8
24
-57
18
31
-68
-15
-103
-46
48
78
-71
-11
29
40
60
27
-26
48
8
-32
-6
-54
121
10
-31
3
38
8
44
6
2
-4
-18
-2
36
16
-39
16
19
33
-59
-13
-4
32
40
5
6
-1
0
7
4
30
-54
5
1
5
-31
4
0
41
4
-3
42
-20
-68
-56
20
-18
-127
27
10
-30
5
8
-62
-1
-7
4
9
2
-41
29
-2
-52
7
-2
-57
-18
32
8
-62
21
26
-9
22
21
-6
115
-61
14
-23
-41
-32
28
-4
27
-31
14
86
-28
7
86
35
70
27
12
-3
40
-7
7
5
-5
-12
21
62
-14
11
-54
-11
37
8
-2
45
32
14
5
14
18
23
-7
33
-7
10
21
58
-32
-7
16
-13
-48
-29
6
44
2
10
26
-3
19
-44
-18
26
33
-36
43
26
4
12
60
95
-86
-6
8
-47
3
0
46
-47
26
-9
26
-14
-26
-27
3
-3
-13
21
4
-26
22
-43
1
-31
-10
48
0
-21
9
-2
12
-6
-60
24
17
46
2
-70
36
19
39
6
-35
11
26
-1
26
26
18
-6
37
18
29
31
-1
36
53
19
-23
-4
4
-21
41
-41
28
-16
0
-33
4
20
28
-51
-29
-32
9
24
35
-4
12
4
31
-6
-42
-3
-12
11
-29
-24
-9
2
-13
10
-1
-27
2
-37
-72
-1
-41
-4
-4
-43
-2
4
-20
-39
35
-8
-42
12
-4
-31
4
-127
-49
27
2
-25
-38
-16
-47
24
34
-47
-18
-19
21
-19
23
-32
-63
12
23
19
-67
55
28
-23
-51
16
-19
-16
15
-28
-71
-29
-34
23
72
-40
-26
70
51
65
62
9
2
-10
-37
-55
-14
-4
-1
38
71
-80
-21
-40
39
54
21
12
-71
-64
25
15
46
-15
-1
-13
-36
-7
23
-13
17
21
38
18
29
31
-1
-12
3
68
-11
-15
-101
-13
1
-14
-22
45
-4
-63
-29
5
-14
-14
-43
28
67
46
-21
-11
40
9
2
75
32
-23
1
20
40
31
8
-19
7
-19
-41
-69
-66
27
-33
19
72
56
-14
-28
-42
34
61
21
-30
16
2
0
17
60
-17
25
-48
-41
28
-17
10
-28
10
20
11
-55
-41
-60
-6
2
-4
-11
-33
4
-25
-1
-29
-37
23
17
19
-24
9
-76
13
34
-9
13
52
5
0
30
37
-26
3
-27
-14
-42
20
45
-70
15
10
-26
-2
27
31
44
94
6
-19
87
-13
-55
34
32
-6
69
-9
61
-2
-42
17
41
-9
-25
46
-2
-22
19
9
-32
-64
27
5
17
-12
8
89
10
-33
-89
25
18
-43
50
121
15
-41
-18
15
-29
-7
59
-28
97
34
-15
-29
-72
-13
-97
-11
-17
-14
112
31
31
-37
46
17
16
-7
19
29
-68
60
33
-4
-8
-12
-24
21
-38
-44
20
-21
25
100
-35
33
22
-19
-60
-67
44
5
-18
42
-10
19
-8
-34
23
44
-22
47
-7
-43
7
37
36
46
46
28
-27
42
-25
111
44
13
-80
38
26
-2
46
8
12
-44
127
21
-34
-55
-1
8
-27
24
28
14
1
-10
27
-15
-23
42
-17
64
56
-46
28
-29
23
107
20
-6
36
12
25
12
11
43
-19
-9
-29
37
22
104
-4
123
-9
-8
62
28
-8
19
-57
-18
-38
-22
60
14
28
6
1
-39
21
40
-12
19
-28
24
-56
-14
20
12
17
-18
8
-12
79
-21
16
-47
44
-7
9
-7
44
-22
27
10
11
-57
12
-28
-18
-63
61
-66
-91
35
41
7
9
57
-23
-3
3
15
15
-5
-8
1
14
3
42
-20
16
13
-24
40
-5
-5
-56
-15
-34
10
4
-4
-43
-6
31
10
-105
-11
20
39
-37
14
-43
-3
24
42
8
33
49
25
37
-30
-18
-5
12
28
1
37
38
-36
7
39
-28
49
-40
27
-29
-13
-2
-47
1
-17
15
-8
-50
-5
-52
-17
19
-15
-9
15
-31
34
55
17
0
38
-53
62
-53
0
24
22
38
23
13
-21
26
-22
-48
-6
-14
25
-14
49
63
-18
-11
-37
39
-3
-39
-2
-16
-47
-2
26
-77
-20
-1
-1
53
49
-43
16
-3
-3
-101
0
-2
-30
-23
-52
-5
0
-26
-9
-11
47
18
-100
-20
12
9
43
5
38
-2
19
14
-14
21
21
-13
-14
-11
-8
-10
-7
-10
70
7
-9
3
-21
-32
58
19
27
3
23
-127
4
27
1
54
-19
-6
67
-3
9
8
8
20
-2
25
-20
5
4
11
-4
51
5
-26
12
-10
-24
18
-7
2
12
-1
-7
-20
6
0
8
25
-46
-19
2
25
-20
5
-66
-37
-41
19
-60
0
-6
36
6
-56
-8
16
30
4
-30
-2
-21
67
11
-12
2
3
-17
15
-13
4
-2
-2
-16
-4
-21
14
24
13
-18
-6
3
-21
21
12
71
-25
37
20
5
-3
32
-38
2
-16
16
54
-9
-75
-13
-33
-8
-2
-75
-22
2
-16
35
-35
17
-1
-9
18
4
53
-8
-2
5
34
26
39
1
-3
-24
-38
2
28
32
22
43
4
-25
0
54
25
-14
30
12
-8
-21
24
11
-3
-8
-3
-26
26
22
6
-20
-10
-53
18
8
39
1
-11
-30
-89
-1
-4
34
15
-25
38
-47
-25
22
22
60
-40
14
-29
-48
-14
5
37
97
10
10
-40
28
12
-12
28
-18
-20
118
-74
-14
-18
33
-22
-35
42
49
35
14
-1
66
52
-69
1
-14
-50
28
-10
-41
-32
-16
-14
-15
5
64
-58
54
74
30
-58
53
-30
-33
-42
-51
-8
28
35
-30
-65
31
23
-65
65
-9
13
35
0
7
19
41
4
77
51
-38
-31
-17
20
39
-5
-35
39
49
30
37
-108
31
37
5
82
127
-35
-28
2
6
4
77
0
-25
58
41
59
37
15
57
79
-124
20
14
-67
72
-75
56
21
61
12
-20
-46
-21
-14
35
-15
-114
14
-13
-30
5
16
-14
59
-44
-48
35
25
28
74
50
21
57
35
53
31
7
13
3
-1
-57
-17
-68
-26
6
14
-82
-77
12
-44
5
30
49
-52
-9
8
-5
-49
9
4
14
-40
-73
22
-10
-4
21
21
-8
-31
38
-46
36
75
-4
-8
24
31
20
8
35
-17
-3
-50
-29
3
-13
52
-4
49
-16
-18
98
2
37
3
-27
24
87
2
-55
10
-50
34
35
-16
-67
25
16
-46
-8
4
2
20
-20
33
-5
-18
13
-46
45
-10
27
46
-70
55
-31
-14
69
42
76
-51
12
-12
38
26
32
-51
-43
-21
-45
-58
5
-10
-10
-11
28
-22
77
20
10
-37
76
31
-3
14
35
37
19
38
-35
73
17
-35
43
35
1
70
55
-14
-35
-23
47
-7
19
-38
-1
10
-63
-82
-56
16
45
-10
16
-3
87
-12
-15
40
20
-10
18
11
20
24
-14
-63
-30
125
47
-11
7
-40
-5
12
-7
64
-5
14
0
-1
-6
-32
41
-6
-12
-93
45
-20
60
-13
-50
-21
22
55
22
19
-46
-14
-37
-23
6
-61
3
-29
31
-2
17
3
-3
56
101
-15
-49
4
-32
-61
-24
-10
-26
-37
-25
70
-21
20
8
-10
14
-20
-39
-21
9
-21
29
46
32
25
11
11
-9
-68
-77
7
-7
36
66
-25
-1
77
13
-44
-8
-14
31
-13
-30
0
1
36
11
-21
-27
-24
-4
-6
-13
13
34
-10
-4
33
-7
41
-29
49
-22
-11
4
-19
29
-8
14
-4
6
9
-25
-36
0
-27
-11
-4
27
15
-43
-6
-34
23
-34
42
15
1
-38
-7
-24
-47
33
-34
72
-9
1
20
-39
-53
-8
-17
-9
44
-25
-12
0
-29
26
-23
-8
-50
-34
-16
25
74
-74
80
-4
39
29
-40
4
-33
-6
-18
-48
-13
-127
-15
-1
26
-8
22
22
26
66
36
37
-16
-49
18
-11
99
34
6
30
23
24
-4
19
31
82
28
-1
33
-10
12
-26
-7
-2
1
-1
-66
26
-39
10
-25
9
-14
-73
2
-34
-3
23
14
-1
24
1
10
-43
37
-8
-50
-14
21
-12
-16
-19
26
-31
-30
-42
4
-70
-4
-109
-7
52
-7
19
-24
11
66
-20
56
-2
17
-43
21
-34
47
31
-2
-33
-24
-3
-67
11
20
-5
-26
-1
74
22
91
23
-8
49
-1
6
-23
-8
-10
-36
-15
51
-29
35
-12
-46
6
-40
-55
-8
6
-44
19
54
3
-30
-82
-47
-18
-11
-25
53
10
73
0
-33
-14
2
21
-50
-93
40
-36
15
66
71
34
-3
-21
-34
88
16
55
-63
-63
-92
23
-1
26
18
83
-30
-45
124
25
11
55
56
81
1
-1
-23
27
15
-97
12
-20
-3
15
21
-23
-49
27
59
34
29
-48
-30
-78
4
-4
-45
15
74
65
17
11
-58
-12
62
-9
-15
48
-27
-38
22
-12
-15
44
-46
30
86
-3
-5
-66
28
55
8
6
6
-11
-29
-91
-13
-84
6
20
13
-54
-13
75
49
-39
38
27
-1
-109
5
-44
-23
-12
47
72
39
37
-77
-57
2
28
27
17
25
-16
127
66
-22
1
-12
112
32
-13
36
-47
23
1
-19
12
-41
83
23
14
-17
45
-20
4
-18
-11
-61
0
13
54
19
-49
24
-52
-21
-13
5
-39
-91
7
6
9
-28
-40
38
6
-29
-12
-35
-2
10
30
6
47
18
-2
52
56
78
18
19
-32
-30
-35
62
0
-30
19
57
89
-15
42
-11
-22
-20
-38
32
32
21
10
27
3
-4
52
-2
-21
34
26
-16
-12
6
8
3
-31
16
31
-24
-50
-25
-9
0
21
38
57
15
-38
3
30
15
61
-61
-11
42
87
-39
-127
33
-8
19
-40
-38
20
5
-21
-14
30
-45
-26
-29
-16
5
45
-4
8
28
-2
-54
-29
74
-6
39
1
-91
45
46
29
-35
43
-62
-26
2
12
-13
15
-75
17
-58
-37
-33
27
-4
22
-8
-37
-47
57
58
43
41
-17
12
-29
26
-26
88
1
-1
-68
-44
-39
39
27
-3
-29
6
-16
-28
-20
22
1
-10
-24
-26
36
-7
36
-59
42
16
52
-5
-30
40
97
33
-9
-7
-46
56
11
-2
-10
-36
-79
-1
-106
-4
6
-109
-11
-19
20
-3
-1
65
44
60
19
18
29
33
40
-50
4
4
-74
4
-40
-26
-12
-8
-4
-21
-20
2
-19
49
74
27
-15
-44
7
2
-57
14
-18
1
50
54
-2
26
-28
-12
9
17
-39
-10
27
0
-35
25
-31
25
-60
19
5
64
18
20
-54
2
20
29
15
22
57
12
-28
-15
-30
7
-20
44
-17
4
31
41
20
30
-1
59
15
28
41
6
-11
-42
36
22
-34
-5
-6
39
4
-41
16
86
-5
-21
-17
-24
-41
13
-47
17
-5
17
-33
21
-66
-17
31
18
-21
-5
-1
-17
49
19
51
13
-43
-15
5
-37
13
-3
5
-23
-11
21
-13
7
-59
-18
30
16
-21
36
-28
36
15
38
-4
38
-67
0
-7
-14
4
-8
7
-22
20
-18
-32
-20
-12
-2
2
12
-2
-47
80
6
6
-58
33
21
74
35
70
38
7
120
5
-22
22
47
-45
27
-3
-25
21
-27
-21
34
-5
-6
24
21
-14
40
37
-3
-1
-11
-25
9
19
-47
-35
-10
-11
-62
44
73
47
-89
29
10
-20
17
17
65
-5
21
-5
33
-28
19
13
21
56
63
-18
19
19
10
-5
-41
-77
-40
2
-9
-24
43
-9
34
-57
-14
-29
-34
18
-50
4
-51
12
-35
30
7
10
45
82
55
-27
-47
-38
-16
-8
1
-8
-40
-8
-15
-54
5
-57
-7
-40
70
44
-6
0
-25
-48
10
76
1
7
16
-6
-59
-32
5
67
127
4
24
-16
14
-3
15
-8
0
6
-18
14
-23
-11
-50
-57
-27
-3
-32
2
-26
-11
14
2
46
35
34
13
-22
-24
-37
-53
-5
1
-35
-2
-58
-26
30
-64
14
39
-50
25
-41
-42
23
17
-46
45
4
-30
14
4
7
77
-23
5
-1
29
-20
-10
-93
36
-29
-11
29
-31
-20
-7
-31
-31
-3
-44
18
0
7
-29
-20
6
7
5
14
17
8
31
9
12
-16
6
10
-12
6
-3
-3
-3
-8
5
49
2
-5
-1
-3
-20
9
15
2
-21
-5
1
-7
10
-4
-5
-4
-14
7
-7
-26
-65
11
-6
-15
-3
127
-45
0
14
-11
-8
7
8
-12
4
0
2
-23
-3
-2
1
7
-4
31
-17
24
-17
11
17
-3
14
7
-1
-10
7
37
-3
1
-3
-7
14
10
53
-1
-3
8
-5
-14
37
13
-11
7
6
1
-17
-6
6
-13
12
-14
22
-3
9
-24
2
-3
10
-15
7
-2
-23
7
5
11
-8
-12
-2
-19
-3
14
-12
-9
-8
-19
14
2
13
-2
2
-16
-9
3
-6
-9
6
-4
-6
-9
6
4
10
-15
-20
-19
10
-5
-15
-1
8
-15
6
-1
-23
-7
11
-8
4
-13
-13
10
-13
0
-4
0
1
7
4
12
-29
-2
19
5
0
14
10
16
-7
4
0
6
1
-27
-1
-1
-9
-35
-5
31
-6
3
-4
-17
2
-8
-3
0
-12
-9
13
10
-8
-36
-3
-8
3
-3
-4
-20
-2
0
17
4
8
6
-11
14
10
0
-30
-1
13
7
-3
0
5
4
-5
8
5
2
22
-3
4
-7
-3
8
11
4
10
21
12
9
-20
38
-3
2
3
-10
3
-10
-5
-7
39
-11
13
-15
21
6
-23
36
60
19
0
5
-12
40
-31
-12
31
-9
11
1
-31
-49
-15
12
1
-45
-37
-8
14
-28
42
23
6
11
-43
-14
-35
19
28
23
-8
-19
36
-39
-9
26
-1
33
-2
-76
-45
41
16
76
21
23
-12
-14
10
22
-25
-27
5
-33
35
21
-41
6
-4
3
-5
-15
3
3
2
-69
66
-10
-4
31
-2
30
-4
-20
-26
27
-33
-11
-12
-48
-28
127
27
-8
17
10
-10
9
-40
-42
19
-2
15
-38
10
14
-9
-10
30
-27
46
0
-12
-1
-21
11
15
14
-47
-40
-19
-31
25
24
9
-28
-23
-17
29
-21
2
-5
-3
-18
-25
-14
-59
15
26
11
-3
4
-2
21
21
45
25
-59
-11
14
-11
-11
-9
25
5
5
-25
11
-16
-11
-21
1
2
31
-17
-60
-27
17
18
11
14
14
-75
-29
18
-20
28
-11
-5
-3
3
38
3
14
-35
-2
4
-28
-19
-34
12
-2
27
24
1
-6
-6
15
-32
-10
-1
10
1
-41
-4
-23
39
13
29
-36
45
19
-7
-18
24
-29
-16
46
-19
23
-50
-24
69
14
2
-24
-34
16
-58
-57
107
32
-22
5
-34
-6
-15
-30
9
3
41
-28
26
-12
22
30
8
15
23
-6
14
-10
26
-33
-17
-25
45
9
-39
-6
-30
45
-16
-17
10
4
34
48
45
-28
-61
-11
31
53
10
6
-36
10
-24
-67
18
-20
-5
18
19
-21
24
-6
13
33
2
29
-110
14
10
-6
-10
-25
1
-51
-39
48
3
84
94
0
6
21
11
-4
-6
-44
34
48
40
10
12
52
3
-34
0
26
-35
-45
15
87
28
13
22
47
3
17
-57
-15
-1
-22
17
44
-7
-19
15
0
4
70
-17
2
11
33
-20
25
9
28
-8
84
21
-36
98
-10
48
-19
3
-47
9
36
25
-7
3
37
-2
0
5
30
-11
37
39
-8
123
9
-18
52
-19
46
19
-10
82
-1
-21
12
16
14
13
16
-1
-22
16
19
-18
46
2
8
-1
-11
34
-18
-68
26
-33
-49
51
-8
-18
20
34
20
-8
-9
51
17
34
8
-43
49
2
-17
-39
18
1
-14
17
10
35
-30
-5
-6
11
1
-1
9
-13
-12
-37
6
-20
18
14
17
37
54
-33
-37
14
58
-93
-22
8
-25
29
48
-36
33
-22
1
-17
-28
28
-21
32
8
28
-127
-23
-22
21
-53
-38
12
27
56
-26
-10
41
112
-10
11
4
-41
-47
-77
-42
-15
-17
-9
19
28
40
22
14
-18
-12
4
58
7
21
9
-19
6
-34
53
7
-12
-29
-3
-26
6
-42
14
-28
4
11
-21
7
-6
-35
4
-12
-50
-48
2
4
-15
-1
-39
-26
15
43
-26
17
-11
22
-71
-16
17
5
-10
-27
28
14
-13
32
-2
-30
21
-11
33
-5
10
25
6
16
-10
8
11
20
14
-21
0
24
2
15
7
0
-30
-127
-27
6
-4
-32
16
26
19
-5
-5
72
10
-18
7
-53
-5
13
4
-21
-4
-10
14
-12
-4
20
6
12
-3
42
19
37
6
-3
14
-4
-4
-15
7
8
4
6
-19
-16
42
-7
16
-4
-6
26
20
9
15
-34
-50
-5
21
11
-52
-6
-13
-30
-18
-56
-49
-10
-25
-22
-6
9
42
22
76
-1
-4
12
-11
-3
-37
21
-22
16
-22
-13
24
15
18
-4
-3
-4
-17
-8
20
14
-9
26
-12
-8
5
-2
-7
-9
-7
-11
-5
-1
-2
22
4
-5
-6
-16
26
-2
81
15
-11
-17
24
-25
-2
23
-33
-22
4
9
9
-20
-27
-9
5
-16
0
36
14
5
-21
-27
31
-52
-7
-5
-1
-31
-21
3
9
18
-2
11
27
-3
19
8
-25
11
-10
-4
-39
10
16
4
12
3
-11
56
-22
-7
17
12
-35
25
26
-13
-10
-13
13
-3
-15
-56
21
-16
-22
-22
40
8
9
-30
-1
-21
19
-17
-40
-5
-40
15
6
2
-37
5
10
0
19
13
8
4
127
16
-11
-10
1
10
23
-35
18
21
16
13
-1
47
67
-17
26
-46
-26
10
-15
18
24
2
-1
-24
-19
-20
35
20
-59
-40
22
-4
31
11
15
39
-8
-5
-37
-13
-4
-8
5
7
-2
-15
28
4
14
5
-35
-18
-10
14
15
17
21
22
12
-9
23
-6
1
-22
-17
15
0
27
16
18
8
66
-18
-23
7
56
20
21
5
23
11
-50
-21
28
-26
21
4
-31
-14
15
31
57
-41
63
-3
2
-32
25
-62
22
36
3
23
8
-17
-17
-9
-1
-4
-11
-46
3
-13
-2
7
16
-24
40
-21
19
19
-19
-4
2
-21
-32
-28
-3
-7
-46
18
10
11
-2
24
-22
29
-15
5
-39
-19
-22
-25
-23
-32
7
-18
12
20
-6
46
36
11
11
-48
-28
-63
16
17
-57
21
4
19
11
-11
26
-12
-22
-1
36
-10
-14
-12
57
-61
-8
-41
-23
-37
-37
48
5
-8
-3
-50
-23
27
24
12
22
-12
41
-49
-11
-26
51
-4
-1
7
-18
-55
-16
9
-8
9
17
26
16
-2
-2
7
36
0
-1
-24
2
31
-5
8
-17
-25
-4
-18
59
36
-44
-47
1
-10
0
-15
-2
-14
-17
-80
-18
0
8
-10
6
-7
-23
9
-12
-20
38
-3
9
73
12
8
11
49
-31
83
36
-12
35
-67
-12
28
-5
-26
9
17
-22
-46
74
55
36
-17
-47
7
38
68
16
-1
-24
-33
-31
-12
-13
64
32
38
67
42
-13
80
27
-22
2
-2
-4
8
79
21
-36
30
-9
-30
38
-107
-65
36
22
4
-41
-46
7
29
13
-118
52
25
14
35
11
-77
35
53
24
-19
24
60
50
-68
-3
14
-34
-55
-7
10
15
-7
3
10
-60
41
-16
-14
-38
-14
127
6
-6
-21
33
-7
-37
-5
-22
8
0
-14
92
-33
14
35
-51
-12
-46
-32
-11
-18
20
8
16
-22
42
-3
-44
-12
-74
-2
-122
42
45
18
-49
25
-27
37
5
-21
-5
8
-39
21
44
23
6
5
42
-59
-19
25
-4
18
33
-23
36
-20
25
-22
-17
3
7
-17
-27
-5
16
-3
-25
67
-8
-20
-2
12
9
-8
52
22
-12
41
-27
5
-42
10
74
-7
-20
-52
-23
-35
10
38
40
34
-24
-42
-31
0
0
-6
40
-2
40
19
-16
-20
39
59
55
1
-95
80
6
20
45
-12
54
90
-7
-27
-15
-37
53
-59
-34
-52
-11
-49
17
-12
95
39
26
-85
-22
-13
-49
-12
-60
-28
1
30
40
0
9
-61
-22
95
14
-13
4
17
-6
-39
-11
-52
126
9
-32
5
-16
-28
12
-48
-38
9
-73
47
39
-46
2
37
-25
-10
-19
-4
-2
-48
-63
53
40
31
36
7
12
0
0
43
29
6
-4
2
-10
2
15
13
-78
-21
-14
-47
76
17
34
22
22
64
-96
40
42
27
19
-49
8
42
17
-3
-36
-2
-35
89
-14
-28
29
40
-6
-10
-78
10
42
58
-33
-19
-50
1
21
27
33
1
-31
-12
11
70
19
-49
-2
-5
-36
0
-17
16
93
67
-33
27
-50
-65
-55
0
5
-57
-22
-9
-7
-25
73
-10
-67
-38
12
-43
38
11
29
-25
-7
-115
-13
22
-38
-17
20
49
-59
-34
-4
-26
-51
-46
48
-26
5
2
-4
-27
21
-17
-30
37
-44
36
11
-17
101
4
127
59
22
-55
-2
32
-28
-12
6
-31
-23
-40
81
-62
-36
36
-37
122
-22
-4
40
14
16
12
-48
-31
-8
-15
30
-4
2
-4
-32
-21
17
-37
-10
30
12
-26
-10
4
-23
-51
-12
-16
29
-25
112
-3
-1
42
-9
36
-26
40
-117
0
-13
44
-15
35
42
21
-30
-18
-60
-13
19
-11
5
0
-39
32
-44
-31
-18
1
9
-17
-8
-41
-46
-8
2
72
-62
-27
-53
16
-4
35
-28
-16
-17
-59
3
4
-62
-15
-28
0
17
-1
-49
-23
5
10
-11
-20
-20
-16
-19
19
-5
-21
-1
-11
-45
43
24
3
43
11
-23
15
11
-7
-88
21
25
0
-2
-57
5
-2
15
-59
0
-9
10
9
-3
43
-22
14
-12
-49
-2
0
72
16
30
-24
6
-47
7
-9
-10
-21
49
-4
-32
-11
76
-4
76
27
20
23
14
-14
16
2
-18
27
18
14
-9
-13
-3
-17
-27
-12
-10
-26
-38
-12
31
-34
-26
-42
-40
-18
-12
-17
7
2
53
-15
0
5
117
22
34
9
-9
29
-54
16
-3
19
-23
-38
-21
-6
-1
70
44
14
-18
-50
-54
-15
34
-51
-17
14
-43
41
14
-7
-2
-59
69
-2
-24
0
13
-55
-5
15
81
4
8
-35
50
5
26
14
10
-5
-79
-4
20
-15
-2
-28
-17
-26
-7
-1
-18
-24
-5
-33
-11
-34
-16
-11
36
19
-62
38
7
14
-21
-31
-29
-52
-16
12
-7
42
-2
-13
-21
5
-45
-44
31
-55
2
23
-42
10
3
-11
-33
-18
-4
-36
11
-37
-14
2
65
-36
-16
-36
-16
-35
-16
45
-13
-69
-9
2
21
17
-40
47
17
-19
22
35
8
32
-34
-3
5
23
-53
95
48
-19
-1
-19
48
5
-7
22
9
5
48
0
8
38
-126
0
-90
-42
-11
30
-97
-3
-6
5
-30
-127
1
0
-12
24
-18
35
2
9
-24
-57
15
7
23
-17
37
-37
11
-7
-23
26
23
8
19
20
-15
-6
-84
-39
-22
-36
74
-16
6
-8
-6
9
10
-9
5
-27
-16
-39
3
-26
-64
41
-20
-68
42
127
26
-50
-82
33
-104
-36
-30
4
37
-10
-49
36
-20
-25
1
-16
-37
-28
-43
-48
-39
43
-60
-53
-18
95
35
-54
28
32
-61
7
10
79
102
26
39
-54
-1
-38
12
45
-29
-2
8
40
72
14
55
10
-14
-15
-49
21
11
17
46
-73
41
-5
-30
-43
-25
-38
-111
12
8
0
101
-3
41
5
-20
-56
-42
16
-49
-17
-6
80
-80
-16
-55
-30
-7
-13
-22
13
10
57
-46
-39
-24
12
-3
23
13
31
3
22
-26
46
67
-75
3
-21
-19
1
-1
-26
-67
-11
-1
-13
72
-41
-32
-46
-25
26
69
7
13
21
9
22
29
3
50
-14
29
3
23
41
-86
-13
-114
-2
60
-50
41
2
15
-11
0
-39
39
12
-4
23
-4
7
11
11
92
16
-28
27
-21
8
-19
-55
-44
26
30
-11
-14
19
-7
-28
0
-27
30
28
9
28
-3
56
15
-4
21
4
2
-8
-25
1
21
17
6
-18
-26
70
-4
-35
-33
-10
-67
-6
-69
-18
20
17
6
24
31
29
-20
5
-28
-16
3
38
28
-40
-4
-61
-4
-37
11
-8
-8
-6
-16
3
12
6
-2
-18
37
-9
32
-5
-28
126
5
4
-4
7
-60
-5
-23
-10
43
-15
-7
-23
37
4
-7
41
45
-1
-26
3
46
18
-70
-24
-57
55
66
24
-28
-9
-27
17
-32
-61
-10
11
23
-26
-51
42
25
14
-1
40
33
-4
-22
26
33
-36
-6
31
-3
20
-39
38
4
-65
9
-33
-25
14
93
3
-16
-46
4
6
-67
-10
31
59
-9
-34
80
-30
45
-29
59
-18
42
43
37
87
18
-36
-105
29
-1
20
9
0
71
21
-57
-30
9
-24
30
-1
-44
-41
7
57
6
33
50
19
-3
-54
37
-13
-3
-47
1
5
46
3
-7
22
-25
1
47
45
-9
-25
-29
-5
2
-18
42
-7
-21
-10
20
-14
-5
20
9
20
-55
25
-7
21
7
-25
-29
-10
66
26
41
-3
10
21
18
-115
24
8
-68
-6
24
-60
-43
3
6
-2
27
37
-6
6
-19
-7
33
25
4
15
-41
18
69
-127
92
40
33
-16
-7
27
3
-30
9
-17
-15
27
93
-4
-37
-40
40
6
43
27
24
26
9
-25
21
-27
-96
-8
55
17
-62
-27
-21
-2
8
-7
-27
-59
-12
7
10
5
-3
-35
28
12
1
14
40
-12
-11
-11
9
-27
57
29
-13
-15
-15
4
-3
-6
-12
0
4
-116
1
-4
2
8
-25
-4
-4
5
40
11
3
1
3
4
59
-5
48
50
15
-5
-22
-31
28
-13
4
10
38
-13
-5
-6
-3
26
0
-5
-8
39
34
-104
-21
-29
-16
13
-30
36
7
-19
-2
-44
66
-5
18
-1
-28
-26
-9
35
-17
-9
15
15
-2
-23
-4
-10
19
21
-9
-13
-11
13
5
23
-8
-6
78
9
19
-127
-48
-1
22
13
-14
6
-14
-4
-10
19
12
4
-5
-9
15
-26
1
20
9
2
-1
-18
17
-8
23
1
-11
-8
6
24
-1
-12
-12
-15
-12
-5
16
0
5
-25
2
7
12
15
-1
10
-18
-11
-12
16
-25
-7
-9
22
-7
25
-2
10
116
10
6
17
-3
-26
-117
-6
-82
2
-22
10
12
17
-12
-24
-48
1
4
60
23
-3
-5
0
7
1
-12
8
-16
-27
-31
-24
26
7
3
-12
109
1
10
60
-11
10
-13
25
1
-6
-40
-4
19
6
-3
-18
9
17
3
-8
20
-13
-2
-1
-6
13
-9
19
-28
-14
6
-14
-16
-41
-1
19
47
15
6
9
8
11
75
42
-7
-16
-10
-9
-20
7
45
-25
0
0
-8
-12
-2
-8
8
-2
16
-30
53
13
-8
17
-32
0
-12
-12
-8
-47
-3
-4
-22
-25
36
20
-20
-20
-9
6
55
-9
-12
-12
7
-30
2
-1
-9
-18
13
62
22
23
-41
17
-8
-36
18
12
35
18
15
-4
-45
15
10
48
9
11
-5
39
37
-19
24
-31
14
-38
-127
28
-8
65
11
45
54
-49
-4
15
4
-19
1
-38
-62
7
-70
50
-12
-23
-32
44
15
-12
-46
-27
-12
-14
-25
-65
14
-13
-44
-2
-58
16
16
-9
-41
-11
-2
-22
-37
7
-92
50
-22
5
-65
50
-12
4
-7
-31
-6
-8
7
-10
-7
27
37
-6
65
47
-33
-3
-61
-11
-10
-21
6
36
5
-23
-48
-5
7
-30
-59
-27
-10
48
15
-51
13
24
-8
-94
13
-3
-32
37
22
-11
-3
-10
64
32
54
-13
-21
-42
16
-6
-26
57
-9
-15
20
-23
-8
-37
16
20
-44
25
21
-16
45
22
-31
24
-37
1
-43
0
11
29
7
28
6
49
18
8
6
15
51
-30
72
15
-25
-53
-2
-9
15
-56
-18
6
-12
42
41
-14
1
-12
22
-38
2
-57
12
-1
83
100
16
-10
9
38
-93
-43
-6
0
-14
-29
42
-7
-10
-10
-27
-5
-2
16
-57
21
10
-13
8
-2
7
3
7
6
46
0
-10
50
30
61
6
22
26
9
21
-38
18
-5
52
-28
11
-32
1
-14
-15
-60
-17
61
-38
-18
-78
33
-59
-34
23
-24
48
-3
28
-22
68
34
8
17
9
14
-43
-14
26
27
-13
103
43
0
0
-37
63
22
19
-16
34
-49
-5
71
-81
53
-96
42
-38
-17
16
30
-42
31
-16
31
0
-51
6
24
-29
-10
-110
-31
-51
-35
-72
70
0
-23
-12
-13
-27
-31
12
68
45
11
-5
47
-46
49
-7
-22
6
52
-49
11
120
4
18
-28
-38
6
75
-7
-12
12
-37
-41
-91
-51
-15
32
31
9
102
16
-18
2
85
-13
-7
36
-24
13
9
-18
59
-1
5
2
-3
-42
-62
-34
77
-17
-4
-5
-33
27
10
-6
-1
-19
9
-18
-6
-15
56
58
-27
20
9
-70
29
50
6
-15
-31
14
-13
36
0
29
32
7
44
-8
3
-41
37
54
7
-3
-4
-9
-8
-92
-22
-35
-85
-34
-21
9
33
0
31
60
-40
4
50
-54
-36
-58
11
22
-20
0
-22
37
32
15
-20
-49
58
-7
26
81
-28
4
51
17
14
20
-31
-73
-15
29
85
-22
51
31
-67
-33
-42
-91
66
-32
23
-23
-127
-14
-11
1
38
29
-14
84
-19
-10
-17
-76
8
-9
14
-47
-10
41
12
-59
16
-17
29
-28
20
-51
97
-8
-32
1
48
36
-30
57
-15
-12
-2
66
-6
-11
-5
-11
66
-10
-16
-32
-51
-17
-43
-36
35
-69
51
-63
-45
-104
7
31
52
-86
5
12
47
-72
7
13
37
22
-35
45
50
11
12
0
-12
10
-42
-17
-16
-5
-22
4
-13
-22
-25
-35
-39
-27
-45
57
105
-4
38
65
-11
47
-34
9
-62
-27
-15
17
4
78
114
-33
-34
24
-37
46
25
78
10
0
-17
5
-18
-32
-46
-58
42
-54
14
17
-65
29
26
74
109
-31
49
7
-13
-100
47
88
72
108
15
-20
-10
-37
25
-120
36
-1
-48
11
-28
49
-18
-22
29
-82
30
-57
67
-50
-4
-40
-37
-59
-82
-29
57
27
44
-68
-26
-29
76
-52
50
9
-16
-47
4
-51
14
19
-15
36
-61
27
55
33
14
-5
6
-49
6
16
-3
17
-124
16
-61
-4
12
49
-84
39
-2
-24
84
-50
-37
-4
15
-98
0
15
-79
-46
76
14
-12
20
5
36
3
14
43
11
-2
-2
-3
20
0
-24
37
-37
-78
20
1
-4
-84
-46
-16
-30
10
11
16
-50
17
-41
16
37
-6
10
34
-21
11
20
-112
-32
17
-27
-12
-27
-107
49
7
-23
-14
-9
-29
-28
-29
31
-77
-26
2
-23
19
11
-77
113
-1
90
-101
102
-45
19
14
-121
-19
-127
32
-50
46
-85
-36
-6
14
72
-31
-45
-15
-15
-96
-8
16
-54
54
24
-27
-8
58
20
-8
14
-36
98
12
-41
-1
18
-23
37
-44
46
-64
-16
14
-30
-47
4
-36
-41
-26
2
-11
-7
36
-36
97
-19
-45
12
-31
29
-17
12
0
-6
-15
-29
-50
-6
-39
105
28
-32
8
-47
50
61
-20
43
-37
-6
2
17
-15
93
9
-24
-81
-29
25
6
-68
43
48
-33
-43
-30
-13
43
43
1
4
-1
45
48
33
-13
30
29
3
-14
45
1
-40
-60
41
52
29
11
-13
24
31
-56
46
2
47
-91
25
-1
-35
76
-33
-4
-67
-39
96
-38
-16
1
-3
-65
20
33
30
32
38
21
-4
-30
-23
-43
2
-57
-40
22
18
-42
33
-3
4
-57
-6
-17
9
26
-8
-46
40
-5
-8
-4
-17
119
-7
59
17
1
53
-70
-3
-23
-40
-45
58
32
-37
-30
37
47
-4
0
127
14
44
-63
-26
9
-11
-10
-27
18
-18
9
-80
5
100
26
54
-14
103
-7
12
56
-12
-5
7
-45
-63
-17
24
-84
-1
-56
-31
2
4
-28
-33
19
8
-14
8
27
-72
44
52
-45
-10
-41
2
-6
6
-7
-17
-7
-12
40
-14
-17
-47
0
-104
19
-25
86
-10
27
-32
-3
31
-24
20
12
23
1
-51
-28
-39
-31
29
41
-12
-41
-71
-2
-61
73
36
-82
46
31
-15
-16
46
46
-23
-21
25
-15
-53
-46
-6
-13
51
-12
-37
23
-15
-5
55
-111
47
-36
-46
29
58
-28
81
35
-62
-17
81
43
-57
-44
73
37
21
-7
41
35
-56
-94
-17
18
-42
-53
-45
-25
-22
-1
-45
-26
15
29
-72
30
-89
24
6
-17
36
-26
56
39
-60
77
-48
-14
-7
-9
-14
-74
22
36
16
-46
-5
-32
5
3
39
-80
35
-101
15
28
74
96
-31
-2
12
24
6
28
0
-49
-10
35
-21
22
13
104
1
-8
-22
6
23
-70
45
30
-11
49
-20
30
-3
31
-39
-41
125
-38
87
127
49
74
-9
-42
46
-26
-115
81
29
25
-52
25
35
21
-76
6
-43
43
-9
72
-25
31
21
24
-117
-15
50
17
28
-41
-88
-12
47
17
71
-63
29
59
-35
64
109
36
-18
-31
22
8
11
-64
-7
-63
41
74
-20
15
-25
84
0
-10
-54
31
5
-15
30
35
17
58
19
19
36
-7
10
8
-9
-57
-97
-78
83
-64
48
76
55
15
-8
-13
55
9
106
67
-18
-47
47
-15
38
13
-18
62
52
1
-21
-30
13
66
-61
-11
18
-96
-8
-51
-15
-34
61
-25
-5
24
-9
-25
34
30
0
7
-25
-36
-45
-7
15
-39
44
-40
-14
11
-17
22
-38
3
-22
26
-20
11
4
18
4
-80
1
-36
-16
1
74
2
31
-23
-6
-6
4
-37
-39
-12
4
-15
-67
13
-19
21
14
2
-115
-37
19
11
15
-6
46
19
14
-14
-19
48
-14
-21
-15
32
66
21
-60
-15
2
41
31
5
23
-35
5
-5
-37
-76
-26
5
-35
-67
18
-21
88
32
-39
-28
107
1
2
14
11
35
2
1
6
87
-21
3
-1
-36
20
-1
-19
-5
35
1
-8
51
-23
38
-14
6
28
-20
6
13
-8
22
-34
7
-14
3
-34
-58
1
-9
-28
-15
-8
-24
-65
-30
2
-16
-7
3
10
10
-23
-21
4
-73
-9
8
8
0
11
-28
-52
3
-42
38
15
4
42
-10
-10
-15
-28
-51
9
-49
-1
27
35
15
-6
-4
6
-1
-8
-17
2
-7
-59
0
0
-18
-20
34
11
-3
-11
10
35
-107
-75
87
36
42
-4
24
-9
6
-34
-4
25
-6
25
0
20
20
-28
-85
-20
60
4
59
-47
21
23
-41
-9
31
-5
14
-48
-9
-59
16
4
-6
2
-6
22
32
33
-31
1
-42
127
-25
1
45
38
-41
-10
4
-13
10
-29
43
16
-45
-12
-63
-5
-21
-3
-6
47
-3
-9
10
41
51
3
-22
3
24
-33
-37
26
-74
-30
34
-7
-11
54
4
2
-5
-11
-6
0
19
13
13
20
44
-2
-47
-39
16
-18
7
4
-17
-10
-25
43
14
-2
-3
-18
21
21
-21
22
2
-25
-40
45
-3
-14
0
9
-89
-40
0
6
31
40
-95
3
-8
-11
39
-99
22
27
7
11
76
16
52
-49
-27
-24
14
-2
53
15
-5
13
16
-12
-36
9
29
6
41
-19
-8
0
82
0
-61
47
-20
-52
18
-10
17
23
-60
15
4
1
52
67
-25
4
-27
-10
67
-7
14
11
0
45
1
26
-9
54
21
-4
18
5
-22
29
23
-15
-40
53
41
50
-2
4
-36
-16
-8
-3
-32
-4
-32
58
29
27
-54
17
-11
-24
19
-14
24
62
66
-31
28
-6
-20
88
-22
13
-11
22
1
-53
-7
6
-16
18
20
1
-18
53
-28
-48
-8
-43
5
-21
3
23
-29
56
-4
12
1
-15
-3
26
-10
22
-2
48
48
-24
6
54
9
-35
32
4
-21
-13
-8
2
-9
7
-2
11
17
14
12
-52
44
13
-21
-49
17
20
-11
24
60
-16
-20
-93
-39
-11
-16
7
34
9
35
54
-20
-53
18
0
-23
37
10
-21
-15
-63
-55
25
-4
-10
-37
-11
127
45
19
-8
-5
1
8
-24
-8
11
-45
51
-6
-10
11
6
18
-4
1
-14
51
33
-15
-21
-32
-20
-9
-41
6
9
-9
50
-11
-3
39
-91
20
-20
6
52
6
-2
9
-13
-7
-7
-10
-24
19
-26
18
-5
25
18
-7
-57
23
13
-62
52
0
2
-17
-16
3
-18
-1
17
25
0
35
43
38
-35
1
-26
38
-2
8
36
8
-13
-2
1
66
14
-2
13
-39
-15
26
16
-17
16
0
-8
-26
-8
1
-4
-11
93
10
14
-77
-11
-31
-25
-4
12
-3
46
51
39
-7
-4
-26
27
-33
39
-2
-16
9
-22
23
7
16
-33
-28
11
-33
14
8
79
1
16
-36
56
-16
9
10
-8
-60
-4
-11
36
12
15
2
-13
91
4
1
-3
-11
-26
12
17
-1
0
0
5
-3
21
12
-7
-12
12
-19
-14
23
-15
6
17
12
21
2
19
-7
33
-29
-12
2
7
-3
-17
25
8
127
15
-12
-9
13
104
26
-9
-16
13
65
-23
6
4
19
3
30
15
22
-12
26
-15
19
41
114
-38
-10
-35
23
12
4
55
-1
-26
-7
24
70
-48
-18
-22
8
31
16
-33
27
24
-28
-16
2
-8
4
39
5
-33
18
5
1
56
-2
28
44
8
1
42
-4
-7
34
-20
-33
-35
2
41
19
49
-13
-20
91
13
-33
33
-7
14
-17
-57
37
27
42
31
-19
-44
-52
8
-10
20
24
39
25
-113
52
8
31
29
-93
-8
8
-63
-28
-18
-8
-60
-40
7
0
17
-19
56
19
-24
-23
-6
-43
-12
-53
-22
-3
45
7
-39
22
15
27
46
6
11
14
46
-3
-1
-2
-46
52
43
34
-43
1
31
-47
-11
1
0
6
50
27
24
-25
-11
-20
16
47
35
5
-43
-25
-69
39
-4
-26
-30
-37
-26
29
7
13
19
-5
33
14
50
-29
7
25
14
6
24
-4
4
-31
40
2
-9
94
-3
-4
-6
14
37
38
-9
-4
46
33
17
-15
20
14
37
-26
-9
88
47
6
14
63
-11
74
-5
10
30
-37
5
5
-2
30
-20
-41
-127
10
5
5
38
22
-8
-18
-4
-2
-17
39
-5
-4
35
16
20
26
-50
-5
28
14
39
-9
-24
28
27
-18
91
10
110
-30
5
1
-65
-10
-21
16
-52
8
-9
10
27
22
52
24
-9
40
31
28
-34
27
-36
15
-43
22
6
-44
-11
31
18
37
-26
22
14
-38
7
-41
-43
-45
-36
-27
4
3
-24
0
-2
-20
-3
9
-23
-49
27
0
-10
-17
33
1
-8
-8
-33
-39
41
-40
-32
-29
-23
-22
17
-16
-7
16
-1
31
-6
41
-11
41
-13
-9
-13
20
22
25
19
0
19
5
-29
27
-1
42
-57
-23
-17
-27
-23
36
-10
-49
-21
-65
42
2
-65
14
-20
-60
-20
-8
-37
30
7
9
-18
-17
27
25
-63
-50
41
10
-127
20
-11
54
-18
-24
-104
-34
36
-15
38
39
-10
17
34
12
0
-45
37
-34
65
-23
-19
-9
-8
65
18
62
-55
0
20
-26
31
-32
-70
20
16
-42
20
-2
14
10
8
45
17
-93
-4
-21
-46
-33
5
-50
-4
32
50
-57
27
36
21
-20
55
42
-33
30
36
-8
-87
-7
-22
44
-43
-11
45
12
-34
-37
27
-87
36
-105
-12
-14
30
-5
126
-16
-1
27
46
49
-16
2
44
-60
-7
2
-44
38
-22
27
8
-28
10
34
-28
-10
72
25
14
61
18
54
25
17
-32
8
-30
10
-30
-37
-40
-13
-3
16
-12
26
104
23
-63
-1
18
-23
19
-10
-60
15
18
-19
30
-10
12
-37
-24
42
10
32
-16
-19
9
53
18
-26
-52
-7
-6
1
13
-28
-74
-10
-9
-17
-15
52
50
8
-22
-7
-1
-80
-34
19
27
9
15
-22
7
40
24
-3
28
13
-4
-21
8
-93
2
-27
-20
-41
-18
-14
11
18
19
48
-7
15
21
-39
9
-23
-35
18
-8
25
-25
93
15
-44
-35
-54
-13
20
-26
24
-51
-19
-37
-31
-40
-4
-61
-7
-31
-16
-34
16
1
-11
3
0
55
19
18
6
37
-45
-15
13
9
17
-9
-12
15
7
6
-2
73
-29
-15
-67
18
2
-6
-21
12
-11
29
17
-37
-7
-19
-22
-37
17
-15
-3
-38
13
2
13
-59
19
22
1
13
-10
-16
-8
-14
-9
33
-20
14
-23
-22
-20
7
-33
27
-3
-33
21
-2
11
-31
9
33
-32
-16
2
-5
-3
17
22
-80
3
8
-7
-15
-22
-17
10
-10
23
0
-35
16
4
-17
55
11
-17
-7
-21
-11
8
-18
-16
-31
31
-58
17
-30
30
6
-10
-127
12
-11
28
34
-29
33
-40
14
-17
21
-13
2
15
-12
-19
16
-29
-18
0
-15
13
-4
-28
3
36
25
-15
-2
-14
10
9
-1
-21
24
5
-28
4
6
-30
-3
1
75
-2
3
-38
17
-68
46
35
-20
17
54
-18
22
20
32
5
8
7
-12
4
-38
12
2
9
5
10
-2
2
49
27
14
5
22
-19
28
-24
-30
-15
-17
-21
5
25
15
2
-7
-7
12
2
2
-31
-29
-30
-35
-8
-14
10
-11
5
39
-12
5
-30
-28
-43
37
6
-11
-4
26
9
6
-19
-97
-14
8
6
-24
-25
-22
0
2
0
-6
-84
-20
19
-4
12
-15
11
-23
13
17
-13
35
-35
-39
0
8
-22
14
-31
-8
5
2
10
21
21
-12
-11
16
-1
-1
53
-7
-3
-14
12
0
1
5
-8
38
-45
12
7
-13
28
-68
-4
-6
-3
-33
-10
-13
9
14
18
27
-39
0
-29
8
3
-35
-8
-1
-19
8
6
-71
0
-16
-3
-42
-6
-10
58
-3
-30
37
13
36
37
22
-5
4
34
12
38
-11
13
11
8
-77
7
-104
-8
0
2
-22
1
20
105
-8
-2
-21
-12
0
-22
30
29
2
30
4
6
16
5
-11
11
-49
22
-21
27
-8
8
4
-54
-16
18
-19
-12
-23
66
-26
13
-32
-1
31
22
-1
-19
-27
-7
15
20
-23
-23
17
-73
12
-12
11
12
102
30
4
8
-37
-10
-30
-61
13
-17
-14
-16
-13
14
-15
34
61
-4
20
-26
-56
-10
51
-8
-50
-1
42
19
-2
-1
-15
-21
-19
-47
47
-15
-19
-14
80
-75
6
80
40
-71
-19
-21
-14
-17
-41
-62
-41
-16
0
-20
-18
-20
-9
-127
39
0
27
76
29
3
-27
-5
13
-10
62
53
29
-19
7
-3
-28
19
26
1
2
0
-6
-25
29
18
-103
18
54
-9
5
55
39
-39
-1
-28
-8
15
17
-34
10
-36
-20
77
24
-23
-8
9
12
-19
-3
-20
33
-28
-32
20
-18
-18
76
-21
-44
11
21
-27
78
-11
-60
-29
16
31
-15
-16
-16
-31
60
22
-17
21
26
-28
-35
66
5
0
-33
-10
3
1
26
42
36
68
127
-6
8
-10
20
-52
5
-27
7
32
61
14
7
13
-23
55
18
-12
-44
30
18
-25
-15
10
-14
16
15
70
-65
102
63
-11
-6
-21
30
-55
71
65
43
-52
-41
-55
2
-10
-30
20
-1
12
-15
44
9
5
22
-4
-26
70
-29
-9
-31
-9
-60
-2
31
8
12
-15
-1
-11
24
-17
70
9
-37
26
-8
-10
-42
-15
65
-50
-25
-7
-2
-23
-18
-40
-37
0
16
14
118
32
-25
-35
-2
31
26
51
11
13
23
-40
62
13
12
14
6
-46
-48
-17
-39
25
18
1
12
72
-20
19
2
2
7
28
9
-11
61
-4
-45
-33
-28
77
25
74
-23
16
21
-25
47
38
54
0
31
-7
7
0
-5
26
9
7
-20
30
17
-5
24
-9
32
16
10
1
-7
16
18
14
10
-26
35
-13
-57
55
37
-19
-13
39
-50
29
50
-31
20
110
-14
-23
33
-2
-28
9
-21
-28
-24
0
10
16
-65
93
-21
-45
-50
-16
-62
-47
1
-33
23
-9
-1
12
34
-18
-29
21
55
-38
-10
-7
20
-25
-13
9
8
-9
-51
15
-3
-57
-27
-3
-23
-12
-39
-11
-5
-4
-6
37
48
-6
72
-22
5
6
21
18
-13
2
-9
-8
27
14
5
18
-91
19
-11
66
45
-16
9
-7
21
33
14
27
-101
-30
-25
16
-11
-68
-10
-11
-25
22
-9
-57
-2
-52
11
-1
18
-8
49
-45
10
19
-54
-6
49
51
-18
26
-10
-30
-20
38
-12
-12
-34
15
-50
-32
10
11
17
-6
28
3
54
13
3
-61
-8
-16
25
1
9
-13
13
-20
-35
22
72
15
-28
40
-1
3
-12
-63
32
-23
12
23
-44
46
33
55
45
-18
-1
17
56
25
-11
21
-11
-29
73
4
-3
23
-14
37
20
-39
45
-34
8
-21
-32
-20
-17
-38
-18
-52
58
57
27
-25
-14
0
15
2
14
-36
-53
-6
2
22
-17
-1
32
17
-74
-20
-63
-3
-3
-27
-7
20
60
22
18
-1
1
-2
4
-16
-21
-22
24
-3
-44
-6
-19
10
35
31
6
44
-2
59
0
-35
85
2
1
-9
0
24
-5
-62
12
-60
63
52
7
-3
9
8
11
-50
22
-27
10
-5
30
-6
8
7
14
-30
52
-8
-13
38
26
-52
-7
24
27
5
3
16
7
-71
12
-16
-15
-6
-11
37
-13
14
-7
-127
84
-17
-10
-11
52
6
88
-61
10
8
61
-15
-26
19
15
-27
33
5
6
-27
-43
-38
-1
-10
39
26
-14
59
3
-7
-45
74
4
12
-55
-39
77
-42
-21
-6
-13
-8
19
-4
2
-51
-35
-8
-17
74
-7
49
52
-50
-36
-22
-34
-19
-90
-22
-6
-1
41
-6
12
67
0
-53
-32
35
-29
-51
-67
-44
-20
-95
-16
-2
-38
-39
-118
9
-26
43
-27
6
14
54
-5
-23
5
20
81
0
53
-31
-8
52
17
-9
33
-8
35
5
12
15
-22
-41
13
-40
34
16
19
10
13
-40
3
-19
43
1
-14
7
17
37
39
-5
-21
54
28
5
28
13
20
0
23
6
43
-56
39
4
-1
-41
23
124
12
-84
-78
-8
-22
-91
51
34
-42
12
35
-40
68
19
6
-27
-101
54
17
-27
5
-13
17
-3
-79
-28
8
15
73
-6
36
53
40
9
-63
90
-77
-25
22
6
-5
-16
-7
-3
-32
-22
-43
25
-23
-127
-33
-5
-23
35
-99
-36
-53
13
4
-85
-60
-34
27
0
51
53
-21
5
51
-17
19
57
-14
-17
-43
-40
45
-2
27
53
96
-41
17
35
-10
50
44
7
3
-38
7
-26
-2
6
-76
28
-22
-5
7
36
-8
-8
-12
-26
-13
62
-56
69
3
-3
-8
38
13
-8
-16
24
8
-2
58
-44
20
-116
111
-27
3
-12
-2
70
-84
-5
-51
-12
3
9
48
16
-20
14
13
17
-53
-33
-29
43
0
-28
-6
0
-61
-7
-28
47
-15
-7
39
-1
25
9
0
-14
-1
68
-14
67
16
5
39
-54
-2
-20
16
9
3
3
47
-26
-19
22
0
-15
-22
-2
-45
-40
-8
-40
-38
-79
-16
4
9
34
-11
-13
36
-19
2
7
41
3
12
10
11
23
-35
-8
29
44
-21
17
-23
-6
52
-5
-35
21
11
-30
45
65
-112
-1
18
23
3
17
9
19
43
-33
31
27
-24
22
-21
-10
10
31
8
-43
-16
-23
-19
-24
94
46
5
18
3
-8
48
28
-1
36
-3
-26
32
5
-4
-18
71
-24
-9
20
2
-18
24
28
41
-15
-42
47
-6
26
-4
20
6
-30
16
0
-33
1
-3
-9
-72
9
40
-27
36
14
2
16
41
-19
8
17
23
-11
127
-17
12
-27
10
13
53
-60
20
-9
22
-34
-2
-17
17
27
38
-24
-40
7
-20
-40
-15
-19
-39
6
-13
-2
33
-14
20
16
0
-54
-7
41
-1
-8
-50
23
-8
-32
-44
-49
-81
-24
44
-38
-16
-46
16
-24
33
0
-32
-38
48
25
66
39
-16
-4
-14
83
11
-22
-11
-8
-22
66
10
7
-30
17
50
-31
-41
26
-41
15
30
38
-28
43
81
41
-17
-79
17
-13
-12
-49
15
-21
-15
-32
41
-25
54
18
28
-5
-48
-41
8
-13
0
31
34
-11
22
-45
14
2
14
58
3
25
17
5
13
-91
5
-22
77
-70
23
-12
17
-39
13
-19
-48
-16
-23
20
16
24
16
-22
45
-19
73
1
-8
10
5
-47
34
53
34
-15
-13
4
37
94
-53
73
0
-44
-39
-5
14
-38
-72
-32
-8
0
22
-56
35
-10
-2
52
-40
-89
-25
-10
-27
-46
28
-38
9
-6
16
5
-28
-11
-29
-13
-26
21
49
-15
-14
-14
-22
-32
5
-53
-13
50
36
-10
20
62
0
8
-28
23
-50
20
35
9
-17
41
14
5
-41
17
11
57
-29
-17
16
87
35
-26
97
-5
11
-3
-9
120
1
-1
-35
-28
0
-9
-6
-35
-20
-2
2
-2
-73
-7
-51
-6
10
1
5
-10
5
-25
24
-14
-15
-25
40
-12
-30
80
-79
12
2
35
-8
-5
4
11
62
-19
-30
9
17
-20
39
-16
-8
-117
-14
39
74
-73
4
-41
55
-2
-53
8
-33
20
-22
23
2
17
11
-9
79
-25
-15
18
-5
9
23
-25
-22
-92
-58
17
5
-40
-16
13
-55
-15
-49
67
75
-52
-43
127
11
-3
-46
-25
30
8
18
24
-6
5
-34
56
-63
38
-12
-41
-10
46
22
-3
25
4
6
-73
-12
-22
51
-17
12
-1
17
-3
62
-24
3
-71
71
6
-71
14
15
-21
10
-22
-3
-34
-52
-46
-46
-12
-127
3
11
-35
-45
-47
78
-25
-25
0
-49
5
8
4
16
12
-32
29
-24
20
0
5
6
2
3
-29
15
10
-6
10
16
-62
4
22
35
-33
-5
28
32
40
34
17
9
-6
50
-13
38
-15
-17
-72
4
-29
-74
15
8
56
19
-25
-32
-18
-59
-13
20
27
16
-6
14
-50
25
11
-7
26
0
-29
22
20
3
30
22
-16
-25
9
-11
-27
42
-4
-22
-12
-25
4
44
-26
2
9
14
29
77
-12
9
-25
29
17
35
19
-4
5
-82
55
-3
10
-16
-4
13
4
-36
40
16
-25
-15
0
-3
10
25
46
-4
-2
-6
3
-4
-16
19
11
-10
10
19
-22
-51
16
38
-37
31
1
10
21
-28
-33
-20
-46
-19
40
31
-24
-10
45
13
7
42
28
-7
7
28
2
51
-56
-25
-16
-11
1
15
9
-10
41
-27
-22
-35
27
40
-2
-7
49
-2
13
27
17
23
-4
-31
-16
-15
-24
24
42
-9
27
3
31
-47
14
-1
-7
3
-22
20
5
-61
-26
-15
-11
40
-17
39
-6
22
-13
39
-16
6
-2
12
26
-4
21
-7
-20
63
-38
9
0
127
-56
-84
31
-4
3
34
38
-17
-18
-25
-22
-28
-41
39
4
47
-4
22
35
-9
14
38
58
-1
-2
2
-7
-1
4
43
-17
5
8
32
29
1
-11
2
7
19
36
44
-2
28
2
-30
-15
37
53
-19
49
22
-6
-24
16
2
-62
13
9
-33
37
-20
19
11
-51
37
-30
-28
1
-10
-57
8
41
-80
0
58
-62
-25
-55
-27
-2
37
-31
15
36
-8
2
-6
-5
36
-15
18
-20
-12
-9
21
-8
-12
39
33
-6
-19
-12
37
-7
-32
25
34
20
119
24
23
43
-71
-19
-6
-3
-29
-7
-31
-14
-22
36
-14
-17
-24
-9
43
-38
-30
21
17
-57
24
11
82
40
52
55
2
26
60
-14
3
-21
-30
-40
-14
-43
15
-39
70
-22
20
-5
25
15
105
35
-26
25
29
-5
-1
5
0
16
-28
48
-19
-27
-11
-6
-17
46
-11
12
7
54
-3
21
8
-1
55
-18
-23
46
-25
-7
-7
9
8
-62
50
-43
41
11
-2
-15
4
12
5
-16
-7
-38
-11
-23
18
28
21
-12
12
3
-30
-35
-2
84
10
58
-19
-34
-46
13
-5
24
9
-11
32
-52
-36
68
42
-16
-56
-3
29
2
8
26
17
-17
-31
20
47
-36
18
-20
14
-22
-22
4
-33
-11
-15
6
-22
-4
26
21
15
-28
-2
36
-12
-11
-46
-34
-18
-10
-20
39
-36
3
30
20
-22
13
-14
72
-24
-14
-6
-21
-14
-27
16
-14
-97
-6
7
31
-30
-11
6
17
5
23
25
-10
-32
28
32
-10
-3
30
-4
14
-47
-1
3
-2
-6
14
-14
0
-7
20
0
-10
-6
0
8
10
35
65
30
12
29
18
4
-18
36
5
-3
3
-32
-11
-11
-14
-21
-41
-16
0
-54
17
17
40
-18
-17
14
-11
18
0
-127
-3
12
-14
24
31
5
36
-20
-7
-40
-10
5
-17
11
-4
10
-2
12
8
0
-16
-11
-18
-5
8
-15
7
-12
-12
2
-13
10
-18
1
-18
29
-26
40
19
8
-10
-25
100
19
56
2
-17
13
-34
9
3
-5
16
-9
-14
-36
17
-36
-13
-32
-38
26
0
20
13
-4
-7
30
2
0
-34
-10
-9
74
-21
20
-7
-1
-17
21
-14
13
17
12
-4
-9
-17
-16
-22
7
-3
-6
-6
-27
-14
4
33
10
21
0
-42
-22
-43
-17
-10
45
51
-3
-3
-39
-12
2
-5
38
7
-16
33
-3
8
15
-30
-23
5
2
-7
-3
-3
19
21
-17
11
36
-49
-51
20
-17
28
4
-17
3
6
9
-16
8
-19
38
40
-32
23
13
10
-11
30
-9
-4
4
6
13
-30
-12
-2
0
-9
3
-5
-12
17
-11
12
13
-6
-30
-11
-10
8
7
7
-14
-16
-12
17
9
2
-14
-21
-30
-20
10
-27
35
1
35
6
-14
1
5
-2
18
-1
-24
18
18
-9
3
17
-3
-16
-8
35
-24
17
-15
2
9
102
-10
5
-48
1
-6
-13
-10
-16
2
22
41
-1
2
-16
-31
-11
8
-14
-13
1
-13
17
19
20
6
-2
13
-7
-5
-5
15
17
7
70
-15
6
-12
1
-2
-20
65
-12
28
-17
3
-30
-21
-12
-13
-3
-14
-6
11
-16
-19
-6
6
24
-23
30
-23
-17
15
37
-14
-3
-16
28
19
-25
19
32
-6
1
5
9
21
-26
-5
-2
9
10
22
-9
-19
-29
-15
-27
2
-11
-3
0
-8
-2
20
9
-3
-17
-57
-12
9
7
11
5
17
-9
-16
0
-44
18
13
-5
-8
-11
-28
-45
13
-2
-18
10
30
7
-24
-7
-5
32
23
11
-13
10
19
-13
-19
-5
28
17
3
36
8
-28
33
-22
-2
-36
-10
13
127
-14
-21
13
-29
-13
7
-8
-19
13
-16
5
8
25
24
15
1
3
-4
-7
-3
9
-24
5
1
9
-17
24
11
3
19
13
17
-17
19
31
26
16
-36
9
10
-30
-6
-19
-7
55
-4
50
0
9
-19
11
2
-79
-14
1
55
18
7
2
-26
-18
17
15
-3
-18
-31
-8
45
-12
23
-38
-22
-2
-51
51
-1
6
12
-30
44
-12
31
-18
14
-18
11
12
21
43
-7
-99
12
83
-7
-15
24
-37
-9
-13
13
16
-22
1
42
8
16
91
-42
6
17
25
5
-5
19
26
4
-13
-52
24
13
19
-16
4
16
-7
-16
-4
-39
-7
-27
45
-29
7
87
-34
-2
21
4
-22
0
-18
69
-4
10
22
-20
-16
22
-5
-5
25
7
1
-4
21
-31
5
-2
-2
1
-14
30
-1
-45
-5
-6
7
26
-2
9
2
-3
9
12
-4
-6
-24
-20
-10
32
28
8
-31
-21
25
-13
-8
-21
-4
-36
40
-3
50
-4
31
15
-21
127
-3
11
1
6
30
20
0
-43
0
7
-13
-37
19
11
6
8
-18
28
-3
2
-30
77
12
-4
-49
-7
-15
-83
51
-39
-19
-13
1
11
37
7
-20
-8
-22
-27
-4
25
32
-23
53
34
-6
85
5
21
-3
-6
-24
-45
-18
19
-32
13
25
-6
7
-8
23
20
-20
13
-16
-14
8
-8
13
-9
35
44
-9
37
5
38
-30
-10
16
-5
2
21
-42
18
-1
-16
-19
-62
-3
-26
23
-11
-9
-58
-67
20
26
-31
-20
-3
17
4
3
-15
1
-11
7
30
11
-3
10
8
-5
3
-18
-3
35
-13
-1
15
1
0
7
35
16
16
-8
29
-30
-5
-19
-1
-9
-36
-36
11
4
-11
-6
-11
-8
-6
10
21
1
-19
-14
-9
1
-5
16
4
-6
-10
-21
-21
5
1
-13
0
-30
2
-3
-12
-31
-12
-14
-8
0
-4
-1
-15
-8
13
8
-28
-6
-9
7
-18
-7
18
-39
12
8
-63
7
-6
-38
-20
-4
10
-8
-2
14
-12
1
14
11
8
-17
3
11
-7
10
1
-17
3
-25
26
15
8
-33
-16
12
-30
9
-5
-27
-8
-9
-21
1
7
34
16
-21
35
1
-23
1
3
13
2
-127
-13
23
11
3
-24
-10
4
22
44
-5
32
21
-5
-21
-4
1
9
39
1
-51
-10
-22
-4
-4
-8
4
2
-10
8
2
-21
-27
7
-48
4
17
25
-9
21
2
-1
-11
-6
13
-20
-15
3
-3
11
1
-7
-5
-6
-7
-10
12
13
-14
43
-41
1
2
1
5
-6
2
-2
-21
-20
2
6
-6
2
-11
-5
-12
-8
2
10
-1
-20
-5
7
36
-4
-13
-2
-23
10
3
-6
-26
-8
16
-1
7
-4
0
-23
-20
-60
-3
-2
9
-20
-5
-27
-7
3
-12
20
-4
-12
-44
-6
17
7
15
7
34
-6
14
14
-28
12
15
-30
41
-13
22
22
-2
-23
-13
-23
-5
2
-27
12
50
-20
-52
-19
-15
-7
-63
-18
-3
-1
49
-7
12
9
-18
-16
-15
21
9
4
-27
-11
-24
30
-38
2
11
35
6
-3
-21
22
-13
18
59
18
2
2
-5
15
9
107
12
-10
2
38
46
28
-17
-51
11
20
-3
-12
-43
33
9
-43
3
-12
-16
-13
17
20
4
5
-62
-13
32
9
16
-24
-20
27
35
-39
34
-30
25
13
-26
45
-20
23
-38
-24
5
48
-49
17
26
-22
28
5
-19
33
-13
-21
-1
-21
-24
29
-55
13
-36
24
-3
-51
31
-13
32
-7
30
14
-62
4
-20
-19
-72
-54
35
10
1
1
-1
127
20
-5
-23
3
29
-7
-58
12
-16
-14
-14
-18
-43
17
-4
-39
0
-17
34
-25
-37
15
-1
2
7
-24
3
-19
-4
-29
32
43
77
21
2
17
43
26
52
36
-25
1
-44
-14
-21
24
-7
-37
1
-20
39
2
-39
82
-25
-27
-42
33
-3
-28
-56
68
8
44
16
-12
-10
11
5
18
10
-5
-48
38
-26
-13
-38
-42
22
16
-8
66
21
18
1
-22
8
-24
13
36
20
60
-4
-27
25
34
9
-26
28
-10
-16
51
17
18
-39
1
-6
48
-21
-6
-4
13
6
-27
-2
17
-14
-1
-9
-18
-51
-30
1
12
-56
-20
-25
-36
28
15
7
25
-31
-52
-16
-54
-22
29
-13
-3
42
-7
-94
50
-77
-17
-6
-8
10
31
-17
38
28
13
-19
-30
-46
-42
1
-50
3
-36
42
-34
-54
16
16
56
101
19
-7
-3
-52
2
-92
-43
58
36
66
33
4
30
0
58
22
47
46
27
14
-15
23
-36
88
70
-3
17
-42
8
16
37
3
-44
12
-56
-35
12
35
35
37
-10
43
-10
50
-46
-2
-8
32
-94
6
-45
106
73
-52
8
80
36
-15
-75
-3
62
-32
57
14
45
43
-46
32
7
112
11
-28
-20
-33
49
43
-5
-36
36
-41
4
-11
24
31
34
-9
35
13
12
35
-52
-27
-42
67
50
-36
-22
-1
107
6
4
-40
-62
-38
42
21
-37
-11
-52
-57
45
61
27
-35
0
-19
-15
1
-6
-33
-44
14
1
-3
14
-20
-79
-12
36
28
-41
-13
0
127
-49
85
-1
22
-48
-15
36
16
-11
-69
28
50
24
-23
44
-31
-45
5
13
-22
23
49
52
6
10
-37
-43
75
55
-33
-15
12
4
111
-32
62
-13
28
21
34
4
-11
42
-22
5
31
62
-18
-48
33
-32
15
-12
-31
-2
21
-14
-1
38
-17
84
11
8
14
12
-65
87
119
-53
-35
6
-16
-8
-34
-63
-52
-76
-1
22
-33
33
-10
-13
51
20
3
18
-3
6
-12
56
-34
-53
48
-84
19
73
20
-5
-27
-42
-3
4
-76
-16
-48
13
-31
13
127
-30
-51
86
41
-22
75
-9
23
-48
1
23
4
-6
60
28
-44
47
11
-54
-13
-26
-2
48
-18
-26
-79
24
74
-27
125
53
10
62
35
37
20
-3
-51
-70
27
-20
4
-22
-10
-29
-46
5
16
-24
86
10
8
-19
3
26
-29
-32
17
7
68
-45
0
9
2
-2
23
-15
-16
-28
14
37
-21
-20
32
-18
6
50
16
-78
26
-5
-14
19
27
-9
-4
-52
79
-11
21
9
80
67
-53
29
83
12
-50
-13
-19
81
55
0
68
10
0
60
19
-16
-50
-5
0
-26
47
5
58
65
-25
-34
5
62
0
-5
36
-50
-22
-18
18
5
-58
-38
-47
3
-13
15
-3
11
25
61
24
15
-52
-25
12
89
47
-40
-8
-19
16
-33
1
8
28
49
-21
-79
4
1
61
29
-13
15
-14
20
35
-27
-26
-3
24
-53
54
-64
12
-16
-62
19
36
-22
-84
7
-21
26
89
-68
-12
-9
62
37
6
-43
119
-4
-1
5
18
-14
-1
-101
-1
63
14
-30
1
13
61
44
-17
-51
-10
1
-21
5
22
-12
-9
-10
-31
-4
-36
-47
60
42
-11
8
-33
31
-65
2
8
9
11
-18
12
15
-8
11
31
-40
1
-27
-34
2
11
5
56
-10
-8
-15
-7
26
-1
-12
-10
78
4
-32
-9
-3
12
-10
19
-28
24
-1
-10
-28
20
-12
7
22
9
-10
-20
30
-25
28
44
-42
-11
-12
16
-9
22
21
45
-49
42
8
-50
-9
30
12
-13
-19
-56
-62
-14
1
-22
11
22
-24
-19
51
11
2
49
28
4
2
8
-21
27
27
-11
15
32
3
121
-33
-3
50
98
0
-45
-29
-30
-40
-1
-4
-32
-12
-30
-11
-34
-16
127
18
48
-6
90
-8
-26
32
5
49
-39
-13
15
26
-3
8
-24
-32
-15
-41
-64
-23
-13
20
40
19
10
-8
-35
31
21
-18
-15
-51
-16
1
-36
9
19
-63
46
5
-30
10
14
-29
-1
17
-15
0
38
-50
-55
24
56
16
12
13
-18
11
11
-25
-26
4
-24
-3
26
-70
-12
-8
-29
-29
-7
-6
5
51
2
46
-24
-27
-46
-67
-60
-21
-11
-21
39
-15
21
21
-13
12
-5
103
-42
-60
21
20
8
-2
-21
-28
-3
18
1
-5
-46
18
-37
23
19
108
27
-21
28
26
2
37
9
-17
23
17
-47
-8
-10
34
-5
18
-29
85
-9
28
-18
59
13
0
5
-24
-81
13
20
-6
-16
-36
39
23
-31
20
18
34
-74
0
17
51
-38
-25
-39
32
51
-101
3
27
5
33
-9
2
32
11
63
-91
-19
-10
27
-26
-80
1
16
10
-1
23
-69
-37
47
-4
23
15
-58
-82
28
29
27
-12
30
-58
54
-7
-28
12
0
-12
65
-20
-14
3
17
-49
83
-30
-24
-25
17
-61
-31
23
1
-15
23
89
24
1
-10
-43
-23
58
55
-30
22
10
8
-23
10
-15
8
41
6
-52
19
15
13
-17
21
-25
18
-5
13
35
-29
-5
-10
-39
-44
-6
-2
16
6
48
19
38
-2
-12
-14
3
-50
-5
1
-7
-36
73
48
15
12
18
45
24
-2
-88
-15
54
38
-1
-71
19
-3
12
-24
81
5
3
32
-30
51
-8
-7
29
74
-53
16
127
1
55
-18
21
-2
85
-1
18
27
-10
68
-55
-39
-37
-44
-74
44
14
11
32
-18
-36
-78
21
3
-8
34
35
46
21
-13
-52
-22
-1
-31
-6
39
98
54
-7
5
17
-5
22
-34
79
-17
-4
9
-38
-32
33
4
-19
-9
16
-11
83
-36
85
-54
-1
-2
-75
73
23
-13
8
-31
43
0
-9
52
-51
65
-18
8
-17
10
-41
-20
-75
-14
77
-31
42
-5
-44
-4
-25
21
6
-17
17
8
29
-51
0
9
32
6
-16
-23
-1
-33
102
-78
-7
-44
-7
-4
-90
-13
-15
42
-51
23
-29
30
8
12
-1
8
7
88
-16
1
86
67
45
-22
17
38
-14
-38
-4
-57
23
23
-34
24
23
-3
2
-71
74
-3
38
10
8
18
-30
-4
25
-53
-6
-6
19
-59
22
-16
-24
-39
5
13
-13
-38
21
-1
30
2
2
26
-24
84
-58
-1
-1
-11
4
-6
21
-27
1
20
88
2
21
19
-17
-51
35
13
-46
29
17
-10
-32
-25
12
-23
-8
4
-11
9
-32
-16
-18
-32
12
-2
-23
-7
81
-22
-11
20
14
9
-25
0
-2
-17
-30
-28
-46
-28
-11
30
6
4
127
3
-3
5
5
37
45
3
-54
-11
-30
-19
2
-10
2
-13
-30
-34
23
-3
3
-11
25
27
-16
0
65
-15
4
13
-29
-2
13
16
20
-9
-5
-25
64
-13
20
-28
14
20
10
-1
-37
1
4
-30
-23
1
-38
-14
1
7
-21
-7
-16
-4
-1
24
6
-70
-34
20
-44
9
-12
6
-5
56
2
-13
59
-20
-14
11
-17
27
-9
19
18
15
-26
24
-43
-5
25
-43
7
33
2
-38
41
41
5
-36
-11
-117
99
-17
-66
41
-20
-14
-6
40
33
2
17
-27
-121
-5
112
7
53
19
-118
32
-27
-51
-31
-17
-40
-19
-49
-91
-63
-62
32
74
35
43
3
-12
69
-24
42
84
-53
-66
-35
-19
66
30
33
96
1
-46
44
78
35
12
-61
-49
70
-35
-40
104
-56
-5
-125
58
62
67
-16
103
-24
-8
-43
-36
31
-11
-26
38
2
111
-73
60
-101
26
-24
-56
38
90
-30
17
-50
14
15
-47
-26
-7
-49
32
-45
-62
-108
1
-13
20
-82
42
-1
-33
3
-46
15
10
56
-34
-86
33
-17
27
127
-90
55
-25
-16
8
-90
79
17
-42
-35
25
35
46
-9
-40
-36
1
-2
-31
42
28
-15
29
39
-71
11
-24
-15
125
80
-15
72
22
-23
-46
-3
5
-15
-5
17
9
-22
-3
80
-50
14
-30
5
-20
53
-8
21
-11
-84
-18
12
22
64
4
-98
-10
-11
55
-65
-40
-3
-96
36
31
-62
-22
12
76
34
-10
-55
-34
24
55
-67
-49
33
52
-9
6
24
43
44
-21
-104
90
14
1
47
-42
31
37
-96
-12
69
-62
-105
56
-6
-18
40
60
96
-72
0
37
-55
-69
10
-36
-27
-70
-105
48
-75
-33
7
-62
-26
-111
-12
-16
-69
7
-80
33
115
1
58
-19
-49
2
-25
-31
17
4
91
-6
22
-41
-9
-34
-23
3
2
12
-11
-12
-11
13
-4
8
11
-8
-10
-54
-15
-20
1
15
61
-11
21
11
18
-13
-4
-16
27
6
37
20
-37
23
67
21
-7
-7
16
13
-14
-5
47
-27
9
-9
-63
-3
38
20
4
103
-48
51
-23
-23
-4
-4
22
-47
-24
1
-18
35
29
7
-25
-41
-53
5
12
-62
19
10
-5
10
-12
3
-7
10
-17
43
5
24
3
-3
-77
-22
-6
-13
24
-2
18
-54
127
22
25
-13
21
30
17
-20
6
11
-18
36
-22
5
10
18
-28
33
-16
3
-21
-29
5
12
60
0
5
-26
-21
-11
14
-10
10
-3
-3
-14
10
13
-24
-29
-5
17
26
-8
14
15
0
-12
-10
26
-8
-19
-27
11
-17
10
-37
19
22
-14
5
-59
-33
-12
-21
0
-55
28
-10
21
8
54
-35
26
30
-43
-2
27
-46
6
3
-14
-39
2
-8
2
-30
-18
13
-6
-42
12
11
-7
-15
-49
13
-28
11
-38
-5
10
16
14
5
11
18
4
17
1
-8
16
7
38
35
-1
-8
18
-10
23
-16
9
7
-14
24
-9
25
19
14
2
88
-8
-3
-9
6
-1
-15
-13
-16
-34
-81
-48
-10
-7
7
9
13
-2
-13
-30
-10
-10
-5
-7
27
6
6
2
15
29
-60
17
41
0
-47
-14
10
28
33
-1
2
-15
-28
-33
33
-63
-10
-11
28
37
-6
45
24
-6
-7
-37
24
-2
42
-34
52
13
-40
4
16
19
-32
-29
4
9
10
-10
-35
-17
-16
-29
80
-6
24
15
-5
-14
74
-30
-70
-2
-33
-11
-58
56
-48
-17
50
-4
-46
-75
31
38
-24
-50
-19
-10
-20
33
5
-47
55
28
46
51
-70
8
59
18
-12
-30
13
-80
26
19
-10
5
1
1
15
-24
33
-1
22
3
110
23
-12
-33
-1
3
39
57
-25
-16
21
8
26
74
1
23
111
5
-62
-50
-6
18
-11
82
-44
-23
55
-49
-4
32
22
19
-8
-1
53
21
37
-30
34
-15
4
-27
29
29
23
-9
0
-30
-31
-33
41
5
-7
16
9
-37
-91
9
-26
67
-12
24
-7
-7
-28
-21
-44
17
-13
-35
26
-27
-6
46
-2
2
21
-31
1
29
-42
-8
59
4
24
-18
26
-26
15
15
27
17
76
-7
-2
-6
-11
28
-9
3
-13
1
-10
-6
26
-1
-29
23
8
19
3
65
-57
-43
4
-24
4
29
-41
23
-127
-26
30
-13
3
4
7
22
30
-6
-34
26
17
-24
-87
-95
35
35
69
-6
-12
-23
0
-30
9
-16
42
18
-51
0
-47
25
32
3
-23
-18
-1
-56
8
-25
-20
-16
-19
7
9
7
4
3
12
-4
-6
-2
-5
-6
16
5
-4
-9
3
9
31
23
-17
30
-10
-8
-22
15
4
4
-1
2
-10
9
-7
8
-8
15
51
10
8
-9
4
-25
-11
-7
3
2
9
-7
-10
-5
11
-12
23
-22
-13
-11
-2
-13
-25
-8
-18
-9
-6
-33
-10
-3
8
31
10
-2
-8
28
-2
13
12
28
-2
8
-6
-7
-13
-3
7
9
1
12
3
-7
-30
4
7
-66
-15
9
8
-13
2
1
11
-10
12
-9
-6
-18
3
-9
4
-22
2
1
3
14
-5
-13
6
33
-10
-6
5
-18
-7
-9
-16
7
11
-6
18
-3
5
-7
14
-2
-5
7
-14
-10
59
-127
-7
13
-14
4
8
7
-10
-7
37
-32
-20
-19
-2
-5
-9
-1
12
111
0
-3
5
-8
-23
7
-5
1
-21
-15
-32
-13
28
-13
2
-3
3
-28
-64
20
-26
-12
-7
-7
-31
-41
9
-6
8
-4
-6
7
-37
-7
59
1
-8
0
27
-46
-14
5
-5
-2
18
-7
3
-16
-17
-22
31
-8
-7
7
-7
27
2
-9
6
8
-11
9
-15
19
9
12
-30
-26
-27
-8
-13
-10
20
5
-11
-9
-12
-29
-10
7
-29
-51
13
21
17
-11
14
6
7
-14
8
-1
-9
10
17
-73
9
1
23
13
-16
-51
32
-31
-8
43
-14
27
-9
-16
-23
127
21
-24
46
-35
-32
-45
-20
-48
52
48
46
-10
-4
2
-6
-29
31
29
16
26
-66
-42
6
20
2
62
54
-19
13
-56
-50
62
20
4
-2
-29
3
-31
-26
26
-21
5
-21
-46
12
31
-30
-23
113
-47
-26
-18
1
19
35
3
57
-29
45
-23
-16
23
-89
13
49
13
-51
15
46
5
26
50
-49
17
41
16
-14
-45
19
-44
-59
-13
54
17
58
1
-38
45
17
-23
-56
-20
22
-36
37
19
104
10
-31
63
4
36
-73
31
-18
-57
17
16
55
20
27
-61
19
-64
-63
69
-70
73
38
2
-49
-10
7
76
41
-25
34
-51
33
19
49
3
103
10
10
-20
-33
-33
49
1
-14
-58
-25
-26
-46
-18
-23
-33
-36
-37
41
-24
76
44
-51
40
82
53
-31
-15
-37
26
-5
-30
-18
-59
-19
-12
-38
29
-49
9
53
66
17
40
68
60
-18
42
8
52
8
-30
-24
-4
-34
-16
32
-47
42
19
14
86
33
50
-63
-107
5
-23
-59
-2
88
-68
8
82
-4
-31
88
23
36
5
-44
18
8
39
-51
46
-46
7
-48
59
-2
-34
17
-18
-44
-117
19
-2
-21
-8
0
49
-91
-6
-55
-59
-4
-46
49
73
36
26
-66
6
-3
27
10
27
-27
-1
7
5
25
-22
-7
-11
22
-6
5
-9
2
-22
24
-14
4
-33
7
-11
17
-29
-6
13
6
9
-19
17
21
17
-10
-10
10
5
11
4
-17
-6
62
-7
-1
93
-25
-3
8
20
7
0
20
1
15
-8
-6
5
34
-1
-13
1
-1
-10
-16
17
27
-34
5
5
-6
-5
27
-12
-11
17
6
-16
-16
-2
-37
-2
-11
11
-7
-7
-19
-13
38
3
-13
-17
8
-2
-13
-7
20
-11
34
1
-31
-7
11
-34
6
-3
-23
3
10
-3
-4
-2
-17
-5
-10
-3
-5
-2
-18
9
3
-5
-1
-4
-5
-8
-11
-1
-4
-10
8
-1
-19
18
-10
-7
-7
9
10
18
-10
16
12
-4
31
4
19
-8
-5
4
-5
7
-28
-8
-38
0
-20
-17
7
54
40
-9
-25
27
-2
0
11
3
-17
-8
2
-8
-8
16
-19
8
5
2
-17
-2
1
5
-13
-10
2
-39
3
14
-4
-3
-4
4
-5
-14
-18
25
14
-10
17
64
-36
-8
33
-9
2
-1
-39
41
3
18
-11
-17
-3
-19
-71
24
21
4
127
-6
-5
-9
-13
-10
-20
-15
2
-10
4
10
-9
-1
4
28
7
10
17
-2
15
3
5
10
11
-23
-39
4
-7
-4
-20
-19
-25
-12
17
4
-7
-23
-22
-11
18
-9
-23
-5
-40
-9
13
-36
18
-48
34
-23
7
25
41
36
127
68
-32
20
-66
-5
-62
-7
26
8
15
31
0
34
-17
45
9
-25
28
-12
20
-30
10
11
32
3
-2
36
-24
-6
64
-21
34
-54
42
85
9
42
-6
16
-14
19
-2
-11
-19
18
-17
34
-27
-7
-4
33
-60
-39
19
17
0
54
36
-21
33
14
-53
8
-64
25
-66
31
-24
36
7
4
4
50
-44
34
-39
-62
-54
0
27
-49
-22
-48
-37
-52
20
-63
8
-42
-76
30
-29
-9
3
-53
69
-87
-32
32
-56
3
12
3
-13
16
3
1
19
25
-36
8
4
26
2
-6
19
2
-28
-59
17
29
-14
2
-22
-92
-5
33
-4
-21
7
72
-36
5
2
6
13
-5
-16
7
11
10
25
40
-38
32
23
-69
-43
34
-17
4
-32
4
10
-18
-1
-61
17
-11
8
11
5
-1
23
-35
13
-23
2
-1
19
-20
-4
-31
-22
-9
-9
34
-15
-6
57
-18
-27
-59
-33
53
3
4
42
-47
-19
48
7
15
-14
34
8
-14
-34
9
12
-42
-63
5
-4
-24
-50
-5
17
-50
-19
8
-88
20
12
-19
5
-12
-11
-12
-28
8
-13
-65
-16
34
0
8
-26
-77
14
41
-10
-44
18
-12
-63
13
-10
-76
-14
-36
6
12
8
-40
45
14
8
-24
-35
-37
22
73
26
8
-34
-79
-22
-31
-38
12
-31
-11
14
10
-10
54
36
-18
-9
-51
21
-29
58
0
19
64
-58
-9
-9
10
-62
40
50
-5
29
2
94
12
18
32
-22
-14
-4
-10
57
-12
-23
31
29
61
-21
26
-44
61
-48
-29
28
28
44
-10
-11
96
-1
-1
-26
38
59
38
51
74
-3
-49
2
31
-16
21
-97
-10
46
9
-36
73
-22
-13
71
12
4
37
-48
40
4
14
115
13
20
21
34
34
79
5
127
19
3
1
5
-48
53
-48
36
13
-1
-16
15
13
-12
-38
-41
42
35
-70
-14
-23
53
-55
79
-10
42
68
9
17
-45
-19
-13
-9
-34
53
12
-70
-46
-20
-77
-19
-33
-45
40
-49
-60
6
-39
30
34
0
-63
-73
-40
-13
-32
6
19
35
-4
17
-22
-27
49
-40
43
37
-6
-48
-14
-73
20
46
18
-36
11
15
71
-4
6
-5
-73
-2
19
8
-123
23
-5
-11
30
-50
-32
-5
-34
-46
-72
-73
-85
-46
-42
-18
-37
30
85
17
-11
-31
-4
8
-21
16
-6
35
-19
-4
-30
31
-53
32
53
-48
-16
8
-39
-41
11
13
12
84
-1
-5
-46
-32
-7
-2
-31
-20
-22
-14
-29
44
-29
-38
93
8
-21
-60
40
-30
-24
32
-46
-1
6
-39
-17
-14
-41
1
20
-43
4
-7
20
-18
-4
30
4
15
-23
-18
31
127
-2
40
-12
14
-8
0
49
4
-44
11
53
-3
-56
-20
-23
-5
47
2
27
11
26
37
-56
28
-1
-42
34
33
8
13
-36
-85
-8
86
48
8
-110
-99
-27
4
25
63
-14
-9
-27
9
-40
18
-31
-43
-13
9
30
19
-11
16
-14
26
24
0
-10
-12
28
-71
-29
14
53
47
-29
-17
1
-43
31
22
-5
18
-41
29
-20
1
-7
-6
-2
8
-22
-4
-30
62
-6
-6
22
12
-45
-29
39
22
-3
-26
43
5
-86
17
26
-57
26
41
25
39
-61
-2
-7
-66
23
-78
-74
-22
3
41
-13
59
45
-64
7
-10
-18
-18
-69
41
9
24
-33
-13
-34
2
-57
4
15
-13
16
43
12
14
38
37
18
45
-2
-18
63
23
-10
-29
-63
25
-4
-16
-9
-47
58
-62
18
-28
-9
27
28
58
-54
-7
26
-25
-27
-7
14
30
-8
1
50
-14
-8
-12
55
39
38
12
-17
-21
-46
-20
0
-8
-21
23
7
-58
1
33
-29
11
-16
-45
-15
12
-16
-31
7
-2
-5
24
16
-26
-47
73
-9
20
13
-40
14
-2
19
28
47
24
-38
-13
-17
-50
8
-23
-45
21
-30
50
-12
10
-30
-15
-29
20
-5
43
4
24
9
-43
-28
-22
49
-17
12
1
-11
-5
23
-5
-15
-24
127
1
-23
-77
4
38
-46
40
-10
-8
12
-86
-18
15
11
-6
2
-3
4
-37
5
71
-32
-31
21
-43
-1
11
-15
5
-75
0
-46
-15
-55
-24
25
23
3
36
20
-32
55
14
6
-4
-6
-6
-1
-31
24
-18
48
2
1
27
-11
14
-19
-1
7
-31
4
9
-28
-31
35
11
-5
-11
12
32
-14
-14
13
-33
-9
-34
68
-23
-23
-13
14
11
-65
7
5
70
-12
61
-79
-5
23
27
-38
-50
-32
84
59
97
-31
0
-63
-26
-22
-12
4
25
-47
-21
-31
0
57
21
-35
23
-1
34
-33
62
9
-26
-30
-22
68
-2
-50
-70
-10
22
56
-22
-32
73
-45
35
-28
3
38
-19
-11
43
-11
9
45
-40
62
7
45
22
22
0
-19
19
-14
-14
10
4
30
6
4
24
16
-6
4
-24
-4
-25
-10
-11
5
-26
-5
73
-53
-11
78
35
-12
26
-38
77
-2
49
16
-5
41
-11
-8
-87
34
10
12
23
8
5
48
-43
-63
-13
8
17
-19
42
-15
-17
-44
6
-9
-78
-2
67
10
5
6
-49
-14
16
-39
56
-40
-35
111
10
-18
3
-54
11
-3
-20
60
-6
22
40
-7
-18
1
-4
-11
-33
5
-21
40
127
-2
-2
-26
4
10
3
24
-27
-4
58
-6
-27
-1
-52
-12
-30
25
-11
21
-7
8
4
-24
14
9
-10
-5
28
27
-9
-51
26
16
-14
-29
11
15
-23
-55
-15
-32
19
-14
-27
22
26
35
14
-41
-7
-11
19
22
-19
2
-17
36
-2
-32
42
-3
4
2
-4
44
-6
-9
10
16
37
42
18
42
-1
11
37
-11
21
38
-21
20
16
-13
-42
2
16
-25
17
-17
-6
12
11
6
27
-27
14
-17
-51
11
22
-17
46
-22
-43
-11
11
-12
-2
-5
-10
18
-21
12
0
15
27
-4
36
41
-45
-15
-8
3
64
-44
-17
-35
48
-13
-1
-12
-6
-25
18
22
4
7
-31
2
-26
48
17
-10
46
-54
18
6
12
-24
18
29
-5
-7
60
2
69
-5
-10
-15
-20
20
10
15
-28
-45
-3
12
-38
0
25
36
31
5
5
-8
36
-6
-44
5
24
27
-52
28
-6
-1
-52
14
5
-26
14
9
3
34
-29
30
-25
-30
24
-16
61
31
11
-17
5
-11
-35
20
9
-12
-30
12
30
4
10
90
-22
23
31
24
96
-2
-13
1
-27
21
1
27
8
4
-19
8
36
-14
-2
-7
34
22
25
21
-44
-13
11
1
-46
-23
37
-64
-3
-15
41
5
5
-23
-65
7
-27
-22
-16
-8
-34
-62
78
20
36
-27
53
-17
104
29
-27
19
51
13
-35
-58
57
7
9
-15
-28
-16
19
39
24
41
8
37
-50
-103
-11
43
13
-12
-27
33
-18
54
-15
-11
-27
10
127
19
-20
6
13
6
10
-3
-9
9
6
-9
-18
-22
-5
3
10
-32
71
45
15
-7
21
6
5
-34
-20
17
-1
22
-96
-11
27
14
62
-22
-2
-18
-9
22
-25
-26
62
30
85
-24
-17
12
-29
30
16
-5
11
41
-9
7
-33
20
18
-39
19
-14
73
-16
-52
-28
-59
13
-25
9
8
-19
-22
11
-4
24
-18
29
-22
-47
11
30
-9
27
-39
-6
72
0
31
-17
43
-66
5
-35
-48
96
0
-36
-26
19
12
18
16
-3
-8
-56
-6
23
-6
-14
-8
-4
34
-12
11
50
8
-6
15
44
33
39
-40
38
-8
-35
-9
16
-42
-31
7
-23
62
5
28
-12
-20
29
63
21
14
-35
-37
21
-39
13
-21
-7
30
18
-18
11
25
-12
-15
-25
-53
-47
75
43
22
-12
9
3
46
20
21
-27
-5
38
-24
21
-10
19
14
42
-34
-33
24
46
-15
-26
-39
-17
-50
-20
-10
55
-39
-73
-18
18
-6
33
35
-123
-127
2
-5
74
-5
12
-3
-25
-2
34
-7
2
-16
-32
66
-21
16
-20
-4
-28
-9
55
-6
24
10
-42
-38
0
15
13
9
-62
14
-24
59
36
-2
-33
2
28
76
-12
27
86
16
5
-5
-2
-26
37
7
-3
-49
28
-21
31
10
-30
-56
-1
-19
12
-14
-30
-27
-6
12
-33
-27
29
27
-23
15
18
-13
32
5
-112
6
5
8
-4
-44
24
-12
1
-10
18
7
-18
5
-12
-29
54
3
-27
-9
11
-15
23
6
-6
27
7
9
20
8
18
3
11
-20
26
-64
-10
-1
-35
8
39
44
-20
4
52
11
-24
17
8
13
-3
-7
5
-26
-20
35
-24
22
-5
-32
-44
32
43
-22
70
-44
28
73
33
21
7
-11
-41
17
-55
9
-26
-87
-16
50
49
-11
19
13
-5
3
-17
-2
-23
-10
12
-11
-33
68
18
9
-19
-28
-65
35
-20
-17
-33
36
-9
15
4
-27
-11
-34
-87
-2
-10
-16
-15
9
-21
-109
-43
25
10
2
10
5
-52
-41
-31
30
13
-13
-45
22
14
-56
28
-8
-55
-21
13
-1
-22
-13
15
36
30
18
-48
-26
-3
14
27
-44
-3
-2
9
13
7
-25
19
5
-17
60
79
-5
-52
28
-17
0
-19
70
-10
21
10
-23
8
45
26
-46
4
32
-28
7
15
-18
2
6
-22
1
14
14
28
22
5
73
-4
3
-7
-19
-6
2
30
-6
34
27
-24
81
27
7
18
-16
15
49
-28
-14
22
24
18
-18
-29
57
27
7
-17
-17
8
-17
11
5
-17
-6
10
8
-2
4
-3
-64
31
16
-19
-15
-55
-44
-9
22
52
-20
8
2
-51
-48
18
-14
17
-51
-16
19
-33
-61
-12
22
26
-5
-32
37
-23
-33
59
-46
-22
-7
7
-31
26
41
78
14
-22
-25
5
-3
-18
-3
-19
-6
7
41
44
-13
-41
2
6
-5
-31
-13
1
10
-26
19
-36
20
-28
-8
1
-15
-28
-46
-31
-9
2
-15
-15
25
-35
-5
20
12
48
-24
127
28
98
-13
-23
-25
-45
-49
12
0
-37
-9
-19
5
35
20
-75
-13
19
7
6
-74
59
-8
-55
21
-14
-4
20
-1
-21
-6
-21
-18
-12
12
-56
-51
-32
-16
51
6
-24
48
-9
-13
9
-32
13
26
25
-15
-65
62
48
61
21
-16
43
33
-2
21
2
68
-17
50
-6
8
-22
37
-17
42
-3
26
-23
-33
-23
-23
9
6
-24
20
-13
-13
-2
29
-58
17
-11
11
16
8
-12
36
-96
-9
4
-23
-2
98
2
-9
30
-32
-29
18
45
48
-15
-2
-7
-5
-8
-8
-6
14
-13
12
-20
1
67
13
-15
-5
11
3
-2
8
-16
-18
4
-6
4
0
-5
-4
-20
7
20
4
7
3
-24
-8
3
3
-4
-6
-23
11
5
22
-7
-14
-32
-10
-17
49
-1
-42
36
17
8
2
-6
37
-1
10
-8
16
9
-16
10
6
25
-1
17
-19
-13
18
-9
1
-2
-4
-2
1
-6
17
0
-13
15
5
38
16
1
5
62
-17
-19
-19
-31
3
-10
-29
-30
-16
-4
26
3
5
9
-6
-12
4
5
0
22
-23
25
-9
3
-1
1
4
-61
16
-12
-11
6
-34
7
2
8
-28
-20
-21
-3
3
14
4
5
-7
-1
-3
-11
14
8
-30
1
1
-5
10
2
-30
18
-7
-12
0
4
34
0
9
3
14
-25
-42
-63
-5
7
-6
11
-7
6
16
-5
10
1
-9
18
-7
5
-7
24
-8
12
4
-6
20
23
-12
-9
24
18
21
-127
11
-12
35
6
14
9
10
6
10
2
-6
-22
-7
-26
9
8
-7
12
-23
83
-4
10
-1
8
-33
-7
-4
16
3
22
5
-38
3
-1
8
45
7
19
-1
-10
5
-15
2
-16
11
11
7
-15
14
14
-22
4
1
-4
38
2
15
-10
11
-11
10
34
-3
-2
8
86
-23
-25
-6
12
-6
-23
-16
36
-20
-8
-16
24
8
23
14
-19
-16
19
-9
-32
18
-60
1
8
-17
9
2
12
-56
-9
21
-33
-24
-30
20
-14
-5
32
-19
21
39
4
8
13
13
13
28
28
1
63
43
-10
6
23
127
39
3
-6
23
31
11
-43
14
10
-2
-7
-13
13
3
55
-79
-25
-1
-9
30
-12
-33
56
57
10
-4
3
-21
3
64
16
-30
-39
9
94
-13
6
47
-9
-65
12
20
1
23
2
57
61
32
28
38
12
24
24
-16
-50
17
11
-14
-24
-15
-19
38
-6
-5
19
31
20
-3
-9
-66
-21
-26
10
-20
-10
-10
30
1
18
45
6
34
0
1
29
-39
4
-12
51
-2
-14
19
8
26
40
14
61
-34
-10
-60
23
-18
2
23
-26
-22
-21
-3
29
24
11
5
-20
5
8
2
15
19
-21
-7
-28
6
-28
-8
10
45
27
42
-58
-4
20
-8
6
14
12
-4
22
43
10
-53
0
-9
-21
19
-3
49
-21
24
-3
-44
36
-15
-16
16
-46
-8
34
-6
-21
-19
-26
-13
13
-24
25
-22
46
-53
3
-9
11
28
27
0
-24
-6
6
39
-32
25
-24
79
51
30
1
15
11
-13
17
-4
22
-3
-6
-45
-10
-57
-44
-10
11
0
-1
-22
-10
-2
-38
30
1
33
-40
27
36
0
-28
-17
33
-18
32
-18
24
-27
-6
14
-22
22
-40
-5
-38
-8
17
-46
-12
1
-58
13
62
6
-23
-2
-33
30
4
0
-14
-13
-34
-20
-37
22
48
-66
-59
-12
2
-20
-3
-65
27
34
15
-19
-50
-64
18
12
27
-28
33
71
-37
-1
31
90
38
12
-16
-25
-14
24
-16
-4
12
-4
50
20
41
-3
-35
-6
120
40
-26
13
48
-45
6
23
-8
0
17
-11
-13
-31
25
-19
4
11
58
35
-29
47
22
-28
-7
-18
39
2
-13
-39
18
4
16
3
-50
26
7
6
5
6
3
39
-4
-28
-35
-26
20
-47
16
3
-47
26
32
-48
3
-37
7
41
9
5
36
-3
20
-62
4
27
-33
23
4
59
15
9
-76
-37
14
19
15
42
-17
-34
-22
16
-1
19
-25
-7
-70
4
-9
22
14
1
16
-32
-26
-2
-59
2
-21
0
-30
19
-62
6
-19
32
-35
63
14
10
42
-38
-26
-18
14
-24
20
-40
-51
-10
-10
10
52
-23
13
42
88
-51
127
9
-14
37
-8
13
-12
-28
8
4
-30
-27
2
-14
-9
14
2
-43
64
5
46
19
-57
0
-18
-5
-38
-17
-33
-10
4
9
-5
43
16
121
67
7
-33
-36
-1
4
-45
28
0
-21
50
14
-19
2
-49
-19
24
51
-1
-104
37
80
27
47
-3
31
6
-39
-111
-57
11
97
25
2
28
10
-19
-15
25
-58
-36
-27
-46
48
31
33
36
7
-1
-40
-3
-66
-24
-30
-57
-12
68
21
-13
12
61
-29
-62
-6
-102
-5
15
-29
-41
-5
-21
-24
-17
75
45
90
18
51
65
10
86
6
-25
-45
14
14
17
123
11
-37
-21
40
44
40
-106
42
-15
-42
-1
20
28
-32
-11
-50
-13
-22
-8
33
-57
-20
54
-35
-6
4
-70
15
8
16
50
-40
10
24
-76
8
14
-7
-39
-28
41
-48
16
-38
17
-1
-43
-52
-87
59
-25
20
28
-36
27
15
-83
-59
9
-12
-23
-65
-13
-90
-30
-18
-23
-25
-46
-11
35
-73
7
-16
-21
7
28
-28
-41
-66
52
-50
14
20
-27
-19
-127
16
22
-16
14
-44
-10
-32
-36
24
17
-6
-34
20
5
-36
-44
17
106
14
32
-25
15
22
80
20
-22
-52
5
-15
75
-30
0
-44
39
15
-57
-25
-12
-66
-21
25
15
29
36
80
20
-38
-8
66
34
-19
37
18
-27
-36
4
31
-12
-4
-13
-16
12
-18
10
-60
-13
17
1
-63
-81
20
-16
-91
21
22
22
9
-16
31
-61
-34
17
54
37
-40
43
-46
33
-115
-12
31
-61
87
-20
-41
72
-44
10
-41
-4
18
-3
29
-60
-75
-49
-23
-45
-70
-43
-5
39
88
-22
31
-18
4
-5
6
14
-25
52
30
5
59
-1
54
4
6
-100
-33
22
18
65
60
-17
-16
79
-44
42
51
16
-22
-79
-17
41
78
22
124
16
17
-17
-55
-48
59
16
2
41
-31
-2
64
53
68
-12
31
-97
95
-32
-44
-5
-110
-9
-35
9
93
47
27
-56
0
-49
16
28
-9
-79
-31
-84
-77
60
-6
28
28
2
-16
-3
-57
-74
-35
30
-32
58
9
-90
18
-13
36
-3
-10
-27
5
38
66
57
43
-41
14
-15
31
-58
1
17
27
-23
29
-87
-19
106
-11
69
5
-126
-8
18
43
66
-96
-98
-37
32
84
88
-71
12
-57
43
54
-92
9
46
30
55
1
-40
-25
-27
97
-16
5
-45
34
16
-78
35
28
-50
-54
-9
-20
-26
20
87
43
-37
-53
-28
24
25
78
33
-1
20
-60
1
-23
94
-21
75
3
-56
-14
-10
-25
1
-60
-4
-10
-35
29
34
-85
-17
-78
75
-7
-24
13
24
-11
37
-68
-63
20
-13
-49
-4
-21
-68
-34
21
-89
-50
15
16
-73
18
28
63
-18
31
12
-93
64
99
35
42
7
15
127
55
36
72
20
15
-8
-46
-26
30
55
-50
21
32
-36
15
49
67
43
-27
6
-17
-10
-22
3
-4
43
-5
33
-62
-55
-26
26
-22
-37
-45
-5
-8
-3
-60
-9
-50
13
16
37
-11
-9
100
87
-4
8
14
-25
-28
44
9
-12
83
-53
-1
24
77
-30
59
46
-9
75
58
49
-11
-40
-42
58
46
26
33
14
66
58
59
65
-3
12
32
2
63
11
-37
24
-24
37
39
-48
-26
24
43
84
40
-47
-73
-47
14
10
35
-18
-48
19
-5
31
0
25
74
2
7
-7
-46
31
92
-22
17
48
10
83
-60
27
-25
11
7
-16
57
-64
-32
-11
23
-11
-6
-9
-8
-83
10
96
-32
-37
-66
26
-3
-24
36
3
2
-21
1
0
66
-17
-27
-27
-29
9
106
-34
-16
-10
-7
22
17
19
-37
21
22
29
15
-8
20
-25
-24
-1
-26
-43
37
15
1
-4
30
-68
101
11
-24
-34
7
-36
-1
11
-40
12
-1
34
13
2
21
-5
43
37
4
22
-59
23
-79
46
4
2
-104
20
5
-2
-5
-11
123
3
37
16
-13
12
55
-18
-29
-29
22
-65
35
-5
12
-13
9
-20
-74
28
16
-61
-26
78
15
5
5
21
-25
20
49
29
127
10
88
-9
13
-45
-53
1
11
6
-38
31
71
-30
-30
-1
59
-4
-5
-8
-27
-30
-33
0
-121
-36
6
5
12
3
-41
-15
-38
0
-69
-10
8
-7
56
-3
10
2
-2
-16
-19
49
-12
-57
18
-8
-38
-1
26
-17
-5
-30
-26
31
17
50
-24
-54
-42
15
-8
-48
1
70
41
-11
8
10
50
-5
-12
29
6
-14
-91
14
22
-18
64
-1
-11
38
34
34
25
-6
42
77
28
-26
-11
92
0
12
33
-14
72
27
74
16
-30
-15
7
-24
-28
-19
24
-26
-23
-7
18
-3
-38
-17
42
-5
-36
29
-82
6
-13
27
59
10
1
25
-52
38
72
16
-17
14
-39
7
63
22
8
25
-6
-7
5
-12
8
26
-6
-20
-10
-14
-15
-4
37
3
46
10
24
-31
-6
-24
40
11
77
0
-62
-13
25
43
-20
39
10
-13
-15
23
-14
-11
19
-10
10
4
-5
15
-3
21
-15
10
33
-9
-9
21
12
-12
14
45
35
5
-32
84
10
-50
64
-7
-22
72
-8
-11
18
18
-2
33
-34
14
-1
-16
-52
19
12
-82
-2
16
-22
-9
15
-32
-66
-3
13
-69
16
-6
-39
11
-107
-125
-1
17
-19
14
14
50
-12
12
22
82
9
-20
28
50
23
17
65
47
-3
-11
9
45
6
-8
-19
-19
9
-34
-127
0
-33
-22
-71
-5
38
-37
11
15
7
-40
-38
12
-48
-22
-1
24
-48
12
37
1
-92
35
47
-21
-7
73
-56
-87
6
42
-17
-13
-62
-22
35
-84
0
-38
32
65
-16
82
-16
-12
13
-20
1
32
-72
3
12
56
28
6
59
-19
-19
-16
1
4
76
-34
12
-38
-27
-22
-9
47
5
-87
-56
-16
-12
-22
8
-3
-18
-39
-45
1
-24
25
-3
-20
-11
22
8
-44
20
-28
-1
-18
-26
4
10
22
-28
2
-25
-17
73
100
1
-8
118
15
-121
20
25
31
42
-38
-12
-1
15
-15
70
-25
-46
7
-40
19
-2
31
-4
-51
-20
-25
-95
53
-1
-27
44
55
-10
4
19
-10
-4
-20
-54
-84
31
-56
-19
1
-1
-61
7
-31
45
-27
85
-17
-40
23
-24
-40
74
-47
3
-49
58
-23
-22
-58
-11
4
14
-12
-19
-22
15
2
-19
-42
2
-11
-39
-5
-22
-12
30
12
40
-66
-41
-18
-71
-35
-27
-127
-10
35
15
9
22
16
-12
87
1
-38
8
-1
-41
-63
-35
32
-39
12
-67
0
15
-46
20
-16
-6
49
10
-24
49
-35
45
62
16
1
48
-12
12
-31
38
15
-64
27
-13
29
15
90
-31
-38
-32
63
-56
53
69
14
-3
-57
49
-3
11
11
-63
94
-3
-21
-55
5
-8
-77
-4
42
87
-13
40
-13
53
-7
20
13
23
-34
48
-28
104
-9
-46
-22
-9
11
19
10
-15
-84
-27
-11
6
-48
-36
-19
7
8
43
-12
-40
35
6
-10
15
7
-8
40
-8
26
12
36
15
-20
-3
-16
34
-1
30
-13
13
-13
-12
-47
-10
0
-2
17
127
-33
-26
9
1
0
-8
14
-3
56
12
8
46
-22
-18
1
-77
20
-19
-22
-33
7
-5
-20
44
12
1
24
16
-49
17
34
10
53
41
1
78
14
-1
-40
-17
-22
6
-3
-18
8
-46
-57
50
-40
58
-1
-1
26
11
16
-9
34
48
-48
7
-98
16
29
10
-24
74
-23
0
9
-3
50
17
-22
-5
1
67
-33
-1
-53
4
16
-3
12
47
21
-7
-33
-9
-11
-62
-39
65
-24
11
20
-11
-38
-14
2
-5
-14
29
5
20
29
-39
15
4
-40
62
13
26
119
24
-59
17
52
-59
-15
8
-29
-42
-11
17
31
5
16
-8
19
58
-13
18
48
42
-24
-6
-19
-7
35
13
5
-57
3
-9
4
15
-4
23
-29
-9
11
-10
-94
6
6
19
34
9
-3
19
38
-12
9
21
-86
-60
84
-2
-7
27
28
-41
-58
-5
42
-27
57
51
-32
-28
30
-26
18
43
-13
-37
8
12
-25
-14
69
27
-115
-7
-8
83
-46
-11
-20
48
15
-36
2
56
-67
-32
-61
-55
20
3
5
-54
-20
18
96
-16
23
70
41
-44
27
5
-19
-2
31
-32
-23
-18
27
-6
8
1
3
13
2
-19
21
4
22
-4
-20
-65
-15
21
73
-28
-63
19
18
97
39
-14
-8
31
-3
-36
-2
7
-78
35
23
-5
-73
24
-72
-1
-83
-127
-16
-39
54
-34
-39
5
-11
17
-27
27
-3
-21
-5
10
45
25
28
22
19
50
-21
-15
-15
-36
-22
87
-50
21
56
19
41
31
72
11
-3
7
-25
25
-35
-41
-16
12
-22
11
-9
-29
30
42
-4
-22
26
43
-41
12
9
-89
-89
49
-31
-44
14
-100
-29
3
-35
5
26
-7
18
-53
21
94
-81
-75
-1
37
-3
-41
57
1
46
-17
0
36
24
36
-13
-41
-4
-45
-20
56
-54
-6
-2
7
-2
41
-41
-37
-21
-21
41
10
-24
9
-48
-12
0
-28
7
23
-5
-19
10
5
39
-48
-20
18
-19
-1
-30
-7
28
39
-10
18
-2
-23
-54
35
-16
-32
40
-19
0
-6
-13
-16
24
-13
-22
-93
6
-16
-3
68
-50
71
33
-20
-20
4
28
-20
90
7
-26
7
63
-46
24
14
4
42
-46
8
9
-32
7
-45
-20
56
33
-11
-35
33
15
-3
15
-20
-69
-51
24
-8
23
-44
-48
-4
-40
-74
4
-20
-14
0
80
-28
10
-13
-16
0
29
28
9
-30
83
-10
29
-17
-16
-10
-15
86
-14
-75
20
-48
-18
41
12
0
23
-68
-22
-1
46
-71
65
-12
-3
7
58
-9
-39
-31
32
10
11
-10
17
17
9
4
18
-24
-50
28
11
45
-17
-17
-22
-34
-5
15
3
-18
-44
-3
2
-5
50
-24
18
40
-7
55
0
-61
33
38
-10
12
44
67
-23
19
11
-21
-1
-51
24
13
7
26
26
20
22
38
13
42
-9
43
21
4
0
16
3
-127
-48
-33
14
4
-19
43
41
-12
-22
-43
8
-5
1
-63
-7
1
-43
-11
13
17
3
-7
2
-30
15
-19
-18
6
-52
29
9
14
10
-52
58
-1
0
-11
23
11
4
57
19
-37
2
-27
5
6
11
-20
12
32
-29
-23
17
26
11
43
9
16
-28
-50
-13
69
-4
-16
37
34
49
-74
-22
-8
-10
-10
-6
28
-53
-54
-32
46
-2
28
10
17
-1
-27
25
7
-11
78
-6
-33
17
31
2
-32
-29
-44
-31
-2
32
-4
-4
-30
23
34
-38
-41
20
31
50
-62
12
-2
-30
59
-41
13
14
-25
-13
3
-1
21
-5
-11
1
-18
-20
14
-10
89
0
20
1
39
16
-26
110
-7
-8
-73
74
36
12
102
-18
20
-21
-48
12
74
23
-11
15
-9
-5
-18
-15
17
-47
33
-99
29
-108
30
-1
-29
-55
-33
-19
2
28
3
-29
14
4
-32
-18
-37
-33
-31
23
29
30
-12
6
5
12
15
1
56
26
0
59
43
-23
63
-63
104
-13
27
39
1
23
-18
65
11
-40
24
9
-37
-56
-76
-32
-57
-50
-19
-18
-22
-79
-18
18
-23
-54
-13
-73
68
9
-30
-28
25
26
61
49
-21
-24
-15
19
-30
-19
31
-11
13
22
-23
8
-41
-42
-27
-79
127
54
-62
-15
-4
27
28
34
-118
-14
-81
7
14
51
-57
85
-22
-20
15
61
31
64
-40
32
16
-27
-89
-92
12
-1
-10
-58
61
0
-5
31
63
-54
-8
-72
-25
23
49
-13
-40
-117
-4
-31
-56
-10
52
-8
53
-35
49
-7
26
-106
-25
24
12
91
52
-64
-51
106
-70
23
-4
-115
8
-46
54
103
-40
-8
-42
5
7
17
-62
-49
23
-1
32
-12
-51
103
49
-47
-12
-42
-3
-6
18
-5
-27
-4
14
8
-12
115
14
-19
31
63
10
29
-70
16
-23
24
17
-56
-65
36
9
43
25
-42
-31
25
-21
3
-45
-1
41
18
51
8
-42
-19
-30
7
-94
37
-14
-23
-18
7
3
-49
11
-43
100
-49
-36
-2
38
33
-14
5
-40
13
10
-23
26
52
-47
12
21
16
-1
-4
36
-41
45
43
-11
34
11
-6
43
3
-27
-9
1
-1
13
27
2
30
26
-30
15
9
-2
-20
3
34
-54
3
-9
-17
-98
26
-2
-4
-17
-20
-33
1
14
20
-1
-30
31
-26
-12
48
-44
127
-14
-60
30
36
33
-16
5
-28
9
36
4
28
13
7
21
-11
21
12
-23
8
-33
-48
-25
10
-56
-15
7
3
-12
-12
-56
-17
-15
-10
27
-20
-20
4
-45
-18
-6
-14
18
5
0
-2
-46
17
-13
-3
5
-23
-67
19
21
-31
-21
-12
6
-35
-3
24
-4
-5
-20
-11
8
10
-27
39
14
11
27
28
17
-64
-20
-10
-68
-26
15
-21
-89
44
0
-9
-16
-53
-55
4
-42
23
-33
-29
-55
0
11
-77
-39
18
-64
-10
-5
48
-4
-1
2
-1
17
-11
-25
-48
2
3
-40
-9
-12
-37
39
17
-28
-31
42
-54
8
45
-2
30
-9
-20
-39
-16
-33
-22
-8
27
19
-28
-45
15
24
0
27
-18
-29
-16
-11
22
26
-6
8
22
-40
-30
86
12
-1
-26
-30
-19
6
-8
7
41
-27
-30
-31
6
-23
39
3
-27
32
29
-18
-26
-19
-17
-16
-9
12
19
24
-32
-12
-27
21
-33
55
-15
-38
-13
22
-6
16
14
26
11
10
-18
26
63
-23
-13
10
26
2
20
26
23
65
-2
-23
21
5
-5
34
-7
-32
-3
-55
13
33
-25
-70
-23
1
-8
32
12
33
6
110
18
-24
49
-30
20
-44
-45
13
-17
30
13
-17
-22
-3
15
6
9
-31
-3
-4
-3
-36
-12
33
9
14
20
46
52
1
17
2
8
27
69
15
-27
16
2
-1
38
10
-13
-2
-16
-23
-14
38
-22
26
6
-44
127
-47
68
36
5
-4
23
26
-16
55
-18
-14
-10
41
3
-31
-4
12
7
7
-6
40
41
-30
-24
36
17
30
16
-15
12
98
-34
11
0
-29
14
-13
-17
-7
-13
8
13
29
-61
-23
27
18
-17
23
25
2
51
35
72
-7
-54
-15
20
-10
14
-22
-2
-9
30
29
-10
8
-38
-12
0
5
2
21
-17
-17
12
-24
3
5
3
-22
39
-6
47
49
12
-42
-4
18
4
10
7
-16
-5
12
-4
6
-26
-14
16
-11
21
5
20
24
2
-31
32
-16
7
-16
-12
14
-37
-27
-20
-9
3
-48
-46
11
-15
-15
36
20
-8
-17
-12
2
-18
5
22
7
-7
15
-27
-47
-8
-31
-12
15
-7
29
-12
-4
38
-13
-41
21
11
5
13
-10
19
0
9
7
-63
24
-3
-11
-11
18
11
19
11
10
-10
1
6
-16
-36
12
14
-8
-8
24
7
-20
5
-12
2
5
16
26
-1
-7
13
11
16
-43
0
-3
14
5
-16
13
-6
-9
-6
5
-26
-15
1
-98
18
-1
28
-8
81
-4
-13
8
-13
3
-18
21
-18
8
16
127
-16
27
3
-32
-49
-25
11
0
-7
-4
11
14
-49
-24
-3
7
24
-4
-25
5
11
-3
1
5
23
9
32
-15
31
36
-1
9
4
12
-23
-1
2
-13
-1
-3
-5
27
-9
10
9
17
-1
38
11
7
-10
-12
-7
23
-19
33
28
21
5
12
-6
-6
14
-9
2
-15
-3
-20
-14
7
1
7
-8
16
11
-9
20
4
24
9
7
-2
16
-7
3
-8
9
-19
-10
-1
-38
-42
4
6
19
-28
17
-8
6
4
-53
23
32
15
10
2
-10
-15
27
30
16
0
-1
9
-14
-9
26
7
-21
-15
7
11
3
4
-6
4
12
-1
8
-14
-10
-25
-3
-22
0
-10
-8
-3
25
8
-12
20
-13
6
-13
-7
-4
-24
-10
-11
29
-19
16
1
-7
1
-59
15
17
15
-1
-19
9
-3
-4
0
-37
-31
14
94
10
-18
11
5
-41
7
9
-5
24
16
18
-6
42
-6
-62
26
7
-7
-10
-17
-3
11
-3
-4
-2
-24
13
6
8
11
16
28
26
4
-19
-12
81
0
1
0
0
-12
-18
0
0
-23
19
-8
36
26
-7
-10
17
-8
-8
16
7
-5
0
40
-2
1
18
15
-8
-29
-28
4
88
-28
14
10
6
-25
-27
-29
111
-12
33
12
44
4
-1
6
-17
-29
14
5
25
-23
8
12
-17
13
-43
-11
1
-23
-13
25
0
-14
30
-8
-5
-15
13
2
0
-18
-14
-14
-15
16
35
44
-11
-44
21
2
-4
-9
-20
4
-13
3
-6
14
-2
-2
12
-3
15
3
9
-18
-2
7
1
-93
-21
32
-24
8
-38
-11
-7
-3
-10
-7
-11
-1
12
-8
-9
-6
-21
-6
2
-13
11
-4
14
-8
15
-1
-1
3
5
-27
-35
-1
5
46
-53
-16
-25
-15
13
-18
13
-45
24
25
9
0
20
-2
15
17
5
-20
-8
42
2
-26
5
-8
-2
6
5
-26
23
-13
-12
-16
24
34
6
-127
-18
-25
-18
16
-17
19
-7
-1
15
-13
8
10
-6
4
-1
15
24
-7
-11
72
-29
-7
-15
-21
10
2
-7
-19
20
18
7
-38
14
-3
19
106
19
-13
6
-6
6
-66
-14
30
-17
-50
30
-3
-5
6
4
4
-24
40
20
6
-32
13
-24
8
-18
17
12
-13
-6
16
12
-25
-6
9
14
19
-43
-39
-17
36
-6
-27
-6
-26
20
24
14
-5
28
-19
2
-104
-32
23
-19
-15
32
-1
-17
-19
-9
-21
5
-33
-3
-15
18
-9
-6
1
1
-5
-42
-36
-50
-25
5
27
0
-26
23
19
-1
-29
18
4
33
-40
41
11
-10
-5
6
5
-54
-15
35
-40
16
1
23
-22
127
-42
6
-16
-3
-48
-2
20
-37
17
3
0
-36
-22
-10
28
10
69
-34
34
-24
-20
-26
-46
60
20
26
0
-4
-19
27
50
-67
6
-116
5
29
-24
10
1
27
-15
-35
48
15
6
-17
28
46
-14
22
-8
-5
26
86
-4
-24
-28
38
-12
-25
-7
13
8
14
82
8
-32
-28
-2
21
5
-2
-9
-8
-50
1
13
-6
104
-14
-1
-6
-13
-7
17
-27
-8
2
-26
-22
17
-18
-42
17
-43
-35
-55
-45
-3
-40
52
40
31
-14
54
-39
7
69
-3
8
-36
17
29
-12
-16
15
-12
33
-51
17
-13
24
12
-53
14
21
51
-2
-9
65
0
5
8
-46
28
-14
11
17
-19
6
-1
-5
-13
58
14
10
44
-40
-15
-25
18
-8
-3
43
44
-41
8
-3
5
15
32
-20
-39
-17
15
-38
4
31
41
14
-31
27
-12
29
8
-37
-13
-56
-15
-8
16
32
35
-33
-13
34
32
-10
3
-21
26
-30
5
-76
-6
-56
17
-17
24
-59
-37
-10
32
-13
-18
-5
9
-53
-71
72
-4
20
-95
5
-107
-22
-8
15
-23
0
41
-49
0
38
-19
43
27
10
23
28
-7
21
54
2
-10
-35
7
-16
-24
37
33
10
76
-55
30
36
35
-29
108
-38
65
23
37
-7
-2
-37
-25
28
-14
-2
-31
94
-5
-35
-49
-51
-45
22
-38
-41
10
-21
9
47
55
-20
-57
86
-37
-13
17
57
-21
-20
47
-82
45
2
17
-14
21
55
-25
-65
40
-49
55
-10
14
35
-26
-37
49
-27
40
14
38
-67
-15
-24
28
-31
2
18
-10
-61
13
31
6
-39
-18
-35
-23
-42
21
-27
39
66
-13
34
18
43
-5
-29
-58
-4
-47
-17
-22
11
-56
55
13
-22
-28
32
-67
35
-54
-64
-67
-44
82
-36
0
-34
-51
70
35
35
-8
-11
1
-19
12
40
48
2
-127
-5
-7
0
55
-10
-116
-83
-26
29
24
-78
-1
-57
-53
-14
-63
49
-6
-29
67
-78
-16
-15
1
-8
70
33
54
56
-31
7
-26
-19
-9
21
52
47
13
-2
19
4
-24
-69
-22
23
-4
-71
77
45
-47
-3
-33
-13
0
45
1
7
17
71
30
-25
18
5
-43
33
28
-12
-94
59
-16
-52
-36
32
-26
-13
19
-16
78
21
19
76
81
24
47
3
27
65
-2
-1
35
25
-4
40
78
-2
-62
-42
5
-25
12
15
-33
61
38
38
-7
35
20
-30
78
17
44
38
-2
68
15
60
-11
-37
26
5
113
37
17
0
-28
-8
41
52
-63
-17
12
-5
0
-1
14
12
-13
77
11
39
1
-8
-16
5
-43
-18
34
19
8
-12
5
52
74
21
-7
58
-24
-54
-42
0
71
4
53
17
-4
-14
-15
20
-19
-10
-5
0
-36
14
19
-53
-13
101
24
8
-66
-1
16
1
17
-38
-72
-6
41
20
-60
-22
0
-57
12
40
-30
28
69
-29
-47
-53
10
-28
12
-43
30
36
85
-14
16
84
32
-48
-44
37
-36
16
-75
14
127
-25
-53
-29
-46
12
27
-35
-28
74
-44
-64
18
-15
-4
53
-5
-1
-71
8
-8
19
-27
10
24
10
-9
13
56
-12
52
33
56
-2
-97
-12
14
2
-14
18
-47
-40
-24
27
75
7
17
-27
-7
1
22
19
-27
-3
-13
-8
-96
49
7
-6
-24
4
-38
10
-9
16
33
15
-61
100
-32
-67
18
-37
-64
76
28
-37
23
-4
13
-39
6
73
72
47
34
26
-29
1
52
-6
109
-32
31
-12
-35
-75
-29
-29
-17
30
-34
-3
-6
13
-24
2
38
11
21
-13
11
6
6
25
36
19
-27
-7
39
-83
-42
-9
-10
9
56
2
-52
-38
19
-26
2
8
-20
-5
12
0
29
104
51
4
-26
-11
3
-10
2
-15
23
-6
28
-2
13
-22
12
-15
-12
0
-9
-57
1
-34
23
-4
-15
-4
-2
6
7
31
65
2
-1
11
7
20
-33
33
-6
38
-10
-2
-11
13
16
6
15
29
0
-16
-7
-38
-3
15
-42
7
52
-23
-34
25
-13
22
29
-43
4
10
4
33
24
25
10
-27
-30
11
-16
-26
10
-37
17
23
-8
-8
-23
-2
38
26
2
-22
24
-15
43
-3
0
21
11
0
-35
-12
19
-11
1
21
-14
-32
-33
-3
-13
-14
16
16
-34
-9
12
37
36
4
-17
10
44
25
5
9
47
7
-127
-8
-3
-4
5
13
33
58
5
3
6
5
0
-18
-29
7
-17
-2
4
-21
21
20
-12
-60
25
-8
21
-5
-14
-27
67
1
-4
-17
-4
29
25
15
5
-14
-21
0
-25
-24
-32
-9
-14
8
-18
-9
38
5
24
-6
-11
8
31
15
20
-3
27
30
9
20
-29
10
-30
-1
39
-26
-13
-1
33
-33
2
-8
15
81
6
-1
4
-68
6
-6
-25
35
23
8
28
-58
-1
-26
37
-10
0
20
-54
-42
16
11
53
-15
15
36
12
2
-43
-4
-7
36
44
9
16
24
-9
-30
-21
-5
17
-13
-4
63
46
-9
-17
0
5
-6
4
2
-17
-10
-2
47
14
19
-55
-28
-43
-32
5
-13
-36
-32
8
14
-29
15
-121
7
14
0
-14
17
-33
-6
27
19
-32
54
-32
77
8
-11
-50
30
15
-29
32
14
12
61
-27
49
-12
1
-3
9
-29
-24
-5
-125
4
54
-10
-11
-9
36
-39
9
5
-13
28
-20
55
-25
71
21
21
-30
-55
0
12
-61
7
-40
-8
32
-36
84
-5
-23
34
-59
-19
25
-23
-37
25
16
-127
55
23
18
0
-35
63
49
5
37
-19
-76
-30
14
31
8
-5
2
94
73
-8
-20
8
-18
-46
-7
1
35
-22
48
13
14
17
5
-17
-19
-66
50
26
1
-22
19
9
-4
1
-23
-8
18
22
3
9
10
31
-30
-37
122
-26
16
0
12
46
24
5
0
-2
-17
-19
-31
-9
4
1
7
1
23
-13
-12
-31
-16
-5
10
16
4
19
-12
10
-20
8
-32
-12
-18
14
8
13
36
-25
-40
1
-64
-12
17
-1
-23
-31
29
-19
74
2
19
-18
24
-16
5
-2
-10
-24
27
31
25
41
-14
41
13
-7
20
-18
9
44
-11
16
-6
47
-64
-30
70
2
3
17
49
-5
15
-44
-1
12
17
-3
-6
8
-29
35
-5
-23
-19
3
-6
-29
17
-25
-5
44
-6
16
-10
-46
3
-25
16
40
-6
52
-29
4
3
5
18
-29
-50
-40
19
-1
18
-13
-12
13
5
-44
9
-55
8
-8
13
-1
-8
18
19
-7
9
-11
56
50
-10
-1
-21
33
47
-13
48
1
-21
-30
0
-18
-24
-38
7
-42
-2
-11
-39
-2
-19
36
33
8
-51
1
7
-30
42
-9
28
5
9
11
-33
-12
-29
18
0
33
24
-43
-46
-14
-16
29
-14
-18
31
25
-47
104
-7
37
27
1
-21
-12
-22
-50
-34
4
18
-84
26
3
12
35
-43
14
-3
-31
-2
11
-6
10
-109
38
-40
1
-4
24
3
20
22
24
4
24
4
19
-50
-9
-10
-5
-127
-6
-16
-23
-14
-8
26
-6
18
81
-5
-15
4
2
-9
-16
-16
-53
-15
-9
22
-19
-5
16
-4
62
27
18
-20
-16
-7
14
-7
28
-15
-20
-12
1
43
7
12
-12
-2
26
10
20
-48
8
11
34
-30
-52
35
-20
44
20
-2
-6
-13
8
42
13
10
-24
15
7
-21
20
-44
-11
-50
-21
1
15
-32
11
12
-16
-15
9
21
-31
-22
-74
-20
-7
-20
-57
-29
-1
18
-26
11
9
-19
-13
-17
-6
11
-55
5
-19
33
-48
45
-25
10
-22
4
-16
-17
4
-21
6
-4
14
-11
-15
-39
-16
-16
39
50
14
48
37
-14
13
20
-25
33
2
13
13
50
2
-28
20
17
-39
15
-32
-39
39
3
40
26
37
24
33
10
36
14
-18
-7
-46
-55
32
8
1
-40
-19
-76
12
26
-7
-31
40
-45
9
13
81
6
25
0
5
-36
33
19
-1
3
11
15
-14
29
63
-27
37
22
18
-37
-28
-9
12
-14
-28
-34
21
2
-21
41
2
-29
1
-20
-6
4
29
21
-60
12
-17
26
-35
6
-15
16
-34
-46
-39
2
40
2
-62
51
-20
-65
-62
8
21
22
22
36
-44
-14
33
-69
-2
5
-44
-7
-27
-30
32
16
-44
26
-21
4
-76
-7
-32
-55
-23
19
-16
13
-1
13
45
-2
61
9
-12
-41
-39
35
71
11
-23
-106
3
-4
-11
-11
6
-40
3
-28
30
14
18
29
-35
0
-22
-13
-28
-16
19
19
7
-16
-32
19
-36
6
23
-10
-24
-97
-27
-127
-17
-4
47
12
-12
9
-53
-20
4
22
52
-17
13
-12
-10
-12
88
19
21
-29
23
-37
-7
0
8
-9
-4
-5
-3
51
1
17
-13
-8
8
-32
-21
-1
26
-46
9
-2
-46
-27
-19
-33
-72
-81
-14
-11
-20
-24
13
112
20
19
-24
-54
93
-12
-73
29
-31
-65
13
-36
-1
23
31
24
-2
-18
-15
57
117
-28
24
-41
-64
-3
-57
-6
92
-10
11
-42
20
-43
-57
91
-4
-54
-9
13
-3
-88
-23
41
-43
4
-25
-39
-55
-54
87
-1
-40
14
-33
55
43
18
-1
-61
41
17
-28
3
16
-60
-25
-122
1
-30
-10
28
27
-49
-5
30
-21
23
-7
13
-37
9
-4
-3
-11
15
-55
23
20
27
80
-21
40
26
41
9
30
74
9
-29
65
-5
79
-44
-31
-19
-15
-23
16
-53
51
17
19
4
-40
16
9
-40
-3
24
21
-7
9
21
25
-2
127
14
-7
12
27
19
-1
6
-123
-39
13
-24
-57
48
-48
34
10
-26
98
-47
74
29
-37
33
-19
88
-59
64
48
-38
13
-31
35
56
31
-29
-72
-20
63
22
-3
-7
10
-24
-60
6
-1
20
-4
14
41
17
-13
-17
-23
20
55
-10
9
-2
-60
-41
36
20
0
-10
43
-27
73
65
23
-30
-10
-14
57
-84
30
-10
-59
-68
3
-1
8
7
32
30
-19
67
55
-41
47
-24
-31
-20
17
-19
-3
-100
7
-45
-16
27
-47
-14
-40
-36
-97
-69
-13
1
-41
-88
-47
79
1
39
-19
-59
-30
60
64
-14
-37
59
-7
52
-20
49
-24
73
-9
20
-17
7
69
-36
11
18
2
-22
1
30
-80
47
-15
48
100
-35
-36
-22
-18
20
18
-20
21
16
-14
-40
29
0
-48
-14
-13
-13
66
-15
24
18
51
83
14
75
-72
1
22
-43
35
-36
-28
30
28
13
-23
39
-38
64
14
51
30
-2
0
51
-33
4
6
39
12
-20
71
1
82
-52
-27
86
2
-14
48
-46
-28
30
15
73
-39
-6
-127
42
69
44
-21
-1
-43
-49
-6
4
58
-61
18
97
3
-75
48
-25
43
20
15
0
44
-21
-44
-27
22
56
-17
23
-18
-39
-10
-91
-54
-45
5
-20
0
62
-20
11
-8
2
-8
70
26
3
-31
82
4
14
60
-18
9
12
-54
-47
52
-90
-15
6
18
-47
54
-54
-71
-22
-12
-22
31
-29
49
-29
43
-8
-47
49
9
5
1
-4
51
29
12
22
18
17
-11
34
10
18
-53
71
63
-53
-32
-64
55
15
22
4
-69
51
38
-25
9
16
21
-41
112
-5
-33
38
-16
2
-48
-22
-17
31
5
-27
41
42
-47
-42
5
-3
-47
-18
-13
-77
25
27
-63
0
-37
-25
-21
-113
-41
10
12
-90
-40
28
5
-25
-43
-6
-98
-36
8
-11
51
-6
-45
-9
0
31
-46
42
51
39
37
12
19
-4
-72
14
-52
-76
-20
-70
33
78
-21
53
59
24
-14
-22
0
-38
78
-10
65
-35
-26
-17
-20
-22
-27
76
-29
-50
-111
17
22
-13
23
20
-84
-10
42
-115
42
-30
-3
-2
26
8
-13
-27
-24
-34
-56
38
-10
103
25
47
-29
12
-39
-36
9
48
-24
35
-11
18
-38
-22
1
24
-41
-9
12
38
-16
-52
-59
-8
40
-74
35
15
-43
-50
-44
40
-51
25
20
11
55
22
-26
61
-21
7
-25
3
40
19
-36
56
-35
-115
23
-21
25
-5
22
20
-30
-34
32
-31
-46
12
-1
12
-44
26
6
37
3
-74
-30
-37
-48
46
20
-7
-28
-68
37
24
-36
14
-40
-11
-24
12
27
-56
15
-17
1
4
3
65
24
127
79
-84
-20
3
-24
3
52
64
-8
9
-10
-9
-32
-17
-42
-22
9
-24
31
-63
-47
1
4
-21
24
0
-5
3
39
-9
-5
0
6
14
18
-21
-55
25
2
19
-12
-5
43
-61
10
26
-31
-4
2
23
-48
22
-26
3
-21
4
-7
30
71
-36
-24
52
36
-29
-7
-4
73
25
39
88
7
2
-46
69
46
28
-13
13
34
-18
-37
28
41
47
-15
65
22
-15
-108
40
-21
1
-2
-31
-16
54
14
-16
-47
-9
15
34
-65
-17
-75
3
27
-24
-16
41
78
-51
21
-7
22
-13
0
-29
-25
-6
-7
26
3
12
-33
10
-3
-18
-1
-19
-17
-53
-1
31
9
-33
-2
27
-8
-6
8
0
-6
-97
-18
-28
33
-11
56
4
-7
9
2
31
11
38
6
11
-22
-13
-18
3
-1
-18
15
8
-25
2
31
16
-75
-34
23
-4
24
-3
11
32
1
-29
16
-1
12
47
13
-16
-9
15
19
-2
-9
-12
-5
-8
18
-5
24
-10
25
-16
5
-3
7
-11
-7
25
-6
-36
3
17
5
-8
31
1
-17
10
-22
4
-18
-6
-7
-4
-31
63
-41
16
1
54
1
-28
-65
-13
-41
-18
-1
-30
-48
-6
-15
9
20
12
-14
-25
-8
-14
15
10
60
-11
1
-10
4
-44
35
16
-37
-3
34
-54
-29
16
23
-17
2
11
2
-27
8
4
-2
3
-5
27
-1
14
6
12
-11
-19
10
12
25
52
-6
-52
-40
-16
0
18
-8
0
-34
-9
0
17
5
6
9
1
38
13
2
-28
12
-22
3
-8
-24
27
-20
10
28
2
1
-4
-13
27
50
-1
-7
26
14
-40
-4
2
2
-15
23
11
-10
1
18
-66
-74
-9
-22
32
0
-4
33
-12
14
-2
-3
-37
-12
-7
127
-32
69
-14
26
-2
-56
-36
-49
-10
-5
7
2
2
19
-5
11
4
2
-16
-2
34
-17
2
1
19
31
17
-16
5
14
-47
-26
-18
18
15
29
21
24
-43
15
19
24
-16
-86
6
-19
-1
-17
-25
-33
19
-13
-5
14
-12
4
4
35
-57
-7
3
-13
-19
-1
11
4
20
-37
71
-20
28
22
-33
21
39
3
39
48
15
3
-10
11
7
-34
-23
-42
26
-52
0
17
62
23
21
-30
-32
22
1
-4
21
5
-28
-22
1
-11
-35
21
-11
-5
-41
-14
-22
-44
-16
12
1
37
-36
0
-21
15
-13
-10
33
9
-1
15
-28
-16
32
19
34
-6
15
-9
-37
-35
2
-25
3
15
47
4
9
-11
-29
93
-10
6
35
17
-34
-11
-71
-6
-35
37
17
-5
-2
-36
-10
1
-6
-12
10
16
58
-43
31
59
87
-9
-14
40
28
25
0
-7
-7
-27
6
34
-4
-1
-11
-14
-27
1
-127
-44
54
23
19
-30
-25
-16
-21
-46
0
27
6
27
-25
-17
-40
-42
26
-1
-3
-18
5
25
-44
-43
-2
-29
18
14
-18
3
-18
0
-20
14
-13
36
2
32
-40
-16
-32
5
48
-93
19
-1
-8
26
50
18
8
-38
-9
-31
9
12
-7
-23
35
-22
3
5
5
8
13
30
3
23
-30
7
12
-8
21
-14
16
23
-19
-17
0
-10
-32
38
-24
23
-16
23
-8
-3
0
-6
-21
-10
11
-25
-24
32
127
16
-4
13
0
-26
-4
-14
-8
19
-24
11
-51
1
13
-56
44
3
-58
-41
12
32
18
38
-1
-1
-12
-81
15
-13
43
-34
-28
-23
20
0
36
9
121
32
93
-10
-16
-26
-24
16
13
14
-13
-98
-21
-26
-9
16
-36
2
7
24
13
28
13
38
-31
-10
-7
-6
-4
-57
41
-10
-21
38
31
65
-26
2
2
-18
-29
54
-2
15
-49
-12
44
-30
-22
-34
-1
48
65
14
9
-46
-15
-5
-1
-29
-9
9
17
8
8
-46
55
-35
-1
-9
15
38
45
0
-14
2
-6
14
19
-3
27
4
-23
-2
-2
7
-37
25
-29
45
-47
-7
-9
3
32
11
-21
16
25
-41
21
24
-29
-5
3
3
-42
20
-2
-6
14
-18
-70
-15
-18
13
-14
-2
-3
-28
6
-27
17
12
7
0
3
38
25
-10
5
-31
-25
11
35
-109
49
-12
36
15
14
-12
11
21
23
1
10
-10
7
23
3
33
39
-9
-45
38
12
33
26
-41
42
-4
-13
34
-22
18
-18
8
-24
-18
32
44
-23
57
-13
-15
24
-58
8
34
44
18
-32
-28
27
-4
2
7
-41
-1
8
4
-14
5
20
-16
22
-69
5
-33
18
61
-12
-34
-46
83
12
-32
61
10
1
46
-5
34
13
74
13
-44
-37
-65
-6
28
-40
0
63
-13
-113
0
-53
8
-29
-41
7
9
-10
2
37
59
21
1
-28
26
11
30
61
26
-10
-26
12
-23
34
-10
-1
5
-6
7
-20
-13
1
23
-10
-69
35
-18
78
73
16
-13
43
-4
-15
-7
-60
-26
-83
-4
-17
-12
102
2
-21
43
50
12
-1
4
-18
38
3
2
43
36
-7
-1
-30
-26
4
-5
-9
18
42
31
18
-16
7
45
28
12
20
-54
7
-2
7
28
-46
10
56
14
31
-21
7
2
-15
8
-3
47
-44
-7
9
4
2
24
15
42
-77
26
42
-4
47
-23
42
-30
2
49
39
-23
-53
12
54
37
-29
0
37
-53
110
48
-66
3
-2
44
23
1
34
-9
29
-30
-2
-42
13
-17
-2
34
-23
-106
-28
34
-38
-16
69
21
-25
76
19
-33
-7
14
-127
28
44
12
-77
-31
-7
18
-21
-72
29
26
3
-12
-11
-14
-38
-99
79
21
-6
-46
7
-41
15
13
115
12
2
-17
29
52
-7
58
-9
-90
-7
57
25
19
27
-29
-13
-5
-79
-96
35
4
46
-66
-31
25
-8
-35
24
32
10
53
36
65
-59
40
17
22
3
-111
22
20
-16
-21
-12
1
-113
4
-46
52
-39
14
-11
-26
5
32
59
-36
-44
-10
-9
-10
-45
-11
-16
-10
-2
6
1
-6
-23
-15
-56
32
2
0
24
-35
-29
10
18
13
-22
-80
34
-25
-9
-10
-18
36
17
41
-37
-42
-4
2
-29
-9
21
-105
-13
-2
19
13
-47
23
7
16
19
-11
-1
-7
-42
-10
-5
8
-5
26
-66
13
-6
8
3
20
18
0
0
29
16
-26
-32
-9
5
-15
17
127
-17
-3
-4
-7
32
-17
-11
-38
58
-13
-20
-24
-39
56
6
13
43
10
28
13
11
50
-5
-5
-13
-30
5
-2
-3
-17
-2
35
-5
-21
16
-60
4
-37
6
-11
-40
53
7
-15
2
32
-31
13
7
33
-18
13
12
-27
3
4
21
-14
-4
89
-6
16
1
-31
-33
-9
13
-16
-25
6
11
9
19
-10
13
-35
52
37
11
9
-12
-53
-10
-56
13
6
-16
24
1
1
1
-14
86
32
-19
4
39
-48
4
12
17
-2
-15
16
15
5
-9
26
27
-17
29
-20
-15
44
-24
-22
9
-6
7
15
-14
14
41
-29
34
-26
-54
-25
-26
56
-14
-13
-40
-30
14
9
-21
2
-8
-27
6
-4
4
55
-43
18
-17
-71
-4
48
6
-29
-19
8
-27
6
-32
-8
16
5
44
19
45
-3
-8
-22
-27
9
-53
-16
5
-29
22
27
24
14
63
15
2
14
11
-13
73
-12
-30
-5
-25
-6
47
16
-9
-26
-53
-38
-38
25
6
5
27
13
2
-11
7
-17
-22
-30
-15
2
-19
93
42
26
-32
-34
-27
0
-13
-43
14
-56
2
16
-41
71
-19
-5
-4
-16
-16
1
15
-17
22
9
-21
6
-26
56
6
-40
10
31
11
29
8
15
22
5
-7
2
0
16
-15
23
-14
-15
-23
8
38
1
6
25
30
-3
127
-17
-65
-12
80
3
-34
6
9
-42
-21
-46
-12
51
-33
19
8
-10
-12
39
-7
12
28
-10
16
-29
-5
1
-26
15
-18
4
-4
11
-35
-9
-7
-38
-32
-53
-21
-12
-5
-17
23
-8
-57
-15
47
46
19
-37
34
6
11
-4
12
120
59
48
71
-18
19
-1
9
46
6
17
-3
5
-13
-4
-52
20
8
19
-7
-23
2
3
-3
21
-13
5
-31
-33
-18
-8
4
69
-8
20
52
3
13
-24
-3
23
-1
27
3
0
6
5
10
33
54
31
-29
0
7
17
-81
22
25
41
-1
3
10
-21
-9
43
-2
23
11
-9
-4
15
-17
28
-15
-6
5
2
-4
12
14
18
13
-3
-6
6
-36
-14
17
-15
-29
44
-6
-15
-3
-12
-43
28
-7
18
-39
23
-20
-45
-40
15
-17
-11
-33
91
50
19
-2
14
16
-127
49
46
-27
67
-59
10
-18
-21
-3
85
15
8
15
-11
-37
-28
7
33
-37
-9
-25
-9
102
7
-60
-67
1
52
-61
-6
10
-51
34
4
25
9
36
-15
-11
32
-19
-19
15
17
-97
5
-3
16
31
-65
10
-9
-75
58
38
-10
-38
1
52
-72
-40
-11
14
66
-19
23
27
-85
-3
4
20
-45
-16
-19
-1
40
16
20
28
-63
-30
16
29
-27
-7
47
-35
12
-23
-39
12
-32
-21
2
23
6
-33
-26
-68
18
8
-104
-2
-109
68
29
-21
-14
29
22
-26
2
71
-10
-57
-41
-53
5
40
20
-4
-7
-4
-71
-9
-47
-38
-5
-31
-51
-44
37
-57
62
0
26
39
-58
26
-6
-8
-5
5
33
53
1
-27
0
4
-28
-28
7
-27
43
42
-45
-4
-55
-64
69
-19
16
-68
-25
-46
35
-17
-77
16
3
33
-62
-31
-5
-12
-15
-27
1
-9
39
21
-11
-78
-9
4
-10
-36
-47
29
7
25
-18
-11
13
-8
21
-6
53
-50
60
18
29
-65
60
-20
35
33
-16
36
14
94
9
-37
-9
-22
-70
12
38
-12
24
-43
-9
18
-46
30
-25
-38
71
37
43
-5
-52
-11
78
1
-5
15
-9
8
-22
-43
-34
54
-46
4
95
66
29
2
-9
-2
-4
12
2
7
-16
11
24
23
2
0
2
-11
-26
-7
5
-26
3
11
-17
7
-3
-1
37
4
15
-24
37
9
-5
-9
19
-6
-10
3
13
10
25
-31
0
-1
-8
-4
21
-51
-18
60
41
-27
-8
13
-11
-46
-1
-8
1
-5
37
-7
24
48
3
-3
-15
19
17
3
4
8
4
-34
3
11
4
36
3
-14
10
-24
-12
-17
11
6
10
6
-22
113
67
0
0
10
9
11
14
-17
10
24
21
10
21
25
5
-34
17
-3
-15
-12
0
-2
-8
1
127
-5
-13
-8
-3
-9
-1
-2
-22
-11
11
-17
1
4
19
-3
-15
37
-7
-13
2
4
-19
-14
0
-9
7
46
3
16
-6
7
12
3
-18
25
-4
12
0
5
-12
-15
18
-11
-9
5
0
-14
3
-1
12
13
2
-8
16
14
9
-4
29
-1
-17
8
-20
-14
24
14
-17
9
-8
-21
81
11
-13
-55
6
7
1
11
-6
-7
-1
19
-22
-5
-3
-12
16
-3
-13
4
-13
1
12
9
5
-3
-38
-22
-6
-15
-5
2
-37
21
4
5
-22
8
-2
-29
-9
-11
-43
-13
8
-12
-4
-10
-19
-7
-7
7
17
-4
5
14
-9
-9
16
29
-3
31
-39
-11
-23
-14
-66
-26
-19
-31
-4
-21
2
-6
-18
-36
-24
-33
-12
46
-22
-10
12
14
-40
1
-8
19
-1
10
28
-27
-2
127
1
32
-35
-8
79
-43
-86
18
-32
13
45
-12
-21
37
25
6
-3
28
-25
53
-46
45
42
-12
-37
8
25
-42
-29
-12
14
-35
-28
-89
18
23
2
25
-25
13
-6
-18
51
34
7
-12
-14
44
-4
-24
-37
-33
-49
-11
-29
-1
-6
18
-28
-11
98
4
-87
-4
15
-18
-15
-24
-34
-23
27
65
-27
-1
-49
-17
11
-36
26
-19
-48
-6
-27
-12
23
-11
-29
3
-26
0
-24
11
24
19
-7
-65
29
13
28
-39
-31
-16
-15
-28
-20
1
59
4
-4
7
-35
-51
6
-26
10
-27
15
-79
11
48
29
-9
-44
3
30
-15
2
-16
-24
35
-18
-41
30
-26
-23
24
17
-10
-45
-39
20
25
4
13
1
-1
24
-41
-48
-8
59
5
38
-19
-17
75
30
7
13
1
24
-28
11
-20
-15
-19
-15
1
16
14
56
-33
-48
-52
-14
11
32
12
-29
39
-70
11
36
-5
28
-28
27
-47
12
31
-26
-31
32
23
41
3
30
34
-49
-63
25
-10
-27
44
11
-54
-36
47
35
-7
4
35
41
-3
-21
15
5
47
18
21
34
-20
-9
0
-19
6
-6
47
20
-6
-37
8
-11
5
60
-4
-39
-37
-5
-16
9
18
-41
-13
-11
19
-18
4
-8
-1
9
16
-25
-13
-52
-36
-8
-36
-21
-10
-51
-8
3
36
-27
-13
-40
-16
15
60
-9
-10
-127
22
-22
37
8
21
-77
-26
-18
-6
35
46
-32
12
11
33
-26
7
10
15
-2
-46
52
-13
-23
-5
48
-45
-31
3
24
3
1
-5
14
-39
15
-13
44
-17
-2
11
50
-6
-17
24
-2
2
-12
-23
-4
37
-13
-7
-13
-36
-6
-40
-9
-12
20
15
40
25
10
3
-3
25
40
-38
15
8
21
-7
-16
24
38
9
-39
10
-25
-10
-27
-19
-22
-38
-29
44
-28
-9
-26
-8
-12
-54
-23
28
-14
29
-3
-7
-33
-6
0
52
27
36
51
9
14
-13
2
36
-7
-18
32
7
-29
-17
-31
-6
-15
-2
18
-3
-11
-8
-6
-3
10
-26
-7
34
-6
-2
30
-17
11
9
10
-4
13
-21
1
52
14
-3
22
17
-37
44
-7
26
29
40
2
-16
32
23
-10
-8
-26
-17
32
-34
-2
-7
-1
-28
33
-3
-13
-3
-27
-30
-7
-1
-20
-4
16
-21
35
-3
30
2
15
-5
-20
21
4
2
74
29
-4
-4
33
16
-35
1
-10
-15
-19
-1
11
-39
6
-4
-26
-11
55
-1
6
17
15
-12
20
32
-38
-5
28
45
-21
3
-11
81
-15
-72
10
7
7
-35
-18
-29
-11
6
30
-14
8
5
7
40
34
7
-40
26
4
7
-7
12
-38
-47
-44
-3
-26
36
-30
-27
6
-36
11
-42
-25
-42
-1
-46
-8
-49
24
14
-91
-17
-46
37
-8
-60
14
2
26
-6
-10
-46
1
-12
25
127
-54
16
36
32
-6
16
69
-37
-40
44
33
43
-41
4
12
-34
-2
46
-15
-27
20
7
-29
-8
89
29
44
-15
-25
-13
-19
-13
27
-7
20
29
-73
-1
37
-94
32
-35
-52
3
37
-5
27
5
28
20
-45
-17
-23
-38
-21
11
1
1
-2
-8
57
-20
6
11
24
-11
-25
-19
-19
-13
-35
-5
22
1
32
43
30
-54
68
71
-41
10
11
5
-26
80
30
33
-5
-21
-59
9
24
16
-24
-20
-5
2
55
-9
8
21
21
42
-21
28
88
-44
-1
42
79
77
21
-32
1
9
2
60
-5
-51
8
27
-25
-5
21
62
-14
8
67
4
-28
-39
-26
-31
9
-79
-35
-18
55
1
16
-8
-61
-22
-20
-15
34
-10
13
32
2
-91
-54
64
39
-7
23
20
-19
12
18
34
22
-24
-48
-65
-31
-43
-31
-50
-52
8
-38
43
-30
46
-79
-93
-9
53
16
50
56
72
14
-5
-41
33
74
22
8
-7
44
-23
-15
29
-31
16
-26
9
-2
35
-13
-10
0
-44
5
-14
15
-26
21
72
13
-30
-32
13
61
44
18
22
-15
51
-35
-62
-6
-25
-9
23
25
30
-26
21
2
-41
-38
-10
0
13
18
-26
41
-34
9
-41
8
-57
5
11
27
-44
56
9
17
2
-15
33
1
-13
21
27
127
4
-3
-84
-26
-25
1
-53
10
5
7
-15
18
8
69
-7
22
-11
-45
16
-5
35
-45
-86
24
39
-35
18
-17
-7
27
11
-14
-10
-38
-10
28
9
-114
-36
-39
34
16
43
19
31
52
-26
-37
-35
8
-3
-11
-24
-45
-34
17
29
-40
46
13
-8
-18
-23
56
7
-17
-6
-47
37
-22
-50
6
33
-44
3
-16
12
-10
30
36
-20
9
10
-5
4
-46
7
18
-15
-4
-17
5
50
-5
-16
-18
-29
25
55
12
32
6
-29
-29
-19
-50
-24
-44
-4
-5
-30
1
-30
8
-17
32
29
21
10
4
3
23
-38
5
10
-46
-9
-24
32
22
-44
-6
1
-6
20
30
23
33
-11
-1
-13
49
13
8
-53
-20
36
-2
23
-22
-29
22
-23
-41
-11
-19
-5
-31
-13
51
-36
-39
49
26
-15
58
-15
39
-5
22
-22
-5
-29
3
50
0
4
14
6
11
-25
-37
-65
18
5
-8
44
20
-35
-18
-8
-30
8
54
16
11
-6
-52
20
6
-10
-14
-9
36
-16
52
51
3
-18
-23
3
0
47
-7
8
-28
-17
-52
30
-42
36
-33
-27
17
-19
-11
8
-9
35
6
-42
-13
-8
15
-20
-7
-25
-28
10
-40
-5
52
1
-15
-41
7
34
22
-38
-16
13
3
59
47
26
-6
19
0
-40
43
-35
4
26
1
3
-27
0
-8
38
0
15
32
-60
8
-23
16
22
76
-42
22
-6
-31
8
27
4
45
11
59
0
-12
18
16
-12
-51
-50
-13
-30
8
10
3
3
-5
27
16
-43
46
-6
-5
-26
-20
-20
-32
-1
12
-24
-2
59
-12
-32
26
-127
10
0
26
24
39
-28
-5
-10
-3
-1
-32
29
17
28
-9
-10
-5
-4
43
-2
9
8
10
19
-38
5
-55
-41
-24
-12
38
1
73
-29
14
-22
37
17
-9
-14
-27
66
15
18
-44
7
-17
-6
16
10
-19
55
-18
-20
-12
-12
17
29
15
-6
10
19
27
-7
22
6
22
-2
-19
64
-13
66
10
7
-15
-20
-4
0
21
-62
-11
3
-1
34
32
-30
7
-11
-20
5
18
49
26
-23
-33
-38
-12
-4
-35
40
-22
12
17
-12
-23
-14
1
-16
-35
-30
22
1
54
-12
19
-9
-9
6
43
-65
33
90
34
35
61
9
34
-27
-10
34
10
2
-3
-7
-45
59
22
-48
-25
-33
3
-68
-6
-21
-25
-13
-15
65
29
-35
-32
-52
8
-10
108
32
-12
-47
8
3
-7
-10
-5
-26
44
7
39
14
7
22
-5
31
-75
13
20
-24
45
14
43
-55
22
-34
-29
62
29
9
-13
-55
50
34
78
-8
-54
-16
87
-23
-20
-38
-8
-87
-10
-24
26
-8
-7
-17
-17
-26
1
15
34
16
127
-2
22
33
60
-19
-57
-1
58
-19
15
65
-18
2
-6
-15
8
-34
-2
30
-43
-6
35
-33
13
-24
-59
-40
-2
-11
10
-15
-27
-58
-51
3
19
24
-12
42
-60
57
-57
-65
-21
-41
24
5
57
-44
71
-22
-16
-28
32
-16
-76
-10
-38
-8
5
33
-7
-43
-1
-2
20
-13
12
-19
-11
-9
-31
-8
-25
-43
-39
19
11
43
21
-17
-17
36
-34
27
-40
-9
57
-23
40
84
-14
28
-2
67
13
-14
-11
-36
17
-16
-4
30
-16
86
51
1
13
-8
11
12
18
7
3
-8
12
-27
-5
7
17
6
47
-102
-22
14
-15
-23
-17
-41
-36
-99
-30
47
8
31
8
21
-22
-5
3
-34
-13
25
-34
15
19
3
96
-15
-25
1
-89
-7
22
-2
-35
40
-24
-56
-6
-56
30
53
-51
-47
50
19
5
-27
36
-6
-38
-18
-19
41
-22
-13
57
-33
-23
-37
-32
-41
-6
43
23
6
-17
-20
96
-27
40
-25
-18
-11
-28
-5
-26
48
22
0
10
49
-66
29
49
39
-23
-7
-24
-27
3
4
14
-22
16
-1
73
-52
-34
-12
-2
-85
43
-25
24
-31
-43
-20
16
-120
-18
11
-26
-42
78
-14
-6
38
-41
40
-6
-9
-50
1
5
-53
-22
-20
-55
20
-8
-12
-63
25
56
-8
-44
-14
32
-58
-41
5
-3
-36
16
34
-8
-16
-7
-26
-48
0
31
12
-33
-8
23
68
-40
-88
72
-50
-60
-55
-65
-74
-11
10
22
-42
-2
18
30
62
-41
105
-14
-64
-12
38
8
-34
-24
15
49
36
3
16
-77
-48
-5
-22
-88
-45
-63
-32
37
30
18
-51
-41
-5
-16
-3
26
65
25
-41
9
2
21
-70
8
-27
-36
-25
44
27
22
28
55
-45
-57
-57
-46
21
-9
13
4
-43
-11
-24
-3
-46
-34
6
20
13
-9
-15
23
-25
-16
9
97
34
-49
-13
-17
-22
-28
82
21
-51
41
89
49
41
9
-20
60
8
61
8
61
-34
-18
-48
17
-23
127
-54
56
53
-12
-26
-14
-15
7
-21
-3
-6
67
-97
-10
37
51
1
-29
27
-65
57
-15
-47
33
-34
74
44
33
-15
1
-24
-1
23
20
17
4
0
-22
-6
0
32
-21
-13
5
-6
14
7
-3
0
4
-37
-23
48
-9
-1
-3
-23
16
53
7
-46
-11
-42
66
59
-8
1
-12
23
7
25
27
-4
8
-1
-5
5
2
-11
-56
-24
-8
-1
-21
-6
14
-14
1
0
-9
-31
-12
17
-11
-5
-10
13
20
-8
-16
-7
-1
4
3
6
-10
11
-10
-1
5
4
24
-26
7
-11
-26
-7
0
20
6
32
27
-13
6
34
8
-36
-3
-3
-3
-5
-5
3
-11
14
3
-29
3
-18
-12
-15
-3
-20
-22
-11
-11
23
-17
-15
-19
-8
-26
-8
9
-49
2
0
26
-9
6
-21
2
-11
-50
-8
25
-7
-10
-14
-11
-1
28
-11
22
23
-38
2
2
8
-1
11
18
-36
-19
127
3
-26
-14
-7
-4
-11
7
-24
-3
1
-29
15
9
-3
26
90
-53
-30
5
12
-9
-11
-27
-16
-6
-12
-9
-1
13
23
36
-12
-8
-6
12
9
49
-43
-7
2
-15
20
8
10
5
-15
5
1
8
-8
3
13
-7
-13
2
-4
-10
7
8
6
14
-39
11
5
-10
-54
-7
4
-8
8
39
-3
-7
-7
-8
-8
-18
-20
-18
-22
-6
17
2
-9
3
0
12
-2
-11
-22
-7
-6
7
-15
-8
6
-4
-10
-4
2
32
10
-2
8
25
20
14
1
25
-40
-39
-40
14
-11
-9
-10
0
-66
36
-28
27
-59
-53
0
-7
7
-12
9
7
22
-14
-6
-15
3
38
9
21
-29
22
25
-4
-62
19
50
18
-27
1
27
-44
27
-33
-23
42
25
77
54
-31
24
36
44
18
-45
-22
27
19
13
18
-11
9
78
-5
-11
-50
32
-40
-31
-23
39
-5
126
28
31
-6
19
36
19
-25
-2
18
-11
29
-32
-14
-26
12
56
74
-37
50
23
25
-63
-1
-17
33
100
-45
3
4
50
30
35
-33
-19
-2
-40
11
-17
53
-13
-18
-65
-70
-34
-31
16
-15
53
22
-24
-9
10
-15
-61
78
-31
41
23
-15
8
10
-9
-44
41
-12
84
35
-28
11
25
23
14
-31
-46
33
8
-7
6
-42
-4
-21
17
12
16
-79
45
16
25
-25
-27
-22
18
47
-21
-9
-7
-25
12
58
0
27
80
17
-5
63
25
6
18
25
4
6
-25
-89
21
-27
26
36
22
28
-27
-28
-25
9
-7
45
-27
13
-23
34
103
33
-41
19
-19
29
6
7
-3
26
-52
-25
-39
-43
9
3
30
7
-80
26
0
-8
32
6
8
18
6
24
-11
3
-41
29
-4
-127
-11
5
1
-54
58
-10
-61
-18
-34
51
-14
1
-13
40
-15
32
-12
-10
59
-12
-17
-11
-37
-79
1
25
-34
13
-14
48
-1
127
42
-46
75
74
-32
-31
102
-14
40
31
-60
-38
23
-47
67
0
-17
58
-56
-30
-59
-4
54
79
-59
-17
-7
-53
29
57
36
-21
18
17
3
-35
-13
-50
0
-20
0
-11
21
37
35
-31
-2
55
8
29
-39
-96
-45
-38
36
21
-26
16
-73
60
-20
-35
-41
-42
37
35
-34
31
-27
-22
-65
30
88
-27
-63
-19
-16
36
-16
56
-24
59
-6
13
-12
40
33
-8
25
19
-47
-32
60
-10
-56
12
-16
21
45
-23
-58
14
2
-40
15
-12
14
-82
-53
-59
75
8
-18
-10
119
-4
9
18
-23
-15
40
-3
-11
-5
-17
110
-52
35
-33
28
49
-16
72
-33
11
19
48
-35
-12
-5
38
-30
-12
-3
80
-56
14
36
51
5
-39
-24
-1
30
-13
42
-37
-39
-49
-42
30
-39
52
-21
7
2
53
20
-37
35
-9
43
25
72
-26
16
22
-2
-16
-17
-18
5
27
-53
9
-31
15
-40
18
-46
49
-6
-9
20
64
-45
-15
57
-14
-13
36
-67
11
24
-4
-14
-61
33
-18
-23
58
-55
-19
-23
34
-28
2
-18
29
-22
-25
17
-24
-48
0
-34
13
42
-34
-8
1
31
35
8
-38
-29
-31
-59
-2
15
-27
32
-2
3
-47
-66
-44
21
-11
38
-16
-36
-16
-41
-44
18
89
-21
9
-9
-13
-7
-13
22
-16
-54
-26
-36
-10
-41
6
4
80
-51
9
-27
35
-9
28
34
0
20
-52
27
19
-11
-7
8
-33
-52
10
13
26
64
-11
25
25
-41
22
36
11
-12
64
22
22
5
43
-39
-33
-20
29
-1
46
25
21
26
60
22
16
28
22
-37
-21
-46
-4
-50
-8
-10
-22
7
-44
-36
36
47
-38
38
-28
-36
-10
-11
-20
1
-46
10
5
25
77
-50
-8
8
10
26
35
14
-74
1
106
-1
-60
-45
23
1
-9
0
87
-29
-3
-61
10
4
-33
15
-3
24
-48
21
-13
37
-49
-19
-31
1
42
-125
-5
-23
6
-50
-12
11
11
22
3
60
20
-27
13
-17
-37
-45
-6
34
-28
-21
32
-16
59
39
-44
23
-27
13
-30
103
2
1
45
26
4
22
-25
62
45
39
6
5
-1
56
-4
-31
3
-56
18
25
7
-37
14
-5
-15
37
1
44
-2
-14
30
14
-52
-30
-28
-50
4
-11
-28
13
73
22
-28
8
-38
-71
75
-32
-33
-15
33
59
2
4
9
-18
15
-2
-40
5
49
21
29
-25
7
-2
-3
-7
-14
37
-7
-6
-29
-17
-20
127
-2
-41
18
-23
-29
-67
49
-5
-5
-3
-11
72
-22
68
2
-25
-62
-20
-25
-10
-25
27
-29
11
55
-34
13
-12
-7
30
-17
-68
-7
-5
35
1
-18
4
-19
-70
-37
6
-17
13
14
127
44
37
14
48
-36
-18
6
-12
18
-29
9
23
5
-23
-10
14
-29
18
18
33
80
-33
63
80
25
-44
-16
-19
-9
-29
-23
44
-6
-11
3
33
37
23
12
7
-21
18
-9
-10
28
75
-22
0
-9
0
24
60
-67
9
47
41
-8
83
-1
-12
-61
17
26
-37
51
-13
38
-71
55
-20
0
64
-2
5
-20
33
-2
