14
-4
4
8
14
62
1
16
-24
8
-4
-17
-23
0
-11
-35
102
44
2
-9
-8
28
10
11
-23
0
13
-9
-14
21
23
18
11
-8
-8
-10
-22
4
13
-16
12
1
-40
0
-2
-19
8
-13
10
3
-10
-3
-23
23
14
-8
9
-23
29
15
-6
-9
-35
-5
-16
-7
3
-1
-7
-21
-4
3
-17
-16
-5
1
127
18
35
-3
17
-11
10
5
-6
4
0
1
16
-16
17
13
-26
21
21
-8
-49
-25
1
-21
56
14
3
4
21
15
25
-5
-7
13
3
-11
-19
-26
-20
7
-7
-8
-9
-5
-12
-12
10
18
8
3
-16
11
81
-11
-17
11
6
16
56
3
27
64
19
-38
8
8
39
48
87
12
-17
62
-104
-46
28
-8
-13
-46
-18
-26
70
-8
6
-5
-38
29
-41
-5
-12
-3
13
5
19
-41
-12
-31
8
-26
127
-5
4
6
47
13
-19
-24
25
15
-21
50
-46
14
-51
30
-27
3
17
28
-6
-33
-22
-9
49
-50
2
-29
-6
-19
-43
55
-61
3
-12
2
3
-15
-44
-13
25
28
-5
35
-14
-13
-107
-19
-30
-66
41
20
9
1
57
8
0
87
38
29
41
16
-42
51
-30
1
47
-48
0
30
30
-24
1
-9
20
-29
17
85
1
1
-25
-12
-23
-11
1
34
3
3
54
13
-8
-30
9
60
-2
-20
-3
-5
-5
2
-16
1
-6
-16
-58
-1
13
-2
13
14
-7
-17
4
27
23
-10
16
-14
-28
21
-3
9
22
-32
-30
13
8
-1
10
-38
26
-43
-14
-32
55
7
1
3
-16
-27
32
-14
23
-34
17
-1
-16
-29
19
49
-108
10
-51
-12
-9
12
0
16
-20
7
7
13
11
-33
8
28
-17
-5
6
42
-3
9
6
-1
-22
7
-5
-85
-20
16
-17
5
-37
-82
-12
26
7
-20
-7
-6
90
-23
-19
6
-28
-53
46
-13
0
1
-127
6
15
7
-2
-38
-11
-7
-1
7
26
-18
30
6
-31
-47
-16
27
47
-1
22
-4
64
-1
10
13
10
39
6
31
-7
18
13
-23
-81
16
19
15
-30
-15
-41
-12
2
-4
2
-22
-17
-7
-38
14
73
7
-3
-14
22
-23
-21
-6
15
14
14
-15
45
3
17
38
-66
-6
31
42
7
22
27
-48
0
-17
-67
4
28
-127
-7
-29
19
-35
50
-28
-12
-2
24
13
10
-12
-9
39
-17
-14
4
15
-84
-18
-60
-66
-10
8
119
3
-24
35
-8
-3
-14
11
-30
15
-38
-11
29
18
5
-10
-6
-3
4
-14
28
20
58
-1
-7
-45
4
42
-4
16
52
9
-13
101
17
69
-32
3
-19
-29
-5
-67
-40
1
15
23
30
17
10
46
-12
-66
30
-28
17
-19
6
18
9
-31
21
2
-25
-9
10
22
12
19
-13
6
81
3
-16
-16
-26
-1
47
-26
5
3
-6
7
-6
-6
-10
-35
12
-2
-9
-7
-19
-7
-11
-15
20
0
16
6
2
5
-17
-27
16
31
-35
-42
-5
-21
80
27
-12
25
-27
16
-1
-10
2
-8
23
2
127
30
-35
-13
40
-58
16
39
11
-13
41
27
11
53
-22
-1
22
21
-7
-13
31
-52
-3
0
15
-106
-9
10
-12
-47
6
75
-4
87
-14
-55
35
-1
-11
-19
-14
-2
-43
-26
2
11
-7
-14
-52
4
-12
-22
7
51
36
40
9
-33
-31
1
-3
-19
0
26
10
-7
28
-24
8
-22
39
-9
1
29
22
-35
-16
1
29
-65
-11
20
4
37
32
-25
3
8
-61
-101
23
-16
2
0
4
-5
-4
20
-2
-1
31
14
27
13
5
-4
-31
-39
-7
9
-43
26
47
5
9
-37
-34
9
-1
74
44
17
-5
-12
-1
-7
-35
7
10
-17
6
19
-17
15
-58
-15
-10
5
98
25
8
5
1
-72
-1
0
-5
-9
-7
-1
127
-16
9
-5
-3
-38
-10
-25
4
-15
-34
-12
30
-22
-6
20
-9
3
8
-12
22
91
-12
0
59
-34
7
-87
1
-3
3
-9
20
-6
-5
18
-21
-42
12
3
28
21
-3
37
-38
-27
0
-3
-21
20
-20
-7
-18
9
-5
5
17
3
-31
-20
-6
23
22
5
-1
-21
-16
10
-12
-16
6
8
19
1
-23
47
-6
-15
2
-21
17
1
-12
-8
-2
-13
2
0
-2
11
1
39
7
-9
48
15
-23
31
-5
24
-1
15
15
6
13
-17
42
5
4
14
42
-7
8
33
-45
-13
1
-8
6
44
9
-8
11
17
10
8
-22
-47
-7
5
3
-77
-10
-7
-2
-10
-54
7
13
127
-3
-70
7
-13
-19
-19
0
-18
1
-26
8
28
9
1
-58
3
-7
34
-18
-2
20
24
-9
-2
11
13
12
6
-45
-20
-28
9
-9
6
9
18
4
14
6
9
-13
-35
0
12
7
-91
6
22
12
5
5
-13
10
29
51
127
-16
20
6
4
45
-2
7
-11
6
13
-4
-45
23
-13
-1
-9
2
18
40
1
102
-4
-7
-15
-12
3
9
-10
-6
30
-2
15
-4
20
2
-42
1
-1
-5
-27
4
9
6
-1
-83
-2
-9
-71
17
19
-18
23
43
-1
7
6
9
-1
5
-11
36
0
-56
-12
-13
-35
-39
-21
6
-24
-26
-3
-3
0
-6
4
-3
-3
-2
-5
-14
-54
5
4
8
13
-10
127
12
-10
20
-16
7
2
5
-6
45
-36
39
-5
-23
-3
-9
-17
59
21
-3
14
12
-23
24
4
15
-12
18
-4
-6
7
10
-2
-1
30
-2
-12
-10
-6
11
14
5
7
12
16
-14
-26
-7
-36
6
3
-8
1
8
8
45
-1
-24
-10
6
-3
8
13
-9
1
-3
0
-72
-31
15
-23
11
-18
-15
-6
-41
8
-15
15
-45
-12
18
-8
-19
-15
-5
98
-17
5
15
2
12
-18
-20
7
-7
-10
4
6
5
77
22
-2
10
21
10
18
-1
-15
-8
-9
-5
-97
9
103
1
-4
-3
20
1
7
-4
-3
19
-39
2
8
39
20
2
-12
-41
26
13
12
7
-1
-10
-19
-1
8
-19
18
19
19
-17
6
5
-19
35
-1
7
20
-5
50
37
3
-15
35
-9
-13
-18
5
-10
-2
-7
-25
14
30
8
11
-27
-10
54
-6
5
-11
-5
35
-27
-11
-7
20
-2
-7
2
7
-27
23
70
-25
-28
-2
19
25
-8
2
-15
43
-15
25
3
6
-5
81
2
-1
-20
-2
1
-14
12
14
-127
3
6
-37
-22
2
-36
-45
2
-26
-6
-25
-16
-25
5
-11
-103
-8
-43
-14
-10
9
-2
-8
-9
4
-16
-8
11
-21
9
-17
-8
4
-5
-5
-21
27
-17
15
41
-4
2
-6
3
48
62
-3
-115
8
-41
-27
-1
16
-25
28
-26
-67
15
-16
-39
-9
-60
-44
-122
62
-32
16
51
16
-19
-12
-21
33
14
-59
-24
54
-105
-22
-27
-6
-26
29
76
89
-22
59
-9
44
39
2
-37
30
-11
-100
56
-77
-62
-40
9
-16
-26
2
11
31
35
18
-31
1
13
7
6
-19
31
16
18
52
32
-34
-17
-2
-18
-57
24
21
-16
-27
-6
25
15
5
-41
-127
8
-23
-25
13
-18
24
-23
37
-8
-12
-17
31
26
8
33
5
10
-2
25
-3
18
-7
35
12
-100
3
11
-1
6
30
2
15
-4
23
-16
-29
-5
66
16
-3
-6
-12
14
-3
16
24
12
-18
34
28
-15
-15
4
7
40
6
-8
5
11
92
90
4
7
12
-9
-4
-19
-9
16
2
1
19
-40
1
19
1
-2
-6
-10
-3
8
-88
-16
-25
43
-29
9
-10
19
2
4
-16
35
-5
-17
-6
-6
6
4
28
14
10
-6
-11
0
-35
11
-25
6
2
-15
-4
-35
-9
-7
12
62
-19
19
-7
-127
-21
-4
40
-2
1
30
-5
3
-4
-20
-8
-22
1
12
14
-2
-40
-11
-9
-5
-20
0
-9
13
-1
47
-11
1
-13
7
21
0
3
8
0
0
24
19
-28
-39
7
-20
2
-5
24
12
6
-8
2
-51
-7
8
13
-50
-37
-3
11
12
52
-2
10
10
9
3
16
-29
13
20
-13
-7
8
-18
-4
-10
-8
-8
-4
2
-84
-47
-11
2
-18
22
-11
-16
11
-9
22
7
-19
11
13
-6
-8
-15
0
-24
-22
-75
27
-14
-29
-15
-10
-4
-28
-21
-5
0
1
-9
3
-5
-37
-96
-10
-7
-9
-8
-16
-3
1
3
-9
-7
-1
20
14
5
16
-8
13
-64
-3
-3
-7
1
2
49
36
4
17
-1
-3
-6
-29
10
-16
-6
-1
-8
-4
-15
11
0
-11
-4
-27
127
16
-7
-10
-11
-22
-66
-13
20
6
4
-4
7
27
-3
-20
57
23
-59
-20
-46
-40
22
5
8
-19
37
13
-11
-2
0
1
-37
-18
-39
11
-10
1
6
-29
93
7
-4
26
-2
53
-3
28
-53
-8
16
0
-26
48
-25
-51
14
4
28
-5
10
14
3
3
-7
-65
-35
65
-76
15
-47
25
9
1
8
22
-25
-12
-9
30
-28
-11
-23
8
59
-5
-4
-11
3
-36
5
-9
42
-91
-6
-13
1
4
-35
1
4
19
-6
-6
-1
-7
-17
-27
8
3
-18
4
8
24
31
17
-19
-2
8
60
64
-63
18
3
19
13
9
9
-10
-127
-8
23
14
3
39
11
10
43
26
88
-2
6
-2
15
10
-51
29
-1
8
-3
-4
18
-31
-10
32
9
-13
-120
20
19
-10
-16
2
4
27
12
42
3
-29
6
-17
31
37
29
-84
-30
36
30
-29
43
-10
22
26
-12
14
-12
33
-9
-4
-39
33
7
-19
-11
17
46
-27
41
21
-4
72
-30
4
-51
17
-1
5
-12
-23
-19
-12
-25
-7
8
-12
-7
-8
-3
-12
-57
10
-12
16
-11
-19
-44
-13
-28
-44
21
6
9
-19
46
10
14
-34
11
-36
-7
-24
26
3
-15
19
-2
-28
-27
-15
-2
0
127
13
-20
14
12
15
13
-29
1
3
26
74
-18
29
-10
22
-22
127
37
-8
6
16
117
52
-9
25
-9
2
25
4
0
-108
-20
-37
38
-15
23
-5
19
8
11
-4
1
-26
18
14
-22
-18
-75
0
46
-7
15
-7
-21
-15
-45
-22
-65
-8
22
-19
4
38
-17
12
-26
-8
-4
-6
127
-118
-14
-38
62
86
-43
9
17
-26
-10
22
26
-22
19
1
-3
7
7
-22
-23
4
-35
-15
20
9
10
16
37
28
-39
20
-1
-83
7
30
55
-50
-19
-45
14
-12
-61
10
46
3
-35
-10
2
39
59
40
-31
24
6
33
-9
32
-41
78
26
44
14
35
-23
10
33
-4
32
-9
-2
23
-1
-1
16
2
-16
-14
9
-6
5
-5
4
0
-4
22
3
-4
-4
19
8
5
8
-12
42
2
-6
-7
-1
9
-4
1
-4
-2
-2
4
3
5
-12
3
5
-17
-8
-8
10
3
-3
2
-12
1
13
5
5
-6
11
13
-5
-6
4
-5
-1
1
-5
4
5
17
0
5
17
-8
28
-3
-1
-19
1
-8
6
-5
4
0
-3
-8
4
4
-127
-4
-4
-2
-6
18
-51
4
-4
-30
-5
7
-6
2
-1
3
-4
3
-3
-2
13
4
8
-4
-8
0
7
3
6
0
0
-31
-10
-5
4
-7
1
-4
0
-58
-7
7
-13
-28
11
17
-3
22
10
55
-30
-29
5
18
-20
-13
-22
-11
-24
38
-30
25
-26
-77
-40
-14
5
-2
-62
-10
-33
32
-33
-45
12
4
-4
20
-4
-40
27
-2
-37
3
-20
-36
14
21
20
-28
9
-9
-44
-8
51
17
17
-20
-2
-22
7
-3
-21
0
-21
30
-9
-6
20
-24
6
-30
-52
12
101
4
10
44
-18
-20
11
-12
14
-20
1
-9
-23
-20
111
-61
-2
31
17
8
-36
-52
-5
-127
-32
-7
-48
13
37
13
-10
-48
-28
63
-25
18
-39
-25
14
9
9
-14
-14
-21
9
41
-8
49
-20
-14
-22
-14
-9
54
-20
11
-36
-3
-2
17
9
3
10
-17
4
4
-2
73
26
-2
5
-7
0
-13
-10
0
-1
5
-8
22
0
10
2
-1
-4
-9
7
-3
4
8
7
-5
1
-7
-43
3
-3
-2
4
-3
0
9
4
-9
-58
5
3
-9
9
10
-1
5
1
-6
-4
4
-7
19
-3
-2
-10
-10
-7
4
18
-56
6
3
3
-13
-5
1
-2
1
-20
2
13
4
3
3
7
-10
-3
5
-7
-1
0
-2
7
-38
2
6
-12
-6
0
30
-2
9
-29
3
-9
5
2
-1
4
127
-7
-15
-7
-4
-18
7
0
3
-3
11
-6
4
6
2
-1
3
9
1
2
-8
-33
-11
13
47
-16
-21
-127
-7
4
-47
-5
14
15
36
6
34
14
17
4
-2
1
18
-16
-59
-5
-21
-15
39
15
-76
-26
1
-5
-7
-19
-30
6
21
-10
18
-7
45
7
-17
31
-45
1
-24
-21
-28
59
5
-6
34
88
-21
-25
7
20
-7
-6
-14
9
19
-14
-4
15
-29
42
25
-20
38
-8
20
6
-28
33
22
-2
-18
12
-26
-13
-14
-9
-7
12
-37
38
31
2
18
13
-8
-9
41
-1
11
-1
13
5
3
17
10
8
-34
19
-45
27
-56
-25
5
-1
37
16
29
-7
-17
73
-6
-41
-6
-6
43
-13
-3
-9
24
-14
15
0
-10
18
22
-38
-47
20
-9
-10
-13
0
12
8
34
-18
9
-6
15
-6
9
9
-2
-7
2
-20
30
-17
-44
-8
5
-23
7
-8
-11
17
39
7
0
-3
-23
-16
-1
-5
15
4
2
-3
-8
8
1
-18
-15
23
2
-9
16
-9
13
14
10
-19
-10
-14
16
-7
-6
1
-4
15
-4
13
-43
15
-10
25
-13
0
-7
5
-23
3
3
53
-45
5
31
5
-41
1
2
7
33
-8
-10
0
-6
15
2
7
1
-1
-13
-4
21
25
-31
0
-16
27
-9
-3
-8
-14
-72
-35
7
-5
-23
24
21
-3
-127
-1
8
4
9
13
35
0
4
-2
22
18
-17
5
-8
-17
-18
-11
-5
-7
-27
127
-44
4
-16
1
-4
17
16
15
0
6
-15
-4
9
-9
-9
-9
8
5
28
7
1
-3
18
-30
-17
-8
-8
0
17
5
1
-15
-1
3
14
21
-13
13
-12
4
-10
-7
13
1
-1
8
20
5
-9
7
-5
-9
7
15
7
-7
-30
22
-44
23
22
9
19
12
20
5
-6
-5
-29
8
17
6
-5
56
6
-40
-9
-7
-30
-7
0
7
9
12
-24
1
-10
16
-4
-18
-2
10
-12
7
0
-5
-10
14
18
-13
5
-32
-8
-6
-29
1
-14
11
23
1
-34
-27
-22
18
-12
-59
2
10
-21
-15
-15
-6
35
23
39
42
14
31
14
-22
40
22
-8
11
-4
-3
-25
-5
48
25
-4
-18
-24
-2
31
-31
44
5
-10
23
-6
-59
-37
10
18
-19
-32
4
-36
-13
56
29
5
5
6
-8
3
-36
19
15
6
-102
-46
-40
47
12
6
0
-17
-12
1
-1
21
21
15
3
31
-16
11
10
10
-19
-1
-2
-12
7
-14
127
9
5
-20
3
-21
30
5
19
-8
-25
-14
2
-28
49
1
-30
-16
13
-17
-27
8
16
-5
-24
-23
-65
-54
18
5
-3
13
8
-10
2
9
34
-6
-1
-5
-6
-18
3
-49
3
-1
-6
-10
-15
-7
21
88
-49
-7
2
2
-5
-1
-6
5
-8
1
6
-39
12
6
-2
-3
-8
-8
0
5
6
-21
-17
26
1
2
-81
0
-12
-1
-9
-20
5
4
3
-3
-60
-5
-6
-7
-4
4
-6
-3
-1
6
6
5
-24
-23
6
31
-3
3
-1
9
-57
123
4
15
-6
3
-12
1
5
-2
2
-1
-3
10
-10
5
-7
-10
-8
-2
-5
2
-3
7
0
30
0
5
45
-8
0
-127
-17
-1
-13
-12
-6
5
13
0
-1
-38
-5
92
0
-5
3
-12
45
-1
10
89
-1
-20
0
-4
18
1
-1
-2
7
1
-47
-30
10
-69
-17
0
-12
20
11
-15
-4
-6
-7
0
18
-45
-24
1
16
26
-20
12
-127
-29
18
3
2
15
84
3
12
13
14
-4
1
18
-22
35
-19
-33
-1
7
5
22
59
-1
-12
-10
12
18
-41
-28
-16
29
-4
-5
-19
10
12
4
-3
3
-1
-12
-12
6
2
9
11
-1
-13
-13
-10
-41
-28
-39
-15
-4
9
-13
15
-13
15
-15
9
-68
-3
-25
21
0
0
9
-9
-28
2
41
-10
7
-93
-32
3
-7
15
-22
-5
-47
123
-8
1
6
-1
4
0
3
-11
-20
-92
-12
-40
-10
52
16
-3
2
12
-13
-32
-4
2
-8
28
-7
6
-43
15
2
29
84
-5
7
-2
-4
1
3
26
-31
33
48
-5
-31
-6
4
10
-17
-13
-6
-1
2
-12
-41
14
11
-5
-7
83
-7
-23
19
4
-10
19
10
-36
-8
-86
-27
-3
33
-3
29
-6
-4
19
18
16
-39
-8
-43
53
-13
55
-7
-13
29
11
-96
4
41
-3
13
22
6
7
2
8
-2
12
-14
8
-5
-58
-4
-3
9
3
18
8
2
4
-69
8
9
32
-1
36
-33
-46
-21
-127
-39
12
-17
16
1
-6
23
-4
-71
1
-8
-42
69
7
-10
12
20
13
-5
4
-13
-47
-9
-9
19
23
-15
26
33
5
-1
17
8
-22
16
4
-30
-17
-8
3
-7
0
-16
-2
-5
1
-13
6
0
24
-31
26
-5
-7
-2
-7
-17
26
2
-87
-1
6
-17
-3
-29
-10
-18
4
-5
87
102
13
-31
25
11
-26
10
23
20
2
12
1
47
127
34
3
-2
49
-16
6
-29
-3
-121
-7
27
37
35
6
17
-43
1
2
-5
-8
7
21
-5
1
-3
21
2
3
-19
8
-10
11
-28
9
32
-7
7
5
2
-10
-14
26
34
14
-11
19
3
32
32
-5
-5
10
-13
-10
7
-20
6
6
16
54
-8
-18
12
-8
1
-8
-17
5
6
12
-15
9
13
6
-62
-2
-4
30
-42
5
4
0
1
-9
-8
35
0
-11
-13
-8
36
-11
8
-4
1
0
-4
-7
11
-5
-10
11
-7
17
19
-11
-6
15
127
17
16
-6
-9
5
8
5
29
10
-6
-17
-14
0
18
21
-89
8
3
9
14
-6
-27
-12
3
-3
25
4
7
2
9
19
-25
0
-9
3
28
-27
10
-3
-18
-5
0
3
11
-19
17
-34
3
10
34
-4
-8
10
2
-2
2
13
11
-13
9
12
-30
2
-6
-3
8
3
96
19
3
-15
0
-8
-1
-7
-20
-12
41
-7
0
-21
9
11
-2
9
17
-4
14
35
-5
-2
-127
-2
-5
4
17
18
22
6
8
38
4
13
-29
-83
-29
23
3
0
26
10
1
-2
0
15
9
-25
17
11
-16
-9
1
11
-25
-1
5
-9
-9
7
3
4
-17
9
9
-8
4
17
17
28
4
15
-10
14
-12
1
-1
-10
12
0
9
-2
-55
9
3
-3
4
9
5
-13
-6
19
5
-12
-12
3
-26
-20
-1
-3
11
-3
10
-4
2
-11
-11
-16
-6
1
-19
-5
-9
-16
11
6
11
4
1
-9
31
15
20
-9
-4
10
-15
-2
4
1
4
5
-2
11
4
-1
-7
-1
8
-22
2
-25
-10
-14
6
-2
-2
-4
-32
-35
127
2
23
42
5
23
-6
-7
-2
-15
3
18
-9
45
-5
12
-13
1
3
13
-22
17
11
-21
4
29
59
-24
35
1
30
3
-21
2
-9
-62
3
32
17
15
-52
2
-16
8
6
8
-11
-34
-14
-28
16
18
15
14
-2
-27
24
31
-45
7
15
15
-22
27
-1
-36
-23
8
-18
-13
18
20
-20
-38
40
4
4
13
-15
-13
-4
-14
2
23
12
-36
18
10
43
81
17
-47
20
-14
-66
6
0
27
-15
-4
-43
36
7
10
13
14
31
-34
-1
3
7
-10
1
0
8
6
-4
-55
-11
-46
70
3
37
-27
-20
32
8
25
-13
-1
22
-28
7
-10
42
3
3
2
-14
17
-33
11
-5
39
-36
-6
-4
5
-12
13
-7
-13
-5
-6
-11
-2
6
-14
7
-4
8
-6
14
9
-36
-20
-6
6
2
27
-5
0
13
2
6
0
-2
-25
-9
34
41
10
-11
16
-26
-3
25
18
13
8
16
-13
-4
-7
-8
-6
6
-16
20
7
18
-9
-17
44
16
-1
5
9
35
7
-15
-61
22
16
63
14
-3
32
11
-17
3
4
-12
1
6
20
21
-2
10
-15
-48
-6
0
-38
-3
-15
0
39
0
-9
-5
9
127
24
4
-6
-6
-34
4
2
57
-11
26
-60
-16
23
0
-11
7
-20
-1
15
3
12
10
25
52
-3
-20
4
-127
49
35
5
16
-4
1
-8
-1
10
-7
-41
-18
6
-7
31
18
10
6
33
-33
24
24
15
12
-11
77
-35
-30
0
35
-4
-27
-15
22
14
49
-32
-4
2
-5
-8
-28
5
2
14
-3
-5
47
35
-9
-15
-14
15
35
-3
11
-21
22
-5
5
41
-20
-3
-6
3
-17
8
-1
-4
0
20
-11
5
-23
29
9
15
-31
-34
19
9
-10
-5
42
-21
-42
12
-18
44
-4
18
-26
41
25
16
-10
-26
-20
29
-12
3
-3
0
-16
15
-10
-25
-47
6
-1
-20
-8
12
-34
8
-4
7
40
4
-2
-3
5
-22
-12
-56
1
-1
24
-3
3
-5
31
-127
4
21
3
8
-21
-42
-27
-9
-4
5
-12
-4
11
6
-8
10
12
-1
-5
6
-29
-7
-7
18
-19
-5
-35
-25
-13
-9
11
5
2
-7
2
9
-22
51
33
-7
-22
-7
10
10
4
-3
-10
13
15
-1
9
-9
10
-5
-23
-6
-22
15
7
-6
9
6
-3
2
-9
5
-7
7
1
-16
-16
4
18
-3
-94
-14
-5
14
-4
-3
16
8
3
4
-5
-10
-6
-2
-8
16
-24
3
-4
-5
-2
-26
-7
0
11
15
-7
17
18
4
5
-11
-3
-55
-98
-16
-19
17
-22
-41
14
15
-5
25
9
-6
80
-3
15
-27
38
-1
7
6
0
-16
-9
71
1
0
7
-53
-23
26
-8
-34
-1
10
-26
-10
4
-2
-6
21
71
24
-22
42
7
-15
-6
1
9
57
6
-12
7
13
-10
14
9
-19
-40
3
-30
6
-10
11
8
3
1
5
-9
-17
-3
-3
-76
7
-13
-17
-17
-20
-20
3
-32
25
-3
59
-38
-8
18
-17
40
-38
-12
4
-32
-18
19
-2
1
-26
40
2
12
18
-44
-35
0
127
-10
-3
-9
46
31
7
-19
3
-37
-55
-8
36
-9
-3
-26
-16
-42
-38
-13
-30
20
42
9
12
59
14
21
57
-44
23
-8
-21
-23
-10
20
-8
87
-6
29
-4
-18
-21
12
40
127
-50
-11
-16
30
17
4
8
-6
11
-6
5
-29
16
20
-2
11
-15
-55
12
-2
-3
-57
-9
7
1
6
-3
-27
-28
-41
-93
12
8
-7
-22
19
-3
33
-27
-18
-8
14
6
10
17
-13
50
1
-13
-35
-19
-7
29
-7
-6
-7
-17
-1
-15
-44
-65
21
14
51
-21
-37
25
-11
-17
9
-19
-17
-21
5
8
24
-8
-5
-3
27
29
17
-68
-33
-14
-12
-67
-26
-12
12
3
9
13
-3
-24
-1
-18
32
-14
48
-4
22
42
-57
12
7
15
2
21
89
22
-11
0
-2
79
0
4
-25
-9
-37
-56
-5
-26
11
-12
15
-19
-7
22
-21
-9
10
-19
1
-17
18
-14
77
10
-5
29
-1
1
5
18
19
-3
11
-14
-95
46
4
-52
-3
-1
-2
-3
-17
-26
16
-18
40
127
34
31
50
14
-33
19
16
12
-50
6
-11
-14
-22
33
-23
-7
14
-7
15
-6
-19
2
-12
-42
2
-11
55
2
5
13
7
-26
-54
-19
-31
37
-105
70
-29
14
14
-52
-13
-16
-10
-21
-11
55
12
-21
26
-1
-3
9
-3
23
9
-21
-80
-2
26
-15
13
-38
1
17
26
-3
79
-7
10
58
1
-26
1
10
-4
52
-40
27
-1
-5
25
23
67
71
-18
23
23
54
2
-23
-10
-10
-13
-55
-26
30
-11
-23
-52
15
-3
-3
-25
19
-17
127
-21
4
-90
41
48
-38
28
57
-50
19
-53
29
-33
-24
10
2
17
24
-5
-52
-7
75
-18
57
-30
21
87
-3
48
3
75
17
-6
8
-9
26
-42
93
46
-16
-12
52
12
-98
-27
9
-19
-66
-23
16
-4
-43
71
18
-6
4
-25
89
-9
-10
-18
-86
-19
-75
-27
-8
-18
-42
0
-67
13
22
14
-9
-31
-89
-2
-14
-20
-3
1
-49
-20
3
-5
15
5
-14
-1
-2
-13
-10
5
-5
-34
-2
5
22
-1
-4
-2
0
-4
9
-12
1
-3
25
3
-3
-11
-11
8
-2
4
-6
3
-9
-10
-6
9
8
-10
7
-4
-17
7
-2
-7
1
-1
-7
4
-5
-4
10
-3
4
8
-8
-3
4
4
5
-7
1
-3
7
-8
8
10
-9
-1
18
-11
-7
18
6
8
10
16
-11
8
1
-7
12
-8
2
0
-11
6
-12
-4
-4
-12
-2
-6
0
-3
3
4
-10
2
-19
12
5
-27
-9
11
14
-8
-8
-2
11
3
-7
2
-9
10
5
-6
6
8
18
-3
4
127
-10
3
5
8
3
-1
-3
-1
-3
-29
-18
-15
12
-25
29
35
-17
-17
10
-11
-14
-11
26
-30
-11
-19
-2
-29
-42
-76
48
-2
29
2
-6
-15
-24
-23
-27
9
19
0
8
43
19
29
-3
28
10
4
-1
43
3
-1
-41
-82
-2
-19
2
13
-17
-51
10
-43
8
12
-2
-11
82
6
-10
38
9
-27
6
8
6
0
-6
127
-6
-21
18
6
-14
10
50
-4
24
13
-15
14
7
-28
-4
35
0
7
-9
6
-11
-34
-23
4
19
-38
2
1
7
-15
1
0
-7
-1
4
13
29
-15
8
-13
-10
-43
-26
-30
2
-13
-21
25
3
5
7
-10
21
11
17
8
-6
4
-3
7
8
1
-1
-2
2
3
2
2
-4
2
4
5
-2
-1
0
0
0
12
-1
99
2
2
6
-3
-1
1
4
1
0
-5
0
-5
2
-1
-5
1
4
0
1
4
3
-2
1
-1
-14
5
-4
1
5
3
-1
3
3
-1
-1
0
-10
-2
2
10
-5
2
-5
-4
127
10
0
9
1
-8
0
2
0
-1
-2
-3
3
-1
-2
-2
0
0
0
3
0
1
3
2
-3
0
1
1
4
-6
0
-54
-3
-11
-2
1
-4
-1
3
0
-2
-12
5
8
-3
1
-5
-5
7
0
1
-2
0
-7
-1
-1
4
-2
3
-1
0
2
-20
-35
10
8
-9
12
-10
-23
6
-1
1
-1
-3
-3
1
20
21
-3
12
32
2
-3
-4
14
11
-3
-4
-10
29
-5
-32
-5
53
1
-1
1
0
19
1
11
-6
-11
-127
-74
-5
7
-4
-9
15
17
-11
-17
15
2
2
-44
-101
-34
-11
11
-1
40
-5
7
-1
104
6
-11
1
-6
5
-1
22
-33
-3
-9
11
3
10
7
4
11
-25
14
-10
40
-18
8
3
-14
10
-8
8
2
7
11
6
3
-19
-33
18
19
-12
0
13
-29
-15
10
8
-3
2
4
13
-1
-1
1
-10
-1
0
1
3
-2
15
0
3
-2
17
9
6
-7
-2
1
9
-127
4
-17
6
-43
-38
-8
-1
4
6
19
5
-29
-5
70
-31
22
-12
7
24
36
-9
1
-12
2
-7
0
-40
-61
14
-11
5
7
-66
1
-34
12
-22
-14
12
-44
-48
-16
30
22
-15
-32
-16
-3
-4
-27
-29
14
-38
78
-41
-5
-24
9
21
9
-7
-16
-3
16
-4
-20
-25
16
-6
-13
-27
6
-18
11
-11
-8
17
2
8
-7
94
7
5
6
-13
74
-12
9
-44
13
-39
2
-11
-10
36
-12
-42
-15
0
1
-5
-33
-9
-62
-8
-41
13
-21
-8
-3
-4
-29
-5
-18
-4
3
47
12
22
5
2
-3
-2
13
-1
3
-3
-7
-6
-6
3
0
-26
-3
-2
-1
3
6
2
-2
6
7
11
-11
-10
5
2
-3
-6
4
1
-1
4
-1
0
-13
4
-6
-1
3
-4
-1
-7
-5
-1
-10
3
7
7
-4
1
-4
1
12
-1
4
0
-2
-1
-2
-17
30
0
-6
4
3
4
-6
13
-2
4
-4
6
16
2
3
1
-15
6
-8
3
4
-6
0
-2
-6
-1
-6
3
0
5
-3
-2
5
-2
7
-47
0
-1
-4
0
5
3
-6
-3
3
4
1
-4
1
-3
-33
2
1
-8
-4
-5
2
-1
-127
2
3
6
1
1
2
3
-2
0
2
-23
21
2
-23
4
-2
-74
-45
-4
-11
5
-27
3
31
-39
25
35
30
-7
24
3
3
16
-4
-15
10
3
11
-14
-127
-4
-3
-2
-18
6
-19
-20
-9
-14
-6
-32
29
-14
20
12
0
-1
-11
-4
-3
46
14
-13
11
88
1
-9
22
-21
-27
-8
-40
5
53
-23
-9
-9
-3
0
2
22
-7
-3
28
12
-33
3
-4
-15
15
2
-9
-4
-10
-13
-3
-23
-1
20
-66
40
9
-20
5
2
-31
13
1
-13
2
-11
8
25
-2
-5
-36
52
7
-5
3
37
-7
5
6
-6
-17
-10
-7
-32
-3
-56
7
-6
13
17
9
-5
-3
-1
-23
-1
-10
-33
-8
-26
6
-3
-12
5
31
-12
-2
-16
48
-26
3
0
45
-83
9
10
-46
-31
14
-24
65
2
3
-17
-4
-10
-11
-3
11
-21
15
-5
5
96
9
-8
-7
-2
-12
16
-9
-11
16
38
-17
4
26
-25
-20
21
-20
-44
5
32
52
3
13
-19
-9
0
6
-14
9
-3
-16
-9
24
-8
18
-9
86
-20
5
1
-3
-1
10
13
-27
0
1
-1
-3
-44
29
13
-15
10
91
13
11
-8
-14
-11
-14
-27
19
-16
3
-20
-6
13
-6
29
36
20
9
-19
0
4
-14
11
5
19
-127
-6
27
15
-1
-6
-4
0
-9
4
-4
-4
22
-5
4
19
-21
-13
6
-4
2
2
0
0
-4
10
16
-16
15
-11
-4
2
1
-12
-2
-7
-1
-25
-1
-9
-10
-2
3
55
1
17
7
10
-4
-14
-8
8
-14
-4
-15
3
10
-8
-18
-9
-6
4
-6
21
1
7
-57
8
-13
3
7
3
16
-27
-6
1
14
11
21
-13
2
-5
2
11
3
-1
-7
-13
-9
-22
-1
12
8
-4
-4
-1
-7
-3
127
1
4
-17
16
5
-27
7
0
34
-1
17
-5
16
-3
11
-14
17
-1
3
-1
-11
-19
-16
-4
-10
-15
6
14
2
2
13
-1
8
-4
0
7
43
25
-43
-57
37
-32
-4
4
-29
0
45
-63
-33
-6
16
-3
-95
33
-16
-35
-50
-85
-2
17
-17
29
12
-18
-12
-23
-71
43
-17
-49
-3
24
-58
19
11
-30
28
-15
29
55
-42
15
24
-11
28
-14
-13
-43
2
-30
12
-8
6
54
31
53
-38
28
-24
-75
-12
68
3
-65
-39
-75
48
36
53
-28
-43
127
-73
-48
-64
-57
-66
-10
-5
38
-27
54
12
-46
-70
-10
11
-26
-8
47
57
-28
2
48
-85
33
22
8
7
-8
-4
18
53
52
24
45
24
20
4
-25
14
0
57
22
-34
-20
-61
5
-59
7
-44
30
-8
-2
5
18
-5
1
0
25
8
-7
-13
-75
32
-5
-2
-1
4
5
-10
-1
9
-3
1
10
5
-4
-3
-2
5
6
-14
-1
-15
2
5
17
-3
-10
69
-4
-22
4
11
8
-11
7
-14
-25
5
-12
-3
23
-12
3
-6
0
-2
4
5
-16
-6
17
8
-9
-22
10
5
15
14
-99
3
-23
2
-4
-9
0
-2
-16
0
-4
9
-4
7
-4
14
-1
0
7
7
1
7
-1
-6
-37
-1
0
127
0
-11
42
-8
16
-16
-4
-7
-2
3
-5
13
3
18
109
1
1
-9
25
-39
8
-1
-14
-1
-2
-1
0
-7
10
0
0
1
-45
1
32
4
8
-14
-5
35
-16
-23
15
46
-19
27
7
-4
-21
28
15
-31
56
20
10
-4
-10
-3
2
1
-29
3
-18
61
-9
-3
14
-41
-10
17
8
-8
12
17
-61
-4
3
-2
15
11
-18
-69
11
-2
21
9
6
-20
3
-24
29
51
-117
-26
51
18
55
-32
-1
-14
23
13
-48
4
3
-53
14
1
-44
-74
22
-4
2
11
8
-13
4
6
-17
18
-3
15
-10
-8
5
3
-4
-20
-17
24
14
5
68
-23
18
24
9
-33
14
-28
-15
11
-10
18
-127
-21
26
18
0
-29
-15
10
21
9
32
13
8
6
20
-13
51
-11
-74
32
-17
19
-45
47
3
15
29
31
-83
127
-62
-24
4
-27
-46
1
54
-6
-14
-80
-33
-44
16
75
-84
-30
13
61
52
-34
-59
29
15
15
-11
9
9
22
-29
15
19
-37
125
27
116
52
77
-16
-38
3
19
-20
-7
-11
47
-67
-9
-9
-81
-17
-28
32
15
-18
75
18
25
21
9
-39
-28
6
19
-45
-30
-13
-31
-5
5
31
42
20
6
35
30
46
12
-37
-29
-33
-3
26
69
10
-24
-55
-55
34
-1
-11
8
14
-14
1
25
-11
4
10
36
5
8
-33
15
60
18
-18
15
-30
-71
-17
23
-12
44
6
-13
-21
-21
-15
2
-9
17
-6
15
8
-6
2
-8
-3
5
-18
49
-14
32
19
7
13
16
-2
-2
12
15
32
-4
30
-11
-32
-33
-7
-16
7
-18
-14
-15
-92
18
-18
0
54
-8
39
77
-12
57
25
5
26
9
-18
-5
-10
2
-13
-15
-84
38
-25
49
-10
-19
5
-31
7
-23
10
44
13
-14
-43
19
6
-16
-17
6
-8
21
3
-11
11
11
5
-25
9
-6
2
3
21
-3
26
18
-24
-44
19
7
-5
38
-13
35
-12
-5
-9
-1
-27
9
6
-12
-8
70
13
-24
-13
11
20
3
6
-13
2
-14
127
-23
6
11
-15
-9
0
-79
12
-24
9
-4
-23
-5
6
10
12
52
-1
11
32
22
-127
69
-6
6
-18
5
30
9
2
-18
13
26
2
-9
1
10
9
22
-3
-52
7
28
8
0
66
15
0
7
14
16
-2
-1
35
-8
16
8
-32
-27
-28
-3
-29
8
6
-36
14
26
-4
-57
14
-4
7
11
-19
-1
-3
-19
8
-6
-28
36
-26
-79
1
-32
-15
-37
-1
-8
18
5
-25
-34
-15
-26
-40
-20
-10
-14
14
24
-10
6
-10
14
3
-3
-2
7
-26
4
14
-21
-45
-5
-3
-4
-20
-5
4
-10
-2
-10
-9
0
-7
47
-5
4
-19
3
-18
30
-2
-15
47
-21
-12
11
4
-19
3
8
-28
-22
-7
-31
13
-23
-16
-22
17
2
11
17
-4
20
38
-7
32
0
-22
18
35
42
-28
-3
-24
-11
-29
19
-44
-1
-23
9
-11
-2
15
-31
20
37
10
-70
-17
-11
78
-10
-2
-31
0
-33
39
-5
41
-37
-20
74
-6
11
-7
13
15
10
-18
-19
-31
44
-17
13
11
-13
-24
47
31
73
44
14
-1
-1
55
15
26
17
-4
6
0
-6
2
32
-3
9
-41
-5
29
-3
5
8
-27
19
-26
-16
-15
-2
2
24
-53
20
2
-5
4
21
-1
5
43
-10
14
-9
-63
127
-6
8
-3
-39
-32
-11
35
-127
7
14
-12
-120
-47
48
-73
-8
10
69
-20
4
-18
-8
-20
34
17
13
51
-14
-35
15
11
41
-1
-64
30
28
5
-1
30
-6
-8
7
9
-77
-31
2
-27
7
35
-28
-47
36
-25
-27
-31
13
10
-19
60
43
-42
41
-36
7
-22
-15
13
33
-17
-86
-8
-5
9
-23
-53
-29
-11
29
-19
-74
54
-6
-98
-33
28
-12
55
43
-16
11
-22
34
-9
-62
21
34
-44
43
-20
-6
-25
-19
25
-1
23
14
7
55
-31
-59
87
-37
-23
6
19
-50
9
10
-2
28
13
3
-37
-18
-10
41
-16
-16
23
-5
33
127
11
20
15
17
-39
27
13
-6
-11
-21
7
2
31
125
-24
-3
-13
-44
-19
15
2
18
32
-12
9
75
-23
16
-27
-6
3
-22
5
-61
-5
-14
-13
17
11
-29
8
9
-2
-11
-15
9
-1
10
-21
-4
-12
10
40
-15
21
-5
-13
2
-25
24
-13
17
-10
-24
8
-2
-63
12
53
4
22
-46
13
8
-15
-17
1
-13
-1
-21
-13
-29
-61
-23
26
43
-25
0
-71
-6
-21
0
-8
28
-12
-3
7
0
13
-43
7
19
20
9
-19
-13
21
-8
8
8
-3
-6
-9
-9
7
0
1
-15
-20
-4
-1
-34
-21
3
39
14
14
-46
2
11
-7
15
-127
8
-2
7
20
-1
-13
2
1
5
31
-19
-11
20
-7
-4
10
-18
-26
-5
1
-15
51
-5
-9
0
1
8
0
-3
1
15
-6
-7
-4
0
-7
9
10
6
7
6
-2
-5
-28
6
12
-27
45
-13
6
-10
-28
-12
0
-28
6
0
-7
6
-5
1
-23
-9
-35
14
15
47
26
-9
15
4
12
11
1
15
3
-6
-10
35
12
-38
-2
-12
-34
10
-20
5
-10
13
-8
7
7
13
6
27
16
-1
-16
19
-70
0
11
-2
-24
7
-1
-6
-9
75
-2
19
56
-3
-65
2
-2
6
-12
7
-14
-26
-26
15
-51
-54
67
24
-34
-7
16
16
-47
18
-8
88
28
2
4
42
-127
-14
-46
47
-27
38
-12
-28
-19
-34
-37
6
99
19
11
-69
84
-33
-20
-61
-6
73
-13
44
-17
-47
-32
41
13
22
-23
95
-5
32
-5
-33
41
8
29
-6
-19
18
-19
-16
-55
-20
1
-2
-1
31
22
-45
2
-12
-6
-22
13
-9
-41
-26
-35
-7
20
-26
45
-8
0
-53
110
32
31
-2
-19
10
-38
-1
-4
29
106
4
-19
-11
32
20
-94
28
4
-48
-45
-25
7
-8
-47
39
44
-17
7
8
28
8
-42
9
-16
0
-35
11
31
27
-2
-11
-23
-38
30
10
-34
-27
10
0
14
24
4
-5
-17
-39
-18
-42
-18
-8
6
39
42
6
-23
-8
0
-78
-69
51
-15
-35
-9
51
10
-1
32
17
17
-24
-73
-8
3
-22
-8
-2
-38
-27
-5
127
-63
-20
-3
-18
2
4
-19
1
-19
32
33
10
-100
-70
-52
24
38
3
-2
-7
19
3
0
24
-12
8
23
34
28
11
-15
20
15
-2
-43
18
1
-1
14
-8
-1
-18
-12
-10
-14
-20
20
50
39
-6
-6
24
-30
-5
19
0
19
-4
-7
-8
21
-29
-22
9
15
11
11
5
-2
16
8
-6
7
42
79
-31
39
15
-18
28
21
18
-22
-39
-11
-43
8
-14
18
4
10
-4
-1
-6
-28
-30
5
-35
26
46
9
-16
70
-2
66
-26
6
-8
4
-8
-49
30
-15
-17
22
39
-6
45
6
15
23
-18
-22
-37
124
36
-17
-7
15
22
18
12
-24
-38
-18
14
36
28
-16
-3
-17
-19
7
22
19
14
-12
0
2
5
-12
16
-9
47
-6
-10
16
8
-107
-2
19
-1
-32
-86
-3
-39
-26
-17
127
-11
9
-39
-1
0
25
-20
-20
-32
3
-44
8
6
13
35
-15
47
-42
-2
-34
37
-19
0
-76
-39
-8
-31
-29
2
-18
-6
20
-1
12
-29
-44
77
-13
-1
0
30
15
-2
-16
-19
-13
-10
-4
0
-18
12
-5
11
22
-31
-6
1
7
-25
-17
4
50
25
14
14
-12
-6
-8
-9
20
-6
-20
-4
0
18
-5
-16
-2
1
-5
0
127
6
-31
-9
-7
1
2
6
15
5
-3
-9
0
-17
8
9
26
7
-1
-41
7
-10
-10
12
-5
-1
14
-6
20
-16
-18
11
-21
-10
-22
-14
1
4
-4
7
-12
0
-14
-9
-30
-21
6
-28
-2
-2
-2
-9
-1
30
10
3
-8
-10
6
-4
9
6
20
-9
10
0
-9
-7
12
-20
1
-5
15
11
-26
5
-6
2
0
-9
-9
-10
18
12
-7
-1
5
25
2
-9
5
0
-2
16
-6
7
5
-45
-2
-42
-127
32
58
14
-1
8
1
5
6
17
26
-1
12
25
9
-91
-9
12
-11
-3
25
16
-8
3
1
-13
-21
22
9
-7
-12
0
14
1
-4
3
32
-7
10
-35
-1
0
7
-15
1
-13
-27
-29
6
17
9
2
-5
10
-13
-14
4
3
-3
-22
-20
-20
3
31
-18
21
-13
17
1
1
-17
4
10
27
-1
-115
-21
-4
-76
14
4
-28
-16
5
-22
9
5
-12
4
6
-11
-1
-1
11
18
-3
42
-7
11
-11
4
-22
13
-1
-60
-7
-27
8
-12
-8
27
6
30
35
-9
127
20
-27
-15
-65
-80
32
5
22
-5
26
15
-8
65
121
57
-45
32
-34
-15
80
-12
3
-29
-12
7
80
-8
-28
-5
20
14
-48
9
-41
-50
19
-7
4
-81
-24
2
49
-20
-27
-25
-17
-27
6
10
-20
44
5
-8
-23
-4
13
-16
46
57
64
12
-14
30
11
33
-38
2
-6
-10
-41
5
18
7
-28
26
-12
29
-9
16
50
17
10
1
-21
39
1
-13
-15
-82
-32
23
-4
32
-14
23
-8
5
-34
1
-70
54
-17
70
18
-42
86
35
-40
0
-45
-11
5
24
-16
0
-26
15
24
-10
38
17
-28
-17
3
-21
-59
20
42
-83
-49
1
-19
8
82
21
1
-51
42
-15
12
-8
9
31
-10
-28
18
50
9
-33
-21
10
-22
5
11
-9
25
36
-16
33
2
53
-11
5
-11
19
-14
18
91
90
-32
83
-37
-52
-12
-21
-58
9
36
17
48
-57
16
-41
38
30
45
-48
-22
-49
11
127
29
2
-13
-24
7
-43
-1
-13
20
13
-44
31
-26
-25
15
29
-3
-45
30
8
68
20
28
-13
5
-66
11
-11
18
-29
20
-75
5
-12
-55
-73
-16
-10
-56
-21
70
-7
3
71
-46
38
36
-53
11
17
-30
112
-3
-9
-2
-31
16
-23
-48
-1
9
-8
-70
11
4
35
-1
-35
-18
80
-26
4
-15
-73
9
11
60
49
-5
19
-29
-32
-60
7
41
5
30
-6
-27
-3
74
127
44
-17
45
1
-40
-75
-20
-2
43
-22
19
-54
-21
-40
6
-9
-48
39
-1
-16
-17
87
-10
-5
-24
-93
-32
-14
14
-13
-13
26
10
39
0
-83
-4
-10
12
11
-12
-14
50
14
-44
-11
-16
2
6
6
-8
5
-25
-16
-11
24
26
15
-27
33
-82
-4
11
58
3
21
-16
-15
19
-15
9
40
20
50
-28
26
-10
-5
-17
2
-12
-10
7
-1
12
-14
-14
6
-39
-24
-46
24
26
-16
7
-1
-10
-26
-16
-60
27
-9
39
-127
15
0
34
8
24
18
0
-37
-18
31
16
-14
-41
-42
15
19
3
23
26
27
40
-16
-21
-23
52
-46
59
20
-4
49
19
0
17
99
-35
60
-28
37
-108
-5
6
8
66
-2
68
-26
54
11
29
49
63
-25
5
-42
-13
-33
33
13
-3
37
-81
-4
10
-94
-26
-6
58
44
7
10
6
6
39
11
20
39
18
10
-4
-4
-27
13
44
31
59
-5
-25
-38
24
-38
-44
-27
-5
22
23
7
12
-64
22
8
20
-31
26
-42
-31
-25
21
95
-38
18
21
-13
0
-40
9
25
-32
9
-30
28
17
45
11
10
-22
-14
-15
24
8
-4
-10
-25
16
3
13
-2
35
11
-18
-17
11
2
54
-25
3
-11
-25
15
12
-1
20
13
-35
21
14
113
-29
1
1
5
-35
-2
33
-26
-19
35
-127
-11
21
-9
-23
34
37
24
0
-14
-20
1
127
-59
-46
-15
-26
51
12
22
6
4
-97
-12
-19
-30
7
17
-4
2
22
10
-15
11
-5
15
2
4
-15
7
-16
8
35
5
-20
-1
-32
11
1
39
1
-13
-9
7
4
1
-13
-86
-12
22
-21
27
-49
49
12
-9
-2
-17
-14
74
-68
-1
0
19
-13
2
2
-12
7
-20
-4
10
1
-15
-13
12
-59
8
18
3
38
-4
9
-4
1
-4
-17
-58
-12
-16
20
9
-11
8
18
-125
9
14
-13
5
-27
-20
-21
12
-4
-6
-17
-12
-13
-4
-17
-3
8
-14
-5
7
-34
-1
-8
16
14
3
-16
-41
-11
12
0
0
8
-7
-10
-2
-12
54
38
-14
-14
3
-5
-10
-6
5
-3
-3
32
6
9
-12
-3
3
-46
18
-24
-10
8
-2
10
3
12
2
-15
-10
-16
3
-8
-14
0
7
6
-18
-127
-11
10
16
-10
-4
18
-7
-1
18
-1
-4
-5
-14
-14
20
-27
12
4
-2
-4
-22
10
0
5
-12
-54
17
-10
7
-7
-6
23
-7
49
7
4
5
27
28
9
-2
-28
127
0
9
23
-2
5
2
-26
2
29
12
-15
-8
-11
0
1
16
9
4
-3
20
23
4
19
-2
-29
-23
7
14
7
18
10
8
5
12
17
-17
46
-22
-5
14
11
3
0
-11
10
6
-9
-43
-1
6
-15
-39
7
5
16
-8
-13
11
59
-3
-8
-20
8
-1
-11
-29
-21
28
-2
-37
4
14
-16
8
12
33
12
-3
-12
-6
26
-6
-4
-12
-61
5
4
7
-87
-28
-24
15
4
25
4
4
3
6
-43
-1
9
3
18
-3
-2
6
41
-7
36
0
-12
-21
15
17
-14
-1
4
26
-25
11
33
-27
3
4
-7
-10
-8
-12
2
0
-25
8
-31
-26
6
16
22
-2
-1
75
9
-8
-3
6
17
-67
-1
-19
-3
2
-15
-5
4
-12
-57
-6
16
5
1
2
1
-43
22
-6
-2
9
0
91
18
-16
-66
-47
-32
19
-3
16
30
3
0
1
6
-16
-33
13
0
17
-11
-9
-3
7
46
6
-17
-15
-5
1
-11
-18
-8
-5
-7
18
127
6
-3
-23
14
-9
8
-2
-12
0
28
-3
7
107
-42
9
1
9
-17
-6
51
-85
0
1
5
-31
1
0
6
-7
11
126
6
9
-1
-58
15
-6
-20
-15
-4
-11
-16
-36
8
44
7
2
-16
-61
10
31
18
-25
-53
34
-19
-21
-11
-49
-13
-29
-30
100
37
54
3
5
-61
-61
16
-35
-21
-8
15
1
22
-22
-33
12
-4
-27
-54
2
31
2
15
-19
-104
-10
-5
9
-14
-22
-42
-16
-6
0
20
-18
-15
-66
66
18
41
-41
-39
1
15
30
-44
-9
127
-7
10
-58
23
-29
-16
63
10
54
-30
-12
-38
-24
-32
23
8
-55
27
5
-33
-42
-78
24
31
-48
-10
-54
7
1
21
-31
-52
-11
-13
30
15
13
-19
-14
-53
-44
-68
-56
19
-30
13
-20
32
12
-28
-3
-47
-1
10
-19
-36
23
-8
8
84
30
-6
38
11
-2
5
-4
-12
-43
74
6
-8
127
29
-8
-75
40
37
5
14
-30
34
-6
-3
13
10
31
-27
10
13
60
30
23
-4
-21
50
-48
55
-89
16
-4
3
-9
4
-16
-13
-39
37
51
-3
24
13
35
15
-3
-17
6
44
-79
30
-22
44
-20
-16
-1
2
-1
-77
-8
-12
-18
42
-18
-86
61
-100
8
29
6
52
-20
-5
-26
-41
101
12
30
-35
41
30
-8
-17
-22
43
37
0
-6
-68
-14
11
35
8
106
65
-30
-1
72
3
17
34
13
-12
45
-1
17
7
1
-28
21
-35
28
22
-2
15
12
43
-39
-9
0
-40
-41
38
-21
-6
-11
-26
-21
-8
-10
-4
-7
-13
-1
-4
-10
54
15
11
28
-13
-17
12
-1
-9
4
-17
22
-13
2
-3
-15
14
-27
23
29
-17
12
1
-5
6
15
-52
-32
10
-27
-25
16
26
9
-13
-1
36
-5
19
-27
4
-127
35
100
-25
-16
-5
2
-11
-59
-31
-8
-28
-52
9
5
-41
-37
-16
13
6
4
11
-13
12
23
-37
41
-29
10
-19
14
-21
8
12
10
18
-58
12
12
-32
26
-2
-33
-18
81
19
-33
-1
-21
-18
-33
35
-26
32
-29
4
-9
-2
-5
-5
-10
2
13
1
11
9
-14
25
16
-16
-62
27
-22
21
-21
36
39
-9
-3
-2
-16
-4
-16
-72
-6
0
-15
59
-8
44
-43
17
7
-127
-78
17
-26
-27
-18
4
-31
-68
6
37
-26
14
-50
-26
22
-18
55
-13
-24
82
14
-73
-20
115
-22
-44
0
27
47
-26
22
35
-77
67
72
59
48
49
-33
-45
26
6
32
74
29
-105
18
42
24
-8
-72
-20
-17
7
9
0
-84
2
-10
31
-60
24
3
-17
19
6
-13
32
8
9
-17
44
-21
64
-10
8
13
-1
31
14
34
-17
-1
7
29
-86
-17
-13
-28
12
38
-43
-39
-42
16
-15
91
-21
-4
-14
50
-31
-18
16
11
41
-18
7
-4
-13
8
-42
20
18
-11
2
3
62
39
-31
17
9
-11
16
70
-16
47
11
-9
2
-27
1
21
29
-33
-30
40
-2
6
72
54
-81
-27
-9
-6
-53
-36
2
-33
6
3
26
-5
-7
-3
-40
43
59
-8
21
27
-25
47
35
2
-29
-11
0
-6
-19
127
-18
31
-11
-39
2
37
-18
-32
18
9
15
-6
13
48
7
-47
-3
-3
2
1
-33
69
-3
-31
-3
-44
10
-30
-7
36
41
8
-42
1
-11
119
-1
-30
-24
-2
-22
-12
-2
3
-30
-56
-17
-40
-12
-19
16
-33
-9
2
-26
-7
-2
65
19
-47
-18
2
-41
-16
-13
86
3
5
8
-38
31
4
-8
21
14
-46
-23
-17
-20
-7
6
0
25
-24
-1
-9
-5
-12
13
6
-14
9
-2
5
7
17
50
-13
4
14
-3
-2
7
-13
-47
1
-4
-1
-1
-13
0
0
13
-89
4
-11
-3
0
9
-2
27
-12
2
8
-1
-8
3
7
-4
-10
-14
-10
-19
-10
-20
-11
-15
4
7
5
0
-11
13
11
-25
-7
-11
11
0
-15
-7
127
5
-10
26
-3
1
-2
-33
-8
16
10
-19
-23
-56
8
-12
-17
0
51
-5
-5
11
-24
-16
-8
10
-43
0
98
10
5
-10
11
-6
-3
8
21
-80
40
0
-19
106
28
-41
-2
47
-14
8
-14
-50
9
-119
99
-20
19
29
111
4
-10
-8
-127
1
-16
-19
32
-29
52
36
32
9
-22
-48
-1
6
-11
-29
-34
72
-11
-18
0
61
22
24
11
17
-37
19
-58
-3
-38
6
-18
-11
-84
26
-15
-60
6
-16
-42
-3
5
8
-5
40
-49
9
-13
-48
68
-109
33
-24
42
82
4
-6
-8
15
-17
14
-29
-14
61
11
-19
-37
55
-9
-7
-46
-12
27
42
31
-36
27
0
5
-60
44
11
8
19
-27
-16
-6
34
3
7
8
-42
-16
21
-14
16
5
2
19
97
53
-24
-5
-22
127
0
-22
15
26
11
-10
3
-6
5
-13
0
-37
-10
-28
-78
-46
10
-34
-101
-11
5
5
-27
-15
-19
35
-25
24
-28
-8
13
-5
-41
-13
5
-16
-36
51
-73
-37
7
6
9
11
5
12
-19
7
-43
8
38
-5
22
12
17
-9
-17
-1
42
100
45
-17
12
14
14
-21
-21
18
-15
-14
25
3
-2
16
18
-1
11
7
-3
36
15
18
16
16
37
7
3
24
94
-2
8
-28
12
1
-5
-6
-8
12
-11
-63
-16
-10
47
-6
-1
-16
49
8
5
4
-4
-12
35
-6
23
3
47
-4
34
43
-6
23
-19
4
-3
3
11
9
2
-20
-13
6
0
119
-5
14
-24
4
-19
-45
-8
44
31
22
-7
35
-10
-7
13
-33
-4
9
-39
7
-39
5
-3
-13
-36
-10
3
-24
9
-127
3
-6
-27
36
39
6
-8
-9
20
15
-20
21
33
41
-25
126
-3
-20
15
0
-61
31
-8
-48
-24
-29
-7
-32
8
-12
-48
-15
42
25
-7
94
-27
-11
-6
18
13
-19
6
-12
35
0
-15
16
-22
29
-17
-36
-15
-5
-5
-31
-6
-5
-9
-1
49
14
1
-7
14
49
-50
8
-27
9
20
1
32
-36
10
12
15
-9
68
-2
-30
-17
-51
20
-43
-33
-6
35
55
0
1
-8
3
-1
-1
12
-13
1
7
24
-18
2
-1
-3
-2
-2
-4
-2
-5
-10
5
-127
-7
2
0
2
2
-5
-1
2
2
3
-3
2
3
-5
-1
-2
-3
1
2
-1
2
-1
3
1
7
4
3
4
1
-2
-4
2
3
-4
0
1
-7
1
3
9
4
0
1
-5
29
36
0
3
-1
-7
5
2
1
0
-5
1
3
-2
-6
-1
-2
2
-1
-8
6
0
0
-3
-1
-1
-1
-2
-21
-3
-2
98
-3
8
12
1
-5
3
1
1
-5
5
-3
-20
2
1
1
-7
7
-1
1
-15
-4
1
-3
-2
3
-3
-2
2
3
6
-14
34
5
-8
5
9
7
7
8
1
-11
-9
0
-14
-6
-40
127
-45
-5
-9
14
1
-4
16
1
-1
6
-20
-3
-5
-8
-2
-5
7
1
29
8
-10
-7
3
-29
9
-10
9
1
-12
-4
-7
-4
5
-2
4
17
15
19
-2
7
1
-12
4
2
-4
4
9
9
3
4
-6
0
3
-1
-2
-11
12
8
-30
24
19
11
11
7
21
-1
1
5
-26
12
-14
9
-10
1
-2
-22
11
1
-31
-6
4
15
12
6
-4
7
3
29
-5
-23
-5
20
-5
15
0
-5
-7
0
-19
0
-10
-35
-8
-20
-13
-1
18
18
13
8
21
-17
-12
4
-11
-11
1
-3
-6
-2
19
-64
5
-31
5
19
-2
-11
-64
-11
-3
-41
10
13
35
5
-1
13
-73
-22
-13
-40
-4
-16
13
-7
-47
5
10
2
49
45
43
24
24
-16
-44
-18
39
1
5
-20
-32
-50
-15
18
-2
5
12
-127
-50
-11
15
-15
-84
-7
31
12
1
-16
0
21
1
-56
-56
-19
-40
35
90
16
-31
3
-37
8
-15
4
25
-26
29
-11
-3
-14
-30
17
30
13
-92
-3
6
-29
57
-1
31
7
-15
51
9
21
-1
-24
-5
-22
9
-25
11
-11
-1
1
-31
5
-8
-43
-80
-2
3
-15
-6
14
-5
0
127
-21
-19
-2
19
25
-9
18
4
-4
-42
-12
-67
2
-10
61
24
-13
-23
3
-1
-17
-6
8
1
-12
-15
22
43
-31
-12
-7
-23
-8
18
1
-49
-11
22
-19
-28
-4
-2
-11
-2
-8
-4
-31
21
-12
-4
13
-26
-5
11
-7
-4
17
8
8
0
10
43
-2
11
6
2
-1
16
0
0
8
-2
11
26
9
-2
-18
25
-15
19
-1
9
-7
-8
9
5
-5
67
25
-3
-36
7
-10
20
-1
14
-1
13
10
3
-19
-4
44
-11
-16
-6
39
-15
10
5
11
-8
-23
-23
20
5
-10
-2
9
-9
-6
0
10
-16
9
-24
13
74
0
9
-12
-7
-38
-7
3
-25
-2
20
10
-12
71
105
36
-11
24
-25
-53
1
-18
-30
-16
1
-37
127
-24
-13
-18
-23
-1
10
-5
3
15
19
10
-6
35
55
-11
9
38
-23
-18
-7
-39
-8
-31
-20
-24
-4
-26
-8
-5
-10
44
5
19
113
19
11
15
-9
-1
-38
35
23
-20
-11
-10
27
-19
16
52
69
5
9
0
1
7
-6
-3
11
8
-8
0
3
2
12
6
-14
-18
121
7
-16
23
-59
-8
-67
21
-10
-30
11
-3
-5
18
-38
19
10
5
8
35
18
-1
7
32
-8
25
-52
5
-3
-5
8
2
-36
-15
5
-16
3
13
78
-8
-2
0
44
-17
-48
-29
-4
10
-16
-2
13
-25
-44
2
29
66
-5
-36
18
-1
15
-17
-7
84
-5
-21
49
-24
-13
-40
8
-28
-1
-28
8
-27
16
127
-29
-19
-9
-42
-6
-4
-55
34
5
-3
-29
-3
12
22
-42
-22
-22
-34
-26
-25
-16
8
35
-29
-20
21
-40
-3
-7
12
-12
-11
40
11
21
-21
27
53
-15
8
-27
-3
-2
0
-10
-2
-59
-11
29
-6
5
-31
8
-50
12
8
-6
-5
-2
24
14
-13
-35
-16
-12
1
-5
-27
39
-26
10
33
34
10
11
-13
16
29
-3
16
15
-4
41
0
54
27
-40
-18
29
-5
6
8
-29
-19
-4
10
42
20
-13
127
-114
-19
-8
-12
13
-18
-8
0
-31
47
45
-51
13
11
11
27
-24
-10
116
-9
-15
-14
-2
-8
11
32
23
-37
-18
6
-7
31
-56
-47
23
26
-34
0
-4
5
25
-14
70
4
9
4
15
-17
-7
1
-13
-35
21
-14
-30
10
5
-18
28
44
-24
5
37
12
41
6
-3
-6
7
-18
6
10
13
47
27
-23
-4
6
-44
-11
3
-12
-61
17
-35
5
-5
62
-1
9
15
-11
-9
-2
-22
15
-23
-5
-3
37
10
10
-6
8
-18
61
-28
11
11
-9
20
30
-4
-4
32
-15
41
-103
31
14
-17
10
12
-13
26
18
46
-57
21
-1
17
15
-4
14
-76
26
-16
-23
35
72
26
23
-5
-5
-19
-3
-9
0
-40
4
34
11
-22
2
7
2
-3
-2
16
-18
18
-78
19
-1
81
4
-14
17
-11
-20
44
-2
-12
-17
-16
-2
-19
13
-4
-65
7
29
14
2
25
34
-22
2
-3
-11
-1
3
-9
-10
-24
-1
67
-7
-28
-4
-56
-11
-4
-27
-25
-24
4
-1
16
8
36
24
-26
30
34
-48
-55
-61
-9
-1
-12
25
-3
0
-2
-5
46
-12
27
127
-13
-31
-7
6
-58
-37
2
22
-5
-1
-1
0
-2
-1
127
-6
-1
-14
20
-3
0
1
-2
-1
-6
-1
5
1
-44
-8
-4
1
2
4
-3
1
2
2
0
-5
-1
-6
8
0
-7
46
2
-4
1
-5
0
12
4
29
-2
19
0
-4
9
4
-6
5
-2
-2
5
0
4
12
-41
-6
-8
-6
-2
4
15
2
-4
-6
3
3
4
-1
1
2
0
-12
-1
3
3
-1
2
1
5
-1
-8
-9
-2
5
-3
5
41
0
-6
26
14
-5
2
23
1
14
4
-2
11
-1
-4
-8
-1
-2
23
0
-3
-17
-13
4
2
-2
-17
2
-5
2
-1
-2
-9
-4
5
-2
-10
-7
35
-21
0
-6
5
-6
8
-15
-9
-2
3
10
1
5
-7
-7
0
2
8
8
2
-21
-6
2
4
-1
12
-4
7
-22
-2
-44
-1
13
-3
2
12
3
4
10
3
4
38
-4
-20
10
-16
5
33
-2
-19
7
0
1
28
-127
-123
11
9
7
-1
-10
-26
0
-54
8
18
13
-6
-2
-1
-22
9
-2
-6
-25
3
7
-8
-6
8
30
9
8
-5
-23
13
1
6
-3
25
7
5
3
-5
-8
-1
30
-17
-36
-1
10
5
5
11
-3
-5
-21
1
-10
13
-3
22
4
8
24
1
-15
-1
-15
11
-6
1
-17
11
1
-31
19
-28
21
-19
-6
7
-21
59
5
14
13
5
3
-18
4
-36
-28
-7
-18
-16
4
-10
-40
-55
-29
6
-5
19
-5
6
-15
5
15
14
-20
14
7
-46
-59
-3
-5
12
54
18
55
-25
3
21
-31
-10
16
-28
13
15
-4
-12
17
23
-5
-1
-25
9
-1
-37
-8
-17
15
-34
-53
3
-15
20
-17
9
-1
-14
43
14
28
-7
21
1
-17
9
110
-13
0
20
38
4
-127
-26
2
-5
24
-17
-5
-25
94
-12
13
-36
-10
-93
-42
10
-9
-11
-11
-15
5
-10
-16
-20
5
15
51
0
-25
-2
-6
-2
17
54
17
26
-24
-6
-1
-16
2
10
0
16
-4
-14
-5
-7
-13
-1
-7
-2
5
-6
1
-7
9
27
3
9
31
11
9
-5
-6
-13
14
-6
-10
-13
-29
-16
-1
0
-8
12
20
-40
3
8
-41
76
-8
-9
14
8
5
5
14
-11
5
-9
-2
88
65
46
-25
14
9
5
0
11
10
-127
14
3
53
32
-13
-16
0
-21
-8
-4
2
2
11
-3
-4
8
38
12
-4
5
5
-8
-4
1
8
21
2
12
10
0
12
1
-67
16
-13
-8
7
7
0
-7
8
5
9
-5
4
5
-2
21
16
-13
-10
14
-8
-1
-14
5
-2
-10
-6
3
21
-21
4
12
-11
-11
27
-55
49
-3
-40
-43
59
12
-18
-23
6
-21
-23
1
-13
113
-39
31
-17
-37
44
-4
-15
-48
-17
14
0
17
-38
55
4
60
1
-10
21
15
21
52
-9
-12
-23
-29
-11
-17
-23
-24
-20
2
-32
-8
-16
-20
-24
21
77
3
-9
6
5
-25
-15
-25
1
-7
11
-94
26
-33
7
-16
-10
58
-27
29
-51
7
-11
-42
0
28
-1
55
-9
18
4
52
-33
49
-25
28
17
-53
33
-26
-4
3
-10
16
-34
36
-27
0
53
7
-41
-1
-11
3
38
7
27
-28
10
-127
-18
41
-40
13
-33
18
38
-62
25
-3
69
-38
-21
26
17
27
91
-92
-10
-3
-16
7
-20
13
-1
10
1
30
30
-43
-26
12
45
79
-13
24
-3
-6
38
-27
20
-5
-8
2
31
-27
-6
102
24
31
-16
-36
10
2
-10
17
-19
9
-12
1
-51
13
12
-63
-28
12
-5
1
-2
30
32
16
2
-18
14
-5
7
-2
-30
26
14
-3
3
-61
79
-42
7
-10
-20
-18
12
-49
-15
-60
20
15
-11
6
5
-28
60
11
-37
19
-11
11
16
6
20
-11
-4
-22
-2
21
14
-49
-62
-1
8
-11
-16
-24
-11
11
1
127
34
-18
17
-10
2
-4
-11
45
53
37
7
-55
51
8
-8
-21
-89
-10
-46
-19
-4
17
-32
27
-32
56
13
-6
44
-9
4
-30
-59
15
25
-62
0
-51
-24
-3
-8
-6
-31
-13
28
-62
14
0
-34
-17
-29
-127
17
7
16
22
8
95
22
-17
-8
-38
-16
-7
46
-45
-87
-16
45
-34
-30
-14
-53
26
14
-41
21
-13
-31
27
-23
38
16
45
4
-21
34
-30
-7
43
19
18
3
39
-17
33
6
-12
4
-59
7
-6
2
5
4
-8
-15
53
62
32
13
-54
2
-28
-51
-37
-94
-17
5
41
-45
14
56
-39
22
21
-37
1
-1
0
24
14
-13
-86
48
-36
21
54
-38
-2
-1
-10
-1
-5
-2
127
-8
-4
-13
23
-4
0
1
-2
-1
0
1
2
4
-25
-1
0
10
3
2
-4
-3
-2
1
1
-10
4
-6
8
2
-7
32
-4
-1
-1
-2
-2
-7
5
16
7
13
0
-3
13
0
-4
2
-2
-2
2
2
3
13
-39
-1
-9
1
1
2
5
-1
-6
-10
5
2
8
-4
-1
0
4
-6
-1
5
1
-1
1
4
3
3
-6
3
-1
9
-3
-4
40
4
7
28
8
-2
-2
13
1
8
4
4
0
-3
-1
-3
9
-2
13
0
-4
-18
-14
10
-4
-5
-20
0
-1
-2
0
-3
3
-2
2
3
3
-2
-3
3
-1
3
3
-1
1
12
-21
-3
6
1
-1
-1
-7
5
3
1
2
-6
-36
2
3
-4
-2
2
-1
2
2
-1
10
-1
0
0
2
17
1
-1
1
-3
1
-1
3
-2
1
6
3
11
2
2
-4
0
0
2
-4
0
7
14
-16
2
4
6
-3
-1
-1
-4
-1
-1
3
5
6
5
1
3
4
0
-1
6
1
0
2
-3
1
2
-7
1
0
5
0
-3
2
-2
0
-10
1
-2
127
-1
6
8
-2
3
0
1
1
-5
5
-2
-51
-2
3
3
8
-2
1
-5
10
-3
-15
0
0
-1
0
-3
3
2
10
-7
13
-7
-11
4
2
-43
28
-4
3
-22
-35
-9
9
23
43
-24
7
-7
-31
-47
-10
12
5
-15
-20
-56
-127
5
-30
-1
-1
-4
-17
16
82
10
-15
15
-40
-21
-105
-10
7
2
-37
-6
0
30
4
32
29
15
-10
-10
-14
-2
-31
-48
6
21
30
10
29
38
-15
-3
-14
11
-30
14
37
17
3
11
-86
-16
-7
0
25
19
22
4
14
-10
-44
7
-20
26
-56
20
-24
-24
6
-6
26
18
-7
-1
-93
23
-69
81
-8
-72
-6
-3
-2
16
3
-3
51
-49
-31
8
-1
-1
-2
12
-4
23
50
-1
16
11
14
-7
-19
-7
45
-2
-18
20
1
0
-2
-5
3
5
51
13
-42
-31
20
9
31
-3
29
-127
-5
19
-1
4
10
9
-37
4
-11
15
-21
0
7
-3
-9
7
7
23
-39
84
-28
-16
-4
8
19
-8
-18
-25
-1
5
32
13
-9
-12
-10
3
-9
1
-19
-5
33
9
34
-15
4
-2
-2
14
26
-14
21
-23
24
0
-52
-53
-21
-11
-21
9
-12
-2
10
3
-18
3
-12
2
-12
-18
9
-5
-16
-7
2
34
-4
13
-5
-20
-34
-5
2
-40
5
-26
-12
-7
-10
-1
6
1
11
3
-1
-17
-7
-10
-3
11
-67
-26
17
13
2
-10
8
5
-29
-25
-3
-18
119
-23
11
22
17
15
33
-18
15
10
-16
-5
19
27
-48
68
5
-8
8
-24
16
-19
5
-3
-11
4
-8
-25
-73
-6
-61
1
42
-16
-5
18
55
11
-32
36
-5
19
67
-22
6
13
71
16
13
12
-27
0
6
19
19
-12
-9
-27
-3
-32
-25
4
24
-34
33
-13
40
-40
28
23
-85
40
23
55
35
-20
38
29
-35
52
-62
15
15
-127
-40
-2
-15
14
1
-50
-27
16
18
51
11
43
-1
26
9
-14
56
9
-17
-4
5
25
22
0
-2
-43
-14
-40
78
6
-31
67
-19
43
-13
9
96
-17
-8
-21
6
2
-4
2
-3
-28
-16
1
8
5
-5
0
-1
-8
-2
-5
0
-1
0
-6
-3
-41
-4
-5
3
-2
-5
120
27
4
6
-8
7
4
-3
2
-19
-3
-27
8
11
31
19
24
-5
6
0
-4
2
-127
3
3
5
18
18
-4
18
-6
-7
-2
-17
-2
4
6
3
3
3
4
8
12
0
-4
12
-9
-5
-4
6
10
-2
12
4
6
-5
10
-62
-1
15
20
-36
-13
-3
-13
-7
6
1
-2
-4
-29
12
-5
8
4
-5
-6
30
52
-1
-1
14
23
3
8
2
2
-18
-41
1
-4
-4
4
-6
-8
3
15
5
1
-50
10
-39
27
-38
29
15
-4
-21
-7
-21
-73
-21
-39
-36
-20
-127
-59
33
8
7
-5
41
-23
21
3
-17
-64
85
-7
-11
53
13
-6
41
-36
-11
-86
-21
15
16
-12
-2
-48
12
-66
-60
-6
-32
-9
59
11
-11
9
-21
16
-7
-15
4
123
-2
115
-31
-22
-13
-49
15
-51
17
7
-25
16
-9
-23
13
2
32
-15
-25
15
6
22
26
5
21
-13
41
17
-3
1
-3
0
-32
-12
-8
15
-9
4
31
-25
-18
44
14
7
-4
50
-25
53
13
3
-66
3
-13
29
36
-47
23
34
-19
-21
-18
8
12
-7
-9
7
27
27
4
15
-127
8
6
-20
-1
-6
6
-9
28
-3
-9
-35
62
-14
48
21
37
12
-41
48
-34
-8
-10
12
15
-11
-25
47
-33
8
-51
-7
18
13
-23
-54
-7
-44
-34
-5
-50
-4
24
-19
-40
-59
-28
-13
5
67
-40
-5
6
-22
12
-3
-3
-9
116
-21
-97
2
20
1
-6
6
-3
0
29
-31
-11
-33
-12
-11
-50
-8
-52
30
0
3
12
-14
-44
6
7
9
-17
-61
-16
44
-10
-12
-25
-20
-100
5
28
-24
-34
-26
11
-7
-26
13
3
18
13
-3
-4
10
-5
-18
-4
70
6
17
39
-15
15
-41
54
19
-26
-22
19
-31
-49
-21
-9
26
21
-12
127
21
-42
2
-8
-45
0
-42
19
14
26
-12
-2
-14
-20
81
1
36
29
13
-18
-19
19
20
-7
-19
-9
-13
20
33
-37
-11
84
0
-10
29
12
-106
11
-10
-5
30
-28
-26
27
-21
-18
-3
-17
-32
9
0
-2
-43
25
-6
27
16
13
37
-20
20
-1
65
48
23
19
9
-12
-24
-63
40
16
41
-21
9
-22
-9
-9
-38
13
-1
-33
10
-19
-127
-4
13
-88
13
-12
23
29
-26
-49
-9
4
-36
28
6
-85
0
-11
-7
21
56
-15
-14
6
-46
35
-54
43
-62
-2
32
2
17
19
9
18
-73
31
-39
-42
-11
-122
-31
0
35
12
-17
-21
-14
-14
6
-3
-19
19
52
-41
23
-25
-1
-1
-33
-12
-8
20
-13
-28
-12
17
-47
10
-7
-5
33
-13
-17
64
-1
18
32
-74
21
-5
-6
-21
14
21
14
9
-12
-8
74
-75
0
-16
-19
-14
-13
3
59
-36
47
89
-6
2
24
-8
24
-36
21
26
14
127
3
26
48
10
47
62
-12
66
-46
-36
17
-12
28
20
18
28
23
11
19
-5
22
-6
105
4
12
-5
-15
-21
-79
-19
-19
95
-33
-4
72
14
-65
19
3
29
-15
12
13
-9
27
6
103
-45
-7
2
34
-37
-25
-53
-13
103
89
-22
-8
-50
10
-47
2
65
0
-38
64
-83
64
-75
-9
28
29
30
-20
23
49
23
43
17
-84
21
4
5
33
50
57
78
-37
-69
-13
14
64
-24
25
-4
-59
34
-3
-107
43
-74
-6
-74
-8
-47
52
-39
13
5
-3
19
45
-20
14
-11
-98
-84
-74
0
-18
47
-51
56
29
50
-127
25
-42
-34
28
58
33
4
13
22
35
-7
-37
40
-15
-11
-5
4
1
29
-35
17
29
-29
13
6
23
-63
12
52
-42
4
58
49
22
35
-75
-51
34
-71
-68
70
-16
-14
-15
36
9
40
44
14
-113
11
-15
-13
-7
18
-4
85
-4
3
-24
-37
22
13
18
6
71
64
-8
58
-14
-25
62
29
8
-43
94
-19
117
7
-10
-108
-67
-25
11
5
-25
-55
36
-39
-4
15
4
-33
66
-37
-41
36
-33
-49
88
-28
-17
69
-41
-104
-2
30
15
-18
35
12
69
-49
127
-57
-86
23
21
34
-56
-19
3
-19
-88
-47
9
5
41
29
9
36
80
-41
5
9
20
18
22
-37
-12
-13
-55
13
19
16
46
24
29
-1
7
-24
38
-20
107
95
-13
-50
-51
-3
-4
-29
14
-17
11
-26
-10
-15
-15
-2
-93
33
-98
6
34
17
45
-107
14
7
15
23
10
15
0
-32
16
5
25
44
17
11
2
-29
7
-44
3
-21
-18
55
19
40
7
56
14
-10
10
-24
23
-22
-6
-17
54
9
-39
-79
35
-24
-11
0
-24
9
-28
28
-26
52
127
3
63
35
-3
-69
-45
-18
54
41
-12
10
-17
13
-22
-37
-71
36
-14
90
1
-10
-31
-13
32
-32
2
12
-18
-32
31
-37
-6
-3
-17
-26
10
-4
7
-15
40
-7
17
-35
64
13
5
8
-3
23
5
-9
8
-16
18
-2
-12
13
-57
16
-80
0
-11
-2
-50
9
15
-16
-9
24
-4
39
22
-9
5
19
-9
13
-34
4
56
-5
3
4
-16
0
-8
-10
17
-3
-10
9
-1
7
13
-56
21
-19
6
1
3
25
1
17
-10
-5
22
37
6
-3
11
14
-7
3
10
-3
14
4
-14
21
-10
3
66
-13
12
6
-13
0
6
3
5
4
30
-3
-14
4
9
5
5
9
-8
3
23
-5
-4
-16
13
3
0
-13
2
8
15
-17
-3
-19
-10
-46
7
-19
6
4
9
15
4
-4
43
2
9
9
-6
-13
-18
-3
-15
8
9
25
10
1
54
-8
-1
71
10
7
-2
12
0
5
0
-8
-6
-41
2
127
-2
3
29
-10
-10
-3
-4
108
1
-42
-21
6
-12
-1
-3
0
-1
0
1
38
34
3
-9
-108
13
7
-7
-90
27
-10
44
-1
-12
35
-39
-11
-6
-4
-1
16
5
-26
3
1
38
9
3
26
-6
-11
27
-6
9
-5
-61
1
65
4
-18
20
-1
-30
34
68
90
-9
42
30
18
19
-5
-2
-25
20
15
9
-62
-26
-20
-44
7
26
0
18
4
24
-16
40
-7
-20
35
7
-12
8
72
-5
-1
-10
15
3
-58
-2
-6
-10
-25
8
25
19
8
-52
-16
-9
40
127
42
-41
48
31
-39
34
-2
11
-38
-3
7
-8
5
23
11
15
-28
-49
-90
4
-37
-41
8
14
19
23
19
-5
-1
-2
3
-9
-7
23
-37
-10
13
-26
-16
-4
-41
-26
11
-10
-9
-13
4
14
-20
17
-4
-22
-41
-11
-17
6
3
-8
-19
-11
12
4
-28
-7
-33
19
15
-4
-14
-16
-4
-16
7
-11
1
11
4
-7
127
-46
16
11
9
-32
11
-4
1
5
14
-23
-95
33
-50
-35
-32
-37
48
27
14
-10
37
21
13
106
-37
13
9
-12
-94
24
0
8
-23
-18
-48
-1
-3
2
-22
-11
-13
12
4
14
18
22
40
19
-59
-56
-6
-2
-110
12
11
-6
-24
-27
-13
-39
-9
35
3
-19
-80
-51
16
11
-10
17
4
-8
9
29
8
-14
-6
-9
12
-27
-11
59
-25
-3
-6
-127
35
-31
-73
-60
27
17
17
36
21
-25
-16
7
4
79
-11
24
1
-3
18
25
11
-24
-15
7
9
-1
22
-18
-14
42
-31
17
30
-4
14
1
6
17
-51
62
-4
-16
-9
2
-28
4
14
-20
-16
-7
-16
23
3
-11
-13
25
21
1
-21
-24
6
-26
57
-79
40
-4
14
-2
-25
52
3
3
-25
-8
-30
-5
3
18
26
60
-14
-20
-10
28
-21
88
-11
-66
25
0
19
-10
-28
-39
1
-2
-46
68
-7
-15
66
45
-14
-11
2
15
36
11
-24
17
48
-87
-29
36
-29
6
11
1
-4
4
-77
39
0
-12
9
3
9
-26
14
5
-72
2
21
-14
-17
-4
14
21
-2
4
25
17
24
43
-15
-2
-13
-7
-7
8
-5
10
14
16
5
-10
-4
-11
47
4
2
10
5
-3
4
5
6
1
2
-11
8
3
-5
24
-3
-2
-2
0
-13
-6
5
27
10
-16
-5
0
-4
-4
127
-12
16
22
9
-48
9
-15
2
-15
27
2
-10
-8
32
-1
-11
10
9
-17
23
-9
3
5
0
-19
-5
-3
59
-23
-2
-20
10
-26
-7
-5
-24
5
18
5
-12
45
-17
11
-6
-8
-2
23
0
0
7
-94
2
58
-14
4
30
10
-1
-8
-7
5
20
-1
4
-22
-41
17
9
-6
27
5
-16
-26
9
4
-8
-50
65
-127
15
-4
6
2
2
-8
21
-11
-16
-34
-2
3
-3
8
13
-12
-7
4
8
-1
-27
-11
-41
-2
2
-3
-7
-8
10
5
-4
5
-2
10
79
-26
22
-21
19
-27
-13
6
23
3
-9
20
-8
-12
-4
6
-9
-16
5
10
-19
20
11
-50
4
-1
13
7
26
77
-16
45
0
-38
51
-45
52
-7
86
-9
13
25
2
-29
-9
0
7
31
2
10
11
-16
-3
5
6
-14
8
1
24
-10
-14
11
-3
19
-1
21
9
-16
52
8
-1
-55
-47
5
-2
20
-15
60
7
-12
14
-11
24
11
11
-6
-16
-26
1
-30
32
-49
88
-51
6
-31
50
-27
-5
6
-17
-1
33
0
-20
0
-24
-12
-6
30
19
61
20
-1
-22
25
-127
5
1
2
-3
2
-5
-18
-18
-5
-15
-2
-59
-1
-1
26
-31
19
17
13
-13
-35
-5
-9
11
0
2
-19
-18
6
11
4
-4
-2
14
-19
40
29
14
25
5
26
-6
5
-25
-34
-4
2
-24
8
-16
0
-29
7
-12
-76
-5
-22
-1
28
-9
9
4
-3
46
4
-41
-6
-22
-2
-20
4
13
-10
8
-7
8
-2
-7
4
-6
52
-4
28
15
0
-12
-77
-53
19
1
23
-6
-29
-14
-2
33
12
-12
21
-33
-41
-19
20
-6
-36
-2
-1
-44
-26
23
23
0
-66
-126
86
-38
18
14
39
-29
-1
1
-13
73
15
-11
1
-7
19
-30
-10
32
-19
53
-1
-59
-5
-51
2
30
-5
20
27
-7
30
-116
70
33
-8
-33
-3
6
24
19
-29
-6
127
-24
13
-59
10
-16
-78
56
-78
11
14
5
16
32
-16
21
-15
-92
6
-23
13
3
7
-5
5
7
-9
-47
-25
17
-60
20
-52
-10
-22
29
5
-38
23
10
26
-17
-36
-5
-11
30
10
-24
-4
28
6
30
2
21
-1
-8
-3
-11
-34
-7
80
21
-7
-12
0
11
5
-5
6
-21
4
11
-29
127
40
-2
13
5
-21
-25
4
5
-4
12
-4
26
13
8
17
5
9
3
-16
-35
-2
-11
-9
-20
3
-1
-25
-26
2
29
19
1
2
-5
-18
5
8
18
13
8
-9
12
3
-25
-25
-17
18
-15
36
-5
-2
-2
7
17
11
-10
-1
19
6
-8
14
-10
-19
-9
22
3
32
-12
15
19
12
4
-8
-19
18
1
13
7
-12
14
3
-19
-2
9
-31
8
-100
5
8
33
-14
3
0
16
2
0
20
-8
-1
23
-3
3
-6
15
-6
4
0
5
-24
-37
-2
0
-1
-2
-5
4
-1
-2
14
5
-1
3
-14
6
-5
-1
0
0
2
-1
8
-3
-7
0
1
9
0
-5
4
6
3
-4
1
0
5
-2
3
2
3
41
-6
-6
1
-3
-3
-2
3
10
-5
21
0
7
-9
-2
-4
-1
1
4
1
7
-4
2
-23
3
-9
-4
4
5
7
4
-2
-1
-2
1
2
4
-6
0
-6
6
-8
4
-3
24
-2
-3
0
3
-2
-2
6
-1
2
-1
6
-2
-2
6
-8
9
51
5
8
8
4
5
0
5
-2
2
-9
5
35
-2
-2
10
-4
10
-2
-7
127
2
-20
0
4
-1
2
-2
3
3
-8
13
41
16
-5
-34
7
33
-4
-19
-15
-18
29
-13
3
17
-127
52
-39
-5
18
28
-10
-23
-25
4
-7
27
-24
18
8
-3
-27
-9
-1
-5
6
-15
-2
-3
7
-18
33
-5
2
2
37
13
-21
-3
-4
8
-8
38
-40
-16
2
6
5
-11
-1
6
-41
35
5
-7
4
-8
4
40
-17
-53
15
10
16
10
-34
1
19
4
12
1
27
-8
10
18
2
3
-25
35
22
19
21
-5
-40
-9
-70
11
14
-9
-14
2
32
1
19
9
-20
0
6
22
8
21
-9
-5
-12
-6
-29
14
-37
23
8
12
-1
8
-1
3
-17
-21
10
-1
0
1
0
5
3
4
1
-4
6
14
4
3
-2
3
-3
1
0
0
14
0
127
3
-6
3
0
4
3
1
0
1
-2
-2
-5
2
0
-5
0
3
-2
-5
7
-1
-7
-1
4
-3
6
2
-11
1
0
-1
1
1
-4
4
-1
-3
4
2
3
-7
2
-4
0
-16
-13
-1
4
3
1
3
6
-2
1
-7
-5
6
2
15
-2
1
-3
-2
4
-7
6
-2
3
-5
-2
0
4
21
-1
0
-49
0
-8
-5
-5
1
1
3
-1
3
-12
-5
-14
-2
-5
3
3
-2
0
-4
-7
-4
-10
2
-3
-3
-1
4
0
3
-5
4
-28
-1
-4
5
10
-11
-1
31
105
-28
-9
-9
0
-4
-9
7
-3
-1
2
2
-10
6
0
24
-4
-6
-12
2
0
7
-9
-1
5
0
2
-110
-4
3
12
4
-5
4
-1
12
-9
-36
-1
-15
6
-2
-5
-5
-2
0
8
-4
3
-26
-32
-10
15
-2
6
-4
4
-43
90
8
6
-2
1
1
10
-2
4
-7
0
9
7
5
-7
-11
-9
-1
-2
9
-2
7
3
3
15
3
-1
4
5
0
-127
7
2
-8
-6
2
0
2
-3
-6
2
0
41
0
-10
2
-10
18
-8
1
64
-4
4
-1
4
3
-7
3
7
5
-3
7
9
3
-2
1
-7
13
-1
14
-33
9
3
0
3
-1
0
11
4
0
17
-7
-36
-1
-8
13
-2
-1
-12
9
5
5
2
-3
12
-4
10
7
-2
-4
-3
-6
-4
0
11
-8
7
21
3
7
5
4
1
-6
0
3
3
8
-3
16
-8
-11
-11
-1
6
0
8
17
-54
1
3
2
35
2
-5
4
14
-7
8
9
1
19
-8
10
-2
5
15
-8
-3
-2
4
4
-11
6
0
-12
16
-1
127
-3
-17
0
1
9
1
-4
6
6
23
4
-24
1
-3
2
-13
3
-7
0
-3
2
31
-12
5
1
-5
4
-10
0
-31
2
18
-5
2
-13
-8
-6
-3
41
124
6
2
14
25
15
23
8
12
4
3
21
-8
-1
-5
1
-9
-4
22
10
-4
-32
48
13
0
-3
-11
21
13
-12
0
-18
-7
-5
-8
-8
-10
-127
16
-32
10
9
-8
-4
-10
-1
-7
-19
9
17
-4
7
16
-5
-19
-1
-10
2
-60
-3
16
-1
-31
17
22
1
-22
3
-9
-5
5
22
-13
-24
-16
1
-5
1
-14
2
-7
9
-4
9
-1
-24
10
0
-25
8
33
-49
6
-5
3
3
10
-13
33
-20
48
-3
16
1
40
14
5
-7
8
-7
-22
7
2
-10
20
0
3
-12
12
12
-2
-14
17
17
14
11
6
-25
-49
-83
-10
-24
-10
40
52
6
16
-12
96
-127
-14
-2
-5
21
11
56
-87
1
19
-3
-66
-11
-11
-7
-21
7
19
13
-1
18
-33
29
-4
-17
55
-8
-22
18
39
-21
9
-14
17
-6
-1
-12
12
-5
-2
-15
-28
13
-27
-13
-8
6
20
1
-10
6
16
-4
-19
1
-10
-37
32
-22
-6
1
0
-8
-25
10
-40
-11
14
12
26
-11
2
10
4
-20
-90
34
-6
-24
40
-11
19
2
36
-2
17
-23
4
-49
-27
12
81
21
-13
50
-15
18
-24
10
-23
-26
-23
25
-10
13
19
9
6
-1
14
3
-2
8
30
-1
4
-6
6
11
4
4
-1
-11
-7
1
6
0
-25
-8
7
13
3
5
-1
-1
-1
0
-2
3
-2
9
22
-3
-2
-13
-5
-9
-7
6
1
2
1
6
-4
26
-2
1
1
-1
36
4
2
-2
1
-6
-5
26
16
-5
8
-4
-7
-3
-13
0
24
0
2
1
-7
-1
4
3
2
6
-1
6
4
0
4
5
1
7
-7
-6
-8
-1
-1
-2
-127
4
-4
15
-15
-6
2
-7
-3
-15
1
-6
-2
-5
1
-6
-8
3
10
1
-4
-8
16
6
4
-8
19
3
-6
2
0
-7
-2
3
2
-9
-1
13
-46
8
-1
5
25
-3
-2
9
2
-34
-21
-47
-7
-19
6
-13
13
-4
76
-104
21
12
14
11
-9
-37
-37
7
7
4
-15
-1
-10
-8
-9
14
-5
-10
-4
7
-55
-8
0
-10
-3
0
-12
-32
7
-4
4
9
0
10
1
10
-9
38
50
9
-13
-15
15
-2
13
-7
-14
3
-37
2
7
-4
1
-5
-26
-30
-17
21
8
11
6
-3
12
5
-29
-23
14
10
5
-18
9
5
13
-33
-127
-5
-7
2
0
4
12
7
1
2
6
-14
2
-8
-30
9
0
15
11
19
1
-6
-40
5
2
14
-10
-4
11
2
6
10
5
31
17
-23
-9
37
-126
37
-3
-10
-57
15
-18
36
-17
5
-28
-7
-3
41
30
17
127
-14
-54
9
-10
12
-33
-18
3
42
-20
5
40
10
-26
13
9
16
-24
-6
29
-28
0
-51
-37
-31
-2
17
5
-17
-21
-36
-12
-31
0
-15
-18
60
1
-26
-39
36
9
10
16
38
-22
-8
38
-9
-2
1
-9
-17
5
-10
-12
21
10
-23
-16
-19
2
23
90
17
11
-20
-17
-32
60
-24
-42
74
24
14
-35
-44
-62
2
3
49
34
-24
19
69
-54
7
-14
10
19
3
-6
-56
12
12
-13
-3
12
-25
17
31
-15
27
-30
1
-7
-4
-1
0
-2
-9
15
5
-2
9
1
22
-7
-3
4
0
-1
-2
5
0
0
4
25
3
-3
3
3
4
1
-4
0
3
2
-1
5
-2
3
29
-3
0
0
-2
0
-4
-4
12
8
-1
0
-7
0
-2
1
1
-5
-4
8
3
-1
1
-24
2
-2
-4
-1
0
8
-10
10
4
-12
0
10
1
-8
3
-2
-5
4
0
2
14
2
4
3
-3
2
-6
-1
3
-5
-1
22
0
12
19
-10
5
-20
6
-4
4
12
4
6
2
-2
3
-19
-2
69
-2
-7
22
0
2
-1
-4
127
-2
-35
0
6
-2
0
4
6
1
8
-8
41
5
7
-12
47
11
0
-8
-6
52
-12
16
6
-2
-3
-18
-5
5
-5
-5
127
12
-6
21
3
-1
-5
-5
4
17
-2
19
28
-6
-4
19
-1
11
-8
3
-4
4
1
0
4
39
3
-1
-8
-6
42
-10
3
7
6
10
-14
15
16
20
3
-1
9
-16
11
-37
-61
-4
-15
9
4
25
-6
1
6
12
-2
14
4
4
-1
13
-6
-8
19
-11
4
-4
3
5
-114
5
5
77
-7
-10
-53
-5
24
-43
11
0
11
0
3
6
-3
8
31
-6
-14
-12
29
1
-4
-12
13
6
5
1
13
-34
-7
21
-2
13
-2
-13
35
-27
-7
-17
-127
19
-2
-51
0
30
20
43
13
5
-2
-3
-25
4
43
3
15
-76
13
2
9
40
-22
-5
24
9
-2
-23
-53
-7
23
3
1
18
21
0
18
0
4
-38
66
2
14
24
17
-6
-12
7
-6
-4
-6
14
16
-54
-12
25
-7
19
-20
-11
0
-11
-14
6
-68
-45
-9
-8
-27
-12
43
-30
5
-30
-2
-12
-4
7
12
3
8
3
6
6
17
-15
68
-12
6
16
82
1
15
-28
-35
4
-7
-31
-28
-8
1
20
45
-14
33
-3
29
12
7
26
-8
70
-108
6
17
-11
-17
-7
20
-5
4
17
-9
7
45
5
3
6
-127
21
-6
-4
-15
6
24
37
1
7
22
0
-3
-11
13
41
-26
-7
-4
6
12
23
22
10
-6
12
-5
6
-31
0
-16
-40
4
30
5
-12
24
-32
-4
23
14
-23
-5
48
17
-6
-4
0
1
-2
6
2
-4
-63
-21
-26
-58
-4
11
9
4
21
-12
19
72
-10
-3
-6
7
1
-11
34
9
-2
-2
-1
2
-6
7
-2
1
17
-9
3
3
24
43
2
14
26
124
10
4
25
13
0
9
12
-6
-5
-6
-7
-3
9
-13
5
-6
-20
7
-61
-4
-6
34
-5
-2
0
12
50
0
-11
-11
-2
0
-30
-106
17
-8
11
0
37
29
0
29
-20
-91
2
-34
-15
-39
-41
-15
44
1
32
-79
6
16
17
-32
0
-74
-8
-4
40
0
7
29
6
4
51
-13
-35
33
-111
15
-8
-13
-5
-49
5
-46
5
-3
-4
46
-18
36
-5
11
-5
15
-86
37
-32
-73
-18
-3
45
-10
-6
-38
37
-37
-39
-1
-16
28
32
-38
10
-75
56
-8
11
-7
12
-26
56
-61
7
4
-37
12
24
-28
15
24
25
-106
-17
-38
55
48
-53
77
15
-4
-12
5
-69
-1
11
55
-38
-44
25
8
-2
-6
-33
-23
-8
6
11
127
5
5
-7
33
1
4
-12
-8
0
0
10
13
3
2
0
-28
6
0
5
0
-2
18
2
-2
-10
-10
-10
-9
-5
4
9
-2
-2
-4
4
-4
-15
-14
6
20
5
1
-40
-2
-7
16
1
2
5
0
15
-16
127
1
1
15
-1
44
1
2
4
3
2
-30
-16
2
6
-14
7
-12
-1
-6
5
86
17
7
-2
-1
-10
-9
0
2
9
10
29
-1
6
1
5
-12
5
-14
4
-3
3
3
-6
-47
3
0
-24
-17
-6
1
-19
7
-6
2
-17
1
4
-6
-13
-24
-14
-63
-9
2
-2
-17
-2
0
2
14
-4
9
-9
-8
5
-11
10
1
0
12
-3
-15
2
-3
-12
-6
-68
-4
-4
6
20
10
-8
11
30
-36
-16
5
-13
30
16
2
2
-6
-23
-4
-9
-9
63
2
5
-11
2
-17
2
-5
-13
-8
-2
-5
-30
8
18
13
-3
-9
13
-9
2
17
-30
15
12
24
-12
6
1
3
-36
-14
-7
-36
3
12
-2
11
-6
-2
-6
-29
7
7
-7
30
3
-13
7
5
-2
-4
-7
4
2
-7
10
56
20
-17
0
-21
4
12
63
-13
0
-29
2
8
3
22
8
18
41
-5
6
18
-47
15
-9
5
-39
-13
0
-11
-22
24
4
2
127
0
-27
-15
-2
-10
-35
-12
-12
-22
16
21
-20
5
12
-96
26
15
20
-46
19
7
-18
1
-6
30
-9
-23
-24
44
9
8
35
-2
11
-17
-15
-16
-5
-11
-14
-33
-24
21
18
-24
-116
-4
18
8
-12
22
-2
5
20
-33
127
-10
-37
11
-8
55
-4
2
-1
18
-24
1
-1
10
-34
-10
-20
-33
27
26
3
44
-10
16
-21
52
31
-25
-6
-12
-3
-4
-14
14
1
7
-41
-6
-1
-6
-16
-13
-7
-7
23
-14
-5
8
40
32
21
9
-19
22
-30
4
-8
-10
-7
-9
-14
58
-6
30
26
20
12
-46
10
-6
1
66
28
11
-2
-8
-44
-14
-13
-14
5
-7
2
11
3
1
-3
7
0
-2
4
-30
-8
1
3
4
5
2
-3
5
0
-5
7
-44
-1
5
7
0
1
3
0
2
-6
11
-2
-10
3
-3
39
0
3
-4
-2
1
-1
-2
-3
-6
20
-3
2
-5
1
-9
-1
-1
1
-3
2
2
2
0
-2
-6
-2
-1
3
-4
12
-19
1
1
-2
-18
-4
-2
1
-4
2
0
4
2
14
1
-7
1
-1
-10
-5
-1
7
0
1
5
0
4
-5
-7
3
127
4
14
6
0
3
3
3
-2
-4
-7
-3
-2
3
2
1
-2
-3
2
-4
32
0
-4
2
2
-6
-3
3
0
-3
-15
-1
-16
11
18
-15
-5
-6
2
7
8
-7
-15
10
10
-8
6
0
-3
8
23
-5
-6
17
-18
-2
6
9
4
1
1
37
-8
35
-17
-6
-15
6
2
0
-21
-3
-15
-1
-31
3
-2
-2
-6
9
-13
-2
23
-7
16
6
-25
122
127
-9
20
6
6
-8
5
-11
60
6
-20
2
-4
-4
-8
-2
-30
-3
8
-5
9
8
-4
-15
-3
-40
11
2
-6
10
-2
3
-7
0
-19
8
-1
6
-1
18
-9
-15
-24
50
13
8
0
10
4
-14
1
40
0
9
0
3
-14
0
6
-19
11
14
1
-6
8
22
-6
4
-4
-4
2
19
-60
8
2
-10
64
-6
-4
0
21
-20
-16
-88
-13
-14
1
-8
23
-9
15
-103
10
11
-1
-16
-37
-64
-18
8
-1
-6
-8
-2
-1
12
-4
-16
0
-6
-4
10
-26
0
-2
20
3
3
-35
-56
-35
10
5
12
7
8
-12
6
-19
41
44
-33
-5
-12
8
28
-8
-4
3
3
24
-1
-8
-7
-1
4
-34
-19
-12
8
4
-4
11
0
22
15
-25
1
22
27
-7
-30
-10
0
4
-8
-127
-12
4
16
-4
-6
20
7
-6
10
5
-5
-6
-6
10
18
-17
2
21
17
-8
-21
22
3
-18
11
-35
14
3
-7
-1
5
11
29
-49
10
2
-1
-8
-73
-12
-5
5
36
-37
-5
28
37
-32
31
-17
6
31
6
3
5
23
-23
3
-3
-30
127
-22
2
-5
-24
-5
-26
-20
-11
18
-15
13
-59
40
-5
-14
-12
0
27
-22
21
-14
-42
-8
11
47
1
8
1
6
-25
-10
15
-59
39
22
-26
16
-2
-1
2
-13
-23
-3
-18
70
16
-17
9
22
6
6
-13
19
4
0
-31
70
1
13
18
-71
-23
5
-21
-16
-3
-27
-23
5
17
27
11
41
15
-28
-9
16
-38
3
6
6
-49
-7
17
1
4
40
0
3
63
6
17
2
0
-22
-20
-10
-7
9
-2
13
-7
-8
24
127
24
7
16
56
51
19
33
-13
-7
3
9
13
22
-11
11
3
7
12
17
6
2
11
-1
0
4
8
19
61
1
-4
64
0
-6
-8
14
30
8
17
-14
-26
-34
12
38
-42
-6
8
5
-7
8
-22
15
-7
66
-105
21
-38
14
-13
0
-13
18
-65
14
57
6
-9
11
-11
0
23
42
-6
-9
2
2
0
3
-11
-5
15
11
-5
9
13
16
-3
1
12
4
46
18
-44
-10
-18
-11
-18
25
9
-14
3
11
21
14
-20
-12
21
17
72
-18
14
-1
-51
3
9
-4
21
-16
-15
7
-2
13
45
-2
-127
101
-13
-3
27
-10
47
-13
-13
20
-69
-33
-46
-40
21
-25
38
-52
-7
17
-44
29
54
14
-40
3
11
-50
-46
25
-33
41
8
3
-61
32
35
27
-35
77
-50
1
-7
-4
-50
22
9
23
-4
-53
14
-27
2
39
-23
23
-57
-16
38
38
-81
23
7
-44
-7
1
-25
-7
-31
15
101
-8
22
0
-41
-9
41
20
-25
11
-17
97
-15
-2
-7
38
-14
9
-37
-35
-23
16
20
-49
5
21
-24
14
28
45
63
-96
-11
-11
31
8
0
-56
44
6
-20
-27
-21
-73
26
-45
6
-37
-65
-14
-31
-38
-19
9
17
-4
127
6
49
-6
-5
-28
-25
-27
10
17
-7
-21
53
15
52
-11
41
20
-23
2
6
92
6
-6
0
14
33
23
-12
18
-19
-9
-14
20
-61
3
-30
-21
5
5
-15
6
8
26
17
-41
-67
19
-17
-62
52
14
-8
37
-6
24
16
31
-14
49
-6
62
63
-36
-27
36
-3
-5
20
-21
62
-2
31
-14
-13
-16
-8
-27
10
18
18
7
30
13
14
-15
-26
-26
40
-4
-20
-24
14
24
6
-6
0
-4
6
-27
20
19
-19
86
19
0
7
-46
16
-10
-9
11
59
-13
8
21
2
15
-7
5
-5
-22
-2
15
-6
1
-11
26
8
17
7
2
-49
-21
12
39
127
-5
19
-17
-4
-8
-4
-50
9
2
21
-17
-2
-23
9
32
68
70
3
-4
-17
-5
-40
7
-20
-13
-24
-28
-19
6
-38
9
25
-24
11
-23
-41
8
25
14
9
10
-13
-5
-10
-5
59
-25
30
8
-7
-9
8
-15
15
-7
-11
-8
-2
-2
15
-3
-14
-1
1
-12
23
-28
-12
-4
-10
21
11
7
15
0
11
41
46
5
-13
-33
-82
-43
4
-10
15
-16
0
-13
12
7
12
15
-8
-6
15
2
43
-33
-8
20
14
-24
-8
-2
-11
11
-54
6
-12
-39
-19
8
2
-6
-5
-5
-13
13
-12
3
5
10
-12
9
48
-10
-10
1
-10
-27
4
10
5
2
16
4
-29
-18
45
-32
-4
-15
-1
-3
-7
-22
-1
-14
-8
48
13
-4
20
2
-20
-31
9
-4
7
15
-11
8
-2
-107
-29
50
-21
37
-10
-16
-127
8
-10
0
43
-40
-48
-5
-8
21
-7
-17
-29
-34
-35
-3
26
4
25
2
-27
3
-15
-6
12
-12
-7
4
-7
33
4
-10
-15
4
-5
-72
5
9
-9
-22
56
-9
16
4
24
26
-13
98
0
41
-29
35
-1
24
29
8
51
11
28
11
-39
55
9
-34
-17
-39
0
23
62
18
15
25
8
8
-1
1
12
9
23
-17
-3
1
-6
7
1
-4
7
-18
1
-7
0
-15
10
7
13
-12
69
-39
2
-15
-1
-14
9
-14
-12
-8
-3
-34
6
34
-14
-23
-3
100
1
-2
6
-3
-15
-21
-39
-6
-14
-109
-9
21
-4
6
2
-3
-10
9
-29
-1
-32
-10
-42
25
-6
-17
17
-23
-20
-16
-74
-9
8
-8
15
5
13
-1
-7
38
-26
10
8
23
3
7
-11
-2
-8
-9
8
9
-8
-7
127
0
-18
-26
75
6
-10
-10
8
16
-6
11
-9
-21
-15
1
-12
-4
21
13
-14
53
23
-52
-2
-14
-45
13
-13
25
9
7
4
6
-6
-2
-12
-13
28
17
34
-11
35
-61
14
22
21
-21
-33
-18
-48
8
91
-34
4
13
12
-55
-24
17
-55
-20
-17
-14
127
-5
-21
-29
-2
-14
19
-13
-22
10
13
-30
21
42
-72
20
-1
32
-32
-2
-12
-26
52
-27
36
-12
27
-48
20
-5
-57
-22
11
20
96
-23
2
-33
-16
-5
-10
0
-10
11
2
8
-11
-21
19
0
19
21
-24
-16
-17
27
-5
45
-12
-8
4
12
-23
19
-21
29
7
-32
51
-19
8
5
-7
-3
-33
29
-16
-14
13
-24
-29
0
11
-1
12
-27
-4
-21
1
-4
-2
39
-7
3
-49
-15
11
-33
12
20
32
4
6
22
-21
-11
-7
0
-3
-19
-9
-33
18
-11
13
-1
34
8
-6
127
-5
-25
0
-22
15
-13
16
0
-26
12
3
1
24
-14
-34
19
1
-23
-8
20
-15
0
6
1
-30
-45
67
17
7
57
17
10
-2
3
-24
19
-15
22
-8
-10
-18
-36
-10
-7
15
2
-13
-6
13
-15
-77
15
9
9
21
6
-11
-13
22
-21
2
-15
-1
19
21
2
0
24
2
-17
1
0
22
-8
16
-10
-20
-32
22
-23
-15
-11
26
-21
2
5
-15
9
-5
19
6
4
2
50
16
41
-5
26
-20
9
-13
37
-6
-1
2
2
3
-3
2
5
-29
18
-5
9
-2
-2
2
4
-18
-1
-2
-12
0
4
-11
-11
8
-5
50
-10
1
0
-4
4
4
5
-3
7
-3
127
-14
11
5
-13
3
13
0
-6
-7
1
5
-3
-7
-40
36
-5
-1
8
28
7
-62
-10
7
-5
-10
26
37
-31
-4
-1
12
3
-9
-4
18
4
-19
3
14
14
-6
38
4
5
0
6
7
-13
-1
6
-7
0
8
3
-19
-1
-9
-4
0
11
12
-6
6
-6
19
1
-15
0
2
12
4
-7
-2
5
8
0
-3
25
-13
5
-14
22
-5
3
-8
7
-6
-14
-6
-7
8
20
6
6
5
-9
-10
-1
-1
0
0
-3
0
0
-1
-5
-30
3
-5
-1
3
0
-2
-1
3
-8
-1
7
5
3
-4
2
4
4
9
2
-2
-3
9
-5
-3
-3
-5
49
-4
-8
0
-2
2
0
0
1
-10
9
4
2
-1
4
-4
1
4
-3
3
2
2
-14
-5
-2
5
0
-2
0
0
4
-20
-5
-5
-4
2
-1
-3
1
-7
0
5
4
0
22
1
2
-1
1
-16
-4
-2
-3
-3
3
4
0
-5
14
-11
5
66
-1
16
4
4
-3
1
-1
1
-8
-10
-1
45
1
-4
9
-4
1
-4
-2
127
-1
-11
-2
3
0
-3
1
-3
-1
33
-32
7
-11
-62
-76
-4
-26
43
25
-6
-21
-3
-42
27
0
28
-36
17
12
-8
-46
15
-58
-69
-19
-7
26
-32
23
-50
18
10
-13
-18
16
-26
-23
37
-2
-21
-6
65
-20
3
59
35
-4
12
2
7
13
-4
-20
-10
57
1
-19
24
-7
-7
26
-11
30
23
-8
22
6
1
-46
15
24
-15
-16
-3
-34
-17
-11
-34
1
-17
12
-22
59
-15
8
-43
3
4
25
-48
-46
5
59
-76
15
38
2
-5
-51
24
17
46
51
-49
-32
105
127
0
17
-24
-10
23
-15
-4
20
-51
-76
-10
13
-14
123
21
-15
-86
25
-24
-87
-5
53
-28
-6
22
-4
8
22
18
-4
-4
1
-20
2
54
-31
25
27
49
3
8
3
-2
32
90
-67
11
-19
12
28
-10
-3
-18
-27
-8
-3
-43
-13
-17
-6
28
-13
49
-10
-27
-23
20
5
-1
-6
2
-44
0
-41
-24
-32
-3
3
15
-10
-16
0
4
15
14
3
1
-5
12
-6
-7
-19
15
-11
-2
-16
-24
-1
0
15
-4
-16
-18
11
-18
3
68
-7
7
-14
-67
-127
10
-12
11
-6
7
8
8
42
5
7
12
14
19
-6
11
-45
3
-2
0
-58
18
-5
3
-5
-30
-2
-8
-69
2
11
-7
-18
-48
30
0
-8
-10
7
-22
24
12
-4
34
59
22
-2
30
-10
9
20
-41
-2
-59
88
-14
17
73
55
-2
5
-6
127
-10
-1
-24
-3
-8
-10
8
22
7
-2
-16
38
-4
4
-56
2
82
36
4
10
0
10
-6
7
34
4
39
47
34
8
24
-36
4
-45
18
12
-59
-33
16
-25
2
7
10
13
51
-13
18
-43
14
-34
-54
-14
-7
7
1
8
67
-9
65
1
44
-77
-5
-13
8
-4
35
22
-20
-7
-27
7
9
18
10
-23
1
11
-10
-46
-33
30
2
-23
15
-3
-13
1
3
12
-6
-15
40
21
-5
13
0
27
-30
-92
24
-12
7
4
-56
6
21
-20
-6
-1
-14
5
-10
-2
34
-15
-11
10
31
-127
44
6
19
-75
-12
-9
-17
-13
0
-30
4
24
-16
-4
-6
-4
5
2
0
-15
22
12
-25
71
-25
8
1
14
-2
2
11
-15
-3
7
29
1
8
-15
-2
-7
-12
21
9
19
-6
-9
40
1
-6
6
-7
5
19
0
0
12
11
-4
-12
-30
28
-11
-3
2
0
15
-3
3
3
-14
37
-7
-10
16
17
7
15
-6
29
-11
-17
-6
-6
4
-10
-2
-5
-11
6
11
1
-2
1
4
27
11
11
-8
21
8
-1
23
11
11
-95
2
-31
0
0
-4
1
-56
-47
4
30
3
-13
101
3
-2
8
-2
-14
-3
43
28
-20
15
6
18
-20
0
9
-11
15
25
2
-2
-17
-86
-90
14
-3
-7
-5
-40
-24
-13
11
-14
59
-48
27
-10
-2
-16
-13
14
-30
20
10
114
-25
-15
-6
-8
-6
3
18
0
-6
7
-11
33
8
-23
-2
-4
7
19
-9
-11
-7
-33
-31
-42
-24
-22
20
9
-3
-11
-24
-2
-14
-3
-18
-12
14
10
-36
-23
0
127
-15
3
-17
-13
11
19
-5
8
40
-2
-2
-8
8
39
5
4
-5
61
0
13
2
-10
-23
-8
-5
17
1
84
-1
2
9
-7
-12
1
11
51
74
21
33
14
-28
29
58
14
-11
36
76
28
-45
-23
27
-59
-42
-48
-14
-63
-11
-1
48
-16
-76
-21
127
-71
-21
-54
113
-12
-77
-7
-71
-14
40
-15
16
-9
69
-22
-23
-60
-3
-7
8
-62
-58
-60
33
16
19
54
-4
5
-5
65
-57
-44
54
-33
102
-6
-23
6
11
-16
62
81
-12
40
21
-3
-77
-19
8
16
1
-1
-15
24
3
-7
90
-13
17
-9
-3
-6
46
-40
65
0
31
-21
3
-47
18
-5
-26
61
22
-37
44
66
-42
69
32
47
15
-19
-53
30
28
2
-26
18
5
53
8
29
-16
18
3
50
-25
42
-76
-2
-12
-47
-19
36
7
-22
-24
0
-13
13
39
36
-127
38
-5
4
33
2
9
-23
23
58
8
25
-69
38
38
23
11
-33
2
-26
-9
-13
48
53
-11
-17
93
-3
3
-4
68
8
26
43
-7
55
29
5
14
24
-8
-23
12
23
-39
55
8
49
24
-27
11
-8
-9
35
-19
20
16
-4
48
-5
-50
7
22
-3
-4
9
48
-4
15
11
-18
11
-11
26
38
2
13
-9
-11
12
-43
17
-10
25
-13
12
54
-4
-26
-26
18
19
21
-2
-17
47
15
-7
5
8
36
-24
0
14
-5
61
17
29
32
1
23
-29
5
-11
-3
-2
-8
34
77
-10
-10
-2
10
29
7
28
-16
34
15
-5
-4
-59
-98
61
-46
36
-17
-1
-18
0
7
-16
0
15
-1
27
64
-8
-29
1
2
-8
4
-17
15
-7
-13
34
-84
-31
-17
-6
-30
-2
11
-5
4
-19
7
-48
16
92
-48
-35
33
25
-23
-28
-35
45
-7
-9
127
-20
-13
14
-13
-11
7
61
-41
8
-9
-17
0
-31
-16
-3
8
37
9
-25
8
9
-56
-21
-9
15
53
6
10
2
-26
-16
-24
57
-1
-2
11
-1
-4
-2
-18
-16
19
-8
-15
9
-12
-15
-8
2
0
-12
75
50
-10
-6
-28
2
3
-22
0
18
-12
-25
17
3
-3
-20
-9
-3
-24
-30
8
27
23
3
-1
15
22
23
-10
-12
5
-6
10
-19
42
17
-23
8
12
-19
14
-10
-9
4
9
-57
18
-17
40
-1
-12
22
-26
10
47
-17
33
16
-1
4
4
7
9
-50
54
-3
53
9
23
-9
-8
18
-41
-15
-6
8
-22
0
30
-27
21
7
-4
-14
-11
16
1
15
-3
-46
24
-12
-34
-7
2
-15
-14
6
19
9
2
-17
-35
0
-16
24
-21
29
22
-6
13
9
11
-29
4
0
12
-20
10
-26
-43
127
-2
-5
-6
2
3
8
11
-45
8
4
40
-1
-47
-18
-4
-127
6
4
-2
27
-10
-19
7
-17
-12
-8
-11
-54
42
-5
8
40
74
36
-8
39
-38
14
-123
-41
25
17
22
-19
-52
14
-13
9
-37
12
7
33
10
48
-22
8
-45
-29
-57
-59
-13
-25
26
7
16
-24
-4
-37
28
-56
-6
-44
-48
11
-34
17
17
3
-16
-5
-46
-38
96
-21
-3
-12
-50
-12
-75
17
44
20
1
3
-10
82
-5
7
-11
35
2
-14
16
1
-69
-1
5
-38
-43
-85
-2
-26
-42
105
16
8
19
-1
19
-7
0
30
21
-17
5
15
24
-46
12
-25
-17
14
-34
-25
-14
-9
-29
14
13
4
-62
43
-34
90
-36
66
47
14
-28
-9
0
-52
-112
-62
-79
-57
-86
-19
5
-65
2
-51
-32
65
0
26
-12
-40
-29
-15
20
-20
17
75
-31
10
-96
-78
1
5
24
29
-11
22
38
-110
76
42
30
11
53
-8
19
86
14
-10
-15
-56
100
-37
-26
-65
-22
-23
36
61
-16
-23
39
0
-68
57
-1
-14
4
-2
1
-2
37
77
40
-42
72
25
11
16
-10
6
-5
-46
11
-5
-15
19
-47
4
18
-52
45
62
17
57
63
-71
38
-66
-4
-21
-7
36
51
62
-33
-78
-27
-33
33
-127
28
9
-44
53
77
10
-83
71
-82
5
-50
23
-127
1
14
-43
-16
-12
12
-48
-13
54
-6
6
26
-105
56
-75
-11
4
-29
6
-5
7
16
16
16
-71
-17
61
-68
40
42
-21
-10
12
-36
-27
2
-4
12
21
52
-7
-14
-56
40
-12
39
12
24
87
-2
25
-27
22
0
19
-34
-14
-40
-34
-18
19
0
27
-6
-22
-7
3
-94
1
11
-42
-2
-5
-49
-70
23
-17
33
-18
30
31
-14
16
33
8
12
3
-71
2
-24
40
10
50
6
7
-16
5
10
-20
46
-43
-17
-39
-33
53
-32
-27
-31
2
-8
15
50
5
-7
-7
3
37
19
1
-48
4
7
37
12
-3
-3
-1
-7
1
3
-4
127
-7
-3
-18
28
-2
-3
-3
-3
-1
-5
-1
-3
1
-43
-7
-7
4
-1
4
-2
2
0
3
4
-8
2
-14
3
-2
1
30
3
-2
-4
3
-16
5
11
7
11
16
2
-9
9
4
-5
4
2
-3
4
-6
7
18
-27
-1
-4
-6
3
-1
16
3
-2
-15
2
-2
7
2
1
-4
-6
0
-5
-1
-5
-7
-3
-2
3
2
-6
-1
6
1
4
-10
20
-1
-3
20
2
-4
11
16
9
14
7
-5
7
-4
1
-8
7
-11
10
4
-1
-32
-11
3
2
-2
-24
1
1
-1
-5
-5
0
-8
1
2
-49
-13
11
-33
-39
-74
14
37
-22
-24
12
-7
-13
51
-11
-53
-77
36
-23
-22
57
35
12
-5
-30
-24
50
31
63
13
1
-10
-17
-9
67
-4
100
40
-36
2
-27
-18
83
58
-16
12
42
39
-72
26
-23
-6
11
-1
-57
-75
-33
-30
10
-21
-37
40
78
-54
0
-44
-29
-19
27
64
4
16
9
-25
-23
37
-8
14
54
1
-21
24
-27
-23
17
17
-37
95
-7
24
19
-32
66
-12
16
-5
-127
-4
20
-17
38
-28
56
-87
-32
-92
-42
-29
-16
72
-35
-9
-21
9
7
32
-28
24
-7
16
10
2
-10
-71
-16
3
42
-26
4
-4
-39
7
-21
8
3
-3
55
-4
-21
-14
46
6
8
2
-15
30
21
-1
19
3
13
-21
-34
-124
-3
-15
-14
-20
-8
13
-1
-17
-7
-18
11
-15
-43
17
-15
-8
9
0
-12
1
-11
-3
11
6
2
16
-2
29
53
39
7
-16
-16
-10
12
13
16
-6
-32
-16
14
-4
3
16
4
-1
-6
7
4
-11
-21
2
6
-15
28
18
-4
23
-61
-45
-60
1
5
53
11
29
17
2
10
-16
-25
-3
11
-34
2
9
-17
-5
16
-5
54
19
-10
8
-4
33
-17
-1
3
-15
-94
-32
-10
-20
-12
-10
1
3
-13
127
24
-1
10
-21
-54
11
-2
24
6
20
-19
11
17
4
22
7
-20
24
21
-22
-1
6
48
-3
12
-8
2
-8
-1
-38
84
58
-2
0
26
-11
-12
13
-22
-2
-16
-4
-2
-14
20
0
16
-1
8
-7
-21
-65
-11
51
-4
-7
-6
-12
12
6
-22
18
42
38
-67
-2
-4
-10
19
14
13
6
-33
10
5
-14
1
-1
20
17
127
11
3
-1
0
-3
-21
-4
-30
-50
1
-7
6
-10
17
-7
4
-4
35
-14
8
-17
-5
-6
-30
33
-2
-29
-19
-30
3
9
4
-22
6
12
-8
-34
-2
7
19
-20
-1
-7
127
-35
-15
7
2
-8
-15
-12
56
16
13
15
-2
-7
-13
-5
4
-34
-27
-19
-66
-51
37
-18
23
-51
-7
70
6
36
-12
25
-28
-12
-127
-32
13
-10
-13
-1
-9
15
-35
36
-3
-10
-79
8
-66
-9
-34
20
7
-17
62
-36
-23
-33
22
1
-15
-15
-4
-33
12
17
-48
7
-21
10
-24
-29
-14
-7
-21
23
82
-9
23
-2
-11
-4
-20
17
-30
13
-7
9
1
0
-10
-15
2
-29
-6
37
22
-13
-17
-32
-1
-9
-41
16
3
20
37
-7
-17
-4
-2
-92
-25
5
-45
-24
-11
-14
68
-24
10
-31
-14
-41
-26
4
-9
2
48
27
-22
21
0
2
-11
-4
-5
11
-26
8
-121
24
-7
-54
-38
31
-8
-6
1
38
24
31
2
-1
52
-36
9
-8
-9
10
19
9
-27
14
9
12
-27
-17
0
10
41
-59
7
3
-15
18
30
-11
-17
-44
-33
22
-33
2
-13
7
-12
13
-20
-16
-17
10
38
62
8
-16
20
35
-30
-12
-17
18
-26
-6
-70
-4
-23
5
13
-48
73
-26
27
-19
-32
-20
1
21
-98
1
39
17
1
-127
18
-11
60
-27
12
-4
-14
17
-18
-45
-55
-3
-35
-17
-12
-21
1
34
16
-37
-31
-18
29
37
2
11
-17
18
-125
-35
34
-7
26
-10
42
-50
1
-4
-8
14
-37
9
-9
-4
61
-6
-7
3
10
1
-24
-66
0
-10
-21
-6
14
-15
49
-72
22
3
4
-1
-16
-38
-23
-13
-8
23
9
7
26
3
17
20
0
7
-4
4
-12
-3
-6
-17
-49
4
-2
-36
-7
-7
26
1
1
3
-2
15
-2
115
47
38
37
-3
10
19
-2
-9
-22
22
-62
0
-11
16
8
1
3
-33
19
-6
-4
20
-2
-5
26
-6
11
-32
2
6
-5
-21
-7
-5
6
-45
-127
-8
-5
-8
-41
-8
1
2
12
12
4
26
26
4
-12
6
39
26
4
31
3
1
-72
-4
13
13
-42
-55
3
-9
3
9
-15
-1
-3
6
-7
-5
18
7
-2
127
4
19
-6
3
2
7
0
3
0
-9
3
8
-9
8
-17
0
4
5
1
4
-2
-1
7
-7
-15
9
-3
-9
-10
-9
-7
-2
7
6
-5
7
6
0
1
-14
2
1
2
0
-6
-7
13
0
-2
-9
13
3
-5
3
2
11
8
14
-14
-13
-9
1
-59
1
-1
0
-7
-17
4
6
-2
15
-2
16
3
0
7
0
4
1
-2
-6
-8
2
0
-15
-13
-7
-30
12
-6
-1
3
1
13
6
-6
-7
-2
-3
4
2
-6
20
9
-19
5
-7
-51
2
-41
-7
-8
-4
-1
-2
0
2
68
-11
21
3
-36
12
18
44
-11
23
5
52
-23
-19
33
-19
55
5
37
-13
-9
-92
-8
-13
77
33
17
-10
65
-12
-1
5
-76
-38
25
6
47
55
-25
20
-29
30
-3
-37
6
-5
-127
2
-36
3
20
-17
-67
-13
-21
-21
72
-3
18
73
-43
-11
125
17
0
-7
6
13
-64
-1
-16
-27
30
17
12
-28
24
-41
21
-39
-2
12
8
12
-21
-72
60
-26
32
-9
-16
55
79
-15
-2
-44
78
25
-5
-28
-65
-8
-33
24
-38
-27
-13
57
-5
0
-58
-33
14
-8
40
34
-12
40
33
-63
15
29
-68
-45
-25
-53
44
8
17
-8
-8
19
-1
-7
28
-4
22
29
19
9
16
-37
-65
-22
-29
-4
45
-10
53
-46
-6
21
31
36
-40
-56
-109
-46
20
-4
-11
9
-18
2
9
17
37
-21
2
-53
-36
27
3
23
14
27
-67
-68
6
-54
28
-12
-11
36
9
-10
7
-31
14
-51
-18
-1
14
8
-5
0
-5
1
-40
-18
3
43
39
-12
-47
3
-127
9
7
-11
-2
24
-11
-19
-7
20
18
6
1
24
19
24
2
22
-56
29
-12
34
-17
-30
-1
42
-4
4
6
-4
28
-25
-14
-10
-3
16
-1
-12
13
-29
30
8
9
48
97
19
-18
-10
-5
6
20
-5
-15
40
-8
-19
20
-23
1
8
13
32
-4
4
2
1
-20
3
3
-10
-127
-3
1
-1
5
-1
3
6
-9
-6
0
-14
-16
-14
-5
-2
-5
-6
2
20
-3
24
1
-13
15
-7
-6
8
-28
-10
29
-1
-28
-2
-9
2
26
16
-14
6
24
-29
-3
-11
22
-5
30
13
-6
-13
-57
5
2
-14
19
5
22
0
-10
5
6
-12
0
-23
-16
9
28
-17
-1
-14
-2
-1
37
1
2
8
13
3
-1
14
7
-64
15
-12
-6
-9
-3
15
-4
16
2
-5
12
-67
-54
-14
1
10
-17
-5
-2
16
18
23
-6
16
-5
3
-25
-13
-10
3
30
-33
-28
-23
7
11
-2
-38
-11
51
-16
-10
-5
11
1
10
-2
113
69
-23
13
8
15
-13
31
26
-22
-20
26
3
-28
-10
-19
9
13
-37
-15
-26
29
10
8
24
22
10
30
-3
-14
33
-21
22
11
7
-18
-23
11
-71
39
1
30
0
-17
-4
-24
17
-25
6
-10
-1
30
-39
5
1
-24
26
5
-11
15
3
14
-21
-10
-20
-52
-18
-8
-14
-12
45
8
-7
9
-67
56
9
-11
-3
-3
2
-20
-4
-6
9
-8
-25
-1
-20
-65
8
-3
-47
8
-12
16
20
-127
3
-42
10
12
7
-37
-3
8
5
-19
10
-127
25
17
-24
-20
-23
6
32
2
23
31
-9
22
-70
26
-88
58
17
-31
10
-3
13
38
-17
-10
-40
54
50
-37
8
-1
11
-6
-29
-35
-23
-31
4
18
60
42
5
3
10
-7
-26
0
-14
-9
56
9
21
11
2
3
8
2
-10
-29
-19
-6
-11
-7
7
-12
3
-1
-11
-17
4
29
-7
4
-39
-41
-35
-33
34
-25
6
-25
-20
-4
-13
56
-9
-20
9
-59
39
-14
73
1
-5
27
-13
-23
-3
-8
14
54
1
9
-60
-13
37
-2
-29
-37
-6
7
22
16
-2
62
0
-3
70
20
42
8
22
19
-1
10
17
12
4
-4
23
-8
-1
-19
-12
2
127
15
-11
11
-3
10
-3
-18
10
-4
5
8
3
4
0
33
-3
8
2
9
-12
-7
17
27
2
-36
-4
5
-31
-10
-4
-4
0
-4
0
-12
-19
1
-53
-7
-16
-34
-2
17
3
0
23
-9
15
-16
-10
-3
18
19
-11
-2
-25
-9
-2
-7
-4
3
2
-16
-5
21
2
3
12
-18
6
0
37
-2
-28
-9
-7
-20
4
13
12
-9
-12
2
4
11
-33
-5
20
20
0
0
-15
-11
-6
-12
-8
-7
-16
-24
-16
0
7
-12
-8
-3
-8
-1
-8
-12
11
-4
34
4
13
9
2
0
11
-19
-4
-2
-8
9
-26
10
-13
8
-7
-21
-15
-9
-9
-4
20
-4
-25
-16
3
0
1
-1
-1
-6
11
10
3
12
10
0
-127
-17
-21
-21
23
-1
-20
-1
-16
11
-3
-9
-11
1
35
-21
6
6
0
17
13
107
10
-1
-15
1
-56
-56
8
-1
2
7
3
-25
27
-30
5
25
-12
21
-3
3
-101
16
5
1
-32
13
-1
-10
-16
-8
23
-16
-1
-18
8
4
16
1
6
23
1
-12
18
19
6
15
-12
3
8
-1
3
5
7
10
-13
4
-55
-17
5
19
-1
33
7
-10
15
4
-1
-7
-11
-17
33
-3
8
-1
2
8
-4
-19
32
-6
0
-13
22
-2
27
0
127
8
-5
-5
3
4
5
-30
3
-4
-13
-10
-10
7
-20
-14
-7
14
-8
-4
26
11
-8
-5
-4
-18
-14
-4
-31
7
11
-30
2
17
-15
14
-23
23
3
24
-8
2
-2
-4
-5
-12
0
-1
-5
-21
0
-20
0
-19
18
-1
-2
14
4
40
7
10
-7
-6
-1
26
-11
21
10
4
-6
-5
8
1
4
5
24
11
4
-3
-6
28
5
-3
-10
-61
-7
6
-9
-86
-20
-26
-5
9
15
-3
-7
-8
9
-42
-2
3
6
-15
-8
-8
7
35
3
47
-4
0
-14
9
-3
26
6
11
-34
-14
34
-8
3
-49
29
23
8
-10
3
-38
22
-26
1
-40
-12
0
7
-3
16
-12
-127
-31
22
-5
-29
-37
-20
0
18
3
35
33
-38
22
13
-11
-3
-8
-11
-40
10
36
84
-19
22
-24
-21
-21
-25
-27
-25
37
62
-16
-11
29
-24
-13
-16
-14
-58
-15
23
6
12
-6
-63
-4
108
-12
-11
-23
-19
27
27
6
-33
24
46
-5
-17
25
34
-114
-13
78
116
6
-68
27
-14
-28
4
26
14
-12
-46
-8
-4
-3
7
49
-27
-6
89
8
-4
6
-15
-9
12
7
12
6
-18
0
-22
1
53
11
1
-2
68
-10
-33
29
-92
-50
-5
-12
-18
-1
93
13
12
2
-30
60
-3
-15
25
-25
-79
-3
-6
-20
30
-5
-69
10
46
1
-1
4
1
54
-3
-7
-18
3
-9
18
8
-5
-10
15
30
-25
1
5
30
-21
7
-7
-14
-10
-7
2
-10
71
-77
-8
3
-16
-1
27
13
58
2
-4
-1
-2
3
-6
13
8
-10
1
5
-71
-6
-21
1
-14
34
1
6
-11
6
-1
15
-66
1
-15
15
4
-24
4
127
-6
4
18
-19
-8
16
-15
0
19
35
-6
1
-36
28
-10
0
-5
75
8
-2
5
-16
54
-20
5
-14
1
109
-4
1
-53
-24
-19
11
19
9
5
31
75
8
-9
-7
24
6
-14
-40
-7
-22
58
-12
21
110
-8
33
45
12
36
30
42
-3
12
-6
-16
-25
-26
-9
36
2
80
-2
-39
8
-95
22
-11
-21
-23
-5
28
4
-54
22
29
-21
55
-12
-19
-24
50
2
0
-12
-14
8
-28
-8
-31
3
127
-13
1
5
43
-21
-41
12
-73
21
-42
30
9
-14
-21
19
-12
-5
-33
52
16
-8
21
6
-40
-4
-35
7
10
26
-11
57
-10
-18
-11
-22
-68
72
9
-66
6
-76
-101
6
-16
107
-14
27
11
-33
-24
-30
24
2
27
61
9
2
-31
15
-38
-23
-15
-13
-7
3
24
-18
6
0
-10
-12
6
-5
-16
21
-3
55
-12
-22
-14
-27
-1
1
-20
127
16
-16
-20
1
37
42
15
14
7
17
9
-2
-28
1
-38
-13
-4
-3
0
-5
16
12
-3
-18
-1
10
57
32
26
7
-9
-6
7
-13
-4
-9
-2
-33
-21
17
32
-4
-38
-4
8
-4
0
10
-25
-2
-17
-11
-10
20
5
-27
31
4
-7
3
-5
8
7
8
3
-3
1
39
2
-5
17
11
-1
-6
67
-2
-6
-23
-6
-2
-19
-11
11
-12
-10
-3
-15
0
4
16
13
14
13
-20
-4
30
6
14
4
-2
-11
-20
-15
1
-11
2
-7
5
12
3
-3
0
-8
8
10
-20
-15
27
1
-40
6
5
-41
-11
0
-3
49
-56
-2
3
-33
1
12
-8
-16
-19
10
-5
-5
-5
12
12
19
-13
-17
9
-5
16
30
2
-5
-8
-26
-15
-7
-4
-9
-21
-12
5
-4
-20
0
-10
26
127
30
-4
26
15
-2
5
-5
17
-4
-5
-21
-67
-8
12
15
-2
13
-16
12
-13
3
-4
6
-4
26
-3
68
9
-34
-23
6
11
23
-11
-9
12
-108
25
-2
-4
-27
9
-1
4
-40
-18
16
61
18
-3
-15
-19
-21
-1
-5
-11
-22
-19
-39
-11
21
-7
24
-4
4
2
-2
-11
0
25
-124
-49
-34
64
-42
65
16
-37
-11
108
4
39
-16
3
31
-28
24
-69
-49
-9
-20
3
28
3
-71
-9
-42
14
-16
-33
78
3
-97
16
20
-43
18
-17
3
-18
54
41
-2
-13
53
-40
-20
30
-6
27
46
-1
-23
-12
13
-43
-3
-72
-51
-12
-54
13
-5
9
-8
10
-11
-39
95
-20
-66
28
30
-23
50
60
-43
-46
7
-42
-7
48
19
-33
15
42
-13
-67
-27
-15
38
33
17
19
-11
-29
7
-35
-11
41
51
19
-10
-42
14
25
6
2
-38
8
-23
86
27
-69
4
27
20
-3
71
39
-3
127
14
-6
-27
-22
8
2
10
-1
2
2
9
-4
-2
-5
-20
4
-2
0
0
5
-1
-1
-2
5
-25
-4
-127
-5
0
-3
1
-8
2
-3
-3
5
-7
10
13
0
-3
37
-1
2
0
6
0
-4
6
-3
-3
18
5
2
-2
-2
6
-6
0
-4
-2
-3
-4
1
16
5
-9
-4
-3
5
3
24
-35
-1
-3
-1
19
-4
-2
-2
-11
1
-7
5
-6
2
-4
9
3
1
-7
18
1
-2
-5
-9
-12
-1
0
-9
-9
4
86
-3
18
0
-1
-5
-1
-4
-2
-7
28
-3
-9
-2
-4
-6
11
-4
1
-1
12
-3
27
1
7
-4
1
0
-3
-1
1
-9
-41
1
-24
-41
-70
51
30
-5
9
33
16
29
0
4
-127
61
-29
18
-38
91
-16
-33
-15
47
-9
5
-57
28
0
-11
13
-22
15
-1
28
-27
17
14
-8
-11
69
-19
-5
-8
30
-15
-18
31
-36
-36
-21
14
17
-71
-24
15
22
56
-32
-2
-30
30
10
11
-7
-17
-7
-2
-26
51
-15
-22
-9
50
-5
17
40
-11
-8
-13
2
9
16
-116
65
-19
75
22
18
-37
27
11
-21
15
-83
24
-30
34
8
9
52
4
-45
-2
-8
8
26
17
-35
-43
5
-13
9
-17
-90
6
-8
55
41
24
-1
2
-105
-28
23
-36
-16
1
7
7
-10
18
-2
1
-18
0
4
3
-5
17
9
32
21
-35
-4
-3
-7
-3
5
10
5
1
6
9
-32
9
-12
1
9
5
13
16
3
-13
-4
-20
-16
-43
-12
-13
-5
6
-13
-14
-25
-6
-14
18
-11
-6
-5
-9
6
2
24
-4
-21
-11
-20
-16
-21
8
-3
1
2
6
-19
12
-5
5
-5
-3
-9
-15
-9
10
2
-2
7
3
3
0
-6
-16
-8
8
-16
-3
-4
-14
10
0
-25
29
4
3
-10
-18
23
19
-8
0
-3
6
0
-39
-6
-6
-17
18
15
-4
-1
-14
-1
-11
2
-6
127
17
-4
1
-5
-2
-41
3
-31
-2
72
19
-13
-24
62
-55
4
19
-6
-27
44
0
49
-25
-20
-40
-15
25
-27
-21
4
-23
4
31
14
18
-19
-14
61
-8
-15
30
1
17
-88
4
1
-30
-45
28
-39
-50
55
5
-30
-13
-13
41
7
-42
105
28
56
-58
24
-30
-58
-3
28
51
-22
-29
-19
30
17
-29
-6
-33
38
26
0
12
41
19
-6
26
-22
-127
-19
-56
-22
-7
28
13
11
-30
-25
21
-10
15
2
36
-46
13
-5
32
0
2
-1
-5
-15
69
-93
17
12
-3
36
30
-19
-27
-9
44
31
-11
4
-4
36
-51
-25
11
-44
17
-51
10
0
-55
-26
1
-55
1
-5
-75
21
15
13
23
-12
-9
11
-31
38
38
47
-11
-2
-2
10
-26
-20
51
-17
-20
29
-37
-83
-2
9
-5
1
-10
-15
16
-9
-9
27
-7
8
1
13
9
-19
7
-7
-18
6
57
4
-70
-5
63
-8
-8
-3
-18
-15
12
-15
-12
-8
-7
-8
-8
11
-8
-17
-8
16
-16
-33
55
-34
-5
-17
19
10
-10
-20
-7
-23
-2
-62
16
7
2
-27
-73
-26
17
13
-16
15
-12
2
-4
17
1
14
-14
16
-19
6
24
-12
9
-9
29
-5
-15
-2
0
-9
-16
5
0
-8
12
19
-10
127
-7
-2
-6
-6
-3
-16
-1
-2
3
127
-9
2
-9
18
-3
0
-7
-5
-4
3
-5
4
-4
-31
-2
-10
14
-2
8
-8
1
-9
1
4
-13
-2
-8
3
3
-4
33
5
-11
-3
-5
-5
8
3
25
-3
15
-4
-7
8
-3
3
-2
0
-3
3
11
11
13
-46
-11
1
-4
4
9
14
6
-5
-13
6
0
8
-4
-3
0
5
-13
0
7
-6
0
-3
0
-2
4
-6
-5
4
-3
4
-3
34
5
3
19
-1
-10
-4
2
-2
21
-2
-11
9
-8
2
-14
0
8
-1
-1
4
-9
-29
7
-1
-2
-15
3
-8
-3
-1
3
-5
-5
-2
4
-17
-2
48
89
40
-11
-7
-6
6
-18
-17
8
-16
14
-17
15
45
-3
-4
-44
-26
-26
4
3
-37
16
17
-16
6
41
-5
12
-16
-71
-3
-2
-16
-47
0
-1
25
-19
15
-22
39
61
-54
65
46
-14
-29
38
-13
-19
33
-35
24
-49
49
-27
62
-20
-25
19
-12
23
33
14
18
9
-6
-5
-36
-16
-26
-12
-32
-45
7
-11
-18
10
-24
-114
19
3
-9
-39
17
17
-5
2
119
4
-3
10
-28
36
10
82
42
-55
29
-38
4
-14
12
-7
32
3
29
-3
6
-9
-127
-12
16
-28
7
-7
6
-33
4
-9
7
9
4
-10
-3
-1
2
-1
3
2
-3
5
0
3
-23
9
-1
1
1
-3
5
-4
-3
-2
0
7
10
3
-8
9
4
5
7
0
4
-1
1
-5
1
2
1
25
0
1
-2
6
-2
-5
2
8
-15
19
-2
1
5
-2
-4
0
0
-8
0
-4
-2
-7
-18
-7
-7
-5
-1
7
1
1
7
0
5
-1
0
-2
0
0
-6
-7
6
6
6
-3
4
2
0
2
-8
1
1
4
4
2
19
-2
0
7
-13
9
23
2
5
13
2
7
4
-2
1
-5
-7
0
32
-3
-1
12
-7
-7
-6
-7
127
-3
-23
-1
3
2
-1
6
2
2
-9
-3
14
20
7
5
27
15
0
-1
-4
-7
-22
-28
-3
5
5
15
-18
-20
42
-127
-5
8
-12
-8
-25
-3
-21
-13
-9
0
-11
-8
0
-13
7
34
6
-24
1
26
-3
-10
-10
-9
9
19
-27
21
-15
-16
-1
7
2
-2
-9
-4
17
52
12
-9
-28
-10
9
-3
-14
-2
-4
-1
39
-4
5
-4
0
-9
-1
45
-18
-4
3
-8
5
-6
-2
6
-3
-18
0
7
-5
-17
6
-5
3
6
-61
-8
-6
9
23
-24
16
13
-8
21
-2
-2
-2
-5
1
-6
15
18
4
-24
-5
-12
-4
1
-4
7
-32
24
15
-1
-6
-10
5
0
-9
-28
11
-8
36
55
32
37
-31
56
3
-30
34
22
30
15
12
-9
8
24
-18
-11
-4
-7
-28
10
33
1
15
-47
-32
48
-118
5
56
-77
-12
-11
36
-8
31
41
-8
-1
-15
-4
-82
63
-29
2
45
-20
23
7
-10
34
-37
81
-9
-19
-46
63
25
-35
-14
18
-9
22
37
17
27
127
-28
1
64
-59
59
-20
-7
18
-12
-4
34
0
-37
87
2
32
30
3
-3
-30
9
21
24
95
-9
-3
96
24
18
59
-27
-10
-2
-6
3
-4
21
-6
69
-19
36
-74
-8
-12
12
5
2
5
27
85
-10
2
15
10
9
-94
38
-15
10
-17
17
19
23
-15
-11
-28
23
-16
-2
-27
32
42
21
-17
-16
34
-1
-20
-101
88
19
48
13
-15
-63
35
1
1
-1
36
61
-36
21
30
3
33
-20
6
10
5
-17
-5
-1
-6
36
-18
28
-39
-7
-86
33
-27
15
18
-19
-2
30
32
-3
12
30
4
22
-7
-31
4
-4
22
-97
-30
26
37
23
12
-3
-27
-24
12
-17
-41
13
-38
-4
-33
-16
19
13
13
-20
2
-32
8
-16
-51
-19
-4
8
-17
-30
29
6
30
32
8
5
-60
22
22
8
-22
104
-2
7
-13
26
-54
15
49
127
15
-18
-14
-7
4
-50
-4
1
5
-19
-18
5
45
92
-61
-4
-3
-5
2
-5
0
-2
-1
-7
1
-69
1
14
5
4
3
2
5
-1
-20
-18
-10
13
4
-4
-110
0
4
-1
1
-2
5
1
5
11
-39
4
15
1
10
-12
3
-5
-8
-9
-4
6
-16
-48
-18
32
2
-3
-8
-17
-35
127
10
23
0
8
-8
8
0
-3
8
8
11
3
3
6
-9
-10
-5
-27
3
-7
-2
4
-9
36
-4
5
-41
2
0
-115
-4
-6
9
1
-3
-5
-5
-6
-15
-18
-11
3
-3
-1
13
-15
40
1
2
95
-2
-5
2
4
22
-5
1
-3
-8
3
-2
2
-1
6
8
31
3
3
-14
20
25
-3
6
-6
-5
-1
-7
3
3
-10
2
-19
12
-8
4
-2
7
-4
3
3
13
5
20
25
1
1
7
5
-19
-4
3
1
10
-12
12
21
12
2
10
1
4
42
-5
5
-4
2
3
-2
7
16
-1
14
-3
-7
3
-10
2
11
8
0
0
-6
14
-4
1
0
8
4
5
-7
-3
-7
10
3
-4
-4
-13
4
-1
5
-3
-127
1
-1
29
-10
-1
12
-8
5
-26
5
-4
5
-9
1
-7
-13
-2
16
-3
3
19
7
5
-7
-3
-6
-4
7
-8
0
-5
9
-1
3
3
-6
14
-18
17
35
-11
1
-10
-24
7
-3
-2
-18
-38
0
-9
9
7
8
37
-5
-5
9
-13
2
-67
3
-18
-11
8
-7
10
-27
40
-14
-24
-17
-17
15
16
-23
-10
17
15
20
-2
28
11
3
9
4
-7
-10
-53
-2
-3
-24
-9
11
-38
47
-11
12
-3
-1
-20
-21
12
2
16
-31
0
9
-3
-39
8
-20
-24
14
118
32
5
39
-20
127
-22
-25
-15
4
39
-6
-29
17
10
-18
-1
-4
-5
22
4
13
8
12
-17
41
-31
1
28
-5
-17
0
42
-14
18
14
-16
-5
-8
-19
10
5
-7
22
-4
-21
-11
-71
-10
71
-19
-58
-15
36
-17
20
43
-14
-33
-64
-50
-99
20
-98
-10
13
-13
-22
82
127
3
-23
44
19
56
21
29
-22
-17
-10
1
-63
5
-122
65
35
-42
58
104
-14
53
-41
52
-31
18
-3
-81
-28
83
-85
-41
29
-17
21
36
26
77
38
-8
2
9
-52
-52
-62
31
39
-15
26
-54
42
36
-51
-31
-36
-12
17
17
3
8
-17
25
-14
-38
32
-19
16
-91
32
75
20
36
-21
-20
34
-30
-12
55
13
-11
-36
18
47
-20
19
-33
75
20
80
-52
-15
-5
-45
62
-27
-103
10
5
27
-2
18
-16
23
57
8
15
37
38
7
-5
2
7
1
5
37
5
4
-13
1
24
4
1
-2
-7
-6
-2
2
3
-11
-2
-1
6
-4
4
-6
2
-11
-1
1
3
7
15
21
-1
-4
-4
1
-12
-3
2
2
-6
-7
3
20
49
4
7
-3
2
47
1
2
-1
8
2
-11
10
15
7
7
-3
1
-4
0
-4
29
0
-1
5
-3
9
-1
2
-2
19
-3
7
5
-2
3
6
-3
-5
4
-10
1
2
2
2
-127
-2
9
30
1
2
1
-9
4
-19
6
-2
4
-3
-3
0
-5
-2
9
-2
4
1
21
7
-5
0
10
-2
8
0
-4
-13
5
6
1
4
-9
10
-31
10
19
-8
-40
3
40
-15
-8
-19
4
-36
44
26
45
-16
-17
16
66
-29
37
39
25
34
-13
-20
-6
-1
3
3
59
29
-13
38
-39
-5
-27
63
22
-32
12
-13
6
4
-17
-19
-5
-63
-1
2
-7
2
41
4
3
-19
10
127
8
14
30
-3
-27
41
14
-26
13
-25
10
22
14
-2
14
12
-21
-27
-6
-2
-10
15
4
-17
42
-7
-24
-7
24
23
2
10
21
11
-14
-11
-61
84
18
28
72
11
7
41
12
-10
-4
-27
16
-49
4
32
26
-11
16
-34
0
-47
-87
0
-36
3
21
14
-1
-19
-23
0
12
-20
-20
8
-56
19
27
-35
0
28
3
-17
-14
-14
23
1
33
-11
24
-8
-3
-2
19
-9
-39
-1
-16
-5
15
-18
-127
0
8
5
-16
-2
-29
-2
16
-11
20
-5
28
-14
14
27
-14
8
-11
2
-1
50
-9
-22
18
95
-7
-10
6
-43
-23
-24
-8
-19
3
-14
1
-1
17
-2
-3
31
-4
-3
-10
-36
-23
-17
-7
4
-1
3
-12
-22
-5
-57
-53
31
4
17
0
30
-32
11
-32
-16
-7
13
3
-22
4
9
-20
8
39
-17
-23
54
-19
-2
5
16
-9
-1
-13
-13
-38
-38
2
19
-27
18
3
7
98
18
-17
-1
33
-69
-8
1
48
21
37
67
3
11
-19
-29
21
1
2
-4
123
-35
23
-6
-41
19
14
9
1
2
-31
-5
36
-127
-104
25
-3
9
-5
-9
-8
22
-11
-2
-19
21
-36
-12
-13
31
-35
-21
-21
-29
41
75
10
4
37
34
2
-31
-7
-10
33
1
57
-42
-6
-6
13
2
-13
5
16
29
0
8
-91
3
-11
-9
7
-7
-1
3
-2
-6
-30
3
-71
-15
19
13
3
18
-10
78
20
-29
14
-2
2
9
-15
22
-31
46
24
7
-51
59
-11
41
-28
89
-8
9
4
-17
-114
-11
17
35
-16
44
5
9
-103
7
-11
18
-7
2
-15
-9
-1
3
-14
-6
-2
27
-16
-10
-1
5
-1
3
-8
3
3
0
-23
-14
-21
-4
-4
4
0
0
-8
-5
1
-8
-38
4
12
2
1
18
2
3
7
7
-15
-8
-3
-6
-10
-1
-7
11
0
-4
-22
-3
-2
2
8
2
4
12
-26
4
-9
21
2
-3
-6
16
-14
0
-9
1
4
-8
-1
-2
-1
-17
16
6
-2
12
-1
4
3
-3
1
-11
-4
0
-5
5
-9
11
-8
25
12
7
-18
2
0
-3
-4
6
0
2
3
5
33
6
-44
2
1
9
7
9
-3
5
127
7
-61
-2
3
-1
0
5
0
-5
-27
1
122
8
30
25
43
-15
-2
35
-6
-10
6
8
-4
16
127
10
-7
-8
-25
-28
16
19
-3
-40
-26
13
81
-14
33
-21
6
23
-21
1
-33
4
21
-23
-6
10
-70
-21
-17
-7
-14
-28
-9
-22
24
-19
30
7
14
28
25
-9
0
-19
5
-10
55
-43
26
-11
4
9
0
-19
-2
7
2
24
-31
-23
8
-20
-8
-30
-17
-1
-5
6
-15
36
-8
24
40
-29
15
55
-24
5
39
-3
8
-23
6
-12
30
9
-77
3
45
71
13
-23
-15
33
-22
11
1
-1
3
-1
5
1
9
-41
-18
-61
-10
-7
-8
-34
-13
54
-1
-51
-57
-13
-23
-16
-5
127
-49
1
-4
-45
53
1
-1
15
7
-89
4
-18
-26
35
7
28
51
-23
-5
-6
-11
-42
-31
9
6
-5
9
-5
-21
14
35
-8
4
43
-26
17
13
7
23
-15
21
6
2
48
10
-16
-21
-55
-23
13
-10
-32
2
-6
17
15
40
-11
-10
-6
6
12
-23
-1
-6
14
-44
-11
-30
7
-11
7
-4
0
-10
0
-40
-68
-68
5
-15
8
17
-86
22
117
-29
-23
-1
12
1
5
-8
-21
66
23
-13
-7
88
48
-17
7
8
36
10
5
14
-11
39
-32
-10
-58
-11
113
-14
-14
22
11
29
-49
-38
-6
0
-4
5
4
-39
-37
8
16
-44
-22
-12
-6
7
6
2
2
-13
-7
-30
84
73
-5
-2
13
1
-19
30
7
-10
18
-16
4
-27
-11
-13
16
-10
-26
0
-22
0
2
-10
3
-27
24
-8
-12
-13
16
-12
2
9
-5
1
-11
-3
-60
77
-4
40
-16
-32
-11
-5
-11
-40
0
-26
-14
23
-24
15
-7
-25
-8
1
8
-5
-5
-1
-7
-13
-4
-10
9
-17
-14
-17
10
9
-1
5
-115
-21
-16
-96
-6
-9
21
-21
-15
3
18
4
5
-25
-6
-113
-4
-24
2
-14
-18
0
6
-127
4
-5
-2
10
-6
-9
-10
-10
-17
4
-1
-3
6
2
-3
10
-9
-1
4
-1
-17
1
6
0
1
-7
0
0
0
4
-2
-121
-2
5
10
2
2
-1
2
0
1
4
0
12
2
-2
11
0
8
1
7
-9
4
1
2
-7
16
-2
5
3
2
-1
-4
0
4
-5
5
-2
1
-5
3
10
-2
4
1
-6
32
19
1
1
0
-14
3
0
0
4
5
0
11
3
4
-2
-6
-5
0
-4
1
2
0
-1
2
-8
1
3
-10
-6
-3
127
-2
14
8
-2
0
4
3
-1
-4
5
3
-16
0
-2
-3
4
3
-4
-2
9
1
-4
4
1
1
-7
7
-5
7
-26
-21
-22
6
11
-11
-33
-33
1
-17
-101
-63
-21
-28
0
14
29
14
3
-21
2
11
13
-7
-3
2
-15
-16
-6
1
-4
7
-16
-6
-35
-3
-32
67
0
-24
5
-18
-33
15
-18
9
-4
55
-2
-15
-5
2
-4
-5
8
-10
-5
-9
-6
-75
88
-12
19
-8
-1
-6
-18
41
-19
2
-29
-13
30
-21
7
-11
-27
2
-23
0
2
-4
-6
5
-14
-2
-33
16
2
-18
-7
-7
33
-1
-12
-96
-40
-21
44
-4
-8
37
-7
-20
0
16
0
-30
-31
1
-93
-5
-12
2
-18
1
-1
8
-127
12
-15
11
11
21
1
-5
-22
-3
-36
17
-7
62
38
-40
-59
-50
13
-1
13
-24
-58
-18
-25
6
-10
7
27
50
-95
-10
25
-71
32
-55
20
20
-116
-29
24
64
-25
-62
-46
-61
-62
-81
48
39
10
3
-106
25
4
-44
82
-25
-34
44
35
-35
-50
-13
6
87
40
90
-64
15
-25
60
-35
39
24
-75
49
-39
-18
-18
-15
-17
28
50
-14
-21
80
-127
21
-85
-12
-1
-23
61
-19
-16
20
-25
-6
-20
5
-33
35
27
20
-19
-7
-11
21
-65
-9
-12
-2
-18
12
30
35
35
114
21
53
13
2
73
0
-69
-21
93
-13
60
-23
47
-31
-14
11
-39
20
31
31
-3
83
-6
3
36
-3
44
-28
50
46
28
54
36
-1
-3
8
25
12
-17
38
-54
-18
3
3
14
-33
-4
-79
-24
21
5
7
-17
-8
38
68
72
-1
127
-28
35
-16
-18
9
24
-33
11
-23
0
14
-3
43
-24
1
18
-32
0
9
9
-9
-42
-38
4
20
-13
2
26
32
-2
47
10
-12
89
-10
-20
-6
19
4
4
-3
13
6
-23
15
1
40
-40
38
1
9
-3
-13
-31
10
29
32
9
-28
24
55
-9
25
21
22
-36
6
44
-24
-5
4
-23
1
32
-7
30
-4
-19
24
-19
27
-9
-36
0
4
11
-7
41
28
-29
17
31
4
-77
-36
-32
6
17
-27
17
-5
21
29
-10
-34
-6
-25
-3
-127
-35
-1
-7
-25
-13
11
49
-30
5
-28
34
53
27
-49
41
-21
-63
-4
52
-16
20
-10
-10
-99
-11
16
7
36
79
117
-2
42
27
-4
15
83
-41
50
15
76
-34
26
15
32
-8
-47
40
-32
-51
-35
43
-40
7
28
18
27
-74
7
-15
11
9
21
-36
24
-6
11
-8
-5
-4
-36
-4
99
0
18
-3
-40
0
-26
45
10
-84
-24
22
21
41
-11
-13
-56
-4
-16
-15
14
-37
-97
17
7
-2
7
7
5
20
-4
13
0
24
17
4
19
-40
122
49
8
-6
27
-5
60
-32
5
-4
41
22
0
127
52
13
14
2
-38
-27
-6
14
23
12
6
-7
-31
-10
-40
-23
-22
29
-22
-50
-2
-11
-17
-22
-42
17
-110
33
0
-46
10
24
51
-27
-1
-9
-13
-41
11
45
2
-51
35
17
89
-47
14
61
26
-34
-20
-3
20
-51
86
48
28
29
-16
26
100
42
25
-31
-2
-12
-12
11
-4
44
7
28
14
-37
4
62
34
-29
31
10
19
-73
-4
-70
-3
39
-75
19
5
116
30
-27
11
73
-2
-70
44
60
-10
36
13
52
26
-11
1
-26
35
-25
-18
14
-27
40
-23
-13
-24
-100
1
-10
-9
6
-14
-26
14
-8
-25
-24
-10
9
-45
0
3
-28
-9
11
17
8
28
-3
22
37
37
-1
33
-15
25
28
68
-20
4
8
-7
3
33
47
-30
-28
-2
-3
34
22
39
-5
-3
-9
-46
-18
-3
10
-16
1
49
-42
-54
16
-76
6
22
-20
3
-9
10
-5
9
6
-70
-21
-5
-6
12
-22
9
-12
3
0
-4
97
-3
-15
34
61
11
-4
30
-7
-127
3
2
-4
-5
-37
11
-6
-64
-3
-15
57
8
1
-3
-3
-3
0
15
-16
52
-10
58
39
5
4
-36
-3
7
4
-16
1
-14
7
-4
4
-54
1
-86
-9
15
51
127
-1
55
0
-30
-73
-33
-24
-44
-1
8
-37
34
47
-108
-7
46
30
32
92
20
-8
2
4
20
-7
-31
57
43
20
-14
54
-49
25
-4
22
29
-28
15
-34
35
11
53
27
-39
-23
6
33
50
-4
21
-28
5
-70
12
4
-103
-33
-45
41
41
-18
-61
10
-10
-17
51
-39
68
-20
-21
22
1
-12
0
-7
23
-14
51
-40
-23
-38
18
8
10
22
-79
-15
14
-24
46
-29
-25
43
-115
-31
-20
-38
19
-13
-8
-51
9
-73
-50
-5
-21
6
25
-15
-16
-20
2
-28
-47
41
4
-47
14
-44
-79
27
-19
21
11
-1
-64
61
-25
0
6
-42
-18
37
-27
2
-77
-64
82
-40
4
-3
-3
40
-31
-41
14
54
63
40
-43
-3
6
-10
30
-3
-43
25
-37
46
40
-26
10
9
1
28
44
20
84
51
97
56
26
6
22
-30
-56
-20
24
-21
-47
-127
30
60
-32
-21
-65
47
46
10
14
28
-26
-4
10
-30
-4
-11
27
-47
24
14
5
3
-29
26
-3
22
-16
-17
7
3
12
-10
-25
-46
-4
29
105
-23
-4
-42
-62
26
-11
-99
-11
-23
47
-23
8
-26
76
9
-2
6
14
-5
-28
55
-71
-37
59
-41
-35
-51
13
19
-11
8
-1
59
-19
6
-2
-6
3
63
37
6
-5
-20
-27
11
51
-15
29
29
18
-3
-15
-13
2
-4
62
6
3
8
5
55
-13
7
-13
2
-16
-16
-19
-11
-48
-9
41
-31
10
6
3
12
2
11
-21
-9
-13
-33
-4
-8
-24
-104
21
7
-5
-20
-13
-10
25
9
32
3
11
0
-8
12
-10
-2
4
-13
-13
-9
2
-5
5
-18
-18
-9
-34
-17
4
10
26
3
-1
-2
-127
8
-1
-36
20
2
-11
0
-8
10
-5
2
-16
24
8
7
13
-35
-3
-3
8
-50
-4
-24
-2
-20
24
-33
12
-59
15
36
8
-5
0
-11
-5
48
-5
2
14
-9
4
6
-39
2
6
-6
11
35
-8
45
-3
-24
-3
-24
6
2
-25
125
61
-38
3
-13
58
41
-3
15
1
11
6
-3
-44
9
-23
35
5
-9
3
-9
3
30
18
13
38
20
78
41
6
20
4
9
0
10
-9
1
-8
-127
27
34
24
-5
-43
25
13
-1
-28
29
-60
-17
5
-12
-37
-3
12
-53
16
-10
0
10
3
24
19
-7
-26
-18
-12
-21
-4
-5
-17
-2
-29
-5
54
-15
-19
-39
-14
28
-28
-24
0
3
-17
-23
24
11
22
8
40
22
23
27
6
56
-7
4
-22
-16
-16
-56
5
0
-1
-16
3
21
0
15
-12
-27
-25
8
-3
-3
5
-10
-19
3
-27
15
-24
-38
9
-6
5
11
0
10
34
-13
-21
-26
9
14
0
13
-21
-4
-9
-10
-15
4
11
24
-22
-11
23
-15
8
-1
-36
5
4
-1
-10
10
8
-40
-31
0
4
1
19
-11
10
-3
-4
-51
-18
-3
-3
-8
3
15
-18
-5
15
-24
-18
50
-32
4
-5
-29
127
4
68
2
21
1
-13
-8
6
35
-4
-9
10
7
13
-16
-3
-13
6
4
-39
7
20
-3
-20
-2
15
-17
-5
-62
2
11
11
-30
17
4
12
-6
1
57
-8
19
-3
1
-9
107
-14
12
1
-78
31
-6
-103
26
-11
-24
-73
17
-10
1
-6
0
0
-47
28
4
-16
5
12
17
-9
-22
-71
34
4
28
24
-21
-46
-3
-10
-10
-1
9
-7
2
66
-7
-5
-39
74
6
-12
6
-21
0
5
-24
-14
21
6
-22
59
127
-8
12
-6
-37
-10
-24
-16
-20
64
-9
-10
5
1
-3
23
8
8
-6
7
-24
35
-1
2
-3
0
1
-28
-9
-32
-2
-45
-2
12
-5
-16
-3
7
-21
9
-5
-31
7
-5
-30
16
-4
-12
17
14
-15
-94
57
9
24
13
46
17
-21
12
-9
1
-41
3
28
1
-94
-18
-15
-8
-3
-29
8
-3
42
36
-4
2
9
-31
-106
-13
-27
16
33
3
8
-4
8
28
-63
38
1
55
6
-10
1
-32
-87
19
11
-7
59
-2
13
-8
-28
-2
3
2
-20
12
5
-14
45
0
18
0
-39
15
27
-15
10
4
-46
6
-22
19
9
0
22
7
7
8
11
-46
-2
-34
-14
9
13
10
-7
-34
20
-15
22
93
-29
49
-13
18
-49
11
-9
0
18
-12
77
127
-24
23
1
4
9
20
-16
3
16
-9
6
26
-6
-2
13
-11
0
-1
-24
9
-44
45
-6
11
-66
1
26
-9
-5
-55
-1
15
74
29
-97
7
1
-9
46
-15
-9
54
-11
122
-51
20
-3
-22
35
20
20
-8
29
5
-29
42
31
66
23
-42
-36
11
-79
-4
-39
1
-27
-108
-13
-43
51
-68
20
-32
-71
-63
13
-37
21
-1
-6
19
-19
51
-16
-29
55
-47
-24
-48
-6
-6
42
18
-23
14
77
15
-41
52
-88
82
36
0
-127
22
-36
-3
14
-15
32
80
-14
-14
-35
-12
-14
-45
76
-32
20
1
-4
-6
-58
-47
-14
20
-47
29
-7
-59
25
26
46
-8
19
9
21
-7
-12
-63
-36
-9
25
3
79
-36
-19
-12
-23
6
15
-20
14
56
-21
25
15
19
32
0
-28
-18
-8
4
-19
-17
27
-3
46
-15
-2
-18
-4
20
10
24
-8
7
-1
2
3
16
-22
13
-8
15
-11
10
16
-3
28
-16
47
-7
-9
-11
20
11
20
2
-16
-9
-8
4
-2
-33
-10
21
23
22
6
-2
-7
-1
15
7
-10
-18
-32
16
2
10
-38
-23
11
-24
-32
27
-4
17
13
3
-8
-8
6
4
-16
-4
53
5
-8
33
43
-14
8
2
0
10
4
10
-18
-19
-127
31
-4
48
-27
-5
-1
0
7
-84
2
-12
8
3
17
13
9
12
-5
32
-44
18
-43
-9
10
2
-31
7
0
11
-3
-101
11
11
54
-3
-16
-11
4
-30
1
23
4
34
19
-20
56
-18
75
-7
-7
-21
-3
16
-77
-10
2
-6
-15
-1
1
-6
-127
-6
-1
39
51
-61
15
-41
5
37
46
34
-27
-45
-41
-30
-4
-2
-96
-2
-21
17
-22
-7
33
27
25
-22
-39
-20
29
-39
30
6
-34
-11
-86
12
-60
53
-52
74
-27
75
-5
33
23
32
-7
-12
-8
-30
-31
-8
27
31
-11
-48
-38
4
12
-13
-10
-41
39
39
-4
-35
-20
-3
-33
48
-20
54
13
-24
-27
-111
-122
26
9
39
-34
7
-36
6
-98
7
-44
72
6
-16
-7
11
-87
-63
-3
36
-19
27
20
-34
4
-35
9
-5
3
-29
-36
-16
-4
10
-1
1
-15
-26
-1
0
-53
0
6
-9
-13
-2
3
24
5
4
-10
-9
2
12
-3
-2
-3
5
-2
0
3
-3
3
7
-3
-9
-3
1
21
5
-2
5
-2
9
1
-7
13
22
-44
11
-15
0
3
10
1
-2
-7
9
-8
10
-34
37
-7
11
-1
-5
8
2
3
-29
-1
-6
-7
7
-3
-5
-2
-8
-29
18
-2
1
4
3
12
1
3
-4
2
3
2
0
-3
-4
0
0
96
-4
-15
54
6
11
-31
7
-9
-5
-7
-1
-9
-10
-14
127
6
-11
-10
-22
11
-1
4
59
2
-6
-2
-12
17
0
-5
-2
-4
66
32
-22
42
-22
25
-26
-31
16
41
37
-56
-42
-8
-21
-31
-48
6
-13
-10
8
13
-3
-18
30
11
18
-35
-55
-8
-11
-24
97
61
-127
18
26
12
2
22
-8
42
-48
-17
22
-42
15
18
-80
105
-53
6
15
15
-11
10
-2
69
-56
67
23
12
-29
-84
34
45
5
16
-8
9
-5
36
52
56
-44
7
8
-78
12
14
-4
8
3
26
6
7
12
-75
-22
-58
-16
29
6
-24
2
13
-1
-103
7
-8
-109
39
-13
-73
-9
74
3
16
-39
14
17
27
-127
-28
84
-65
32
6
11
-1
7
-2
-17
-73
-10
39
43
-26
-65
-18
49
26
18
-71
3
-32
-10
2
1
36
34
-44
28
126
-31
-39
41
37
-11
12
1
7
4
-2
7
9
86
-18
-54
38
0
18
-3
-20
44
-17
9
-73
-35
-23
-7
-29
0
20
-105
3
16
-55
-10
-5
30
-7
-6
13
-25
49
-46
19
3
1
70
-12
61
18
-10
-2
0
3
-8
-18
-40
32
28
-4
-26
-13
21
-31
4
10
11
6
-25
-4
31
13
-37
-10
-46
55
15
-13
-19
10
127
-11
12
29
-37
-3
-62
27
-23
23
-10
52
11
13
14
-28
22
15
-4
21
14
-11
-5
-16
-10
21
22
37
-41
2
-14
-17
17
26
17
-24
38
10
10
127
63
8
-5
-28
-12
3
13
-43
21
26
-21
6
-8
11
-10
25
34
0
9
10
-3
47
17
24
-24
1
-5
-7
11
8
-88
9
45
-42
68
3
-19
-14
-35
-1
10
-25
-28
-59
21
-20
-84
-117
21
10
-6
-14
16
-7
4
-18
33
2
11
9
-7
3
11
-3
3
-12
-22
-20
30
23
2
5
-4
-5
-29
-8
-13
-5
72
-4
26
-12
-73
-25
8
-47
4
-11
-22
10
-4
36
4
-20
-14
-1
25
10
70
-67
12
18
1
-55
12
-17
12
-3
14
18
8
-90
8
73
-11
-7
2
9
-12
28
11
-4
-33
-4
6
-3
37
-5
1
21
-84
-16
-12
2
-14
11
23
7
8
-3
7
11
-5
-3
-6
-2
-3
-19
6
3
5
0
-27
-13
-14
8
2
45
11
-9
4
-2
2
8
-7
-13
-4
86
2
7
8
-2
9
-7
1
-7
19
-3
3
10
-10
-13
-1
-10
-4
17
3
17
-4
5
-6
-2
37
6
4
4
-15
9
7
-10
4
2
2
-6
0
0
-9
-3
0
8
10
4
42
-5
0
-21
-1
5
-20
10
-20
31
4
-9
-5
9
9
-11
-127
-4
12
1
7
33
4
0
-5
-3
-43
-10
-21
-6
6
-3
6
4
-3
-3
40
1
-23
0
-4
-6
-20
-20
16
-12
-9
-6
27
22
10
19
35
19
-17
31
23
-7
-1
4
1
-8
15
21
32
9
-7
-26
-2
-22
-66
-1
13
3
-13
2
38
-3
-11
18
-2
127
25
0
20
14
-3
12
-70
-40
10
27
15
5
-34
18
11
32
6
20
26
-2
17
15
-35
16
35
2
-12
-22
-14
6
-3
1
-35
-5
-17
-2
-26
-1
21
2
13
2
10
-24
-12
-24
13
12
2
3
-14
27
-14
-72
-7
-2
-29
12
17
31
-11
-4
26
26
8
5
-8
9
-21
11
10
63
-17
-19
16
-36
-13
6
7
5
-5
-4
-30
11
-10
3
6
22
127
-29
5
10
12
-21
-3
-31
-13
-6
20
17
2
-21
-40
-56
-11
-5
-1
10
-10
-21
-2
-10
-3
19
-10
3
21
7
-29
15
5
-10
-24
21
1
-4
-3
42
-65
18
-3
-22
-5
3
25
-1
9
-22
5
9
-5
57
5
-8
13
-4
-14
17
13
-10
-4
-3
46
-21
0
-14
5
0
-32
-8
10
31
-2
10
-3
-7
-8
-17
-37
18
-11
6
-26
8
-46
5
11
-10
-96
-31
21
36
-10
18
6
-16
6
11
22
-25
-9
9
10
11
-2
2
-6
-2
2
-8
39
3
-10
-6
-7
1
-12
5
0
13
15
28
-34
-29
-4
-18
28
-7
-7
5
-1
-18
-4
-58
-27
-23
-31
7
-8
1
12
-65
127
-25
-6
-43
14
16
9
15
-15
-35
12
1
-10
-5
14
18
10
-18
0
26
35
13
-31
5
37
-38
34
4
29
16
25
-3
-11
4
-1
8
3
8
74
17
1
-3
-7
-2
-23
20
-42
9
-8
-16
9
7
24
-8
-12
-18
38
4
5
-27
-7
10
-16
-24
-46
-12
-24
-49
-7
-18
-74
-12
19
-25
-25
-41
-30
33
17
-2
34
0
4
-10
-3
-37
19
-20
15
18
44
5
9
18
-5
-17
-21
13
-7
47
-3
-29
14
-8
55
16
127
46
-28
28
24
57
-2
27
6
74
36
3
81
44
15
67
36
25
-24
4
12
-1
9
-21
33
-22
44
-18
73
-12
6
-1
33
50
-47
22
0
-11
33
-20
14
20
11
6
69
-15
14
-11
35
-12
-50
-10
0
40
27
20
8
-3
9
16
62
63
-17
-15
5
10
44
-4
-13
22
-14
-5
-4
4
-6
26
-17
8
26
5
6
38
31
-18
2
-6
-48
-18
5
14
20
-1
-2
-19
3
5
8
86
4
-14
25
35
4
100
14
19
38
-38
0
-27
8
42
32
-52
11
39
8
23
1
-7
8
-9
32
-19
-1
-5
5
20
-20
15
30
31
9
29
81
34
18
2
-11
-17
-45
-8
-25
-36
49
4
9
-22
127
-16
-20
41
-62
31
1
-18
-22
4
-35
-40
-19
-11
-3
16
-96
100
4
-69
64
10
-8
63
-26
73
34
2
10
53
9
15
23
-5
9
-29
5
-72
-25
-13
58
15
-47
-1
-3
50
-21
-52
5
4
35
7
8
-31
24
0
-46
-1
66
23
-41
27
-24
75
-41
-15
-18
-67
-27
46
-14
-12
-47
-10
-101
-44
-18
-3
3
-66
-5
19
-4
-37
60
-27
18
-56
-39
-2
-23
-4
-29
18
-58
-42
-9
9
-27
4
-11
12
7
-49
-26
-39
72
-30
36
117
7
39
32
83
-3
5
30
26
-3
27
5
-50
-62
-27
-61
-43
-18
-49
40
-21
21
-20
-12
-10
12
4
40
-9
18
-12
10
42
-22
13
-11
-44
63
-16
30
34
-69
-5
48
4
-1
-2
53
-23
34
-18
4
6
46
-17
1
-13
13
20
23
92
-65
51
-34
-15
11
3
26
28
24
2
-46
15
-25
31
18
13
-23
-18
-1
-9
17
-10
20
26
55
51
-16
19
37
-2
13
-3
-26
16
79
94
8
-54
4
63
-26
28
10
33
81
36
-14
-16
1
127
66
-53
-34
51
-7
46
16
1
4
-53
-23
-46
3
8
3
-10
-26
-28
0
48
-33
-27
11
5
-11
-24
-11
-1
1
-3
41
3
5
15
-2
3
28
-25
-8
-8
48
-18
3
23
-15
5
-6
8
-1
-111
-4
25
25
-36
-25
1
-17
-7
9
-17
127
8
38
32
12
27
-41
11
4
21
-22
13
-103
-13
22
4
-7
13
-7
17
-1
78
88
-5
4
14
24
0
-6
-34
-43
-7
-10
-9
-2
-13
12
-3
22
21
16
-4
30
20
-2
-5
-21
6
-10
0
2
18
6
2
7
-6
0
94
7
-25
11
3
-16
11
15
16
28
-29
-14
-59
61
28
4
16
-1
20
-7
-5
3
5
-12
-4
5
2
-34
11
-55
62
-12
-18
-33
9
-9
-11
0
13
-58
-14
-2
23
-11
-21
4
37
49
-28
33
24
-12
14
27
6
-44
-8
-4
-18
-22
-45
8
-16
-6
0
-15
58
14
1
-51
-25
-19
48
-7
115
-18
-4
-7
-8
-1
-24
0
5
43
20
-41
-25
-68
27
-4
10
-6
17
37
7
51
-11
38
-16
-56
3
8
9
31
59
-1
12
-13
31
-6
-127
-22
5
13
-52
-7
25
-5
-18
-9
-3
-22
47
29
55
10
53
40
-100
25
46
-15
16
-5
21
5
-2
-29
2
34
-17
-42
-100
-23
-40
21
-9
8
13
13
-96
16
-2
7
-14
7
3
-14
-6
6
61
-19
-49
-20
-12
-12
19
17
1
-4
-31
56
5
2
-3
28
-9
3
0
27
-53
4
-4
11
1
48
-10
-11
-1
14
11
12
-16
-5
-10
-15
9
-33
4
12
-18
-30
8
-13
0
7
26
9
-17
-2
53
12
-1
-20
20
-16
12
29
-4
11
-2
28
-4
1
0
-2
26
-7
5
33
-80
7
4
10
-9
-8
-9
28
-3
7
-16
22
-4
-2
-12
10
60
31
12
38
1
-3
-14
3
-22
13
10
9
20
30
36
-44
4
22
0
5
-38
6
-7
-10
-8
-53
20
-5
-27
-2
-67
-13
-7
-127
-15
-16
15
3
16
20
38
-20
-2
0
15
34
-9
-11
11
5
-6
-14
-20
-28
-35
7
11
-13
-5
13
-31
23
6
-8
-11
11
-1
18
31
-18
-31
-8
-30
35
-30
-30
-16
0
7
-25
19
25
8
-9
9
-25
-12
27
-1
17
-11
14
-13
-42
13
-11
10
-15
41
-35
-9
-16
-28
29
15
-4
-22
9
6
-34
13
19
-8
6
-29
8
35
-18
5
8
57
20
-7
-15
-26
6
13
-3
5
8
-11
20
0
21
3
4
127
21
48
0
-4
5
13
-11
-25
-3
-2
2
-1
-9
6
0
-7
2
-3
7
-1
-7
3
-8
23
5
1
15
21
-27
3
28
12
-27
40
-20
-7
-18
-10
-39
-37
-51
14
7
4
16
-32
6
24
7
17
51
-12
39
-58
16
9
-58
-20
11
-24
-12
66
-30
-8
-22
-11
38
0
6
-26
-37
16
-16
6
12
-32
23
15
-127
-4
68
-1
-24
47
-23
-5
-35
23
-15
-11
36
-18
-23
38
-62
-36
63
-4
-55
-20
-9
-113
-45
9
-3
10
-14
-19
-1
5
43
35
-19
15
-3
31
-5
-48
-7
-11
7
-10
-16
-29
-15
16
43
-93
-74
41
12
-51
15
27
34
9
9
-46
-24
8
-12
66
70
-10
5
76
25
10
10
15
-14
5
2
-17
-8
-21
-3
78
75
-4
32
31
11
22
11
-18
2
31
37
-5
34
51
-10
38
44
-1
40
8
-6
17
-26
3
89
19
-8
81
-17
16
-7
6
51
-12
-20
-1
39
-21
21
-23
21
-11
-46
21
-33
-29
57
-30
-33
82
25
17
45
-29
-6
-10
33
-53
-60
-96
7
6
30
0
-30
3
-13
-5
-127
9
-33
7
-4
42
52
-32
22
5
14
-11
2
14
33
-6
27
10
-6
33
-10
22
-29
39
4
10
-31
-17
-11
4
14
30
11
23
31
-18
49
35
8
-33
-33
58
61
31
-12
6
-7
-36
13
-22
-9
-28
-29
-55
2
20
33
10
-3
-10
17
-24
1
30
6
30
-4
25
64
-47
20
16
-10
10
33
30
2
-1
74
16
-35
-4
-13
1
-17
-5
9
22
-8
5
-22
23
-15
-5
-2
23
-1
-33
-6
-23
-6
10
-26
1
77
-92
10
18
-27
18
5
4
8
2
-14
18
-37
-88
-110
-1
-74
1
-7
-23
-22
30
-20
18
30
-10
-5
14
16
1
-9
61
-1
16
5
24
3
51
-14
14
-42
27
6
18
1
-10
61
-6
4
-70
127
4
-31
-17
3
25
6
-8
-6
-12
6
-32
-6
-12
-55
-6
-15
51
64
-25
8
15
-3
-5
-12
9
17
35
-6
-13
-18
9
10
51
-46
4
-21
-30
82
42
7
9
-9
-1
-18
-21
-2
-15
-59
39
-51
44
-87
46
16
9
30
-64
-26
-28
-12
6
17
-18
46
15
-12
20
14
63
-38
-28
32
-62
41
8
-33
52
2
-1
-8
-10
47
-8
-1
17
5
-4
1
-3
-48
-73
31
7
-19
-30
17
22
-47
7
-19
18
-8
-18
-10
-20
27
86
-127
59
7
14
41
14
35
1
-5
-20
-39
48
-8
49
23
-6
-15
8
-9
-11
-41
-11
16
52
29
-19
24
-4
-8
12
-13
-48
-47
25
-28
18
-12
-22
0
-5
12
10
14
22
-30
37
21
18
81
119
53
-23
-17
-15
-15
-44
3
20
24
4
2
11
17
-11
-4
-2
22
7
15
-3
35
-15
-8
32
23
-61
-1
-39
23
3
11
22
9
-35
-41
-9
-32
24
-11
-16
-5
-26
-6
3
9
14
24
-127
5
-18
24
-15
-28
10
59
1
8
-9
9
1
25
-11
38
-13
25
-6
-10
30
12
10
-24
13
-31
-12
-18
0
-56
20
11
-40
-9
-17
18
-4
2
20
30
-1
-3
31
4
-27
7
5
-13
-5
-4
-3
-31
-9
35
64
-14
6
-23
-4
-2
18
6
2
10
17
-23
-6
-10
-17
-5
26
27
-32
-17
-1
-21
-34
3
-12
-20
23
-47
-9
-22
-24
78
-6
28
-53
87
-33
20
31
-13
-84
-31
-19
-121
-9
98
-74
-1
-16
83
47
39
-1
-5
-36
-16
-45
114
54
-29
-116
96
-24
-6
26
-51
-58
-27
-62
-33
16
3
63
53
12
-127
48
-65
47
64
45
-58
17
81
51
-17
84
-79
-28
120
-56
-64
-54
-61
-24
13
-6
85
42
-3
10
-24
44
-30
0
-38
41
-46
33
2
20
17
-26
24
9
-76
36
75
86
5
-2
51
82
61
12
-60
73
38
0
-84
46
-19
-37
-32
10
20
-80
22
15
0
-48
-81
42
-10
-102
35
-17
27
33
-33
-14
30
-6
-6
-4
0
72
8
5
-1
-12
-2
-4
-19
0
-1
-5
6
20
3
10
10
1
0
-1
11
1
-14
127
-3
1
6
8
11
-3
2
16
2
5
-6
-2
-17
1
-1
0
-2
3
8
-10
6
6
-1
-2
-20
4
7
8
16
13
7
0
1
-4
4
3
-2
1
-40
1
45
-5
1
-2
5
0
7
7
-46
-3
1
0
3
4
-3
-31
19
1
-7
-2
-1
10
-2
-2
4
5
3
-6
10
4
2
-3
2
-13
40
6
3
-5
22
1
3
-17
5
-7
3
10
6
3
2
7
-26
1
-3
-6
-1
-1
-13
-5
-1
0
-3
-14
-1
0
5
2
58
8
55
-6
14
27
-127
54
12
8
-56
-5
33
7
3
0
19
9
33
-32
52
-71
-38
39
-23
3
-5
-5
-50
15
3
-4
-15
48
-41
10
10
-92
8
99
14
6
22
-30
-40
-21
59
16
-15
15
66
13
68
-9
11
-4
51
-13
-20
-41
-53
-18
-121
57
33
6
-29
42
-16
-45
70
12
-21
56
-1
6
-3
60
-17
-6
2
12
-6
-42
36
16
-19
7
5
22
0
27
69
0
10
-1
124
4
23
24
78
-7
26
64
13
-24
13
-19
3
29
32
-1
58
-11
-37
-126
-10
-19
-120
20
17
11
0
38
5
9
5
12
7
8
-22
-7
-3
-30
-14
1
-38
-10
2
-2
6
-11
1
-5
2
-35
-1
11
-18
-26
8
63
127
-5
0
6
-27
-32
-8
-16
5
2
-21
-12
-30
9
63
22
9
24
7
-9
-9
-29
4
3
14
17
-1
-9
12
9
-71
-25
-11
19
-13
6
-13
1
34
-1
40
-14
-21
-7
11
19
-17
-40
0
7
26
50
0
15
-22
-3
8
13
24
3
-5
21
49
3
-6
-6
-8
-3
0
27
21
-2
23
-9
7
39
9
20
10
13
9
-9
7
-52
-6
13
3
16
8
-22
-6
10
-31
57
-12
56
-6
-29
7
4
1
1
16
8
-11
54
-18
1
5
-5
57
-3
-78
9
19
-19
-30
-25
27
7
-42
6
38
4
-24
30
14
37
65
-127
-22
-53
17
47
-43
11
12
-3
-21
-4
-56
12
119
4
-27
-26
10
12
3
-31
19
15
5
-16
0
-10
14
5
-101
-6
-2
-14
0
-4
49
32
-17
-34
16
-20
13
4
16
6
-1
2
16
-22
80
20
-59
-4
-26
11
24
-10
83
-19
2
-26
38
22
23
27
-96
-68
-13
32
-33
-11
-33
-13
32
43
7
28
3
-9
10
11
3
-86
-26
3
0
-76
7
-15
-9
-3
21
18
36
-1
-16
-38
30
-13
-17
-5
29
-11
-15
-14
25
-1
62
24
-6
-48
-119
13
31
17
-6
-45
-5
-20
21
-18
-15
-8
-47
-20
-5
11
-30
127
-11
-5
21
-29
-40
-1
-7
33
21
19
-29
34
22
-2
-4
-21
-83
-8
23
35
-3
6
12
15
-2
57
7
30
-38
99
13
-11
9
-43
-4
15
-9
-1
64
-7
-15
16
5
-46
-6
34
-1
-7
22
67
7
-6
-45
8
-9
5
67
-17
7
57
-58
-14
28
-32
3
-55
-19
-27
-5
-20
7
-9
8
-47
42
10
-46
-6
9
30
-59
5
-14
-5
45
19
1
-12
1
3
-24
-15
-20
15
-43
-11
-31
-4
19
-81
-44
-16
-18
11
-12
-13
-2
-5
3
-32
-7
-32
27
-42
-11
-30
-25
-21
71
8
-7
12
17
-8
-127
-3
-8
-10
-3
-10
59
18
8
8
3
7
29
-12
-3
-24
9
-32
-3
27
-6
7
2
9
-30
-12
6
-46
18
13
4
7
0
-24
10
-12
-2
-18
24
5
26
3
-22
5
0
-39
72
15
8
-17
-10
-40
-22
-3
-13
9
72
12
1
-2
5
-1
-7
-5
-25
-25
-5
-18
6
-9
2
11
1
30
6
-20
-5
13
-34
2
-8
37
10
-5
8
-34
-82
-1
68
1
29
17
-11
-8
6
-2
-11
17
10
-16
-13
11
14
11
1
0
-11
3
-14
-2
-5
6
22
-5
-1
21
102
-4
-6
4
-3
0
-6
-1
-2
-12
-8
12
29
4
-2
6
-1
3
-5
-3
3
-15
19
-6
15
0
-1
-81
-3
-3
-3
7
-2
1
-3
2
-1
-55
5
-13
0
-5
-12
-2
3
12
-3
-3
2
4
-29
21
13
5
-6
-1
-2
-82
70
11
18
-4
4
7
-4
1
-2
-4
7
-3
-3
-1
0
2
3
-4
13
-15
-1
11
2
0
6
-5
0
56
6
1
-127
0
7
-22
0
5
7
2
-3
5
-20
-9
127
4
-10
22
-16
40
-12
5
103
-10
-12
-6
-5
-20
3
-3
12
2
3
-102
-18
20
28
35
-34
36
-13
0
-41
-26
20
-26
72
-17
-17
-20
-34
18
-14
-3
10
-81
-117
54
14
11
8
-37
-73
35
-5
29
-27
11
15
-46
10
38
34
45
-2
41
58
32
55
25
1
37
16
-19
-8
-29
-75
38
8
28
17
18
-99
0
19
30
-21
8
4
-27
12
-40
-37
3
-14
-22
-64
-118
33
-36
-14
-1
-13
13
-2
6
12
22
-99
-17
-31
-39
45
18
2
24
-28
29
-25
23
-1
-81
-45
39
-6
21
-12
-28
-45
127
33
-53
3
64
8
-5
-27
-45
78
-78
-23
-123
-18
108
-10
27
45
3
-24
-36
-7
-27
70
15
12
16
66
-7
-6
12
1
-33
-18
-20
-35
4
16
-15
6
-4
-39
-32
12
21
-27
-85
-1
-23
33
-11
12
15
-23
20
3
-25
-45
6
21
5
9
-30
-127
-11
-22
5
2
22
9
-37
-7
-22
34
39
1
5
16
-4
-8
53
-5
-2
39
-24
14
-27
4
-5
13
-11
-3
32
12
-8
-34
-3
48
-12
-10
33
6
5
-1
17
-35
-59
-31
26
10
19
22
87
-30
-10
32
1
-56
-26
-8
13
-12
39
-97
9
27
43
46
-32
-11
36
18
-36
11
-8
-18
12
17
-6
42
15
-14
-8
3
-2
77
17
-1
28
-8
-40
-50
2
-6
-70
5
-9
9
-54
16
36
-65
-3
-60
-17
-78
-69
40
86
16
-16
-17
-38
-39
28
75
76
-69
15
2
50
62
-38
127
-41
53
29
-33
0
-32
-7
-31
4
-17
-78
-7
23
-37
-62
-63
24
-9
-19
-12
9
-21
32
2
5
-39
45
87
-9
-19
-37
-37
-14
7
56
-105
-30
-50
-16
-15
4
111
-44
12
-28
5
-37
-24
-42
1
-6
68
-81
2
27
7
-24
-29
-4
11
-11
-70
16
-12
-33
-64
-76
-9
-12
-33
-39
-33
52
74
-19
-76
-29
-17
45
10
46
6
26
17
13
7
-8
-3
-96
7
54
-33
13
-15
-11
6
17
18
11
-8
3
5
16
11
-10
-32
-7
-4
13
-4
-19
10
-4
-9
-8
12
11
-4
2
-5
-22
-17
-10
-4
-119
-23
-34
33
6
6
-10
-5
-3
3
-5
-27
-5
-1
23
-10
-1
-36
10
25
-5
127
-13
4
-5
20
-2
-44
47
-2
28
-5
-8
-9
-4
-21
-5
10
-9
-2
-1
-25
-59
11
-4
15
-32
8
-11
4
5
-16
25
-16
6
2
-13
-7
0
-8
-1
2
-13
7
3
8
-1
8
-26
-7
-25
6
-23
-1
16
-8
7
10
-20
-11
-8
-11
-5
-1
-9
-7
14
13
1
4
7
2
6
3
14
-5
-1
-1
38
-73
9
73
36
11
22
-74
50
-36
-14
-11
-2
25
-11
127
-64
72
-17
-47
46
38
72
102
49
0
-33
34
74
-54
11
14
-21
-29
-20
-80
-26
28
-11
-47
-24
-50
-39
-27
20
3
-1
45
-3
21
1
1
-32
-27
-28
