-68
53
13
-29
97
-24
45
5
11
12
-1
-1
35
-13
-3
66
-83
-36
10
39
-23
46
-33
66
28
14
29
-87
13
-35
59
77
34
-54
-20
8
-28
36
51
-21
1
33
28
12
-7
2
-5
-35
-14
-50
5
39
52
17
-72
-26
-13
102
102
18
92
-116
-45
22
-23
-19
22
-54
46
19
63
-2
-22
-18
64
30
42
-35
23
-20
-5
53
0
24
25
-21
40
-85
16
15
71
-3
51
34
-15
72
-62
36
13
-12
-50
-40
28
-66
-23
11
9
22
11
56
48
-94
67
-108
-7
19
33
15
-20
-2
-57
-4
-20
57
-39
17
-2
49
19
-37
-36
-51
-101
3
60
30
-91
-6
26
122
-59
-26
-32
18
-38
73
14
-43
17
22
16
-97
-6
2
35
-39
-51
36
16
-6
-25
21
9
11
72
-20
-84
14
-17
-127
38
20
31
31
30
-30
-3
94
46
14
35
23
-60
3
-1
21
22
-62
9
-24
-56
-71
9
-16
-8
-71
-7
60
-5
-40
31
-72
-10
17
5
34
20
-31
56
-53
-11
-19
-42
-11
1
-29
-25
14
11
-13
-31
-23
14
38
8
6
36
-32
101
-42
51
-126
27
13
-105
-1
-17
-48
28
-25
8
-86
-8
-17
-13
1
-44
13
13
83
22
-57
5
-23
14
-23
34
-10
-13
42
-29
48
-35
52
-1
-16
-27
-29
8
25
-23
-48
54
13
38
20
-7
-7
27
9
-6
-4
13
52
4
-127
-1
-59
37
7
-10
-23
99
27
-32
3
7
0
2
5
28
31
49
4
-16
39
35
-86
-44
19
42
11
10
6
19
7
53
-2
29
-19
-9
-13
31
-11
-14
7
37
77
-55
2
-44
-28
23
-25
-1
13
78
2
-55
-34
-7
20
7
-46
44
13
-6
-18
-16
0
-7
42
25
-18
-7
27
24
4
-67
30
15
-4
30
9
14
-7
12
-68
-13
-4
-28
13
22
-1
-13
15
15
-61
14
14
-7
23
14
-16
20
-11
30
24
21
0
-18
-25
17
-8
-47
-43
-11
14
-22
-23
4
104
7
50
-2
-26
29
13
-61
55
-23
-11
24
2
-14
-46
-56
-33
55
-75
-43
-9
-13
34
-66
1
-38
17
-5
37
14
-16
-28
-77
-14
-6
13
17
15
14
30
-40
11
29
7
18
-13
29
11
10
-63
33
7
-1
-31
51
12
48
5
1
14
-15
19
-33
-20
-58
-21
65
-60
-7
1
-32
-28
-15
-9
20
-46
33
-16
29
-31
21
-22
29
-5
-31
23
6
14
23
43
10
43
11
-43
-5
42
57
8
20
29
-41
12
35
13
-9
7
51
25
-20
66
-53
-40
-90
1
-41
-5
54
4
-2
-8
-24
-69
-11
-49
29
-16
-18
-46
17
6
23
-17
-45
-15
-12
72
42
14
-11
1
-1
-21
64
-71
-7
-60
-27
-23
32
-12
11
29
45
-7
27
-55
3
11
-4
-13
-9
10
30
51
89
-19
42
-12
68
55
6
-54
57
41
34
-19
-79
-2
-28
102
-9
-5
-69
-12
70
-25
18
-28
-25
-7
-42
-72
-47
-6
67
-17
-31
16
58
-31
-6
-15
-20
127
24
25
37
86
21
25
-1
-14
30
-40
14
10
-13
31
-37
12
-19
-10
78
9
33
44
0
89
-7
21
-39
-9
52
2
-60
64
-29
38
-35
-38
-12
17
-25
-12
19
30
8
-12
-9
-46
-58
-9
-22
22
13
1
-6
-27
-23
-19
25
-53
-10
56
-13
14
64
47
32
26
-3
-14
27
-25
-20
-1
8
5
50
-119
-16
16
33
-22
-6
5
41
-15
38
34
-38
5
29
-77
-30
-9
-15
-3
-22
5
-12
-24
8
30
-32
-31
2
8
-92
-18
-34
37
-31
31
-26
7
-19
39
-25
20
70
-21
0
45
-4
-35
126
-64
-12
-54
8
24
3
39
-39
-67
48
-33
0
-25
29
21
18
-35
43
-24
-2
-51
58
12
-8
10
18
1
17
1
16
-20
50
-5
-18
-64
70
7
-24
73
-1
32
30
-13
67
44
3
11
16
18
-19
-41
18
1
70
-51
38
48
116
14
-19
19
-5
26
27
30
-32
-29
49
-35
87
-26
-24
-24
26
25
-18
-15
-7
-119
64
-9
-50
-10
-10
9
-15
-16
6
32
4
13
-16
35
31
-21
-6
1
48
-16
-5
12
-17
100
50
-6
49
-22
-28
33
-53
-1
8
-54
-20
32
-16
45
8
-2
4
-28
5
-32
-9
17
-2
-5
-47
-40
-35
-19
37
18
-26
-28
70
40
13
-15
-23
26
7
7
-8
94
2
-28
-32
19
-31
-5
53
58
47
-25
42
-1
-21
10
17
-44
-62
11
-20
21
-10
12
-4
-3
-21
-20
-20
18
-19
38
2
27
-12
-2
-21
-6
-47
3
60
51
-19
-8
-54
-5
3
11
53
4
80
-23
27
-7
-7
20
-15
16
31
78
9
-40
22
-34
0
30
49
40
-42
14
1
51
-13
27
-15
21
-23
119
-6
27
38
26
-6
-7
-24
24
-5
32
-27
5
34
-25
44
0
-39
22
-48
6
-27
11
-7
19
39
-45
-2
-20
-53
-10
-60
-50
-49
54
48
45
31
5
14
-55
18
-68
46
58
-14
2
20
-12
25
41
-62
14
57
-13
127
66
78
26
-13
-16
34
-22
10
-29
-3
-19
-46
-1
50
-2
31
-18
28
-89
7
23
7
-59
-1
-22
56
-2
10
1
-8
14
-16
4
-21
6
34
10
29
30
-53
-5
7
8
41
10
127
29
-6
2
-44
-30
-45
14
3
1
18
21
107
-37
43
20
-24
32
16
5
-21
-6
-121
27
3
61
21
-36
13
-14
4
19
-47
22
-7
-10
-7
7
-36
-5
6
38
-12
6
13
-19
19
41
-7
-20
-2
36
-15
51
16
-7
12
-30
31
-16
-1
24
14
-21
-4
13
2
19
16
13
3
8
-27
-11
-14
-9
-10
6
-18
-56
60
-90
6
-30
-29
25
19
-15
-47
31
45
9
-111
23
43
-87
-6
-4
14
-42
32
24
-30
20
20
-5
-12
12
25
24
1
-6
15
-36
22
-5
47
1
-24
-12
-18
9
-1
-21
-2
25
-15
-25
-31
-16
-22
7
4
-32
8
-26
-5
8
-67
-15
17
84
-35
12
37
63
0
55
-7
51
-3
-9
52
-3
-24
-58
54
-4
-34
-33
-8
44
-22
27
-10
-17
12
13
0
-11
-24
-4
-21
0
12
-64
-11
6
31
31
45
39
15
-68
22
30
-42
-5
11
9
24
8
-6
-20
-17
41
-32
-83
-52
-8
38
0
-5
16
15
15
-17
18
-115
10
-18
-4
40
-3
-2
13
78
21
3
15
2
2
-38
23
1
-3
38
-4
5
-6
-19
23
39
2
15
-4
-15
3
10
4
-23
-9
3
-44
9
3
18
7
60
6
11
16
-28
15
11
-20
3
2
3
8
5
-5
-10
-50
1
17
-97
13
34
50
9
-31
-8
-80
8
-60
-4
42
-4
5
-5
22
7
-2
10
7
2
5
15
8
-8
4
-1
21
16
32
22
-4
7
-12
-70
-11
23
5
-4
-1
-3
12
9
-67
-28
-4
-4
7
-21
2
-4
0
5
1
11
11
18
9
-53
-1
-7
-2
15
-10
-7
8
57
-1
5
16
34
-20
-114
-2
-83
-11
1
16
20
7
7
25
-8
14
-12
-4
5
-20
-75
20
-53
3
-27
-89
-2
20
12
-10
-85
-6
9
0
-127
15
6
-3
-4
-57
-7
-1
4
-86
4
4
29
-2
12
8
-11
-2
-4
-13
29
18
1
-2
-4
3
15
0
12
3
-5
6
27
-6
15
-18
-73
-3
7
-1
9
12
-6
24
-5
-27
32
8
9
-8
3
7
-9
-7
-15
-85
1
2
8
-84
5
-4
-29
2
-67
-8
-80
4
-3
-8
-21
-8
-13
-1
22
11
-7
-80
-14
11
-3
2
9
19
-7
0
9
13
1
6
-3
24
35
30
12
3
-4
3
-31
4
-4
7
3
-13
0
24
9
12
0
8
24
-77
1
-6
8
25
-43
13
-13
-42
-20
-24
107
-46
24
-10
12
-17
25
42
-34
-11
-28
22
-4
25
-35
-3
48
43
-45
-53
-12
12
38
0
-23
-37
31
-12
7
48
36
34
-7
-16
-14
-57
-75
5
-14
112
-54
29
-2
10
-53
-2
-10
-18
19
-23
-58
64
-13
-9
21
-5
-1
-14
17
-99
-3
8
-10
11
-18
-28
64
-36
-14
6
12
-90
14
-5
121
32
-44
46
-30
29
7
-122
-5
-8
-15
-107
34
-24
-13
-68
61
-51
-34
-21
10
-20
1
2
28
-16
127
-22
31
29
43
-32
10
12
-79
-15
19
38
-21
-36
25
-18
13
-27
-27
-24
34
-49
45
-19
-2
80
1
-45
63
0
39
-27
-1
12
20
-26
-16
-4
-8
43
-44
23
8
10
1
-30
13
-14
23
-67
-24
41
-49
-21
-24
11
33
-54
12
-42
5
56
32
-13
29
47
-17
-55
22
8
62
-12
-7
-29
22
-22
-2
7
14
-11
10
-12
-24
-42
-51
3
-1
-23
-42
99
-5
24
51
80
50
82
-44
-1
31
55
14
-28
28
-4
-23
42
-27
14
-12
16
-33
33
-56
2
0
59
39
-28
4
24
-39
23
-1
-11
-67
-24
-16
-27
-9
-5
20
35
-6
44
-70
18
-55
-18
-42
-16
5
22
27
12
-28
39
-26
-3
-24
-9
-67
-50
35
-4
-20
-27
6
12
-37
0
0
-3
15
6
-5
-2
2
-3
-27
3
-7
-30
3
10
-1
9
-7
-5
-20
-7
-3
-7
-6
12
-4
4
-7
-3
-9
-2
-13
3
14
-8
-3
4
0
-2
46
-8
51
3
2
0
-7
-18
-8
-5
-6
-2
15
3
0
-6
-23
-20
8
-6
-8
-6
-1
3
1
-13
-10
-16
-4
2
4
-1
-13
-11
3
-11
-3
-3
19
-1
-2
-14
3
8
11
-11
-2
-3
-8
-7
0
5
-10
0
-1
-6
-15
18
4
-10
-8
127
-9
7
-4
24
-10
11
-3
7
17
21
23
-20
-6
12
1
-1
0
31
-5
-1
3
-3
-6
-41
1
2
-20
-23
-4
-8
2
23
-9
0
3
-3
6
-7
13
-6
-3
-2
3
8
-7
4
2
6
-26
-3
-4
3
-7
2
-1
-6
9
5
-3
22
12
4
-12
9
2
-26
2
-20
3
-1
-32
-4
2
35
-16
-1
-5
25
-12
-1
1
-16
8
-13
2
-2
13
5
-13
-7
3
-8
1
44
-7
-3
-1
-35
-8
-7
-6
8
10
1
5
-3
-4
0
-6
-2
-10
8
-1
-8
12
-2
7
-6
-9
9
-14
-6
-18
1
-6
12
28
2
6
-9
4
-2
-3
-3
-13
5
-17
-2
-2
5
12
-13
-9
0
-9
-14
-2
14
21
0
-44
33
-33
-20
36
-23
26
76
49
13
55
31
-19
26
16
-20
25
7
-2
-16
25
-6
-26
29
16
-25
5
3
82
-3
102
-1
-10
-32
22
-20
43
-82
2
-30
-21
-44
-6
21
22
77
-8
-25
-90
47
40
19
-7
-9
-73
36
-7
56
-60
-12
89
-14
25
11
7
-12
-16
38
-9
15
-16
-25
-9
7
61
-29
-51
-42
12
10
-19
-39
56
-38
-58
-15
-18
13
7
4
-30
-42
-19
2
12
7
50
-5
38
-3
14
-54
-56
-3
50
3
44
13
-29
8
-54
19
-48
-11
7
37
32
57
-5
46
2
-73
16
47
-10
23
25
9
-1
-40
-29
-18
-23
17
26
-7
14
-36
-38
0
59
25
42
15
-2
41
-20
-4
81
2
-29
-93
-94
23
41
-22
11
11
-3
-17
-29
28
39
47
24
9
71
-24
-30
-3
30
-10
8
-34
7
-81
-54
51
28
-22
-25
1
2
-6
32
24
34
40
0
-10
48
-4
-1
-20
-25
-26
43
-28
-68
-22
-9
-60
-13
-2
10
5
67
-15
53
-44
55
-3
39
13
8
1
33
1
-31
21
20
47
72
18
-13
26
-37
-24
31
-31
17
6
-2
-127
-22
-11
24
74
6
0
52
-8
11
18
93
-8
5
22
-15
4
-8
7
-32
18
-11
-58
7
-50
11
9
-5
1
-48
9
-32
26
17
-14
13
-20
4
0
-5
-7
-34
25
9
-23
26
-26
-34
-61
14
12
27
-9
-2
-13
3
-16
15
-55
-47
-45
6
66
-37
-17
12
-28
2
22
-31
39
-71
7
20
13
-56
11
-12
39
-64
82
26
-19
44
-10
-44
-38
17
-8
-4
-6
40
-54
68
-34
22
8
35
9
26
-28
0
19
-37
61
9
-11
13
-1
28
61
60
26
4
-25
9
-8
-28
-51
24
1
4
11
-42
-22
10
-49
39
-33
-48
36
33
-52
-41
12
82
29
-7
-3
-18
-29
-28
-29
2
25
-28
-11
-1
1
26
-24
9
39
-2
-12
-17
-6
-42
32
8
7
54
-36
-3
42
43
11
9
1
27
19
23
8
20
-14
66
35
-44
-27
-40
24
13
-33
-13
-29
-103
42
-16
-47
34
102
-98
-54
29
-50
7
30
18
-17
99
8
56
-67
-13
8
28
-61
-7
-39
-59
-30
-25
-21
-32
-7
39
7
23
2
91
10
20
6
-10
12
-1
-10
-32
-109
-40
127
47
3
-42
31
19
5
-9
42
3
17
14
67
6
73
-77
47
-34
-2
-27
-6
22
-14
-71
-84
-21
-14
-54
-19
-33
20
-15
-48
81
31
0
15
-31
-11
10
-10
48
-39
-95
-7
-9
12
114
10
22
-1
7
-9
25
-17
-12
15
18
-16
-127
10
-2
31
-14
-2
-25
3
-78
-41
-17
2
-9
53
3
4
16
-18
-10
24
10
-4
11
63
-6
-19
-11
-7
-16
16
-30
3
-18
-10
8
5
-9
-8
10
2
2
10
-27
-4
10
6
5
-20
13
-38
-18
-33
79
-12
11
0
-14
-45
19
4
0
20
-7
0
-16
-5
-5
13
22
10
0
6
6
12
40
13
-15
3
-1
4
57
-3
22
12
-13
-8
2
-3
-11
17
16
13
-9
-22
-21
1
-10
-10
31
-5
-9
-5
-12
4
15
-20
6
-14
-12
15
20
21
17
-4
0
-9
21
10
-16
10
-18
3
3
-9
6
-49
0
32
15
36
1
-15
16
7
-15
18
56
14
5
10
27
-30
65
-1
-9
12
2
-2
4
-5
-12
8
-12
-20
-22
-10
25
-18
-11
3
-30
-10
15
19
15
1
-7
17
9
-1
0
5
-8
-16
10
5
13
-26
9
-25
17
5
-3
8
-2
-1
-10
-57
-44
1
-16
-11
1
4
15
11
19
-6
11
-16
-11
2
49
3
31
-75
-23
19
-28
-9
6
0
-20
70
6
5
-9
-10
-11
3
-16
4
-1
-42
1
11
9
4
-15
5
-1
-1
11
-47
25
1
14
20
16
-5
-20
-12
33
46
5
-39
-24
12
4
17
5
6
-9
1
33
9
-28
23
0
13
48
26
5
-1
-4
41
4
-9
3
-10
1
-11
-19
-9
-13
29
48
-2
0
31
10
41
-24
6
-2
-33
-37
7
-3
14
-13
1
-31
-1
-6
-33
-33
23
31
9
-16
127
-37
27
-42
-12
-39
23
-38
-5
36
-26
8
-11
-8
0
-22
-28
5
3
5
-24
14
9
-2
-70
4
16
33
-14
27
-13
-11
5
-4
8
-1
-48
-18
16
-46
10
4
5
-18
-70
13
36
0
-11
35
27
14
-48
28
18
-17
1
46
-10
3
-1
-5
-4
-31
-2
21
-9
18
-8
-14
-25
25
-11
-13
-8
-2
24
8
-10
5
-8
15
-2
-14
-12
-8
17
-9
22
-44
33
8
0
15
12
-12
11
11
11
4
3
-12
5
-31
9
11
-2
-50
27
2
17
12
0
-10
11
-1
-2
-13
-22
-8
21
66
11
31
-36
13
14
8
40
17
-4
29
-8
32
45
-10
14
17
18
15
7
43
25
17
-13
16
-4
23
-10
7
22
65
11
-18
-17
-12
-3
7
18
-3
-4
23
-6
18
-35
6
48
3
-11
-27
8
-28
14
10
-22
30
-93
-15
-7
36
-1
-21
9
-4
-31
50
-3
-8
7
3
-10
35
11
14
-39
-12
10
1
20
10
-6
4
-2
16
0
-9
-3
10
11
13
-5
8
-37
3
-27
-14
-9
7
18
14
-9
-13
9
9
-8
-13
1
2
1
3
-10
18
6
0
-11
-24
4
-5
-1
8
-6
21
33
-5
0
-5
3
31
-5
7
-4
13
12
5
0
-4
0
21
-2
-20
-10
-11
-15
38
-9
-6
5
4
-9
-1
-4
11
11
2
-5
3
0
-4
-13
-1
-11
4
6
25
10
9
0
1
-6
-12
7
9
3
-18
2
-4
-5
-9
5
-2
-3
4
-5
14
18
2
-44
-11
-3
-10
29
3
16
-12
6
-20
-30
43
-6
-9
3
-1
-4
-19
-12
-2
-6
-10
-17
18
18
8
2
-127
-17
2
-1
-27
-10
8
3
-12
-47
-3
10
2
66
4
-9
3
-3
-4
-3
1
10
15
-17
-4
-2
0
-8
9
-3
6
-5
4
7
5
-2
-7
8
-7
-31
-26
-12
-2
-9
-4
-2
2
5
-10
3
1
1
-6
-2
-4
-17
4
0
18
20
7
-7
13
-14
13
-2
5
-14
3
2
-69
-15
28
-21
7
10
14
-23
15
-4
-13
-8
-1
-8
-6
-1
-6
10
-7
-1
5
-4
-1
-3
-3
-13
-6
22
-2
-7
1
22
-13
2
-3
10
-10
7
-4
0
12
-13
-9
7
25
-24
2
-3
5
-4
12
-13
5
-22
-37
-14
47
16
-16
-41
6
34
0
22
6
42
21
-33
42
8
35
-14
-14
1
-22
18
-4
-32
-10
15
-25
-31
2
16
21
9
15
3
28
-8
5
-7
3
-18
21
25
-21
-20
-9
28
24
-9
-5
32
-28
6
-11
-14
37
-9
-4
7
-19
30
30
22
2
-23
-25
4
-4
15
-13
28
3
-16
-27
2
-28
7
-63
4
100
-31
32
-25
-9
27
0
0
-12
-4
-14
0
-8
-2
13
0
-4
-1
23
-38
-11
14
-64
29
-14
43
-17
-13
19
9
-1
-7
33
-13
16
14
7
40
-3
-8
6
-10
-11
8
-18
5
17
-5
11
-12
4
-1
-22
25
15
2
13
9
4
-45
-13
18
8
19
39
1
-21
-1
-127
-30
-13
2
-17
5
12
5
24
-13
51
27
-15
2
54
9
10
3
-23
4
63
-15
0
-31
-3
6
-3
17
63
6
-10
-8
-32
1
11
-7
-2
16
23
-25
10
-14
18
4
34
25
-8
-4
-37
26
-24
58
-19
29
8
-3
-12
-13
-12
-13
-12
-6
3
-6
0
-6
-14
-7
-9
-7
16
2
1
-4
15
-11
18
-4
8
-10
14
11
24
-7
6
-7
12
30
-25
2
-15
6
-3
13
-3
-19
0
41
-66
-16
29
12
-7
-18
-3
7
-56
-17
25
-14
-13
-6
3
-12
-62
-6
-41
7
0
-19
16
4
21
45
-7
-18
10
9
-20
-16
-1
6
-3
-24
-8
-60
32
-5
7
10
-27
-6
-11
-18
17
27
-33
33
7
18
-1
8
7
-2
70
7
-17
-14
1
3
7
-10
-17
-13
-7
-7
-10
9
16
-1
-39
20
-10
-15
15
7
-16
-19
14
2
-6
-20
-24
6
0
-11
2
5
-11
-1
-26
-8
70
0
6
127
16
33
4
-7
-2
11
-58
7
-20
3
-18
14
1
-30
-39
-20
23
20
-8
11
5
-21
12
-6
-7
14
-2
12
-15
-2
17
9
-8
18
-2
-31
-17
11
-15
-10
9
-4
-4
-3
-8
-23
8
-31
7
-3
-13
-13
4
-4
-56
-5
9
-11
11
9
-21
-17
-6
3
-9
-11
6
-4
15
-43
-57
10
-40
8
11
1
-19
14
-13
-20
-7
22
-24
-12
2
-25
15
-13
7
-9
21
-19
8
6
-25
3
18
26
-22
-53
5
-9
9
-30
1
18
11
6
12
-20
8
-20
6
9
-22
-1
7
-7
-13
-3
-5
29
4
16
29
3
-15
12
-16
-5
5
-1
-4
28
-13
-20
-36
-1
-30
-20
48
-11
3
2
2
23
-6
3
-48
-19
2
34
-2
-18
2
2
-10
-11
-2
8
-2
12
2
-8
-35
14
-7
-12
27
16
23
-19
-24
-64
-16
69
-4
42
25
15
-47
-1
9
-35
46
22
-37
-16
-22
-81
10
-43
-6
-24
4
-2
46
-11
-69
65
43
-11
26
-15
-11
17
3
46
22
14
41
-7
-10
28
-19
-8
12
6
-3
38
127
11
-19
-10
-91
-16
-41
-35
3
-8
-7
3
-92
-13
-21
-14
-32
-25
-1
9
0
-49
14
27
5
53
10
-1
10
47
47
9
19
-18
9
8
-5
8
-7
-2
73
-38
21
4
10
1
29
-63
-8
-28
-65
11
19
5
4
-15
-8
-11
7
-1
32
13
-73
46
0
97
0
30
-8
13
9
7
-3
60
3
1
21
-4
23
-20
15
-22
-6
-40
3
-1
13
-44
-18
-41
-32
-1
52
5
16
-2
21
-10
39
53
-20
27
22
2
-16
-17
-26
31
-2
12
57
-8
4
1
10
12
-26
46
-21
-12
-4
4
2
1
2
86
13
19
3
22
2
8
-9
8
-5
2
-39
-10
-24
-42
-17
-13
10
5
16
-8
-45
-41
10
1
-5
-98
7
-5
-22
8
10
9
-17
-4
-56
12
-67
-9
-6
-39
47
17
-88
-2
21
5
11
-30
-17
-28
-10
11
-13
8
23
4
-29
2
-11
-21
-19
-17
-14
19
40
-2
0
-20
13
-79
-20
0
-33
-68
9
22
-25
1
-24
-51
-41
9
25
-25
5
10
12
-68
-11
-41
-13
79
8
-29
44
-9
-72
4
41
44
105
11
-5
-30
29
20
9
10
18
56
13
-11
-18
-30
-50
-12
15
40
23
-50
12
-74
-53
-65
-17
-27
-29
23
10
17
28
-48
33
8
22
2
0
-18
-73
-31
23
33
0
-5
-7
-33
-20
-33
-8
20
-14
12
-50
25
-30
-52
-89
-10
-70
3
37
-20
-13
23
-9
14
20
50
-14
-24
-5
32
-60
4
-6
0
-1
-12
-54
39
-14
19
-64
12
11
-15
-49
13
-16
10
46
20
8
-2
22
22
-26
12
-9
27
1
42
-13
60
-45
22
7
-40
16
27
-3
9
-42
-2
-9
-10
1
7
1
10
-16
-11
-21
-22
-10
18
-45
0
21
78
-8
28
5
-3
39
5
40
-42
9
31
-35
-10
28
4
32
15
1
-10
-2
24
-21
32
25
7
4
-11
11
-7
-36
28
7
3
22
36
32
12
9
0
-18
24
6
-68
-19
6
-51
-77
-8
-9
81
15
-4
40
50
9
7
-9
-33
-11
8
12
2
-16
-19
-44
5
-10
30
-15
17
21
9
1
-11
-29
-18
-23
127
-1
-4
41
6
-3
-12
-7
-11
-5
26
-1
39
42
-65
34
-13
-16
-13
45
12
-18
-117
-10
8
-3
72
50
-14
1
-20
13
10
-2
36
-17
24
-4
48
-13
8
13
1
-9
32
-6
-10
-35
15
-12
3
0
-13
-17
21
86
0
4
16
-14
-37
-12
11
-4
-6
-14
5
26
-9
6
-5
11
-3
7
-12
-15
12
12
24
3
3
-2
34
-3
6
-12
16
9
-60
-8
1
3
13
22
-46
-2
2
-9
-7
22
-6
23
-11
-10
2
14
-2
-15
25
-11
6
-1
23
8
6
25
82
-1
-46
6
14
-4
21
3
4
7
-5
3
-4
11
3
-15
-21
-6
9
-11
-3
37
-5
-22
0
12
13
19
-7
20
0
-12
-8
-31
1
-74
-1
-5
7
17
7
13
-10
-1
-1
15
-9
-91
-15
-7
5
-21
24
3
54
4
-2
4
12
-6
-8
10
7
9
-3
-24
7
2
-12
9
-18
-1
37
-27
4
-9
-2
-28
29
12
25
-24
-5
26
-8
-16
21
4
0
-7
-5
4
4
9
0
4
-7
-29
5
9
25
6
-4
-11
6
-20
-127
5
-13
-53
9
2
11
-7
-14
1
7
-2
40
-35
-25
-17
-4
7
4
-6
-8
-13
11
2
-5
30
-5
1
-13
-33
8
8
-17
9
-18
-12
-8
-33
13
47
7
6
-8
2
5
-29
-15
-18
23
-11
37
-3
-2
-5
-7
-7
1
2
45
-34
5
19
-16
-51
10
-1
23
17
20
2
13
43
21
7
53
15
-29
-49
44
-16
18
23
25
-53
16
15
-5
-41
10
-29
-18
0
48
3
5
-8
3
12
39
12
5
14
37
-23
-1
30
6
0
-1
-13
-26
33
-8
4
8
22
-24
-13
-10
57
-11
-77
-36
-2
35
27
-32
6
24
-13
-4
-30
-19
19
-64
-16
6
49
0
12
20
-2
2
-34
20
-15
10
3
-1
24
-67
-29
10
31
12
64
20
-10
-7
29
-27
38
-4
37
42
78
-41
-21
7
-26
14
30
10
28
52
2
-9
-9
22
5
-51
-20
14
-22
-6
9
-8
-15
8
-20
7
32
-29
-10
-28
-7
-15
-10
18
38
20
23
77
20
-9
32
-20
-10
5
-6
-15
36
17
1
50
1
27
-12
-22
13
-41
24
-13
-9
-6
-26
-75
-14
-16
37
71
-7
-75
9
17
-48
12
-8
-3
-2
-2
8
14
-47
-2
8
58
-24
41
15
-69
4
2
-23
-10
4
17
4
12
3
-33
-17
3
-24
-24
-4
17
-22
9
-64
-32
27
25
-28
96
8
-8
22
33
30
29
15
10
127
-17
63
26
55
89
3
-4
14
2
31
-85
54
64
43
16
41
-7
-8
22
37
3
-7
1
-6
-15
8
-81
6
-24
54
30
-88
22
26
14
35
-18
13
-31
-7
-6
28
-20
3
26
-15
-9
-2
-30
2
45
-25
-10
-25
73
16
0
35
4
9
78
-29
-28
16
32
36
24
-1
9
11
-29
-7
-40
46
-24
48
-32
-5
22
14
25
-41
20
-1
-6
0
20
49
50
16
4
23
-6
-58
-22
1
-14
-19
40
33
75
-45
19
21
24
46
32
30
9
21
12
7
4
-14
-11
-37
104
30
-34
-104
11
40
59
-6
40
23
9
53
61
10
-26
-17
17
-4
10
16
8
42
44
12
-22
-12
-6
-57
-7
10
19
4
92
-6
4
-28
51
-15
-9
61
25
-29
-21
72
-3
5
1
-35
16
-14
-8
105
2
38
3
-3
-35
7
56
42
45
-68
25
12
9
-21
20
26
-4
-4
-25
56
26
48
-9
42
-17
12
14
52
28
-3
72
-3
-16
97
70
33
25
-27
30
-14
-23
25
49
12
-21
3
0
-69
9
-9
-22
13
29
80
24
-24
5
79
-5
1
-3
9
-27
-28
-19
0
-9
30
15
18
-22
-16
22
-68
-31
-13
-47
-47
-36
31
12
6
55
22
19
65
25
-98
-6
-69
-43
23
-30
29
21
-17
-6
-66
-13
-127
29
-39
4
-16
4
-31
-15
3
-46
-7
-16
-17
13
34
57
0
14
36
-2
19
0
9
-39
-22
3
-6
-3
-1
-18
11
-17
-1
-24
15
0
-18
-12
16
10
-15
-15
16
-5
0
-11
-12
6
15
33
2
39
-17
-1
-4
-11
6
5
1
-7
4
20
4
3
7
1
10
-8
6
-45
-27
28
3
-35
27
-2
0
-24
2
10
-10
-27
15
-9
-9
3
8
-22
-24
-43
8
-2
16
5
0
6
11
-3
6
0
-7
3
1
-19
22
-16
6
-20
-17
5
42
-57
1
-19
7
3
14
55
23
-6
-1
19
2
-5
4
5
-8
7
-31
-3
12
-11
4
18
-1
12
15
3
10
-5
-15
7
12
-10
-2
3
16
-18
12
-4
8
6
-8
-17
37
14
-26
18
76
12
-18
-8
-2
15
19
-46
-14
26
4
-30
-7
24
-2
-23
19
-2
-3
-17
-2
-5
3
9
-12
-19
39
7
0
9
47
13
-7
-6
-2
-23
5
16
16
-19
-21
11
17
6
13
6
-14
4
-7
-16
-15
-10
127
11
-2
-4
-6
-8
0
25
-4
32
8
32
-2
2
5
-7
11
3
10
-8
-28
-14
25
29
7
15
22
0
-5
22
-5
4
-2
-9
-27
0
13
-16
-2
7
24
6
20
-19
-33
-5
8
17
-1
19
-22
3
28
5
-35
13
1
43
6
-10
15
12
-17
13
4
-23
63
-17
-19
6
-11
40
-5
-42
-12
17
-37
-4
-24
3
-15
-21
-13
-37
22
-6
-2
32
3
42
27
-9
-21
-22
53
-24
17
8
-18
-27
-45
-23
5
8
57
-18
12
18
15
-21
14
-6
13
-41
-8
3
-12
-21
-13
-36
28
-87
-34
-40
28
24
-25
-74
-23
-21
-53
-44
-45
39
-20
-23
16
-33
-79
-27
-22
-33
-9
5
10
2
-13
55
66
-1
14
9
10
11
19
5
43
-17
6
53
7
113
-36
11
10
-19
-14
-16
10
21
9
-24
-28
-36
-28
-26
13
7
32
-39
5
-77
-2
-69
-5
0
63
-27
7
-25
0
32
20
92
-6
9
4
51
-9
48
32
43
-24
12
-39
-21
47
14
39
28
23
4
-22
10
-29
11
31
21
-49
-13
5
-16
54
79
-31
-19
-63
45
-5
-7
-5
-14
-4
25
16
-14
6
47
10
-30
13
10
-46
-8
-16
-71
2
27
8
38
13
5
3
33
-9
36
-5
-28
20
-22
-16
-28
38
14
30
-19
11
-43
-24
17
-9
-58
-5
41
28
22
47
-26
-19
-58
-6
49
2
34
2
-15
-29
80
61
-11
16
-13
-36
-25
43
36
-2
-49
44
-61
31
-34
5
-7
-2
12
-33
-49
-11
-22
-26
70
5
-8
-62
127
68
41
67
-52
-19
-16
15
127
102
-20
3
-17
1
-14
16
-3
-62
12
-7
3
20
46
7
22
-34
9
-21
45
2
-26
-35
-31
19
10
16
-12
11
0
12
-21
-4
21
1
-29
-27
-28
8
-14
18
20
12
-10
-11
21
23
2
-5
-1
7
26
4
-45
-6
4
-16
103
-25
-1
20
17
-6
10
7
7
-14
6
-9
-1
-4
-18
23
20
-6
0
-5
-29
-14
0
-12
-28
-7
40
17
12
-11
-88
-23
-24
-3
-5
12
33
18
-7
7
13
11
-1
127
-31
27
13
2
0
-8
-21
11
-32
-17
-38
-2
37
-9
3
26
3
4
-14
-2
0
18
-15
-2
-7
4
-7
21
-19
-25
30
20
23
-2
-6
-12
3
-22
-17
-1
-3
-21
18
13
26
13
10
-32
-16
-48
-4
-5
1
-9
-21
-13
-18
17
21
0
11
-6
12
-4
18
2
0
-6
-39
20
12
5
-18
15
-17
21
2
-68
-11
18
-25
21
5
-24
-5
-20
-32
11
13
-3
-12
-3
15
9
8
9
-14
6
-20
14
-83
9
-32
48
-28
5
2
-3
24
13
-1
3
-21
-10
8
-17
4
14
-17
3
-1
-26
1
-24
61
41
-15
4
25
20
34
-13
0
16
6
35
-1
-3
-18
2
14
0
-3
-6
5
-1
10
6
-11
-15
5
15
14
0
25
-14
-16
-9
8
-1
8
4
2
5
11
7
-2
-4
6
-27
-5
-12
-4
-12
2
1
10
-3
7
-1
-18
-11
-11
-3
-6
-6
7
5
13
11
7
-16
-6
2
-3
-4
13
12
1
8
-1
3
7
-1
-14
-3
6
-3
-6
7
-2
-8
8
-3
6
-4
-17
-6
2
-19
14
3
3
-4
-5
2
0
-4
-1
3
0
-8
6
-3
14
29
-17
1
5
12
19
3
4
3
2
-10
-7
0
8
-4
-17
-5
1
-6
-7
7
4
8
-5
-5
12
3
-1
3
-3
2
1
2
1
5
0
5
-4
-9
-23
-21
19
-4
1
-15
-13
7
-24
-10
-15
-6
7
10
-4
-1
17
-10
-4
5
-9
3
-1
0
-6
-2
2
3
6
-13
5
0
-5
-2
-12
-11
9
8
1
-4
-14
4
-2
-5
0
-4
12
-2
2
-8
12
-2
-9
-2
0
-7
3
-10
-4
-10
-14
-4
-2
7
-1
-4
-6
-12
-7
-6
-10
-1
-1
-7
5
-127
-2
2
4
4
12
-2
-1
13
7
-4
-1
-8
5
-3
9
-3
-4
-4
4
-6
-8
-9
-3
-1
5
5
3
4
-10
1
-3
2
5
-3
-20
7
-5
3
-3
-4
7
4
3
-4
-3
9
-7
2
-5
3
8
5
-1
6
5
53
4
-3
-2
-11
0
-2
2
-66
102
24
36
-15
-34
0
-30
-13
90
-5
10
-7
0
2
22
10
-32
12
10
11
-21
-36
-21
-47
23
2
1
11
-22
-20
12
18
0
-4
25
-3
39
-83
11
-19
17
19
6
9
-15
14
-11
-16
2
57
39
3
-52
1
-18
29
10
43
-29
-22
-4
33
-33
28
-48
51
13
-42
-8
46
72
-2
20
-7
-4
47
-9
-4
-10
70
-5
-10
55
3
19
-1
0
-11
-12
32
25
-10
9
-23
31
27
12
32
-37
-35
-20
-62
-3
-67
-14
35
15
-25
34
19
-20
0
-31
-7
-15
11
-24
18
14
19
6
-4
0
20
0
22
3
9
-12
-6
-5
37
8
-10
-6
-6
-10
-33
-17
-3
7
-1
5
-31
-56
-6
-38
-9
-10
12
-10
-10
-3
12
7
-44
15
7
-1
-59
-8
10
-2
34
-26
-28
-5
-18
-8
-11
-15
9
12
-4
-6
-14
-52
-19
50
-28
-2
-5
26
-37
-36
-1
-81
7
-53
-66
9
7
4
-2
-3
4
-67
5
4
-21
-6
-4
-22
12
-8
21
-42
13
-7
-80
127
16
-25
-23
14
-24
-14
28
-1
16
-13
6
54
-4
26
40
-12
25
-7
21
-72
-103
36
28
-12
8
0
-3
-1
-29
-49
26
15
6
7
-5
25
-15
23
-9
-10
-69
4
42
7
15
-58
-8
-38
-10
-64
-19
50
6
33
93
-36
36
-18
24
70
15
35
48
70
-3
18
-20
17
-8
-51
8
18
8
38
-28
28
-25
-16
24
3
127
-1
31
-1
-25
32
4
-22
26
-34
-71
-39
-41
-9
-15
-65
-53
-30
-5
-1
-29
-40
-14
-11
-11
-64
20
26
-10
50
-78
3
6
-18
-24
-30
-64
19
17
-1
-14
33
11
26
11
-30
2
28
-17
41
-19
-17
-13
36
44
-25
29
-24
-48
23
7
-7
-5
-17
13
-33
21
-22
-42
-39
52
78
-105
18
-15
12
13
15
37
17
-41
15
16
55
-71
-4
-66
13
-1
-19
-9
-29
37
-8
7
22
1
7
-48
-41
17
38
-17
4
-12
-41
36
18
-9
-21
26
25
10
36
0
15
-5
30
-15
32
-12
18
3
-14
-26
15
10
26
-2
35
-37
12
-21
8
-13
2
27
14
9
27
-22
-14
-12
-2
23
46
8
-1
16
18
-54
84
21
46
-21
30
-17
-18
-12
-4
-24
12
-6
38
14
-16
17
-14
16
26
86
-46
67
-16
14
36
-17
1
-13
10
0
-4
12
-14
-78
2
65
17
-2
-33
15
-24
-30
8
8
-48
-96
-33
-14
27
116
-13
-35
41
-52
-24
6
11
8
-7
-31
118
-14
8
-38
23
-35
-5
-27
15
-18
-53
71
54
-29
26
-34
11
28
-8
-43
8
78
26
21
42
1
61
-17
40
-9
-14
14
41
1
0
22
19
-86
-25
-2
-13
-11
-19
-27
0
-4
64
-58
28
-28
119
0
-38
65
-17
27
35
-57
34
-23
-100
-22
-19
-28
12
-50
-44
45
-32
-33
-7
-15
-28
-32
11
17
8
15
-15
49
-28
25
-27
-13
-12
-58
-32
39
-22
-61
-32
-2
39
40
-4
16
32
7
51
-37
22
-52
9
-19
-88
7
-34
27
2
-38
23
-13
4
46
-60
2
7
39
9
-13
7
-32
21
-6
29
79
20
17
-6
81
-28
-3
51
70
-1
18
-19
6
12
-5
-24
61
31
-20
16
-49
37
-53
-53
40
16
9
7
-87
34
37
-5
-49
-14
18
-48
-32
-4
-17
127
-57
90
-10
-15
39
17
60
28
0
-14
-36
51
-44
28
9
10
44
23
15
34
-32
-59
7
-39
19
-9
-34
-4
10
-21
-43
-15
2
13
-5
98
34
10
-17
3
14
88
5
7
60
-24
-13
16
25
0
107
118
-35
-1
24
-119
-22
8
-2
37
-66
26
-84
-22
32
45
5
31
-64
-45
41
-26
-42
36
58
-43
-6
41
80
-36
-26
-8
35
43
-22
-25
87
36
9
10
13
42
35
-32
-45
17
27
60
43
-67
-14
-36
-35
-10
10
-35
-4
6
37
-10
-22
5
-7
1
1
9
10
-5
9
11
6
15
9
-4
22
-13
-73
-11
4
-14
-7
-3
-4
0
-14
9
-55
11
-20
-47
-9
-10
45
-33
12
127
-8
-68
9
5
-4
-30
-16
22
4
-17
8
-4
-20
-19
9
-36
9
-22
-15
-62
-6
19
27
18
40
2
64
6
-25
5
18
-22
35
1
36
2
5
-33
-21
-6
-25
41
-4
0
13
12
-16
-38
-13
11
-29
-22
8
-34
2
21
19
-26
42
14
19
-18
-92
11
15
-6
-8
-48
-12
55
-10
-8
24
-35
61
27
20
0
-25
40
60
0
1
-14
-47
36
-57
22
-18
11
-7
9
-61
14
-1
53
-28
41
36
-35
26
-4
1
-4
12
23
4
-22
-4
1
2
-38
-33
-75
25
10
47
5
16
58
34
91
-14
17
46
3
-13
-7
58
13
6
21
-1
-6
-15
81
20
-39
7
-1
-28
-47
-10
31
-5
8
5
29
6
-9
33
-16
15
-6
-11
4
6
5
58
14
-13
13
58
-1
-19
13
6
5
6
44
22
29
7
-14
-31
13
-28
-15
18
-35
-6
-35
-79
1
12
34
-67
36
1
-6
15
-4
37
14
10
6
-9
30
-21
13
11
-17
18
12
4
-32
-33
4
1
-11
-8
16
-4
13
0
23
-5
-7
-3
0
-6
-5
3
2
-5
-20
2
-3
11
20
1
0
-1
-34
-5
-1
-2
-9
10
-2
-3
5
3
-2
-14
-5
-25
-22
2
34
7
15
12
-7
-3
-15
1
127
-10
-11
1
2
-18
-41
2
3
-16
7
10
5
-13
-4
-1
19
-2
-10
4
-32
-2
5
-11
7
4
-1
-4
-2
-2
8
-7
3
-2
9
0
-2
3
2
-6
14
1
-4
-3
-1
9
-9
33
-1
14
-1
-7
14
-9
-5
16
1
-1
17
85
-7
21
2
-2
-1
-6
-32
3
-14
10
83
32
-25
-22
1
-3
-1
14
-25
6
-6
-3
-1
-28
13
-8
-37
-19
7
4
-9
6
17
-2
8
1
5
10
5
-24
4
4
1
0
1
-5
5
-10
-4
-2
-6
-6
-6
7
-2
-6
14
16
-15
-10
2
-7
-9
4
10
-11
2
-14
-3
-2
-9
0
5
12
-100
9
-5
23
2
-7
-2
-33
-2
-8
10
7
0
0
20
-2
28
5
1
23
3
-5
-4
-4
-19
-15
2
-8
1
9
5
-2
0
-9
-1
-5
-4
-11
0
-4
-43
9
10
-2
12
-2
-7
24
-16
-4
3
-5
46
2
9
-16
-6
-5
2
5
-24
-8
9
-2
-1
0
-6
2
-3
-2
-6
-3
-3
-5
10
7
5
-3
20
17
12
2
-17
-33
6
13
-29
11
-6
-121
34
-1
-1
-6
-12
-7
14
17
14
-17
-3
-6
-11
-6
-1
3
7
70
-1
-9
127
29
-2
7
-13
7
-21
-14
-17
-35
4
-8
-1
0
-11
17
-3
-7
-5
6
8
14
-14
7
13
0
-6
-31
-11
3
-8
1
-7
-8
17
-2
-3
9
-15
-8
-8
-4
-1
24
-10
0
-13
1
-6
10
-5
1
-7
16
27
5
5
8
2
11
6
2
3
12
0
43
50
-4
3
0
13
21
81
-11
-11
2
-18
10
-8
13
-13
27
6
4
-11
13
-4
-14
-26
9
10
3
34
-94
-4
-8
15
2
-6
-8
-8
-3
-38
-1
0
16
10
11
4
0
27
16
-9
-1
5
5
8
11
-11
-2
-3
15
26
-3
-3
2
6
-2
-1
1
-4
4
-5
-2
-1
10
-12
20
0
0
-23
4
2
4
-81
-10
8
15
0
-24
10
24
8
-3
-15
23
-20
-2
5
7
-22
1
15
-4
4
10
-12
-15
-18
-3
2
28
-5
-15
-24
9
16
-6
-7
-94
-5
-12
12
0
6
12
12
13
-9
2
-2
1
-124
-10
-10
6
16
1
1
0
66
-3
-6
-12
-18
-11
15
1
-16
-9
13
-4
-2
0
3
10
10
6
54
-10
-22
-3
-11
-3
-21
57
16
-26
27
50
10
37
-29
38
-29
79
-4
-27
-5
10
29
-22
-89
-37
45
-35
-6
-13
-19
-13
9
-17
127
21
32
42
29
-7
29
-57
-37
11
-27
23
-55
-20
16
-39
-25
-12
-13
24
20
3
34
8
-5
-3
-18
15
-51
-9
35
-72
-41
17
-10
-6
-24
15
48
-27
-21
4
67
27
3
-16
14
9
24
27
12
39
12
5
0
-10
38
6
39
46
-74
-34
9
-3
-19
-26
-10
-12
-4
30
-62
28
14
-44
0
10
5
-20
-57
15
59
46
-17
-5
23
62
34
22
-1
-11
-6
-32
18
-19
25
-6
33
22
1
30
-35
10
-3
6
27
39
47
-20
-21
26
9
-24
21
42
11
10
14
-49
20
-34
80
-20
-59
-17
-40
3
-9
3
2
40
41
2
24
-2
45
1
-59
-1
-14
13
68
-33
35
35
-29
64
69
21
28
-3
-4
-48
5
-99
9
-21
-41
2
-1
-48
12
-1
18
-19
5
-36
4
-14
-16
-4
-11
3
4
23
66
5
3
24
-30
-35
-3
36
-13
12
32
-7
5
22
-5
-15
14
36
17
-39
-5
24
-66
0
-19
-26
-43
5
-11
49
19
9
-27
17
77
-52
-41
-20
1
15
4
-6
-10
10
44
-22
-15
-23
-26
-45
2
27
-93
-7
-18
22
22
13
-2
-6
14
66
16
1
20
-17
-14
-9
1
19
-31
32
-28
33
-44
53
-51
30
1
12
9
2
31
-43
9
5
13
5
51
-25
-6
28
-1
-30
11
-17
42
-32
6
8
-50
-4
19
-4
-16
-23
-45
-35
-5
3
15
32
33
0
-62
37
73
5
75
40
-54
20
-1
-9
-7
11
4
7
0
-21
-27
0
-26
-15
95
-55
-33
-73
6
-2
-15
-17
4
27
-77
19
54
-1
-5
51
23
7
-63
-20
19
-23
25
11
-33
-19
26
3
-23
-13
127
-12
1
11
-3
58
15
-23
-6
-33
-8
-41
8
9
16
-29
20
35
-7
52
-28
78
10
7
-21
-53
-13
-8
20
13
19
17
2
-16
-17
6
6
-21
8
-37
35
14
-29
18
-12
-7
-11
13
22
-19
-33
-2
27
-19
43
-13
31
43
-32
-5
-46
35
16
15
44
9
6
1
24
9
23
-3
-20
-47
13
39
0
39
-16
-5
2
-28
32
-40
-7
-36
-32
-26
-39
-24
-19
15
-31
-4
-14
-3
36
-7
-24
8
11
-13
-21
34
4
-1
2
-13
1
-3
26
46
-9
-13
-65
35
90
-55
0
34
-6
-31
18
39
28
-16
23
-43
-63
32
10
6
-24
-2
55
4
32
7
-42
-44
-21
4
27
-17
8
10
19
-1
16
1
21
-7
-7
22
-3
-19
-2
14
-22
-10
-3
11
29
-12
-4
-7
11
-8
8
-3
-13
11
-11
12
29
-127
2
-18
-22
3
-17
-11
8
-10
1
2
1
8
15
0
-4
-13
45
-4
4
-3
-4
11
0
1
-7
2
25
0
18
20
4
9
-11
-1
-13
2
-11
-9
18
-1
-15
17
13
2
14
-5
3
-8
8
14
6
-7
7
-32
6
16
21
16
-3
-8
32
-6
0
-3
18
-9
-2
-25
19
-3
-4
18
-12
18
-33
-4
-18
8
7
15
-4
2
2
0
1
-1
-1
18
4
-20
65
5
0
-3
14
-10
7
4
-8
-11
-11
-2
-22
11
-35
9
26
-6
-9
-12
-3
-4
2
-4
22
-8
11
22
-13
-9
-6
2
16
-5
0
1
12
10
19
5
11
23
7
-9
3
-17
-4
-4
8
-15
-7
-12
-11
17
1
-27
45
-25
6
-7
-21
6
-10
14
0
4
2
-11
15
-8
10
-9
4
1
-63
12
4
-7
10
-4
-33
4
16
-12
-33
12
-2
-3
32
-11
-7
20
-4
-14
6
-2
0
-26
23
-6
7
-13
8
-7
73
-23
-8
5
4
-11
-6
6
-3
-1
0
11
0
2
10
60
9
-12
0
-2
-1
-1
-12
0
-5
-2
-21
-18
-6
-33
-12
-29
-71
-83
-29
-11
6
-74
-16
-17
-35
-46
-12
-19
-1
30
19
-6
-47
-54
95
-6
1
33
10
-12
-7
-17
-8
31
2
-30
9
-15
-13
29
3
10
6
-5
17
-22
-10
-20
-7
0
0
0
9
-1
41
17
0
-16
11
-14
0
-5
-12
-24
32
-16
75
-3
0
8
12
-55
-27
-1
-6
-3
8
15
6
-14
-14
-1
-75
-19
0
-1
26
-24
44
22
-10
22
20
5
-2
-12
4
-8
-7
-38
-4
-11
6
-39
-89
-70
-25
-16
-18
-15
-13
14
-50
9
12
5
-29
-13
-1
3
-14
3
-3
2
-16
0
-27
-5
-13
-17
29
-36
11
6
25
-7
-1
16
-3
22
-17
7
5
-11
-3
-1
10
-4
-10
-12
75
-41
6
64
-68
33
17
19
-5
17
-5
-3
-4
15
44
-6
24
9
20
-15
-15
-4
-4
10
15
-26
-38
15
4
23
54
-4
26
-6
-5
-15
-4
-30
5
-17
-15
4
9
6
-27
-15
-15
25
-15
4
-32
36
-26
-2
-33
-127
-7
1
19
-38
-22
-10
20
3
7
18
6
-40
4
-21
18
12
-47
-7
-6
-25
11
9
18
-2
-11
42
-6
15
-2
5
3
-27
27
20
-15
7
-6
-13
-13
-28
6
7
-10
2
19
-4
-43
-4
-3
10
48
112
-8
-9
-3
-12
-25
10
25
-23
17
-13
28
25
5
5
14
-4
-16
11
8
39
36
-5
7
17
7
-23
46
10
-19
-2
-20
2
-38
3
-17
10
16
-38
48
-31
5
8
48
44
4
12
-1
7
12
2
0
13
-54
4
8
-6
3
-34
0
43
34
9
-24
-13
21
1
-5
0
-16
-28
12
-14
5
26
-17
22
1
2
-16
11
5
22
33
-19
-3
11
-5
7
-24
6
-15
19
11
-43
9
-37
-2
0
-12
-10
-7
4
-15
41
-4
3
-32
51
18
-23
-11
66
2
3
-28
0
89
35
26
72
10
-54
-6
7
12
2
12
-17
-15
18
-27
33
-1
-7
-24
-48
-2
3
-4
-20
-9
-19
-31
11
43
11
27
-36
9
-32
5
12
3
8
33
-3
29
3
13
-4
-30
-18
-11
-24
31
-25
14
-56
8
-8
-40
71
-1
-32
14
-19
5
-13
-2
-1
-23
12
-3
3
20
-1
-12
66
-31
-127
18
-21
21
21
-39
-6
-37
6
41
-7
-4
-13
-11
6
40
46
-39
21
-2
4
-10
-26
14
3
15
2
9
0
-10
9
-5
16
-123
37
23
-1
-32
46
3
-13
2
2
5
3
36
0
34
-12
-32
-13
-23
-33
-18
10
-24
-7
0
-11
-2
38
-11
-10
-8
3
-21
1
10
-10
-13
-17
4
14
5
3
14
-6
4
19
3
1
-3
2
-64
-2
-4
-3
14
0
5
4
-6
-14
-6
-2
5
-2
-7
14
18
4
-1
-15
16
-14
-12
31
-1
10
26
2
1
-1
-3
39
-1
23
-51
-7
-3
12
-32
2
4
10
25
-15
8
-4
-9
18
40
6
1
-11
-127
-6
-8
0
5
5
12
3
7
-2
-3
-4
2
5
-10
9
-8
-5
4
-6
5
-11
17
-2
-3
15
-1
3
-11
-23
15
2
-7
-14
7
-10
-23
-4
1
-15
8
18
12
-1
-9
12
3
-32
12
9
-11
-8
25
24
-5
-1
19
-8
26
-12
4
12
14
-2
-8
-1
8
-9
4
7
13
6
-33
2
9
13
-6
21
16
18
-4
6
20
-11
-6
-19
-17
-2
-13
-5
30
16
-1
-13
0
18
15
-2
10
1
-13
7
3
-13
15
4
4
114
9
0
8
23
5
48
3
1
8
-20
7
-6
4
36
-9
22
-7
5
-3
6
13
5
62
0
4
-19
-5
-2
-15
-10
-15
-41
7
-18
-21
9
2
2
3
4
-10
5
2
-44
2
12
-6
12
-8
2
-3
-8
0
36
14
16
15
-4
3
7
-10
-8
-2
17
-5
-11
16
2
1
12
11
1
32
1
-18
15
0
15
-1
-11
22
-22
32
-16
-1
42
16
16
24
79
15
6
25
79
1
23
52
25
23
-3
48
-12
41
-50
-31
-96
11
-26
11
-3
-59
7
-4
75
-45
16
79
-1
31
22
-29
-15
-28
55
87
-47
23
6
-35
-6
-5
42
-30
-18
-36
-20
18
-35
-66
-33
39
-58
-28
72
-88
-34
-34
-4
-20
71
77
-28
-18
13
38
25
-1
18
-127
51
6
6
7
-3
4
-27
65
11
-9
11
-25
5
-36
-12
37
20
-47
-12
42
-28
17
8
-75
32
-37
-40
15
10
41
30
108
-12
-53
-14
-76
22
-5
-25
46
1
-4
-33
23
14
24
-27
53
0
2
49
63
19
-43
3
47
-51
-22
-21
44
59
55
23
-1
10
-22
-14
24
25
-106
47
51
-11
77
58
39
19
-28
-46
11
19
-11
-31
74
-46
18
17
15
-7
21
-7
-34
-15
6
-101
88
30
15
-37
5
9
10
53
20
25
11
80
27
-11
-27
13
-1
-27
-8
80
1
-15
-1
48
30
32
7
-18
57
36
46
-10
27
48
17
-39
-38
-8
61
20
-11
73
-31
29
-20
30
41
22
-10
-4
-49
-23
47
-41
40
22
-74
12
-13
-14
-38
43
-31
-10
-27
-5
34
-5
91
-1
3
-2
-58
-50
41
49
35
4
-37
0
-19
-85
-2
8
16
-64
-19
-11
-13
-8
-8
-4
-21
6
12
1
28
20
15
1
-21
13
14
-3
-8
11
5
9
-7
-67
-21
9
0
7
-10
8
8
1
-1
-49
6
36
29
-15
-3
-15
6
18
127
-26
-89
19
-8
-26
1
28
61
-1
0
27
32
-23
26
10
15
-22
-4
-12
34
-9
19
8
0
-7
58
-64
5
-4
-5
-3
-12
-18
-15
18
0
5
-54
11
-15
-24
27
-2
-2
29
9
17
-25
26
34
0
17
11
1
-2
7
3
13
-21
4
-23
-4
-56
4
-13
6
-11
49
18
1
-6
-25
-14
-22
9
-1
10
-4
14
10
38
17
-11
3
-59
1
-73
-23
-22
0
-1
21
1
-15
9
-6
-15
-14
15
24
-12
-4
-8
-20
-5
7
0
-10
16
-27
-33
27
-16
-9
6
5
2
26
-8
-3
-6
12
-3
18
-16
-10
16
6
7
-16
-10
5
-1
12
-37
14
-14
3
-38
-14
-19
-8
-16
3
12
-4
-20
42
3
-9
26
31
-13
-16
5
9
-21
-13
-22
17
-11
-24
-36
27
-6
47
4
-4
15
5
-3
8
-11
-21
-39
5
28
10
15
38
-5
-2
-28
22
22
17
-44
3
6
-15
52
-27
-24
9
6
39
2
-20
-15
-7
-6
13
-14
-1
-11
-13
-45
-19
7
34
3
-21
14
-12
-21
-59
9
-5
18
-15
24
42
0
-26
-8
40
16
4
8
41
3
-10
-34
14
-13
5
17
3
-12
54
1
64
2
6
-6
20
-33
10
-5
6
40
-9
12
-3
26
10
5
21
-33
-27
-2
57
-12
-16
-4
11
-60
-11
17
37
-15
41
0
127
1
-9
8
7
-24
-5
-65
-22
-17
1
6
-4
-16
-15
26
-11
-35
-5
9
-31
-6
13
-5
0
-1
24
-1
22
-62
0
19
-13
2
5
40
-15
99
-36
-2
4
-14
-18
6
7
4
3
-10
21
50
15
5
5
20
6
5
-10
4
1
20
10
36
11
1
-11
6
23
3
-67
-5
13
1
-4
-1
0
-14
-9
19
19
-9
-7
-16
-5
11
-18
8
23
10
-8
-3
-3
-1
-3
4
16
16
18
-4
29
17
-97
0
-12
-34
-47
54
-27
3
22
12
3
-10
-10
-2
30
-10
5
-76
-16
-3
-12
20
24
16
-17
10
21
24
7
15
2
-1
-5
6
7
14
11
13
-7
15
13
-7
6
-2
-26
12
-2
4
-28
8
8
8
14
-24
26
7
1
-4
10
10
38
-23
-3
-13
3
-11
-8
21
41
15
17
-17
-18
-9
-1
7
34
7
53
-11
-27
5
16
30
5
17
-4
3
-35
4
-1
3
29
34
-44
36
3
-34
1
-5
-7
3
-14
-37
10
-9
-8
4
24
-11
-2
-25
-1
11
9
50
-5
31
-9
-13
-12
-60
-3
12
-66
7
13
7
0
11
-83
-42
-7
-30
-67
-11
0
-9
50
1
7
-39
-16
-5
25
8
9
-11
-14
-60
-22
9
-31
-30
-11
-11
0
2
-23
19
-2
21
-9
28
17
31
-3
-3
-4
-41
-17
3
-4
40
-26
14
31
3
7
-3
44
3
33
-14
20
-11
-12
-18
-16
23
9
14
-7
-54
10
28
-19
0
15
18
-9
15
2
9
4
-12
-5
11
33
12
-15
12
0
-72
-7
-14
-7
-33
-1
-23
-4
-4
40
22
-8
-35
5
39
8
-11
-7
-31
-49
3
-10
0
1
-13
4
16
-4
3
13
14
-9
-31
14
-9
-10
-35
-14
2
-25
-35
2
94
102
-10
-4
15
22
-27
-41
14
20
20
-9
-26
-19
-7
-17
19
-2
-38
27
7
12
7
-9
-1
5
21
-31
-33
-34
0
-1
-10
9
-18
60
-8
-10
-17
-11
-1
-1
-6
2
-64
2
16
8
-41
36
20
-25
17
16
-35
8
-12
-6
37
30
53
9
-40
-8
5
-15
33
2
-23
-40
18
-127
12
-6
-10
8
28
25
17
-78
19
-22
-6
2
1
63
-4
3
-14
-28
-13
9
-24
-10
3
-15
-12
-50
44
7
11
-2
14
27
44
-23
-72
-11
37
17
-33
-40
8
-51
6
10
-14
10
13
-5
-31
-21
-32
32
40
49
-34
26
24
-1
34
16
-52
-7
-46
-7
4
5
-41
2
-7
11
-4
24
-12
35
-81
28
-49
-22
22
-24
6
-35
-23
19
10
-22
-43
-24
-22
1
-4
-41
-8
-10
72
24
-1
-18
32
-24
-20
23
-25
11
-10
37
-49
4
-13
18
49
7
-15
-17
54
-11
20
-19
-9
23
75
17
-27
-51
-35
37
-3
95
13
-43
-4
16
-2
-7
2
-24
-26
1
7
0
-5
0
-22
-10
-15
-34
27
15
17
11
-35
45
15
39
8
-3
7
22
-11
-37
-2
-24
25
-37
-24
-35
24
2
-20
26
3
17
-16
-41
-74
-127
-14
-40
16
19
-6
-7
53
-19
11
7
-72
-5
-3
-5
23
-15
-19
13
21
-39
25
-4
28
-31
7
10
-24
-2
7
-45
-39
13
31
-6
8
10
28
31
-23
28
90
-2
-8
37
-48
13
0
-71
5
-43
11
16
68
8
26
-1
18
-10
-17
0
-32
-3
-5
22
-14
12
41
4
16
19
-26
-7
33
-44
4
-34
-33
75
-31
41
10
-46
68
1
-16
10
-15
-31
27
1
3
13
77
23
-25
-48
47
19
-51
-34
-8
-8
-19
12
-15
38
-15
-62
-24
-12
12
14
-125
16
9
-12
-2
64
-1
-4
-3
2
-16
-15
-43
-4
-23
-12
10
17
-15
8
15
9
-79
12
-13
16
-17
-32
-25
35
9
13
26
-20
-9
6
5
14
-9
-44
-8
31
-8
-11
-9
-5
53
-11
21
-13
0
-48
-28
0
-12
25
-50
-16
-26
-6
-10
-21
-4
-16
-5
-12
13
-15
-5
15
38
13
-15
77
-8
13
-42
0
20
11
-29
10
72
-5
6
-11
47
-17
21
-48
40
-16
5
13
1
-47
-8
-1
-19
-27
-4
27
3
-61
21
-13
-14
-9
20
-26
-9
-1
-23
118
-6
4
3
-14
21
-16
-36
6
-8
9
-20
103
1
1
-12
-49
8
13
-6
19
30
20
1
-17
-13
30
14
7
43
4
38
46
-36
-8
5
25
-59
18
-67
-1
-9
-70
31
19
7
-24
72
-20
-22
23
-70
17
1
-40
30
-53
19
-14
-1
-8
20
-2
-15
16
31
-32
-28
31
7
-11
16
26
0
93
7
24
-5
18
-5
-38
13
37
9
-20
-33
13
14
-39
13
-10
83
7
-24
19
58
-5
29
-6
-1
29
0
-18
77
75
87
-57
18
24
26
5
37
-25
-12
-69
7
37
-17
-9
-127
31
-37
13
2
45
2
-3
-10
23
-1
17
7
34
30
3
12
21
-6
17
30
-31
42
11
0
-22
24
-34
-41
-5
-18
29
4
0
15
-38
-53
-33
-58
-16
-46
62
-3
-15
-29
-17
3
-7
84
-5
14
-20
13
-34
17
20
2
53
49
-2
13
-62
10
-37
37
-15
-7
-14
46
-93
27
-7
-44
-18
-85
-8
-6
-6
-59
-23
25
-36
3
-26
-14
-66
-23
1
-15
14
-19
-9
50
67
34
-37
32
-34
-18
0
12
-5
19
12
22
127
-15
21
-18
2
-16
6
-58
23
-18
23
-4
38
-26
6
-5
-3
27
-1
0
-67
24
-17
19
32
-55
2
-26
9
-37
14
21
-3
-45
-28
-33
28
-2
5
-6
16
-35
-27
-25
-17
-15
20
-27
3
31
-31
9
-7
15
-26
25
58
-33
2
-41
4
-13
-34
-17
-12
-8
18
37
-13
-45
-51
3
40
-44
-16
6
28
-27
-28
41
-9
-31
-20
17
-20
20
-21
6
69
-24
3
-1
-49
-12
-52
-21
0
-47
-8
-26
-26
-2
3
-12
-13
13
-25
22
-41
0
-56
52
57
-4
-29
-5
-25
-20
-25
-20
-42
17
19
44
41
1
-62
7
-64
-35
-3
20
-17
-56
18
13
-60
55
-25
19
-37
4
1
38
0
-46
23
8
-88
-23
-23
-19
22
-51
124
84
1
15
29
-42
11
32
-34
115
-20
0
10
-3
-12
4
-47
18
-9
-5
-8
35
-6
5
-15
-8
115
-7
-3
-2
8
-4
8
-35
-4
-9
11
8
6
23
-5
15
-17
-11
-1
-12
-35
26
-22
-107
2
9
3
5
2
17
8
-8
9
76
5
32
3
-7
-7
0
-5
10
14
-5
6
-24
7
-7
-45
18
-23
-17
1
-20
9
19
9
-5
-2
2
-7
-10
-5
-16
5
51
-28
-7
-27
23
-14
-21
33
6
-4
-62
4
-38
-8
3
52
-4
-12
-3
22
-13
18
3
-2
7
-2
-5
3
15
-46
6
2
20
14
15
-14
32
-3
-6
-2
-2
-8
-17
-14
13
3
-13
-28
12
-17
3
-28
5
-10
7
-1
-56
-2
-35
58
23
5
-9
2
-28
-2
-11
-11
-6
16
17
-74
42
31
-13
-33
-4
3
-14
-3
-8
18
39
30
-36
-6
-8
87
-4
7
3
-22
8
1
-30
-4
9
2
-4
-66
33
-8
-16
-41
-50
-1
-10
8
-5
2
-7
17
-12
3
2
18
3
76
-14
-11
-17
6
-1
-1
-5
-1
-2
38
-31
52
-14
-58
-15
1
-11
13
-12
-8
-3
12
30
-19
-30
-39
-7
-2
-29
22
29
2
-4
-2
-30
-12
-9
-4
-6
12
-21
-7
-6
-55
127
-3
-3
-7
4
22
-7
6
5
15
-4
-21
23
-59
2
-44
-27
61
42
-45
-23
5
28
10
41
-16
7
4
50
10
8
-6
-2
-38
35
-8
10
-13
17
1
-56
-21
-26
-49
-15
-36
51
-13
11
97
39
17
-4
-2
-30
-2
103
-31
33
-36
20
-2
4
4
12
-63
10
-13
27
3
-8
-21
17
13
-11
-9
-27
-10
-20
2
-4
-13
0
36
20
-60
1
9
28
10
-11
-53
82
10
25
-25
1
-1
22
6
70
7
77
94
-5
48
5
123
-7
3
-8
6
-49
-43
-71
-116
28
-14
-16
-7
-16
70
-54
107
23
-10
-4
-6
-42
-33
-127
7
-9
10
-12
1
43
59
-9
88
-18
125
108
-1
-29
27
18
96
-29
-11
7
97
-26
-18
-12
-19
41
14
-1
-18
94
14
-9
-6
28
26
2
29
5
13
-20
42
34
-9
7
37
5
-54
-23
-4
-19
-65
-8
-12
1
20
-2
42
8
46
-23
-6
20
77
-47
2
42
11
6
0
-2
-9
3
-23
3
-2
78
-21
18
9
94
61
30
4
5
32
2
59
-6
1
22
-9
-2
-3
22
-21
1
-25
105
24
-6
16
-26
18
52
-2
-2
15
-18
-3
-15
-14
7
-14
-1
2
13
-1
34
39
16
27
0
-37
9
1
0
2
-31
8
19
-39
63
18
-4
8
-51
5
5
-20
-4
3
-5
8
-4
2
-2
6
5
3
-7
4
-18
-1
-21
8
-2
9
15
1
-3
-11
5
12
-7
-2
3
6
6
13
-7
12
-13
-8
-12
-17
-3
28
-5
28
-5
12
-79
-1
-12
3
17
10
-6
-2
-2
10
2
-1
3
-6
-3
14
0
-16
-8
-16
-16
29
-7
-4
7
0
-9
-3
-4
6
-4
12
-3
1
-3
-2
8
2
-6
3
-3
23
5
3
-2
1
-9
-5
4
12
8
-19
-15
-7
1
-8
4
3
-6
3
2
9
8
3
31
-10
2
2
31
-1
10
-19
5
-29
-20
10
9
3
4
-1
-2
3
-5
66
-3
-2
-8
14
16
4
-10
33
-8
0
1
-3
-6
5
4
-12
-20
-3
7
-3
-127
2
2
5
2
-5
-2
-3
13
7
-13
-13
0
-3
-1
4
-2
8
5
7
18
13
4
-4
11
-5
-28
-5
-9
-7
-10
-7
-3
-2
11
-7
0
0
16
-3
0
-3
-6
1
-3
23
-20
-3
1
8
-14
4
4
4
-6
5
-1
2
-5
20
-19
2
-1
13
-18
8
0
-13
-4
-2
-1
1
6
-6
15
-3
-1
7
-1
-4
-3
-17
-7
-2
7
-3
-6
18
3
-12
-2
-6
7
-9
12
-6
-1
4
-7
-11
11
-5
8
0
-7
9
-6
5
-5
2
-10
19
29
44
-22
-8
-29
32
-31
-4
29
-16
18
-26
36
16
-63
20
9
2
-27
-17
-13
-20
-32
-27
4
5
-4
40
-17
24
-9
-15
-11
-22
-1
27
116
-18
34
-19
2
5
1
10
-3
-20
-18
-23
15
-25
23
24
-21
14
-25
0
17
4
-62
-34
51
-35
9
-40
11
-16
-27
28
-82
-6
4
16
-23
-6
-43
0
-11
-27
21
-39
3
-23
4
4
-9
14
22
9
-10
22
-17
-25
7
-32
-30
41
-10
11
-36
-9
-30
-29
-35
1
-2
8
-11
34
5
22
-29
-127
23
5
39
-19
-1
-44
-27
-6
8
-7
-13
-3
-9
43
2
-21
19
10
-8
-1
7
30
-32
-11
56
39
17
46
1
24
-35
-33
-3
-38
-7
-13
-12
-20
-24
-14
-24
-20
-66
24
28
-22
-48
21
-12
50
-17
2
10
-11
-50
4
5
15
-66
21
-37
-12
-20
-28
21
-4
20
-1
-42
11
-6
9
-11
-53
17
2
-58
-10
-12
14
17
-18
-5
13
-2
-1
-7
-37
15
20
13
40
15
6
-1
-2
-8
25
18
8
-6
24
-61
-28
6
-13
24
-9
41
-21
-52
-1
-39
23
28
-50
38
-30
-48
-27
2
0
-37
-70
-17
-11
-50
67
-31
7
-54
24
31
18
-5
-1
4
21
31
-3
-8
-42
11
15
9
-6
-22
-8
-1
-22
5
7
19
-6
-17
-4
34
-3
0
-17
-9
-3
-17
-14
-27
-8
-18
7
3
0
-14
-49
24
37
-26
-4
-27
-19
27
-17
127
-11
-23
-34
-2
-10
-3
11
-1
-11
-14
-27
-10
-35
-22
-22
-6
3
60
-12
30
-15
11
19
8
-22
-2
-36
-3
7
-21
29
-3
-19
27
-1
-15
0
-10
6
-2
-4
28
5
-5
51
-25
-1
-18
-23
16
11
4
3
7
-1
3
3
-24
12
2
18
-24
-41
-19
13
23
-1
39
-12
1
31
23
-15
-6
21
5
-20
31
4
-8
-17
5
4
-6
-13
-10
-3
4
34
9
7
-2
28
-20
-9
-56
-55
-33
2
-2
-6
5
-27
1
-13
-87
7
-4
-10
-18
12
7
-15
9
-48
-5
-22
-36
0
48
-39
-44
3
-11
51
-23
-40
4
-10
-47
-28
-13
9
-2
0
5
-8
2
-5
-10
-8
-15
3
-12
15
22
-20
-33
3
12
-29
6
18
-13
-3
24
21
-7
36
-24
13
-42
-15
-2
-15
-11
-29
83
-31
-6
0
-1
42
10
-2
-15
-23
-3
-5
43
2
44
-23
31
30
-24
14
21
-42
7
-21
19
37
5
-8
23
-14
-34
5
7
8
-7
4
11
-22
-15
12
7
7
3
-24
-1
-20
-14
-3
37
-10
24
38
5
17
0
-7
1
6
-10
17
-16
-3
-59
4
11
11
1
-12
0
4
3
-31
12
13
2
3
1
2
3
-9
-1
5
7
1
-3
-72
2
14
26
6
-2
5
2
9
-17
7
24
-3
-2
-5
19
7
3
17
-21
-1
-3
14
0
-8
2
-8
2
6
11
10
4
11
-11
-12
-6
14
0
3
-2
-22
11
14
-115
-48
-3
-5
-2
-23
12
-7
-24
-2
7
-15
8
-3
-11
-20
10
-4
-1
2
10
1
-1
5
5
2
0
8
-11
-94
-1
-6
-3
4
5
-7
4
19
-15
3
10
-7
4
-1
-28
-105
10
8
1
-77
-11
3
1
2
-13
-17
-2
10
5
-114
16
18
0
-10
-63
2
-6
3
-127
3
0
-33
-13
10
10
1
1
1
-12
4
5
10
-13
10
7
1
-5
2
3
-10
3
7
3
10
-13
-41
-5
3
-2
1
18
-63
15
-6
1
13
11
2
6
6
3
2
-13
-16
-70
13
2
0
-36
3
-10
-1
0
4
-9
-123
6
8
5
-1
-13
1
-3
14
7
-2
-46
0
5
4
-2
0
21
0
-11
-1
17
-3
-2
44
4
14
-4
-8
-1
2
12
-14
1
-2
12
-6
9
24
1
21
-7
4
18
-2
-125
19
1
-2
13
20
3
-10
28
113
66
-30
6
56
20
3
16
23
6
-7
-42
-79
25
-26
-16
9
-4
75
4
-8
-22
-9
1
-7
0
27
61
6
6
51
40
-9
-13
-45
-9
69
-7
-39
-24
-42
43
-2
-21
-35
-7
0
50
-42
28
13
7
-55
72
16
21
71
-10
-31
8
-55
50
16
12
7
-8
34
-3
7
-47
30
35
46
43
2
68
15
-9
2
-9
21
-38
14
-28
25
26
23
9
-19
-34
-4
16
15
0
-16
-10
23
-25
-73
44
-3
-48
10
-127
11
37
2
-53
17
51
1
29
16
56
-47
29
-6
3
0
12
39
-15
14
6
-17
-8
41
-16
25
-10
22
67
-13
-44
26
-7
-10
-43
30
-3
-9
6
-14
51
20
-13
14
0
-2
62
-16
98
-7
-9
-6
-15
-27
48
-8
5
4
0
59
-30
-54
-27
-7
59
-17
1
71
-2
-21
5
13
-6
65
3
-27
-38
41
-11
-1
18
-32
-16
-33
-6
15
60
15
-33
-11
-36
-33
-14
5
24
27
-22
39
21
10
-4
-19
-4
-94
34
-25
16
-65
-35
5
3
-49
52
18
0
46
-6
3
-29
31
57
24
-14
-10
49
-3
-54
-48
3
2
-2
-16
-19
76
38
38
-3
-5
-1
-35
-3
-21
-19
32
-30
23
-38
-10
12
-16
6
0
60
-47
-36
-5
-21
18
-63
-72
10
2
-65
-35
-3
4
-31
-40
26
13
2
23
36
-6
16
-28
-19
39
-7
4
43
-19
-21
-59
31
-28
22
28
-22
4
-54
17
26
-41
23
-31
6
27
3
2
18
-6
22
-50
-22
-16
20
-23
21
-3
-4
-10
-10
20
18
-7
34
12
-33
37
27
17
60
-27
76
-60
6
10
-26
31
1
-31
1
29
-37
10
114
33
9
-18
-7
13
-93
-53
-5
-12
-4
-2
7
-63
-34
-41
9
-23
14
-4
8
-27
3
35
5
-11
-23
-118
42
59
32
-18
8
-5
-32
5
-33
-5
-21
21
2
3
-27
-26
11
61
10
-5
-33
0
27
2
7
12
17
21
-21
-42
0
35
7
-29
7
23
28
8
4
13
49
127
-78
-2
66
38
-23
-58
-20
-84
6
-15
11
-62
5
96
43
0
-65
-9
32
-6
22
23
-35
15
-33
57
-16
4
30
56
13
11
32
14
-20
-4
0
3
0
-12
-9
-9
-16
-10
47
-2
20
6
-24
18
-35
-83
-51
-80
10
-32
-3
7
-34
81
13
-87
75
-26
-4
10
17
-21
-17
-30
33
13
-99
-6
-62
60
-53
9
-4
22
23
45
-17
19
7
-13
123
38
9
-75
9
-8
-4
-19
19
-11
25
7
-58
45
12
31
13
-33
-37
-25
-69
13
44
9
-17
14
-4
33
-19
-3
10
-7
-17
-90
16
127
76
-24
-36
-5
-5
-8
-16
-62
16
-6
13
-39
-1
-31
-41
-26
9
-2
-16
-13
-1
31
27
17
9
21
-9
2
-11
-17
3
-10
-6
-13
25
19
25
-38
-4
3
35
-46
-32
-66
3
7
-4
-30
-17
-12
-1
22
-1
-29
89
21
2
-18
7
29
-33
-1
42
24
-9
17
-6
8
38
16
26
-43
9
4
-10
9
-27
7
7
32
1
61
-9
0
-34
-18
-2
1
27
25
4
12
4
-19
21
-8
-7
1
14
15
2
18
-1
-1
-35
17
29
40
10
27
21
-7
-19
11
-9
12
-15
-1
-17
17
55
-16
-25
36
-19
-6
-19
45
1
0
9
-19
12
26
34
-37
-10
0
23
15
-65
41
-22
-18
15
10
17
-72
-11
-13
12
-28
-26
-6
16
2
-45
15
21
11
-1
0
61
-16
21
35
15
-27
0
-15
-33
-22
5
9
-25
-2
7
-2
-62
-1
-7
-17
4
4
19
10
-16
13
-8
26
-15
-53
3
-43
13
15
90
43
35
-25
-10
19
-41
-39
-89
6
-51
26
23
-54
52
28
28
-19
-123
36
-21
-28
-8
-52
-46
-63
2
37
-16
-29
-20
-42
17
-113
1
-19
-32
60
-11
-19
-8
-13
2
-18
-11
-27
-23
-15
-3
4
4
-48
-12
2
-7
2
-35
4
2
-72
-41
18
-6
-4
16
-4
-15
-24
-18
12
-20
-9
2
16
22
8
-11
-3
-16
2
-19
-1
3
18
-15
13
2
-5
-11
-3
17
-14
-1
-34
-10
17
-9
1
-10
-6
-63
52
69
17
-17
-2
23
0
-29
-1
14
7
4
-1
-7
10
2
-36
8
16
-1
-3
8
8
7
-23
14
-3
12
16
15
-75
-20
6
-4
18
2
3
-10
-3
-37
16
5
-8
1
8
10
-9
8
-7
-4
18
-10
-6
21
-9
2
-11
-7
22
-8
-8
2
5
-4
8
-6
4
3
-8
4
54
10
2
-1
-30
-7
-6
19
-3
102
13
4
-45
-6
14
5
9
-127
-43
0
-10
17
-24
-6
-18
14
-8
26
4
-30
104
-4
-6
-8
7
-6
54
14
8
13
32
-21
-1
6
-22
9
-45
10
-10
-1
-9
-4
-5
25
37
0
7
5
3
4
24
1
-3
-7
1
-2
22
-33
-1
9
11
15
3
-1
8
-15
-9
-11
-18
-7
79
2
27
5
-35
-54
8
16
15
-13
-6
-9
-17
34
-4
-1
-12
-29
-9
-1
-1
-5
-7
66
-14
-16
-11
-6
24
-1
13
-9
0
4
-63
-34
-1
3
44
64
-3
1
10
-10
-4
-4
-21
-4
-9
40
-40
11
14
20
14
29
18
-15
-6
13
-13
-50
-3
12
-7
58
14
36
12
29
2
5
6
127
-60
20
7
15
10
15
20
-15
20
40
13
-1
0
-13
26
-7
-22
10
10
-1
-17
18
7
-33
-10
-8
-11
68
-79
-13
-4
15
65
20
41
-4
-16
9
-13
22
-3
-26
-52
8
15
15
-7
-101
16
9
-6
67
-44
-17
14
-62
18
-10
1
-11
18
12
17
57
-12
-10
9
-10
10
-4
0
-78
13
-62
35
-29
-23
-11
5
-19
6
5
-16
4
19
34
6
13
-10
-8
-8
22
4
-8
10
12
6
-11
-23
6
17
-16
-31
20
5
-8
28
7
6
-71
-32
11
-13
21
-21
21
12
10
-20
3
8
14
-8
28
-50
1
21
-10
-5
-31
-7
-37
15
-63
72
-13
7
-14
20
26
-4
-32
23
8
13
-69
20
-6
13
-4
-28
-3
-17
-27
-17
16
19
2
-4
1
-39
-38
38
17
-1
12
13
19
47
18
17
12
-6
20
-3
-3
1
1
8
3
-54
-1
-13
-2
31
-4
-15
-11
26
16
-3
17
12
3
-14
-17
-15
9
15
-5
-23
2
-60
13
-27
6
7
20
24
2
-12
-34
-17
5
-4
-6
-5
11
19
16
13
-18
32
-2
-7
-37
-22
-9
-59
6
13
-13
22
-17
20
-15
2
12
18
10
30
-15
34
-15
-8
-40
-1
12
29
-9
-32
-7
18
17
-3
-5
30
26
15
-1
-11
-1
20
-16
12
39
-8
29
2
-22
12
8
42
-29
50
-7
-3
10
-10
-4
-20
3
2
-12
-64
47
12
17
18
-23
6
-23
-8
-34
-5
-5
6
-2
-15
14
13
-21
-4
13
-23
6
27
34
13
18
-89
39
-9
23
-39
17
18
79
-11
-23
1
1
14
-13
-48
-4
20
36
-28
-1
-40
3
-26
-11
9
-18
36
-48
-13
-3
-45
30
-127
30
41
19
-40
9
-13
26
9
46
-5
22
17
21
8
-13
-11
9
19
9
-2
25
11
-24
4
-7
40
13
34
-5
14
23
-23
-12
5
23
19
21
53
8
28
-4
-49
28
-46
-6
-19
-7
42
9
-45
13
7
19
21
-9
-12
-19
20
3
-12
3
31
-79
29
-12
-33
1
-4
9
-7
101
-15
41
8
-21
5
24
-28
-2
-39
27
-44
-2
-14
12
-28
5
-6
-2
-37
27
-10
12
4
-1
2
-14
17
4
-52
-6
2
23
12
7
29
-27
-42
14
-52
72
-27
-24
-1
16
8
9
1
8
-6
-34
-12
6
46
-10
-20
12
-16
-12
-3
19
45
23
15
-60
-2
-2
19
22
17
-19
-53
13
-12
-15
-90
16
6
-8
-28
-5
4
-1
49
-37
-12
22
-10
11
-26
9
9
-10
-3
11
31
-16
-5
-16
36
-3
-29
-28
20
-4
12
-1
16
-127
-29
12
33
-15
0
1
-22
24
38
14
-41
2
16
0
-12
24
7
65
-24
24
29
-19
7
-29
-2
-8
1
-59
28
9
18
4
71
-22
10
-6
9
-27
-5
3
0
55
5
6
7
16
11
3
8
-27
-3
-30
-16
-36
22
8
7
9
-4
3
37
45
17
57
-5
-1
-43
-37
8
40
-14
-5
4
-16
23
1
5
24
24
24
20
2
-7
6
-17
-1
3
8
-17
59
19
-11
-2
6
-2
12
-2
-2
21
13
-23
-3
-7
-5
-12
9
4
-5
3
24
5
-25
0
-30
-1
37
30
18
22
0
20
25
-2
-29
12
-31
49
-3
48
-19
4
27
8
-14
5
-58
26
8
71
21
-4
97
-20
16
5
-46
3
-18
14
20
73
5
26
1
-1
-12
4
9
28
34
-3
31
28
-4
1
18
4
-62
7
45
34
-30
-15
30
4
25
21
-5
-14
-13
6
31
6
55
5
5
29
-21
0
83
-7
23
66
-13
50
12
-22
14
-5
16
15
26
-8
-27
18
22
8
-3
19
-5
2
14
70
24
14
12
-69
-10
-20
-52
44
-19
-33
-44
-23
-5
56
-23
-40
-4
-10
-49
11
-29
-27
26
46
21
24
1
-11
-4
-54
-47
-15
-6
47
10
35
19
-6
-7
16
-24
-55
37
-20
-37
73
-10
2
13
28
-8
14
-7
20
56
64
12
25
-25
34
-22
-1
1
-44
-34
52
-23
12
13
38
-41
13
-17
-34
-33
14
-74
32
3
23
7
-36
-40
52
-28
15
19
4
-24
16
-14
90
43
76
46
-3
-55
12
8
16
18
13
-52
40
37
-38
-40
-35
-23
-31
35
11
-62
38
-30
-25
-35
-19
-22
-4
74
34
-26
45
-34
-46
32
12
-64
-11
52
-3
-2
-77
59
-10
-13
-54
-127
11
-2
-23
46
-37
15
-91
26
4
-9
100
1
-1
-52
53
-4
-9
-8
-5
-31
-12
-89
-48
-9
-41
-13
37
-39
42
19
5
-8
10
-69
-29
30
-10
-49
-16
-10
-27
2
27
-12
22
34
-14
17
-16
-73
-37
-88
-9
5
-15
-14
60
-14
-26
-5
33
-82
38
-46
33
-5
-7
31
8
1
-35
-3
2
-24
77
-50
-5
-23
-20
-38
-53
18
10
-23
7
21
-37
23
-17
17
19
-61
-55
53
-55
38
-5
-110
-10
65
-16
3
15
-18
13
22
-22
54
-3
-13
-78
8
19
17
7
-78
-81
13
40
36
37
-23
-54
-19
-1
4
-1
-4
-17
6
18
-44
6
-2
-18
-13
-30
1
-3
19
25
-3
-3
-24
25
-11
32
-10
-9
-11
23
2
-28
50
10
-6
4
-7
-4
-21
9
-9
14
-3
24
0
30
-10
18
-7
32
3
1
-3
11
-5
-4
26
-26
6
0
-22
14
0
22
-4
-17
127
4
-13
-16
-9
-19
-25
-14
4
-3
-18
-16
-2
-5
2
0
16
0
-11
8
7
22
5
-3
28
1
-4
12
-2
-13
32
-11
-2
15
-7
-10
-4
-20
-38
-6
0
-18
20
3
-13
-2
-5
4
5
21
11
11
-1
-1
5
65
7
35
17
7
15
25
-1
-17
21
-9
4
2
-1
-35
0
-8
-2
-9
-14
-8
-10
12
-11
-1
-11
-2
0
-3
-2
-15
-7
2
12
-8
-6
-12
10
11
-18
-7
-27
-2
-24
42
4
9
-2
-3
-53
16
-27
-2
13
-16
2
-14
92
-6
-16
-17
-1
4
-40
-4
34
-11
-19
-33
-30
4
0
0
8
9
5
3
-14
-2
9
-6
2
-26
3
23
-9
11
-40
10
1
21
37
11
7
4
-11
6
8
-2
14
18
-8
0
6
-21
25
37
-19
-9
5
3
-26
2
12
9
-26
-1
-11
-1
-16
18
-4
-8
13
2
10
4
-5
23
-5
17
-8
-13
18
-7
-76
6
5
26
34
54
5
6
-27
18
19
-48
-1
-9
1
-24
-25
-6
-4
42
28
-22
16
-9
-16
3
0
-10
-73
42
-4
4
-4
-5
24
17
11
17
-39
6
-8
29
-2
5
-17
20
-13
5
-2
33
-4
-117
-20
-12
-66
-11
-1
27
-16
1
29
-81
22
-16
-15
-1
-7
-2
-2
3
23
-22
8
8
-3
-4
-55
-17
7
-33
2
-127
12
-3
0
22
-3
1
11
-9
-14
-4
-18
-6
8
-19
6
12
5
11
96
15
4
-32
-3
2
-2
1
7
16
-3
-56
-76
32
-49
-2
-18
2
-1
5
20
10
-8
8
9
10
-8
-2
-4
-29
2
-9
11
6
-9
25
-43
12
66
4
18
17
17
-12
-12
3
14
-55
-1
-4
-5
-55
12
0
-11
24
14
-1
70
7
-20
-14
4
-20
2
21
-8
33
-28
5
26
32
6
9
56
0
4
23
11
3
-86
8
-27
1
-17
35
-3
-15
2
4
4
-13
17
13
8
8
-3
18
15
24
-4
-58
5
8
-7
21
0
7
7
68
7
37
-17
1
0
-20
-2
-19
-8
-24
4
12
16
-29
-4
-8
0
-1
7
6
11
-17
17
-5
0
14
-9
13
22
-48
-23
-13
28
0
-8
30
-5
15
16
12
-70
18
-10
7
24
-29
1
-5
-12
44
-16
27
24
-28
1
-4
22
-38
8
-2
59
-16
-16
0
-7
1
8
48
-21
-22
-36
18
-33
31
-5
-11
-38
-54
35
7
32
37
1
-6
-13
-3
-3
-10
13
-6
32
5
61
-32
4
22
-17
-27
28
-31
26
-14
13
28
45
-11
-17
-14
-127
-37
-22
-30
11
-4
-15
72
-21
-18
13
22
-10
5
-18
31
-14
-26
8
-30
1
29
2
14
15
-19
-49
26
6
76
32
33
-14
-5
5
-37
-14
1
-12
-27
-34
29
-16
9
2
-39
-4
-41
-18
-21
-14
9
-20
-16
18
-5
-5
-12
-8
-23
-25
-2
51
9
-4
40
41
7
-19
13
-22
13
-32
-9
9
-9
-45
-18
16
-46
4
13
-28
-8
8
33
-12
26
-37
-14
-30
-46
-3
3
-62
-39
3
-13
-27
-6
5
-18
9
-29
10
-40
8
16
3
-18
8
23
-29
-16
-8
1
11
19
32
11
33
17
-12
-81
-24
-10
6
-12
16
-7
0
-20
14
14
-10
5
6
-23
0
-22
40
-18
-10
-23
22
-13
14
-41
7
2
-2
21
34
-1
-32
-22
-2
-11
42
-43
50
-4
-32
-5
23
5
-43
9
0
12
-9
7
-21
85
-15
24
-13
-36
-2
-28
-9
-33
-18
62
48
-7
-2
-3
-14
-31
-5
10
16
34
-42
-36
8
-11
30
-62
20
14
-18
23
-17
-3
-44
-12
24
51
-12
0
10
-9
8
15
67
-1
1
13
3
21
-11
28
11
-47
13
-4
16
-18
-23
58
-59
26
11
0
-25
15
-29
40
-34
-43
14
63
65
-16
-10
-5
-3
7
-66
-78
40
19
-10
5
-1
-108
9
-13
21
114
-14
40
-3
14
-108
11
31
10
46
19
0
5
63
-24
-29
-44
-4
11
20
-2
44
30
-14
9
-75
27
10
23
-10
23
-30
-64
28
-54
40
-24
-10
-50
20
-36
25
-9
-42
-25
26
-1
35
-13
-12
27
-5
-31
-48
5
33
-6
39
-9
29
-37
-127
8
36
-1
-25
8
-5
-55
8
-19
-79
-48
15
-2
-16
-21
4
30
2
25
-4
30
20
1
-42
2
19
-33
78
-24
-5
34
-2
28
-69
-72
-21
-95
-68
88
-38
9
-14
17
4
7
60
16
4
55
-43
8
-18
-27
9
16
18
-5
16
-21
-10
23
-10
35
5
48
-1
4
13
-38
-5
-5
-44
16
34
9
16
-13
18
38
47
7
-5
4
0
26
25
-5
-8
-29
-7
1
80
6
91
2
21
21
-26
6
-36
5
-7
22
1
32
-1
30
13
-36
-59
-21
44
-36
-127
-32
22
-13
5
-19
8
15
11
-64
11
-18
38
89
-27
40
-71
8
4
-4
-8
4
10
17
-3
-11
1
30
21
64
3
13
27
13
-5
7
7
19
-20
-40
12
5
1
27
0
-16
16
-1
1
15
-14
-126
-8
35
-16
-49
0
-9
-2
35
-18
-40
6
36
8
-3
-11
48
8
0
30
14
20
25
-7
9
6
11
6
15
12
17
-19
12
4
-3
-15
11
9
-8
-20
-16
8
6
6
7
23
12
2
-1
-18
-19
26
2
39
1
-16
-62
13
-27
-14
17
-12
2
-24
-30
-46
18
0
-1
10
6
6
33
-8
-30
3
25
19
32
18
-15
4
-74
127
26
6
16
-24
7
11
25
19
-2
8
-2
-68
-4
-23
21
8
13
-36
-5
10
-39
-38
-2
-30
96
-1
-21
0
11
5
7
-23
-7
5
-3
-18
-4
-6
9
7
-5
7
19
20
-2
75
34
8
5
12
16
-27
12
18
-19
-22
-8
-3
21
-10
-10
-1
15
-17
-13
-26
-1
16
-14
15
4
-1
0
16
-8
6
-22
3
0
-5
-5
6
-1
2
24
24
42
-17
-21
-14
43
-10
-10
14
-20
-19
7
-9
0
-46
10
71
0
-25
71
24
0
27
3
-24
-7
-42
-11
5
9
-23
10
-30
12
11
-7
14
31
4
-22
12
-34
4
3
0
-19
-32
-1
5
6
-17
-14
-12
16
20
24
21
10
3
9
-3
20
-2
-1
-12
16
7
26
-8
-1
16
-93
-5
4
-45
-2
-10
-9
-8
9
127
4
-2
-30
-4
8
7
3
-36
-1
-10
2
-2
37
22
-4
-9
-15
4
1
6
32
5
-7
9
-87
-2
11
0
-4
-3
29
6
-51
-8
10
2
18
9
17
-4
-1
1
-33
-61
26
-9
11
-25
82
-1
21
8
6
8
21
-9
0
-25
8
-3
-5
11
17
-4
-9
1
-17
9
5
22
-15
-21
-8
-2
-3
10
-7
1
-1
5
29
-5
-18
-1
-4
47
4
6
-7
-8
-20
-5
-12
1
-4
-6
-12
1
-4
2
-2
5
-1
-1
2
-70
-14
-31
-7
-7
-15
-13
-4
3
1
-4
8
22
29
-17
20
11
16
2
4
5
-2
-14
-8
-1
-28
-5
20
6
4
-3
-15
10
7
1
9
-12
24
33
7
34
25
-10
-14
25
7
-1
3
-8
-53
-12
-3
7
-6
9
-48
-5
-15
2
-2
3
-6
15
9
-8
10
29
-35
0
6
3
-2
2
-28
-11
-28
3
11
5
16
-13
-39
13
21
-3
0
27
6
-28
5
1
-10
-10
-3
-3
12
-5
0
-14
-7
0
-9
0
-14
12
3
-11
-6
14
-10
6
-16
-22
53
1
3
6
-24
-44
4
95
18
-5
-20
-9
-2
14
43
7
15
-16
-20
-4
-4
15
21
-11
-6
4
19
-2
-8
12
-3
125
7
14
14
11
-32
-7
40
2
8
0
4
-11
6
20
21
10
-13
10
1
8
0
9
-1
19
-13
12
-22
-13
-11
-15
0
-4
-26
-40
-2
-6
5
12
0
6
-2
-13
2
127
14
23
-25
-3
-5
-10
0
-11
-1
-6
-6
39
-17
42
7
-1
-6
-5
-7
4
6
-16
-23
-27
-6
-4
-43
-15
-10
4
-27
31
-24
-47
2
-22
-8
2
4
-2
1
-8
-2
-7
11
-5
-8
-24
-22
-17
5
1
3
-11
-3
9
6
-14
0
2
12
-1
-18
8
5
3
2
-14
-4
5
3
-9
-4
0
-8
-19
19
0
-5
10
6
10
-25
12
30
2
3
1
-16
8
13
-23
-36
-13
-17
-15
4
-10
16
17
-9
-4
9
35
10
-2
10
2
-10
6
5
-33
1
-24
14
9
-10
-12
0
-14
-34
3
13
4
1
-8
-3
-5
-11
-8
3
5
-10
6
-6
-9
-9
-20
7
-13
-16
8
1
-17
13
-5
13
12
6
18
-1
4
19
24
38
-1
-6
-7
0
-22
5
0
-5
-7
-1
2
47
6
-3
16
-3
13
-6
5
15
1
-8
-29
-17
-3
-15
-16
-11
2
-4
-3
21
-5
-11
-6
-67
127
-28
23
12
27
29
8
-33
-39
-26
-18
23
-42
-54
16
62
-46
79
-32
21
-100
-7
-21
75
6
-1
-68
16
9
73
81
-33
-3
-2
-17
-2
-31
-4
-1
-20
-16
18
-5
-3
-30
-2
15
-33
9
-44
25
-73
4
-1
36
-17
-8
-31
-2
14
-21
-22
20
-3
40
42
15
26
4
24
-65
36
21
8
13
-23
13
-24
39
12
5
-64
13
29
51
5
34
55
-34
-15
-4
-3
-45
0
7
7
-53
-32
41
3
-21
-6
-21
-3
1
-49
1
-68
31
-91
-24
-6
1
-10
3
6
-10
3
-1
1
-13
-8
1
45
-42
-30
-9
-64
-24
-7
14
5
-19
-12
16
-21
34
1
13
18
-36
18
2
55
-77
-33
91
29
39
30
3
-10
-41
23
18
37
-25
-58
-40
-13
33
-6
-28
-74
-33
-35
3
-15
-20
-37
1
-15
-60
-51
24
17
18
0
42
7
-87
-5
-6
-13
-7
-6
-41
-30
-14
8
-11
10
-9
-1
46
89
-24
-28
115
14
0
26
-21
-16
-33
29
20
-2
23
82
-39
7
-40
-114
18
-26
28
-39
-16
-15
39
18
-10
-26
33
-19
-2
37
-13
-9
9
35
3
-15
0
21
-32
-8
-24
23
-97
63
29
-7
28
23
26
-39
18
29
12
-26
27
-41
-5
13
-29
32
21
-9
4
10
11
-25
31
-4
10
-26
-10
6
13
37
-20
11
7
-1
20
22
-35
33
22
-8
-20
-51
-27
14
5
10
-6
16
-8
-20
-21
-6
7
20
30
-8
-4
9
36
18
-21
19
11
17
-1
6
-25
10
7
-25
-13
12
6
19
3
13
7
-2
25
-13
41
-1
-1
2
9
-7
47
-8
16
-2
1
-4
35
8
-24
-21
-2
1
1
-22
-3
-33
41
3
-8
61
19
3
9
-4
1
13
-5
8
46
23
33
9
2
1
-2
-11
22
3
19
-1
-15
13
10
4
-9
-3
1
-8
29
-10
4
12
-2
-20
-1
-1
-6
8
-17
-35
8
3
-31
63
-10
-10
-8
7
-25
-1
1
4
1
-9
17
11
22
-14
19
23
-1
-10
10
7
4
-17
127
-80
15
-11
-4
28
12
19
0
8
-18
-6
5
-23
7
-13
-12
9
18
29
-14
-14
-1
-7
-3
16
-9
30
26
-13
8
4
17
-26
5
36
-10
-19
17
8
12
-3
1
5
49
-44
15
-31
-3
15
-1
-1
-18
-4
17
8
17
-20
12
2
-7
-36
6
12
23
-1
13
-31
6
-24
-11
20
-5
11
16
65
13
-22
1
1
-9
3
12
-13
-9
59
1
23
4
-17
-12
-4
-7
-2
-39
-5
0
-16
36
14
-60
-8
12
7
2
9
-17
-14
-23
16
-52
-6
-8
22
-34
5
1
-5
3
5
-8
-21
-4
-4
38
1
-9
-19
-31
0
-4
8
-13
4
-5
-7
1
46
4
2
3
8
1
-17
5
2
5
-1
-21
12
7
-21
14
1
40
-47
32
-5
-13
-9
-8
3
-11
14
13
-10
-6
20
-17
0
-15
-10
-2
13
13
-14
3
4
1
28
-4
-5
-14
7
-12
-4
-1
-3
-4
3
-11
-16
8
7
32
-14
13
-32
-8
5
13
-7
-1
16
-3
-15
14
5
-58
-11
-18
-7
0
-1
-2
10
1
0
10
-5
3
5
0
20
9
-50
-6
1
-10
-9
-40
7
33
12
68
-2
13
1
-23
10
-6
-6
127
8
-11
-35
-10
-25
-3
-13
-9
-10
20
-5
18
-19
-6
-22
2
-5
-5
-29
4
-21
5
-1
2
-9
15
8
5
13
8
2
-33
7
-5
-1
-34
-32
0
-11
8
0
-6
-37
6
-2
-10
1
4
38
-2
-6
4
-51
2
-1
0
-8
27
16
-4
21
6
34
15
37
4
-13
1
-13
4
17
12
-4
9
7
-9
1
-4
-17
-6
-8
0
-2
-10
-6
-14
-30
-4
-5
3
-4
-26
4
13
-10
-1
20
-23
-7
3
38
21
1
-8
-22
-7
-28
-29
4
-14
-30
-45
3
-68
-46
-25
-18
-12
-35
10
14
-25
2
64
52
3
18
15
-18
38
-27
-50
20
-25
64
8
-67
-37
24
-14
-47
-52
-58
-30
44
-16
19
-69
9
-18
-50
-5
19
-12
-1
-25
61
9
-4
-53
-61
81
-13
48
56
7
-26
-8
20
100
20
-15
28
-9
-2
-39
-1
8
-21
13
1
-35
-32
-64
-11
-24
3
-54
-48
-3
58
37
47
35
-58
32
-20
-31
34
-43
17
26
-40
-19
20
54
-73
50
63
-46
-28
28
-28
-38
-68
-4
-14
-74
61
50
-19
-6
-65
43
-10
-1
-8
41
-25
20
-45
71
-27
-36
-36
-44
-26
-26
47
10
-14
-32
-13
8
-28
-127
-36
-15
-14
-8
40
-41
-2
-36
9
-25
-57
-20
-4
-13
-70
-32
12
23
29
37
-21
36
5
36
-27
-6
-31
80
-36
-40
-13
17
-8
19
-12
0
-76
-34
-9
11
-4
35
-15
38
-37
-43
-29
6
5
-29
-3
6
7
-32
-25
10
-62
-5
44
11
50
-37
117
-26
-9
-24
-58
62
32
-16
31
0
57
0
-29
6
-44
-44
-29
17
49
72
-25
19
21
-41
9
-41
0
-30
-15
-17
116
20
50
64
23
74
48
-64
86
16
-32
-26
-93
51
35
-13
29
-35
-75
-21
13
-25
46
-10
-4
2
-44
-32
29
38
39
-101
14
-13
28
2
-24
-5
-36
-6
36
-68
-44
8
86
69
17
-8
4
1
26
-27
-23
-17
-34
16
-55
-9
-42
5
-8
-12
-15
-73
11
-36
-5
-4
-48
-24
13
-15
-5
-9
4
7
-37
14
-9
-10
102
3
-9
-12
-7
47
-65
21
-17
-22
-14
10
2
3
6
45
-65
-34
27
24
-3
30
-59
-10
1
8
-53
-1
-1
-2
-39
3
-3
0
-18
-12
-25
-15
-11
-3
-14
16
23
-25
13
89
81
-94
-64
11
-3
10
-5
-6
0
-3
-59
-102
-27
27
9
-45
-3
20
3
-4
22
23
-17
31
-16
12
-10
-14
-12
2
-63
-8
-14
20
20
-28
-2
0
32
24
34
-9
-11
-26
26
-17
-22
-9
-8
-29
-44
-18
-34
-13
-11
0
-22
36
7
-70
-17
-39
-52
31
-25
-2
-47
28
0
-3
38
-48
21
50
4
-90
15
3
-3
15
3
-33
4
34
-27
14
4
5
2
-3
-13
-2
11
13
30
-1
10
-62
-12
3
15
109
4
9
-5
-15
19
-18
-31
9
43
3
-34
-15
-16
-26
-35
40
106
-53
3
-23
-25
-50
5
12
10
-17
13
2
8
1
-29
19
32
-21
3
6
-58
-24
37
-5
18
-16
-2
3
8
-9
22
-3
-41
14
-75
127
-7
0
10
-3
0
6
18
0
-11
11
11
0
-10
5
5
8
-19
12
-4
49
-11
-11
4
-20
2
7
38
6
-8
21
-3
5
-5
-2
5
-9
-1
10
35
-37
24
-16
-14
-23
-4
0
-68
0
-26
5
-7
-5
10
-4
-24
15
0
-1
8
7
-22
13
24
42
-10
-2
15
4
23
19
5
21
23
16
-2
4
-5
-3
3
-5
10
-9
-15
-13
6
2
2
36
-24
-14
4
2
-4
-17
26
0
-2
-7
10
9
0
-1
18
-6
18
-7
21
-54
-18
3
-12
8
-14
5
-9
-15
-22
-6
-8
-14
0
-2
-4
-24
-8
24
-3
-5
2
-16
-18
23
-7
23
18
31
-2
4
5
18
-6
-4
-30
6
-15
6
3
5
9
8
-7
-7
3
-9
-6
11
3
3
7
-2
-19
-7
-6
15
11
-2
1
-1
2
-6
33
3
1
11
8
4
-4
-3
-1
-18
10
0
5
6
9
-7
11
127
29
-15
12
3
-1
-5
2
-6
10
-14
-4
15
0
-9
10
3
-11
-12
-28
1
-19
-16
-9
6
-13
-2
1
-5
-4
13
5
-6
-1
-12
35
-26
-12
6
11
18
16
-4
-8
3
-11
-3
-7
4
19
17
11
-43
-7
-18
-17
0
39
4
4
0
-11
-12
-16
-7
-4
52
5
1
-26
20
36
63
-30
-5
10
-7
59
-28
-26
-64
-13
43
-92
-4
43
-53
-4
25
47
-6
-9
-33
-1
-58
-34
-62
-51
18
-27
-25
-19
19
19
-20
3
15
1
-33
-42
-17
-16
7
69
56
-3
-53
32
33
-31
5
109
-49
3
-14
-31
-17
35
-110
14
4
17
3
89
-6
-22
47
-51
-11
-46
-75
12
-3
22
-18
21
14
70
-46
-3
19
44
50
-24
-92
48
-10
-55
-10
-50
8
-16
48
-57
-37
-6
54
10
-80
42
31
71
-121
-1
-34
29
-15
2
-19
-68
-16
19
21
-75
55
31
32
-3
-27
24
-32
45
-20
25
25
-29
-5
-22
-13
-82
-91
9
25
-60
4
80
-1
-19
-24
34
-48
-13
26
72
25
-38
-37
-22
-6
25
66
1
42
-61
45
-44
-19
31
0
-14
-11
-14
14
25
-127
-20
16
103
42
-46
-21
-42
-21
-9
7
-3
-44
-3
64
-1
-102
2
-27
-9
-5
-27
-52
-14
-36
14
50
31
-73
79
-26
6
-34
-4
47
22
-9
-25
-30
-33
-52
22
-17
-67
-26
-36
82
60
-5
11
-7
62
-21
-66
39
-32
7
7
-5
49
-54
-27
-55
-1
-14
-66
-43
73
-63
-45
11
-24
-53
-42
124
7
-5
-2
-44
30
-13
-4
-31
65
-26
-35
53
-16
49
7
-28
-15
-3
-22
22
-2
11
-2
18
-8
-42
-64
93
-3
-18
10
34
-43
28
49
-17
-15
8
10
11
-28
-12
11
-59
8
-11
2
-50
0
2
3
14
-26
28
-5
68
26
-35
-57
6
-35
-19
-2
-39
35
27
-22
-28
-6
-5
-45
-29
-1
-48
15
-45
6
0
64
-63
14
40
69
-1
-28
-3
15
-15
61
13
11
-9
-6
40
57
-48
7
-4
18
26
11
-20
-35
23
127
55
55
-7
-43
-29
34
-2
22
-50
97
83
29
-3
-25
-23
-13
-5
75
-8
-12
-2
-34
20
-51
-1
-15
-62
23
2
-2
-18
-6
54
-4
-44
-53
-13
-32
-25
-62
-10
-14
1
-9
-87
-38
-44
2
14
-8
8
-14
-17
-12
-32
-9
-20
43
-60
-31
-1
-5
-5
16
-3
45
-24
-37
71
-29
18
-1
-15
-32
7
-4
42
28
-28
45
-27
-97
-7
-8
67
-1
40
-45
12
-35
-29
-12
-72
-22
4
-11
57
-48
27
30
-7
-30
-36
4
-57
8
22
-11
-41
-8
6
2
53
-16
0
-14
-11
-12
3
44
73
33
19
-16
-13
5
-44
-32
12
-44
24
-15
11
25
30
73
-17
12
65
5
-30
13
-9
14
-48
-27
-46
-47
2
15
62
14
-61
50
-5
3
-8
-18
-20
-41
-72
37
-37
-28
-44
-33
-37
15
-28
-3
10
3
10
36
67
17
51
22
7
116
9
6
-40
27
-21
4
-1
127
5
-94
12
-8
-52
23
0
-5
-9
22
23
-10
3
-20
-78
-4
5
16
-37
12
3
33
-5
14
15
-4
-1
20
-3
-2
17
-9
13
9
14
13
-4
3
20
-20
17
1
-2
-125
10
0
15
-11
21
11
3
12
0
-19
-42
24
16
8
-1
-10
-8
30
-1
-3
23
-27
-17
6
11
-3
-7
-6
-28
-8
15
-8
-2
-1
-19
-2
35
-5
16
11
22
2
9
7
-4
-3
1
-27
8
-16
-30
0
20
7
0
8
-12
-8
6
8
50
-14
-4
-14
9
15
11
-85
18
0
-2
14
-98
4
-19
-4
-21
-1
-7
1
-32
-1
-2
-34
13
23
-64
104
11
-23
11
11
4
-3
20
8
-18
-30
2
37
-14
19
10
-11
-6
5
4
-63
4
15
18
-14
-97
-31
16
-1
18
13
25
2
-1
3
4
4
10
-7
11
31
-5
-1
5
-2
6
2
68
47
-3
-15
-30
7
-5
1
12
-11
15
-47
19
10
4
-88
-8
38
41
-54
12
0
19
-1
44
-15
-97
-4
-18
-9
-20
13
28
34
-9
-1
15
-2
13
-56
-3
-2
-4
27
-5
4
7
15
-8
33
5
-12
-24
50
-31
-53
-50
-36
30
-52
52
16
6
-40
-5
6
-5
14
36
-25
-5
-27
23
-34
-20
-25
2
-18
-20
-15
11
28
24
9
11
22
-40
52
-17
29
2
-7
-11
22
-15
-34
112
-33
6
32
-4
-18
0
-24
46
7
-16
-50
34
-7
-17
-23
-7
-18
-2
-6
-12
-2
-74
-8
50
-97
-26
-3
0
-26
30
41
-9
-23
29
-9
-15
-8
-95
-7
40
-6
4
-22
27
8
-34
-16
12
2
24
63
-16
23
-64
21
40
-127
-38
-7
-36
21
-46
-22
-34
59
-11
-11
-1
35
-12
34
40
-17
-18
-63
-12
-13
-26
43
12
-35
40
0
-25
22
16
1
18
39
34
-3
13
38
-1
22
6
19
-44
32
-14
-48
10
7
42
7
0
-6
29
9
-12
-12
1
-42
-33
-9
11
-42
-42
-9
18
33
-93
9
-33
-32
11
20
-31
-45
-98
-34
7
5
4
-16
-15
22
-5
-48
2
17
-49
-2
-20
34
-14
-7
-11
19
-5
2
-37
63
32
-7
-33
42
25
-6
-24
5
36
1
-23
30
16
-11
47
39
-32
11
47
-25
-8
-13
24
-29
-55
-6
31
-10
34
23
115
-9
-56
5
5
-16
-67
-37
34
-38
-21
-42
23
-1
-20
-22
21
15
-19
24
-35
13
9
16
-12
23
40
29
-26
23
18
-40
48
-86
20
15
-19
-63
4
-10
20
-11
-83
3
17
15
7
-35
-42
30
4
-8
-13
-25
-69
-19
42
28
9
-39
-17
-50
49
-14
31
42
15
45
-21
-12
-17
-3
19
-24
-9
35
-12
-20
43
33
17
3
10
-6
-23
94
-7
13
5
-106
37
-8
23
-2
-18
4
21
-40
-4
-10
-3
-6
-7
-16
-36
-64
17
25
-7
-18
97
11
2
-24
16
62
12
17
-97
127
-18
-19
-3
-18
0
5
-61
-19
3
-74
-39
21
-39
38
-20
-85
22
108
-46
27
37
26
-44
-41
-9
-12
-18
-3
-11
20
35
27
-7
-12
-7
-3
10
21
93
2
4
-18
-5
-9
29
46
-41
-31
-16
-21
67
-23
-39
25
6
-33
-18
-18
-5
2
-13
43
61
-29
23
64
2
-91
4
-75
3
-7
-49
-6
-2
-40
-50
73
-24
-1
29
12
54
-23
-42
-73
17
-2
2
-12
62
18
-16
-7
-32
4
17
6
-7
-36
5
23
9
-30
30
18
-18
30
8
46
13
-4
-67
92
7
-5
-75
-42
-4
-17
-13
-12
52
-14
37
-79
31
-34
-37
8
2
-74
13
0
-2
26
2
-23
34
27
24
1
-50
44
-3
-31
-7
-44
23
15
2
4
42
39
47
-3
36
16
18
-42
-21
-14
-7
-104
30
30
-23
-45
5
39
-16
-51
2
-12
27
21
-88
31
-8
-3
5
-76
0
-3
35
22
-34
6
-8
8
127
19
-15
0
-67
34
9
-18
11
25
-38
0
0
-79
18
14
5
-1
-75
-31
1
32
-12
63
-5
-21
30
4
-11
-15
16
-36
-42
14
18
21
24
23
48
6
-66
38
-7
9
39
-23
20
3
-17
9
0
-33
7
-9
-15
17
5
-31
-5
2
-58
24
52
21
12
27
-7
41
9
-6
19
-50
-39
6
5
-14
35
-32
-15
26
30
-28
-65
14
-6
-68
-35
17
8
27
11
-41
-44
-35
47
-7
-35
24
2
-28
-5
24
-9
-7
14
-4
5
2
46
-35
0
89
-34
-7
4
19
24
-7
32
-17
-19
-55
-3
-42
-6
8
-29
48
-96
-2
-10
-14
-10
62
-3
-28
7
24
27
24
-43
-66
-40
8
-25
-27
11
72
-60
-12
19
5
5
-9
6
-1
-48
80
1
16
-32
3
50
-39
-22
-78
-2
-2
-21
-17
-23
39
10
21
-30
1
22
22
99
14
-4
5
34
-25
9
-31
-12
2
-14
37
-13
37
-1
102
16
-81
31
-49
-1
85
-36
21
-11
-35
11
-10
39
-31
2
-20
-41
10
-7
-10
-26
18
-8
17
32
-25
37
-31
6
4
-13
-67
41
30
6
-12
4
6
15
52
-37
71
-42
37
-20
-7
-10
-17
16
13
-12
21
28
-28
22
34
-15
-25
51
-13
-25
-50
-10
11
-35
7
9
-61
-25
0
-11
22
-25
-53
16
-17
-23
8
-25
-21
-54
37
-7
8
10
33
32
53
-34
32
16
58
21
-22
-32
-20
89
17
-14
-79
-14
29
30
77
-41
-25
-32
-8
16
3
12
0
10
36
-9
31
10
18
65
16
4
5
19
-41
73
22
-4
-46
-3
-23
22
9
21
-26
14
9
3
-13
-19
-32
-6
-16
-13
51
18
36
16
-14
-26
-5
10
-13
24
-40
14
-29
-6
23
65
-36
-19
-4
56
9
-1
13
-39
-7
-22
-27
-3
15
-9
-27
56
11
-7
11
13
22
-38
8
-60
-1
35
-57
9
127
5
21
-26
42
23
1
-58
-30
-32
-8
11
-23
9
-7
-23
-68
-33
0
23
39
-9
-35
-19
-35
-61
23
10
54
7
-9
16
-12
-15
-7
-8
-6
-11
-43
24
-13
-41
-55
1
2
-33
5
6
16
10
-21
-12
21
-28
4
-33
65
-1
7
-15
7
37
-22
17
-85
21
7
-40
8
-6
-47
-10
-21
32
4
17
-23
-8
57
-11
2
29
12
3
-52
0
-17
-24
12
34
-61
26
-28
35
2
-8
1
20
44
35
-15
-19
8
14
-29
42
-20
19
-51
-5
21
18
-21
-13
-22
-32
11
58
40
-36
10
18
-2
27
-8
7
-12
-13
32
36
73
32
68
-2
34
53
33
-18
13
-10
34
-38
27
-29
-21
-18
67
-2
20
-89
10
88
10
-20
-15
35
13
-38
18
11
-10
27
-23
-6
-3
12
44
-5
-16
-1
19
6
19
-93
-35
5
-3
0
-10
-127
-31
33
-37
-35
-23
16
41
-10
114
55
44
10
38
35
52
22
-16
82
1
24
9
-26
-67
-6
-11
-23
18
3
-65
29
-12
45
37
-26
-42
4
-26
8
54
-3
-14
37
-68
-3
-25
-34
1
-18
-7
36
-2
17
73
54
109
-13
-33
70
15
3
-8
46
61
9
11
36
-8
49
17
-11
-36
24
-40
6
18
-4
12
56
-9
65
23
24
-36
7
-1
-40
24
-15
-20
-10
8
16
-18
22
-21
-10
-10
20
55
18
-7
46
42
20
-1
29
2
-13
-20
6
-20
-72
7
36
-2
-64
-8
41
-25
42
-17
-33
-60
32
-16
-20
-21
-20
-4
-42
103
35
-8
-21
33
37
12
25
-8
9
18
14
-32
-4
28
31
-69
23
49
13
-15
14
38
5
-26
-23
-2
-12
-99
31
25
-3
29
16
-13
32
41
-64
-10
60
7
34
23
38
-7
22
-55
1
3
49
2
33
32
-22
91
52
11
-10
15
-4
35
6
13
1
-20
2
-19
7
-12
2
41
-28
2
-7
7
8
19
-3
2
-13
1
-10
-34
-18
-9
0
0
-1
-4
2
-3
-3
4
-20
14
4
13
24
-20
-8
0
-2
70
11
-55
-16
28
7
31
-32
5
-7
-19
12
16
-7
44
-26
46
-23
0
-6
11
17
8
-13
9
-6
-22
-58
-6
10
5
4
-9
-6
5
22
5
4
23
20
4
-106
5
18
12
-10
-1
9
-127
-17
-3
-11
10
2
32
49
-41
10
-36
18
-13
-18
-13
-12
-3
-3
-1
9
-21
3
10
26
-44
-11
8
49
-2
25
10
-14
7
-15
-17
3
-3
-44
-1
-10
1
-20
7
-16
-5
-15
-11
3
-94
1
9
10
41
19
-10
-6
13
-4
-14
2
14
10
16
-43
-6
17
-110
-28
-4
-26
-25
7
9
-2
56
-5
74
-4
-19
-6
0
3
-2
-11
-14
-21
8
-23
-1
-1
-6
-34
-6
-100
3
8
-14
-19
14
-10
47
-11
28
-2
2
0
5
-6
-6
-3
3
2
-10
-8
23
-38
-22
3
30
-11
-6
-6
11
0
-6
35
-8
-13
-13
45
-10
-3
59
-22
-8
-12
14
32
11
-33
-10
-12
15
-23
19
27
-7
-27
-12
7
2
-12
0
-3
-27
-14
15
22
44
40
10
14
-6
2
-82
-16
-65
-19
8
-3
12
-23
-26
-12
-43
-19
-66
-9
-9
12
-3
-6
33
-47
-32
10
28
-10
15
-27
-13
52
34
-20
-34
15
5
5
-4
-31
60
-21
13
-51
91
12
5
-26
37
0
23
-49
-1
29
23
-14
-6
-1
12
61
85
-48
-13
-10
-6
37
27
-15
-40
12
-18
-5
-17
35
127
-18
2
-5
2
21
-3
15
-42
-6
4
16
-20
-47
-17
20
-1
6
-24
-33
-42
98
21
2
-3
-3
8
5
37
56
3
-117
9
29
7
13
-32
24
-10
-18
-29
-24
-12
26
14
9
11
42
-2
30
-32
20
-7
51
27
51
65
-55
-18
19
7
59
12
-29
15
-9
-7
-8
-7
26
-3
-10
24
-57
82
-4
-14
-18
4
-40
-16
-80
-17
21
12
27
18
26
36
-70
-23
15
81
-29
6
31
14
18
-56
-42
-9
22
15
-8
-15
-12
-36
36
-35
-83
-8
-16
-32
-9
-28
14
-72
15
16
-57
21
35
41
19
9
20
13
6
-14
1
-10
4
-3
28
26
41
-35
54
-93
59
-70
9
5
63
-13
-3
-19
-19
5
68
-5
-72
37
-23
15
-76
26
-51
21
-12
-108
60
46
-2
39
44
-14
28
-21
-19
-47
-39
-63
-3
-22
-8
-23
9
-14
-10
-29
3
-11
-6
11
-20
-15
-10
3
-27
102
-14
-20
-7
11
2
-10
-1
-5
19
37
-1
-2
2
18
-32
10
-10
-10
-13
9
15
-22
38
-14
1
6
-14
-11
16
14
-22
-24
127
24
-12
-19
4
7
11
-5
-46
-14
2
1
-56
-46
-8
-21
1
12
-10
9
-5
-7
-14
13
-55
7
15
-7
-10
23
-2
31
17
4
19
-15
-11
-4
-25
-8
6
15
49
11
-38
29
-14
13
-13
-34
6
-29
-9
-4
9
-11
-22
18
-26
32
6
-12
4
-23
38
5
4
1
-39
2
10
36
-11
0
-1
62
-6
51
24
7
5
-4
26
23
-38
1
6
33
-14
11
26
3
17
3
-1
4
-3
-38
-17
2
-11
38
-2
-4
-7
-31
-123
-40
18
-5
-8
-10
8
-17
5
-19
-21
2
-13
-13
-21
-22
-59
-3
13
30
-22
-10
16
-12
-38
58
29
38
-21
-2
29
11
-7
-14
32
10
48
-44
-11
4
14
13
-8
20
24
42
8
45
0
-55
-6
-51
-46
22
-2
13
42
3
-2
-8
-1
-7
36
4
-59
-17
61
2
27
16
-5
9
-23
-5
30
-18
-49
-29
28
-2
-16
-4
31
-26
25
-18
-15
3
-20
-35
32
4
4
-29
-35
5
-44
29
4
-5
6
5
-3
35
11
-21
-16
-11
-48
18
1
8
24
32
-7
121
-81
-2
-14
18
-4
51
-35
-58
-10
3
-16
-8
110
83
32
26
24
-47
-88
17
-65
-29
35
24
26
4
1
-16
-11
4
73
-13
-49
-37
32
51
77
41
28
37
-46
7
39
-12
-46
-25
28
84
30
7
24
-12
-65
-39
21
-29
-20
50
-74
-48
-32
-7
40
-7
-33
103
-37
62
27
36
-24
12
-15
-55
-3
-27
7
-27
-63
25
12
5
-28
4
64
20
11
-44
-89
-1
-1
-99
-1
-14
-8
-3
34
-125
-69
19
29
57
-7
-26
105
-17
28
-21
-18
-76
-32
2
-97
-36
-19
18
11
-18
3
-5
-10
-3
-14
7
-31
-95
24
36
-31
26
-21
-46
-23
23
19
-11
48
31
-35
1
-74
2
8
-37
10
54
-45
-19
29
127
-22
27
1
-65
30
-16
-126
-52
-17
108
26
-17
27
83
5
-76
26
-40
-23
-13
16
-31
-7
-58
-6
35
86
-11
39
-70
26
70
-10
-46
-21
-18
-50
19
21
-15
8
37
-15
-5
-58
-13
4
64
8
63
-29
11
-40
40
81
-95
10
30
-5
-8
-6
20
65
6
76
98
-55
2
19
-56
32
25
-56
-2
-37
-30
-20
-83
-42
37
-63
-18
-31
-55
-16
-50
-8
-77
-45
61
-42
22
4
49
29
46
40
-59
35
-26
3
-65
61
-5
-13
-29
-100
9
15
-17
15
8
-71
33
-20
-12
-28
-6
35
19
4
-45
-37
15
-29
-10
-63
18
33
-18
2
6
-68
37
15
-90
2
21
8
-24
-17
2
34
24
11
23
-47
42
32
13
-2
-10
-7
74
-11
31
28
-100
27
10
18
25
-112
96
5
40
7
3
-34
12
-70
9
11
38
-25
17
-47
-54
33
9
10
2
-3
28
-22
-5
-105
22
5
35
43
10
11
-38
28
-12
12
25
-15
-73
7
-12
-28
-42
21
2
11
21
15
-10
-4
-12
16
127
80
31
40
-21
-42
19
-8
-6
21
-9
13
5
7
14
0
13
4
31
41
53
25
14
23
11
10
-18
-91
-14
-5
-2
-17
23
-15
5
7
47
-127
-69
-66
31
-4
29
-28
-1
-15
6
-10
-13
-26
-4
-25
62
-31
3
22
18
-38
9
-27
49
-1
-62
8
-37
17
-37
-7
-8
53
-22
18
-7
-29
-80
24
10
-4
25
-17
-10
8
-25
-25
-9
-8
-51
-25
34
0
6
-70
15
-10
-11
57
43
8
-67
6
-38
-14
-5
9
42
22
-1
-3
10
27
-17
43
21
13
13
-35
53
3
31
3
7
-18
-2
-57
-16
-45
26
-17
-1
25
63
-4
27
11
-61
5
42
3
-34
71
58
7
-6
-27
-24
-7
127
5
10
-9
21
-9
-1
-63
-8
-32
41
24
1
1
44
62
39
26
44
61
-1
12
23
-1
-37
34
3
-10
0
-29
-4
-16
-2
21
17
-3
13
-54
-48
2
0
1
32
-21
-12
7
-13
-16
6
9
21
9
-18
50
-17
-8
6
-25
-3
-12
-10
7
55
18
24
18
-4
-18
-7
-20
-4
94
2
-17
-12
6
8
23
-11
-35
18
-18
-5
-32
9
24
53
-3
19
63
32
74
4
-22
18
43
25
-36
3
-21
11
-8
-9
-26
-37
33
22
-13
13
0
-16
-22
-51
-10
-8
-2
12
21
-42
0
1
14
-1
-9
-1
17
-11
-7
-58
27
28
-13
8
17
-23
58
36
-12
-34
-4
15
35
-69
1
24
27
-21
0
-13
-8
56
22
39
19
9
-41
-27
-6
-24
-44
29
-42
-36
41
18
20
6
-17
-2
-14
-11
-28
-9
-24
-11
11
32
-6
25
40
21
4
-18
10
22
-1
-2
15
-26
-34
35
10
-7
-21
-65
10
-62
78
0
-36
19
-20
6
16
30
28
-64
31
-35
-29
-30
2
31
-23
1
19
-31
7
-10
34
18
-32
-25
25
31
0
-28
13
-5
-15
-13
-14
-20
1
-99
19
24
-14
-21
-10
36
5
-20
-10
33
-15
26
23
47
1
-4
-24
66
10
11
-2
27
-5
-2
30
9
-16
-10
7
-28
-1
6
35
11
-68
-2
-34
6
9
33
8
20
-3
20
19
27
-6
14
-37
54
41
44
13
-25
8
25
-35
1
28
-19
3
20
15
-18
-5
-10
22
-20
0
16
13
46
-16
-7
-35
-18
-32
0
-21
-2
-7
-1
12
0
-26
21
95
-21
14
11
-5
-12
50
-30
9
9
22
-5
17
5
7
-5
-23
-45
12
8
-25
20
2
1
-3
25
-2
-21
-21
17
12
-3
21
-6
35
-57
-16
-57
7
-36
1
25
8
-12
5
-20
3
20
9
23
40
-11
43
34
-13
-9
-6
53
11
8
12
-19
2
-127
12
4
-7
-11
53
-64
2
38
-28
-10
0
6
9
91
-6
-38
-1
27
16
-5
-18
-12
11
-65
17
16
-14
28
15
28
5
20
3
-17
43
52
3
-3
26
-9
81
24
20
7
2
6
9
10
-51
-24
49
10
-10
-51
-17
34
4
15
38
-8
4
-20
9
4
5
-28
-12
-28
-32
11
12
-35
-7
13
21
26
16
-40
1
-9
-27
-15
10
10
26
-48
-14
9
-19
-3
-14
24
-11
45
-10
-2
-48
0
-4
-12
22
-16
37
-3
-50
-29
75
3
9
42
0
-24
-11
-8
20
13
2
15
-1
-32
4
-7
4
-15
3
21
0
-10
20
23
-9
74
1
-16
9
-38
-37
-7
2
21
1
49
-10
17
17
-77
6
18
-6
11
-19
1
-32
27
-1
22
-15
0
10
10
11
9
-28
26
-6
-5
-8
-5
11
16
6
26
12
-17
-14
33
4
-10
9
26
0
-4
-63
-16
33
-12
-19
22
-16
-41
-5
-52
13
4
-16
10
-9
-24
-27
9
-11
-1
-4
12
13
11
29
-23
-2
-19
18
-3
-15
-11
11
19
-7
0
-11
-12
41
3
1
-1
40
-13
36
-1
22
-16
13
10
36
14
-1
26
16
-12
-5
-16
23
2
-15
-31
-14
8
127
-3
-13
12
-12
-18
-9
13
-4
-3
-14
-4
-27
14
-2
-18
-9
8
-28
-21
-2
-9
-15
8
-4
-16
-6
-9
2
6
3
-4
12
-24
13
39
-3
11
5
-18
-17
9
-9
18
23
8
-20
-47
-18
28
1
3
29
5
-10
-12
-5
45
-23
29
20
31
-11
-11
29
-5
-4
36
-14
4
-15
-3
17
-40
11
-5
-11
-25
-10
3
29
2
10
6
2
-20
-35
10
11
18
13
45
-4
-6
-3
-2
-8
11
-13
4
66
-9
-15
3
-10
67
-35
-1
19
-5
0
-25
-41
17
-5
7
-2
18
-12
1
-25
10
25
7
-8
-6
23
36
8
4
-1
37
14
-3
-16
-5
-7
56
-56
-55
-26
-19
31
38
1
-10
9
27
24
-1
58
-12
-14
41
38
36
52
22
-51
45
35
-19
6
7
-26
26
5
2
-18
9
-28
28
24
12
7
-106
55
-7
-26
4
36
-36
-2
0
-38
2
-7
11
49
-10
53
37
28
-24
19
-58
16
54
-27
6
-9
-28
54
2
-43
-38
-23
2
-1
38
-40
37
-42
53
65
28
1
-57
56
-42
-16
-16
35
3
8
31
-19
0
-25
-38
-38
-1
-6
-7
0
-10
-33
37
27
29
-96
41
14
48
-7
4
-8
13
-23
0
-15
4
-108
-38
72
23
-28
59
45
65
-38
-35
81
48
-28
30
39
0
25
-24
14
-17
9
24
-24
-27
39
-15
-15
13
-6
-27
86
29
19
32
50
-63
16
-7
49
5
-22
-66
16
-4
-58
13
-5
-1
35
45
9
50
-17
-27
74
29
-84
-1
15
-42
-16
-14
45
52
-10
-8
-9
47
-35
-14
-14
-35
39
17
-10
-8
-4
-5
-6
-4
-14
38
1
22
9
47
-28
127
48
30
-57
17
-16
33
-18
45
56
5
22
-12
-49
35
3
-54
13
29
7
-11
-53
8
58
-27
14
-37
21
-9
-25
-50
-25
17
20
-55
41
21
-4
-46
-23
30
-5
-10
-52
10
104
28
17
-16
-46
4
35
-17
-2
69
36
-1
-16
-12
-1
-13
13
34
-37
-17
13
-64
11
-45
0
15
-2
2
2
-26
12
-44
-23
-49
20
-28
0
13
-18
12
30
-5
4
14
51
-12
79
-37
-21
-3
-2
33
0
-45
-16
42
22
-52
7
-47
30
27
-3
-39
4
18
-6
-18
4
55
-6
13
9
23
-3
33
-15
30
17
21
6
-5
33
-5
-14
6
-4
-40
-3
24
-18
31
-22
-13
-26
-23
31
-31
30
8
-18
-29
-4
64
-2
-17
-3
-28
39
-25
-15
-43
-15
24
39
-3
0
43
62
-12
21
-5
61
-36
23
60
-17
2
-28
46
-1
46
29
-30
-7
21
-21
-19
17
-12
-25
16
7
36
1
10
-3
49
0
16
10
-41
-61
-40
10
-37
3
-10
-9
9
4
43
19
-19
-21
1
15
-12
-37
-20
13
38
36
-49
27
-9
20
-12
-25
7
-35
-20
30
-5
-15
47
-39
19
33
-10
-20
12
-37
-20
-36
-2
-20
-127
-19
31
-16
-16
7
-71
13
-88
-6
-18
-38
-4
-23
-6
-11
-19
93
-26
-17
-13
-6
-16
-12
16
-24
-9
-6
0
-18
-5
28
20
20
18
-18
16
28
15
-46
-32
0
46
-53
-31
23
7
-31
27
8
-15
-43
-55
101
45
5
-10
-25
25
-18
-48
-48
-33
-11
-6
9
35
-8
62
7
16
-23
-6
-3
-29
-9
25
8
9
39
31
-25
38
-19
1
-65
44
3
23
1
-12
4
22
3
-36
66
29
27
2
7
-23
-15
27
-49
-7
93
14
6
-10
-2
22
41
-123
-32
-9
35
-64
31
30
22
32
-7
4
-24
-42
17
-29
2
-22
2
5
11
7
-75
14
-3
-13
24
4
-46
26
-1
29
34
-37
27
36
17
-27
15
127
19
-9
8
-27
29
17
-60
-4
-31
6
-10
48
-20
50
-19
-60
29
-5
13
-28
11
7
27
23
-9
-4
20
19
-28
-7
-11
14
-16
17
-49
-32
26
45
19
38
30
4
-49
24
27
38
12
-13
-4
21
37
1
42
51
-28
16
-50
36
43
-38
-13
17
38
-35
-31
9
14
48
16
35
-96
9
-21
-20
12
36
31
0
2
-27
68
-45
-14
-11
-13
-3
21
14
-4
22
13
-11
6
73
-28
9
28
-19
-9
3
-2
4
-50
45
-73
-2
-16
-20
42
20
-32
8
20
-3
-13
-4
22
-33
8
18
-36
-55
-10
-20
-25
-35
-44
-66
10
18
24
-18
-4
-8
2
20
-23
11
-2
-12
2
-33
-86
-21
-36
32
-28
-66
-1
-22
-10
-51
-69
-25
59
-3
84
3
18
-24
-23
26
-36
-30
33
22
39
-15
57
-2
37
-26
-25
-63
-33
19
15
71
-14
2
-27
33
23
-20
-10
19
11
1
32
42
-14
-52
6
-5
-22
4
-14
-1
-22
19
-2
-52
-11
-16
4
4
11
-4
-1
13
92
21
-10
24
17
3
-16
9
-16
32
8
12
6
-38
-1
29
-18
11
79
-4
-89
-23
-15
-45
44
-13
9
-11
-18
-22
-29
-5
-16
44
42
9
-17
-16
-17
-3
-3
-10
56
-15
15
57
-2
0
-3
-23
24
-18
-5
-30
-39
-16
0
-16
-22
28
23
14
-2
-37
4
-20
27
15
15
-18
51
-30
21
20
-32
-39
-12
4
66
3
8
-7
1
2
-7
-12
0
10
0
-40
19
-45
-37
12
45
13
5
15
-19
0
38
23
-7
15
18
26
-81
15
4
11
2
7
0
-17
-14
24
16
11
-3
-9
18
-19
8
-2
5
13
-89
-9
-44
-28
-25
-26
23
-29
-21
0
-31
10
-21
-6
34
-4
-27
9
-1
-29
-13
-24
-10
-18
10
-51
12
-6
-5
21
-34
-32
7
-88
-19
25
22
-33
21
-1
-10
12
-4
30
-9
-65
-5
-4
-18
8
-16
127
6
-36
0
-13
75
18
8
-25
-12
-5
-31
-18
-43
-29
31
-35
-11
44
3
61
-43
-41
22
8
-37
50
22
34
-12
-17
14
-10
2
-4
6
-27
21
15
-3
-18
-30
-21
2
29
15
26
-84
-11
-48
32
5
46
23
-38
-1
-21
24
7
-21
39
103
-40
-12
17
96
33
-25
6
59
25
-52
78
12
22
-59
23
-21
-6
-37
-21
23
14
56
-18
25
15
21
-26
-10
-29
25
27
41
52
-19
24
-8
-29
-31
-16
32
-10
-15
3
-2
-13
-25
20
-99
36
9
-10
7
29
-10
-21
39
2
41
-1
17
48
5
4
-16
-82
-15
2
-2
36
29
-71
-52
38
5
-4
-8
66
-43
5
-11
-22
68
19
-21
-12
-29
28
-6
8
10
-3
-9
-42
-31
23
8
38
-27
27
-40
38
-26
-9
-15
30
-49
8
38
-6
-12
24
-10
39
31
24
-5
25
7
6
-28
-17
-19
5
-7
26
23
-101
-34
28
-34
48
-1
27
49
-17
7
-9
-13
25
5
46
-29
10
-14
4
-10
-7
14
-32
-6
16
-36
38
-49
68
9
-67
20
13
32
-9
0
13
42
-5
7
18
-50
5
-25
101
45
15
10
-31
9
25
127
3
10
13
-52
31
-18
0
-8
-1
-15
51
-14
-34
-35
-21
16
52
83
54
-2
-7
-26
12
19
4
25
-8
12
34
-1
-23
-9
1
-20
33
97
-10
-11
-7
5
-51
28
0
-4
1
-29
-125
-20
3
21
-7
6
2
0
-36
-22
21
27
22
8
-70
-24
-14
-29
7
25
31
23
4
-7
-25
9
108
-16
-23
29
16
9
12
-18
-4
5
71
-30
9
-15
-6
6
-29
14
-5
-9
-14
-33
61
-4
-29
-30
-4
-10
-10
-27
27
-40
-31
-1
-13
-47
-6
63
-13
-2
-2
-48
-39
34
9
-35
-17
-40
26
-37
-37
-15
-9
28
38
11
127
-11
30
-39
3
-3
9
-5
-16
4
-47
-11
-47
-39
24
25
-34
31
-59
35
17
-46
25
-16
-30
2
-9
-2
-32
-75
-18
28
44
-40
19
-6
-38
14
92
4
-5
-17
-7
31
4
-6
4
2
-22
-63
-1
43
-6
-12
-16
-2
92
-29
-24
-2
2
-57
-11
-29
-5
-2
-30
-14
-18
16
14
-1
-6
-13
10
-4
-34
-9
15
-21
18
-55
-7
7
-14
-46
-34
10
42
-5
23
1
95
4
-3
16
37
-9
-4
2
18
-35
-22
1
-17
-24
80
20
-35
-56
-5
-42
38
-16
-10
-15
-24
-7
12
-23
-30
-3
37
9
15
22
58
5
8
-34
9
15
11
-1
-15
8
-1
35
29
-31
-28
23
-20
46
-27
-35
36
-16
13
55
-9
4
-26
-27
14
2
-5
-48
20
-20
-23
-37
-11
-21
-17
35
-40
-10
11
-6
-17
-43
-31
13
-8
14
-18
-17
15
-27
-45
2
-1
-4
6
113
-3
9
34
-58
-30
-60
-29
-42
98
19
25
27
69
-22
49
-4
69
-10
26
69
14
49
-36
-41
20
-84
-30
30
-16
-69
21
18
-14
7
24
23
12
-49
-22
-33
58
4
-29
32
117
97
46
8
13
95
-65
21
-9
-65
-15
60
9
32
-25
26
-43
115
35
42
-52
16
3
8
-34
21
40
-66
-16
-5
-3
57
56
3
21
-47
-70
-102
-16
-3
-13
26
-113
41
-14
2
103
-114
25
-23
-26
-22
39
-22
-5
-109
76
48
0
74
0
-17
35
-16
-20
3
-3
0
23
67
-59
-14
18
38
26
4
-27
35
22
35
2
43
1
26
-72
55
-4
-1
-24
0
33
56
57
-2
-33
-80
-33
56
4
-16
-83
-13
-31
1
18
49
46
79
126
47
18
41
17
40
-43
-31
65
10
-25
-124
-14
58
-31
-72
18
-10
4
97
16
-37
17
-16
-30
-32
-4
-19
-20
-27
14
38
-9
8
81
5
26
-32
52
13
-48
-127
-3
65
-42
47
-29
9
-14
-4
20
30
-96
-90
-73
-22
-46
-41
-66
11
83
4
35
-15
-21
41
-20
6
-61
14
-41
-10
9
-18
50
-15
82
36
55
-2
56
18
120
57
-24
-40
7
-39
55
23
-33
1
24
-34
44
28
79
-71
14
93
18
-69
-17
-5
-16
-1
-20
52
-13
-9
5
30
12
5
68
-12
-3
-2
12
-5
4
-5
120
4
80
-5
0
-63
-2
2
-8
-16
25
-53
-8
-14
23
-43
0
3
6
1
15
-11
13
-2
-13
-23
15
3
5
2
3
-8
-15
-12
19
-19
2
5
11
23
4
7
57
-18
-93
9
3
0
3
18
6
-4
-12
-10
24
-61
29
6
7
-6
-127
-2
24
-5
5
9
-64
8
2
5
-4
-23
-23
-12
-11
12
-8
1
-21
15
15
-2
-35
-7
-9
-9
0
-8
-1
-9
3
2
9
-14
-18
-22
4
16
1
4
-7
8
7
12
4
15
8
0
5
-9
-7
8
-91
8
-2
3
3
-58
-7
-12
2
-13
-7
-5
-12
-27
8
-4
2
-54
22
38
84
5
10
-4
-10
6
9
8
-4
19
-24
-6
32
13
0
-3
-62
-6
-4
2
20
5
13
21
-5
-43
9
-11
2
6
-9
-6
9
-26
14
-6
-10
-1
6
-2
-1
-9
-14
-6
0
-6
-34
0
55
-4
23
-9
-4
-2
-8
-3
8
7
-23
15
-21
5
-47
0
7
27
-52
9
37
23
10
18
-16
-69
4
-7
-8
44
6
1
26
-3
-1
0
15
-5
-16
15
7
19
27
-18
-2
-10
-11
-1
20
-1
-11
4
9
-6
16
-8
-8
-17
-9
-12
-30
21
-4
-33
16
-42
29
4
1
14
-6
50
-8
-26
-45
-37
-25
-1
62
34
1
92
27
-38
-5
-10
-20
2
-13
3
26
-13
17
-6
7
-1
35
-15
37
-21
-35
44
-39
26
5
7
3
-11
-7
-19
8
-19
-3
-19
-3
29
-23
0
37
-23
-14
15
2
-6
12
-76
-13
-32
-17
-46
-15
14
54
-20
8
10
-32
5
-13
14
12
-14
38
2
-32
24
2
-46
-81
-39
2
12
10
-22
50
16
38
14
4
-39
18
-29
19
-8
-8
10
64
-17
-6
-8
-5
-4
4
-8
8
3
14
-5
11
0
-35
5
20
8
-39
16
-18
-8
46
2
-12
13
4
29
-12
-12
9
-30
-7
49
63
-31
6
13
-46
-102
56
5
-51
-4
3
14
3
-14
49
9
0
-34
107
-23
11
-4
-15
13
44
22
-10
-46
-6
9
0
26
59
23
-37
-3
-22
-17
-29
34
1
40
127
-5
-34
-25
-27
-36
5
13
-4
17
-47
38
-3
-15
68
-5
-9
1
23
9
-29
-35
33
14
34
17
-11
12
-5
-11
-16
17
29
17
40
-29
7
-1
8
-26
9
-13
68
32
15
-41
-32
-21
-10
14
18
-32
-17
1
-87
23
-2
-15
-36
59
-117
-27
18
-2
39
21
-26
5
18
52
16
-47
16
-20
17
-11
14
1
-5
12
51
-20
-25
14
36
0
-16
-5
2
-36
25
5
12
16
-13
-22
32
2
14
-12
22
-9
32
8
16
4
24
0
-127
72
49
-14
44
-45
-15
-3
-28
-3
67
-4
53
17
-1
5
-46
7
3
23
14
-2
-35
-17
31
-23
12
-13
-27
2
10
-1
9
-29
7
6
-11
0
7
-16
10
-3
13
27
-32
10
49
4
5
-12
-5
-8
-29
25
17
26
-17
-25
-9
16
5
-16
22
40
5
1
15
37
-7
-71
4
11
23
-40
-6
-11
-30
22
-12
14
-12
21
25
-102
23
10
0
13
39
-25
3
6
16
27
12
-37
1
-21
-1
1
4
17
1
-1
-2
8
6
5
10
21
-11
12
24
-9
8
2
0
2
-5
-13
-11
16
-15
4
12
-23
-38
-2
7
-46
-24
-28
-49
-43
9
74
29
-36
-20
0
22
-25
35
-42
-64
-2
10
-23
8
-1
25
40
-34
-51
8
15
-7
13
-24
-2
-21
4
3
74
7
3
-11
-10
-18
6
-12
53
-19
-58
116
-12
-26
-3
-3
-24
8
-19
-1
-67
-10
-35
36
-29
-45
-11
-14
30
4
-8
2
-40
36
-7
9
14
-12
18
-4
-11
-5
31
12
-1
-9
-6
109
28
-2
17
-2
5
-12
-28
33
-6
20
-17
47
-6
-39
-75
1
6
10
76
-15
3
-25
-48
20
-64
-53
-1
-44
85
-36
-19
31
-69
37
-23
76
3
41
-108
-2
20
44
25
-56
45
-35
46
-26
-27
-5
-5
-6
13
-1
-52
4
0
10
9
19
127
40
-11
23
90
41
106
-59
-67
22
35
-22
-16
-33
-7
19
-55
-34
-78
-19
-29
1
-43
-31
7
-24
-22
13
-20
-82
26
-70
-61
-61
-19
24
35
-29
23
102
-36
-13
35
-15
-32
-55
-63
-16
-8
-85
-5
2
-112
51
-27
-31
9
70
-17
52
-3
19
-27
21
50
12
-23
-8
-38
-8
-2
23
19
3
-5
84
4
-83
-2
29
-44
-7
-13
-1
-55
-37
-34
-62
-74
-52
-66
32
-3
7
-41
-39
13
16
5
-25
-63
-62
-30
6
-66
21
30
15
25
74
-27
19
-54
-4
7
-59
-24
-37
25
2
-1
-18
50
-26
-58
-113
77
2
37
-2
-39
-36
-93
-40
7
-24
-52
-16
16
21
-30
-12
-99
-23
-38
-16
44
-80
-24
-1
18
-46
18
15
-23
17
-12
29
-34
-69
-26
-15
-6
54
-44
31
-5
-37
32
17
60
55
-56
-4
2
-40
-11
-6
16
22
-30
64
-18
34
-2
51
9
-71
4
2
-17
33
-113
-64
-68
26
-21
27
18
-35
-6
-1
71
8
-42
-15
-17
70
-6
-40
-31
22
-45
-3
30
25
-50
7
-3
-42
-21
24
-13
-43
43
-31
-5
-33
8
-4
29
124
11
-11
-102
-11
-3
101
42
-3
-14
33
103
31
1
17
-19
-5
-38
-28
-10
6
-27
-4
-18
-25
1
38
20
14
5
-39
9
-6
-34
63
0
27
2
-15
-7
0
7
-21
-39
62
-16
4
-66
-23
-10
30
-34
-18
34
-31
17
-19
14
-19
-8
-25
2
12
-15
-15
-24
-28
-15
32
-11
-8
25
15
-3
-19
119
5
14
7
-41
-16
-16
-5
-2
36
-13
-32
17
-5
97
-23
13
1
-7
34
19
-21
7
11
4
11
2
18
-34
20
-6
-36
10
21
-34
-19
-15
37
45
-8
-18
-20
19
-5
-26
-15
58
-15
9
11
54
36
23
-25
10
20
57
-4
49
-44
14
-3
32
-3
-3
-45
12
-23
3
1
-21
-16
20
-9
-16
-105
0
-6
-25
-12
-64
19
-127
-2
5
-42
9
13
-19
-36
-26
24
7
-26
-8
-33
79
2
34
-18
32
-23
18
-9
-19
0
4
-28
-8
24
18
-28
-32
-14
3
-31
10
-4
-49
6
11
20
-22
14
4
13
55
21
29
24
19
-10
-60
-17
34
28
25
28
-18
-14
-7
-8
-58
-27
-17
14
-12
46
45
-37
-41
11
37
1
53
33
2
-19
-51
14
10
-39
-2
16
93
-78
3
6
-2
-68
13
-17
-67
20
-68
73
-24
-16
-63
9
-42
34
28
11
24
-35
6
-16
12
12
15
22
13
33
8
16
8
-22
28
-25
112
11
7
20
11
79
27
-30
19
-24
45
-26
16
44
32
-34
29
-73
-36
-47
16
5
-15
1
-31
-24
64
16
-78
85
92
78
-16
81
-21
9
-30
0
-41
-18
-16
-33
-10
-46
-32
-16
-63
-27
-25
21
-29
32
-24
-55
-109
62
23
6
4
56
-55
56
14
-25
6
18
26
-8
31
35
30
1
-18
-34
-68
-11
-8
-2
32
15
-17
-56
21
-13
-37
126
69
-3
5
-51
40
-4
-58
54
-39
-25
10
103
37
-9
26
118
-82
82
35
12
0
-127
60
-44
12
52
-11
45
-10
21
-16
8
-41
-87
28
59
49
-53
-12
-13
22
18
0
37
-1
15
10
11
-48
-43
18
71
-32
-67
9
29
-52
32
72
105
-22
0
44
-77
-3
37
-13
-1
-46
48
-24
-7
-7
16
-49
26
21
-30
79
-53
-27
-33
23
-44
-55
-10
17
-8
-30
-33
-32
-17
-40
1
1
6
0
4
-5
67
14
15
-40
58
71
49
22
-16
19
-86
-3
74
100
-61
-24
-31
-12
-16
63
21
-85
-2
-27
27
-7
-10
-1
-10
-20
24
-59
-6
-3
0
-6
15
0
-7
7
4
0
12
1
-9
-2
10
-9
5
-17
-4
9
-10
-6
-16
0
-1
21
23
-3
12
16
7
-4
-2
-4
-2
-12
22
8
2
20
-9
1
22
-9
127
-14
4
39
-12
51
-6
-6
22
-54
10
7
18
11
-5
-9
12
-22
1
17
4
-3
1
-67
-35
104
-5
13
19
-14
43
-11
-7
-95
-56
5
-8
3
8
11
18
-4
2
3
-13
-27
-14
-11
-9
7
31
9
5
21
2
-7
4
-8
4
9
0
72
-1
-9
3
30
11
-6
-11
24
-3
0
3
17
4
-5
-9
9
-17
6
96
0
11
-27
4
9
2
13
-1
23
10
2
10
5
15
13
6
5
-24
16
31
-31
-36
-16
-6
-1
-2
-20
-1
-26
-1
-9
-39
-7
-6
-11
0
-16
-5
-3
16
-17
-2
0
12
-76
38
8
0
7
-4
22
-4
8
21
5
-4
-3
12
8
40
14
-4
19
-2
-5
5
6
-45
9
27
-70
10
-9
18
66
7
26
-23
2
-3
-2
33
17
-7
-5
10
10
-9
-25
-6
15
-14
3
9
-3
10
11
12
24
-29
18
-7
10
0
12
-9
-5
-2
1
-68
-1
-2
19
24
12
3
11
-11
6
-29
15
-7
-20
23
0
91
11
-8
16
27
4
-43
-26
-4
-17
-18
1
2
21
-16
-46
49
-21
27
17
17
42
-39
6
2
44
32
-19
35
-17
4
-8
-18
17
1
25
17
127
-9
48
16
3
28
10
-9
-15
25
15
-5
0
-2
16
-15
-26
-7
-49
-3
-59
31
-12
-75
-45
-19
-6
22
-10
2
7
0
55
-47
-2
-2
19
18
-24
-17
19
3
27
-43
-9
5
-2
-20
-1
-11
-12
29
-57
2
-22
13
-10
1
-5
-25
69
7
6
3
44
10
35
19
-20
20
2
-9
-10
-28
19
15
5
-24
9
16
-19
-11
19
-10
-11
-6
28
4
-16
-21
17
-15
-13
-36
12
5
-49
-25
-52
8
47
66
-9
0
0
-21
14
14
-3
-17
-35
7
4
-67
8
2
0
-22
24
3
45
2
47
-12
-7
-25
-69
-18
28
22
-16
19
-43
6
-7
14
5
15
-11
26
7
8
-43
10
-23
-8
-10
-1
9
3
-8
33
4
-16
5
4
21
-10
12
-14
23
-12
-13
-29
-8
1
-22
-17
37
-4
-10
27
-2
-49
-11
10
-14
14
4
-15
6
-23
-6
-32
13
8
-3
-26
-21
15
7
-6
4
55
0
27
-26
-32
-18
-7
-23
-33
-33
-49
3
-27
-19
-2
-22
-18
3
21
-28
58
21
30
-20
-47
-7
26
9
12
-24
-63
-17
-13
-1
14
-6
0
-10
-19
23
-13
-1
-6
-13
35
-2
-4
-8
-4
7
6
-9
-8
-16
-6
-4
-4
-20
8
6
-1
9
-1
-2
-21
-10
18
8
5
-4
22
-6
-13
-5
19
14
-1
-6
4
-4
-2
-16
56
16
-1
-13
-57
14
16
-1
-9
-21
3
-7
-6
10
-26
40
-22
-11
3
-30
-6
9
-3
-12
-27
11
-19
-5
-1
9
4
6
13
-11
-33
36
9
12
-30
33
16
-31
-3
43
-6
71
-22
-7
-12
-2
-1
-5
-9
-18
12
-9
12
-5
-2
-8
31
-11
-5
-13
-14
-16
-13
10
-10
-7
-9
-5
7
-13
-1
-24
12
-15
-13
-1
15
-43
-15
-7
-17
-1
-16
17
9
-3
14
-6
-7
0
1
-17
20
-3
-18
-7
-7
28
4
25
-15
19
38
14
-3
-10
-25
-10
-9
-14
5
-7
-4
23
-4
-1
56
-6
-5
-18
25
-11
16
-2
5
10
11
-3
35
12
15
1
9
-6
-8
-6
-3
10
8
-39
2
-16
0
-4
10
1
11
13
2
-5
14
8
25
-5
-25
20
3
10
-6
9
-13
-38
14
15
-13
14
-4
10
10
-12
-127
-24
-8
21
9
-12
-3
-2
-11
-33
12
-38
2
6
-1
-20
45
-4
-34
-18
3
16
0
1
-32
5
-28
8
28
54
-19
-16
0
12
-17
1
-14
23
0
10
4
-12
-28
10
-103
-8
-8
15
6
33
-3
-4
-25
9
32
3
-16
14
-82
22
-4
13
-18
32
-3
-1
-3
8
20
9
-17
-25
-1
4
1
-2
3
28
-35
5
27
-11
6
19
-4
63
-35
-9
94
0
4
10
2
17
1
-13
-5
8
7
54
-8
12
-5
5
-5
11
-38
40
13
32
18
-11
24
1
-17
20
43
11
-1
0
-14
8
-20
-3
7
-17
15
-5
39
3
-3
-8
-5
-9
-8
-4
20
45
4
-48
6
25
0
-17
3
1
-3
-8
12
19
5
-21
-11
-7
12
-30
4
-7
1
-11
-15
56
14
-16
5
-3
3
2
-44
7
-13
-5
40
-10
-9
-14
-28
-3
-6
1
10
-9
-8
-16
13
50
-60
4
-26
-13
8
-8
-16
15
12
9
34
-1
24
-32
8
5
7
3
-2
-17
-8
-11
20
-77
-117
-3
1
-6
-10
5
-20
-2
-12
16
1
13
-28
-28
-21
2
8
53
-7
-8
17
-15
6
-8
-52
-5
3
-5
33
-2
-8
-32
48
-26
2
9
6
-16
21
43
-2
10
11
-13
15
17
-16
0
9
-61
2
8
0
13
-20
-2
14
5
6
45
-22
36
-11
2
5
127
13
-5
3
86
1
29
-6
0
47
-24
7
-34
17
0
21
-55
-87
18
-19
-80
59
117
7
1
42
50
37
-20
-35
1
20
-36
-44
1
11
34
57
34
15
94
66
-4
107
87
4
-30
8
4
-22
94
42
3
-21
30
-13
5
124
5
91
90
-9
-98
15
-48
-31
16
-10
-23
25
15
33
44
24
15
44
60
26
-30
-9
-18
43
18
31
25
80
78
10
-19
-18
-35
73
45
7
-48
15
-41
-84
-4
12
-52
20
-61
-70
-46
13
0
18
-40
34
22
-34
-35
-12
-13
-6
-10
91
51
111
11
13
10
45
23
12
-85
-9
89
47
42
-12
47
11
-3
39
5
-27
-46
-27
-17
-6
-37
55
65
75
4
4
52
-47
-23
1
14
43
-56
26
29
-40
31
26
-33
67
6
-8
13
-17
48
-13
-22
44
-32
-8
22
-98
-46
11
-31
-41
0
37
-37
-10
40
-59
-28
27
-30
0
37
6
-10
18
-5
-13
-3
-80
2
-21
3
48
-22
-37
51
26
51
42
-11
126
1
33
16
-9
23
-24
-38
-127
36
20
-27
-11
50
-38
11
-20
-39
90
56
-40
-11
-21
6
-73
-9
-83
-31
-5
51
-65
2
-29
48
0
34
66
-39
94
-29
-114
82
-13
42
-26
-20
-80
11
81
-12
-51
5
-2
21
46
-73
-19
-11
7
-41
15
15
-17
-26
8
2
28
8
-21
13
-5
-56
-36
-19
36
53
5
4
-7
-2
7
-22
11
-9
6
-14
23
13
43
15
2
2
26
-10
0
4
27
8
-127
-12
7
-4
4
-4
-14
4
-4
-14
60
-38
0
8
-22
5
14
40
-40
-38
15
-9
1
-14
1
-1
13
18
-1
-2
4
3
-27
-10
-30
14
13
8
-41
6
-16
-7
-26
0
-14
-9
12
-3
13
-25
8
-1
6
-4
1
6
4
42
27
-19
-30
-17
2
-2
5
-6
8
8
-42
3
14
-95
-8
7
1
7
-3
-21
4
-5
6
3
-2
6
16
9
9
13
20
10
3
4
-14
-38
13
23
14
-56
6
8
-10
-17
-1
-2
-19
-54
-19
6
-55
10
-28
-2
-12
-11
3
38
-12
0
-1
9
0
29
-2
-13
8
-2
-16
-10
1
-10
7
23
4
-96
36
-4
2
-70
7
-4
5
-19
92
-7
-8
11
-6
-10
31
11
-5
28
3
5
31
-2
13
10
-41
29
3
2
-14
-8
1
2
45
-5
15
21
-54
6
-25
-17
36
9
-16
-4
-20
-22
-8
16
-2
17
-4
24
-18
5
-21
1
-15
69
23
-7
-10
-12
12
-3
-17
14
-18
-12
1
29
-13
10
-66
14
3
-7
22
26
-8
-42
-3
-1
-3
-2
34
-48
-3
-26
-8
-1
-1
-10
-35
55
-37
13
-21
-14
2
12
-13
-33
-12
-28
42
-19
-14
-3
2
1
76
-21
-35
-5
7
27
-5
127
-8
22
-22
-16
-2
0
-2
45
6
-17
-11
6
49
-7
-14
-17
10
77
-21
49
21
-5
6
43
-7
12
-35
-12
-19
-27
16
2
2
4
-2
-6
-12
12
-3
2
-9
41
9
-17
-4
-46
-7
6
-20
-38
4
-3
1
-8
1
-7
5
-17
37
-59
-14
0
-14
-10
-20
8
7
-2
-1
5
5
16
-33
-36
16
-24
-42
40
-24
5
1
25
-6
2
12
28
-9
-8
3
0
-27
-25
-16
-41
-5
28
-31
6
1
11
33
-38
-35
11
-23
-71
-41
-10
-47
-38
4
11
7
-39
-9
5
3
53
12
-2
4
-66
-19
10
31
15
-43
45
13
-2
-21
7
-28
29
-15
-16
-29
-15
-10
-37
7
-42
11
-23
-8
-35
-14
5
20
11
-38
15
29
-2
-28
-43
-7
-17
29
9
-15
3
-20
-3
-10
-13
-25
-27
22
-22
-34
30
-14
-22
19
-25
-42
39
-28
35
-16
82
-18
53
5
24
-34
-2
-15
-3
-29
27
58
86
-31
16
30
-39
-33
10
-24
-39
18
-13
-36
-10
4
-33
24
11
5
-63
-47
16
-17
22
48
-8
5
-14
3
-2
15
1
2
1
-6
-6
-1
6
-5
-22
21
3
-3
9
0
6
1
-1
13
-3
-2
-1
-3
-4
10
5
-6
1
0
-3
-3
4
15
2
-52
0
8
10
-4
3
14
13
3
1
3
-14
2
-11
7
-4
5
8
-2
1
-4
-3
-24
5
15
2
-1
2
-3
0
5
2
-6
12
-3
-2
-1
-8
-3
-3
1
-15
6
5
3
3
5
-1
-3
-3
7
-8
-1
-3
-9
-89
2
2
-5
4
14
-5
2
-5
5
0
-4
-10
-3
1
1
36
10
9
-11
3
-27
14
127
-24
70
4
10
5
2
-42
-4
-2
1
5
27
7
2
-9
-21
4
6
2
2
4
15
-4
5
-12
-3
2
5
-9
-2
0
10
-1
4
-8
-5
-5
-5
-9
-17
13
-3
1
-1
1
-8
0
1
11
-23
3
-3
31
1
19
-4
-7
3
4
8
9
-2
-10
25
-3
-3
-21
6
-5
-5
13
-7
0
9
-19
6
2
1
-4
4
1
9
-15
-2
1
1
-21
-15
-9
22
-7
-4
4
4
-19
-1
6
-6
-4
-1
-8
3
-1
-6
-19
8
-6
8
3
-7
-28
3
-13
1
-1
-2
3
-1
0
2
8
-4
14
10
-1
6
3
3
-4
51
-6
-9
-2
3
4
6
-5
3
-64
-40
-18
6
24
19
-50
53
-26
-21
-50
-6
-4
17
17
-34
0
-6
-8
-7
-24
-15
-18
-17
-10
5
3
39
-31
-89
20
-21
-4
-4
4
2
27
-36
77
31
-31
-12
-3
8
-3
3
-19
-6
-29
-25
1
-49
-13
-7
-19
10
84
20
16
13
-39
-18
54
-13
-34
1
20
-5
-18
-5
-65
-15
-47
-22
-11
-20
-15
-26
7
-21
50
-10
-44
44
21
29
-8
-3
14
8
1
-53
-61
-19
7
20
-24
-47
9
6
47
-24
35
-28
-33
-17
-13
-1
51
12
14
-5
-11
-8
-8
-12
77
-34
6
-29
19
-13
46
17
3
12
4
19
6
-6
63
21
-15
0
-21
-38
-11
20
13
-44
-26
9
39
-77
-59
-17
22
0
-24
-13
0
5
12
29
-59
-27
20
-22
-33
-22
-53
-47
-40
41
-36
-6
17
8
-19
-33
63
1
1
-1
3
-13
-52
-8
-9
-9
21
3
-26
-58
-23
-24
-2
-79
-1
-54
-46
-16
11
-16
-5
6
26
-10
9
48
-9
-25
-25
12
28
19
54
-8
-27
-10
-12
-3
-17
-4
29
-42
-23
-17
-10
5
127
6
33
-36
-23
-11
-60
-52
-26
-35
23
-2
8
39
36
33
-15
-25
24
-13
-6
58
15
-1
39
-20
-9
-22
21
-48
41
-59
-52
14
53
18
3
9
-48
-32
-14
-49
-15
-6
-5
34
24
37
-32
21
9
24
3
-16
-26
-56
-36
-13
2
-30
-12
19
-9
28
40
-8
-23
-22
-6
-9
-31
-44
-29
-60
87
6
29
-5
-18
24
19
-20
32
31
-11
-35
1
52
-44
-71
1
-13
46
-45
-37
-30
3
36
11
18
13
27
-25
-15
0
-2
-42
-29
17
-3
-2
-1
39
12
-28
1
-14
29
-19
18
19
-30
-10
-6
-22
14
-45
-1
-50
13
-15
71
-32
-40
-15
15
86
5
-25
-26
25
23
-35
-22
-20
-6
3
12
9
12
24
-30
56
-6
-25
30
30
-20
-8
-22
19
9
-6
14
19
24
3
-19
15
-17
9
11
-2
-6
-26
89
-7
-16
6
-30
-26
-2
-21
-27
-17
18
14
-5
12
-7
-37
-29
-24
-11
-27
-28
23
-1
22
21
-65
-34
-27
-43
40
18
-3
3
42
-7
14
6
-20
-31
31
-31
59
19
-28
-25
23
-1
17
-26
-8
26
17
26
-12
-33
3
0
6
73
-24
-12
61
1
-16
-12
-25
-30
0
-4
4
11
-55
-47
-5
2
14
2
4
-31
55
-17
-21
-7
23
26
19
-14
18
-6
27
-27
7
-73
-127
72
40
-12
12
-9
-10
-18
-53
20
-28
-19
-22
1
14
64
-9
-38
-8
28
-72
-8
-18
-26
-24
9
24
-3
-10
32
9
9
12
4
-1
13
-6
17
-10
-49
11
-4
-26
-3
-14
13
-38
33
3
-29
29
-22
26
-17
24
10
-5
-4
-20
-21
-1
-39
19
-25
-31
-13
-18
8
3
59
-20
28
-31
-15
14
-10
-23
15
21
10
7
-31
3
-1
-12
66
-28
-35
-9
-37
33
14
6
48
-4
38
79
6
12
-6
22
-21
-16
34
37
-37
-9
29
18
-27
-53
8
1
-28
40
-15
-41
-40
-1
29
11
14
-9
26
-18
-15
-1
47
-14
13
20
14
62
18
32
14
-1
-33
20
-23
21
2
-12
22
-6
25
-15
7
-37
-24
0
-15
9
32
-29
-7
-99
-15
-9
0
-11
16
-22
17
-7
-77
30
-39
-88
73
-21
21
1
-23
4
-18
-11
21
8
-14
5
-18
-22
55
-9
-1
-6
16
-6
43
-28
-32
-3
-76
-36
33
-18
-11
-26
-3
0
-14
-16
-4
70
-26
1
1
15
19
-82
-46
-1
-1
-56
-19
-24
-40
42
-37
22
25
-41
-20
-3
0
-10
-26
10
0
68
-77
69
41
-24
103
-23
21
-48
42
-9
12
-7
9
91
25
7
-11
7
3
-15
-6
41
-59
-48
-9
127
-48
-16
-46
-80
-10
-17
14
39
-18
-6
21
14
-2
13
30
-29
-4
5
-9
-17
-18
50
15
47
14
-8
14
5
-56
9
-10
26
-6
-6
-29
5
6
-17
13
-5
18
-7
-12
-14
23
0
-2
30
6
-4
12
6
2
-23
-66
-5
10
-17
12
16
-15
28
-17
-3
-17
3
-5
4
0
-13
0
-3
3
-2
-39
2
-18
3
-4
-10
-6
-24
-5
-7
46
-22
3
-14
-8
-8
3
19
3
24
-42
3
-21
18
10
-37
5
3
3
-127
-2
-2
7
-1
-17
-5
5
3
-1
41
20
37
-14
-12
49
-52
12
-23
-5
16
-24
82
-28
-2
-29
6
4
-12
-1
3
25
34
13
27
-1
-29
30
4
2
8
1
-21
14
27
1
-13
0
-1
-25
-24
8
-10
-2
-13
-5
-37
8
1
13
12
7
-5
19
-4
-19
9
26
8
10
-5
-35
-1
7
3
28
-5
-13
2
16
11
26
-38
112
8
18
13
34
-43
11
-4
13
36
-14
-5
22
-4
26
-7
15
-29
-4
25
-8
-11
11
0
24
11
-20
49
-21
-3
4
8
-15
-24
-45
-21
-6
11
4
12
1
-19
0
-10
-26
-15
-20
-2
-14
-5
-15
-8
7
-13
18
-5
1
-10
6
36
-2
-23
-47
-1
-2
-36
-38
16
84
14
9
-23
14
-9
12
-14
24
2
-7
8
1
19
-2
17
15
-3
18
40
-33
7
-8
-4
18
-23
-105
37
-10
-52
-16
-22
50
-4
16
90
8
-3
-3
20
-66
26
-7
25
-20
8
-25
31
9
9
-34
4
-2
-51
-15
25
72
-60
-15
-3
24
41
7
85
-13
37
-7
23
-44
-16
-8
12
-23
-17
-26
17
-3
-29
34
-7
-14
35
-78
14
15
-26
3
-11
-45
-24
-27
-52
5
35
-15
3
-50
-17
-17
-70
15
-43
-12
29
-27
-40
-21
-34
45
16
-19
-12
-2
6
55
5
25
-28
-11
-9
-22
-70
-14
21
30
-21
-3
51
28
50
-43
9
13
-9
5
14
-35
-16
-27
-37
-1
22
17
-4
10
-14
-19
-12
-36
38
6
0
-18
51
-50
12
41
40
9
5
-90
-8
43
58
-40
-10
-22
56
-58
-127
5
29
30
5
19
-24
23
-34
-61
0
-12
-8
-14
-5
-20
-19
16
44
39
16
-8
-35
-56
-24
53
2
-15
-16
8
24
32
-16
-70
-15
14
16
4
22
37
64
-15
6
81
-28
-38
-7
15
10
-5
-10
12
25
31
3
-26
0
7
-30
29
-1
42
-25
-5
-48
28
-9
122
-50
-14
5
12
-30
-9
-65
23
-20
16
51
-37
-31
3
25
-59
11
15
11
61
-77
12
-18
-5
-1
-23
42
-11
42
85
49
25
31
9
-1
15
13
-12
-62
15
47
12
73
-91
20
30
-15
-4
7
6
23
-45
9
12
-6
-11
-7
-38
6
-2
13
10
63
72
-4
6
30
27
-14
15
39
-24
24
-42
-16
1
-15
-12
15
-2
-13
43
5
-46
-9
7
62
-16
10
-44
-4
11
-18
29
7
9
-24
37
-13
4
-48
-5
-21
0
2
21
7
55
-12
-4
20
-47
-19
12
-1
31
25
-6
-5
1
-6
1
8
23
17
11
-32
64
10
-12
19
2
10
-12
-2
12
-26
14
-31
14
-14
-19
-4
-21
13
-57
46
-9
35
3
-43
-14
24
-21
69
0
1
-18
4
-68
13
59
127
17
-9
24
-6
14
-16
-13
77
6
-17
55
79
15
4
-26
-17
-33
16
-16
38
-3
24
-7
0
-48
32
3
-54
2
5
-16
14
22
-5
-7
-7
0
-22
-14
4
58
-13
2
-9
32
35
-11
11
9
-26
-2
-38
-3
-58
-2
-21
-11
13
39
-9
-27
18
4
4
11
-13
23
-38
-35
111
1
-29
9
-19
-8
-8
-5
-13
19
16
6
51
-25
-9
29
66
93
14
-29
17
32
-31
-7
9
5
3
-19
-6
4
-8
-9
8
-4
18
7
-5
25
-22
-34
-24
-27
13
-11
0
-27
-5
12
-22
-42
-11
1
22
-4
24
-2
-17
-5
19
3
-20
-20
17
-36
-19
9
0
23
-20
-7
-14
-15
32
-15
23
24
44
-13
15
-42
-14
-17
-9
1
-16
-12
5
-111
-17
-39
-4
-7
-78
12
-29
-1
32
39
-4
49
-25
24
95
8
3
-13
-55
-29
46
45
-9
-24
-17
3
-5
-1
9
-29
-13
28
9
23
-38
46
13
-12
-20
-16
-9
31
-19
43
5
8
3
-2
105
-3
-44
-31
32
-4
9
23
1
11
17
28
20
24
29
12
-16
-6
-14
37
-84
5
-7
-18
4
24
0
-33
-24
-26
-37
-9
55
-33
2
-4
-19
-1
25
51
1
24
-4
-6
-12
-22
-27
-7
-60
46
12
6
-30
-11
8
5
-20
21
27
35
7
-14
15
-57
-22
12
9
-13
-73
18
-4
-52
35
2
-9
8
6
5
17
108
5
5
-32
36
40
5
9
-22
-2
-6
6
11
26
-56
-29
12
19
-2
-23
7
22
-43
-16
1
-6
52
-3
24
-17
0
12
32
11
14
-31
-18
3
-44
20
-44
20
-7
3
67
30
1
20
-19
26
1
-20
-89
-6
3
-1
20
-3
6
74
8
22
90
-3
8
20
55
-12
24
-51
-61
10
23
-8
29
5
42
18
-20
19
24
-24
10
48
16
9
-19
28
-6
-21
1
18
-7
6
-4
1
0
-41
-32
-20
9
25
127
56
-9
-66
25
-29
-26
65
14
35
-29
118
-8
11
-56
47
-5
-41
56
-41
11
48
35
17
-24
-30
-7
-75
-69
54
-68
-54
12
8
-3
7
-14
46
17
-9
30
45
-55
-33
2
75
-33
2
-46
9
-12
6
-1
52
-29
7
-61
-28
-4
9
7
-9
77
4
29
2
-32
55
20
-10
7
57
42
-8
21
58
-42
59
34
-44
-11
-76
5
-2
8
-50
-49
18
-33
-26
-15
104
80
-14
-74
37
-7
-32
101
10
-49
-12
-52
-30
-38
28
-38
29
26
21
5
-18
42
-19
25
-21
-55
-1
-8
58
73
-33
-24
34
13
-20
5
-7
19
11
-47
-30
-52
-57
20
-67
10
-7
-127
42
-50
-20
-22
-89
15
9
35
-34
-36
-65
-30
49
10
-34
-110
-42
33
17
88
-16
19
-48
-17
53
17
-42
-3
9
-30
-1
-2
1
-86
34
-6
49
17
-8
24
13
43
36
19
-6
11
-22
15
-86
28
-13
35
16
-45
8
23
-34
-11
36
15
-78
-36
9
-31
-45
-37
-59
16
-25
17
-32
-49
-40
-23
19
-19
26
109
27
69
-8
77
-16
-6
7
-30
-39
-14
61
-56
-51
0
56
-42
-1
-21
-12
86
-20
45
48
-50
88
13
16
-44
-53
-14
37
15
14
-86
37
82
13
-12
-40
52
-31
-47
-47
29
13
14
-9
-1
-11
-4
-3
42
-15
-2
21
51
1
-27
-13
-1
-14
92
33
-1
6
37
4
-14
68
16
2
24
88
-97
-1
11
8
8
-11
-8
23
-8
-4
-22
9
-5
6
-8
-20
7
-11
-19
35
17
13
94
-38
-8
4
1
11
9
28
-30
-38
-18
9
100
-77
50
21
-117
-12
-8
17
-4
-22
39
33
6
-3
7
-22
9
-9
-5
-1
-1
11
-1
-23
0
-24
-89
-13
-127
26
16
-6
-43
-23
0
-25
26
9
0
24
9
15
-30
-14
-13
21
-12
53
10
-10
0
-15
45
9
-1
-3
-16
-2
2
18
5
22
-3
-16
7
4
36
-22
-2
44
13
-61
-11
70
-2
-9
5
9
-19
3
11
30
-32
12
-8
10
-13
-8
7
-9
-9
-34
-36
11
-15
36
-33
29
6
-59
11
9
-24
20
16
4
13
-20
19
2
17
15
6
16
-44
-5
-18
-11
20
-20
-25
32
-7
-53
16
-42
-44
1
-12
-3
-7
-15
-12
23
19
27
-11
16
10
24
8
0
-6
4
32
-20
76
-108
-11
-15
32
2
6
-22
-12
0
22
3
1
-71
6
5
-15
-16
27
-18
-8
-43
8
-54
81
100
22
4
-64
-32
-45
14
3
-24
44
-4
-15
6
5
10
-63
-12
1
-9
8
9
-8
7
-35
-9
36
15
-28
-44
-1
-53
2
-32
-3
2
5
-22
-11
20
-24
26
7
6
33
82
44
-1
23
-40
2
30
38
-21
-27
38
-67
34
27
47
12
-37
5
-28
-11
14
-7
9
-4
0
-1
-2
-3
9
-12
22
-21
-39
-18
52
12
29
15
-15
5
-1
-7
-22
50
28
-7
7
-20
-5
-9
21
-13
41
23
-88
24
22
8
27
48
-9
-11
-18
-5
41
8
21
19
-7
9
-19
-51
-14
14
8
3
50
23
20
-1
-9
21
-13
59
-13
18
16
3
0
5
-11
-127
-34
24
-30
4
-48
16
-15
11
-10
-22
1
15
-11
4
-1
-6
20
6
-12
24
0
10
14
-21
25
-18
45
-19
33
-9
-16
-17
12
0
9
-3
43
2
25
15
48
48
-18
-24
-8
-13
-16
2
-23
-72
-7
3
6
-15
-9
21
-26
5
-6
-13
-5
8
-16
-17
-11
-5
-3
9
-25
-3
45
5
29
25
-10
38
8
-4
35
60
38
24
-32
42
14
30
10
19
5
54
48
20
-5
13
-46
-15
0
27
-14
15
-12
38
32
-44
80
-24
12
45
-24
2
3
-30
44
2
-6
-7
-15
11
-26
9
15
20
31
-5
-22
33
14
-37
14
-3
16
0
4
2
0
3
26
-30
-5
2
-8
-11
11
3
29
-49
15
8
9
4
52
20
-27
0
-7
-6
38
-14
-63
6
72
5
-7
6
-50
89
-6
13
-41
17
11
0
-9
37
-1
-32
29
-50
1
20
11
-16
18
-11
-22
11
45
22
6
15
33
19
15
0
41
39
13
-41
67
7
10
-13
-2
-29
40
3
-32
-17
60
13
17
12
48
54
-5
3
2
-66
-6
15
40
37
62
-8
6
17
-15
-9
-30
1
13
-6
10
7
6
31
-27
46
34
21
10
-26
31
54
-24
-32
-23
12
23
-35
-26
33
-1
-45
-5
-57
-9
-27
-12
2
-80
23
-8
7
3
-12
12
23
19
65
-11
3
37
-22
-10
6
-32
25
21
3
29
20
44
-3
-4
-18
-19
-24
-13
-5
-1
111
52
11
29
-56
-67
56
17
-18
-38
-20
8
-17
-21
-90
-22
-32
-57
-18
-18
41
10
-8
6
-41
-19
16
-16
-27
-21
-44
8
7
-18
13
127
17
-63
-48
3
11
-13
-8
-30
-35
45
7
-60
-29
59
31
-60
22
9
-65
80
1
0
-15
-7
42
-32
12
8
22
-14
56
22
-8
50
-57
10
10
18
18
-14
-16
30
21
-6
45
-62
25
35
16
-10
-17
-40
33
-15
-5
-1
-70
14
26
-18
40
28
38
-25
30
21
51
7
-4
-14
13
-35
2
-2
12
0
-6
-4
12
-12
-27
-2
3
-21
2
6
-8
-3
16
0
7
2
7
9
0
-18
-34
-10
3
-16
8
5
1
2
14
-3
1
4
1
6
-28
-4
-7
-7
23
-5
-5
14
29
-1
-4
4
0
10
-9
-27
-15
-1
-3
-10
7
-27
3
5
-2
-4
0
-2
-7
-127
3
-6
-6
-6
13
11
-23
-8
-7
-22
-22
-3
9
4
0
12
19
5
-4
1
-4
19
7
16
10
11
10
3
-10
7
-27
12
-23
23
-18
5
0
21
18
-22
-9
26
2
-8
0
-12
-6
17
-11
-3
24
22
10
6
-8
10
-10
50
9
-2
3
-12
41
-4
-1
-6
-3
-9
101
-9
5
-13
-6
-20
15
4
6
-3
-23
0
-4
5
-8
4
-21
1
0
-3
-11
16
2
-2
0
-4
-5
-19
8
-48
-87
7
8
8
-7
105
-7
-6
-10
-4
17
-10
8
-65
15
18
-6
10
-12
0
-8
-2
10
-11
-31
-7
9
-1
-10
1
14
14
16
6
-18
-15
5
-6
-13
6
8
8
-39
-18
17
-6
1
-6
-2
-26
-10
9
-8
5
5
-2
-6
29
-4
17
-7
-29
-21
7
-12
-12
-6
-12
3
13
-15
1
-5
8
-2
21
8
27
-15
6
16
-3
25
2
-3
23
31
-3
13
3
1
-32
24
-18
4
-20
1
9
16
-28
28
-43
-6
52
-49
-52
-29
22
13
25
27
27
13
-32
0
-40
2
-36
-6
-17
9
-24
-2
-16
8
17
10
36
-1
4
22
-30
1
-22
7
38
7
-20
6
-28
-54
0
33
-37
-19
-6
-9
-55
7
-16
-16
-25
-1
29
17
4
32
-43
-37
-34
6
24
-15
-26
-2
-22
3
-12
-1
-10
-1
-3
-22
-11
27
18
19
-3
-19
42
17
-9
33
-19
-11
-22
14
15
0
-19
26
127
-15
57
-15
-48
-11
2
27
9
13
30
-39
30
4
3
-11
48
-9
-27
36
9
22
18
8
20
7
-6
27
33
24
26
-29
-14
-24
-48
-5
-52
-2
22
-33
-4
-22
-4
47
-30
15
8
-1
4
6
11
-53
12
25
16
8
-20
13
2
-8
-33
3
36
60
-19
-1
37
-21
-46
-12
-9
24
-23
-1
-60
4
14
-53
-4
10
-20
-6
9
-101
-13
30
5
-44
-4
55
-67
9
-3
-16
10
39
11
22
8
30
22
-14
-2
2
-5
-27
53
16
-15
39
16
80
-34
4
14
-22
-13
-16
23
-6
30
12
-20
39
-12
-35
-25
1
11
-30
-4
-16
-47
-24
12
30
1
-38
-8
2
-17
-48
-41
6
18
21
10
-17
13
27
19
42
11
16
28
-74
-10
4
5
-8
-6
-1
-3
7
-2
-12
-10
1
-12
5
-44
-1
-1
19
4
0
-9
9
-10
0
-5
-4
-5
-1
-10
3
-2
2
-9
0
-3
3
-8
0
6
1
-5
0
-13
-1
-6
15
-2
2
-1
10
-7
4
4
-12
-3
-5
10
-1
3
8
7
11
-44
3
-1
-4
-3
-4
9
17
-7
6
5
22
1
9
4
12
-1
-9
-11
-2
1
16
8
14
-31
5
8
23
-6
-7
-6
21
-2
-7
1
1
2
8
8
50
-3
8
3
4
-4
-8
5
-36
-1
7
18
5
0
4
-11
6
-4
2
5
0
-25
32
8
-17
-1
8
-24
1
5
-13
-2
-6
0
-3
-5
-11
-12
0
9
2
16
-7
3
-3
6
-8
-3
16
12
8
-1
1
-3
-2
-2
-5
8
2
12
-6
6
2
-2
2
2
0
4
-2
-1
7
-9
13
3
-8
0
7
-2
14
8
-12
-4
-3
-1
-11
-8
1
-2
-7
0
5
-6
1
-3
2
-2
-7
-2
-6
6
-13
-4
2
-2
5
-4
-7
1
5
-5
17
2
0
-1
11
-1
1
-5
-4
2
3
7
2
9
3
-4
-127
-1
10
-2
9
3
2
10
38
-6
-3
9
5
-5
-13
-3
-7
-2
-6
-5
5
9
7
-18
-3
1
4
0
0
-26
-35
6
-35
2
-14
3
19
5
18
53
-29
4
17
-25
38
30
-30
12
72
8
3
-12
15
-15
28
-4
-20
0
-16
-10
-8
-39
-2
11
-42
103
11
7
-103
-10
12
49
9
11
-16
62
16
-41
79
4
-29
6
-44
4
-2
2
0
-4
7
9
-53
32
52
22
-32
-16
-91
-22
-19
28
17
-36
7
-3
28
-67
31
41
8
-12
-22
33
-2
-17
-8
-34
24
-21
12
-28
-18
-3
-20
-27
-58
-13
6
-9
6
-33
17
-6
29
-13
-53
64
28
-32
-2
47
-39
-12
24
14
-43
29
47
-13
45
58
-24
11
-12
54
-20
-6
-12
19
0
17
15
-25
-18
-58
-38
-54
-17
-71
-84
-13
-32
-13
-6
-6
17
-40
2
-11
46
-3
-57
-40
-36
0
35
9
-30
51
29
-46
-7
3
-8
-24
9
-15
73
-44
-6
6
16
-4
0
-29
4
-18
-9
8
-43
42
20
-26
-22
-49
11
-29
-4
-24
43
-98
25
13
31
-23
112
15
9
3
-3
-44
12
-7
-19
5
-8
73
109
-32
-9
-58
46
27
-7
-32
-15
-14
-13
-16
-9
-14
21
84
-40
-12
25
54
-24
35
-59
-8
24
22
34
4
-46
-5
-51
11
-11
-5
-12
35
47
25
-5
-10
-40
-8
2
6
48
18
-13
-11
-127
122
-49
42
-25
81
102
45
-31
-4
-12
14
38
35
29
5
9
-28
-15
8
-7
-78
32
34
-38
127
3
-1
-16
4
67
3
-23
-4
-16
-19
10
-14
16
100
-3
33
5
5
-8
58
-2
-44
-14
114
-46
-24
41
3
5
38
15
-6
39
32
29
22
-19
45
-11
26
56
1
2
101
7
4
11
16
10
17
11
24
-4
25
41
-54
35
-35
15
-71
-22
-3
15
-45
24
12
-21
30
12
0
109
29
-7
-11
23
14
16
-24
-69
42
-2
3
36
33
11
8
-5
-1
-33
46
-10
12
12
30
-7
17
14
-12
41
3
-7
-5
12
-16
1
14
-7
-14
12
-8
9
12
8
7
-23
15
10
16
9
-37
-2
18
40
12
20
39
1
6
-22
-8
9
-9
-25
17
-17
41
-1
-47
30
31
5
2
45
-23
-35
-6
-17
-6
25
20
75
34
-32
-25
15
-71
16
-5
-2
-38
-3
-7
-28
-7
-41
13
31
10
-36
3
-20
-7
-46
-15
-11
12
12
-14
19
7
-14
77
-7
32
7
29
-38
4
-4
-12
-4
67
-12
-1
24
-47
-9
88
16
49
3
-3
-29
-21
20
-27
-3
43
-13
26
-50
-27
2
-15
18
-13
34
20
11
9
-9
15
-28
13
-50
22
58
-9
8
-13
-34
9
-19
-9
-20
27
36
16
-3
-1
-2
14
4
-13
-19
1
3
-9
76
1
-4
19
71
11
-9
-23
9
-15
0
-9
-14
-10
-12
-127
-14
-1
-104
23
24
-5
-7
1
-6
-9
-13
-24
7
-19
-5
4
21
-12
-8
-11
1
6
-11
7
-3
0
6
-3
11
4
-10
-2
-1
12
-3
-6
41
-8
4
0
-22
-17
-10
-3
-3
6
-39
1
11
-1
5
4
14
-24
4
43
-11
11
25
20
37
8
-10
-2
2
-3
6
31
30
5
-3
-3
9
9
-76
1
-29
-8
-15
12
8
14
1
40
1
8
0
2
-2
-50
121
17
-4
2
-1
117
2
6
-21
6
-8
-8
10
-3
-13
-9
-13
10
-3
-14
0
15
13
-1
0
-4
16
48
-8
4
-8
0
-1
3
4
17
-12
1
-5
0
12
-1
-14
2
30
5
-10
7
-3
23
-28
1
16
-8
-6
-15
105
-2
13
15
-5
-4
1
13
9
4
-6
-1
-12
15
-17
1
-14
61
2
5
-28
9
-13
20
-9
1
3
6
-10
-26
-16
-15
7
-10
-2
31
4
-9
-8
2
-20
-10
2
23
-18
-3
0
-6
58
-23
-4
13
-6
-5
-10
-25
13
-1
6
-5
-11
-3
-9
5
-16
-2
16
15
23
14
-27
17
-19
1
-91
22
3
7
-39
-6
4
37
-6
-37
5
33
-4
11
-22
4
5
-30
5
59
69
7
-53
-85
23
-30
-7
-14
-18
-14
-25
0
36
36
-7
-12
127
92
11
8
1
-50
6
-8
5
4
0
6
4
-6
9
-20
-20
-4
19
-19
0
-49
39
-2
1
-17
-10
45
-50
1
50
0
-4
-12
-22
-19
3
12
-16
-26
0
-5
