10
5
11
96
127
47
-42
-45
-15
11
2
10
117
120
46
-50
-44
-20
3
-4
1
51
19
17
-23
-3
-10
0
0
0
1
1
2
-3
-3
-2
0
-1
0
1
1
1
-3
-4
-3
0
-1
0
-2
-2
-1
-3
-3
-2
0
0
0
0
0
0
0
0
0
0
0
0
0
0
0
0
0
0
0
0
0
0
0
0
0
0
0
0
0
0
0
0
0
0
0
0
0
0
0
0
0
0
0
0
0
0
0
0
0
0
0
0
0
0
125
127
43
-17
-15
5
75
77
33
-89
-124
-70
20
13
8
-67
-94
-49
-15
12
15
-6
-6
-14
-6
12
9
0
0
0
0
0
0
0
0
0
0
0
0
0
0
0
0
0
0
0
0
0
0
0
0
0
0
0
0
0
0
0
0
0
0
0
0
0
0
0
0
0
0
0
0
0
0
0
0
0
0
0
0
0
0
4
-14
9
-34
43
-7
-41
53
-12
-36
41
-7
-107
127
-23
-96
106
-8
-35
49
-15
-90
97
-5
-63
61
6
-87
48
42
-127
18
112
-52
-30
84
-122
65
56
-118
1
118
-29
-62
91
-12
-24
37
-29
-9
38
-24
24
1
-46
-40
-10
-59
-52
-12
-32
-31
-10
87
87
35
127
125
47
61
63
29
-39
-46
-26
-64
-74
-39
-30
-33
-19
37
-103
57
7
-68
62
-6
-56
66
48
-119
72
-61
-76
126
-78
-52
127
21
4
-24
-73
-26
95
-55
-64
118
100
120
51
-37
-34
-7
-1
1
-2
127
123
52
-41
-36
-10
-6
-1
-4
50
18
20
-20
-10
-7
-2
0
-5
-63
-45
-50
-127
-125
-62
-56
-80
-27
-54
-25
-42
-102
-86
-56
-63
-67
-38
-6
-9
-14
-31
-23
-18
-19
-26
-4
-3
-7
-1
111
121
44
-7
-10
3
10
12
4
-89
-127
-65
6
3
0
0
-3
-5
-16
12
17
0
2
-6
0
0
0
0
0
0
0
0
0
0
0
0
0
0
0
0
0
0
0
0
0
0
0
0
0
0
0
0
0
0
0
0
0
0
0
0
0
0
0
0
0
0
0
0
0
0
0
0
0
0
0
0
0
0