87
-82
-54
10
22
10
8
-6
-29
-9
-37
-60
-89
13
-36
-41
20
27
-51
-16
29
15
2
17
82
35
60
9
-31
-1
-40
-21
-27
-61
49
2
-23
-4
49
-74
-96
84
23
-101
-67
-23
-27
34
-83
-56
-39
-8
-24
-37
-36
-35
112
58
8
-14
-63
49
-35
36
17
-14
-32
-109
-46
9
62
-17
-42
-23
57
-2
13
-28
29
2
10
95
27
20
-31
-66
-52
-23
-40
13
15
-21
20
-15
21
7
7
25
-7
47
-16
-85
1
-47
89
-88
-66
2
-41
21
-42
27
78
52
127
-35
31
-48
62
-61
-69
-81
-12
-26
24
53
24
31
18
-61
-58
-16
-28
1
107
-40
52
47
56
-34
-11
68
40
31
-73
45
-48
53
-25
26
-22
3
74
-48
-38
-7
20
-39
54
-56
25
-32
13
49
-13
17
13
32
66
-26
-2
3
-9
-40
93
-13
-43
-36
103
-78
-42
9
-107
14
-29
-56
-11
-29
1
-31
-15
24
33
68
-47
15
-23
-7
36
35
68
-15
-59
-30
84
84
-53
-11
-22
8
18
-41
102
24
17
0
-81
-20
-34
-5
-6
33
-2
-23
-10
-109
46
-4
-10
-44
82
1
9
-56
-56
51
41
-3
-4
67
-18
-1
-38
-46
-22
98
-8
-21
15
13
-35
64
101
17
-41
41
-9
-105
38
2
24
-70
30
74
57
32
-45
-53
15
17
7
-48
-52
10
-106
27
15
-58
89
6
-34
10
95
3
-22
62
-6
39
-48
-55
-11
-78
36
-12
-12
-6
23
47
-7
-39
-44
27
-49
22
-44
-65
-45
-40
-28
11
-27
72
-90
-70
94
-44
31
-24
16
-5
14
-7
-44
-29
20
-8
66
31
18
-17
-9
-10
-21
-100
42
-32
-1
12
-13
49
-32
-1
11
21
5
-9
-18
90
88
-72
-115
4
22
-7
10
-57
32
12
-4
-6
10
-15
4
-30
48
-89
-95
-19
5
3
31
-44
-63
-15
5
48
-24
-20
10
-24
-56
11
32
-54
24
14
13
-11
-24
-10
28
17
-2
-39
26
20
12
22
-41
0
17
4
-30
101
-94
-49
5
-45
-20
50
-32
-58
-19
-8
3
36
-12
60
6
36
-12
-65
-43
-42
49
13
-15
-25
-2
11
-30
34
22
10
-74
74
-3
-40
-52
72
-44
106
-8
46
-68
-98
-23
-8
-30
45
8
27
60
7
18
0
-7
32
-53
8
31
14
20
-14
19
-25
21
48
44
9
23
59
25
-106
10
-39
-49
-38
-21
28
-19
45
-52
14
-18
-28
20
80
1
-51
25
-68
-12
125
-23
16
51
-40
-67
55
-16
-19
19
-11
21
5
6
-10
-34
32
-15
28
37
-1
38
24
-17
-24
-48
25
20
12
-22
43
-20
23
18
0
48
34
35
-9
-10
41
11
6
5
-34
25
12
16
31
-23
-8
-5
-24
-1
1
6
-22
35
-16
-29
-13
1
-64
-30
-51
8
6
-36
-34
-37
-1
-26
-20
-3
9
26
25
26
-11
15
5
14
-36
-26
10
-9
51
22
-41
-8
-14
31
-2
16
-7
25
-1
-14
41
4
-2
25
-22
-6
2
34
11
21
10
7
23
42
-9
-24
52
-16
15
-40
26
44
-6
-2
5
-41
6
29
8
-24
-7
-13
-1
-12
-21
33
7
15
-5
-3
-10
-23
-1
-9
-8
14
-44
11
15
47
-77
15
33
-47
29
49
21
-13
-22
14
-40
1
22
-39
-21
-27
5
-11
-26
35
-17
-32
-28
8
-9
6
-28
-3
-18
53
-60
-7
-5
-7
-2
-45
2
45
-12
22
94
-22
-1
18
-6
-49
-20
-12
47
32
-34
18
1
2
-28
-5
-12
-8
10
-1
17
-5
2
-19
34
-6
30
11
-19
-3
44
-3
36
-13
6
7
-4
2
15
23
10
-30
-53
2
20
21
-15
-14
-10
-39
-29
-4
-25
-11
19
36
1
-23
21
9
-9
3
7
14
2
19
-7
-15
8
-10
25
-19
-36
-5
13
19
0
-21
22
19
4
-12
-18
-38
-1
9
12
-32
17
24
-30
-34
-45
-25
-7
21
-40
6
-27
-28
-5
-30
-2
-12
7
5
-7
-23
27
-24
-26
-9
-16
50
-43
-15
11
-8
-16
-22
5
16
-8
37
-25
-19
-3
-24
2
-3
-55
51
2
-30
-16
19
4
-27
-5
-72
-10
-9
-11
-20
-7
-3
26
3
15
18
18
-10
36
2
-11
-9
18
-9
-14
4
15
4
13
7
-30
-17
-4
3
6
0
1
-59
-28
3
-11
39
32
-26
-10
2
6
-14
-15
12
-4
3
-6
-10
13
-32
-17
12
3
-7
-14
14
-16
-21
-8
-9
16
-55
-55
35
20
-30
20
12
-3
-10
11
-21
-2
-14
3
25
12
15
-10
27
-21
34
17
22
-27
38
28
-9
-23
-35
15
-7
-10
-66
-31
-18
-24
24
-2
-13
-31
-5
-13
4
30
-1
-6
2
6
32
-2
-16
-55
26
77
-15
-2
7
24
8
19
32
-26
2
-2
-17
2
-39
-22
16
-1
-54
16
27
-41
-39
6
11
35
-14
1
37
-36
0
-7
10
-10
-18
41
-6
24
-33
7
11
27
-6
-1
7
14
5
3
21
3
-12
22
-12
-16
-14
-12
30
20
-36
1
-46
16
-127
49
3
14
-18
-18
1
-8
5
-23
-30
-27
-56
29
2
34
27
-2
9
20
-5
-20
26
8
-41
45
-1
-29
67
-23
10
23
22
-50
11
23
12
37
3
43
-45
-50
-54
46
8
-6
4
-15
9
-25
29
10
-44
40
-12
1
-26
-34
-13
0
27
-22
-15
-11
24
22
-2
37
-9
17
-44
-62
-37
-10
5
-15
-32
-20
22
0
3
-1
-30
-15
40
-31
-7
11
-6
17
-22
7
-15
-10
-13
7
-1
7
-48
-11
3
-17
-10
-36
6
5
-11
27
14
16
-10
0
-21
9
13
48
3
7
-10
-11
31
6
78
17
-3
-11
4
-50
-14
8
-3
0
3
9
-40
6
-13
-16
-23
11
-36
-34
0
-7
-48
-3
8
37
-30
-9
0
0
2
-35
0
-14
-29
-48
16
32
-13
7
14
-17
5
3
-15
-38
38
0
-6
-21
-4
0
-10
16
-3
-22
-4
-4
12
-15
24
-44
-2
11
-7
13
-10
-3
-18
-53
17
-31
-7
-21
14
-24
-34
-14
-17
-117
-27
-19
-44
-38
23
-19
-9
3
-20
5
-29
-1
16
93
-66
-6
5
-30
-127
28
20
20
-3
0
48
-35
26
2
14
10
-3
-8
-9
20
-13
23
7
11
-24
1
-29
-14
-24
-5
-10
10
-8
49
-26
50
17
29
-4
-29
6
8
-67
-5
6
-6
-28
16
-12
15
-7
2
-8
36
-4
-2
2
-7
-25
-20
12
25
2
-13
3
0
6
-57
24
-37
1
28
6
-10
25
4
7
-7
-1
95
-5
15
-29
8
-37
4
12
-18
4
27
-48
7
3
6
0
22
10
-76
20
35
31
20
18
-22
38
7
6
-27
-51
16
1
-24
13
-35
-58
-2
7
23
21
22
7
15
-21
48
71
-22
3
-7
-17
30
-23
-13
-12
-1
32
-67
42
-29
8
29
2
12
-18
30
16
13
29
-17
-2
24
-50
17
-11
26
3
-4
-25
8
-47
-21
-13
11
9
-10
25
17
-1
12
-16
-16
-11
2
8
29
27
-3
37
-16
-35
5
18
-29
-20
-19
-31
31
-3
41
25
9
-7
-24
-28
7
6
7
-36
46
9
-35
5
-17
20
-17
28
-7
14
17
-26
20
-15
-33
-27
12
23
26
-39
-18
20
0
-11
-19
14
-36
-38
11
-21
18
-2
3
10
-20
-57
4
-12
12
-25
-31
-22
0
3
11
-2
-22
1
-14
1
-4
-18
16
-31
0
19
46
21
-41
6
-62
-39
28
26
-9
2
-17
1
20
28
-3
32
-7
-46
-20
16
14
29
3
-13
20
0
8
43
4
44
41
-2
-16
10
36
-8
33
9
-56
-9
0
34
-25
13
39
-28
26
-18
-15
27
46
-5
4
4
-2
-29
7
48
9
35
0
-14
-4
7
-4
-4
-23
23
22
-91
-24
-2
8
11
51
-50
-38
46
-6
22
34
12
20
-17
7
-68
27
18
53
-29
-21
-6
13
29
1
36
53
24
-16
-11
14
-22
41
16
-52
9
-26
13
58
34
33
19
-21
-16
-36
3
11
10
-24
-30
-24
18
0
-17
-26
1
15
13
32
3
-21
6
19
-5
-4
-7
20
12
4
27
-6
-20
-31
-9
39
-9
-52
36
-26
34
-12
-16
-44
-21
13
-8
5
-10
-19
16
35
-22
31
6
-51
-14
16
14
-9
-23
9
9
-42
5
6
-6
-5
30
35
-50
-51
-5
-51
26
-11
-1
-1
-19
-11
15
32
-28
-15
-18
59
16
-51
-46
-5
-39
-10
-25
-14
-8
32
-60
12
-3
-35
-34
-73
-8
-2
-22
-20
4
-46
-5
22
61
-17
1
-44
-3
25
-6
-96
-31
36
49
6
11
-24
-11
12
38
26
-40
-5
-25
18
-4
-8
-53
58
-10
42
-14
-22
-14
28
30
-4
56
74
-18
-5
-12
14
-3
-18
-4
-6
-109
-34
-103
-25
-6
7
10
9
-17
1
-25
26
8
28
-5
-26
8
-21
35
-3
-21
-12
30
47
18
7
-17
4
-41
-17
-25
43
-26
-41
-48
4
-7
-2
-3
43
0
-6
-2
-17
-56
27
0
-36
0
-3
12
19
-17
6
20
20
11
-47
-8
-3
-33
6
40
-10
30
-15
25
-15
19
-17
13
25
-16
-19
12
36
-14
-2
-32
-6
73
-26
12
13
59
1
31
-33
-127
23
-3
2
3
-34
28
-20
-1
57
-3
41
-30
-19
-32
14
-35
6
-2
9
14
-20
-49
13
8
22
22
-2
-18
19
34
3
-13
-35
8
38
0
5
26
25
9
-13
44
37
22
-46
-3
48
6
24
-11
-7
-37
17
32
-9
-29
16
4
-9
-30
4
-38
11
-31
48
39
60
11
20
0
23
23
6
24
27
29
-6
-23
-3
-19
8
26
-32
15
0
1
6
17
-30
-99
-23
37
25
32
12
-15
19
-20
-27
3
14
30
10
-16
-37
-29
-93
42
28
-20
12
8
21
-2
18
-25
-13
3
20
-4
-45
-14
-25
-13
40
-27
13
-19
31
1
-19
-26
24
7
3
4
4
31
27
-12
-10
-30
35
-11
-50
26
54
-6
36
-10
-22
-23
-47
-56
-29
-42
13
-18
0
-30
37
-25
-19
36
11
-24
14
15
3
21
24
29
-24
11
-15
-16
5
-8
-12
1
-31
-32
-26
25
-10
-4
-9
19
-5
-16
12
13
-35
4
-18
-27
16
20
40
-30
13
53
-6
-17
13
26
-13
-30
0
-34
-39
-13
-11
6
8
-5
-56
25
-21
3
-18
-13
49
19
-13
34
7
-6
6
46
-17
-71
9
-32
-3
-46
-13
17
69
-51
-12
-10
41
-26
-20
7
-1
35
5
29
-28
-17
68
2
3
-39
39
37
-18
7
-19
6
-16
4
-35
32
-27
-36
-2
-19
-3
-5
17
-49
-11
10
-14
-64
-33
-51
-13
-18
-12
-9
10
1
-51
4
5
11
-15
30
17
12
34
47
67
-30
-26
-17
-30
14
-11
-31
-10
12
-24
-8
9
1
-37
-12
-1
-29
64
18
-23
33
27
0
24
-27
44
-39
-4
-47
4
0
-12
17
-34
31
-44
17
12
-5
31
49
-43
-14
2
14
-48
1
1
0
-5
22
0
-10
-22
6
2
7
2
69
-6
-1
-7
-20
57
-6
-25
-3
-42
31
38
3
-4
15
42
53
-2
56
46
26
-24
-9
23
-87
-9
-8
53
-15
14
0
-32
-8
-30
3
-18
16
38
-43
-38
35
-49
-3
12
-1
-7
17
-40
58
-47
29
6
-15
13
-16
33
35
-32
-4
-3
4
-36
-13
31
4
-12
-6
-13
-92
2
2
-14
-24
-5
9
-20
9
6
34
15
50
-11
-1
53
37
3
50
48
7
-17
-4
-13
0
33
-20
6
12
22
-10
25
21
3
24
1
-5
3
0
19
26
-28
7
-54
76
15
25
-4
-9
42
-4
21
47
-27
-19
-16
-18
13
0
-31
-30
30
11
1
17
24
10
-7
40
21
2
10
21
46
-20
20
36
-30
28
34
-31
-15
4
10
4
-1
-8
-24
-33
-40
33
-29
-4
-38
8
72
-15
-48
-23
43
-14
-71
34
84
30
74
1
12
2
-24
-40
-36
-12
8
32
-52
127
-24
18
-8
-43
22
-43
9
-10
2
-26
-71
-46
-38
4
-33
-19
44
10
-1
4
12
-40
-23
5
-51
-28
-60
-97
-6
-21
4
3
83
-7
-7
1
-20
17
41
-23
-57
25
-38
42
-8
41
-11
14
-28
84
-1
22
11
-17
-40
88
-5
9
-4
29
-34
-25
-1
14
27
-23
3
-64
26
-32
45
45
-48
46
1
-24
-32
-43
-22
19
36
51
26
-3
14
-59
78
-25
33
15
-7
54
2
-45
28
11
-33
-6
-19
-28
48
-51
-10
-8
-18
-11
-52
14
22
34
36
-52
-19
-18
-6
-16
41
17
-61
56
-10
-68
13
-12
-17
-24
2
0
-64
-16
-19
-17
-6
-18
-92
-22
-47
-7
-62
-37
-1
4
-72
42
-32
31
11
0
-22
-5
24
-18
-55
1
6
21
-8
11
30
28
21
-26
-28
-13
-1
23
60
-32
-2
14
-16
-4
14
20
-16
-16
-49
-28
58
5
-1
-28
54
35
35
12
-9
8
-85
22
-45
-29
10
3
0
54
-1
18
-28
17
-29
10
13
35
2
21
-41
-17
-5
56
25
13
-58
-3
-51
-33
23
-29
-5
19
10
-35
1
4
-36
-69
11
-31
56
-65
-41
30
34
-59
-7
15
-17
64
-20
68
31
15
52
-17
-17
28
-38
-14
-13
-16
4
-87
5
-22
19
45
-25
1
37
61
-84
-47
-44
95
23
66
25
-37
-34
-31
-34
50
-17
70
63
-30
4
-24
1
-37
14
43
-48
-1
22
37
-21
-22
-61
47
28
-14
43
-26
-42
-9
38
-13
-57
-45
-31
26
30
-3
-40
27
-28
-37
32
-66
26
-7
-4
-14
-68
-51
36
-58
-19
-100
-64
16
2
31
-81
-19
37
24
39
75
-74
-3
53
-76
30
21
9
18
36
21
-50
-26
-50
-46
27
-52
29
16
-58
7
37
-75
-39
-10
-31
9
51
-10
8
-40
-52
4
25
-14
18
-25
33
-34
-6
43
23
-38
0
16
-14
-53
-3
109
-62
110
92
8
-37
-24
18
8
-86
27
0
-45
20
36
19
-55
7
-1
-13
-4
-8
60
-27
-35
-35
12
0
-12
11
25
-19
-30
-28
23
-34
46
6
73
-64
17
-8
-58
-9
6
18
-38
16
-23
-12
-71
-43
-30
-34
65
-50
0
24
5
-59
-43
-27
-17
6
-9
-3
-41
-11
-4
-25
-22
27
-37
16
20
-76
-49
-44
19
24
77
-21
-68
-110
17
-44
-34
-42
-22
-1
10
-53
56
-12
14
-49
-39
22
-45
54
-27
-12
-12
-55
4
67
22
-15
6
17
-23
32
-35
-41
-46
32
38
2
2
45
47
-2
-20
50
23
-15
70
26
-5
-30
48
17
-78
-12
23
-22
-94
-27
35
-43
-54
19
-25
11
-23
-3
55
-5
-55
-33
-25
-64
-45
-44
26
-47
25
-16
-24
-38
44
-11
17
-3
68
14
-24
0
-15
20
41
67
-20
17
-8
-74
-45
-62
-51
-11
4
12
-35
55
63
46
50
-21
39
-26
12
-78
11
-22
27
-15
-12
-48
24
-23
-27
-54
49
-33
20
37
13
52
-3
-24
-2
-46
14
-20
9
-16
29
-9
127
-27
-21
10
-38
44
1
8
21
38
-40
-83
-10
-45
15
22
40
-52
-20
-31
-50
-1
69
-43
-22
37
9
-1
-55
-10
34
40
-6
1
-60
-27
-23
51
-22
2
47
-15
-9
-1
15
93
-77
9
5
8
60
2
73
46
-52
-14
42
-16
-21
-9
-40
-12
56
40
93
-80
23
-18
-20
62
46
-45
4
19
20
-20
8
23
-4
-54
-25
44
8
-56
-27
53
4
47
65
65
-60
-7
-39
30
-83
15
-46
-22
-32
18
-65
77
23
-21
-35
-48
4
0
28
-16
-10
32
52
-35
21
32
-48
24
-76
-45
-11
2
-21
-7
-57
65
-7
38
-25
-10
26
65
-50
-17
26
-35
32
-29
54
9
-46
9
-11
-20
-44
28
-38
4
-12
-11
-4
-15
0
76
-23
34
27
-20
38
-67
-29
-38
10
-62
43
27
35
15
-1
-24
-26
-8
7
-54
-54
23
5
-63
-51
-18
-48
-12
8
64
27
-65
19
45
49
-10
-47
-49
-37
3
-57
13
14
-5
39
13
20
-8
22
-21
127
10
-35
-14
13
-38
51
-71
17
3
-13
-73
0
-33
11
-31
20
-63
-3
30
-11
-34
-29
37
-35
40
-28
-22
-39
-39
-52
0
-52
-6
16
-17
-11
-13
-20
-18
-36
-21
-12
-106
22
-29
82
2
10
-48
-11
-43
-18
11
-2
-11
38
-43
-9
37
38
39
-7
54
-15
-27
41
-61
9
-19
-62
94
11
6
63
1
96
-16
-77
16
37
-23
11
51
-52
-11
13
-48
-60
-39
1
14
-72
30
13
-16
67
-39
-33
2
-38
22
-2
-4
42
-17
7
-77
-91
3
-29
-37
16
-15
-92
37
-9
28
-4
-1
27
-21
-14
6
26
29
10
45
-94
-43
-17
21
-14
-32
52
-16
-15
-26
10
40
-24
-4
-11
17
-10
31
37
-15
-20
-10
-3
-39
10
-30
87
-30
32
30
-53
35
0
17
13
31
108
-40
12
5
-19
12
-35
-53
65
-3
9
19
1
-26
-53
-7
22
-64
-21
-16
-9
13
39
48
57
33
3
19
37
-38
-53
28
-9
18
22
2
-36
-2
-39
-32
30
-24
28
41
-31
-101
-2
18
-51
-92
-51
-86
-31
-27
-63
5
27
-8
19
8
26
28
33
-31
50
18
-30
95
27
40
-31
-60
-38
-35
-30
63
45
42
-30
28
4
-63
40
-9
-34
-4
19
-16
27
8
42
-4
-24
27
44
38
31
-30
-41
-15
-32
-3
-44
-12
11
-16
-3
-21
46
-35
-106
-43
-88
-23
3
10
-71
-11
-62
6
-48
-108
-44
49
-41
61
-11
-34
23
-25
0
35
-13
-24
13
-13
14
21
-6
-20
64
9
-18
-115
-82
27
-42
46
61
-10
-5
5
38
-49
44
21
20
-54
-28
61
35
40
-61
-9
40
-19
55
-25
-7
34
73
-13
50
-45
-21
54
8
-12
-10
20
-12
-14
-22
7
-6
0
-19
-48
-36
-7
24
4
-21
-2
-13
52
56
-36
42
31
28
17
-51
-56
-17
14
-37
32
-34
56
10
-61
15
-28
61
0
17
0
-4
-17
114
36
-40
0
35
-26
-37
-38
16
3
-31
-39
41
26
42
-36
-50
-9
-21
-33
46
-24
-15
0
71
35
-1
35
-38
-35
-4
-52
61
54
19
-50
40
-9
98
-104
48
-44
-34
-23
22
-39
57
15
14
-48
19
67
20
-21
53
0
22
21
47
30
11
33
26
50
-17
24
5
-4
39
-7
-24
2
37
-4
-18
35
11
-1
15
-24
49
57
-36
-67
-19
-10
-43
-5
32
11
73
-5
-56
15
-19
-27
-31
5
24
-1
20
-52
80
19
-5
29
27
-33
-13
5
16
31
9
-38
-58
39
28
36
-11
49
-25
4
-43
-36
34
41
-11
-22
3
-32
27
-94
-41
-67
-50
5
3
-35
-26
-11
-31
46
-16
-42
-25
6
-2
6
12
14
19
8
-39
16
-47
16
-15
-41
1
-18
-12
6
67
40
-29
-12
-46
-45
-100
5
-17
4
-28
-66
-3
-37
43
52
0
-28
32
-54
-7
-8
-3
12
6
-26
69
23
19
-13
-12
-15
-30
-3
-48
-27
-58
-118
8
-4
-59
-127
49
20
-29
-9
43
5
-23
29
22
-9
36
-14
-9
-62
-34
-14
23
-25
21
33
30
-17
7
7
81
-86
8
-11
26
-41
-25
24
-13
90
-40
-15
-6
10
14
25
-1
2
-6
-4
-33
-3
-22
28
-12
-2
-32
-10
-11
-25
7
-35
19
16
87
4
-8
5
-48
-5
17
-38
6
11
-36
74
27
7
-12
3
-34
-40
-7
23
-23
49
-58
-66
-17
-1
58
-33
-3
3
58
-2
-7
9
-15
5
-5
39
-8
3
27
-24
-30
-63
-31
9
1
-48
-6
61
4
-27
38
-12
-42
18
18
-14
-29
16
-5
-33
-16
25
-33
-71
-16
6
-24
-59
22
11
-22
1
20
-35
-26
-62
-34
3
-22
-12
-21
-64
-38
11
-19
-37
-7
-70
58
-18
30
31
76
33
11
-17
-21
-13
-7
-52
-4
22
-3
-9
45
-20
39
-58
-11
20
11
39
-8
-38
30
25
-13
-23
43
-39
-51
29
34
-11
-34
43
37
-71
-2
48
-3
31
-19
-50
-30
-47
-32
-50
8
12
-80
-16
-21
-26
-96
-28
-17
42
2
-25
-95
-5
-31
18
14
-34
-64
12
4
-27
5
-6
-29
16
16
-77
-2
17
5
22
27
-38
-7
-52
-106
-1
-31
-31
45
-7
-21
3
10
-5
-16
-42
-23
-50
20
-9
-77
0
-25
-32
-11
-34
-4
3
16
23
24
-29
4
-12
42
28
-5
-6
-5
16
9
-54
16
-3
13
15
-14
-41
3
-56
72
14
-12
8
8
67
-25
-18
-19
-16
6
-58
-21
-17
15
32
-26
12
-36
-25
-49
37
49
9
-34
-4
-15
-9
69
8
26
11
21
33
30
-28
8
25
-11
-50
-6
-1
45
-1
-5
-16
34
-45
-24
-9
11
-28
-38
8
-28
14
-3
12
11
12
-11
4
28
29
17
-10
23
91
16
52
28
22
-27
-44
80
10
-23
-60
56
60
-23
-41
29
-8
3
-8
-127
-47
-15
-12
105
-70
-1
29
38
4
-26
58
18
11
-30
-4
-70
30
-104
-75
-46
-45
-27
45
67
-29
6
-13
68
-64
2
-29
-57
-26
1
-5
-3
9
23
-24
-6
7
-36
52
-30
12
-13
-1
20
-15
7
-42
-45
-9
123
9
-40
-27
5
54
11
39
-53
-46
78
-32
7
-18
-18
-1
-23
20
-35
-68
-11
-20
23
8
-3
-20
-95
-46
-31
2
-6
51
22
-56
27
-53
6
-67
57
9
-47
73
-40
-29
9
-28
-60
-37
-14
27
13
-29
-107
9
-6
36
-82
-24
-61
-37
32
-56
-32
29
-5
19
27
-25
21
24
14
111
-44
-30
-52
-15
-47
3
-23
-9
-53
-41
-31
-47
31
-42
-69
11
-11
26
0
-38
-77
-55
0
-3
28
27
-66
12
13
3
30
3
-73
48
38
15
-4
-4
49
0
42
55
-118
60
46
-36
-17
-64
-13
-2
8
-72
-8
-16
-91
33
25
39
-5
-34
5
-24
-22
26
27
76
-20
-19
7
-92
0
21
69
-12
-25
-42
-34
30
40
15
32
73
-9
-36
2
47
27
44
-73
35
-40
21
-14
-61
11
-76
-101
17
64
106
40
-4
-23
13
4
-45
-68
-8
-27
0
4
31
-25
35
54
-5
-28
-14
5
89
-8
-39
-19
8
28
53
29
44
19
22
-36
-19
5
6
-83
23
-44
3
-58
-99
-2
-31
120
83
-86
20
74
-22
-17
67
0
50
31
-69
-20
0
-48
-55
5
17
5
-73
-81
-46
-34
13
11
-33
29
3
-46
39
-64
-14
-2
11
-44
-23
22
30
-10
-25
1
-59
68
-17
48
5
18
-1
23
-17
30
20
-28
-33
-37
-3
-7
-13
23
-15
45
15
-23
-63
115
-19
-13
8
92
-74
29
-3
37
-78
-28
37
0
43
-38
43
21
73
46
17
41
-9
-16
6
-87
-9
116
27
-99
36
11
27
-16
22
-19
52
15
-47
49
-11
25
-21
-11
15
-16
103
43
-56
26
41
-32
70
58
36
30
-15
-12
101
-11
-74
-38
-63
33
-56
12
-12
4
-32
-9
11
-39
-33
-42
73
17
53
-30
-36
25
76
-11
1
25
-3
73
-35
-5
-52
11
20
-21
3
-21
-19
75
-19
-33
58
-39
-25
-34
13
-28
34
11
-94
-13
-43
8
-5
-28
48
-6
16
50
-18
4
3
44
32
3
0
-29
12
-23
-29
-15
40
11
-71
-19
-39
34
47
77
-55
-61
-21
-64
-56
2
-10
22
12
17
17
39
48
51
50
41
20
45
13
-67
-39
19
19
20
41
-21
-14
-44
-1
-6
-60
-22
3
-35
62
-37
8
39
43
-14
34
-10
19
-49
47
108
-32
30
46
-24
-61
46
-26
12
1
14
13
35
21
10
-78
-20
17
58
20
-41
17
31
10
9
-23
7
-48
-15
-41
-74
-67
-49
65
-43
127
-2
41
-20
-23
-5
-37
23
6
-77
-35
50
1
8
-27
-11
-57
12
34
33
-34
-35
-8
-20
-72
-79
-67
-62
16
1
11
33
-60
-2
38
46
-4
-52
8
0
-11
-33
-28
-38
-18
-51
36
30
-43
-69
-22
-28
2
-9
21
-39
-99
-26
7
-8
4
91
-12
76
67
24
-16
6
-11
-54
-72
-17
9
-60
-63
-24
-2
26
-67
-33
-121
-110
51
-12
79
-49
4
1
37
-13
9
21
49
-34
35
4
-46
35
-25
-25
-50
8
68
-18
-46
-50
35
-40
-43
-1
-32
-52
-7
-27
82
1
60
29
1
21
-22
43
-54
-63
9
-60
-18
36
-26
12
64
-59
9
-3
-38
5
-86
33
26
-14
4
-26
-20
-35
-54
34
-29
45
-32
99
-24
15
42
25
12
15
17
-55
7
26
-35
-9
-6
-3
41
-33
-1
-47
-31
-45
-35
30
-44
-5
14
20
49
-19
-8
-4
22
97
3
35
-51
-16
-14
41
-50
-33
-48
44
-2
-61
5
29
38
-27
-14
-13
-13
23
-106
7
-55
62
97
32
-11
34
59
19
-5
47
-8
-25
-56
34
117
52
22
9
67
-32
-21
6
6
-26
27
7
28
40
-14
41
23
-33
-6
21
-14
10
20
27
-69
2
-17
-7
-88
1
27
14
-43
-34
-59
-39
-38
81
-47
76
60
13
63
72
72
21
-16
-4
-18
-7
27
-34
21
36
-32
15
24
-44
-33
37
25
-12
-36
-18
50
53
37
-19
-22
40
2
35
-16
58
59
-49
3
32
35
-25
-12
21
-11
-43
-16
28
13
17
13
-6
38
61
-58
-9
-3
4
27
-46
-23
-22
25
41
-10
-101
-29
31
-37
-23
32
36
-48
-29
63
15
0
14
-1
-9
87
-104
-46
0
15
24
6
28
-46
7
47
62
-22
-2
-1
-58
31
-56
-39
-2
14
-43
8
-7
47
-19
-31
-45
-49
-41
-92
-2
28
40
30
-32
-4
-38
22
-44
-11
18
50
27
-29
-4
-50
-49
-28
-27
15
106
-26
88
-67
-8
-78
6
21
-46
-24
47
-2
-30
-42
12
-2
-8
-22
1
-56
-3
30
-5
-16
-8
-8
23
-56
-16
3
-20
27
-26
-68
17
-35
-50
52
15
45
11
25
-63
-94
-28
-25
58
20
-8
31
-1
20
-23
-3
-5
17
-46
50
-12
-13
-5
-19
18
-52
54
-36
50
-24
-19
-18
61
-100
3
54
35
49
-53
32
-15
-4
-45
5
-5
14
7
17
-89
-15
-20
28
-47
4
16
-28
32
-12
33
-10
-17
-5
-8
-16
5
-7
3
-18
-21
33
1
-8
-26
-1
-4
-5
-14
14
-6
-25
18
-61
22
-17
-19
-26
10
50
-18
-23
6
-15
-13
-42
18
-5
-6
-8
28
10
8
19
-12
-23
20
13
-9
-27
25
-11
-36
-11
-15
34
24
13
-15
30
-32
19
16
8
8
-3
-8
6
8
-5
-1
39
8
-2
15
-11
30
29
-41
37
-10
-15
16
7
-11
-20
-5
-13
3
35
-5
-15
-20
-29
7
-19
-12
13
-20
-7
64
-15
14
51
-11
-33
6
-31
19
-35
-1
-20
-6
-4
-2
6
2
23
35
26
-15
24
20
-3
21
31
35
-9
12
-3
1
-31
38
-1
-24
-19
26
-11
33
15
22
2
2
-8
-28
15
-12
-1
-14
24
-38
-35
-22
17
21
33
-8
-9
-31
-12
-54
-13
2
-28
-13
14
-24
-58
-41
15
11
-32
-67
1
7
5
-2
-7
-43
-23
1
-17
4
4
-29
-1
-16
20
5
-33
-6
-7
-19
25
29
-6
9
2
6
-26
-18
19
6
-48
48
12
12
-15
-18
29
-12
10
0
11
-30
19
-6
18
3
14
-18
21
-11
-15
-15
-23
-21
13
-27
-7
2
-18
2
-117
-12
34
-21
3
32
-4
-17
9
-10
24
-14
-14
14
-17
11
-22
12
-10
22
0
-12
26
15
38
-29
-15
-38
-7
13
5
-22
21
-47
-26
24
28
-11
-1
-15
-19
6
22
-19
11
10
-16
20
-10
-58
-9
2
5
-39
0
18
21
-5
-8
17
7
2
-15
-10
-1
-10
-12
-49
7
14
34
5
0
6
-11
19
32
-8
-2
-2
-26
-2
7
35
-14
0
-6
-23
39
3
15
20
2
18
21
-21
-4
-22
4
-22
-12
1
25
-2
-19
8
27
30
15
-17
23
-31
-56
0
16
35
11
-42
12
-9
-24
3
29
10
23
11
-11
-24
12
11
7
-1
-6
7
-13
2
21
32
6
-22
23
-24
18
-29
-37
19
-3
25
6
11
-36
-9
-25
19
13
2
30
6
8
-1
7
-51
-8
-57
2
-1
2
0
-4
15
-17
-13
-3
-12
-68
48
6
-32
-29
20
23
19
11
49
10
9
-2
16
23
-40
-47
-6
-26
22
-127
0
9
37
-11
15
2
20
17
-17
15
31
-4
22
-7
4
11
35
-36
7
-17
-22
22
34
12
-12
37
7
0
-1
22
0
33
-11
23
-23
18
3
-37
-50
-5
-18
10
-4
-25
-4
54
-12
9
-17
19
21
-1
5
-16
-8
-6
-30
-8
3
1
-28
-18
3
-14
55
16
-77
35
39
-19
-5
16
2
-56
-15
-55
38
-39
3
-21
6
-73
93
22
7
-27
-14
0
1
52
8
-28
38
-29
15
14
-34
31
-53
-2
-3
-32
-19
11
34
111
43
54
-24
-13
7
-8
-27
-74
-67
-26
65
-25
-27
-47
16
-53
-25
28
-62
-15
-23
-20
-15
17
40
3
27
4
-22
-39
-26
-35
34
-14
-29
29
45
26
-23
-85
95
-68
14
-1
36
-22
9
27
17
-98
19
76
10
19
16
49
-6
28
-7
-1
11
0
-85
-34
-23
17
-26
-2
-95
3
-39
-21
-55
27
37
48
-11
-55
-28
-50
19
11
27
8
-101
23
-18
-40
29
-65
18
-3
-16
10
-25
-120
-13
17
-11
9
31
-28
-47
-12
-18
36
-31
15
-26
19
-3
-16
-36
-5
36
19
5
1
12
112
127
23
0
8
-80
-5
-56
-21
-3
17
-22
-4
-15
-45
-15
48
44
1
-47
-17
40
-15
2
-29
-1
25
-7
-27
-49
-25
-21
-29
84
60
-25
-10
-12
-26
0
-7
53
-11
0
67
63
-24
-18
26
-26
-14
-16
2
13
-23
-23
39
53
10
30
3
5
20
-34
-41
-46
42
9
-16
4
33
14
-2
28
-59
18
65
2
-18
-18
27
-27
66
-8
0
-68
35
22
62
-23
-25
-27
18
-43
-16
9
-26
71
70
26
-6
-26
-14
14
58
-5
-11
-17
-14
-41
-18
-11
-3
-13
-15
5
-23
-11
16
-2
21
2
47
-34
-10
5
12
22
-13
-2
25
-59
42
18
-44
-32
40
59
-86
-9
14
1
-25
34
12
-48
50
-28
-71
24
-7
-32
-42
-19
20
36
5
31
5
-10
9
22
0
11
10
4
14
13
-87
67
14
-12
33
-30
-83
-13
-2
-12
32
30
17
1
-90
-7
-19
51
-32
-28
-13
24
21
-18
-16
-25
-55
-6
40
-18
-88
-15
30
0
8
-37
-16
-5
-40
-28
35
18
-46
-33
-10
34
21
-21
-37
9
-11
3
-20
37
23
11
41
-19
-39
-13
39
-17
-5
-32
4
16
11
-16
17
-52
12
-1
19
46
19
41
15
66
-4
-2
35
-46
7
2
8
-9
45
-38
-12
12
-27
-13
9
54
-30
33
-12
-21
-24
2
6
1
-11
-3
-28
13
60
-36
33
-12
52
-27
-15
60
65
-8
-28
-49
2
-51
-56
48
40
-11
10
40
-39
41
-19
45
-25
-21
-72
-11
-7
17
43
19
37
1
-21
47
74
-9
-45
2
3
-11
-3
39
-12
116
44
-9
-6
23
-33
-32
5
-6
-37
18
20
-67
16
11
-25
-17
-67
31
47
15
-14
-38
-12
-109
24
-3
-17
14
-44
5
-10
-6
14
-5
-8
-24
-13
-7
19
-21
-7
20
-13
-39
-30
1
-25
43
4
4
1
24
4
6
4
19
12
5
-19
-2
10
23
37
-12
21
12
-23
-14
4
12
26
9
-17
-10
-74
-16
27
8
23
0
9
-2
20
7
-9
12
14
7
-12
-1
39
6
22
0
21
-23
38
-7
2
13
31
58
-4
-10
28
14
-2
-52
-19
-21
-47
-2
32
-19
-10
27
-49
-1
-14
2
-25
5
-10
1
-1
1
-5
4
34
4
-11
-27
11
2
-12
-1
27
5
-16
-10
24
-3
3
47
-16
-6
15
-9
13
9
-4
11
-9
17
4
2
8
-24
-30
-14
-12
-12
5
-5
13
-3
-3
11
-12
2
-29
3
-4
25
17
-65
27
-5
-27
-16
-13
-26
-24
1
21
-3
-1
-16
-23
24
31
-1
14
5
13
11
-6
-11
32
1
47
-14
-4
-14
37
16
-18
13
13
7
34
-26
-1
-8
-22
-14
-1
3
-24
-27
-1
8
-67
-127
31
25
23
18
2
-36
-17
-4
-15
18
5
-22
7
-20
-35
-13
31
30
-64
11
6
23
-13
-3
33
-1
-8
-14
-27
7
39
-12
18
-18
17
6
-46
14
6
6
23
-7
-11
-17
-17
-14
12
3
-31
37
4
14
25
-2
-1
-25
-22
-18
-15
-16
21
-14
14
25
28
-6
9
17
16
44
15
11
0
40
8
11
5
-10
-26
-25
-10
-69
-4
-1
8
-43
19
-5
11
14
11
-12
11
-5
-38
35
34
-4
11
-3
-43
-33
17
-33
-31
3
-23
14
-4
-103
-14
-32
12
17
19
17
12
-33
28
4
1
4
4
15
23
-40
18
-20
-18
-30
7
-24
4
15
-20
13
34
-10
4
-18
-35
24
28
14
19
39
-5
10
-9
18
10
11
17
-6
26
21
2
9
-2
12
49
7
16
0
2
-63
-2
-12
-7
13
-14
8
-33
-57
34
-28
-26
-47
27
5
-45
-11
-38
22
36
-20
15
4
34
-6
13
25
24
-16
-2
-11
-25
-4
2
12
16
23
3
3
-7
-34
-9
5
39
-7
1
-3
13
-14
-8
-23
-15
-18
4
-13
-7
-17
7
20
0
11
-12
0
5
-6
-10
-8
6
-1
-20
6
9
-37
44
-12
32
1
18
-2
1
-3
17
20
-26
-11
-25
0
-6
-25
-48
-15
-8
3
0
-7
-26
7
-7
-19
-19
15
5
-3
17
12
-29
-6
-5
14
-8
8
-13
0
5
37
13
32
-32
0
-12
21
-7
6
-2
2
-10
-36
-7
-27
-1
4
30
10
9
-31
-21
-5
12
20
-43
22
24
-52
-16
-33
10
-22
35
14
-42
20
49
16
22
-19
29
-76
-3
-48
85
-26
-82
7
-4
-22
-38
-38
35
2
-52
27
28
4
49
5
35
-16
-28
-13
31
-16
16
-6
18
-33
5
29
-5
33
-6
-18
-19
-18
-7
-24
-31
9
-64
59
-21
54
31
-30
-10
10
10
26
-5
27
5
-22
-24
-47
16
16
12
-8
-22
17
-13
-39
0
31
28
-38
-1
18
-29
11
-13
58
9
-28
-11
25
-24
-8
-16
-34
8
-4
-47
39
26
-1
-84
1
-21
50
25
-16
-16
31
-29
-45
-91
16
42
-28
9
-21
-1
9
13
1
23
41
20
1
-25
25
-36
0
45
-19
-18
-40
-39
62
-80
-53
-2
-29
-60
13
-7
0
-116
-28
57
-4
27
21
-37
-51
29
-9
20
-16
27
1
25
12
-8
3
-9
7
-21
54
8
-16
21
31
-38
-15
38
-40
8
15
-38
-10
-35
-57
-18
14
-43
7
58
2
-11
-76
-68
-10
49
-4
-5
-47
14
3
4
-11
16
36
19
-51
-27
-18
6
-69
-76
3
3
4
11
-20
-24
-19
-7
16
40
64
24
-8
-2
-2
18
-34
22
-21
62
1
11
29
26
-61
-16
-21
35
-50
-2
12
-35
-12
-44
-64
38
3
-27
-14
18
27
38
-69
-32
3
5
27
40
-31
-3
-19
27
-48
-35
18
-30
-29
69
30
-33
-36
-28
52
8
-43
29
-32
-18
-17
27
23
0
3
-41
-21
-20
-12
7
0
-53
-45
-13
14
22
6
-8
23
20
-27
24
-39
32
3
-8
13
14
5
-38
-5
-28
-53
-1
18
-43
4
10
-20
-64
3
-6
-14
-47
25
-127
71
-70
-15
13
-1
-10
23
8
-45
-28
18
55
10
22
-21
-28
23
9
-3
-60
-51
15
-35
6
57
-7
-19
-9
-31
-17
-14
-75
-22
35
32
-16
8
11
-40
-10
23
12
-14
-1
-18
-42
-36
18
25
-33
1
-13
14
29
31
-24
-41
-9
32
-27
-22
26
-15
21
-27
-31
-2
14
-23
32
26
-8
4
-14
48
-12
-16
-61
-40
99
9
45
23
-41
9
21
18
12
-32
-3
-5
32
-12
39
-50
5
-10
-18
33
24
35
-10
-35
-24
-30
37
-6
21
-11
42
59
-44
36
10
24
14
-20
14
13
28
6
-8
1
14
-24
33
49
-27
-37
-16
-62
36
9
28
-3
-34
2
9
36
-37
-21
-42
-1
22
-6
23
-20
-9
-12
5
-18
-35
12
5
2
-22
18
8
37
-7
-27
10
2
-10
-14
19
-9
-15
25
-15
-4
-19
5
2
22
-2
35
18
-7
-5
-21
3
-20
13
44
26
-20
-39
15
23
-42
-2
-69
-21
-32
17
-7
-8
-39
10
18
-1
-18
45
-62
-7
-23
27
23
41
-21
13
-45
-46
20
37
30
20
25
-5
-9
-61
-5
54
-8
-15
36
-24
-12
-44
-18
-20
-64
-10
1
-7
24
-28
39
11
40
-61
-9
-12
51
-73
-65
-59
-59
-37
-67
19
30
2
-34
11
14
31
-2
-1
-16
1
0
-8
13
6
4
-30
-3
14
-3
-39
23
-35
-9
23
-2
-5
-14
-32
-9
5
-27
11
-31
4
34
-13
32
-19
-6
50
-30
-15
32
-69
34
18
10
37
20
7
-14
9
-14
29
-6
64
18
-52
7
-24
19
12
52
-32
-9
21
-14
-19
-14
-52
-16
-1
17
1
-4
22
-14
-66
37
-14
-41
6
45
49
-65
-9
-53
32
-45
-6
19
-12
-14
13
-39
-28
-14
59
-18
66
-55
-4
-3
-6
-24
7
8
-6
19
-25
9
19
15
14
-5
5
-26
25
-41
-3
31
-4
6
98
32
15
36
-34
-19
-56
-23
9
-8
38
-12
-4
3
18
-15
-30
-35
0
-19
-3
-62
-49
-2
31
-14
11
-11
57
52
3
-10
-39
-10
0
-7
45
-14
65
11
33
-8
-20
38
11
4
4
-22
-108
1
-40
-1
18
-50
-19
10
19
18
7
7
-46
-40
-8
-12
5
-22
-39
-18
39
-11
7
-15
23
-69
7
-41
-22
7
-24
11
-24
66
9
22
-87
37
-1
27
7
16
44
4
37
50
-37
38
4
-48
-19
50
-56
-53
6
-68
36
-23
-60
-28
-8
-27
-14
7
-35
-21
20
-30
29
11
20
48
-41
38
22
-10
-30
18
3
-5
76
-37
-100
31
-29
-11
4
-62
-30
36
23
-10
-18
28
-6
-58
19
-25
-5
80
23
38
-40
4
47
32
-14
38
-67
-14
27
-14
27
-2
-28
-25
20
25
-3
11
33
24
44
-2
61
42
-7
7
-4
-10
5
23
13
2
1
-3
-41
-47
-27
-13
-11
-3
59
-84
-49
26
-17
18
-3
-74
-12
26
-12
-49
-22
-49
9
50
4
13
-2
31
-10
10
-22
47
40
44
-39
33
23
5
-20
13
47
34
30
17
-36
-18
-40
65
-59
-18
-25
42
19
-12
-35
-18
4
-78
-50
27
42
-7
17
23
-54
-9
12
-17
27
5
1
7
5
14
-45
-9
-56
-26
-52
49
33
27
0
-38
58
85
-50
-10
-46
20
39
-31
16
39
27
-30
-31
9
23
-20
-7
19
-49
24
4
9
14
4
19
-23
1
43
-23
29
9
-36
-59
-6
10
-21
7
-39
-14
-36
27
-30
0
37
17
81
-51
10
-43
-127
-17
-55
13
-33
-23
-36
7
75
15
26
-21
-30
-22
5
-15
-19
17
12
-35
-41
-29
-39
21
-88
-67
-23
4
17
4
11
-29
-4
15
6
23
44
64
96
-114
29
4
22
-60
-9
-8
-14
21
-79
62
15
-12
18
55
-25
26
25
-45
23
-31
61
-4
109
118
-35
68
-63
-80
81
-49
-43
23
-19
6
14
-49
-17
-62
-5
41
36
-101
23
-2
30
42
1
-39
5
-61
71
54
20
8
81
25
-57
31
12
-23
-46
-28
37
-63
21
50
12
-27
15
41
58
19
17
-32
-17
52
-14
-51
-17
23
0
29
-24
16
-15
45
5
-27
108
-24
24
-47
6
45
-26
-36
47
-121
-17
23
21
9
7
1
21
12
30
-1
17
-52
-48
-46
-19
63
9
-31
-6
-29
-15
-44
-89
-114
-34
2
46
-38
19
-51
-40
-10
-43
13
-27
-20
12
-100
20
42
31
-127
-3
8
-7
27
4
57
5
-1
50
-69
-6
-69
-62
40
52
-47
-38
-39
-42
-38
28
-8
48
-4
-86
18
107
107
74
-15
19
-29
20
-4
9
-62
-56
47
34
84
-23
16
-39
24
-1
3
-41
9
40
-45
87
-38
-69
36
-12
68
-4
-33
-42
-58
-20
11
15
-50
53
24
-82
10
-8
-100
1
52
-14
-1
25
-68
33
2
-40
40
49
-52
-32
58
66
-30
-29
-38
-104
109
36
30
12
-33
49
85
-42
20
-58
29
33
-104
14
37
-60
-17
5
-7
-122
-97
-74
-22
-32
17
33
-59
-42
34
-19
4
-117
17
-50
-54
-96
16
-46
6
35
-76
-28
-54
44
22
-57
-30
33
-25
7
72
-82
80
22
-15
-7
2
-29
32
39
-25
-87
61
-2
44
81
53
-3
72
-55
-21
-66
9
-23
5
-12
15
0
72
-16
-45
-33
13
32
-36
-20
-36
51
-80
-5
20
16
15
7
-25
2
20
-13
-44
64
-58
-26
48
-23
-21
-3
29
7
31
8
13
60
-92
-10
-49
-25
15
-70
65
-15
7
-23
-10
-17
-85
-33
-26
-43
-5
19
-53
-46
-6
-16
49
1
49
5
17
-5
42
1
-13
16
-28
-35
1
-81
25
-27
37
-29
-21
-46
25
11
-8
-36
-16
-17
-52
-72
-20
-54
24
-36
-17
56
78
-30
-11
-28
-10
43
-3
-13
-35
-40
-21
-5
-34
30
-72
51
-20
-25
-108
-21
111
35
2
-22
9
34
56
-36
-11
-7
10
-70
-75
20
6
16
8
0
-27
9
39
-7
16
8
-58
-34
-69
5
91
-17
-34
-5
10
38
-25
51
-19
10
-76
3
37
-2
6
3
24
20
59
-45
42
63
3
36
103
-13
21
-44
34
8
-82
-21
-34
28
-19
21
63
-8
40
-22
-54
26
-17
-7
20
27
77
19
45
63
53
-13
17
-32
-18
24
18
-40
33
-41
-50
7
26
6
-21
40
-1
7
18
-61
-45
53
-3
28
1
-59
-24
-36
0
-16
14
17
-43
54
-2
-9
-17
33
-43
-43
-6
34
-49
-23
-22
4
-32
36
0
-39
-42
-20
-32
0
15
1
3
-59
-35
-125
3
7
14
-19
2
19
-18
-20
-17
69
-35
23
16
-4
-22
10
18
-10
-1
-6
-55
40
-6
-40
10
-35
-6
-38
-27
-4
77
-2
-72
-19
-9
2
-71
34
12
21
-49
8
16
1
-34
-34
-20
-4
16
-17
27
56
35
-18
-11
23
-40
-5
34
3
-41
-3
46
30
6
5
19
-64
-37
12
-9
35
-26
-45
-19
14
24
14
26
0
35
24
2
8
-54
0
-12
6
-11
10
11
-23
32
-30
-44
-53
-1
-1
25
19
98
-30
42
-3
89
26
-24
54
41
-6
-5
-22
-8
-27
-127
-68
37
-30
52
-8
-48
37
-9
-25
-62
1
41
18
-33
30
-5
-27
-7
-6
-22
11
-26
19
14
82
21
28
7
14
3
-29
49
-23
-22
32
32
-7
-23
14
39
44
31
-11
10
-46
-7
-65
-78
-14
8
-66
-22
-18
-53
2
-4
-21
-36
-1
-2
17
-28
-18
42
18
4
-1
-10
-30
-39
-45
5
29
43
3
-13
-38
-14
19
-9
-53
26
71
17
58
12
40
46
-42
9
22
22
13
62
10
33
19
8
30
-7
-18
-28
-56
35
-26
26
-5
-16
6
76
6
-79
-15
2
15
2
21
-72
-3
-55
-61
45
-27
-21
-19
-13
-12
-26
-14
-38
3
28
9
-12
-54
2
26
-14
-8
8
12
21
53
-10
-15
27
-2
-12
-29
9
73
26
46
-26
37
-5
-14
1
4
23
20
-17
-15
-14
38
18
25
38
-12
-33
0
-29
-17
0
16
-34
-64
33
-31
-18
-13
-14
-50
-60
-2
18
-24
15
-18
-6
9
-74
38
0
43
4
-37
11
19
24
-85
60
51
-8
-19
65
16
-17
-7
54
-12
23
-25
48
-13
-12
-31
-21
-23
9
18
17
-25
18
-7
26
-54
33
-30
18
-26
-44
17
-53
-19
8
27
18
-15
-17
14
-41
-32
-3
22
-64
4
-24
-29
-2
8
-9
25
-10
-8
-15
-17
48
8
3
9
-34
-5
4
13
-7
-1
63
-13
-33
-23
-30
25
6
-25
-17
20
-22
-46
-7
41
39
-35
-14
-2
0
-39
14
-7
14
-17
1
34
2
-25
5
-8
9
-43
12
-5
16
-19
-17
5
-3
-36
-6
-3
-1
13
9
-32
6
72
1
91
-47
-18
39
-4
19
82
-46
18
-50
-38
-82
-4
-25
-13
-13
55
80
-35
-59
-66
6
-3
-4
-1
-8
-11
-10
1
2
-4
-8
-24
7
-13
-9
-5
-5
10
7
-9
4
-12
1
0
-5
-4
3
1
-11
-5
1
5
-9
-11
6
-20
0
2
-7
-3
-13
6
-10
-1
2
12
-6
-5
1
-21
-15
-1
-4
-1
12
-1
2
4
7
-10
-6
-2
5
5
-2
8
-7
1
2
0
-3
-12
7
3
-9
-8
-15
2
-17
4
20
2
-5
4
5
0
-3
-7
4
3
4
-9
-22
-3
-3
-2
5
-5
-2
-23
5
-9
-8
13
6
-9
-9
11
1
16
1
0
0
-2
-5
-12
-1
-10
-2
2
-6
-25
-1
5
0
8
-15
-3
-7
-3
11
4
-8
4
7
6
5
-3
4
-8
3
6
3
-10
7
3
8
2
5
0
-3
1
4
-5
-1
-8
-6
2
1
-7
9
-1
-9
-6
-3
-11
-5
7
-5
0
2
4
3
-14
-127
-7
-9
-4
-9
10
8
2
6
3
-11
-2
12
-2
-14
16
-6
-13
-24
9
15
5
-2
5
2
8
-5
7
-6
-12
3
5
-31
3
-5
-7
5
-4
-5
-4
1
-7
10
-11
-3
2
3
-8
-6
4
16
-14
2
3
4
-1
-4
-2
4
1
-1
7
14
10
-4
6
-4
-9
2
-2
8
13
6
0
2
0
5
-11
-7
5
-3
-10
-6
-13
0
18
-3
-6
2
6
-5
11
7
-9
-1
0
17
9
5
9
9
19
1
8
12
4
-13
-2
3
4
-1
15
-16
10
-1
1
23
-10
13
-8
1
-1
-3
-14
-9
10
-12
2
1
-9
-23
-5
0
-9
6
-3
12
-11
-3
5
-3
-8
-3
-11
0
-10
4
-3
-6
-10
-4
-16
-4
5
-9
1
-4
-1
4
4
7
-3
0
7
-5
4
2
-2
-3
-8
11
1
7
9
3
-3
-9
9
7
-10
-8
-5
-21
-5
10
-5
-3
-11
11
6
8
-18
-19
-5
4
-14
-4
-4
-9
-15
-20
7
4
1
9
-5
4
-5
-8
-7
-9
-4
5
1
15
-3
6
5
1
3
5
0
0
3
-1
2
1
-6
9
-7
-8
4
-5
3
3
2
4
12
1
-3
0
12
-1
-10
4
1
3
-17
9
-4
-2
-9
-2
2
2
7
-2
-5
5
24
-10
5
2
9
7
8
6
1
-14
5
-4
-2
-2
2
-23
9
-2
-3
15
-1
-1
-10
4
7
1
2
-1
4
2
0
5
10
9
0
3
-12
-6
-22
6
6
-7
-3
1
8
10
9
-9
-2
-10
-1
7
-4
-7
8
-7
17
-5
6
5
-4
13
2
1
-8
7
-6
-3
3
2
6
5
-3
-5
3
-1
-16
0
-22
-3
66
15
29
-11
-2
39
-43
-6
39
1
16
-74
94
-8
58
22
16
-51
18
-11
37
56
9
8
-15
65
-36
17
52
20
-44
2
-77
11
1
43
-9
-23
-115
-72
-22
-31
-23
-40
40
-4
-36
23
38
-36
23
-29
-4
-55
-21
29
89
8
24
39
5
-33
-31
38
38
-40
-59
39
5
-18
-12
-101
54
-8
17
45
-7
66
22
3
8
-54
3
-59
-41
-72
38
26
8
10
9
-31
-71
11
9
127
6
-33
30
-39
9
20
5
-69
33
2
-58
1
-15
61
27
19
-20
3
36
-45
-4
42
33
-85
-26
27
-77
-29
-19
13
9
-93
54
-36
9
1
32
-60
-1
21
6
-12
-61
-12
77
-47
-16
72
45
6
-9
17
-64
-59
-19
25
-11
-36
-41
28
-7
-66
10
90
-62
25
-26
-34
-6
22
-26
3
7
-16
17
-21
-11
-12
-44
-45
-27
-39
-103
-4
3
6
-3
-28
5
14
-32
-44
12
-3
3
90
-16
-22
-81
35
41
-6
-28
-13
35
-7
10
26
68
-11
5
-5
8
40
-14
44
-9
-72
59
-46
28
-45
70
-5
30
-45
-63
-90
-79
-10
3
0
38
-94
-44
-5
21
22
-39
-10
3
-12
44
-35
-17
28
-20
22
75
16
36
32
60
28
1
10
-10
21
-21
44
-11
-33
69
62
-27
-34
-24
6
37
-29
-31
-3
60
25
-50
20
27
4
18
-11
9
-120
73
-10
-20
-38
11
-29
-43
-48
11
35
-98
-26
-20
30
44
7
19
46
0
60
-50
-85
26
-44
51
-43
45
24
-33
-92
55
-14
69
17
-18
-15
-16
-4
-20
34
-12
30
20
8
14
-67
-25
-67
-49
-36
97
18
24
26
34
-7
10
43
-11
10
11
-8
36
-36
-55
-50
-18
-3
58
-21
-43
-38
-14
-29
-19
-33
-47
-73
15
32
84
-54
-55
-8
37
79
-32
-17
6
-36
9
81
22
-3
-80
-9
15
9
-22
-25
22
30
-16
13
-15
-24
28
-19
14
-25
-18
-52
60
9
-59
-3
56
-21
119
38
70
-6
-46
10
-15
-33
49
-33
73
42
8
-33
-61
-92
-49
121
-68
4
25
-71
-8
-53
11
-30
14
-31
49
-39
-11
-60
19
-19
5
-48
-1
42
0
-7
-16
46
-27
56
-48
-74
28
37
-44
-53
36
46
11
-51
26
25
-31
16
-31
13
13
-59
-36
79
15
-65
1
72
22
29
75
37
-32
-32
13
-45
22
58
17
-15
86
-83
51
41
-4
-29
-26
32
25
17
82
-66
7
5
-49
-13
-1
33
-44
17
3
57
42
-5
37
3
-62
21
86
21
3
112
9
-18
-25
-31
-20
-3
-20
-10
-12
15
-48
-2
9
1
44
-11
-100
-39
36
2
12
-24
-59
18
-62
-41
-28
-1
6
-31
27
-4
13
-18
2
-127
70
6
5
-36
30
-12
-18
31
-17
16
58
-18
54
12
-22
32
-55
43
5
85
0
-8
-14
-39
26
-106
-78
26
-11
11
0
-88
8
-22
13
-13
-31
-65
-24
20
-18
2
29
-56
33
-61
24
-16
-13
36
-33
29
-33
-39
-4
68
30
-34
2
-56
64
62
-9
17
9
96
-36
-10
-5
-16
15
-5
-23
-2
80
97
-26
-50
21
33
56
-49
-15
38
-6
-1
-63
64
-4
41
-22
-14
10
14
26
-43
26
-88
-10
18
-30
-32
42
68
-10
22
-17
22
34
-49
29
-21
-25
13
-70
-40
53
-21
-37
53
-53
-91
-22
12
39
-43
-7
-3
28
-44
-33
-6
-1
-10
-46
28
-11
-10
-69
35
13
8
24
52
20
15
-47
14
-60
-12
45
31
62
59
-14
-15
58
13
-48
54
6
-50
71
-4
31
5
-11
-29
-22
-11
18
-31
-5
-36
-5
41
-97
73
-55
10
-116
5
38
-8
11
-15
-31
28
-40
-4
-15
52
-40
102
-38
7
12
25
33
33
0
17
-66
34
17
-9
45
27
-21
-14
-42
7
-13
-23
7
-9
11
-98
-16
11
40
-55
-2
-35
-86
18
66
42
1
-10
-35
15
43
-6
24
-26
4
-6
-22
12
-30
-48
-20
-25
-29
-18
-52
12
-4
24
19
-51
54
35
-3
-9
-69
70
-12
22
112
-16
-16
21
3
-58
-8
-57
-13
-16
53
-31
-44
78
47
60
-1
27
0
58
-16
-24
0
-45
-41
7
-1
2
-23
-1
-5
26
-6
33
21
-15
2
34
-5
-5
-7
37
28
-20
-63
2
-44
-13
50
-33
-29
67
59
-30
37
45
-40
-90
-24
2
-50
30
-15
-14
25
18
16
-52
46
-4
9
58
-18
-18
9
-23
50
39
-1
-71
9
-8
-71
-33
-2
20
3
9
-3
-7
40
34
-6
-3
39
39
15
31
35
-20
-37
-14
70
23
-50
1
36
-11
9
-73
14
-28
21
19
1
30
50
7
19
-64
-59
-54
-23
52
30
-11
-9
-83
-10
-6
49
-44
66
27
-44
13
7
-11
-37
-1
20
0
-68
-49
-9
-75
26
0
14
-118
-4
7
32
71
-66
-42
22
-7
8
2
36
13
-55
-9
-29
-66
49
56
27
28
9
17
-17
25
14
-16
-13
16
37
-59
-45
-20
40
69
-17
12
56
12
-12
17
-75
16
28
-98
-26
-19
-25
-19
19
-5
22
6
13
96
-2
-13
-14
6
29
11
-28
33
-7
0
-13
36
-25
2
8
-29
-17
93
-50
-3
-10
56
-37
-90
46
118
81
-45
-23
-28
89
84
34
-50
-6
-2
-45
-6
17
-58
23
13
-19
0
40
52
-35
1
44
43
-31
-51
64
8
9
42
19
-1
-33
-27
-35
-5
43
-54
5
3
6
-20
28
-38
16
78
-9
-86
-54
30
-16
6
-22
-8
25
-4
-41
-4
56
23
-75
-8
-97
-16
14
-40
-10
-13
39
9
-32
-25
-38
34
-6
-2
46
35
7
-28
27
-25
-12
-127
-5
-11
44
106
20
20
-32
56
33
-17
46
-7
-48
6
5
79
-96
-30
22
14
8
-33
-3
-3
52
82
29
-11
65
11
-94
51
-17
-3
-23
16
-31
23
38
-45
-21
25
-17
-71
4
-17
52
-54
73
-17
-62
-7
-46
56
123
25
21
-36
-38
-43
-20
22
-48
37
12
-31
59
37
51
-89
44
5
7
-39
-62
41
36
-24
6
4
0
6
16
-63
69
-8
32
41
-31
-24
-58
-42
37
35
95
10
-3
20
30
54
-10
19
35
1
-13
35
-73
67
-56
12
-13
-46
-26
35
-17
-98
-35
-56
-107
42
47
-22
17
38
43
-27
42
4
-56
-5
27
20
-17
1
43
-59
1
26
5
-74
29
92
-18
-31
-7
59
33
-3
25
-68
0
-58
-8
9
-63
-52
-68
-22
62
78
0
50
-11
-98
57
-30
-26
-72
-24
-18
1
38
7
-14
-34
-6
-51
-21
79
0
75
35
66
39
98
-2
-33
-70
23
81
16
-44
-9
25
-54
55
42
8
-41
-9
-2
-6
-18
21
-42
-24
10
-25
2
-78
-12
-9
-4
39
-38
-19
-63
60
32
10
4
46
-9
14
-29
-2
87
-57
29
-26
43
-33
31
-11
-58
22
23
-42
4
-43
103
-72
-14
2
2
13
62
-10
19
-7
9
112
40
14
-40
11
-16
-44
9
-9
-5
-7
-19
-25
35
-68
-55
-12
10
22
-17
-10
24
37
-60
-20
51
61
14
13
-59
-4
-18
73
-28
94
-41
0
-10
-54
-16
1
11
22
9
-37
14
-56
48
-32
-50
31
12
-26
-47
53
-5
-14
44
71
11
39
12
66
27
-45
9
17
9
53
12
-47
14
54
25
-22
25
-20
-39
82
-63
-13
-57
17
6
-21
-29
35
16
29
26
-18
-41
28
-7
-55
16
-31
-70
0
72
26
5
24
24
13
-41
-79
-6
-39
-18
24
0
-44
4
49
-26
18
18
10
-53
7
-50
-46
-39
-44
35
-33
65
-39
-63
29
12
-2
46
-20
81
27
0
-10
-3
-17
-49
25
-32
39
-51
70
-47
27
-18
-13
-1
19
96
-16
-69
-61
-45
6
-10
24
15
-8
-1
39
81
17
-18
-43
-86
-23
8
-42
-17
19
-13
33
14
-14
-38
-4
29
30
8
-69
-55
24
29
17
-24
1
-30
-26
-19
-34
19
19
26
3
7
6
-36
-10
-18
10
7
56
-28
-73
30
-3
-34
18
20
14
-23
-4
3
11
16
-5
21
-6
9
15
-19
-27
40
-4
0
27
8
-4
50
18
-34
-21
-27
12
-8
-27
20
-12
-11
-17
20
30
1
-11
9
6
13
-18
33
44
34
-12
24
-31
18
9
1
-45
74
-5
-11
-15
33
15
-9
23
52
1
-28
-22
39
-72
41
2
25
33
36
23
0
4
-31
13
-80
-51
38
-71
9
-42
4
-13
-4
0
-98
-54
33
22
-3
24
12
57
-23
46
-12
23
-38
-60
-7
12
-9
-29
-2
15
-1
21
-14
-15
-6
2
-9
4
14
-1
30
-25
-27
5
19
-39
0
-29
40
10
-7
-9
-2
-29
-68
-6
-7
36
9
-9
46
-18
40
33
14
-17
-34
-10
-9
-15
-26
70
39
1
-14
31
-2
-15
-18
11
-1
13
11
-26
30
42
-3
2
127
-29
9
-64
28
19
10
11
-71
-26
22
-26
-36
11
7
36
20
-8
10
-57
-16
25
-34
0
2
-1
-30
33
13
-26
36
56
37
-17
-46
13
-61
12
-42
44
10
-15
-17
71
-4
12
36
0
8
-77
31
7
42
-31
-22
-22
-9
17
40
10
-16
6
-26
16
-36
-1
-22
21
5
-24
79
63
34
44
-45
26
47
41
-22
-1
-68
69
-14
13
43
-49
-41
1
51
40
-29
-13
-10
19
34
-7
-9
-12
-58
-19
1
-34
-19
46
-11
14
23
18
-19
15
19
7
-15
-11
-11
-62
-21
3
-29
12
12
-13
34
-3
-9
62
15
-25
1
-14
11
14
-2
-17
-15
22
-26
3
-1
19
50
-4
4
-21
17
-18
17
-39
-1
1
12
-31
15
44
23
4
-19
18
-25
4
-41
15
18
-18
38
-7
21
-58
-18
11
-21
-34
31
44
-3
26
34
-14
9
-44
-5
-9
-5
-12
7
41
-12
11
8
7
12
3
-42
17
-52
-25
-19
35
-11
-32
-14
11
-28
12
-8
-60
-25
-24
-16
40
0
0
42
6
17
7
23
21
-19
5
-23
-62
-10
-6
18
55
4
26
10
-28
-26
34
1
5
-22
11
35
-80
-30
3
-36
-24
0
-20
-20
-24
-11
44
3
25
12
-12
-26
78
0
-52
-34
-54
16
-38
-28
-9
27
8
9
14
3
-31
-17
10
9
0
-10
-3
7
12
36
5
-108
-21
-20
28
-2
58
10
11
6
5
28
-57
6
34
14
8
-39
-7
22
-20
30
-6
2
-24
-12
26
-35
44
-47
27
23
13
-28
-33
4
33
65
-24
6
17
18
-11
35
21
67
6
-10
-36
10
-5
4
-76
-7
-10
45
-27
11
16
-25
6
-5
-4
26
18
-22
-33
-8
35
0
-81
9
9
25
-26
25
2
14
14
-20
-27
70
39
7
-121
31
-34
30
5
31
-42
20
-20
31
-45
45
-24
38
-11
-74
13
7
-1
-22
38
49
22
-20
-25
-18
-26
-33
-19
31
5
-34
16
-50
48
-1
26
17
46
48
-4
-6
-29
-34
4
28
3
61
1
-55
17
-29
45
61
-11
-31
-37
-47
-37
1
-77
-12
6
-3
-34
44
-17
-3
-51
35
-55
28
7
-20
-28
1
-38
28
-14
-2
-20
-9
-6
59
-1
-16
-51
-19
-39
8
-20
-22
0
-47
13
3
-76
-52
-66
-12
51
-42
-29
-13
25
-30
33
15
-10
-6
22
-4
-19
6
4
-35
95
56
-8
-32
-51
43
47
-24
-54
6
-48
-43
44
48
-51
29
15
-10
-21
-127
26
3
-30
1
-13
-56
19
-38
6
-74
32
-30
-18
37
-41
25
-73
-8
22
-4
-26
17
-33
9
29
42
-21
3
-12
-22
-65
51
-15
26
26
31
-57
-44
32
-19
51
-17
-1
-38
33
24
28
-69
12
55
33
-16
-5
-27
-30
-46
-32
24
9
-8
18
-7
-49
-19
23
25
-16
6
-36
17
19
-43
-23
17
-45
23
-48
-25
-16
25
39
-12
52
41
31
50
48
-37
-23
-1
9
-24
-20
-21
-24
-8
22
7
26
7
-5
-9
23
-103
-3
-7
-45
-13
-39
-46
-62
-31
-40
28
-17
30
-84
-38
-6
19
-18
-12
28
13
-1
-5
-19
-46
-28
-12
28
-1
-25
-31
32
-47
-40
23
-9
29
41
7
27
11
36
23
-62
-22
-51
-9
-27
5
14
-24
8
24
69
-14
0
33
-33
25
-68
-2
-35
59
1
25
2
-5
-27
-9
3
-10
26
-38
4
-57
-49
39
-70
-22
3
30
-4
22
27
56
-63
-16
40
-6
19
-58
-7
-10
-22
24
4
29
9
-25
43
48
-32
-60
29
18
29
-11
-22
-5
34
-7
-47
43
-49
30
18
39
-27
-14
37
-87
-1
2
-31
19
2
-31
25
-13
-55
-12
-26
45
11
50
-18
30
-30
47
29
-12
-99
-7
-21
31
3
-10
-22
-67
41
-29
65
26
33
-24
-45
-30
-20
-4
4
30
-47
14
-18
3
-4
27
-20
-4
-6
-49
14
-11
-18
-9
2
9
39
-25
-10
-37
6
63
-18
-69
26
-12
8
7
2
18
-28
-1
-51
40
-59
-36
26
11
17
-14
-62
-1
6
15
-22
58
-70
33
-25
19
-29
61
16
-6
10
-16
30
34
-43
20
-58
-52
0
-34
1
-30
-40
41
8
9
48
6
-6
-38
-17
-4
54
10
-47
127
59
15
-22
25
-23
5
18
15
20
-14
15
24
33
-53
28
29
54
82
-25
8
-54
-3
13
9
-5
-13
40
24
12
34
22
34
43
-34
-30
-48
11
10
30
-12
39
38
-37
3
-11
24
35
-40
-15
-2
11
41
-1
-9
-28
-42
6
-26
16
8
22
11
34
-6
-1
-45
23
27
19
-5
-14
5
24
-36
13
15
44
-31
-52
56
31
-26
-25
1
-2
-18
1
6
-30
11
-33
-44
-36
8
-7
-9
0
-6
27
24
11
20
-1
31
-24
-26
-45
11
-12
-12
8
27
9
3
12
69
-24
19
-74
1
11
54
-15
-23
-39
-13
26
22
2
-69
30
-21
-42
71
-28
-28
10
-22
27
29
13
17
-20
-45
2
3
8
75
-9
-14
24
-10
42
-32
41
-26
-48
60
-14
12
16
-32
25
0
-47
15
37
-36
-22
-11
24
-34
30
2
-14
-48
14
5
-60
-15
25
56
17
106
-27
-17
-24
-7
33
-44
-23
-28
34
66
-28
53
8
65
-3
13
4
11
-13
-34
-68
17
54
-17
-31
2
18
76
-4
-6
-41
-38
-62
-19
-44
93
3
-18
-5
-70
20
-46
1
17
72
-4
37
-28
-11
18
17
67
-36
11
15
3
13
10
21
-40
-27
-8
27
58
37
36
22
16
-38
2
37
-42
-32
-7
-7
-50
-64
-17
14
-6
-5
-29
1
62
-42
-1
12
-61
36
-11
-26
19
53
38
8
51
-22
11
-4
2
11
-11
14
-2
-3
1
-31
-18
7
24
3
14
-20
-6
-12
-17
18
40
-29
-26
42
-11
-4
-19
30
11
-43
-27
-43
4
-3
-60
-27
22
54
-35
47
37
-24
-62
15
9
41
-9
-24
-31
8
-43
90
-17
-24
-24
3
9
-82
-14
3
9
-22
-41
52
-18
0
-43
103
-17
-31
1
-7
-18
9
-7
-20
14
-34
5
11
-2
-58
36
-21
13
43
-1
41
60
-17
32
46
-4
-41
-11
-14
-30
11
22
7
1
-12
11
-5
12
6
26
21
43
-2
-9
10
-44
24
-47
26
31
-20
20
-7
-20
-19
-20
-10
30
2
19
-21
-10
79
2
39
-6
14
64
18
-28
4
26
87
-3
39
31
10
12
81
18
-10
19
-14
-7
-26
7
24
-58
-1
-20
3
-63
-8
-30
-42
-5
-38
-13
-28
30
8
1
8
12
-17
79
-53
35
33
12
-38
30
28
-9
12
44
11
-7
-52
-49
4
-11
-15
10
85
-63
-103
-40
-5
5
62
-22
-12
-62
10
5
-28
9
-22
-22
26
3
13
12
9
-28
12
3
-27
17
-45
-31
31
11
-26
24
-25
69
9
-9
23
2
-1
-36
24
-3
15
-22
48
19
-28
-7
39
4
-6
72
60
32
-7
50
-51
76
-40
10
63
-1
39
-19
28
-50
38
-37
-3
55
17
27
-41
-35
4
-2
7
21
4
60
-64
-42
-63
19
-37
31
7
-64
-22
-48
-28
78
-70
-76
-39
-10
2
-4
1
-62
11
11
71
15
-27
1
-85
-67
-17
-8
-4
65
53
66
12
15
-37
8
44
-40
21
-30
36
7
-11
-17
-6
7
64
-33
12
-34
-34
-4
-9
-6
93
-50
-14
-3
-21
-20
6
29
-91
-14
2
-24
28
31
26
21
25
41
-31
49
21
-34
-37
-72
24
1
-4
-47
26
13
10
-45
5
-23
-20
-1
1
-70
-74
-9
21
-6
-46
-45
-15
-9
-71
-21
-47
-44
-21
6
-127
-19
-53
-5
-79
-11
-44
23
88
2
-52
-24
4
52
-41
-24
6
4
34
-43
-14
-10
10
3
-28
26
55
11
-33
-32
-16
-23
15
-2
-1
-10
31
11
14
38
4
-40
27
-15
-64
-7
4
-2
-6
-4
-13
-91
39
-12
-27
-20
7
2
8
-5
6
-30
-26
-29
30
-7
4
-60
-79
-16
36
44
20
26
23
-66
-7
-65
-30
-24
15
-4
-64
29
-73
5
-7
-41
-8
43
10
-7
-12
32
-15
-3
23
10
46
-14
9
44
-31
58
26
-22
-2
-37
28
-12
-10
-40
-61
18
-32
9
-48
-17
-64
25
22
26
-98
-31
-112
-6
6
15
-49
-87
-79
-35
-35
50
28
-51
-37
-20
58
21
62
-10
7
24
29
-34
-54
6
42
9
-41
10
34
56
-11
4
15
-1
-9
-52
7
-16
49
-40
0
-5
70
12
-16
2
8
9
-2
59
-7
-61
31
3
-19
-1
14
6
-47
0
-65
2
-12
-32
-15
-23
47
-15
-25
-3
-12
-24
-44
-45
-63
30
-5
-7
-39
22
-18
8
-10
28
-26
-48
-23
9
19
-40
-28
3
-2
-9
-8
54
-27
19
39
2
-54
-28
23
35
16
17
-51
-10
72
-21
-6
-19
1
57
-10
-16
-7
29
-1
-11
28
0
23
-27
-9
-25
-13
65
-15
2
-25
16
39
-46
61
-17
-59
44
31
23
11
-15
12
-3
-13
-2
-3
15
-17
-38
11
-31
20
-15
-4
-7
25
-12
-12
-8
-3
19
8
-27
6
18
-1
57
1
4
-11
-13
29
-18
7
5
0
-29
-48
-35
21
-50
-78
-43
66
18
5
14
16
-20
34
-34
41
-17
20
57
7
-24
-103
28
5
-31
-24
-3
77
3
22
-12
7
11
36
-39
56
82
-8
50
30
-24
-32
-67
-41
26
32
-82
20
53
7
1
-57
-13
-25
3
-21
7
-13
2
62
-5
34
-30
23
-8
14
15
19
-33
6
-34
23
-42
14
12
-54
9
-12
-10
-61
29
-41
26
4
-16
25
-19
11
-6
0
32
-19
18
-32
-65
2
-10
1
-81
-9
-8
-9
4
28
44
-20
1
38
36
54
-32
64
0
13
-36
-2
-23
24
-3
-59
0
77
27
-13
2
52
4
14
20
46
-26
18
-47
-8
2
34
-9
8
20
15
2
-20
-82
4
-9
12
33
82
50
5
40
9
-32
-26
-6
-13
-22
-72
-15
-10
30
51
-3
-52
-5
-23
-49
10
-48
20
-32
-17
-23
-25
27
-2
-34
-2
20
-29
-8
4
18
39
17
-11
-40
-2
-8
-2
11
25
-17
61
-24
53
5
2
-25
84
-12
20
10
4
-16
16
-12
25
-42
-18
20
39
49
44
-14
25
31
-32
-10
-9
30
-8
-5
19
-24
-44
-34
-31
3
-49
-9
-18
-18
-48
-8
-8
-23
27
-41
2
41
-6
99
-40
-8
-120
29
-102
-15
5
9
7
-7
19
14
9
-19
7
114
-6
31
-14
22
45
9
30
-8
28
11
-57
39
-11
47
-54
15
-18
-30
11
-37
23
5
24
54
47
-96
-3
-19
-67
-46
86
-2
50
62
-44
-47
26
20
-12
-34
-13
37
-5
-15
-2
1
-31
-24
-31
-70
0
-23
-92
4
-13
51
24
17
8
51
-20
1
12
-11
-16
74
-8
-106
-44
-32
-49
-8
-46
-21
-14
-8
65
-13
25
-12
7
72
10
32
56
25
-45
-15
-57
29
72
-24
38
19
0
30
20
55
-12
-20
6
-16
55
30
-44
0
1
6
22
2
-9
41
-7
21
-6
-2
11
17
7
-34
-11
-3
25
-42
-91
12
44
35
-19
15
-50
-21
26
26
-10
2
13
21
-7
-19
51
4
24
58
-2
-11
18
45
-3
10
17
10
6
-31
-3
-16
30
-25
-6
-6
-39
2
6
-2
-9
20
-93
-5
56
-29
10
26
-14
-38
38
61
17
-43
93
51
-15
-13
20
86
38
-11
-35
23
-20
-58
-16
15
-80
-62
-27
56
-5
9
34
-14
-76
-29
-5
-4
-6
-12
22
18
-8
46
34
15
5
3
-15
-54
14
89
31
18
5
-13
-17
5
-44
-45
2
0
-26
-7
53
2
-17
14
6
5
61
-22
14
23
-7
-127
8
-28
-41
14
-15
2
14
-56
-8
-111
-35
73
17
-2
-44
9
7
4
-58
57
26
29
17
-22
5
3
-1
14
-29
13
-23
2
-27
4
-23
-19
8
-27
4
10
4
21
-4
-17
69
21
-18
-9
8
-26
-78
4
-25
-27
14
5
35
19
-93
65
-18
47
-39
3
-61
-1
-1
-12
18
-32
-25
-2
3
13
-72
1
-21
3
-2
24
-75
-7
-2
-32
4
15
-51
-28
18
37
4
-19
8
39
16
-18
-7
-6
-17
5
25
7
23
3
-75
-25
-18
46
2
7
2
-46
36
11
-39
20
7
29
45
-43
45
15
-9
20
-40
-44
-30
-48
45
33
61
-25
-34
-38
1
26
-43
-4
-25
51
-6
-27
-35
-28
21
53
-10
21
60
-11
-31
29
0
-84
-23
-39
-24
47
-28
18
-21
-19
-38
4
8
-42
-37
21
37
-44
28
-36
-3
-50
-49
13
75
-22
13
17
19
33
-16
7
15
30
-69
-1
23
-38
7
35
-1
10
54
34
23
15
-10
-19
12
30
-102
11
-1
-30
22
21
16
46
-1
-13
44
-14
-29
-39
-29
-54
77
117
11
-23
76
87
-39
-17
16
43
17
25
-6
-26
26
18
3
-29
12
-12
-28
-40
26
-86
25
26
-11
-15
-26
40
-39
-13
17
27
2
42
-26
-2
5
5
28
-11
-6
5
-16
-24
25
-13
-4
-17
-7
-17
48
7
-15
56
-7
-6
36
-35
38
-29
6
17
10
-20
-28
3
-20
64
-67
25
-81
-8
5
-12
21
69
22
-30
-29
-39
3
3
3
7
-37
-14
-127
-8
5
-70
-1
-25
2
47
37
-26
-19
-5
-45
-11
53
-34
55
11
-12
-40
50
-30
8
-2
64
1
-18
3
-35
12
36
-21
7
12
13
-53
18
-39
12
-44
26
-15
10
-1
21
-57
-60
8
71
13
-90
15
23
-50
-10
-58
19
-6
-11
5
3
-18
16
17
-30
-29
-23
21
-55
0
-42
16
29
21
-57
27
12
24
27
-2
-12
-38
-31
-31
47
1
17
-9
1
-24
-3
-6
27
4
-40
-14
-15
4
-23
36
1
-18
-29
-69
-5
25
-1
-42
-5
-27
67
19
-51
-78
-26
-3
46
-16
-5
16
-20
47
-1
-19
69
19
16
21
-59
-2
-31
-16
56
-58
-75
32
-3
-62
24
6
-3
-55
-30
5
-51
7
-15
-17
2
13
19
22
-15
-32
27
-50
-25
64
-7
11
43
-9
17
-17
-56
-36
4
-50
14
-24
-11
-12
15
-39
-8
46
-27
40
44
12
50
-19
41
-60
-11
6
-34
-28
9
0
-30
-14
-20
-50
7
15
34
9
9
12
-4
3
-39
5
21
2
28
6
14
17
-55
-3
-8
-52
-36
-14
-25
4
45
-19
-7
-29
-15
12
9
4
-20
-6
38
-7
15
-61
-9
7
-49
1
-20
-77
46
5
17
2
-57
35
4
-47
-14
37
16
7
14
44
-45
56
-9
-90
21
42
-56
-59
48
30
-31
-55
20
25
14
43
-4
-17
4
13
-52
48
8
-1
-5
-54
-22
29
43
-23
47
35
-4
-24
28
-34
-45
17
17
54
-23
-47
-30
12
-89
-42
22
-32
3
-7
-62
-30
-12
-7
31
38
28
-35
-46
16
-78
-14
-21
65
14
-66
-36
24
7
10
-13
-32
-5
-32
6
-9
-95
-24
20
-36
-103
23
27
-5
65
49
-13
32
-10
-32
-32
6
19
-54
-48
0
59
35
20
31
3
-32
-51
16
25
17
-32
-55
-20
-31
45
-66
19
-66
-29
-15
20
17
18
-5
-68
-50
16
36
-29
-45
-59
11
-36
9
122
-38
43
15
-16
26
-8
-31
-53
19
-53
16
71
-34
13
44
-6
25
-19
9
-84
6
-15
-45
-9
63
-71
43
9
6
28
-14
35
-38
5
-6
66
30
37
-1
-41
-14
-30
19
9
0
-8
-41
6
23
40
16
29
9
-59
-10
-5
-1
-31
12
-40
-29
-10
-64
20
6
-50
-5
-2
16
-14
38
17
-7
-35
-24
11
93
11
25
51
-41
1
-23
25
127
33
-18
64
31
-27
-20
19
-48
61
27
67
-65
15
-2
-58
-2
-101
11
37
12
-82
-64
73
28
-4
7
-18
28
50
13
-10
0
10
-15
-12
47
-4
25
37
-58
5
-5
-19
-31
62
55
3
61
50
-28
-19
-39
-15
-9
23
12
-6
-33
-37
19
6
52
34
19
45
32
12
67
-11
-17
-61
40
-9
18
-17
37
-23
-1
-11
0
-42
29
-27
9
27
-6
-44
22
1
16
17
49
20
7
16
29
42
5
62
-6
-46
-21
10
-53
17
4
-22
-13
11
-13
4
-26
-42
19
-17
7
32
-2
-3
43
3
-106
-32
31
0
24
-7
42
19
3
-38
21
17
-6
46
5
-66
16
12
-36
-68
-43
-61
-17
7
-10
21
-31
-29
-16
39
-66
-44
-42
-22
4
-26
13
-38
70
78
-41
-39
7
18
17
-34
-32
-22
19
-13
-14
-53
68
-27
44
6
-30
-10
5
23
5
-18
28
-6
3
11
15
47
-40
6
102
54
17
1
-39
-29
-71
-14
-2
-50
3
51
25
2
7
-42
29
-51
29
22
29
23
-54
10
-12
14
11
-26
-55
-9
-5
-57
50
71
-9
-16
-18
-3
65
16
0
52
33
34
7
7
-21
15
-7
25
26
9
-61
29
-4
-26
-31
11
-18
-45
-4
-17
29
84
-94
28
-24
69
-88
30
-30
14
-28
12
13
-15
7
-5
41
-28
-4
61
-3
-28
37
-19
52
-62
44
13
-35
74
16
-34
51
1
5
-12
21
-58
68
-3
-11
-3
12
109
-38
-7
-32
-26
-72
-27
10
-23
-12
37
-7
-4
-3
-17
22
-21
16
8
1
-42
9
0
11
-15
-13
7
-16
10
-3
44
-7
8
-50
40
20
-4
16
47
-16
-7
-4
0
39
55
-5
-54
4
30
21
11
-13
60
27
-48
-28
-8
28
-1
-21
-16
2
-12
-2
2
3
27
20
42
-5
-41
-45
-21
10
24
-10
-23
-11
16
-67
27
-24
-35
17
-28
22
14
24
-61
30
18
31
16
-27
48
34
-47
32
-3
14
-17
-4
22
11
47
-14
-16
3
23
-20
-13
-9
-48
-14
8
-29
0
-54
18
36
7
41
-7
25
-14
13
-40
-24
-43
-42
31
-12
14
15
26
-20
-13
27
52
-44
-20
-3
12
-7
-23
2
8
-21
24
38
-34
-17
-2
-10
-11
-11
-68
-7
-127
-16
2
35
15
4
11
1
61
-7
-19
-4
-20
-17
7
3
-13
14
34
42
-11
-13
-33
37
8
22
17
3
7
-16
-27
-28
-23
-5
-13
15
37
14
60
38
-32
-8
-3
17
5
12
-24
-13
-19
20
-21
-9
-26
7
16
17
-24
-4
-24
-15
-64
-24
56
-29
-1
4
25
5
-13
-4
-20
30
-28
1
-15
14
-33
0
-1
14
-6
-39
17
14
46
11
45
2
-13
39
-8
-26
1
-37
-25
-12
17
-53
-14
0
-6
-2
-54
11
16
13
-8
-21
-13
-6
34
50
-9
51
-27
-25
7
29
-21
-2
-14
10
14
24
5
-25
22
-36
-53
-6
10
-6
-18
29
-25
28
-24
-2
-34
33
19
-37
-39
-1
-10
-10
-16
-1
-29
-1
-17
-14
29
-13
-55
-32
25
-23
-18
-2
26
-16
12
-24
-25
-12
0
23
21
-38
-21
-20
18
6
11
10
42
8
53
18
-15
29
-3
28
0
-16
-5
-13
2
-61
1
-7
-19
3
-10
-17
18
25
-3
-6
7
-11
63
23
-29
13
21
-2
28
-2
-16
2
9
27
34
-21
-42
18
1
-12
-33
10
-19
-2
-20
13
4
-17
32
5
29
-39
-31
5
11
-13
14
-23
-14
11
4
10
-13
55
-12
-20
6
-50
66
-29
-26
6
8
11
23
18
38
-5
-5
12
-32
8
-14
7
-14
1
-19
-47
-19
3
-33
5
2
19
10
11
-19
45
-1
1
5
-18
-4
2
-13
-9
-26
17
69
6
-18
-28
26
42
-19
5
-45
-7
-7
29
4
-20
-12
13
-11
-40
11
25
-23
-3
-7
3
-6
27
3
-18
-30
7
3
30
-39
3
-9
8
-48
36
-19
39
-19
17
-15
42
-9
15
10
-16
14
-20
32
15
27
-16
-4
-17
3
4
-18
-20
25
43
-7
23
27
6
-8
1
-4
112
-127
-33
0
31
13
55
-7
16
2
-38
34
-10
-37
-37
-39
6
-17
14
-20
59
-35
-5
20
-38
-27
-3
-3
3
13
-27
-43
-70
-40
-16
5
21
-27
-6
-3
-51
-41
-20
-47
11
-25
8
-31
15
2
-10
-39
5
14
17
-35
-5
-4
-8
16
-19
3
33
-4
7
21
7
8
-115
9
2
46
-17
-17
3
-8
-17
8
-43
-23
22
-45
-58
-12
61
28
25
45
-7
23
44
23
9
41
-10
-1
-39
17
24
67
26
-26
-9
23
29
-64
20
-52
-46
-41
7
6
30
-29
-8
-36
-27
-47
24
62
-13
-9
-25
40
15
-80
-19
44
-25
2
30
3
14
29
-12
7
-34
49
32
17
72
-11
-6
42
-20
-39
-3
57
-1
-18
24
1
-1
62
19
-30
11
11
-8
19
-14
-50
-4
31
-38
-30
4
10
-24
13
-21
-33
-8
44
-8
22
41
29
16
27
0
-9
-7
37
8
29
-8
31
-63
-11
-15
58
-115
-32
50
-46
-17
-12
78
6
26
3
-23
37
67
21
34
11
32
-5
-12
-25
-24
3
62
-3
3
38
-31
-23
-10
34
13
-52
-101
41
-44
-5
24
-30
3
18
10
-49
-28
-37
33
22
42
39
-18
-6
-44
42
-48
17
-30
4
22
-35
15
62
-92
6
25
-46
66
19
54
-11
-3
-33
58
-35
22
-55
-30
13
-19
1
5
6
-9
10
-71
22
12
13
-20
10
28
38
-28
13
-12
41
-20
-2
-8
23
-72
-28
-52
-8
-9
-16
-33
-39
-8
-9
40
2
-106
-19
17
-13
47
0
-22
-2
32
-120
-3
10
-12
6
-41
0
14
-18
-50
12
7
7
31
-96
-4
5
7
-27
31
-5
-7
36
-4
-43
-30
0
-13
16
7
11
59
-15
-31
84
-30
30
19
9
-5
7
-42
-20
54
3
8
15
39
42
-1
-2
-4
21
-27
76
51
44
10
3
-121
-50
-8
-11
12
19
-24
4
2
12
19
-20
-24
-9
-1
6
1
-24
-24
-60
-8
38
6
-41
25
53
-36
8
30
-21
55
25
1
-16
-9
24
34
-20
-76
16
21
22
14
-56
-29
31
64
16
-3
20
-31
2
20
4
19
-11
38
-17
-13
-20
29
72
-4
16
-75
-3
-18
6
23
7
20
70
-2
-8
-6
9
-2
-1
39
1
-4
40
-2
25
-30
35
-21
-1
-18
-24
-3
-3
-45
-12
9
-13
11
23
-22
-10
-25
-7
5
62
-20
-38
-47
10
16
-12
-14
27
-12
-34
4
44
11
-26
-5
2
30
-54
4
-7
-20
22
-1
-25
-36
-79
-19
9
6
-23
36
-13
-5
-28
23
0
43
-22
-53
19
-10
5
2
-39
-6
-1
-21
-21
-37
-9
41
27
-66
0
21
43
-65
1
-6
-3
-17
9
34
27
-4
3
-48
-1
24
127
-34
-1
-60
-17
-50
31
2
36
-31
-14
15
-20
19
31
-35
51
-23
8
6
-5
-11
32
-28
5
-27
-33
4
6
-25
6
-13
0
4
20
28
15
-32
-22
-9
-1
-16
-21
26
-15
5
-26
-16
-125
-2
-88
15
28
-19
13
-27
-4
8
43
9
5
0
-12
-43
22
13
29
28
-19
7
22
15
1
-17
6
-27
7
-30
-41
14
18
-11
13
-19
18
-9
-4
37
22
-21
30
4
-26
15
23
16
4
20
-33
49
11
23
-21
10
-31
40
-45
7
66
-57
-56
21
-39
-22
17
-44
10
25
-10
-4
-48
-18
39
50
-7
-9
28
-60
5
24
52
38
-41
33
4
25
2
3
-29
-95
-4
4
16
-17
36
28
-5
19
-3
3
-6
-37
-42
-12
14
2
22
1
-9
-43
55
-18
0
32
34
2
9
2
25
18
8
-37
-23
57
21
-12
-6
12
60
-68
29
14
-24
26
21
1
19
-53
58
-120
-6
19
24
5
-16
12
-27
7
0
-12
19
9
27
-3
5
-18
-35
-4
-22
-40
22
-42
-28
-34
-19
-34
21
26
-44
-17
-114
-42
-12
-19
14
-104
-25
22
18
-29
-23
21
-1
-15
59
20
-60
-18
10
61
78
-17
-35
18
-39
16
-21
-9
14
24
-12
21
24
2
-64
34
24
0
34
18
28
-6
14
-7
7
-54
-27
-31
-36
-53
-33
10
30
-4
-99
-43
17
1
-30
21
-13
-2
15
7
-24
21
9
-14
45
-32
-6
-20
66
45
76
26
-42
13
35
-12
7
32
15
-12
-30
55
2
28
13
7
-78
-64
13
-96
-50
9
-29
-25
-30
-14
-83
-6
4
-19
-50
51
-67
-6
101
-13
-9
-5
-23
-3
-16
-4
10
-1
4
2
-14
35
-44
20
23
-19
0
-23
-10
56
13
42
-7
18
30
-19
38
46
47
2
-54
-35
19
13
24
-67
-38
16
-95
17
-3
-11
36
10
-2
16
-31
-26
18
39
-24
-7
4
22
-37
-16
-2
40
-23
-16
40
45
9
9
18
-12
-9
13
1
28
2
-18
37
-5
0
-39
-78
7
-11
31
-22
2
17
38
42
-8
-44
-22
-8
26
18
-6
-14
-5
-13
-22
12
-3
-10
32
-45
12
-11
-4
-8
18
17
-27
13
29
13
15
-49
27
10
-31
4
-47
-10
30
55
-18
-21
32
-3
-13
-40
-20
-17
1
-23
-23
-8
54
25
47
-10
2
-16
4
41
5
46
-10
28
21
14
25
-21
7
-13
-62
23
-8
-15
-52
64
60
-31
40
15
12
-19
17
33
3
-10
9
46
-24
-3
68
-58
2
25
70
25
-2
-32
84
-39
-1
-111
-6
5
30
7
-6
60
-4
-12
-41
-43
-45
-67
6
18
46
-9
34
-61
-80
16
-20
67
-45
-2
36
-47
-16
11
64
14
-29
-41
71
-41
8
-28
-49
30
-88
-11
-39
3
33
34
-17
-19
-62
62
-24
-37
36
-45
-32
-67
61
-32
-13
31
27
-92
7
28
-6
43
51
4
43
-30
-44
4
-3
25
-40
-1
60
77
11
-9
-41
10
33
-34
20
-14
41
-16
29
33
-42
17
85
-1
-51
-48
-89
-2
20
-50
87
-8
30
-4
16
9
-6
-49
-34
1
15
-4
-18
13
-59
-6
2
-9
34
-6
-13
-26
16
41
16
54
59
-1
84
-40
5
-21
31
-42
2
-31
-23
-11
31
-10
38
3
-16
99
41
-38
42
16
56
-10
40
-61
10
21
-14
-51
-18
-44
43
23
16
30
-97
19
1
-17
17
-21
27
-2
26
-24
-9
6
-1
71
9
-32
-36
-32
-80
10
-6
-40
-1
31
3
-61
-59
-16
8
16
-37
-62
17
-46
-27
-60
57
6
26
-59
-1
49
27
16
-64
-36
-64
-11
-11
3
-43
-6
-5
-45
34
-3
-40
-15
41
-24
3
45
-96
60
33
-57
61
51
16
-21
-50
-14
32
57
10
17
-38
-40
-23
-5
-47
-35
-29
16
30
18
-34
-29
-71
-14
-22
-64
-26
2
-39
-35
70
52
3
4
-5
-36
41
42
-45
11
14
-16
-1
-49
-95
-56
20
9
24
34
48
21
-30
32
57
-10
20
-1
-63
21
54
-30
24
4
-19
18
-35
-95
-32
-43
29
-59
-38
21
-15
20
-49
32
-45
7
-33
30
127
31
-5
-36
-27
32
28
-10
31
-12
29
5
-54
24
54
25
-18
22
-27
-20
-32
22
-46
17
81
50
8
-57
-19
16
-91
-68
-85
-28
7
50
-22
28
81
39
8
54
15
17
11
7
-14
20
-19
13
34
20
8
-46
-7
50
-47
7
-62
15
49
0
28
85
8
-14
-24
15
-64
1
-14
-49
23
-26
12
-27
1
10
21
24
15
-26
21
-39
38
-3
28
14
-24
-12
2
-22
-32
14
15
-67
-49
67
-15
11
0
-25
24
-1
44
-61
12
7
59
0
-27
-6
13
23
121
34
-21
0
44
-21
-24
45
-10
4
-23
-11
24
24
1
-13
-85
5
1
16
58
61
0
-6
25
-42
-32
-20
-12
2
-38
85
-27
2
-22
-1
52
-3
10
15
59
-4
19
61
4
51
7
33
46
3
-32
4
28
3
-24
-72
-11
-9
-15
13
15
-4
-23
-14
-7
17
-9
1
-23
21
23
23
52
26
15
-18
72
-11
-25
23
12
2
19
-5
24
-6
7
-22
9
-25
22
16
-24
0
-9
-1
-16
-28
4
-3
-40
-44
30
16
-71
-5
-46
23
-16
-45
7
14
1
12
-6
39
13
0
5
-18
5
3
-16
25
-14
-13
-58
21
-13
40
21
29
-2
-1
-8
7
-26
-1
-3
-11
7
25
-28
-24
3
-7
9
11
-41
1
-27
30
-24
34
-34
6
-23
20
-10
-36
-2
-22
7
-69
14
17
4
20
10
-10
-2
-18
-33
-38
-6
-6
12
12
7
-26
-14
-20
-16
1
6
8
-4
7
-20
0
4
6
27
16
-26
8
24
-3
17
0
-8
18
-9
-20
8
-23
2
14
-9
15
-24
-36
-12
-127
-23
26
19
-19
11
15
45
5
-15
-15
-1
2
3
-3
-8
-29
12
20
1
-12
-40
-20
9
21
31
5
22
-12
-10
-30
-3
8
32
9
-8
-22
-9
-47
28
11
8
-21
2
3
7
-27
6
-4
-2
-59
-22
28
-37
-15
-4
30
-12
3
25
31
-18
-23
20
9
4
35
-40
50
-14
43
-5
-14
-4
17
-45
14
16
-1
-12
-6
-49
2
-24
-4
-1
6
-5
1
22
21
-21
4
21
-8
17
1
-16
-8
16
13
-13
10
11
13
-10
10
13
35
19
28
12
41
14
24
25
-1
2
-21
-26
-10
-31
5
-68
-29
4
7
-13
-26
-29
1
37
-7
-5
36
-6
31
-23
-54
5
-15
-21
9
-3
-36
15
-10
-51
-37
5
-24
-11
2
16
0
-35
-20
15
6
-10
-45
-39
-14
-28
2
25
-16
-5
8
9
3
21
10
-5
2
-17
2
7
6
-23
6
18
3
12
-6
34
1
16
7
29
9
-47
5
0
18
-48
-1
17
19
-4
-4
10
27
-11
12
10
14
-3
7
-45
2
29
-13
53
-36
-38
17
-39
5
6
-30
-30
37
47
-3
-13
17
14
22
-14
0
-10
-50
-26
9
-18
-24
-24
21
-2
-2
7
-4
-25
17
16
7
-9
28
-19
31
35
-25
28
22
-12
-6
-24
82
-8
44
-8
6
12
-38
29
12
-14
14
-17
30
-2
-23
9
8
14
45
6
-8
-25
11
21
27
21
19
-19
-13
-37
-1
-17
-16
14
50
64
-27
7
27
23
-12
26
19
-5
-67
-13
7
44
40
-21
16
-32
23
6
-6
-16
-10
-25
-20
22
-16
8
46
-29
8
-11
22
-10
24
-37
-3
-31
22
-13
9
-6
-9
-13
16
-27
-10
17
12
50
-17
1
-5
10
-4
29
-12
-20
-5
-18
-16
-29
-40
-5
-6
-21
12
6
21
-12
-11
17
-53
23
0
8
-3
-15
10
12
-13
21
-7
23
17
30
-13
13
8
-40
-21
12
-16
10
-2
17
37
-127
-6
-6
-3
-7
-1
-1
-5
23
7
-20
-37
-21
-7
-12
13
-33
7
16
14
8
8
6
-7
-31
33
-9
-11
-35
25
-4
3
-8
-1
-4
-16
-12
-10
-14
11
33
-17
14
-14
-6
-27
17
-24
4
-94
48
-19
-53
-69
6
16
13
-2
-2
27
-19
4
-8
-13
25
-6
-19
7
7
5
24
8
-1
-10
47
14
-6
8
-27
-21
7
3
-6
-21
30
-12
-14
-37
5
35
6
-7
6
-42
12
9
-36
-46
37
3
20
-109
-15
40
-4
-3
-31
-27
3
-26
-3
25
2
11
1
-33
-23
1
6
6
-13
8
15
-40
-22
8
14
-17
10
-20
46
-66
-2
5
-19
-4
37
21
15
-1
-25
-3
-19
-22
-15
-2
-78
-44
-27
2
14
-14
-10
-1
-20
3
-10
-1
-5
11
-60
52
-42
-1
-1
1
17
-42
0
9
7
22
8
-21
-3
11
0
57
20
12
-28
4
-32
-12
-9
-39
-7
2
-36
59
-21
22
-16
14
-17
6
-7
-12
-15
-44
11
10
25
19
-31
-6
29
13
9
-20
10
13
2
-19
-28
29
-25
-22
-7
15
7
18
11
-19
0
16
-5
-5
18
12
-14
-8
-39
-60
-40
-11
-11
-10
-2
1
-31
-30
-60
-8
-22
6
-15
-5
-12
11
16
-29
14
3
-20
-66
27
22
17
18
9
-34
2
-13
-48
24
-1
-11
-9
-26
-42
-16
5
-7
7
6
-10
26
12
-12
-23
32
28
18
17
2
-2
11
-7
-9
-27
5
-8
-43
-8
-34
5
13
5
51
0
-4
19
13
27
14
10
28
-2
-15
-66
2
-48
-2
-5
14
-18
17
4
-19
-7
-14
17
-1
-7
5
14
-16
-25
0
13
-5
6
-12
-6
22
14
-29
-29
-11
4
-20
-21
5
-2
10
-14
-22
-14
10
18
-64
-27
1
5
-68
-16
23
-24
-23
12
-10
-35
9
28
-9
34
1
-15
-7
-9
-35
1
-23
-10
-26
19
21
0
10
-8
7
-46
7
7
30
9
23
-25
-34
-3
11
-15
-14
-2
53
13
6
36
30
-24
14
-12
-18
43
15
-8
-2
-26
-5
-5
29
19
11
30
-6
9
-24
18
19
32
-2
-9
-5
36
-26
27
-3
-8
-25
8
1
14
-5
17
9
4
-27
22
1
-3
-16
-5
9
30
10
-35
-28
6
-5
-6
1
-13
-9
6
-77
-9
65
35
-14
2
-5
-21
-2
14
-26
22
1
12
6
0
-11
12
-14
-8
4
20
-5
10
-4
42
4
-1
4
21
-4
7
20
-40
29
12
-25
25
25
-50
-17
-10
-7
11
4
79
15
-32
-7
19
60
12
31
0
-11
-12
-20
0
23
-31
2
10
-41
-11
-18
-27
-37
23
-65
-48
3
4
-39
-4
67
9
9
-13
-51
19
2
-32
4
-2
-63
-35
0
4
-40
45
78
-20
21
16
-38
-28
-1
-24
4
7
-27
25
28
-61
0
2
-1
19
4
-31
52
21
38
-10
52
16
8
-11
-24
0
-25
19
0
-3
-16
8
-65
7
-28
3
32
-12
-24
-14
47
-8
16
47
44
14
24
19
-9
45
-33
36
-16
22
-11
-89
-46
-30
15
-16
-76
29
1
-22
8
11
-26
29
67
-52
22
-2
13
10
58
1
11
-13
-32
14
-5
-37
14
-12
-127
-81
-63
4
-18
23
2
-19
-14
73
3
-7
27
-79
-8
-31
-60
32
-31
19
-8
-28
41
-25
32
-32
24
35
19
-62
20
14
32
8
-40
14
-8
5
-5
-37
21
3
92
-6
-9
-17
6
6
2
-20
8
5
21
-15
-4
27
44
-8
11
-11
-11
30
-1
29
-1
-43
24
-28
-22
-14
3
20
-21
10
-13
4
-18
-49
0
-12
-6
-5
16
-21
-15
-17
-37
9
20
12
-33
35
-49
17
5
68
9
-38
28
-95
8
-8
25
-6
-17
40
-8
39
28
14
-18
9
-4
23
13
25
-11
-40
-15
-33
8
32
26
-39
-23
34
10
11
8
1
15
-11
-73
2
11
-7
-42
13
-38
-28
-55
-28
-16
-60
0
7
-9
-8
16
-59
-24
-39
-2
30
-18
1
31
29
-5
17
-24
-36
21
63
10
-15
-31
9
-44
34
-18
-86
5
-21
5
2
-56
-17
6
19
9
26
-89
-13
-2
4
22
-14
-15
-26
44
-14
-21
-33
21
44
24
-17
-5
15
-33
-8
45
-16
-36
5
0
-27
3
-17
42
7
9
-3
43
-14
107
-52
19
4
-79
6
20
-17
-3
52
2
30
7
-46
1
-40
40
10
-22
-17
5
21
4
-29
-8
62
-6
36
-12
-6
45
-41
-44
1
-22
-13
41
-23
-5
-20
-16
-19
-13
-4
11
-1
-6
-24
10
-23
-27
-22
44
37
-46
-38
-16
-53
-14
-17
-10
-29
73
40
62
28
12
5
-49
-27
-15
6
21
-7
10
-5
-20
-17
-8
126
-35
6
31
25
-1
-9
23
-19
-26
-42
25
2
-18
2
13
47
-20
-7
-1
22
-22
24
-31
-1
0
5
-60
5
-11
7
-44
32
-8
8
-19
24
-9
-22
55
7
-3
23
6
-40
31
2
10
7
-9
13
-54
-19
-31
-13
13
13
-39
-1
31
40
39
-54
-39
18
-19
-10
-12
-4
23
22
-27
-54
-52
-64
27
1
-31
0
-47
21
43
-7
-60
20
-73
-8
-9
-33
-42
-5
-59
15
39
16
-19
55
12
-50
-29
-53
-26
70
18
30
8
40
-79
-59
29
26
-7
-52
13
-9
-12
16
-16
-36
7
56
-33
34
28
2
-7
32
-1
24
9
23
25
-60
-18
43
-49
12
15
56
-66
3
-14
-26
40
-28
53
27
-18
-62
20
36
14
-63
3
13
65
47
40
42
27
11
-6
15
-74
0
-22
-8
15
21
3
16
-5
22
16
16
5
4
17
47
-16
25
-14
-3
24
-3
44
12
4
-19
32
-14
2
33
-76
-5
9
-34
-46
-30
-36
-27
-56
-4
22
68
-27
0
-13
-67
48
29
4
-55
22
-3
-15
-16
-21
10
127
-35
-51
-1
34
-9
29
-14
-17
-39
26
4
-52
24
-35
-18
9
11
-76
-18
-3
13
-36
49
-44
24
-1
-54
13
13
29
7
55
17
-11
-70
-43
-100
-27
31
-22
29
-37
16
-63
-18
36
-3
-4
62
-60
12
-41
22
-3
-19
-12
-42
-51
-25
40
42
-8
-7
-27
-29
-16
-7
-36
71
-43
62
54
-3
-48
-38
57
18
14
17
-22
-33
-35
1
-31
69
-15
-50
-20
66
-62
-18
-7
-40
19
-8
-8
-25
0
49
-12
-67
4
10
31
-10
0
-52
-22
53
-31
-11
-45
5
-35
-15
-24
-17
-18
17
7
3
-25
-6
-23
-4
-12
15
-29
-56
23
-26
-37
40
-11
-17
9
-67
-83
-13
-32
-58
-45
-49
-16
18
49
-90
-29
47
-22
70
32
-45
12
-2
-62
-24
14
-46
-23
-13
45
-5
8
45
5
14
-38
-20
-46
-74
0
25
22
6
46
-55
-14
57
12
-27
38
-49
25
25
-23
2
26
12
12
12
-15
14
6
-13
-48
-41
-7
-37
-42
45
-29
25
3
-32
-15
37
20
23
-23
-32
-12
-50
-35
-88
-19
49
22
-3
24
-45
7
-40
-22
15
-28
6
29
15
22
19
-9
-3
14
32
-40
-12
-42
19
28
22
5
-39
6
-61
-44
-26
7
5
-14
-23
32
-26
-21
-52
-26
20
30
24
50
34
-13
20
21
-27
-50
17
-16
-38
19
-37
32
-14
-8
-25
-23
53
17
10
1
-25
0
15
18
-34
-9
-24
-2
22
-27
48
-10
-17
15
16
-2
17
-36
3
24
23
22
28
1
10
32
76
-24
18
-36
31
18
-1
9
-63
10
3
-24
3
51
-5
34
74
-23
-21
-29
17
-11
50
65
38
-64
43
2
23
-55
38
4
-31
1
0
-80
15
-2
-34
-16
-3
-26
2
16
-8
40
55
24
-8
-16
-34
-9
67
35
-36
-30
-10
-6
112
32
7
38
41
-41
-6
18
22
-29
-11
33
-7
-3
4
50
-8
-17
-23
15
-2
-7
-40
26
10
1
-31
32
7
18
-46
-65
30
-51
-3
-66
-28
-46
114
-5
38
7
-24
80
52
9
-10
-79
66
39
-13
17
41
13
18
-24
-59
-3
-49
-27
-80
42
-9
-37
10
-57
34
18
-10
20
-1
27
32
7
-11
20
-95
-12
3
-17
42
18
-19
-96
-81
-18
-33
57
-8
27
-5
-28
30
-69
22
-25
16
25
13
16
3
15
-20
-13
28
-43
44
46
-32
-65
69
-40
-53
-68
-36
-57
-34
-55
-20
-38
24
3
11
-16
9
2
-22
87
44
21
-4
-2
18
31
47
-10
-49
35
-26
-87
-47
-4
1
-18
18
-45
-37
-114
-13
-87
-52
-47
61
50
-7
70
-89
-39
-21
35
38
19
-46
-31
21
-86
-18
-34
20
69
-17
16
10
-61
15
-12
-4
-28
7
-10
-42
8
23
7
3
40
18
-22
-18
-2
-30
69
75
-29
2
33
7
54
-15
22
51
-31
37
15
-22
-104
3
11
-43
-47
57
42
-21
-4
58
-5
11
7
59
-29
-22
11
-36
17
31
-1
21
80
54
-51
51
-58
-45
75
13
38
6
-31
6
-6
1
-63
-35
-82
50
85
7
-85
-42
-91
51
75
-116
-4
-54
6
-11
-18
-10
-30
4
-14
9
65
41
11
-16
-36
-16
3
-47
41
-55
14
-3
-15
13
-127
76
55
30
-6
-15
50
-13
-53
-1
-1
-73
-34
10
-9
-87
18
-30
23
6
21
6
-56
-28
80
12
-42
56
45
30
-23
6
18
-9
55
-23
18
35
36
-45
27
27
7
34
-6
-19
-23
0
-22
-11
6
-11
2
44
-15
-22
40
-30
13
-13
37
46
22
-4
-29
-38
65
31
0
-23
22
-2
-81
-10
9
-43
9
28
-10
-72
-76
49
13
-22
-51
-99
4
24
71
-9
-61
5
12
-15
-32
-5
-10
-48
-34
-48
-44
82
4
10
49
-26
-25
-23
35
59
28
-14
23
-8
21
-21
77
-55
-44
-29
109
41
29
109
7
-36
-39
-21
-29
-16
-35
-6
25
22
-11
-30
35
-82
-34
-53
70
-27
-51
-33
22
-31
-126
-43
-49
45
-60
49
-19
-5
11
71
4
22
-32
-12
-28
8
107
-46
-12
33
-6
-15
12
56
-9
10
-22
-26
-52
40
29
0
-6
-40
8
26
-19
-20
-8
43
50
61
-26
17
-2
-23
33
-43
18
-2
-57
8
7
16
-7
-28
54
61
-23
100
-63
-12
18
-52
-2
2
4
50
61
-42
20
41
66
-67
1
9
-4
-11
3
-15
-28
-21
16
-53
-30
-11
-27
12
28
-40
18
-10
4
26
-9
-3
-8
52
12
-7
13
12
-54
-6
10
-6
85
6
41
38
-14
-13
-32
-25
-19
-20
-22
-19
22
-29
39
-6
22
12
-98
33
23
-16
-21
-51
-29
25
0
-16
15
20
21
25
-22
-41
23
5
-7
-20
33
-26
20
19
11
-1
-5
-36
-30
-13
1
-26
33
37
17
-48
42
34
-13
-6
22
18
16
93
-35
11
-26
27
27
10
0
39
-35
2
63
-10
-3
-1
-13
6
-12
-35
-59
28
-21
60
34
33
-4
10
-11
18
-30
8
-8
-34
-2
-4
-5
-29
-70
-53
12
19
-59
-22
-18
24
15
26
41
45
4
21
43
3
-6
7
-9
-8
-25
-77
25
8
92
4
-54
-22
-14
-21
22
-7
-127
15
28
-14
-13
30
6
-8
28
-24
82
47
1
0
55
-37
12
-41
63
9
-27
-30
32
-31
2
16
-9
51
45
50
-30
13
-16
-60
-12
5
-28
-76
31
-42
-25
-7
8
20
-45
-8
-3
1
14
-7
-15
16
77
-39
64
-12
-31
-6
23
-12
-24
0
-15
-11
11
12
-6
14
-17
-2
38
-2
-3
-5
-106
6
39
32
-2
-8
-15
-33
10
-74
31
-12
-38
25
-45
8
-73
44
-8
-24
-4
0
22
-68
-26
-20
-4
-45
-38
34
-28
-3
-3
-38
-15
-20
-40
-8
-38
-6
32
-22
22
-51
2
-62
-38
-11
-45
4
-1
-88
-7
0
9
-3
21
-30
-12
-46
26
12
-8
2
-44
-12
78
-48
35
0
-44
-10
-103
-79
-79
52
-5
-23
53
12
-27
3
-26
27
-7
4
6
-33
2
-9
58
-14
-2
30
-86
6
13
-16
-45
8
-5
-18
-7
-16
-4
4
14
9
9
14
-25
47
27
-42
-38
-31
-50
-39
-8
-4
-66
-7
-22
18
-32
-1
-23
-17
-1
-17
-5
73
-28
26
36
5
36
-14
7
-11
-29
-50
-23
-20
44
12
33
6
57
-26
37
-13
4
-18
-30
17
-79
9
-85
3
-13
39
-48
-35
2
-56
5
36
29
47
-29
-13
21
9
-28
-22
1
-22
-28
-11
-39
53
-2
35
22
-33
-13
-13
16
0
-21
-35
-8
40
6
0
-43
6
-16
8
-12
-32
-1
-26
27
-43
-29
26
-26
3
4
49
36
-26
3
-13
26
-2
32
-1
-31
-24
33
20
-18
-3
37
2
41
-27
63
33
4
-7
-8
6
36
8
44
-13
15
-2
-18
-33
14
0
-32
-3
-28
45
27
-37
3
-7
-15
94
13
16
88
-46
19
-5
0
-2
12
46
27
2
59
-14
-34
-60
-22
-4
-42
-10
18
-9
24
52
5
-62
24
15
21
-4
31
-2
-13
3
-2
8
-8
25
-9
-23
-20
13
-1
17
28
-11
26
4
18
-14
10
-32
23
11
15
-12
41
-22
-8
-21
-18
-38
-37
28
17
5
24
-12
-8
4
-48
11
-24
-18
-2
-4
-29
28
18
-6
-23
4
7
-2
20
-3
22
9
-6
-27
-11
13
-13
-5
42
-28
-31
-5
-53
-47
-18
14
-21
-18
-8
-51
4
15
-52
-29
0
-8
-7
-9
-14
-19
11
-3
1
-4
13
8
-50
13
-23
-14
-15
17
7
18
-21
-21
-12
49
-37
18
-27
5
-11
-29
9
-35
-2
20
13
29
2
-34
-13
-27
9
-47
-13
9
18
11
-68
6
20
29
-36
3
15
-2
34
-31
-21
-37
27
-15
-8
-13
-19
-30
29
18
-18
-2
-21
-10
26
-12
-127
-26
-4
15
19
-27
3
19
3
35
9
7
2
-30
6
-1
-12
6
52
20
-1
19
-6
18
6
3
19
-4
0
-2
-20
8
-7
-15
1
6
40
-24
7
4
48
-18
4
26
-7
-6
-4
13
17
-2
-13
14
-13
-29
-19
22
25
6
-11
30
4
-10
-7
5
-14
61
36
-19
-48
15
-42
35
-16
2
-8
-7
17
13
-10
-2
-14
4
5
14
-22
16
-13
14
-14
5
-31
0
26
-43
-2
-9
20
20
-32
-7
-25
7
-12
14
-11
26
-22
35
-7
-16
-7
-6
-8
16
-49
-29
-9
29
-12
28
-3
6
28
-5
-2
-24
-3
-12
-8
6
-9
-23
-2
9
-34
8
-23
-21
13
12
29
-30
7
-36
-15
8
5
-56
-69
-1
-33
-12
-11
0
-66
-15
11
41
17
9
-15
60
-27
-2
18
-14
18
6
29
45
2
-14
-13
-6
-19
-11
-9
2
-28
-8
6
2
2
0
-3
27
-20
23
-18
-9
-5
-2
6
-36
7
-11
-6
-3
7
14
-14
-28
-5
-10
-1
-21
24
-7
-19
-1
-5
-18
30
4
21
-34
12
-19
25
-60
32
-11
15
4
23
21
16
2
-10
37
-51
-3
-9
14
13
-5
16
-32
-19
-14
13
46
50
17
9
-46
7
-11
-15
-18
-55
-14
-16
-3
-14
2
-13
4
-34
10
9
-5
18
-4
-2
-27
9
-13
9
-24
-19
-4
-3
26
-21
-31
9
31
-15
34
1
5
13
-16
4
-24
23
-13
-6
40
38
1
-5
-6
-23
-20
-3
8
2
-3
9
-29
17
-22
-6
8
-15
14
-16
14
18
-7
25
-23
-24
17
-2
31
18
-16
-9
-2
-7
22
-17
19
-15
7
-7
15
1
-19
-28
-14
-6
-32
6
3
7
15
15
-1
10
-22
-1
-27
1
30
-32
25
28
2
2
-36
6
-28
-6
1
11
-34
-8
3
-45
4
2
29
32
-7
-15
-5
-19
-1
-34
10
-5
-20
11
-12
-15
-16
11
-1
39
21
1
20
-15
28
-23
-50
-9
-38
-14
16
-32
-32
30
-4
-25
-15
-57
8
-5
8
0
-31
13
0
-1
-2
54
21
16
1
-40
-11
6
-2
-14
8
-4
6
15
-8
1
37
-15
-47
-5
-26
-10
25
0
-24
-45
37
-9
-4
-43
-21
13
20
-20
-28
-7
-17
0
-8
-25
-13
7
19
9
7
1
12
10
8
-66
9
-7
35
11
-42
-6
0
-21
-33
0
57
32
5
-9
17
1
-4
15
-3
31
-32
11
-8
-27
2
-36
2
-77
16
26
21
4
-14
44
9
-7
-26
24
7
28
25
-10
-21
-28
12
31
-8
-12
-1
4
-7
21
32
-127
8
18
5
0
5
52
6
43
-7
-5
2
16
-25
27
-13
-23
22
-20
-5
6
2
-41
-32
-18
19
-34
-15
-17
-5
-44
-11
-1
1
13
-5
-10
21
-13
1
-38
4
-20
10
-29
-9
-6
-4
13
-14
-17
19
-12
-46
37
1
1
-9
-15
-7
4
-2
-3
3
2
-25
-25
21
0
-29
-7
-5
7
23
16
5
-10
-12
38
-16
10
-1
13
-20
1
-33
-13
-28
-3
39
20
-11
27
-14
11
12
32
-3
-10
8
-31
39
-17
9
12
-27
14
4
-4
-4
23
-15
21
-13
-6
1
-1
-22
13
6
24
23
-39
-9
0
19
9
-3
-39
10
-8
-19
-28
-16
-34
-6
-17
-2
-15
-19
-6
-43
0
6
-20
-9
28
-26
1
-8
27
-33
-20
-2
-26
-6
-53
11
18
-13
36
-13
16
-1
37
5
10
-17
-40
-7
12
-10
27
-2
-12
16
23
12
-4
-7
-17
9
-7
25
-23
30
12
-10
-29
-28
-49
-2
-62
5
-44
-7
-6
22
3
41
42
-11
-12
32
-8
37
21
13
-5
-29
14
-19
-2
12
-12
-41
-13
-6
6
15
-13
22
-22
-19
9
-1
9
-6
-6
13
-12
5
8
-11
-62
27
9
-13
8
6
8
-27
-4
-3
10
-11
-3
-15
-2
19
-46
-3
-3
31
15
-54
31
26
-21
-38
-5
23
8
3
4
16
-4
-2
19
3
24
0
-7
-23
-24
-9
-9
36
2
-22
-14
21
-31
-9
12
6
21
-16
-2
1
43
-15
5
-8
-16
-4
-17
14
13
-9
-8
2
8
-2
8
29
7
-11
7
-11
-21
-11
-1
-30
-21
7
-11
-37
16
37
13
4
-6
8
30
5
-8
-14
3
-19
13
-2
-30
21
30
11
23
0
-5
7
-9
-8
-17
-18
2
9
13
-11
-13
-18
1
20
6
25
-9
6
2
36
-6
-60
42
-5
-17
50
1
4
-17
8
19
70
57
-1
20
18
40
-63
-17
-16
-112
20
1
24
-19
11
34
-1
4
39
-33
-4
-49
-15
27
-51
12
0
-26
-7
54
50
-60
-7
82
38
49
20
-52
55
30
-33
-59
-23
17
-64
-1
11
39
-37
17
44
95
-9
1
3
-26
-21
-33
5
37
-7
40
18
-15
22
-58
26
-3
1
16
-42
-29
40
2
-50
-44
-2
-30
31
5
25
-5
-16
-6
90
-64
42
-13
-13
-51
-24
2
12
29
-20
-8
5
-19
-14
14
13
-53
5
-28
13
14
42
-1
13
-11
22
-20
-39
-53
-37
-13
57
2
-45
-31
30
45
-13
10
-55
33
-23
-48
-43
-37
32
-23
24
-56
-17
7
-41
-57
0
-103
-15
25
-7
-46
-58
-5
1
-38
30
14
-5
-25
-39
-49
-79
-4
1
-32
-27
48
-21
58
15
62
-2
-18
-25
-53
-25
-21
36
-53
-6
-19
15
-3
-108
-38
-26
-5
-105
-73
-33
-101
20
-30
38
-60
19
7
4
7
-48
1
32
62
0
-28
36
21
-33
13
-50
-54
-15
-6
-32
8
-31
-13
-44
-27
-18
-19
-40
2
24
-112
-16
-57
-8
32
10
-125
-20
12
-24
23
2
30
-19
9
-80
79
24
5
28
7
26
-1
-53
33
-35
18
10
-24
10
11
-20
-97
-49
1
-24
3
-23
-48
-19
-35
-51
-6
-9
41
6
-31
-106
9
-39
-39
-31
17
9
-4
10
-17
26
-39
16
12
12
104
-26
-68
47
-29
-97
-23
5
-108
86
2
-80
38
29
-7
22
-3
5
-8
1
-50
40
-29
-6
36
10
16
-31
-3
-2
15
-5
39
44
-55
-6
5
-16
-27
16
22
-19
2
39
-49
48
14
9
-61
20
-43
-20
19
64
-57
-67
-12
23
17
0
-99
9
-25
22
-26
5
11
76
30
16
7
-27
97
-121
37
-127
1
29
-30
-124
-28
-17
-18
0
20
-25
-3
-43
41
0
9
-9
18
29
43
20
1
19
26
35
-29
0
-4
4
34
22
1
35
15
-20
84
-3
8
2
56
-38
34
-5
-5
-23
17
3
10
1
-12
-14
-3
47
-17
18
-42
19
-10
-24
-41
7
-45
-12
21
-25
13
19
4
15
-59
5
13
20
13
-31
-21
17
-13
-24
106
25
27
46
19
45
-19
23
23
19
-2
37
-19
37
-66
-33
-10
55
25
-26
-34
-18
12
0
22
-79
20
42
-19
29
-9
-20
19
52
38
1
24
21
-23
10
-125
66
-7
-37
47
-7
0
-16
22
14
-24
58
-66
-17
-2
-21
21
44
74
28
19
47
-6
-16
-17
-20
-32
-4
-8
31
11
-15
-31
-14
12
-10
11
-12
-8
-21
-4
7
-68
8
51
-2
6
-4
-7
9
-9
9
-11
7
-11
-4
-17
12
18
-35
7
-33
-4
9
-45
-38
-33
30
-13
-17
-23
33
6
-7
-16
-8
7
5
11
-1
-11
-11
5
10
-20
11
2
19
-2
4
23
-1
8
-15
-12
-34
-21
-27
-27
1
-1
1
28
-7
20
6
-26
-6
15
-10
-23
-23
-13
-22
-23
15
-19
2
-20
19
33
32
-9
-2
-2
-19
-15
22
1
6
-10
7
-34
-11
19
16
-34
-4
-13
13
-27
-6
-35
-6
-30
-6
-5
-30
-7
27
-6
-25
-35
-19
18
8
-21
-23
-12
7
-10
-3
8
16
-14
4
25
-24
-3
-36
7
-3
4
2
-14
4
-15
4
13
-15
-12
0
-35
-3
10
-8
11
7
49
4
-1
6
17
2
8
-9
-9
-9
-24
18
-127
15
10
3
-22
2
-5
2
1
10
-7
12
25
-4
2
11
-7
-11
-13
-16
-8
17
-39
11
-3
-43
13
-17
-4
-2
-6
22
-42
11
23
11
41
17
-15
1
6
-11
30
-22
-15
7
-9
-15
18
-42
14
14
11
8
11
15
30
28
2
-5
2
15
8
22
-8
-19
56
15
-12
-37
-30
-9
-17
-8
-10
-36
0
-18
-2
-1
7
14
-39
-2
-4
18
19
-23
19
10
-8
0
28
-19
29
-3
19
-21
21
-8
8
1
-25
13
25
7
7
-10
2
-1
9
-21
12
21
16
-20
-6
-34
-20
8
-10
-7
-20
-48
-2
-36
-1
-6
5
-8
-11
-42
-17
10
-11
-1
15
-7
-28
-14
11
2
7
-17
-14
-30
1
30
-7
-9
-35
-33
-21
2
7
8
-33
-6
-28
0
15
24
-24
-16
-5
-23
15
-30
8
17
1
-2
-10
-22
-10
-22
-7
-46
2
-6
-5
-1
-4
39
20
-38
1
-2
12
-7
-2
18
-10
-3
-2
-36
16
-62
15
-7
39
15
-5
27
6
21
9
-5
-23
5
-15
-4
-10
24
-5
6
3
15
-6
8
21
0
22
-21
-7
28
-30
-15
-44
9
-30
8
-36
3
12
-17
6
11
-10
-4
15
-1
8
0
33
5
12
-48
0
-10
-17
12
12
-14
15
-8
5
-21
18
2
13
0
-22
-16
-13
1
-1
-11
15
0
1
3
15
-16
-42
0
-14
-3
-19
14
9
-21
1
-8
-10
2
-13
-5
10
-1
14
69
-8
7
5
3
12
-22
-30
-37
-4
-7
-5
-2
11
-22
8
32
-17
13
-1
-8
5
-1
-13
-20
18
-5
53
20
-6
-22
2
36
-3
-7
9
15
18
-6
-6
0
4
4
5
4
-12
39
-3
-8
-8
-14
33
-13
-36
9
0
-6
-7
41
-43
32
-41
-11
36
25
-6
48
9
59
-45
9
-10
-53
10
-5
-19
24
41
-34
22
-7
57
43
-41
-19
-81
-23
-12
50
-7
-11
-59
-5
7
-3
41
-11
6
-29
-18
-5
-78
34
-47
41
-24
-33
11
-56
21
10
-12
-1
-22
34
21
-20
-19
-34
33
-50
-3
51
-3
34
9
-56
-17
-22
-35
-24
-16
-10
-8
4
44
0
-27
33
-112
-10
4
-10
17
15
98
14
2
12
-16
20
10
4
-44
15
68
1
-35
20
0
16
-12
-51
25
90
23
28
11
55
9
-21
16
40
-20
14
1
15
13
-8
-6
-36
-37
-23
-31
-25
-31
-52
8
64
14
24
0
5
37
-14
-57
43
-12
35
-39
-3
13
2
-5
-13
-18
-23
12
49
-12
-16
78
-64
-48
5
-57
12
8
-5
5
-17
10
43
-60
-44
3
5
-7
-6
-15
-127
6
-26
20
27
58
17
23
7
19
-38
-45
-68
26
13
-4
3
15
-7
22
-25
27
50
41
-47
33
-56
71
37
41
31
-68
42
30
-16
1
39
4
63
-2
-73
62
-10
-46
-31
13
13
12
-44
-91
5
-55
-25
-19
5
-5
12
-3
-12
42
0
65
7
7
-6
6
-13
21
25
-11
-59
1
23
20
44
-1
20
-21
-18
43
39
26
-11
9
-17
-39
5
48
-6
24
-65
6
-42
-37
7
-93
-53
-16
-16
4
11
-22
-20
-25
42
-45
-81
16
-99
-63
-13
3
-1
32
-102
-4
-28
51
25
-16
-49
-28
-26
-20
13
51
-13
-15
3
-3
20
-17
72
48
-90
19
-2
17
-7
13
16
-14
50
-36
36
-24
-22
34
-24
-43
-17
-60
-1
45
-35
31
27
42
-33
-11
-70
62
-16
28
-32
48
6
22
-9
-9
-42
-5
0
23
-47
-52
-57
-18
-28
21
16
-71
6
-84
46
-2
32
35
-7
32
-73
-23
-41
1
-55
47
-17
-2
-15
46
9
-8
13
-12
-46
-23
-3
23
9
22
21
40
-61
47
-5
33
20
-19
23
-18
9
47
-15
-91
31
28
20
-11
-32
45
-27
13
-2
-31
27
0
12
19
6
-14
-24
-21
-21
-14
-13
-77
24
9
-18
37
-50
-15
-99
-29
-76
41
-42
-16
-61
5
33
-37
25
-28
-33
-4
-28
10
13
-8
17
-19
-30
23
-6
-86
-14
-56
-60
28
38
-6
39
-8
-5
-27
-4
0
21
-4
16
-25
-29
25
-23
11
15
2
-15
-44
12
12
49
24
28
-8
-12
20
-23
-44
-6
42
-6
-38
-28
20
4
-23
52
1
-4
11
-6
15
19
33
-22
11
28
13
49
43
-48
-2
58
-44
-55
-47
-68
-41
-68
-31
-27
-16
27
-19
33
-10
31
18
31
56
-11
0
-59
-66
-54
-37
-35
-5
33
-51
-65
67
0
-20
-54
-18
6
-25
12
-30
-8
-30
-25
-18
-36
7
-43
-10
-22
-5
49
10
-47
-45
31
127
-30
69
23
20
-3
-3
75
-64
2
22
-35
7
9
-14
-82
-12
19
-32
17
8
33
38
46
3
23
32
-79
-12
-1
-15
-11
17
-76
41
8
-1
-35
16
-67
15
-47
57
0
-6
-12
9
23
-16
18
-7
-49
-1
-4
-10
-4
-50
-27
7
18
25
41
-45
-39
-5
24
44
39
12
10
47
1
-22
-20
-10
-8
-26
-27
25
11
18
-11
-38
9
44
3
0
-24
-35
-45
3
-19
11
1
-35
28
7
72
-13
-1
-13
-23
-62
35
-13
-8
-100
66
48
4
-2
-11
-35
48
13
-5
70
74
60
-18
24
51
-7
49
-2
-49
33
-33
-5
-9
67
20
7
54
30
-40
-4
-33
53
9
13
18
53
15
27
2
-24
-9
-37
22
-25
12
25
-77
-34
17
2
94
-66
23
-12
-63
-16
26
0
-59
35
54
-48
-11
-15
-40
28
-5
30
4
-17
69
-70
16
-2
9
23
46
-52
-67
-101
-7
10
16
-4
37
1
46
5
1
49
30
-61
3
3
0
53
-51
-15
45
49
24
-22
14
-4
-4
-73
0
11
11
4
-16
42
-12
-25
33
45
60
45
-56
-56
-4
-48
-48
-34
9
35
-53
24
5
-61
12
23
-94
-59
11
-34
10
-58
-104
-19
-57
-10
-6
64
32
2
-29
-40
-27
-8
-15
17
15
8
16
7
19
-24
-43
1
-10
42
19
-1
-46
-7
8
23
23
41
-66
57
50
-37
-30
-13
30
-6
-20
5
-50
22
-26
20
4
-30
-57
-39
-5
16
-41
-3
1
24
-23
-6
20
-4
18
-36
-31
-49
25
-50
-20
0
-102
26
-69
-3
-43
-46
17
22
-24
15
-13
26
15
-20
-28
-85
35
28
61
6
-3
-22
55
-3
30
38
39
7
-13
3
6
25
-26
8
-51
-35
-12
-89
12
0
-19
-36
27
-14
-7
21
-9
-10
1
25
-60
-6
11
16
11
79
-9
-43
4
-39
-19
-34
55
15
32
-35
-39
-34
-44
2
-22
31
-9
103
-25
-29
-7
-18
-8
3
4
-68
-54
-39
-15
9
-52
-53
-1
-46
17
38
29
-35
18
-9
-44
-11
-57
-29
-31
-54
26
12
15
40
-13
47
5
17
-8
50
-3
35
-56
16
33
-6
-19
-53
2
-1
-68
-27
102
-12
54
84
43
-33
-15
-42
-30
-63
41
41
5
-33
-20
-11
-2
55
5
31
29
52
-77
28
24
2
-17
34
-14
-2
79
-29
29
18
31
3
60
-17
-3
22
9
29
64
-127
4
-30
11
7
7
39
-22
-1
-20
45
6
30
17
-8
-25
13
-59
4
-58
3
-43
-1
-33
-31
22
26
-11
44
4
30
-44
-24
29
12
20
11
-57
-16
-46
-17
-39
-3
-21
-24
-16
-29
1
-44
54
48
15
-14
2
-55
-22
-5
35
25
22
-67
1
6
3
17
-12
9
-59
13
18
23
29
-6
38
-2
1
-46
-4
5
28
32
29
-46
-31
45
20
15
-1
7
6
-20
0
-11
41
-33
-25
-9
29
14
-12
34
2
30
18
5
20
-44
18
-8
-23
-40
-11
-17
-33
-40
22
52
-40
-14
56
-1
-1
-24
-40
-25
-6
9
19
-59
62
26
-43
0
20
30
19
-19
7
-25
10
29
-31
20
-8
-10
30
-23
21
-17
-60
25
-8
83
17
24
-31
36
-5
-6
2
-41
-35
8
48
-17
34
2
26
21
-24
6
-25
-4
-52
19
-33
-24
14
7
-33
-6
-55
10
-9
24
-9
26
23
-42
28
59
19
54
-2
-13
-69
-44
20
30
-1
6
15
-43
-31
19
16
30
7
14
-17
-27
23
-20
-35
7
0
8
-42
49
14
51
-37
20
7
-46
10
56
6
16
-84
-17
48
-52
41
-5
34
-28
-2
-21
5
-61
16
-27
-7
11
-34
34
-20
65
-5
15
1
18
-80
9
24
2
36
-30
-48
7
8
-8
-7
10
12
35
-29
-24
-49
6
-62
-18
-17
18
-6
6
20
-10
32
-44
-57
-4
-49
-22
-32
-48
-12
3
-12
-38
-39
-15
31
-2
-62
-10
4
-35
-7
-20
-9
3
1
67
24
-15
30
35
11
4
-44
-13
-5
3
-46
-66
-5
52
-67
7
-9
-1
24
-53
10
25
61
13
45
16
57
39
72
-29
21
-14
12
12
-25
-13
3
-2
0
-20
-18
-53
-47
-34
4
1
10
30
27
2
-57
-23
-14
-16
-35
-1
-23
-32
-1
10
56
-14
-39
-22
-41
8
-8
-2
20
-41
-34
-1
-20
-29
32
37
-10
6
34
13
-42
-7
-20
-10
-37
26
16
9
12
-12
-1
-20
-6
2
33
11
64
-40
-18
51
1
11
-3
-49
5
-23
-34
-56
-14
-1
-9
13
9
-6
8
69
6
1
-6
-6
26
51
-9
30
34
-32
-1
-46
19
-49
4
78
20
25
-52
-3
0
-36
30
-9
24
-2
49
-24
-18
40
-46
-29
28
-37
-47
29
-25
20
9
-23
-7
39
24
12
10
-49
-16
-2
3
-18
-34
-67
12
-47
-19
7
-38
-3
-9
-6
-4
57
23
-10
24
22
44
-53
-8
-33
-42
-56
3
6
-23
-48
-8
3
28
40
41
-41
14
39
65
19
5
-69
37
-13
-13
-59
20
16
12
-34
-55
2
-9
-8
-49
30
25
90
-58
-58
19
-22
-4
-14
54
50
80
-62
19
-11
43
44
38
54
-40
-42
33
-30
-38
-26
-22
32
-21
-36
11
9
-11
27
-98
1
-21
-34
-1
-24
23
3
-71
80
12
23
7
-4
-27
-59
9
-52
46
-54
-21
26
7
-5
-114
-3
-29
37
-31
66
-38
-1
44
-17
-43
-53
13
33
41
0
-70
63
19
-32
36
30
-69
-26
27
13
0
6
40
19
-16
22
-92
-52
-9
6
-1
-72
-6
-31
-52
-27
-16
13
16
8
0
23
-12
-13
-46
21
99
-15
-13
58
-78
-40
-16
27
-14
-22
7
-48
-35
86
9
-7
27
-21
-13
52
-42
45
-2
1
4
64
35
-6
60
-2
43
64
15
-6
-3
35
-5
48
-19
55
22
14
24
0
34
2
-34
-26
-16
36
4
-12
17
-28
-11
7
16
-4
28
-19
58
28
-17
-74
-46
-40
-30
-11
-32
11
-17
27
-12
-22
-48
-21
-60
-21
-63
-13
-27
32
-33
-34
58
-69
-51
-1
-5
1
2
-99
3
-24
-1
51
24
7
-5
27
47
56
-19
-2
-30
27
8
41
-5
-22
57
-31
-26
-12
54
22
-50
6
-39
-9
1
1
-7
-18
64
-26
11
-11
10
-6
26
-31
-9
0
-14
49
22
2
-11
39
-8
-4
-12
17
2
-51
24
-13
-3
-60
-9
-1
-127
-50
5
11
17
42
-51
15
4
42
13
27
-20
-8
-58
13
-24
-40
-19
-26
15
-46
42
-1
-32
-16
-19
34
-105
1
8
30
20
-67
-5
-30
17
-3
-34
-49
-21
-6
-11
33
16
17
8
-3
82
34
20
8
-5
39
46
-54
2
7
20
36
50
22
7
-41
21
-36
-4
-12
14
-37
45
3
24
-3
-82
46
-60
122
52
-27
-13
6
-31
-20
-11
-41
-2
-43
-58
-10
-22
-10
30
-52
12
-23
12
36
25
24
61
-20
-5
-16
-36
-10
-39
105
-6
35
-68
-16
24
-5
99
-7
-51
9
-7
-48
-12
-14
1
-5
-64
62
-49
-29
-12
-40
5
18
-19
-16
-14
5
-22
14
14
-7
-19
16
17
-24
-37
-4
7
12
-98
-9
-50
-30
23
2
-33
-56
7
8
-19
-41
-75
48
29
38
-8
39
-21
-13
27
28
29
-30
33
-21
-1
-7
-14
-26
-14
41
20
30
-13
-93
12
11
-100
-15
-42
-23
4
23
-22
-47
-11
-34
10
-52
17
21
27
58
15
27
26
-56
10
3
30
-25
-29
-14
-45
-36
23
-51
-12
13
-10
-3
-6
6
22
-5
14
-1
-61
0
-14
-8
-4
28
13
16
-19
-4
-4
-20
-4
-11
-6
-20
-11
26
9
-16
-15
35
4
14
-13
-2
4
7
0
3
13
13
4
-21
-7
18
10
2
11
-18
7
-27
11
25
-17
-14
8
14
-10
3
5
-14
-6
6
-8
6
5
21
-14
20
-12
-6
21
9
20
2
-27
-6
-13
5
7
-9
-7
13
-7
-13
17
11
17
1
-1
11
-10
-5
-20
25
-22
28
6
-20
1
8
11
15
10
-17
-12
-8
6
4
9
4
26
-25
7
1
-15
-1
4
-14
21
-14
-19
-17
-8
-20
-4
19
2
-14
-16
4
-10
0
5
0
9
2
-14
9
3
8
-48
5
-8
2
-15
-28
-7
-9
11
-16
17
-23
-10
-14
-5
5
-23
-3
-8
3
9
-16
29
-21
-10
1
9
6
-1
-10
-36
-127
4
2
-18
-19
-5
3
23
-11
5
10
21
32
-24
-6
15
-4
-4
-24
-11
-12
12
3
-6
23
-7
8
-8
12
-7
8
4
-37
-28
3
23
6
14
-5
-1
-3
-8
8
-7
8
15
-6
-15
15
-20
9
4
9
0
-5
-7
-5
2
-3
9
14
-4
-5
10
2
-19
24
5
-12
-3
1
-18
17
-17
0
-7
9
-8
-19
6
17
-3
4
8
-13
-5
-12
3
-8
3
12
-5
-3
-23
21
2
-3
14
-4
18
-6
9
10
2
5
3
7
-14
3
4
-15
3
6
-8
13
-20
16
2
1
31
-1
3
-26
-10
-2
-13
-2
-14
15
-35
-18
-12
-4
4
-2
-10
19
8
17
14
-12
-9
-4
-3
-9
-4
5
-7
3
-2
-4
-19
-7
-2
-4
19
-37
-7
8
-7
31
-24
-17
0
0
14
18
-22
-7
13
-14
-16
15
-27
13
-1
-11
-3
-17
-31
-11
-17
-33
2
12
11
-12
19
31
12
-29
-23
3
4
0
10
5
-20
7
11
4
9
-4
-1
22
17
6
20
8
2
-13
9
-10
-37
5
-1
12
12
8
6
8
-9
8
10
18
-3
-15
-14
12
7
8
-3
-8
3
-23
14
-17
-17
8
-41
-21
18
-32
12
26
15
6
3
33
4
11
5
-19
4
-10
-17
-1
5
26
-7
-41
28
-11
-17
-30
29
6
-20
10
-4
1
21
2
4
-33
3
-6
4
6
-6
2
11
2
-5
17
-32
-6
-6
-27
8
28
-10
-1
19
14
10
3
-6
-7
-9
30
3
-28
14
12
9
13
-1
12
1
1
1
-2
0
-2
-13
-8
-11
11
22
15
-1
-7
-6
17
0
-33
13
-22
-15
9
27
5
10
0
20
0
7
8
-16
11
4
-19
12
12
12
0
26
-46
-28
-23
41
1
-65
-7
14
31
-13
33
4
-1
4
29
-28
-18
0
-29
-58
-4
-36
-7
2
1
-4
16
-44
18
2
-12
34
-26
22
-37
-7
18
-7
-31
-27
-8
-14
-42
52
-7
5
-56
-5
-9
-8
8
9
23
11
4
8
-15
-27
-37
3
-2
23
-11
-42
12
16
-45
15
-3
14
-21
31
-25
23
48
9
-13
15
-18
3
-17
14
6
-4
38
-27
-12
-69
20
34
-18
-9
3
-14
3
-32
-45
10
-41
40
-20
0
3
51
30
9
-30
-17
12
2
0
20
14
-13
-70
-3
-53
6
4
-30
-5
38
-56
10
44
13
-14
-8
40
-6
-24
10
17
-12
37
-27
-8
45
11
-4
8
7
0
-26
0
-15
-43
-17
10
5
25
35
8
32
-24
-38
-8
5
96
6
7
-22
-27
-36
-10
8
-9
12
-26
10
-10
-13
22
19
-18
-21
-17
-51
1
-7
1
-6
1
-5
-9
29
-39
33
-22
-72
2
17
2
-5
-1
-31
-23
-44
-9
4
-34
4
32
52
3
3
33
-22
-23
-31
28
-15
28
-9
1
-30
17
4
-34
-6
-23
-10
7
6
10
-11
4
28
-27
-14
17
4
-6
5
-15
5
26
5
-6
-40
-15
-63
-25
36
-20
12
-21
-12
6
26
14
-7
25
-11
-17
-27
-23
-36
-1
20
27
-33
0
16
8
-13
-37
-12
13
23
-36
-5
9
-8
27
-12
13
-29
14
-3
-22
37
8
-1
25
-10
33
-1
-7
-12
-3
19
9
-14
-58
-14
26
13
6
10
-10
3
-19
7
1
22
-15
-15
16
-16
4
32
27
11
-37
49
-20
13
2
3
51
-13
-20
62
15
5
0
-18
12
-53
20
36
27
-19
37
19
-10
23
-40
-8
14
27
-2
-28
2
-18
0
7
5
30
21
-65
6
47
-29
6
-2
-13
-16
-32
19
-48
-15
-19
-24
19
-13
-3
30
-4
39
12
4
-19
-1
31
-87
1
-19
20
-23
-3
-1
19
2
-11
9
22
0
11
5
-25
-10
-19
13
14
-30
-30
-14
-25
0
-13
38
23
-28
11
5
-2
13
10
-8
-26
-25
28
10
-6
-11
-44
19
26
6
-7
20
9
38
22
-54
-5
26
15
21
-3
11
-16
1
45
-17
2
-127
-1
-9
33
-21
-9
-3
-28
-6
24
6
34
-4
25
-28
10
17
11
-21
5
12
-20
-9
23
22
23
-43
24
21
-24
-6
-8
1
-9
-9
2
14
13
9
-25
5
-11
-15
-12
21
1
9
-23
-15
-33
14
35
16
-35
-15
27
-26
-4
-3
14
-4
21
-4
0
9
45
27
-27
-25
-28
41
-15
-34
-10
19
-11
1
-42
-22
12
-72
19
-39
-1
-12
2
-29
-2
6
-47
49
35
3
14
-3
37
-32
-18
-6
20
-22
-44
-6
15
47
-31
2
-88
-59
69
-28
88
5
82
13
-27
28
-5
-7
-36
-27
23
-38
-10
-25
-13
-4
-4
40
-13
9
-50
-15
-56
4
-13
-10
5
-3
7
12
-6
22
-43
-33
-13
-21
25
-47
-37
6
18
-5
-6
-17
-29
4
2
9
-40
-29
-3
-16
30
25
21
-3
18
3
13
-5
-5
-29
-53
33
66
-30
15
-13
31
12
-8
18
6
-11
-42
-1
21
-23
-20
3
14
-13
12
-26
-48
-32
-13
-9
17
0
30
16
-59
-83
21
3
21
-23
10
-4
28
-12
-18
-19
-26
-51
-18
-13
-29
92
6
35
-18
12
-51
64
-12
-84
34
-21
-21
-18
46
9
10
-48
26
-8
2
23
7
22
15
-62
-18
-7
-7
36
-2
9
-1
28
-7
-10
-45
-58
-96
8
-8
-27
-52
-22
39
-19
-18
-28
11
14
15
21
-2
5
11
36
15
4
-21
-37
-29
-19
11
93
34
-37
-44
-6
16
25
-66
43
-1
-26
15
-2
-42
-46
-9
26
-10
-21
-42
8
-45
-54
-15
0
-19
-14
-64
-42
10
60
-41
-27
-9
37
4
22
-22
-71
-62
-23
54
-54
5
22
-1
-20
-43
83
14
-6
-19
-28
13
-7
-16
68
41
17
44
19
41
-11
-64
-4
-17
-7
24
20
25
50
-94
73
-63
-8
44
-29
10
56
-46
-32
-34
-6
-3
-28
-104
-97
3
13
7
43
11
-67
21
24
30
17
32
6
-16
11
-2
-49
10
0
-18
4
14
10
7
-10
3
28
45
-3
32
16
35
11
40
15
-10
22
-30
0
-35
20
-48
12
-7
48
-14
15
-39
10
60
-28
36
48
7
75
-12
1
-7
58
-14
-55
2
-2
-80
14
-3
-6
-87
14
-16
-62
-28
15
-11
13
18
-17
-3
0
4
-55
24
-6
-7
28
38
-25
-4
25
-16
42
18
14
-57
8
4
9
-20
-35
-58
42
-32
-26
13
-28
-17
-32
1
6
-1
25
-21
-9
12
-11
21
-10
-54
-1
-21
25
13
-5
35
-17
19
-60
-5
14
-75
-2
31
-50
-29
-22
3
51
-21
25
7
-1
44
10
-5
-6
7
11
0
-22
27
34
-19
-17
10
-11
-1
-8
8
24
8
-18
52
-23
-6
-25
29
20
-44
-1
42
-15
-19
20
1
30
7
20
18
25
-28
-8
-24
22
19
-23
35
3
-8
13
-11
-11
13
-7
8
20
10
-127
35
4
21
11
-42
-20
17
27
-3
23
27
2
6
10
33
23
-51
-32
4
51
3
5
-45
-22
-22
28
-58
7
47
-4
-6
-18
-31
13
-35
16
-98
59
17
20
-39
19
-98
12
-81
21
36
-1
58
47
-45
-96
-55
38
23
-52
-26
42
16
-13
-6
59
-42
-53
19
-10
12
30
17
-74
-61
35
-52
-3
18
-47
-35
72
-22
-39
-72
37
0
-22
-54
1
-55
24
4
-44
29
18
59
47
88
-51
85
1
48
-28
8
44
39
33
-29
-48
-24
-11
-34
72
25
15
-13
-87
-19
23
-74
18
8
-18
0
65
17
-12
77
-3
-70
-69
-1
-50
-104
-50
-9
-16
-83
-16
-48
25
76
25
-26
-56
-23
0
5
-22
-10
43
-13
8
-56
9
-23
7
-21
-22
-33
-16
41
-8
54
15
-67
22
-50
3
-33
52
36
60
-21
38
25
12
-75
-11
14
-73
22
-21
13
8
125
-56
50
21
-7
62
68
21
-38
-35
31
-52
9
7
76
-16
4
-19
1
-26
-10
-23
-32
52
-37
45
-16
-1
63
1
15
1
-95
3
55
-36
3
7
-37
15
-24
36
-15
8
43
-26
-12
-3
76
23
-6
-31
-110
-88
-78
-53
-31
-8
5
-21
-67
0
-16
-60
29
23
10
28
-88
-43
-27
-13
23
76
14
40
127
60
4
-54
-60
22
-9
21
-14
-7
63
-3
56
19
-31
40
-50
7
-87
-17
-25
61
-38
17
-35
21
25
16
-18
-22
5
-4
-52
-9
-59
8
-9
-36
-60
-36
-14
-38
13
11
-46
-68
28
-34
40
-17
-61
-34
-63
-25
9
5
-85
-78
-10
17
-28
-84
-86
-66
-96
-17
19
20
41
6
-26
4
5
-24
-45
21
-4
-83
53
-10
0
2
23
120
12
66
16
11
-16
46
2
11
54
38
-32
63
10
36
12
23
-10
1
-11
-77
6
-35
-25
12
-23
-2
7
-42
-17
2
-32
-25
-47
57
-37
-30
56
38
-53
-3
-39
32
39
30
-48
-39
47
-6
-23
9
-14
15
-17
-17
7
13
-67
22
8
-23
15
-26
-6
12
-22
39
40
76
41
0
-86
-40
72
-9
-43
1
0
29
13
-13
-20
-5
-4
53
105
-2
-26
-27
9
39
-26
23
-20
12
24
19
-33
49
-53
75
-23
51
46
4
44
7
-5
-18
-7
-23
8
-4
12
46
3
-18
-21
27
-50
-19
-29
-42
41
30
26
62
25
-44
16
37
-6
6
6
61
55
-21
19
-36
-28
-50
-44
11
50
18
-2
6
-24
-58
-26
-42
-51
29
11
-51
-72
-51
6
8
-40
25
41
3
-15
-8
32
11
37
45
-43
41
49
14
102
-18
12
22
0
12
-71
10
-21
63
-18
-16
-28
-3
4
-34
-22
-9
2
-4
-4
-10
5
-6
16
-20
10
-16
-3
-9
-1
-17
2
20
-21
20
1
3
28
-5
39
-50
-35
8
-34
-2
20
8
-3
1
-3
30
-21
-13
5
-18
-21
9
-11
-69
4
-3
-21
-4
16
19
3
-5
-32
2
10
-8
13
-4
5
34
-28
17
26
-21
21
41
1
3
-4
-50
-6
-20
-13
-24
-24
-16
-5
-1
11
-3
39
11
29
9
-15
-31
-17
26
-5
17
-20
-7
-18
11
1
-1
30
3
-8
22
0
-26
53
2
-41
-24
12
-31
-19
-8
4
-7
1
-3
38
28
-14
-13
13
-24
-23
-13
18
14
15
3
49
12
-13
16
4
21
-17
-36
-23
-4
-11
2
21
4
-6
-26
-39
2
-7
-52
6
-2
-8
64
-5
15
-99
-38
4
-5
2
-35
-20
-14
-24
34
25
9
-29
-10
22
-127
-2
32
4
-25
-14
2
22
-18
4
5
4
-22
11
9
-30
-4
2
-59
-9
-3
-10
-34
29
-9
21
-26
20
11
-3
30
16
1
18
17
-15
-48
11
-7
21
17
52
-30
0
-1
-25
-7
-27
-34
-12
10
-22
-20
-2
13
18
30
18
-43
-7
-15
-25
39
-4
-11
-25
-30
5
-27
-22
15
20
7
-31
17
-32
-45
-49
31
13
-4
-10
-15
-46
42
22
-14
-28
19
-4
3
35
-27
-3
42
-1
8
-32
20
8
-45
-9
12
11
28
3
-16
26
4
-38
0
-15
21
-54
-18
-35
-1
54
-36
4
-12
14
-11
-20
25
2
-3
-3
-17
-43
-25
0
37
3
-12
16
-28
-24
-11
7
-3
6
19
-3
5
0
-13
23
-3
-1
-17
45
9
15
-8
-3
-41
3
-30
13
34
-24
23
-33
27
19
12
-12
6
8
0
-21
-36
45
7
11
12
-7
13
12
-12
30
-31
-16
-16
6
7
-27
16
56
-10
-4
1
9
3
10
0
-27
-10
0
-28
-15
17
-12
3
-11
23
-12
-11
7
-23
20
2
3
-17
14
11
-12
-32
-18
9
13
35
-4
-1
-21
8
-12
-6
9
25
-1
-65
20
11
-19
0
0
0
26
-2
-5
19
-21
6
-5
-15
-11
16
9
19
-4
11
21
13
-8
-22
4
-54
38
26
-13
-9
-21
-32
20
5
5
50
24
10
-8
-43
15
-10
14
7
1
31
-10
-4
-29
-14
-10
27
7
-5
11
-36
16
22
-1
10
-5
-11
-23
14
-19
-15
18
-8
-11
14
39
20
30
22
7
-19
-9
10
-17
-22
-12
-31
-70
-20
-18
2
5
3
-50
26
-38
-16
-10
-4
21
-10
-22
-15
13
18
-9
8
3
1
15
3
-25
-56
33
-23
25
3
36
87
34
19
-31
-17
17
-12
2
-7
7
8
20
-28
8
54
33
5
-20
-73
-13
-6
-42
-5
8
35
43
-28
-5
-23
-26
-2
-2
0
12
65
-25
-49
35
6
15
16
18
-3
7
-73
16
32
43
45
-25
23
4
-3
10
6
-13
6
-6
1
-25
-42
20
-9
-5
3
-40
33
21
-36
-10
-19
-18
-6
3
56
22
35
42
58
8
41
-8
-27
-25
-32
27
-36
53
-2
-21
27
-13
-4
6
-3
-29
-16
-19
-13
-35
5
-25
-45
19
-12
-27
23
-12
-13
-2
-8
-24
34
11
-5
-49
-66
-10
-46
-27
35
20
-8
-28
-42
-12
-1
32
19
-32
8
-26
5
17
0
-22
-35
-22
-46
0
8
2
4
16
-16
24
23
2
-127
-10
-36
4
-5
-31
-6
-5
-10
9
6
15
-20
3
-2
-1
-20
36
77
15
61
-33
18
3
-38
-32
9
13
-7
-16
26
1
27
-19
-11
-27
-2
-49
-19
-25
15
-10
-19
53
21
4
-18
-3
-24
-34
-22
-27
34
-44
33
72
-28
29
7
34
-1
11
-44
34
-14
-28
27
12
-14
45
-27
-20
3
-3
30
-13
73
-9
2
-1
-21
-13
13
6
-4
26
38
-26
10
14
-38
-10
-20
35
-33
9
2
-39
5
-25
26
-2
-22
32
7
-6
0
17
-7
-25
27
32
-11
-7
3
-14
-31
-24
33
11
-17
-25
18
16
11
1
3
-4
17
-24
-32
-9
-12
8
59
26
14
-17
-18
5
27
-38
13
0
-19
-1
-30
-60
-25
-18
-45
21
32
16
-40
9
-68
-15
-28
-12
-14
21
-14
2
-39
4
-3
43
-19
25
9
-10
-28
-19
-24
-12
-50
-1
7
-64
-6
-4
-3
27
1
-27
45
-34
22
-5
11
-11
-23
-9
-17
1
-8
41
-21
-10
22
-1
-6
14
10
38
-2
-22
-57
-33
-24
-69
4
11
26
-99
5
13
17
9
-5
3
18
20
-10
-2
-11
-12
12
14
-54
22
4
19
6
50
-31
-15
-7
49
24
-9
-25
19
-26
32
28
0
5
-7
-44
-25
-4
-27
17
18
6
35
-12
-23
-17
-11
-35
8
-39
-31
18
-6
-11
-4
2
-14
9
-5
3
-42
0
-13
17
-22
4
-9
-1
-18
-8
-8
10
-23
-62
4
-39
4
37
18
-15
-13
63
-22
-15
-2
2
-10
27
12
0
-10
-25
6
-28
28
6
-19
-11
-22
-6
9
-31
-24
34
4
33
-18
25
27
-22
50
-40
-9
4
-15
-24
-10
-9
-10
-4
17
24
-26
20
24
24
-29
7
-5
9
-16
2
20
11
-38
-5
12
-24
-25
-18
-6
12
-42
-80
-99
18
29
0
51
-33
59
72
18
50
-22
-80
38
-41
59
55
71
12
-18
40
45
-27
-11
77
20
-1
-5
71
102
-11
15
32
33
-28
45
23
8
-19
3
66
0
-77
17
101
-2
70
8
12
-24
43
-31
-38
-70
-10
14
29
21
2
-72
38
-8
-91
6
38
1
-11
27
-2
-22
-39
3
-36
-24
-38
-78
-24
59
33
22
-19
8
3
-59
-28
-34
58
-50
-72
1
-29
28
-72
-5
-17
13
-56
46
-49
19
-19
40
40
-2
-10
-3
9
5
-33
27
-42
5
-66
0
58
26
-35
-5
5
36
-4
32
38
18
-3
14
70
-41
15
-58
-9
43
-11
5
10
28
46
-6
-36
-24
29
41
-7
-47
-3
-16
-12
10
-40
29
14
33
0
14
101
29
-15
56
-22
-38
1
-35
-21
-12
2
-18
-9
-47
41
43
-45
-73
4
-17
-3
53
23
75
-38
-28
4
37
26
-11
-13
-42
-16
7
-9
-7
-102
-104
7
-54
-12
18
26
-17
29
13
-17
-58
29
-11
21
-43
-36
12
-10
61
29
-25
38
25
-23
45
36
19
3
-22
40
4
-15
27
-27
-19
32
-5
94
-26
-24
10
-60
20
35
-16
43
42
-42
46
-10
-47
-2
-26
-24
59
23
50
2
23
-47
-5
37
51
17
29
-81
26
-4
11
32
35
-3
-24
-14
-87
81
-26
-8
10
6
50
-41
-47
24
-115
-27
-127
-14
-20
28
-44
27
-62
-74
76
-44
-46
5
-47
-39
50
-53
45
-54
1
50
-20
-33
-20
-105
-71
11
10
-5
-34
-29
-11
35
81
-26
-6
-3
68
-84
-4
6
14
15
43
-2
1
5
-22
22
76
9
-45
-23
45
32
5
75
-29
12
-24
-6
18
6
24
-11
0
13
-45
-56
-46
-49
20
-33
20
17
-3
41
-18
1
15
-22
49
-72
11
27
23
-15
74
-37
-10
-63
18
-87
-38
30
84
62
-20
-56
19
69
-49
-65
37
-5
-7
11
-15
-19
40
-14
28
-23
-9
-12
-5
93
28
28
-32
-9
9
-40
-62
52
11
-14
-3
-15
-16
48
-22
-2
-47
-22
28
-83
-19
65
-8
-13
61
42
-12
11
29
1
8
3
-2
60
-20
2
-16
16
-4
-12
29
-27
35
-20
-2
24
6
39
24
0
-37
-57
24
-10
-82
23
5
-4
9
2
10
25
11
23
-26
-8
4
20
47
33
-33
24
-56
5
24
-32
25
-76
47
19
22
14
-2
45
-2
4
16
36
2
-30
-84
16
7
-9
28
42
-2
44
0
-38
26
27
-9
-21
10
-22
-35
-64
1
-36
35
-6
19
0
37
59
-6
36
28
-35
-15
29
-15
-1
-1
-10
2
17
17
-15
-13
-6
15
3
-13
-7
0
33
-1
20
-10
-1
-27
7
-3
-28
-5
-17
-30
120
-12
20
26
5
-8
0
14
-5
-2
-8
-2
-5
-14
2
-8
10
15
8
-1
-1
3
-7
-3
-9
4
19
5
-5
28
-11
1
9
-25
11
10
18
-15
9
10
-16
-16
1
14
3
-23
-21
3
16
8
-8
-1
-1
-12
17
-8
8
-50
15
12
16
9
8
16
22
15
-9
5
-4
1
13
-19
-14
12
-28
-20
-20
8
21
26
17
13
-12
4
6
2
19
-4
-9
2
27
23
-16
8
20
13
-21
-8
-24
-43
11
14
14
-4
-13
-4
-4
-3
28
8
4
15
-15
-9
-3
15
-5
7
-5
8
-11
9
16
-3
11
-6
-12
-9
-6
-34
-24
-17
18
18
0
11
18
40
1
53
-9
6
8
23
-2
-9
1
16
26
-19
-13
2
14
-30
0
20
17
17
-7
-16
4
14
-3
-9
6
8
1
9
7
1
16
-1
4
2
-8
-11
-34
7
-51
-22
28
0
-4
9
9
10
-20
-15
-6
4
-10
-20
23
-29
-14
25
-32
6
-12
-13
-1
6
4
5
-10
18
3
-12
-7
19
35
1
-25
4
-8
-38
-1
0
7
6
-24
-6
20
-15
-5
8
8
3
-29
18
-8
-2
4
-51
-28
12
-13
-13
26
-7
5
-14
-13
-13
9
2
-3
-3
-35
7
4
8
-1
10
-38
7
-10
-51
14
-9
-18
27
-21
1
-19
-28
-11
-1
-20
-23
-7
19
1
-8
-13
-1
3
7
36
26
-23
-4
15
5
-11
9
6
3
13
-8
6
-3
0
-13
-9
-7
11
20
27
-12
3
-12
-17
30
-5
-6
-3
38
1
-35
-18
-11
7
1
1
21
-1
-14
-10
29
6
2
2
8
-2
9
1
-2
34
34
7
-7
-4
16
13
-10
-12
-18
-14
-2
-9
-6
2
36
-21
31
-70
-20
11
7
-4
9
-9
13
-13
-19
-8
32
-4
24
4
-8
-18
-4
22
2
-2
-10
-19
-12
-13
-8
-2
23
1
1
14
19
2
0
-13
11
-3
-28
-6
-17
-7
4
33
-41
-4
-30
2
2
22
-7
4
29
-16
10
20
10
15
5
4
21
-70
-15
-15
-8
17
-11
7
13
-12
0
-4
35
-4
0
0
-3
-27
10
6
1
-18
16
-16
1
2
-2
11
14
-2
15
-61
11
-9
-6
30
-2
43
-4
10
-4
-1
16
-5
7
-1
24
-12
12
12
-2
-3
-16
1
1
-10
19
-2
-43
-25
5
33
18
-17
18
10
-15
-11
127
0
8
14
-3
-13
-2
8
47
-36
12
-3
-26
-6
56
11
-13
-37
47
8
29
2
-26
-10
21
-5
-32
34
16
-8
-2
14
-31
5
-30
14
15
11
-50
54
-48
-3
-6
-62
33
-19
-29
17
-63
16
12
-45
10
29
-64
0
-55
4
-53
-16
-28
-32
-24
1
9
19
-21
-11
38
37
30
-1
6
-80
19
4
39
-2
-50
-14
21
32
26
-4
35
-22
16
0
-3
30
-26
14
6
-10
36
12
-73
43
52
22
30
30
-29
-38
-6
4
27
-51
-15
24
11
50
12
21
-12
21
-4
31
-2
-20
-20
-14
32
-21
-72
-20
17
-2
10
13
-71
28
-31
-20
5
73
-4
15
26
-19
-50
9
2
-24
0
-36
-18
-11
-32
-46
30
21
-46
-10
15
40
19
22
-3
-13
12
-47
21
13
46
48
-10
53
77
32
-22
-21
-10
-11
-1
3
-20
46
5
-54
4
-53
-10
45
20
-18
12
-10
43
13
26
60
32
-74
9
-11
-6
-39
39
-39
-127
-36
-6
23
2
-42
19
51
29
31
-67
8
-18
-44
5
15
4
15
37
-23
-43
-19
-38
-22
-28
-5
6
-13
27
85
-3
14
-15
15
-20
-33
-2
29
-5
27
2
84
-20
-51
-39
36
-65
33
21
27
-8
45
-14
34
2
12
14
24
-20
18
-56
-34
-26
-13
4
-2
-22
52
23
-1
20
10
-4
-22
-5
8
-22
-9
-5
-27
29
53
-17
37
10
5
-16
-6
53
26
-33
-37
-35
45
23
-64
32
73
-9
0
51
16
27
-34
-7
17
-28
22
14
-13
-60
-40
-15
32
20
-6
19
-14
33
-1
-54
34
24
2
21
10
-23
-16
-43
15
-1
-19
-62
-24
8
3
-33
-7
6
-39
17
1
13
14
26
-8
36
-47
-4
-52
-8
15
21
85
-32
13
35
-52
17
-74
27
15
20
-51
32
-10
-51
-16
-10
26
-30
-6
43
8
-24
2
27
-2
-82
-2
-25
10
-36
5
-1
-28
-52
19
-8
-23
-16
-1
18
29
29
1
7
-17
20
28
-23
-1
-26
-18
-5
-8
-45
-50
31
-31
-42
-41
7
13
-8
-8
-17
-4
4
88
40
-9
-5
-7
19
9
27
-20
-54
-37
-11
-8
33
-9
43
-29
7
-13
4
-27
-5
82
30
-10
0
-29
15
-23
77
21
-15
-1
-4
-12
-6
22
12
24
22
8
-21
-25
0
46
41
-23
13
-10
-4
-63
8
-24
-75
-12
-22
-6
-40
22
36
13
-20
18
43
-13
-25
-6
-10
40
16
-38
-22
43
-53
3
27
-16
49
-7
-33
70
43
34
17
55
-43
20
-9
-44
1
8
-1
-8
-41
2
26
-27
-36
-19
-26
-21
21
41
31
18
13
67
35
-11
50
-12
-7
-22
12
-31
39
-1
15
-105
-10
-5
-54
-23
-30
4
-21
-20
-10
7
47
2
35
25
25
-67
-53
-2
-14
-21
-21
-21
-14
3
52
-43
-56
-25
30
-10
-16
28
24
-31
9
19
28
32
19
26
31
-7
-18
2
7
5
-41
-46
50
-24
-51
15
57
-28
-23
6
-30
16
-7
-51
-2
26
4
-6
26
-6
16
16
-47
-46
-29
15
34
-16
29
4
-2
-23
22
-10
26
-30
-16
5
-26
-48
-13
-8
-83
40
-8
2
-1
-10
50
24
42
-29
1
23
7
5
-43
49
3
25
-69
-29
-50
22
-20
-2
-10
34
9
40
27
-17
2
-14
-39
35
8
-28
-31
54
-56
5
-5
-14
-18
-23
10
-5
-10
1
-12
-7
-14
38
-6
8
3
-29
-23
50
14
-4
10
-25
38
-23
29
-22
-52
45
-2
-40
-47
-55
-8
-24
-9
54
8
23
-13
-50
-8
16
-28
2
-9
-1
1
11
10
-23
-14
-7
54
-40
-29
-38
-26
-35
-14
16
-20
5
7
55
8
-58
24
7
-1
-2
5
10
-14
25
-29
-25
-15
-108
48
14
11
-22
9
-55
-30
22
22
-19
19
-8
0
-11
29
3
25
35
3
-4
43
-7
-16
23
25
11
2
-10
-32
-64
-3
-17
18
24
27
-32
-7
-43
-23
-13
36
13
-6
3
51
-50
43
9
-56
48
20
-37
-33
7
-48
0
2
-21
-8
42
13
-29
36
57
-8
-22
18
48
8
-71
10
-1
-67
-35
-18
0
11
-2
-34
-14
47
-41
-88
12
1
5
-2
-2
42
-21
-3
22
-28
-33
6
15
-35
11
-25
26
83
-2
-46
2
27
-27
-8
-1
11
-4
-44
-47
-37
-2
43
22
-63
8
8
-43
6
25
-27
-52
-44
-4
-31
63
22
-12
13
-42
-2
-28
17
-5
-43
7
21
-13
-86
7
-51
29
9
43
-127
3
-14
-110
-24
60
15
-32
9
-24
8
69
-13
-9
-11
30
4
-56
25
2
44
-16
18
-14
-40
27
-8
34
-10
-65
-1
21
-3
38
23
-8
4
-6
-37
1
-7
53
-9
-56
25
4
-4
8
5
-2
-9
-18
65
-25
-33
-4
12
33
38
-8
-14
-3
-5
27
-9
36
-10
9
4
-38
-10
21
7
-6
-20
4
-7
-2
-5
-14
-3
-87
-2
-2
3
-13
12
-30
23
15
-3
-6
-10
2
-11
-23
37
26
5
-8
18
-33
35
-8
26
-3
-22
-7
-14
-17
35
0
-24
-27
68
49
-3
-25
26
-18
-45
11
14
44
62
-33
-24
9
-17
-36
-29
-9
-10
26
5
-16
-6
-40
32
10
-28
-28
6
-4
11
4
9
-1
-4
1
-11
-4
3
-3
5
-18
-13
8
5
17
-1
1
-9
-2
2
2
-9
-6
8
-9
-6
5
-12
10
10
21
6
9
-6
-9
-3
7
5
-14
-15
-12
-4
-9
20
-14
-6
14
11
0
3
-26
-17
18
-11
4
1
-2
5
6
-3
6
1
-1
-4
13
2
-21
-1
4
7
-2
14
-6
-14
-52
-6
-7
-3
-1
-8
8
1
18
6
11
-13
8
-2
4
-3
-1
8
-7
6
6
-4
1
-4
0
7
-4
2
-1
-3
5
-12
2
7
-1
-2
4
8
-15
-8
-31
8
10
-2
0
9
-2
2
-15
-6
8
-1
-2
-5
4
-16
-9
0
-3
-7
-5
-7
6
13
6
27
-17
4
-4
-1
2
-4
-2
3
-17
16
8
2
-127
5
5
-15
-2
-12
5
-12
-5
-17
2
-17
5
4
-3
-16
-5
-1
-36
-10
-2
2
0
-12
0
1
-3
-8
6
-7
-5
0
6
20
-8
-16
-4
14
12
7
6
4
5
8
-7
3
-3
-12
-3
6
-2
-4
12
2
-8
-9
9
5
7
6
-1
-4
2
0
-4
7
-13
8
-6
-5
-22
2
-18
7
0
-8
4
-5
-12
1
4
1
9
10
-9
4
-3
5
3
1
-12
-6
19
-6
-9
-6
-15
0
-14
-7
-6
23
-14
11
-12
14
10
-6
-1
33
-3
15
0
1
7
13
6
-16
11
2
-7
-9
-5
4
-3
1
-2
1
-11
-2
-3
-1
-13
-13
3
-4
6
4
-18
2
-7
2
2
-3
-2
-4
5
-29
-10
1
20
7
4
-4
-19
-13
-8
8
-9
-8
-13
15
-4
2
-1
-11
-8
10
4
4
-15
17
7
-7
-1
-8
-18
-2
5
-18
12
5
3
-23
3
-11
-6
-14
-35
-13
4
6
-10
-5
-1
-7
-6
-1
5
13
16
2
17
1
-16
3
2
2
4
-3
-3
12
3
7
-3
-37
5
-7
9
9
-17
7
7
15
-3
10
4
-1
-17
-8
6
-11
24
26
1
-15
-2
0
-12
12
-3
-43
3
11
-10
-13
1
-7
-4
2
9
-11
19
-2
2
-8
-29
5
9
-8
16
-7
9
1
-11
-12
9
-6
3
2
-2
-6
-11
-2
0
-5
4
-1
5
-9
0
6
28
-2
15
1
14
-4
-14
19
35
-6
9
10
-8
3
-7
9
-7
11
-4
-6
10
6
3
-2
13
0
5
-16
5
-8
14
-6
2
9
-1
-19
-9
-1
6
4
2
-16
4
1
-5
-14
8
1
-9
-2
-6
8
0
8
13
-5
-6
-13
6
-6
-4
-2
1
-6
8
10
-8
21
-2
-2
-15
-11
6
5
-14
28
-18
-47
-8
-11
16
8
-48
55
-25
-14
-24
13
7
-37
43
31
-24
4
27
11
19
43
21
-32
19
9
28
-24
21
3
-43
5
-59
9
-40
-40
-29
-59
33
-45
50
-39
-30
12
22
8
15
43
-26
-52
-5
-13
2
9
18
43
0
3
-6
-29
-3
-45
-13
-32
21
69
9
25
29
5
-9
5
15
-18
61
67
-42
37
-67
-23
18
14
6
34
9
32
44
-20
52
26
-23
-11
58
66
-15
45
-60
-61
-45
-16
5
-3
-12
-50
-5
8
-70
-13
-83
-1
-12
-14
-39
-13
-54
-42
-75
106
3
44
-41
-17
-3
-30
-94
-20
30
-65
37
-59
-25
-37
16
-54
15
-17
12
24
-9
16
-60
-81
-18
41
-40
12
4
-32
-26
-4
-47
64
54
-16
70
52
-5
-86
-52
16
-21
11
-81
44
-53
23
-12
-7
19
36
-16
21
78
-5
-28
-4
4
116
-127
-9
-2
-31
46
-3
17
-27
-46
-29
-32
-51
1
-102
-24
-18
6
6
-6
5
-29
43
-13
-33
-6
-6
29
-1
18
71
-38
-15
37
13
-1
39
-9
-3
-29
46
13
-54
-49
-5
-12
25
31
26
13
-3
-33
-24
33
22
-14
-86
21
-16
38
-38
29
-21
28
-23
-21
95
12
-48
26
-80
-17
-29
-46
-10
-80
-65
-52
2
-62
43
-1
28
-23
-50
2
-26
11
9
46
6
-29
56
35
-8
-37
-108
-73
-107
32
-36
17
-40
-36
45
-103
-14
39
-23
-38
18
3
-20
69
-14
-51
-20
-57
-92
-33
8
8
26
-44
-79
-95
-7
74
23
-5
-4
17
23
-49
-9
4
39
-13
-48
3
-32
-16
-58
-13
-37
-14
-29
-99
-13
21
-10
-29
-40
34
16
37
-62
-29
-54
-2
-99
-11
54
27
-1
64
-7
48
-11
71
-3
-3
7
48
46
12
-12
26
-35
34
-58
32
0
30
-15
-8
28
63
-44
26
25
21
-95
-48
-27
33
20
0
19
-22
6
-30
9
56
57
-2
-6
27
-49
-51
13
46
-26
14
-35
27
0
62
-43
9
14
10
-3
11
-3
-26
40
1
25
-25
15
31
-13
-13
39
-39
-61
40
19
17
25
17
9
-67
-28
-19
14
8
-4
-26
1
-2
-13
62
20
22
-15
-4
81
34
-22
46
-24
-21
9
14
4
37
-23
-53
-10
-14
-6
15
31
32
-64
3
17
-43
16
-39
23
6
28
-28
19
52
-2
-15
19
42
22
-9
-35
22
-6
-29
40
13
-17
-52
-31
-21
-46
9
10
-19
38
24
2
-18
-3
-50
42
-26
-14
29
-38
13
-6
48
-17
3
41
69
-78
0
15
-39
1
-2
-11
-15
49
28
-99
22
-45
26
-55
-36
-22
13
-18
-4
63
17
-34
3
11
-17
34
7
17
94
5
11
43
-59
-16
-2
-3
-31
-25
34
-56
-12
-12
-21
6
33
-46
-35
52
12
-11
-59
57
-5
-21
32
27
-28
-36
9
1
32
-28
17
-14
-60
1
-11
30
3
-9
-17
-10
12
70
-90
43
38
12
80
-38
-73
-2
-19
-18
-34
44
-10
5
-51
-7
21
-44
-28
24
-127
-54
-12
41
-1
18
-38
-8
46
50
-102
44
11
-20
-7
19
-11
-31
-39
12
-27
4
38
-14
12
71
38
-67
34
45
66
37
107
20
-13
75
12
-60
17
-3
-12
-57
-32
-68
-50
-49
-16
-16
-64
13
-45
-14
76
45
17
15
-59
-27
86
12
-51
-20
-8
1
-50
-17
-1
-5
43
-1
23
17
6
-101
21
-33
-30
50
-38
-37
26
23
17
-17
8
82
-32
-41
-17
23
-48
-8
39
27
9
-4
10
-25
-12
17
48
28
-35
0
28
-126
41
-7
3
-34
15
14
21
34
-33
-16
5
15
-32
13
-39
31
6
63
5
7
-21
-6
34
-5
16
-15
20
-38
43
-16
-85
59
-22
-55
-25
-29
-35
5
15
6
39
34
-49
51
7
13
-40
-16
25
19
-56
-20
-30
-33
38
-108
19
-80
-70
-54
21
3
10
40
18
43
9
-42
-24
-3
-17
1
14
6
35
-8
-33
-58
71
-12
4
60
34
9
13
51
0
-45
-4
-22
-1
-8
-46
35
-28
4
-15
-31
-22
2
-46
34
-7
25
-23
-41
24
-38
8
-104
-23
-57
48
53
19
-16
-21
77
9
-26
10
56
-34
-44
49
-7
-53
-9
-12
-7
-57
81
16
8
-27
18
-5
1
-94
-17
-9
84
-37
-69
15
-39
37
0
57
-90
-10
31
-29
-59
12
-16
-36
-3
-23
-29
-44
-18
0
-15
-40
-10
30
15
-24
-53
48
15
-43
-15
-54
58
-20
-26
-40
15
-27
12
27
-10
-22
9
61
5
-2
5
-31
-15
-29
-82
-40
-12
-2
-40
-12
-48
50
-4
25
-16
-19
18
-8
-36
-7
37
-43
20
74
4
18
31
-11
7
50
-23
103
74
10
46
-8
5
4
11
12
26
33
11
17
-30
-4
-13
14
93
63
-8
39
11
25
-35
-17
-20
50
43
63
32
-15
77
24
1
-2
-38
-49
50
-75
10
14
35
-11
14
-21
19
-40
63
-4
-7
6
39
15
2
45
-16
27
50
-30
97
88
8
85
26
-9
7
34
15
-9
48
-25
-17
19
-70
11
30
11
72
-3
-13
-51
-10
-15
28
27
15
-12
16
-18
-5
3
10
25
20
2
38
-63
14
-11
0
-30
-9
-6
-4
4
3
1
-10
27
-34
2
-10
-25
-16
6
14
7
13
13
-20
-25
14
7
10
-11
4
8
-5
3
-3
2
-2
7
0
10
19
-21
-20
-25
-1
-17
-28
-47
25
-12
-4
-6
-68
-15
-11
44
3
11
15
-36
2
-3
16
9
4
12
16
-12
22
-4
5
-1
10
-10
8
43
-32
10
3
49
-5
-28
-5
9
1
-2
13
-17
-10
-27
1
-3
-10
-12
8
-13
-4
-21
-11
13
-5
1
8
44
11
-9
3
12
10
-8
18
11
33
-4
-2
-6
1
-7
-12
6
-1
1
2
-17
68
2
6
31
-8
-24
1
-5
0
0
29
-11
-10
0
-7
-24
-15
24
-10
35
24
5
7
-17
8
3
0
-2
-11
-7
-5
8
-4
-19
21
-6
1
-3
2
-1
6
21
11
4
20
11
-3
0
-15
12
-7
-6
12
-127
-19
-40
49
9
-1
-71
26
-6
55
-5
-5
-6
-21
-7
18
-14
-8
-26
-43
8
18
-14
-8
0
16
3
8
13
-17
-7
-22
-55
-13
-6
34
0
-5
20
8
8
1
7
12
-23
10
-19
-12
24
-12
-10
8
15
8
1
0
-12
3
25
10
0
16
11
18
-34
-27
17
-29
19
4
-6
-30
-16
-9
8
27
-8
35
-18
23
-28
-5
-7
-14
3
20
-20
4
-10
-9
-7
26
17
15
-18
-7
15
-10
-7
10
31
-15
-20
13
28
8
15
-51
-4
23
10
-17
9
23
13
2
62
21
-28
30
-33
3
3
-1
3
-5
-30
12
16
-73
-42
-3
-14
-57
14
9
21
-13
-44
9
23
18
1
22
6
-12
-6
-2
-5
10
-13
1
-21
16
0
1
-35
-17
-3
19
29
-16
22
-15
3
-23
4
-38
3
-10
-1
-37
-32
-10
3
-36
-20
-5
11
43
-5
2
-18
-4
6
59
5
-20
22
7
5
-5
-11
21
1
8
-14
-53
-8
-39
-3
16
-40
6
5
7
-20
16
2
-3
-1
3
31
-10
16
3
2
-8
-7
3
3
-40
-1
16
-5
-24
-8
-43
36
-4
-65
3
10
32
11
-51
6
-5
29
-55
3
4
-35
34
6
1
-7
-63
33
-20
-17
6
-16
-14
-2
17
3
31
-32
1
29
42
-11
-33
7
21
-14
-20
-74
5
9
-12
20
-10
-42
-23
13
0
26
0
1
37
-6
20
16
20
20
14
14
1
15
-8
-19
5
-7
11
-1
-13
4
-19
-11
10
27
2
9
2
10
-4
9
19
-3
23
-13
12
-2
-20
-8
-9
-19
4
-17
25
-20
-15
25
5
-35
-63
1
-16
-3
13
15
-12
12
8
8
13
-1
85
-56
16
-6
-11
9
-27
-33
10
-12
24
-6
16
-31
-87
-17
36
-1
-3
-8
0
-66
32
23
-13
17
27
-41
-9
-19
-66
-14
29
-55
23
-59
23
1
18
16
-10
-76
42
-51
-70
3
4
6
18
57
56
9
-10
62
26
40
35
6
-50
15
-49
-23
1
-23
-29
-9
5
16
-30
-41
13
27
-25
-10
-20
12
-52
-36
33
-57
41
-40
2
-9
22
-37
37
-12
70
56
-60
-62
0
15
-34
-19
-35
-6
-34
-21
4
17
6
-19
15
-61
11
-10
6
-37
13
-26
44
-42
74
-39
-114
7
-53
66
-6
5
-21
-19
-59
-24
-44
-38
14
7
-41
-16
-88
-26
20
30
14
-29
5
-13
-64
28
-82
-59
-127
10
-29
48
67
-49
22
11
-13
58
56
68
-9
54
-20
58
8
31
27
26
-16
12
-2
-1
109
-59
3
5
56
-92
2
35
1
-2
-52
-3
-20
3
18
16
