-19
2
-38
72
13
-16
-15
-35
28
-2
-5
18
-17
84
80
22
9
25
-34
-1
23
14
4
-10
55
-1
22
8
-8
49
-24
-72
7
-4
12
22
14
108
32
-4
-70
-3
-40
30
35
-40
-28
-127
11
-9
118
16
110
34
16
30
-49
26
-53
-16
3
24
32
8
18
21
-48
-24
-15
19
6
39
8
38
41
-9
16
-48
-94
-22
-5
-12
-71
-29
8
-23
-34
4
-1
8
-12
-19
13
-39
10
74
3
-1
51
-4
4
-48
6
35
-2
-31
2
2
13
18
12
-20
-20
8
6
-25
21
19
23
-95
-3
13
-6
60
-66
-25
-62
-1
-29
-9
-12
10
-106
-28
-3
90
-6
-3
4
-39
10
5
31
2
25
-14
-18
-4
-103
-7
-53
20
13
-8
6
60
-38
18
-20
-24
-1
37
-27
-23
-3
-30
-5
3
19
-6
-22
45
-25
-13
16
-52
3
-23
41
45
38
48
-47
75
-52
-5
-3
12
37
10
-60
-94
7
-40
51
-38
-35
32
-3
14
-2
26
-2
-13
9
-7
-23
18
-15
-5
-56
-19
-9
9
11
-23
16
-13
0
-43
11
-19
-27
14
127
-24
-1
-19
-20
-48
17
8
0
11
-7
2
-7
-7
12
-23
-24
-19
7
5
-6
-7
19
-4
-3
45
-13
-5
-15
2
5
-3
-13
-10
-45
48
2
-2
-31
-13
-11
-3
8
64
-20
-4
-46
3
18
46
30
-12
17
-13
97
41
-7
9
18
1
27
-13
19
-27
6
-3
-1
1
12
0
-13
-36
-13
-19
-2
2
-41
-19
-16
82
-112
15
19
11
-7
-92
-41
-14
16
-27
82
-28
4
31
-31
24
6
-2
0
15
-14
-29
12
-12
1
-11
-92
1
10
4
17
8
12
11
17
30
-24
-54
-35
2
8
70
34
13
26
-9
4
-54
25
-10
-14
40
8
-11
-22
-8
14
11
-19
127
6
-20
-6
32
26
3
-31
-17
14
-70
49
-46
7
16
17
-6
-41
-19
21
-14
-1
52
-57
-6
-32
8
-9
-25
-26
7
-38
-51
20
51
-22
-5
4
24
-26
65
18
-71
-70
-51
-52
-9
-2
-66
65
-37
46
0
127
-55
-85
-41
-39
1
44
8
-37
21
-17
-24
36
-71
-39
-20
-36
-19
-33
23
17
-5
-92
-11
13
21
9
99
58
-7
-18
74
-8
-42
-17
12
41
-9
-60
13
-78
-39
-5
-33
7
50
-6
-58
-8
-20
13
-45
-66
61
35
103
-16
46
-67
-53
104
-34
-19
30
-68
28
2
-30
2
15
6
27
-5
59
-38
30
-22
-13
-58
17
-46
0
-30
15
20
43
-59
45
78
-27
4
-6
52
-67
-7
-2
13
17
51
-1
47
0
-56
13
-30
-8
-5
52
-18
-13
-4
8
2
11
-7
-3
10
10
25
7
8
5
-1
-53
7
-7
1
-18
3
-11
-15
8
1
31
-10
-8
-16
-8
-1
7
-37
27
-92
-10
-13
-7
4
-10
-38
-60
-50
18
72
23
4
0
6
-5
-8
127
5
-12
11
-88
8
-3
8
7
-16
2
-6
28
7
-29
-11
7
-4
-2
-10
7
6
-4
-3
30
-1
-20
-2
0
-16
-8
-8
-5
13
4
-5
14
-5
-6
0
-2
24
3
-7
0
2
-9
2
13
4
0
7
-4
8
-11
-16
-25
1
0
-5
0
-1
0
22
-8
31
84
19
16
13
-11
41
-10
-35
67
3
24
42
-31
-2
-15
6
10
-4
-12
18
-12
-1
33
-8
-2
-7
1
-31
62
-21
2
2
-6
64
0
15
-29
-4
-12
7
20
-17
-20
2
-22
17
-41
-56
1
23
15
-44
-8
-40
-12
-18
-5
-15
35
-16
44
31
-62
127
-13
-71
-14
-22
-33
-8
15
40
30
-6
7
12
-47
-53
31
-13
-2
-51
-14
-21
-9
-5
7
-19
-80
9
7
42
15
9
-4
3
8
3
-24
2
19
17
10
-3
28
-34
-61
30
-19
-6
-10
-5
-47
7
-11
4
12
-6
61
-31
1
-7
2
-15
-9
-33
-3
-1
6
-16
-23
4
127
-17
6
3
-33
1
2
-3
-6
-9
2
8
25
9
1
-2
-21
-19
-55
0
11
-5
3
4
-4
3
-9
6
0
-3
3
16
5
9
-44
1
-10
-33
-2
-4
2
0
-15
30
6
-4
-10
0
-5
0
5
0
-4
0
-6
2
15
10
4
-28
8
-3
2
21
-34
-1
-16
13
-8
-3
1
-16
-39
15
-2
-12
-23
-34
-24
-11
2
24
4
-13
14
15
29
106
-21
-10
-41
3
-6
-6
16
19
-2
6
-27
-24
-15
-3
-2
-12
-9
1
16
-1
2
3
-9
31
7
2
17
-9
-16
1
-12
-13
-25
-3
-6
-6
14
-43
15
-73
-5
-31
58
29
5
-1
-20
-11
-12
-41
-12
15
28
-14
5
-34
-31
-30
53
-30
17
6
0
9
-17
5
10
25
-36
-76
-13
65
-79
15
21
-29
-9
7
11
127
-30
-21
-16
-4
6
-8
6
56
37
11
-98
-12
-102
53
-20
44
4
104
-14
17
72
-7
50
-13
10
12
-18
66
64
-38
8
-13
48
-32
-39
-25
0
-52
-10
25
-29
27
-38
-18
87
-48
43
-47
-27
21
-30
-51
17
-4
58
1
0
21
9
-8
-1
-13
-8
3
-35
-11
25
-91
12
9
8
-3
-16
46
-19
-18
24
7
-40
-39
17
5
-2
60
10
39
-49
-35
-5
19
-60
17
26
-5
-76
-35
-19
-21
-13
-2
-15
-14
-4
14
19
-12
-6
7
11
5
36
-31
6
-9
-18
10
-106
42
22
-6
-64
2
-5
14
33
-1
-9
-33
-40
24
-9
-1
14
31
-9
-17
-14
32
50
73
43
-37
4
-17
-10
-23
-37
3
-9
-26
-75
-11
-14
-29
0
14
-19
-14
-18
-5
-9
12
-86
13
-2
-30
30
-2
19
-3
46
-23
-96
17
-7
8
18
-18
-4
18
-4
20
4
-13
13
-6
17
-10
14
-52
-52
12
23
-21
-7
35
-56
3
-21
-17
-2
-12
41
-19
21
7
2
-4
-3
-45
127
-6
1
5
-9
-6
-1
5
0
0
-21
29
-6
0
0
-10
-2
23
32
0
8
-3
-2
4
-18
-45
127
0
-5
-3
3
-2
3
-8
1
-8
-16
-2
-17
-4
-24
-1
-6
-3
-9
8
4
5
23
0
-40
-2
-7
-12
-1
-4
-14
-8
3
34
-1
1
-1
-20
3
-9
-2
-2
-4
13
-14
-1
4
-6
2
5
-8
1
3
4
-5
-14
-13
1
-1
-8
-7
-19
13
-17
2
-2
-2
5
-8
-10
-12
-6
12
3
-4
-25
4
2
-9
6
-4
-3
2
-36
-10
-20
-9
-6
-7
6
-21
-31
-7
-2
-22
-4
36
-4
18
-32
-2
12
1
0
27
-3
-30
11
-127
19
-13
11
-16
12
-11
17
3
6
-26
44
-45
1
4
9
5
-10
-1
47
19
-82
14
-10
28
4
-47
34
26
-4
-19
41
10
-11
-37
1
5
27
27
-4
12
11
-23
-7
92
-3
-28
-2
-28
3
0
-21
-10
2
9
12
9
0
-1
-18
1
5
-8
6
-17
-19
-9
4
15
-17
16
126
-4
11
-2
-20
82
-46
-16
-7
-12
15
11
0
-3
7
13
65
0
-27
-23
0
33
-15
15
-74
3
-5
-12
-7
-12
2
-8
1
-18
-5
45
14
6
-2
65
77
-9
-3
12
36
32
-98
-12
23
-14
-15
13
7
-9
2
-3
-5
17
-2
6
-3
-2
-7
-3
0
7
9
2
-16
-30
-1
-9
-8
2
7
-27
36
8
-1
1
-6
6
-2
-13
-9
1
-2
17
-9
5
3
-10
0
1
2
-1
6
11
9
4
7
-12
-15
-5
24
7
-10
1
4
-9
4
-4
5
-11
17
-12
-9
10
-11
14
-6
-10
3
11
-2
-26
-3
-4
23
-5
11
12
11
1
-23
2
3
-23
-4
-22
8
-1
-10
1
-14
30
6
27
6
1
4
-1
12
7
-8
17
-5
9
-1
-4
19
-2
14
2
-16
-8
-1
6
-6
-8
8
8
-7
-36
-3
127
26
9
0
2
38
-26
13
-19
127
8
28
68
3
-4
-6
41
29
32
-4
-21
0
-4
-1
-22
7
6
74
-84
5
20
19
120
-5
21
-2
-3
-1
54
-8
-2
-11
48
-38
7
-15
3
-7
4
79
43
16
-51
-41
-4
23
-8
36
-17
-32
-22
6
71
-7
-10
-6
-28
-10
-9
-3
8
17
-25
10
-11
3
-7
0
-8
-20
38
-9
88
8
9
-3
16
-36
70
8
-30
19
4
2
-11
-7
-11
-7
-95
-10
31
13
-6
49
1
-15
-4
1
-14
-20
9
15
-2
11
6
11
9
-2
-1
6
1
-9
2
31
-13
-7
-33
3
0
34
17
15
-19
3
-1
-2
56
-5
-23
-5
35
10
4
-16
0
1
6
-30
23
8
-1
9
6
-7
2
-2
12
-16
2
-6
-5
-12
-10
6
-127
3
-6
6
-10
-21
31
27
-9
13
12
-9
10
3
-12
1
-4
-32
4
15
-5
36
-6
-2
17
16
1
-32
0
10
0
4
5
1
-7
34
3
27
9
0
4
-5
-10
-9
-8
2
41
7
0
-15
-13
17
50
-16
-9
3
7
-12
5
3
8
-35
-41
3
-56
-7
-3
-17
0
11
-8
-2
9
-9
23
2
-1
-6
-2
0
-6
-3
8
-12
-5
3
-1
-3
42
-11
-1
-16
9
27
-10
-36
-2
-31
-3
-32
56
49
2
-13
13
-14
1
11
53
-30
-15
-84
4
2
16
24
-7
-6
-51
68
22
27
2
10
59
11
37
25
-7
20
-4
5
-1
8
-13
-13
0
-9
-15
-9
-17
29
-23
-2
-13
-127
-9
42
-3
-18
-122
-95
7
-16
41
16
-15
-2
5
-7
3
0
-5
-4
-5
1
-11
11
-28
63
-17
-124
1
9
-100
-6
3
-4
-1
55
61
11
-14
-9
24
-1
-16
18
9
41
-6
6
36
-18
16
7
22
-15
-2
-30
-9
-13
-29
-23
73
10
-15
1
21
50
-7
-30
-4
-11
-23
32
-23
-4
-4
1
-5
-11
14
6
4
-9
14
7
-16
-36
-12
25
-94
-33
2
2
-3
12
9
-13
-3
7
-3
-3
-4
7
21
-127
-13
-21
4
-4
-32
5
17
-16
-14
-4
-13
2
-5
-4
-15
-16
5
9
28
-6
3
16
-7
-7
-22
73
0
-10
-5
-9
14
10
-28
-19
4
-45
-3
-5
-42
-15
-1
6
-2
4
-16
6
7
8
-2
-22
-36
28
-12
3
-6
-14
-3
-4
5
-50
-13
14
-3
14
11
3
10
5
1
-47
26
-6
-8
-6
3
15
12
-4
4
9
-8
11
12
-3
-68
8
-5
-6
6
11
-1
-3
-2
-3
43
2
101
10
2
2
7
6
13
-16
3
6
-5
-75
81
-25
-2
-75
86
-84
-46
7
16
30
-13
-6
-7
3
15
-9
51
5
-86
-9
41
-51
24
-20
-34
31
-54
41
-23
23
-6
95
-45
50
10
-61
38
-63
41
-2
59
-13
-2
-66
-127
118
11
-62
17
25
-26
-84
-56
-42
-15
-91
-16
31
2
-66
-28
7
19
62
-23
11
54
31
-42
-16
59
-24
-13
0
86
-117
-20
-84
-22
-27
-26
59
-80
48
-28
-55
-28
1
14
6
-18
5
18
40
1
4
-22
-15
-51
-12
-44
-6
15
-31
77
18
-112
-23
15
-35
30
1
-15
-49
-69
30
38
-59
-4
30
-4
-25
66
-2
5
26
-18
-4
-38
-62
-18
-36
35
5
-13
7
-36
18
9
55
-6
4
13
-4
-1
16
-1
-36
20
-22
2
15
-55
15
30
-16
-27
-12
40
20
-1
-8
30
-5
-26
-9
-18
9
7
-6
21
6
-71
127
-2
-39
-5
31
21
-24
-73
31
-15
-118
9
2
2
-72
-15
-13
-4
11
-1
-26
-32
6
17
30
33
20
14
4
24
5
10
7
19
-46
-63
-10
20
-13
-63
-7
22
-10
-6
-2
-17
-13
-28
12
-6
13
3
-42
-1
-10
12
-1
-30
9
-25
-9
6
-8
2
-30
-12
-4
-6
-26
-23
-15
81
4
30
-21
0
48
-4
38
7
-23
8
19
1
-11
13
35
56
4
-13
-10
41
12
32
57
-12
-1
10
-14
42
-9
44
32
-44
-13
-29
-5
-17
-8
-40
7
-22
-35
49
2
7
17
5
10
7
-13
-25
6
-28
7
90
10
-9
36
2
-91
-12
18
41
-11
-38
28
18
-78
-41
-17
-17
-47
23
-4
-7
17
11
-39
-48
46
-24
-17
-11
14
33
-10
-47
0
-21
21
-3
-28
-54
-24
-6
-6
-28
1
-1
-23
-3
-32
-36
-2
-59
-6
-4
-88
21
5
6
79
-15
-25
-18
116
-6
8
-8
8
-5
13
121
127
-6
-10
79
33
21
44
-8
-13
7
20
-18
90
-2
10
6
-42
-9
-39
-44
43
-3
-4
-29
7
-25
9
-17
-9
-37
3
9
-10
30
-12
-16
-39
33
8
8
14
-58
33
-28
21
-35
-77
-59
-56
-12
-37
-34
-48
-11
-20
-15
-7
-36
-29
-43
-34
-86
78
11
69
14
-21
-23
-60
-23
29
-20
58
64
18
-3
-12
71
-69
-11
-3
18
13
-66
55
31
-42
-41
-18
2
7
-27
26
-49
-13
4
38
-45
-50
-13
-15
52
-31
24
-22
-11
64
-61
27
2
-33
1
16
-40
-18
-2
-23
18
8
60
-56
17
18
-12
-24
-30
-37
7
-37
-6
-24
-1
-10
20
-127
-38
12
11
49
-27
22
-8
8
4
-47
-67
2
-25
-47
4
-13
43
3
-14
-45
32
-20
-30
-13
17
4
-32
7
-55
-40
49
2
27
-3
-8
-28
-15
-18
42
-78
-47
5
-61
-23
39
-7
12
-38
27
17
11
-6
-18
-25
-31
14
13
-114
8
-16
40
47
27
-15
46
54
-127
-13
12
4
6
-5
-4
-75
2
17
32
-14
-3
-21
-15
61
47
-20
-30
-6
-3
-42
-3
57
-38
-119
16
69
37
-41
30
72
51
-123
-32
48
-75
30
37
11
-30
8
-20
-33
-32
-86
-7
-25
71
-3
-17
-47
63
-25
16
42
7
-43
52
-31
-85
-86
9
-12
24
29
-93
9
-19
7
-11
-6
87
21
-4
-13
-15
-6
7
-1
6
4
42
38
-5
-2
1
9
6
-8
-20
3
8
11
-10
-6
9
8
24
-9
-25
4
-6
-25
-14
1
26
-20
7
-10
27
5
3
0
-7
14
42
-22
-6
127
4
17
51
1
9
45
-2
-23
-4
4
6
3
13
6
-5
-4
4
20
5
7
-5
10
-4
47
12
-1
30
0
-2
-12
2
-8
41
-1
-21
30
-7
-9
7
-3
7
-32
39
4
-95
8
-7
9
2
20
-11
-2
-13
-31
6
-8
-35
4
-13
-8
9
-5
9
-9
-5
8
-31
-9
21
5
-10
-12
7
6
2
-24
-5
10
0
1
-1
-2
-9
2
32
-3
-15
3
3
-1
-1
-6
-3
-127
26
2
-2
3
0
-2
21
-4
27
14
1
-15
7
-6
-11
-5
2
-7
2
-5
2
5
-11
-2
5
-3
4
3
3
4
-21
0
-96
4
-4
2
-4
9
-1
-10
2
29
-4
6
-3
2
0
-2
-1
-1
-4
-8
0
16
9
4
0
-1
-4
-36
2
2
1
-4
-20
-19
-3
4
-4
5
11
6
2
3
3
-3
-6
-3
-16
-3
-36
-4
-5
1
1
10
4
1
6
-1
10
-54
-4
0
7
3
3
8
-39
-12
-5
1
18
3
-5
-3
-13
-12
8
-4
-1
-28
10
-20
13
10
13
-27
-7
28
75
4
1
12
2
2
-17
3
-10
-9
-6
-2
-21
-1
38
-9
-2
-1
-4
-13
-5
36
5
23
0
23
-18
3
-4
-21
-50
21
22
-13
-40
-6
10
25
-6
1
-1
14
10
-19
-11
5
-13
1
-1
-17
-11
-18
-33
-12
-8
-127
-3
-41
-12
-9
72
1
-7
11
17
12
-13
4
5
-37
-20
-22
-12
-9
-4
12
13
-15
18
-7
-14
6
2
15
4
-24
10
9
-15
7
-18
2
-1
16
-14
-46
6
-10
-9
-11
9
6
3
16
-25
22
-7
-3
-13
17
14
-25
11
35
-6
-1
15
0
0
8
-1
21
6
-59
-23
58
23
-22
-27
40
-59
-36
-15
-82
15
4
-7
5
-32
45
-42
-46
15
-23
65
-10
42
-28
23
41
-42
-11
7
32
-2
-2
-101
8
-2
81
-4
1
-36
-17
9
60
27
-13
5
59
16
-22
-26
8
28
-34
23
-77
23
49
49
-66
-13
-42
127
24
-17
-50
-26
-8
-2
23
-23
-29
-11
-3
-24
45
34
-9
-47
69
-1
-10
20
-12
-15
37
-87
-22
21
24
-1
-12
17
1
9
-25
-14
-50
-62
-1
-51
-14
-21
10
24
35
1
51
2
59
-18
-30
1
-55
-7
93
11
21
6
7
-6
-18
-32
4
19
0
2
29
-1
-44
36
23
-24
35
-28
56
-67
-27
-1
-51
7
6
-9
11
-23
-14
27
-3
12
-12
24
-18
49
0
83
-13
24
24
-11
16
12
18
-43
-8
-38
68
-18
-1
-8
4
-48
12
-82
-11
3
-1
11
18
42
70
44
-29
9
40
9
7
3
14
-11
-4
-23
-7
-7
32
23
9
0
-9
-35
-1
-23
9
-44
-18
12
9
-10
-14
-12
6
28
31
15
11
-55
17
-7
-40
39
-30
-15
-12
-5
8
-29
11
-51
16
8
7
-26
33
-127
-22
7
6
-17
54
1
-4
4
-3
13
18
64
20
6
10
-6
10
-4
-20
12
8
15
-15
6
-12
-15
-6
4
3
-21
10
8
4
-39
-24
-28
-5
9
72
20
-6
-23
-12
4
-6
-17
8
-2
20
-30
31
-69
-22
-3
-33
13
-17
16
-36
-11
-6
10
3
-30
-5
19
-1
-59
-11
6
49
3
0
-12
-14
-2
17
-2
13
7
16
24
-3
9
-27
-3
9
-1
-21
-59
8
12
4
-47
-17
22
2
27
23
2
-4
13
60
-56
-3
-2
8
-1
-17
14
-4
-6
15
-43
-1
-62
3
1
-20
2
-13
-5
-22
5
4
24
-10
2
7
-24
3
-3
-4
14
-13
-8
1
31
14
-31
-14
-33
1
6
127
-14
12
-3
17
41
8
24
26
-14
1
54
-10
29
15
13
5
-59
-52
1
-5
-5
117
41
-11
6
3
-61
-13
8
24
47
11
9
106
-84
19
5
-37
-9
-38
12
6
-4
64
-12
-8
8
-62
13
47
36
-17
-5
-61
-15
20
-63
-7
-6
19
-51
63
-21
-2
58
9
7
-18
4
127
-15
-29
-27
17
-10
6
18
-70
-5
5
-29
66
-9
-27
-17
33
25
32
11
24
12
-25
5
-9
-47
-23
-12
-6
26
3
-13
-67
61
9
8
-9
11
-11
-42
-10
30
25
-17
4
-18
39
9
15
-15
-9
-32
-19
10
6
-31
-2
-14
95
5
-14
-8
-25
15
-9
64
3
-9
36
-88
6
3
3
-11
-14
14
-94
1
3
7
-4
6
9
-14
-55
30
-8
18
1
-4
-12
12
9
-22
-8
-4
10
16
16
-11
23
8
17
-11
-4
11
-20
24
-2
1
-56
-4
-12
3
-8
1
12
-1
-15
-21
96
32
-6
2
6
-11
-2
12
3
-2
7
-6
8
3
19
9
2
-3
2
-127
14
2
15
4
-26
30
5
22
-11
14
13
-2
3
12
-24
47
-3
1
10
-2
-32
-5
-15
17
-1
-11
13
9
-5
-85
11
15
10
6
3
-8
16
-4
-8
-13
-20
45
13
23
-22
-10
-15
7
-5
6
11
2
16
0
-68
-7
6
22
-6
3
-16
-24
7
-5
-15
-47
5
5
14
2
-1
-3
6
5
16
8
1
35
11
11
-1
-17
-15
11
-4
41
-13
-13
26
8
-20
-5
0
6
4
10
7
-31
-23
-1
27
-5
-11
75
-8
-22
-36
-8
-22
12
-15
-6
10
12
-7
-12
-13
-12
8
-2
15
-13
-20
-5
-127
-51
2
-18
10
-4
34
11
-8
9
30
-7
-14
13
-43
4
-5
2
-1
-9
5
-7
5
2
-4
-11
1
23
-7
17
-3
2
-1
-1
4
5
-40
0
-2
3
1
-6
3
-7
-3
-1
8
2
7
-12
8
32
-13
6
-1
-29
11
-15
79
4
7
-29
6
-22
-4
43
-3
-63
-63
16
12
21
0
-13
-27
7
29
-5
6
11
7
-127
23
-101
3
-33
-28
15
2
-28
5
-2
-23
-20
-27
-33
-6
-7
82
14
5
-15
-49
-3
-31
12
-8
-97
12
-52
13
-62
14
-31
19
-38
107
-6
-23
0
-23
14
-47
-23
-16
11
70
-44
45
23
-3
-114
0
43
-34
16
2
75
-16
-6
16
-10
30
32
-21
37
24
22
-6
-3
14
14
-24
91
-6
38
-11
-23
19
-12
7
20
20
-1
34
49
-16
7
2
-1
-17
-49
2
36
24
-16
-21
12
15
-16
18
32
5
1
-3
12
-8
23
4
7
-2
6
2
1
-29
2
-25
24
13
20
11
-31
6
1
-13
12
-6
13
12
-21
46
17
28
-17
-39
-24
-31
-35
20
1
8
-15
7
-49
-7
-28
14
-28
-3
-16
9
8
8
-3
-8
3
19
9
-8
6
14
-5
-17
5
9
24
3
-3
-32
-19
14
40
-15
7
-2
8
4
95
-23
3
8
-30
-33
10
-63
-19
17
-3
7
33
-16
46
-4
11
7
0
-4
27
-8
14
-10
10
-5
5
33
-16
-91
127
-34
-8
-7
-4
11
-18
1
2
-13
-12
-1
11
-9
23
2
26
-2
11
12
27
-34
-10
-10
0
-17
8
16
2
25
-58
-8
18
25
5
-13
10
-27
-9
18
10
-13
-27
21
-11
16
-63
127
-66
30
19
21
7
-38
-1
-20
-39
-23
-73
-9
-18
-30
36
-43
-22
-28
-18
-28
-3
-9
-101
7
-53
-43
31
-18
-12
-26
-13
-11
-33
47
22
-8
-28
-20
32
36
17
-31
-13
25
46
-4
-34
21
-13
0
-2
6
37
-63
-35
-64
-32
-34
-2
-73
10
-4
46
-73
24
16
7
22
0
13
-10
-7
9
28
5
52
-21
16
-44
-10
-18
-14
12
-1
-21
-60
2
13
33
23
-9
76
-5
-1
4
10
7
25
19
-39
-88
-19
-3
91
72
22
-26
-29
12
-4
-37
28
-49
-9
53
90
-16
-37
25
2
7
-7
94
-16
2
-8
28
-3
5
21
-37
95
-23
36
4
65
3
-83
47
-46
-71
-55
-19
3
-75
-23
65
-32
35
39
77
38
-3
-5
-38
-62
-53
-7
-64
1
-37
24
-25
57
-7
-68
75
-88
56
-6
-44
-34
-127
-26
-29
9
-50
-69
-5
-13
44
83
17
35
-1
-3
-11
4
28
-39
29
-17
77
-19
-28
-61
-10
6
-18
24
8
-14
-28
-10
11
-20
19
-25
-52
4
-83
17
-35
-2
65
-6
-21
12
4
-26
-30
66
94
21
-13
2
-12
32
-2
66
-38
12
3
21
60
-4
22
7
-24
24
-55
-20
7
-14
-12
11
6
8
45
-11
-9
8
9
13
20
-2
14
29
16
-5
9
-26
-13
-12
42
-21
6
4
-22
24
-56
-19
31
-38
-14
3
37
39
-24
-12
-15
-63
-4
-11
5
34
-29
-26
-2
61
-8
24
-25
-25
-8
-43
-3
-8
2
-5
-59
47
55
11
-28
3
-34
-17
89
9
15
8
-55
-40
-3
-4
-8
-20
-11
0
-7
8
5
20
-11
-18
20
-3
8
-3
12
-38
-11
37
33
17
60
15
-4
-2
-4
0
25
7
12
19
-26
-10
3
25
-61
27
39
11
-16
-127
8
-1
14
58
30
0
-23
30
-1
-72
8
-25
-23
-15
12
-36
-6
33
-4
7
9
-13
6
29
29
3
2
-2
7
3
-7
-17
25
-8
-18
-16
-16
-15
-2
-1
9
-8
-13
-13
1
3
-10
6
-13
34
-11
17
1
8
-14
2
-38
-25
-12
0
-16
-14
11
10
-23
1
28
-33
-10
-13
-18
-4
-20
2
4
11
-10
-17
4
-6
-2
7
41
1
-5
3
11
2
6
-11
10
6
127
7
5
1
-9
-14
-1
-20
-11
-3
-4
-1
-10
-12
-1
3
7
-37
-52
8
-28
-3
12
-4
-5
19
-5
-14
1
-12
13
-1
13
8
8
9
10
4
-19
6
32
27
12
32
0
-24
-15
10
64
17
13
-5
0
7
13
1
38
32
1
-8
9
5
-61
-3
13
-2
43
14
17
3
-1
10
-7
1
15
29
-3
46
-4
29
-1
2
-14
-1
-16
25
29
28
-1
-3
6
1
-9
11
1
9
-3
-36
-3
30
5
3
10
-9
23
-11
19
1
-15
-20
-10
7
-36
-12
23
-12
2
71
-5
10
-4
-34
-14
-23
99
3
-1
8
26
122
127
-15
-3
64
0
25
32
-23
44
-1
28
-19
-2
-27
-17
-15
1
6
67
14
54
32
4
-35
0
-2
-4
10
-25
18
-4
6
11
-27
-30
4
4
-4
18
1
-17
9
-127
7
2
-5
-30
9
2
16
0
-5
-36
-10
25
6
11
9
-7
-20
37
-22
2
68
7
-49
15
9
-52
51
14
3
10
52
5
-12
-43
-3
13
19
33
-11
3
3
-9
-17
-76
-10
-10
-1
-24
-15
-8
-13
-6
2
29
0
3
4
-12
-19
3
10
0
-15
-15
-23
-5
4
10
-20
26
-114
-2
9
7
-7
73
-31
-25
13
-19
15
-5
-18
3
10
21
46
-7
-29
-25
9
-22
-7
5
33
-2
6
-4
14
4
-18
-17
-7
-10
0
20
7
-7
-7
-28
-92
-17
2
-3
12
-28
-60
-29
-5
-20
-11
13
-31
27
44
18
-44
-4
-59
42
-11
-9
3
-5
-7
-14
-7
-1
6
3
2
9
-32
-2
22
-4
12
-7
-2
42
6
10
10
-6
18
30
-52
9
6
-46
17
-6
-7
13
-1
-13
21
2
-48
24
-13
-4
23
14
36
-17
-56
-13
13
-53
-27
2
1
14
14
-17
2
3
11
28
19
-14
11
2
13
5
-80
1
4
-8
-7
-127
8
-3
-25
-5
4
-9
-19
-41
-13
4
6
2
-7
-3
-11
0
-33
-2
-17
-13
-2
-13
-8
12
-29
-16
5
16
-5
-17
-8
-12
9
8
-18
0
10
-6
25
-34
-6
15
-5
-4
-20
-7
11
114
-14
19
28
-16
-31
-41
1
52
44
70
7
33
37
26
27
50
22
8
5
-3
3
-7
-67
39
28
21
-16
-45
72
20
-33
53
28
21
-3
-15
-49
-7
-21
8
24
15
-22
41
-60
-48
17
-6
91
9
122
14
14
11
-12
-20
-29
-47
-77
-34
-101
45
-18
54
47
26
2
11
56
43
-23
-55
5
50
20
-2
-16
-41
-11
-31
-22
-47
-127
-37
50
-46
3
44
-24
19
4
-48
19
-30
-18
7
8
25
-39
41
28
23
13
-76
34
8
-9
-55
-3
22
-32
-33
31
5
-10
29
-1
-28
50
-5
-84
25
83
-14
93
37
-24
-6
-4
108
105
-37
-42
5
-84
90
-63
-13
11
3
10
16
-46
32
16
22
-7
-32
60
52
-41
28
-29
-2
19
37
0
30
-7
-56
-12
-2
-29
40
36
-50
28
1
6
-1
6
-35
-5
18
-62
0
81
12
-13
15
-18
-5
-25
-31
-34
10
-6
30
-27
-17
0
-23
-127
-9
-22
51
-19
3
25
-58
15
-24
-12
-5
6
10
-9
-19
29
7
13
-35
-24
11
-9
63
-4
69
6
-16
-50
11
-8
-23
24
-1
-33
-21
-17
-6
-1
-17
-22
-13
-18
12
7
-88
28
3
62
16
14
-5
3
-36
-41
-12
5
-40
32
6
-9
-29
24
-56
13
6
29
-68
-30
-4
-13
67
-6
0
-1
16
26
-7
43
-14
5
2
-8
-19
2
1
21
-28
4
-14
3
-34
2
-22
-33
-32
-21
34
-12
5
-19
-10
-4
-11
-5
12
6
-23
22
75
27
-40
79
7
-17
0
-7
38
-16
-25
-4
18
-44
-17
1
-7
-21
7
3
-10
2
-9
-13
-12
3
12
3
-7
28
0
-9
60
3
9
16
0
-11
-127
-10
14
-5
0
7
5
-7
-6
-1
-120
-12
-2
-8
-14
6
8
-14
-2
-7
16
8
15
24
5
6
6
-10
-9
-6
6
-23
-10
-3
59
5
-10
25
10
-8
-19
7
-5
19
5
8
0
9
-127
-5
-9
8
-42
1
-22
4
3
5
-38
-17
-5
11
3
-2
-11
5
6
-4
1
-3
10
-5
-2
-10
4
-1
-24
-8
-14
-3
-8
4
-45
-4
20
17
-4
1
-4
-15
-15
1
-1
-84
-5
41
-1
-26
-1
36
9
3
-19
17
9
4
1
3
-23
-19
2
-7
7
-26
-2
-2
8
-2
-11
7
-12
1
14
20
13
-5
3
-21
-17
7
13
6
10
-1
14
2
7
-6
-19
-4
-26
11
5
23
1
-16
0
9
9
4
3
1
-57
13
1
-1
1
5
2
4
-3
-29
-4
-5
17
2
18
4
7
27
-1
-42
2
7
18
-7
2
-14
-22
7
15
-18
-19
4
0
5
-2
5
5
16
1
3
-4
14
1
-7
10
-3
-3
6
1
-20
6
0
-12
7
5
10
5
2
5
-7
-16
-7
0
-1
8
2
1
0
-29
10
-6
-23
8
-7
-6
-49
-7
-21
-6
9
14
-21
-11
-3
-9
-34
8
7
0
4
-4
-9
97
-6
25
1
-15
-4
13
-21
-7
7
5
-12
-1
-6
-1
127
16
-5
21
-9
43
-10
-2
-12
3
-8
-14
-3
2
5
-27
3
-108
-82
-15
-9
-14
-11
14
15
10
10
-2
6
-15
9
-18
3
34
14
6
-28
7
10
-14
3
-10
127
-47
72
-12
2
-6
-35
-4
-3
22
-14
55
-35
-24
-27
-39
7
-12
-1
-29
15
39
-6
49
-15
-1
-17
-13
21
8
1
-19
-65
-14
-20
-6
64
-12
101
17
-1
18
13
-31
13
21
12
27
0
-12
45
0
-18
-16
9
-30
35
0
-4
58
-3
-8
-16
18
-47
26
-12
-59
-21
-61
23
2
37
-12
-22
71
10
-13
13
55
19
56
33
7
17
11
22
-22
-6
118
19
1
43
-27
-29
-1
20
2
-13
1
-5
11
28
-40
7
5
-6
-74
-2
2
-13
-112
-18
45
-75
3
-18
-16
17
30
-59
-10
19
15
-1
15
29
-52
-8
4
9
-15
5
10
3
12
-8
-23
-6
18
17
-12
13
-21
5
-3
16
-28
-30
-6
-7
7
4
3
2
14
4
-5
21
-20
32
11
-14
17
-6
-16
-16
-50
-14
2
-6
-29
-6
7
8
-43
-25
-3
-8
6
-15
-7
-12
0
8
-11
3
-1
0
5
-14
16
44
2
-4
-7
-10
127
20
19
3
16
-11
-12
-10
-7
6
2
-1
-29
-17
-8
13
-11
29
2
-6
-10
11
9
-15
5
30
-11
18
-16
-4
-5
0
19
-1
14
25
-18
-13
-33
7
0
3
4
-9
-37
17
-9
3
13
5
19
-11
12
31
-18
-22
18
6
1
-54
-17
-4
57
9
-26
-29
36
6
7
4
-11
-38
30
-10
-56
-20
-37
14
6
-10
18
-23
56
-14
11
5
-45
15
-16
-15
-22
-9
-82
-45
-52
-37
-8
-84
1
52
-78
7
-92
-19
-28
-14
-40
-38
-2
-70
-33
-15
-16
8
-12
-20
-1
87
19
-51
1
-34
21
85
-31
45
-58
21
56
-25
-86
-2
96
-19
74
1
127
34
1
-61
-56
9
-19
-61
5
63
17
-59
-6
-43
-30
14
53
-33
124
-51
-13
67
6
25
-5
-50
-104
-51
-92
-28
-18
-4
-44
-68
-37
-10
-14
-32
15
18
-30
-16
92
-51
-2
9
55
-79
-50
-20
-21
7
-17
3
7
-4
64
-1
18
1
-2
8
2
0
0
-5
10
-25
22
10
-2
6
-4
-5
9
-4
16
-26
-6
47
-5
-8
3
-21
4
-13
30
-30
-8
-6
3
5
9
-31
-10
6
4
-1
17
-7
-15
4
11
-7
5
0
-1
-11
5
5
-4
7
3
-2
9
-2
6
1
0
-13
-8
-4
26
0
-6
8
-7
-34
3
1
-5
-22
-44
-16
-5
23
4
-9
11
-32
0
1
-14
-23
3
-18
9
-2
-31
-4
3
-95
-5
10
14
21
8
-7
1
127
-13
10
2
4
-1
10
-49
85
-8
13
22
-28
11
40
18
4
-5
2
3
3
12
15
-112
-22
-6
6
48
-1
27
17
19
3
51
-7
4
13
24
1
9
-2
4
-22
-6
10
-3
-6
-32
-5
-4
-14
-7
-10
1
-23
-4
-11
-18
27
15
26
-35
-5
19
0
-15
6
30
-59
18
-91
25
-22
-3
-2
-9
21
5
-58
17
11
22
-7
13
39
12
20
10
-23
30
-19
-18
-6
-49
-9
-18
-15
-94
-19
1
-1
-1
-32
-18
21
19
29
18
8
6
-8
6
-18
2
-3
-13
8
-24
53
5
-5
45
17
-4
7
-11
1
-38
11
7
5
-7
17
-3
-9
-19
-15
-19
10
127
-6
28
4
21
-52
15
29
14
16
-4
5
127
-23
9
27
-2
-3
-14
4
-15
4
51
-38
-21
0
-4
24
-6
-5
4
-54
-39
-37
-11
8
-33
30
14
9
-8
-29
-8
9
-11
9
20
-12
-4
9
-19
16
7
19
10
2
-67
-22
-20
78
-2
19
-7
-34
10
-10
11
61
26
12
-16
18
-6
-27
13
-4
-1
-10
0
9
12
-22
-41
1
-25
-1
91
41
-6
-7
3
-19
-1
-14
8
16
18
-1
6
27
12
20
-14
-21
-8
9
20
32
-8
2
4
2
5
11
27
2
44
-11
3
-6
5
-9
4
19
17
-1
-30
-10
-15
13
-52
29
-13
-53
-1
-20
9
-27
1
29
-61
14
18
7
42
-30
34
-18
46
21
-15
11
-55
20
39
-15
-46
-4
10
-1
4
21
-17
2
17
-108
-6
-20
21
9
68
-18
-25
34
-22
-56
-21
14
28
-17
17
-1
-5
22
83
10
-48
-31
5
-28
-55
14
-24
54
16
-47
-31
-55
34
-38
3
17
13
63
8
16
7
107
51
20
-55
-69
35
-11
-28
-21
25
-26
106
40
-41
-10
-13
3
-54
-37
-29
65
52
1
9
59
-57
41
-15
-49
-21
-16
10
-38
60
-5
46
-52
-116
10
28
-17
78
31
40
99
-28
-16
-24
20
127
17
15
-57
25
5
1
40
2
8
-4
0
4
32
-12
12
-1
-1
-6
18
13
5
-9
2
37
4
-7
-2
-9
5
-8
7
-4
2
5
-4
-80
-17
-6
6
-16
-29
10
1
-5
23
-16
-29
-4
17
-11
0
-5
2
12
28
-28
-42
6
9
14
-5
-127
-14
3
-10
-24
-41
3
21
9
-9
12
-9
-1
11
-16
10
-10
7
22
20
-10
73
29
-5
-24
5
-16
-13
1
-14
8
-6
13
12
19
51
-3
6
0
-11
-1
-1
2
-18
-10
-10
3
-5
-23
8
-6
35
18
6
8
0
-7
57
-2
-18
-7
9
1
4
-11
-9
-13
5
-7
-2
-7
28
-11
-9
-4
5
-13
-3
-18
0
-32
-9
41
-13
-7
11
10
18
28
8
94
-15
-14
-5
9
-23
-1
-30
-9
-50
11
5
19
46
-5
108
23
27
-23
36
9
-10
-1
51
-1
-21
-93
26
-78
1
7
-28
-7
-3
3
14
-35
-1
-8
-28
11
2
20
4
28
10
-12
2
-16
-4
-10
-21
-26
-13
102
-46
63
2
-20
-16
101
-24
49
-25
0
-19
15
11
-13
14
-22
-104
-24
-48
-27
4
4
41
-10
6
5
19
17
-32
-5
-2
6
80
10
-87
127
5
-12
16
18
40
-4
11
-4
-7
5
-19
-12
2
-37
50
-27
-1
-8
-35
32
66
-25
21
28
54
-11
-31
-18
12
-74
55
23
-32
-25
-54
-6
-49
23
-9
-22
-24
-72
-6
44
3
-23
-9
4
9
-66
-39
49
-65
-5
-21
-54
-37
7
9
-59
46
-39
-12
-14
1
-81
24
-54
41
28
11
32
-37
-8
-54
39
127
17
34
1
114
-17
-33
-14
54
17
11
-5
-104
-60
10
37
-2
29
19
-57
35
44
-13
-38
2
24
17
6
-20
5
-22
53
17
12
-4
32
4
11
-30
53
0
-53
-37
-19
34
-2
14
-15
-15
12
-19
-61
-17
-23
-6
9
-9
19
-10
-27
61
-24
11
80
-4
41
63
2
-74
6
19
-9
-34
-47
9
-31
-62
15
-47
-6
22
40
10
7
6
-17
-17
-14
1
-16
4
3
9
9
-17
-75
27
-17
9
7
-6
59
5
-22
6
-10
10
-12
12
6
-5
-37
3
-7
8
1
-3
6
21
11
45
-1
-38
-4
15
1
23
12
-16
16
11
-16
-7
-7
-8
8
-6
-23
1
17
6
18
5
-3
-3
-6
5
2
-69
-17
1
-33
8
-127
0
16
-18
-12
12
-1
0
11
-18
-9
11
-8
1
-13
-10
6
2
-4
-8
-3
-2
-8
-2
5
-32
-8
-13
12
-5
8
-6
-9
-2
-14
0
-4
6
-5
51
-18
6
4
-7
-7
-6
-1
9
-116
-8
17
72
3
61
-31
58
-47
-1
-17
-9
52
-43
-32
-75
-25
-5
1
23
-27
-28
45
-32
14
-13
30
-5
-32
11
4
15
-50
-17
-19
98
45
11
-32
34
4
-25
-17
4
4
12
13
18
4
-11
19
54
21
-127
-32
25
-69
-106
-38
-66
20
-11
-53
37
23
-35
-107
-50
-23
-65
-2
8
-31
61
-56
-52
-10
-15
-56
41
53
37
-7
60
3
-16
25
-20
-46
-14
-14
11
24
6
13
20
-9
81
-2
-17
80
-50
91
-32
-11
2
-21
-7
0
20
7
-25
16
-14
-10
-28
-15
-49
-9
-34
76
18
45
9
-8
-15
-19
-20
45
-7
48
-64
-18
-38
-2
31
-60
46
-40
-17
12
42
-16
17
-107
10
0
13
30
-27
-98
-7
73
6
7
-16
8
-20
1
-7
-26
-23
11
10
-16
-18
-50
127
13
-14
-1
2
1
-9
-10
53
23
-14
-25
-7
-17
-22
-17
-32
-16
-20
-13
-44
-29
42
-8
-33
26
-56
11
-8
-54
19
-28
-41
-20
26
-25
-29
43
16
36
-22
-28
14
47
14
-8
9
-44
17
-33
-10
-96
33
31
-38
7
11
-22
7
-13
-16
32
11
-10
4
-81
64
-13
-11
-55
-32
-121
-25
-72
4
53
-9
-4
7
-26
26
39
86
34
-112
8
20
12
24
38
-14
-23
35
-4
5
-32
6
32
-25
-33
11
-3
-12
-28
-8
-127
-11
12
-2
6
25
31
-17
-80
25
-9
16
17
49
-2
-21
-45
109
17
-4
-12
-23
-35
77
-55
34
-57
-17
21
-3
-9
4
7
42
-5
-27
-26
-21
-24
-4
-8
13
13
-18
-48
-29
15
-37
-10
-21
7
20
30
-23
-66
72
15
10
-6
-32
7
-10
-59
4
-3
6
8
21
-41
17
-14
46
-18
29
-8
54
-4
-111
-32
2
-63
-13
-3
-40
1
-28
-24
24
-45
-14
-12
-3
-48
17
4
12
45
44
-21
18
-1
-25
-33
12
32
-41
-21
-2
4
33
6
63
2
-17
-4
-2
-12
-2
27
-4
36
-25
-45
9
39
30
-51
-10
73
2
0
13
-36
-1
-7
6
43
-16
-3
28
-11
-3
8
46
-61
-127
33
-6
-37
102
-19
34
-12
1
86
-26
-22
14
-17
-1
-17
16
19
-53
-52
-29
-33
-6
-12
21
18
-33
26
26
13
-35
-10
-16
-5
-12
9
-9
-20
-11
-49
24
7
-53
25
-25
-119
-3
-1
-22
52
21
-43
28
-3
35
-42
-8
-29
-56
17
-14
-71
5
-82
12
-3
-50
-8
-36
-1
33
36
-81
-81
-22
-60
-14
-8
11
-19
38
46
4
9
-31
-52
4
72
112
1
7
-2
70
33
56
11
-1
14
0
127
-14
-6
23
12
3
8
0
15
12
-27
-27
14
-5
32
3
13
8
0
-19
-3
-6
-6
-1
-6
5
2
28
-63
-6
31
1
-20
2
-19
15
0
4
-36
-11
17
-26
12
4
70
-4
-3
109
16
-24
-27
13
-4
3
-28
9
-24
-6
23
-4
5
0
9
8
17
22
16
-16
-31
-5
22
-21
-39
-29
65
8
-11
-22
21
5
-7
13
2
35
7
-5
15
4
-1
-14
-33
3
43
10
9
-35
11
5
22
-1
-30
12
-61
26
-12
-4
-3
-11
7
16
-7
19
-12
18
13
7
7
3
15
-15
-27
45
-1
-6
10
-40
7
-43
-42
14
-127
-47
50
8
-19
-11
-23
-63
26
-14
26
24
36
32
44
-17
-44
-37
-36
-27
19
-37
-10
43
-10
54
80
57
-84
-39
18
30
79
48
19
30
2
-26
-35
29
-37
-18
-8
48
-31
-9
2
80
47
2
100
46
38
-15
72
16
38
106
35
6
-12
3
-7
34
-14
21
-28
36
-29
18
-40
20
-23
52
-17
11
51
19
-37
-11
42
35
15
21
15
-28
-5
16
2
0
58
-37
-57
19
27
48
3
15
-31
6
-40
-17
108
-45
21
1
17
-24
29
-12
-45
41
46
-25
10
66
21
-10
70
-2
1
35
-33
-49
-16
63
93
41
-11
-10
-88
60
-45
-14
38
-50
-24
35
-7
4
-5
27
-11
-11
53
21
68
-2
36
-5
45
0
40
27
-95
21
45
56
-28
6
-24
-56
-2
-19
53
-15
-15
17
24
44
-35
104
-15
74
16
-27
-74
104
-10
-22
15
10
-61
0
25
-24
-23
-92
14
-13
-10
22
-42
57
3
65
-61
-80
14
8
-9
44
28
-29
29
48
0
14
2
-24
-39
-43
-23
0
8
-1
-14
39
1
1
-12
-16
8
-28
-8
9
-4
13
29
15
-98
15
-27
-39
-16
55
30
25
-16
-11
-33
17
-8
-5
8
-49
25
127
11
27
4
7
-14
-2
21
-30
23
-24
-1
11
-2
11
-8
-10
-15
-15
10
19
-7
-3
0
11
-12
-127
22
-23
-5
3
-63
2
-6
10
-20
16
-11
-11
28
17
22
-13
15
-12
19
4
33
-7
-8
3
-13
69
12
23
7
4
12
22
28
-14
31
105
-3
-2
7
-2
10
-3
-10
7
-10
-13
-22
11
40
-19
30
24
-5
14
28
-11
8
24
16
-23
-64
30
-45
-59
12
17
-4
-1
-16
-33
-8
-1
21
24
-24
-7
1
-17
-6
-1
37
36
8
-23
-50
-6
-13
10
-4
0
-2
-17
-10
-19
-10
-17
15
-23
-2
8
4
-57
34
5
-5
27
-29
30
-17
26
-4
30
-64
33
-94
-10
40
20
6
-60
-76
2
-1
24
17
-9
22
47
-10
1
15
-27
34
-2
31
-3
-27
1
8
11
-127
-6
14
-118
-32
-44
3
-7
-34
19
25
20
-5
-23
-33
-79
-36
8
10
19
33
-40
16
55
7
-12
-22
40
-20
-38
7
-8
-6
60
-27
9
-42
39
-17
15
17
13
18
-37
18
-119
0
-17
-1
-18
5
18
2
-83
-25
-13
-6
-9
-23
-47
-7
7
-10
14
12
23
-51
38
-32
8
2
-5
-63
-9
-69
-93
4
36
-4
6
-5
23
20
44
27
-25
6
-23
24
44
-9
-7
2
66
-9
-2
59
1
5
-4
-37
-8
12
-1
-11
-94
-26
-29
7
0
1
-10
-102
-6
-3
-9
37
-20
21
0
-18
-1
33
7
-17
11
-52
5
-5
-17
-12
20
-11
-14
-8
3
-60
7
-16
-23
-29
-17
19
-6
15
-15
11
-5
60
14
2
-33
-7
-35
-6
83
36
18
12
-52
36
-9
38
-67
20
41
-12
11
10
4
-46
-7
-24
6
-28
-29
18
-44
-24
-13
36
-18
69
-14
10
22
32
10
36
-18
3
38
-18
0
9
0
17
-3
-10
-88
-37
23
13
-15
0
-2
-127
30
-6
-14
-3
8
70
-1
37
0
1
14
-20
-33
-24
28
-47
-63
-30
-9
-61
53
-27
22
2
11
-44
29
-6
13
-31
4
22
-3
-7
-12
4
-15
-27
-8
47
-26
-28
8
-58
2
2
-2
-92
-95
-21
4
-49
-26
-40
2
16
22
-1
-20
-33
-98
124
-41
-20
32
-25
-42
-23
15
-32
-15
-26
-67
50
8
0
-32
127
-44
-37
-23
-17
7
-52
61
-16
-73
-6
-19
-3
31
-9
5
-125
-18
21
-10
-23
-14
-4
-12
116
-16
44
30
18
10
0
37
-21
-89
39
-13
-6
-33
0
-7
-22
21
18
37
-5
-8
21
-43
15
-22
-29
-29
0
-27
-29
-26
17
-52
11
-23
-29
20
-42
-12
-18
-12
-63
14
-11
1
-51
41
14
9
-40
-28
16
-14
-7
-12
83
-11
-4
25
-60
-60
-12
-21
-17
-17
-23
14
8
28
-2
-39
-33
46
0
4
24
41
-33
-105
-43
-11
-18
5
-28
1
4
16
30
-14
1
5
35
-23
-23
23
-23
0
6
9
12
35
21
-30
14
-6
-7
-10
-32
-11
-20
65
-40
30
-6
-25
-23
14
2
2
-33
32
-29
-41
-20
-26
26
-27
-3
-22
-103
2
-12
-57
-6
35
-8
-1
-5
-23
32
-21
16
33
44
-33
-9
13
6
-8
50
-48
60
-6
-27
-3
8
-4
-8
-3
19
-127
6
11
-4
12
-10
15
7
0
6
-6
-1
2
-2
0
16
1
-10
1
-1
-2
1
-4
-8
-127
-34
-1
-1
3
0
-5
12
-5
19
13
-1
-32
4
-5
-1
-5
-3
-4
3
1
0
6
-2
5
4
-5
0
3
-1
-5
2
-7
34
-3
-3
1
2
3
-3
-11
4
7
6
-4
0
-2
2
5
-3
2
-5
-8
7
15
8
1
-4
4
2
40
4
1
-3
7
-18
-16
-4
13
-11
11
4
2
-1
3
3
17
-2
-4
-3
-2
67
-2
-2
4
-2
-1
11
5
12
1
0
-35
5
7
1
-1
-2
3
50
-9
2
2
1
9
9
1
-2
2
0
-8
-1
-1
-9
5
5
-1
93
5
-6
6
-12
13
-3
-2
-5
6
8
67
-53
6
9
3
2
0
-7
13
32
-46
-3
53
11
-14
-14
-29
6
-11
-12
-21
7
-2
-10
4
-19
3
-18
4
13
7
3
-5
92
6
4
7
-9
0
1
-3
1
3
6
23
-5
5
2
-17
0
3
9
-10
-12
8
8
1
-2
-7
-11
127
-5
11
-6
-14
-58
-9
0
-2
4
13
-3
-3
-10
-5
0
-8
0
-2
9
4
11
4
14
58
13
3
4
-6
-2
16
14
16
-3
-8
-8
1
15
3
44
-74
0
-2
26
-21
46
31
18
-2
14
11
9
-6
-77
54
-16
-53
-11
20
85
0
-62
-16
35
9
11
-28
73
-25
-5
-15
-28
6
84
-43
59
-13
11
-2
-56
14
-90
19
42
51
-15
10
17
1
-12
33
-29
-8
19
-36
3
11
-16
-72
6
54
13
63
7
-21
5
-10
-12
-2
-7
-35
-49
33
40
-47
2
99
23
-49
-9
-10
-4
9
-127
-39
35
23
-12
-30
45
-5
-8
45
-77
-84
9
-7
3
-1
81
-10
48
-17
-30
17
1
7
6
-26
2
-23
7
12
19
10
-50
-24
22
14
-22
9
-62
-36
-23
-1
-12
0
5
-2
-54
14
-36
4
5
-25
-18
-21
0
7
-27
5
-22
2
-18
-62
-53
-10
5
-24
-34
15
-20
-8
-29
-61
-16
15
19
18
-18
-8
-27
-91
1
13
20
7
-61
13
-25
3
-52
-19
-7
-1
35
8
-35
9
-28
4
25
-27
-19
-23
19
-18
-85
49
-2
-11
-2
-35
-75
-18
-43
-35
-26
67
53
-3
-7
-31
-3
-43
15
1
2
24
-30
25
14
-31
-23
-62
-8
22
25
32
-2
15
4
-2
-90
20
3
10
18
-3
-8
17
9
-45
-8
-6
-110
15
-15
-34
8
0
12
5
8
17
32
-17
26
-14
-1
15
7
5
-5
-29
-22
16
-39
-17
62
-13
29
22
22
127
-4
18
10
-9
8
87
-127
3
-19
68
11
77
116
57
19
-36
-18
-2
38
-7
15
14
-24
-22
42
-21
-12
-52
21
-40
7
-8
44
37
18
9
-22
-55
30
-15
-19
63
55
30
0
4
13
-19
6
39
81
-2
20
49
-18
-32
-6
68
-10
33
26
-12
13
7
31
24
12
34
39
-24
20
-68
-19
-10
-25
49
-3
-12
-12
-5
-49
94
9
58
35
12
-5
-5
59
3
-4
18
14
15
26
-38
5
21
-31
15
31
-15
69
-78
41
-7
-20
12
-10
-12
21
6
87
16
19
53
7
-10
-5
-58
1
-18
-11
25
70
-43
-13
24
-12
12
10
-13
-19
-6
25
-13
-26
-5
6
-14
-15
-17
-2
-12
2
-56
-7
6
69
-12
-51
2
1
-7
16
-7
68
51
-19
-53
-19
4
-18
5
-8
1
48
-20
-20
-5
-35
4
12
-29
-21
5
-22
-15
-37
-49
-127
-8
4
-14
14
-38
-17
-11
7
1
-33
-21
1
-7
1
24
7
8
-10
-72
37
-15
3
-15
39
18
7
-12
3
-18
-3
-23
-90
-100
-4
-27
-38
-10
35
-16
12
-10
-6
70
12
0
4
-1
-51
4
-29
-84
-1
16
21
-16
35
-2
-16
-109
38
22
-25
-5
-18
3
-108
38
-9
-17
39
-16
109
36
-45
9
40
-14
1
-20
-8
4
-9
-1
1
18
-8
-9
7
-9
-3
-20
22
3
-42
8
9
5
-19
15
-2
-19
-21
-8
16
2
11
-7
13
-15
1
12
6
-10
-11
24
7
-36
-11
2
127
13
2
3
-1
13
-6
-12
-4
3
1
5
-20
-21
17
-8
2
0
11
53
-1
10
-3
-10
-7
-17
-10
-16
-13
12
5
16
-1
-17
-58
11
22
1
-7
-21
-20
-10
-22
43
14
18
15
11
2
8
26
5
1
-10
10
-19
11
-21
5
-21
-2
43
-14
4
11
0
2
-15
-2
5
5
-1
-13
32
-12
-35
-19
-12
32
-2
2
25
17
-25
17
-12
-1
38
2
56
1
-98
-16
-44
67
-28
-35
62
-24
-47
-29
-9
-71
-1
13
11
6
66
33
-11
40
-42
41
25
90
-28
-26
37
-47
-54
2
46
15
77
-47
-1
-67
54
-10
-11
22
-14
76
-38
-39
42
7
25
1
44
-60
4
-4
127
-37
-18
41
-62
35
-75
-17
-19
51
39
-23
-53
-10
-12
4
-6
-11
-97
-58
-4
25
21
45
6
-3
40
-46
-4
42
36
28
20
-101
44
3
-13
-30
-8
-19
9
-16
-24
5
-50
-58
-11
-18
-23
12
-26
-65
24
-10
23
17
54
-64
69
-16
-50
-1
97
28
41
21
-49
6
-43
9
53
-68
7
29
18
27
118
80
16
12
16
4
-38
70
-82
-32
-91
3
0
16
12
-32
23
28
4
32
60
10
-29
-97
-30
42
-19
25
7
-69
-24
39
-46
40
45
-31
-35
-19
-21
-18
-14
-107
-24
-49
-94
42
72
-94
-83
-82
41
-38
101
3
127
-18
-9
-19
108
-41
17
-27
-71
-59
24
-15
-50
14
74
-19
35
20
-14
14
-16
-81
32
22
0
78
-30
33
-29
-30
-46
5
-28
35
-14
30
32
36
-31
2
45
71
85
60
-17
-17
17
23
-45
-14
24
-18
-21
47
-62
-54
-66
-11
85
27
-37
6
-41
-19
-30
9
-30
-19
-39
-15
-8
15
-8
-3
-7
15
10
22
16
26
-31
-12
-55
25
-13
-26
13
-4
-46
-79
5
15
15
19
16
1
4
-12
-29
8
-127
-1
-31
-36
-17
39
-39
-20
15
-83
11
-6
3
-124
2
-79
-11
-45
-9
6
-6
-25
-9
-23
36
-42
-26
-5
64
-1
-34
4
-30
1
2
-24
-89
-24
4
9
-63
10
-22
18
-14
40
-1
53
27
5
25
29
31
-3
-69
50
-4
21
-19
-5
-24
-22
4
-32
1
-4
-34
-25
-27
-28
-8
-18
-46
13
3
0
-36
-12
15
19
-13
-43
-15
-72
-25
-20
6
2
-20
5
3
20
3
12
-34
-54
-18
-10
-30
-8
-28
5
-4
19
-17
3
31
37
-18
-35
-55
-15
-19
26
13
18
-51
-45
20
7
18
64
-15
-16
35
-40
47
14
-23
-73
19
-48
7
48
-21
31
17
1
-15
53
-20
-47
-2
-110
-18
-113
-97
10
41
42
10
-13
-15
39
-20
8
-2
-39
38
-6
40
-4
18
-2
-52
2
-7
32
-11
25
-13
54
-3
-21
5
98
-34
-13
-17
-21
-127
-17
36
2
17
15
-15
15
-14
-20
26
-17
46
109
21
17
30
-5
-26
11
-17
7
25
27
-9
-10
-1
-25
34
19
-2
9
-10
-7
10
-32
-28
-36
-11
17
13
-10
-95
8
-52
17
-4
-20
-21
127
-27
-12
-4
-24
-11
-9
3
8
6
60
-40
-11
3
11
-5
27
2
-20
-97
10
-15
3
16
-25
0
-26
10
-16
1
7
-8
15
6
24
-3
1
-9
-1
-6
7
-5
10
-20
-45
56
-1
-72
-1
25
-25
-30
11
-7
-8
-52
0
2
-7
-1
-1
11
4
20
0
-1
-2
6
-4
-11
6
-27
-7
5
-111
-30
4
1
-7
-20
18
-2
0
-6
1
-9
5
9
1
-17
36
0
14
2
5
-39
-1
-17
-12
19
-8
8
7
5
-33
1
6
-1
2
-1
15
14
0
-2
6
7
28
11
0
-6
7
-14
-13
24
13
-90
-33
3
79
9
6
30
-41
-4
-45
-14
-13
61
12
21
34
-46
-35
4
86
-22
-3
22
-113
70
-3
-40
4
-23
68
-6
97
62
61
-20
-30
0
42
-6
8
-26
-32
-30
4
29
19
-9
89
-6
35
41
-8
39
105
-24
23
76
25
-27
-50
-25
-20
19
14
-10
4
9
33
13
-17
-1
-26
32
47
107
-41
54
-107
-71
0
-26
-54
2
110
28
-8
17
-20
-1
-23
-25
-4
81
88
-15
30
3
2
4
-9
71
3
27
2
-8
-10
-6
-127
10
2
-26
-9
17
-11
43
27
63
32
-13
-14
7
-53
-58
-33
36
17
-36
-11
-106
23
-23
-23
44
4
-8
-1
25
10
-6
-13
36
42
19
-20
26
35
34
5
-1
-8
-44
-3
54
-15
25
28
40
16
22
13
-1
25
-3
9
-32
23
-24
24
-21
44
19
89
13
38
-1
-29
-70
-16
-10
19
22
13
-9
21
-75
-1
14
12
38
-13
32
3
-21
-32
63
63
-15
-14
65
24
7
21
-7
-3
-20
28
24
-9
21
28
-44
34
-42
15
-6
50
12
-32
-19
-6
8
32
-10
82
-5
18
19
13
13
27
17
25
20
127
54
31
-2
16
-9
-26
-17
68
-12
0
23
-46
-53
-43
-27
17
-5
26
-5
-38
-54
99
1
2
-4
-10
-4
5
-6
16
1
6
8
-3
-6
-3
5
-10
24
12
2
2
2
-4
-16
26
-79
15
54
-7
0
-8
5
-2
-11
-9
-1
-2
4
-8
-2
20
-3
4
4
13
-2
-1
-3
-5
2
-36
-4
-4
-8
-16
12
-9
-1
-1
21
7
2
2
-8
-6
11
-2
5
-6
69
19
-14
1
-3
1
-13
0
-47
10
-2
-2
7
8
6
0
-5
-2
-9
4
3
6
0
1
-43
-2
-5
8
0
-2
-3
3
-21
-1
-5
-4
3
-2
-1
18
-127
1
4
-12
-3
4
3
-9
-14
-6
-6
1
-1
29
15
44
-12
-15
15
-3
14
-23
-23
21
14
52
-17
44
-61
24
26
40
5
-7
17
-9
10
3
21
41
11
-35
46
66
-30
24
-26
60
-3
-54
44
-45
8
46
17
23
16
17
-20
32
65
10
12
42
-28
22
-29
72
4
-13
19
-3
31
-62
-94
-9
15
-17
-127
26
39
37
-65
-18
15
36
50
44
-28
-29
-30
-20
-17
24
-65
-13
38
27
13
-29
16
10
32
-16
37
-49
-8
-70
15
-17
27
11
4
-82
21
-14
61
-3
-46
13
-62
-10
6
-18
10
6
10
-61
1
6
37
1
15
-7
-60
20
-64
-84
30
-32
-27
14
95
-20
-10
34
59
8
-23
3
7
10
7
5
-15
-61
28
-56
-12
21
-18
-14
0
8
1
44
-2
28
-18
-3
3
53
20
2
15
16
127
-14
51
-15
43
19
-35
-6
4
-26
42
27
-19
86
3
-24
-3
17
21
112
11
-19
21
47
-11
-25
23
-18
1
-2
-35
28
16
49
-31
23
-79
-1
-16
15
3
-70
28
-21
4
-25
-29
83
8
13
36
-18
-2
22
40
-13
-46
23
37
1
-33
-12
-17
0
43
4
41
38
7
11
-13
41
-18
10
-29
-9
-77
-1
27
-16
-35
-4
-31
-15
20
41
-40
-28
-15
20
23
-33
-39
-24
32
-6
45
-33
10
2
-3
5
56
-48
8
4
-1
-1
60
127
5
21
-15
-20
-29
4
4
8
22
-5
-2
44
-11
3
-17
32
9
10
-12
30
28
-3
-2
-9
-17
30
4
-24
17
12
47
12
27
11
-3
-14
40
55
-20
-1
1
-2
-31
-13
71
4
29
-5
27
-11
-1
12
12
-2
25
13
-7
7
-30
-36
8
3
27
-31
-9
18
-4
-54
61
4
27
36
-4
9
-12
29
12
-8
17
15
18
24
-30
-4
35
-22
13
11
-24
32
-43
31
-5
-8
-5
-9
-4
-34
9
35
18
29
22
15
10
-1
-41
-34
13
-23
15
33
-30
-3
0
-4
12
-3
31
-7
-42
7
81
7
-38
63
-43
18
3
109
6
-5
-17
21
-3
29
26
5
13
-33
49
-14
7
7
-11
-4
46
-62
23
28
11
9
9
29
0
100
11
40
-26
-10
-17
42
-14
33
-53
-34
0
23
20
-19
15
-53
-51
-31
5
32
-17
-28
0
3
-3
-13
15
17
15
13
12
14
23
-16
17
12
25
-28
15
-34
-15
-34
18
21
11
-14
28
-28
3
-42
7
37
-3
13
25
-54
17
-21
9
19
-22
72
25
30
-4
-12
20
-8
19
127
4
-14
1
25
-71
36
2
9
7
-21
30
9
-4
-25
23
8
0
14
60
16
-6
2
-10
-16
-7
9
-17
-23
22
36
-29
-19
18
11
19
-32
15
3
-21
36
-10
13
20
-28
30
9
0
14
-3
-10
19
-3
18
18
-12
71
-45
1
58
60
-33
-7
-7
34
-21
27
-10
37
18
15
6
-40
-9
-19
33
-20
17
-3
-53
-24
-35
-11
5
-17
26
4
6
-7
2
19
27
-15
-18
-32
25
-121
3
-46
19
-8
84
8
6
29
96
3
-52
-3
-28
-13
-32
2
33
21
41
-5
9
17
10
17
34
76
21
4
-21
-6
18
-2
17
22
-31
-9
-38
18
27
13
20
-22
24
-10
-10
-14
-2
0
9
127
-17
-6
-47
-6
-19
-9
-92
-18
-90
10
13
-38
9
-4
-60
-17
2
73
7
15
41
15
-30
-32
-104
32
-56
-2
19
-110
9
-38
103
-46
-29
-45
-6
8
61
-41
51
-32
-6
-59
32
-29
-54
6
-30
-18
-13
1
77
0
-46
-94
103
20
-21
-38
-127
16
-32
110
1
71
-109
6
-49
18
8
-118
54
-71
-31
-124
-81
-48
-15
-16
51
-39
23
33
98
-83
40
32
30
17
41
23
28
56
-97
-16
75
-115
12
13
-21
32
1
-14
-25
-40
14
-3
-3
18
21
-22
24
35
68
20
39
-9
2
-69
11
72
6
-25
-27
-61
-73
66
98
-22
-62
-10
43
30
61
-23
-25
35
-29
-65
44
118
-100
-93
-110
23
-22
10
37
-47
14
77
33
-29
38
7
-3
105
-15
-6
48
82
8
-72
91
35
38
-68
19
-6
13
13
-39
-23
-22
-125
93
-60
-99
68
127
58
-59
-85
56
33
2
-37
65
-2
-14
44
8
31
35
61
-92
7
-47
-94
-29
-25
41
-30
-82
-12
11
-104
-26
-23
31
-41
5
65
11
-64
-34
-2
47
29
39
27
-43
91
43
-62
12
9
-66
90
-14
-28
-52
-49
-68
-30
-32
-45
0
-41
23
35
120
-19
-116
-6
-61
-80
47
93
72
45
41
-21
-31
-12
-100
-93
-17
6
-1
-127
21
2
3
11
-33
-4
13
26
13
5
-5
0
10
16
19
-6
-2
4
5
-25
11
13
12
28
4
-19
-4
50
-3
17
10
9
8
1
18
-11
-5
26
-23
8
-3
5
-12
-30
1
-11
-45
2
-5
-21
-45
-14
-5
-6
-38
5
6
10
-11
9
8
9
-28
12
-10
51
5
17
16
36
-21
-21
-34
-124
-20
-16
11
-8
9
4
27
1
15
-7
8
-4
5
18
-10
6
2
-21
8
8
-9
14
-12
-5
24
15
3
-4
6
11
-32
0
14
-3
18
-1
18
-9
8
1
6
27
19
25
37
-15
13
20
17
7
5
-7
14
-1
-126
9
-1
-10
-22
-16
14
-5
-2
-60
-67
-22
9
-3
9
-8
29
7
3
-39
3
15
-5
125
10
42
-5
-28
6
3
3
14
-9
-31
-5
-2
17
-17
-5
2
-95
-6
8
-1
-53
-4
-43
-16
-8
61
-8
90
20
109
-7
-39
6
45
-127
-27
-17
27
5
66
-24
-16
-14
-22
-13
-35
-106
-37
-1
-61
3
5
14
26
-1
51
25
-18
-22
17
-43
8
36
-30
9
13
-12
-13
3
7
-24
1
-6
-11
2
11
-29
-37
12
-26
10
-4
-36
-12
93
-3
10
-10
-28
-48
-1
10
19
-10
9
0
13
25
-7
14
26
11
16
-69
-35
9
15
-26
56
7
-33
-44
35
2
49
0
-24
-39
-39
-7
2
63
-59
-69
8
-13
-43
-17
-44
17
-31
87
-13
8
3
-6
15
-17
5
21
-35
6
-19
9
58
46
10
-26
126
4
-53
-13
28
70
89
-18
-29
-46
-127
-2
-12
-20
26
-39
13
-9
-28
-7
0
-1
4
6
5
24
62
-22
-13
-12
-18
20
-9
8
36
-57
-15
35
-12
21
-9
-34
-46
-17
6
7
3
-18
-44
-25
30
-21
16
25
23
-7
63
3
43
-56
-16
25
-17
-39
-98
-3
24
7
34
76
-2
69
-3
-6
2
-50
31
-17
6
-6
-9
6
0
1
3
127
2
-1
-9
-12
3
-4
-4
9
-3
-1
0
5
-2
9
-2
2
-1
16
-19
-2
2
2
-3
0
18
7
17
-12
2
-3
4
13
19
-10
4
6
-4
24
-4
-12
-8
2
-17
1
-29
-12
9
-2
-10
12
9
0
-6
53
-5
4
17
-7
22
-3
15
-2
-12
18
-11
0
0
12
-6
14
-13
21
4
4
-5
-1
13
-1
1
0
3
-9
-2
-2
-8
4
-56
7
-12
16
-3
-7
3
1
5
3
-4
-3
-6
5
2
18
-5
22
-1
-1
0
-9
-9
-2
-20
-8
-6
-17
30
7
-12
-23
27
-3
8
0
-22
-7
12
-16
60
-9
-11
3
15
3
2
25
6
-6
-20
50
-4
15
8
-8
-58
-1
39
-48
15
6
5
-83
23
-16
-8
-17
12
15
-16
-18
-6
101
-11
-9
-32
-8
-3
-7
-101
15
14
-51
18
4
22
1
-127
-118
-29
-46
31
113
16
-9
-11
-14
-20
-33
0
-7
-8
-40
-31
-19
13
10
-9
6
74
47
-18
-33
-14
-29
0
-4
2
-7
-24
-27
-8
4
22
17
-20
2
-4
-13
-17
-15
-24
4
-39
18
4
24
-10
-13
23
-28
15
17
21
-3
20
18
8
26
-32
11
-9
17
-96
32
-7
-15
-16
-5
-5
-15
38
12
25
12
-62
42
15
37
-41
-5
-109
-127
-64
-32
3
34
-20
1
16
-6
-33
0
22
-69
12
37
56
-28
16
-39
-14
-1
-28
29
-8
19
35
-36
-13
63
-16
-17
-120
-7
0
17
44
26
-47
-67
3
-11
-64
-33
48
33
-111
-26
-31
32
-3
5
15
-29
8
-13
24
-36
9
4
23
54
38
58
-42
19
37
-29
31
35
-97
1
-36
-37
11
-16
10
-70
-27
30
-29
5
-59
-42
24
-12
-26
43
-54
-25
42
-42
60
-52
-10
63
19
28
13
-13
-18
-54
-19
-15
-66
-8
14
-6
62
26
-39
38
-41
-19
5
21
30
17
-10
18
4
-4
-2
-1
-1
3
6
24
-3
-7
3
-2
1
4
-2
-2
0
-2
-2
0
2
2
-4
8
2
-19
-50
-4
-13
4
-2
-14
2
7
-2
0
-9
9
5
-9
0
8
-19
10
4
3
3
-30
-1
-18
-5
-3
8
0
6
-3
-6
2
31
-5
4
-3
2
0
-2
-1
-3
-1
2
-4
5
13
-3
-12
0
3
-3
5
0
2
9
-26
-11
-8
4
-2
7
2
9
-1
2
0
34
5
-6
-6
1
-1
-2
1
-24
2
13
10
4
18
5
2
127
4
-4
14
4
-1
3
0
-18
1
-3
25
3
35
-7
8
-19
8
-9
5
-27
14
-9
127
-7
38
-31
29
1
28
9
-19
-28
14
-11
16
17
-21
-18
-12
-12
-22
-14
2
-7
36
18
-9
-22
-17
3
-96
-8
-41
-25
63
6
0
73
-17
10
-28
3
-21
38
23
-32
16
14
-4
20
-6
19
30
33
24
-35
35
-92
20
-18
26
50
15
46
14
-10
-7
3
17
12
3
32
8
14
25
5
121
22
-8
63
40
-15
-71
-29
61
-19
7
33
1
3
22
38
-86
40
-72
-27
-21
-3
9
1
2
1
15
-4
-33
-19
103
2
43
29
-10
-22
5
20
8
6
50
-5
79
-14
-14
-15
93
-34
-23
35
-9
12
-33
-80
36
-59
-5
23
-55
-10
-97
2
-38
38
20
-40
-3
-4
16
19
29
-9
-11
-39
-32
-10
10
12
-70
37
-17
10
-71
-60
-77
-38
-22
18
24
0
-57
21
-20
10
-42
-24
-37
-80
-119
20
1
-56
-58
20
5
-23
31
-37
-29
60
21
-20
-64
22
81
-64
-14
10
-15
86
-55
12
-25
-33
10
4
8
-5
127
29
-96
23
6
-70
-60
-19
1
-4
78
17
43
-3
8
1
-17
-73
35
-38
11
36
-1
51
-12
-21
-27
23
-24
-13
21
-12
23
-33
-2
6
-3
-19
-6
33
-49
-20
-104
-43
-32
10
3
-66
-1
-15
-29
5
1
-2
-4
-6
-6
1
6
1
-11
1
1
-4
-3
-8
3
67
35
4
3
1
-1
2
5
18
33
8
-2
5
5
-9
-9
-3
-1
-8
-6
-9
4
2
-11
-2
-1
-3
2
1
4
2
8
-2
-106
1
-4
3
0
-1
1
0
2
17
-8
10
-2
0
1
-11
-2
2
-1
-15
-4
13
4
0
-6
-2
-8
-127
-14
4
-2
-7
-37
-9
-5
4
0
6
6
7
1
3
0
8
-3
-8
-17
-1
-38
-3
3
0
-2
10
2
-3
3
5
7
-27
-3
-3
7
1
4
8
-32
0
-3
0
3
1
15
9
-2
-14
15
3
0
15
-11
8
2
17
8
3
-5
-5
-62
19
4
-17
-8
-3
24
7
-6
7
15
0
-1
0
1
6
-6
-5
-3
4
-10
-45
-2
-14
14
-21
-4
3
-4
4
65
10
-9
-14
9
-8
0
-12
-10
3
-5
-4
18
-15
-20
0
-20
-8
-7
14
6
16
24
-7
3
58
-5
46
21
-4
-127
-11
17
1
-3
-9
13
1
21
19
-10
-19
30
-18
5
21
14
3
1
-5
14
-25
8
3
-8
14
-1
-7
-18
1
7
-5
-17
7
-6
-102
26
-4
1
-10
-1
20
-5
16
28
-24
-14
7
3
-5
6
8
15
-12
10
-25
7
-18
6
-8
19
-53
25
-14
-12
-17
-7
-2
-57
-30
-3
-2
-41
-33
18
-3
10
-18
25
1
-17
30
23
23
49
11
-10
20
-23
9
-13
61
-9
4
-88
2
-38
-17
-5
-68
-30
5
54
4
0
-61
-103
-34
-15
-105
-3
-66
5
-3
-38
4
27
-7
46
-2
1
-44
24
-14
-3
21
-15
-8
3
14
-36
-5
-20
20
-36
23
23
-88
-25
-59
-37
-24
12
8
43
49
31
1
11
19
8
-31
-12
2
-82
0
-34
33
-10
40
-61
38
-1
-27
-32
37
-32
27
-4
-28
28
13
1
9
-31
42
-9
-9
69
27
-24
4
127
-7
35
-7
-17
-8
-24
-21
38
-9
45
-4
-17
38
16
-30
-1
2
-19
-31
30
29
37
55
-39
-2
12
21
-51
41
5
-33
7
106
-27
-35
36
-91
-17
-74
-2
-70
-22
-12
16
24
9
-65
-64
7
-10
-10
66
-29
-23
6
5
-22
-7
-4
0
-50
6
-39
-125
21
23
-16
79
6
-12
13
5
-5
1
-10
15
-1
-20
-8
-43
32
-25
4
-61
13
-106
-114
22
2
10
-18
84
28
23
-14
-62
-127
-4
2
20
-32
0
-12
28
4
2
48
25
-4
34
-6
19
-87
-73
-6
9
22
50
44
-30
28
11
6
49
-43
-32
95
-3
27
0
17
10
51
-19
42
-26
-3
2
18
20
127
-26
-1
13
33
-50
-72
-13
-4
-1
-1
-4
-3
25
-46
-35
-16
12
1
-3
-3
17
-28
-32
-14
18
10
-32
-27
-51
-16
5
-6
-30
-1
-16
33
25
24
9
-65
12
-82
-5
-47
9
116
15
5
28
-7
2
-18
-3
11
-1
-27
22
7
-11
-31
-3
-9
4
8
-40
11
-17
-9
-61
6
-4
-31
14
-16
8
5
63
2
45
-1
1
8
12
25
73
8
-45
8
-12
33
-10
21
2
6
-4
2
-9
30
2
23
59
2
-10
9
-8
23
-10
5
-55
-6
17
9
13
-12
28
9
21
-22
0
-37
-14
-61
24
-85
-61
-8
-38
-48
-1
-9
-20
-41
-35
-7
-10
32
16
6
7
6
-69
-97
50
-25
-32
21
-98
-15
-12
12
-46
-41
-101
-66
43
-1
-33
19
-5
6
-18
12
16
-102
-81
-68
-82
-94
0
0
-2
-28
-110
-71
-20
-28
-103
-81
98
5
-15
-12
85
40
-18
-10
2
15
45
16
44
-12
10
-111
-41
-6
49
-3
-76
21
-23
-61
-74
31
5
-38
80
17
32
0
-5
-99
32
-47
-61
-53
4
-66
-24
3
-7
20
21
48
29
-25
22
-7
48
25
-17
-14
-6
19
-10
25
-88
-22
-16
-46
0
1
-50
-127
18
-34
-5
10
9
-23
-39
-6
-21
-8
8
-2
-37
11
5
15
-6
51
15
21
12
6
12
-5
19
-30
-10
-26
38
19
-19
12
-6
17
-36
23
31
0
-19
21
13
-6
127
-36
36
30
39
-15
69
-19
-7
13
13
-55
11
-15
-27
11
-32
-21
-7
7
14
-8
21
-37
-8
-1
-9
65
6
-3
43
27
14
1
-24
-11
0
-26
-51
-23
9
-24
23
13
-43
46
-12
11
14
9
29
11
15
-81
-13
12
-33
-16
10
-22
-2
-47
5
41
-12
-26
-4
25
-9
-15
-43
13
29
2
29
35
-7
-53
-16
11
-23
-11
32
-24
-9
25
40
48
5
-2
-55
11
-21
-20
28
97
79
127
19
0
-13
-17
35
-3
24
-1
4
-4
-14
-12
110
17
0
4
-10
32
-27
19
-48
4
-16
12
-50
-91
-6
-21
19
-26
4
6
51
-12
-3
-33
-20
24
-41
21
14
11
-15
21
19
28
-24
8
-5
-82
-53
-5
-13
-32
24
-2
3
-25
23
-33
0
-12
-48
10
37
5
-30
-12
22
23
-8
-15
21
-34
-24
16
-33
21
69
3
26
-18
-31
42
-39
-20
-20
5
0
-48
-22
-4
16
8
-50
14
31
5
50
27
35
3
11
-3
-3
-13
0
21
-42
-19
6
39
-14
-4
-2
-11
29
21
9
-72
-7
-22
15
37
-6
12
9
-4
9
-13
3
-11
-19
-2
-5
5
14
5
2
-2
-76
18
5
9
-3
2
-43
18
-8
24
-9
-5
35
19
-5
9
12
-6
-10
-10
-3
-1
-13
-10
-15
39
12
-44
-1
13
0
-34
-73
-30
13
-28
9
-23
7
7
-7
3
127
-13
9
-2
86
7
-5
19
7
-23
7
0
12
6
-32
-1
42
-3
7
11
1
-4
4
-1
-29
-5
34
-4
7
26
5
14
4
26
12
-6
11
0
12
-13
8
9
-7
12
1
-5
5
-9
7
-20
5
-13
-8
8
-14
1
-17
-7
5
-31
-12
-11
-8
6
32
-2
5
-11
2
8
-9
-2
-30
19
22
71
-5
5
10
18
98
2
-13
-16
22
-8
13
21
-49
14
5
4
-3
-14
12
24
5
1
-1
1
-1
39
-11
-3
-6
70
-22
-1
8
2
9
-6
42
17
6
-32
73
-5
13
24
0
13
-5
-49
-9
50
20
-14
12
0
-7
49
6
20
-4
15
34
3
-33
-25
29
5
-4
14
29
2
-33
-2
11
14
26
27
-8
127
27
16
-7
6
22
1
5
0
-11
-2
-9
21
-47
36
-12
70
11
24
-18
-3
13
121
-8
4
13
24
6
25
-12
-15
-34
-3
-16
2
-5
8
18
-12
-1
3
3
-4
-9
13
3
4
18
-3
-9
1
3
5
2
12
-6
0
-14
-1
-3
-4
3
-10
-3
-16
-11
12
14
-11
7
10
-5
13
1
5
15
0
8
10
8
0
7
1
4
-3
-2
0
-33
5
16
4
-11
8
-1
0
-1
4
-9
12
7
0
-6
-5
-3
-2
-1
-5
-2
-32
2
-3
-7
-2
4
-3
10
5
8
7
3
-27
-15
-14
-4
6
2
0
-11
-29
-3
5
13
0
-4
1
-3
6
-2
-3
6
-127
4
-2
-10
-9
3
1
6
-21
10
12
10
-8
0
-9
6
94
7
1
27
23
-18
-12
20
5
-22
-14
-2
59
-26
-4
50
-31
11
25
-68
6
-14
-19
4
92
-21
-20
4
10
10
10
-48
7
11
-28
-43
-34
6
-2
-7
-56
-21
-48
38
-11
5
-76
29
24
-46
38
20
3
-64
-24
27
-28
5
18
36
35
-32
-10
-6
-42
10
-3
4
-127
-37
33
-36
-16
-26
17
52
-2
-5
22
11
14
-21
60
32
3
-5
16
28
11
-52
-4
-49
2
32
-106
10
-32
43
-35
57
-12
23
-8
7
-16
22
-42
1
-14
15
26
14
5
-15
2
17
-23
4
90
108
12
35
16
-7
25
109
-27
-5
-4
51
15
74
63
-24
-35
3
-18
-32
-55
63
1
1
2
3
3
-3
-4
-7
3
-5
1
3
0
-1
-5
-1
21
0
-1
6
3
0
-6
11
13
27
15
0
-3
2
-3
-4
-4
-1
-4
-1
0
2
1
-6
-1
-3
-10
3
-1
4
0
11
-4
-15
-2
0
1
-3
5
2
-2
-1
-2
5
1
1
3
0
-3
3
6
-3
-14
-1
3
6
-1
9
-2
-2
20
5
2
-1
-6
-9
-8
-5
4
-1
5
1
-2
2
1
3
-4
-5
-6
-5
1
-3
2
2
10
-1
1
1
1
4
3
-2
-127
-4
1
6
2
0
3
-1
15
-1
5
2
-5
-10
-6
-17
9
0
-1
-2
-7
9
24
19
31
-17
5
86
-33
0
-9
-9
41
13
2
19
14
6
8
1
37
8
-6
24
6
9
10
-74
12
-6
-25
-15
9
14
-74
-9
-1
26
7
17
-24
29
-8
30
8
11
-8
-38
32
-14
14
11
-27
7
-45
-63
15
2
-41
1
-25
17
48
22
-3
86
25
47
-23
37
-19
14
31
9
40
-14
1
-10
-21
127
-3
-16
-16
-3
-1
-5
-4
-52
14
-57
-18
9
14
-5
11
16
-22
11
-17
-29
-8
3
18
3
7
8
8
14
-3
-17
9
8
-39
-1
-2
4
6
-21
-6
-15
-13
2
-9
-12
-4
11
-1
57
-4
1
-4
36
-19
-27
-3
-18
-8
-12
2
-2
-9
77
8
-1
6
2
13
10
-2
-7
2
-24
-36
-6
-2
-15
2
26
19
12
-21
-16
-3
-14
17
-15
-12
-8
12
22
0
8
24
4
-7
-67
-47
-10
127
-11
-31
38
-14
-12
-11
19
-105
17
25
-3
5
13
-5
5
26
3
12
0
1
14
5
13
44
-21
-5
30
20
-12
-13
-20
-47
30
14
5
-8
25
1
23
27
27
-1
-1
-7
-77
0
-2
72
-4
-8
6
10
-1
-5
23
-5
-7
1
1
9
37
5
-3
10
0
0
3
-2
-44
-18
-11
9
-30
20
11
-29
-5
5
-16
-10
2
-24
-41
28
9
6
-51
-23
-9
10
-12
-26
-32
9
-13
-17
24
-18
0
-13
35
7
-71
-15
-26
-10
-20
13
-34
-16
-4
-74
2
6
-25
-13
-49
-13
-21
11
-1
-21
7
4
6
24
16
-26
-23
-20
-22
0
-25
19
-12
27
51
-10
-28
-34
62
-79
-6
-15
20
-37
-96
54
2
-18
-43
-17
30
-18
-5
24
-37
-14
63
-16
-9
13
-6
16
68
-12
50
18
30
15
-17
54
24
-4
-12
0
-1
-16
-10
-19
-9
16
4
-6
2
127
12
9
8
15
7
2
4
-68
-8
-18
92
-78
26
-48
12
-6
16
17
3
1
-11
0
37
-12
8
4
-23
-2
8
-8
2
-19
-28
-15
-12
-7
-1
-7
-34
-4
15
-17
62
-6
-24
0
-9
-127
-15
28
8
66
-18
-34
20
53
-23
31
-11
-3
47
-29
24
5
-30
3
27
-24
-14
59
-2
-19
-9
16
-8
-24
11
-23
41
-14
6
-15
58
9
6
-11
-3
0
36
36
33
-11
17
7
16
-3
-3
-23
-39
-4
44
-73
-12
-2
-6
-15
71
-25
47
2
23
91
-15
14
37
-6
-6
6
8
22
-2
-105
7
38
-20
47
-32
43
42
7
12
19
-70
29
-3
8
9
14
11
81
4
-83
-8
44
8
-24
-10
-37
30
-31
-46
35
-6
-16
45
10
58
25
3
-52
-38
7
9
-13
-47
45
28
-6
-16
1
-15
57
-5
-34
-2
9
20
22
8
13
-41
0
-13
-7
3
20
56
33
-70
-1
27
-6
-51
-37
16
5
-21
57
6
17
-56
6
17
-13
-3
-80
21
-27
80
25
33
77
-6
29
-10
-25
101
-11
-9
-8
79
-48
-14
21
-127
-20
-32
34
53
-30
-10
-17
8
-23
39
22
13
-12
-27
-2
37
-14
-44
-4
28
-44
12
-1
26
-9
-11
16
-46
2
23
57
11
-25
-17
5
9
5
44
-30
-27
-16
52
-63
-12
9
20
96
-6
-19
5
-9
-7
-2
16
-110
-14
3
68
-23
12
79
-22
-20
-22
-25
16
2
-7
25
-9
4
-22
47
27
25
37
-18
127
-18
2
48
-31
7
48
30
10
65
-111
-3
-5
53
-11
-11
-14
87
8
30
-26
-9
-18
68
46
100
57
-46
42
-13
-47
6
7
46
38
-52
-4
-39
15
43
47
-23
-63
14
-25
17
9
-117
-4
11
-57
17
89
-13
-3
-8
7
-8
16
15
-45
33
-4
28
-7
12
-34
-18
10
41
-5
3
-13
-37
-67
0
-10
-6
-4
2
68
-3
-6
44
1
60
-8
-9
-3
-36
-11
78
0
16
-20
21
6
-9
-26
17
-11
11
20
-14
3
-4
26
-5
-18
10
57
-8
13
-35
0
19
7
6
11
-7
-3
57
-5
-5
29
25
-30
16
18
-19
12
-77
0
-8
14
5
-9
23
-11
-26
37
-4
-2
-11
24
-3
-16
21
9
11
6
22
16
-10
-7
-3
-4
-4
-4
17
6
8
-21
-17
7
-127
2
46
4
-2
-106
-12
2
9
11
-12
54
-5
19
-43
10
-6
25
14
2
-10
10
-14
7
4
11
11
4
9
-8
-52
3
12
10
8
2
-5
26
8
-24
1
14
-1
6
11
13
7
-5
2
18
-5
-13
8
3
-11
3
6
5
6
3
-20
-8
-8
34
-5
-3
-6
11
-3
-4
-14
-7
3
-12
-17
3
-8
4
-17
4
-9
25
5
3
1
-7
-17
14
127
75
-7
-3
5
0
3
-4
-13
-11
-3
10
10
17
16
-12
5
5
-6
-13
-7
-3
-1
16
-4
8
-25
0
17
0
3
16
4
-2
7
6
3
6
17
-1
-8
2
4
0
-69
3
11
7
4
-15
-1
-6
18
28
15
-2
-5
-12
-23
-11
0
-4
3
2
2
-5
6
8
-3
-9
-2
-1
2
-5
5
3
21
8
6
2
-10
10
-3
13
85
0
13
8
-5
8
1
-17
29
0
1
-16
2
-19
12
-60
19
-1
-5
-7
-30
-33
-29
21
-125
-11
-27
90
15
-1
35
-19
11
-11
7
-8
7
3
19
0
127
-10
4
26
1
36
10
68
-9
-25
46
-48
23
44
2
26
11
-122
22
-21
43
-13
15
-32
78
1
5
-52
65
-17
77
-27
90
-70
0
-5
5
-70
9
45
21
36
-75
3
4
-21
23
47
-24
-54
6
-22
2
-12
-104
-19
3
-17
-11
23
27
-32
67
-26
5
-12
-36
-69
9
-123
-14
24
-51
-42
-6
-26
73
8
-14
20
-38
-48
0
-25
-39
-47
10
-22
9
-5
3
-22
5
-17
-41
0
-32
28
122
17
32
-33
6
-26
-58
-14
84
-21
3
2
0
6
4
0
-4
-4
6
-2
32
-5
5
2
-9
0
10
81
0
5
0
-2
6
-29
-127
0
-7
-3
-5
-9
2
18
10
-4
2
-8
-2
-7
-7
-3
0
4
-3
5
6
-1
3
11
-17
-8
-9
-2
-1
7
-2
3
4
6
3
-15
1
6
-9
-1
-3
0
-1
2
5
-3
-16
-7
-6
-5
5
8
-4
11
-2
6
-15
3
14
2
-1
1
-2
0
1
8
-7
-4
-18
1
4
19
-2
54
0
2
-36
1
-2
-5
-9
-16
-9
-4
-11
-7
-1
-4
-4
-7
0
-5
-39
8
-2
-18
-16
-2
-9
-12
-10
-3
11
2
36
-27
-16
5
89
-4
-44
85
32
31
-17
105
-9
-31
20
-18
4
2
32
0
-127
-13
-10
14
-35
41
-1
-67
36
-58
27
-53
4
19
9
44
8
35
4
-18
-46
-35
4
9
-36
37
9
-14
69
-6
29
2
-65
-64
-26
-69
20
23
-32
24
37
-10
5
-12
26
44
-13
-55
-63
-18
23
-19
22
16
-99
-1
0
-11
1
56
17
37
36
-42
46
-23
-12
-127
-19
59
29
13
-31
-66
13
-50
44
5
-13
38
-54
70
0
-47
22
-48
41
-97
6
12
-2
6
-37
30
-8
5
-51
7
-73
-16
24
32
19
-5
-35
30
105
-1
-9
3
-5
-127
5
-10
-10
32
-5
1
-7
-2
-8
-31
-8
5
7
12
8
-12
-1
-4
18
-4
-3
2
6
7
11
9
6
-22
7
-4
-25
-4
4
-2
10
-3
3
5
-4
1
-11
-15
-13
-20
4
-4
19
10
1
-25
-3
21
3
-4
-35
3
8
10
20
12
-6
6
-6
10
5
-2
9
5
8
-1
-18
-6
-6
85
8
0
-3
3
-8
-115
14
1
1
-6
2
14
3
6
1
-41
-1
-13
11
1
39
4
-7
-3
0
2
2
2
-16
20
6
0
0
4
-2
-7
0
-4
2
-29
5
6
-16
7
2
11
4
8
1
8
-18
21
-10
-35
9
-8
20
-4
32
17
-19
1
15
8
-6
-16
27
10
17
-11
6
19
27
-8
39
7
4
6
-46
-1
-52
12
-17
-4
-40
4
-57
3
-19
-21
15
112
-7
5
20
1
-12
-13
-29
20
-54
-8
-8
40
-12
4
-37
15
-8
-73
23
4
12
15
60
-2
7
-21
-6
57
-21
107
1
22
28
-6
4
-36
-33
-14
-13
-86
-71
8
1
-24
22
22
-5
-4
-29
-31
74
32
-28
1
-7
-8
-8
-28
8
4
35
124
18
88
8
16
-1
-2
0
-8
-15
-14
13
-22
8
33
-4
127
26
14
-20
-2
79
11
-7
-3
-1
5
-67
-20
-59
-10
-22
-31
-30
-11
36
-56
30
28
24
20
-17
-29
-22
46
-20
-8
-8
-88
10
-51
0
73
-22
26
-7
45
-11
-7
-26
-17
0
-9
8
-46
67
10
-10
15
-38
-14
-77
56
14
21
-127
80
69
109
-6
91
-21
48
-62
-21
11
34
-70
18
9
-18
58
-21
45
2
22
14
-59
12
-46
-20
-4
44
-27
-19
-10
-36
10
-25
16
-18
12
27
19
28
10
-38
2
-36
-25
-3
-23
-20
11
-120
39
-96
32
18
-23
26
-7
39
0
3
25
-20
72
7
30
6
49
18
29
-60
-26
-37
23
-11
47
6
43
-43
-92
-21
-3
31
42
24
-49
86
-36
8
91
61
31
-8
26
4
23
23
42
8
-27
-37
9
50
-23
61
-17
12
46
-56
33
-49
47
63
29
22
48
41
-2
38
3
17
16
50
-38
72
-59
-25
75
-26
53
-19
25
-33
-84
-52
-52
-18
-103
16
25
-11
-35
-3
3
17
60
53
-42
-11
64
-53
8
72
-30
0
-7
28
5
-47
28
31
9
-70
-1
-29
-2
-77
-23
-70
15
13
-32
-127
1
-24
40
36
-17
38
-89
34
-19
-43
9
-3
89
-68
-4
-10
-7
21
-31
84
-22
11
-102
-47
6
-8
3
71
-16
20
-2
0
70
100
1
12
68
-76
31
-41
31
10
46
127
40
28
36
-16
24
35
2
5
31
22
-3
48
-15
-1
-29
6
-35
42
9
36
28
3
23
22
-43
3
13
-21
53
55
64
4
0
30
0
26
47
47
18
15
-14
-11
-22
-18
66
-2
26
-6
-16
14
16
14
6
1
29
7
-4
26
-28
-24
23
-22
33
26
-20
15
10
-120
76
-12
22
13
1
7
-11
45
-7
-32
25
8
14
20
-46
14
36
-31
38
13
-41
43
-63
60
-3
-30
-25
-2
19
-6
-8
70
5
22
30
24
8
14
-34
-24
10
3
-12
37
-8
-12
79
-22
9
9
-45
-23
28
-24
-29
-15
-36
-22
42
21
91
27
-53
-55
-4
-17
-9
1
26
-14
-24
76
-34
-19
-42
20
-11
76
2
12
29
-9
-11
-34
50
24
45
-127
14
25
85
9
7
19
-25
-32
69
39
-17
23
28
48
-30
-54
60
-8
10
-59
28
18
-18
31
-14
16
-21
46
0
4
-42
-50
-12
-23
55
-34
-84
20
14
-43
32
-26
31
-27
34
25
8
11
6
-26
43
-6
49
33
-33
70
38
-82
45
5
-54
18
-73
6
-1
-36
-29
-17
-25
-20
-5
37
32
21
76
-6
-35
-1
-92
-58
26
-2
41
25
11
-17
-44
-1
13
-37