15
-19
-6
-3
4
-12
1
7
7
-24
-9
-15
-7
-24
11
6
18
4
9
26
-5
4
-5
3
14
-9
12
-4
0
-14
23
-1
2
-29
10
-12
1
7
-21
-19
-2
12
-6
7
-1
4
-4
-7
-3
24
15
-16
-15
-14
7
-1
3
10
24
-6
7
7
20
19
48
-9
23
-8
5
7
-1
15
46
-31
6
-7
5
-47
7
-4
3
5
9
18
3
-8
-2
5
-7
12
53
-8
-20
42
47
-2
10
-27
-10
-8
-20
-10
-1
6
14
18
-2
-9
0
1
-4
-14
0
-44
-1
3
48
3
-6
-20
-9
-31
26
-10
-9
21
6
18
-6
15
1
19
-12
8
27
-4
7
-4
7
7
-5
5
-5
23
5
-15
-8
-1
-43
10
-3
3
-14
-30
6
9
-13
-1
-33
11
-6
13
-9
4
5
-2
-16
7
-1
6
21
4
-21
5
-23
-44
-7
26
9
-24
-127
14
16
23
19
0
48
-12
-16
-17
-5
25
7
9
-10
-11
-1
26
-23
0
-18
-30
-17
60
11
0
32
-7
-22
30
0
0
-10
-3
7
-9
-6
-10
-23
-6
28
-10
-12
-16
-15
-18
-10
-35
0
-10
-18
-25
-30
2
-17
5
6
2
-10
7
5
-9
-22
-6
52
-11
-20
-16
-16
-6
-21
-30
6
-11
21
-12
14
-14
-8
2
-3
-13
23
5
12
-10
-4
-17
6
18
-1
15
9
6
-5
23
-12
19
-10
6
8
-6
5
-7
3
-2
22
19
1
8
10
-9
-9
10
-25
-10
6
-10
-17
15
-4
-5
-3
-15
-1
33
7
6
-19
-8
-4
-11
31
2
14
-11
5
4
-14
16
-26
-18
-9
-9
10
19
-2
7
4
-20
5
-11
-10
25
10
2
-7
-9
8
21
12
3
8
-5
-9
8
-8
-4
-23
15
-5
-1
-1
-7
-23
-9
-21
-17
17
3
31
6
-8
-12
0
6
-7
-14
-2
27
-7
-2
20
-29
-13
-5
-25
-27
18
-2
-22
14
-4
7
-8
6
-7
3
2
1
-7
-3
7
-13
9
-1
-5
19
-5
15
12
-5
-12
0
7
10
0
-8
-1
19
11
8
-4
-10
-21
15
3
6
21
23
10
0
-8
-4
12
26
30
-9
-27
6
-18
-35
-17
13
12
-24
51
-8
-7
9
22
4
22
27
-15
-2
5
-30
12
8
0
-8
-17
15
-14
-14
-11
-27
-13
-127
32
-3
17
-4
-12
34
-7
-6
-21
-2
-5
-18
3
-10
-10
19
13
3
2
-10
-18
3
-7
-17
11
-13
-12
-11
-16
9
-10
-12
8
-11
-13
13
5
-17
-19
-12
-27
5
11
-23
-17
14
5
23
-7
5
12
1
-31
-36
33
-22
42
98
-66
42
9
29
8
-5
-20
-20
12
9
49
13
-5
-16
101
-55
-19
5
12
59
-39
71
-7
-24
-34
75
1
-18
-60
39
-51
18
27
-11
-30
0
33
-40
22
1
-1
-6
70
-7
0
5
4
25
-64
32
-23
-101
2
-16
-51
-11
-37
-23
0
64
-37
-27
-45
2
-13
-24
16
-3
-54
-10
15
-55
-26
71
-22
28
-24
-86
-59
-13
20
34
17
-22
-12
-66
-21
8
12
-18
-43
-2
4
25
12
-60
-19
38
-24
-48
72
-29
27
20
-54
99
-40
0
-26
34
-46
15
-2
95
11
127
2
-5
5
33
38
17
14
29
-60
-83
28
-45
20
-13
-102
44
-39
-64
-36
13
-12
-38
16
-27
-3
-15
30
-19
-16
-7
-14
10
4
-22
-17
10
-8
-19
33
22
33
-19
20
-10
22
6
-51
-26
-78
2
33
-31
-8
-7
36
20
-42
-19
11
34
-74
-7
36
35
21
6
-23
-20
12
-19
-2
14
57
-28
-10
-36
26
35
21
-20
-26
2
-17
-2
35
-3
22
-18
14
-4
47
3
-15
10
-34
67
-12
14
-15
-35
4
-22
14
-61
28
63
-81
57
0
34
-36
-3
-51
-22
-26
-28
48
5
46
-8
68
40
-50
-71
-44
75
42
18
14
-27
-1
29
27
-8
-24
25
4
-40
33
-114
3
-26
23
8
-103
36
-34
-91
-20
-31
16
15
30
89
-22
-79
39
64
-26
-28
59
36
33
-52
-6
15
45
29
-5
-11
105
17
-25
-12
-23
-68
54
-12
16
20
-18
-64
-25
53
-23
-5
11
-31
5
-1
-22
14
3
20
34
8
-7
-26
-1
42
-98
29
-16
0
-20
-4
-62
-25
42
5
-36
30
9
-3
4
-2
-40
-1
46
19
-44
3
-18
36
-45
-55
55
38
-17
-1
-17
29
-21
-15
10
-4
-27
-44
20
-23
-13
58
47
-28
-41
33
-30
-58
-5
0
-41
1
-35
22
11
6
-68
-81
24
27
31
-44
-39
-60
-22
9
-97
18
-31
3
30
-50
14
3
75
-72
5
56
-5
-59
1
-6
-60
41
-54
19
73
-35
-5
-17
42
45
-34
38
-48
-9
25
9
75
-7
-46
117
-28
-2
46
27
-6
-21
64
-53
-4
6
-44
14
5
26
-53
31
3
-35
0
9
-81
-33
-62
13
17
11
9
78
18
-27
-54
-40
17
-25
-19
-24
127
-9
-4
32
-10
-3
9
24
31
40
100
22
44
-53
11
-51
5
11
19
42
-45
107
-31
-22
-2
32
-46
-34
-32
-55
-6
-31
29
-27
-20
-43
-15
-49
-47
-30
-45
61
-37
-40
-32
3
101
-6
9
1
5
50
-8
-10
-1
-6
22
-5
-2
22
9
2
-6
6
10
5
15
5
7
-3
-5
14
45
-9
0
-9
-13
0
-4
-5
5
-10
-15
32
-4
4
-7
2
-3
-23
-1
-7
-9
10
-7
-2
8
11
-12
3
-5
-13
-14
1
-3
1
-44
3
21
-15
-4
-3
-2
-4
1
16
1
11
-8
-3
-4
38
2
-17
-2
-3
4
1
11
-9
14
-3
-11
-4
4
-8
5
5
-10
-11
24
-4
-7
-3
5
2
0
-4
-11
0
-10
-5
-1
0
2
2
-4
2
-5
-6
-14
-22
-4
9
-8
9
-9
-14
-8
-7
2
-6
-6
-3
-7
-3
1
-2
0
-7
-1
0
2
5
-2
0
5
11
5
1
-1
-24
-7
-5
0
-13
-5
-11
21
-17
-10
0
-1
8
-5
-1
10
-3
-2
-11
1
-8
8
-1
7
41
4
12
-2
3
-1
-4
-3
0
-6
-3
-1
-2
-16
8
1
3
-4
1
-9
0
-4
-9
1
3
1
-30
-36
2
5
-1
2
8
5
2
1
3
1
-9
-1
1
-1
-2
-5
10
29
1
-127
4
4
3
-4
6
1
-6
-5
7
-3
-5
14
-10
1
-1
-7
2
7
-4
21
-8
4
5
-1
4
-3
-2
-10
12
0
17
0
-12
-7
-21
-2
2
21
2
-11
-1
3
15
12
-4
-25
-93
-22
-14
38
-23
0
-19
0
-68
12
-9
8
35
-26
-29
27
124
54
-5
1
19
62
19
-27
-28
-28
-11
17
-8
-26
-39
6
3
-23
-1
42
-67
33
-18
3
-10
-40
14
-27
-25
67
-33
-17
-25
4
36
-45
-27
-32
-25
-21
-47
-10
-37
-30
-19
-4
30
17
-25
22
-7
-68
20
-14
21
-6
-24
26
-38
-47
-27
65
-46
-53
-18
-60
24
-22
-31
45
-127
-45
-15
-38
34
-13
5
22
-40
102
68
-33
2
65
-51
22
7
-2
-14
-24
31
27
-66
22
16
10
-16
-39
-18
0
-21
79
-10
-18
-48
39
-22
-43
12
-2
48
-54
-10
-23
56
-59
-1
-34
-3
1
-2
29
48
40
24
-18
18
-26
-15
65
23
-40
0
-1
25
-15
24
-13
-33
1
-14
-64
-38
-109
73
25
-46
-14
76
-19
-4
-33
-17
2
20
-44
42
5
-29
68
5
10
29
12
23
14
42
-68
3
82
-13
-50
-57
65
29
-17
-24
-49
24
2
-99
38
6
-102
49
53
0
6
-62
-41
-22
30
41
15
-64
28
-60
-14
24
-43
-64
-7
-39
30
11
34
-60
10
16
-28
-35
-30
-23
27
-21
-26
31
33
-40
-49
8
-25
-40
-34
3
-61
-2
-17
9
54
-18
14
44
-24
-14
-117
-42
21
37
17
-38
5
-33
-26
-67
-42
-11
9
-15
-34
16
-4
-60
-8
62
14
-41
0
-36
15
-9
13
6
10
-3
-40
-3
-14
11
-39
-18
-18
6
39
-7
-12
35
-9
-12
14
-29
-27
2
-34
-12
8
-21
29
-11
-3
-18
66
51
19
-17
-16
-3
-28
33
21
10
47
35
99
0
81
-23
43
20
-49
-8
-17
-34
-62
12
25
-39
-4
-9
-23
-1
-1
8
-49
-8
-62
0
-6
22
47
-1
-4
-42
127
14
-10
-7
-13
-19
-33
26
50
17
2
-33
-3
14
-7
-18
-9
13
4
-42
-54
-25
-30
81
10
17
-15
-7
10
48
-29
-4
0
102
13
-25
50
58
30
-10
44
15
-10
-8
13
-38
10
-11
27
32
9
10
-9
-13
-97
4
-9
-20
-16
70
-34
7
-50
37
-8
6
-64
36
-85
-33
38
-12
-20
-38
-6
4
4
15
1
0
-46
-37
-37
-21
-6
-46
-95
47
-15
8
-57
-1
-68
4
-23
-41
-36
-100
26
-59
-30
-2
45
-33
29
25
-33
51
-4
16
-65
-26
1
-70
-21
-49
11
13
22
-29
-1
-10
24
-24
-16
-54
49
10
13
36
0
-5
-13
-33
-3
-3
5
-10
33
-16
-22
9
-20
-14
1
23
-7
40
-33
-14
-58
-20
-68
3
7
-23
-23
-86
-35
16
-18
-39
-29
-4
24
-81
25
2
44
-29
37
33
2
-127
-12
47
-30
26
-17
1
71
24
-15
24
13
1
-16
21
-15
1
48
-2
-5
-27
-78
42
12
4
35
4
-106
17
-44
26
-24
98
22
3
-5
36
-1
-10
-22
19
35
40
-32
34
33
-50
19
-8
-14
7
75
53
63
18
11
49
10
37
29
-81
19
-59
45
40
-13
41
-11
20
-47
-25
24
-31
10
-16
-1
56
-22
-7
-31
67
-15
9
23
14
9
-8
-24
39
-63
-78
32
31
3
-45
-18
7
18
-24
5
94
-35
24
40
78
22
38
3
-41
6
-59
78
-12
-59
-28
9
-8
11
14
-37
-69
32
9
89
4
10
15
-9
61
25
18
60
-18
0
4
-74
-41
-37
15
-37
17
1
40
20
46
0
-24
-15
-44
0
-37
47
18
9
21
40
11
-1
-1
-32
-8
3
-31
-9
-11
-22
-26
19
32
23
13
-40
18
83
-22
55
11
-70
94
-51
27
14
-19
-32
-35
35
43
-59
-8
-21
-66
-39
13
51
16
-48
61
18
4
29
-25
12
34
-6
44
12
51
4
-2
14
37
-12
-107
113
-4
-33
-27
28
40
-61
-8
-28
-47
-12
0
16
-3
-18
78
-29
-89
-41
14
43
-39
27
18
-37
25
-52
42
-75
-108
0
83
-11
-6
17
0
2
-12
13
-2
0
9
7
-11
0
-7
6
27
35
-20
9
-19
-19
-7
-11
1
-1
3
16
0
9
8
-8
-10
23
-14
-19
0
-3
-3
-39
25
-14
-17
0
4
-4
-3
-3
9
-10
2
-3
-26
1
4
4
-54
-3
36
-15
4
15
25
-24
41
-24
-68
-18
-6
-16
-6
-6
1
-17
59
-21
-21
-8
1
-12
1
-10
19
7
2
-27
13
0
-2
-15
2
4
-11
13
-8
-3
21
4
-20
1
-1
-9
5
-16
-15
-3
15
-9
3
14
4
-28
-60
-12
14
-5
-13
15
6
7
14
4
-14
17
-5
15
-41
-5
5
-8
-16
-11
18
-8
17
9
-4
12
-13
14
-10
-21
-14
1
16
-6
14
-10
-23
1
-27
-7
5
10
-10
-10
25
19
-10
-14
4
21
-8
-7
-14
-7
-2
5
2
-22
-11
3
4
-73
-10
-6
3
29
16
13
-9
8
18
-2
3
-15
-26
-6
-14
-28
2
14
-19
3
-4
-1
3
1
9
127
11
-8
16
12
11
9
1
-18
3
-3
8
-2
4
-3
0
1
-1
4
2
-9
3
6
1
0
12
61
2
-16
-8
-14
22
-22
16
-2
-22
-55
11
27
27
6
-13
13
-10
-1
-14
12
10
-15
-31
-9
12
-33
-2
-17
2
-17
-9
-39
-46
10
-5
-25
-40
24
-8
15
-78
-6
-48
1
7
5
15
-20
18
51
15
-25
-13
-35
10
12
-11
46
27
8
9
20
-19
18
-5
42
-28
-10
30
-26
-35
-10
13
4
15
-12
-6
31
-29
-41
-33
5
-6
-7
-40
-7
79
28
18
0
2
-21
-42
10
-23
17
-3
22
21
-29
13
-5
6
14
34
32
14
-5
-3
-66
39
-24
19
19
23
-2
-2
8
-46
-9
34
-10
-48
-6
8
-8
4
-10
2
9
6
0
18
6
-16
24
25
-7
21
26
-9
20
9
17
0
0
-28
7
-7
-15
48
13
-23
-9
7
4
24
3
12
-32
-15
-7
-15
17
10
2
27
-15
-53
24
20
-4
0
29
31
-17
0
24
-2
-14
-16
65
15
17
23
11
10
6
127
-20
26
-12
8
2
-24
30
-27
-40
-17
27
33
1
-13
-62
-47
-1
44
54
41
19
-6
-1
-18
-46
14
9
-21
14
16
-60
-24
7
14
-32
-10
-3
-50
-31
32
-49
-53
-26
7
2
6
23
-13
-9
-26
-6
42
22
-2
29
12
-5
5
24
-9
18
-12
7
17
-2
29
5
39
37
-14
-25
0
7
7
-33
-6
47
5
31
22
4
-40
-53
-21
4
-9
13
10
-1
-35
-24
16
-24
16
10
-4
-8
11
7
-5
7
42
5
-1
-13
2
5
3
5
16
7
0
-8
-11
16
-16
12
10
-15
-9
-11
-3
-13
6
15
11
16
-10
-2
-6
22
-10
-6
12
-27
22
-3
10
13
-8
-8
-9
-17
3
-14
-18
-5
-22
-8
-9
-18
-13
-24
15
-4
-20
0
23
-6
8
-13
24
0
43
-4
10
-16
13
-7
-13
16
22
-30
-4
14
7
16
9
-1
9
-18
-7
27
-15
3
19
6
-15
-27
2
2
8
7
-35
-1
10
-4
15
-3
-75
-2
-45
-4
-26
7
9
1
-11
6
-12
-8
-29
-20
-2
-5
38
-10
1
-15
35
-6
-13
17
-23
5
11
46
13
17
24
21
1
-13
-19
11
-12
-8
-11
5
17
-9
12
3
-7
24
11
-5
14
-39
0
-16
7
-4
-3
7
25
38
2
44
-14
-5
1
-13
-27
10
12
-1
5
10
-22
-27
2
-4
0
-30
-15
7
-3
-23
-7
-1
-6
-9
-43
24
23
-4
4
7
-4
17
2
19
35
-28
-12
-21
-13
-14
15
22
-19
13
-13
-2
13
-35
2
16
0
-6
-33
1
-32
-2
-1
-4
2
5
-8
-1
-20
5
-8
11
-16
-15
62
7
-3
4
-4
8
3
16
-7
1
-27
4
4
-10
-27
-5
47
4
2
-3
-2
-2
3
35
-56
127
-22
2
-9
-32
-26
-6
3
19
9
-29
10
14
-20
-8
2
5
12
-41
13
-58
-8
-10
22
-52
-2
5
11
-22
-31
-7
37
-11
9
-26
-44
-6
-36
39
-7
43
16
9
24
-35
-43
9
1
3
-15
-2
14
29
-31
-24
7
-23
-18
-18
-18
-2
-22
-11
-28
-22
-8
26
15
-18
7
-63
16
-20
-20
-26
-20
9
-43
-4
3
0
0
31
-6
11
0
6
9
14
10
8
-38
-30
34
34
-12
-2
-26
4
49
-8
-31
96
8
26
56
-20
-16
-16
-30
22
17
20
-5
57
4
9
16
9
-4
-16
-32
35
-11
-39
23
11
34
47
10
70
-13
-37
-11
-10
35
13
35
7
37
12
-6
0
-5
37
-1
5
-5
-2
-1
-20
-38
-26
1
8
21
22
-4
11
-3
-5
-1
0
-21
-3
-12
16
-39
32
-7
-11
-58
0
-32
-20
-28
-27
19
15
-4
-15
-1
28
-29
21
3
-127
16
20
-19
33
11
-28
25
-9
19
-22
30
-28
-15
45
-22
-38
33
21
43
-44
-15
7
20
-43
13
-10
-33
6
2
-16
16
-1
-11
5
17
20
9
-1
0
-17
18
-17
5
0
41
-39
15
-14
-23
14
10
-28
26
-7
-24
14
10
1
-5
13
39
-3
18
-10
-3
-12
47
-11
-73
82
29
-55
20
43
-15
10
-97
108
0
11
11
-5
-11
6
4
-21
-25
-89
32
31
33
-66
33
-4
17
5
-70
64
-33
12
19
8
-87
23
22
26
-3
55
9
20
-19
-92
5
-59
24
52
-3
7
84
-104
-50
-40
12
-39
6
15
-4
12
11
10
-19
23
48
12
-11
-20
-76
3
14
6
12
7
21
5
32
84
78
-82
77
-4
-25
34
-70
4
13
93
35
20
2
26
7
2
-57
-13
4
11
49
15
48
-48
-35
-17
-28
-15
-56
-13
15
-62
-26
-8
-23
-3
-11
-25
-6
-7
-86
-9
-27
-2
-7
5
-89
33
8
-13
-5
-29
15
-127
43
7
-22
-25
29
-27
-2
-13
-49
70
1
11
27
54
16
-53
11
20
-29
-4
-36
-3
20
48
-22
11
48
64
37
-70
3
46
22
-59
19
-21
-4
7
-15
35
0
37
9
-40
26
3
-2
35
0
41
-43
33
28
-17
21
-22
33
22
-8
-77
67
15
-14
-49
-10
-5
-6
-30
26
-5
-25
-59
-62
19
28
17
-38
27
6
35
30
11
23
33
47
17
-29
17
-8
-20
-8
-9
70
-24
12
-25
96
-32
-59
-7
-20
-19
-18
10
40
29
3
-9
7
-31
-3
-19
-77
-82
-8
79
26
38
-44
-84
29
32
-13
73
10
21
28
-28
64
23
-9
-21
23
-32
34
-11
-127
-11
22
6
-20
44
20
-11
-31
-55
-13
-49
-2
-33
-1
0
20
-55
7
-1
30
18
8
34
-29
18
19
-7
8
-33
-21
34
12
65
-49
-83
8
36
-19
25
28
-53
15
-23
-29
-58
-11
31
-24
-7
81
22
-38
9
-21
-59
-2
14
-3
-1
-15
-55
51
2
-7
-15
-20
14
-30
-81
55
-36
-45
6
-17
-32
15
-13
27
-37
-85
66
6
-4
5
-39
20
48
-42
-41
46
46
127
-6
31
9
-102
35
-26
-43
11
-14
57
15
49
-12
-62
-17
-52
28
-6
47
17
5
23
-18
56
-6
-2
-10
-31
10
1
63
-46
0
-38
-78
27
-52
-4
74
12
7
-30
10
-27
44
-39
22
-5
125
5
-12
-13
-1
-6
-9
42
90
-13
0
5
42
-50
-13
-53
12
-17
-45
12
22
-5
-51
28
-29
-26
7
31
-36
-55
-14
-14
-68
15
54
17
3
8
24
-7
92
-2
67
6
36
-8
65
-76
-76
54
72
48
-17
-25
-15
-15
7
-9
-33
-50
-26
53
51
-8
-4
-15
6
2
1
12
-11
-92
-1
-2
-36
-17
-35
-19
16
-3
-24
-17
-19
-18
53
-3
25
-17
69
-5
-8
65
-27
54
-28
-19
-7
81
67
2
-48
-25
53
-19
25
-21
74
28
-23
-37
25
-86
35
-24
-52
-24
40
-40
8
-74
-121
58
6
-31
-10
-43
10
-15
-13
-44
-7
-44
-5
13
-27
-41
75
25
27
48
28
-9
73
25
13
-33
-14
-15
-59
14
24
-16
-44
-24
14
75
-26
-7
-49
-13
12
0
22
45
-21
-60
21
-14
-16
-1
-94
-1
-32
-77
46
34
-9
-25
27
-41
13
53
24
101
50
-41
-2
-69
36
12
-127
-18
-96
-40
-39
27
-50
-5
-19
-24
-124
40
-79
1
-118
-34
27
-13
-39
0
75
-69
-50
-59
3
17
-46
-22
-12
26
48
66
-23
-106
-31
-50
-73
-51
3
-49
-32
7
-21
-19
-23
-23
36
-6
21
33
4
-28
67
-56
23
77
4
-12
-19
-66
-30
-38
-72
56
36
50
15
-55
-1
-40
-74
12
-2
108
-62
-37
-71
-38
-71
71
4
13
0
35
14
7
72
51
-18
-35
-29
-12
4
-5
108
-18
-4
-46
19
18
-4
6
-11
0
-89
53
98
41
-58
-9
-15
-36
14
14
35
8
30
-15
-45
-50
117
77
22
-85
-5
-25
28
72
81
-20
99
-21
-54
-23
0
106
-62
94
-29
-23
-32
107
-2
-13
21
-6
-1
8
-1
13
26
-56
-56
-10
-25
15
-57
-20
-97
-26
-63
16
-60
-20
-83
-77
101
68
-44
-1
62
38
47
-7
-12
-41
-10
1
15
5
2
8
-4
34
-10
1
-4
10
9
19
1
-9
10
44
-58
5
3
0
9
2
-17
-11
-14
-10
9
124
2
-9
31
-3
-12
-23
11
11
-22
6
21
4
-13
2
3
-9
36
7
-24
-20
-4
4
19
15
-31
-25
10
-27
124
-2
-70
0
-55
-26
114
-10
-21
-2
40
-3
19
12
26
9
-7
-2
17
44
61
8
-19
0
-21
-2
-3
7
28
-14
1
-127
-40
-14
14
-2
-5
-90
0
-6
26
19
-51
-23
3
7
-3
0
-8
-1
17
11
17
-8
1
-7
2
-15
-13
4
5
-19
24
9
-67
-17
-9
-35
12
5
-23
-5
-9
1
-1
-8
-16
-4
-25
-118
-65
-6
4
-4
-21
-34
14
0
-3
17
-5
-38
5
0
10
8
22
4
20
9
7
30
-16
-39
21
-27
18
-3
1
-17
-33
-12
9
-6
-25
28
-16
43
-30
-39
0
-1
24
-1
-53
61
25
10
-27
43
15
-9
-13
1
-28
18
-10
-10
-32
-25
43
-18
27
-26
28
-10
-14
3
7
18
-6
-12
-5
2
8
17
44
16
0
26
-7
12
-1
23
-2
13
-6
-30
-1
-17
-26
4
-7
0
9
-5
4
13
9
-6
2
5
5
-19
-30
13
-6
-3
33
-54
-27
-7
41
1
3
-17
18
1
5
10
4
10
20
-18
-21
13
2
-31
-5
3
19
13
-7
2
15
10
-14
-11
1
-12
-24
-28
-1
-49
-17
16
1
10
-1
0
31
12
-7
-8
10
21
8
-7
-24
4
2
-7
-16
1
21
-3
0
5
-13
8
-12
-8
3
-22
-14
14
20
-1
-1
6
4
24
-4
9
18
6
-14
-8
5
8
8
11
2
6
-10
-7
-4
19
2
17
-2
1
-12
-20
-7
21
10
16
31
11
-12
-16
-18
1
-13
-2
-2
-17
28
-1
12
-26
32
-11
-2
11
-3
-16
10
-1
-14
-6
16
-14
52
18
-3
-6
-9
15
0
16
-4
-2
5
5
-7
-23
-11
-4
-21
-3
1
-7
-3
-5
9
23
18
4
8
-5
-25
21
12
-38
-14
12
13
-2
10
-21
19
5
-14
4
5
-13
-7
-11
11
20
3
-12
-1
-56
-13
7
-3
5
-4
8
-1
3
16
-14
109
33
1
18
-9
-14
10
-12
-6
-24
0
9
-7
43
12
-5
9
-13
-1
-6
10
-11
7
-4
17
19
-5
6
0
13
41
-4
127
16
15
-3
-3
8
-9
-18
-14
32
9
15
-4
8
15
-6
-4
16
6
2
-18
-37
7
0
2
-5
-13
-3
1
-6
-3
8
-9
6
16
-25
-4
11
-14
-1
-11
5
48
5
119
76
11
-3
21
16
13
30
23
-23
-29
33
-22
116
2
-49
55
-32
-55
67
-14
-49
60
38
-2
-10
-2
20
-95
-66
6
84
38
29
54
-8
-23
23
117
18
-5
26
104
5
21
-9
9
30
22
19
-20
-23
-3
27
-2
-36
36
-33
31
24
76
-10
-32
-59
-4
62
29
-95
-28
45
78
18
-20
3
11
11
4
-26
-33
10
91
-9
-44
-45
-3
-30
-51
18
-4
39
33
-44
5
-87
18
-20
-15
8
52
-53
-6
-100
15
114
75
9
-6
10
23
21
80
86
1
27
34
64
28
-112
-12
66
36
15
-56
68
-10
-21
-22
-74
12
32
-29
-10
18
46
-44
-51
-25
98
-12
-22
-23
4
-8
-10
48
-56
32
-48
-74
52
-40
-46
-36
-39
50
-37
-17
-13
18
-56
16
-7
-1
-13
-11
49
25
-97
16
52
-32
-41
3
2
72
11
-14
-52
9
-32
1
-40
42
-25
-88
90
30
-39
26
-13
4
-2
-1
-19
29
-91
-44
-24
127
-9
55
12
-46
-8
6
-18
-24
37
-22
8
57
-47
-20
-36
-8
-3
49
41
25
8
-35
-22
76
-24
-8
35
-67
32
24
85
-14
30
49
-6
-4
-29
50
67
-16
23
-25
-80
8
51
-28
35
30
-31
63
-30
-37
28
-33
-31
-43
12
-43
-22
54
10
-18
9
23
19
6
-25
13
28
6
39
14
70
3
25
-19
-1
-16
-3
14
-18
-5
-43
13
-8
15
-27
10
-8
-31
28
-3
-29
12
-7
-10
-8
-17
-2
-31
8
-4
-6
10
66
-43
-17
20
12
40
-16
4
-18
-7
-2
-27
-19
-3
-4
-20
-1
9
-23
3
-29
9
-4
9
25
-12
-14
-49
-3
-12
14
-25
-5
-4
-28
59
-32
21
-16
-28
-13
-20
3
23
-11
9
8
11
7
-7
1
-17
-3
5
12
9
-34
20
7
-18
24
-2
3
14
-19
-12
14
32
17
-1
-43
-14
12
5
3
11
16
5
23
49
32
-9
-36
-17
2
-8
1
3
18
-18
-21
12
-2
-8
10
-15
-14
-29
14
-45
-10
11
3
-8
2
-30
6
-15
0
-22
-19
127
22
-7
11
-11
21
-7
19
-2
8
-24
-7
2
2
12
17
39
20
2
-9
13
47
29
9
-21
-9
13
9
-5
30
31
1
-30
-1
21
26
-11
1
-11
-16
-39
40
25
-12
-15
14
-5
49
5
27
-60
-25
-17
7
-2
-23
-16
26
-44
0
6
-7
4
-12
8
25
9
11
25
13
2
-23
-6
-17
-41
-21
-22
0
1
-16
0
-18
7
34
2
3
-8
31
5
2
-5
-32
9
-1
16
-5
16
1
4
-25
-5
14
5
3
37
-2
-6
-3
5
-1
4
-39
26
5
-2
-5
-16
-23
34
15
5
-3
-10
-11
5
5
-1
-18
7
-113
-9
5
-19
-7
-13
-6
2
-6
-11
2
9
-2
-8
-2
5
8
13
-41
11
-4
-3
11
5
11
-5
-20
10
-8
-115
3
26
0
-7
-21
-105
2
-28
3
-56
-15
-47
-37
-11
-5
-16
1
12
5
-73
1
-8
1
-13
2
-18
1
3
-1
-2
127
6
-2
-16
-20
-4
8
8
23
-20
-3
-10
-3
6
3
37
7
16
-6
3
-13
-8
6
2
22
17
-8
-7
13
4
4
20
11
-19
-5
-30
-2
12
4
-15
0
-3
-8
4
-3
-29
-6
2
114
97
6
-24
-9
-5
-1
-13
0
-8
5
8
43
-14
13
5
2
19
8
-1
3
-9
1
4
-11
11
-16
-4
8
0
-18
-23
-12
24
-4
-2
8
-29
47
-19
-14
6
-3
32
-17
85
-72
10
-5
-20
-28
5
-20
-1
30
4
7
11
15
-2
18
-21
-11
18
8
27
2
-1
-14
-9
22
8
-2
-22
3
-4
13
20
-15
-5
-23
-1
11
-2
27
13
-20
5
14
-15
-4
-31
-13
-36
-3
24
1
0
-6
1
-3
-1
7
-7
30
-23
4
-15
3
-3
64
7
-11
-33
19
23
-2
14
42
11
-4
13
-18
36
29
16
-6
25
29
-20
-20
-63
16
32
41
7
9
17
-10
2
-35
59
12
24
-22
37
13
11
-3
17
-22
28
41
-25
-13
-36
-29
-11
35
19
1
9
25
-74
115
-48
-24
7
-25
-32
2
43
-4
-26
10
-9
16
14
36
-1
8
16
4
11
-24
-35
64
3
-32
80
11
-33
19
56
13
-6
-28
-3
13
57
-15
-1
-63
-27
0
-29
-25
-10
-12
-19
10
-2
13
-69
-49
-20
-16
-14
-2
7
12
-19
3
8
-44
-19
-36
-8
-28
0
22
6
-26
8
-9
-42
-102
-10
-28
36
18
-19
11
-101
-5
-31
-13
-33
-63
-44
-9
19
-88
97
23
34
-3
13
18
-22
-20
-4
9
-24
-6
6
16
21
-4
-21
16
1
23
-107
-8
-69
74
52
49
39
-7
-15
16
22
50
46
-71
-78
-38
4
-62
-7
-17
55
4
27
-31
5
32
-8
32
10
-11
-121
-37
49
46
-31
7
-14
-9
-8
-60
-23
-47
-26
-17
3
9
36
-6
-27
27
-1
127
-6
1
-27
1
-6
-41
-40
4
-37
0
6
0
-8
27
-32
79
-38
-69
17
-4
16
-36
-83
9
4
-61
-10
-9
-7
9
7
-62
-51
-10
54
18
-11
-7
-68
30
31
-17
8
7
0
28
-92
20
-45
69
31
9
-4
8
-18
-3
-5
40
-12
-5
10
-22
-15
-3
23
-4
8
21
-10
22
14
-4
-7
39
-26
21
2
62
39
-6
-7
-2
16
12
-1
-27
11
1
1
-9
-24
-2
10
-8
8
43
-7
-20
29
5
-52
23
-11
3
19
35
30
33
-19
-24
8
-10
-46
-5
2
-4
-60
-10
-13
-11
-7
-48
28
-9
5
-3
48
-7
-32
1
23
-31
-9
-29
14
-4
21
5
-3
19
-5
-50
34
10
0
-33
-9
127
-21
-52
-44
-46
-24
-15
-71
13
20
7
-27
15
-5
-5
-29
21
-18
7
20
13
1
14
18
-21
34
-21
46
27
31
16
1
-3
1
16
-25
-18
30
-26
-4
-1
4
5
21
12
-4
28
0
-27
-72
28
21
9
18
7
3
-96
13
21
2
-2
-9
0
-3
8
12
-13
55
-26
29
-3
2
92
-9
40
6
-17
-42
-18
-44
45
-30
-18
7
24
-12
-18
-5
44
-7
-25
3
10
-28
24
23
-38
-25
-3
-45
-23
-17
-42
14
10
-61
-1
-23
-17
-27
-29
37
18
9
-24
-2
-4
13
-21
-4
-1
8
-70
-1
3
9
-8
-3
-16
44
18
4
-14
17
-10
8
42
-11
1
-51
4
-20
-2
17
13
1
-31
16
-12
34
3
108
-16
12
-10
62
19
-37
0
6
-10
-2
10
-1
-29
-6
-60
10
5
8
-9
-4
5
48
27
-15
1
-15
2
3
-9
2
23
-13
13
0
-22
-9
-2
15
11
6
-23
40
-20
-43
1
2
6
-8
-4
-6
10
-9
14
-8
-7
-18
7
12
78
-4
-21
40
-3
12
12
-12
5
-34
-16
-23
-5
-9
-7
-9
0
1
28
-3
-15
8
-7
10
14
8
-52
-5
-15
-14
-15
8
1
-5
9
14
-20
3
19
-4
-9
-11
-4
-20
31
26
-32
-38
-12
-9
-39
-26
-12
-28
-12
7
-3
-14
3
-18
36
9
-17
-10
50
14
-24
6
11
20
21
-32
3
-8
-9
12
15
4
-1
2
-9
6
-42
-3
38
9
10
-28
4
-47
13
-29
-127
4
12
-25
4
-1
-17
10
6
11
-33
9
7
-4
-9
-2
0
-23
39
-21
-19
29
-6
3
-3
-28
5
-6
-3
8
11
-12
24
-9
-7
4
8
-90
-19
-9
3
-6
-15
-4
-30
13
5
13
40
21
-16
-29
23
1
-49
-35
-11
12
-6
31
14
4
7
-10
24
-2
6
-5
2
1
-49
-5
11
-6
2
1
41
0
9
-6
-10
-11
14
1
19
5
-2
31
1
10
-10
-13
-86
31
-9
-7
30
-12
-37
-22
3
6
11
12
-28
36
42
-65
18
0
-19
-5
62
0
-5
-12
-4
2
9
-21
-9
-7
-7
0
-8
14
-20
-11
14
-18
-8
-24
19
41
10
62
28
10
47
36
-21
64
0
15
19
-30
-18
-21
23
15
-92
39
49
10
2
11
31
0
10
23
-4
-3
-8
-37
-66
5
117
-1
11
1
15
-22
21
-15
68
-6
-22
-10
4
45
-4
15
-70
0
25
23
13
-34
-28
29
13
2
28
-6
12
-3
-55
10
-30
-45
-22
32
-3
16
-4
3
3
-26
29
-12
65
16
-63
-1
-6
-13
-23
19
2
5
-61
-19
14
-12
19
-1
35
98
68
14
20
24
36
-2
2
2
-21
21
-4
20
-37
-10
19
-7
-29
-13
-11
-34
-15
1
7
-23
8
-14
0
11
-5
5
-19
-19
25
-12
-10
40
7
-16
49
3
-58
-7
-37
5
18
-26
28
-12
18
-127
22
-31
-14
-5
-31
-12
3
16
51
6
16
26
-7
9
9
9
-26
11
11
-2
-43
-26
0
23
-10
19
14
30
18
22
55
-27
25
-3
22
-17
-8
42
1
4
-5
-26
29
1
4
3
13
-8
-2
26
-11
-22
21
-5
16
18
7
48
-1
82
-3
68
42
-12
-1
-47
-17
-20
-33
-3
22
7
-57
5
-24
28
33
-1
80
16
11
8
-32
-40
11
-8
-20
-35
-9
38
15
-6
-100
35
-16
-33
-32
-8
-23
2
-35
-19
1
3
5
-5
18
28
47
0
10
16
45
-41
1
15
-5
21
-46
-18
13
22
-3
-44
2
-34
29
26
16
-15
9
53
22
28
9
120
-21
-17
-34
-16
-17
-29
-5
3
-4
-1
30
-17
-18
-22
16
18
-1
12
14
5
3
0
-7
18
18
-37
-24
27
127
-5
24
58
40
-11
-15
17
-14
-41
11
18
-16
77
-31
46
15
86
-14
-24
-53
11
1
-19
12
-14
74
5
-2
51
-30
21
-2
25
38
-40
26
-36
-12
-12
14
-13
-7
59
40
-14
21
-3
38
-20
52
29
-15
-37
-41
-23
5
-11
-13
-1
0
-67
-15
-36
11
-11
2
8
0
-11
-16
-69
8
9
-86
43
6
39
22
-16
-30
-62
-2
3
-6
-3
-19
-19
-7
45
12
-32
-43
-36
45
25
-20
-14
44
-5
13
33
4
25
7
-13
23
-27
-5
9
17
7
39
-40
1
-31
2
-15
-7
39
12
-9
25
-2
4
34
-37
28
-6
-24
5
21
9
8
-2
21
11
-25
-20
38
-23
1
32
-43
42
-28
-12
-11
-43
8
55
39
-6
22
-2
-33
-1
-42
62
9
23
37
-22
31
21
33
-43
10
-4
-48
16
-11
-26
40
-17
-37
-40
-23
-21
3
-12
-11
3
8
-8
19
2
-7
-7
-3
0
-2
-29
-1
4
-77
-3
-6
7
-2
52
-5
1
-8
-3
-6
11
-4
16
-73
-2
-20
-3
-3
-9
-43
1
-2
-1
4
-12
-11
-4
-1
5
-5
-18
-3
7
0
6
-14
4
0
-4
-2
3
2
2
9
3
-22
8
-9
-16
-12
-3
-4
2
5
3
15
2
0
3
1
18
-3
-6
-14
-10
11
6
-8
-1
-12
-6
-14
-9
39
13
4
-4
36
-9
-5
-12
-4
-11
-2
9
5
22
14
10
-4
9
-1
5
3
4
0
72
-12
5
2
53
-5
7
7
-3
6
10
2
-2
-6
15
-7
-6
1
3
-1
8
-2
-5
-20
-14
-12
5
-3
1
10
4
0
-1
4
3
-27
11
5
22
-9
34
-6
-2
-26
3
-4
-1
3
1
-11
-4
3
-6
-4
21
-2
127
2
-57
-9
2
-33
9
-5
-4
-8
7
-1
13
33
-4
2
-10
5
3
-6
9
-12
-1
0
0
-7
7
5
0
-5
6
-9
3
9
16
-6
12
-2
-8
3
-1
-5
-9
51
0
12
12
17
-16
3
-21
12
12
-1
-4
-3
-37
-3
10
-2
3
16
-8
5
-11
-16
2
-13
-3
-2
-4
1
4
-20
-1
-25
10
-23
0
-4
4
-2
-18
-15
7
-8
-3
-6
-22
47
-36
8
-27
25
-35
22
3
6
79
15
-28
-23
-30
9
2
-40
-40
0
34
22
76
-37
-18
1
-30
-40
-6
-13
23
2
-27
41
-12
13
41
9
-14
-3
-8
20
-32
8
5
13
33
-31
-42
-28
-10
-37
11
-70
-11
-2
-2
-15
-1
25
17
-17
0
-42
-45
-3
-4
-13
0
0
-2
4
46
27
11
28
20
8
-9
-32
5
15
-35
34
110
-19
-26
1
-27
-8
-14
-1
15
8
-54
15
-4
-19
24
1
-45
24
40
-2
-7
-49
41
1
2
19
38
77
-32
0
-43
-30
11
11
10
0
8
-14
-2
-7
-16
-23
-21
20
22
-1
-30
46
41
23
16
12
36
-24
-19
18
24
-12
-26
-36
-32
-20
-21
4
11
19
33
12
-3
5
78
5
-20
-6
33
-23
1
-31
-64
-11
127
81
-26
9
-1
43
-7
-6
37
10
11
10
2
-4
17
-14
25
2
-32
29
-46
19
1
20
-20
30
12
-19
-13
-34
69
-4
-5
-6
-2
14
4
-18
-16
69
-28
-1
0
14
-16
6
-7
-18
78
19
-5
5
21
10
-7
7
12
-39
2
52
7
-11
-15
-3
-4
-4
-10
10
-13
18
-3
-6
43
5
-34
28
23
-3
19
8
-26
19
-7
9
-14
5
-24
53
-84
12
-37
-21
-8
5
7
27
-16
-10
-3
5
2
9
-127
5
-4
2
-65
-7
-25
50
-17
-12
-11
20
-15
11
21
6
6
-5
-25
-31
-5
33
-37
-9
43
-23
-5
36
47
37
-7
11
28
-14
12
-13
9
-2
16
-2
-29
-25
8
-22
28
-12
19
-41
-26
-4
-36
-32
31
98
24
-24
12
-44
18
30
-11
-58
-53
-11
-81
17
17
-5
28
-19
-22
-50
-9
-15
17
-9
8
29
17
-9
41
14
21
22
25
-12
20
16
12
-69
-8
67
-42
-27
14
78
13
-13
-23
93
-13
-17
16
-17
17
-7
23
25
-48
-20
-23
20
-33
28
80
71
-1
-3
15
17
27
-2
-13
24
-36
-31
-19
-16
-17
-6
11
59
-6
-8
52
-15
56
-6
-43
-22
33
-37
67
32
-28
-12
-17
-23
6
25
-8
16
2
-19
-3
29
1
-13
-27
-23
13
30
0
-3
-47
21
32
-4
37
-15
-34
4
-3
-16
31
62
-54
-27
36
-10
58
19
40
13
-89
43
25
-10
40
4
38
47
1
15
-23
-16
15
11
-24
21
12
-12
-21
16
-17
12
-26
6
13
21
22
-10
19
70
-34
13
24
-22
-9
-5
54
-19
1
-19
5
18
8
44
-62
22
23
2
2
24
16
10
2
24
-4
-2
89
122
-31
-86
-15
-42
-3
28
26
-3
-16
38
17
5
-3
-3
62
-13
23
2
-38
24
54
-21
65
13
29
76
20
-60
-22
4
-39
24
38
13
27
-4
47
-2
-25
6
18
-57
-16
-29
-12
27
7
9
-10
-11
-85
-23
74
-6
-4
-28
-7
-13
-29
4
55
-44
-56
24
-24
1
-73
34
-24
-5
26
-12
60
-61
-42
-47
-62
-35
-8
3
-17
34
15
-13
-10
-11
-54
45
-31
14
-45
-12
112
72
-36
35
0
-8
4
-66
-19
-8
-40
-29
-2
-30
-28
8
-70
-21
94
13
27
-45
-7
-31
-11
-23
-20
-48
-14
10
-30
-8
-2
-57
23
49
0
41
7
53
-59
-26
14
-103
-81
-40
-121
30
-70
10
-53
42
-33
15
14
-3
-85
-1
-29
5
-32
6
55
-68
13
-65
-21
30
35
46
3
-11
87
-20
25
-7
-17
-40
30
6
31
-47
22
-71
-29
4
-84
26
37
43
5
-52
-35
11
-52
9
18
-22
-26
-34
-20
12
-8
27
-3
-3
-8
13
-33
30
-21
-27
-20
21
-41
127
-25
45
-26
-47
65
43
0
-8
-11
-10
-21
26
15
-35
-20
-5
5
-2
4
-118
15
-38
-16
3
25
-2
-21
3
-94
40
12
-19
-101
-23
-59
-21
28
-9
-60
-19
-54
-36
-7
-21
-13
34
22
-5
-40
-27
46
9
-14
-17
-8
-4
-27
32
-10
53
-36
-19
-7
-12
13
18
35
12
-2
3
-17
-15
19
16
-9
1
-11
-33
-7
3
-12
-5
8
-12
-2
-5
-14
16
-9
49
-17
-50
-26
-17
2
-14
7
4
17
36
-127
-6
-3
-15
12
-11
-23
17
-7
21
1
-16
-13
-1
3
-10
-2
-1
10
-6
3
23
13
32
-11
-2
-3
-30
26
9
-1
-3
-13
17
18
31
-20
-2
-55
18
-9
18
20
33
3
13
-12
-36
-6
2
27
8
-22
4
-16
20
11
-7
-29
9
6
-7
74
9
31
14
33
41
-17
1
-6
10
-24
0
8
-21
11
-4
3
16
9
-3
13
-10
43
47
3
-2
29
-18
-8
8
31
16
33
-8
-2
-4
21
-23
9
-1
-1
-13
5
-6
-2
-3
20
5
22
9
4
23
-18
24
15
-8
-4
-3
13
-17
-3
-8
51
10
14
2
-10
19
7
-7
-1
-4
-11
2
-22
-4
20
-4
-25
-2
0
-18
-9
8
-16
4
20
23
-3
26
50
10
1
-15
-5
45
-15
20
-25
24
-25
-9
12
-25
-2
1
-11
1
4
-12
19
3
-23
-12
-2
13
22
-42
3
2
7
5
-8
1
10
8
27
0
0
-1
12
-24
-9
5
-6
-2
-5
-31
8
8
0
-7
7
-2
-11
28
-14
20
-11
-9
-41
-10
-29
-65
8
-17
-36
-25
-16
9
30
22
23
-28
-49
8
-24
-19
-49
-29
-12
-32
19
6
4
1
34
-10
12
51
13
1
20
-61
46
-9
-4
11
-37
7
16
10
-40
-7
-59
-21
-3
24
-23
-22
-29
10
12
-16
-25
-25
14
-1
-17
-4
59
10
-22
-6
-21
49
0
-11
70
-44
-21
-13
6
28
-43
-8
-95
-8
-12
-19
3
-7
-16
23
25
19
9
3
-5
-3
3
-25
14
17
-33
-33
-2
-13
22
0
0
11
-2
24
4
19
-14
-22
11
-2
54
4
-6
-49
-22
1
62
-30
-18
-4
28
1
6
16
-12
18
0
11
34
1
-47
13
17
11
4
-20
-10
-10
5
-6
-40
13
9
-6
13
91
20
-38
-13
-12
-10
-13
7
-81
-4
-9
-26
6
-8
1
6
-29
5
-57
15
-16
14
-30
-15
-13
-46
-36
-20
43
32
-24
27
-30
20
-10
-62
-25
-24
19
-1
-27
-17
-2
10
5
29
-10
-26
-9
35
-53
-3
29
-36
37
-10
10
14
-19
7
-32
9
50
-32
-29
4
-22
22
23
-21
-8
-25
7
-10
7
2
-44
18
1
14
-33
20
-8
-1
-63
2
-58
-46
-12
-31
10
9
37
-47
-14
-35
12
18
-42
13
25
-12
-127
51
-38
4
-17
27
-34
2
17
-20
-3
-9
2
-20
0
-12
-6
-9
6
22
-1
-14
11
6
23
-13
5
-2
38
7
-17
-19
10
-17
-9
9
-18
-11
9
-2
1
7
-20
22
-1
2
-23
0
-23
-8
-4
-12
-7
-17
-16
7
12
-20
14
127
9
-15
-14
-3
-17
9
-12
-25
-15
-69
-5
-10
-1
1
-10
4
-2
-33
0
-5
12
-12
-4
0
-26
-1
6
-18
-15
12
3
13
-9
-8
18
-10
16
-15
2
42
17
-1
0
8
4
-23
-6
17
-8
-34
0
-10
19
5
-18
0
-5
17
-14
-18
-26
-8
16
-48
-3
-2
-31
2
-4
-6
-24
-3
-14
-21
6
22
-1
-20
5
-6
3
-24
21
-4
13
-2
4
0
-1
-19
-8
-16
8
-12
-30
-8
6
-9
28
5
-5
16
5
9
-8
-9
4
8
10
21
-3
-3
36
-17
-8
-2
3
-48
-6
-23
27
-18
-8
7
6
10
-12
21
10
17
-6
-9
-51
-7
25
-6
13
-15
9
20
63
-6
-10
-73
-4
29
4
-2
8
-2
-50
0
-2
6
-5
-9
8
-8
-16
-7
8
-15
-14
-4
-2
9
9
-70
3
5
5
-8
32
6
-8
26
-13
-35
3
15
-6
-41
-5
27
5
-1
3
-29
-11
-2
-1
-10
3
21
-6
-18
10
3
16
-2
-19
-23
3
-18
-26
-48
-27
-22
22
-55
14
5
-31
-27
-2
10
5
28
-13
63
-19
-5
-4
-31
-14
18
8
-50
-10
21
-9
-35
-22
53
-40
15
-23
32
127
9
-26
-10
4
91
-55
-18
-3
12
-37
-78
5
38
16
99
14
-34
-34
-46
-36
3
-36
-38
28
-38
37
-77
2
23
27
4
-26
16
-14
10
-8
33
6
28
-8
54
-5
2
-23
35
34
-25
2
1
14
-19
-1
4
37
12
15
-75
-56
22
-23
-16
4
-55
-1
-32
-1
32
-13
14
32
-20
-88
122
-7
-42
-19
26
-10
2
-27
-38
-3
-24
-42
-4
-11
10
20
22
-4
13
-41
15
11
-11
-45
2
24
-8
-24
1
46
-5
11
-28
8
-18
53
17
-1
29
-44
25
-12
11
33
22
-28
-2
-79
20
-21
-34
30
-38
-41
-34
6
8
-82
-35
-7
14
15
74
-13
44
20
74
-10
7
30
-49
-58
13
-12
0
-28
-15
40
-45
-30
-12
16
-18
-19
-13
10
-43
106
9
-14
7
-23
12
21
-6
33
10
27
-4
39
-60
29
27
-6
-17
13
-18
4
28
6
-13
2
-15
-74
0
-31
-48
-40
5
-5
3
-20
-34
-23
32
-6
-9
29
-56
-5
-10
-10
59
11
35
-2
5
34
17
15
14
-21
89
57
40
13
-8
13
-19
10
-6
3
-3
-5
-4
73
10
18
-46
-11
11
32
2
-2
4
0
-27
-2
19
2
-2
6
17
1
-15
-8
3
2
-16
-10
15
-15
3
-4
0
0
8
-10
-7
-24
-16
-30
8
14
-2
-20
-45
-127
3
2
8
-11
16
-1
26
0
4
26
20
7
10
-124
-5
11
3
-10
1
-14
7
7
4
-3
14
-11
5
9
-7
-6
1
-13
-5
-22
-7
-19
-3
7
-9
-20
-4
10
-4
14
13
-2
4
13
5
-82
3
75
-7
-6
-9
-1
7
1
9
-4
32
-13
15
-11
13
-3
-1
10
16
1
-2
-19
6
8
13
5
12
-12
6
-2
-10
-25
1
-11
-15
7
-9
-19
1
-17
5
10
2
3
-9
-32
2
7
-28
8
-63
17
-3
-16
4
9
-19
-1
12
5
-29
21
18
4
20
-9
45
6
-30
15
-14
-19
4
6
16
18
-28
-5
28
-19
36
0
24
28
24
-4
-10
16
101
2
-52
14
-1
-2
10
-16
-14
-7
13
3
31
3
120
6
2
8
3
-5
9
35
3
24
7
-9
4
-22
-6
-21
19
8
15
4
7
0
-6
32
-2
-3
-10
7
-27
-4
-5
-23
5
9
10
9
-15
-3
3
-18
-1
-32
-13
14
-19
0
3
8
14
-22
-16
-4
6
19
79
-30
34
-8
0
16
-7
-21
5
-26
-4
-7
34
1
29
34
8
15
6
-23
-15
18
47
-5
0
-13
-2
-21
-14
-25
1
3
17
11
19
-24
42
40
4
-9
11
34
-6
12
27
26
23
-5
-9
14
-37
-39
-75
3
5
-4
-19
-15
22
-7
12
5
-24
-14
12
12
8
5
15
13
61
-14
-37
-13
-8
13
24
-53
23
-5
-6
-6
-13
10
7
-9
9
19
36
19
0
4
23
-7
12
27
-19
12
-7
-15
6
-11
-64
-2
35
-67
10
42
-70
8
-15
-4
12
15
-2
12
-7
3
42
-15
-4
26
22
-20
6
31
60
-26
-7
-23
11
0
19
34
40
-29
10
44
7
-3
-3
-32
30
0
1
20
8
35
28
-19
-5
20
-7
-5
-5
18
-45
-8
-19
10
-36
12
-13
1
-2
-46
-27
7
6
50
47
4
-35
35
-22
-14
0
26
-14
9
0
29
-9
-4
13
42
-15
10
-3
8
-9
32
15
60
14
4
10
-5
17
1
22
-23
32
47
17
22
-39
8
20
-5
11
-13
5
20
8
-6
-4
-20
5
10
-40
-29
9
38
-14
-29
-5
11
-54
-21
20
0
4
22
25
-20
37
-23
51
-15
-53
-12
-48
9
-3
1
-1
-1
4
-127
6
-4
6
-5
-4
0
-6
28
-9
4
-21
8
33
6
-30
-8
10
-18
12
-7
28
-18
-43
-4
10
-4
-8
10
-18
19
-7
-6
-1
-7
27
-2
1
31
-10
6
-31
-2
-6
-16
17
-2
-13
-12
-10
8
2
-17
2
-21
-4
-2
30
7
-9
3
12
-22
0
9
102
-11
-15
-2
-8
6
-1
6
33
-6
-20
-2
-8
0
-13
-18
-4
1
32
-13
17
28
-1
-11
-11
-3
1
-7
15
8
-2
18
-14
4
-55
5
5
1
-13
-25
-5
6
-2
9
-42
19
11
-15
-15
30
26
-5
-17
-10
19
-2
-3
1
19
2
17
-11
5
9
4
-14
-1
-12
-13
4
4
-5
-6
-8
-34
-14
10
14
-12
11
-16
-7
0
-31
-35
-23
-127
2
-14
22
-23
-32
9
-6
-14
-4
4
2
-15
-10
2
-9
11
10
29
-9
12
-11
-21
-10
10
-4
30
8
-26
-15
0
0
8
-10
-8
-6
-18
-7
4
12
-1
18
-12
-9
12
-8
-4
24
-18
2
-4
-8
-22
-13
-14
-9
-15
-13
6
-6
5
9
2
9
-1
-15
-12
-1
-11
7
-30
-7
-17
3
-21
2
27
4
-11
3
-6
21
-11
-9
-23
-13
4
4
8
-31
33
20
-35
0
2
-11
1
-12
17
9
7
-4
-14
11
-11
-29
31
36
8
-19
-2
-11
-6
-9
-4
12
29
20
-7
-4
-19
-11
-27
-9
-48
-59
14
24
65
25
-11
12
51
-15
-8
46
68
37
-15
27
63
-16
-27
-77
-1
-16
8
-41
-2
-59
25
4
28
-18
-14
30
-11
-16
59
-3
-20
-21
8
-40
-31
10
2
0
-18
16
32
-6
22
8
-104
-53
-15
-25
38
-68
-36
18
28
58
34
20
17
4
-2
-32
-38
-5
15
35
-23
21
-10
79
1
17
7
39
8
-7
57
-65
-5
-24
-17
-127
-35
16
18
-38
-29
-11
-3
-6
-72
-22
-77
62
-8
28
36
-52
18
-39
51
-12
3
-17
-9
30
24
14
-9
91
37
-11
-31
-37
-32
-9
-20
14
-4
48
-48
-31
17
38
15
-62
-94
39
-35
2
-19
30
0
3
34
4
22
-20
-3
6
17
40
-35
-51
65
-17
3
60
-20
-24
-32
36
2
-73
-24
3
-23
1
9
29
11
-38
-92
-26
-17
-24
-26
10
2
6
-10
-7
24
-32
4
20
-64
-21
-18
19
2
13
-36
-35
-43
-60
-4
-51
1
37
19
-24
-62
17
-62
-21
115
10
23
3
-16
-1
30
-31
69
32
39
-13
-7
-8
-46
8
-30
39
-6
-101
2
3
13
-41
40
81
-45
-69
0
35
19
3
-1
36
-33
-39
2
-33
22
-66
-2
-16
-13
1
-1
0
8
4
3
-1
-16
3
-15
-12
12
6
82
26
7
6
11
12
-14
-17
29
4
-10
8
-12
-1
-11
-21
-8
13
-30
-3
11
-40
12
-21
4
-5
-8
32
-16
19
-4
-4
2
13
-33
6
-8
-14
38
-6
-28
-28
-36
6
-3
13
-19
-28
-31
-1
5
0
1
-31
-7
-18
28
-30
-18
-12
-55
-23
-13
-3
0
-20
18
16
-15
13
0
10
-2
26
-7
-28
2
5
-48
16
-7
-3
-4
27
34
15
11
-13
7
20
-23
8
6
17
-5
7
-24
11
-22
-25
9
20
-3
9
8
-12
21
-20
-2
-6
-4
-26
-5
40
-2
24
-31
-8
22
-12
9
-45
11
-25
-3
9
-40
-2
13
-10
2
16
-5
-11
18
-6
27
13
-22
-9
1
-5
-14
13
31
-5
5
15
21
13
0
-29
0
-14
-8
-5
0
29
7
1
1
-27
5
-13
-1
-37
3
9
20
3
12
-12
-30
9
-8
1
2
3
-1
-13
0
-3
-7
19
-15
-7
127
-4
-50
8
-11
-17
9
-21
-12
-4
16
-27
11
19
-10
20
-11
-1
-15
-6
-22
-3
0
4
-13
31
20
-6
-5
10
1
2
-24
-33
7
13
-24
6
-8
0
15
29
10
-19
0
-4
17
-8
26
13
-22
11
14
-28
19
9
-40
-24
-11
15
29
-1
-16
56
-68
-21
2
10
22
5
37
20
7
13
0
-17
16
10
6
17
-20
-39
-21
-5
10
0
-3
-6
-7
-25
-11
34
3
43
-35
-22
-17
16
14
-18
-17
12
-34
-48
-127
-12
16
5
34
-6
-18
10
2
20
-9
-3
-2
5
-22
-10
7
32
6
4
-2
10
10
4
6
-24
1
-16
2
-7
-9
9
14
13
10
9
-2
6
-55
0
-9
-6
5
20
32
-4
-9
-17
9
-8
11
4
-22
17
2
8
2
-12
-7
-4
11
-9
98
22
-32
-17
12
28
-14
-1
3
9
-10
-16
2
-12
16
5
-17
22
-8
5
-22
-8
60
28
19
19
3
-42
-1
12
-5
4
14
-29
0
-5
39
-8
6
-3
-2
-4
-4
8
4
-31
17
45
9
1
-5
9
-25
29
32
-10
13
-9
-9
-19
-27
6
38
10
32
-1
-1
-23
15
1
12
44
12
-8
-32
0
23
21
-8
-19
11
-35
-4
-16
-4
11
-21
24
-12
6
55
14
-3
-10
-11
18
-15
15
-4
14
-32
-8
22
10
2
-3
-19
-25
-33
-12
9
37
-41
-1
2
12
23
-38
-18
24
11
-14
-20
-11
-14
7
32
4
-29
0
16
-20
-44
10
-17
-15
2
-15
9
7
3
-23
3
1
3
11
61
9
-4
1
35
-12
-11
89
88
-20
-48
3
-4
-35
-49
34
-9
0
-38
-27
-10
127
-13
-16
25
13
19
-14
-15
-22
-38
-4
-14
10
39
18
-8
51
-1
-62
36
-42
32
32
-10
-26
44
10
13
62
-3
-12
-28
54
-93
-41
-8
27
-22
-36
-38
-21
86
4
-74
8
-30
-51
11
42
31
42
-26
26
2
-17
-32
-2
87
-13
43
42
-36
-1
-40
-18
5
34
-23
-5
56
-31
8
0
-23
4
-19
-43
18
19
-37
1
-23
-5
-3
-6
-48
19
72
-9
62
-14
-6
38
62
20
18
-19
14
-30
-22
51
21
9
109
-1
12
-40
11
-12
-38
14
35
54
39
-26
86
3
-32
-45
33
-19
-60
71
-7
5
41
-38
30
-2
-61
-9
6
-2
-12
15
15
-85
5
13
0
47
-7
23
-13
24
9
-83
-23
-35
-24
-33
115
-6
-75
-25
20
-5
2
55
-34
3
4
43
16
1
18
19
-32
5
-22
20
-3
69
-51
-24
67
58
49
10
-53
1
24
21
-2
115
-10
45
-29
4
-14
3
4
-24
-8
-25
54
26
14
-2
-20
-2
17
0
-34
17
10
-59
4
-40
-38
-18
35
-30
7
10
-33
15
-10
84
-33
9
80
-21
32
-13
-32
-2
-13
-54
10
13
27
37
-44
15
-36
18
-74
-14
32
-1
-4
0
0
-3
69
-6
-1
1
-5
-4
-15
8
21
22
-25
-15
31
14
-26
10
-44
1
8
-2
26
-7
5
-39
-46
-22
18
-32
26
23
23
27
58
40
0
-13
80
16
-20
23
9
15
87
6
-26
-32
-31
-40
-8
97
-5
-14
14
-12
3
14
-7
13
12
1
-4
-4
-9
25
-25
25
4
-15
64
127
-5
-7
-21
-59
-4
8
80
-15
-33
9
-12
-15
5
15
-37
4
30
15
38
14
13
-6
-17
6
-29
-6
-5
-12
46
-20
47
37
17
-5
-14
2
-26
-10
61
18
-58
51
14
3
-62
8
22
16
5
70
13
26
47
4
-5
-17
-24
25
41
-44
11
-41
-24
-4
-1
-8
-6
8
7
-75
-10
16
-21
17
29
-12
17
51
-40
12
12
-23
3
19
22
30
-25
-16
16
-42
-7
-14
-22
-9
0
-34
-10
-16
-4
-32
27
4
-14
8
44
20
5
-14
17
-47
0
103
6
-61
-2
20
54
-27
21
21
30
22
-18
-1
38
39
18
35
-1
34
27
6
15
-26
13
35
10
32
23
-7
-6
-6
4
24
0
48
-32
115
-43
13
14
9
-33
-43
43
24
-12
-23
3
5
-22
-19
62
-11
49
-25
-24
-66
6
-36
-16
66
28
28
-20
-18
20
-6
-5
4
-20
5
-11
4
-34
9
15
1
-10
1
-12
9
14
21
-7
-21
4
-4
-3
30
17
3
-34
-16
6
7
-3
-3
12
16
-17
15
-15
-127
-4
-23
0
-5
29
0
6
-1
-9
-16
8
-7
-17
1
21
11
41
8
20
-49
-18
-3
16
19
-38
-2
75
-11
-5
-5
-1
-22
5
-28
13
-16
-16
-10
6
-17
-23
11
-26
-17
5
3
-21
31
-22
-5
-8
-23
-16
31
-21
-27
-15
14
6
17
-28
-20
3
9
32
-17
17
6
23
-24
-12
17
-42
-2
-15
-16
8
-3
5
15
15
-10
1
19
1
0
9
-6
26
8
10
36
-26
-14
16
-2
-12
3
5
-4
28
-17
-36
-35
4
-21
37
13
15
-9
-36
29
10
13
4
7
3
9
27
14
-46
-30
-16
-9
-10
15
3
1
1
11
4
3
-8
-25
26
3
-7
16
-20
7
-16
-1
2
-1
27
-19
-30
1
-14
7
-8
4
27
2
-8
2
3
18
-4
17
69
8
2
-19
-8
16
3
36
0
1
16
10
-5
-8
9
-1
11
4
10
19
-4
15
0
-4
-25
-78
11
21
-7
3
-8
19
-14
-12
-47
-22
8
-4
18
1
13
-32
-4
-1
58
12
13
2
-16
-39
7
7
-14
-22
7
-7
-17
-49
18
-41
-90
-3
18
14
19
-36
8
21
-113
10
-26
6
-26
23
-5
26
-33
19
-56
-60
29
-13
31
48
8
23
-46
18
35
13
-41
39
4
-8
2
-7
-23
-9
24
1
47
30
13
44
8
42
51
-90
-71
68
-44
-48
-35
16
7
-9
0
38
-15
-44
22
16
30
91
-53
-8
-40
-17
26
-27
-26
16
-17
-6
-8
21
-42
-12
-83
0
22
6
-48
-24
34
-5
22
3
46
15
13
40
-52
-25
30
-23
-18
28
14
35
55
91
29
-13
31
58
6
68
32
-16
-31
12
-8
-26
-12
23
-20
-22
-11
-28
-42
12
-83
38
-23
14
-12
-74
3
9
4
-4
57
-19
5
11
13
39
0
2
-26
-20
-2
-57
14
7
61
10
-3
13
0
3
-16
-12
-33
-11
6
-61
-11
127
-32
-12
44
-36
-2
5
33
35
-17
-42
-46
-17
8
8
-56
63
15
52
-16
5
10
-4
-40
28
-23
63
-23
37
25
38
15
21
36
22
19
-84
36
-31
-35
-19
40
50
51
-63
48
17
30
-22
9
-18
16
-12
-29
-56
-7
-18
25
33
-7
4
-24
-37
-34
-36
-3
42
9
50
-4
-19
32
19
-48
-1
-13
-24
48
-85
-40
-16
-34
1
-26
39
5
34
11
-18
36
-36
-11
-12
74
-22
17
-18
17
29
-35
15
-44
35
-27
-9
-4
16
4
-8
25
56
9
-43
7
6
-16
-29
5
-72
0
-1
-35
13
5
-21
22
12
-57
23
-6
-4
-16
43
6
-20
-55
24
-4
48
11
-20
10
-27
14
-9
-52
-55
0
13
-124
-11
18
14
-38
23
-8
-52
-24
-25
-4
-30
30
-11
35
45
-27
9
38
20
-38
5
-14
36
-15
-25
3
-24
-23
21
-45
-14
-31
38
17
14
60
16
-9
0
12
3
56
-14
14
-58
5
3
37
-13
-67
-10
12
38
13
-54
-2
-36
-10
-37
47
34
-22
5
44
6
18
17
22
46
-7
9
-5
-43
-6
-84
-12
-44
-30
-19
-69
0
21
-3
21
34
1
-31
-28
-79
-34
-12
55
12
-48
-30
55
-35
-18
37
-8
29
-6
-56
6
4
29
-15
26
-14
61
-32
29
-7
-10
57
30
-2
-5
14
8
17
19
38
22
-3
-21
37
7
-32
-60
-26
19
-19
-40
-19
3
-11
-8
25
22
56
-67
24
-39
-13
1
5
6
-3
-20
-29
-17
-35
38
32
-2
-1
15
4
-29
23
6
-58
12
-17
-6
-7
-3
-18
-6
-15
10
17
6
29
33
-40
56
0
37
-13
8
-3
-41
-35
-15
13
-28
-5
-80
16
11
-19
25
99
-18
-127
-26
-41
52
-7
7
-29
-46
10
-47
98
6
14
-6
9
-49
10
12
-1
-19
-17
-14
24
20
11
17
21
-8
19
1
14
2
-12
5
-11
33
7
2
4
-10
-92
-17
6
2
-1
29
-28
6
-35
-12
4
-10
5
20
-30
127
-7
50
-15
-20
20
14
-4
-46
13
-11
-39
-6
-89
11
-26
-9
-1
-12
7
-41
4
-7
-38
23
-4
85
0
-2
18
18
-12
-13
-13
-2
67
20
-20
-32
-103
17
-21
20
-95
45
12
17
0
-28
-78
-7
-106
64
9
-29
7
-12
2
56
-12
17
-10
64
92
-19
18
-88
7
-15
-15
3
0
-5
-6
41
-21
-5
-18
13
9
-9
16
7
-13
-37
26
11
2
-64
6
-92
-77
-29
-35
18
7
1
45
-3
9
-9
-26
-115
-16
11
-93
45
5
-36
-17
-16
-65
7
1
-8
7
78
26
87
-12
18
-23
6
-46
1
-32
-8
8
-70
-62
14
7
-7
-60
12
18
50
6
28
45
119
-7
-72
-5
40
20
-13
14
-18
-13
-2
5
-62
20
-31
18
-38
-19
19
-16
-17
43
5
53
-2
4
17
-13
-15
-31
56
-19
-22
-71
-2
15
-10
-20
-52
-5
-27
-90
13
-9
14
-24
-14
0
-18
4
-10
-20
6
-96
-13
9
-17
-10
8
-1
106
-12
3
13
-3
-14
-15
8
8
-3
-19
16
7
26
-42
5
2
9
-19
-9
16
41
34
-20
-11
-13
8
21
-6
-2
-2
-9
-38
17
-22
-4
-84
-10
4
4
9
1
-27
2
-6
18
10
14
-20
16
-6
4
5
-26
-18
-12
-22
17
0
113
13
31
46
7
13
-35
9
-5
-1
24
9
6
1
-1
-25
-16
-9
3
5
9
-9
-37
31
-16
21
-14
16
12
-14
60
13
-10
6
-127
2
33
15
-6
-1
7
13
32
-19
-7
-18
2
-10
8
-7
9
-27
-3
46
-8
-16
9
9
7
2
4
-13
40
-20
-30
0
-41
-19
5
-11
26
-51
-5
8
18
-31
-2
-32
-16
37
22
51
40
-1
17
13
38
-4
4
11
11
6
-28
18
29
-16
-25
-6
-3
9
14
11
-3
-17
4
39
-6
-9
5
-50
1
18
-13
12
-10
11
10
-13
26
7
-12
15
-21
7
-2
-10
-5
-27
-14
12
20
1
3
5
-8
61
-3
5
14
-2
8
-25
-3
-17
-12
-11
-15
-36
-8
3
31
19
3
6
-14
25
2
6
30
-10
-17
20
-11
0
11
6
7
-7
-15
27
12
-2
15
-19
19
30
-12
4
-6
-20
14
5
-10
-2
-10
-20
0
-8
-12
-16
33
4
-8
64
-16
12
-21
11
1
21
-7
17
-5
9
-39
-33
-7
-3
1
-5
1
7
-1
-58
3
-1
-12
-5
9
3
-32
14
0
9
-12
10
10
-4
28
23
-7
16
3
-7
-5
-2
-18
-40
2
2
-127
44
-2
20
-3
-3
17
21
19
10
-4
-24
29
3
1
17
-16
-31
1
4
37
-2
-11
0
2
14
-6
26
0
-17
0
-13
28
1
45
-35
-7
2
7
-6
17
17
7
7
17
11
-43
28
-22
-10
-3
-6
-2
32
-17
20
-5
-56
-6
9
-11
1
-10
-46
15
33
-9
19
-26
7
-46
10
-25
-26
12
2
8
3
30
3
2
-34
21
-8
13
10
-2
30
-4
-8
-18
24
36
9
3
10
-6
11
12
-30
10
4
-13
25
-19
-18
-2
33
8
67
1
-5
-57
4
-10
0
2
22
-6
-53
-14
-19
-2
-2
1
-33
5
34
12
-1
-14
-8
11
3
-5
49
-5
-2
11
-17
2
21
6
0
4
-3
56
-5
11
38
-5
-18
3
8
14
-4
21
47
-38
2
-37
-52
-1
3
17
9
2
-1
-66
-8
-4
-17
-10
7
-6
-11
2
28
10
20
8
9
0
14
-18
35
0
8
-6
30
25
-15
-15
6
3
49
-5
8
8
17
-12
6
10
29
9
-21
-11
-13
-4
-5
6
-6
-5
-13
27
23
2
14
-39
-4
11
-23
-1
-6
-8
26
11
6
12
-6
61
-7
16
1
9
12
47
2
8
-11
-23
-31
12
24
-36
4
127
4
0
-6
3
-13
23
8
-6
-46
-18
17
4
6
21
1
5
48
-6
-13
-17
8
-3
-10
8
-4
-10
-34
40
-7
4
-14
-3
36
-3
3
12
-11
-3
30
-2
-4
26
7
-3
-18
-3
-9
-2
-1
20
12
-15
3
-20
22
14
10
-1
-2
-17
13
-4
13
-11
-5
-10
-75
-12
-12
7
0
-2
48
-6
11
3
11
-50
26
-7
41
-16
-1
30
-5
-8
16
8
7
19
-40
-6
19
-6
-4
6
9
15
0
-3
-11
-26
4
2
-20
-5
11
-2
-10
-8
-6
-13
0
3
1
-3
29
-7
15
6
5
-22
-20
-6
-1
-2
5
-1
17
4
3
4
21
8
-18
15
-55
4
-1
4
13
-9
1
21
24
-4
-46
-19
1
10
4
-14
-13
0
13
-29
16
-1
-12
5
-16
2
2
3
25
26
2
25
-6
15
-12
16
12
1
-14
-17
1
-30
-20
-2
-2
9
4
7
-58
-4
53
-3
1
0
2
8
-4
-5
-15
5
-3
13
25
-24
12
-12
-6
2
-9
9
12
-17
-8
-56
8
11
18
35
2
5
4
-14
10
27
13
-9
2
-8
26
6
-20
-37
13
-15
33
24
13
2
12
-33
6
-13
12
-12
-44
-21
1
49
-2
2
42
-26
-28
-51
21
-1
-8
-30
-16
-30
-121
39
7
0
13
-33
-1
-10
19
-6
4
-4
11
20
23
48
-14
-57
-3
12
-5
50
91
-32
4
-34
-17
31
11
-81
23
-26
48
39
-10
10
1
-19
107
28
-75
31
15
-52
-55
32
22
-8
2
13
11
-32
-16
-27
12
-22
69
-6
36
-66
29
118
27
-5
5
-63
65
-15
-52
-23
-70
60
-36
67
69
-33
24
-29
-15
-48
-36
-50
-26
-27
63
36
3
-10
-52
-2
-23
-95
-19
19
-127
-65
-72
88
3
4
-25
-39
53
-49
36
41
-34
12
18
-22
37
-37
-5
-42
-15
38
51
-11
-53
55
30
40
-8
20
32
36
48
7
45
10
-15
32
-54
108
-39
58
-4
17
-21
87
42
4
-29
-53
17
24
19
17
-20
-8
-65
-22
122
-18
17
-36
29
86
-81
-1
-1
-99
54
28
9
5
34
33
59
-65
24
-19
1
8
-9
-7
-61
17
116
-51
10
14
0
1
53
-21
-29
-93
37
54
9
-5
-12
-5
46
-44
-48
27
-21
-41
-20
-48
26
-27
24
-68
-81
-17
-34
-33
-75
30
-11
-19
19
-13
30
-17
-17
3
0
8
34
-7
6
-2
10
20
-1
10
-13
22
-8
-4
-2
28
10
-2
4
-39
-3
-22
1
6
5
3
0
4
-3
-5
117
-3
-4
23
-40
-42
15
-8
-48
23
0
-11
8
2
6
25
-12
13
-10
3
-3
-17
-19
20
5
-10
11
-7
10
6
-4
-47
-5
8
-3
6
-2
26
-21
-3
-15
12
-22
-4
-2
4
0
10
-14
6
-1
-1
-14
-19
10
0
4
-13
-6
-13
-18
0
75
-10
8
-16
-5
-10
1
2
-9
-10
0
11
-8
27
1
33
15
-14
-14
-5
-11
9
-3
24
-7
-16
-10
24
-13
-10
-8
8
0
4
7
1
-13
-10
4
1
1
8
-2
-9
5
19
9
51
5
1
6
5
-17
-6
-8
0
1
16
12
-23
4
-5
-26
-2
1
-7
8
-8
6
-13
-44
7
-5
-7
10
-6
-4
4
7
-9
18
-30
-4
-19
-9
-5
-6
12
16
-4
-2
7
3
0
6
6
-9
-29
-7
-6
-11
-6
2
-3
-4
11
-3
-2
-8
-3
-57
14
-5
11
3
10
0
0
1
-7
6
-7
-23
4
5
7
-12
19
127
15
-3
15
-3
-10
-13
-13
-3
-6
1
-19
-10
2
15
-14
1
8
18
-2
-8
12
5
-7
21
30
-8
-35
-6
33
6
1
6
9
7
17
3
-15
6
7
-44
10
2
-27
-26
-30
37
14
-103
75
-1
127
15
-52
-23
15
-25
3
23
6
40
-6
70
-20
50
7
19
0
-19
8
37
2
-24
106
14
5
20
-18
-3
28
-17
-3
-3
-78
28
-37
-19
-11
1
27
-21
3
50
-10
11
19
2
22
-4
9
0
-7
14
-13
8
-41
24
16
-39
-45
46
13
17
21
-25
16
-24
31
26
-47
39
28
-31
10
-85
19
18
-39
-16
0
-9
12
13
4
-13
-2
-11
-12
-13
-65
44
-24
-3
-39
-18
10
-9
3
11
-4
13
-4
11
-18
-13
-6
16
-36
-11
-15
15
-26
13
-1
-43
-6
-1
5
0
-15
6
-53
15
35
10
20
3
22
-29
37
-23
34
14
-12
15
27
-13
-6
-25
-10
-7
-3
-19
-41
-3
14
-30
-9
21
-30
23
-33
-2
25
51
-22
109
22
-20
11
19
41
27
48
20
8
-11
57
-34
-40
1
67
47
-52
26
-4
49
-4
32
-39
9
-28
-5
-26
-15
-16
-13
18
-32
-23
1
-3
3
6
-3
-23
-6
-11
23
-18
6
65
-5
25
-55
68
-2
17
-22
3
-18
16
57
4
56
-9
25
17
31
22
-28
-1
-26
6
-38
-11
-15
8
-9
38
-18
-17
-4
8
-41
-19
20
-47
-10
-22
-19
-60
-14
22
-34
-23
-43
38
-12
-17
3
11
31
37
-67
50
6
0
-6
15
7
0
84
28
26
-15
14
-30
15
-31
45
-42
-19
3
3
-10
-10
-9
22
59
-16
31
-2
12
-33
-79
2
2
-44
-5
0
18
1
-47
4
-2
-37
17
21
43
23
66
2
11
12
26
5
-26
-40
1
-24
21
3
-5
-4
17
-9
9
-21
-32
8
5
-23
-17
-66
3
-10
18
-8
-19
-42
-29
-17
-14
7
-47
2
-30
25
-20
-21
-10
-37
-33
8
24
6
27
-36
-13
-24
26
6
-10
11
4
-22
11
7
-24
-24
-22
127
12
2
-18
-53
11
105
-51
30
-4
30
7
0
25
39
-5
-39
-12
-5
45
-2
-16
19
0
-21
19
1
33
-6
10
-25
6
4
29
23
32
-3
9
24
-39
51
36
4
-46
-6
3
36
-17
18
-25
-4
27
-10
-17
-8
-4
11
0
45
-16
-27
-45
4
-9
2
46
-36
-20
8
-37
-12
11
2
11
-35
8
13
28
-1
49
86
-6
-21
5
-49
27
-5
10
52
-3
-1
70
-29
-27
17
23
31
3
31
18
5
-14
-20
3
7
-44
50
-24
0
-9
22
-9
5
-5
-20
-3
10
-14
-29
-13
-55
24
14
-34
10
12
-22
31
1
32
-2
-45
7
2
7
25
32
0
6
2
10
-19
32
-26
15
53
-28
30
66
4
-38
-50
7
-24
-7
-12
20
-61
-30
19
46
12
5
-35
-29
-8
-47
29
75
-9
33
-13
19
-43
-12
1
-18
-42
12
26
-4
-22
-21
-51
49
29
-50
37
-6
-36
12
-52
12
29
25
-25
-5
-34
-30
46
-82
32
-48
-10
-30
-51
-15
9
61
25
-8
-61
7
4
-6
15
49
-1
35
-39
-31
-6
6
-28
18
1
-8
-43
19
30
11
-23
-8
5
-23
1
17
-63
-17
-6
-38
-9
13
53
26
-16
-11
-31
8
70
18
7
49
-4
49
-13
-25
24
38
-5
12
34
7
-36
24
-64
56
40
16
9
-13
15
33
-23
-33
21
-43
12
-5
-28
50
-5
-67
-23
13
-5
-18
-17
-19
-2
-25
38
31
-17
47
0
-15
-10
-59
30
44
-127
-18
65
-9
-30
34
-28
19
-26
-29
-58
-11
-11
-109
1
38
-1
-32
-29
-2
-25
-36
12
5
54
-7
-10
-61
-13
20
76
63
14
-40
-17
-17
26
-33
19
-19
55
-9
22
-65
-20
-43
-16
-31
52
32
18
-27
8
-6
78
-56
10
28
-3
45
19
-57
-23
0
12
11
1
38
19
33
-21
15
35
-38
-1
31
-83
4
2
3
52
-33
49
-15
90
-71
-37
8
-4
44
-55
-36
-11
2
-30
14
-13
17
31
-10
-2
25
-9
-34
42
3
25
-7
15
-13
17
-25
15
40
7
-7
-3
4
6
47
-12
8
0
1
-15
-2
13
55
-30
19
-20
-8
-16
-11
-22
8
34
-3
-4
-17
-13
19
-32
-9
1
-39
19
-33
7
52
90
4
-23
-8
2
11
-10
-2
15
10
-25
5
-4
15
127
-40
17
1
-12
-2
35
7
-25
13
11
12
1
-15
-12
-57
5
0
6
-16
-25
-34
-19
9
-1
6
13
-55
42
19
-27
-18
-16
11
-10
7
41
65
-87
12
-2
20
-21
13
-4
11
2
51
-37
-16
-6
34
-7
-5
-29
-4
5
15
63
-6
-2
8
-9
-16
-22
16
30
2
-19
-11
1
-12
0
4
-6
34
35
-15
13
-3
-14
3
37
20
-12
-20
-38
59
-3
1
-37
2
-15
18
7
10
-5
32
20
2
-2
34
14
36
26
25
-1
-6
-26
2
-13
-8
60
-19
16
-32
7
18
13
9
-1
-33
-18
14
4
-47
0
1
4
36
32
1
-14
-12
-2
-16
3
13
16
-82
-2
1
-22
14
-12
37
20
3
7
15
12
-7
13
-15
2
32
12
-26
4
24
-12
-37
32
-3
16
-21
-18
-42
-16
2
-19
9
0
5
-7
-9
-10
-36
-20
22
-32
-22
1
-4
2
-46
-20
-21
12
-6
-14
-32
-20
-2
1
13
-44
16
-2
-23
3
56
-4
-7
41
12
-15
-53
-25
26
76
2
1
-5
5
26
-6
53
11
25
7
-10
-11
8
28
-10
-17
-24
12
45
-27
9
30
0
-47
3
10
-18
7
22
-29
6
1
-17
1
8
16
-30
-19
27
-3
-14
12
-27
1
13
13
-27
-7
-24
-33
-17
0
5
-15
-17
-13
-24
19
66
-12
2
-2
40
-17
13
-14
-4
-13
-26
11
-6
-37
-9
-3
16
4
-5
-34
-6
45
1
-10
-2
12
18
-14
15
19
11
14
-24
3
7
-3
-127
24
4
15
-8
40
-6
-3
6
-4
43
9
-11
-4
-15
11
37
-2
-2
10
34
3
44
-27
5
0
-6
17
17
-41
21
46
50
10
23
-12
11
-32
0
-13
-11
-29
-45
49
16
-19
5
26
-8
-8
-20
-5
-12
25
-8
-8
-3
-44
-3
-12
-2
-2
64
1
15
-12
19
8
-8
22
-30
-10
1
20
-4
-5
-7
32
15
19
-11
72
-25
-23
2
1
1
-12
-11
-3
2
20
33
-33
-34
13
-51
7
-4
-6
11
30
9
-11
5
-2
-3
18
-7
9
9
-23
7
-14
-7
15
6
15
-36
-25
10
1
-21
-7
42
33
36
3
-9
-16
-2
-14
7
31
-1
-45
-2
-13
-14
-41
22
39
-65
-18
-55
15
47
-42
41
29
11
0
-21
23
-49
-35
-40
47
-54
2
-23
-41
-4
-66
-10
-68
-19
-19
36
-49
-50
10
60
22
2
81
-81
28
24
25
-61
96
64
-32
62
-53
3
104
-34
16
-21
-16
-59
58
-56
-105
-14
23
-14
0
6
-118
10
-37
-88
-38
77
-25
-78
5
68
79
58
-10
-61
-68
-16
41
-11
-6
67
-11
-57
-53
-63
-75
48
20
2
-60
75
13
5
22
3
30
56
-36
-95
-2
-10
16
-39
17
-22
-2
-19
-15
39
43
5
30
16
-14
-21
-23
59
-33
-40
41
-34
-44
101
-78
-60
75
-49
-36
29
-54
-127
-58
63
40
-37
-32
-18
-28
-9
-16
11
-15
-20
-15
12
33
54
20
31
38
-17
-66
42
-31
-10
-29
70
-15
-48
85
59
-1
36
14
28
17
-8
-7
-23
11
20
-1
2
-25
-78
-7
49
-27
2
27
23
10
-60
-95
-33
56
-41
0
0
-95
-23
22
39
42
3
12
9
-3
-53
-50
-18
-8
-2
-12
12
19
35
-70
-11
-1
-35
-10
41
48
1
-12
10
-26
2
33
26
-14
-12
34
-14
-49
23
6
27
-47
-10
-24
38
38
-54
59
-31
-101
36
32
8
38
107
5
53
-19
-68
-8
16
69
-28
34
-23
2
-28
-8
-38
-15
-6
-6
24
-101
-21
7
57
11
-103
-3
17
-14
-1
38
-6
-14
-58
22
47
60
8
13
-24
0
36
13
25
-57
-23
5
9
-4
17
-21
32
15
39
-14
45
25
-6
-36
38
-35
-3
14
-41
-5
21
39
9
-17
1
13
-6
-11
47
-21
-20
54
-82
4
7
13
4
-9
16
39
-23
-38
-17
-8
-1
47
-42
32
-18
-63
48
-30
-44
-22
2
51
35
32
55
36
70
5
13
-20
24
-2
49
-11
-4
34
-47
-24
-49
-16
-1
-3
-25
-42
3
-7
-82
-11
71
29
-21
-8
-111
27
-56
40
-26
29
-75
18
-26
-16
39
-2
28
31
9
67
52
-30
42
8
47
-19
-40
35
-15
-7
2
28
24
43
73
-25
127
-19
12
-11
24
34
22
5
6
-10
66
33
15
-34
5
13
-33
3
-52
10
0
41
13
-5
2
-47
-26
19
-17
48
119
2
35
-2
4
22
28
-9
26
8
-27
-60
-38
24
12
57
32
50
26
-18
17
-23
26
-4
-41
18
-4
-34
-19
16
19
8
22
-23
-21
12
12
-10
13
-18
113
12
-33
-5
10
26
63
-11
13
-14
-32
71
-29
67
39
-23
30
-42
-20
-61
83
-20
81
-124
-38
-14
-4
-29
19
16
-37
-37
34
42
-4
94
-68
-53
14
-22
-28
23
3
21
43
-55
-25
-80
-1
-21
-18
-18
-67
3
34
34
-15
-4
-10
6
-51
-117
1
5
75
-6
-9
-29
-21
-6
-98
-38
-32
29
37
-39
-9
-34
15
25
34
50
-13
41
-19
-1
25
56
15
-42
-2
2
34
27
2
-33
-8
40
-5
5
-8
-11
7
26
8
-2
-38
-28
8
0
-20
30
15
-59
15
36
-21
1
31
1
-21
5
0
63
-11
-3
33
-59
-31
39
-30
38
-9
-2
-10
9
-12
117
44
-6
36
-9
31
10
-4
59
6
-34
16
-18
-11
-23
13
-26
24
-42
11
-1
-44
-17
50
-40
-19
-3
23
11
0
36
42
11
-28
23
16
43
19
-15
20
-51
-35
3
-10
-12
-12
-11
45
-5
-24
92
-6
-10
22
2
-25
16
-15
-23
26
8
-14
21
9
50
-127
-17
-11
-21
-15
-43
-24
-4
0
15
-33
-15
26
-29
11
-6
-7
9
-40
-5
-29
17
-11
-28
33
15
75
-32
-20
3
2
4
4
8
29
-5
13
21
-36
6
5
24
-9
0
22
-95
-38
2
26
15
5
-21
-19
-14
4
4
14
-40
-31
15
9
9
-33
56
90
-43
-42
2
-4
-30
-10
-3
-17
14
-53
45
-4
68
8
87
1
-14
7
15
-43
25
-24
39
23
60
19
-1
-15
-26
11
-13
44
25
-24
-25
-5
17
-16
-44
-15
-24
-44
-16
11
46
11
13
6
-3
-63
-3
-37
11
-14
-4
42
-2
-45
60
-7
61
43
-2
39
78
-21
-5
-44
-16
-14
-48
22
-8
-14
0
-41
9
32
-32
70
-70
5
17
-15
-18
20
-44
75
-7
16
-53
-25
57
-11
-10
18
25
38
16
16
-22
42
-30
24
-2
42
18
-22
9
-70
-36
-3
9
-41
-23
-44
-3
25
47
-15
61
-16
39
-17
23
26
-1
-5
-11
-38
-54
72
38
-4
-28
21
15
-28
-59
3
17
32
14
-3
-13
-4
18
-6
-3
-2
-8
-32
-2
38
-22
28
-44
-29
29
10
38
-10
14
9
6
-37
14
20
15
-12
4
26
-10
-15
5
-20
-17
-22
-29
29
12
-27
-10
2
48
-12
20
21
-8
35
15
-4
-1
16
-9
50
-25
-45
22
-40
33
-20
-75
-67
-8
13
99
35
-9
-16
-20
37
2
28
-9
-22
-30
-21
1
19
-8
-8
-30
6
23
-18
11
-7
26
33
23
-48
2
31
23
-42
7
27
7
-2
21
12
10
13
-60
18
-13
-8
-37
68
14
53
-20
37
-27
-35
-37
-15
5
-29
-4
-23
19
-45
30
-12
-9
29
-1
-31
-34
-15
-74
10
-127
13
-12
13
63
20
-16
-22
3
10
-21
-44
30
-13
-72
-34
22
-13
-1
-42
-4
-83
20
-7
28
70
24
45
44
28
27
-31
-26
46
-4
-53
42
34
20
-13
-15
5
6
-20
36
15
-30
82
25
20
-4
-68
-6
6
6
41
42
-5
-25
6
18
-14
-11
-59
-41
-93
-53
30
2
8
57
-44
-8
3
7
61
8
24
-17
-38
16
24
3
21
-3
17
39
29
-49
-74
-1
-15
-5
12
-45
25
1
8
35
-31
-7
5
-26
-18
-13
29
-22
-10
-58
-21
-14
15
-4
-7
1
-18
-44
-43
48
80
-26
13
-12
24
-8
32
4
-25
29
6
-12
-30
1
1
-4
-22
10
-9
-30
-5
-10
32
-20
-2
-46
54
-12
-118
-29
20
-2
-13
39
-69
40
71
3
-95
-4
9
64
91
29
12
-5
39
1
127
-34
-2
-12
-3
-20
-14
-1
49
5
-12
-17
2
-11
1
-27
19
-24
6
-7
-29
6
-18
4
-23
57
48
-31
-6
-11
13
-75
10
-25
1
-1
-7
-35
13
29
-90
-13
2
-6
37
-7
15
52
-9
-45
16
5
-22
-21
-36
22
1
-12
-11
30
33
2
71
0
-37
-31
40
-7
23
-92
-28
115
-11
-19
0
2
-51
30
16
-9
45
-63
82
-80
-33
12
-13
1
17
-14
30
12
25
-38
0
-29
-106
-49
-47
78
2
-14
-41
7
-14
9
3
-58
-2
39
1
-4
8
6
9
-70
-35
-33
49
-16
-13
4
-22
-18
-61
23
55
-16
-4
11
-2
-43
4
-2
-50
-28
76
-32
12
-12
-36
31
-16
64
-31
-53
40
-23
-23
-5
26
54
2
53
9
44
7
-48
-54
-7
88
17
8
41
26
39
-14
-16
-23
-20
4
-13
19
-24
70
-1
0
21
-2
1
-20
37
10
-97
11
-13
-64
-35
-5
17
-3
-50
-28
-37
9
-62
-19
-37
-32
11
30
-56
-8
5
62
-46
-16
53
-58
35
-5
18
-22
25
9
9
4
-56
-38
9
-40
9
12
-4
10
48
-15
-114
-31
56
5
1
-62
-73
26
-30
-30
-3
11
-36
-4
43
22
27
-14
-45
-24
15
34
90
-11
21
-25
-25
24
-38
-13
-51
-83
-19
10
-8
81
74
74
29
1
-15
38
69
-22
2
-30
0
-10
-31
-7
9
-77
-13
-43
-12
29
-56
14
-11
-37
-20
10
39
-46
16
38
-21
34
-24
109
57
1
-48
-61
17
6
-7
40
25
-9
24
-6
8
22
-11
17
-3
-20
-17
-21
50
16
19
8
-6
-18
-23
14
-4
3
127
-22
-5
-48
-39
-29
-4
-29
-1
-39
-20
45
54
-111
-4
-7
13
30
-26
-82
-35
21
58
66
-37
42
12
82
3
-5
7
-21
10
1
-7
5
-35
3
2
-1
50
-20
26
-18
0
-14
-49
-13
-4
8
-3
-65
-1
9
13
41
112
-7
-13
15
-4
16
2
-8
13
-11
11
10
8
-3
6
17
-10
48
-19
21
-1
-1
19
19
7
11
4
-24
-14
28
-13
3
37
-116
1
17
13
-7
14
-17
13
-9
-26
23
4
-6
17
14
-20
8
-54
-7
-32
4
16
-9
10
-127
20
-19
-40
14
-19
32
17
-11
-1
77
-29
13
3
19
-14
-68
6
-37
11
-27
-38
-6
18
-35
7
-3
4
6
4
-58
16
-24
15
-39
9
1
-8
-1
-16
-28
19
12
19
-16
12
-7
-28
-17
21
24
-25
-1
-10
-17
-7
-8
-10
15
-27
-16
16
-33
-2
-12
56
1
17
14
-17
34
11
55
-12
-6
29
-29
23
-37
34
91
11
11
-33
-13
1
16
20
-15
4
27
15
-42
-3
9
3
-19
8
10
44
7
19
2
8
-29
-44
5
4
5
-14
-19
-19
19
23
23
-35
14
15
1
19
13
21
-36
8
3
1
-16
21
-38
-7
30
6
7
10
3
5
11
-17
-13
16
-19
-11
-23
38
-5
34
3
13
7
-11
-3
-21
-17
-33
-12
36
17
5
4
8
15
7
-37
20
1
16
-34
-26
3
-8
16
25
-24
39
-16
9
17
-39
13
-13
-42
39
-28
2
19
3
-7
9
69
-35
20
-7
-49
38
21
-41
-25
19
-30
-28
6
-6
85
-7
-77
1
36
-52
-33
11
-13
30
2
-10
1
32
4
49
-3
39
25
46
5
-32
-32
66
26
-29
-74
-6
-33
-22
13
-72
1
-17
0
-6
20
-66
-40
25
30
-27
53
-57
-23
66
-25
-8
33
-5
-1
-83
97
32
-31
28
-2
-35
78
-11
38
-50
66
17
26
17
11
25
-14
-8
84
12
-28
-18
30
17
-29
27
-1
-84
51
71
-84
27
-26
100
-34
13
45
-17
-6
23
10
-12
59
-42
19
-33
-127
-33
-25
17
-22
23
22
6
-22
11
18
-55
40
64
33
-57
-41
64
4
-8
-77
69
-3
48
19
-4
-6
-37
27
-41
3
-108
50
18
-68
43
18
-41
-23
-45
46
-22
4
19
36
-7
-10
-61
44
-48
-36
-8
-52
-4
-19
-18
-29
8
-37
-2
-83
-22
13
22
-31
-15
74
-59
85
-41
-9
7
38
-9
2
-25
2
8
-16
-63
40
23
26
58
-8
-25
43
31
-17
-7
-30
47
-47
25
-12
1
-7
-14
-34
-42
7
39
9
-96
-47
-53
27
-8
-1
7
-2
8
7
-28
-15
-22
-53
2
-54
28
5
-30
52
-64
-92
-46
35
12
0
63
-23
26
-8
11
-8
6
10
-20
-7
-8
-34
4
19
23
-15
6
28
-12
4
54
17
39
-13
-6
8
-6
-44
-32
94
18
19
40
-7
17
2
-54
1
-50
-20
4
5
56
-1
-35
37
-3
87
1
-18
9
-16
25
-4
-2
-27
-15
-35
26
-11
-2
35
-24
-32
25
10
-3
4
-42
48
-3
-6
-21
4
-19
-20
-7
32
7
-35
-12
-17
-29
3
-26
30
-54
42
20
-21
23
14
-21
18
-28
12
-28
-53
-23
6
-5
59
17
-13
16
127
-32
12
17
-25
-13
4
12
27
-4
-8
17
34
-41
4
-9
-24
7
-26
-24
-24
-22
0
-6
-5
4
-48
-30
-3
10
-23
3
-16
-74
4
7
-3
29
-11
-13
-14
23
46
-12
7
73
3
23
20
19
-12
13
3
-5
12
40
3
17
-10
4
-40
-43
-6
8
5
-33
-22
42
-7
-10
22
-9
36
-43
13
-9
9
5
-31
2
-3
10
9
-8
-4
54
4
16
-17
-37
7
-33
36
-40
-74
21
-59
26
7
-19
-2
-62
61
31
-23
-4
29
31
-4
10
5
-24
26
-30
-14
4
-49
-19
25
20
19
66
48
18
10
-5
-34
-8
23
39
-35
13
-25
-9
-6
6
4
-20
93
-35
0
-8
14
-40
-16
51
13
6
-20
51
-26
-30
20
41
-1
3
3
79
19
22
-12
1
7
6
125
11
-17
36
31
38
5
36
7
54
-28
-41
-1
46
-42
-6
-46
59
7
-12
28
-5
3
5
-88
-44
-83
-10
2
26
-9
34
-11
8
48
36
76
42
29
16
25
10
95
8
-78
56
-30
-11
33
46
45
62
-24
1
27
2
6
49
9
21
27
-18
-27
26
-70
-91
-20
9
1
-22
82
3
-65
38
10
33
79
26
-11
-19
80
-84
22
-30
-81
22
-16
36
7
39
1
-18
33
5
-66
-21
6
-61
-36
11
-6
59
-45
33
-56
-21
-65
20
-10
-41
-11
24
2
-7
19
-22
-42
-47
-10
0
-29
-51
-29
47
-5
29
-6
61
15
43
-27
16
27
-22
-1
4
39
8
41
-95
-15
24
41
15
12
37
-12
74
0
-33
13
-60
15
54
37
9
13
-42
-35
15
-26
-10
5
5
103
24
-32
16
14
47
-68
-11
29
7
-31
-15
40
27
22
-13
67
7
9
31
-27
56
25
43
25
-26
50
-9
-8
25
28
-31
-6
11
47
14
2
-26
6
-28
5
13
11
2
-32
-8
36
-24
-12
-14
-53
-67
-31
-58
50
-29
-25
-61
-74
-27
31
42
-101
-14
-22
-28
-16
-14
18
127
12
-19
35
-68
-79
-23
-18
-2
-37
-18
-32
-1
-58
20
8
-24
-46
2
34
-4
6
8
-9
6
15
-54
-32
-24
2
-2
-4
16
-21
37
20
-5
-4
-6
23
-61
-6
-19
16
5
8
-51
-14
12
30
5
13
-9
-20
-3
-40
-43
-5
-8
2
-7
-9
1
47
-1
-14
13
-27
-82
-6
-18
-54
26
5
11
3
5
-11
-25
5
10
-53
28
0
-16
-24
13
-20
1
-27
20
-12
-4
-26
14
-8
-18
3
-16
23
-34
-3
3
-47
-9
-10
-28
-5
-39
28
2
-20
-4
-3
-7
1
85
8
7
-64
-7
-7
1
-22
15
-26
-20
33
-5
-33
-15
4
20
-15
14
20
-30
-43
38
16
-7
31
-11
2
53
31
3
12
-12
-3
25
47
-19
6
-30
55
-19
-6
-84
27
4
17
-35
17
1
-14
-50
19
17
2
-4
-19
-17
21
10
5
-102
-9
6
-7
-6
-9
-12
-32
-20
57
0
-8
10
26
-24
5
-15
-9
-8
-1
78
-40
15
7
-26
-14
-2
33
-9
-3
-35
28
-7
-31
3
18
-18
-6
-40
-21
-9
16
-17
-14
14
6
10
-23
-29
-41
-17
-26
-2
27
-11
-20
59
9
-21
-3
14
-27
-85
-28
-41
56
38
-41
-21
77
-7
-22
-4
-13
-1
-66
-10
2
-1
-36
-14
-6
-26
18
11
127
58
-3
3
-29
-36
-37
-27
-21
16
-2
24
-32
7
-32
6
9
14
16
15
19
37
28
-8
-1
-11
-8
-11
-31
-21
40
-2
-7
-4
13
73
6
17
10
2
-20
59
12
-37
-47
8
43
12
-5
-16
9
-9
-4
-19
-13
5
29
-19
-103
7
31
8
-1
4
30
6
4
-20
0
-18
-4
17
4
14
2
0
0
26
9
8
-17
11
16
-66
-42
-18
33
22
-12
-2
-22
26
15
4
6
14
-4
4
4
-1
-7
-6
-15
14
-23
-4
-9
-7
60
-7
13
19
-14
-53
90
0
-10
-4
-38
18
2
17
3
16
-20
40
-21
15
-23
4
-12
-12
-5
13
-20
-7
53
9
12
-10
21
7
-14
11
-16
-14
1
-14
-21
10
-55
2
-15
35
16
-5
8
1
24
10
-35
4
1
-24
5
-16
-16
-13
-30
-25
3
44
10
7
-7
26
13
9
6
-5
14
-7
31
-7
17
-9
17
4
-16
-2
5
-10
-21
10
6
0
9
14
20
95
7
21
-16
25
15
-16
-6
15
10
61
5
10
12
13
15
8
5
15
1
-24
-8
-11
11
3
2
20
-7
5
-6
10
3
-31
2
15
40
-4
-3
24
-23
-14
-6
-31
-12
-24
-37
-2
28
-22
-15
-10
-15
13
18
-26
-12
127
-53
9
-32
-8
-28
-10
-8
-9
-6
-4
8
18
-9
-7
4
15
-1
-8
-45
15
0
13
6
6
4
7
-14
3
1
16
-4
8
10
0
8
-3
-17
-11
-3
10
0
-13
-23
0
10
-30
23
3
8
-4
22
-13
-9
-36
-13
-4
10
17
-14
7
-6
81
-16
-5
4
-24
12
21
19
8
-27
17
-19
1
20
-53
-8
28
3
-34
2
-3
10
11
36
-65
-21
0
19
49
-1
-23
-9
-8
21
-1
-40
-11
20
-34
28
-18
-111
-9
-19
-8
40
15
-4
13
-3
-12
1
-38
-15
-6
-10
-1
18
19
-19
-27
-44
5
-21
2
8
23
-9
24
41
-5
13
13
9
-19
-1
-115
4
23
6
-2
16
-6
-39
19
6
-11
8
6
-12
-13
-10
-30
-12
-8
-4
-6
0
0
35
-26
2
0
5
-9
14
-33
25
-16
21
11
1
6
9
-2
25
-25
6
10
31
-6
-35
11
-27
1
2
28
-25
9
-51
3
-14
13
0
15
14
-8
9
57
1
28
-32
17
-127
-22
13
3
-6
54
15
16
15
-6
10
3
-15
7
2
11
18
-10
-15
-13
7
-18
1
-40
-1
1
-12
-18
15
-13
-10
-34
-18
-4
13
-32
30
4
8
-25
7
0
6
14
16
-9
-9
-5
5
-4
13
-22
-30
42
0
52
13
51
60
9
31
-3
17
-3
-53
60
-41
11
21
14
62
-25
-32
36
-38
-5
10
35
12
-76
42
-45
-3
-6
-11
-49
8
10
62
-38
-5
13
5
102
17
115
6
22
6
-19
-27
-57
-74
16
0
106
-14
74
45
-62
-13
-36
16
18
5
-29
6
12
-23
-23
85
41
-5
18
44
-37
-50
-6
63
-5
-4
87
-14
21
-28
-16
61
13
-21
-25
30
34
-55
6
60
11
21
-24
45
12
15
19
-12
9
30
-35
-32
48
-9
40
42
-22
-29
5
-11
-127
-2
24
-31
-16
30
26
-13
-39
-30
-9
-7
-16
4
-7
-3
-66
58
-57
-58
-29
21
-19
-10
6
-27
-34
30
24
5
-41
22
59
-32
-37
-77
-35
-20
1
-5
8
-46
-12
43
73
-13
17
1
31
52
49
20
-14
5
-18
28
-4
30
19
-6
53
-2
0
30
4
-12
-70
-18
6
-66
98
51
2
-18
-7
-40
36
-8
3
-5
36
42
-20
36
-50
52
40
83
-35
27
61
86
-20
89
-83
73
-37
5
-33
-5
2
44
38
-10
-53
39
-8
27
41
10
58
-27
1
58
-21
20
-35
24
-13
14
-26
62
6
-96
-43
26
9
52
-3
23
-21
15
6
-26
-20
-33
29
-49
27
-17
54
-2
18
-24
78
-51
-3
-45
-53
-24
-2
-22
-53
21
19
-7
35
-24
0
-49
36
2
37
-21
47
-40
15
-26
-28
26
-27
-13
-30
-5
-6
4
-58
-10
14
2
4
12
-14
-46
-26
-54
-127
-26
-8
-20
-54
7
62
8
-20
-5
-63
-9
56
-24
55
9
11
42
-34
14
43
12
-31
-79
-12
-17
-2
-58
5
48
-27
8
-25
14
-68
6
-30
-35
2
-40
-55
-27
-10
-7
-43
22
-10
-38
21
-23
19
60
-3
-19
0
52
-59
-15
37
-46
-45
-11
21
-9
12
-40
-34
9
-20
26
-39
-13
-21
41
12
-3
-10
-41
-19
-20
14
15
-22
12
9
-15
20
2
-16
20
0
32
17
-20
-69
-11
13
-31
-30
-32
23
-23
-26
9
24
-26
-17
0
59
-6
33
16
8
-4
-14
-29
-25
-2
59
31
3
-21
-16
-25
40
16
-25
-19
-52
-45
32
17
-67
13
-8
7
-8
3
-24
53
15
6
-15
-2
-39
10
20
-23
1
-14
-101
23
18
18
-48
75
38
6
5
26
-46
0
-27
37
4
52
5
-51
-71
-8
-12
0
33
-33
7
19
11
-15
-26
43
19
1
-11
-1
4
-28
-24
20
-30
-30
37
26
1
26
30
17
-52
-7
-37
4
-40
54
-60
-18
-49
-59
1
6
55
-4
-29
26
6
28
-1
14
-6
-4
-27
-8
-22
2
-5
8
-6
-10
-16
-27
-7
-11
-1
31
3
-25
-21
-34
35
-9
-29
-5
0
27
-29
16
-5
-12
2
4
-17
8
0
-9
-11
15
-33
3
-33
-14
11
-10
-34
-7
14
8
7
-60
-11
-2
-90
-8
-6
12
-51
-28
-34
-8
12
-19
21
0
-9
-27
-36
24
31
5
-9
-19
-12
-9
0
-16
-3
1
-16
13
-26
-58
4
12
-17
17
-2
49
7
-28
23
26
29
3
4
-13
-20
17
-13
1
1
-6
-33
-53
-42
10
-16
-19
4
-5
41
17
19
-10
-5
17
-62
4
-2
51
9
24
-29
4
-4
18
-7
-5
15
19
15
-22
14
29
41
17
10
42
-31
51
33
4
8
-26
-3
-18
-2
17
5
-41
4
12
-6
-36
-18
-10
-7
-10
4
-2
-19
-17
13
7
20
16
1
-8
11
12
-18
-2
-20
7
9
14
-34
6
-7
33
-20
4
-5
-3
20
-8
-43
-15
-1
0
-58
-51
-2
-31
-33
-15
-8
-1
-2
8
4
127
7
-21
0
-91
28
6
12
-5
30
-72
-11
5
-16
41
-23
-8
6
3
-18
30
13
0
35
-12
20
25
-17
-10
3
20
18
-14
24
-10
-7
-4
-7
11
14
7
51
16
4
5
-15
1
15
-8
11
8
-12
19
-61
2
23
34
-68
32
-7
-11
20
11
42
41
7
122
-15
-9
9
-12
40
-3
44
3
2
2
28
-15
-22
-20
38
-6
12
14
-13
-27
3
-13
33
-14
-3
47
-57
4
-36
0
22
-40
-17
-4
-6
-44
-10
30
-14
2
3
31
-3
-16
-10
-2
-28
57
-17
8
-29
-6
-1
2
-18
29
-16
28
-122
17
-20
-72
0
-26
-3
-8
5
-16
-24
-1
15
5
56
10
-24
-6
-33
-92
-11
-28
22
-29
-18
9
2
-45
-10
-7
-68
21
6
14
-10
-12
-15
103
-26
-39
-59
10
-43
-23
18
13
12
-33
0
-23
-34
-33
2
11
16
-33
-21
-16
-33
-30
-10
2
-34
-10
24
-17
45
-46
6
17
97
-29
36
12
-8
-64
-6
-2
-13
1
6
6
-1
14
5
-14
5
88
-6
-21
-2
-41
0
51
-18
-13
-31
7
12
-5
-2
29
-63
-40
-7
-47
10
-15
-25
-16
19
-30
-2
-11
-28
27
-14
-12
-1
-23
-10
-5
-25
-1
-9
25
5
-26
-73
-25
1
-14
-1
23
39
-20
-30
5
-127
35
-11
-47
0
16
38
10
7
-2
6
-32
1
6
-3
9
-21
-23
-61
-5
34
86
15
3
-4
-44
37
13
-18
-43
-21
-36
31
-71
-7
23
-3
47
-24
5
-9
-14
-9
14
1
27
-7
66
83
32
19
-54
-4
13
-12
1
-48
38
-41
70
-10
-23
-26
-4
36
-11
42
11
-11
-49
-36
9
-35
-46
-15
-29
-26
4
38
14
24
-60
3
-27
-41
25
5
10
41
12
15
-22
-20
1
-49
26
24
49
76
-7
-87
13
-17
-12
-11
18
-40
12
20
57
-36
16
-18
21
-37
-59
-16
-25
-53
-18
-43
-56
1
-54
15
21
10
26
123
18
45
21
-68
-22
8
42
-31
-8
-31
-12
9
-16
-13
12
30
-33
24
127
48
13
-56
11
-14
-31
-7
-16
31
4
31
-31
18
-7
-3
-18
-61
-7
30
20
-20
9
8
-1
27
11
-8
19
-5
-18
50
-6
32
53
28
-7
-52
36
-14
42
5
6
-49
-39
-31
-11
-47
-53
-13
53
14
20
9
8
-2
22
-4
-9
54
20
7
24
-10
20
19
7
43
28
4
28
3
-9
-8
14
-40
29
-32
52
-17
-14
-75
14
4
-19
-15
-2
-9
-37
-31
31
-32
-65
48
-32
-42
37
-2
10
-33
-41
-4
-95
61
-70
51
-69
4
15
-59
-14
9
-7
-24
-8
23
-8
9
28
27
-15
-26
9
8
67
-14
-25
-49
-12
-32
-14
-32
7
96
9
53
-2
65
-5
18
6
-3
22
37
31
27
-2
-57
2
-8
11
-54
-33
33
36
-26
31
75
-10
-26
-40
14
1
-72
9
4
-9
-38
-2
-4
36
28
-37
4
-14
33
16
17
-52
16
3
19
3
9
8
9
-22
45
27
-1
-33
-16
-3
20
9
-22
-5
-32
9
0
6
0
-14
15
7
-55
30
-54
-37
-37
17
-14
-35
-43
25
-8
-2
15
7
25
14
44
-1
2
-12
-5
5
9
-29
56
-11
-15
56
-12
-73
-1
4
1
6
3
-23
2
13
5
26
-12
-21
101
7
-38
-78
65
37
-26
-3
3
-15
-56
31
78
42
-46
-21
5
-7
-5
31
14
2
-12
-63
-46
-11
34
32
16
-24
11
-12
-11
-16
-75
35
-18
48
-6
20
12
-12
-8
1
-4
-24
19
8
1
-38
7
4
-43
36
-1
2
-29
7
-43
26
15
4
23
110
-3
1
40
63
4
-29
-4
3
-46
8
6
17
17
-74
8
-35
-5
-31
-29
16
-58
-5
-22
-8
-28
-38
-44
14
3
6
-30
5
-44
-1
-3
4
-3
-73
6
71
-13
17
8
-12
10
-25
-12
-10
11
-31
26
-31
28
-14
-17
15
-25
-1
-18
11
-49
-7
-4
20
-12
-81
-21
-36
-1
-27
-66
-3
7
-13
-28
-37
-29
-2
-57
37
-8
6
-20
-7
-11
4
11
-15
-18
4
66
-18
-3
-31
-3
-8
-22
-127
-5
30
32
-15
0
-24
-36
57
4
99
8
-22
-14
13
-19
-91
4
33
-29
-10
-42
5
-31
9
6
40
-23
-31
32
6
-13
-36
6
-36
70
17
-17
-40
5
11
-20
3
-12
6
-4
28
-29
10
-22
-10
65
-4
-56
20
-25
79
-4
-31
-19
-33
-16
28
-3
39
-14
-46
-6
13
44
6
24
10
2
11
-3
-3
4
14
20
36
-11
-35
10
15
-1
-76
59
-28
-12
-21
27
-32
-29
22
65
103
-20
-46
-12
-35
-20
5
-21
14
-9
-6
-37
124
-42
42
-18
28
43
-5
12
1
12
45
-15
22
7
-78
-9
-3
-68
-15
-29
-18
22
-2
-39
-26
-34
-27
-18
5
-36
3
4
-22
-13
24
8
6
1
30
13
5
-8
-43
9
25
34
36
-42
62
23
55
-20
-14
40
-49
-6
21
-2
21
54
-50
26
-11
-20
-40
-16
10
8
-3
-67
5
127
-17
8
17
-107
-17
-29
31
-47
-12
-26
0
-32
33
-1
-9
-31
35
5
-94
-2
30
-24
-51
-17
-53
-38
22
-57
15
8
-12
-25
-30
-9
17
-4
9
-115
29
-36
-13
-1
47
-26
-23
-7
-12
-34
-61
-9
12
-38
-5
-27
31
-29
-41
22
-5
-52
-42
-32
0
-49
-27
42
-40
-24
22
28
-2
54
-15
5
35
-45
-42
-11
-17
-46
-27
15
-6
-35
11
-8
12
31
-2
36
8
19
1
-8
63
-2
15
-25
29
10
14
-36
36
-14
22
-14
-21
26
8
10
-39
23
-27
12
-33
-1
11
11
14
-13
-4
-27
-14
-46
4
-57
2
33
-32
-50
-21
-7
-3
14
-22
-3
-32
20
-4
-25
-61
0
-1
-8
-28
-2
-25
-13
-26
5
37
-20
19
-53
22
-9
-12
-28
-4
30
0
-14
-35
-54
19
46
52
127
-40
7
7
-30
26
-2
6
-46
17
49
56
-36
-10
2
-8
7
9
-14
-15
-42
5
17
21
-28
4
2
-70
10
-15
-9
-35
0
-8
-52
-39
-23
-12
-3
14
-14
-33
-13
-4
-1
39
-21
-1
-39
-6
10
-34
50
28
26
-19
27
10
9
1
1
-19
33
-26
-5
23
44
40
16
5
53
15
19
20
7
40
27
-68
-2
-13
-26
15
-23
9
9
-21
-29
-28
22
-36
28
-26
-27
-14
10
22
55
0
-16
41
-13
-31
-44
-73
18
27
9
-10
21
29
8
-60
-24
6
-24
29
-48
-32
-31
-10
5
-32
-42
11
-12
7
-50
-5
-120
-20
-27
-20
-45
-4
-9
-10
-9
-8
-9
-98
-23
8
-17
4
-11
-24
38
-24
0
-28
-4
-12
-21
26
-4
-14
-36
-1
-28
-24
111
-40
-11
69
-8
1
-13
1
-17
-8
-16
21
37
3
-14
-19
9
-2
-12
20
-28
1
-6
2
15
18
8
-13
-11
-28
7
9
-20
2
7
4
-6
8
21
17
-19
-25
-14
-2
-14
13
-11
-10
-54
-6
-28
-7
2
1
-67
4
-83
55
-23
19
-45
-16
-5
-24
-9
30
16
-35
33
16
-4
-3
-17
28
0
9
-8
23
3
43
-14
-72
17
-26
-13
13
8
2
-8
6
-19
16
-13
11
-14
-34
-13
9
-2
0
-17
20
-37
0
22
19
5
16
-34
31
20
-8
-14
15
-4
-63
13
-6
46
-9
-29
-48
-21
-3
-23
-4
-20
50
-10
-20
21
21
-7
19
-6
7
-5
-11
-9
79
26
-28
-15
5
10
-23
25
24
-20
-21
-6
-3
6
0
-13
40
-6
-6
20
-37
3
13
-22
9
25
2
15
-18
-35
-7
75
-71
20
51
-91
50
8
-1
63
-21
-37
-8
-3
-15
-9
11
42
39
17
-39
6
24
11
-13
0
-28
-9
15
1
82
-44
-35
3
-23
1
26
43
-55
65
-13
17
25
20
7
-12
-13
-4
10
-36
-82
11
43
-19
7
13
25
15
16
-127
6
-43
-2
13
16
23
9
9
-17
50
-21
14
24
3
47
2
2
0
-19
8
-36
8
-2
14
-37
-1
-17
20
47
7
-2
-3
-11
-6
36
-10
-77
27
13
1
29
7
-15
4
-11
-5
-18
0
-13
14
3
-3
-34
11
-21
-2
20
-7
-2
-13
-17
5
13
18
-26
24
1
-4
6
-41
-13
-7
3
12
-16
-39
21
11
39
2
10
4
4
19
-6
-7
-4
10
17
-4
39
23
37
15
-22
-7
9
10
42
-17
21
-26
-4
-6
-13
0
14
10
8
-1
-30
23
-7
24
-1
-16
13
-8
8
-15
-26
14
-50
2
12
7
-6
-2
-29
-33
-2
5
-64
-18
-20
6
12
-6
-2
0
-7
-7
-62
0
13
29
-8
-24
13
21
16
-3
3
7
19
-4
24
-4
-10
13
6
-6
23
-6
3
7
-9
49
9
9
14
9
6
13
26
8
3
22
2
-39
2
-1
-7
8
-65
4
10
127
-18
-11
-12
-16
7
12
0
-17
-8
-11
-5
11
-9
-6
-55
-3
16
0
5
3
5
-1
16
-7
-18
3
24
2
14
2
11
-9
1
24
18
14
2
-2
-3
-3
0
4
-2
17
10
58
13
-16
-4
13
-6
-15
-3
20
-4
-2
5
18
-8
10
-8
-13
-16
6
8
11
-18
0
-9
3
8
-7
-6
22
-8
16
-7
-27
-11
-23
-1
-4
27
-20
17
-13
99
-17
-6
-71
2
4
-2
6
-19
-19
-17
11
-4
-33
-19
45
-40
-18
5
81
19
-29
33
7
-56
2
-2
56
51
6
-9
-15
49
3
13
8
-28
34
-31
9
5
-12
-20
-23
-9
39
30
16
-11
4
20
14
13
-25
-11
1
25
25
22
-79
2
-13
-18
-16
-6
-69
7
-38
53
-27
19
12
41
-37
7
22
15
-44
-9
13
78
-6
-29
-44
0
7
-19
-4
28
6
2
-33
10
-42
18
-24
33
15
-1
-27
-4
-63
31
-25
2
-39
2
24
-47
64
8
-40
-9
-50
5
38
-13
20
3
-45
-2
-19
6
17
-39
-31
-87
-4
-28
-75
-35
47
52
14
-30
4
-22
-35
-33
-12
-2
-31
0
-10
30
-13
-39
-21
-32
-40
-45
-27
-48
-35
-51
22
-8
20
4
-43
-7
-66
14
3
-26
-32
50
13
-32
3
9
19
-16
-8
11
-9
114
-10
30
4
127
-13
-44
-10
-18
-24
40
20
-13
51
33
-54
2
11
-12
-52
13
-55
23
-42
5
10
-59
21
-74
-19
-21
8
-35
-55
-18
-12
5
-2
-14
-22
-6
42
-38
-25
-10
-52
-25
37
5
-6
19
29
-68
9
-18
-1
-2
20
-15
7
-10
46
5
-10
-22
-13
29
-10
-11
-59
8
41
-58
-21
51
-47
20
27
22
-7
-23
4
-7
9
-48
-14
-26
9
-9
-40
-24
-35
-16
42
-33
24
-4
48
63
-51
-60
1
9
65
-26
21
-49
-3
11
21
-4
-6
-55
-20
-46
-13
47
60
-32
-16
3
17
17
46
-37
-14
2
18
36
18
3
15
10
-21
11
-19
21
30
11
-3
25
25
18
4
-13
48
-19
-51
-15
-10
17
-2
-99
-48
113
4
25
-59
-14
-116
7
-18
-63
-2
43
0
-58
-15
-17
-8
10
-41
0
-94
25
-15
9
36
7
19
12
15
-7
19
-18
9
-78
-38
2
10
-3
-32
-28
-28
-3
41
-25
-50
-64
-43
62
-4
-78
0
-11
44
0
-20
18
44
-76
-68
26
-46
-3
-14
19
43
17
-3
-5
21
10
-15
29
-12
-5
-24
19
42
1
-13
-83
-74
17
-30
-61
68
8
34
-47
-5
5
-27
47
-4
69
43
7
23
-1
-4
25
2
-29
0
31
1
-39
-11
73
-10
21
-8
36
-45
-32
-32
-8
-20
-19
1
-73
-15
-113
97
12
26
-62
-22
-74
-38
72
-21
79
13
-45
-127
-12
8
16
21
-7
5
27
21
-21
-9
-39
-17
-69
1
12
30
-13
-69
-36
-61
79
-6
10
34
-5
-18
-22
-10
-8
-5
27
9
-2
-22
26
41
5
-52
-39
9
5
-10
-102
-33
-31
100
-11
-6
-73
44
1
25
-15
32
-40
1
-25
6
-6
-25
49
83
4
-98
-68
27
52
-9
-9
-1
-11
0
-13
-9
-3
-14
5
2
-5
7
15
10
12
107
-1
15
7
-8
-50
2
5
-9
-10
-3
15
-8
6
86
-5
21
-21
-1
2
42
-12
-8
-8
3
0
10
7
6
-8
2
-14
-16
10
-8
-10
18
1
4
8
15
4
3
-15
-1
-1
12
1
-1
-15
34
12
13
-1
-1
0
-1
12
4
-7
-9
-29
4
-3
-3
-8
3
-6
-15
-5
-1
0
-9
7
-32
0
11
0
-16
1
6
-1
0
-4
1
-17
-1
-21
-19
-1
0
3
5
-6
3
2
2
-17
18
7
5
-46
-9
9
4
-6
0
15
5
10
-1
7
-9
-3
5
-7
-11
11
3
-7
-12
-4
-1
2
-4
18
7
-6
28
-1
1
4
20
21
10
-28
0
-10
3
5
-12
-13
-8
-10
-4
6
-9
-4
0
3
4
-18
3
-127
3
24
-1
-3
-16
7
-9
-13
16
5
-6
11
-24
2
1
-6
3
3
8
13
-12
-3
-11
5
-9
0
-13
0
-11
10
-6
5
-2
-12
-6
-15
4
-2
9
-2
4
-13
-39
1
-15
5
-9
-5
4
14
4
-13
1
0
-5
67
-7
-4
10
-1
9
-5
-11
-14
-4
11
-2
7
1
7
2
-13
-13
-8
19
6
7
-2
7
9
18
1
-6
-7
0
-3
-31
-11
30
-16
-1
-9
-3
-10
8
-52
-8
2
12
-31
0
-32
30
53
-45
6
-19
-28
-11
-12
-20
-12
-13
-9
-8
-8
-4
1
-3
-4
3
9
-23
-12
-8
2
-17
-2
2
4
-9
2
0
8
-13
-6
20
31
-16
9
5
-7
3
12
-6
-11
18
-3
4
-4
-18
14
-13
-7
6
-9
-44
-9
-5
-22
-14
35
2
-10
0
14
-16
-2
-10
18
28
-5
9
14
-35
-8
29
16
-14
2
21
-9
48
-33
2
-15
42
12
-7
-9
-16
-7
-17
11
-20
11
-12
26
2
16
7
12
-5
-3
30
4
3
2
-6
-7
2
-11
-43
4
12
-33
19
45
-17
20
29
16
10
-15
-4
14
-27
-10
38
7
-10
-15
127
-14
40
9
45
-8
17
17
-14
-3
22
-57
-31
-50
-17
0
11
-58
-7
11
1
-21
-22
9
-30
-2
1
-29
7
-11
-24
-2
-4
8
-28
-19
-2
10
-39
-9
-1
5
6
-5
34
-11
21
-9
8
4
70
-2
-11
3
-6
48
10
-27
-40
-21
-34
15
2
-32
-8
23
3
-3
-20
17
-21
-10
-38
-2
4
17
13
-11
1
-22
-15
18
-18
-4
-24
52
5
-4
15
-7
8
3
-10
-8
-4
17
-34
-30
-17
-36
3
6
-9
11
-74
-13
-64
0
51
-5
-6
30
15
4
-26
-27
-11
-12
-34
-6
2
9
-14
-1
-1
-9
-12
-49
9
-1
0
11
-23
-32
1
14
-36
6
-7
41
54
48
-8
-38
-30
-17
-29
-49
10
-21
-7
11
0
4
-53
-3
32
-20
65
-18
31
-5
58
-26
-69
5
-71
7
-27
-41
13
-11
5
-34
21
36
-5
-20
19
-9
-68
5
-24
10
-32
-26
80
-42
-30
18
-39
-4
-29
16
-39
-6
3
62
35
13
28
-21
-5
0
40
1
-12
-14
-37
-6
3
5
45
23
-24
-19
28
-14
4
8
-14
-5
21
79
-56
-24
-20
127
-30
24
-41
53
-14
61
7
14
25
30
25
-39
28
1
67
-18
-3
1
-3
35
-5
-2
-21
-2
-18
36
9
6
-11
-40
1
3
-27
72
-17
33
20
-18
19
42
72
25
25
-17
-30
-37
-24
-36
-4
-57
-34
28
-12
61
10
-41
-21
8
-20
25
-35
7
-2
-24
-23
-10
25
-27
12
-18
58
-15
-65
-18
47
13
20
24
50
-43
-17
48
0
36
-14
-42
-45
-1
13
-16
8
-49
-2
3
-4
-23
-78
-18
30
4
14
5
4
-44
-12
-2
-16
-19
17
-28
40
-13
4
8
30
-10
-9
5
-45
-10
37
6
-2
40
7
-10
-35
-30
-38
-7
63
-22
-8
-44
-15
0
2
-22
34
-15
-23
-12
10
-50
17
32
-57
-30
10
72
-21
16
78
-46
26
47
-5
-37
-91
18
40
-17
80
-62
16
-9
16
30
14
-12
-21
15
17
-43
27
-39
-12
-51
-61
-22
-22
62
4
7
13
-8
-17
84
17
35
17
-14
20
-92
28
-1
-13
58
-15
47
-7
52
-18
-46
27
-32
32
21
-2
-20
-9
27
-9
21
-18
-3
51
95
20
-56
32
37
-84
61
12
-82
16
11
10
95
-6
-35
26
58
81
32
59
-16
-81
-4
8
-83
-8
-72
-26
-61
62
88
57
3
-17
1
-7
9
-13
-4
-16
35
33
-10
57
17
-8
38
-49
55
-69
45
-46
-22
25
44
-31
45
76
23
-13
3
24
-37
-47
-19
18
43
-59
-12
-39
0
28
35
-18
16
46
40
3
-102
17
-23
71
31
45
-11
2
37
-10
37
18
-25
28
-18
-54
83
-17
11
30
63
25
-21
-46
74
29
-22
6
-3
51
-2
-9
-15
-9
9
3
-36
62
30
-4
-42
21
5
-55
-13
-42
-60
-27
-16
10
44
7
-8
-15
41
29
2
3
-46
-11
-3
4
33
8
4
-8
40
66
4
115
-17
40
-65
16
13
-46
-52
10
-6
10
-17
-27
-22
127
24
-17
50
-4
-94
46
-29
4
-38
12
-85
-34
-71
-48
44
-30
-49
13
-13
6
24
0
9
71
-4
2
84
20
16
-12
-11
-3
-53
-22
-34
-11
1
-8
2
-87
-39
-68
26
7
-15
-30
-14
-27
7
-4
-16
7
-38
-8
7
5
29
-7
-14
-6
26
-26
-36
10
11
0
-9
18
13
-51
30
-27
3
6
22
28
3
-4
13
-10
-38
12
-57
10
27
-25
5
12
1
-1
3
7
40
-48
34
127
45
-1
-37
15
21
20
49
-15
-9
8
-43
36
-10
-23
-22
29
-10
8
-2
44
-1
-3
-11
24
-10
27
-35
8
45
37
23
67
18
-6
-29
-5
49
10
39
-9
-65
-21
-19
22
0
7
32
13
-20
14
30
16
8
-23
-62
-8
99
-37
14
-23
-11
18
-21
-8
-23
-62
-40
6
14
-12
-42
36
-15
29
13
16
45
33
-23
20
-1
-22
11
-8
-57
64
17
49
-28
-2
-21
15
31
10
1
-19
8
-27
11
-3
31
-8
-11
-12
-7
-4
15
7
-18
9
1
41
-15
-9
19
77
39
-17
-10
-33
-1
2
-6
28
30
75
29
-37
-48
9
-14
-7
-3
-14
-9
-15
-11
32
2
4
4
22
-75
21
-33
56
28
24
27
27
122
21
-47
-22
3
10
19
37
16
12
-1
10
8
67
-45
-6
-39
-13
-26
15
14
33
-35
-35
60
67
5
80
16
25
-46
31
-2
69
-31
-37
27
2
3
9
2
30
25
78
-25
36
2
-2
-11
-25
-4
-42
27
20
-21
6
26
24
17
4
14
-20
67
102
-47
9
1
-1
30
-29
-8
-6
7
-54
42
10
-3
-17
-7
-1
-4
18
15
19
-5
-5
8
1
-1
33
13
1
-17
-21
-4
28
45
4
34
6
-2
-3
-21
97
-69
-54
-13
-82
74
23
-15
11
24
-12
49
-21
-105
50
9
-5
-39
-57
22
8
61
67
-68
-11
-24
-1
-22
-22
-17
60
0
-33
-127
-3
-52
-21
-58
31
-1
-16
-19
22
-33
13
-19
15
-114
53
27
-2
52
13
-6
16
-11
40
-25
-16
-26
-25
-37
-37
18
18
-22
43
-24
-4
10
4
-42
46
77
-18
13
-83
44
63
-80
-16
-15
-85
37
-94
-57
45
-48
-2
-19
45
56
40
-4
-32
-37
-5
34
-50
-112
41
-1
-11
-22
-24
12
-24
-20
-14
-5
21
-3
0
-15
-66
15
-49
-1
51
-31
-1
99
9
-1
56
16
36
-2
46
-43
16
56
-18
-1
-14
-28
48
-23
-18
-78
28
8
-30
33
2
-35
-35
-33
-116
-22
-14
6
-76
-32
75
7
-58
-17
-72
53
4
2
-5
21
48
-42
-8
26
25
-13
-41
23
-36
37
-28
7
-64
-8
-30
26
5
-12
-58
9
-8
-5
-10
-14
6
43
10
-14
7
-56
-11
-28
-87
-56
28
1
6
16
13
9
-16
8
-50
13
-39
-24
-4
-19
-24
78
8
-42
-7
-24
-14
-9
24
-3
19
10
-4
4
-9
5
-17
7
-33
-20
5
-5
-8
18
15
-36
-8
76
-13
6
49
46
-16
-9
-28
-33
21
0
-20
-3
-5
-19
33
21
-25
21
-22
-12
-15
11
4
-73
-4
-7
26
-17
-16
-33
0
23
12
10
-21
31
-35
4
-41
-23
23
-3
-10
69
-127
21
4
44
-17
-18
-37
-17
-9
25
-18
17
-13
-24
13
5
-3
6
8
48
29
-9
10
-33
3
0
-16
-13
-40
3
-27
-38
1
0
-18
15
35
-5
9
36
9
-32
-5
27
33
19
-4
18
11
90
-16
62
9
-22
-33
-8
-20
-13
-10
48
9
-7
6
-13
38
43
-32
-33
0
-1
-3
42
-28
20
-22
-41
6
3
-17
-2
35
-19
-10
18
22
32
0
19
-14
-2
6
0
-49
-2
3
30
-5
-11
36
-30
3
-15
8
-2
-5
-7
4
78
3
11
18
-10
-22
4
13
0
-3
-4
42
21
0
1
-24
38
-26
17
-25
20
-2
25
-8
6
-111
32
65
0
26
-15
20
15
1
5
-2
2
13
42
-50
0
-4
3
-73
68
-18
-35
28
22
-16
1
43
30
5
17
-15
-13
-20
-80
30
28
-20
30
33
-8
3
-19
-39
-9
-2
-9
4
-13
51
42
-15
15
-7
16
4
-31
-63
29
-28
10
-5
9
-30
8
39
-47
28
2
-23
31
-10
4
-13
55
-19
-14
23
6
-47
-6
7
-12
53
6
-8
44
49
-18
66
-23
50
13
20
86
-11
-34
-36
26
-12
-91
8
89
5
-3
25
19
-2
28
-21
-4
66
-39
-8
-8
-21
29
27
-2
72
-2
42
10
-12
41
5
41
-29
-9
38
35
-37
16
-11
-9
-31
-38
0
-38
12
-40
-59
-16
18
34
127
17
29
75
-12
15
-40
-17
17
-1
4
3
-28
20
-1
-20
-47
-8
31
-37
10
20
10
-3
46
26
25
6
0
-13
16
-50
-55
-38
-76
-2
46
-32
32
8
-10
-30
37
13
-15
24
-25
37
17
4
-3
-25
31
2
2
9
-30
-2
-40
1
-23
39
-24
-4
-11
30
-45
-1
15
-28
37
-8
42
5
-39
45
12
6
-39
15
38
31
111
-33
31
-114
-14
6
35
20
-2
-35
-4
8
9
-8
-9
-40
1
-96
33
7
47
55
-9
36
62
101
9
3
16
25
-6
-54
15
-1
-15
59
-27
25
57
-12
10
-23
6
18
-12
-19
-72
19
8
56
-3
-4
29
-43
-12
10
-22
-22
1
-20
-22
26
-18
40
-28
-11
11
116
18
8
5
-25
-47
-26
27
32
-86
9
-2
3
63
13
-51
-39
8
7
-53
-26
30
-65
-13
67
12
-29
13
7
-16
45
14
-3
19
-25
-9
-28
38
106
-29
-18
-9
-45
14
-21
16
-32
59
-30
-52
70
55
-59
-15
-27
-35
-21
-14
-21
2
-42
41
17
19
-37
-16
-8
-9
-50
27
93
-10
-53
46
-8
-11
48
-39
-18
-43
-23
65
-51
-28
-28
73
-52
-10
-50
-75
0
10
-127
-60
25
-27
18
-29
11
24
-6
33
1
1
10
-5
-24
26
-4
35
-15
19
-32
-23
-101
-50
30
-48
3
12
-33
85
-17
36
-14
45
-12
-17
-52
-15
-7
72
88
10
2
-9
-4
4
97
6
-7
-13
62
-15
-4
18
-73
11
31
-34
-7
65
8
37
3
-22
-125
13
31
15
-12
25
17
-27
-5
-64
10
-31
-14
-86
-28
-38
-6
18
-5
-22
-17
-10
-9
-29
71
-13
-77
-23
4
65
11
84
-47
-16
80
38
-57
11
11
29
32
8
18
-28
31
-2
3
2
-23
-83
56
-2
-8
20
4
23
33
-21
-103
70
-29
-41
-63
-25
9
4
-51
-10
25
-17
7
2
9
-34
6
58
-15
-24
-34
2
25
-18
-1
-1
-10
-9
-5
16
7
36
-27
14
5
0
15
3
-5
18
42
10
12
42
-6
6
-1
-19
-1
7
-8
-1
-15
16
27
4
-8
-5
11
1
-23
18
9
1
14
1
-8
7
2
26
8
4
8
-48
0
22
5
24
2
11
7
0
1
10
9
-11
8
-29
0
8
-10
-9
-20
-15
13
-5
-14
21
5
5
-14
7
-14
1
8
-27
9
4
6
2
34
7
28
10
-29
17
-6
2
13
-1
-11
10
-5
14
12
16
17
7
-13
7
22
-6
-9
-4
3
23
1
17
-12
-1
-12
33
-30
-5
19
-2
-20
5
-3
-7
4
13
-9
-3
-24
-13
4
12
7
7
-9
12
-37
-25
-1
-33
13
1
-5
27
1
5
0
24
4
-14
-11
-7
13
0
28
-1
-22
-127
18
9
-25
12
11
11
-7
17
26
19
2
1
41
26
3
-3
12
9
7
-24
36
9
9
-24
-4
-3
-5
0
5
16
26
-24
22
-44
-3
-11
8
-17
6
20
23
-3
-25
-36
21
-13
-56
48
-8
19
-18
-1
-2
-24
24
-17
-33
-8
-18
13
5
7
-1
3
-7
6
12
3
5
8
-17
7
16
-12
-18
5
0
6
-18
-30
19
-4
27
-15
-27
-10
36
1
1
-14
-33
23
-4
11
-39
6
17
-63
1
13
2
-6
0
47
-4
-28
-14
15
6
-12
-70
34
0
25
-21
27
-16
-9
10
-51
-19
30
39
49
-6
47
-90
12
8
3
-19
8
-19
-31
-19
27
0
-35
-18
17
21
-10
-64
-5
1
-45
-11
0
-35
30
-82
-29
3
-22
18
43
18
-1
-31
-31
-3
-24
-56
54
43
68
-23
-2
37
-6
-16
2
-32
19
1
-32
-39
-1
-56
-52
-10
20
-16
-40
0
21
4
51
1
-24
40
37
80
36
-6
44
-7
-44
49
-26
18
-29
-6
2
0
-23
-43
-23
20
-24
-9
19
-42
-5
-14
-8
-11
-29
-8
2
-29
-24
21
-70
-19
-31
19
-29
18
-16
-90
-37
3
-2
16
25
-6
-7
-26
-21
-16
-9
36
12
-3
-11
26
-14
-26
-7
-20
-12
50
13
-11
-28
14
18
12
10
11
-28
0
-14
33
28
10
1
-57
19
-21
-26
-2
23
26
9
83
-2
13
-41
-24
5
-6
-25
-47
-12
-37
-47
-6
-11
127
42
-84
2
-16
3
2
-37
12
24
-1
1
1
4
-12
27
34
31
-49
-58
-15
-27
12
-7
-25
-20
-8
-20
-5
4
-17
-19
27
-30
-11
30
24
-26
44
-33
-20
-14
25
0
11
-7
6
-2
-9
-29
60
32
-11
-33
5
13
-26
-76
-6
-2
80
-11
-13
-3
-11
-57
-20
-7
14
-9
17
1
65
-28
-4
17
-53
43
30
24
7
8
-9
-3
35
-17
2
-37
55
-127
1
4
-2
-24
0
47
-25
-1
-4
-33
-33
-48
-15
24
-38
-6
-28
5
-9
-18
29
-15
6
-15
-5
-37
-46
-3
2
-32
2
-44
-12
-21
-3
7
-22
-10
-40
-4
-19
-36
55
-24
-36
0
-3
-2
-26
25
-8
25
0
-49
-78
-22
33
7
1
-47
37
4
32
40
22
-8
81
-4
-5
34
1
36
25
-1
-2
-7
-14
-40
-19
65
39
-49
-27
-1
12
-20
-19
3
-6
13
-36
0
10
25
12
3
-45
4
15
-49
-23
-6
11
19
-19
-27
49
4
71
36
13
18
17
-16
5
9
14
-15
44
13
-21
-34
23
-11
7
-2
13
1
-80
-37
-10
-4
27
15
-29
-11
-69
49
16
-24
-15
16
15
56
9
9
-54
-10
-17
6
7
15
-40
-69
-11
-18
-17
23
-27
27
-19
-31
16
-21
0
-19
-70
56
-20
4
-4
17
12
1
15
22
-12
-16
-18
-3
16
23
-3
49
108
-5
23
2
44
5
-9
-3
1
18
-32
10
-20
-6
-13
4
7
1
33
-16
-8
45
1
16
48
4
-24
33
18
-20
-15
-4
-13
14
-8
-11
-6
21
-22
15
0
4
2
-13
-45
7
-26
39
-43
18
17
-31
-9
3
-27
2
-43
4
-4
27
1
13
6
-87
9
-19
-12
9
-17
-41
14
-18
4
-12
-56
-3
-10
-50
20
24
-19
-27
-25
-11
26
-17
4
-4
3
14
-12
-28
16
-59
2
-20
-1
-51
-10
18
9
-1
-4
-17
-23
-14
-2
21
2
7
-58
4
-19
-21
30
-5
-9
30
-10
-22
-42
21
-1
-32
-24
-26
-7
97
23
-1
3
5
-10
-13
28
-19
7
34
-14
23
-48
41
-7
34
-6
-4
-13
28
15
-27
-26
73
5
-11
-34
30
-4
0
24
33
9
-19
22
-13
6
57
-9
-3
3
30
26
-16
-25
5
57
-17
-13
-26
37
6
4
29
-23
27
3
21
32
-11
42
7
19
22
-17
-13
29
5
16
-20
34
35
-12
-76
72
127
-31
-28
-31
-54
20
-21
18
8
2
-59
15
-34
-39
-18
22
-8
-11
8
-43
9
16
17
-2
2
-42
25
-5
-3
-99
35
-7
3
-30
30
-14
-5
-49
21
35
-18
37
-23
-8
-13
-36
-11
28
-40
0
-22
24
2
-4
3
-27
23
28
-7
9
-9
-47
-1
-7
8
11
-22
27
-39
-2
-11
-52
12
12
-43
15
-15
7
5
8
18
-42
0
-32
-40
-56
18
-39
29
2
3
-2
-64
62
0
38
-7
-61
-24
-3
-34
-12
-37
-13
-5
-30
14
-8
3
-42
19
-34
40
-45
-10
-22
24
-23
-20
-17
-10
13
-42
-4
7
28
-2
-24
31
-18
17
4
-12
-3
-6
-26
76
-15
0
-37
23
1
17
-16
-9
55
-8
-5
26
-37
-58
7
-11
12
-8
29
-5
-7
-17
-8
-19
3
8
-25
1
-36
-19
-12
-2
56
-2
-48
2
-5
17
11
-13
-56
-32
72
-19
-2
-16
-32
55
-13
-10
2
15
7
13
-9
30
21
-9
17
17
10
4
48
3
8
-16
-9
16
12
26
-11
5
-34
-8
62
35
2
-16
-8
37
17
-22
27
-13
110
-33
-9
19
-19
-3
25
-39
-24
-20
-12
-31
-16
-14
-32
-9
12
-47
1
6
-20
-35
4
58
-10
16
42
-14
-18
23
9
-3
-54
17
45
-7
-13
-9
-21
-65
40
-13
31
-2
20
35
45
-49
-46
11
-9
-25
127
17
29
-23
18
-10
-18
-22
1
17
-13
-1
-28
-58
-7
5
7
-4
-35
64
-41
-20
-4
-45
-10
-5
-37
-11
1
0
3
-8
-5
-7
-72
36
0
5
-6
18
-10
-18
-11
3
-21
-14
22
20
-12
45
2
-28
-16
26
-1
-2
3
-15
12
-5
-3
-1
-20
10
42
13
-3
-3
-41
44
-3
16
-21
-29
-34
-52
3
5
5
6
36
26
23
73
45
-85
22
10
-72
-33
35
-53
-75
8
19
65
-41
-31
-24
-86
-92
-38
-9
-26
22
-10
-33
7
10
-123
-65
-46
-12
39
-3
41
-34
23
-6
18
-7
99
-4
-94
0
-89
-13
73
-38
9
51
79
17
70
-22
6
-62
-21
124
4
-54
2
-32
26
-10
-25
-60
0
-23
-50
17
-24
-48
-44
-59
3
-58
-53
50
16
-24
-47
-28
-13
31
20
-12
-90
-79
96
-20
70
-7
40
-11
58
-43
47
-24
3
1
31
45
-17
-13
42
2
-29
109
3
-34
-22
55
-77
7
-46
65
31
64
85
79
13
22
-59
97
77
-105
-90
-25
70
-11
9
-44
-41
-4
-17
-12
-60
-110
99
-45
-25
-26
24
80
77
-7
12
-15
54
63
42
42
38
-30
-59
49
54
8
-27
34
51
-119
28
-50
-4
26
-57
0
-37
-127
-7
-30
-17
21
12
-10
-47
36
13
17
-25
-6
54
10
-17
8
36
32
31
-29
104
-35
100
-4
32
-72
22
107
25
0
-19
-31
97
32
3
83
-73
-76
21
27
57
20
36
-13
40
26
-12
101
-18
-60
2
-10
18
4
1
82
37
10
-41
61
-87
-22
60
23
5
0
62
-55
48
-16
91
7
-32
13
-34
37
83
9
-108
-7
84
6
-31
37
52
-18
35
4
-33
9
-42
-16
-43
-10
13
-3
2
25
-10
-41
-4
-16
-3
-3
-3
-18
118
12
-3
11
23
-11
-10
23
22
-32
-14
-25
8
-2
-12
17
44
8
81
-12
1
2
45
-1
-18
17
7
-16
48
-15
9
15
14
-5
28
26
-15
-36
6
2
-22
-6
1
29
-4
-42
-27
-29
-8
-8
-13
10
1
5
8
-62
-9
-7
11
65
0
17
26
-3
32
35
-34
0
17
-9
-3
21
18
22
44
23
17
-10
-13
25
-5
22
-10
-36
-11
-31
-29
-5
5
3
30
-27
6
8
127
-27
7
-24
28
15
12
20
32
5
11
19
-53
-39
-20
8
-23
17
-16
-18
21
23
-7
-17
-5
-19
6
2
-23
24
-5
8
-20
28
-1
-5
1
46
15
-5
-7
16
-11
19
-65
-6
1
2
41
4
-10
-19
3
57
-35
13
59
1
-23
-3
17
-13
-36
2
8
-26
4
-4
-15
-18
18
1
5
-19
19
2
-14
-8
-25
34
-11
84
-18
5
2
4
54
2
16
-2
-5
15
-21
16
16
85
11
-4
4
10
36
-5
27
46
2
-35
28
19
-3
9
-1
-1
31
20
-1
-19
-16
-28
-62
18
-8
-5
0
12
0
0
-5
-7
-29
-4
26
-19
-1
35
-28
14
25
26
19
-37
-25
-63
-10
44
20
-36
57
1
69
-39
41
-7
3
20
7
7
-10
-10
-13
-19
-34
34
42
4
-101
-102
-4
-22
-11
1
14
86
19
42
-14
-28
15
49
63
-55
18
3
-26
34
1
5
16
-60
-17
44
5
-10
22
-40
8
-26
2
53
9
42
-22
30
33
44
-14
-69
23
14
-9
-35
-49
23
-29
19
47
7
-7
-7
59
-64
14
-18
-46
-51
-21
35
-1
34
5
27
-15
96
-18
-2
22
-38
3
67
51
-10
66
-11
30
40
-3
-41
-18
-13
-48
-108
26
10
-3
-8
29
31
56
-15
39
22
12
0
39
-7
-26
-79
6
12
7
-9
-16
64
-4
14
-9
-54
-59
12
-15
14
27
-4
30
19
-12
-11
9
47
-6
-22
113
5
-35
43
-4
38
24
5
18
19
0
60
-11
-38
-21
-5
32
19
44
35
-12
4
-8
-15
-4
-8
8
28
-3
14
-1
60
-19
10
-16
22
-2
-45
-5
-41
51
20
-23
9
-84
-49
69
19
-18
-35
-24
-18
-1
0
-7
0
29
-123
-13
59
47
-29
5
6
-12
6
-19
-39
-6
-51
60
29
13
-33
11
20
-91
-10
4
3
79
27
32
-48
55
-1
-20
-127
12
-25
-35
-16
-80
31
12
-9
1
-20
-11
0
-5
30
-44
47
-28
15
-19
1
-16
-10
13
2
15
-25
26
10
-5
-3
-3
4
5
-16
9
-28
18
3
-99
-2
-6
-19
10
-2
-10
18
5
3
-11
-24
10
12
0
6
-9
-4
-12
-5
-5
-20
-7
2
16
-11
31
6
1
14
3
-7
13
11
30
22
-18
-3
-5
2
-27
-5
14
0
-4
-2
-9
2
17
-109
-1
18
-12
8
9
-4
-1
1
45
-18
-8
2
0
-10
-10
3
-6
-7
2
9
-7
11
19
-2
0
8
-4
-20
7
2
-15
-9
0
32
-6
-6
19
-2
5
45
0
-10
-4
-17
-9
-2
-13
10
-24
5
3
5
-9
1
2
4
8
-6
-6
21
-8
-5
4
1
3
-95
-14
34
22
-21
-7
-14
23
24
9
-41
34
-3
4
4
-11
24
45
5
13
-7
28
-29
19
-31
8
-3
-1
-25
-8
17
-5
2
10
9
-22
10
4
-3
-2
16
28
13
19
8
-4
-10
7
15
5
19
4
-3
23
9
28
3
-3
7
13
-15
-14
-28
-16
14
13
8
10
-4
17
10
4
-10
9
-17
127
21
12
0
4
-26
1
-6
3
-39
-6
-7
19
-16
-7
14
-3
-7
-2
4
16
-13
-3
-3
-20
-8
-9
2
10
4
-2
0
4
-1
-10
-43
1
40
39
19
-21
9
-13
9
28
25
-26
4
-17
-3
-15
8
24
-7
-31
20
16
-15
26
-7
21
11
15
89
-18
5
15
-12
-31
-8
-62
12
-8
33
18
-25
-46
74
19
12
-8
-27
16
-97
12
-2
30
-48
-1
3
-2
18
18
18
-2
31
-5
-10
2
7
18
-31
26
23
7
2
-8
-22
20
-22
16
3
15
33
30
-16
-29
4
-3
20
12
18
38
12
-11
-30
-6
-18
-2
-13
26
47
-35
-10
-111
27
3
-11
15
2
6
-23
1
-4
13
-13
41
-64
2
16
12
-27
-29
-23
-12
-59
3
-18
2
-10
6
-15
6
-15
14
12
-4
2
-18
-11
-14
6
14
-23
17
-17
-15
-30
1
34
-7
-37
21
29
-3
13
18
-1
16
-30
-46
8
-33
27
-4
4
-46
23
-8
1
3
-11
16
49
-1
20
65
-25
-9
-9
-4
1
-7
11
-28
-6
21
8
-5
-24
-4
19
-127
-18
7
-34
-24
-4
-21
-9
22
7
-7
-3
35
10
-7
2
-14
-15
11
-104
37
31
-8
9
28
48
-8
-27
6
11
-4
4
10
16
-10
23
35
14
6
31
-15
59
-5
54
20
-9
-7
-13
-2
-4
7
-19
4
-12
21
-8
8
26
-12
-7
-17
8
-19
45
27
6
-19
-2
10
-38
10
23
37
-14
-15
16
26
14
10
12
18
-11
11
14
-13
-6
13
-3
22
-31
-27
-17
-5
8
-18
37
10
7
14
-17
10
1
-21
-2
-23
-6
-47
-41
-1
-5
-14
-25
3
7
26
-28
-7
-33
-19
-12
0
3
-7
-2
18
-2
21
-21
-4
-55
-20
-4
-27
46
19
-16
1
-17
-12
11
9
2
21
-9
-6
-67
1
6
2
-8
14
4
-8
11
-33
-7
12
-33
-21
6
5
-5
4
15
6
-15
22
-2
75
2
-14
8
4
12
23
-19
17
21
31
17
10
25
-5
-22
3
39
14
-14
15
-8
20
-16
15
-3
-9
-27
-60
-4
36
28
-5
-15
11
-6
-28
-21
-25
17
46
23
29
20
-8
37
20
1
-12
36
27
-64
4
1
-2
17
-11
-7
58
46
-20
16
-8
-12
7
-15
-18
-5
2
27
3
12
-35
-9
18
-11
36
0
-11
-18
27
8
-2
-19
7
-1
7
29
18
11
29
71
4
6
-12
-11
22
-26
-22
8
23
-2
43
6
-28
-11
-15
11
-11
-8
8
-27
-5
127
-9
-10
8
-25
-52
12
-17
48
14
7
4
5
-14
-15
-1
-13
3
-3
-19
-5
3
21
18
24
-6
40
8
5
15
25
23
-25
7
-7
27
32
-11
-32
-9
12
-22
9
-13
5
14
11
-4
-7
-10
-8
-12
19
-51
15
10
127
-61
-34
-15
-32
-10
4
70
-72
-8
-37
-8
-34
17
-6
28
10
55
-9
11
-45
-45
21
17
9
-46
2
-20
10
54
24
32
-3
17
-33
-77
29
-11
-36
-95
8
59
31
-42
-19
-58
-32
-39
60
43
-9
-28
-70
40
-15
38
11
-5
31
-14
20
12
-6
-30
-59
-26
2
-1
-2
-7
24
17
32
-53
63
3
-69
16
-44
-28
-99
28
-17
-46
-23
-46
-41
24
27
39
-24
-18
19
-32
-22
-31
-24
-24
-18
-38
-2
-10
-12
-58
15
-15
-8
-11
-14
98
8
-20
76
1
-37
-76
-7
-9
53
42
-22
-15
4
-10
29
7
-59
-8
99
-6
42
25
-10
-27
24
-27
-18
-30
-13
-14
33
-44
12
15
-27
-1
4
75
1
-11
43
-21
-40
0
-17
7
-37
7
-14
33
25
-64
-1
-12
41
-1
-10
43
-1
-15
-38
-44
-25
17
-13
-22
-13
40
82
-30
-11
-24
9
33
16
-29
1
-46
19
-41
3
6
10
11
-31
-43
29
53
25
-43
59
-37
7
37
-33
-44
18
-102
30
-25
-8
-2
-40
8
-13
20
-53
51
-3
-3
67
14
54
20
-48
17
26
-4
7
-11
-4
70
16
103
24
13
-12
-13
26
-15
-3
-28
29
-31
14
-11
-26
14
-9
-38
-4
-9
12
-46
-6
85
66
-32
-85
-23
42
3
-2
-27
-16
-59
120
-2
15
9
-64
40
18
7
16
27
-4
5
13
-1
-7
-106
-15
-35
30
42
-51
66
-36
29
-26
-27
-98
16
71
19
-65
62
51
-14
-32
-47
-7
32
-90
48
71
-70
-18
-34
-6
-28
-2
73
-4
36
-77
-44
42
28
10
-11
8
-100
-19
-37
-34
52
26
-77
22
20
8
-10
-8
30
14
16
5
-44
-127
-10
-13
-31
39
-3
27
-7
21
26
-44
-7
-65
17
39
6
59
4
-21
-28
-57
-12
5
-44
-44
-17
32
2
-15
13
61
47
4
-19
-41
11
5
28
10
-26
62
63
-4
-13
-5
-21
-2
0
20
20
24
-19
70
-58
-30
36
32
27
14
26
-21
13
-23
-18
99
-91
4
-12
-3
-22
-35
-24
-68
92
-23
-14
-47
33
25
19
22
12
-37
1
48
-45
-22
11
-92
-19
-37
7
-11
-50
-58
-1
-6
-20
-15
2
-55
-34
34
36
24
13
-22
-17
-20
-17
-64
-37
39
-2
36
19
28
-28
20
57
-45
53
21
-4
-7
56
9
19
-13
14
11
21
33
-12
26
-63
9
21
-60
1
1
12
73
-94
-15
26
71
16
98
33
33
-47
54
-26
-2
44
-13
-14
-21
-8
3
-68
32
8
-26
-13
26
-61
-12
-89
-6
-3
24
-14
-23
-2
36
33
-29
12
-40
10
-18
8
-17
32
-24
8
20
6
85
-36
48
-5
-17
-26
-26
-17
26
-2
-30
-28
-17
8
-18
25
-10
27
0
-30
-6
-26
-16
-37
-15
1
-12
43
-122
-11
62
-11
-24
0
-2
-15
-38
5
-19
-7
31
35
1
-50
-30
6
55
18
21
-22
-5
9
-16
1
127
-11
-48
-11
-31
50
-20
20
1
-6
-13
7
13
-28
-51
2
48
-23
35
31
-27
-16
34
-39
-8
48
-4
-37
8
3
13
-5
-88
1
63
33
-50
-40
-11
-11
-12
-46
14
-44
11
8
-18
4
-5
29
-17
1
26
-6
-12
53
-21
-8
36
1
33
-15
-22
30
3
-40
-15
8
7
-8
6
-2
-29
-4
26
-2
-11
36
7
-10
20
5
-4
13
15
16
0
4
-42
-20
-43
17
14
-69
-13
-56
-26
24
-16
15
26
27
-47
4
7
26
21
-27
2
-10
16
0
-60
-14
2
10
-8
-7
-33
-9
0
-21
11
-19
-40
-7
-48
-23
-7
14
-4
11
19
-8
-23
-39
5
-17
39
-39
-15
68
-2
0
-10
12
2
-19
16
0
-3
-18
21
-18
-7
3
6
47
-30
-2
-32
-1
3
15
-7
1
-15
-7
8
-36
-24
-66
7
-24
19
10
-11
84
-3
-49
-18
-19
11
5
-25
5
-70
9
-86
-56
0
-20
-7
-35
4
1
-56
8
-78
74
6
31
33
-17
-39
29
5
15
-44
-14
-1
8
-37
57
-10
-11
-75
-21
-11
17
10
21
1
-32
1
-60
9
-78
-17
-1
-44
23
53
11
-68
-57
-1
14
-34
4
-7
-6
-27
5
-10
66
55
87
19
-74
-28
-20
9
-49
29
-48
-64
-31
24
-13
-56
-16
-55
25
-42
-98
-36
45
13
-46
-3
-15
-8
109
6
3
36
16
39
-45
-40
-67
-3
-78
8
-6
-41
78
-38
-16
24
32
-17
10
-6
20
-104
-23
-33
69
14
-10
2
-10
-25
-4
-25
-39
11
67
127
30
30
-9
20
18
-21
-66
-31
21
-11
22
-13
12
34
6
55
-17
32
-9
-24
-98
-66
20
0
-37
30
-29
12
-47
106
-17
-15
-23
29
-102
-1
-34
3
25
-32
20
-107
-52
96
-21
-36
-55
-18
26
26
25
-43
-84
94
-29
25
-61
1
38
-34
-20
-79
-77
7
29
1
-60
36
-24
-41
-31
-4
-57
0
31
-10
-79
48
49
-69
-60
3
-12
-47
47
5
124
-13
-9
0
-49
6
42
20
28
-11
-4
17
-4
-16
8
23
-57
-83
-45
-12
-23
-27
-40
1
-2
26
-46
10
-36
8
15
6
-89
-17
-27
-68
-52
-71
-21
-30
34
3
3
-4
-18
36
-8
-45
14
10
11
-5
33
-27
1
12
42
24
18
23
31
-52
-9
-5
4
-15
-45
9
21
-24
6
-1
22
-26
20
95
-41
-7
-22
7
33
35
18
-29
27
0
23
-7
-16
-33
-21
20
3
57
99
18
-4
-1
-28
10
-33
27
-12
32
77
49
-65
73
74
-22
72
1
-22
3
0
7
24
48
-1
-11
-54
-20
-41
-29
21
-37
-6
-29
13
43
2
-3
16
-44
-100
-55
-43
-71
-47
-2
45
9
-7
45
-30
67
67
13
-55
0
107
18
118
-93
30
9
9
11
-45
-31
2
18
10
-12
-4
-5
-59
-61
-75
8
-10
25
-49
14
12
37
10
47
-18
-35
32
23
-30
-59
-35
31
30
125
65
-44
-11
-75
-114
-8
22
-25
41
24
35
127
14
-36
13
32
3
-32
27
112
-40
31
-3
-11
-46
1
16
-74
4
-26
-76
-33
12
-10
23
-13
51
19
6
-36
-23
1
-17
-28
-36
-29
3
1
-33
-48
-29
-1
-48
5
-34
3
-24
16
-44
65
-8
78
33
-9
4
8
-1
-4
-10
-35
-11
-39
13
-19
23
8
44
-42
55
-15
-66
51
-16
-30
-57
-2
0
31
21
5
-50
56
-50
-116
-36
-12
-17
-39
-23
-40
-28
-37
16
16
47
-39
-98
-16
-4
69
-6
33
60
-3
11
38
-4
-14
8
28
6
58
31
7
-17
-76
10
44
18
-20
16
-55
-22
-16
16
27
-25
-18
14
35
26
24
-31
5
7
12
-43
-38
-61
-6
39
11
-50
-22
14
-19
36
26
15
125
40
13
-7
-44
6
53
-16
-23
-39
66
-11
9
18
14
-38
46
-29
17
-3
-21
-77
36
-16
-4
-23
42
-68
65
64
27
102
29
-24
-13
8
108
3
-17
33
-15
-16
-18
42
-16
-15
-32
45
-22
46
17
-32
18
15
3
-44
20
7
20
47
46
127
-39
-38
48
-4
-48
8
4
26
73
10
-5
13
19
8
11
-25
17
28
44
29
-21
33
-9
-62
33
8
62
28
-1
-12
12
0
-8
-40
45
-11
-42
-8
-15
-21
-5
-29
-13
32
27
-18
-34
-3
10
1
-14
28
-28
13
-24
30
43
83
-14
23
-32
45
-5
3
24
28
1
7
-8
-20
-20
-37
35
2
115
-5
-18
42
19
85
24
62
-11
34
6
29
58
-26
-19
18
-45
-45
-54
-29
0
-2
33
-25
38
31
-27
29
-4
-42
-34
1
-11
30
-6
23
-16
22
66
-43
-56
16
16
38
10
12
-29
28
19
-21
-7
49
2
2
35
6
-50
49
20
69
5
42
-44
2
25
-5
-59
6
-17
8
12
-16
1
-2
42
26
-22
2
-12
29
-57
-3
-32
-12
-25
18
24
-3
87
53
-31
7
-27
9
9
12
19
-39
6
-15
23
-36
34
-1
1
1
23
-22
-103
33
12
-37
-28
20
7
-16
3
33
20
-22
-17
16
1
-17
23
-12
-1
-6
-14
-4
-26
-15
-17
27
-3
-11
-28
-4
38
8
-1
4
3
0
-26
18
63
1
16
-17
-21
-33
-14
-21
-34
11
-9
11
-8
-12
80
16
7
6
-16
23
0
-16
-20
20
-23
-5
14
3
-7
10
-7
-3
45
-17
31
7
-30
-48
-30
19
-26
22
-23
-9
-58
34
17
-22
14
0
-39
-3
0
-6
-54
32
80
5
53
6
-23
-49
19
1
-12
-10
-8
-5
21
-22
12
-110
-92
24
-21
127
1
-23
6
7
-3
-1
-59
-72
27
-27
-18
-5
-33
2
-31
-51
-13
-3
10
-68
17
49
3
1
-2
-33
-59
21
-15
33
12
2
3
-53
4
2
1
-6
-22
5
18
1
28
-7
93
63
24
0
-8
-7
29
38
20
3
-8
-4
-11
29
-2
7
-14
7
28
-20
-2
-6
-3
-24
-13
-13
9
15
9
33
20
-36
11
-10
18
-13
0
-41
45
16
-17
-22
-19
12
84
-6
21
-39
-67
22
10
16
11
-24
6
-36
-3
29
-50
-56
-46
-14
-46
-17
10
-8
-59
56
6
12
-4
15
0
-3
44
-4
-23
9
79
-9
-5
-25
37
42
6
-25
-56
18
-15
10
-27
7
27
17
17
23
-13
36
33
-21
-4
-84
-15
-45
-6
-41
-2
4
22
-74
20
-19
-15
21
21
-9
6
5
-7
-26
-2
18
29
5
16
19
-56
10
5
15
17
-24
38
-26
4
38
-3
-29
20
47
-53
-15
-23
-44
41
45
8
45
-32
43
9
-47
8
-23
6
28
-9
-77
102
-76
6
19
-20
5
-41
11
22
-53
20
11
-52
14
-32
47
-36
-14
0
-10
2
-30
41
-16
-87
11
-23
7
-45
-23
23
29
3
-7
51
-44
57
-80
28
-11
-37
56
-16
-31
-1
39
30
-48
-37
3
-8
-8
-4
19
49
-14
47
-30
21
40
21
-28
37
-7
78
-8
76
1
11
-10
-11
44
48
49
0
-25
8
48
14
48
8
56
-24
-12
-5
3
42
-37
16
69
-31
-63
-86
25
8
-78
13
-24
12
22
13
-30
-17
-29
-14
-6
9
-16
20
1
-17
20
25
42
18
3
27
-13
-71
-7
-23
18
6
18
14
15
27
22
38
-38
-109
11
12
-3
-23
38
4
40
-20
12
7
-44
-7
-48
-8
-127
16
14
-5
49
-22
-31
40
-10
-5
-32
3
-25
23
-18
9
17
1
0
3
-25
12
2
-21
45
-1
-15
61
-24
-29
39
-8
13
3
-5
-15
30
-16
21
-6
-12
18
-24
9
14
-36
6
7
17
-18
14
-12
2
-8
5
48
3
-3
-4
5
-15
-2
-36
-3
22
26
16
-9
20
3
28
5
23
-4
12
-6
-12
20
-47
-29
64
5
-9
-7
-18
0
-45
-14
-6
15
18
77
-5
4
22
-6
12
-9
0
-19
40
5
0
8
-51
-9
-13
-35
-20
4
10
-29
6
-9
1
-5
-15
-10
-23
15
-6
5
-6
8
16
17
21
24
68
5
35
-15
12
2
15
-18
27
-6
41
9
9
-5
-21
1
8
23
-8
14
22
1
-11
6
-7
1
8
48
-4
-16
-8
-16
1
8
80
-19
-6
1
-1
27
-6
11
-5
20
-24
-6
-17
7
-50
-4
-2
-4
-16
29
-8
48
-31
-42
-2
-7
-23
-33
15
11
-13
1
89
13
-16
-35
-9
-4
43
33
-6
-17
-10
18
0
-28
-26
1
2
39
2
-1
-3
-10
-2
-127
-20
-31
21
-16
0
9
2
10
-10
-4
-38
10
7
-11
-30
-31
-19
31
-38
-14
-11
27
-5
-28
-6
-3
-19
-17
-14
1
-21
7
12
-2
-4
-10
-5
1
-12
3
-77
-15
4
-2
-24
33
-24
77
-12
-15
-10
-9
-8
-13
5
3
-3
22
16
0
-16
-7
7
20
7
22
48
-9
61
-16
-13
-15
10
19
1
4
-5
1
-13
3
5
-21
0
-4
-2
-7
3
8
7
-18
-1
3
-15
4
-19
7
-1
-2
3
6
-12
8
-7
-1
4
2
-17
-6
-16
7
-2
10
4
-4
13
-1
-10
5
4
4
8
-3
10
-6
13
-4
1
8
-1
-21
-2
4
5
-3
1
7
-5
17
6
10
8
-3
-15
-17
6
-2
-4
-9
8
-2
10
-7
6
-12
0
-6
-1
-1
-13
-19
-1
-14
1
-22
10
26
-9
-3
4
-14
12
5
16
-1
-2
3
8
-13
-8
2
-15
-2
-9
6
-20
6
6
-43
3
19
-5
0
-8
5
-3
-35
20
-9
9
-10
20
-5
1
-68
-12
-4
-2
3
-14
7
4
5
6
0
3
-4
3
-13
2
-13
7
23
-13
-29
-1
6
15
10
3
6
10
15
-24
-6
5
-9
-2
2
1
-5
3
-6
-3
12
5
-13
7
-20
-10
9
1
-6
4
6
-4
19
-19
-2
3
-2
6
11
24
-6
50
-10
60
-17
127
-7
6
-6
-16
-9
-4
12
-15
1
4
10
-9
-1
3
-20
-1
0
-3
-118
-12
-1
-8
18
2
7
0
3
16
2
-4
-5
8
10
2
18
27
2
3
1
-17
-3
-11
29
-16
-3
-40
0
-30
-4
22
-22
-12
8
45
34
-5
-17
-20
-8
9
-21
-2
38
-6
2
-39
-62
-10
16
7
0
-5
-28
15
25
-29
15
-5
-44
55
32
32
-1
20
15
14
9
20
5
-23
-13
-28
11
12
-20
-21
10
-10
19
9
-8
-12
-29
-41
-21
-21
11
-48
-20
-14
-9
-36
-8
-43
-49
94
-44
-17
30
2
-18
30
3
32
-9
-29
17
-44
-1
-15
7
37
-7
11
4
-7
5
51
69
18
10
3
-2
-22
-7
12
-17
4
-31
21
9
-8
-47
-54
-17
29
-20
9
61
33
15
9
-6
-7
54
-38
-24
68
-57
14
-32
54
12
-73
-22
-49
14
-2
-11
23
-10
13
3
-26
4
-8
12
-9
8
-4
33
7
-6
29
-6
-8
-18
27
4
-15
12
0
-34
-8
-21
-5
20
-45
38
7
2
36
15
-47
-11
38
-11
6
21
-46
42
16
29
1
-9
-7
-35
32
-38
108
-5
8
2
1
15
-25
-25
-9
-22
5
127
36
-36
17
-23
39
-15
-14
7
-4
2
-6
15
18
22
13
-8
-2
0
8
1
3
-48
42
-28
-10
99
-25
-6
53
20
10
-42
-24
5
14
-28
27
-36
44
-8
-1
6
-43
-14
21
-23
51
14
12
-11
4
7
-33
11
13
-19
-15
-55
22
19
88
-34
-4
31
33
32
23
92
-39
-102
3
63
73
36
39
29
58
34
99
-30
83
-108
25
-27
-13
35
-63
-50
33
75
-22
68
-45
-6
-72
26
21
-1
-12
7
-61
49
-65
-23
-27
55
-21
35
7
2
7
-60
-51
-38
0
34
-53
25
16
-45
-18
27
-24
-24
-21
23
-97
-16
20
32
-61
34
8
-36
-9
106
-50
32
8
2
80
34
-60
39
-115
-59
40
10
11
-54
121
127
-90
-21
-34
-22
23
-93
-28
-53
-2
14
-10
30
-1
-11
41
-13
-5
-46
3
16
48
12
-51
-32
-1
-27
71
-55
-71
-9
25
-48
20
20
-48
-26
-5
26
15
-67
-15
103
108
85
74
6
-33
26
68
-58
-45
3
-72
69
-26
25
101
-12
31
12
28
-39
-67
17
1
-84
31
-47
-8
24
30
8
-22
59
68
-32
58
-54
30
-52
-27
32
-81
-37
-10
15
-47
-14
100
-82
-15
-81
-58
10
52
-46
-44
60
20
78
-36
12
-99
7
20
-88
-47
-10
46
-37
-67
-24
-4
63
91
22
-25
106
37
-74
-17
3
-28
-7
14
77
38
-14
-29
-3
31
-26
-30
-6
-43
-22
-13
47
32
-35
-19
-6
-1
-39
-6
-46
5
-37
113
-33
-82
38
-34
-5
1
-11
-84
-8
0
-1
-15
-16
1
-4
-12
14
6
8
41
-5
3
-13
1
7
23
-6
3
-2
14
-9
-10
-8
12
-1
-8
13
-22
-3
18
8
15
-30
8
-11
-5
2
8
-16
-7
-3
-16
-1
-3
6
-12
-19
-9
7
-15
25
-95
25
-7
4
-4
13
-10
-28
3
0
-4
9
-4
4
-56
-16
-1
2
-17
-12
-9
-1
-8
22
9
1
2
-5
0
-18
5
-20
-16
8
-5
8
12
8
-2
6
-18
40
-6
-6
-19
1
-21
2
10
9
-127
-7
86
-13
0
15
10
-7
-15
7
-6
-25
19
-5
4
-12
-20
12
-6
-1
-4
4
-50
19
9
-5
-1
18
28
6
4
-7
-32
-5
13
-7
-19
-15
1
-19
10
6
7
-8
-14
-18
5
3
-1
4
-8
-64
-2
-6
-2
28
15
-14
4
-15
-5
-23
22
-9
4
-20
2
-21
1
2
-8
-2
3
-17
-10
7
-7
-39
-19
9
-13
0
16
-9
15
18
1
0
-25
97
15
-40
6
24
9
-17
1
5
-11
22
4
-1
1
87
-2
-13
-16
-1
13
-9
-11
0
-35
-10
5
18
-15
-23
-27
-9
7
14
-3
0
0
-3
8
7
-23
0
-3
-5
-17
-2
6
-8
-1
10
-5
8
-8
5
-10
22
-5
-15
11
17
10
45
6
7
-13
13
-7
15
-19
-57
9
-9
11
8
-3
-3
-4
30
3
-30
-22
74
-14
25
72
-3
13
-28
30
23
52
-26
-9
-3
-3
19
-13
5
5
18
-10
-28
-30
6
-65
-25
24
8
1
29
-7
1
-24
-12
3
-25
-19
63
36
-1
-32
-16
13
-5
24
-42
24
24
6
71
-6
-2
115
7
9
19
3
28
44
-53
24
127
1
24
9
40
21
45
57
-39
40
-28
-5
29
12
25
-6
-5
-12
-33
18
-48
-27
6
26
26
25
-29
-115
-15
89
45
25
29
7
-5
-24
26
-19
0
-25
4
-75
-10
-57
8
-3
-47
88
20
-94
4
-27
-6
40
23
55
-22
19
36
11
-30
-2
-7
-5
-13
-26
-9
-64
10
-6
-4
24
-9
14
29
-5
14
11
-42
-52
2
-30
-8
-9
-9
9
-20
-5
-30
-30
-39
16
-9
5
5
26
-36
-29
-12
-13
-32
74
35
10
0
-6
-2
-46
-15
46
6
-95
23
-9
9
-12
-106
19
-14
46
-6
-37
22
-49
22
53
29
-30
-11
4
37
2
-21
33
2
20
-79
31
8
-11
-1
15
26
35
-47
3
30
8
-41
-36
5
23
-12
-76
-13
-28
-2
-13
20
-64
-6
18
28
-5
47
38
-41
-14
40
32
23
-7
12
-42
-4
-1
-9
-11
-43
118
-34
-10
14
-26
-9
14
-114
98
-6
-52
-13
16
-32
1
6
-6
-16
-63
-6
-24
17
-9
109
-2
-13
2
-14
5
42
-9
3
24
-4
-10
20
0
-11
-84
-15
9
3
-4
16
-51
12
10
11
-1
-7
127
-5
-28
21
-2
-19
-17
27
95
-1
1
-18
-27
8
-23
4
13
13
28
25
-14
-30
-26
-11
10
-13
32
35
-49
82
-10
1
-9
20
34
24
-10
6
-42
-13
-44
-22
37
-24
-14
28
-2
19
-14
-14
-42
-5
-8
2
5
13
-1
-4
-8
17
2
-23
5
7
16
7
54
-15
-7
-17
-32
36
35
-46
8
71
23
-7
-6
40
-5
8
-3
6
-13
3
19
10
24
-5
3
20
12
-3
18
29
22
-7
-12
19
-81
-8
11
-18
-28
3
6
-3
-14
-15
-32
16
36
-19
-33
20
15
24
10
6
29
-26
-4
13
27
16
-24
5
6
6
-1
9
20
-16
27
6
-17
-7
15
22
-40
-29
-32
-11
21
-7
-11
16
-9
-1
11
-11
-38
43
-7
33
47
-28
-5
17
14
47
-23
1
32
-12
11
4
38
3
-14
35
12
33
-6
-14
11
-39
27
-68
20
2
-1
-23
-19
-27
-20
37
9
-16
-17
-17
-11
-52
-15
16
-6
26
-12
-43
-37
-6
3
-17
-4
-24
-13
-5
-14
-38
6
-44
29
5
-15
15
15
-10
40
5
-3
42
10
-58
-5
6
-9
37
-17
-14
32
46
27
-35
-7
0
-13
-16
-98
-9
8
44
11
-16
-36
5
27
6
-25
59
-18
9
-72
-15
-8
-44
-73
30
3
24
11
-20
0
-36
44
-3
-11
-38
1
-39
-86
58
-49
-5
47
-31
-33
9
-29
22
-25
-49
-33
27
-7
37
4
-18
8
-17
-61
-1
60
9
114
-11
-3
-8
-34
-6
-3
50
-12
22
-18
-50
-34
17
-99
12
-3
14
-27
3
-3
28
-5
-13
-11
14
20
41
63
-25
70
-77
32
-2
-4
-51
11
-28
111
-3
51
-20
12
38
-18
16
15
-8
-38
-16
1
-6
31
-11
9
16
-19
-28
-2
24
-8
-10
67
-62
3
9
20
3
-36
8
7
39
-17
-4
-42
36
-101
-13
5
-11
9
5
30
73
-53
-69
-8
-29
-53
-16
8
5
-58
-6
9
82
-5
-77
-62
-10
35
-13
-3
-59
-62
13
10
-14
-51
21
-38
-47
-21
-14
-83
12
8
-127
-73
-57
12
-79
-38
-10
8
-44
-40
6
-92
-13
-4
4
-39
-29
-19
3
-5
-19
-1
-31
11
-20
-12
10
-34
-94
10
-17
-24
8
-42
-6
1
-7
-34
6
-38
3
-27
-4
55
1
-31
18
2
99
-15
-14
9
12
-41
-35
12
-63
-1
24
-10
15
5
-29
-26
37
-11
-12
-2
-22
-32
-12
51
-73
16
-9
1
-28
-20
-48
-21
-7
-16
1
-21
79
50
-9
-23
-29
-7
7
-57
-20
23
39
22
7
12
-15
-20
-23
6
-50
6
-31
14
-38
-44
16
-12
63
-22
-22
-20
-13
15
30
60
17
45
4
-5
73
-47
-36
32
50
-36
-59
50
-29
10
21
8
8
22
-38
-49
12
12
-9
-8
-16
-23
-12
-12
-12
-7
-4
-37
112
-68
-35
-9
-10
-2
-6
20
17
-20
28
37
-38
-26
7
12
-29
-12
20
-7
-2
14
-33
28
16
7
-11
31
40
47
29
38
19
-19
-46
28
12
-45
-14
-65
-29
6
47
-87
-11
82
23
-63
127
-27
-21
-23
-14
35
-4
-11
8
-9
-14
3
59
87
63
36
-27
-20
-43
-58
1
24
-3
0
31
-40
14
19
-11
-15
37
14
-18
-14
-26
-10
-43
-36
-14
22
-27
-7
42
16
-72
36
5
22
20
-10
-18
9
-1
-79
31
-50
-2
-25
-13
-43
30
68
-12
-22
-19
-43
3
27
-6
8
51
16
16
-44
-21
-16
-22
-11
-59
-11
18
23
-55
-1
14
-34
15
5
-34
34
-16
-61
-19
-5
1
17
3
-39
-7
-8
-46
19
19
-3
-18
-7
48
-7
26
-52
115
-47
9
-26
-23
-56
-12
4
44
-37
27
-5
-50
-17
-22
18
54
-9
25
-46
-27
13
17
1
7
52
-7
-40
-17
-23
-10
15
28
12
6
-16
0
22
-37
13
-28
1
-17
-1
-14
-17
-10
8
0
-18
7
-56
-32
5
-6
19
-16
0
55
-4
5
24
-2
11
-40
4
-24
7
-7
20
-36
-12
-17
13
34
17
14
-3
-2
-9
-18
11
-35
-11
-18
-43
13
9
17
-1
-15
-7
-18
2
30
-9
49
12
-2
11
-60
-14
-13
11
56
15
2
3
9
41
10
-29
-21
17
-15
-24
-12
-9
-1
37
-35
27
-45
-53
-16
20
58
4
6
-22
-20
-37
-31
-21
-7
-27
-5
-22
-33
19
-5
-14
29
45
21
-37
-34
12
-126
22
-30
9
39
35
-4
30
21
12
64
-5
-19
-5
-24
23
16
-10
4
5
1
6
14
-28
17
12
17
-6
-7
-104
32
19
1
16
-53
11
4
19
-15
6
21
-5
-17
-26
1
12
8
12
-9
-30
9
-7
-20
8
2
-19
33
24
-1
32
26
11
53
-36
-15
7
7
7
41
-16
-24
1
-5
-10
-2
-7
28
-24
19
-33
-26
23
-1
-6
-3
-23
-35
21
-34
-23
-23
-2
-28
39
-32
19
-8
4
-11
10
27
15
-14
-7
23
-127
13
33
20
-80
-93
-9
47
-48
-14
-14
29
2
-77
-18
-39
9
-3
-3
-52
22
-11
-34
-34
29
34
-9
-4
-59
24
-100
18
23
-20
7
-45
9
35
-18
70
23
89
-44
7
65
6
-26
-9
-74
-15
106
-23
3
31
50
77
-44
-7
21
-52
0
30
-28
10
-1
12
20
-22
-40
-26
-13
-1
106
32
-17
-4
-54
47
-2
92
37
-61
22
-39
-66
-6
-82
125
6
92
-3
-20
13
11
-65
41
76
-23
52
-37
-72
13
-18
-9
-70
-57
19
7
-29
33
-49
-1
90
16
56
23
11
-112
2
-18
0
-13
23
-18
-4
-18
-69
-5
-54
-60
-106
15
-4
42
-27
-25
23
15
53
-14
-36
19
10
72
50
-32
36
8
13
-83
29
15
-4
38
26
-5
4
-24
-22
-2
-37
46
51
33
-25
24
46
7
14
-52
-42
-21
-7
78
40
-33
-44
-7
55
14
14
-2
-25
86
-50
20
-37
-11
-39
-47
-22
-61
-28
24
-9
4
-17
-57
17
59
-37
48
72
-66
47
10
13
-42
-12
-59
-22
46
8
-65
36
-11
-9
-4
-17
2
-42
-28
-75
10
-38
0
1
20
-53
2
-8
49
-29
-27
5
-60
-21
71
72
-47
-48
-7
-40
-70
-35
53
-53
-25
-60
-42
53
-35
73
-1
127
-32
4
30
-11
-43
21
3
67
-62
-22
-49
64
-30
-9
28
3
-35
5
39
3
-65
10
-18
-13
45
-38
-18
1
-7
35
46
49
4
-1
10
1
30
-47
-39
-13
14
12
45
-1
13
-14
-9
-28
-37
0
-2
-10
-8
-58
108
46
-15
9
-35
-18
62
-10
2
-19
-8
32
-27
-19
17
48
1
-37
69
35
-6
-20
33
-32
1
10
-7
17
-40
-24
-88
-52
-20
-19
-32
22
-3
35
21
47
45
-19
-9
54
1
25
-106
15
43
12
-33
-15
-19
-6
49
-32
36
15
34
-4
46
-38
-83
-42
-17
-23
-60
20
18
-26
40
29
16
-24
-8
0
-67
4
38
-7
0
-33
-16
4
-48
11
44
41
-68
11
22
12
-13
42
39
-24
47
29
-79
17
-61
-28
25
-24
39
-14
26
55
-21
-24
21
49
21
15
-37
-103
-59
-61
96
43
-40
13
25
14
-127
1
21
73
24
39
-17
20
-12
-17
27
-40
98
25
-8
0
-77
2
-14
-2
-6
-20
-19
24
-39
23
-5
-59
-64
-10
-11
-15
-1
-15
-16
22
68
-27
40
40
33
-21
-12
11
-5
-21
-12
-3
-41
-12
68
-20
0
-94
-4
67
10
-51
-43
-56
34
40
2
-51
-74
12
27
2
-67
92
18
-21
-63
59
14
-17
17
11
-8
-19
99
47
19
-41
-40
10
-97
-19
-12
-7
-4
-21
-6
-51
5
-10
-65
-3
7
34
50
28
-56
11
-25
-84
8
-1
11
-30
-2
14
17
-40
-25
-8
-63
18
15
12
17
5
5
-37
9
-9
10
57
-7
32
23
11
-22
-5
-43
-11
2
45
-52
-19
26
-40
-12
16
10
-45
48
31
11
-29
4
-19
14
10
5
23
35
-42
-56
-15
-21
14
-24
-15
-58
0
0
-8
22
36
-50
17
-21
-5
-2
28
-86
2
51
87
96
1
-4
-52
-67
-25
104
-9
-31
6
-5
5
17
-59
-44
-17
-38
-55
16
-17
-67
30
9
15
38
56
16
28
38
-41
45
-13
-9
-29
10
19
38
-16
-5
-19
-1
-12
26
66
-55
-53
-19
-31
6
22
-6
42
-81
-26
22
-5
-19
49
1
-17
127
-18
-27
15
20
46
-14
12
35
-18
-35
19
-49
-41
-4
52
23
26
-56
-4
-2
-4
-11
-1
46
44
-8
-96
-41
-49
28
-14
-11
5
-20
-25
-25
6
67
61
20
-34
25
31
17
17
-16
-20
-5
-2
19
-12
-47
-12
9
-5
-18
-9
-13
-6
52
14
5
-69
-23
1
27
12
-28
-25
34
-31
-5
-30
-25
-68
39
46
-11
-14
23
-1
56
-7
33
17
49
-24
-12
99
21
-19
6
35
-39
46
8
-52
-30
34
5
34
46
19
-25
26
-9
-5
18
20
-72
9
-19
8
12
-1
13
29
9
0
0
-2
-9
8
11
-20
10
12
26
-12
2
65
-2
4
45
7
-34
-32
9
15
-26
-5
-10
7
7
33
-4
-27
-12
4
-5
-4
-32
-45
50
11
48
-6
4
-34
-26
-29
25
-6
23
5
-8
-5
-9
16
2
-4
-32
-13
3
3
-10
14
27
8
-8
20
26
-12
6
16
29
6
-2
-2
-41
-4
-25
-2
127
-9
15
-22
1
13
6
-8
-22
7
-9
5
17
-117
-5
25
-8
5
1
-9
-5
-9
1
34
-30
3
46
-10
18
12
3
-15
5
6
-8
2
-16
-25
-21
-4
0
-56
-33
25
26
1
-27
0
8
2
-37
-7
-45
23
3
-64
14
-25
-18
-27
-2
17
77
10
19
21
-7
16
-17
6
14
-20
21
20
-12
17
5
4
-49
-4
-10
-58
2
38
-45
-15
-14
4
17
73
10
8
2
-59
-12
-26
-1
-18
-21
-8
62
-7
-10
-24
43
-49
-10
13
-10
-16
-4
-41
-16
-11
31
4
3
21
7
-14
6
-5
-11
-6
3
15
-5
13
97
3
-3
-20
-33
-34
6
51
-26
23
32
31
-14
-31
29
1
41
-3
14
-2
-6
1
4
8
9
-5
17
10
-13
-14
-24
-16
22
6
-5
-20
-10
6
3
8
4
30
-5
-28
19
-2
25
-8
-23
-1
-6
-5
14
-9
19
-6
-17
-4
-3
-5
11
5
-33
3
10
4
14
7
-3
45
7
-24
-11
-19
12
23
-1
14
2
7
3
7
14
-8
-58
116
-8
14
4
-6
0
-7
-7
7
7
-19
10
22
-24
52
3
-9
13
-11
19
-79
-4
8
11
2
-25
11
3
-3
-9
11
-9
-3
7
23
0
6
8
27
0
-1
-34
-32
0
-16
6
-9
10
10
-2
51
-45
-54
9
-3
0
-13
-7
21
-7
-9
-127
-11
7
-27
-5
7
6
13
-18
6
-27
-43
5
-17
-19
-19
14
-12
-6
-10
-2
0
8
19
0
4
2
9
38
-11
-14
-4
-15
-3
5
-10
-4
14
19
6
73
