-61
-86
0
-16
-18
24
19
47
-35
43
-9
8
-44
13
29
-8
18
26
-33
-2
-2
-3
-45
38
2
49
-26
-44
35
-34
27
-23
22
6
41
-2
46
1
-52
-44
-127
-39
17
-69
-14
-58
-17
-16
12
-22
-35
-16
-7
-55
0
14
64
17
20
9
-65
-55
-89
17
-18
34
-50
-41
-69
-14
-57
14
-31
-15
10
35
-4
41
33
32
19
-3
56
-25
-1
-50
-32
13
27
14
-30
42
16
-5
15
-27
4
12
-79
-7
10
12
-11
84
7
20
-10
41
66
-28
43
12
-17
32
1
-61
-12
56
2
45
12
-1
30
-16
16
49
89
-9
-20
2
-47
-26
-8
-97
14
-43
-39
-34
-15
61
-1
42
-15
20
6
-28
-28
16
-20
31
20
-19
-39
-10
-22
-29
53
4
47
28
5
-8
-41
-28
-13
-8
14
-15
24
-13
-3
-26
3
-1
16
-33
51
-20
-30
-21
-3
41
-2
-50
14
18
-59
-8
-3
-41
-31
-17
-88
22
58
-2
101
-15
64
114
-7
-15
23
-8
-5
-64
-27
27
-8
-53
-7
8
6
8
-9
-127
-9
37
-27
54
4
-81
-1
-10
-15
8
73
13
-28
-40
4
15
21
25
-5
21
7
-95
-6
-36
10
14
-25
32
21
17
-15
22
-1
-13
14
61
-49
-12
-13
28
-13
0
-4
-20
-39
11
-7
-2
-34
33
2
-18
-30
35
-3
10
-20
-15
2
1
15
-4
32
44
9
-2
0
-23
-11
-10
32
-75
23
-4
22
-22
13
6
-32
-6
80
11
28
-14
44
-20
-17
7
-12
-32
-9
-39
-26
-23
-6
-35
55
31
46
25
-31
-32
-62
-17
-3
-19
-9
1
4
-32
15
-5
-16
-36
1
29
-1
-3
0
-3
90
7
4
-25
-9
7
-10
4
-7
127
0
-16
15
66
26
7
19
-22
-9
-58
21
-12
1
-25
-5
38
16
12
-27
-15
8
-8
-49
11
-19
4
-11
-9
7
19
-35
11
5
2
-19
-41
-34
87
-98
-4
-12
-37
-16
-77
-5
-2
-2
10
26
-16
-19
-47
14
-19
29
53
-1
18
29
68
9
-50
-28
-36
13
-32
19
22
-54
10
0
34
2
-23
13
-69
-76
17
37
-28
-1
-30
-53
34
-12
4
51
-5
-25
22
18
22
-19
-38
11
9
22
31
-8
-15
16
-8
-24
-15
53
-31
32
10
-13
6
11
25
20
7
-24
3
-43
-29
-45
-40
-19
-44
-17
-5
25
-29
18
53
-15
36
-19
9
25
-13
21
-12
30
-43
-35
-17
2
29
-3
-2
47
-13
11
15
-6
33
14
-6
4
26
-24
16
-17
-9
12
-9
-1
-10
22
-51
-18
80
9
56
-58
-12
-69
7
-1
-23
20
-15
-7
74
50
-57
-56
-26
9
11
66
54
0
46
58
67
9
77
-40
-50
-75
-88
51
-16
-25
-23
-29
13
-4
97
7
-41
26
-4
-70
-73
61
-26
33
83
-34
-50
-32
-22
-13
-36
42
-12
-68
-60
57
-6
-11
-18
4
-19
30
-59
86
79
-56
46
-46
15
-27
-6
-8
-55
-4
12
-63
-48
-72
45
32
15
51
-28
-9
8
55
-54
-35
69
2
8
57
75
82
57
101
46
51
90
-80
-49
-7
-47
66
-38
-33
-92
-16
-24
-4
-56
30
66
6
29
11
-36
-7
17
62
18
-11
64
-44
-49
-37
55
127
32
10
-7
-3
126
32
23
57
0
75
-20
-1
36
13
49
17
-59
41
15
7
37
85
-23
91
-26
28
43
-15
-18
-13
-41
25
-55
-59
46
67
31
1
84
-40
37
-58
-47
-1
-70
-62
16
-29
39
35
31
-15
-126
-95
7
42
-76
-26
-94
-101
-112
59
-78
-96
41
-21
-35
60
0
3
-85
-41
75
-29
6
-13
-37
51
24
-2
-8
11
11
118
3
33
63
25
-12
-50
-14
-39
43
-15
36
5
-17
-36
-52
-48
35
-37
-13
-46
71
22
-41
-18
-71
5
2
29
42
20
76
-27
-113
101
-10
-20
-8
-4
-86
-60
-32
16
-24
24
-39
-5
6
-21
45
-30
9
-35
-8
5
-9
2
29
-3
-12
-15
-30
-8
51
-24
-43
4
4
4
-15
-36
21
-16
-7
13
68
-33
-1
-3
-18
-15
-32
-2
-11
7
-3
-16
21
-26
-11
-14
26
24
-5
19
-16
32
-22
-65
-46
-30
-9
23
70
21
5
8
55
-33
-9
-83
-36
-38
16
3
25
16
12
-48
-12
-20
26
-40
3
-10
-51
4
2
-40
-97
4
47
-21
-27
19
37
23
32
21
-53
-22
45
4
-6
23
18
5
1
-7
32
15
-23
6
38
29
18
29
-19
-19
8
-14
-16
2
-42
-23
-9
-34
-83
-29
-3
88
-13
44
-41
-2
-32
-4
-5
18
-23
72
-9
46
3
28
6
5
-9
-30
-13
17
-41
64
33
-27
-59
23
7
-82
12
-10
23
-24
12
-18
-16
9
8
50
17
-25
54
-25
-51
-43
61
25
-16
36
87
-10
-9
-51
4
16
-4
9
-10
-11
40
23
-15
-2
-32
-39
-48
-75
-26
34
-44
11
-2
-18
-11
-12
-1
19
24
-1
-6
-23
-58
22
-30
-10
-7
-2
-8
-12
14
0
-14
-5
-42
-69
26
-39
-4
-9
-31
-7
-13
83
17
-46
-8
-33
0
7
-10
26
72
-23
-48
-69
13
-44
22
-127
9
-46
-55
-18
5
-26
-57
-4
-5
12
-4
-3
-10
-43
20
13
-18
10
-2
-18
-11
19
-20
-2
-12
-18
11
-8
-49
-1
5
9
-1
5
-41
-38
3
-10
-20
5
0
38
-9
4
-7
3
0
13
-2
-32
20
19
-10
-50
-10
-113
27
3
-4
7
9
-25
-15
17
17
4
-34
21
-8
-6
-29
16
18
-2
-20
10
5
-17
11
-70
9
9
-15
12
2
-16
39
3
-57
-33
6
8
11
-12
4
17
9
9
16
4
-13
-14
-1
26
-2
15
20
-19
0
21
21
-127
18
35
18
51
-7
13
-25
28
10
-5
17
18
-16
15
-47
14
-21
-20
-9
-4
-8
10
-9
-32
-13
-7
-29
-17
-3
-10
-13
-29
28
-5
-29
1
-72
-6
-9
-21
-5
46
21
-8
-41
-1
-9
27
-8
-17
7
-31
-5
-11
54
13
-45
-4
-36
-11
-23
10
-30
-20
66
2
66
-21
-23
8
-11
-13
8
8
4
-1
25
1
-28
-31
0
-4
-3
2
10
19
23
24
-33
-17
-3
-19
23
-59
-13
22
5
4
7
-18
-1
-12
2
-1
-53
-6
-5
12
10
7
25
0
30
-10
27
8
-20
-23
3
-19
26
-19
-2
34
33
-1
15
12
18
-48
-27
-67
36
-14
63
-11
-5
-29
-5
-29
-10
11
11
22
2
-5
-12
-20
-19
-38
-57
11
33
-30
12
43
-40
-10
-73
-10
-127
-22
-7
-21
26
-91
7
32
-45
-35
120
27
-30
58
33
-84
-3
-13
-2
-37
13
-10
22
-21
34
81
43
-48
-81
98
19
-50
23
-52
-8
38
90
17
-48
-32
-69
-6
23
-26
0
-78
24
25
82
21
3
47
11
-92
-25
-95
20
-17
24
39
76
43
-22
26
-81
81
4
0
7
-117
27
-8
1
-29
-41
-12
-49
15
8
6
-52
2
19
-24
-52
39
-76
2
38
-33
-30
125
-46
57
23
-12
38
11
-49
-43
-62
93
36
43
-76
26
16
-25
-3
-4
-36
6
-66
-27
0
27
60
-46
30
51
5
4
7
-1
23
-1
-11
-10
17
39
15
-11
35
20
15
6
-77
18
-30
32
-21
-39
18
24
50
14
51
72
-27
30
-23
-60
18
21
62
22
5
-43
-51
59
-44
-60
33
-19
39
48
-42
25
-40
-26
-16
-1
-39
25
-4
-55
-48
36
-60
-34
-52
40
17
17
-30
-28
-36
-22
44
-22
15
30
2
4
21
-44
8
-53
27
13
59
-80
51
36
-72
35
6
68
-31
17
23
18
58
-28
-89
-119
16
7
-38
-30
42
8
76
-33
36
-20
6
36
17
-35
60
45
45
36
64
-1
4
13
6
80
8
15
1
6
7
36
-70
-7
48
-39
55
-27
74
-6
-54
-19
-62
42
6
45
5
8
-36
17
57
89
60
-53
-18
-20
-83
127
15
15
35
-1
7
-26
-44
-41
1
-34
-30
-37
-48
-2
29
37
-28
-37
-16
-45
-15
17
-58
29
62
13
6
38
50
-11
-21
-10
-22
63
28
23
28
-48
-31
56
12
32
0
87
-61
-24
19
35
-41
-15
91
89
-33
1
-31
-24
-95
10
33
-9
37
-58
-15
12
10
1
-56
36
30
2
-18
30
3
42
-31
44
2
61
61
-6
37
28
4
-75
-11
-117
24
0
-40
98
15
-32
22
-27
33
9
-56
32
26
46
27
-77
29
23
12
30
5
5
-26
-49
59
37
76
-31
-1
-19
44
0
42
23
7
26
10
45
-63
-53
-55
8
-109
66
-79
28
-13
18
51
-39
50
20
-73
-57
37
-26
41
32
-28
-72
-18
-23
-50
-31
48
1
17
37
-10
8
15
-57
-1
30
-32
-12
38
-48
-53
23
0
-60
-41
59
-40
-72
36
61
-13
-57
-5
18
-24
-76
-26
7
-12
-23
51
7
-5
-78
-41
-4
-6
81
2
26
-12
-67
-60
-18
1
-93
63
40
54
79
-8
-11
-74
29
31
56
-47
50
-19
-21
11
17
58
64
-23
4
95
17
40
-12
-32
81
-13
45
-21
27
21
86
-20
-7
46
-58
11
-44
12
11
-19
-51
-30
-8
71
-22
-4
-28
-11
-84
4
-6
24
-12
60
-32
36
-35
23
-71
30
-42
14
-66
44
-56
76
-40
-68
32
-5
61
-6
-115
26
-18
-12
34
20
-10
-16
-71
-36
-27
35
41
48
13
-18
19
-17
83
-59
-38
61
-19
6
42
-49
-37
-38
1
-35
-23
-5
-15
-29
16
-19
25
-32
21
-13
-80
16
11
-23
-37
-43
-12
-1
45
6
-7
32
64
18
7
63
15
-20
-42
59
26
52
-11
3
9
-25
-7
-7
0
-17
-15
20
-48
0
-10
78
5
-72
-56
-35
-19
20
41
-23
26
27
46
-76
-4
24
6
-38
-35
-49
-39
34
44
-11
95
24
65
13
-3
-37
43
20
3
-37
-30
16
57
-5
-55
-13
14
-72
-118
127
-28
79
-16
-14
-12
76
61
80
7
-9
80
83
-54
-40
35
1
-12
-45
38
-10
-61
-52
-36
7
3
22
-28
27
5
-22
-15
-12
13
-59
25
-43
23
-17
46
-53
-10
-30
-42
47
-46
-16
-45
-6
9
36
3
16
-67
-20
5
-31
5
-39
-13
98
21
-74
28
-15
30
-69
-30
30
53
-14
41
-38
-51
19
-44
40
-89
49
1
-38
-64
-78
22
-24
-93
-7
28
43
31
-32
24
-27
23
4
14
-46
-60
8
-4
-44
23
30
5
14
32
19
-38
31
67
1
31
-30
-53
38
47
17
-16
-49
33
-28
75
-16
52
40
-58
65
-53
-43
26
20
-4
-12
-32
21
-47
-46
46
-2
-127
-47
49
-33
-41
-64
17
17
-75
-4
-43
17
51
-45
21
-85
56
13
-33
-35
-7
32
0
41
7
-33
50
-6
-56
-52
-50
-22
65
-44
-37
10
25
4
-54
-30
-87
-6
-6
-14
-9
-20
58
-34
66
61
-52
-20
-42
-16
-16
29
31
21
-3
56
5
70
30
23
63
35
5
39
16
-37
-40
27
55
13
76
-15
-4
-30
-39
19
-31
41
60
-5
31
-33
-8
-29
43
-43
-60
-8
5
68
51
-17
-52
38
-14
44
4
-41
-48
-7
-27
9
-65
-57
79
-93
35
13
-8
29
33
47
-54
-42
-4
-21
-2
52
-29
3
-78
-68
-24
42
64
64
-74
-25
-19
29
-2
54
22
9
-58
-37
30
23
-33
44
7
-48
59
17
78
-15
-20
-115
-49
-99
4
-16
-84
-44
13
-2
-7
28
-67
-118
46
50
33
38
6
12
41
10
23
-1
24
46
-4
-29
8
-32
-17
51
17
38
-59
-35
20
-32
86
-61
-31
52
9
-118
-46
-54
-24
71
38
63
-7
-69
-40
-28
93
14
57
-30
-36
-38
17
34
46
-44
27
37
21
-9
3
-40
57
-34
94
-20
22
-87
-12
-33
6
-13
-16
-84
12
4
0
-34
34
62
-54
70
39
-51
-20
-3
-1
-1
47
-31
-10
-39
-45
-9
-19
-20
5
3
-64
28
29
-90
19
39
-13
58
-24
-28
-73
-13
46
10
39
-34
33
-13
-13
35
17
10
-6
-3
-62
-2
-80
-18
20
-2
45
-17
-11
-81
-18
-105
-13
86
14
-31
15
-96
44
56
2
-56
31
-76
-30
-47
5
49
-8
18
-31
19
43
12
-50
-17
29
-34
40
-19
8
-5
-42
-70
-20
51
11
-81
20
34
0
-10
20
-38
22
-59
-15
11
-37
54
-54
-61
-57
29
-22
19
39
-54
-5
15
14
0
69
25
-50
39
1
20
-104
24
-35
-52
-37
-10
-26
-59
4
-5
-29
16
33
26
0
-3
-32
-23
-57
-48
27
32
-46
18
-51
63
-127
24
-20
-95
38
-30
65
-67
22
12
-54
21
-10
-11
-35
-31
104
25
-24
-30
-34
5
-6
-99
-86
-47
31
-19
21
56
21
0
29
104
-8
39
17
66
-15
-9
-15
74
59
-25
45
15
16
17
-90
1
75
19
-35
-27
65
-81
36
30
14
31
32
82
12
-11
15
-42
-10
-23
1
79
-43
-9
-66
15
-6
25
-10
51
61
28
-33
-39
20
10
-9
-114
34
47
51
-16
10
40
7
12
41
-30
20
30
-20
30
16
-19
43
-63
-7
6
-11
-7
12
-18
4
-1
24
41
-32
-28
-9
-3
-38
-8
-22
-38
-1
27
4
-12
-37
60
22
-20
-22
-27
-30
11
1
-15
-22
-34
-47
-43
17
12
-26
15
-15
35
46
63
46
-14
-15
12
12
-28
39
2
9
-46
-33
-25
-9
-94
43
17
17
15
-17
23
45
-34
-13
-50
20
-11
-15
-41
-14
127
-40
-14
3
-6
-9
45
-12
50
-28
25
2
9
-6
-19
13
19
-29
3
-57
-6
-32
24
13
39
-10
22
11
-31
20
31
-1
-30
7
-5
11
88
-26
38
-30
5
-52
5
-50
18
2
2
2
-50
-55
3
17
-35
-37
48
-11
-43
-20
13
13
15
7
-16
1
-8
-24
-12
30
40
-17
30
20
-7
28
-31
-57
-51
76
4
-1
-21
-30
-11
-19
-10
-43
33
53
48
-45
-29
8
40
25
-34
-14
-35
41
26
-28
-8
9
27
-58
-33
5
34
19
-10
32
-19
-12
24
34
3
-16
-25
-29
14
-4
41
52
30
-35
10
14
-7
34
11
-7
16
-60
43
-47
39
-29
-44
-10
-39
-18
-15
-7
45
25
22
7
-12
-41
-10
-67
-21
-10
15
-35
17
-26
19
15
22
-2
11
19
11
-52
-36
45
49
2
-12
-7
-30
-14
6
-17
29
-24
44
23
94
13
42
-28
-4
-11
-9
-19
-9
-5
3
0
42
51
-5
16
-21
-9
22
-10
1
42
30
33
-3
6
11
-8
24
-99
-57
36
-25
-8
14
27
-30
-16
23
17
-17
-32
3
7
-18
-13
10
7
-11
-25
35
12
-10
59
-19
14
-1
-6
16
-31
-1
-39
22
38
-13
8
-17
13
-23
-49
-7
-2
-10
-12
-17
-65
7
-50
4
1
-22
-20
64
-2
-27
-27
-36
-2
10
38
8
39
14
38
-19
48
-16
-23
-2
-18
-11
-17
8
12
17
63
-10
20
-4
29
1
1
-21
-56
32
-6
8
69
-20
11
5
-127
75
25
-8
-23
3
-31
13
85
-3
-9
1
-12
-24
-47
-65
-6
-3
-30
-31
-27
63
-38
47
-18
12
20
13
-1
-27
-2
-16
19
-10
2
-16
-7
18
2
17
31
-6
-4
-10
-24
1
-2
-2
7
23
-28
22
19
-13
-7
20
17
-24
38
71
-10
-41
-10
18
26
-2
-15
26
-40
5
-36
-20
-11
49
16
-34
21
-25
23
-20
10
-127
-13
7
12
8
4
1
11
-31
-24
-29
37
14
-7
11
26
28
7
-7
2
88
7
-21
1
-35
43
-29
-2
-14
8
0
23
87
29
12
-4
11
-60
-13
-17
-54
10
23
8
-30
-19
-21
8
18
-57
82
-61
18
86
22
3
-46
67
-11
-74
-71
66
-59
-26
-117
-65
-10
3
38
14
-10
16
31
29
42
36
-75
31
-18
16
9
-19
-25
-56
39
30
3
67
-52
1
-18
8
7
42
13
-14
22
68
15
39
114
-105
36
15
41
14
-55
47
73
79
71
-35
-22
28
25
-3
17
-30
-26
14
-70
2
-26
-10
20
0
0
-44
-56
4
-41
0
-115
-25
-8
15
31
35
-18
12
41
-14
33
56
43
-65
25
-12
-91
109
-58
33
13
-80
25
-18
-24
7
13
-27
43
55
7
34
-1
32
32
-81
60
-2
-91
33
26
7
-36
22
75
13
-30
-16
32
47
-18
-71
-15
47
13
51
98
-15
-34
-39
13
-13
83
38
-43
-24
51
39
57
40
-37
-51
2
-15
39
-13
-18
-15
-44
-19
47
-8
-72
127
5
-52
83
-29
-49
43
28
6
-26
-7
-29
12
-1
60
23
2
9
3
-88
-74
-72
-7
-28
35
-87
6
28
-7
-82
-35
31
7
43
-24
-10
-3
-21
44
-28
17
-28
-39
-85
119
47
26
80
-7
-14
-14
36
6
35
-29
56
32
-6
-18
-31
51
9
36
-25
3
40
84
73
37
-60
42
16
94
14
-86
34
-21
1
-27
-68
4
-47
50
89
27
3
-63
-30
-53
-64
-35
-10
81
16
20
-2
11
-53
16
18
-15
10
-33
31
-21
-30
33
-29
2
-61
-31
-88
-37
2
67
-63
20
-8
103
-126
-29
23
-15
81
80
27
88
33
7
-59
-72
72
-61
73
-17
-35
22
-94
20
72
-70
-24
-10
59
8
17
12
-66
-10
-39
9
-60
-73
-30
27
-61
-18
-45
25
-11
76
-35
-12
87
5
3
-21
-13
84
-1
-35
40
-3
71
24
-60
9
68
-36
-18
21
-70
-16
61
-42
43
-36
69
12
22
26
33
-21
-13
57
14
40
-15
29
63
5
29
-15
112
-20
21
5
19
-34
-68
-37
-18
-40
13
-7
-8
3
-69
-28
-16
80
79
-13
-21
-14
8
51
66
-52
-6
7
-33
57
66
14
-93
18
8
-30
24
93
41
-1
-83
-15
-24
56
-76
30
-25
1
18
-5
17
44
47
-23
24
-2
29
14
73
-100
-1
-13
36
-4
6
-78
-14
42
-59
43
-32
81
7
40
-37
17
-21
-85
28
15
-18
18
-34
-49
11
19
11
44
-18
33
-127
-18
71
13
-1
39
-12
45
17
-8
51
29
-48
-25
13
94
-68
15
-14
49
-39
-29
-65
24
-30
41
15
19
-17
93
-20
21
-66
-81
39
74
37
-109
-9
67
25
-66
37
-65
-43
-68
-56
23
-4
24
-4
15
-4
-2
-83
-14
-10
-25
48
8
-35
31
43
7
116
35
29
55
74
-26
36
30
82
-123
54
-72
10
-27
6
3
-93
-26
-33
-6
27
-9
-41
57
19
-11
-7
43
75
23
-68
-26
4
-52
-30
-82
-72
-12
-42
70
-23
-5
-10
-100
-10
-27
-28
4
-45
27
58
53
27
-9
-1
12
-69
47
42
-55
-127
32
-34
-34
-31
41
41
-36
26
0
53
0
68
29
-38
-94
-17
-47
-17
57
21
-26
-75
88
21
-23
62
-6
-42
86
-36
-54
25
36
-67
0
30
-39
-32
10
33
51
-92
11
50
-5
26
13
-20
-96
13
-11
39
-38
-14
-6
52
-50
39
-18
35
-36
49
-16
-18
0
71
-14
3
10
-46
-40
-31
-32
4
75
-18
66
-36
-2
1
-36
-15
121
45
-26
-56
-8
-26
-3
30
8
100
-28
-29
37
-83
17
-96
-61
-32
-33
47
19
-14
-82
98
15
-74
-44
-62
-64
56
3
-57
-6
-17
-33
-59
-34
-38
-7
20
-33
-40
-22
-50
27
-20
29
31
19
53
41
4
52
3
77
-9
-28
-28
-45
47
31
-33
-24
-30
78
32
-25
5
8
-14
-19
-5
-43
20
45
-6
14
-21
52
25
-22
-19
32
-6
27
5
9
14
0
46
10
19
-41
-18
60
54
21
-16
3
-17
-18
-6
-12
11
15
27
-28
-5
19
-13
-1
9
37
-2
32
7
12
-4
16
-7
2
23
-17
-2
-3
12
-22
15
20
13
-3
-22
-20
30
-22
116
23
10
-10
-30
20
-8
3
9
-50
3
-16
3
-5
-53
26
25
7
-21
-30
-39
4
30
-19
-2
27
11
3
-12
-127
-74
29
10
13
8
-18
22
-30
33
-18
31
-10
1
-21
-3
1
-53
-23
-7
26
44
-22
7
30
35
-11
5
43
-55
28
10
21
29
-53
21
14
-25
-39
-31
6
-10
3
12
-6
-39
25
-6
-19
-6
-23
-8
-20
9
9
17
3
-31
-1
46
18
15
-7
9
18
-25
-24
0
-32
-46
-13
12
-45
0
7
25
-1
-17
41
-34
13
45
-2
-11
10
-32
9
-42
2
-2
-28
9
4
14
20
-4
41
-35
4
26
-28
45
-10
10
-18
-49
17
13
-29
32
-40
32
38
24
2
12
-24
-23
-35
36
-4
19
-3
-19
-10
-14
-44
-23
6
-17
17
-9
13
-5
-15
27
-17
13
3
9
29
-28
27
13
-19
-18
-2
-22
-45
16
-7
13
-22
-37
6
-27
-17
-18
-36
-1
19
7
28
-11
28
5
-45
-4
30
4
52
1
20
9
-29
-13
14
4
-1
-21
21
1
-15
-9
-35
-38
-21
-9
-18
17
58
-20
-41
-12
-6
-41
12
7
-35
-7
18
34
-38
37
30
-28
50
-42
13
-5
15
-9
5
10
102
26
10
-16
36
-20
60
18
-50
22
41
34
-4
-8
39
-22
7
-75
-55
38
33
-35
-33
58
69
20
-37
-14
15
-38
-11
-9
-43
-4
2
-8
18
31
6
-29
4
12
8
55
-28
38
-4
-12
-24
35
-41
36
28
0
-20
-30
-39
8
-25
24
4
-38
-23
-47
4
-22
3
19
17
30
41
-16
56
-34
36
-12
-13
-9
29
3
-54
26
18
-16
-5
-18
23
40
-31
-31
1
-50
55
8
-12
-30
-19
-30
47
10
13
-54
23
30
6
-24
-5
-106
-93
37
16
-49
3
-49
19
-12
-11
-31
34
-15
-58
0
-44
-67
15
-6
27
10
-16
-25
76
33
-29
-10
-15
-1
-7
-13
35
-47
34
-4
-71
19
-4
10
23
32
-31
-37
-5
-34
-17
51
16
77
-14
-18
108
8
10
36
41
-35
-7
-9
21
-10
6
-14
53
26
40
-10
26
29
8
23
-27
18
-8
-30
-52
-35
-9
-20
-49
-11
-15
-1
16
62
-1
0
7
-45
-3
-34
-43
73
10
21
-57
6
-30
-27
-44
14
3
-43
-11
30
-50
35
-18
13
-127
-47
9
-32
10
16
-58
-18
26
34
-57
-64
13
8
18
20
15
-44
-23
20
27
28
40
41
11
24
26
14
-35
29
54
-18
12
-45
46
55
47
-22
28
-15
63
-20
34
46
-44
-2
32
-79
-39
-74
33
33
-94
54
-8
-48
-9
-78
-79
41
33
33
-10
25
-72
-19
15
-50
15
-51
0
58
41
-25
11
33
-15
-19
-15
85
-36
-58
46
-10
40
-14
-11
11
-25
48
-39
-21
15
2
14
112
21
25
-5
-64
-11
-23
-8
-22
46
16
-30
21
4
34
40
-2
7
-67
-20
-15
-14
-49
56
-3
-27
-93
50
31
-5
-16
0
5
13
-69
-17
-7
-10
-25
73
9
-19
-33
-86
4
83
-45
-51
58
12
0
15
-10
-6
51
42
51
-21
-49
-11
-52
-42
41
-22
52
-4
0
5
1
16
61
-44
-64
75
14
58
25
-22
9
69
-20
7
-127
22
23
25
32
45
-20
11
-79
-60
-27
-73
-17
-10
23
-7
75
37
-2
-35
69
61
-66
76
-1
-9
-37
-58
-39
32
-41
-9
54
-10
7
-37
-38
16
26
38
40
10
29
19
-30
13
125
-36
78
59
-7
28
5
9
79
-36
-26
-22
-34
-31
-15
39
-34
-21
-5
-25
73
-44
-14
17
-21
13
19
39
-63
-66
9
-36
64
-36
-19
-51
-3
-8
-27
53
-18
-16
23
35
-36
1
32
11
50
-14
2
29
-1
-3
-19
23
23
-9
-14
-25
-15
13
20
17
11
-8
-1
6
-56
-6
30
-2
27
30
-2
-29
11
-12
-17
-25
88
3
-5
10
-16
39
12
35
-22
-8
23
23
-9
16
-15
-4
-27
-7
0
3
-23
9
24
-8
-21
-8
-18
0
34
30
-10
7
49
-3
4
-21
15
-44
-5
20
25
-5
6
2
-3
5
11
-17
88
6
19
-24
13
15
8
20
42
-15
2
-7
1
-23
10
13
6
-31
6
6
-3
-12
32
12
-19
0
-1
-16
-12
1
-6
-6
18
12
-10
11
-10
7
-46
-4
28
-8
-23
-24
18
14
-22
-4
33
24
-6
-8
-35
-7
5
-9
4
0
-16
-12
-1
1
-23
-10
23
-18
2
-127
29
1
62
14
5
-8
21
-15
10
-2
-21
-5
1
-10
43
2
-7
-70
28
20
27
-35
1
-27
-32
2
-3
-7
-3
3
-30
7
6
-38
28
2
21
18
-7
4
-32
10
-28
-5
-21
-7
23
-23
17
-13
-25
20
-1
-11
-1
14
-3
10
22
-9
-25
-73
-50
7
16
21
-7
-22
4
-20
-10
0
-17
-19
-6
-10
12
3
-4
8
-12
-20
-15
-30
-17
12
17
-49
-6
4
-12
8
19
-5
-60
-10
28
-16
-4
-20
-24
13
3
-10
-22
-13
22
41
-26
-47
57
17
14
88
20
-9
4
-13
23
-40
-36
2
20
-5
-51
-16
50
57
-1
-14
-1
20
-5
28
24
-12
-38
6
-2
32
-7
25
21
-3
-15
7
8
-103
-13
15
-38
24
0
-9
25
-5
7
-20
-8
5
11
4
-30
15
-2
-10
-22
-13
-14
3
20
-13
-49
-26
-1
9
-18
21
-8
-10
-63
23
-26
10
1
-30
-47
-47
-9
1
42
-22
-17
50
-4
31
-25
-24
17
7
40
4
17
33
28
-28
2
-5
16
45
12
-4
21
12
-23
17
-47
-23
-1
14
-21
10
43
20
-1
-5
30
-45
37
11
26
-15
20
29
22
-26
4
16
-15
4
-24
4
-8
36
-40
2
-3
-20
-12
-95
14
29
26
-3
-20
-8
17
4
-15
-14
-17
37
9
37
-6
58
24
22
-15
0
8
-18
35
-11
32
-17
-46
-22
-25
-25
26
-2
-127
33
10
23
-52
-21
30
-7
53
59
-18
12
3
11
-31
32
-35
25
-10
-6
-24
39
-1
14
3
8
3
-28
-3
9
16
18
-14
5
86
-1
-22
5
29
31
-44
-63
27
-34
-15
19
-25
4
-31
-16
17
9
6
-7
12
-17
6
1
-48
-43
-22
14
3
-5
-14
-6
-12
-17
9
10
-13
25
-4
-81
38
45
15
-17
-46
11
-5
-9
-2
-6
-4
-2
-13
6
6
-33
-11
-15
-13
-81
0
-25
-6
-23
-1
5
-10
12
37
30
63
-2
-30
-2
-28
18
-13
-15
-16
-1
-5
22
10
-3
-18
6
3
32
-17
22
19
10
16
1
-28
-4
-22
0
46
-21
-9
15
-30
-28
2
-14
15
23
-47
-13
-5
5
11
5
-11
13
-9
20
-13
19
-25
-18
24
0
-21
0
-5
6
-20
-24
-1
6
13
21
3
-27
13
19
-21
-59
8
-20
0
12
-22
127
-26
53
-37
-28
-7
0
34
29
2
10
-11
-6
6
-19
-5
39
-2
-9
-36
-6
-3
-1
-4
-41
-20
1
4
-12
-9
-4
28
-9
17
-7
22
-3
-12
35
39
22
7
-3
24
-2
35
-25
-29
-60
14
-9
4
-24
15
9
13
8
-25
-4
-16
-41
-15
20
51
-2
-15
-21
33
20
56
13
13
2
-11
4
5
-40
-38
0
-20
-23
-12
22
9
37
-35
23
0
-8
28
21
-7
4
-14
-72
31
10
-22
-45
-14
18
-58
-7
31
33
45
16
8
47
-7
-31
-8
-21
-7
-6
-15
0
15
14
1
-44
-7
-13
-34
-4
10
-26
-19
31
30
-1
19
-2
6
-12
10
10
-13
21
5
5
-9
-24
12
29
-15
1
14
-35
11
16
-6
4
-15
12
-25
-25
10
-25
10
14
-5
22
1
-87
45
11
5
-26
-115
-18
-54
5
14
56
6
20
-10
-17
-19
34
46
10
17
-5
10
-27
-12
-23
-24
25
-1
-31
-37
65
-4
-33
-14
-40
-10
78
-34
41
-30
17
-13
-26
24
-18
-5
-9
-1
39
27
21
-45
-75
-38
12
14
-17
26
13
-6
6
-30
35
19
-100
24
-30
-6
-61
4
12
5
19
-22
-42
-35
0
24
-40
-5
16
-14
-19
-18
-12
26
4
61
-4
-2
36
44
11
-1
-8
27
-7
13
-32
-4
-12
19
-44
23
37
28
-3
18
40
-23
13
3
-13
-7
2
-27
16
33
-22
2
27
-23
33
57
49
-22
22
-49
15
-10
-32
17
62
-1
0
48
87
37
9
12
27
-28
8
-1
7
33
10
13
14
67
45
-26
-32
-17
-8
0
66
16
5
-22
-1
28
-19
31
-14
-2
13
-32
18
9
2
-17
-56
17
-16
43
-33
-64
29
-31
7
7
17
16
16
-55
4
6
19
-14
51
-64
-4
10
2
32
24
12
23
43
17
8
-19
-52
7
9
-42
-11
22
-22
-3
46
-2
12
-45
-20
21
28
3
-9
-20
-16
-29
-16
46
-9
-7
-53
-61
34
-9
-5
-5
-72
-2
-127
-5
-20
-6
-92
30
-1
25
4
-25
25
1
-47
18
-23
-20
-2
-33
-23
-9
-1
-27
18
-5
9
11
2
-5
-22
74
70
36
46
-29
19
2
-4
-14
-22
-2
56
41
-3
-43
-10
-63
-32
33
-36
-14
-5
15
-127
52
4
67
59
1
6
2
23
-2
-3
-26
-39
-8
18
-30
-31
3
-3
17
-5
-6
-64
4
-51
3
-10
35
-52
14
-2
40
58
6
-12
46
-41
-33
-8
23
-41
17
26
-26
37
-44
-5
8
-30
-37
-1
-21
45
11
-17
19
16
13
25
29
-18
0
5
-41
74
-31
-5
8
6
-23
10
-28
-71
31
90
23
-31
-49
2
12
0
3
27
43
35
55
17
33
-72
-55
-28
-15
-40
-1
22
-42
12
-31
54
32
11
36
-50
16
48
34
-36
-10
88
-8
-57
-30
-1
5
17
73
27
19
-33
11
-18
-28
4
52
5
-5
9
-28
-19
-11
8
108
69
-47
4
34
25
36
47
72
22
-41
-28
18
-30
-109
-54
-14
44
-71
98
19
-17
-12
-68
18
-62
-17
-10
-7
-8
-55
-9
-9
-21
-51
5
-31
16
-16
-16
17
-30
8
32
-24
7
34
-7
6
12
1
11
-45
-44
53
-29
9
-4
-18
-3
27
32
8
9
10
-7
44
16
14
23
51
-42
23
-24
-9
29
-13
12
-63
2
22
-43
11
27
-82
-54
8
16
23
-16
-16
4
44
33
31
-40
0
-60
3
-127
6
-4
-43
-18
-6
-22
23
-61
-11
-39
-60
63
7
-21
12
-45
12
4
-2
3
-7
-8
-95
2
6
-11
3
37
31
-31
2
31
67
-24
44
9
-18
24
-32
-36
90
-23
36
-26
-17
-2
-36
6
-14
6
31
11
14
26
-20
-13
40
68
-14
44
-22
24
-54
-19
-8
-22
-5
49
-17
-35
-2
87
14
-5
18
41
51
-4
19
-55
-11
-14
1
-5
12
-40
9
-5
9
6
19
23
-7
33
-74
20
-20
0
40
-43
-4
8
-56
38
-7
-10
1
-12
23
-27
5
-10
-10
2
7
59
-4
9
-2
-11
23
-13
23
16
9
-1
35
16
-9
-20
-47
-10
-13
-8
20
6
-42
17
13
-45
-7
-14
38
22
24
-60
7
17
-14
-25
-17
-10
27
45
21
11
-11
-6
-36
31
5
-9
54
-52
11
-66
-18
-33
33
7
6
-10
26
-8
33
-6
-8
-70
20
35
-39
-22
-35
-11
32
75
2
12
99
-6
-24
36
54
-2
-9
-36
-67
36
-27
19
22
-20
-13
1
-8
27
2
-18
29
14
-22
13
-32
36
7
15
-13
-54
23
17
-17
26
-50
4
-3
-6
-4
-34
-43
7
-24
25
-8
-6
16
-14
-49
-37
21
5
40
-20
-32
26
-1
1
-20
-4
63
10
-5
27
3
-49
18
-40
1
4
3
-21
-41
21
51
-18
-39
10
8
16
10
-25
-16
-9
-4
-33
25
-50
-12
-7
20
-36
-27
9
-17
-8
127
-77
-16
-17
26
24
4
-40
-50
33
-49
-13
-21
-8
-2
14
2
-50
83
29
-18
-13
-33
-14
-9
-44
22
20
17
-24
11
-28
2
-42
28
-17
20
10
-53
-31
-32
-3
21
-1
-6
3
-22
-11
-29
11
-47
9
-5
14
-12
10
-12
-57
11
70
-3
53
10
-17
13
-15
-21
-3
11
-18
10
-28
-1
-4
-55
-19
25
-1
3
11
-31
-1
40
-7
9
2
6
-6
-47
-42
13
60
-17
45
-4
2
32
9
5
-54
73
47
7
6
35
-29
-39
-43
-14
-50
29
14
37
31
29
126
20
-23
37
-8
-32
-4
-42
1
10
1
-21
-9
41
48
5
-70
9
22
-21
-17
-16
41
-89
-29
3
-47
13
-5
4
-7
33
-32
-5
-14
1
-4
-50
-9
18
-7
-22
-26
27
-3
-12
-24
-66
-19
-35
22
-4
-11
16
-8
-43
-3
5
-4
1
-4
-10
23
2
-32
-17
-14
45
-50
-11
-24
-55
7
-44
5
1
0
-20
-80
13
-11
-53
-12
-10
-6
-34
23
-1
-22
0
31
-41
10
24
4
10
-44
-1
-40
109
6
-5
-14
54
-12
11
13
23
16
5
-19
-13
18
25
-49
-26
0
3
-15
-27
-12
-10
-4
10
25
-13
-5
-42
-1
-58
4
35
11
14
-3
25
5
-5
-23
26
16
-56
35
23
-1
-17
-4
-14
5
14
14
-17
11
-21
11
51
-21
-18
-52
22
2
-27
-17
1
-31
41
3
29
0
6
-32
3
56
6
10
-15
-1
-5
32
30
72
-11
2
-23
15
15
14
4
31
-37
-35
21
-6
-21
44
15
102
20
-18
-37
35
-4
45
-18
-1
1
19
25
32
-26
-12
-5
29
-35
27
52
3
-10
-1
-39
11
-24
-15
51
15
10
4
4
0
9
-32
-37
2
-4
17
39
-5
-10
-5
-36
26
27
-20
-21
-22
-29
-25
-19
-1
-31
2
-6
35
22
-9
-1
-9
9
27
-5
-10
-6
14
9
-40
-43
-44
-3
23
-34
-1
-127
3
1
-14
27
-12
-11
-17
-39
18
29
27
23
24
3
-18
-14
24
3
6
8
-42
12
42
15
9
8
-35
1
18
36
32
3
-38
3
47
17
15
-16
-37
-25
30
-11
-9
-27
0
-30
-28
-56
-12
-11
6
-11
53
-27
-14
2
-24
34
11
-20
9
-21
-61
-16
-49
-6
-27
39
14
-27
-14
-8
24
-24
-4
11
-1
23
-6
-27
-16
11
26
10
-2
19
-21
22
-17
-2
23
20
22
-55
-8
-11
3
-46
-22
31
38
-19
-25
13
-34
-4
31
19
7
13
37
-18
-4
-52
11
37
1
24
31
22
-10
-15
42
-34
-35
-31
-24
22
-69
-24
-5
28
24
-26
19
38
3
37
-1
28
-24
31
-41
-28
-2
0
-48
-19
2
21
-17
-1
-11
-40
57
20
16
22
19
-41
-23
-5
-20
27
-19
-32
15
-2
39
-36
15
57
22
3
16
-17
84
-23
-37
-10
42
2
46
50
-11
54
-5
-79
39
-18
24
42
-34
27
-45
-39
1
-4
-1
10
-4
-11
-10
-45
21
-38
-18
-14
-13
3
127
18
-16
7
14
-34
10
-17
-10
2
-7
51
2
-1
19
23
-26
-33
-35
-14
-16
16
-4
12
-34
-7
-22
-24
22
87
-16
-37
8
-14
2
-6
24
15
-78
-4
51
-19
25
-26
23
-16
22
19
36
28
4
-3
-57
36
55
-10
2
57
-42
83
-65
0
10
-20
10
-47
-42
-8
-33
-29
53
-12
-20
-64
0
14
37
28
-65
2
18
-5
13
0
-19
-61
15
46
-15
78
-23
-18
12
1
-8
13
-60
-35
26
1
3
27
29
14
4
7
-42
69
-7
30
-33
8
-42
-9
-17
-1
29
58
-64
-48
63
-40
15
27
-22
-10
-28
62
-59
-3
-72
78
0
0
-32
31
65
4
36
-49
-16
32
4
-27
-50
6
8
7
-34
-19
110
-51
-76
-23
-23
-5
-69
-104
20
-22
39
60
-20
-33
17
-62
-9
-21
49
1
31
75
12
-14
56
36
-76
-25
-3
-2
-8
-74
31
-25
32
15
59
54
-21
-28
-32
79
2
24
50
6
-97
56
30
38
-45
-66
-50
27
-31
26
-25
-67
-58
-38
25
-28
63
11
36
25
-7
-33
-22
24
-46
-52
-8
40
100
8
2
51
39
68
-32
-33
62
-48
-31
17
41
-31
-16
-107
-38
-29
-36
-37
-53
25
-8
37
-27
-30
-17
19
5
46
-42
-51
-103
-74
-78
25
-30
-2
-29
-14
-37
-35
-24
42
-89
22
-79
74
-18
0
-49
-8
52
-10
-45
83
18
-26
44
-33
43
-55
29
1
-70
-36
-33
27
71
-16
45
-20
20
15
47
-127
88
-9
-43
6
-69
-61
70
71
18
15
74
-82
-17
-1
-40
70
78
-32
-34
-49
-7
-10
-30
34
-4
36
78
54
-6
13
-36
-16
-13
-68
1
-15
37
28
45
-14
45
12
-52
16
24
-35
-11
-16
-4
-108
-2
-6
-52
-2
-1
54
-15
-17
28
78
-68
-4
-22
-9
-2
67
-35
-29
47
-70
57
54
-21
-19
80
-51
20
-17
-3
-45
-12
-23
104
37
-21
23
4
76
-1
-10
-86
75
31
64
-16
7
-23
-40
7
37
-6
32
-44
-15
23
17
-123
-68
123
-37
40
60
4
52
9
-10
16
11
-8
28
-50
-25
-76
8
-25
-22
-47
-1
-47
19
10
-16
0
1
-40
34
-37
-52
-15
29
26
20
-24
-11
-50
-38
16
41
-2
-63
-4
-58
8
45
-2
-44
34
-35
-17
-20
10
-23
-58
-29
58
-8
-10
-57
-127
-22
32
-14
42
70
-35
7
39
-25
33
-34
-1
37
-18
31
-2
14
-42
-7
-9
17
-68
-34
22
12
-27
-108
-41
-52
1
0
23
10
24
25
-35
-18
-36
12
20
-32
-14
-76
22
0
68
-14
-11
32
8
10
23
43
0
20
44
-25
-24
-11
13
-86
-8
31
25
-8
-15
48
-45
20
-23
-86
8
18
41
-50
-5
-1
-19
-65
-57
-45
-56
-12
49
-11
26
11
21
20
-8
-57
4
48
-44
-32
-21
0
7
24
-23
9
-69
30
-42
-21
1
15
-25
-28
-24
-7
0
-76
42
-88
30
-52
-9
18
-63
4
-49
38
21
-24
20
-26
73
53
83
33
23
7
-5
18
-18
26
-8
-5
2
6
11
8
8
46
82
12
2
-14
60
-20
58
-19
-8
65
4
3
28
42
30
-21
-59
51
24
-57
57
-11
-23
-16
22
6
-56
6
11
-40
67
14
50
40
-37
36
18
-7
2
-10
-26
-13
-62
-25
-81
24
55
52
-37
33
-50
-22
-25
8
27
-112
-19
-24
10
3
-25
-20
-102
-110
-14
38
0
11
-50
-2
26
-21
-90
26
26
-20
-23
-74
-14
-32
25
-17
45
6
-127
8
11
-19
-14
52
39
22
-4
0
34
57
43
61
-29
42
-5
42
13
-46
-30
11
-64
-9
-50
-33
-6
-62
-14
-15
-25
12
-28
-11
-62
84
16
-21
57
-16
29
58
0
-28
71
8
38
6
39
-28
-13
12
2
51
-23
43
36
71
54
97
30
55
7
79
-6
-46
-9
8
28
29
-65
-38
54
15
48
24
-17
-93
-11
-32
11
-5
-14
16
-5
-24
27
-39
89
-42
-8
-23
-58
-61
-49
-10
32
95
-4
-58
-50
28
4
-78
-2
25
2
-53
-6
1
65
-44
47
39
30
-63
53
-16
61
-45
34
-5
52
-54
-4
-8
26
64
-58
37
-17
-27
-84
29
-39
14
-38
-32
-86
-28
9
50
-18
10
15
2
53
-70
13
-19
63
-23
13
-68
45
74
32
-9
58
1
-4
70
-2
-32
-18
0
-63
-28
-3
13
41
-11
6
14
-69
15
10
77
-33
-24
4
29
77
-13
23
-13
7
-21
40
-14
13
-6
-28
24
15
-41
-21
-44
-39
-74
-29
-14
22
-36
-8
-4
-18
-17
20
33
-24
14
56
8
-45
-76
-12
15
7
5
44
-23
-13
29
-5
21
-10
17
12
-21
41
-12
-6
-61
-6
49
-8
41
-72
15
36
109
6
-50
-61
60
29
42
-28
-59
113
-54
-21
-2
-5
23
38
-12
-25
-4
-4
53
2
19
0
4
-51
-69
-35
-55
13
-62
-65
-12
-29
-39
-5
-7
-45
-64
-1
-48
44
34
-27
-8
-15
1
-30
-50
-8
19
-6
2
39
-49
20
25
-32
7
15
-26
35
5
43
33
4
-13
-76
-35
-16
18
-5
-24
-4
1
9
-6
-8
-26
-39
-36
30
1
-35
12
-21
-77
1
-8
18
26
-23
8
-6
-76
51
60
-1
13
16
38
0
10
83
-17
-31
61
-50
-26
-19
19
43
4
-31
2
23
-5
25
23
-31
-7
-37
-38
-46
75
127
-8
23
29
38
-24
-2
6
-35
-9
-32
-5
-8
-52
16
17
29
66
35
-81
-87
3
2
42
9
-11
-49
42
-31
-61
-40
-50
-19
18
-45
12
17
-35
-17
-28
14
-1
-31
35
38
-3
11
10
-4
43
-27
17
25
28
-15
5
-26
40
13
-17
-11
-50
-1
-13
-10
69
-21
-7
3
18
7
52
7
18
29
-21
96
-10
2
-27
19
38
-11
-65
-31
33
20
-35
-74
9
-27
30
27
-20
-13
-5
-23
-10
-22
-18
20
17
27
9
-30
-22
0
33
-15
-27
-54
-18
5
21
-14
10
7
-17
-16
-3
12
127
-8
9
-27
-1
-5
36
-38
-15
-81
1
30
-24
80
-38
-3
-2
-11
-14
-2
-23
14
8
12
9
6
-12
-37
-13
-6
23
8
-23
-12
-14
2
9
3
25
54
2
-36
19
-7
6
1
19
-16
12
11
-8
8
5
-5
-23
-5
-27
3
1
8
0
-10
-18
-11
1
0
44
-25
-4
19
38
30
-26
-4
46
-8
24
-4
-23
-14
-1
3
-7
-25
0
-21
-2
-15
3
-21
24
19
11
34
-32
12
-31
-7
23
-17
21
-9
-6
28
1
19
6
6
10
-36
-1
11
2
-43
-28
7
-54
-37
11
7
6
-14
12
-35
54
-11
12
42
-22
-22
-20
0
-23
-13
18
14
15
-18
-7
30
-9
4
-9
24
13
-10
-4
8
20
6
20
-15
-7
-24
-22
-19
27
-5
-1
-37
10
-61
72
-21
0
-13
32
-7
-19
-2
-8
11
-4
14
-10
11
9
0
-8
-3
12
1
8
-5
-8
7
-6
17
10
-11
7
-34
-43
-4
-3
-8
-13
3
-10
18
1
24
-2
-21
3
21
23
-25
16
-6
11
-1
-3
2
27
5
27
-7
15
3
11
-17
6
-30
-12
7
38
6
-10
-10
39
-14
-16
-1
24
16
-33
-4
16
-4
-17
52
19
-10
-17
13
22
-17
60
21
-26
-40
-30
13
86
20
-17
24
18
8
-10
7
18
-66
-30
-25
86
62
-50
-6
26
11
28
-77
-3
-52
4
-21
-41
-33
-49
-2
51
-23
35
20
-23
10
52
-12
16
33
22
-44
-64
4
-18
36
24
-127
1
5
-54
57
24
61
80
48
-14
-26
-3
-17
-67
-4
2
32
7
-17
-12
21
56
43
-46
-43
-10
-38
5
-8
2
-5
32
-78
13
-30
33
22
-28
-41
-4
35
-49
-10
-10
9
13
0
-9
-4
12
20
-3
76
37
-6
4
-27
-8
22
-72
-27
-35
-26
5
-41
-67
-20
75
41
35
8
-28
25
-57
28
-18
57
-32
32
-13
-22
51
-27
-35
-25
-48
-10
4
1
31
-19
18
-83
1
36
-59
-13
31
-54
36
-6
63
-79
-5
5
-64
-46
61
1
-20
1
12
57
-21
-26
45
22
2
-16
-16
-9
-47
34
116
6
104
54
-26
-24
11
-4
-15
-36
-4
38
26
-28
-81
13
-52
-29
-25
16
-12
52
7
37
-38
-57
-6
-49
-5
3
-2
-58
30
-13
-7
18
8
-42
20
10
-9
-9
-56
-8
-17
-1
7
47
-93
6
41
-41
-41
-19
2
-11
4
-27
-38
8
-25
-20
23
24
-52
-18
-25
-24
-28
30
-28
33
-12
-32
-12
-19
-19
3
-51
0
-5
11
17
-25
-5
-28
22
1
-35
-20
64
-35
25
21
-20
-18
9
4
-46
-3
-6
21
-9
41
19
-40
111
-5
-13
46
-7
20
45
-36
16
-50
9
26
-23
23
7
54
-7
-9
27
13
30
-3
40
-20
-15
51
46
4
-48
-13
-36
-16
1
28
-52
-1
-23
-4
-30
-12
-31
-36
11
-16
15
3
4
12
-1
37
36
-35
33
22
-13
30
69
26
83
20
-64
8
-15
-13
26
9
-1
3
25
41
-5
80
-26
-12
6
-26
21
-21
13
-14
16
-47
11
47
-8
4
1
-23
-51
63
11
39
-26
-10
-21
-5
15
-70
7
-24
-15
-41
17
-9
-16
30
13
-9
14
-6
-26
51
-22
-74
-2
-38
-31
-33
-12
-12
47
-3
-12
6
-35
6
-12
17
11
-9
11
-30
-21
24
42
6
4
9
-53
-8
9
-9
7
-61
7
-46
-13
-22
-4
-23
-15
-47
-24
47
-20
-2
-8
-46
-7
49
-5
-5
-5
-27
44
-14
31
4
-12
3
-2
41
-1
-12
-15
-68
11
17
-16
-44
-1
27
-3
0
5
-46
65
38
77
3
2
43
-41
-54
127
39
-11
-30
-18
50
12
25
-48
-6
5
-2
3
-43
-39
-28
11
-43
1
-15
4
-29
9
-36
-7
-12
0
13
4
0
4
-2
3
-9
-2
3
12
-31
-29
2
1
-17
-17
-6
-5
-25
12
19
39
-7
7
8
-1
3
21
-32
-3
3
21
7
13
7
-18
-3
-5
8
10
2
9
74
-1
6
1
-6
4
5
-1
22
24
9
13
-43
1
-4
10
12
24
-14
8
-48
-10
54
-20
29
19
10
28
4
9
-5
-8
28
-15
21
10
13
-25
-9
-5
-10
-16
18
-19
0
-8
14
-11
-13
9
17
9
4
-9
-13
-43
16
7
-12
-4
1
-14
-9
5
7
3
-2
-11
4
-15
-15
30
0
-25
10
-37
-10
-9
36
-10
20
-10
-5
-6
-32
-14
10
-16
-1
-5
28
-8
33
-19
3
-9
-6
-6
50
-12
5
1
-11
20
9
2
15
-3
17
9
-26
-21
6
127
-3
-26
-2
3
24
0
18
4
9
-15
9
1
-2
-3
-1
-22
-24
21
59
5
18
13
-7
-20
3
-13
-2
13
19
-30
2
17
-7
3
26
-1
-13
-2
4
-2
-13
13
33
-25
-61
4
2
-2
-9
28
11
7
-5
-12
-10
10
-26
-26
20
13
-21
-3
-10
-5
17
5
9
-15
-6
1
28
-3
3
-1
-1
7
-40
11
13
8
31
-26
-5
-10
-1
-2
1
-9
18
1
-16
7
15
-26
-18
-27
-65
63
13
-81
33
-1
10
-10
-95
-49
127
-41
-8
42
-17
-39
-33
-31
-48
-3
28
29
56
-1
56
-8
-53
76
35
18
-49
2
45
45
2
18
-76
-32
60
-55
-18
73
-21
17
5
-61
-5
24
82
47
13
-7
-13
-59
-16
-17
-2
16
23
-28
48
80
-17
-42
12
10
-91
0
34
-77
25
40
34
-59
-47
-48
-2
16
-8
-32
-16
8
-9
34
-39
9
-8
-44
-19
14
5
44
-38
-32
3
-22
48
19
-43
-13
46
18
2
46
-22
-94
-6
43
14
18
-32
8
0
-86
15
-10
6
19
-5
-68
-22
-11
-27
14
17
17
26
-36
25
43
-4
-32
10
-38
61
39
-7
-4
-112
51
-29
-41
-27
-8
90
11
-18
31
1
-9
-36
-37
-24
15
3
15
113
-58
-23
22
26
-25
64
-7
-44
37
-39
-48
-63
-22
8
-37
-29
14
-19
-108
-20
-1
48
30
-76
-33
-9
-46
-63
6
-10
-43
4
-40
-52
6
67
-34
101
-5
34
22
17
40
-27
-64
50
50
-5
-26
10
69
7
21
13
-26
66
20
-88
84
15
2
-10
32
36
16
41
-9
-7
59
62
23
-3
3
-12
27
13
-21
41
29
34
-9
-22
66
-19
41
-35
12
29
11
-61
-32
12
-2
-21
12
12
14
-5
10
15
15
-28
-17
-12
51
29
0
20
20
20
-33
-19
15
-32
-1
-2
-2
2
-6
41
29
-16
-6
-16
-50
-17
43
28
7
22
25
2
-33
-29
-16
35
-28
49
-8
-42
-44
-14
-15
-3
19
-127
34
-30
54
-4
34
24
-1
32
-3
8
5
31
11
2
73
-10
15
18
-24
-16
-26
-45
-55
10
0
3
-16
25
-7
-21
1
-53
-16
-27
3
9
25
14
-21
32
3
45
41
5
6
26
-18
1
-18
10
12
16
7
-8
31
-25
9
26
26
21
-28
-26
0
-16
-4
0
-7
-13
-13
40
-70
-9
4
59
-18
-14
-40
3
22
-44
13
-7
-4
23
-10
8
4
22
-4
-15
-42
21
-5
-12
1
-52
29
55
18
-38
9
20
43
-21
-12
-18
-3
-13
13
-20
38
-15
73
5
39
16
1
-28
-1
42
11
-45
-8
0
-3
-14
-33
34
13
-42
8
32
-21
46
-93
-6
38
-12
-2
-45
-19
37
-2
-27
27
-33
-21
-29
-28
30
14
24
29
-47
-3
-3
-27
-5
1
-2
13
-34
18
-4
46
43
36
-44
-8
-2
-47
6
40
29
-18
-13
9
18
-56
-8
-17
-10
31
-10
12
32
-10
22
19
-19
-42
5
-24
12
9
-78
6
58
31
-9
11
-35
10
-2
29
-15
-23
-6
50
-12
-38
-18
-28
-18
-29
16
29
17
-38
11
15
0
19
-2
3
83
-13
-7
14
-2
31
-34
14
18
37
67
27
52
-32
-21
-31
-10
33
-16
-35
1
81
11
-16
38
-51
95
16
54
37
-18
42
35
-47
127
29
17
99
-42
10
-30
-5
22
4
22
-22
33
-27
-23
34
-48
-4
1
-13
99
-17
-3
45
12
52
-15
23
-17
8
23
-46
-72
12
-55
-62
9
4
-27
-38
-12
-51
28
26
-2
-13
0
-8
-18
-1
-36
-12
-46
46
-26
30
32
-9
-24
1
-14
12
-15
-6
35
12
-15
-1
69
-9
17
53
-11
-15
7
12
-5
71
19
53
-58
-85
9
62
16
-51
-63
-45
21
-26
4
28
-10
-36
-56
-27
12
-56
39
-24
-2
6
-47
5
21
-37
-37
74
-28
22
11
-3
15
5
6
-70
1
32
-31
-1
-16
34
-84
-39
-27
19
-87
38
-8
-31
-14
20
-53
-2
19
12
0
66
76
-14
41
-36
-16
45
4
-13
5
7
4
20
19
4
50
-7
61
22
-6
-32
35
-15
-12
-34
104
-24
31
-6
12
28
37
15
22
95
-14
-56
-24
-48
5
30
6
27
-11
-4
95
51
2
47
-17
19
28
-13
8
-55
-20
15
-5
-41
-25
44
-15
17
9
-30
-1
62
66
-11
-13
-1
-4
0
46
15
-13
-35
8
-74
-35
-28
10
10
11
-38
11
-7
3
45
36
-4
39
8
-28
11
44
17
-61
47
-48
-54
-53
-20
-55
-24
-19
70
31
-52
-9
-25
12
9
31
19
7
37
-30
-46
40
-33
1
-25
-43
-4
-27
21
-38
19
-21
-74
17
-79
21
3
37
34
-15
-19
58
-56
66
-41
46
6
46
4
-11
-28
-59
-22
33
51
46
-12
19
-18
-5
54
-21
-32
39
7
2
9
-14
24
-43
-45
1
36
-44
-14
76
-67
31
14
-42
-45
-75
-16
-37
-13
4
21
8
42
-45
62
20
65
21
-33
-20
9
-78
17
39
15
-127
-86
41
-8
-38
22
-5
33
39
23
11
61
-17
38
-9
-18
-86
-9
66
-33
46
41
31
-71
-32
-46
-7
-63
-60
5
27
-1
-42
-36
-10
12
-36
19
0
-35
46
-14
-58
4
33
-10
42
46
29
-13
-8
-50
-25
-18
-78
44
-24
-25
27
-4
-22
21
-18
45
-25
-37
32
21
2
37
-40
29
16
-29
29
38
-45
-30
6
18
26
27
-39
-72
-70
-55
63
23
22
17
15
48
-23
3
6
-43
-19
58
33
-5
-59
-70
-17
18
1
-40
20
23
-31
-28
-16
-23
80
-14
-34
-10
-53
31
-21
-4
-27
10
-19
13
63
6
26
-13
-16
23
0
5
-5
-50
0
54
71
48
0
20
-57
62
49
-1
-51
-54
-23
11
-39
40
-24
121
-32
8
31
37
-20
-20
59
88
-85
35
68
55
-10
-14
92
-6
40
2
-19
40
80
-14
18
-18
-13
99
50
-15
-5
19
-1
38
20
-72
-17
-72
-47
54
-48
-10
-41
-15
25
-88
35
2
13
123
2
-20
-35
-68
98
-19
11
-89
-61
82
28
-59
28
-11
55
7
16
6
-8
-26
-48
32
-9
-8
24
-20
-27
-53
-8
18
-15
-1
-24
10
31
-15
-14
-3
-43
-13
39
-29
1
53
50
-76
-41
15
-28
13
27
-61
43
-14
16
-28
-5
-23
-36
20
-10
1
127
-81
45
-32
35
-90
37
-8
-40
2
-12
87
-1
54
24
-44
18
-38
22
65
27
-50
-17
-8
-26
-58
-49
16
91
-47
-36
-3
39
-18
22
-71
-4
-53
12
-54
-10
-31
61
25
21
-58
8
-14
-29
-12
-19
1
18
-36
37
42
6
29
-46
1
12
-17
-20
14
21
64
12
-39
3
-34
-6
-46
-77
-16
52
-6
1
-21
16
82
-9
-58
-29
-21
-40
29
12
-44
3
-32
-8
39
25
20
36
40
26
-8
6
-12
-32
62
8
54
-1
3
-45
-35
-9
-19
-29
-46
34
22
-11
67
-27
16
27
-3
-20
-44
20
-42
-23
-28
45
16
52
39
-17
-4
-8
7
-5
12
3
-37
-7
-42
-69
-3
31
-14
25
77
37
10
-48
-6
-44
2
-6
24
-56
63
52
-6
21
28
48
6
36
16
-72
-13
-30
6
17
14
16
55
-78
6
-28
30
11
76
60
27
-14
-103
-62
41
-32
-48
13
-13
-31
-69
41
16
9
85
12
45
-28
-12
18
-58
10
87
-48
13
-50
-4
-17
23
17
3
-85
-4
94
25
-23
33
19
53
17
-20
7
14
-60
40
36
-73
-48
-78
-24
-7
-37
5
-11
-68
-16
4
-19
0
37
-41
-1
-4
33
-10
-13
-24
-107
7
-23
-19
-3
32
-17
-24
0
19
-16
52
-41
-34
37
-41
45
31
-103
4
28
19
-56
114
2
-78
119
21
52
60
-37
15
-127
23
-14
-20
-20
-24
31
-1
-84
18
71
76
-7
-24
-15
77
57
8
-92
4
24
0
23
-41
9
46
14
-107
-13
22
-24
101
-11
56
15
5
-38
-28
-3
-14
-12
-28
-5
15
-69
33
46
11
-36
-7
-8
3
19
2
-10
52
-29
43
-28
-2
-24
-6
-44
43
63
-43
27
-35
-14
-55
-15
47
-23
44
-34
6
25
38
-10
-28
-26
15
-33
-12
21
55
-40
61
-55
-57
49
-31
-50
1
-11
45
52
19
-14
13
-8
-17
-25
0
1
-61
50
-31
21
-24
-19
18
-51
44
3
11
-13
10
19
-9
6
0
2
-31
29
-17
30
7
-20
27
-14
-6
-23
2
19
23
5
23
10
-25
10
-58
31
-6
1
17
12
-45
-16
-46
59
103
18
55
-54
-36
-18
-15
35
-91
-15
-13
-12
-12
-32
22
7
3
-15
15
-55
36
54
-14
-17
-12
-14
10
-21
3
-55
1
28
10
44
-6
-27
28
-19
7
-25
-49
-5
23
37
19
26
-11
-3
-23
-5
14
16
-38
13
-3
-1
1
27
13
25
58
9
8
-40
-6
-7
-1
36
12
25
-29
8
-20
13
-18
7
6
10
21
-19
-70
-41
-15
-9
7
25
8
-2
50
-127
-24
11
-26
-47
-10
-62
-11
-11
-1
-45
-53
-42
19
-56
53
-12
-33
25
8
-52
-16
-1
-29
70
111
62
52
-24
44
-16
76
-1
-36
-37
30
20
-3
50
14
11
16
15
33
6
-44
-65
-43
-28
-4
14
-18
-4
-12
-19
-41
62
-38
-11
-8
35
-16
-14
-39
13
5
19
59
3
-76
6
-44
24
4
-46
-31
-20
-17
-11
-11
1
-79
32
5
-18
-20
46
-39
1
-24
3
3
19
-10
-55
4
-23
34
-49
7
-33
29
-25
33
21
-15
-11
7
5
-33
35
-19
18
-14
-39
3
-21
13
-20
18
-12
-40
-59
-40
1
4
-7
4
-15
41
-9
-8
-23
-61
6
-28
-3
34
53
-42
-1
18
-24
-38
127
-65
-24
-47
11
-13
45
-30
-14
12
-3
-26
-7
-27
-11
34
37
27
25
10
10
-25
31
-51
16
-18
-4
-2
-1
12
-7
-46
-27
-83
18
3
-45
14
-31
-54
66
17
35
-50
-15
4
-12
-9
-2
-44
-3
8
61
41
-6
24
24
12
-19
-1
-4
-6
32
-5
23
12
20
6
18
27
14
7
3
29
-56
-46
35
0
-10
-7
-23
-10
6
-21
-27
15
29
14
49
74
-11
26
17
29
-21
-17
-8
-1
0
-26
-3
7
-17
4
-10
16
49
-13
-17
5
-32
36
-13
0
1
46
9
-47
-23
-46
14
-15
-6
19
24
-23
-50
36
23
-31
-3
-65
69
-34
-30
-43
9
0
-15
31
-5
-7
12
-31
-3
68
-27
-2
-29
3
-14
25
-17
33
-61
12
-31
9
-27
-29
-7
39
2
7
-20
-30
32
1
24
-7
-27
-10
6
3
21
18
0
44
-3
-42
11
-19
31
-9
-34
-13
1
26
23
2
18
31
-22
-11
14
-18
-5
-9
-11
17
-8
16
-3
-4
8
-22
-21
-10
2
18
-7
-22
8
-7
26
-22
-8
12
-13
-38
2
24
9
-7
-44
16
-127
94
-44
32
56
17
12
87
-21
-34
70
-48
9
12
-15
-11
9
21
88
-5
19
-37
-58
-49
-21
-54
-51
24
10
-20
16
34
64
-32
4
5
87
51
-12
-14
14
46
22
21
62
-31
84
45
31
5
-15
-21
8
-9
-100
70
-21
-34
-12
-50
22
5
-26
-30
77
-14
80
2
12
18
-33
49
22
15
40
0
-48
-30
-30
6
10
22
-40
-81
11
-46
90
-5
25
43
-12
-20
-11
11
1
40
-8
-24
-6
-65
18
-55
71
-26
-18
34
-16
11
-27
18
48
-24
-13
-15
-21
6
-30
19
-64
-40
-74
-38
-11
73
16
40
-28
-3
-48
3
-88
18
22
-45
-6
-15
-92
80
13
-13
-4
11
0
-4
-27
-67
53
48
-9
-70
-42
-24
34
37
34
12
0
2
-43
-21
-29
-32
-43
-62
-7
0
46
-3
-54
12
-24
26
-15
17
82
-79
22
38
-37
45
24
-22
-6
53
-46
37
-14
58
15
21
-33
10
37
-31
-7
-42
-67
-28
56
-46
-84
-25
58
2
9
-40
12
29
-21
5
11
18
10
51
-4
59
21
61
-12
29
-7
-13
46
30
8
-16
22
17
-32
-25
-32
19
-21
-45
-15
-26
-36
69
1
-80
-9
-14
-77
35
44
-42
-20
25
57
-1
-20
29
35
16
20
-24
15
14
19
5
34
4
15
-19
-21
-8
-11
21
70
-26
-9
11
-10
35
-64
-20
13
23
-16
32
5
-16
-27
-16
5
-9
-55
-43
11
-68
-53
-24
7
-10
-9
-10
-7
-36
-15
32
127
-46
-26
26
11
-13
-23
7
-1
-18
-13
13
42
-16
19
51
-12
7
-28
-8
10
28
-4
0
19
18
2
-11
19
-21
-12
20
-5
-7
4
-17
43
-52
-12
17
21
-71
60
29
-12
22
18
4
-46
39
11
-26
4
-15
-23
-30
16
-2
15
-56
-10
48
30
32
-24
-23
-19
-32
24
24
46
6
8
-3
14
1
24
42
20
18
30
17
21
-30
56
32
-6
-7
-1
-41
-14
25
6
16
-13
-36
11
9
3
18
-30
-12
14
6
-15
-23
24
-12
92
14
15
6
13
-5
7
10
-14
4
-32
-32
30
26
8
-19
-15
-19
40
-38
-9
-21
-13
29
46
-16
27
14
-11
17
-7
-7
-13
21
-21
39
-17
17
-9
39
-93
9
5
7
4
19
36
56
36
33
23
-6
-15
-60
0
12
12
-2
20
-2
25
-41
-40
4
1
47
49
15
4
-25
-4
-37
6
48
35
2
46
14
0
3
34
4
0
13
-1
30
-18
-54
17
20
26
-2
27
-14
4
36
5
-10
27
-25
20
27
-36
-20
-33
-34
-1
-27
11
-8
-43
60
-23
-4
26
17
-19
3
-17
-21
47
-4
10
23
15
-28
-87
7
6
-58
-98
-15
-53
-50
-31
49
1
84
-48
-124
-27
4
5
3
-20
-39
-41
-55
10
-13
-20
-22
-35
39
90
80
-46
-48
-5
14
4
19
9
21
17
-29
-4
-63
-49
-14
33
-13
-22
-6
5
-43
-10
-56
61
12
17
-32
-7
-15
-9
-33
43
4
-16
-26
5
47
53
-71
-46
71
-43
-2
69
-56
-5
1
46
62
-21
3
39
9
7
-17
27
31
11
3
-44
6
39
-37
12
71
2
-7
18
27
-23
-127
62
-68
24
-26
-53
52
-16
-37
12
1
4
-32
-42
18
-86
-1
-41
-41
-31
19
15
51
28
-52
11
-68
-40
11
-19
61
25
23
-6
-12
50
-44
9
9
2
-15
11
-70
5
14
-24
23
-51
-23
31
-27
-13
-24
19
-13
-32
5
-32
6
-37
-31
23
-26
-1
-21
-99
34
58
36
-6
-36
6
18
49
-22
-7
-79
-2
-5
35
-68
-59
-8
-5
18
15
28
5
70
21
-15
-13
10
47
-3
-5
-62
35
42
-26
-15
-7
65
-3
32
4
13
8
-1
12
13
-21
-22
-10
6
23
22
53
7
-15
45
17
-6
-28
-29
-39
2
4
5
-11
1
21
-8
-15
-15
-36
-4
21
14
10
-59
22
-46
30
-8
6
0
-10
11
21
20
-16
-1
11
11
-23
-4
-20
26
-7
25
-24
78
5
24
15
-25
3
-11
27
30
70
-52
24
119
-26
-37
-46
27
24
21
-8
27
25
22
30
-43
0
15
-35
42
-46
19
-127
18
10
-42
7
20
41
16
56
-52
0
-4
-42
-3
20
-30
-18
6
6
-2
-12
-16
-8
10
-32
-1
-45
27
28
-43
12
41
-12
38
-35
38
-7
-11
6
-18
25
47
-32
-3
-25
15
9
-57
-19
-17
-11
-26
-18
-2
0
-34
-1
0
11
6
27
-63
5
21
31
37
-32
-2
-36
-31
-2
25
18
15
16
38
15
8
-30
55
-21
60
-1
-15
33
-17
-14
-15
12
25
15
35
-53
-70
-35
-26
3
-6
56
-25
71
-28
39
88
56
-5
32
1
30
37
-6
45
14
30
-13
4
-8
31
0
-38
5
13
-11
23
59
17
-31
15
-28
-19
-9
-76
-21
38
-6
-1
24
-10
-24
19
32
-30
42
1
11
-18
1
-2
-34
-3
-17
6
53
11
25
-25
-30
1
-41
-32
11
-23
-17
-58
37
-1
34
-88
-26
-22
-10
10
31
-13
-36
-6
-43
74
-11
-32
4
-30
-42
56
-17
3
48
25
-45
-1
43
-53
43
-52
123
-20
-7
39
11
-90
17
21
14
7
-53
63
-35
-15
19
-22
-20
4
93
25
25
0
5
-62
52
-85
-17
127
16
34
9
43
-46
-12
-30
-25
76
48
-3
-21
-39
38
8
52
1
-19
-2
-54
22
-19
4
22
64
15
43
16
27
-32
-51
-37
-55
-5
-69
-2
99
3
4
85
-47
-27
-61
-9
12
-80
17
-31
-49
-19
-3
-25
36
7
51
60
35
37
16
72
11
65
-4
88
-19
44
-35
-52
28
57
66
-45
-3
-40
22
39
4
22
-52
-41
-18
26
-47
-6
24
14
3
-8
-45
-19
56
60
59
-18
-23
4
-10
102
40
10
-43
9
7
40
31
-4
-4
-69
-18
2
-9
-39
0
44
-33
-44
-52
28
-69
-25
-11
48
37
0
-16
-42
-16
-104
48
111
20
-11
-17
10
-9
12
-55
87
52
-18
79
0
-38
-32
-53
55
-70
57
19
-47
-19
41
-74
30
-18
13
-29
-24
-35
-79
-46
5
-6
-3
-40
18
22
-21
-46
12
69
-48
-52
-37
0
-27
35
21
52
39
-12
70
15
-64
-22
48
-56
-62
-20
3
0
0
-16
28
42
-6
44
56
-1
18
-18
17
9
-3
-9
27
116
95
0
15
28
43
-15
41
20
37
24
42
15
15
35
48
-81
-32
-113
62
-38
17
6
-48
49
-12
-31
-54
81
42
9
-31
10
2
15
46
-23
10
-1
-10
13
7
-49
19
72
18
-1
-35
-32
2
58
24
6
12
-12
-25
-25
-50
-40
65
13
24
64
65
29
-19
42
12
-61
-6
-26
-32
13
-1
-27
-17
-6
25
17
-21
-26
98
19
31
-50
-21
-32
-16
1
1
0
7
-60
-32
5
-14
-61
-44
-47
23
43
16
-2
-64
-58
6
-22
16
127
-17
-42
15
-26
-69
27
45
-8
12
-10
-16
19
-17
69
18
24
11
16
-64
-76
51
-29
-7
17
16
14
-14
26
8
-37
25
9
21
-31
-33
-60
-14
-18
-15
-28
37
-37
-29
-89
39
-2
-68
-40
35
-12
38
-21
16
-6
24
79
-3
-17
-44
2
17
-94
25
0
-35
2
25
-15
-62
-38
-14
13
2
-96
47
-2
115
30
9
-3
2
20
-7
-31
6
18
11
22
54
13
-25
14
9
-1
41
-70
32
18
-53
-11
-18
-13
15
-19
29
-56
-24
-12
-4
19
5
-18
-9
5
-15
0
24
-51
11
-31
-52
22
-4
-12
-32
15
-40
64
27
44
-28
-36
36
-33
3
51
-38
-48
47
-9
79
-28
-4
-22
-11
5
61
-11
-18
-24
22
4
2
39
17
-14
-2
-9
-11
40
11
51
13
-33
-47
-61
-17
22
36
-35
9
-15
21
14
1
-16
-19
17
6
49
-54
18
-29
36
20
38
110
-11
36
-33
-16
-39
-47
-53
-14
67
10
15
2
-34
69
4
-17
78
25
-53
30
10
96
-28
81
9
-32
1
19
-14
-36
12
-45
1
6
-68
-59
1
-18
53
-2
19
33
-35
41
15
42
-21
64
-40
28
-38
57
-16
-12
23
2
-31
37
-9
6
-24
-3
3
-9
7
28
-29
3
1
11
-37
3
32
16
45
-23
68
84
-51
58
-17
-51
-30
-18
-22
110
-41
-20
-16
-28
-24
43
3
22
16
-10
-51
4
27
-12
-27
-21
-19
-28
75
-39
18
-29
4
-24
-40
-22
-22
-88
-10
47
5
8
15
-17
-19
-13
86
-15
-3
-50
4
30
-31
-15
-55
60
13
20
13
-6
-18
-84
-46
-16
-45
49
-12
-108
-41
6
127
-5
12
-9
-19
-29
49
-16
-18
-62
-3
-41
59
53
-34
7
-29
5
-55
72
-51
24
-55
-68
-34
-92
-32
68
12
-47
-47
55
22
-17
-32
11
-4
19
7
39
-22
-34
116
-4
-65
-13
5
28
-23
19
38
1
10
27
-19
20
-4
-56
-59
-62
6
19
22
10
-23
-18
31
28
-53
-29
-10
50
91
-52
-35
25
-34
80
-41
-49
-61
15
-13
-47
24
55
-64
-19
52
9
8
-19
-12
12
8
-84
34
-3
-51
15
-47
-3
5
15
-20
-37
8
18
19
15
-16
-6
23
16
-17
-21
29
-9
-8
-13
-19
-7
-24
-15
-30
-13
-42
-4
5
127
-1
-2
12
21
-13
5
-21
-21
5
67
14
-3
-16
-13
18
-32
-32
-4
24
-15
4
-18
-24
55
6
-4
12
-26
9
-11
-26
17
-17
16
-7
1
-7
-25
-34
78
-4
23
-11
19
-30
-19
-52
-9
8
-28
17
-4
1
5
7
-9
9
-9
-22
-2
14
-1
8
12
2
-24
12
-28
17
15
4
-12
-6
-12
9
13
18
29
6
8
-8
25
0
21
15
2
11
-22
7
6
-11
26
12
20
-1
29
-7
-15
6
-42
-9
45
-14
4
-17
4
-9
-22
-1
3
-23
-41
3
9
3
10
2
10
6
14
-25
-9
0
19
15
-2
-16
-14
-16
35
20
-11
9
-1
-4
1
6
-53
-14
0
-12
14
9
-12
-28
6
-21
3
4
-5
-6
7
17
3
9
12
0
-6
6
-7
4
-36
-12
17
-46
3
7
-15
36
-3
-5
-12
-2
-6
10
6
5
25
-5
-8
-32
17
-9
16
4
1
10
-27
-20
32
-2
15
12
-13
-4
-28
-1
3
-15
-8
-10
-16
-17
-10
-23
-18
-1
-24
13
-11
10
17
-15
34
-11
24
-88
5
-83
-49
-78
-65
111
88
-34
-15
51
62
10
23
-30
48
20
-12
31
-7
3
-43
12
20
-24
67
-36
-52
-11
-28
-30
-45
14
33
89
39
-12
34
46
-70
55
-14
24
-94
16
6
-41
-32
14
26
-29
31
-32
62
77
-4
56
-72
-19
27
28
-60
34
20
6
-10
73
-31
8
-21
1
-22
-52
-25
32
38
44
-47
19
-104
2
21
-12
-50
1
-35
51
1
54
7
13
-32
45
-2
77
11
5
-20
32
15
19
38
12
43
-85
21
12
13
61
-1
15
-5
-13
34
-33
-17
-23
-31
-15
-24
-1
-31
33
80
-49
7
-33
95
35
12
33
49
46
36
39
13
15
-24
55
-46
-43
55
-4
-40
67
13
-40
-16
9
4
-10
-54
-31
-18
-16
-93
-23
24
51
42
60
26
25
13
52
10
18
-35
3
-66
127
-19
74
-42
-5
-46
19
51
-18
-7
56
18
26
46
-43
56
-22
-116
65
32
-2
28
-10
40
-2
5
-37
-22
20
42
57
-42
-27
2
48
-39
-54
42
-60
59
62
13
-2
44
44
55
43
-26
-2
8
-35
27
86
7
-9
-14
-25
21
7
-80
76
-80
85
37
26
-29
5
-39
-50
28
-1
27
34
-21
-49
-5
-33
25
22
23
16
9
8
-28
20
-8
-83
13
49
7
70
-6
17
0
-127
102
41
25
8
-51
-32
-12
-51
-23
-24
29
52
72
-1
22
-3
-96
-12
4
-36
-6
-90
35
33
1
-105
11
67
-23
-8
70
-5
-14
-17
-5
90
-6
-78
12
60
-101
-2
3
59
67
-16
-70
-44
-11
42
-22
-12
-97
5
-5
-61
51
12
-6
-73
-12
15
-5
27
-89
-95
-88
48
-17
11
-83
-44
-31
12
1
-12
33
11
-12
67
-39
-22
6
47
-9
-18
49
45
4
79
-29
-2
-11
-97
3
7
5
-49
-95
-8
-39
55
-27
112
-1
2
-4
-38
-59
-6
-30
19
-15
55
-7
66
-117
-20
18
95
-9
86
8
47
-44
71
73
40
-21
15
24
-18
3
11
14
-90
18
-11
60
-13
-23
-104
-46
-15
59
36
-67
76
-28
-22
2
49
-24
-8
58
50
-27
81
120
112
-21
26
-94
26
33
-6
-44
35
-81
10
43
-51
-44
-97
1
-28
61
34
2
-24
-27
-83
-3
-5
39
13
-84
-32
-1
-63
11
-58
5
25
15
37
63
-56
-32
-18
-10
-57
-6
-1
55
-19
24
42
57
-37
62
-62
13
16
-54
-101
-18
26
5
-44
-85
13
-58
12
15
2
-14
-37
60
24
-20
-59
-37
-32
-80
16
-72
-13
8
-23
-17
-46
1
-64
-80
-74
50
38
-25
44
-37
-21
-22
-35
63
40
12
-22
20
-52
-10
5
29
32
-6
16
48
-3
15
-28
8
-49
-75
-43
-26
5
13
39
-73
-51
-2
-36
-29
-76
0
-3
8
21
-3
0
-38
-42
-30
-12
-25
2
-43
-35
7
-30
32
-3
-11
-5
-26
-3
-15
0
-2
31
17
-32
19
7
40
-51
-30
47
-27
-28
-24
10
4
-35
-23
-13
-38
28
-79
2
-17
12
-25
10
90
-35
53
17
8
13
-12
-21
81
24
-24
27
-57
29
21
83
-49
10
48
29
-24
-21
23
8
-2
-35
71
47
-26
23
3
-22
-1
-20
10
9
-13
-35
-48
18
-35
12
12
-47
14
9
-4
15
-13
-5
8
22
-27
41
21
34
-4
13
-23
-35
-6
12
39
-20
44
-33
-18
-7
29
14
-22
15
45
3
-21
18
-13
4
46
-4
-22
64
-37
16
5
-45
33
-44
-35
54
-7
-22
-11
10
-21
-13
-45
41
5
-10
-14
3
-7
-94
5
-26
-22
14
127
-32
15
17
4
-48
-105
-7
-6
19
28
-58
13
-23
11
12
-33
-16
-22
-6
-20
28
-14
-5
-29
-19
59
-70
-9
0
-2
-8
12
-36
20
6
-19
-23
-17
12
16
-8
86
4
16
-43
-74
-31
1
-2
119
-11
4
33
-7
67
22
-59
-19
2
19
-13
-29
-14
9
-24
0
35
20
10
52
74
-6
15
-11
9
5
15
-37
15
101
30
12
-15
29
-19
3
-33
-12
11
-15
7
36
-76
96
-2
32
6
1
18
59
29
-8
-127
-32
-17
-19
-67
-33
46
-73
-44
19
-26
23
-33
-26
31
29
21
6
15
26
2
-14
-36
-38
-59
63
-64
-42
-72
20
0
11
6
-19
-42
-13
-16
-17
18
59
44
-2
29
-46
-29
-44
26
66
-9
-35
37
-51
-5
84
-8
-65
28
-10
54
44
53
81
-26
-27
-11
-24
-5
44
-3
10
120
29
-3
22
-60
-22
19
-17
-2
7
34
46
1
-50
-26
2
28
46
24
-9
-26
-5
3
46
43
5
-41
-16
-37
-2
-104
-7
-55
-22
-87
17
-41
-47
-16
82
4
-4
-6
-31
64
-24
-30
3
40
-70
-9
-47
20
-16
9
-10
58
-55
41
7
47
5
12
55
-69
-42
-11
3
-16
9
31
37
23
121
-38
-27
-76
-68
-65
-2
-34
-48
6
-5
-33
3
-3
-16
-32
-49
30
42
27
12
-45
-19
51
-11
14
-8
21
25
-2
-2
17
-1
31
10
-73
-12
42
-38
-14
-48
14
-16
-36
11
12
-52
-18
2
-12
25
38
2
24
-29
-29
-59
53
41
-58
8
-33
42
36
36
11
46
-21
14
-23
8
-40
-1
6
13
0
9
-14
11
8
-8
4
11
-12
-16
-24
-10
-5
16
-18
-2
-12
-11
12
8
5
-11
7
-9
3
2
10
-18
-25
-9
-2
2
-6
21
-1
7
25
3
-2
-10
-9
7
-8
-3
5
-2
19
-1
39
-6
-11
-20
-4
0
4
-10
-12
-9
15
-2
26
0
2
0
2
10
-1
-11
0
-3
-67
1
20
-6
-1
9
-19
7
1
-3
49
-5
-3
-1
9
-127
-1
17
13
-21
4
10
-5
5
-13
-2
-1
-2
15
5
-8
-7
-2
8
-10
0
-3
8
-3
-13
-5
1
0
-3
2
18
-2
0
8
-23
-1
-34
-4
8
-2
-2
38
5
-7
12
-4
0
12
-2
-6
-3
6
-8
1
-5
7
-6
1
40
2
7
-20
-8
-1
-2
-2
-3
-7
-1
8
0
6
-7
-9
-6
5
-30
4
-1
-1
-6
-10
12
-20
4
-12
13
5
-14
19
-7
6
-2
0
5
2
-11
-9
31
-1
-3
0
2
-5
1
-4
-18
-8
17
-1
-4
-6
-2
-2
-3
-5
8
-9
-6
-4
7
-52
-6
4
-1
36
10
-5
-67
15
-4
9
27
12
8
-11
-4
9
0
-2
-3
1
-9
12
-1
3
28
5
-1
-8
5
-7
7
-3
-6
2
-4
13
-21
-2
-1
-3
10
7
-15
-31
-27
-56
-26
57
56
39
55
-13
12
28
-23
-42
2
10
19
51
-7
-5
42
-49
-1
-14
67
64
28
-39
-47
-3
8
-10
-14
-61
-1
38
-10
-7
-9
31
-5
-30
61
-22
37
14
54
-37
33
51
5
7
-24
4
-12
8
13
-4
-21
-50
16
37
24
7
24
-37
-29
-1
35
-39
44
3
70
-28
-21
28
10
50
17
-32
-47
33
1
25
-16
72
7
-11
74
-65
-3
-7
9
8
-65
-16
37
-20
48
15
-33
4
66
-18
4
-3
-30
-100
-30
-31
-14
5
-41
-127
-47
37
-7
15
8
-29
-21
-44
-25
-21
-13
21
-54
-43
2
38
2
48
19
53
-7
7
11
-30
17
7
47
-7
11
-4
-64
-52
-29
26
-20
8
-100
-24
-16
33
-17
43
27
-23
19
6
1
-24
27
2
-17
49
17
-20
30
-31
59
13
-31
21
1
-15
-49
-32
5
-8
-48
0
-3
-20
-59
-23
32
-40
36
-15
-9
40
11
-40
-27
-30
-16
-3
-42
58
49
-20
41
-45
9
-11
28
29
-25
2
-35
80
-12
-24
11
-13
12
21
7
1
-60
-53
1
22
-38
-33
40
-9
26
45
53
56
18
13
-17
30
-19
-6
-21
3
45
-6
-33
-39
-10
-14
-18
33
-82
-5
-25
22
-46
-29
-6
-51
33
92
-9
-30
49
-12
-6
-7
14
8
41
30
2
115
-19
25
-59
-38
2
-24
-2
-111
43
-14
-4
-38
25
15
9
-12
-12
-21
-18
-37
14
-46
-87
-28
-6
-51
60
6
36
0
-10
38
-39
11
30
-18
25
12
-1
43
-29
-24
-1
-14
25
46
4
-127
-29
-13
-34
-8
-14
19
48
-6
-49
11
-21
49
-6
0
-33
31
27
11
-39
-30
-22
12
-25
-50
-12
25
-6
-29
41
39
-19
-3
-2
-83
-15
-67
8
8
-11
-42
-3
25
-12
-41
16
26
25
9
21
29
20
-20
-3
12
9
12
8
64
20
-15
38
38
11
23
-35
17
-3
-51
5
-1
-36
49
-14
-95
-55
7
5
44
-28
24
39
86
-15
37
-26
-2
31
-24
21
16
13
31
-37
-88
40
-86
15
1
-56
-60
50
20
5
39
-1
29
23
110
-72
-11
8
11
-53
3
50
-4
2
30
-35
-75
9
10
-28
-93
22
-18
-50
25
9
-64
60
37
-34
-34
-1
-43
-14
-3
0
5
14
-16
-30
-82
-10
-11
9
8
37
-66
-6
3
-20
22
9
-28
-52
6
-34
30
29
-61
67
-28
-35
-22
48
16
8
11
30
0
-35
54
14
-22
-28
-17
5
17
-43
-24
-9
-7
-11
28
-1
-8
-2
14
31
23
10
-78
65
4
-22
-46
38
3
-7
-18
26
-38
-19
-40
-45
28
-102
-2
-38
31
-61
0
12
29
-35
7
-3
13
3
-10
22
29
12
-14
17
9
2
9
-1
-35
21
7
-22
-47
-19
-2
-1
-14
1
52
2
-7
-14
17
1
-2
-16
13
16
-72
-39
-15
-13
3
-19
-11
-38
-40
9
24
-19
-31
40
-50
-67
3
34
37
-23
-2
-2
-24
11
34
45
30
6
39
-18
-25
16
-35
9
-19
14
-30
-30
-16
7
34
25
15
-1
-18
11
-12
-44
21
1
70
127
-50
29
7
23
25
3
-55
14
18
-19
-79
-8
-8
-67
8
-11
-32
-32
7
23
0
-29
26
15
-50
0
33
4
26
-9
87
-6
25
55
-78
-18
39
3
-44
7
24
-12
22
13
13
-31
-52
40
15
-51
-41
-42
-73
18
27
17
-21
-26
-42
-16
40
-50
-3
4
-21
15
-2
-51
-15
27
-1
-4
0
-7
-2
-76
8
45
-25
15
-10
1
14
14
-26
-1
-20
91
-14
-92
-7
39
-30
21
-44
-4
-13
-6
16
8
-5
-8
-56
58
-7
10
-17
-38
-5
-26
47
14
-5
-16
-3
-5
-23
26
13
50
34
15
-2
21
17
-3
1
-6
-38
8
-37
-35
22
14
61
-7
-23
-50
-46
-21
-12
9
18
-22
40
-6
-35
-64
33
12
-3
-7
33
34
13
7
-42
-16
44
60
5
41
12
0
8
20
2
6
6
19
0
-16
19
53
21
-62
5
-22
6
15
1
3
-37
-53
-45
4
-38
-20
14
23
-35
-25
9
-31
47
88
5
-6
2
-45
9
82
15
23
-3
-18
-5
6
0
-6
-10
-29
-57
-20
2
-9
-5
-23
5
51
8
48
1
-2
21
-6
-36
-25
30
-17
-30
-26
36
54
-9
21
-24
46
-1
2
28
-19
40
-3
-1
41
14
-30
-10
28
13
127
-2
-7
18
37
35
8
9
-13
-6
-32
7
29
15
58
8
-19
-5
-29
-5
-8
33
-25
-24
39
-9
25
-19
-16
3
-7
11
29
-27
-6
40
-35
12
12
61
-25
25
-45
18
-62
-31
-29
8
-8
35
5
-55
38
25
21
-17
0
-1
3
5
59
1
11
13
-10
14
21
25
-30
-25
-13
-4
-22
26
33
10
-9
4
7
42
5
-17
45
-1
-24
28
31
17
-13
41
-4
-21
4
17
-10
-9
-47
-6
-10
8
-19
41
14
64
-11
17
-3
0
10
11
-8
48
15
-9
-6
-17
2
35
-1
-32
71
45
-27
-28
-82
-15
15
9
51
15
100
-46
52
-3
7
6
30
-91
30
-2
42
11
-8
-42
-69
-25
26
3
-28
-15
14
-46
11
-22
22
-42
-36
5
-15
-26
-8
-38
-15
23
35
-34
-7
21
-79
-17
-26
-8
58
-13
16
31
-15
45
-6
19
44
9
22
46
16
-1
34
67
-45
9
-35
71
-61
-41
-2
-24
28
-100
42
13
20
-1
-65
127
-32
54
54
-1
32
6
-81
7
-37
-25
25
-63
25
24
13
-14
9
-68
5
52
-98
12
-19
21
9
35
5
16
-19
46
-23
24
-31
68
-39
2
6
-4
-57
5
-23
75
6
21
-54
19
44
29
-44
15
9
-28
14
67
20
114
26
13
2
82
-19
-2
-6
-18
-17
-24
21
-55
26
-13
-7
8
-36
-30
-18
-103
-57
-42
-8
24
1
20
-2
-20
-9
12
-17
21
44
5
-9
-22
17
1
26
-9
28
-4
22
13
-44
29
-47
-56
61
74
-16
-3
-38
-11
6
45
-37
-72
-1
-9
-10
24
-8
45
-40
58
-63
-2
-34
7
32
26
-40
10
-54
27
-11
-93
-18
-11
-49
-31
-34
52
19
-21
7
17
75
-51
-50
-13
-5
-94
30
-58
-25
-3
17
37
62
0
-54
7
7
23
5
27
33
-17
-4
40
5
5
29
-20
-36
6
-33
20
-49
23
27
52
97
8
-17
23
69
-26
56
34
-80
-7
33
5
-30
-12
-38
-10
-59
32
67
-7
-30
-22
-4
-62
-61
-39
12
-35
10
22
23
4
3
22
34
-4
19
105
34
67
-10
27
-11
-6
-11
-7
-4
-15
-18
36
19
-1
17
1
14
-7
28
25
-5
32
106
-4
-9
-1
-88
-6
18
1
-37
-2
-50
31
18
-43
34
-9
-6
-50
-6
24
39
28
-33
-20
14
-5
26
3
3
35
-1
-3
2
-38
-39
0
-3
34
-44
-2
-30
-3
-56
-3
49
13
-120
-17
21
-67
-15
-3
-7
-79
25
18
-30
-31
-40
-40
13
-2
38
28
-43
16
2
74
-17
-8
-2
-25
-42
-14
12
-1
-3
-12
-8
11
30
16
33
-40
-46
-4
-37
-37
27
-14
38
-19
-11
2
35
6
36
-29
-8
5
-25
25
-27
-77
1
2
36
-54
-3
-13
-12
-26
-60
-39
-50
-9
-37
-3
17
-50
65
22
22
-41
0
5
-28
9
-26
-36
-21
-27
-14
15
61
18
-40
37
-10
26
-16
18
-37
34
64
-15
-20
8
0
34
-101
-21
18
-26
2
-86
20
7
-21
-45
24
24
22
-43
0
6
-6
12
-53
7
-27
85
-13
-7
-48
-8
-48
19
-14
32
-6
14
-8
-8
-57
-30
-16
-17
-8
-105
12
10
5
-3
33
37
25
24
-14
58
8
11
14
-19
-28
45
-20
17
-34
-41
-9
67
-7
-4
50
-18
24
6
20
-127
-22
0
-36
-12
-3
27
-48
-32
16
0
-15
13
13
-25
-80
32
-21
-12
-18
2
-16
-50
-6
71
11
-16
-11
54
-26
17
-5
-48
28
-12
47
-25
-13
1
2
-55
-41
5
75
26
-15
-28
-16
34
33
9
21
52
71
-18
-35
-34
-8
-38
3
-4
54
13
11
-28
42
5
42
-20
13
-39
-77
20
22
-31
24
-69
-15
36
26
127
26
15
46
32
7
-15
17
28
-25
2
26
-50
0
-24
-14
46
36
-4
-16
-25
65
-9
62
-19
17
-5
12
-32
0
9
-15
-25
-9
-25
20
7
-45
-25
4
-27
25
-10
10
-19
-2
-17
-25
51
19
-13
21
-28
-36
3
-41
-62
-22
-10
-10
-47
-29
-32
9
25
-7
-32
2
13
-49
18
-58
24
6
-35
-52
10
-13
-14
4
-3
-57
5
-75
23
-11
-32
-1
-3
22
-16
8
5
-12
42
31
-10
-14
1
-30
58
72
-6
-29
18
16
-11
-16
60
-35
58
6
-1
13
-3
44
-11
-9
8
49
22
44
29
27
50
24
3
-2
-14
18
50
-43
-44
27
-8
4
-3
29
-2
-3
20
-14
124
5
-3
-72
55
-16
41
-23
-67
-30
-19
24
26
-7
27
15
-29
-40
11
7
-25
23
32
-11
-54
27
-7
2
0
65
0
42
51
3
-25
1
65
14
66
41
85
0
40
33
-19
36
-13
95
16
0
12
0
-38
-23
-19
-18
-5
21
100
73
8
5
45
-5
27
-31
-12
17
-127
6
16
16
-109
1
12
12
-38
55
54
-21
-27
8
14
-18
-34
-66
3
-53
-10
-10
-33
0
-11
24
-11
34
23
43
-18
-96
0
15
-7
15
-25
-33
-39
43
7
-43
53
-17
78
-25
17
-22
3
-3
-26
-4
-22
-25
-70
-33
21
-13
-22
-21
11
10
34
89
15
-3
-4
-2
-34
51
2
10
-88
-9
-36
3
3
-2
-48
-6
-8
-29
36
-8
1
2
-9
9
-28
7
-10
14
32
-82
2
7
51
-40
37
-15
-71
-28
-2
12
32
4
25
-16
-61
13
27
-32
-8
-70
3
4
11
59
16
-1
-35
3
12
-33
-34
29
17
-47
4
42
-18
-14
-26
-24
-34
-78
-3
22
1
-18
-20
-14
-6
-20
-32
16
0
-54
9
-33
-2
-10
-59
0
-12
9
13
-36
20
-34
-16
4
-1
25
-6
17
26
24
-8
27
-20
41
-19
-25
14
2
-12
-10
37
117
9
-16
-5
-28
-8
0
55
-45
-6
-37
-9
22
35
12
-13
-40
-45
95
-6
-29
48
-45
20
-11
1
-46
11
-9
25
13
33
31
6
13
17
-41
7
58
-4
7
-45
-11
-28
-16
103
15
-25
14
-5
15
-15
-15
2
-22
38
13
-1
29
-42
-33
16
2
-1
49
8
-13
-4
9
14
-3
7
67
41
-47
3
15
-28
41
25
34
-48
-9
9
6
75
-74
-31
-16
51
-16
14
25
-42
59
2
-42
-21
29
26
36
21
-2
-60
12
-39
27
10
-4
-26
30
13
1
39
-34
37
-14
-1
-17
-10
-6
-13
-9
-19
-20
19
-68
16
54
19
-1
5
10
0
-90
-43
-28
-56
5
-1
-19
10
-1
-14
50
11
-35
25
2
-19
-35
45
-44
-9
-14
19
-20
2
44
10
15
12
18
16
41
-34
-16
36
8
-68
-1
3
-12
-15
22
-10
18
38
46
-51
-21
42
4
-4
-36
31
43
-4
17
26
30
16
30
-36
3
6
-4
4
-5
5
-13
14
-45
-27
-23
20
-16
51
1
-9
20
0
9
52
5
22
-30
-11
7
17
-41
-16
16
-38
7
21
-7
-9
-2
74
-8
19
28
20
-84
-6
-24
-39
-5
6
-19
40
-62
-37
4
-51
-12
-19
5
-11
-14
14
5
-12
-14
-47
13
23
-5
20
9
-5
32
4
16
2
-127
0
8
-3
-24
44
-3
22
4
12
-20
15
-13
25
-13
13
13
66
52
-28
67
22
50
10
18
8
-54
66
42
37
39
-11
5
-49
-26
3
2
-30
-5
0
-22
84
-36
-25
-6
29
-43
20
-46
-42
3
-16
-33
29
12
-23
7
-32
-29
43
-4
-10
-8
26
-5
-9
54
-20
15
-12
20
25
-17
-61
-36
107
-1
-46
26
127
-33
3
-57
-27
-36
-14
48
8
-50
18
24
115
-11
-5
-37
-22
39
-4
-41
3
16
10
24
-4
-3
15
-37
-28
-6
-23
-47
6
-20
-65
-22
56
-16
-10
-23
-19
5
-8
6
35
29
-1
25
-13
-42
-30
-6
-22
6
-39
126
-12
-30
-7
2
3
-26
18
-16
19
-5
-28
23
66
-71
21
17
-42
11
11
-27
-14
28
9
-36
-9
-4
10
-16
34
-19
-28
31
26
-9
41
-27
-5
16
1
7
-37
-9
-16
32
-107
13
10
59
-28
31
-19
3
-20
18
-39
31
-33
-22
-28
78
16
20
57
-6
8
-9
-13
55
-16
-28
52
-36
-54
26
-41
-78
-51
0
-26
68
19
25
-22
37
-17
-26
-8
-13
-59
80
1
29
-25
1
17
7
9
27
-19
-9
-4
-10
72
4
23
15
4
7
-6
-23
-22
5
-18
-25
2
46
-17
0
-1
-3
14
-5
-52
-41
24
-3
-8
2
11
21
18
91
-4
-4
-16
-35
21
32
-7
77
-6
16
20
26
4
-30
22
35
-2
12
40
-26
15
92
-46
-6
33
102
-78
-16
-10
-18
26
7
-33
-9
-7
-24
4
-3
-2
13
-2
-3
-24
-5
-5
-9
-14
-127
21
19
31
6
9
-16
-16
4
-30
7
11
-6
-5
-12
-11
-7
8
-4
11
-8
10
1
-4
6
-28
-11
-1
28
5
12
-62
6
14
-25
0
-26
-9
4
9
-24
15
2
1
11
-9
-13
-14
-7
4
-3
-16
5
14
6
-11
16
9
2
-26
-2
-15
-11
19
-23
-22
-10
-26
17
-16
-2
7
-34
1
4
9
26
-17
-15
14
12
27
1
19
6
23
59
-13
27
-20
-7
-5
7
-7
9
11
-1
7
3
31
0
-28
7
49
-6
-3
12
1
8
13
-14
5
1
0
-8
4
-11
9
23
-12
-19
-38
-5
-15
16
-14
42
2
4
-15
-21
-2
7
-12
3
-17
1
0
-5
-13
4
-45
4
1
-31
21
21
-5
2
4
2
13
0
-24
17
9
-3
9
-5
2
-13
-23
17
-5
-8
-11
14
20
-1
-20
9
-5
2
-9
-5
0
15
-9
-9
14
7
-14
6
11
-4
-24
0
-6
-3
32
6
12
2
31
24
-3
-16
20
-7
-24
17
21
-8
7
3
19
7
2
-24
-4
0
10
-34
0
55
-7
0
-2
2
13
-4
-2
-5
-13
-29
-4
-19
-22
-18
2
-16
-6
15
-41
77
-22
1
-7
-9
5
-51
-34
-43
15
17
-55
10
49
-82
-36
11
-15
10
-27
-4
-2
-14
-2
29
-38
-9
-24
-10
34
0
-5
36
18
-113
-30
-13
9
26
-56
-2
24
65
30
-15
9
-8
-23
10
22
32
25
-30
-20
44
-56
-7
-6
-3
0
-8
-9
-87
-37
15
65
39
-40
-35
-106
-8
-89
53
-19
6
32
18
17
-7
-24
-44
12
10
50
-28
9
-22
-90
38
33
22
42
-28
28
18
6
-31
-77
-88
26
-35
43
53
-13
26
22
22
0
-13
-6
12
-18
-5
-10
51
-56
0
68
5
-23
-1
17
22
-44
-6
-46
-50
7
-66
-18
31
-13
28
29
92
-22
-15
35
-10
42
-17
50
36
24
3
-4
33
-42
-6
-23
12
29
-7
61
8
100
77
-98
-6
8
6
-4
19
41
-77
-6
-20
-30
0
50
47
35
1
42
0
-10
3
63
59
57
0
32
7
-26
15
-27
75
-15
11
-71
-54
-13
-20
-29
-22
12
18
-12
93
4
18
-25
-13
-24
27
22
-31
-19
-27
37
5
-27
9
9
-2
-11
-79
8
-40
66
22
13
-49
-89
-16
-11
-57
8
95
24
15
-2
25
45
-1
-29
47
22
-31
127
-15
81
120
-22
-37
-62
-48
2
17
5
-12
-3
39
-37
32
32
36
-32
-8
23
-1
29
-4
-53
-71
-83
44
21
-21
-56
110
-17
43
-103
32
66
48
8
9
20
-24
31
-16
33
53
-45
-53
27
-10
3
-3
28
34
52
8
-23
2
6
36
70
-33
49
-12
-47
5
-4
-17
-15
3
23
-8
-11
54
9
34
-45
-34
-44
16
-48
-2
54
-91
4
21
9
102
25
8
21
5
9
30
-4
-25
-16
73
12
5
27
9
2
53
16
28
-11
20
23
10
113
66
-119
13
-64
18
-5
0
55
-23
-48
-26
93
45
24
-41
-52
-18
-19
73
61
53
-9
1
-25
50
20
29
-46
58
-30
32
1
36
93
6
25
60
42
3
-29
-74
-25
-38
24
9
-4
-60
78
19
12
-71
29
-32
2
-25
81
-43
37
40
-14
32
17
49
40
27
84
-26
-52
4
-35
48
114
-6
30
-5
-8
44
-30
56
-18
7
-22
87
-36
-2
-36
33
-19
-16
46
-68
29
0
43
29
-47
-5
17
58
27
-49
-28
27
49
60
73
48
-72
-10
0
-19
-127
-12
7
12
-21
30
-21
5
43
-34
29
-49
91
-20
-30
3
30
39
120
-10
-31
-19
63
13
9
-34
33
25
49
13
18
-53
-14
-70
85
47
-16
-12
30
55
-54
5
15
75
41
-31
-5
-52
23
13
-64
4
-27
43
15
24
17
-3
7
-24
37
-37
21
38
46
-35
11
-43
-2
-3
-1
32
2
50
-56
81
-22
-81
-32
8
63
-105
-10
63
39
35
8
-101
-5
34
-28
-108
33
2
110
-3
14
127
43
-15
18
18
-32
38
2
50
-31
32
-12
-15
17
-68
-28
9
64
31
67
-3
-27
-46
-48
-14
-5
46
-7
-10
38
-6
-14
-20
47
-51
6
-10
38
-45
-10
73
-9
95
17
28
-26
47
79
-45
-20
6
60
15
35
13
56
10
80
20
0
71
20
13
25
68
14
78
-7
29
70
82
-76
15
-5
-63
1
36
5
15
-27
-8
-62
-1
15
-15
2
-46
-19
-8
52
27
43
-67
41
-45
37
-24
-16
43
-50
12
-47
0
-71
0
-57
15
-10
-81
-14
51
11
-19
-45
-28
-68
-14
-50
3
-28
21
-21
14
80
-88
-1
40
61
29
25
29
50
-25
-17
2
80
25
73
58
19
-9
-2
5
0
-14
1
-73
-2
-28
-6
5
-18
44
-32
4
-4
-14
34
21
96
34
28
-28
64
46
-22
57
80
29
15
19
24
20
43
17
36
-27
33
-56
-49
-4
-5
-54
6
37
14
64
-17
-27
-61
49
-15
38
-3
-39
31
-58
41
-9
-56
58
25
15
-22
110
20
-33
-65
7
63
-41
18
42
11
8
-31
24
-22
-13
-28
-16
-9
-39
-46
-5
17
-4
23
11
-50
3
11
8
0
45
38
-71
53
12
20
-1
36
28
-9
9
-65
-25
-32
3
-25
-15
82
2
14
86
-23
13
18
-60
-49
-49
-26
11
9
24
33
-12
-39
-26
-65
-32
-7
-15
79
-58
4
-31
6
18
-23
51
-5
15
48
48
-16
27
29
28
-30
-45
26
-16
47
35
-36
-8
0
-73
4
-18
-6
-9
49
9
28
-7
1
9
14
-29
11
4
-42
-2
39
68
-43
53
42
-37
40
29
-6
-25
-38
-6
34
-7
-54
4
7
-15
-20
-12
-32
-26
49
-66
11
-42
2
3
14
7
14
17
-127
59
-3
20
0
-43
-64
-10
0
-4
-1
12
-89
5
-33
-23
-60
47
32
86
-9
-27
-4
-30
20
-7
-7
31
55
-24
-44
17
30
-8
37
-2
22
-26
29
-10
68
75
-57
87
67
75
20
15
117
-16
-48
5
31
34
-17
-18
17
-4
-25
-14
34
12
44
21
41
0
32
18
33
41
30
13
32
-5
-18
-45
-9
-18
18
6
-1
4
15
-55
29
-7
21
39
4
-9
26
-4
-26
-50
11
-39
18
5
44
-4
-48
6
11
6
4
18
1
40
-33
7
37
-10
3
13
25
-20
19
35
36
-70
7
-42
2
-31
-2
-17
6
14
16
25
-28
53
-61
58
43
-21
59
14
-31
2
-55
-13
7
2
-38
-79
39
-8
38
-5
48
14
-52
-21
-45
4
20
-30
-45
63
54
37
66
22
-6
-123
-30
-11
62
10
11
-19
-26
36
-6
-29
-36
-72
47
24
57
-30
-26
16
10
10
-25
55
-11
-21
4
-84
36
42
1
45
-2
-19
27
-16
2
-71
-6
-36
-1
-11
-44
13
59
37
5
-7
0
42
-29
51
-44
35
-56
29
15
13
51
-47
12
-16
18
25
-53
-11
46
1
-13
98
-1
5
13
0
1
21
-3
-3
16
15
-42
-26
9
6
35
-15
-3
-12
-116
-54
-6
67
39
-21
-32
40
91
15
4
29
-20
-1
-30
1
44
3
31
68
9
19
-33
-10
-10
-58
12
-5
84
-10
5
-1
-7
-16
46
29
24
-32
31
16
28
-82
-64
22
-26
-56
-32
3
-21
0
-127
-19
-11
-18
-26
10
40
11
-79
-6
6
7
-2
1
-53
-84
5
-10
24
-39
-23
-9
9
22
-62
-32
0
32
12
28
17
-1
-16
15
37
9
16
-28
-67
-15
-20
-39
39
40
21
11
-46
-41
-17
77
39
14
-38
5
56
3
12
35
-25
37
-30
-48
7
-33
3
83
36
14
14
0
-73
-38
7
-17
-1
-13
23
51
4
-11
26
15
-1
-36
-25
8
-32
12
-32
6
13
36
6
12
21
-5
38
6
6
24
-21
-6
-31
-9
21
-3
-21
41
89
6
36
-22
37
-111
4
-47
12
-3
8
39
-3
-61
10
36
-9
-37
-16
24
-1
56
-31
5
37
-3
7
30
-22
14
-19
6
-15
-22
5
-22
12
14
-39
109
16
3
-1
-31
-4
1
33
22
-28
20
56
-16
-25
-5
-14
-15
4
-22
25
14
-32
28
11
12
-7
-31
17
9
24
4
-14
39
2
-9
57
16
32
-8
9
8
-13
10
6
37
-18
-34
-1
14
38
9
11
-1
-29
47
35
-4
-20
2
53
-31
20
73
-23
12
-20
-10
13
24
7
4
14
10
-19
-9
26
-2
-6
3
-10
50
44
-127
-6
-41
71
-12
-13
-9
3
0
18
-22
62
41
28
-17
27
25
-26
-31
-45
-25
17
-72
27
-20
35
-14
-31
2
36
29
-6
55
-8
0
-29
42
-19
-18
17
-48
-24
13
12
3
2
-62
0
2
14
35
-8
53
72
24
29
-26
21
0
18
-2
61
-4
12
-15
11
-42
30
-19
-6
-27
-4
-4
19
15
11
-23
-42
-11
1
2
19
-22
-6
31
26
-16
45
-61
-8
3
42
15
53
6
12
-11
10
74
11
1
27
3
-28
91
79
62
5
-8
55
-36
31
62
10
-32
17
-53
-45
-12
32
-9
127
-12
-43
15
63
40
12
-26
65
46
-2
37
-1
72
-59
-30
16
-15
53
-19
-73
-14
-36
89
44
-60
-73
-31
34
-24
-6
63
62
37
3
-44
-90
14
3
-70
-53
12
-2
5
-48
-20
2
-40
18
36
-15
91
-13
-55
-84
-91
-28
44
16
-101
80
-53
48
-46
10
43
14
35
35
-12
-6
96
34
-60
41
74
21
46
19
-14
34
-30
-56
-13
22
59
71
-68
67
-57
77
6
73
-3
33
33
-6
-20
13
2
-42
-16
43
-10
-54
-22
-15
37
-3
-56
31
-31
-10
45
18
55
1
84
33
39
-24
-67
4
-38
13
-4
-53
-6
-57
10
127
-24
2
16
46
-6
94
-7
-70
-57
-54
-5
6
-45
64
49
8
18
51
-12
-21
-56
-53
-5
29
75
65
16
13
12
-42
22
-54
27
13
-25
0
89
0
74
-54
-8
-37
-5
37
-28
-25
12
-42
4
-105
-35
-86
38
50
-49
4
-37
-1
-68
-52
42
28
46
20
-45
-10
64
-67
-57
-59
-7
1
69
41
22
58
-37
45
-8
10
-24
-17
55
57
43
34
66
17
-2
-40
20
-8
-44
40
-43
-14
27
-34
10
20
-15
-104
25
-52
12
-18
-26
-17
3
-28
-13
-55
44
2
18
15
8
2
18
49
12
-41
-53
13
27
91
-15
8
-4
7
-8
-11
-4
-7
-2
26
-21
-33
-4
-32
5
11
-9
-13
1
-3
-27
30
29
4
5
-6
-7
45
-39
-16
-70
-17
45
10
9
20
12
-20
18
-7
-21
-19
11
53
8
0
-22
-29
-4
-35
33
-37
-36
21
-31
24
-29
-14
-17
-25
-36
18
29
-12
-19
-25
-32
2
-28
-27
-26
127
-17
16
64
22
5
32
-4
40
-13
24
5
51
-14
-34
-55
-1
-2
2
-25
-3
36
-3
-28
-47
-24
12
-3
57
25
-12
-19
16
11
6
-20
18
-7
-36
23
-5
-3
5
13
92
-18
-13
2
-56
5
0
19
55
4
-26
-29
-18
27
27
37
-22
-5
-35
19
-20
-43
7
-27
2
26
8
-2
14
-5
25
18
19
-35
52
-56
-28
10
60
9
-8
47
8
-91
34
-14
-17
38
-6
24
22
-4
16
-1
-5
-25
-32
-3
-8
-5
-5
22
16
20
54
-19
-5
-21
49
6
0
11
7
-2
-6
-11
-17
33
7
-9
29
-2
31
-7
-57
-18
-10
-19
-5
4
12
-12
-29
20
3
-19
-8
-34
-8
-11
17
60
26
-8
-14
-34
18
-46
-64
-14
36
-72
51
-4
-5
-15
-6
-6
1
6
-7
-12
-8
12
-37
-6
-4
-8
-2
15
3
27
0
-37
-21
-20
-7
6
-57
17
-20
-16
86
6
-7
-35
-50
16
39
14
-9
7
8
6
6
1
-12
14
-4
-87
-36
-5
-36
-35
-28
1
-12
17
11
30
-71
15
-23
30
15
-12
-26
12
34
-21
-15
53
42
14
-19
22
-3
-48
-10
9
50
-14
11
11
-13
6
10
-4
-35
-21
10
-8
-26
-5
-26
6
1
59
-48
12
48
39
25
14
-59
2
32
3
3
-1
23
0
-11
9
6
4
46
-23
-7
16
-40
39
5
22
-16
-18
-44
-21
-5
18
9
12
48
64
32
-22
24
6
14
35
-23
-23
10
-20
-20
28
-28
-7
11
-63
-17
19
-21
-22
13
19
-3
8
-29
14
-3
-27
23
-12
9
38
31
23
-58
-8
-107
-27
-6
5
-45
67
-51
-6
-39
17
7
7
-33
46
27
-7
36
11
11
-31
82
-33
51
21
-17
-7
-14
23
-6
8
-1
-7
-12
-27
9
-22
-4
9
127
32
12
-12
52
-3
26
52
-6
23
30
3
-3
37
-17
9
32
13
30
3
-53
71
-11
64
12
55
-112
5
2
-16
-2
-30
4
-43
-6
33
68
31
-30
-8
-36
19
-12
-11
37
-18
-12
-4
-49
9
2
53
-1
40
7
16
-25
-10
14
-44
-28
-6
17
16
-37
-18
-11
3
5
-18
38
-16
22
-9
-5
-1
3
-16
0
36
52
-5
24
44
-24
19
-3
10
9
-3
18
2
4
-58
-4
-17
-3
-17
19
5
29
21
12
-21
10
-7
-27
27
-29
18
10
30
-34
-37
-19
13
-21
29
-12
0
24
-7
-13
7
6
-9
21
7
-8
33
-71
6
31
11
-24
59
-10
43
-1
-26
-20
-21
32
10
-127
-17
5
6
22
-25
-15
24
-33
0
-45
6
-32
39
-27
-3
17
-17
-3
-21
-4
-14
-26
1
-16
6
-39
13
-8
-7
16
-90
-52
-36
13
-13
48
23
11
-38
40
-39
-31
39
10
-7
43
9
13
32
-12
-36
-7
-10
63
-10
-11
9
-7
-12
12
43
-22
0
11
21
-54
60
32
-46
15
-10
-83
-19
17
6
-5
-27
-2
10
-5
0
-11
5
68
75
-12
-5
-9
-47
-29
-16
11
43
78
33
-7
-21
9
-2
2
-34
-35
23
21
9
14
0
27
-37
-9
-7
-14
2
-14
9
41
21
15
76
-14
5
14
-20
-31
8
-16
0
-34
-31
32
-37
-20
33
-44
60
11
32
17
-25
18
41
32
27
16
-46
13
4
0
-40
6
-62
-4
9
0
-36
19
-21
-42
-63
-25
-15
-14
8
-30
5
-20
-6
8
5
-3
31
-1
-20
21
30
-40
3
8
45
-9
50
-10
-15
19
44
-9
-27
-3
6
-55
-80
25
-1
-32
-40
23
35
-16
14
0
42
-5
-25
-4
4
12
-12
-16
17
-67
-3
33
82
10
6
-34
-10
-16
-20
30
-35
-6
2
104
2
-12
40
13
6
-90
-127
-47
-17
24
-93
-12
-4
-2
-16
33
-36
-52
0
-51
39
116
34
37
29
41
-16
22
-77
-14
-1
-7
-52
-3
-18
-34
-4
47
18
-56
-25
11
8
-45
-79
8
56
25
1
-61
38
-12
27
-31
-26
12
57
45
28
-14
56
5
13
-71
7
-23
8
-29
-26
-6
-13
-18
25
6
56
34
-43
-20
3
49
-27
44
13
-42
-61
-32
-43
76
46
-32
24
7
-30
-30
19
-32
-35
54
48
3
14
64
21
2
49
-13
22
92
5
-4
51
-13
23
-42
-17
31
0
58
34
18
44
-10
33
18
-61
7
38
-3
70
-77
-5
-64
30
-16
-7
-27
7
-15
-62
84
-41
15
8
-24
19
-10
-17
-37
11
-36
-2
50
-13
33
36
-9
-17
51
42
7
17
24
13
-77
6
1
57
-60
-27
-12
-54
-21
73
37
36
54
-60
29
7
-46
-19
29
20
4
35
-13
5
26
-31
-6
-46
-35
59
-38
26
-90
70
-20
18
-13
-9
1
-23
-14
-15
7
1
50
23
-14
33
38
29
-8
29
7
-14
-14
-24
43
13
0
3
-16
-4
-13
15
19
1
-7
13
-1
39
-31
28
-6
-22
-77
11
50
19
-1
11
45
3
23
-16
-2
-5
-33
-11
3
23
-23
-4
7
11
5
-43
13
-15
2
-14
15
14
-1
-1
3
-39
-6
-48
-25
-20
-10
-42
-26
-2
27
50
12
-45
42
-15
-6
1
59
-44
-9
16
-127
5
-17
-6
0
5
-7
25
9
38
-8
8
16
6
6
-3
21
-15
-6
12
-27
24
39
-15
4
29
1
16
-24
-21
-23
27
16
-2
11
-55
-23
-123
16
21
10
15
-48
-19
-28
-12
32
2
36
31
-22
38
5
1
-8
3
-16
0
-30
22
-14
-2
-27
11
-17
-3
0
29
3
-27
10
15
16
-17
0
-5
-16
-4
17
5
64
-17
5
-3
7
1
13
-4
-5
-14
16
-32
7
-70
-50
8
-28
2
-6
-27
0
4
-43
20
-20
-25
-40
-45
-8
-59
15
-18
5
-10
-11
2
21
-2
-30
-4
12
-1
-37
8
2
-33
3
0
-16
-6
-50
41
-30
8
75
-23
13
21
26
44
-10
-10
-27
11
3
-10
-4
18
14
-11
-5
25
3
-18
33
34
13
-64
-29
-40
9
-10
-22
42
-41
-31
19
-61
3
-24
3
-19
-41
5
9
78
3
-37
2
61
-71
3
-4
1
41
18
-17
49
21
-46
0
-26
23
-15
-17
-42
-54
-127
37
1
-72
-9
-41
21
-22
-60
-20
5
36
9
19
19
38
-13
45
-67
69
-97
15
-25
2
32
-72
34
38
-25
-5
-16
17
-61
-5
41
-16
71
-9
41
22
4
-26
21
9
-16
81
-72
-11
-54
-7
-68
-38
-33
-6
-2
43
2
-12
10
51
32
7
7
13
1
29
42
11
-40
-2
-17
54
-26
17
4
-2
-26
37
48
-2
-11
-7
38
-16
0
37
30
-57
-5
-17
30
-7
42
-25
19
59
13
-37
-62
-11
31
-48
-3
10
11
3
-46
2
45
-59
-33
-13
8
-40
9
1
-28
-45
42
-29
16
-31
90
-16
-9
-59
-10
59
-45
-13
8
12
10
6
-50
10
17
36
-30
69
-69
-15
-32
-32
-7
4
-34
11
-32
-34
56
-31
-52
-68
-59
70
6
-21
-23
-10
-33
-69
-1
-57
-43
10
-2
-32
19
-9
-7
17
-76
9
-1
12
10
-27
-56
52
14
30
9
23
25
-43
-2
37
-11
47
-7
-51
68
-35
0
23
-28
-2
53
1
-45
-22
7
-4
-41
-8
7
19
-94
-19
-16
-1
-12
-61
20
10
47
12
7
0
34
-19
49
-63
-37
20
-19
-16
-5
44
1
23
14
-30
-9
63
18
56
-18
-27
-10
-1
34
52
-26
-6
25
23
-32
16
2
49
-6
31
-15
6
101
36
-33
-32
90
-34
-50
23
13
-15
-1
16
-24
-88
29
49
83
24
-24
-33
-8
-13
33
-24
15
-12
40
-30
-49
13
-51
0
-40
-60
17
-60
-25
25
45
-10
-16
49
38
-1
0
20
-49
7
-58
-18
-22
-25
9
-32
3
17
19
-24
38
-51
-36
22
-4
1
18
2
26
-20
-5
-29
49
24
20
35
-26
-42
11
-32
23
-59
-55
-45
44
44
30
40
5
-49
40
-7
-13
33
16
-8
-41
-16
-43
-39
-18
5
32
-2
-18
6
29
-25
13
-27
8
-64
-5
-77
-16
-76
-16
63
-63
-22
-8
-50
12
-56
41
-50
14
34
-22
-4
-33
3
34
-36
-4
35
-14
26
-14
0
-9
35
-28
5
11
40
-3
-25
2
25
7
-5
-15
10
-38
-8
19
-27
72
0
-17
22
15
-10
-2
-36
-18
-27
24
-12
61
14
-11
12
-23
8
-17
21
-9
11
26
29
-37
-37
-33
15
12
20
-3
8
22
-17
-22
-15
-44
18
50
9
-23
-7
-40
39
22
-28
37
20
127
4
5
29
-11
92
0
-50
21
-6
-6
-19
28
-7
5
-33
-33
29
26
-18
-34
21
-11
32
-3
-10
26
-35
-3
51
16
57
37
-53
-12
35
6
76
-42
-43
-51
26
-14
-19
5
29
-6
6
2
-12
-6
-9
14
23
-13
51
-6
-15
-6
-40
15
-29
71
-2
-14
-15
61
-75
-7
38
-36
72
-10
1
-7
-127
-17
8
40
43
30
-71
-19
1
-6
12
42
-55
8
1
-42
-16
39
-8
-1
-34
21
-82
-66
12
-14
20
68
-24
23
-11
19
55
-25
18
0
32
-8
-13
-11
75
2
40
31
0
39
0
19
-37
29
67
-39
5
-36
20
70
-1
-22
-40
-31
-49
-11
2
-32
-14
-36
12
6
-45
-36
0
-62
3
-86
20
-24
-20
-10
-17
-39
-16
7
21
-17
5
-32
-23
-8
28
-5
13
-3
38
-16
13
-23
-5
-9
30
-32
-26
32
9
6
-58
26
-6
40
19
-15
-36
-71
-5
16
11
3
-6
-8
21
-9
-31
23
27
-20
43
-11
-3
-17
-22
-13
18
11
1
-28
-24
10
-7
-1
-24
-10
7
52
17
-12
11
-1
37
12
12
27
7
-10
-74
-9
14
-29
-7
19
25
-20
-2
-22
6
-1
48
56
68
-64
-36
27
-11
-27
-5
13
-45
-27
-3
-3
-5
-26
-32
-9
-9
-6
38
5
-20
4
27
44
-25
-51
28
-7
-13
-41
19
-1
17
-61
-9
-15
-34
42
-54
40
29
2
-8
-32
-14
-3
-20
-41
-73
16
-22
-34
-17
30
-4
-52
-14
-3
-25
5
5
-64
34
39
23
39
59
-2
17
45
19
-11
-14
36
38
14
-5
-39
8
40
14
14
-8
-20
34
-10
-1
-16
7
-2
-16
-18
-14
14
12
28
25
5
-24
0
-6
52
6
0
35
-51
-21
-65
12
-15
-22
-39
-24
-41
4
-8
8
-11
-13
-34
-33
-17
50
1
-15
-12
-20
29
36
11
32
18
-10
17
15
17
15
5
4
-39
13
26
9
41
-1
-8
-40
-30
-4
-39
-2
-13
-34
51
-71
-25
10
-24
-23
6
18
6
-21
-2
-57
-31
31
20
-31
-72
27
-12
11
22
-19
21
55
-11
7
71
-9
-8
-20
-39
-9
-20
11
13
-6
-29
-33
-3
-3
0
25
-22
52
-16
6
11
-30
16
-84
16
-7
-27
-2
-26
-26
-27
4
12
-20
26
-69
1
-32
15
48
-29
-18
54
3
-4
-15
-13
23
127
-20
-55
-45
-27
-28
8
-20
22
19
-40
-13
-8
-15
1
-4
0
-56
-33
-21
-8
-15
46
57
22
28
2
63
-16
-38
50
32
14
-19
21
-7
-21
-19
25
-27
63
-5
-1
72
-6
-4
-3
15
27
-21
21
14
-26
8
31
115
58
30
-10
-6
14
23
-19
2
10
3
25
13
-5
-10
3
41
12
-24
-68
-7
-18
51
-18
-41
-8
-11
-48
-42
59
9
19
34
-52
12
23
-52
38
-52
1
-22
42
7
55
-18
27
26
35
-27
-21
-12
16
-17
-34
72
0
6
-24
-63
-10
-25
-99
-11
-14
-41
-5
18
6
-14
15
9
-7
21
-70
-7
-16
-77
-8
31
-47
-33
-32
-38
29
13
-22
-15
2
17
27
0
-37
-26
-23
-6
6
23
32
-38
-19
-58
-9
-30
21
-6
-6
-14
50
-2
10
7
-12
14
14
15
-10
45
-19
-47
-96
-19
-66
-17
14
6
19
34
-11
-17
1
-22
13
17
-18
-62
-21
-17
-93
-50
-56
11
-17
26
-25
48
1
-5
16
13
24
-24
10
-23
-23
28
-12
-22
0
-49
-38
4
-36
3
-26
-21
6
4
-9
-6
2
-6
62
-62
-5
-9
-35
86
1
-18
35
28
18
-29
26
41
26
27
7
4
11
51
9
69
27
27
-48
61
-19
48
11
-41
-21
-5
5
-14
-41
127
-58
-6
80
-64
-10
91
-33
39
-17
10
-17
-11
28
56
13
60
2
-18
71
-33
-16
2
25
-15
31
7
94
-123
-25
-21
-34
12
-2
45
-58
68
-17
0
-12
-15
39
43
56
19
-36
-16
1
46
59
-15
88
-24
96
29
-13
-40
13
-48
-21
28
10
46
-30
61
36
-38
-43
56
-35
43
-17
-35
-89
-58
-127
-61
67
99
7
-93
22
7
-11
41
-51
-50
-14
24
4
36
-28
-3
71
21
49
-27
20
-6
20
115
-36
21
98
-10
46
-42
78
62
-5
-40
-11
67
-90
-17
41
-60
35
-18
-105
-58
74
-4
2
-39
48
-91
-28
-9
37
-10
-27
18
42
-3
-51
-53
-49
44
-47
26
-84
17
-70
28
-61
-3
-22
-3
37
-20
14
-27
-26
0
-19
59
47
42
-8
61
-68
24
-72
50
-43
18
-29
-102
7
10
-1
-32
4
-42
-17
67
-25
12
21
-83
-24
7
41
-6
14
-18
22
61
15
41
-6
-15
-12
-66
31
31
-52
-5
48
124
-27
62
58
51
42
-16
19
-23
-2
12
17
32
82
-31
-8
-13
25
-66
-47
31
-13
-38
69
68
-21
-34
-11
-74
-22
92
-73
22
-27
33
58
-4
-11
35
5
36
-20
-31
-13
-82
-59
55
-32
-45
-34
1
-34
-16
6
-62
-96
-14
-12
-85
35
42
-38
15
-56
-31
-38
15
-5
13
-34
101
0
5
44
-37
31
48
12
49
56
17
33
-30
-27
12
-33
-65
-17
-7
86
61
-14
49
57
-77
-84
50
-10
-28
25
-5
-87
-19
98
5
-20
-59
-39
17
31
-29
-24
60
8
-115
-24
-61
14
30
-46
-7
-18
0
-86
-17
19
27
37
-43
-41
-72
-54
26
-17
3
5
-15
-9
6
24
32
-36
-59
14
8
-29
60
49
-4
-14
-9
-9
-4
25
-29
16
-3
57
-20
6
10
34
14
31
65
-37
32
-54
28
-41
-6
28
79
-46
51
-55
26
-5
42
3
16
24
-4
-40
-19
58
13
-23
28
51
19
-13
-12
-5
29
-42
87
-52
34
-11
12
-27
-43
-74
-1
18
-2
-17
-11
16
35
-7
-12
39
-33
-32
6
-22
20
-26
-7
-2
-16
-57
-42
1
-11
1
23
-15
17
21
-14
-23
-38
-37
-9
-40
19
9
31
15
37
-6
3
58
127
10
27
-26
-63
-64
20
46
22
-17
-27
32
44
103
4
-24
-17
4
-23
9
54
-13
10
-11
-13
-20
-24
12
8
-3
-15
2
13
-19
13
0
-17
10
-4
54
71
-6
55
-41
-26
-12
2
-8
18
-99
-15
-28
-59
-27
-43
-13
-6
-40
5
2
42
-54
-20
2
14
-10
-21
-10
-44
-10
-30
0
-29
-10
11
5
11
74
-5
-20
33
-2
20
-25
-44
42
9
-7
53
12
-34
-47
-45
34
34
6
-27
-8
5
-33
22
4
25
-18
6
10
-14
23
-19
19
-13
-15
-72
-3
-34
-40
13
-21
-34
46
4
18
-7
-21
-2
-20
1
4
-14
5
11
-9
0
-43
49
16
3
-5
-59
-4
-9
-11
-9
-7
-17
-8
-72
22
-7
-33
-53
-24
-29
-7
-7
45
-7
38
-27
-55
27
-13
13
-72
14
-8
5
5
-11
127
-15
49
-31
-24
21
22
16
19
-38
-27
-18
35
22
-17
-18
-85
13
1
4
17
48
22
44
-12
-20
11
-6
-36
-86
10
7
-35
-19
-26
12
-34
-3
-86
-4
-23
1
-77
19
9
9
-32
9
-10
-16
-11
-8
-2
-46
17
22
12
-21
-16
-38
6
20
-47
-36
28
-49
15
13
-12
26
-40
-27
24
-21
-44
-73
13
-3
-12
-6
-36
-11
8
-36
12
-13
-29
32
26
-14
-15
-12
-16
-11
54
9
-16
-6
22
24
59
-9
15
-38
41
14
-2
0
4
-20
-32
-23
-9
6
-51
-42
23
51
-5
-36
75
-32
10
-35
18
40
20
53
-28
1
-27
-5
6
8
4
23
-22
33
7
32
24
-10
47
-29
12
20
18
-11
33
-52
8
-2
24
-34
-3
-28
8
22
-8
-15
10
-31
36
9
25
-31
-20
45
-38
0
13
-42
10
22
-13
28
-8
3
43
-36
18
1
12
-12
-8
35
6
34
-24
-23
11
-24
17
-38
51
33
24
-16
10
-61
-38
-7
21
-55
-37
36
11
-7
-6
2
13
-32
11
55
-40
2
-23
15
-51
25
8
-63
-43
14
26
-20
-107
-51
-76
-20
-9
59
-44
22
21
63
-39
61
-39
-127
-78
-13
-44
-51
-27
-28
71
-53
-14
20
-57
76
65
-28
-11
-83
89
-76
-64
35
69
57
-46
-80
41
2
29
-31
-27
57
87
-8
-50
-32
44
8
-48
10
53
12
-40
60
0
-21
-10
-11
17
68
-13
-16
-9
3
-25
-11
3
8
-51
-65
-15
-15
-16
45
78
-99
-16
-37
-21
-38
-36
41
42
-127
66
-45
-24
77
1
4
-12
51
14
12
-22
-44
-20
-7
-21
-7
-31
-65
-2
2
-39
-1
-12
43
77
31
-33
-9
-25
-50
-7
-59
-11
-28
-50
65
-50
0
-60
26
55
-73
-6
25
8
-30
8
-58
15
-44
-3
-34
-14
5
114
56
-6
-10
-29
25
6
-9
11
-6
45
51
-41
-10
-37
5
-11
44
-56
-20
49
45
58
16
-40
-32
44
19
14
-6
86
-19
-34
46
9
-21
-4
20
-35
-35
31
-75
35
-49
17
-38
14
18
-52
25
-65
33
-12
16
-3
-7
6
67
27
23
-35
-3
40
28
-20
-29
20
63
-10
-42
-18
-57
53
6
27
-45
-16
-57
-22
-23
7
-67
-3
-12
40
26
5
-45
27
-48
15
-34
-31
-20
-7
-44
55
-37
2
-1
-4
-39
11
-36
-28
-17
20
-21
-9
-13
-21
-25
33
42
21
7
26
35
-11
105
-21
-35
56
-71
-7
-45
57
-11
-4
50
7
-61
8
19
6
8
-9
23
13
15
-3
-49
-47
-20
93
-26
-59
-67
-15
-81
-13
-15
-55
31
-50
-25
-8
-71
23
1
-3
7
3
55
-25
-18
21
-6
28
22
25
-18
-6
-2
-21
37
62
-49
-12
30
83
-57
-77
81
-35
109
-29
-46
-51
-67
-54
-74
24
92
28
-16
-6
11
-20
39
77
24
-67
-48
33
4
22
36
32
-31
20
-18
-14
41
-9
-57
-41
51
-7
-5
-23
-42
-12
22
-13
17
-7
34
-46
72
34
-3
-30
68
30
8
-1
-17
-2
-35
44
50
63
21
-63
-15
24
-127
24
-26
-2
2
-115
22
-3
101
-34
-9
-3
-12
34
43
-13
-4
-49
5
41
-21
18
58
92
25
-36
39
14
-14
-71
19
9
-29
-21
28
-34
26
1
15
-39
-82
-3
-51
36
31
2
22
9
-58
-6
-51
21
32
69
6
59
58
29
25
-11
-7
13
-12
50
-7
17
-78
-23
0
23
-33
-5
-25
14
42
3
-3
4
-65
-72
26
21
11
-38
-19
-42
4
-38
-39
-35
-12
48
-12
16
-33
-19
-2
-10
-25
20
27
-3
5
-13
-17
-14
19
-42
43
-50
-25
-25
-33
65
-26
4
-1
-17
12
-29
19
14
-33
-18
-12
-72
-28
6
5
16
-8
-15
-38
18
40
-83
22
10
18
-11
19
-19
11
13
102
0
-5
-29
-79
-8
-10
17
-6
45
-18
-6
-1
22
29
30
9
-82
11
29
17
11
11
8
24
-18
-7
-7
29
5
-20
-6
-7
-6
-55
77
-18
-4
-17
-23
-9
14
0
-17
-90
-18
-14
-17
9
-81
-43
-3
12
-11
-20
-2
2
-16
105
8
-12
0
10
-127
5
55
-8
-49
49
-4
25
-9
97
-32
-9
-16
1
-17
-14
-13
-3
13
-5
4
-4
3
-50
19
2
7
-6
19
47
22
-27
9
-5
-1
37
38
51
-11
-32
-17
6
-12
0
-55
29
3
4
33
-35
-48
41
1
-20
-10
-37
14
-62
24
-27
-4
-12
3
23
29
3
35
8
-7
-115
-6
36
-26
11
70
75
-27
-24
10
22
-2
55
-13
8
-21
-4
-8
-16
-74
-42
-7
6
6
39
-70
-6
-24
-72
15
-18
-24
-12
9
2
16
-26
-3
-27
-35
-22
-31
4
11
19
3
3
12
54
-2
1
56
92
-9
10
70
-46
22
-11
69
25
-43
12
30
2
-19
-35
7
55
6
18
18
-6
119
20
-18
1
-4
-11
-11
-34
-27
-5
17
16
-5
21
-10
4
-1
-80
33
-36
26
3
-26
31
18
13
7
-27
-16
10
42
-56
-42
-28
50
-23
21
-3
27
-45
21
58
-36
42
58
-1
11
48
0
0
-40
-29
27
5
-8
-11
0
-24
-33
54
-57
54
-4
4
-19
52
-30
-34
-45
-16
-26
7
-1
-5
12
-2
-26
45
54
43
0
35
-11
60
-9
-25
31
-14
-109
0
-29
-42
10
0
-24
0
-22
33
23
31
-56
-6
3
29
-6
2
-14
57
-20
18
32
55
-10
41
12
35
65
42
-12
77
21
49
-34
19
66
-34
-69
7
41
-35
-8
-9
-1
40
4
-20
103
-45
-65
-15
-52
-5
15
-54
-36
-113
13
25
23
-35
37
10
-64
43
-9
39
8
1
67
-45
-6
28
-26
36
-22
17
-5
-80
-19
-40
-11
20
54
-6
-11
76
41
-4
-13
33
-25
-28
-50
-1
-5
51
-23
3
-9
54
-3
-49
32
14
-32
-25
37
3
0
-43
-7
-8
-3
-41
-5
-4
49
18
51
-52
-39
6
11
-24
27
-7
39
-12
14
36
-21
-2
-17
-6
-7
90
-22
-3
-3
-20
-8
5
-21
103
-27
-22
1
-31
-33
-10
-8
-6
1
-48
44
29
0
6
-31
47
0
12
127
-8
21
-4
25
-2
34
26
23
2
20
-15
25
41
-39
-26
-24
27
50
-2
16
-52
-18
-25
8
5
0
16
6
17
13
-4
-11
8
-21
-13
-22
-2
3
-30
1
26
14
-5
2
-25
19
23
7
12
-11
21
18
18
6
-18
9
9
10
1
-1
21
0
19
9
8
-4
22
14
-6
8
-3
9
-10
10
12
20
34
-8
18
8
-13
-15
-3
8
-16
21
-4
-17
-15
-11
5
-5
9
-10
19
2
9
5
-16
-13
13
15
8
12
14
-12
-1
-7
0
17
-19
-25
42
17
-16
-41
-8
1
19
-12
0
13
-1
9
-11
-16
-24
-21
-6
23
10
-7
17
-20
-15
-4
-4
-2
4
-6
7
7
6
21
-21
-9
-17
24
-1
-8
-17
8
-13
-20
-6
-10
-7
2
-14
-9
127
-8
-17
-17
-12
-15
10
14
-2
-16
8
17
-4
3
-24
-20
0
3
5
1
-16
4
12
-29
-2
-3
-2
1
2
9
2
-4
17
3
13
-4
-14
0
11
-17
3
20
8
2
0
4
7
-4
39
-14
11
-25
20
8
-11
2
-1
-1
10
0
21
19
0
2
48
5
4
10
-21
1
-3
13
20
-7
-1
6
-4
13
-2
-7
5
-18
-27
-7
-21
29
18
-2
10
6
15
15
-25
0
-15
-9
-9
1
-1
-1
0
32
8
2
-2
-11
-12
-9
-7
-11
11
-45
-6
-17
18
2
3
20
-14
21
-3
-9
-12
16
13
19
11
12
-70
-46
21
23
-16
18
43
19
25
51
3
35
-44
-77
-19
15
23
-39
11
-29
-4
-14
-4
14
37
31
-51
21
-20
-8
2
-21
6
15
-17
3
-18
11
-14
9
-8
-96
-16
-23
94
36
-19
1
-13
-2
16
5
19
-105
9
-4
65
23
-48
-27
0
-18
10
-6
11
-15
-2
-38
73
1
29
-3
-75
13
19
25
14
26
-30
-26
-4
-125
-2
21
-7
-106
19
37
28
-25
-14
26
19
5
86
4
-73
27
-12
45
-33
-11
8
7
-3
-21
15
-17
-10
2
-4
-7
-34
-3
45
-39
127
-24
34
-2
34
23
59
12
54
-1
1
42
22
-19
9
-10
28
-29
-67
-3
-32
-16
-23
59
-33
1
33
-25
27
1
25
-19
-11
-40
-35
-20
22
21
-24
-21
-1
-31
42
98
60
-26
24
-11
-27
1
-26
-13
-5
-56
25
26
-7
-11
-9
-42
-22
47
3
21
-8
-6
-100
3
-48
-13
4
-45
-13
53
-16
-2
-54
-31
-16
4
10
-9
11
-35
2
-22
-62
1
-18
18
116
28
1
-20
9
12
-36
10
0
-18
-15
-35
7
-1
10
-47
-9
4
21
10
-5
39
-22
-3
-16
-18
20
-21
31
-9
-14
-34
5
17
-19
-39
5
-8
-91
1
-109
0
-5
-27
-27
34
40
18
19
-60
58
4
1
-40
16
-37
35
-18
-127
17
-20
-20
30
-39
30
24
-19
2
39
-14
15
-35
-5
33
18
-81
39
-23
2
30
-6
-46
-13
17
44
13
-55
-8
-45
-54
-47
16
33
65
-56
36
-12
-27
-68
32
21
1
-31
46
-43
-31
14
-3
43
-91
9
-59
-48
12
-9
-21
29
6
44
-3
-63
-34
41
-3
50
-15
-9
24
12
-11
24
23
15
17
-28
-23
-1
63
-46
5
-14
-4
26
18
-34
2
62
21
0
90
-17
13
26
-1
-40
35
-29
10
4
26
-99
-72
-12
15
-39
33
-16
36
18
9
24
18
7
1
-19
98
12
31
1
-5
-1
28
21
-42
-10
-28
-11
-40
-34
-71
14
25
8
-74
25
59
34
39
-11
6
6
31
20
-30
6
-41
-9
9
-19
29
5
-25
-71
35
-8
7
-52
6
-56
13
-12
-28
-37
10
-56
4
48
-29
55
-7
3
-17
-31
62
-43
-58
-15
-45
39
-20
-25
48
50
26
-19
15
55
-16
-58
-72
15
5
-27
44
15
-1
14
0
25
18
31
13
28
21
-31
1
-11
12
74
2
85
-21
16
30
-1
-5
46
-22
37
-35
-48
-61
64
-13
58
-33
12
-5
61
6
-34
-32
0
100
-64
17
58
62
-35
-19
-127
-45
6
8
8
-87
33
-46
-22
-10
-21
-33
5
4
11
47
-102
-10
79
-52
-22
-17
10
-15
-46
-14
-52
-50
-30
-79
-78
56
18
8
10
-54
79
11
-15
24
4
-36
60
-3
5
-1
69
-30
28
-1
-34
17
12
33
-38
10
-27
23
4
69
-53
-23
-23
-23
30
-28
32
-7
-2
-2
2
63
-2
-24
96
51
-25
-53
1
-28
26
73
-23
52
22
47
-38
93
6
30
-8
-21
-10
-3
49
14
-51
53
-22
-14
-46
-37
-77
46
3
34
13
-9
-2
40
-41
41
41
-36
18
-18
-32
-6
-72
-4
-70
-26
-79
-56
-33
23
17
23
51
-5
-18
-31
0
10
9
-16
84
19
38
0
-4
-35
-1
45
12
25
5
-8
40
6
1
4
16
18
38
23
18
-31
47
74
-53
84
6
9
-40
41
-31
-50
2
16
6
-36
-52
7
-77
70
-7
-36
-39
9
10
23
33
11
-41
-25
9
-25
-31
25
-8
5
-6
-13
36
-36
-7
33
-70
16
-8
7
-11
-8
27
-14
23
27
-6
41
-35
15
88
6
-1
-39
27
11
-93
13
-7
6
-54
-23
36
-46
36
43
3
41
37
-77
14
-21
-7
-94
-14
12
-28
12
-26
-18
49
-25
-5
-30
75
-30
38
-17
14
41
1
36
14
-72
-22
21
14
5
44
18
-17
1
-57
-11
-5
-11
-90
127
22
48
84
-54
24
41
22
36
37
-37
-26
-46
-35
-56
-5
-57
24
7
-70
-14
-6
-6
2
-8
-45
33
50
-50
0
100
-67
-55
4
-66
-47
-29
3
25
52
18
22
-72
-78
-16
-25
55
-77
30
12
-14
33
-71
-36
-43
22
17
42
-54
-12
-44
-1
19
53
-13
-31
8
39
-33
-43
33
-14
40
27
2
-51
2
22
-20
-58
38
-4
-1
92
-18
66
95
-11
-24
25
-21
20
12
-1
26
-8
42
-10
-1
46
-49
-49
13
-39
-13
11
24
17
-9
-9
9
102
33
9
-97
-3
49
18
53
-3
-84
15
41
-5
66
53
-23
24
44
-4
18
-58
-14
26
1
23
61
-21
9
-15
10
-16
-6
-75
-29
-12
58
-1
18
67
11
68
-12
95
-54
-27
-19
39
24
-17
49
26
27
-35
-39
34
5
-81
8
57
13
-14
-8
-45
18
-112
37
-43
-3
24
8
29
-7
-36
41
1
-33
-4
15
-45
-5
20
58
-41
1
-34
82
-32
-7
-2
50
26
-33
40
54
-50
11
24
-77
5
-43
2
-12
-33
17
13
5
-43
-5
7
25
-23
-12
-70
-32
-53
92
11
17
-54
32
-13
24
-19
-18
-45
7
-92
-19
-14
24
-25
33
7
-50
-23
-28
-43
-4
43
17
24
17
12
-51
24
38
19
43
-4
-7
-33
3
-5
12
-52
27
21
-1
10
-60
1
3
-32
15
67
-8
9
-28
-2
-22
48
6
52
-13
33
2
31
51
2
40
-53
-33
37
45
-54
2
0
-13
-50
3
55
-31
-6
22
23
-7
-37
-6
38
4
27
-29
-12
69
-24
17
4
-47
-13
21
-2
-26
-10
4
-56
1
37
30
-20
-32
-3
-31
7
2
-8
12
19
23
17
15
46
38
8
4
-3
40
12
2
15
31
32
-3
-11
22
19
46
-8
-127
-19
-17
-36
56
24
27
1
35
2
-31
-5
1
33
9
-8
-45
-6
18
11
-45
-36
-26
-12
33
-2
39
51
-26
-8
32
-2
-43
-62
19
24
-64
59
-25
5
31
-41
31
25
-21
25
-26
53
44
55
-22
-5
-18
-33
8
-45
-71
38
-47
-7
-5
20
-32
3
2
24
-9
-8
18
18
13
34
1
-38
-15
-24
49
-9
9
-42
-57
-32
24
58
9
20
2
39
-1
-12
31
64
-8
-15
22
35
-3
-26
2
32
-4
15
35
-43
-25
-10
-48
-45
-44
11
-18
43
-5
-5
-80
65
36
-32
4
59
-14
23
1
25
12
5
-22
-2
-37
-67
17
82
-14
-10
-43
8
35
13
29
-10
-18
1
-9
43
-12
-18
-5
16
12
-1
7
-116
-45
-28
105
6
-10
-52
18
16
23
34
-4
11
0
-8
-80
-62
-63
8
-1
-45
9
-82
-44
9
-20
18
-49
1
-25
-26
51
-59
-12
-6
-9
40
-107
-11
8
-73
31
13
-51
19
-19
-27
-8
-21
-25
39
32
-21
-69
-87
-11
-8
-64
-40
-75
4
-18
40
-16
7
-27
25
-57
51
44
18
31
-16
3
27
-11
-1
-21
-15
-24
28
10
-8
71
-1
-19
93
-14
91
33
-6
-26
16
-4
-3
1
52
33
8
13
21
-4
21
-28
30
-55
-64
60
-1
49
-82
-17
53
-44
-21
-4
-33
93
-15
-4
-85
25
14
38
7
-37
20
1
-28
11
-45
4
15
2
-82
-10
24
12
-45
42
20
-44
-58
21
15
8
-22
33
-9
-47
-30
20
31
-1
9
37
67
-27
-31
-27
-27
-5
-16
61
-19
-7
16
19
60
-20
67
-12
22
41
-37
-13
-3
5
-54
38
-51
7
-33
53
6
3
23
34
15
-17
-63
-49
8
-36
-19
-55
19
23
67
102
-10
27
-12
-27
-33
10
8
127
2
3
53
-30
-7
-19
63
32
-53
33
-39
-10
-7
6
-42
-4
-42
-10
8
63
71
31
-15
55
24
15
40
2
-4
-27
-8
-38
-42
-38
-32
5
14
-23
-1
1
-24
-24
-75
127
-25
-76
4
-6
6
-1
-22
6
4
44
16
1
-11
29
-27
-19
33
-55
-29
-19
12
35
9
24
-25
17
-52
28
40
-26
-36
-25
10
27
-16
-56
99
-24
-16
12
-11
-11
17
8
-29
34
-23
1
25
-4
34
-10
65
67
-15
38
5
-3
5
8
-27
-3
-24
-4
-77
21
-45
-43
32
-3
-24
-28
-10
33
16
-9
57
-39
-34
47
-7
22
-50
1
6
5
29
15
26
9
5
-11
2
6
-61
40
-25
2
-21
-32
26
31
16
34
64
-6
19
16
-16
-28
-34
-16
8
11
59
-25
-33
8
-2
63
32
17
-24
-24
4
-27
34
105
-11
-13
49
2
-41
41
37
-30
22
-63
-11
-22
-32
-24
-43
6
32
-21
1
1
-13
16
13
-2
-20
51
34
-21
-18
-22
-4
-43
56
-35
4
-23
29
18
3
-19
6
29
49
-15
-20
22
-32
0
10
-4
23
14
-40
-57
-40
-26
-43
55
38
7
-33
-29
-17
5
56
-12
-25
-12
45
-3
-24
9
20
86
-45
-14
17
15
-37
8
21
-18
-63
-9
-60
15
-12
-20
-78
-20
49
16
-24
-73
-37
-28
8
5
5
-32
-21
-17
3
36
-17
-5
22
-5
17
35
4
26
2
20
19
42
-55
10
-5
-16
-17
-39
-15
-5
-23
-15
-18
-3
-52
10
8
-15
18
10
-40
-35
-7
-22
21
0
-2
26
-49
4
-26
30
16
9
-3
-8
-9
5
31
-11
-1
9
3
2
15
26
34
16
-24
16
40
-29
-10
-1
30
0
-20
-26
-26
22
-11
-6
2
6
-6
23
6
44
24
2
43
20
-14
28
-32
0
0
2
-17
-3
26
10
-7
30
13
14
-23
-11
20
-9
15
-3
-31
3
-8
18
6
-21
1
35
10
18
7
-2
8
-32
-20
-19
-60
-4
1
16
11
6
-27
-18
-9
-34
-2
36
-5
-4
22
7
-5
-23
-19
-25
-4
-16
-23
-30
15
18
17
-15
-40
12
-4
-7
6
31
22
11
11
-28
17
13
-1
-37
-7
60
1
-1
-8
16
-36
-11
2
-12
46
14
-10
14
-14
24
-20
4
34
10
2
-10
14
-15
15
2
-5
13
-3
2
-27
-9
34
5
-16
47
13
-46
-52
14
-9
-20
7
0
23
-22
-17
-6
2
7
-6
2
-6
-24
-12
15
-3
19
4
10
23
12
-14
-9
11
-33
-28
20
7
1
11
-7
32
10
-16
-21
-22
9
12
-17
-20
-22
31
29
20
-4
-1
29
10
-39
10
-23
5
26
-4
-13
7
-45
-24
-1
-7
-53
29
-19
-13
-15
40
-3
-16
-10
127
-33
15
-38
24
-56
-3
-10
-32
9
-12
-6
-49
-9
-23
-36
14
-8
-43
5
-61
-11
-41
45
87
-6
-12
20
-29
-27
-23
60
34
-12
-49
-13
-4
-26
34
-10
-18
48
60
-1
18
8
43
0
-32
-53
10
-40
19
19
-47
43
5
-54
-25
-89
-61
-10
-25
-9
-22
23
-28
-6
-58
-127
53
-23
-64
-11
-66
-43
-7
-7
-70
-8
35
-10
-17
-61
36
-17
-14
62
-7
-28
-53
33
46
-31
25
16
-40
25
54
-28
-38
-39
-37
7
-12
16
54
-12
46
-41
-30
35
69
-41
-39
-4
-11
16
29
18
-25
-47
28
-33
40
-39
11
-4
56
-21
27
14
-15
60
-25
17
23
-9
4
22
-2
65
-56
18
-45
-23
18
-14
19
28
-12
-11
-12
-47
-63
81
-11
-8
-1
-43
26
-31
-6
-73
-19
56
-125
26
38
-17
16
-6
-31
-29
-48
-9
30
8
-22
-45
90
5
-29
90
-85
40
17
-41
7
-24
-57
-80
-42
-23
45
-42
69
2
58
10
-15
96
-15
-4
23
20
13
-26
-33
40
-43
-11
13
60
15
47
-54
6
25
30
46
-45
-51
24
-4
6
23
-69
50
42
-37
15
3
-15
44
35
9
6
32
-22
-39
41
36
40
37
-14
-39
8
41
-16
-29
-51
-58
20
-82
-30
-2
-34
-127
-20
34
-1
-5
0
32
34
-10
-19
-4
-15
40
8
-3
4
-27
34
33
14
6
-59
-4
-6
-12
-17
21
18
26
38
-8
13
-48
24
19
-12
71
-17
-9
0
18
-7
43
32
-17
12
-37
42
-38
-93
8
5
-20
5
13
15
5
-38
9
24
21
-77
4
32
-17
27
-1
-24
12
15
5
13
14
13
18
28
-46
10
47
-20
-33
-3
-9
6
-45
15
1
-25
-14
11
-25
20
22
-53
1
-7
-11
-3
-24
41
-15
24
45
3
12
12
14
119
44
-16
20
8
-4
5
-26
6
24
-7
18
20
-60
-7
45
-13
-2
-62
-9
-19
19
29
89
-18
11
-9
15
-4
-14
-6
2
-65
43
5
18
16
14
-13
21
-21
-5
6
4
-46
31
-10
-6
-49
-12
14
-20
42
-22
-5
7
-21
-19
20
-4
43
19
-13
16
-5
-26
6
-13
-19
-17
1
-11
30
-6
7
-26
-53
-28
-37
19
2
-21
4
17
-26
-9
9
7
-8
-2
38
-15
4
37
-11
-6
4
-41
-2
-29
26
1
8
42
8
2
0
108
2
2
-53
-10
-11
-66
13
11
44
16
64
3
-39
-2
6
-24
-33
-10
6
-4
-57
5
-8
16
-3
-2
-8
8
20
-4
10
-7
-26
-41
6
-8
24
-4
3
13
-1
-22
28
-2
33
40
-5
24
33
-7
21
-1
8
-27
-33
1
-24
-19
-46
-49
-14
13
6
-15
-1
-49
-8
-30
-12
3
-44
-26
11
6
-17
6
-34
16
-22
69
70
9
-16
97
-19
5
-57
-24
-32
-101
-16
2
5
3
42
50
-41
-15
-6
-28
13
40
10
-19
-9
33
-22
-3
-25
-11
-29
54
-16
-54
-54
15
-13
-23
5
23
-41
-42
-8
44
5
22
-18
1
29
73
-12
14
-11
42
-9
-17
52
-24
29
28
7
4
-2
-14
32
-17
47
-7
-10
-38
32
-7
-1
5
5
25
3
-29
-25
3
8
3
3
53
7
123
-11
53
-33
66
-20
52
10
-58
56
36
32
-37
40
-43
-7
70
12
0
-5
-45
-10
5
-5
6
-26
56
-32
-54
-24
25
-6
35
-40
-52
14
-2
-3
-17
-9
8
28
53
9
17
-27
-50
-127
-34
21
20
16
2
13
23
-24
-11
1
-36
5
-14
6
41
-14
-9
8
-6
19
-12
28
-12
-40
-12
18
-1
40
-45
-11
-25
-7
38
41
22
94
-81
19
-7
8
12
26
37
17
26
27
-60
-39
-36
-80
37
-25
-19
-4
14
-6
-19
54
-29
-10
-31
26
-8
7
-34
43
16
49
21
19
21
-8
-21
-8
28
3
8
-38
41
-2
-33
-34
99
35
-9
-35
-28
59
57
35
-38
19
75
-6
45
48
-15
-53
54
5
-38
12
8
16
-62
-48
-24
32
9
-42
14
-32
-24
9
-12
37
30
3
-44
-43
-31
-24
-25
64
11
-17
28
14
-17
-14
-29
-61
40
-61
1
10
-68
29
-40
-75
-12
34
-2
-49
4
-10
11
6
-25
-16
-15
-8
-1
28
-46
-50
30
-59
58
3
-63
-15
-16
-69
127
19
49
6
-14
14
-23
22
36
-28
4
21
39
-65
22
58
35
-17
-9
-12
56
4
22
-9
33
-7
-64
-3
1
6
-74
12
-28
24
7
5
12
-12
-52
19
38
32
34
-48
-32
48
51
63
30
40
-38
5
-16
0
26
-2
35
10
25
36
-8
-52
-43
3
25
-22
-43
-83
-20
22
108
38
-40
11
-1
-33
63
-45
15
-5
44
32
-46
2
-9
1
50
-3
98
-44
-7
-35
-74
-5
2
5
18
-27
6
-1
-10
17
35
-59
2
33
-63
-31
6
10
-71
38
-38
-23
-22
20
6
1
-32
9
-41
-8
7
6
2
3
-34
-1
61
-86
-35
3
19
-19
-32
12
36
-54
14
-13
-43
-36
-66
-31
-1
-2
3
-46
-19
-69
-41
32
-8
-63
4
-3
40
56
-25
-8
21
17
22
-33
46
-24
23
-33
-32
-7
-5
-38
-107
-21
50
-4
33
-2
26
33
-45
13
8
-6
-60
-10
15
-12
-42
-21
5
-10
-16
11
49
-24
-58
-19
10
2
5
-34
10
-21
25
9
13
0
2
-14
-37
21
32
-11
7
-3
1
-11
-18
23
-41
4
28
-18
-23
-40
22
-10
18
34
-3
-22
9
-12
-4
-19
-24
2
2
2
-6
8
-1
4
19
2
9
-7
-7
-21
-3
-22
21
5
-25
-45
-99
10
24
-8
-17
-7
-11
-17
79
21
-18
14
-15
-27
-2
35
-23
1
-16
-18
20
-17
-21
-5
39
-4
-18
-29
-41
-11
4
37
-1
-8
-10
-10
-11
-24
-45
0
2
7
44
13
88
-9
15
10
29
54
6
16
10
8
29
36
1
-6
9
11
24
-13
-6
-43
-4
-18
-18
41
-21
16
-37
-24
-8
43
13
2
20
-60
8
-1
28
-12
18
-14
19
-30
15
0
48
-5
11
-17
7
39
-2
28
35
-5
20
29
-16
-8
-49
-29
14
12
-9
-37
18
-3
-34
59
-8
-3
-1
62
-20
5
-23
7
51
-19
-1
-6
-5
1
6
-44
19
17
-18
13
-9
7
12
21
-6
-5
14
-17
-27
-5
-13
-47
8
23
5
52
26
97
79
-19
8
11
-48
-63
5
1
22
44
62
12
-18
-11
15
28
6
42
-1
6
5
-3
-37
-1
127
-15
-40
33
-27
-4
106
45
-117
-88
55
60
-2
6
40
56
11
39
100
39
-52
2
9
-50
3
6
57
-69
8
26
-5
17
-19
44
1
63
-20
-10
-77
-28
1
76
28
-42
123
45
-50
-93
-26
-7
-22
15
-59
10
-34
-23
19
11
21
55
-65
-66
43
42
40
51
-19
5
-13
-70
-75
-3
-55
-57
-66
3
34
-62
0
34
82
78
-52
2
-51
-55
45
-29
4
-2
12
17
-42
48
6
-28
26
3
-11
-1
-3
4
3
-9
20
0
63
-28
-6
-2
-55
107
-30
26
70
8
15
13
-3
11
-41
-33
28
7
-10
-9
58
-45
-22
3
-24
-54
53
-61
-52
-1
-13
-63
-31
-46
-28
-2
71
-33
11
-28
51
9
-2
18
-4
-6
5
31
-49
114
-9
12
-21
21
16
33
-33
35
-13
51
43
47
-24
4
-61
-13
-35
76
68
127
4
-16
50
33
-6
-7
13
-30
-66
57
-63
-23
-34
-97
-26
50
-19
-41
-28
7
-1
45
9
34
48
1
96
6
-56
20
-27
-16
-20
-27
-75
-16
15
21
5
37
-9
-3
41
55
-10
23
26
-1
-24
-14
43
16
-13
-74
-46
-32
-31
65
-12
-19
24
29
-47
35
7
17
11
19
-14
-20
11
82
37
-28
69
-20
-18
9
-18
-28
-14
5
-10
48
-5
-18
-21
23
53
18
9
-79
17
-77
-5
10
-29
-14
24
-12
11
17
1
3
43
40
30
-47
-19
-40
-6
-127
34
28
12
67
3
3
31
45
83
-21
-67
10
-103
-16
44
-42
-59
-46
12
73
-4
23
-26
53
34
-22
4
12
16
84
-30
-37
53
-61
-58
55
-37
24
-41
1
51
6
-16
-47
-15
-16
57
30
49
-42
-28
-23
19
10
5
49
-66
0
-8
5
48
41
48
-14
7
33
18
66
12
70
-33
28
-12
-18
35
-23
20
43
-68
18
25
-2
57
48
45
2
-58
-17
-16
-66
26
-47
45
-55
0
26
11
13
20
32
-29
56
-25
-25
13
-30
80
-33
-32
36
-64
-31
-16
-30
-21
17
-11
-31
-27
39
93
-59
0
35
35
-50
-32
-36
-66
12
44
-4
29
-38
110
22
40
-57
26
-23
24
-11
-31
-29
-2
-18
61
25
41
21
26
-28
28
57
-43
25
26
-42
9
-47
-88
-21
-5
-96
-23
20
-33
-12
-112
-16
-10
13
-55
20
42
-14
-13
15
20
-43
3
-27
28
4
-26
-24
31
2
-8
17
-93
26
49
-8
-13
24
25
-31
-7
31
-36
-81
61
8
-10
-20
-73
-20
-1
-97
-17
17
27
-28
-57
11
16
56
-2
-20
-8
117
-88
36
52
-5
27
34
32
-43
8
24
44
3
-54
-18
-47
2
-30
-24
30
45
-2
-8
14
8
5
6
-67
0
6
-3
-49
4
-15
3
25
-17
4
9
-15
-30
42
-29
-45
-37
-13
-45
23
4
35
-18
23
-14
36
-14
42
-11
34
-6
8
26
-6
39
6
-23
-36
33
4
30
28
29
48
-90
41
-18
-63
27
-14
13
8
54
-47
-2
-50
18
-20
20
22
-5
45
-4
-21
-36
-36
12
31
14
-127
-14
-2
-15
-26
13
25
-16
39
-17
15
37
-7
9
-30
-23
-3
-31
19
-1
3
43
3
-28
23
7
75
-67
-25
17
1
-2
30
-29
56
-39
-2
19
37
-57
-41
-14
-8
17
-3
-13
30
68
-22
-24
-7
-18
43
-10
-6
10
54
11
0
31
73
15
-12
68
-42
-30
-18
23
-9
-20
4
-42
55
7
34
11
-10
-9
7
18
19
23
-43
15
-34
-14
-21
26
-8
-30
-32
56
-15
-43
1
-15
-39
-10
-10
-31
-41
-63
3
-45
-12
-4
12
12
-4
64
-23
-10
-36
-33
6
-32
31
-28
38
-40
-23
2
-1
-23
36
17
50
42
9
-17
1
18
-56
-14
0
-7
-19
19
-11
10
43
5
11
-10
-60
23
32
-5
26
30
3
-38
0
-1
-15
-34
-34
-11
-3
-14
61
-30
34
7
-11
10
0
-14
-24
-13
-20
10
16
27
23
-30
-19
-9
18
-9
-24
4
8
0
-41
12
-19
-10
20
11
-3
-35
-8
-4
-44
24
-72
29
-49
12
63
-36
-24
53
39
6
-13
-40
20
-31
0
-27
10
-27
-1
-6
39
24
-18
6
12
2
-47
1
-5
-14
-6
24
-22
-87
-20
-13
12
-39
40
21
44
-69
122
-42
10
-12
20
-33
101
-17
5
-2
-12
-49
9
-31
87
10
20
4
15
-15
0
65
0
20
-16
2
31
-8
-46
17
24
-13
18
9
16
-66
104
14
-5
18
3
8
-7
17
17
12
-14
27
18
-40
31
-53
-14
6
68
-12
-127
3
2
-3
28
-4
5
31
32
39
-4
13
29
4
-45
17
-24
-110
8
8
-62
67
3
21
-5
-9
20
-22
2
8
2
5
-58
9
15
59
37
56
93
-24
3
-22
-37
17
-17
41
-7
21
12
-10
-8
-17
-7
6
-11
-5
16
8
0
-17
-44
-16
-26
-1
-21
7
-31
-19
32
12
-14
-19
2
-16
1
26
-4
4
-35
-23
-39
-14
9
10
5
27
18
-25
-18
-14
-35
-4
17
-2
0
12
-7
-11
-17
25
-1
20
24
-6
1
-71
-6
9
-3
-28
11
5
-30
23
-34
-26
37
35
-15
-11
26
-4
-46
-13
25
15
-1
-17
15
59
65
24
-60
46
-37
-1
-47
-63
35
-16
9
2
-5
30
-15
27
-36
-18
-24
10
-3
-91
7
-33
-10
-2
7
-40
-15
47
-16
-34
-26
8
-24
0
-50
-22
-66
-20
20
7
-16
-4
7
-9
-55
-14
-18
7
1
43
-46
36
-7
5
5
-14
-13
17
-26
33
-22
33
-52
-11
-4
38
3
-51
8
-6
49
38
-10
-14
-11
-16
-2
-7
-13
41
20
-13
-14
67
-35
29
8
4
27
-1
29
26
12
-8
-19
2
-21
-6
-35
29
-20
49
-10
4
2
-65
-7
-19
-35
-28
9
11
1
6
28
-13
-21
29
-64
-12
34
-37
-33
26
-20
-25
55
-11
-5
20
-21
47
-45
8
-24
-30
-33
11
5
-77
5
5
-19
8
-59
-17
-31
-10
-7
30
-13
-36
-36
19
-55
-21
-34
51
-20
-6
75
-2
2
-9
-13
-2
8
24
-103
-21
58
-29
33
83
-9
-32
3
18
13
28
-3
-60
-32
-27
-3
-32
-54
-76
16
-28
19
127
-9
22
-21
15
13
12
34
-2
13
-86
34
-5
-5
-24
-31
6
34
-19
12
56
48
-5
-42
43
-74
41
-7
-21
-10
42
54
22
8
9
-21
-51
-5
23
50
-8
-8
-8
-10
-6
43
-3
32
39
-23
4
-37
30
-9
-98
-45
40
20
65
-101
23
18
-24
12
44
-66
-51
21
-39
-25
-32
4
-31
-89
3
6
-79
-11
-31
-28
-81
40
23
21
5
15
-4
19
51
29
-64
-78
13
-35
5
44
8
-61
80
25
14
-23
38
33
74
-31
-10
-23
-28
19
-6
3
1
-51
-9
13
-62
-23
-15
41
-30
1
0
127
-48
-33
21
-47
-2
-12
4
-57
-35
41
11
7
72
14
25
-38
0
-10
-33
36
-11
-27
-13
-3
94
-21
38
37
-34
45
27
-49
49
39
-45
6
-66
-66
35
-24
-48
34
55
-4
-13
27
-1
-34
18
12
-13
12
35
-36
3
44
5
-16
-57
30
-70
27
23
6
-85
-105
-11
-97
-7
77
-16
-18
-26
-32
37
17
-58
89
-79
11
-78
-3
31
-6
24
-82
42
-3
117
-8
-21
62
-18
0
20
64
-37
10
-18
-42
-59
5
24
26
-11
-86
-29
34
-29
8
-52
-24
-43
17
-41
1
52
-29
44
-41
60
21
16
-52
-7
-30
21
-20
-7
22
-4
-9
5
7
-1
38
-10
9
12
30
-27
16
-14
26
73
14
-54
-1
-7
35
-15
-13
-2
15
-14
-10
43
20
-7
-31
20
16
4
4
7
13
10
-14
-12
14
-26
34
55
-23
-57
101
10
-56
27
-20
12
-23
-27
28
19
59
-40
-74
-59
58
2
16
9
12
12
26
-4
31
57
31
-22
-34
1
3
23
-62
34
30
5
-15
41
31
-23
-25
-26
-20
13
1
-6
-10
19
4
-19
10
7
36
5
-86
33
54
10
1
0
18
-47
-3
-1
84
-33
13
-29
36
-45
-33
-15
-6
28
-21
62
-1
26
-16
-69
-23
30
-33
9
4
-13
15
34
-19
-16
-75
-36
42
10
-5
9
15
4
-58
-15
26
11
-16
-20
5
12
-71
-14
-26
5
1
73
29
35
16
19
-21
30
6
11
-46
1
42
0
-25
-55
-64
31
-48
9
-19
-31
28
-21
-29
-14
-30
3
19
6
13
62
-54
-20
11
6
-2
22
-31
-35
4
-6
-11
-20
-33
23
-41
-35
-4
8
-10
0
43
14
-4
29
26
0
-21
-2
19
31
-24
-13
6
41
3
64
12
30
62
-37
7
-43
-17
27
-21
-12
31
-28
-8
32
30
-41
-28
-8
15
-72
12
15
-19
7
-79
-43
-64
-57
6
9
-21
25
-47
-17
24
-3
-7
-57
33
-17
16
-4
29
-11
-19
3
21
13
-33
127
60
-22
-23
34
14
16
-9
-14
50
0
-28
1
9
25
59
22
-30
-28
-7
-35
-5
6
-21
18
39
-11
-46
-17
-10
1
-8
-2
45
25
-5
-24
61
2
-24
-31
-55
-23
-33
-19
63
25
-26
-68
87
-52
-15
-18
3
5
-32
16
66
-5
-34
5
-68
-42
0
-1
-21
-1
-44
12
-66
-7
-21
-112
-35
-39
-25
12
-6
22
-22
-31
-72
2
-35
-5
3
-54
25
-8
-41
46
24
-53
-11
-61
19
-73
-15
9
-61
21
-36
-8
0
-18
-15
38
51
-46
8
31
-7
21
-26
-34
-60
-54
0
-45
15
-40
7
-15
-27
-47
68
-65
6
-6
-16
-11
16
5
70
-3
9
31
-18
24
43
91
71
60
-25
17
97
1
29
63
-30
8
57
24
19
-9
-26
8
62
-9
-36
0
33
-53
-32
-12
-48
9
-7
18
-6
37
6
-42
-37
-78
-26
14
-24
-5
10
22
-4
-12
-1
37
-23
15
82
21
-27
78
10
32
-21
7
-46
61
34
41
-10
-17
-24
-88
6
-23
61
64
32
34
-62
-39
49
30
-19
44
84
-32
-28
0
-83
-53
-34
37
97
-49
12
20
11
-29
-116
-19
-5
43
4
15
65
-45
-127
-5
-47
7
-27
52
-66
60
-30
-28
4
-103
-23
4
41
1
-46
-32
44
6
42
-18
-51
19
-35
20
45
-30
-57
30
-54
38
-43
87
-29
45
-34
-43
-51
-15
44
-34
-7
4
17
10
39
-28
-30
-32
-65
-29
30
41
-23
4
-41
-17
3
-26
20
-68
-55
-43
0
30
4
56
-127
29
-39
-2
-22
46
-37
-48
-34
14
-27
31
25
-16
-85
-38
-27
-47
87
-13
32
-9
-18
14
26
-7
-7
32
-96
-34
-9
37
12
-1
4
59
-60
-23
-53
7
46
-22
-48
46
49
1
-78
-3
34
-32
-38
3
35
-50
3
-13
-13
38
41
-51
-42
-7
-22
-82
55
-25
-17
3
48
36
7
2
-23
-14
2
47
-44
-22
11
-3
48
24
5
-13
15
33
-102
-19
9
-8
24
-29
48
26
-14
-5
-35
-24
33
-6
73
28
34
-102
-14
66
66
43
-17
-24
14
-24
-13
0
-6
-3
7
-81
-90
28
48
27
38
23
-27
-75
18
-39
51
10
-28
-7
-12
-18
127
5
-54
-37
-35
9
-7
18
64
-20
12
51
0
6
68
0
-1
1
8
0
3
22
-10
12
54
-16
-16
19
77
-18
31
-14
12
-46
-55
-12
-37
-22
65
-4
18
-37
-57
43
42
-9
21
-40
-10
-46
-1
17
-16
-15
-50
4
1
-29
22
26
-2
1
-17
8
-47
7
44
6
-48
78
-7
63
30
-88
-6
-13
6
-33
-73
-7
16
9
-32
6
60
-35
-33
23
-37
-15
2
-10
-5
-50
16
-30
-40
4
21
-16
-2
-51
8
-24
0
-7
-20
59
-6
18
61
25
-4
20
-67
30
-11
9
64
-5
-27
-2
-33
27
-32
-44
27
-37
-48
74
-11
-20
-1
31
16
-1
-36
-53
82
10
-44
96
11
-21
-32
-85
-44
-14
21
115
-20
-17
-71
-42
-19
52
44
-10
-118
52
28
15
-20
9
25
-49
24
-35
-12
-27
15
-9
73
40
-40
17
-42
-15
-12
-26
4
23
1
11
40
54
26
44
-25
-32
5
-18
8
-2
-76
-29
7
-34
10
9
102
-1
9
-19
32
-22
-4
23
122
92
95
-25
39
-101
12
75
30
-59
18
17
15
13
58
-19
-12
-9
63
-57
-50
-1
19
-64
-12
-12
-3
4
17
9
93
-87
-6
-4
31
32
-4
-18
-23
22
17
14
15
14
-14
-40
1
39
3
4
63
8
27
52
71
-62
-29
-10
-20
-49
-2
3
8
73
17
25
6
8
-22
-60
-5
-33
-10
10
-6
-44
7
-52
72
-11
71
-12
-53
-11
36
-33
25
-72
46
-27
-4
-61
0
27
-6
7
52
-2
66
88
4
6
-34
-65
-68
55
36
42
-38
-6
-69
21
-55
-41
7
-24
6
27
-48
46
-4
-52
-40
27
-2
15
26
17
27
67
15
-26
-89
1
-51
-62
41
-65
-39
-55
15
-66
76
1
11
24
-33
33
8
36
-86
-19
-21
7
-51
10
-24
-51
-30
15
4
12
-3
78
-60
-17
-127
-29
-18
-15
12
-5
-41
-39
-127
-30
-43
-38
20
-44
2
-21
-71
14
23
22
-5
7
-26
16
-23
-15
-60
-27
-38
1
36
58
-16
-55
66
21
-7
-19
-32
15
6
37
-18
31
-40
2
55
39
13
-3
-69
22
-39
58
-39
30
-14
-33
12
5
-24
10
11
-22
-7
36
16
7
11
2
27
-50
5
7
-4
-18
-1
-29
-38
65
28
-6
18
-23
-26
24
3
-37
-38
9
-75
-2
34
5
8
-48
0
32
-10
70
34
66
-26
-4
5
1
4
45
-4
-22
-46
-46
-33
29
-32
19
16
7
-19
-3
-25
7
-33
-30
21
13
83
-83
-16
25
1
-19
57
-28
-57
-60
-1
40
9
33
-11
9
-48
31
61
-48
-41
-24
15
-60
-20
-16
58
-14
-2
-25
17
12
-22
48
-5
-43
-19
-28
16
13
-46
17
-8
-77
40
-2
26
56
74
12
5
-6
-11
76
22
25
-9
39
-42
34
-1
17
-5
25
9
-4
-50
-4
-9
-16
11
40
-14
53
21
25
84
21
10
-12
9
4
27
-13
15
-2
4
-8
3
20
4
-29
61
24
25
-17
-59
-29
-21
-28
8
-21
24
-2
-16
-32
-1
-13
-16
-4
28
39
24
-22
-10
4
37
11
-25
-16
8
35
-3
38
-5
-47
-14
0
-37
-22
-14
33
5
11
64
-44
-27
48
-42
-77
-25
-33
-4
-82
-7
14
-40
35
15
-11
40
-3
-51
54
2
28
-6
-31
28
4
-16
78
-20
53
-10
-1
22
-14
2
-19
-3
-65
25
14
-15
-6
-91
10
4
16
85
-83
-12
3
-30
10
20
34
10
-10
-7
-24
-52
48
26
4
7
21
-26
-13
0
0
36
-45
-10
21
-21
-6
9
-70
-7
-30
-16
-35
-3
1
43
20
36
44
-34
-14
-29
-4
50
-5
-26
48
17
-2
-10
19
24
-33
-45
-42
45
70
29
7
-46
3
17
37
11
8
-21
-25
1
25
11
34
-20
30
-12
15
-5
-32
-59
-127
-37
-11
4
-13
-40
-35
5
-26
-20
20
59
-40
-35
-62
20
44
-5
1
0
3
-19
-5
32
-36
32
41
-17
35
30
27
-7
34
-12
-29
-34
-2
44
14
21
-54
6
15
-19
33
-38
-37
46
-20
17
86
0
9
26
25
11
7
29
1
26
-8
40
-6
-15
-58
41
58
-4
63
11
39
68
16
14
3
-21
-48
-13
-8
3
0
-17
24
9
10
-7
48
-9
7
-11
-38
-1
-7
-35
4
-52
-25
20
20
-2
-39
-2
-63
2
53
-22
5
-22
-22
12
-1
-26
-15
20
-51
-19
17
-36
-16
2
19
75
63
14
18
-13
28
-4
55
-28
0
-11
41
30
-8
36
25
-6
68
-67
41
-40
-52
-46
-1
30
-46
-20
16
-54
-39
58
-5
86
-15
54
-11
35
47
-39
39
-7
-26
-2
-6
33
1
-15
15
-1
-11
15
63
62
85
21
35
-4
18
14
-22
-40
-19
46
79
38
11
-9
-27
-39
-9
10
34
-24
-36
-9
-15
-10
-32
1
31
-49
-29
-51
-61
100
-4
32
-10
-64
41
-28
24
49
12
7
-41
-19
34
22
34
-32
80
35
26
-36
-35
-60
-7
44
33
-105
7
-15
5
-2
-2
1
42
24
21
-28
15
12
-29
6
23
-34
-5
10
36
-14
5
58
-87
-29
25
1
2
-50
-60
0
26
-11
-26
-19
-49
-53
24
-14
-2
1
4
-20
4
-27
108
46
-11
-38
14
10
-12
2
32
-38
-31
-43
-23
-62
-47
-71
23
-20
36
9
13
32
-17
-39
-75
-23
-31
3
-13
8
-17
-57
-6
14
3
-16
-36
-9
-30
7
31
-33
-17
16
44
-21
-28
-62
8
2
-27
-5
19
-22
-30
-24
-24
-22
-1
16
60
-8
63
31
-7
-21
2
127
14
32
91
4
14
-15
-34
12
50
41
31
-61
3
-56
-21
60
37
-42
10
4
-7
58
27
-6
33
-19
2
-12
52
-6
6
-15
1
57
33
-17
-76
-8
20
-45
-12
32
-60
49
-13
17
-6
-44
30
-24
2
61
23
-28
-10
-37
-8
63
-32
17
23
-21
-44
-38
28
2
-19
-4
-24
30
6
-39
-51
-8
20
-17
21
-61
25
27
-27
48
-4
-21
13
-9
-34
-6
-18
57
-81
-24
-25
12
21
8
-7
3
-33
57
-19
-3
-25
24
12
-28
7
-16
-74
-19
-47
-25
27
6
-35
-100
-30
-16
-6
88
-90
12
8
12
-30
-1
8
-9
58
-58
-55
7
49
-15
18
26
43
11
-10
32
26
34
-44
-31
23
-20
-30
38
-67
-12
18
-12
15
22
21
10
7
-11
-19
-16
24
-24
-8
93
15
127
-26
44
-15
53
23
57
-7
15
-39
2
28
-6
12
31
17
33
-11
18
-24
-17
55
-41
73
-25
12
-3
26
-34
3
24
-15
-37
16
-48
66
4
19
21
-7
9
37
10
18
81
-32
13
-9
45
-29
-5
-67
36
-68
-55
-16
7
-56
-65
-21
-6
23
-2
8
-4
10
-86
43
-24
-9
-17
81
-40
41
21
-30
-8
-38
30
13
20
38
45
-40
-31
31
2
13
-2
16
18
-7
-16
44
-14
-26
-61
-26
9
50
-20
-35
18
-2
3
72
24
30
41
-49
20
-10
-29
52
-37
0
43
-16
-79
45
-14
7
-15
-54
29
-63
-47
23
-49
-32
44
2
-10
23
-2
-1
-3
-4
-18
-10
-22
-3
-29
-11
-9
-29
10
-13
10
-2
105
-3
-1
-1
-8
-6
-4
14
6
6
17
2
-4
-7
-40
3
0
6
-18
-6
-6
-4
5
-10
17
10
3
-2
5
8
9
-4
3
3
4
-6
4
-27
-13
4
-13
0
16
-9
-2
-14
-10
10
7
-12
-4
1
-8
-8
3
22
8
6
2
1
-67
-2
-19
-2
-3
2
1
-1
3
-8
-7
-14
-4
20
-42
-1
-12
-6
10
7
-7
3
0
-4
-2
-4
1
11
1
-4
5
2
8
4
-2
10
-8
2
-10
-8
-3
3
8
-11
8
-35
-5
15
-3
-19
11
7
2
-6
-45
-2
-11
0
-19
2
7
-127
5
-8
-6
-2
5
10
0
-10
3
2
10
8
26
2
2
-18
21
6
-32
6
-1
-18
7
-10
1
6
5
1
2
2
3
-27
-12
12
