-6
35
23
7
-10
-8
4
63
127
0
-8
-10
29
6
-13
-3
-8
-1
19
51
4
0
35
-20
-7
-3
-4
-11
0
1
6
-66
6
-7
-11
-12
83
30
3
60
2
90
17
0
-1
-5
-1
82
-7
9
9
-2
0
1
-23
48
39
7
-13
-3
-2
-1
-13
-20
17
12
-5
-20
-12
64
1
1
22
0
3
81
-32
49
10
22
-14
-21
-46
7
-31
0
-6
-2
19
13
4
62
0
-127
-6
18
25
3
12
-6
56
-10
10
-10
21
30
14
2
9
10
4
6
-22
-50
-18
15
0
11
-1
-12
26
9
19
-16
-15
-11
-19
-81
1
-3
0
-3
3
-2
1
4
0
0
5
1
-6
-9
33
-112
1
1
-2
-1
-1
0
-2
2
-46
1
1
1
0
-6
0
-4
94
100
22
1
-4
0
0
3
0
10
-3
-3
2
3
11
-11
1
2
3
-12
0
1
-3
3
-2
0
-3
127
0
1
2
2
2
-127
-9
19
-6
4
3
-9
11
0
-3
-4
-44
-2
-4
5
-7
4
23
-51
35
0
-2
-4
0
-15
-4
1
0
0
-2
31
6
-3
3
-3
-9
8
8
-30
-10
-4
19
1
6
4
7
-6
6
-5
3
-9
0
-24
5
-28
9
-7
-4
4
-3
-1
28
-3
-3
-7
-54
55
14
-3
6
84
-28
0
10
10
-33
-5
-117
36
-37
1
-4
-17
-4
0
1
-127
20
-83
-10
-37
0
-10
-4
6
37
10
45
-104
-14
-33
-10
-5
-3
-21
-22
-1
-10
-16
39
-4
50
-55
49
-6
0
-19
9
0
-8
2
-113
-12
-8
1
9
-95
9
-5
-17
-56
5
2
-2
61
-12
0
14
3
-22
2
4
-9
5
75
5
11
4
0
-3
6
24
39
-87
7
0
4
28
13
0
-19
-14
3
-4
-8
-75
-21
-11
0
-3
-63
16
-127
18
6
7
84
-1
-101
0
45
-45
-4
-19
-33
-2
-12
-17
-20
-9
-44
-9
28
0
-1
-10
-11
-7
-5
-38
0
-19
24
29
23
-12
-12
1
0
24
24
6
0
-5
-7
-30
-12
-2
-6
0
2
1
1
-1
3
6
-15
85
43
-2
5
1
115
17
10
2
1
6
127
13
-10
4
-9
0
3
19
3
-16
4
-7
5
-18
-3
-7
-7
-10
0
83
13
13
1
1
-1
-36
0
1
0
8
3
-5
-1
5
-4
8
19
7
0
0
-2
-3
-20
-2
0
0
1
3
32
2
-1
1
-19
0
4
-3
-20
7
-2
1
3
2
-11
-3
-2
21
-1
27
-4
0
12
-37
-30
127
6
-5
3
-11
-8
-6
-12
-127
-47
-12
-10
12
2
4
-9
-32
0
8
-10
6
-3
-3
8
10
-29
1
-3
40
0
-6
-2
0
-10
-40
2
0
0
-35
0
0
-3
6
4
-4
-10
-33
-40
-20
-7
20
-27
-42
-10
2
-7
15
10
-1
-1
0
67
-6
16
-5
22
-3
-4
-3
-88
-16
-1
11
24
2
-17
6
2
1
-1
-4
0
7
9
-1
1
0
-5
7
-7
20
-7
2
0
-2
-2
3
2
-1
-1
0
0
1
-13
-2
-1
0
-1
15
127
-2
12
-1
7
-105
-7
-8
-12
-6
3
6
2
3
11
0
0
-4
14
0
7
-2
2
-4
2
-11
11
3
5
1
8
-1
-1
0
-9
127
0
-1
3
22
0
-2
-1
1
0
-11
-4
-7
0
0
0
-1
-1
-2
1
0
0
-3
-24
2
1
3
3
2
0
0
23
1
-2
-5
8
0
2
1
-1
3
-1
2
0
0
-14
-3
13
30
-4
-1
2
0
1
2
1
-1
69
-43
-5
-11
-11
-3
4
18
0
-18
-5
23
20
-51
-26
-8
8
30
127
9
0
18
-22
5
-75
-6
-13
0
-1
9
-61
-4
-3
-15
-68
99
29
4
82
-1
106
30
-11
0
0
12
100
87
-23
86
-20
0
-11
-48
74
-118
-1
-48
18
-50
-14
-34
-47
7
24
-87
116
-9
3
12
-127
49
0
-32
20
-61
2
-43
14
-23
-11
10
27
4
0
-46
-26
-1
-104
-1
2
0
-6
4
-21
8
20
51
-83
13
36
14
30
14
13
5
14
-15
27
29
11
100
-50
88
-82
0
-41
-28
14
-40
-3
-36
34
-43
-9
-14
-4
-6
-5
-2
8
16
0
3
25
-2
0
-1
7
-3
-2
0
-4
-77
-5
-4
2
3
0
1
2
-1
17
-8
14
0
8
-2
1
0
4
2
14
1
5
-5
-2
9
3
4
0
18
29
3
4
-13
-6
4
-13
0
-3
-2
-2
0
6
5
-1
6
-3
6
127
16
1
-68
48
-3
2
9
20
23
0
-1
-32
-108
3
-70
-7
-15
-5
1
-13
-25
0
-7
-58
1
-127
-5
-7
0
-1
2
-62
8
4
4
-112
3
23
-1
38
4
7
9
-13
-7
1
14
7
109
-38
110
-62
0
-47
-76
51
35
-15
-62
8
-44
-10
3
-35
0
11
52
-80
-29
-2
-11
-127
15
0
-16
-5
43
9
94
-22
16
2
5
-1
-1
0
-9
115
-6
77
7
30
0
13
-1
2
-15
21
-16
85
-12
21
18
4
1
3
-5
6
-3
14
11
-20
-38
49
-11
4
0
14
-18
-7
-27
-5
108
17
27
-6
-11
111
13
-17
-10
-14
12
-3
-12
9
-8
0
6
-127
-62
-1
27
-44
-18
-14
-1
-22
-5
0
-14
3
-22
4
3
-4
0
0
1
6
-32
-2
-65
-16
15
7
3
-19
2
30
-7
-2
-14
5
6
24
-28
-6
-18
-26
0
-3
-11
-2
-1
-10
19
-20
76
-3
-7
-14
0
7
-96
127
56
-1
1
0
-5
0
-2
-3
-75
0
-13
8
7
-1
5
10
6
0
-8
-8
3
-54
0
5
0
2
1
-5
4
-1
3
-22
10
7
10
8
3
6
4
-1
-8
-2
0
8
79
-14
66
-24
0
-32
-28
8
-109
-1
-13
5
-19
-8
-3
-18
-4
-1
8
-1
10
-5
-24
10
1
0
-112
15
-6
-11
12
-127
-5
-1
-3
10
-2
0
7
19
18
4
-2
-12
0
-8
-4
-5
0
-40
55
5
9
-10
-3
4
1
13
-8
0
3
4
-11
9
3
5
2
2
0
7
3
5
0
2
15
25
4
1
4
-8
2
-11
77
-51
14
11
-42
36
13
0
43
-1
6
-9
90
3
10
-1
-11
-11
-9
0
33
74
16
89
1
22
0
7
-5
5
-2
-31
-35
85
-68
-72
3
-13
-7
-44
-82
28
2
-6
14
-41
-86
11
-77
55
0
23
25
-10
127
8
82
-53
62
4
-26
69
-5
3
6
-6
24
-1
-26
127
-5
0
11
-3
7
3
5
7
26
5
9
-4
2
0
12
5
-3
5
2
2
0
2
1
-5
1
-33
-31
3
4
18
1
1
-6
4
-2
2
-2
-14
28
2
-5
6
-2
37
0
9
2
5
9
2
-4
-13
1
2
-3
-15
6
2
26
27
-35
4
13
10
19
0
4
-13
-30
-5
-22
13
-37
-11
-19
-54
-32
0
8
-20
9
3
-21
-4
0
2
-14
-119
13
-2
23
-20
-17
-16
20
87
-12
-22
-18
102
-9
15
-8
-17
-73
-27
-125
-2
0
-51
119
102
127
-22
-13
13
17
-1
-1
-27
17
-2
0
5
-18
1
5
22
127
0
2
-20
-8
-1
-10
-7
-18
-1
-23
78
-10
0
15
-14
13
20
-5
-6
0
-1
5
11
4
-1
-12
14
-4
-15
-3
-11
0
0
-11
-5
-8
-5
-4
-2
-13
-3
1
11
0
-6
-15
-14
5
2
-8
4
10
6
6
-12
7
91
-3
-34
-7
94
-5
44
-27
0
17
20
-16
77
8
-7
-64
-7
-92
47
-119
0
24
12
22
6
-3
-72
0
71
6
0
-21
4
-14
9
33
-24
26
12
-11
-5
18
-13
-65
-44
38
-44
6
127
-9
-10
0
-4
-32
26
-4
11
-15
26
69
-3
-54
61
18
45
-12
16
-6
0
3
18
-35
0
0
-3
-70
-8
2
10
-15
-12
-17
-70
-127
0
4
0
10
-19
-7
2
0
0
8
28
8
-1
5
-6
-18
-18
-4
-61
12
-18
33
6
-12
-2
10
-17
14
7
5
-7
0
-33
12
-64
4
3
2
7
-8
-6
-50
-5
22
-41
2
-6
5
4
0
-11
-89
0
-10
-4
-79
-4
6
7
2
1
0
-127
-18
0
-9
4
-2
7
0
5
0
2
2
41
2
-1
3
8
-27
-8
0
-66
-4
-22
16
7
-7
-9
6
-23
-2
3
-2
9
0
-26
4
-44
-2
-6
5
2
-1
4
4
9
-5
-19
-117
52
4
13
30
-18
-62
0
31
36
-9
-17
-110
70
-61
-11
-7
-58
-2
0
-58
-127
-39
-65
-10
-22
0
-11
-2
15
-32
-11
76
-44
-60
-13
1
-9
9
-103
-9
0
-3
16
-15
-84
62
-32
46
-65
0
-35
36
-10
-112
-1
-109
-9
-47
-8
3
-26
-51
-34
20
-18
-16
3
-10
-21
27
0
3
9
-1
1
-4
2
-2
-1
22
11
10
0
-2
-6
-3
14
-3
1
0
2
108
25
-1
5
5
12
-3
-17
-10
-127
-1
-6
11
13
13
9
10
6
-13
11
-9
5
0
-24
14
21
-56
91
-5
-6
-1
4
3
15
-2
-5
-21
2
-10
4
-12
-16
1
0
0
22
18
-2
127
-3
72
-2
1
-11
3
0
-6
125
-3
-8
-6
39
0
12
4
9
-7
-7
6
7
-30
-10
6
-10
1
-26
-6
-2
6
6
7
-20
21
-4
22
21
0
-14
12
-11
-28
-2
127
-3
18
-4
7
76
-41
-88
5
-30
-22
-53
1
-22
3
0
50
32
-6
-72
15
5
13
10
30
0
72
0
24
-10
-9
55
-28
85
0
-112
-7
-14
13
-39
-39
58
-28
42
-25
10
-7
21
-36
-14
37
37
-17
3
-52
-105
-15
1
0
2
-30
-18
5
-1
12
-26
-22
23
46
-127
13
122
13
41
-6
-36
-2
79
68
0
3
-9
49
12
-14
3
-3
18
97
102
-116
0
72
-6
-6
-54
-10
11
0
-1
5
-93
14
-22
-11
-55
117
-19
-18
127
21
16
-60
9
-26
-46
-17
29
43
-32
60
43
0
-6
-29
88
-35
-2
-26
-19
-27
15
-14
-24
-24
-74
8
-35
-23
-50
-2
17
2
0
5
-6
7
-59
2
11
-77
23
69
11
88
0
11
9
-26
37
-12
-48
0
71
9
-21
-15
0
-13
14
-62
9
25
-4
-48
13
-38
-3
-13
6
-27
7
-3
127
8
-3
0
-21
-27
-9
-6
-37
-9
-12
-12
14
9
90
-22
-40
7
-35
6
49
3
1
1
0
-8
21
-25
39
21
-24
-3
3
30
21
40
0
6
24
-22
21
-10
-127
0
85
-7
-7
-2
-1
-13
41
24
7
-16
1
1
-21
-12
-15
17
24
1
-11
-12
-53
-12
-35
0
10
-14
-8
4
-1
18
-11
12
9
25
-65
-2
-4
8
23
-7
0
-35
25
-11
0
29
5
24
2
57
-7
85
-5
34
-16
18
0
28
58
13
30
-14
7
0
-4
-6
-5
7
-65
-20
22
10
127
4
5
-20
38
-86
5
-14
-22
6
24
-3
-20
5
31
0
5
-2
0
-13
6
32
-35
8
7
10
-57
10
-32
-19
19
5
5
-15
2
-58
0
4
-7
43
-2
-14
4
5
-44
91
-18
58
0
-21
-19
-22
-11
87
-14
0
-5
-3
-49
-6
-8
-7
-6
3
-45
14
-86
76
-16
-3
-24
127
-42
-20
-20
8
-14
48
110
0
-22
-42
60
-14
-48
-14
-15
12
-31
-90
16
-17
9
37
-127
19
-4
2
-14
-28
0
7
-7
86
-2
-9
-12
-12
-2
-44
102
2
0
13
-22
14
27
3
-9
0
-2
-1
-8
-3
3
-9
13
5
-8
18
15
17
-9
-19
-23
1
33
-8
-7
3
6
-7
-39
0
39
-8
22
-43
-3
-10
-13
16
-17
39
-40
2
-1
-68
27
-16
-8
37
-76
11
0
-49
3
-19
5
-68
-1
-17
-5
-9
4
2
0
-35
-61
-21
-91
-6
-20
0
-5
3
8
9
36
22
-100
51
79
-7
-11
11
41
89
-32
3
15
-6
37
87
-11
84
-67
0
-24
-30
2
-127
-10
-58
52
-59
-8
50
-68
-32
-75
6
-11
-27
75
-6
-10
-3
0
12
23
-14
45
2
5
-92
18
71
36
77
0
25
-14
-12
27
-14
67
0
-79
1
-14
19
-24
-15
-6
44
21
24
-8
-36
-21
-46
-3
-21
15
5
-27
-17
127
-10
3
0
-8
-19
-9
12
-34
8
4
-35
10
21
43
-4
-19
-78
37
-11
4
46
-39
-42
0
15
16
26
-18
-101
63
-27
-12
-4
-73
1
0
-69
-127
-66
-50
-8
-30
0
-10
0
17
4
19
93
-41
-28
-21
-4
-10
5
-85
3
1
-3
17
-15
-75
42
-23
44
-59
0
-29
32
-7
-80
-2
-88
18
-21
0
10
-6
-45
-71
5
16
-7
-3
-15
35
56
0
23
-9
-2
13
-29
-21
1
-7
-23
127
127
0
1
-16
17
-35
-11
-3
0
1
0
-91
14
-7
-31
-52
60
-34
23
108
-25
60
-20
-12
26
31
33
29
23
1
28
-10
0
7
-38
61
-3
4
-27
0
-21
-11
-67
-8
34
-33
-13
-36
-9
-2
-1
-21
-3
0
-17
0
-1
3
-3
-1
6
85
-10
-31
27
0
-1
4
-7
-75
127
7
0
4
-48
-12
-2
4
-7
4
-7
-4
5
3
44
6
10
-73
-49
35
-6
0
49
8
-31
65
0
-20
-46
5
-14
50
6
13
-20
22
15
15
2
26
21
17
-17
-45
0
17
19
0
-23
-43
8
12
-48
7
39
7
-18
-27
-9
0
-16
-47
60
4
-1
4
0
46
-10
0
3
1
-1
-18
-16
11
-15
12
3
44
23
38
13
-21
-13
34
-45
-67
-24
20
0
12
-6
4
26
15
-27
64
127
3
-26
-16
20
34
-21
-21
-8
-5
8
-17
-46
0
14
20
-13
-3
-6
-2
5
84
-5
-1
-45
0
-6
-12
10
-42
-127
-4
0
-1
-90
-20
-2
2
11
-34
1
12
54
-17
-91
0
-12
-19
65
102
1
-5
25
-32
-43
-25
0
120
-19
-24
-13
94
-5
7
28
68
-7
10
9
-12
-48
49
-31
2
8
-7
7
0
-8
-19
-105
3
-31
10
-32
-1
-14
10
-28
0
5
-24
-2
-64
-2
-6
0
-5
1
-11
2
12
14
30
-8
10
46
0
-6
-2
12
5
-54
-16
9
5
74
127
28
-36
0
-40
-37
-1
15
-15
-25
11
-28
-8
8
15
-1
-29
-48
68
-14
0
8
20
0
0
-7
-10
-76
1
-33
8
12
0
-17
-37
-7
0
6
-24
3
-45
-5
1
0
-1
-4
-2
12
4
13
28
-8
5
-60
1
-2
1
13
-22
52
2
7
5
18
-127
86
4
0
-37
-33
-2
5
-1
-25
9
-25
3
16
-56
41
14
77
-13
-19
-5
-46
-112
127
0
23
-11
24
6
54
8
50
-4
-19
71
17
0
53
82
48
20
-7
20
0
10
-7
-76
-86
22
-52
12
54
62
-8
43
-12
70
40
10
8
-16
7
56
-25
14
-2
22
0
24
-38
74
73
12
56
-22
16
-9
73
17
101
-53
-16
-1
24
-5
-1
3
-73
0
-20
-12
0
0
-1
-1
33
74
-68
23
34
0
-7
7
7
-25
-38
-8
0
-3
-13
31
-6
12
-6
-8
-3
13
60
127
69
-7
0
-17
71
-127
0
-12
6
-3
16
-2
0
-28
-36
-1
-17
56
6
11
-12
63
50
-3
-20
20
36
-92
27
-2
-4
68
-41
0
15
-1
127
-1
1
-17
-41
-7
6
58
19
0
8
-14
14
29
4
-6
0
-2
1
-11
-14
-12
-30
-25
9
-39
-32
24
-4
3
-55
-7
20
-14
-15
-7
-18
6
24
53
0
40
-17
20
-48
-3
-7
-22
18
9
-33
0
-10
0
1
1
1
-2
0
1
0
0
0
-127
15
0
-1
10
-3
7
-2
8
2
0
2
2
15
1
0
5
0
1
-5
-1
7
1
14
-5
13
-3
1
4
3
0
-6
0
-1
3
4
1
-4
0
-3
0
0
18
-4
1
4
6
1
-1
15
2
4
-6
-2
53
10
69
-25
-22
-7
36
126
0
13
-20
56
15
-14
-25
-19
2
53
88
-8
0
28
3
-6
-52
-8
4
0
-2
4
-89
28
-33
-30
-57
89
-55
-1
127
2
35
-42
12
-9
-6
8
29
39
-24
42
12
0
-7
-25
82
-9
4
-18
-12
-25
10
-73
-25
2
-18
-21
-40
1
0
-11
67
-42
0
-2
15
-7
2
-4
-13
-1
-68
17
22
19
0
2
-7
13
76
127
5
0
7
-51
2
7
-13
-17
-1
-4
0
-86
-18
-10
1
12
-41
41
-81
7
4
19
105
-9
-87
0
-60
-72
5
-35
35
-9
-22
16
-4
22
-39
7
127
2
-26
-15
4
-1
46
-78
0
5
-20
15
4
5
-5
23
-38
-29
7
-95
0
4
-2
4
119
-20
8
0
3
15
-32
-12
2
-6
105
-4
-13
-50
-2
21
-15
3
-33
-5
78
1
-10
-40
-70
38
16
0
-20
-73
52
-51
15
-2
-12
-34
17
-95
-35
-5
-7
-99
4
-14
7
5
20
2
0
4
23
-22
-6
-97
31
-38
-8
-7
-25
-2
0
-38
-113
-42
-87
-15
-21
0
-5
2
13
-10
-23
14
-94
-33
12
1
-17
10
-15
-13
-27
-4
8
-48
-19
86
-32
79
-67
0
-36
-20
-13
-127
-9
-88
7
-50
-10
-2
-61
1
43
-96
127
1
-8
-2
-101
51
0
-5
7
-4
8
-34
23
3
-10
22
28
13
0
-21
-15
22
-88
7
3
0
7
5
-33
0
23
58
-43
30
52
13
42
19
32
25
25
-3
28
19
37
123
-54
58
-107
0
-35
-36
28
-52
2
-15
44
-6
-9
-30
67
-9
36
-81
-27
-36
24
36
8
24
0
-8
-28
61
11
-127
-32
14
-23
41
71
30
0
-42
-103
-29
45
-32
-37
0
9
23
121
35
47
71
11
-61
88
39
-90
-5
-48
4
58
-16
21
-15
-43
-87
-27
-82
10
0
-5
73
-109
-54
8
-105
61
-3
-5
-34
-11
127
-61
-20
11
16
-1
0
60
-64
0
-8
-4
3
-1
-7
10
7
-42
-54
37
55
0
-1
-4
-3
-29
24
2
0
1
32
46
1
7
5
-7
3
3
-36
94
-42
0
-2
-25
-40
53
8
-4
7
-7
24
-2
0
34
-18
12
-35
5
-11
3
6
-97
5
3
-6
-5
-2
2
-2
-5
61
44
-2
0
2
-5
1
2
-6
53
-2
6
0
-8
5
0
5
8
127
3
-1
5
0
-1
-1
5
66
-28
56
-2
6
-2
-2
-3
-2
11
-6
-1
-3
3
-113
16
2
5
4
21
0
-2
-5
-5
0
-1
10
31
2
3
1
-14
-127
7
-1
-10
15
0
4
-5
-59
0
4
-2
-11
-3
1
-4
-4
8
3
32
-15
0
5
8
7
-10
-17
5
0
1
-7
1
3
-2
-4
-11
10
1
4
-38
24
1
-3
-9
7
-33
-3
1
-6
9
21
-34
0
-22
-14
-6
-31
-4
2
-3
6
75
18
-20
17
106
-6
-13
-13
-80
-2
23
-20
0
15
5
-4
-78
-21
-9
-60
-8
-65
30
-105
0
8
-30
26
15
6
57
0
-73
14
6
-5
13
-11
25
-11
-55
28
1
5
31
29
-8
-55
-41
-2
32
15
127
-2
42
0
-12
-26
15
4
11
-9
-8
-73
-7
-79
38
6
11
-3
-21
22
-2
7
-127
-7
0
10
-8
-36
0
-3
-18
1
-6
2
48
-1
0
20
2
36
0
4
-1
0
0
-3
5
-5
37
-16
4
1
15
-1
-3
2
5
9
2
6
0
17
7
-8
-6
-11
6
0
12
8
0
3
0
4
2
7
-7
-3
21
9
23
2
-14
-2
-84
-6
8
25
0
-20
68
-45
-108
16
7
-29
-19
-38
21
-46
0
6
43
-21
-1
5
-127
0
84
-4
21
-2
-16
-11
-11
-28
-27
-6
-13
25
55
-4
-2
1
6
0
38
-15
-32
-19
-13
0
10
2
-13
29
17
16
9
37
-18
-26
-48
47
-44
-29
-24
-14
2
3
-2
-17
0
1
37
6
2
0
10
-51
125
-24
-29
40
0
4
8
-15
82
58
5
0
3
127
-3
4
-8
7
12
-5
-12
-23
15
95
11
-1
-31
-87
46
-8
13
-80
-51
74
92
0
34
-86
15
-55
-125
-2
10
34
-48
12
1
9
45
-21
-15
-32
2
-9
3
-67
0
1
-15
1
-2
-4
8
-16
-62
0
16
-60
0
8
-4
-6
3
127
1
0
0
92
-12
7
1
12
-39
-2
12
44
8
-73
-14
-31
-73
85
73
3
-2
-45
-7
37
-15
0
42
-20
-8
-17
-96
-6
-8
-10
54
6
4
-7
35
15
-4
-19
-2
-9
20
127
0
9
2
51
3
-2
-14
-2
2
9
54
8
0
25
3
0
-9
-2
-5
0
-5
6
-70
-8
-15
-31
-12
75
19
1
67
-1
64
7
1
8
-6
4
57
12
-1
9
18
0
-5
-9
53
9
4
-4
-12
-9
-3
-13
-16