35
37
15
-32
47
40
-31
18
8
-9
6
-22
-5
123
-40
-33
-22
10
52
-57
-38
26
32
-87
4
-3
24
-60
6
-14
38
11
-27
0
-67
-29
9
-43
-24
-11
75
-21
18
24
-21
-30
21
18
17
9
-8
44
3
9
6
-72
-2
-73
32
-15
-101
48
12
-74
-25
25
33
64
-5
51
-53
-9
-10
-16
29
2
-62
46
-57
41
-16
103
-11
0
-29
-28
-27
-92
26
-9
48
22
-59
-2
47
-14
-16
11
-30
22
-6
2
-7
-14
74
72
-62
59
5
-11
-33
-32
-22
-7
-14
-24
-28
-27
-22
52
-14
78
0
-52
-30
-54
37
-20
-13
-60
-40
27
-37
6
-53
-17
-26
-19
-15
-45
14
45
46
5
-30
34
75
68
-72
-23
27
-29
-34
12
14
28
-1
-11
104
27
12
13
-18
-19
-7
75
-16
21
17
-43
-3
29
-23
10
-3
37
-10
-15
-34
50
-52
12
40
-26
39
-127
26
0
-61
9
2
44
61
6
-22
87
-24
-45
-33
10
-11
-22
-43
12
-64
44
-30
7
-10
22
-3
20
34
9
-43
-46
-53
35
-14
-33
0
45
35
-36
-11
25
55
-9
43
14
-30
1
75
-23
-28
30
17
-26
-4
11
1
17
12
14
-5
41
21
-36
4
0
-78
30
-3
-33
24
-9
22
-22
-45
48
-31
88
-2
16
15
84
63
-7
-82
-6
-44
-22
-33
-19
-94
-9
-35
15
28
44
-21
6
0
-13
81
33
17
-24
4
-20
-50
-14
-21
12
-13
18
-28
27
-52
69
4
31
-38
32
77
6
26
4
-22
12
31
96
19
-34
-27
-26
-14
23
-6
93
-53
-49
-15
-24
-33
17
-7
94
-30
15
62
-38
18
-19
-95
44
9
41
2
-12
-25
2
18
5
-54
-17
59
1
-57
-5
-11
-5
-36
-39
-20
-34
-27
56
15
29
48
-66
23
13
-63
27
-12
-21
36
-60
16
37
-23
53
9
28
-3
-5
-13
-52
41
1
32
17
1
127
-16
17
-70
20
-65
27
2
-45
-55
-17
11
-32
-48
-7
-36
4
-66
17
-68
26
-78
-7
-66
-36
-17
5
-24
-27
-53
-16
-68
3
2
80
15
-48
36
39
16
33
-12
7
8
76
5
-45
-13
-16
-73
89
31
26
-35
36
-46
49
8
21
-65
38
17
-33
37
69
19
33
-24
-8
28
95
-26
-126
32
23
33
-35
-10
38
-14
-14
-17
15
-38
-23
-37
30
64
7
-12
-26
-20
60
-16
-22
26
78
-52
6
52
14
-6
6
-44
-19
35
22
3
-54
8
45
-52
-13
11
-20
-1
43
-46
20
53
-15
11
-19
32
0
18
-25
-21
-1
6
-2
5
-35
-50
-50
23
55
-48
23
17
23
22
-7
-9
18
-32
3
-1
-7
-21
48
-18
31
5
-10
-23
6
28
-11
-4
-10
4
-14
9
7
-7
42
46
24
38
-110
6
-12
-13
15
7
-49
0
-44
7
-21
-37
-13
-4
-31
-20
4
-49
-16
-26
5
-32
10
4
88
18
-37
-44
-24
-97
11
-19
9
-29
11
3
-40
23
11
-10
-30
11
-6
-12
20
4
10
58
0
40
56
-22
15
1
39
8
19
14
-36
47
-11
-30
12
8
17
5
19
9
7
-30
2
-6
-14
40
-47
-4
14
-32
-107
-1
10
3
-12
59
-5
-38
-9
26
-19
47
0
18
1
7
5
-27
2
98
-5
-16
17
48
20
-17
-11
-4
-2
-9
-29
-6
10
14
-10
-9
-6
-8
20
69
23
11
-24
11
-74
11
8
26
-3
46
17
-41
-8
16
16
6
-1
27
68
-42
14
-6
-5
-23
-18
-30
38
8
-3
-23
-22
-2
-52
25
-1
2
39
-12
105
9
-23
1
-73
10
27
57
127
11
17
1
-87
-44
-2
-24
50
-21
-9
-9
-22
-1
73
35
1
28
-12
-11
-27
21
8
-6
-6
-2
25
83
4
88
19
6
-8
-56
3
-29
38
6
23
-3
-7
22
9
0
2
32
6
-16
36
40
53
-9
-69
-5
-17
43
53
63
55
110
35
-91
48
23
17
46
-27
63
-2
84
30
42
-15
-7
1
5
-44
-63
-8
-47
-4
12
-13
26
0
-87
-6
20
-3
36
127
-7
-39
-60
-121
-12
-35
11
23
101
54
-6
-48
-44
17
49
27
-25
27
14
-54
-9
16
64
1
48
-7
-71
78
0
-123
-20
-55
-47
97
-3
9
-4
-13
26
92
-53
-31
-18
-75
23
-47
-47
-101
-40
-6
-1
-53
67
38
-3
23
-53
60
-23
-13
-31
91
-37
-48
-17
33
-19
8
-18
36
-8
-13
-24
110
13
-7
35
53
9
16
0
-72
-6
55
89
58
-30
-11
44
7
-60
-20
-30
-44
3
-17
31
-27
-33
-81
78
55
41
20
66
55
-25
-34
120
-9
-47
-44
34
62
-22
47
4
31
-51
-27
-55
-61
-25
-10
-15
-44
-46
29
-4
37
-38
-7
19
14
88
-36
-36
25
-62
111
-38
-12
-14
39
51
10
-3
-37
29
-2
48
-29
-9
-21
-42
61
1
-80
17
-47
-49
-33
-15
47
-13
19
-6
-48
-22
-17
16
-4
61
-72
-16
28
56
-20
29
-1
-102
-66
10
-4
-50
37
-40
5
42
-112
-6
-97
-104
-50
54
30
15
-14
3
-15
-2
-22
-5
-29
-12
53
7
55
126
8
82
24
-29
-54
23
-27
14
17
32
4
-8
120
-28
-98
53
46
43
76
-13
-50
-21
-50
-24
-33
81
90
-86
-80
-17
37
0
-10
49
32
-8
5
-59
-29
48
-33
33
-37
14
12
22
9
30
-51
-48
-4
15
-3
13
5
-28
-4
31
-9
-2
-20
-12
-16
-11
9
-74
-1
-50
28
-56
-58
87
-33
-74
35
7
51
19
-49
5
18
5
-84
7
112
37
32
14
87
-48
106
48
39
-29
54
-14
-34
-3
66
46
3
-9
-4
66
41
-32
-33
12
22
-28
53
6
72
-28
3
83
61
-17
16
-7
17
56
49
-29
41
6
57
8
-65
12
-16
24
-16
-56
-31
-63
-6
84
-59
22
0
-16
21
-22
-36
-66
-10
30
49
35
24
-22
15
-106
13
-27
17
-42
-12
32
69
-86
5
54
1
-13
57
6
-43
-73
-39
14
-48
8
-2
54
27
33
-14
1
66
-8
6
86
85
108
21
83
-45
41
-20
17
42
-27
7
-3
-9
37
-74
-7
36
-16
26
26
-9
6
-37
-41
-52
-31
-10
-5
-127
-45
-71
17
64
68
-89
98
2
34
-11
-15
-42
40
-98
-27
-57
45
25
-41
29
44
28
13
-21
29
63
36
69
-80
17
-3
15
-16
115
-36
-3
70
9
-55
0
48
30
-32
33
-11
-1
-9
-32
-31
-37
9
-35
16
-5
4
-47
-18
22
-41
76
-46
28
20
-1
18
72
4
-72
-19
-13
-13
-45
-8
-4
-38
21
-26
31
3
-1
11
-36
-25
-39
-69
-69
16
44
53
36
15
25
0
45
21
34
-25
15
-13
-6
1
-29
-43
1
-30
39
1
3
64
44
28
2
-10
-37
35
-59
17
-9
-26
-75
-29
5
14
-50
-39
-71
33
-4
7
-22
-19
-127
-34
-27
13
-44
-27
-49
-35
-74
-20
-71
-8
26
0
16
-49
-47
33
2
4
-85
-93
45
-47
-31
5
9
-1
13
-26
-47
2
-92
-51
-20
39
-79
-11
75
5
-8
4
14
-15
-15
-24
51
-114
75
-49
-37
41
10
19
24
-23
-3
25
-4
-57
-6
-6
-6
-6
57
-18
22
-26
50
-18
-45
-7
2
29
-18
18
-77
1
-16
19
-6
-6
-49
-9
-44
31
3
-3
38
-15
-27
38
61
-15
-13
-64
-27
-7
-84
9
-43
-34
66
-56
-5
-14
-37
-83
-31
-45
17
25
14
40
-45
-87
-6
12
0
36
28
14
-65
-58
-22
16
-41
40
27
16
37
-10
28
19
-37
22
20
-25
102
-29
57
49
28
-23
26
-19
23
13
-16
-3
38
2
-63
-58
-49
-33
-35
-5
-87
-4
-29
59
17
-5
-3
84
-51
48
-52
10
16
38
-24
-18
-14
-16
-12
19
-6
35
19
95
51
11
68
13
16
28
-9
-10
4
20
-16
27
-43
-52
-17
-37
24
-24
51
-49
7
12
-127
46
1
-7
24
-16
-20
14
-10
-10
23
34
8
-42
-4
58
38
-26
-9
-2
36
9
19
10
-6
25
0
9
19
15
-6
11
-16
-22
12
-57
-17
10
-10
-21
-65
14
-44
-1
12
-15
103
-24
19
13
13
-6
31
-23
-37
-56
52
49
10
20
-16
11
-43
16
17
-29
-27
40
15
6
-2
27
-16
1
8
12
8
7
-9
14
36
15
12
-23
-8
12
-38
11
44
1
17
0
43
-56
-33
67
-8
-27
-36
-15
-119
14
-39
-12
8
20
-1
19
3
-105
62
9
20
-18
30
-39
-31
54
-5
-10
2
-12
9
7
-35
-13
18
23
21
7
-79
26
27
7
-60
-24
10
-21
-17
-13
25
-106
-8
40
-20
-2
-16
7
-33
34
18
31
3
34
33
-6
25
-14
18
-52
21
8
-18
-32
-6
15
-28
16
-1
-1
43
-6
-22
-25
-17
30
27
1
-15
23
-13
-15
-17
18
37
-59
-5
-9
-3
19
-18
15
12
46
0
-2
-12
-5
30
-14
-6
54
-73
-20
-9
5
28
-3
4
17
19
-57
-19
10
-29
-52
17
-5
7
-50
9
14
-7
17
22
-127
-30
-46
23
-7
-19
22
-3
42
27
91
56
55
-30
8
-83
-70
19
62
-56
1
0
20
-7
14
1
29
20
-48
-10
23
-60
-36
35
5
-4
18
-78
-27
-36
54
-5
-37
38
40
-42
-44
1
18
45
-49
9
13
-7
-2
-74
-7
48
-6
12
-12
-44
29
24
46
31
-4
-13
10
-110
108
-38
27
46
17
12
29
23
42
-48
-3
-38
49
-74
50
8
-12
-11
-30
-15
39
3
12
-18
-18
-13
-15
-15
-23
28
49
11
-22
-51
-52
-24
17
-37
93
-39
24
12
-18
-28
-24
-59
-52
-19
-20
15
25
-3
-44
-73
-4
-34
-48
66
2
8
-62
43
43
17
104
29
-32
18
7
48
46
-46
69
-26
21
14
68
-3
-25
-8
-17
-5
70
17
12
70
-31
30
9
35
20
17
-15
33
0
-31
88
-35
10
-20
13
-53
20
-54
-15
18
-52
4
48
56
59
-7
15
6
-43
3
-58
-10
-20
-6
39
-23
-72
3
37
57
-8
39
0
-26
-8
41
-2
15
11
-15
30
45
-31
13
13
-26
39
-32
9
-14
-42
-18
-2
40
-21
-35
38
42
2
-6
-43
-40
1
-35
0
56
116
25
-14
-5
23
-8
66
-7
49
-9
19
57
-22
-56
24
-22
-12
-60
70
-7
-54
-73
44
8
69
-28
18
18
5
18
-88
67
-20
-12
32
0
22
5
4
-61
-79
60
-25
-46
-8
-25
14
-23
-66
-89
-3
-10
-57
-48
12
10
20
-29
-56
-6
-13
6
105
31
-3
38
-3
26
-24
-20
-4
39
-35
50
-1
127
-46
-1
49
-56
20
-38
-48
15
-86
30
-30
-21
-78
-13
-1
5
36
24
-13
-68
-62
-34
32
-14
-34
-1
-39
2
103
30
-6
5
-48
-48
-4
-17
-36
56
19
-35
-4
21
16
22
-25
34
-9
74
35
-62
13
48
18
21
-15
9
21
5
-25
37
1
14
-66
-67
9
-22
37
45
5
-54
-38
-5
-49
-48
-40
44
31
-56
-41
-49
44
-35
-6
-43
-18
40
-25
16
-92
-51
64
-20
22
6
-49
-11
-105
11
-64
-71
45
26
26
29
28
-29
56
117
-1
-6
22
-4
41
-49
-27
-18
-19
-9
53
-17
65
15
121
-3
-8
-17
-1
-51
6
-25
56
5
-77
30
61
-38
-78
20
23
-9
16
-12
42
-15
-38
-38
-93
21
13
45
1
4
36
-2
29
4
-9
-31
11
-66
-16
-82
32
77
11
27
-17
-88
37
21
-8
-18
-12
-34
-46
-49
-12
8
3
-54
-15
-31
-37
9
-5
9
32
-42
-51
32
-12
-15
-5
3
-26
-23
-2
23
-5
-18
-80
18
4
-99
-4
-7
-67
-15
-34
-23
-15
62
16
-12
19
-17
-58
-33
-13
30
50
25
33
-39
-74
-32
2
-2
7
-8
31
3
-91
-22
-10
-17
38
-30
48
-55
-8
-20
44
-21
-95
24
-22
49
11
29
-18
1
34
38
-83
-36
-63
-25
-69
-46
56
-37
7
-40
-41
23
-4
-52
-29
-4
39
26
3
58
42
-88
35
10
6
-67
12
-23
-13
-88
-13
-32
62
-20
22
30
-12
29
-60
-30
127
-20
-24
31
-26
5
-24
8
-19
40
-14
49
-32
-38
-14
23
7
-61
-21
-34
-37
30
-6
16
18
-48
-6
8
48
27
18
24
-55
13
14
14
18
-9
21
-58
42
-97
-39
11
-2
-15
-6
-59
7
0
47
9
31
-21
45
-3
20
-116
-77
28
-18
-35
27
49
-27
44
-1
12
12
15
32
-29
15
18
113
74
6
22
-11
-26
-17
-23
-11
-3
-25
42
-51
-2
-32
-11
-17
-14
119
-41
-26
-7
2
-27
57
-29
-21
7
-38
54
11
95
-14
-11
-90
119
-59
8
-30
-18
-10
-59
47
-34
19
53
-18
61
-1
12
-64
-19
67
-37
8
12
-58
14
74
30
10
-32
0
-21
-37
5
4
4
-23
-12
-64
-17
-60
19
12
-10
-25
10
-15
-43
11
58
2
34
-14
-65
-24
-30
-44
9
-3
52
12
12
3
6
-39
-36
-13
-25
-37
3
-31
37
5
-5
-13
-1
15
26
-21
11
-22
36
-64
-28
-1
-9
2
-2
-18
-2
-30
-13
-41
25
-36
-64
-1
16
-5
-27
22
-32
8
7
-1
12
66
-18
-27
-56
15
-1
-10
-24
11
-12
18
7
-31
-34
3
-52
-35
2
6
-4
36
12
-6
-2
12
3
24
-10
13
12
-10
32
-13
-45
-7
27
-13
-28
24
-1
-20
19
-14
-10
23
70
21
-1
-3
10
-9
-15
-9
6
12
68
-8
2
-4
12
-14
-6
1
-14
21
-43
-2
0
-7
-8
8
-56
-37
-21
-31
19
14
19
3
1
-19
12
-57
-42
-4
2
14
-7
0
5
-1
-18
-14
12
-11
39
-1
5
-9
-42
43
-12
20
-7
17
1
-24
40
10
-12
6
5
-56
3
-31
-9
-6
-4
3
-30
6
-6
-43
-89
-101
-1
62
47
4
-40
20
-10
18
-1
-4
1
-6
17
30
-14
10
-2
-1
-2
-19
-31
11
-11
7
5
35
5
4
-26
-28
31
21
13
-11
26
2
-33
3
13
-31
6
33
16
-19
3
37
-4
11
-7
1
10
-2
-40
12
-7
-23
6
11
-127
1
-3
-15
-20
-4
-64
-6
13
13
-13
56
-19
-25
20
23
17
-25
-16
-46
16
19
-5
-1
10
3
10
-29
-9
28
58
97
63
21
-30
0
-49
-73
-6
27
1
16
-33
-19
-76
-36
-27
-18
-5
4
-18
-61
3
-72
23
69
23
18
-32
10
69
-20
34
9
39
-1
52
87
9
81
25
-44
-49
74
-51
-45
43
24
39
27
-46
-5
-70
7
-30
48
-7
22
48
-88
-19
-7
0
2
-34
-57
-1
-17
-27
64
-24
-18
-66
-73
-51
87
3
-18
-7
-7
-57
14
-45
8
-54
-20
27
100
6
59
24
-4
23
-86
-43
-14
-23
81
-24
21
-33
109
-18
-1
-11
-6
-15
-64
21
33
19
-49
-41
-48
-9
26
-1
68
36
67
60
-19
-44
-64
-5
16
-67
6
11
116
-37
18
33
29
15
31
-32
-55
-115
-32
4
-51
11
26
-64
-49
-25
-67
14
-2
47
-24
-12
-24
-18
11
40
34
-12
4
1
53
-15
112
-16
-8
29
8
23
-38
-17
54
78
17
-46
91
65
-8
-72
10
51
3
-77
53
-29
-38
5
8
27
-29
-51
24
63
21
-23
16
-39
4
56
0
-42
65
-43
-74
50
-37
-62
81
-23
12
-26
-26
9
34
-43
-5
-67
17
51
-17
37
-39
1
-3
-28
49
58
-1
24
8
18
5
37
28
-52
53
36
-118
-34
-43
-19
-4
97
127
7
-14
-40
-63
-44
-42
-30
12
51
5
-10
4
-17
-20
-3
51
0
-12
-12
-28
24
-33
-3
0
-20
27
-38
1
14
13
4
9
13
52
79
-7
13
-93
80
10
-2
3
-10
52
-5
-27
40
55
38
-27
-25
-20
-30
29
-4
-17
0
-14
21
95
26
4
-10
-8
-32
14
-21
-14
34
15
-16
-45
-24
-13
-24
10
-72
65
24
-56
-58
-97
-2
-8
36
-8
-14
-28
-16
-8
-23
18
19
-38
-77
-28
-15
32
5
-22
38
-2
-20
5
38
-22
-19
-17
18
11
12
-27
-4
2
2
2
-20
46
-26
8
20
9
-2
13
-16
-12
19
52
-32
-9
9
-4
-127
-52
-21
19
-60
40
-43
17
55
16
-4
-11
-24
17
33
2
7
-14
54
-7
42
9
45
-79
-7
-41
-20
3
-22
-32
-7
26
8
61
18
41
0
26
-4
-5
13
-10
-14
-20
-20
0
-10
-38
10
8
2
14
34
86
15
9
-51
-34
14
-23
-2
-30
7
-21
22
7
6
-66
14
-11
2
42
-57
-16
-17
-19
-26
-12
11
-21
-25
-43
-9
3
-10
2
-11
-4
-55
13
42
13
58
55
-5
17
5
49
68
-33
-1
-38
-40
35
-102
8
-16
17
7
1
-64
7
9
-17
16
29
93
8
-45
-2
-58
-29
-33
-15
93
-5
-3
2
-23
40
11
-30
54
0
-3
-1
11
19
-2
4
20
-32
-34
8
-23
18
18
9
24
-11
11
-4
10
-1
-15
-16
21
4
0
-24
36
35
-13
30
-58
-6
3
-20
-29
-20
-13
0
-5
-17
5
-18
55
1
-2
-71
6
-11
-23
-4
13
11
4
4
-7
18
6
31
7
-9
-15
-29
16
17
20
-68
-41
-2
1
-7
14
-38
10
3
-5
5
35
-1
-8
-4
25
5
-13
-11
1
34
17
16
-6
-10
14
6
5
23
1
-13
-21
8
-16
36
16
15
7
25
3
-2
2
-9
14
5
14
1
9
-3
3
0
-3
7
27
15
-20
-3
-6
9
3
-30
-3
5
-6
18
3
11
-2
-5
-21
2
9
-25
-12
15
4
0
-16
16
10
-11
-10
36
7
-46
25
13
-24
8
-5
-26
-4
9
-2
-14
-62
-3
-10
6
17
5
32
4
-19
6
2
2
-9
4
-17
-2
1
4
-30
-7
12
10
-7
12
32
-6
5
-53
19
-1
23
5
23
18
57
-35
22
-12
29
14
-29
-18
-10
-11
-11
-3
-20
31
8
9
17
-24
-26
-5
3
-4
-2
-14
10
-7
49
9
18
35
19
22
23
-11
-15
-13
13
20
11
-23
40
127
-15
1
4
-42
-3
-3
-30
-1
22
27
-19
-32
-6
-14
8
-15
-6
28
12
91
127
-22
-48
-14
16
6
5
3
-28
15
28
7
1
23
-93
20
-14
9
22
-2
-13
33
13
-38
-6
14
37
47
3
34
-2
33
22
13
6
1
62
8
47
19
-7
24
24
-82
-25
-5
-38
-6
12
-12
10
14
-38
-10
2
-5
-53
20
2
21
45
7
15
14
13
-27
-32
18
32
-26
52
-9
-88
-21
2
40
5
17
6
-20
16
3
-12
51
-20
-5
-31
-15
23
3
45
15
-11
-11
62
-12
-15
-7
18
15
35
10
34
-16
-6
31
-8
-97
-72
33
-4
10
31
11
36
-6
23
33
-13
-5
-28
-8
6
21
3
-12
-25
-5
-42
-2
5
23
27
0
21
21
19
-14
-5
21
-19
-7
-68
-8
7
27
-33
-3
-8
-5
-15
-79
-24
9
-28
30
84
-21
8
2
27
62
-4
-20
2
8
-21
26
-31
1
15
11
-7
-3
76
42
-19
20
44
-7
36
-14
14
-1
-44
-6
16
-34
12
-5
-4
-25
25
20
-1
-41
-10
1
-14
4
-32
32
19
36
-1
-16
-18
42
-8
-30
-39
52
40
10
34
33
72
3
-7
25
6
-7
51
-3
-16
7
-61
0
-4
5
-69
9
9
-9
5
-28
8
30
37
27
0
-16
-13
-31
10
56
-17
-20
13
38
12
-19
17
-29
58
-2
-10
46
17
8
20
2
-27
-8
-10
6
21
3
22
5
8
-15
-12
3
9
1
16
6
-3
-18
-4
-31
28
32
2
5
8
-21
20
-19
-22
10
-12
-5
7
-35
8
-19
0
7
-36
4
-12
3
13
-7
-11
11
-8
34
23
10
1
19
-25
-10
-8
-20
4
0
22
20
-14
-29
-23
-5
5
-30
15
0
-36
-20
-2
33
2
10
-5
20
-31
23
-11
2
20
11
3
-22
14
-1
8
25
10
-3
-45
12
-16
8
14
18
-14
-29
3
8
26
0
30
-12
12
-5
-17
4
-17
4
8
-8
-13
5
-6
-1
-16
2
-3
-9
-29
-7
-13
2
-9
38
-4
-10
2
8
6
24
2
-12
11
-1
7
-3
13
-16
-24
-5
10
-26
-12
-8
-4
15
19
-10
9
-10
-2
-55
-7
1
-7
0
10
2
-5
4
1
-1
1
-35
-62
-17
-7
-4
-11
46
-2
-2
17
10
14
-30
-15
-14
7
-36
18
0
4
-20
-26
10
15
-5
-3
17
-6
127
49
-13
-7
-48
-40
5
-9
-17
-19
0
0
-23
-13
14
4
-19
-35
0
-5
3
-13
0
1
17
16
5
-6
-19
13
7
-8
-17
-13
11
-16
30
-6
-3
17
-21
15
-7
-20
-34
6
0
-18
52
-41
-34
-18
-19
-2
-2
6
-11
17
-7
-6
-4
-19
-36
9
20
12
10
-8
-8
21
-34
20
11
2
10
13
15
-28
-6
6
13
127
14
-10
7
6
-14
-17
-16
22
-9
3
5
-29
-7
5
-5
28
32
30
-25
16
-18
-7
-30
13
-13
22
-32
33
22
4
-19
-11
-24
11
24
6
-18
14
-11
15
-40
6
-18
-5
-35
20
-58
42
84
-43
13
-2
28
9
-23
-4
15
-7
10
15
11
6
21
-33
26
-3
11
44
-18
120
-20
-17
0
2
19
4
20
-32
3
-7
-12
2
-22
-36
-6
45
32
29
-32
9
19
-6
37
-2
13
-6
-23
-3
-12
10
-11
60
6
-39
-36
16
21
-3
-19
20
-11
10
27
-18
-11
42
-22
-26
-4
12
-3
-17
1
-4
-34
4
19
4
0
13
14
-49
33
32
-1
-19
-21
-13
1
-16
-19
11
26
9
-17
-46
18
12
2
1
-16
-19
-21
13
8
12
-4
13
-4
-4
31
18
-8
-23
5
21
-11
21
-4
2
15
-11
16
-9
-15
-21
9
-5
-39
-12
8
22
-1
-3
-40
-37
-10
8
-4
-51
-12
29
-35
2
25
14
12
-1
-3
1
-8
92
-38
-2
-10
-30
17
-15
11
-6
14
-5
18
-46
9
1
18
5
-8
3
-4
-16
17
-33
4
-40
48
4
-10
33
-23
-37
-39
32
15
61
19
-41
18
-21
-1
5
-11
93
-14
-6
78
10
-13
-1
-4
4
44
-10
-1
19
-6
9
-42
61
24
-52
-3
-9
10
-4
0
1
28
37
17
-21
-34
3
-19
127
21
-21
-2
-43
30
10
-31
15
-2
36
17
-56
20
-41
-29
13
28
0
-42
20
-31
-19
12
31
-37
-19
-49
-25
-19
56
16
12
-38
-27
6
-52
-13
-11
-26
15
-30
28
-32
34
33
-22
11
-7
-26
32
30
51
15
-31
41
-41
59
31
-19
45
-23
-26
-1
5
51
0
23
-39
-30
35
-17
-19
19
-32
-39
-6
39
62
-20
-14
-11
-103
-52
53
11
-44
-16
13
-69
36
15
-35
22
-47
-2
-8
-21
25
41
-35
-23
-20
39
-8
32
-6
21
19
28
-24
-30
2
35
-18
38
-17
5
13
26
-9
-54
43
38
7
23
-2
-10
-30
3
2
22
18
-14
-2
9
13
-31
3
-22
18
26
74
20
72
-30
8
34
16
34
-36
22
36
10
-51
-29
7
17
-10
-35
43
-3
-20
2
25
5
-55
-10
-40
-12
65
23
24
-13
20
11
-13
29
-20
81
5
33
-40
-41
-7
2
-47
-9
-2
22
-16
-11
27
33
21
-32
5
30
-5
17
31
-1
-44
-31
27
53
39
-5
110
-31
6
18
-23
0
14
-6
-11
-15
-12
-11
-28
-6
26
-13
68
5
-29
-101
-23
-62
9
84
34
-14
-36
46
42
-12
-22
-44
48
-21
32
-11
-15
34
26
5
17
40
50
59
5
23
-9
-36
-47
20
-25
-86
-7
-35
16
-94
-40
3
-92
53
-50
-35
-23
-79
-23
-10
3
-9
-12
-10
-5
-13
6
-9
-81
-1
-22
44
73
-20
15
-54
0
-10
11
-39
-3
-17
-44
-8
-49
-16
25
22
4
-50
-16
-3
52
14
2
-61
27
14
-38
32
-71
7
6
6
89
-22
-33
6
63
-19
-30
-92
51
-53
-37
10
14
-8
-7
-27
-1
-1
-1
3
-38
-36
-73
2
-45
104
1
3
-3
17
49
-53
-7
14
22
24
42
-13
-13
-21
33
-8
29
73
-37
-9
-30
117
-21
27
-19
63
-1
-17
-21
-18
-46
-7
2
-34
-1
8
-9
21
33
-24
-14
64
-6
67
-75
-52
-7
-38
82
11
-7
-9
-12
-56
17
-17
80
21
24
109
-25
-2
15
-16
21
-18
-44
-3
-6
-16
-65
-16
62
-20
4
-70
-12
18
-22
-11
-26
-39
-1
-40
30
26
-29
90
-7
7
4
14
-2
-34
-9
-41
-2
-6
-22
18
13
5
-52
-11
30
-2
40
-20
-25
-127
0
-10
26
2
-28
-77
-1
37
-3
44
83
-7
-43
-33
-31
33
10
16
37
-23
50
-35
65
49
13
-5
-26
-29
34
-12
-40
-22
0
-46
40
60
20
-25
-47
-33
31
50
-31
-16
2
-12
-53
-17
26
-7
-13
-30
-27
-37
-14
14
23
-17
-12
78
26
109
-6
-62
-35
-19
20
32
-44
7
4
-17
-1
-64
4
-17
59
-17
-58
15
31
12
-28
-46
41
-127
3
4
39
77
50
15
124
-40
-48
24
30
2
37
100
-54
38
60
26
13
-25
42
-37
34
16
15
7
10
-1
-17
-7
1
14
-12
12
5
-27
-21
-54
-16
-13
19
66
-14
58
-19
-30
86
-10
-11
-57
-58
78
28
61
-49
112
56
19
-55
-40
-38
-7
28
-10
-18
-35
51
29
-18
-14
-31
-23
-12
-15
79
-31
57
-49
54
2
4
-22
42
53
33
72
-6
-30
-33
5
-73
50
-42
1
-9
43
-10
-44
-18
5
29
-52
13
-33
-50
-37
-24
114
10
42
-41
-61
-8
9
-27
-33
-34
-6
-33
13
-10
20
34
42
-43
24
-5
-13
1
30
8
126
-27
14
-41
20
-8
-3
15
-70
52
-36
85
27
51
0
-23
-39
50
-34
55
46
-7
-114
-7
9
-14
0
54
3
10
-86
-6
-18
34
33
-21
-40
8
19
-14
27
54
68
-86
-2
11
28
28
-12
-21
-30
82
21
-2
-34
28
-2
19
-17
33
45
-41
84
-66
44
-35
-21
-17
6
-62
-3
-39
-11
-28
13
6
-10
30
-26
-20
44
2
62
-38
10
-35
-95
-46
25
-46
28
-2
-16
16
-22
33
-8
32
14
5
-49
3
-43
-22
-8
51
-13
-8
10
-12
24
-23
20
-30
-16
3
-16
-48
-84
40
64
-43
-127
-30
11
-11
21
6
77
-42
-31
-15
13
-15
32
56
1
7
34
-49
27
-15
-2
-43
18
20
-24
1
-4
47
-26
15
-34
-15
26
-27
-83
-5
-16
-3
-20
-9
7
15
-17
15
33
-28
10
13
-15
2
18
127
-8
-49
-1
39
-15
-71
-79
35
-21
-19
-9
25
20
-18
0
-17
3
-7
-52
51
-47
-15
-6
-1
42
-19
-73
32
8
-30
105
35
3
27
-19
7
100
-47
-31
1
-6
47
-48
-22
14
-7
1
-16
-9
-1
-13
37
-12
-24
-24
-29
-16
-37
-58
-12
60
-34
39
-48
-4
-3
-36
-34
-31
8
-12
20
-31
-30
9
7
19
41
-53
17
-3
57
17
-30
12
-37
-22
-18
6
36
40
-23
-22
29
10
8
-11
-5
-3
-81
-35
-45
49
-34
61
-24
94
36
-3
21
-4
50
51
44
14
36
-16
31
2
37
19
44
20
59
50
-93
25
-2
-31
-26
-5
25
48
24
-69
-6
3
-32
21
-1
-31
15
0
9
4
-1
-5
14
-11
14
-13
-5
6
-12
-34
-5
15
-7
13
60
10
-16
-21
-19
-18
-8
9
96
11
5
-11
-14
21
10
-4
13
-19
-1
51
-23
-7
-4
27
4
1
12
34
3
-2
17
10
15
35
-20
-3
9
-28
-11
5
-10
15
-29
5
1
26
-14
-1
-8
26
27
-3
1
-23
14
-41
-12
11
-8
6
7
9
-7
-20
4
-24
16
12
-8
-14
1
10
3
4
1
7
6
20
-2
6
-18
-4
4
-53
2
11
-3
83
3
15
9
-16
-2
21
6
-3
7
-29
17
-2
-17
-9
-12
1
12
-15
-13
-19
26
-1
-22
-11
11
-8
-4
-12
-3
13
-7
4
-2
6
-11
19
-59
-13
20
4
-6
1
-26
11
-8
0
10
-18
-7
16
-3
1
-1
-1
0
-20
-13
-25
-2
4
3
-9
16
21
4
2
4
27
8
1
-127
-27
11
6
-10
-1
1
-1
-66
2
-26
4
-11
3
-2
-24
7
4
23
9
0
10
-9
-8
-3
4
1
-9
-7
2
-28
27
-8
6
-19
6
-6
-16
7
-3
-5
2
27
-19
26
5
2
-4
7
-2
-19
-2
-4
-1
2
-19
4
6
-14
2
-2
-15
1
23
-13
1
3
-27
7
41
-26
-11
15
18
21
127
20
9
-49
-12
38
0
26
100
36
57
-89
22
2
-31
-17
74
-8
65
34
-1
-62
75
43
119
-37
25
70
-43
21
10
36
-43
-40
-35
36
60
82
-56
3
3
-3
10
34
-45
-31
-81
-4
27
-10
25
-34
-37
-11
5
-46
-14
-48
-21
28
35
-15
24
-3
-11
19
2
36
25
96
-22
16
-27
18
21
-43
19
26
33
-44
94
-13
26
-52
-55
57
29
-31
28
-20
-5
-16
41
15
-44
34
-47
53
-31
-4
86
2
4
34
-16
50
-17
-35
29
-63
-18
-8
36
18
13
16
26
46
22
-20
19
-3
12
34
-15
-7
-3
28
-26
-15
18
-11
-71
24
27
19
33
9
10
-16
49
51
-12
-38
-74
-67
9
36
-85
38
-15
-58
52
-34
9
-7
45
29
-60
1
75
-19
57
-47
-4
26
26
18
-3
20
-46
-34
-19
27
20
83
45
26
6
-33
-52
22
-8
20
-16
90
21
65
-7
23
8
65
1
-3
53
36
10
17
33
20
-34
-33
-71
4
17
-14
-4
22
0
30
27
4
46
31
23
7
59
-8
36
-8
11
-15
91
8
44
-76
33
-41
60
55
19
-41
14
81
-49
74
-18
55
-57
33
36
9
-62
-25
48
87
-31
61
54
-25
-9
28
-53
18
-60
-15
5
-7
104
55
73
-87
-40
0
-20
111
81
47
111
-49
-28
-78
36
-31
43
-53
-19
-15
15
-8
-39
15
35
43
16
-60
19
-14
-9
16
25
-25
35
14
38
-44
-50
25
19
41
-4
23
-12
-24
25
29
-2
-3
8
3
31
-2
-42
3
1
-22
49
-21
-55
-89
60
-25
-20
69
27
-64
-38
25
16
59
-8
18
1
-11
-25
-7
5
-24
-98
-63
20
21
7
-9
-71
14
50
-1
17
20
-16
-65
-14
-13
27
-40
-11
35
2
-7
-38
51
30
-46
20
-30
16
-16
-12
50
59
-25
21
1
-29
24
-71
60
-61
-16
-127
20
-18
57
79
-78
2
-20
62
-40
26
8
-90
41
-18
-98
44
35
-33
12
43
52
-1
-24
49
-77
13
23
-1
17
5
-8
45
27
9
40
49
-32
-76
-24
-60
-48
-3
51
26
-23
20
-9
15
-40
2
1
17
-8
41
66
-6
-21
18
4
-15
-5
-23
-25
26
-13
-70
2
39
-74
7
12
8
37
0
66
-22
42
57
57
-30
45
-68
-77
38
-23
27
13
10
4
103
19
4
-47
37
-6
-26
-50
-30
46
25
-93
-17
-41
15
103
53
3
-7
5
-13
-11
19
24
-9
-62
5
-27
-31
7
-20
44
-41
49
-8
-22
-33
26
-3
-33
58
47
5
-3
8
-13
55
2
12
-14
-16
-14
16
-15
-21
-100
-14
-28
29
43
21
-12
14
13
8
-23
-1
64
-10
-4
21
20
14
45
11
-1
7
-22
-7
7
16
6
10
-10
-37
-17
7
8
-10
10
-15
-19
6
-17
5
15
-28
-10
-15
14
21
-3
127
11
-3
24
3
-18
22
1
29
25
0
-60
17
14
-23
-11
-7
-4
-15
-34
8
-5
-33
-5
-7
24
12
2
-19
3
14
12
26
-5
-7
27
23
-6
-26
39
14
13
-29
39
7
18
-13
-2
-36
1
14
-37
12
7
9
-6
-58
9
-14
10
-51
-14
-10
45
13
-17
-2
24
4
0
-25
-11
25
-12
-3
-2
-30
53
-16
-37
8
-6
25
7
-17
-16
1
15
-2
-7
-14
31
-24
0
27
-4
-32
-19
3
-8
42
79
5
17
16
0
-17
-10
1
13
8
-2
15
9
6
-6
-3
13
-25
-14
-15
-14
108
14
1
-1
18
30
6
-63
-44
-3
14
-29
6
6
-6
-10
28
19
-1
10
-8
10
13
41
3
1
4
-24
-8
28
3
11
6
-8
-6
27
28
-18
-34
30
-3
-1
6
-17
24
-2
13
-52
4
39
20
22
2
-8
20
-9
2
5
-24
-4
-6
25
-35
-16
10
16
31
3
-33
28
-16
-6
33
16
-37
14
1
-44
-12
54
-74
96
-46
75
33
-39
-17
29
8
-29
67
14
27
99
-2
60
10
-22
-4
-68
-34
29
9
39
58
-14
-17
44
6
37
6
18
81
127
-10
3
-17
-39
-65
6
-18
-34
-21
19
-12
9
-25
9
-40
-24
28
-28
-28
-27
-2
20
16
-25
-75
-60
-98
25
0
-19
36
-9
-22
-60
18
39
1
58
-9
-16
-17
46
9
26
35
-110
50
11
32
-41
4
35
1
0
-38
15
3
-9
-20
47
-6
-27
-74
-37
5
4
-11
1
6
14
23
10
34
-22
29
-81
26
-35
68
35
-54
6
64
35
94
-50
50
-3
35
50
7
-28
57
28
-5
-1
-21
33
46
-23
4
43
-54
-68
18
-13
-38
15
46
-22
24
6
4
58
-29
42
7
3
11
-70
-61
39
110
-113
0
17
-20
-61
-57
18
53
-26
-21
1
-27
13
8
-106
-27
10
-7
-18
9
-51
15
-17
44
24
-1
0
7
11
17
62
3
-21
45
-106
-10
-24
38
-4
28
-14
-46
81
0
20
-2
4
21
-20
24
-8
-10
-47
29
7
11
-79
-6
-22
21
-50
-4
-1
16
-19
29
18
-2
34
-12
-3
37
-30
-40
20
-19
75
27
-82
20
92
9
-2
-21
-32
-18
-11
-3
3
9
-12
-66
-58
-21
-13
-26
45
-13
-37
-6
-34
-28
-5
30
-42
-17
-20
-49
96
-25
5
23
25
-42
-29
-15
14
1
15
-23
-12
-24
-9
25
-26
4
-49
27
-16
-12
0
-24
-53
-26
-14
2
-13
8
43
3
39
9
-19
6
-36
2
3
-11
-13
-1
4
-20
-56
-3
11
-8
-15
9
37
21
-27
16
-72
-78
2
14
-20
43
-19
-30
23
0
8
-13
-53
-47
-37
-9
74
-23
29
5
29
5
25
7
29
29
29
8
-47
25
-41
18
59
78
7
-26
-24
-10
-23
9
-15
24
34
-6
75
-59
-42
52
5
-12
-3
-16
-8
-35
-44
-36
0
17
2
-36
20
17
-62
-23
-30
11
-8
19
-20
-36
-65
-3
-1
3
33
1
59
-15
17
-30
-57
-12
4
-4
-12
23
6
127
-19
29
-17
27
-32
-43
3
26
45
31
32
-34
-19
1
-9
22
-8
7
2
22
-108
54
28
38
6
8
18
18
15
-31
14
20
-16
45
16
-11
-5
0
-21
12
2
-4
16
-34
-11
9
-1
20
106
-74
-25
-11
-27
5
26
22
61
15
-10
10
-26
24
-17
-26
19
25
12
26
-39
28
-39
21
16
-39
-23
19
-59
-44
27
46
16
-34
28
-15
-3
7
3
-26
-23
8
-11
-15
-40
-11
-37
11
33
3
-41
24
-23
8
16
-11
24
11
74
17
14
12
45
10
32
-19
26
-70
53
-12
-117
-14
38
-27
0
-101
5
-74
-33
57
-4
12
-9
-6
5
24
-23
5
-1
-46
-20
-10
-74
24
-2
36
5
16
-34
-15
-20
4
51
-10
-19
-30
70
-2
11
-7
38
26
-21
-68
-8
-95
-29
18
-43
-41
-97
96
25
12
-5
43
97
-16
-12
1
-9
-13
19
-11
9
-37
-5
-11
22
24
15
-25
51
6
2
20
4
51
14
-29
-90
-3
6
49
-7
14
6
-24
12
-8
18
27
-9
18
0
-19
24
84
39
7
-54
4
1
54
-27
30
36
29
-13
39
-37
24
53
17
-4
11
6
33
-7
-65
-3
29
-7
-76
5
3
86
22
20
27
58
47
-32
6
-31
-51
6
-38
0
-16
-21
16
65
-43
-40
23
26
18
24
11
8
-89
10
17
-4
-11
-20
20
-5
-18
-18
27
11
-15
-20
26
-30
-83
41
-1
20
-19
79
25
-5
-16
-24
-64
-40
2
24
13
18
-43
-14
-20
88
-11
38
3
10
70
-43
-11
0
66
-9
-35
17
-13
-5
-16
3
67
-74
-82
18
-127
-15
-40
24
10
-34
60
-21
-15
-13
-8
37
-14
-73
-26
79
33
14
-49
13
48
-26
-51
61
-4
3
22
-12
-4
3
24
4
109
22
-5
7
-15
-3
17
-10
4
14
3
7
-32
-14
23
15
-11
-8
-15
-9
-7
9
30
2
2
13
20
-8
7
20
-2
-11
28
-5
10
7
2
10
-10
21
-3
-8
19
4
21
-37
-24
-12
-1
-16
-44
-13
33
18
33
18
26
-49
6
14
6
7
24
16
-2
10
1
19
-16
-7
-6
-16
7
-2
25
7
4
-26
34
-40
4
20
7
18
17
7
-8
33
-14
5
-21
12
12
127
-8
-5
14
12
13
-12
-11
-15
1
1
10
-41
-22
7
-6
-38
-6
-18
-11
13
11
-26
18
12
17
7
-2
-4
-10
-17
-12
5
-35
-4
-11
-29
-5
7
4
-1
-3
18
-22
3
-17
-10
-50
-30
9
4
-26
2
-17
-13
8
35
0
-19
-5
-1
-5
2
-14
-3
-11
21
2
-21
-7
14
7
-37
-9
-11
0
90
-5
-21
-20
-3
-11
-14
26
19
30
9
-9
2
-22
9
-17
15
-4
24
-44
30
-2
8
10
-34
36
22
-115
31
-3
30
12
-27
31
-30
41
-2
1
5
18
-4
-6
12
-5
-6
-2
22
-15
11
13
-63
16
19
-69
-10
-34
-27
-6
-6
8
29
18
-28
-16
-8
8
-3
25
-15
-8
6
9
-18
-17
21
-36
-18
-40
27
-1
-17
19
-6
14
34
-57
18
-38
12
25
42
54
109
50
44
-25
-67
-4
-34
7
4
-6
-12
27
-10
23
-6
11
32
16
36
-37
17
-8
52
32
-22
21
-110
-34
-6
13
37
-36
61
-9
-41
-11
28
78
94
23
42
-16
15
13
10
-41
4
11
13
0
-63
46
-103
-23
-27
-77
-103
70
35
-6
21
28
41
20
-23
-21
37
66
15
7
-33
28
-39
-47
-4
6
14
-86
-20
32
-45
14
7
-9
-14
29
0
52
10
-6
-10
-8
-12
-18
15
-8
-46
-1
46
8
52
16
3
-29
59
9
27
40
33
-89
-84
-17
-127
21
31
67
2
60
29
77
75
-83
-20
-16
-52
23
49
7
6
34
30
0
14
20
50
47
-69
-22
-8
-4
-7
-2
25
24
-46
-1
-73
1
15
-3
-17
6
-1
23
3
-93
-51
54
-58
-8
-40
22
16
-20
44
16
71
-22
2
-3
-55
-77
24
74
-22
-64
5
53
-18
-39
3
10
6
26
-5
-79
3
57
35
-46
78
30
-44
29
19
4
3
37
-16
-14
62
38
-13
67
-8
-9
4
-44
9
-1
11
21
28
29
96
21
21
10
-40
-44
-48
6
33
-8
-14
95
73
-63
75
-21
19
-78
-46
50
47
24
-48
45
-7
-26
22
84
35
14
33
1
-4
-16
20
33
31
-19
16
-31
26
-3
40
-49
-6
-71
37
-86
94
-68
-9
-27
99
21
30
-13
-11
-20
-42
13
7
79
-27
19
-3
19
16
26
-12
-29
-1
-9
-25
-38
-2
-29
28
-10
11
-19
14
-1
12
-21
-34
-51
-42
18
43
-84
113
32
-29
11
29
41
51
18
26
-5
-10
-21
-41
16
124
-22
8
58
2
11
37
81
20
-5
-3
-36
26
59
46
-40
-24
7
-28
-6
2
-41
24
-52
-15
2
-2
25
-35
-15
33
7
-49
-21
-17
49
-32
-17
-27
-53
-37
-34
58
-58
-69
-93
1
-39
-4
-5
14
-10
33
54
18
20
79
63
-4
-17
-10
30
38
-39
100
-7
-14
-12
40
7
10
-4
-27
5
-42
66
-23
-41
88
-27
14
-35
-1
18
2
-4
-36
6
27
-85
-39
8
83
25
11
32
8
30
14
-22
-28
-32
21
-8
-30
-29
-18
-76
-21
-23
-19
-8
42
56
8
-22
2
-20
31
-45
-58
-70
121
-58
-17
6
-6
-17
-4
5
8
45
-5
26
-14
37
-40
60
23
-64
51
19
11
-30
34
3
-40
-27
119
17
-31
33
42
-5
43
12
78
29
-4
-21
82
-6
-1
28
15
-28
-9
5
-42
-26
-47
127
17
3
-49
62
-9
1
-56
-18
2
-34
-43
28
-3
3
14
-23
-15
-26
-41
-7
-3
82
56
-13
-72
-1
41
-11
-22
25
14
11
-20
-14
-41
-15
-64
16
-4
5
-6
8
-11
5
5
31
-21
59
-38
-36
25
3
-2
-62
-29
-1
93
17
45
35
-7
-12
24
-11
5
-3
-1
-27
-3
-39
3
-19
40
-5
-8
9
-19
-52
-4
-25
-32
19
-78
0
2
26
24
4
7
10
-22
11
-7
-13
13
30
-5
-4
-18
-16
8
-3
15
-32
-29
11
-79
26
17
40
9
-11
-9
-2
-18
-19
-17
46
32
-6
-25
-9
-22
-14
-16
-8
1
0
-17
-12
51
3
-60
-81
31
1
32
-24
-5
8
18
18
18
-33
-75
-4
47
29
-13
6
1
-20
-39
13
19
27
-8
69
-10
9
28
-1
9
-6
-27
22
-52
-5
-63
1
21
27
-28
-35
37
16
-2
-36
105
18
-18
4
-48
-7
12
-47
-9
-8
28
-4
7
-9
33
-58
10
1
-23
-20
-13
32
-6
-26
10
-9
-10
-19
10
-35
-14
54
-20
-35
-91
13
-3
-13
19
38
-10
-35
-14
10
79
-4
-38
-9
-4
-4
-2
-11
3
-14
11
-10
127
-30
-2
42
1
28
-6
-68
-5
-13
-15
11
-5
-65
-47
15
-3
-8
20
-2
-51
8
56
-1
-82
-16
-7
-26
-23
8
-67
-15
31
-10
17
0
-2
-3
-19
15
10
-24
-26
-8
10
19
-13
-9
12
-54
8
-15
-26
9
20
-17
-10
-2
5
-29
-12
-22
-32
12
43
-5
12
6
-16
68
26
9
-8
38
1
41
5
-16
60
2
-18
-6
-9
12
16
-11
3
-20
-32
7
41
22
15
8
-7
-25
20
-50
127
-23
-27
-14
-24
1
-18
-28
18
10
-3
54
13
-19
10
-39
-5
-20
-20
-18
-13
-23
-29
8
2
-41
9
6
-31
5
-9
-17
16
-8
-37
20
-34
7
-8
-35
5
25
-9
39
-17
0
9
-4
-8
4
14
3
2
-16
-6
-26
77
4
34
-42
4
0
14
-13
-1
-21
4
20
20
13
33
15
97
4
-25
26
-2
-15
-20
-10
-12
4
-9
46
23
-8
33
-3
-25
-9
0
-27
33
31
23
30
-29
-37
6
3
16
33
17
13
-25
-4
14
-14
-12
21
3
6
-28
-14
-9
12
-12
-2
-20
3
4
-12
18
-29
-21
-26
66
12
-23
10
13
-30
-36
11
-20
11
-61
12
-21
48
-11
33
3
-18
-2
15
-4
-4
44
-10
37
3
1
-6
1
-1
57
-23
1
-26
6
51
-34
-29
13
1
0
-3
-35
-5
-56
27
14
33
0
22
18
23
-17
-23
-48
32
-5
-27
-25
26
-26
67
-2
19
-27
12
-28
-22
10
31
-29
-4
-39
-7
-4
60
-17
-35
-33
30
-12
-9
6
-40
-8
-20
39
-1
102
78
-2
-13
-4
11
-10
13
-24
-34
-20
12
19
-44
-3
-15
4
-34
25
19
-25
37
14
-32
-2
-15
-19
69
15
-15
3
-3
-12
20
-12
-48
-6
30
18
14
58
-12
51
18
9
-5
-45
15
-67
29
6
17
-28
17
-2
63
-12
0
28
-5
22
13
8
72
29
8
-4
-8
75
-82
14
2
-33
5
13
11
-22
18
-12
15
21
-4
-7
57
-58
20
30
35
-9
51
0
-8
9
-3
-5
-1
40
-3
-1
0
2
-99
47
9
-9
49
57
-27
27
-32
-35
49
29
25
22
7
-4
20
27
-53
70
-10
-22
-10
-10
11
31
-19
-6
45
17
15
1
13
-29
49
11
1
11
-23
-3
-15
-60
51
-32
28
17
-36
-22
36
-30
17
29
-36
-14
-26
-11
46
1
5
25
1
4
29
-22
13
-10
8
67
-77
9
10
18
39
-46
0
53
5
53
6
-80
42
127
17
51
37
-48
-15
-12
-5
6
25
49
-4
-22
39
48
-7
5
8
13
-24
41
-12
36
18
-5
32
9
-12
8
1
-5
55
-28
36
-10
-100
-26
28
-44
-17
64
4
-44
73
-34
4
-9
51
-27
-44
-35
24
6
14
-2
50
-18
10
2
-7
55
28
23
-21
80
-24
-29
-66
-30
-21
-31
-80
-18
-28
-60
41
107
-41
-13
-42
44
90
-60
61
-35
28
-6
35
-46
5
23
-27
-38
-26
63
65
31
49
-3
-4
16
96
35
-102
8
-9
44
59
-30
-15
1
-62
1
15
30
-41
83
57
53
-21
-38
14
18
-10
42
98
53
89
-14
-25
3
-43
-10
-14
-21
37
-23
80
24
61
49
9
34
79
60
-22
-57
-48
-20
27
-32
-49
16
-13
-48
-57
-64
15
-32
-26
-13
-19
27
8
-52
9
14
54
-59
28
17
-6
-3
62
3
-40
-65
90
23
94
-23
18
35
-67
-71
-56
12
-4
0
-9
5
22
49
20
-52
-77
-37
-33
22
-17
22
86
44
-24
9
-13
-2
-28
-11
47
-14
27
-51
-46
30
26
18
-10
-4
11
3
8
20
-45
17
30
51
-15
64
-93
-42
-64
-12
24
53
52
11
-52
50
53
-46
-56
-4
66
-38
6
127
-23
14
32
-41
20
63
10
-25
90
-18
-18
-74
27
25
-34
66
21
39
-47
41
-15
26
-10
5
-46
27
-23
32
-21
-34
94
-21
0
-19
26
-3
-59
56
22
112
-75
48
40
-2
10
-13
16
62
-5
-23
29
48
1
50
57
-14
7
28
-1
-16
6
-15
-4
-4
-19
29
-26
9
10
-7
6
-30
-25
26
32
-16
-21
13
11
-10
-12
13
-30
-15
-6
-1
-26
-63
-3
15
12
-34
26
12
-27
4
3
-8
-13
10
-60
-41
10
-10
2
1
-19
45
8
16
28
10
-22
15
-2
-13
0
-24
-20
60
3
-1
16
20
33
13
-8
1
0
29
20
-12
1
53
33
10
29
18
13
3
-1
-2
-68
-7
-18
-7
-3
27
7
-28
17
-35
22
-5
17
15
-24
-31
23
6
-3
4
2
-4
-51
-63
-12
20
4
21
3
2
2
-31
-38
-2
-127
12
-12
-2
-16
-3
8
-5
20
24
2
-4
-15
21
-2
11
9
-44
3
9
20
-9
-21
-19
10
38
-18
-16
24
-29
4
6
29
0
-4
26
3
11
1
-10
-3
-22
16
-43
-20
10
-29
-9
-19
14
-3
-11
50
0
24
-11
-1
-27
-6
-3
-16
1
13
-13
-5
23
18
18
-5
-7
29
5
26
-28
-13
11
1
0
-23
18
3
-19
-1
-8
-9
-3
7
7
16
-16
25
5
3
24
34
22
-17
30
-12
-1
-20
-5
-7
47
1
21
-44
1
13
0
-42
0
10
-6
9
8
-16
60
18
32
-3
25
1
21
-19
-98
-17
12
20
1
23
21
-13
-72
11
6
-1
3
20
-43
-15
21
25
-34
0
-14
52
27
-48
-43
36
-21
23
39
7
-38
-18
2
-15
-13
38
-44
-50
60
-24
44
-61
42
12
26
-20
-38
-24
35
4
39
4
-24
-31
-11
-41
20
-91
5
13
-3
17
15
46
21
-5
-3
-17
-28
-14
-15
-44
-28
-41
68
-36
55
63
10
-34
-11
-46
85
43
-30
8
-80
-22
-20
35
28
7
-59
-33
64
75
104
51
-46
38
41
4
-59
0
-16
27
35
-30
-23
16
-21
-90
15
-2
5
26
10
12
-24
48
-91
-67
1
-25
-17
-60
56
-76
-28
53
20
90
-104
65
34
-34
-27
7
-5
-53
26
-64
-26
-37
40
52
95
-27
61
-58
2
-76
24
26
17
-3
95
24
21
-45
-32
-46
-29
-21
-60
7
127
-57
68
-26
52
-36
-74
7
-31
47
-12
-89
-39
90
107
45
-9
42
-27
-19
41
20
30
-35
15
5
27
-43
-57
-75
40
-32
-86
-15
72
66
17
31
22
-58
-38
72
-34
-20
50
-22
-57
65
-6
5
37
37
90
21
52
-17
-41
-54
54
41
2
-22
88
-3
7
-23
57
16
8
-32
17
-51
-26
4
11
58
43
2
25
-6
24
8
93
20
72
-52
53
-42
-81
5
60
-5
-8
5
-60
-15
68
-51
4
11
-17
64
-31
-21
-18
7
-32
20
24
-4
-25
-20
-26
11
-27
-51
39
12
-56
-17
35
-10
-12
21
60
34
-6
-16
5
73
18
25
25
17
-4
-2
-8
-18
-22
-11
11
-28
17
36
-9
-13
2
-1
47
11
-31
22
4
72
-19
-41
34
1
31
-12
21
-47
-19
-15
20
4
8
11
-15
18
6
-39
-11
48
90
-8
26
-12
-1
-71
25
-9
-3
-19
113
-18
-3
15
-18
4
-3
15
-38
-33
-42
15
-5
-9
13
-1
-50
8
-3
-15
34
-12
7
6
2
-17
-42
27
22
-48
2
-2
18
-41
8
-3
-41
13
-42
39
8
3
23
28
-16
-9
-40
16
-7
29
23
61
-4
-20
63
11
-12
24
-5
-5
-3
10
-36
-5
58
8
-25
-30
19
4
-18
63
7
5
-47
36
-36
-3
-61
-8
-4
-87
18
-37
-100
-4
22
-4
23
12
-14
18
-22
17
5
-36
-16
21
15
-1
11
21
12
127
6
13
13
24
-8
-4
-4
-41
-3
-8
7
-3
32
-1
-1
7
33
-51
59
28
41
-9
-55
-20
1
71
-30
1
-33
10
5
115
-14
-9
4
-25
-22
21
18
-7
-33
-9
-54
2
-52
0
8
-35
23
26
-3
-11
-9
-48
-18
-8
-21
-45
26
-23
8
28
-42
-2
-11
29
-5
-10
5
-37
31
30
-2
38
14
127
85
-43
-22
52
21
73
-2
-66
23
-40
45
17
-2
-19
18
3
-116
-36
-25
-12
15
80
5
-22
-53
0
-33
-35
33
-26
-17
76
-108
-81
17
-1
106
19
-17
4
12
-69
-22
31
-5
5
3
14
61
84
35
-8
-45
37
52
66
-19
-35
19
-42
-32
-37
42
-84
9
47
-22
22
-10
22
24
-23
40
-1
14
6
49
-26
27
-39
56
-36
21
26
-24
-28
-79
-86
15
-23
16
6
-12
-21
-37
-27
-19
-22
9
36
-19
-37
-1
81
-53
-9
15
-81
10
-8
42
-1
16
-14
-5
19
-7
58
-3
-75
34
-72
24
7
-42
42
-30
34
15
-44
-17
-10
22
20
22
-13
-34
106
33
26
47
46
6
13
26
84
-42
-9
-21
-40
51
-66
-9
-32
22
-93
-11
30
9
-90
-25
-48
33
-52
24
-8
-26
-32
51
-61
9
-21
-23
-33
4
74
-33
-1
14
8
-45
49
-121
-36
-19
42
9
-74
-11
48
-57
-7
-30
21
-11
3
3
31
-28
9
-29
37
-70
50
-54
91
-74
-51
-47
12
50
4
-96
-16
23
-52
43
6
-19
-40
39
-15
-70
11
-34
-26
21
36
10
-1
-45
-39
-24
104
-34
-2
-29
29
9
-72
64
16
-1
32
-63
-1
98
-6
11
-13
59
-7
-7
97
25
20
28
44
-2
-16
-85
-15
4
19
26
-22
10
35
-33
5
29
17
-19
26
18
5
-50
19
-5
9
11
16
-35
-42
-5
-29
-2
-2
16
0
9
77
26
-5
-14
-21
23
127
-7
1
14
26
-17
-9
-6
-10
-37
-7
-29
-29
-6
-7
29
6
-12
-23
23
-61
17
-35
1
47
56
-12
18
-24
-9
15
-4
10
13
12
-31
-14
-15
4
25
53
15
-2
-21
0
-16
-12
-35
-48
7
-8
21
-56
-6
-7
11
-1
23
-79
-11
8
-1
4
13
0
-74
2
5
-15
23
10
-47
18
-17
-39
-11
-46
20
-29
27
-11
-33
19
19
48
-31
5
-54
-8
1
-22
-25
-21
-3
-7
-1
-26
48
23
-15
11
-5
-22
-4
-23
-24
8
17
41
-20
12
3
-19
-51
-12
1
-36
-22
7
29
-8
-16
-7
19
-34
-47
-9
-10
26
-26
27
-18
-16
17
-14
21
-8
-9
-17
-17
35
24
-14
17
44
14
28
-15
21
15
-17
26
-15
-13
-11
-19
1
-14
27
-1
-3
-1
-31
-18
12
-44
8
-9
7
-9
28
-13
26
10
32
27
-2
27
-15
10
34
35
52
-10
-17
3
7
-3
4
16
42
-14
-15
0
16
4
4
-12
31
2
-26
-10
-1
28
-28
-13
-6
-19
-45
1
-12
0
-3
16
0
28
-29
21
8
37
-21
-39
21
81
1
26
-11
6
14
8
-14
-4
3
-18
6
48
-30
4
35
22
3
24
16
4
-16
37
-13
-1
-32
14
-12
-21
7
17
2
67
-50
-51
-3
-26
83
38
-39
8
-7
-39
-2
-18
-48
25
-25
-19
42
13
8
45
25
11
-3
-30
12
25
-45
-36
-23
49
23
-8
-47
14
-7
-1
55
-2
12
-30
10
-25
-3
-75
-3
-43
16
-60
27
-10
-17
-35
-56
7
12
8
-7
-2
6
-9
13
4
-27
-34
-25
7
-10
-13
1
-53
-20
18
44
18
-25
31
6
15
-42
-9
27
127
-23
14
62
-71
22
11
31
1
-54
64
-6
15
24
-7
-23
-10
43
-21
-16
9
-13
-7
21
-23
-5
13
30
13
-43
-40
-32
-49
12
-1
45
-23
13
-16
-8
25
4
27
-1
5
-11
-14
-27
-35
-19
33
-11
-17
36
23
-67
-31
-36
5
-32
12
25
-25
-100
16
11
-48
26
6
0
25
-11
-40
-37
-5
-65
-2
27
-8
-8
-1
-24
4
-4
-12
-48
42
-1
-40
42
4
23
-29
-26
-41
11
17
-5
-25
2
-19
-15
-24
-5
-4
-37
1
21
-17
5
66
-22
24
43
50
1
-14
9
-30
29
15
-9
-13
71
51
-11
21
25
40
-27
-14
-10
0
31
4
-23
-8
-6
-14
-28
0
-15
-33
-2
26
-13
32
2
50
-16
29
-11
-24
-7
7
82
1
-5
12
-23
-31
-40
-19
18
47
8
-43
43
56
13
2
-13
7
8
30
-12
-39
34
10
32
3
-12
-24
-2
-8
-4
13
-51
2
3
20
-8
-7
-1
-40
-24
9
2
5
12
7
44
-57
8
-14
31
28
-2
9
-8
-25
-22
10
15
42
4
-20
-32
-12
78
14
-27
-17
25
21
-15
6
4
-10
3
-19
5
-13
7
-39
2
-9
59
-12
13
-24
-18
-11
-8
-11
-4
38
-16
-5
-22
39
26
10
-33
-3
38
-17
2
-13
-1
3
-25
-2
27
2
-8
-17
-12
-13
-24
-7
28
-12
-8
14
8
1
11
31
8
-28
16
-14
-18
-20
8
-30
-9
21
7
-3
7
-14
8
41
-14
4
-46
-76
18
8
-17
-5
-10
9
16
-22
5
-50
3
0
-15
54
-33
21
1
-41
5
18
-20
5
3
-7
3
0
-3
24
30
38
0
-13
27
-13
30
50
-17
-1
-40
9
-21
-13
-55
-12
-9
5
-104
15
-17
-9
-74
0
-1
0
-3
13
63
-127
-5
-7
-21
9
38
-32
7
3
0
-21
53
42
-11
0
-22
0
17
-31
-28
-34
2
-69
-18
-6
-24
4
-16
-1
0
11
10
10
-8
28
38
-5
16
22
-21
-9
29
-23
-1
-8
31
10
6
-19
14
-29
-23
-17
47
85
104
-10
-26
-15
1
-31
9
3
-47
-19
-51
-25
42
-6
2
-26
23
-1
10
-37
21
-16
0
-25
43
-43
-7
-3
5
-42
-10
13
20
65
-31
-17
1
19
-13
23
-35
-12
0
62
40
29
6
-3
17
2
53
-7
-11
10
2
44
-22
6
-12
9
45
80
3
-21
6
8
-4
16
-8
18
-31
3
-8
-3
19
17
-12
25
2
20
-6
-23
52
-4
-59
33
11
-62
-35
-13
-10
-37
26
-15
-7
-93
-8
22
19
55
17
-6
1
29
-58
-54
-54
-13
-2
-41
-29
-3
11
11
4
3
6
14
-59
36
1
-36
-25
127
-64
10
-8
18
-36
-17
3
-5
10
-33
-7
-10
19
34
13
25
6
23
-20
39
10
4
6
26
-6
20
-16
28
-18
-4
6
-2
-7
-1
41
-16
17
-19
13
39
13
-13
24
-2
-23
-6
-19
9
34
16
-12
5
-11
-28
-29
23
-25
24
-23
-11
18
-23
-15
2
-3
33
-27
-6
34
7
-30
32
-9
-13
6
-42
18
-16
-1
21
-49
1
34
-92
-20
30
12
41
38
-50
-68
-3
3
33
-19
82
-24
33
31
-22
-26
-42
-18
30
-24
-17
14
40
-28
-29
-19
-18
31
-4
-16
23
-8
-23
-22
60
-21
41
-3
44
-25
-13
1
13
13
24
-12
65
14
-40
-18
15
-7
-10
22
9
-26
12
-18
31
85
10
-13
-3
-1
27
28
8
-25
-1
-11
26
-28
-21
3
47
-25
4
3
-7
-14
-18
39
-17
17
41
20
16
-5
-9
9
-13
107
7
24
-12
23
-17
19
-13
-11
-17
16
35
-15
21
13
-13
-10
-25
16
-18
8
22
17
-7
21
16
12
8
-11
0
-18
25
-20
0
12
-15
31
-5
7
-18
33
-5
8
23
-11
7
1
3
8
-13
-4
12
27
-28
8
117
15
0
16
-4
11
12
-12
0
-57
36
-7
40
12
2
-2
-3
16
-3
35
-20
3
5
45
-19
-7
-26
-18
8
-13
-30
-2
-37
-5
26
24
3
-32
-13
-27
-30
5
12
-17
8
-6
-26
16
6
29
-9
40
5
-8
76
-22
-3
-13
-2
25
9
7
33
-25
-15
-3
28
59
12
1
-4
8
14
53
-9
6
10
-6
29
11
22
32
1
21
-26
16
1
38
30
-6
0
-39
18
-10
10
16
20
30
5
1
14
5
-18
38
-13
25
-11
9
31
29
-10
12
127
32
-2
-106
8
15
11
-48
-12
-21
0
2
1
9
33
36
-18
10
26
-21
10
4
-1
0
25
-7
-7
-5
-28
-19
-8
-8
13
-38
-21
-16
7
-17
-6
-1
-41
4
38
0
-13
4
-8
1
-32
4
40
8
-3
-13
-16
-14
26
10
31
-13
15
-10
-1
-23
27
-18
4
-40
-14
-35
8
30
4
-5
10
-1
1
-5
-2
28
-11
12
-2
-19
3
14
-21
-4
-3
6
-12
10
-11
36
-32
-10
-39
0
-4
15
29
-8
4
-33
-4
-15
23
-22
2
-44
21
9
-3
35
9
2
-12
0
18
11
-9
29
11
-13
36
-2
30
-126
-13
0
0
6
15
16
41
44
-127
-23
28
5
8
-23
7
19
17
1
11
12
0
35
-24
12
18
7
10
-18
18
-4
8
-7
2
-17
-21
-17
-19
18
-14
5
11
-22
6
8
-26
8
12
-18
-6
-14
16
-11
-1
-2
18
-12
9
70
32
-12
37
22
17
-13
-18
-7
-36
29
-15
6
10
-9
-1
-14
7
-15
-10
23
57
-17
30
13
-5
13
-16
9
-23
-6
-11
6
24
-2
22
5
42
17
-13
3
2
-12
-2
-21
70
12
5
-18
7
28
-3
-9
-6
-19
22
1
15
-7
-76
-6
1
43
-6
-4
19
14
-17
4
-43
-8
-10
23
5
27
5
2
1
-3
-15
6
14
-1
-8
17
-1
6
-17
15
34
3
-3
-6
-35
120
-87
-10
23
-15
-11
-22
-5
1
8
-10
2
-2
-14
40
7
-38
-14
-9
-2
49
-1
18
-20
-17
3
10
7
46
58
0
-1
-9
102
-9
-12
7
17
-54
20
-3
8
-6
21
23
13
12
14
5
8
3
-107
-64
-54
-13
-21
1
14
26
7
-7
-9
-6
-7
-12
-6
-9
0
16
-22
-9
-2
-18
-44
-12
20
3
-9
10
13
-37
3
-45
12
-9
-10
3
1
11
-39
30
5
6
7
36
-52
0
11
7
29
-10
3
26
95
-6
-1
-16
27
75
38
-21
1
97
-21
61
-61
-1
4
-7
33
-14
-9
-30
-6
-22
-17
-7
6
1
-21
-12
-2
62
19
25
-12
27
43
1
24
-13
-4
-2
-42
-15
-1
7
-15
-5
-94
6
-9
-33
11
-24
-3
1
58
-21
-8
-16
-19
-7
18
22
4
-7
-4
3
-7
-5
30
-23
-2
84
20
-12
-4
-57
6
5
-15
2
-127
-3
-35
-1
-8
-3
-1
-1
-4
-2
16
10
6
16
-8
9
14
-12
13
-8
-1
4
7
6
-12
29
-3
44
-9
-14
43
-70
63
4
-12
-26
11
73
10
6
-4
-22
13
-3
32
-3
5
38
18
15
-25
-10
-12
-8
6
9
83
8
2
45
6
31
25
-12
-11
31
-28
-30
-27
39
79
-11
-32
-3
5
-2
-2
11
2
-10
-19
5
28
-11
13
-13
18
-4
18
-3
0
-11
17
3
-5
-77
21
-8
-1
-41
40
-10
1
5
46
1
-9
-3
-61
-38
3
6
15
-7
14
-6
8
-3
10
28
6
15
-25
-19
2
8
7
7
12
55
4
5
-10
-10
18
13
6
-22
-25
-16
-53
14
-25
-4
20
-11
-5
-7
-2
-10
22
-3
0
-2
6
2
-6
-19
-25
119
-7
8
12
11
23
4
-5
-2
2
1
-42
14
3
5
13
-3
6
-19
-5
16
-5
-3
-20
20
-10
10
-11
-4
13
-8
-25
27
8
6
7
9
27
-11
-7
-35
-21
0
5
-8
-3
1
-5
9
10
8
11
26
11
-19
-1
-4
-3
-8
-14
8
4
16
-15
21
-14
10
30
-1
13
14
5
-24
18
18
-2
28
24
10
25
-5
2
21
-17
12
0
-11
-12
-2
21
-8
-3
-2
-10
-2
15
15
-2
-24
-9
5
6
-18
-8
3
8
0
-24
-12
7
-36
-17
26
-42
-4
7
-14
0
-33
-1
-11
-30
1
-16
-9
1
127
16
-5
1
26
-14
-10
5
-6
13
-19
-74
-7
20
3
-13
-17
15
-10
9
-8
47
15
1
-6
-7
-8
4
-18
15
-3
4
18
-32
8
15
-21
-10
8
-73
2
1
18
2
2
-14
-41
22
-27
16
6
7
-28
22
17
-45
-1
-38
8
12
16
0
-50
32
-4
19
-16
-113
-41
2
-19
-59
-33
2
-5
7
-30
24
-20
-19
1
93
5
20
85
30
-30
83
-28
49
127
12
53
-49
1
13
-3
-35
17
-5
-14
-19
-6
19
21
32
-74
-14
-71
-48
-13
-57
-57
-13
72
-100
23
-31
-35
-28
-50
-85
-18
66
-12
5
-40
45
-33
-4
-47
-17
4
-21
-7
10
0
46
0
-34
-40
-50
-22
-12
-28
-82
1
-12
47
15
-8
7
-25
14
3
14
44
-39
41
-18
8
-8
-42
45
8
-52
20
30
-8
15
-32
0
20
11
-25
8
3
-45
-7
-38
-13
-10
-62
8
-10
3
-2
14
-62
34
-41
87
-89
24
90
-39
13
29
-6
127
-56
-42
36
1
-52
17
-78
7
-82
49
-11
25
21
27
19
29
15
-38
15
9
-2
-35
9
62
-33
74
-25
29
-23
7
39
-13
-16
-61
53
-22
43
50
26
34
43
-34
-75
-64
-20
17
5
-25
-9
12
-28
-108
47
13
8
-52
73
-44
-31
-3
-7
-8
10
-34
-5
57
-13
-11
-42
-35
-30
16
-20
18
-5
-36
-63
23
31
1
-33
-35
-33
-20
10
27
-33
-37
4
80
7
-50
15
-12
-57
9
-25
35
9
28
-25
-32
-8
-9
20
-12
-10
-3
-17
8
9
-9
16
17
-4
-22
13
-41
20
11
-19
15
-19
7
3
-6
35
-13
50
0
0
26
8
3
-26
-16
14
10
-1
-13
-13
5
-7
-6
-16
-5
81
44
38
75
-11
4
6
18
17
-30
3
4
-19
-11
0
64
-12
1
-15
-10
-10
-32
-33
-4
-21
19
-1
-15
7
7
-9
61
-2
18
-12
22
7
13
27
-38
52
-49
-3
1
2
12
5
17
4
14
-14
-13
-5
0
21
4
-11
-12
-25
-16
-7
-3
3
21
-16
-5
18
-23
15
-17
-9
-14
1
-29
-7
-56
2
10
28
5
26
34
6
12
-8
14
20
-16
-1
-5
7
5
4
25
-4
-7
19
-3
-5
14
6
7
-3
10
-26
-5
27
2
2
-32
-59
6
-54
-13
-4
17
2
9
-27
-42
7
26
-26
78
-24
0
16
14
10
-57
-3
-14
10
-20
-38
1
-1
7
-6
33
-29
-8
-29
-5
-17
-4
-12
-13
-16
8
2
-7
-7
27
16
-23
3
-14
-37
-10
20
-43
-16
-5
9
23
27
-52
-5
13
-127
9
-3
8
2
-95
2
86
15
45
49
-12
-14
64
0
-1
12
-22
25
-10
4
-14
24
-28
15
-37
10
9
-15
72
-5
28
17
-5
-2
25
-2
-6
10
0
-2
10
74
25
-7
13
-10
-23
13
-6
15
-10
64
14
5
-1
-4
25
-5
-28
-18
-11
25
-108
-10
-14
32
-26
127
10
-29
33
-19
-5
-1
1
47
-69
19
-32
-2
15
-46
68
34
8
23
48
1
30
-39
-25
13
-44
7
-94
24
-37
-11
-24
-21
2
-12
10
25
-53
4
44
-25
-12
49
-58
-25
36
14
-26
-9
41
7
-74
-3
18
19
0
19
-28
-11
-62
22
-6
22
-1
25
43
17
16
-20
8
20
64
-21
15
43
8
19
-11
4
3
19
6
0
-26
-2
44
24
-1
-42
-43
14
-39
23
53
32
-4
-10
36
-28
-4
38
-25
-9
21
50
42
-72
-103
50
28
-30
-38
-16
-15
66
-7
-13
-55
49
-21
-55
24
-39
-43
-11
-6
10
49
8
-30
2
-39
51
47
-12
6
-29
1
-12
-71
-3
-58
29
-10
-8
-15
-27
35
-15
-23
50
52
-57
-36
31
-15
22
35
24
26
-11
-29
-14
13
-21
-26
-24
28
-20
-49
-28
42
1
-75
-44
26
18
-3
32
9
-5
75
14
48
32
4
15
25
-32
-11
28
41
8
-32
9
60
-80
31
19
48
18
15
-2
41
26
6
-19
-8
-14
17
-38
-59
-2
-15
-11
46
13
-8
19
-18
-40
-6
-37
21
-25
-44
-21
5
0
-7
64
21
-18
4
-4
-1
-17
33
-11
-19
4
31
-9
4
4
19
-8
-14
-14
18
-60
-1
-10
7
10
28
18
-7
29
2
3
-9
22
-22
-45
-11
-13
7
-9
8
32
3
-5
-1
-10
71
-25
-96
-7
19
-3
18
21
14
-65
-2
-6
-37
-48
-48
-33
25
-5
-4
-15
17
5
8
13
-14
64
-11
23
3
-8
40
-35
72
-9
18
18
-5
-30
56
101
14
-39
-12
31
-38
14
43
16
11
-14
13
-6
11
10
-7
13
7
12
3
5
2
-18
9
-12
13
1
31
4
6
-13
-15
-31
-14
13
-22
6
-2
14
2
-35
14
-64
-27
20
13
28
-13
17
-18
27
-3
-15
7
13
6
16
-5
19
15
-14
18
-3
-2
15
-18
6
31
16
36
9
-13
1
-38
-15
-3
-7
-10
-10
46
-11
2
127
79
-12
5
8
-2
13
122
8
-1
35
-9
20
29
37
-12
26
33
-3
-4
10
30
-11
-2
0
-7
2
-10
-18
9
46
6
-3
51
9
53
-42
-10
-11
17
-32
-11
0
-28
4
13
-14
9
-9
9
-2
-11
2
29
16
-6
21
-26
-13
-13
15
75
6
15
7
-33
-26
-37
-41
-23
-2
8
-5
32
-21
39
-20
-4
20
4
-1
-8
-9
106
-12
-2
-7
-3
9
12
1
-15
-12
-4
-16
-16
19
-3
-2
-9
-2
5
-2
13
-44
-12
10
18
-34
-11
8
9
12
-60
12
-7
2
-16
43
20
12
47
0
-4
-6
2
2
-26
-7
15
30
8
16
4
-15
0
-18
14
-10
-20
8
-20
9
37
-23
17
-16
6
16
-7
18
-7
-5
18
-23
-13
-24
-13
-42
17
-33
-12
-21
-10
12
-1
14
3
127
-8
-25
-6
10
13
4
6
13
-26
-2
2
4
26
15
-20
-10
-14
-9
-10
11
11
-26
-13
9
9
12
-5
-11
10
-10
-16
29
24
26
-26
12
-10
3
-9
12
-6
53
3
11
15
8
29
5
37
-34
8
-21
-1
-19
39
3
-29
12
-5
-1
18
-10
-10
13
13
6
-14
6
-26
-32
22
4
-1
-4
-8
-11
75
-4
-25
-23
-14
-5
20
-10
18
-1
10
-4
1
-22
15
-11
16
56
0
-46
-22
15
13
8
6
15
-1
15
3
18
14
-18
-10
11
1
-11
-10
-39
-8
0
-13
0
-2
-3
-9
1
-2
4
-19
10
16
3
-2
27
11
-22
-2
16
-29
1
-3
-21
9
-52
-1
6
10
-24
7
1
-112
6
3
-19
-11
11
-3
6
2
5
-28
-54
7
8
-5
-23
5
12
1
-14
-14
5
-1
12
-20
-48
-2
-20
-3
-2
-9
30
47
7
-2
39
3
7
39
-37
26
-14
-36
15
25
-36
30
-7
-42
27
-62
29
-52
-46
16
-93
-41
23
11
-9
-18
-37
32
75
-4
30
-41
4
37
22
17
-33
86
-15
-27
-17
-8
28
-21
-56
38
7
-26
-14
10
21
-27
78
-33
-88
19
-39
-11
-54
3
9
-62
-9
16
-33
-25
22
-28
-18
-93
-53
-54
113
29
-23
-39
0
-60
-79
-19
11
-18
39
-53
-50
56
-29
-25
-20
-17
-48
-52
15
-8
56
-26
54
-53
-24
-15
-45
45
-38
39
-5
15
-24
-11
-8
-71
-33
-12
51
5
39
-12
-13
-29
-43
2
-6
-60
-67
-84
0
-10
-4
23
14
-4
112
25
-127
16
25
73
19
-1
3
-36
82
3
-30
26
-46
9
65
6
27
-15
-23
-84
55
-3
-80
4
42
9
51
42
-20
2
32
22
41
-1
-12
-2
37
37
-33
-23
-70
-62
-47
-50
10
-14
86
4
-39
8
-60
-32
7
31
-8
-38
25
-1
6
-2
46
-88
20
34
0
-55
30
-56
-14
60
18
11
68
3
20
1
1
-33
-19
-62
-13
38
-19
-20
-41
68
77
-68
-2
-6
-29
-13
-4
22
5
60
-41
-53
-34
39
-9
-9
-6
-52
-48
-19
46
17
21
43
-15
-71
74
-26
-31
-92
90
-22
-15
-7
53
6
16
51
38
-22
-1
4
5
-4
26
32
25
-12
-18
25
41
-30
13
-48
29
-23
25
-15
-38
-27
3
-20
32
-18
4
-11
-59
-21
37
-15
-40
1
-87
-22
5
32
37
-40
-1
-11
-31
-23
45
25
12
33
13
47
-7
-9
17
22
-10
-34
121
9
-36
11
39
3
56
25
11
-8
-127
36
1
4
-25
-41
-38
-5
-3
-4
31
-48
-51
-53
1
44
18
-104
-61
-21
-32
2
-17
-18
-17
-26
-5
-10
22
-14
15
56
-6
87
-38
51
-11
3
14
13
5
-21
-28
61
64
-4
-10
33
35
5
-14
-1
-61
-51
-22
-18
9
-17
32
-24
9
-37
13
-11
0
19
-16
-23
-32
-22
57
-13
27
19
-40
-10
15
-25
51
-31
-8
-2
-8
-9
38
-4
-29
-3
18
-2
-23
86
20
20
-44
-43
-5
33
-30
0
-14
18
-3
-9
39
19
30
-64
57
77
24
-5
38
43
27
3
20
-8
-28
30
8
-26
-39
59
32
15
-11
15
13
19
-35
17
32
9
3
55
-35
-6
31
-6
-25
40
20
-1
-26
-21
5
-13
10
34
-13
-6
-30
23
47
13
-12
2
20
52
29
-52
-8
0
-12
-21
1
10
-28
-27
-10
-51
-17
12
5
-3
22
25
-15
0
9
-20
-6
9
20
16
-16
-16
-22
6
13
17
-43
-21
-19
31
15
-32
14
-45
-5
2
9
-55
0
3
99
-26
1
-39
-10
127
3
-15
38
-26
-18
-15
-32
-11
-25
-21
-1
-7
5
-49
16
31
1
12
32
68
-16
-29
-16
-19
31
42
33
-38
26
4
11
2
27
-10
22
-2
10
-29
6
33
-1
-6
6
-14
-17
-5
11
-23
18
57
20
31
-20
35
8
30
-7
10
-31
-25
6
15
-47
-49
-1
47
-14
-2
-13
-27
2
3
8
-13
9
27
59
16
13
-7
-12
48
-24
9
10
-7
23
20
10
-29
-11
4
18
-20
59
1
10
-11
-52
24
27
-9
2
-20
21
-10
-26
5
8
33
-32
-20
23
-15
-16
-27
51
33
22
14
11
17
2
-29
16
-47
3
-53
-11
-15
-49
-9
-10
68
32
24
-19
-9
-16
-15
0
-104
-19
0
-3
-33
-3
85
-10
3
32
-26
-11
-24
33
-16
59
43
47
-3
-10
13
3
11
-5
-5
-28
-2
2
4
-12
43
38
9
16
-19
-60
0
34
-2
22
-55
-5
28
-26
-9
13
-40
-28
-25
-4
-6
7
-16
-31
7
20
41
-26
14
17
20
0
0
-5
42
-21
26
42
-20
13
19
-38
49
-1
2
-31
-34
13
49
22
5
5
-58
6
-19
30
-33
51
51
71
7
11
-81
50
-15
-1
-43
-43
-56
-8
6
-25
87
39
75
5
-9
16
-42
49
-20
-51
-87
13
-65
-6
-5
12
35
6
-36
0
-14
-4
55
35
15
-35
63
0
47
-16
-4
38
40
18
35
-25
9
25
68
38
-47
-3
-14
65
-71
46
-31
-102
-26
-73
-34
8
30
31
-2
-36
67
-49
-22
-13
10
-40
33
126
111
-79
-15
36
-9
-44
-13
-62
-20
30
5
35
-45
38
-34
25
-71
-43
34
-38
-6
111
-27
1
-18
55
18
-36
23
-7
76
-40
-22
97
66
16
-33
25
32
24
23
-54
17
67
93
-34
61
-21
-76
-24
69
25
4
13
36
-19
-30
27
1
-19
-1
-18
-94
23
-48
-70
-49
29
7
44
25
-15
-42
57
37
4
-4
-47
-81
46
-6
-41
-7
-77
-5
-18
-42
-57
-55
31
-50
21
1
-21
-24
-28
-44
-43
-59
26
19
27
-39
7
0
-103
36
40
-31
13
-23
-16
82
-34
42
47
19
20
76
14
-18
-24
96
26
74
-57
-13
-15
-57
26
-80
33
32
35
-53
-10
-18
7
9
-27
-1
-23
83
65
77
68
-7
-2
45
32
68
-29
46
82
0
-36
-25
34
17
-127
-10
-32
-28
-66
-41
-43
18
-8
31
-2
6
-64
-35
-5
6
-60
7
4
-33
-6
4
-3
-2
-127
-43
1
-25
20
17
-2
-24
5
-26
-57
-17
12
-19
0
-40
27
17
52
-39
15
5
-4
49
-13
19
-32
-58
12
-1
-1
34
-2
12
9
-14
-62
-17
17
-5
-7
-19
-29
-10
37
80
-2
-10
-31
-17
16
0
8
21
7
-15
16
-30
-8
-25
6
27
-13
-5
-24
-28
19
-54
-42
39
-2
26
11
4
37
35
-19
-73
5
-37
-18
-42
0
-61
2
15
10
-26
-16
-52
1
-11
-42
-11
-22
-10
-5
6
10
12
9
49
15
32
-8
56
33
-34
30
24
16
19
5
32
-25
7
-9
-35
-1
-8
7
-3
-25
-7
15
-23
-39
-25
-25
-27
1
-18
6
22
4
29
9
52
5
-10
-18
-6
-25
-67
26
8
-41
13
23
-32
89
46
13
5
23
19
-13
-11
-16
-20
-30
-4
-29
-3
-32
20
-33
-19
-12
38
-46
13
8
-4
31
10
-21
-29
18
-18
-4
5
-1
-35
-5
-27
-3
-30
45
-13
0
25
11
-54
10
23
-29
-9
1
30
-4
2
3
-23
31
-41
13
-111
-72
6
3
9
84
-33
48
42
-19
-14
-42
-24
-23
-79
8
-28
-73
-5
12
-2
6
-9
-9
43
-8
36
5
10
32
-28
12
-1
-1
54
-23
-15
91
-16
-67
32
-15
3
55
31
31
-30
0
26
72
-11
13
-22
-15
-5
3
15
-54
2
-20
-12
-4
-7
35
6
14
-28
-34
11
-16
-14
11
35
-6
21
14
26
19
-3
-7
23
30
6
9
12
2
27
-40
-12
23
6
-2
-9
-27
-43
-16
40
15
9
6
-18
-20
7
-12
1
-1
-14
-6
1
-18
0
-4
9
14
-13
1
9
24
-15
8
-15
-12
28
-12
-18
28
-1
-12
-4
-13
24
21
10
-10
-13
17
-6
-20
-22
11
-2
0
-5
10
-29
3
-49
-1
-14
10
2
36
3
-19
-30
-6
20
-38
2
-14
-4
-14
18
-10
12
-1
-24
8
-8
29
-20
-1
-44
-3
-7
31
8
-6
-5
35
7
-24
22
-16
-3
-6
3
-19
-8
-12
-1
-20
14
-26
-6
-16
2
50
12
-58
-38
-23
56
-13
-20
0
0
-11
15
-19
-1
-9
5
-20
5
-20
6
76
-9
7
-8
-51
-17
-25
-6
31
-37
1
0
6
2
-20
32
19
31
-1
-4
-13
4
7
4
8
-6
6
33
-5
8
6
0
-5
-1
13
16
-10
-30
-16
21
-127
8
-6
19
-9
-28
47
-12
-16
-2
-5
18
-33
-9
26
12
10
-2
2
13
8
4
6
-6
18
-10
-30
0
-6
-3
19
16
-5
7
8
3
33
7
6
3
18
-17
-65
-94
-34
12
-40
-2
-9
36
98
9
21
-13
72
-68
-7
-13
-42
53
-26
6
21
18
61
-94
-58
37
68
48
-8
-4
20
117
-24
-8
-27
-14
-103
56
-10
8
-127
12
-16
5
-4
4
-29
-5
21
8
4
-28
18
5
-7
-30
26
-38
32
-8
-51
-98
27
-10
7
17
35
28
-27
47
-24
-22
-58
-3
-2
0
-37
-86
-64
74
-2
-48
-19
-25
49
-46
-31
-116
44
-46
39
39
57
-15
-2
-72
-20
17
-13
-3
-21
-57
1
14
-2
73
3
43
-20
-20
32
-45
-29
-35
13
8
51
15
-25
39
-24
-66
12
5
-26
-49
15
-21
120
26
32
-18
-20
12
-62
61
40
-14
-21
46
-35
44
-4
39
12
-2
25
-65
29
10
-45
37
94
-36
-26
9
16
-39
-8
24
92
-18
-24
72
-35
74
47
52
-22
-32
-45
6
64
-1
22
78
-17
-45
-34
-54
-39
-35
84
-6
-32
-13
-14
-27
-40
43
-1
11
-60
24
-92
38
2
-16
-61
4
72
107
35
-58
26
-21
30
-24
27
-122
-9
-14
56
25
-1
-40
56
-8
-20
-1
36
-13
-100
106
-10
-31
40
-58
80
-83
-6
-74
17
5
33
0
-13
-7
-18
-1
-29
6
-15
-15
31
-17
-13
68
10
-4
-39
72
36
-12
16
29
-29
-23
-3
-4
7
13
-4
-1
-53
-2
-8
-19
-18
-19
-9
-12
-10
-18
6
-1
-10
24
22
-1
-14
-5
-5
16
-2
8
-5
-31
5
22
28
10
-5
-19
1
-7
0
-1
0
-15
-3
-12
-46
7
-22
-2
3
21
-5
2
-29
-7
1
5
-7
4
-3
22
-9
-10
-4
13
-25
30
-15
5
-6
-2
-3
6
0
-5
-13
-33
6
-7
-12
-19
-16
55
-8
13
3
-15
5
-21
14
42
-19
0
4
-3
-2
20
77
-1
-6
-46
4
-26
-46
6
-10
-5
-4
-48
7
9
-6
-10
-2
-19
15
-13
-10
6
-25
-12
-13
0
0
2
8
-5
25
25
27
-17
-9
-1
-21
-15
4
-6
-4
-18
6
14
1
-6
-14
-26
-5
25
-1
-7
10
15
2
127
0
16
-4
-6
-40
32
-36
-21
10
-13
-28
-18
-3
-13
-30
3
51
-3
-33
60
9
-27
3
-13
-15
-4
43
1
1
20
-10
-9
23
-5
-10
18
-6
-15
-15
5
-18
-15
44
-2
-40
23
-33
2
0
-25
24
-18
18
18
-34
-73
5
2
-21
-2
-10
-2
-10
-2
-1
13
-9
0
-6
-38
-1
0
-23
-7
-9
-17
5
-3
13
-14
-11
6
30
-12
23
-1
20
-19
10
17
27
-44
-12
-3
-70
-3
0
-41
3
-3
-24
-4
-11
-19
-5
3
2
-3
-12
-13
58
16
111
127
-28
7
-28
31
11
57
-5
-21
7
40
-17
7
-7
-27
14
36
12
-4
18
2
28
-5
13
3
-47
22
12
14
-24
3
-9
10
7
-1
-22
-13
27
20
-8
-20
-11
25
12
0
17
6
-24
6
22
5
3
-2
-23
-2
-20
-35
-4
-18
-28
2
45
5
1
-13
30
43
25
12
-10
21
-15
6
2
0
-13
-24
4
0
22
39
-4
15
-10
-6
-26
-16
-2
-15
7
7
14
-24
29
32
-7
-11
6
10
25
-32
11
-19
-3
-25
-18
11
-11
-12
-6
16
6
18
18
-23
-46
15
-8
3
2
-18
-20
14
-18
-18
18
-8
-27
25
-5
-6
-41
14
-4
-5
41
10
23
-10
2
-11
10
-5
-3
-19
3
0
-29
12
-20
-46
-8
10
-14
40
20
17
-30
17
-20
-15
27
-20
-4
8
-10
5
-18
3
-11
-5
-6
-2
-57
1
-64
-1
-9
29
20
-8
5
1
-36
-26
12
-12
-11
-56
-20
18
8
-31
-37
10
1
55
-14
-5
21
-3
3
-4
5
-20
-36
-35
-3
-37
-4
-15
-17
18
13
-27
4
-1
-36
-3
3
-79
42
4
47
7
-5
-45
-11
18
32
-13
-7
13
20
-22
3
4
-17
-25
-47
2
-1
7
49
0
-29
-33
19
-15
-12
-36
-16
-8
-68
42
0
70
-39
-14
-68
1
6
-82
-11
99
11
11
-2
22
17
-18
-22
85
61
6
-50
18
-1
-45
1
16
1
81
14
-10
22
-9
53
76
107
46
-64
-1
-11
32
-23
-26
-21
24
-41
-4
9
-2
46
-15
-13
20
12
78
-29
-11
3
-32
27
15
-20
64
60
91
-35
-5
-16
34
-35
-31
-1
-59
22
58
-8
-30
-45
-5
3
-49
-39
-1
-17
6
-18
-5
19
27
31
-12
-70
-84
-41
-3
-14
15
15
-9
-13
7
77
127
6
-45
-6
-23
23
21
-58
7
35
-12
-11
-62
1
-27
-41
-7
-9
-61
-10
-13
-11
38
37
-38
-36
-23
-47
-36
-24
-7
-8
-28
-16
-29
-27
36
32
-20
31
-13
1
4
-18
-18
-4
5
-92
-24
-69
27
5
-11
13
31
-9
15
8
7
30
-4
3
-11
-11
23
-41
4
-22
-67
-43
2
-15
-17
73
1
-8
-20
-21
19
19
24
36
-12
-64
26
-18
-40
-42
-40
5
16
14
61
24
14
17
19
24
-15
43
33
-7
-10
34
-34
-19
43
-11
48
6
-15
13
85
26
26
84
41
-69
-46
-10
-74
121
-16
26
-6
1
52
-1
14
30
-21
-16
-42
-28
-89
40
66
5
-12
-52
10
3
-18
-74
-10
13
13
-1
-42
4
6
1
-8
-10
-15
4
-22
-1
-8
13
2
-112
-34
-2
-1
-88
14
-9
-8
-31
-2
3
10
28
-28
-11
20
4
25
-16
-19
-6
0
5
64
7
10
-10
6
69
-12
-13
12
-23
4
-26
20
-41
81
-5
-21
-30
-27
-17
17
1
-13
-15
-27
5
-9
9
-3
4
-19
-13
-1
-35
-64
-9
7
11
12
-13
10
96
1
-29
10
-8
-14
-20
8
-9
16
-2
-2
11
16
54
-14
-8
-6
9
-18
-41
16
111
-20
11
15
6
17
7
-41
-12
-29
31
0
-78
10
13
-7
13
7
8
13
-51
-19
-7
5
3
1
6
-10
-4
0
-33
-2
-15
8
-18
16
3
4
-12
-6
-6
51
-3
7
-2
-10
-13
39
-1
-8
-5
6
6
13
-68
9
-14
-62
-11
-17
2
10
-2
19
-18
-1
10
-19
-23
8
-24
2
5
20
24
12
43
-2
-12
-9
-3
-57
-9
1
0
-115
-19
-2
-8
-8
13
-14
14
4
4
12
-3
2
12
14
-5
7
6
-4
15
-1
-1
10
0
-17
-7
82
112
-2
12
-63
67
5
-56
7
-22
-19
-24
5
-4
82
-3
-2
-45
-1
-8
2
-4
16
3
3
24
-78
1
14
66
7
-56
21
-4
47
25
27
-14
-10
25
127
-57
12
10
5
10
6
78
-14
-3
42
-2
-23
16
28
8
-4
-21
-21
24
20
-45
-16
-6
-4
34
-19
-19
-17
-83
15
-13
-11
3
12
1
18
11
10
-8
-5
-7
-12
1
6
-21
5
-13
41
-5
27
5
17
-12
6
12
-1
15
4
-38
-39
34
-35
13
16
10
18
-7
46
32
0
-21
48
10
11
-34
-8
-20
4
26
35
11
-13
-9
12
-32
-29
-55
23
-4
18
15
-11
9
-7
-8
3
1
-11
-11
-80
-30
1
-13
36
-11
4
-31
-13
20
19
2
127
7
25
-14
14
-15
7
20
11
-11
-31
0
28
-3
25
-18
10
0
-18
-11
-7
-37
-6
37
-5
-5
32
-14
9
-6
-33
-6
-45
-40
-1
33
11
-14
25
-34
4
17
17
21
-58
4
25
-13
-2
52
0
-28
19
14
-12
-9
-4
-12
-4
-33
-68
10
-14
-18
-23
-3
-8
-1
-9
23
15
-30
-4
24
-2
-23
22
35
8
2
15
32
17
27
24
-23
-12
60
4
18
12
95
14
7
-13
-14
-26
-1
-13
42
-68
29
-8
-54
-8
0
-18
-1
5
-2
7
17
32
26
74
37
40
50
40
4
-33
-8
18
33
22
23
-40
-39
-41
3
-1
-20
-11
-26
-5
-105
-9
34
11
50
6
-53
-12
-4
-5
37
-2
-18
-10
-17
3
4
4
7
-35
11
-47
-26
23
5
-21
11
14
-9
-27
-15
5
6
-11
53
-14
-23
-14
5
-3
-21
3
11
50
31
-5
15
-8
-36
-2
-5
1
10
-37
-4
14
-11
-18
-58
3
24
5
5
3
3
16
-19
-17
8
25
-4
5
7
-10
-45
-5
-6
11
21
-24
-57
30
-28
-3
7
-5
12
-8
-16
-51
2
3
-18
7
10
-16
-32
-36
28
-96
-35
0
-30
40
2
-13
8
-2
-2
2
-44
-4
5
-41
-16
8
-21
-2
-10
3
10
21
7
11
-3
-30
-10
10
-11
-1
38
-3
28
18
0
29
3
-5
33
4
-40
-8
-17
14
-7
-15
-13
1
-3
2
27
-11
-16
-16
-6
-3
28
34
9
-38
-22
-2
-9
-54
-2
-17
9
29
-10
3
15
4
-8
-30
-40
-28
-47
-61
-20
4
7
-26
-38
-10
28
5
-11
18
3
-3
-9
-35
-43
20
16
-3
-26
23
14
-6
-34
-24
-11
1
-12
-2
30
-16
-14
-25
20
3
-24
18
3
35
32
5
46
27
-8
4
13
5
86
-14
1
17
37
4
-8
2
-6
13
37
23
-25
-45
3
2
5
-11
-11
8
5
-16
-127
-17
-48
-29
18
4
1
28
-30
19
0
12
-26
50
-9
-5
-22
1
0
-11
4
0
19
14
-52
20
43
51
-15
12
13
39
-41
-15
-58
62
-29
2
12
-43
-13
11
0
61
-18
24
25
8
44
-4
29
35
19
24
-21
42
18
-8
-23
93
16
-5
40
-68
-27
18
7
-30
23
34
17
-3
-15
-1
-2
-52
-10
61
-59
-59
17
-41
-45
50
-55
-13
6
-2
-26
-35
-7
-30
-80
23
-96
9
-40
-20
2
20
-4
1
-14
19
-41
7
32
-21
-74
-12
7
16
54
18
-11
-72
-16
19
33
97
-40
12
27
24
5
5
-70
-56
-61
-38
-43
-39
51
19
8
-19
-3
18
-33
11
-25
-7
59
-14
-105
30
62
-3
-16
71
-32
2
-29
-22
-46
-40
-22
41
-2
-47
-8
-32
-3
-72
-127
0
-23
-39
29
-38
17
0
-15
29
-78
-97
-16
-2
5
53
44
-9
4
60
-15
11
-17
-26
56
26
22
-32
3
-43
-12
-17
30
6
-20
8
-53
-47
51
-44
26
39
-21
-72
-9
14
-15
46
1
-30
-23
100
51
56
21
-7
1
-15
34
44
56
49
65
-8
4
53
29
34
-63
10
49
21
25
27
-4
-28
-35
-8
29
18
-40
5
31
-2
-65
10
56
10
-32
15
-33
-15
43
-37
-73
-38
-36
-45
-29
39
12
18
33
-23
125
47
50
35
-122
5
4
3
-75
54
-3
14
4
12
13
-53
-24
62
-62
29
20
-56
7
50
21
-16
42
-59
90
41
2
-6
-51
-2
14
3
38
-17
-28
6
9
-11
-48
-48
-65
-16
-54
-10
20
35
39
4
40
73
4
61
60
-5
-58
-41
7
-52
-22
-15
-38
-44
-43
15
25
-45
-13
35
-71
3
-16
-30
-2
41
51
-31
-19
-15
31
-1
-41
-7
-18
-49
-19
-25
-15
18
24
46
-49
-51
-42
29
-24
-44
-24
24
13
7
-25
24
68
-14
-44
-62
-11
-50
-6
14
-6
-52
-17
-40
5
-54
-31
91
52
-51
-43
-7
41
20
-68
42
5
10
67
48
4
-39
-36
32
-17
9
-19
25
20
6
9
8
2
-19
-31
-15
-9
101
38
-18
-24
-3
-108
-37
-40
-22
26
-24
3
25
-47
-44
43
-29
-10
-50
58
17
73
-51
-6
82
-18
-25
-10
-6
-71
109
90
-47
24
-26
8
6
35
-53
-90
-52
10
-5
41
65
52
-25
18
-47
36
57
24
-25
16
-20
4
3
3
-84
-51
1
-75
-41
-127
26
-53
37
67
-95
-27
-21
7
37
-33
40
-25
21
8
-34
-17
43
-20
-25
43
-19
6
-46
22
23
13
101
-59
45
51
-4
12
-8
-70
26
-49
19
-30
-108
-37
27
-69
-44
13
37
-29
-22
-14
60
17
32
48
89
-2
1
34
-68
23
36
26
-24
18
53
-52
14
-2
-9
3
-26
40
-15
-14
-69
-10
7
33
21
-3
-52
16
-15
-43
2
3
-33
-30
14
8
-82
7
-3
16
15
5
-27
20
-27
0
-20
-42
13
-5
-36
-15
-75
-56
-8
-9
-2
-5
-22
14
40
83
-14
23
27
-29
-49
12
-73
102
-61
18
30
-6
-4
30
-29
-6
-36
33
57
3
-6
-4
-36
-7
38
-35
-3
-109
2
1
9
-10
42
4
15
-21
-4
-116
-47
25
-12
-33
7
34
-10
-10
3
-78
-17
31
-26
-1
-5
-20
-25
-8
-12
-22
17
-15
-56
28
27
4
51
9
29
29
-43
-26
-7
37
-58
4
1
4
27
33
-21
-31
3
50
-17
22
-59
30
16
-50
54
6
48
-5
-59
22
-2
40
5
-37
2
75
2
-10
-21
36
-35
0
-27
22
33
-27
24
-19
63
-8
-13
-38
-41
-21
-27
-32
-3
80
55
20
-5
-14
-61
-11
-49
-10
26
-32
-30
0
-58
9
-20
1
-127
37
60
-39
-98
5
-77
-9
-42
-27
-5
-26
33
-20
-2
-20
29
24
28
-18
-9
63
-49
59
80
16
7
-30
16
31
9
-64
-24
-7
-13
-1
-36
-72
18
55
8
91
30
-29
-4
10
20
-5
-22
5
5
-7
-5
18
8
-14
-38
-76
-21
19
70
-38
53
23
57
-1
-27
-72
15
-15
14
43
-86
-35
-6
-26
-9
-34
31
-4
41
-30
8
-33
-12
-51
65
2
-20
66
-53
30
0
4
16
-35
-5
11
-37
-19
38
44
-41
6
37
-17
-4
-19
13
-88
2
31
26
-15
64
30
3
11
-33
-7
-42
-83
-28
18
-73
2
-17
47
-21
-39
-26
-18
21
-7
1
31
-57
-18
80
-53
23
-22
12
-31
3
12
-37
1
-22
-68
-2
-16
-58
-3
-8
-19
-91
-12
4
17
-9
-43
-45
-40
31
33
-3
11
15
13
2
-17
12
7
-5
-7
64
30
-22
47
15
16
24
46
11
-46
-127
-29
-57
17
18
15
-27
-34
39
-55
-20
-36
32
2
126
-20
-9
2
0
36
-3
-56
28
-16
25
-11
17
30
-26
27
38
-51
35
-58
-34
73
32
2
-25
-32
26
88
-19
25
50
-4
-7
-39
6
6
5
13
-11
-13
-83
-6
-11
5
-54
10
-10
-20
43
-73
20
13
-73
-55
-14
-29
-68
40
-26
3
-22
3
63
11
-48
31
-45
72
-2
-11
6
93
18
-18
0
1
55
19
18
99
-39
18
23
2
30
-25
-10
-33
35
-24
2
73
7
-14
11
30
43
23
40
23
48
7
-37
39
0
-26
-11
-5
30
8
37
-87
-89
-17
-28
-21
23
-17
21
18
22
-91
-99
-14
29
-4
-28
-20
48
55
-10
9
28
17
25
17
21
-35
-29
-12
-28
3
-43
-11
21
-84
-55
5
-46
-20
-1
-8
53
-56
5
-31
-23
-42
-40
67
-15
13
10
-17
24
30
22
2
8
34
39
4
-16
50
69
-43
-4
-26
-64
18
9
-26
48
31
-24
-14
1
-20
33
-1
64
8
78
-39
-74
0
-23
15
-24
1
-6
-53
1
-14
-32
6
0
-42
-13
-11
35
65
-10
-19
-33
3
26
29
16
6
5
-8
-31
-27
21
-17
-13
-33
6
-28
-7
-20
-26
62
58
18
-25
-95
37
-89
-36
23
-9
33
10
-10
3
-18
1
32
-13
2
-16
-20
-2
25
45
61
3
11
2
-17
-10
-18
-24
-11
10
-64
6
121
22
-35
-42
-14
-32
4
-37
-8
36
23
-28
18
17
6
-14
1
20
17
43
58
70
95
16
4
17
77
-26
-16
-21
-16
36
-27
41
-5
-2
24
-78
-33
1
-35
2
79
61
16
-14
-88
-31
0
20
-20
-20
-3
-27
30
-58
-7
25
-40
-8
-9
-14
6
56
16
-127
33
-32
57
-33
34
-43
-7
17
27
-51
4
-21
-11
62
83
-18
-84
47
-20
-16
-12
108
-28
-6
-10
-13
-38
-33
44
-30
-4
35
-8
-24
41
-28
15
-18
74
0
12
1
12
-31
17
25
-47
-34
-22
-15
-4
-2
25
46
-6
7
-16
-84
8
10
68
-5
-15
-3
13
-116
12
5
9
21
5
32
5
5
8
-21
-81
16
8
2
-8
12
7
-1
-49
-3
-9
21
-4
5
-86
18
14
-4
-29
1
-24
-10
-5
-18
14
-13
-57
29
-28
34
41
17
-5
-7
12
13
49
4
-23
-26
3
-43
-5
-52
10
-78
-23
-16
19
2
40
18
-28
-4
-19
30
95
-24
14
1
25
-11
-5
-46
40
-21
-28
18
-53
56
31
-59
-17
6
-20
-8
-39
10
14
14
-25
-10
-25
-19
-17
8
-25
-18
25
-2
-4
-39
0
23
-4
-19
7
-3
9
-36
-6
10
24
-6
-5
-22
-29
5
69
29
-25
4
-95
17
-8
15
-59
-37
-34
9
-12
-4
-17
9
7
-1
-3
-10
-5
17
28
0
-67
25
-52
-23
-6
11
24
127
8
6
-29
-31
-26
-12
6
47
-24
3
9
-7
-14
-10
14
28
-28
33
12
34
4
27
14
28
-31
-9
28
-28
-31
74
-41
-4
43
-27
-57
29
25
-21
27
19
-11
-20
-23
-44
5
5
25
-49
6
2
18
-28
2
1
-12
-39
7
10
8
-15
-6
30
-29
29
21
-15
-43
-35
-9
61
-37
4
37
-4
2
78
10
47
21
-9
27
17
95
-34
-5
-38
23
11
16
-54
24
-44
29
-41
12
-59
-35
-3
-20
-42
127
11
-22
-16
28
-47
-72
-11
-18
-13
26
25
26
14
0
108
-36
-79
-40
39
5
11
52
-15
15
-21
-22
-15
14
43
32
-3
-11
48
-84
65
-11
-8
-10
-1
5
47
2
66
13
-29
15
-38
-36
-18
-5
53
-8
-22
46
-29
-8
-9
26
-40
-20
36
4
4
-10
-42
22
-13
-88
-5
23
10
1
-31
112
3
-2
-26
8
9
-29
-4
19
12
1
-19
5
-10
38
-32
89
34
-6
64
19
-1
-44
-36
-4
-47
-6
-16
31
61
-6
46
-6
86
33
1
-10
-3
8
-3
-48
-3
-2
-27
33
-49
-70
29
-87
-41
-26
57
-6
78
-9
-50
59
-12
-36
-10
-38
5
61
53
-33
4
25
31
-16
-26
21
1
-13
-26
30
-63
-11
-35
16
-45
-24
-44
-55
-29
-13
64
-36
67
26
51
-17
29
71
87
74
-29
-26
61
14
-30
4
30
22
-42
6
6
48
14
-2
18
19
-6
23
43
7
-1
1
49
27
-36
-5
3
24
10
-68
3
-22
-10
-7
-73
1
-23
4
19
-25
30
-18
59
-2
21
-18
-22
-5
26
-33
-42
36
-39
-65
2
-20
48
33
20
-17
-19
-1
10
-4
-15
-6
-28
19
44
-12
-24
7
1
-5
-10
1
7
-12
0
10
-13
8
8
-20
9
-19
-10
11
10
33
-4
16
-7
-19
53
0
11
13
6
-50
-19
13
-23
-5
7
-42
0
-11
2
3
-8
-5
-6
-3
22
54
-8
-8
-6
-6
0
-4
5
-5
3
-21
-37
-5
-21
17
-5
-32
1
8
-1
-23
127
-12
5
2
2
4
-1
-10
23
-7
-36
-8
3
15
-8
2
12
-5
-13
-1
-11
2
-6
5
-29
14
-6
-39
20
-6
1
-11
-11
10
4
4
6
-3
-4
7
3
4
0
2
15
-4
12
-31
-5
-19
-5
15
18
21
-21
10
15
6
-5
5
-2
-11
11
-22
-17
2
-1
6
-3
9
-27
-13
4
4
-7
10
9
-9
-12
-24
-20
-8
9
-13
17
-37
-4
-3
-11
18
24
9
14
-4
-1
11
4
-4
-35
4
-12
11
9
-66
8
13
3
10
-21
3
0
-7
-18
9
-10
9
-9
-2
1
-11
-19
-8
8
14
27
-21
13
9
-10
6
36
7
-2
7
-6
-24
-22
7
-5
41
-4
3
-8
-1
39
1
-10
19
12
-16
-4
15
2
2
-13
14
-7
-19
3
-30
-13
-5
10
-5
-5
-10
-2
4
24
-17
-11
-7
-1
13
-36
-3
9
-1
-4
2
2
46
2
44
44
-6
36
-47
-8
6
-49
21
-2
9
-43
-6
-57
18
-11
48
80
-17
-24
-13
-9
-26
-25
8
8
32
4
18
47
-23
48
-56
3
18
23
-3
38
19
16
-14
-34
-21
-10
-36
34
44
-11
15
9
16
-21
-11
-83
-34
-11
-56
16
-4
48
-37
16
-12
15
8
46
-21
19
-29
8
-14
-6
-55
-46
-6
13
-15
-57
31
13
-22
-58
-14
-12
-26
16
69
-12
33
49
26
8
-34
-25
-42
56
-53
-52
-27
-22
2
21
-47
16
-10
-38
-34
8
-1
-3
20
4
1
-66
71
11
-6
-1
16
-24
-32
47
12
27
14
10
60
-18
3
-81
5
-8
7
9
-30
-9
-53
23
-29
19
-38
4
-13
-68
-72
7
-18
-26
9
31
19
43
-37
-1
37
43
-18
-40
-40
23
8
19
-44
16
-16
-19
-12
2
-31
1
1
19
21
-21
9
-21
-43
13
35
34
4
23
15
-24
-11
-32
32
-3
-34
20
10
127
-24
-50
3
-40
-48
1
-35
10
-28
24
0
-31
-2
-5
-5
-13
-25
-38
53
-2
34
-40
18
-26
42
10
-38
29
9
3
-54
-36
-42
20
-6
22
40
-63
15
50
-20
-8
-4
10
-81
-49
-1
-29
-19
10
-3
32
51
17
-42
27
13
14
-14
14
16
39
52
-46
44
74
34
8
-43
-44
95
44
-2
-93
21
-16
22
-33
74
-30
41
-9
-3
-9
-36
-7
3
-19
58
-11
97
18
-12
-34
33
-14
-4
16
-10
17
18
-104
3
50
-55
25
16
-8
-31
-6
10
-5
14
-52
41
-94
47
58
-42
20
-5
-27
-34
-49
-5
-36
-7
-11
0
3
17
-47
-24
-39
9
-1
-42
3
101
-10
-16
-101
48
-2
-4
16
-57
26
62
39
-1
-14
69
2
-24
2
-60
48
-16
53
-24
34
9
-52
-79
-52
-20
-37
38
5
-29
-15
69
-2
10
-35
-6
-29
12
87
-34
-18
59
-6
-44
37
87
24
38
-69
73
-31
69
63
46
-45
17
22
-22
1
27
-55
-24
-2
8
30
85
-56
-53
11
-18
-47
-97
-16
-47
-22
-44
-11
-81
27
26
-24
21
-10
-23
37
-88
-32
-15
0
18
-18
68
-46
-4
34
-6
-35
92
11
-71
-69
-27
-5
34
41
-83
14
-61
-1
31
-21
-47
-81
1
-63
22
-35
-2
-17
50
81
8
-2
6
-4
-22
-124
19
10
-8
19
-24
-74
41
-24
32
-17
24
57
-1
-9
6
-127
17
-42
-3
-34
55
37
32
-10
40
44
-4
-33
51
-66
20
11
-24
-11
-54
11
-59
-28
59
-55
47
7
17
57
1
2
92
-46
-22
2
37
8
29
39
39
-32
41
28
-38
-123
95
2
23
-59
26
27
33
12
33
-18
-58
-6
-49
-23
24
72
-4
19
46
1
74
-73
8
-14
8
74
24
0
53
-8
77
-3
-14
-49
11
11
-53
-16
-42
-38
42
-39
76
60
48
-2
-50
40
19
-4
-33
46
-7
2
-28
20
92
15
-38
27
-112
-14
-4
-47
-7
-46
25
19
21
57
12
2
15
-9
-32
5
5
36
71
-14
1
90
-2
36
23
-61
55
113
-7
-63
-34
1
-118
12
19
35
33
-26
79
42
47
10
2
14
9
-39
-38
4
-54
19
4
-53
-22
27
62
-81
25
-35
10
71
-39
0
-40
15
-27
61
23
56
0
31
43
-29
52
37
6
-56
-25
25
-84
-1
25
18
11
-20
27
-34
-19
-27
-108
24
-94
-25
-79
-17
43
-30
-59
-1
-85
-16
-9
-2
-92
-13
-49
-41
-45
-34
-11
-22
70
-70
12
17
23
-38
-36
7
-17
17
-38
3
-28
0
-71
21
78
127
56
29
0
33
-57
-9
-8
44
37
-62
-66
44
-51
14
31
-16
-17
4
2
106
3
29
6
-30
42
-63
-39
24
-40
62
-11
16
-84
-55
65
-104
6
123
-46
-18
26
28
-34
31
6
13
-24
14
11
-44
12
-27
25
13
-84
-51
1
13
-3
5
14
-49
-4
5
35
45
25
38
9
12
9
-8
-5
27
-12
-18
-14
40
21
-1
-7
6
28
8
43
6
11
35
-36
-3
-7
-29
23
17
-3
33
16
-15
4
10
9
7
1
12
-19
11
14
12
2
-19
-93
-10
43
29
-5
52
4
-7
-23
11
5
32
-32
27
12
-21
23
20
11
8
10
-17
5
-14
7
-14
12
1
-3
20
9
-47
11
-1
-2
-10
7
-43
-16
5
-20
17
-9
-87
5
7
22
-4
6
-3
-53
12
-89
-23
-3
-2
-44
16
-13
-7
-8
2
-14
-49
-9
0
-1
43
9
-24
-8
-7
39
-12
-8
8
-45
-13
-21
7
-24
-3
-8
-2
-11
18
-14
-23
25
8
6
127
23
19
9
-3
-10
-26
-1
43
-14
11
-14
20
-50
-5
-11
17
23
-16
-5
-39
19
-46
4
-75
8
15
1
5
20
0
15
-20
-19
21
64
-5
7
-19
41
-31
30
14
-53
18
1
8
-31
24
-13
-10
11
12
-15
-29
-13
12
-6
-58
-22
-19
-14
10
-53
-9
-4
-5
90
-10
-8
-15
61
4
0
6
4
104
10
84
4
-53
64
6
-34
24
10
23
4
-36
76
-29
20
11
-8
5
-20
-12
-9
-19
-6
28
1
-14
-6
2
-10
-19
-20
-8
23
-5
37
26
0
-23
37
-13
44
27
-19
-30
-52
-3
55
-73
32
-10
-31
22
89
10
-24
-23
25
-30
8
-22
-55
-10
22
-58
-7
14
9
-9
-23
10
31
52
-64
-22
-28
-13
64
33
1
-41
20
-6
55
-11
19
28
-3
-66
27
52
-16
114
6
34
77
21
-27
34
-50
-27
58
22
8
-16
6
-77
-48
-2
-13
-25
-27
-8
13
-9
6
-26
9
-38
-16
-49
-93
36
69
64
-38
-1
58
18
-71
3
-43
-82
-32
30
-53
-34
-29
-34
-72
36
-11
-57
-32
-11
-58
14
42
24
56
-18
87
16
75
41
17
-18
15
-11
-9
65
26
46
-19
53
-15
7
-25
-54
9
24
6
3
-27
92
9
-12
-11
0
17
-31
-3
-29
52
59
-42
41
-40
48
-68
-5
49
9
-44
36
-48
-20
94
15
8
46
-48
-34
-35
-20
3
84
26
-49
-18
75
3
11
-27
-57
-19
-12
-3
-2
27
7
-33
-56
3
44
19
-14
-70
9
-33
-13
-31
-38
-20
22
28
18
11
46
42
-44
3
4
89
-17
-78
10
33
37
-42
60
16
50
-40
50
-55
75
-29
-27
19
-9
22
45
54
5
-19
-35
29
58
0
-22
8
-54
-28
-78
-51
-20
-25
-127
-29
-17
-56
-89
29
-22
70
44
-2
-79
125
47
114
11
0
2
8
-29
3
-24
-18
-6
-9
14
13
7
-4
27
-14
-18
12
46
-10
-8
1
4
2
-30
-2
17
-24
-8
11
-33
-13
-50
-7
-6
-3
2
-6
-17
5
-25
-6
-23
-56
1
8
2
-2
-1
1
-14
-2
38
5
-8
16
-11
6
14
-16
14
23
12
4
-5
4
21
-22
-18
-24
17
-15
-51
-1
8
-12
-2
-4
-2
-30
18
-8
-14
-14
-4
-9
2
2
6
27
15
-4
2
4
-19
-15
11
13
6
46
-4
-5
-11
29
27
8
-27
-127
33
-7
19
9
-6
15
-8
2
-2
2
-12
8
-18
4
20
-8
7
-33
1
-10
11
-20
-1
-11
-5
0
-32
0
-15
8
17
-20
-12
-3
12
-13
-5
33
0
-13
0
21
-5
-9
-13
6
23
-19
-4
15
-14
-14
-33
-18
25
9
-28
3
7
-7
-11
-30
-22
-30
10
-19
5
2
5
-22
-7
38
4
-8
-35
30
33
-5
1
-13
-10
-2
-2
19
14
28
-11
-2
-14
9
27
12
8
-7
21
7
2
-4
25
-3
-12
31
22
-4
-4
-4
11
19
10
7
-2
0
19
5
-3
-14
-3
51
1
11
-11
8
-52
20
20
-15
7
22
7
75
17
13
-12
0
-8
33
1
-3
-21
9
-3
-5
18
-9
-8
23
9
-10
-7
29
-5
-6
10
0
-39
-49
16
-14
-1
11
17
14
3
-17
6
-11
11
28
-18
50
40
-4
-8
-9
13
26
-15
10
127
8
-2
26
-22
27
23
-8
7
20
0
15
14
0
-22
-2
22
8
15
2
-16
-8
-9
6
-41
-15
-44
10
-1
-36
-15
-29
9
-7
93
0
-29
6
19
11
-35
9
0
8
-27
-6
7
-7
28
-13
9
19
-4
-32
-10
29
2
13
0
15
21
3
4
10
-14
-13
-15
9
-13
-26
-49
3
26
-15
-12
-7
11
-3
-15
-1
20
6
-14
11
21
-18
-5
-25
11
3
-60
6
10
0
26
2
29
-31
-34
31
-1
-17
23
-13
-25
-13
-13
-22
-32
-19
3
-12
-15
-2
24
-3
-14
-21
9
3
-68
-24
-3
3
22
2
-16
-28
3
46
-30
-30
2
1
31
-27
39
4
-6
21
5
51
-1
-3
0
3
11
-9
-3
13
6
33
-1
34
-1
47
11
25
-15
4
12
9
11
0
18
24
10
-52
-22
-9
15
26
12
-9
-24
-27
-11
29
14
7
-13
-7
5
25
-9
7
0
-5
-6
19
2
-7
-21
21
3
12
-15
9
20
-15
4
41
26
-13
10
26
-3
-3
-8
3
-75
-33
0
-13
19
-10
8
17
-21
-33
-15
-11
-15
6
-14
-31
-24
-10
5
3
8
-7
35
-13
-14
-17
-7
-39
4
17
-13
-7
87
26
9
-2
90
33
53
-23
69
-21
-28
29
-5
-8
23
83
-26
-21
-45
21
28
-16
23
10
-98
73
85
30
-19
95
-27
-11
-4
31
-31
-41
42
99
68
16
-9
28
-34
41
32
-40
13
-61
13
-18
82
-16
6
-127
42
16
17
5
30
-61
-13
39
26
74
-12
6
7
-54
-21
-106
-29
53
1
37
88
-5
48
-42
72
6
-17
-30
26
2
41
17
31
-3
8
45
-9
25
-19
-40
63
-14
-2
-6
11
-38
-37
-39
52
-8
-40
9
-95
-69
-28
-71
-12
5
1
26
35
-53
-12
-22
15
-15
-52
-29
-71
-44
63
0
21
2
5
-21
-77
-23
0
-9
-35
104
-5
-5
63
-16
75
20
24
-45
-44
17
-38
16
75
-80
-29
-10
36
23
-29
4
-18
-13
48
13
-29
-45
4
-44
77
4
-30
-42
-56
30
22
-7
28
37
8
93
50
-10
14
-18
-18
-79
-11
26
85
-20
-10
44
7
48
-5
-11
4
9
1
46
-25
0
33
38
7
-3
4
-14
-51
-55
-27
27
25
-48
16
22
20
20
26
-43
-6
-25
-9
-20
-50
-15
1
-18
-10
-37
-1
-28
10
15
14
-21
3
-14
25
19
15
-24
40
-14
-57
-5
22
38
-49
52
-2
11
1
33
-63
28
-39
20
34
-8
60
28
48
10
-90
-68
-22
32
-76
-67
-57
-14
-5
89
56
9
15
-91
-14
-36
46
-3
-17
-37
39
-13
-1
16
-53
71
-75
-41
-36
-12
-13
2
82
20
-47
-69
14
87
-38
14
-43
-86
-12
-57
-32
-16
-4
40
-14
25
102
18
15
-6
-28
47
-62
-43
29
-78
28
35
-8
-53
-5
-82
84
26
44
41
66
-31
51
-8
-4
-37
-5
-19
-35
-20
-4
-6
-13
-79
-63
-9
-1
-50
4
-29
71
61
13
39
10
45
73
-68
-54
19
84
-12
99
71
60
-70
45
-88
-2
-13
50
-7
-17
-20
19
18
14
-28
33
-109
-42
-2
-26
54
-38
-22
3
-79
10
-86
44
-46
-17
-36
-51
-45
-29
16
-28
-6
6
-17
50
94
-40
3
6
-13
53
-70
-19
-87
-32
-41
72
11
54
6
1
-47
59
21
32
52
18
49
-29
-15
-49
-8
14
0
72
-23
33
-18
67
71
-52
-42
100
-43
-4
40
-42
-5
20
5
-2
16
2
13
-43
10
-5
127
6
-2
-8
-10
-12
-75
65
9
-6
-16
-21
19
-103
-1
42
46
-83
119
-51
24
-38
-41
-57
-63
-65
-13
50
-28
-14
-43
-41
-2
-31
-3
71
-48
-29
-40
-6
-18
10
56
3
22
5
-10
-20
16
-33
25
-9
30
42
-17
47
-4
107
43
-29
-14
46
-16
-31
-39
-7
-62
20
18
-18
78
-20
28
-19
62
-50
-51
44
-4
0
-1
25
-104
38
-55
29
11
2
93
-48
23
-17
45
27
2
-26
47
-1
52
-45
-127
-49
17
5
-6
-39
-28
-13
-47
1
5
-31
-35
-24
13
-53
-51
56
-39
13
-19
-68
30
-51
-30
9
-10
-41
49
-19
-7
3
91
35
17
1
-48
-12
-41
35
94
-27
-17
-26
-2
-51
38
-57
20
11
-15
-6
-22
8
0
-12
31
23
3
9
1
14
-22
71
-39
24
-2
29
68
-14
11
-106
89
-31
63
-31
-9
37
-28
33
-30
-113
43
-1
73
8
67
16
-63
9
-59
-29
64
41
36
-38
-54
32
-10
39
-14
-5
-50
-1
2
-32
104
25
-11
17
6
16
48
-43
-2
-18
9
-44
87
36
45
39
7
-27
-65
20
-4
-22
-68
-12
32
21
-89
-47
24
-46
36
30
0
-25
48
74
-2
-3
53
-60
-15
17
-65
-27
94
24
1
-31
-5
-42
24
-59
39
13
42
10
52
5
-102
24
-17
8
76
13
63
-58
29
-46
32
-31
53
-22
-4
64
-35
-8
9
9
-20
-51
-32
-31
50
3
-32
2
-40
-30
23
29
9
8
-2
19
-19
11
1
1
-1
-7
17
2
6
-9
-5
12
-8
22
10
19
2
2
20
22
-11
-11
-14
-6
45
20
-24
-14
127
-7
38
-28
-3
6
-15
5
-8
19
6
2
-24
-10
28
-1
-48
-6
2
13
-3
12
19
19
27
-12
14
-10
7
14
6
4
-18
25
32
15
15
23
-23
-4
-52
-20
-11
-11
7
-15
-4
19
-10
-5
3
14
1
-10
12
29
-7
13
9
31
-7
5
-2
16
-12
-9
-17
-14
-5
-4
26
-19
-20
-19
27
-3
2
19
-13
2
-11
8
10
-16
-7
-2
-5
-4
22
-65
-3
-19
2
-14
-34
18
36
-8
19
-109
1
-24
-3
12
8
-4
-16
8
-23
38
-8
16
2
-12
1
-22
-3
7
-12
0
22
-3
-2
-26
18
21
50
3
-28
56
12
8
-5
7
-11
36
-4
21
4
-7
64
2
-15
26
-5
-1
6
30
-28
8
9
-6
-24
-10
-29
-15
5
5
-8
2
-5
24
-26
5
5
-28
-15
-8
-16
31
25
-6
-109
-1
15
-31
2
-22
-4
-16
3
19
-2
-12
26
-5
14
-20
-3
-3
-9
13
6
-12
-13
-12
-22
0
14
-8
37
-37
-6
-8
-17
-7
-8
35
-4
4
-10
13
1
4
14
0
10
-7
-4
-5
-12
11
17
-6
-72
-7
11
-13
67
35
13
18
13
13
-31
-80
-41
-18
-15
17
-21
22
87
-41
-20
73
-30
30
-2
-5
-7
46
7
-10
-12
8
3
94
-4
-52
-8
-52
-30
-11
-40
23
44
38
53
21
62
-11
14
-19
-2
-26
-12
-33
-6
-3
-49
-29
-6
-5
-22
-2
5
67
-14
23
-9
62
0
-91
-15
7
-22
46
19
58
56
3
-77
36
36
-14
13
28
25
0
-19
-71
-21
-18
-45
-51
-13
-29
12
72
19
35
11
-63
47
-30
24
-52
-70
18
60
48
127
32
-109
6
79
12
5
-56
81
39
-63
-45
58
40
23
8
-22
-30
-8
58
81
30
21
37
-37
-24
-43
-29
-8
-6
4
-54
-36
27
-14
-30
28
-26
55
-31
-3
44
42
18
0
53
19
28
46
15
20
19
-5
-36
67
38
31
6
2
11
-42
-11
2
-5
-44
31
-46
-25
-13
-14
-28
-23
-58
103
-18
121
25
60
64
23
22
39
3
1
45
71
56
-1
-4
3
-16
23
41
69
34
29
-18
-3
2
60
1
-13
-25
-9
25
25
-15
15
-14
75
-10
48
30
-9
-50
35
-10
59
-35
35
-13
57
7
111
-6
-14
-43
28
-19
-57
24
62
-15
-54
35
0
-21
16
0
3
9
24
-56
-13
-10
-2
33
-21
-15
17
-43
16
92
-13
21
-2
48
-44
-4
-30
26
-25
6
-16
4
60
51
-7
7
-82
-28
49
1
31
29
-35
-20
11
53
41
2
14
-51
55
6
20
-10
14
9
-1
13
-3
1
4
-5
15
-37
33
20
7
-3
-2
-31
-2
-20
-2
-13
-8
33
26
-1
-4
33
-83
21
-34
18
32
-22
30
44
7
18
-25
13
87
18
-1
14
16
26
28
47
-7
-24
14
13
-2
12
11
-20
-21
9
-7
-19
-6
19
18
-20
44
20
26
53
29
-8
-32
0
49
28
15
-17
-16
7
34
34
-40
-42
66
-3
-63
-5
10
-25
-18
23
46
-16
32
-7
43
-25
-41
4
36
-1
-4
53
-25
-42
-12
2
10
-37
29
3
-24
-22
4
2
-14
14
-17
18
42
18
-11
-127
16
9
14
-32
-18
-28
12
-22
26
-1
1
-5
12
34
-32
30
19
22
-1
-27
-23
47
5
37
20
19
-14
24
10
-18
-14
-27
-23
19
6
-27
-4
-30
5
-13
2
29
-25
-4
-5
-20
-47
-21
-40
-16
-35
23
-7
-28
18
-4
19
38
-6
26
-6
-16
2
-7
-49
-40
70
12
-37
-15
58
48
-11
-7
-25
-50
-5
-57
16
8
-25
14
-4
11
-2
-68
51
1
5
43
-36
-3
-1
-2
14
-9
23
-26
-10
-31
13
-4
-10
8
16
-69
17
5
-15
4
20
-27
-13
0
0
-20
9
-5
-19
98
-1
-18
-7
-17
3
-21
-3
-13
-1
12
3
-23
127
-20
13
-3
-2
-3
7
-30
-14
-16
-3
-1
-21
-11
-1
-4
27
-8
3
17
-9
78
4
8
-32
-18
5
11
-7
26
-27
44
8
-2
21
28
-23
-3
-13
-7
7
-29
-28
-32
-37
4
-13
-2
78
-11
11
-37
2
-3
32
-2
13
-15
31
35
-3
20
12
-10
-1
7
-2
-1
-15
-34
24
30
28
15
2
-23
-13
-14
-8
-16
-18
11
-23
-22
40
-22
17
5
29
2
-14
-18
35
-23
-15
15
-66
17
-55
-5
-2
-8
-8
-44
-5
-23
15
15
-8
-36
-33
-14
50
6
-12
36
4
2
56
24
-10
-5
-4
72
16
5
-36
-52
-19
-32
26
-5
-4
-6
12
-11
6
26
-18
-12
-9
-5
-12
21
-22
-28
-17
23
-9
-34
32
-35
5
-41
-7
27
-1
3
-36
-21
-25
-16
-25
50
0
16
24
3
-14
-37
11
-8
-38
-19
27
-9
-15
58
0
-2
4
-5
-25
4
-7
10
8
-1
25
43
30
0
8
29
6
4
-7
-27
14
-34
-9
14
17
2
9
-36
53
-11
36
-6
10
-35
7
-29
0
-1
18
-30
3
-8
3
-74
38
97
19
33
45
-89
-9
10
-21
49
-5
91
-83
16
22
18
16
53
-5
-103
-24
1
-46
17
21
-51
-21
18
-69
50
40
23
-5
15
-21
12
65
124
-66
-8
23
23
16
41
-43
-8
48
-71
-4
2
67
110
-33
20
-83
23
69
38
3
0
-13
-19
21
-67
16
-21
35
23
56
23
-13
-79
-62
-29
19
-29
-3
-48
64
7
-16
-57
-13
-23
-82
3
7
88
54
-19
15
79
99
-14
0
-64
4
-55
6
-32
-50
2
-36
-6
25
30
-35
-34
6
-42
3
39
31
26
20
34
-2
-30
27
-39
-12
62
-12
-48
18
25
-78
-29
29
9
11
-11
-46
30
-52
-28
1
-92
7
-31
21
3
17
-15
1
6
31
-51
-15
-127
2
48
12
-21
3
15
21
-3
9
-113
11
20
33
-28
28
-69
-40
11
5
4
9
39
-20
-13
3
-52
-56
85
-115
-43
35
10
-1
-80
10
18
-9
-35
-48
11
9
-114
-25
-30
-21
60
37
10
-34
-10
89
-95
0
-4
-37
-23
12
-6
40
68
-17
-63
-1
102
-23
-6
-59
58
-19
-126
15
22
10
-62
34
2
-101
23
13
-79
10
92
-45
39
-49
-29
-33
-19
32
-63
20
-20
-20
12
13
-56
-15
49
-38
-25
29
-28
-96
-3
-26
-6
-6
5
6
44
-4
-16
-25
-41
-38
-40
42
1
13
-2
-3
-33
-2
-32
-3
-19
7
15
34
-4
-1
-29
2
0
-8
23
38
16
24
-22
-18
19
-6
-12
-9
-11
-21
-10
25
14
-29
-71
-84
12
41
-18
-9
4
11
-29
-2
-53
1
0
-17
-1
-74
37
13
23
7
2
6
-5
-4
-14
16
-33
18
-3
-4
-8
-3
5
25
2
-26
-9
23
6
12
-33
-6
8
-16
1
-27
0
2
-17
0
-4
-49
28
-7
-3
5
1
0
19
25
-13
1
15
-8
25
-9
10
-13
-3
2
-1
-5
19
-22
-4
38
-15
-23
-25
16
-43
-23
6
-9
11
-1
6
-18
-6
5
8
2
24
-2
-6
4
6
7
-16
16
1
9
-16
8
-6
-9
1
47
-16
19
5
0
6
7
16
-4
15
34
51
-103
22
25
44
127
-29
3
19
-19
-6
48
-4
7
7
15
-11
9
16
27
10
2
0
0
-21
19
-7
0
13
-3
-8
36
-26
-4
22
-5
-8
20
-12
-15
-2
-7
0
-14
13
-29
-7
-5
-15
8
-16
9
16
5
7
25
-5
-39
-35
-19
38
37
-7
-9
-40
67
7
19
-1
-58
-5
31
50
-12
0
14
6
-9
-9
1
-21
61
1
10
12
2
-2
114
4
-12
21
2
27
18
-3
2
-4
5
10
-11
-17
5
9
5
-14
9
0
21
-2
27
-2
-13
17
-15
-8
-18
-1
0
7
-1
-5
7
5
-19
1
-4
-21
5
7
-5
7
4
-12
-13
3
-35
26
5
-127
12
-2
3
4
-6
11
12
5
-20
56
-17
12
-14
-6
64
14
3
-15
13
6
22
31
-20
-20
-11
2
26
4
1
-10
6
-3
34
5
38
10
-7
-16
15
-19
45
-4
20
3
9
-9
19
4
-7
-20
7
11
8
-11
-1
12
12
2
4
20
2
-3
0
22
-5
-8
20
-7
9
12
-40
15
4
-7
8
13
-14
-36
-15
-6
-9
-30
-3
-1
-13
-11
8
4
15
4
12
-2
-27
-36
0
2
18
2
-1
-6
-20
20
-6
-13
-15
-8
-15
4
-53
46
8
0
-2
-23
20
4
-4
16
-28
-10
-2
-6
-4
-31
-6
-38
2
-3
14
4
5
-14
20
1
3
4
-2
-17
-20
1
10
-24
12
3
6
10
30
1
-22
-3
-1
-34
-31
-3
37
-13
-15
-4
4
-27
-88
8
-3
-1
-12
66
39
22
-14
-75
-28
4
14
17
29
-27
31
15
-11
45
9
12
20
2
12
22
8
9
-5
-3
-20
-15
2
-23
8
-8
12
0
54
-50
-3
0
-5
-14
46
-8
14
4
-14
25
10
-5
54
54
-4
3
10
-41
-5
-10
4
23
59
0
1
-57
-36
-10
20
14
1
46
-41
3
-40
-22
5
80
-46
-28
19
5
-37
-50
-22
-13
59
31
-63
1
-5
-1
80
-33
-2
26
-13
-9
0
3
24
37
8
6
3
4
-9
46
-14
64
12
0
60
-18
15
-22
-19
38
26
8
112
-15
-9
2
-34
-62
-44
0
-17
-62
-22
12
-22
11
1
-18
-54
0
2
58
-13
-7
26
46
-77
-79
-3
-3
3
-35
-16
57
-74
34
51
14
24
-61
17
24
-40
3
-40
27
-12
-4
-17
53
32
9
-1
-28
5
-72
4
-8
-9
57
-120
4
-66
40
-4
-19
70
45
24
12
24
-24
-17
7
-8
-35
31
24
-54
-68
24
8
13
-16
40
106
36
13
-33
-59
18
15
-58
14
56
88
38
-8
43
-4
3
25
54
-12
-17
46
1
-23
-65
-14
-31
-16
17
36
-63
69
-11
-14
-6
-72
127
24
26
-31
-30
42
41
25
-37
-23
-4
-6
-4
-21
-15
45
-5
-22
29
32
-8
11
43
4
2
53
-44
33
-84
-37
-13
2
-16
1
7
-24
-11
-18
27
-36
29
-34
-67
12
35
48
9
-44
11
10
-5
-17
3
20
-27
-20
11
-12
-74
17
19
-30
12
-11
46
52
-25
-27
-39
8
-4
17
-39
-1
16
-43
-19
-15
-9
42
-5
-27
-66
8
-48
15
-32
8
-47
-9
15
16
40
-22
-8
-30
4
-19
-1
40
-2
3
17
78
-9
4
16
-19
-21
-49
-9
-9
2
27
30
11
-9
18
33
8
-2
-28
5
-14
-2
22
5
-11
-7
34
4
-33
-1
6
69
-43
1
12
-34
-98
-19
-9
7
-32
9
19
37
49
-20
-13
-23
-27
-4
21
84
18
-56
-31
18
-16
21
18
6
11
15
0
4
64
-10
15
-16
-7
51
-24
-19
-4
34
22
13
7
-28
6
-18
-38
21
-18
11
-16
-55
25
49
2
20
-72
22
18
10
-14
-49
10
17
-27
17
28
12
20
29
-1
-87
11
10
-74
-34
-56
-27
59
7
21
-37
3
29
-7
-32
77
-42
43
-17
22
58
127
20
0
8
2
2
5
-22
41
31
-12
-12
38
23
-13
18
4
-24
57
35
33
-1
-5
-10
76
14
-41
-4
36
-4
-14
23
-7
-8
-11
-21
0
19
21
3
-3
11
37
-19
-48
-39
-20
-10
12
-26
-19
72
7
28
21
-10
-6
-14
32
17
46
-44
-53
28
-41
31
-24
-20
-8
54
40
62
35
-27
9
24
-1
15
9
22
12
-6
2
102
-61
66
19
18
22
36
16
4
20
-9
-23
-6
28
26
2
-28
-31
-24
-127
34
28
-11
31
29
14
-38
22
-52
-14
9
27
12
19
-16
-16
-1
-19
26
-41
-10
12
47
37
37
1
-4
1
-51
8
11
-32
-26
1
89
-15
26
-48
25
-101
-76
13
-39
-3
32
61
5
26
-35
2
21
-58
21
49
-6
-11
-82
-30
-1
21
42
-28
24
38
-8
-26
32
36
-19
13
35
13
17
-8
-121
-48
-22
48
-29
34
29
-28
7
-8
-1
39
-17
8
1
-3
-33
33
7
29
8
31
-16
-15
31
-22
11
-34
-5
-16
10
21
2
10
6
-40
-4
19
-42
16
47
16
-24
37
8
0
16
-21
-24
25
53
38
13
-8
19
-27
-32
16
48
8
-49
15
36
-8
25
-57
12
-23
20
32
-38
19
85
81
9
-16
-14
33
81
30
-29
-26
-73
-5
-5
24
8
0
-43
-108
26
-36
-12
13
-22
39
55
-44
-30
-12
27
5
-19
23
27
-14
-43
-83
42
3
-9
22
56
-17
-46
9
109
5
39
-20
-8
14
11
38
7
28
69
12
-21
16
77
5
14
-54
28
-6
8
-5
23
-12
12
39
-43
20
9
-33
-28
-1
14
21
2
72
-21
-15
-41
28
-25
-6
57
22
-30
0
-68
19
22
-38
5
-9
2
9
27
-41
-3
-127
-78
-5
-6
-5
-52
4
8
3
-11
50
-84
23
35
-31
-43
7
9
10
4
-24
13
-32
-30
-19
-4
26
45
4
-19
-13
9
-24
-7
-35
37
-24
18
-18
0
19
37
-8
12
19
1
5
24
88
-7
10
-3
-5
9
-5
1
-4
37
7
22
-12
-7
-14
35
-23
-16
24
39
8
27
48
30
-44
5
-8
24
-14
-2
-21
-19
3
20
-11
26
-30
-2
18
-29
8
14
-9
10
16
15
16
40
26
18
11
11
-1
-53
-7
-3
-24
37
-22
13
97
1
48
20
-15
23
-16
-1
25
-12
-25
27
38
-8
-68
-61
-3
9
45
-3
-20
-3
-4
-3
-15
-2
0
-16
6
-14
-34
2
-19
82
39
12
6
-15
-22
-16
-24
3
17
22
34
5
15
-1
0
40
-5
21
-17
-19
30
-13
-3
-37
23
-3
-15
8
53
-4
37
-57
-32
47
5
-24
-15
-63
-30
12
42
-19
11
-11
11
-20
3
-9
-9
-6
20
-26
22
-33
11
-11
-35
-38
-5
-10
-12
61
-18
-16
-64
24
-14
6
-21
17
-14
-1
-1
11
9
8
25
15
23
-17
18
16
22
53
2
2
14
-24
27
33
-17
-36
-1
-20
1
-11
-88
-2
-32
7
-9
16
-5
-81
-37
-3
19
14
10
-14
-8
4
7
13
-20
-15
-5
-2
-6
17
23
9
3
-13
5
36
5
-6
-20
68
7
71
-18
36
-14
12
24
-2
15
0
-13
-127
-22
-14
12
-14
29
13
-1
-8
22
-13
0
-4
-10
-9
-3
8
65
-10
-6
2
2
-2
-21
-30
4
12
5
12
16
-4
-13
-2
-16
-15
-44
5
-2
-5
19
4
2
-4
27
-4
31
62
3
8
4
24
7
0
8
17
-9
-3
5
-5
56
-28
3
0
-4
-22
-13
-17
-12
-6
2
0
4
21
27
10
5
-10
64
20
17
-43
18
16
-1
18
59
75
-34
-2
3
4
2
8
-16
2
21
-15
15
5
-16
23
21
-2
-1
-20
0
7
5
13
8
3
-13
-29
-11
-14
17
4
32
24
12
14
25
-22
17
-7
16
-2
-7
-42
15
-23
49
6
7
-21
-119
-12
-27
-41
-5
-21
-9
2
-4
17
-29
-21
-36
-24
-21
2
1
-3
7
4
27
53
32
-29
-1
-2
6
-28
17
-9
-8
1
19
-11
-15
5
-24
-2
-10
14
6
-7
7
1
36
-59
-4
-11
-8
-30
-1
7
-4
13
-22
-25
9
-30
-7
43
0
-43
52
-4
-17
11
13
19
4
40
0
15
32
-14
23
6
-6
20
31
-2
14
-27
-4
-2
-47
-21
18
-1
-9
-21
-8
4
-22
7
-8
7
-24
23
-24
24
7
-27
127
15
26
-29
16
16
-3
-24
-3
-3
10
-24
10
20
-10
-8
-5
14
-13
-16
30
3
-31
34
14
75
7
11
-2
7
-1
6
-2
47
-45
-2
14
-13
20
1
13
9
8
33
1
-4
-2
-12
24
-28
-2
8
-1
-6
36
-3
-7
-20
31
42
44
31
-51
-31
0
9
19
-1
-28
1
33
-15
2
-10
9
37
-32
-5
-27
15
0
-7
4
-18
3
8
-5
9
1
10
2
-2
-23
22
31
4
-57
28
10
17
10
0
14
-20
14
16
-7
-7
-11
1
-7
-20
-7
-10
-4
-8
-23
1
-58
-15
-19
-31
-5
12
-4
2
-17
-7
4
9
-33
10
-11
118
16
-19
-16
4
35
12
13
0
-11
-6
-20
5
-9
0
-19
5
12
5
1
-4
-8
30
-13
-51
22
-10
-1
-8
-19
-6
78
-11
22
21
4
-9
-3
13
31
-3
20
71
13
-11
-28
18
-5
23
-11
4
-6
0
9
1
-30
15
-2
31
6
16
7
-31
6
-16
28
55
-1
-47
3
-6
11
-29
0
19
-62
-21
5
24
-12
53
-10
-72
-12
19
-6
-11
-22
3
2
-19
-13
3
40
4
-35
-32
17
15
-8
-3
12
-31
-7
37
23
-43
25
-8
-25
4
23
-5
14
15
23
54
-20
-1
13
-58
-37
-54
-3
-23
20
-50
-20
13
22
0
-30
63
15
6
41
31
3
60
-45
-32
5
-5
-26
-28
-28
115
-14
-8
13
-28
80
56
-29
-4
18
-57
5
28
43
2
9
53
-39
-5
18
-34
16
-1
7
33
-23
-1
73
-52
29
40
28
10
28
42
12
-49
5
46
47
93
-68
47
29
-15
-40
-28
-25
18
-41
-10
34
64
3
12
-13
19
-8
-47
35
30
17
48
1
-4
11
-21
16
-33
-10
-4
-42
-20
-25
-51
-9
-1
7
-32
-14
49
3
-54
-11
-23
15
9
-24
-67
74
-17
17
-2
-35
39
-18
27
-22
7
-46
-20
-33
-98
24
27
-38
6
-55
-33
5
-36
-62
-19
20
-16
51
-40
-56
-17
5
-28
-32
40
-3
-24
75
17
-20
10
-69
27
-37
30
100
80
-26
-80
4
-25
-127
-47
87
-25
-39
-6
14
-7
-32
54
-8
-20
25
8
8
33
-12
-24
-31
62
19
52
-8
-28
28
18
0
12
-6
8
29
-34
28
25
90
-16
2
45
-34
-18
1
-1
41
71
8
-17
56
21
-57
41
-29
-101
57
4
-8
15
-11
1
7
-2
-58
12
63
57
57
-28
-8
-22
10
-25
39
115
-32
-58
-3
22
-55
0
5
-29
-2
23
-13
-36
29
-25
-4
-4
25
-10
-3
69
25
-49
-70
-101
-2
-59
28
-32
47
43
-12
105
38
-6
14
58
46
-26
-77
-29
-6
-83
101
5
2
7
46
-30
-28
-36
-28
-7
23
12
2
-70
-63
50
-45
-73
-17
2
32
-26
-65
-48
7
24
-11
-89
38
-10
73
-12
-81
-44
-46
-40
-34
6
13
15
-80
5
41
-29
-67
-36
-43
-36
51
2
127
35
-45
-49
55
-55
-27
13
3
64
35
14
17
-2
70
-60
-79
14
-114
-24
11
-1
22
-63
-10
-44
61
-54
-6
-36
23
-22
-14
-51
37
49
16
-68
-16
-16
87
-18
43
50
35
85
-64
-32
-13
-78
24
8
13
-9
51
-12
34
-7
41
34
-114
69
10
-89
-18
-35
-48
-1
-5
-19
-4
4
-41
9
56
-17
-15
-54
-9
-37
63
-36
-47
10
11
41
70
37
-26
-17
-58
55
25
-64
10
20
-22
-20
-35
-21
51
18
36
76
15
-46
3
-24
-7
-37
-74
-79
45
83
-9
-73
57
31
52
14
59
24
39
79
2
62
-72
13
-35
37
30
-73
62
-19
51
-32
41
-34
-19
-19
25
57
-1
63
-1
-43
57
-13
-34
-8
68
48
22
-5
-2
30
29
44
-14
19
-7
-4
-39
-40
-40
-43
-14
3
49
65
-18
-49
6
-16
-53
-6
12
-26
-15
-27
31
42
48
32
-5
13
40
22
41
31
30
-9
49
75
-35
-48
52
7
25
-29
77
-34
-7
-8
-21
-4
95
8
44
-12
-34
-4
-8
-63
56
11
-18
-11
-21
-9
33
47
-4
-53
-15
-25
46
-18
3
10
10
-15
-31
1
-45
30
28
-35
77
-2
-32
69
-36
38
24
37
-21
10
74
41
-36
10
0
-57
4
-19
7
41
-18
-38
40
-85
-30
-3
-3
-18
-60
34
-32
11
-6
-15
-27
-8
-23
115
44
-14
-53
-69
21
-31
-30
14
12
30
-29
17
-24
-17
-11
-5
20
-23
71
1
-29
45
40
39
-27
-4
5
18
9
-24
-1
18
4
4
-27
59
-46
-23
3
26
-8
-39
23
-23
-40
-4
38
-25
127
-50
-22
10
-51
14
66
-19
-23
-5
7
4
37
-28
-47
42
-15
4
-2
27
-2
-65
-24
39
32
-20
-13
39
-18
54
3
-11
-19
24
-28
24
15
-11
-40
-28
-38
-17
-79
-30
5
39
-29
55
-35
79
20
-19
22
-47
18
41
-40
6
40
-96
14
14
22
-42
10
22
30
20
12
-13
33
9
-3
18
-42
-37
-15
-62
47
15
43
-8
-48
-38
3
-27
-44
-29
-27
15
-24
3
15
-45
-12
-21
-5
-73
-3
-17
-67
45
-19
-61
14
20
13
-60
7
-18
18
-7
-69
25
12
18
-29
32
5
-7
-33
21
-54
-31
-12
-9
13
28
-10
-10
-7
26
6
-6
-39
5
-4
27
-19
-82
-3
-16
-26
9
12
-21
35
-1
-69
-26
22
58
17
-8
-22
45
10
6
-20
-49
0
-18
-42
16
-10
32
-54
36
33
-45
-20
-1
0
-15
7
16
-28
-12
-41
-11
29
-5
51
-30
-13
0
-4
-15
-63
-66
0
6
-47
42
-29
25
-7
10
-53
19
-46
5
-12
2
-6
-32
28
16
-15
-39
-31
-15
-4
-16
3
-27
11
-21
-7
127
-14
-39
-6
-29
-47
-21
-42
20
-52
-44
15
-6
30
40
14
7
12
20
23
-15
-9
21
28
9
-16
-54
-8
-8
23
-8
-47
5
-41
0
57
16
9
5
-21
-52
-2
-10
-8
24
33
16
-12
-43
-3
-39
48
9
7
-43
-8
-9
-25
-23
-3
6
-8
-6
-24
25
-23
-37
18
-46
10
1
-13
46
-45
-8
10
12
2
-45
-48
26
7
45
-9
32
6
13
-19
23
-43
-21
27
-22
0
20
27
3
-4
-9
50
34
42
5
47
-4
-1
7
-10
-9
-12
-13
-1
35
0
-12
-77
3
-3
16
45
-29
-16
47
7
18
11
-9
0
-6
-24
-114
24
2
-3
7
2
-4
39
-29
13
-24
-7
-18
-4
-49
7
31
-64
16
-29
21
24
44
-1
-19
27
-45
-6
67
-27
86
5
-67
0
17
41
17
49
-26
-9
14
-67
-18
2
-84
-60
31
87
-21
-64
-65
-104
-79
88
26
15
38
-6
25
-81
122
17
-25
-61
33
24
3
26
-7
18
-17
6
-30
67
-66
40
75
-13
2
8
13
-43
-49
-17
39
-116
82
-15
65
31
29
8
-28
48
86
46
31
-21
63
31
18
7
30
2
-8
20
24
51
-13
-18
-45
12
22
-1
-92
1
-12
47
48
60
-4
-4
-49
-9
33
70
-4
-35
-19
27
-84
-9
-15
-3
-17
47
16
29
19
40
24
21
-67
24
103
-71
-29
-27
61
-37
12
41
66
49
21
23
33
-101
1
-89
-70
-36
8
-5
22
-4
3
-25
-29
-3
4
-9
1
18
-49
-9
-23
-82
46
-49
-45
127
18
-34
-23
62
-124
-3
-31
-1
-55
-11
30
25
-64
-40
-25
-44
40
19
-56
24
-97
-66
16
-49
121
75
57
10
125
59
59
-29
-53
39
-34
66
-7
0
42
-38
-71
-5
61
-43
-51
-3
-8
36
-5
47
-1
-31
20
-10
-35
-23
13
-36
-56
27
39
-25
-2
-27
-72
-31
-89
26
33
-15
-20
74
30
44
-2
126
-23
-10
11
-38
19
42
-4
30
-9
-105
-43
-28
-12
32
-73
5
-25
-8
27
-10
-1
6
2
-43
12
72
51
-12
10
0
-20
-19
-2
35
10
-3
-29
-27
-5
4
-18
32
-15
-19
1
23
15
5
0
-90
-34
-20
7
9
-6
15
64
-13
2
-7
-7
-28
-24
-32
12
-25
-12
6
-2
2
-9
-40
-37
13
19
14
19
21
35
-5
7
-23
-127
-17
-15
58
29
-8
1
2
-22
10
-4
-32
33
-5
1
33
-47
25
4
23
35
4
2
-10
-2
-32
-5
-4
-4
-15
33
-2
20
15
-54
-12
-9
-17
33
6
8
-24
-12
3
16
10
1
13
8
21
31
-39
-56
4
22
26
57
-6
-15
-17
66
14
20
2
32
11
-2
-14
17
1
-4
1
28
28
-49
23
-13
2
-32
3
-5
24
18
-9
-15
-10
1
-3
21
46
-32
16
-41
23
0
43
4
0
-3
15
13
-2
4
57
12
-69
28
1
42
-18
15
14
-31
7
34
15
8
1
28
37
-41
-11
38
-81
8
-15
0
35
-12
-29
27
-46
-42
-1
27
-17
-24
-11
2
-57
0
41
-23
0
-2
-123
46
-9
18
-32
5
-4
25
1
57
-7
-54
33
19
-5
0
-26
13
-11
-8
0
-28
53
-40
-17
-27
-8
7
17
-9
-3
11
-22
39
-61
-18
13
4
-45
-35
-10
-16
30
19
-39
-47
1
-35
-44
97
-13
-16
-46
18
24
80
59
-7
-97
2
-54
-44
-16
29
18
-16
53
27
-52
3
-48
35
-2
43
-54
-54
27
-10
71
17
-17
17
49
49
-14
-80
10
54
0
-22
25
85
1
21
-100
13
25
-6
40
12
75
14
-5
92
-31
-4
19
-33
8
23
-36
113
12
-9
-127
12
-113
6
49
-41
-89
44
29
-7
-5
-16
34
31
-24
58
7
46
-53
7
67
-21
-48
46
24
11
27
46
-25
-52
85
63
-29
-76
-3
28
12
9
34
20
13
-19
10
8
22
-83
44
-8
-81
-3
-18
57
57
-6
30
2
-21
16
45
1
-2
-31
15
121
11
-35
12
19
-39
-5
110
7
54
26
-30
-58
88
-1
6
41
-23
-39
-111
17
37
-4
40
-14
20
-35
-6
11
-19
0
-12
-2
-13
64
16
-42
4
26
-75
-36
7
0
-108
-64
-9
-72
14
-43
14
8
69
-22
1
-34
71
15
-42
-13
34
-39
-37
19
-33
-27
-25
4
72
80
3
57
-16
9
49
-115
32
39
1
-32
5
47
28
-6
83
-50
52
19
17
-46
61
-33
-22
-18
-12
-1
16
11
67
41
71
66
-34
-20
-32
24
-39
63
-54
0
28
-55
-43
15
-65
39
-3
-32
-94
13
-13
-51
58
-28
-29
-14
72
0
127
19
-12
56
54
-5
-15
-27
-14
65
-24
-18
-21
1
-4
2
37
-50
18
-19
-32
-7
-33
18
108
8
22
2
31
1
-30
-52
-54
14
-6
13
10
-2
-19
-38
-4
-53
14
-32
-29
27
-18
14
-6
-26
71
-87
-95
-81
30
-6
-36
-52
15
-19
-79
-29
43
-21
-22
-30
29
-28
-70
3
2
-2
7
16
-32
38
9
21
22
54
33
-53
49
41
-7
-38
-11
120
-6
52
39
12
-35
95
-44
24
-82
10
2
-3
-55
-55
-13
-2
20
44
-6
-26
-20
-64
0
-12
-72
-6
-11
3
-41
-7
-47
39
7
6
-36
47
4
62
-1
-10
18
-29
-31
-13
-16
-17
14
26
-69
51
-52
-9
18
-37
-17
46
-19
15
18
-52
-52
-101
48
14
31
26
32
-5
-125
30
-32
-22
13
-2
-52
64
-106
97
4
11
6
-66
-16
-1
-5
-16
31
-29
30
70
-5
-3
-19
69
-23
29
8
61
-3
4
7
61
-51
23
51
-29
13
84
-113
-105
-54
-9
-27
-5
-6
-63
105
-98
-6
-58
58
29
55
17
62
-1
-32
46
24
42
-12
34
54
14
20
7
-43
-45
-22
23
23
6
34
8
52
-54
-11
16
39
49
1
-66
-97
-1
-26
-40
123
-3
-69
-45
-40
-10
35
27
-7
11
-31
-31
15
-38
-32
64
-38
-80
-2
22
-66
-17
-17
5
-19
20
-38
-11
-25
52
-30
5
21
11
-24
41
-81
-43
-1
21
18
-39
-23
4
-4
-3
-33
14
30
9
-38
116
7
-12
41
36
-32
8
31
-19
-13
2
12
35
-12
41
-42
-35
41
49
-35
-26
-8
-104
27
-15
-30
-96
0
7
68
11
-2
48
10
-74
-12
0
-8
-18
-52
119
71
28
26
-25
29
-25
-20
19
-52
16
-17
21
16
-6
0
-17
-37
-4
-46
-24
51
-37
6
-8
18
6
-29
-23
-9
-39
5
-22
-30
26
-32
18
-91
29
-13
-9
48
10
60
-16
64
87
-3
-17
-24
51
40
23
-23
1
-14
39
-27
-7
-17
15
4
-78
-3
69
11
-1
71
78
-19
39
-5
19
12
48
76
-17
-61
-19
2
-1
-86
60
31
-43
4
6
-23
10
-1
-41
2
37
-1
6
-43
41
-5
-41
-24
-19
-16
2
-11
-19
-1
8
61
-50
35
12
37
-64
-9
-22
35
-41
6
32
-3
-9
86
24
13
-21
-16
24
6
-30
-36
5
-63
-33
24
48
15
15
13
25
-23
-29
25
15
23
-33
-36
-15
5
-6
3
18
34
31
-127
-4
1
40
57
61
57
35
36
33
10
-46
44
63
11
63
14
12
5
-5
-3
-2
-15
-51
-5
-28
39
7
-13
-35
-42
-22
-53
40
0
-19
60
-33
-26
3
31
-1
27
32
37
26
-4
8
-36
96
-4
-11
-18
40
-23
-6
-12
19
85
88
-10
29
-74
9
-3
0
-30
2
-14
12
22
40
49
11
-15
-15
-6
-22
26
10
-75
-24
-12
8
14
-24
-12
-43
-50
12
6
-46
29
-21
-43
-1
53
-7
-42
-15
22
-7
9
-2
-15
-19
-4
-50
-50
92
7
18
-7
-27
8
-6
-19
-26
30
6
20
5
26
23
3
-30
-74
3
-2
-9
-26
34
2
-22
-19
15
-52
17
12
-9
-28
-6
-23
-41
24
2
11
2
21
-51
-23
-15
22
4
24
-10
17
18
34
-26
8
50
8
58
50
11
-64
4
-46
-55
-5
-25
3
13
-4
-41
-33
4
18
30
52
10
10
-24
-20
-22
-48
44
1
-18
17
13
-14
30
7
8
36
32
26
-21
-35
-27
28
23
-46
-5
-58
27
-6
11
-6
5
35
-24
-8
-2
0
-35
-1
-26
-14
-46
15
-44
-12
-10
-13
-31
17
2
19
11
30
-27
40
-17
53
3
-6
-24
80
8
-11
12
-24
-27
-30
-77
47
-10
-10
-23
-18
-53
8
12
12
30
-13
100
6
2
26
-41
-44
-3
7
127
1
16
59
-6
-3
113
-41
11
-88
-35
9
1
20
-53
6
-13
-15
13
21
14
4
-34
10
-15
32
13
32
1
-43
-2
4
34
-3
6
17
30
-47
23
-7
57
46
-2
8
-10
27
57
7
5
-46
12
-9
-14
28
13
-27
23
20
-15
5
-27
4
14
-13
72
-33
22
28
-4
2
37
-127
-1
-8
-32
39
52
36
-58
-13
-2
-5
33
-16
45
67
19
-17
-37
17
-58
27
42
33
13
-14
-15
21
39
-48
-11
13
23
-36
10
-7
12
-42
11
31
41
21
41
0
-97
6
-34
44
10
-59
45
20
35
-4
37
-12
28
4
13
-17
-14
6
-88
19
-25
-11
30
67
16
-12
-21
1
44
34
-9
-12
23
10
-38
56
1
-26
-3
0
-38
64
-9
29
-19
-1
4
52
0
-26
-23
38
34
32
-1
8
-1
-48
-40
0
6
10
-86
-11
-32
-17
-36
-23
-12
-15
21
12
17
13
5
-1
-29
-17
3
-110
-6
-40
18
-2
-4
19
24
6
48
-25
11
35
-55
22
35
28
-85
6
-32
-6
-124
25
-2
-30
24
-5
15
20
22
-29
-15
17
49
9
-53
0
39
-22
-1
-3
-22
17
-28
18
2
26
-47
4
2
-11
27
25
0
45
48
12
38
17
33
-19
-14
31
-18
15
-7
-20
18
-8
33
-16
13
-23
3
-7
11
-2
42
27
-47
100
24
-52
-88
-13
-48
28
-10
14
-45
39
34
-9
85
-16
0
-7
-3
24
127
22
15
13
-33
1
-39
-29
19
-21
35
16
5
-6
69
-46
19
-15
36
14
2
6
14
8
-3
-3
-20
-24
15
10
-18
-2
27
-20
47
-5
21
9
35
-15
-35
15
-23
5
-14
0
-16
-12
14
-30
-46
-11
-14
3
-53
19
-41
-3
-15
16
34
3
3
-17
5
12
10
-22
32
-20
-42
-11
5
8
-33
-20
9
9
4
16
-21
-6
-21
-23
49
4
-69
-4
20
41
10
-31
15
22
-2
-7
-21
-42
9
-49
32
-8
-5
-1
22
4
15
-11
41
5
-6
-12
-1
-21
34
-2
-21
19
-46
-17
3
21
3
-16
-2
-28
-33
-2
-31
39
-8
-6
17
-5
-79
54
-11
26
-44
5
19
1
-5
-29
-27
80
-3
-12
7
7
-5
5
-25
-22
-17
18
-44
-58
3
-6
-4
-5
26
16
3
20
27
24
-5
16
16
-29
-53
0
55
-15
-10
-46
-27
-71
-3
-3
31
-11
20
-88
44
-13
-6
22
6
13
-24
-12
-58
16
15
-47
-28
-2
3
-52
35
6
-15
-2
3
35
24
-41
-10
3
-17
27
4
-15
-33
16
-26
-13
10
-7
2
-22
-5
-19
12
-11
-16
11
32
-58
-12
0
-46
5
84
41
-72
59
-99
93
-91
23
-37
-8
-29
-43
32
-43
-65
70
-21
40
-56
-15
71
-51
-8
4
-118
20
17
0
-25
-100
1
6
-35
-73
-10
-101
127
-54
-40
41
-4
92
-57
-54
-3
-31
-24
127
-10
41
41
33
-54
13
3
-85
45
-11
35
4
-35
79
106
-7
90
-53
-45
31
14
-13
62
-7
-92
-32
-64
35
-10
10
12
-45
5
79
-7
-30
-40
77
120
-58
17
-9
-67
4
-42
-8
-15
-39
40
-11
14
0
12
17
2
42
0
47
-25
-75
14
44
-28
-69
71
4
23
-62
71
46
123
-116
-8
-34
-55
57
33
-37
7
11
3
-26
-32
-26
31
-52
38
-13
-60
-64
-25
-60
62
-26
-47
-6
25
-48
72
-22
-54
21
0
-34
-13
23
8
-18
11
95
-25
-4
-39
-6
28
-38
20
95
-10
-19
-32
-58
-4
-44
-109
16
29
-43
30
-19
42
71
-10
-44
44
20
8
-4
-40
13
-53
-21
13
-71
-42
7
-46
54
47
72
59
41
-2
54
-25
-23
30
-3
36
-36
-45
8
0
-13
30
-51
44
-1
48
-28
-52
-41
28
82
-10
-37
-15
26
28
-49
-49
61
-57
11
-20
-26
-76
-1
-109
-70
63
41
-17
-96
11
-81
112
5
-58
64
11
-119
-46
51
7
-20
74
0
58
-47
3
91
-52
-17
-37
4
-56
-21
-35
-58
-32
99
21
35
-35
-39
15
10
37
68
88
5
-14
39
25
-36
-49
-64
-27
82
16
-16
-9
14
7
-61
-53
-16
-6
26
14
125
47
9
88
28
-31
-24
63
-13
9
-9
44
27
-1
-13
-14
8
120
2
111
-61
-18
-29
-53
27
-40
-42
2
-24
18
-7
19
39
85
-71
-30
16
-75
-3
-10
100
18
29
13
25
30
-40
14
5
31
-67
-31
-63
-11
26
71
-36
39
106
-81
27
1
-3
-67
-38
-43
-33
18
44
4
7
-16
-42
11
-74
-7
-42
-35
30
-69
-11
48
1
-19
-41
-71
-45
15
-31
-30
-26
124
-19
-17
-35
-20
-15
32
-48
-56
-87
-45
20
14
-18
35
-88
102
7
66
-15
-51
-4
-10
-48
-34
-10
30
15
-3
-8
-11
26
-29
14
-43
65
-28
20
6
57
-42
-29
30
-5
-35
16
-49
24
-23
2
13
19
-6
-11
2
59
-57
-80
-13
-21
-5
-47
4
-5
-6
20
-20
-13
-8
-29
55
24
-85
77
48
24
-9
-7
6
65
16
-8
-22
-30
-51
7
-94
10
28
-15
73
18
-36
9
32
-25
-68
27
64
-47
31
-49
7
13
-11
4
127
3
-11
-23
17
116
-9
-36
42
-16
62
-12
-5
-6
-62
84
-32
-7
-23
40
2
-33
18
-46
4
4
20
-79
8
-76
20
7
-28
-15
-33
7
-14
-15
83
49
32
-5
32
13
-6
9
-10
-1
35
33
18
0
-4
-78
5
17
-17
-8
-13
81
-75
20
42
-10
-18
8
-86
-50
6
-50
-30
-10
21
-38
-1
32
11
-25
3
31
-24
-29
-12
-5
62
3
33
-53
-3
69
-28
-17
-38
-36
-16
-22
-16
17
-59
-7
37
1
9
22
5
-8
19
-16
36
-44
-34
28
38
-25
21
-4
-2
50
-37
-2
12
-45
-46
-45
-1
26
9
-13
32
-42
4
14
-35
-9
28
47
25
-22
28
21
-25
13
-30
-53
-31
15
1
-10
-29
-25
34
50
46
-16
4
13
26
15
-33
41
-17
21
-9
7
-21
-127
-26
-10
22
-62
-19
-48
-47
-2
15
-5
-27
-3
-16
26
31
-9
-21
22
28
-61
43
-42
-24
-46
-19
-8
-9
-20
11
-16
-1
7
-10
25
-2
103
18
-38
-29
-10
33
-16
-48
-33
-13
-56
11
-27
47
-6
-4
-70
-21
0
-34
0
60
2
-16
-49
66
-58
-96
-66
10
-27
15
4
8
6
-6
21
-15
97
-28
-5
9
-6
-16
1
83
25
5
-29
23
-53
-26
-27
0
-29
2
-15
34
11
28
-18
-61
-40
3
6
6
-127
30
-24
-35
-23
-9
10
15
-5
18
-100
27
-58
-4
15
-63
-19
-14
-63
24
11
-3
-9
50
-1
-16
11
33
53
13
11
28
37
-40
29
7
26
63
22
21
4
19
-14
10
-17
6
-18
-18
-46
12
-42
-50
-13
-26
-5
-67
6
46
25
10
-71
16
-54
17
-12
11
11
-29
-68
106
-67
-5
-33
-14
-10
17
19
28
51
-29
-23
1
14
-20
10
-26
4
54
43
10
-29
-4
6
56
-27
21
7
-38
-19
-21
27
-15
-10
24
-18
5
-44
23
-60
15
-29
-62
11
-4
-40
-22
-23
0
-12
-10
12
-14
-35
54
46
-4
33
-16
20
-5
-54
12
-54
45
43
-79
8
17
37
-5
-20
-18
13
-9
19
-35
38
23
-22
-5
-37
28
22
15
-19
-1
9
22
-16
1
-1
-52
12
-20
-7
15
10
-28
26
64
4
-26
23
-1
-45
-8
-74
-16
6
-18
-8
19
51
-25
-46
5
87
36
19
5
47
79
-11
5
-13
-48
-6
30
62
-49
-29
20
3
17
-3
-57
30
-20
-22
-12
8
-25
-66
48
64
-21
-24
-22
-5
46
-42
-11
49
23
-41
16
-26
33
-4
-37
5
-13
-48
21
-35
59
-34
24
30
-1
-10
-13
-11
2
-55
-59
39
14
-42
20
-33
6
-4
16
27
30
-28
-7
30
-68
-9
-15
77
23
-30
28
30
2
14
34
-34
75
38
-5
24
29
39
24
-26
-74
-22
-32
108
-44
8
-22
3
24
-12
23
16
-62
-11
-13
18
-89
-12
-18
-74
6
-2
-8
-13
13
1
-35
-17
-10
28
13
-28
27
-37
10
114
-11
107
57
-5
3
-19
125
-36
-43
-25
51
5
-58
-4
-12
-50
2
24
51
-32
2
-26
-19
-22
38
-13
6
-17
40
-38
22
16
-7
-39
-49
-12
-26
-44
16
67
-34
-8
-56
-46
65
33
-7
-40
-8
70
5
-22
-7
-12
-43
18
-42
-60
-9
-28
-39
-6
127
5
30
-20
66
43
88
4
44
-11
7
20
-13
-28
-1
43
55
-34
-50
3
-45
-36
-15
24
61
104
-11
-37
80
0
-14
-8
-54
-70
-29
-36
-6
-63
-20
-25
110
38
-30
31
-37
4
13
0
-30
26
-43
-34
21
-7
-24
-1
-22
47
22
18
5
127
45
81
-3
-4
24
-7
-32
-39
4
-15
-51
-62
18
6
11
29
81
-10
31
13
34
23
-7
-15
-26
-20
35
5
-24
-18
-40
10
15
-15
41
-23
-3
39
-7
-23
-9
-42
47
-12
-2
-6
37
62
109
19
22
-49
-24
14
11
-116
-55
20
20
-19
19
-35
-29
18
-16
-7
-9
-17
-32
37
-29
-23
-31
20
2
-12
8
2
0
-4
12
23
1
35
15
-14
-12
-44
6
1
7
-7
-25
-21
7
-3
0
39
-18
7
-2
-28
19
0
-16
-24
-1
-40
-18
2
11
10
-5
2
21
12
-9
-15
-117
60
127
-8
-8
14
4
-7
2
-11
21
26
-21
20
51
-14
24
24
7
-13
15
19
-42
10
17
-23
10
-1
-33
-14
-51
29
-3
8
-6
4
-23
-7
-20
-43
-5
12
-30
-9
89
-24
-2
-21
-16
-20
16
7
41
13
-5
19
-16
11
-18
-39
-8
5
-9
-19
16
12
29
1
-8
-19
0
8
-18
15
20
-14
-7
-14
-28
-24
-11
-25
24
9
-5
-15
8
6
23
-6
27
27
-3
2
-2
-19
-2
-1
12
26
-14
-39
13
-14
-7
-46
-28
-15
-6
7
1
-10
-7
28
-8
-6
-14
24
-49
-5
22
100
-69
-26
2
17
11
-5
-107
-5
-4
-5
-38
-28
-13
20
-5
-42
-12
14
4
-12
-21
-6
6
31
-58
-36
23
20
-25
10
16
-3
8
1
13
29
-30
-6
-26
0
22
-7
-2
20
11
-8
-10
-4
-33
-23
-11
-13
-34
-8
31
40
-1
-25
18
-29
-16
-14
-2
14
0
33
-21
13
-25
-13
31
-33
21
-15
-22
3
36
40
-18
-7
-25
-17
50
-24
-17
49
-6
-31
-55
-3
15
-6
-16
127
-46
0
-22
4
-8
-43
31
-8
2
7
-37
-47
-1
-99
-6
16
-17
-30
-2
-30
10
-36
53
26
19
6
4
2
-9
7
-7
21
18
37
-19
-38
-18
-1
-24
22
-3
26
-7
63
-70
31
-18
17
-19
21
-39
23
-8
-45
-43
-8
-10
-45
24
20
-2
-15
1
-39
-72
13
-78
-30
-20
-20
9
-40
-2
-17
-21
-34
3
-37
-34
-32
23
12
-23
23
1
-3
-7
12
46
16
25
-6
8
-31
-33
18
46
-15
35
-40
30
22
-33
49
6
2
-51
-8
-53
-29
-27
4
-40
-14
-26
-15
-53
-16
1
4
-17
-56
-3
-21
12
-22
-7
-32
3
-12
-26
-44
-16
-14
-4
40
14
30
15
0
14
-14
-54
34
-35
-8
10
15
33
-45
-33
23
7
22
-16
-12
-75
-12
19
-21
36
11
-1
21
9
-12
-14
62
11
-60
22
8
-10
2
29
23
-33
19
-10
15
19
-2
16
1
-11
79
-23
-50
9
14
30
-2
-40
-2
-18
-17
-24
15
28
-10
32
-40
-7
-4
-15
-6
27
43
-27
-37
43
-30
-57
-76
-2
1
-6
10
3
2
-45
7
-14
21
-48
2
2
-30
-30
-18
22
20
28
-44
38
-15
-37
-19
42
-43
8
-19
33
1
29
-38
-68
-52
-18
-3
14
-24
17
-6
47
9
11
27
54
-125
23
-36
6
-14
43
10
14
19
44
35
-52
-25
7
3
-18
14
18
-26
29
-55
-25
-9
-80
16
-42
-13
-14
1
4
-37
-127
2
17
20
-7
-2
-3
-74
-7
-22
15
32
-36
4
5
26
13
26
-14
-27
15
-13
-9
31
-41
-31
82
-41
-21
-40
2
-77
19
5
-44
92
-23
23
47
-15
-30
17
13
7
-11
17
-33
-3
-8
-53
-7
29
1
50
12
-18
-13
-41
-14
5
9
2
-11
26
-26
5
43
19
-46
14
7
-20
3
-8
0
14
-18
10
3
59
-15
-30
6
4
22
58
-2
-16
-13
-8
-20
15
35
29
4
12
17
-20
-22
-4
-36
-65
0
11
10
-37
17
19
8
-2
7
-13
-10
20
35
-48
-9
-15
27
4
19
-25
18
-32
-18
31
7
-3
-18
102
9
4
-11
15
-38
-41
4
26
-3
29
6
-6
-73
31
-32
41
22
44
28
47
-3
-25
3
36
29
-11
-46
14
5
15
-35
26
-50
-19
-35
20
-41
-6
-25
-12
19
-19
-47
63
35
88
-58
7
13
41
-47
73
84
16
-40
-31
7
28
-9
11
17
26
5
5
4
34
18
-8
28
6
2
3
-19
1
-29
-60
92
-28
0
22
-16
-22
-3
6
7
23
-16
-40
-8
-6
4
21
74
-18
13
28
19
-6
68
-5
23
-20
-102
-40
39
-19
17
11
-10
-11
2
-48
29
37
-15
-110
-49
-16
19
71
20
-7
-46
-13
-13
-37
-27
44
-15
62
-69
-25
35
53
-19
-15
-4
1
54
27
24
48
80
7
11
69
18
37
26
-31
4
-33
-22
32
-4
39
61
36
43
38
-23
39
27
-2
23
-5
7
21
33
11
45
18
57
-61
34
4
19
49
8
-19
8
-17
47
-2
-39
-28
76
0
-17
47
-21
-8
-30
-6
63
-64
-30
51
-4
25
-25
-14
78
12
17
40
10
-7
-65
9
-12
-17
93
-2
38
-35
-7
-24
15
4
25
-26
-19
-70
-5
12
-17
-48
10
-68
13
-29
11
54
20
-17
90
-40
49
-6
0
35
33
47
-6
1
-22
40
31
-37
-10
36
11
-19
23
19
9
-2
24
-6
-24
-5
-27
-39
-28
49
24
-16
51
53
75
59
10
22
28
0
23
-9
-7
12
22
-20
-26
39
-43
-37
-99
69
-38
-63
-20
-20
-31
-13
7
-30
49
-127
33
6
62
32
39
-21
-7
-1
88
8
-28
-1
-23
-7
-34
64
4
-5
52
-46
-36
1
-21
-77
-25
8
58
-13
48
50
-10
-12
49
9
37
-22
-31
57
-13
32
6
71
54
123
85
3
-31
-18
-23
-17
-93
21
33
39
79
5
-82
-28
-9
41
-25
0
60
-49
42
-24
54
17
-22
-20
4
-51
-21
9
73
21
-10
-2
11
-6
22
-37
-1
-70
33
-6
-12
-30
-13
-20
3
14
1
1
-2
-12
-26
-17
-7
-31
59
-9
30
47
13
76
-14
27
17
10
47
30
-72
-4
115
-50
-45
18
-10
4
4
-23
32
7
-28
-13
30
70
-2
3
47
-20
-28
-11
3
-9
21
-70
-47
24
13
0
-48
-68
44
-17
-25
0
-17
73
-73
-104
5
34
-8
34
-17
3
-42
37
51
-69
4
-32
-13
-90
-33
64
-11
49
21
65
44
-7
74
-21
2
67
6
-17
-11
41
12
50
9
-39
-22
8
-81
83
-15
-20
20
-12
13
-3
36
-29
-19
54
10
-31
-4
-19
27
49
27
29
40
12
35
-9
40
78
48
-18
1
-42
11
-18
21
7
1
-24
17
9
21
120
27
67
24
10
22
16
-18
-13
32
15
15
24
-29
-4
81
16
-33
23
-37
8
-100
64
-45
-11
-22
-63
31
-31
68
-18
20
2
67
-36
127
-44
36
-103
2
54
-19
-9
67
54
24
-20
-66
-5
-53
-2
-33
-21
-88
-49
-19
-49
-15
7
20
32
11
2
12
-15
-62
-68
0
-23
11
23
-2
1
30
-35
6
16
-24
-4
-14
-50
-45
-30
-1
-3
11
-22
13
-13
24
11
10
-19
-30
-14
-17
14
-13
-29
14
-4
49
26
45
-15
-8
-90
14
-14
5
44
19
49
42
2
0
0
-14
8
-8
-21
-33
-21
8
-12
1
11
-3
-25
21
0
127
-30
46
-53
11
-1
-49
-5
-16
17
-24
5
60
45
-5
15
24
-18
18
28
-45
-20
16
-44
-29
-57
-32
-4
26
-4
-14
8
65
-6
4
0
24
44
-30
-22
23
7
2
0
8
24
20
-15
-1
31
-11
51
28
-5
-31
-26
-1
-66
-1
-38
-32
-15
29
8
7
-13
-18
-8
54
-38
-13
26
-32
-23
18
-35
64
2
-10
-16
-3
-36
42
-10
-1
7
33
-21
-7
-2
-37
-5
38
-4
-36
-10
-93
-14
1
-7
-40
-15
-28
-25
-24
19
15
9
-59
22
-17
-15
-16
-36
-23
3
13
-9
3
-25
1
1
-15
-26
-21
62
-15
10
4
-13
10
25
5
-9
-18
32
-22
-23
7
-36
-61
-34
45
30
21
-12
3
10
48
8
0
-17
-7
12
-14
-29
-5
-27
4
0
-34
-15
25
-12
10
64
55
-13
-14
6
-16
0
-13
-7
-32
-8
-8
-9
2
0
-23
35
-60
24
59
-4
2
24
-1
57
18
-13
23
2
-15
10
-3
-21
-11
68
-31
2
-68
14
69
8
-9
53
-14
82
-64
29
-26
17
-52
-21
13
7
9
-8
-22
-38
42
-35
-30
23
-11
28
27
-1
-11
-25
-23
33
21
-6
-26
1
9
63
13
-38
-24
-3
11
-11
-8
-43
-3
29
3
24
-36
3
127
-8
45
23
-19
-29
-10
-8
42
12
-1
-1
22
0
-39
51
-41
43
19
-42
-15
-36
-31
20
-53
51
50
7
-8
8
42
44
-5
2
14
80
90
-64
15
29
38
-23
11
5
-15
-19
-16
-8
51
22
-76
14
-5
-38
-3
16
-48
-1
-13
40
-7
-63
0
-24
-24
1
-33
7
57
46
-6
13
-40
-2
49
19
5
-9
-12
20
38
-18
44
-6
28
-10
-6
8
-11
-11
56
5
-16
5
-33
-12
9
-60
-19
13
18
72
-21
-30
20
-23
-47
-34
-4
-46
-31
-4
12
-8
-32
12
9
24
50
-40
-38
38
5
-43
-57
29
-1
-43
10
42
-28
-44
-45
42
4
-84
-46
-29
-28
-6
-40
-11
-55
-14
84
-41
-2
8
-9
-10
-9
-25
7
35
-6
6
1
27
-21
-13
50
5
37
-23
22
0
25
30
54
72
-32
11
-19
-17
-18
14
-41
45
-32
-8
-40
43
-49
-35
-48
-29
10
-6
-22
-42
3
16
-43
-124
-6
21
-17
-72
-11
27
28
51
1
-10
7
-17
3
-7
-7
45
-1
26
-22
-11
-30
2
0
6
-69
-2
14
-34
-38
-4
-32
1
-7
62
-19
22
0
-23
8
7
-23
20
2
-29
-6
-15
15
20
49
-20
12
-16
11
-17
4
-23
-35
-11
-31
42
-25
-11
3
22
-9
28
27
-42
115
-21
-4
-22
10
27
-11
-53
67
19
-21
9
-77
-33
68
-38
32
-36
-32
64
-4
-48
-2
-2
-11
-8
-9
-22
-37
74
75
-57
-16
-7
-23
-28
-24
-34
-55
32
-20
-38
10
-4
-81
-10
30
-3
21
8
-15
-14
-16
-10
26
-50
33
16
-5
7
18
-40
31
-8
-31
0
-19
-16
50
33
7
31
27
13
-12
-75
-19
8
-10
0
-4
-25
4
8
-50
-35
-3
-46
-32
-47
13
8
1
10
-7
-30
-20
-61
21
23
16
39
25
-25
-30
8
39
-61
-33
32
-23
-19
-30
-9
19
49
-6
-28
-50
22
5
-30
11
-29
21
-34
