-31
-46
8
33
11
19
-46
-39
25
27
5
20
-8
19
66
28
-59
-32
11
-33
-7
-44
85
23
-2
-38
50
37
-20
-42
-44
-23
73
3
-21
11
-35
5
-21
35
-47
-12
-6
44
3
-49
-25
7
33
-74
-13
-9
3
1
-9
12
11
7
-52
-22
49
53
-16
-26
35
-42
-10
9
52
5
-15
31
-29
-7
-26
-5
-1
-32
-113
16
30
19
23
48
28
71
37
-53
15
-59
-21
29
29
-11
60
-31
-33
18
25
32
-39
7
-12
-2
-11
19
-5
-47
-83
-13
13
56
3
-36
-10
1
-39
-44
36
-4
22
-21
-24
36
31
7
-9
16
18
-16
45
-14
-9
-10
-8
-10
-64
-4
-14
22
-5
17
-21
23
5
18
-25
-17
-9
21
45
4
-21
-7
12
5
-39
4
-37
-43
45
38
-38
-46
-13
10
23
54
67
22
19
43
7
9
4
-2
31
5
31
15
-36
-1
51
-16
-31
39
-5
1
-62
-10
-29
-30
-18
-13
28
-49
11
-45
-38
-18
-58
19
-21
-43
-8
-22
55
19
59
-51
-4
13
-2
-86
18
16
-1
38
44
28
67
14
15
-36
30
-10
-67
-4
-24
-92
25
-1
-62
26
30
-47
-12
4
42
-46
-14
-6
-48
-3
-20
-50
20
-25
53
-14
-4
-54
2
-127
15
4
-13
-1
16
-23
-9
-5
-22
-17
-5
-28
-86
1
-4
-25
18
68
-18
-25
19
1
36
-17
33
10
-36
-15
7
-34
-28
9
24
-2
4
-8
5
2
11
-11
6
-61
-52
-26
8
5
18
-2
0
-15
53
8
15
2
-52
13
12
34
41
-15
21
-11
-13
-5
10
-127
1
8
18
-9
-18
-26
48
3
-21
-26
-57
9
-6
1
46
13
-7
18
11
22
29
-5
-4
7
7
-31
-15
12
-18
-28
-9
-4
-17
-37
6
-63
11
27
9
-13
-8
54
-1
-5
24
8
21
72
27
-13
-7
-12
18
-18
12
-11
12
33
24
18
6
11
24
-12
2
-20
-53
29
10
-9
14
-11
0
11
-4
2
-5
-18
7
24
-1
0
-19
7
-21
-26
-6
24
0
-27
-3
36
-4
3
-3
-43
-2
0
-7
10
3
10
11
-14
103
31
-23
13
26
6
4
14
5
-17
-7
25
-1
-13
3
15
-30
-32
15
3
-10
-32
-10
49
-17
12
-16
-4
0
5
-18
-14
-9
1
25
11
-1
-9
31
-8
24
14
-35
-47
18
8
4
11
24
-11
-5
6
-43
-1
-9
-24
-4
41
-46
6
-30
4
-2
24
0
-9
1
10
8
-59
-8
-12
7
5
21
24
15
-18
-14
-26
1
-18
-63
-41
18
-20
39
-18
4
-39
10
15
-10
68
14
15
0
44
-13
4
6
-35
-11
46
-39
-71
-69
33
-9
-5
-47
12
20
17
122
-68
12
109
-49
36
70
60
1
-87
-98
2
-43
-47
-35
35
32
-13
2
-18
9
56
-68
0
-31
82
-47
9
73
-29
0
63
48
-58
-68
-2
-29
43
-72
-18
5
13
-4
44
-116
-3
-16
-41
-63
9
-17
-3
26
-49
-40
-6
-41
-104
-33
35
-32
-42
-38
-55
1
-27
-5
-69
-5
82
40
66
-81
30
27
85
-33
-17
-15
16
73
0
59
28
-47
53
4
90
-38
25
17
22
91
31
2
41
8
41
-36
-77
-25
-49
18
-78
-48
70
80
-74
30
-36
-2
-52
37
-64
-9
-55
7
-105
-7
-14
100
18
-68
36
39
37
-24
43
92
0
-42
85
2
-47
57
60
-16
-32
19
12
20
41
-10
45
46
-15
-54
-25
60
-20
4
-47
-30
20
-26
-60
-49
-89
47
93
-42
52
-18
76
21
-4
1
-25
58
91
29
-99
32
-38
54
46
-69
60
-50
-13
-24
-14
4
41
71
-27
46
7
-48
-23
127
-16
-92
82
85
5
-15
67
-47
-9
19
38
-74
4
40
-16
-43
16
-101
-44
-37
-13
-50
-18
9
0
-1
64
29
-48
-62
10
73
52
54
33
5
43
-9
-15
24
32
-49
-25
24
-55
-59
18
-25
-25
-13
24
10
-31
40
16
9
-70
15
-54
83
33
76
2
-127
-28
-17
47
45
7
-27
35
-17
65
-2
-41
6
28
0
5
-6
5
109
-28
-56
-85
63
-7
56
12
6
-9
-26
-32
0
-41
90
-15
-63
36
10
-3
-28
46
18
9
44
-46
-20
-39
-3
-17
-21
41
-19
-30
-36
34
-64
18
19
-13
-25
-28
20
-12
-46
-56
-52
-16
-12
30
-32
55
1
4
23
-47
47
-4
-30
-10
-52
-77
-57
12
-68
-8
45
27
-41
67
21
2
-21
-45
-17
23
41
23
-32
38
-63
65
22
-36
-34
81
21
-20
6
-6
-64
-28
21
47
54
-20
25
16
-7
41
6
-3
-8
-4
3
34
-91
-48
-82
-11
20
17
-46
45
27
86
19
-32
-15
-34
45
-12
-4
37
-7
31
53
33
44
18
7
-5
-65
16
48
32
12
8
38
-59
0
48
-89
35
-9
-70
-57
28
27
117
55
-39
38
11
-30
77
46
63
41
31
-22
2
73
-39
-11
11
-21
-33
35
-5
-45
13
60
15
-24
-15
93
-67
-73
17
-8
-29
-32
-64
-17
-11
12
4
-106
-13
27
25
3
13
-50
-12
72
-63
-58
-40
21
2
12
-5
-11
-31
-4
36
-104
30
-15
-70
-25
24
-50
-14
-65
-24
15
34
35
-29
5
-20
8
5
-25
-56
-28
-30
-8
8
36
-19
58
-46
-58
-62
-75
-30
34
-11
-33
6
34
41
-39
-27
-10
21
82
35
41
-32
-16
-10
-105
9
-1
40
23
-98
10
52
2
54
-84
-7
62
23
-30
1
32
-10
46
-14
38
24
10
6
-57
-8
-15
3
25
13
11
30
9
-3
54
35
48
49
-1
-5
-2
43
36
68
75
11
54
23
40
10
3
3
-35
32
-127
55
-92
23
20
26
38
29
-4
-25
49
-76
-2
17
6
54
24
-53
48
43
-22
-65
-1
2
-17
-42
11
26
-18
95
-12
36
46
-14
-17
-7
93
-2
-40
-36
5
20
-25
-29
20
22
2
-25
-41
8
-8
-95
22
28
45
-53
23
-31
-24
1
61
-21
-5
52
45
-55
21
-35
15
29
31
51
-29
-35
7
-32
-56
-33
5
6
-13
-42
11
-68
20
-84
6
-48
16
-31
1
10
-31
3
3
15
3
-23
22
22
35
54
-87
21
3
45
64
-48
-25
-21
7
22
-16
24
-18
-8
-91
79
7
48
-1
-44
-68
-6
38
8
-33
35
-59
-23
-32
7
-37
-16
-43
13
-55
-61
33
-59
43
-47
2
-13
-9
-23
23
-45
-7
7
46
-19
-18
-33
13
-10
24
-3
-45
13
16
58
-35
-72
7
-8
-10
43
-23
7
32
10
57
30
-21
-4
-6
-30
-20
76
37
44
-44
23
-73
-37
-33
-51
-7
8
-95
-51
6
67
42
76
-60
8
38
-50
2
60
18
-55
7
-9
48
16
15
31
-4
12
-10
17
38
-55
-37
13
-1
-17
18
69
-11
-45
-6
-17
21
14
-101
-17
-49
17
-39
38
58
12
27
60
-21
10
-25
-26
-17
-86
1
-15
20
-25
-83
-37
-5
6
-40
-27
-33
49
-63
-33
-2
9
13
56
-3
-49
-12
-127
13
45
-9
-23
-17
-1
-6
22
-2
-32
-5
-6
27
2
12
-10
-23
21
8
-3
63
28
6
21
36
-46
-4
27
14
-43
-24
39
21
20
-43
-33
-9
15
29
18
0
19
51
-27
-55
27
49
-21
3
72
29
57
-13
-16
31
-28
33
-18
10
41
20
-10
-16
27
-120
-22
-26
-5
29
26
-19
10
-92
19
-18
-10
34
84
-26
0
17
27
50
29
9
-86
1
-14
0
34
-2
-31
-8
-43
-5
23
-29
-19
-23
10
-15
13
-3
-69
-26
-2
-6
-13
-21
1
-9
14
44
49
38
46
-79
1
-12
11
-41
25
-65
126
-10
-32
-21
-22
-12
29
1
-68
-1
-7
-24
-26
11
52
2
-38
-7
-1
-26
-120
-20
70
5
-30
-18
-52
12
36
-18
-110
52
9
-54
-44
-20
-83
-2
-23
40
-12
67
3
0
-21
68
79
97
-48
40
45
-19
20
112
-9
52
-92
-47
-7
-41
-21
11
-4
-1
17
84
53
46
30
89
-59
14
-18
3
-41
6
23
-24
-19
-77
25
-81
12
3
28
-74
25
-55
68
-33
3
17
32
-26
19
-14
-9
15
88
39
-52
28
-47
10
28
-42
74
36
33
-38
92
-52
85
15
80
-60
23
11
17
-11
14
-64
91
28
7
46
-63
-69
-3
-45
-34
-6
28
-57
-24
-98
86
-18
-17
86
61
-5
35
-49
83
-30
22
29
-33
-22
-20
-33
28
-15
7
35
-35
-56
5
12
-53
-51
22
-6
-39
17
-12
-32
-6
19
47
79
-42
36
-41
68
53
27
-54
-36
-31
15
-12
-54
-7
127
23
-30
-65
-87
47
67
-40
88
-64
-49
-44
-62
37
19
22
26
-39
-16
-23
-23
-58
40
-2
54
1
-58
-62
22
-59
-22
-14
9
-16
-52
4
-41
-59
-21
-3
-27
-2
-46
8
48
-27
115
-36
17
-18
15
20
12
8
-17
-7
-8
-1
-19
-5
-28
-11
-20
-55
-44
62
-100
-10
-88
28
-66
43
25
40
89
-45
4
-99
31
22
1
48
34
0
21
-103
-11
7
52
-37
-5
-4
-82
-14
-18
-2
47
3
-58
16
-73
27
9
52
-24
27
64
-25
11
16
-43
5
-8
20
50
-6
-32
37
44
34
41
18
5
-17
-23
-38
77
89
-26
83
-46
-22
-77
23
-112
5
-62
9
11
-9
-98
-22
-80
28
27
-8
-51
-77
3
13
6
-49
-52
-10
-3
-26
16
-55
28
18
-51
7
-42
-47
-53
-3
-31
-3
33
16
49
-45
21
-31
-13
-26
17
37
68
-28
-7
-13
-13
-4
-32
-45
-15
-10
51
7
-35
-25
15
-7
-44
-26
-29
-21
-7
14
-3
-23
27
-15
12
45
1
36
47
14
5
-30
-15
19
-34
-16
30
5
-3
1
29
42
-56
69
14
4
-25
-29
-17
-14
5
21
-58
-14
29
38
15
34
75
-15
-12
24
39
-10
-61
11
5
-39
70
-19
-65
-67
37
-20
1
15
1
-22
-6
-68
21
96
17
-49
-40
23
-50
-41
-23
-9
47
0
45
25
32
-19
-18
-55
17
-11
69
73
11
75
-73
65
16
42
22
45
30
-38
-4
-64
-84
27
-27
-67
4
-55
-22
-3
25
-40
16
23
-18
-1
-82
-11
-56
-22
-62
38
127
-18
26
5
0
-46
89
-16
-21
84
-56
63
-76
81
-37
4
-22
1
-17
-24
-33
-16
27
-21
-40
14
-7
-11
16
3
-26
-19
2
11
64
2
1
23
-33
9
-20
-8
5
-10
7
-6
-6
21
-11
-3
-27
7
14
33
40
-10
-16
-8
11
-25
21
-13
-18
13
12
6
-2
18
33
-7
-2
-9
-25
-3
-8
-2
-16
-16
-4
-11
-1
-19
-1
24
18
-24
-11
-14
7
22
-17
-4
2
34
-11
-10
-1
15
16
-6
25
-9
6
-7
-15
-7
3
0
-20
25
-29
-8
33
6
-24
4
-13
-23
8
3
7
-25
7
-12
24
15
-22
7
-33
10
-31
-10
11
-7
17
-2
-3
1
4
-5
5
22
127
-14
22
-12
-27
-25
8
-15
13
-4
4
-20
9
13
-1
4
2
-3
22
2
9
18
18
-18
-13
-15
13
16
-12
13
-13
13
-12
6
5
-12
-15
-32
14
-10
-15
9
-1
-13
11
9
8
19
25
3
6
3
7
18
-4
-7
46
5
5
-9
-11
-11
-15
-4
6
1
-20
-2
-14
-9
-6
0
17
-36
5
0
-9
-15
-31
33
-53
7
2
0
-6
-36
-16
6
5
12
19
5
16
-30
-12
-14
-2
24
3
22
-6
12
-18
-6
-6
7
-5
28
2
35
-2
-15
32
3
5
-18
-14
32
17
-16
51
8
16
-4
-37
-3
-18
2
6
-15
16
-10
30
8
15
8
1
-18
22
21
5
-12
0
-14
2
-26
-48
-14
-9
-25
-27
3
-10
34
-22
-8
-27
-33
-23
17
-57
25
13
1
10
6
65
-17
-21
38
8
21
18
30
-37
-13
-25
-44
113
12
-7
29
93
5
26
24
16
-10
-13
-44
-66
-13
-31
46
53
-19
-6
25
-4
-39
33
-46
-2
-14
-18
4
53
-21
19
7
24
8
-7
33
19
-37
-21
48
-48
28
42
10
47
-9
21
18
-11
23
8
-79
-15
-3
-20
-27
29
-1
16
-24
19
10
38
49
16
-24
5
24
46
-34
4
-5
5
17
16
10
-13
1
-14
18
-6
23
-34
-14
-11
-66
23
-18
1
-3
-19
-30
-42
22
11
7
-2
2
-18
54
-10
-9
-16
44
8
-52
38
-1
32
45
-5
-43
-1
10
-11
-54
-19
27
-16
19
10
8
20
15
1
10
27
-16
11
4
59
10
-12
-26
3
-31
12
-4
-41
-20
-45
-4
2
-76
-71
-39
-3
-36
-19
10
28
-21
37
1
11
8
26
72
6
14
-38
14
-2
20
-16
-43
31
10
-38
-32
42
-62
18
11
9
4
22
13
6
3
-30
-33
36
14
-25
-116
13
23
1
7
-32
34
34
-5
6
-13
42
-52
29
0
-18
28
-127
-13
4
0
45
8
74
-5
23
-1
15
-30
19
0
-14
-8
23
5
10
-35
-16
0
-17
-1
-25
-14
-31
19
18
18
9
0
-19
-5
-13
21
14
-16
6
-18
-4
0
-18
-3
-4
6
3
-4
-12
-4
16
-23
5
11
-12
-10
5
-18
-5
1
-3
-21
-29
7
-6
-18
23
1
-9
2
-18
14
-5
-13
5
-16
-20
-20
15
-3
1
-14
3
-31
-7
8
6
9
3
6
-6
32
-15
35
0
15
-7
-3
-9
7
-6
-6
-4
-4
-2
8
1
3
-3
16
-2
-14
-9
4
-14
5
9
-3
5
6
11
5
28
41
-8
-5
10
0
19
-12
-10
-4
-4
29
0
-16
-1
9
-9
-16
5
9
-11
19
11
-5
15
-2
-5
-3
-24
-1
4
13
-12
5
-33
-8
5
8
5
19
-13
-11
-10
-14
35
-17
17
-11
37
-5
-16
-16
7
4
-20
-16
-7
-8
-1
20
-15
44
-9
43
21
22
-6
20
-6
-36
-7
-19
3
13
-49
-13
-7
-9
2
-11
-36
8
2
-10
127
3
-27
33
7
-2
7
-24
-8
-6
7
0
3
-18
13
-12
-16
8
2
-26
-7
3
-6
-11
-14
-13
-10
23
12
-22
-70
4
-13
-9
-4
6
0
3
-21
1
9
-4
-3
16
10
-12
-7
5
-11
6
-31
14
-21
9
-3
7
5
-2
-24
-24
7
-13
-3
-35
19
17
10
-6
-5
-11
-7
-30
-17
14
11
-9
-3
-7
35
-7
73
-62
35
3
-67
10
-24
-37
88
-4
-1
-6
69
8
8
-48
59
39
37
27
-9
53
30
26
-41
-53
-2
-18
7
3
24
6
106
112
17
-4
26
-20
-52
16
21
-17
33
56
115
18
-77
-47
26
-37
27
28
15
-12
-77
8
5
-3
-32
43
-51
-58
26
-11
3
-3
10
-25
-5
122
26
-39
-21
-62
24
-4
-18
53
21
60
-23
-13
-127
28
-33
100
-27
-15
-19
-9
27
7
43
-68
30
99
-46
-18
7
36
27
6
38
-61
22
15
43
-117
26
-47
7
-54
49
12
-19
-73
-9
-23
20
-39
60
36
24
8
102
-50
35
34
36
-10
26
-1
-9
-39
8
-13
-25
-17
-65
82
-31
68
-125
-19
-17
18
2
73
-4
-42
2
83
23
-6
-77
-46
-4
32
45
66
-41
24
13
-13
121
78
11
8
8
-35
-43
-2
-69
32
11
29
-73
41
49
11
96
52
0
35
47
0
-63
-32
7
-114
-18
27
-24
-7
59
37
-55
-47
71
-46
-46
124
24
-28
-29
13
37
6
-32
-46
3
25
-89
12
-58
-121
-21
69
-25
-7
-4
-18
26
-9
-3
-2
-34
29
-11
2
2
-13
6
82
32
2
0
57
-30
-28
23
43
-52
-32
35
39
61
-27
-7
12
-17
25
25
53
-39
-35
-10
12
-42
44
20
39
-5
-37
4
3
-11
8
20
-7
15
12
17
-27
20
15
3
4
-3
-27
-1
-72
-16
-63
57
44
-19
-18
-14
18
14
29
14
18
14
9
-11
-10
20
59
-14
22
63
-1
-13
17
-17
30
13
49
-9
45
-33
26
52
-3
42
-18
43
-19
-15
-28
-15
31
102
-19
-60
13
-11
49
-27
-15
-15
53
53
-63
32
15
46
-14
37
33
-18
-45
-32
8
-25
-52
45
-46
-17
-5
-10
-25
-22
-1
-26
12
-19
15
-10
-13
48
-19
-127
-66
-44
27
18
28
-48
-43
1
27
-58
30
-28
0
13
0
18
-64
-14
-55
18
-6
82
-23
-6
-15
52
-23
-24
-31
-29
-23
1
-33
-20
24
2
-15
21
8
-8
35
-21
-28
11
11
-11
9
-14
11
5
75
-52
-32
-26
8
22
-17
11
-2
-12
-14
-29
-7
20
32
13
0
26
-10
-8
-3
18
6
36
-45
14
-5
28
-89
-5
-5
-13
-78
3
-39
35
21
-15
-17
-19
17
-26
-16
-30
-22
16
34
-3
22
4
-26
-21
14
-48
35
21
28
10
17
4
40
-13
-8
-19
-39
4
0
-25
46
-28
42
29
5
-6
16
31
-15
-9
19
9
7
-7
-24
5
-15
-54
-9
-14
43
-9
6
14
23
4
32
-16
-13
82
-32
23
-22
24
7
21
-10
8
-1
-18
10
25
70
-67
50
-4
16
-5
-29
-2
19
-54
36
1
1
31
21
-57
-41
0
28
-44
21
-12
2
-46
32
-21
-22
101
-65
-4
46
7
20
8
-58
-16
-111
19
47
-12
37
65
79
33
113
16
-13
-57
-1
22
-23
-50
-12
-25
-63
-38
-52
17
0
-36
-17
7
13
19
-29
-41
115
-28
31
-69
-24
-3
-123
77
-14
44
17
38
-6
-17
122
61
11
-47
57
40
18
14
-37
-41
-31
-39
-1
6
4
16
11
3
25
34
59
-12
59
-19
0
-64
18
-5
-12
-29
30
35
21
-37
-56
-16
45
-22
20
-4
-28
-27
-52
59
-47
29
-33
-6
-4
-4
35
-36
-44
-32
16
-53
68
-127
-57
45
28
-1
25
23
-64
-29
-34
-78
-83
29
-19
-14
22
-13
43
-32
31
66
-30
-37
32
54
-28
-37
-23
-31
15
18
-9
28
100
-61
9
-9
13
-101
-10
27
-20
-5
-114
-75
-35
-22
-34
-30
-1
-36
29
-58
-17
-91
66
-28
-6
0
44
-38
2
-24
10
14
-45
-43
9
20
57
25
-2
1
1
-9
-1
-5
-32
-31
37
-3
-25
-125
26
18
62
38
-2
4
-21
-56
50
-37
-19
36
-13
-39
6
-9
-42
58
8
-1
-58
-19
8
-27
8
11
-31
9
70
24
-21
-40
3
-24
22
-56
-6
-17
5
-17
-54
-23
-52
53
-71
-50
17
-14
-23
45
-5
-6
27
-37
-1
-20
12
14
21
22
-70
20
-27
-43
39
3
-18
-37
62
-12
42
35
29
-3
-17
-30
-23
1
-25
-28
12
-11
-4
11
-36
-10
24
-11
25
-6
23
58
7
36
18
-72
20
5
-17
-42
6
-34
-6
35
-17
-25
-2
-5
-28
10
-15
16
-27
25
36
24
-10
-127
-42
-11
2
24
34
-35
37
-19
68
-19
5
-30
46
-33
-1
-51
6
22
14
6
-1
-24
-54
-26
-7
9
-8
-46
33
33
-27
38
-40
49
-25
33
-42
49
-17
9
-21
40
-93
-15
-58
58
6
-43
20
22
-11
-9
-28
20
39
21
-28
5
-29
25
-48
-5
22
17
-72
-19
-85
-49
31
35
0
7
-31
26
-7
-19
28
-2
-7
44
17
15
-11
-8
21
5
-70
0
-21
31
-26
-37
-4
-55
-3
13
32
-30
12
43
-11
-90
-121
-19
-6
7
13
-9
-4
0
-1
34
-23
-5
-13
-19
24
-6
9
-27
17
26
34
-32
57
-44
12
-24
-7
62
17
3
23
-15
-17
-8
-53
44
24
-12
3
14
-43
6
-82
7
-37
-40
20
62
-32
-46
-59
-1
6
-1
-10
5
44
-6
16
-37
-17
6
16
11
-5
-11
0
-10
4
-40
6
40
-10
-65
-12
-48
22
26
6
25
-29
-24
21
-74
9
-9
-23
17
4
-23
35
-24
-22
31
7
-8
-17
-23
-31
-19
-9
25
11
-19
24
-25
8
-9
11
3
-7
70
-43
-15
3
-20
22
12
21
-32
15
-23
13
-8
31
-17
-24
31
4
-29
-6
26
-36
-17
-17
21
3
3
-31
-54
-2
-1
34
-22
36
26
-14
-30
7
13
-4
-14
14
0
-34
11
11
-19
7
33
-15
-11
5
70
-15
-14
12
-4
9
29
-7
30
39
4
-24
-29
-12
65
-22
-23
-17
-12
45
27
-40
22
19
-17
18
-54
-21
-54
4
17
-15
16
20
-12
26
7
45
-16
-25
-9
34
24
6
6
-9
8
31
30
-8
6
-24
-21
23
20
14
-20
11
-16
-10
7
-15
-11
28
-5
-47
-20
-5
-32
41
11
-7
-38
-19
-26
-64
13
18
-21
25
26
-18
12
-1
-48
-25
-9
-18
-42
-32
18
-5
-10
13
20
4
31
8
14
24
-4
7
-28
32
-32
-1
-26
66
32
-10
-19
6
-39
-3
19
-1
-1
9
48
32
-35
27
-48
8
26
-33
46
28
10
21
11
13
-9
-16
30
-12
-8
5
7
-35
-59
28
5
-36
127
22
-53
-52
13
-36
39
-8
-18
-3
-29
-3
-8
12
-11
9
13
5
2
22
39
-14
-3
9
-21
2
35
-33
-6
-16
2
4
-77
-6
6
3
-3
-2
-20
8
-13
-18
-13
5
-5
5
2
-4
4
3
5
13
13
38
-9
8
5
-3
-44
24
-4
12
12
0
7
-5
23
22
-28
25
14
-1
11
8
19
18
-5
10
41
-6
-27
11
27
22
-2
14
-20
7
-5
3
26
6
-10
22
-10
8
5
-7
27
-1
8
-1
19
4
-20
15
6
-1
9
18
9
16
-2
-5
3
22
10
-1
3
-20
14
13
2
2
-8
-6
-11
39
16
2
-18
-127
-3
-15
4
13
-12
10
-6
1
-7
-3
5
1
0
1
-9
13
5
34
-16
-14
0
29
-9
-7
21
10
21
24
5
-3
5
20
12
23
-7
-15
6
35
9
-3
30
-13
-24
12
-7
-1
12
-3
10
8
32
12
-4
-7
-11
-4
0
-21
9
-5
10
-10
22
10
-2
-10
-10
9
-21
-10
-25
13
-18
-4
-23
-11
-11
-8
1
-12
-18
10
-33
-4
12
-10
15
6
-11
4
6
-28
-10
-10
-4
-19
5
3
-5
0
-16
8
-20
2
-39
-10
-8
4
-1
5
-14
-24
17
6
10
-80
-8
5
-6
-13
15
-7
10
-20
3
6
6
-3
-5
7
-6
10
-69
44
6
19
-34
-22
-33
12
-59
63
-29
5
37
-40
-42
105
-10
37
-20
2
0
16
-85
62
-9
36
-13
56
-98
3
21
-12
31
29
27
-38
33
63
-12
27
61
13
-49
57
25
15
-6
-55
79
-13
3
-3
25
0
-30
-54
13
14
-33
-10
-68
-1
-51
13
43
85
-7
-53
38
6
8
35
5
-46
-81
-17
34
4
30
39
14
12
41
-60
-31
30
-1
31
31
-41
-46
11
-45
-28
98
26
-55
28
-9
36
15
-71
5
-13
-55
9
8
15
-57
51
-70
-50
18
-76
-24
-11
12
-85
56
3
-27
-53
0
43
41
-41
17
-87
59
-61
-76
4
-50
-31
-32
-17
25
28
17
11
100
-4
73
-44
14
24
7
-48
8
127
-32
10
20
-21
45
-39
-4
38
-4
31
-20
43
-21
-12
-64
-39
-30
8
-35
14
63
40
-2
4
-10
-16
-61
-1
0
10
12
85
59
-15
9
-26
-19
-49
-35
-19
15
-24
-49
69
14
-19
-4
28
-14
52
28
-20
53
-19
-7
46
18
0
-51
37
31
-19
51
-65
-15
37
-37
21
-13
-14
-49
-16
-39
-4
2
13
-9
30
-29
-65
-5
18
-11
-33
35
-32
-18
92
0
44
53
-15
40
38
-29
-24
-15
15
21
-28
-29
31
34
-59
57
-34
-16
-2
-42
4
2
6
-80
40
30
-18
-25
11
2
42
114
-3
66
8
-24
-69
25
-13
-11
-2
-81
0
-25
54
17
-20
27
28
-18
-20
17
56
26
23
48
-2
-37
7
-11
96
-48
-46
-27
40
-30
-65
-5
-3
-31
100
103
-25
-11
24
-31
-11
-17
16
-10
-36
11
65
3
-32
-12
-17
-37
-70
2
-43
10
25
-10
-10
-61
35
33
-18
-30
5
34
-42
42
29
-38
-42
27
34
52
-19
-55
-4
-30
-20
-7
-28
22
-14
-20
5
-13
6
-17
-23
24
57
-23
5
32
-3
60
-4
-37
-28
4
0
3
11
-12
23
62
-42
-86
-6
23
-2
-61
-12
-40
82
-8
12
84
17
-7
4
-26
-18
3
18
22
-17
-40
4
4
-14
-35
14
-48
127
23
-3
-86
-22
-8
-30
-7
8
64
-8
5
57
-78
-6
-40
18
-30
36
-85
-14
3
64
17
2
8
-59
-16
-39
-46
-81
12
3
-20
10
-15
32
7
40
-11
-11
-74
15
-9
9
-34
-30
26
38
-13
12
39
0
57
28
35
-15
-16
-66
61
16
23
-20
51
-53
6
36
-1
70
-1
-10
-38
26
28
-3
-1
-14
17
-35
-45
-36
4
-44
41
10
-5
-35
19
-32
-9
-67
65
-72
-43
-48
-17
-78
31
36
-15
-60
-29
14
98
-25
99
-34
-8
-33
26
-20
-54
17
93
24
38
44
39
32
-20
-16
71
-19
22
-9
3
3
-8
-9
30
-23
16
32
105
28
0
-19
45
-42
26
-36
-8
34
-69
-102
36
45
5
-61
7
-23
23
-107
13
11
-49
90
-43
19
8
-23
-59
24
-3
21
8
-34
-7
23
30
13
-13
-22
-27
26
-63
49
36
-36
-56
37
13
5
-28
-9
-73
-8
-29
-21
36
-36
30
-10
27
-103
-51
5
1
-79
16
-18
87
4
21
-94
-15
-15
5
3
-13
69
29
22
26
-6
-74
66
-41
-6
13
13
-19
4
16
8
19
6
29
-2
19
-7
41
-7
41
41
-102
-9
32
80
-51
-68
39
0
-85
27
-106
17
-86
82
-23
18
-32
52
-127
-119
96
7
-16
31
-97
-13
-55
-34
19
18
-19
94
25
0
44
-64
2
14
-10
6
22
-28
-3
23
11
3
34
38
99
14
73
71
39
65
-86
-3
-31
-86
-27
-18
-15
-11
33
-43
-86
17
27
-13
-52
60
-57
-1
11
67
-36
95
55
-49
-26
-26
28
75
-37
-17
25
49
-15
26
4
-10
3
57
-2
15
61
39
30
35
-39
31
-10
50
81
-8
-6
58
11
5
-26
24
-103
-39
20
10
-1
-11
-66
34
-17
36
-8
23
-61
51
-9
-12
-9
-39
22
8
-19
44
-47
1
-55
3
27
-31
-19
30
-21
7
10
49
22
-25
37
25
45
29
-42
18
-1
2
-6
-6
-26
33
11
37
14
3
-4
8
18
1
8
19
23
-43
-36
5
-37
-51
3
43
-31
-32
-4
-4
-44
5
-41
20
26
-46
1
-96
-20
-3
10
13
30
4
10
30
10
-34
-63
-19
-36
-37
-16
1
11
-25
0
29
36
26
8
19
12
51
-7
30
2
34
33
-11
18
-35
16
-127
14
-17
36
18
56
-5
11
23
-12
-5
5
-14
-57
-16
30
-5
-2
-11
3
-14
20
-34
-10
21
-19
-58
-24
-5
4
-18
-23
21
20
17
26
-13
-25
15
-18
3
8
14
29
34
8
-34
14
-5
-3
24
8
13
27
-9
-17
5
-22
50
-20
-18
-16
-41
-4
-12
6
-11
6
-29
-72
-28
22
13
11
-3
19
27
-5
-15
23
-35
-45
76
33
-14
-28
-20
-6
-14
-2
7
16
39
23
15
-20
-15
-7
-6
20
-25
9
2
-20
-47
-14
59
11
9
-32
-16
1
19
19
15
-22
-45
20
-32
17
28
-13
-46
-54
-6
42
36
27
22
1
-2
-17
100
-36
30
1
-42
-14
32
30
4
-15
10
-14
29
7
22
12
-34
-9
-17
11
30
-34
-15
-28
10
-19
11
-15
18
33
90
-2
13
32
26
53
-13
12
-34
-3
30
-4
19
9
-10
4
43
7
-35
-6
-11
-29
42
97
2
57
-67
-53
-13
10
8
11
43
-28
-5
-30
36
1
-83
11
32
0
-4
-15
-6
4
16
11
-27
-20
-17
15
35
25
5
90
-7
-32
6
121
-8
-14
13
0
31
-11
12
-10
-29
22
-27
-59
8
81
-23
52
8
28
19
4
36
-3
-29
-15
-34
0
15
32
-56
62
-21
4
26
-11
-84
6
9
3
-21
39
-1
-43
-21
8
-3
4
-20
-44
-1
-4
34
-28
8
47
4
9
-1
-19
7
11
31
-5
5
-21
22
-14
9
-35
-1
-55
-27
-29
-32
8
-7
15
-1
24
18
8
15
-6
-1
24
47
19
-1
2
62
30
-49
-16
-25
-47
43
-102
-95
7
-22
-11
59
-31
21
-30
-6
-35
12
-53
-34
14
71
-6
2
8
-85
50
-26
-6
-33
-26
36
24
69
0
-27
-49
-15
14
-76
22
-24
40
91
-1
-10
40
-13
20
7
-8
19
-7
54
-9
-21
-49
-14
127
31
12
31
45
-15
7
40
-8
45
-23
-27
41
-20
-27
12
-79
1
-23
13
8
37
-36
33
18
-2
-18
9
70
-51
19
-9
10
5
-10
-11
-22
30
53
-8
57
-59
15
53
12
17
-27
-32
-9
-1
3
-3
13
20
-15
-10
-7
-30
6
-8
-3
12
22
-13
-9
-3
3
14
-29
-13
-45
-24
10
8
15
22
-14
-19
-38
-15
8
-23
6
-9
42
12
16
33
-10
-11
-20
4
0
6
1
3
3
51
0
20
-1
-31
-26
8
-47
18
-5
-8
-7
-28
13
1
-1
-46
1
37
9
6
0
-23
-18
27
21
-12
14
-35
0
9
-3
5
8
-7
-16
-5
10
7
12
28
0
-7
11
13
6
-12
-35
-16
-12
-2
-26
-3
13
58
3
-29
0
-16
14
-41
-12
17
3
30
-26
-41
-19
-3
38
-32
-43
38
-11
51
22
21
7
-11
10
-16
-29
19
-18
9
9
29
19
-26
127
-14
-25
-20
0
-69
14
-12
23
-17
26
2
3
-18
12
2
18
39
-6
9
-29
28
-6
4
-22
24
-10
-7
-7
6
19
12
-1
17
21
4
6
-15
19
-20
-31
32
-38
-6
10
8
8
-6
29
-13
17
9
0
-2
10
6
5
4
-62
0
11
-15
-12
3
1
31
15
-2
-30
2
-10
-44
-36
-56
-36
-4
-1
-13
11
-15
-2
4
-28
-24
-10
21
-7
1
6
-6
1
-16
-61
21
16
-47
52
-77
-12
12
3
27
17
36
28
2
-14
40
-24
-13
12
0
-26
-25
-57
-2
17
58
-21
-112
14
-9
-19
-3
29
45
68
-15
64
14
-40
47
66
-121
5
38
40
-19
-102
-36
-34
-29
23
1
-72
38
-40
-10
8
9
-13
75
-36
12
-32
5
-41
8
4
12
7
10
28
4
-36
-9
-70
1
-6
-20
-11
-29
-11
12
-59
17
-8
19
-53
21
40
1
47
-17
-17
-30
-2
26
-9
-15
-22
42
-6
70
-3
29
31
-9
26
-38
-11
-20
-33
86
55
59
19
-8
-5
34
2
-27
-22
-16
-46
27
8
31
-35
-64
13
-4
-49
10
50
15
36
27
53
5
-26
-3
7
44
-40
-39
-21
43
15
20
16
40
-5
-22
35
-3
19
-36
76
69
65
-65
-47
-33
29
19
10
-62
-35
0
5
27
-27
-18
-55
66
14
-21
31
101
36
-3
-14
-83
-108
39
-33
-14
61
-9
-7
-16
103
25
-36
10
-26
88
35
-1
-55
31
26
20
89
-83
-13
52
-127
20
39
-18
10
14
7
38
123
56
37
-9
17
34
66
11
12
67
-41
3
79
-28
37
39
-13
-58
-3
-1
-3
-51
38
-33
-27
-42
9
-46
-44
56
8
-14
0
-26
-103
-2
-102
-58
-50
5
-29
-33
-70
51
29
61
54
-79
43
-46
15
27
9
61
-30
-78
39
-6
4
-28
-20
-50
10
-25
-29
33
-39
-21
-27
-8
-38
20
-41
54
-55
11
-27
-44
22
0
-46
-14
-20
23
27
-13
34
-25
7
0
52
-17
-4
-12
6
-18
-2
2
-25
-28
60
4
7
16
48
-1
51
33
-78
-76
30
7
-31
27
-34
-30
10
16
26
18
39
15
-77
63
38
12
14
69
-48
-3
18
-18
5
5
-62
44
-6
-19
-9
19
-67
45
8
34
23
-55
56
68
46
20
2
-60
5
-47
44
-14
-2
89
57
19
54
-17
-25
-11
-13
-45
-62
33
5
69
-47
-51
-6
-6
14
-57
-17
-53
-12
46
-39
32
48
11
-70
44
-60
6
-77
41
12
7
-47
-77
42
-16
-20
-8
-127
8
-24
-59
19
27
10
-23
0
69
48
5
-22
9
65
27
4
-23
68
-24
-33
-9
-39
60
19
30
69
-77
-58
20
56
-8
-8
39
-35
-59
37
-4
37
-51
51
103
-62
-20
-33
6
33
44
57
-37
-41
-1
-18
15
34
95
42
-22
4
-8
-3
101
15
35
-48
23
29
40
8
19
-16
-37
17
20
-30
22
-30
-24
75
58
-9
-82
18
71
-41
35
64
-1
13
-4
-31
30
-19
53
36
-39
-24
-25
-4
95
51
-40
68
-90
1
-14
-41
39
-4
30
-37
-47
-2
-24
-12
3
34
8
-88
21
-44
-48
-114
19
29
56
119
-48
63
11
4
26
13
12
-31
72
49
12
-27
35
-11
-6
-52
-27
-47
-48
104
19
-41
-14
3
-25
96
-53
42
-20
3
-10
5
3
0
58
-16
-40
46
36
-73
44
-42
29
-42
-77
-13
-12
-27
-12
8
11
55
46
-69
43
15
-51
4
-15
-80
-23
-21
5
46
-25
31
7
-47
-5
-23
-85
-66
-38
34
-2
-37
-36
6
-11
-45
-60
-5
-36
-35
13
16
-8
-40
-55
13
7
-108
-62
-27
2
1
6
-21
-25
-23
-42
-24
61
-64
-40
-43
-34
-26
35
-2
122
-88
-33
-26
-10
11
-94
20
46
50
39
-35
-11
14
-16
23
-47
-50
-5
-23
-39
48
32
-72
6
-6
-28
-48
43
-104
-21
34
-42
-9
5
43
-99
-10
-53
5
1
-50
-32
-1
-19
-33
57
34
3
59
-1
11
-43
44
-40
-50
-66
-16
35
13
48
-9
-34
9
-10
-19
19
-13
-23
-2
-11
35
18
-42
-92
-81
19
-33
-5
36
-18
-26
-22
-6
-17
2
10
59
-30
-67
-16
15
16
41
-44
-79
31
27
-14
16
23
-5
-24
8
14
5
40
29
127
31
25
-67
-21
50
34
38
1
22
-23
-14
-5
23
-20
57
-41
-53
-8
-49
-51
-2
17
12
-34
60
46
-11
101
14
-79
6
34
-16
9
-23
19
-30
86
-3
40
33
6
-3
31
127
-7
22
-29
28
46
-21
33
2
-52
-6
-27
-36
-35
-33
14
16
-61
-15
19
-50
-4
-11
121
-4
13
27
-34
-42
36
10
-22
51
17
-54
-20
10
12
-42
53
-23
-33
-5
-10
-11
-25
63
50
35
-32
-37
7
-53
98
-28
1
-36
-6
-51
-58
-44
26
-41
-31
-40
-56
-8
-36
-25
-1
-7
-17
-45
29
-14
-95
20
-1
51
5
-29
45
35
21
-15
30
-90
-24
25
-4
17
-19
-25
-46
28
15
20
-20
18
6
-33
21
27
-28
-37
-16
-5
6
36
-71
57
48
25
46
5
30
33
63
7
-9
9
-8
36
8
19
17
-61
-25
12
-10
-74
-39
-25
17
3
-42
12
-24
19
31
-53
10
13
-30
-43
9
-32
-27
11
-56
9
5
9
-45
75
16
-26
9
-31
-49
-39
-10
17
79
1
14
8
62
45
4
-5
-15
-21
13
-9
22
65
-39
12
9
-29
2
-34
-53
-28
-17
5
-35
-29
17
102
25
5
-32
14
47
3
-33
-46
4
57
13
82
-16
-5
-65
53
35
-8
25
121
26
-42
-73
-42
4
-45
47
-4
-65
28
-28
27
10
-14
-15
38
-122
102
49
23
57
-12
-13
-17
-37
-7
-3
35
9
-36
-28
-18
-5
-22
9
-34
17
-25
-1
-17
35
-13
-17
17
-27
-9
-18
6
17
-4
-26
1
49
27
52
24
-32
1
-13
29
79
-17
23
-34
17
-40
-51
42
4
60
28
-11
-93
-6
5
27
-23
-8
40
-43
-2
-91
14
2
53
27
14
10
37
-16
30
36
2
-1
33
0
-8
41
45
-20
20
-79
-2
-12
-6
-49
-3
-6
0
-58
-91
38
49
-40
37
30
-40
-7
34
-71
20
25
-18
-39
40
-34
-19
33
-32
-127
46
34
1
-32
-17
-2
16
32
-51
-80
18
67
-19
-21
-2
-65
-25
20
21
15
-24
32
34
27
-5
29
-13
-28
24
19
37
-4
-37
-43
-29
-14
-67
-42
19
0
29
17
-10
-28
-17
9
36
-25
9
8
-46
-36
4
-25
-23
-40
-10
70
-38
-39
-6
33
-2
-63
-21
-24
75
19
21
49
20
14
-53
-20
40
-13
29
-20
37
10
-31
-46
-26
-79
-45
-78
-21
13
33
6
19
45
15
-39
5
-12
31
-34
-23
25
-11
14
30
-10
8
-12
19
2
24
-44
14
-69
-41
-12
0
1
-33
11
-33
-22
9
-29
-46
8
22
-16
7
-50
15
33
-7
-59
-18
-54
85
32
11
-38
-27
33
-4
79
-7
-35
-84
-69
23
-11
22
5
5
22
-4
2
-33
61
23
-3
-63
4
-6
-8
-7
-6
1
7
3
6
7
-10
0
5
12
2
-3
3
-10
9
5
2
-10
1
4
-17
-4
0
-5
-5
-6
9
3
5
-2
127
-3
-3
-7
2
1
11
0
1
-13
-8
2
4
-6
-24
8
2
-5
-4
-5
6
-39
2
5
5
6
-3
11
0
6
0
-2
0
1
-10
-4
9
-3
16
2
-8
-8
-4
-2
-2
-2
1
-14
1
-3
0
10
-1
2
-3
-5
4
-7
4
-8
-7
0
-5
-13
2
5
2
-8
5
-2
-8
-2
3
2
9
1
6
3
2
19
-2
-8
1
-4
0
0
1
-4
-1
5
1
9
1
-13
-6
2
14
5
6
-8
-5
-7
-4
11
11
8
2
6
1
-1
7
-2
0
1
7
-6
-7
7
6
-10
-1
3
-2
7
-4
-11
0
-3
4
-12
9
5
-6
4
3
9
-3
-4
10
-21
-3
-6
-5
-3
-4
1
-7
8
0
-12
8
-2
4
-2
0
5
-10
2
48
-2
-3
-18
-1
-1
-5
3
-5
-2
0
19
-1
2
-9
8
7
6
-1
-4
-3
9
-6
9
3
9
-4
0
2
-1
1
0
-4
-2
-7
-2
-8
-4
-4
8
-5
1
-2
6
3
-8
4
-6
-5
2
2
2
3
-10
5
2
-4
-8
3
1
2
-8
-1
4
-7
-29
62
16
24
15
16
7
66
72
-100
-13
48
29
-31
11
-9
47
22
-34
52
-91
50
-87
-92
7
55
22
-28
-27
-38
10
-16
4
-51
9
-12
23
57
8
4
-58
60
-67
-2
-1
12
13
17
16
58
20
-28
75
-33
49
10
92
101
-12
81
51
-18
-44
13
27
-6
9
2
25
-36
12
3
12
-91
-41
-39
16
105
34
-26
-18
-52
8
40
-10
-28
-81
-25
-60
34
13
-20
90
58
94
32
-20
-43
58
34
28
5
-14
-17
-38
-15
-31
42
30
-6
-53
-33
-11
54
19
32
-16
79
6
16
9
-23
-11
-6
-10
-48
-58
51
-44
49
-9
-18
-3
-11
51
70
51
-23
-13
8
56
-33
-72
-47
45
33
88
-3
40
-42
-29
-1
26
-14
9
2
11
2
55
5
38
-12
90
100
87
-5
-9
27
26
-15
26
-16
-1
-13
-47
-5
27
35
8
17
-36
22
53
34
21
39
20
82
54
7
-25
-32
-7
17
-36
-30
31
2
53
-12
-56
34
16
-19
18
-65
113
51
20
-7
-29
48
54
10
-51
-21
43
-5
120
60
2
-29
73
-26
3
-11
24
-25
0
-55
-5
-57
-127
21
1
11
70
-3
-72
30
-29
57
7
73
41
43
-64
28
47
-58
-25
79
92
6
62
56
34
111
-12
-9
-46
-10
14
24
42
-29
-28
-70
26
-15
37
64
-10
-17
-73
-53
26
56
11
31
34
-63
4
-29
38
56
11
-52
-14
11
-41
-126
-19
-37
22
-30
94
1
32
28
-24
58
-75
33
-45
-22
4
60
3
35
-3
-30
1
121
36
80
-24
6
53
31
-7
-3
-116
-36
-45
91
-52
-24
69
4
-21
-48
-45
42
-29
19
-36
-38
-24
-33
-15
66
-111
-43
2
0
-35
45
-48
-23
-65
-34
-9
-46
22
-3
19
-30
-24
26
89
14
63
4
-49
3
19
84
-25
3
-17
45
-48
-16
-9
22
3
-20
38
31
12
-45
10
16
-54
-61
37
27
-56
-39
32
-35
37
-25
11
65
6
11
-28
7
69
24
-16
7
80
-18
-67
14
79
-117
19
2
-112
32
-5
-97
32
-1
45
-1
29
-104
25
-10
-59
54
-7
2
-42
-12
73
60
-9
2
34
-27
-18
42
60
-65
-22
76
95
-30
47
45
33
8
94
61
-14
52
-26
66
48
24
-6
-56
-63
32
-17
12
-6
23
7
-13
-57
-20
7
-1
7
10
-22
-4
0
54
-17
-13
-21
-3
52
-10
-43
-18
-28
50
36
-42
40
-28
11
127
-17
16
-44
-7
19
-37
-64
-11
-16
40
-17
-84
-24
-20
31
25
-63
-16
68
32
127
6
37
4
-13
5
-14
14
13
8
-5
56
-16
20
-2
-18
-2
-43
15
-9
5
34
25
-11
-17
25
-2
18
-40
-14
19
-18
-4
-105
8
-2
-12
2
-87
-34
48
18
-37
24
-7
33
-37
-22
-16
11
-56
-5
5
-3
1
26
-56
32
-6
-24
-9
8
-33
-15
39
-3
9
45
-14
-5
26
28
21
-18
10
-1
6
11
7
-12
123
26
-1
-14
2
25
-30
-50
-9
-1
54
17
-4
4
8
-29
-29
10
9
-5
9
27
-7
22
20
-17
-15
27
-12
-19
-84
-5
62
37
28
-1
-24
30
26
9
29
81
-2
-26
5
40
-42
18
-29
-9
-53
-17
15
54
-10
-14
62
-29
-16
24
9
4
17
10
-7
6
26
-21
-36
-1
19
-4
-28
-8
-31
-29
-43
-18
3
-7
-13
-51
23
1
-12
-4
-2
31
11
32
5
-8
-14
-26
-41
-7
56
12
1
31
18
-19
-6
28
7
-17
4
-9
-29
13
17
21
15
25
-22
-17
45
-4
-12
-5
6
25
10
13
-29
22
8
35
4
-5
16
-33
-1
20
-11
5
-31
22
-27
39
2
8
-32
-1
7
3
-28
22
-8
25
45
0
18
-63
2
-17
16
40
6
35
-12
-4
-22
41
-12
28
-15
0
-2
26
-3
3
2
-8
-10
-21
15
-1
60
-6
-17
29
3
7
60
-33
12
5
-51
-7
-91
-42
6
17
-6
-8
4
-71
2
7
5
-3
-14
7
-20
26
59
-8
-15
-27
-33
50
-28
-5
-32
23
-14
-2
-40
4
-40
-30
56
3
12
-30
15
19
1
-16
-9
17
11
24
-39
-54
8
8
23
-35
4
-30
21
31
-8
17
21
5
-11
-37
16
-13
-33
41
-2
-1
-12
-9
-2
-13
17
33
-12
34
-40
22
-28
-13
-17
-22
-26
0
-4
-3
-14
19
-1
-13
40
-23
26
-15
-3
-6
-29
22
8
8
-5
-23
-46
-12
-3
-17
17
37
-4
-1
23
17
5
0
19
1
11
8
-12
-12
14
-42
4
11
47
13
6
-19
43
6
-2
26
-11
10
-12
-32
17
52
-24
22
-1
10
51
26
13
-26
-42
-31
18
19
-4
-3
7
6
0
-27
16
-36
4
2
6
-42
-3
39
-27
-11
-30
4
13
-63
6
-23
3
4
55
-11
19
-18
-5
-10
-41
52
-18
10
10
-31
-15
-12
-14
61
-20
-16
-36
60
23
-2
-21
-29
22
15
10
-16
16
-5
-16
127
7
48
13
30
-8
9
-9
-3
-29
10
16
8
11
10
19
35
-36
-20
-15
-28
18
-15
-72
23
91
18
3
-18
0
-15
15
-45
28
-21
17
-21
35
91
27
19
-53
56
93
8
126
-48
-38
-38
29
9
-54
-32
-29
-4
-46
-15
-107
22
23
10
24
49
-61
17
20
42
15
-32
-45
13
-29
-39
-23
48
-20
-40
-9
-54
-46
101
53
36
25
24
12
-16
16
-38
-54
-60
9
46
10
8
10
7
40
20
119
27
13
44
-38
-20
-63
14
-80
-34
53
-36
-27
13
-38
-23
-69
-19
15
-3
-30
-78
28
-16
-41
8
13
46
11
-2
-26
25
60
-55
-51
-30
-36
-37
53
42
44
-45
17
-1
61
-16
-74
19
-3
3
-42
36
37
-86
-37
-2
75
70
15
20
-1
-42
20
65
-59
76
12
-67
-36
23
-13
-49
7
14
8
-53
-114
-19
74
65
7
6
57
-26
-44
32
15
7
-37
-71
-63
38
-33
58
29
54
-4
32
-15
-11
-12
37
36
-16
51
22
23
-12
44
30
-27
-68
-23
-11
120
-20
0
-73
33
16
-35
4
-61
86
43
19
39
-34
-95
22
-20
-3
-16
-93
77
-93
35
76
127
-65
-2
-14
-94
15
-55
-81
30
-13
33
1
-39
-56
52
-9
-30
-35
-48
-55
-12
80
55
27
-9
-36
-12
39
15
1
22
27
-37
8
80
77
30
-45
-2
-54
-14
29
64
-14
-10
13
-9
10
-5
-55
-7
-37
-47
-32
-35
2
35
38
-44
25
3
-7
22
-10
33
-6
24
-8
-5
-1
8
24
4
-11
-6
22
-2
2
7
-19
-36
-6
-2
2
46
-2
-42
5
-18
12
29
-24
-6
-76
20
-41
-4
12
26
15
-14
-2
-18
28
12
3
27
2
-64
73
33
-34
-61
-37
41
-12
-1
21
12
-8
50
-1
-19
-58
-27
2
-9
-25
-14
34
68
2
15
-9
-3
-49
-46
35
-15
5
-40
15
27
-10
44
1
0
1
15
-65
-6
13
-3
-9
-6
-5
54
30
20
-23
-32
-10
-23
12
6
45
-46
83
34
-4
1
-35
-28
-18
9
-64
46
3
26
23
16
10
47
0
-92
36
1
-127
-1
19
-8
-18
22
19
-5
-31
23
12
-23
27
32
3
-22
-22
6
26
31
32
-22
-13
22
-15
-33
16
-14
-12
1
-28
1
-30
25
11
28
-5
-16
-3
9
-8
30
-65
-18
4
20
-14
33
4
-19
60
-25
-21
25
2
20
27
-34
-24
-27
16
-54
-55
-11
1
-3
13
14
3
2
12
-17
-1
12
4
42
107
20
40
-22
49
40
-35
-3
51
-41
6
-2
0
-12
-73
-29
8
-5
-41
20
-32
32
23
6
7
3
-30
30
17
5
-26
-25
17
17
5
-18
-22
-1
21
17
8
-4
-8
-9
14
51
-32
-38
-58
8
-29
55
-25
5
10
-54
-26
-30
53
18
-7
-1
9
16
-38
18
21
-17
48
-86
-99
-21
0
-77
125
-94
-39
4
-16
36
19
-69
-54
-7
12
7
-22
-13
-89
-51
65
77
20
-24
3
-11
-25
34
-45
-28
-118
9
-9
-37
-44
-39
-57
24
-3
-28
-77
-39
6
-6
49
30
-36
-28
43
22
-34
-27
-95
37
84
84
20
0
2
37
-12
-34
-93
-3
17
-107
-69
27
7
-42
24
-41
-40
-20
-26
14
-44
-31
-26
-127
20
49
-18
27
18
13
23
109
17
22
31
-50
40
0
-40
51
-17
40
-5
-35
-21
-20
17
-8
-41
5
38
50
-56
-36
52
64
-78
38
86
3
-27
-18
89
96
92
55
108
-15
-34
2
59
-41
-62
26
-46
-11
-42
47
38
-17
-58
19
48
-28
-56
-59
10
-9
-95
47
-17
-24
-16
46
-38
-12
-24
44
-19
-5
16
52
-23
28
-27
-8
-54
8
29
57
-64
12
49
-4
-7
-11
-27
36
-37
28
35
2
-97
44
27
80
-3
-16
20
10
-4
10
6
30
-14
-1
-104
26
-14
-4
-11
-38
-7
-78
-24
-26
-26
10
20
39
6
70
29
-35
23
47
-35
49
22
2
-29
27
-33
37
-27
4
-10
-1
11
45
4
-6
-65
42
-44
-4
0
4
93
17
-5
10
-48
2
127
-32
-9
34
10
-10
56
-8
-20
-20
-12
-15
-33
16
11
7
41
46
13
28
36
-4
-23
29
-42
-1
25
46
-41
-57
15
-36
-23
37
37
-26
47
-18
58
-26
-53
-15
7
32
-37
30
-17
-41
15
-43
13
-7
38
-33
-39
-75
51
2
10
59
-11
39
-1
-62
10
-4
41
-5
-12
29
-46
-12
-37
-26
14
9
-26
21
-54
37
-8
-20
-106
33
-14
23
52
-18
-15
6
8
-55
7
63
-10
-47
63
-20
-17
-69
-3
-2
-25
-21
-16
-33
-36
23
8
17
43
8
-12
-18
-4
14
44
48
-15
8
0
-18
5
2
15
-59
-17
6
7
14
82
35
-19
11
-39
-17
-20
-72
22
-4
75
51
18
-30
-65
6
-54
-21
-2
55
47
7
-48
39
16
41
47
-90
43
27
-77
-1
-39
-65
-19
17
-48
41
7
-3
12
9
18
-7
-3
12
72
8
13
12
-7
10
10
-28
5
64
11
9
-19
31
7
8
-14
-30
-52
0
-2
-76
-42
-52
-8
5
37
13
-10
-8
-6
-25
-98
23
20
-45
30
-10
-20
5
50
-32
4
50
-12
-4
4
0
-73
-3
-42
5
-1
84
13
36
-40
-14
45
-17
-16
-21
30
15
20
29
8
-9
41
-39
-33
-10
-42
16
1
-48
-10
-40
-27
-1
-4
-13
9
-5
13
20
-10
1
15
-33
-21
47
-28
4
-27
-7
44
35
-3
1
-18
41
11
-29
-15
38
-32
-8
-112
3
16
-54
13
-27
-20
-127
7
-11
-52
43
-17
47
-9
8
26
4
-27
26
-25
-13
26
6
-26
-65
25
5
-68
24
8
-54
-8
66
-12
21
33
2
27
13
45
0
-27
-26
22
60
-37
7
-45
87
30
6
65
7
-31
-42
8
12
-28
-56
-5
-25
33
-37
-35
49
22
-21
4
-37
-28
-17
3
-18
-39
-23
2
-29
-33
-57
25
-71
-58
-29
8
-16
-37
48
55
4
42
-31
-1
14
2
-7
8
2
-14
25
53
7
-37
18
20
-10
20
7
-22
8
-26
8
28
24
20
-8
-6
0
6
38
-18
1
-34
31
-7
-40
10
9
-22
4
24
-12
22
24
19
12
-28
-38
-23
-43
7
33
68
1
-41
38
35
50
-52
-19
-41
-14
24
-11
-34
46
-48
50
-75
17
-8
14
1
-61
31
-29
9
27
-24
32
62
-82
7
-16
0
1
-43
68
69
64
-53
-15
12
21
-56
7
27
-8
-27
-33
5
10
40
39
-29
5
-38
72
-72
-32
-3
0
18
-41
8
59
-64
-30
63
-13
-32
7
65
-22
-5
-15
-5
-32
39
-20
38
-1
-60
54
-16
-18
25
-39
60
35
51
13
13
30
42
-14
-15
79
32
25
-36
-37
54
-38
-22
31
-11
26
-29
-65
-75
15
-1
-19
-30
49
-36
72
-7
55
54
63
-47
-29
-19
37
-15
127
32
-38
11
-59
30
41
-15
26
12
15
70
-18
24
14
21
42
-66
79
-12
-27
11
-56
21
-48
51
28
-6
56
15
30
30
7
16
27
29
-34
30
-4
-12
88
6
17
-78
58
-18
-56
64
29
28
-14
34
-15
-40
0
45
-17
30
37
20
-34
-9
20
114
18
15
15
-23
35
125
64
-23
-59
18
-29
46
6
-8
8
-27
37
2
76
73
-36
43
-34
-12
9
-61
-68
-8
-86
22
28
27
-36
-1
97
-10
21
-27
-12
7
5
18
-12
45
-15
26
10
53
-53
104
26
54
15
-41
-45
43
-28
3
-15
-17
71
12
17
24
-16
25
-2
-3
-76
21
12
-10
58
34
-73
-52
-38
58
-58
17
7
5
31
6
5
-24
25
13
-85
17
-6
47
6
6
10
76
15
9
9
11
27
14
27
-20
-37
-41
21
42
-51
-35
72
26
-35
2
68
7
-53
-9
-32
5
16
-30
-11
38
38
-92
-60
-11
-6
-9
9
31
-23
-56
-12
71
-27
-43
45
-58
-31
19
-27
29
66
29
49
-16
18
6
-69
20
26
-5
63
17
-3
88
-13
17
22
73
-17
-21
65
11
43
-25
-52
55
15
-11
28
-51
-16
44
34
26
9
-3
-6
-39
9
1
73
-31
-12
22
-31
-34
57
-11
-5
5
-34
7
17
-17
-14
4
19
26
-14
-23
-60
-15
37
-4
39
-20
32
6
-51
0
2
12
-47
-30
29
-65
-62
-23
-40
13
-19
-19
-34
14
-76
-59
34
44
42
43
22
12
22
-11
-21
10
-17
-6
-74
43
55
3
-34
3
72
-67
7
-17
33
-31
44
-3
3
76
39
-18
-5
101
38
5
32
-40
66
43
6
-54
43
-14
20
51
-16
-41
-6
7
36
17
20
-27
33
-21
41
33
-1
-25
25
17
8
28
-4
-31
3
12
24
4
-23
-47
-34
-17
-26
-26
86
71
-33
-127
19
-8
20
18
-83
11
28
-40
40
-13
-52
-35
11
62
7
7
36
-13
17
-2
-23
31
0
15
36
37
-18
18
-13
-6
25
1
14
-46
-42
-46
3
-4
48
-30
-19
20
-15
10
-57
61
-49
-24
29
-12
-28
-36
-13
-28
30
71
16
-39
-46
-68
-4
17
-48
-19
41
-10
73
-17
18
-29
36
-55
61
10
32
-27
17
-3
3
-7
-1
38
18
-2
54
82
-27
5
-52
0
-10
-33
4
-9
-18
-3
21
-3
-20
1
-9
5
-35
26
-21
-50
1
-40
16
47
101
10
61
-80
-43
-42
-36
23
18
-41
-50
-12
-55
-28
-78
61
4
15
12
-84
-54
-25
46
-9
-11
-43
-48
107
17
-13
15
2
68
-10
-39
-70
-1
-1
1
77
36
-60
63
-35
-34
5
-49
-2
-24
0
35
-38
35
-34
38
-9
47
-127
-6
53
-56
1
-3
-48
2
-37
-63
6
-13
31
7
8
58
-45
-25
-52
10
59
55
-19
24
17
-8
-42
105
17
-13
-43
49
-68
-106
33
29
20
-54
47
7
59
34
-19
-77
-31
-14
44
39
-59
-8
90
40
31
20
-66
-34
1
20
-27
-1
-14
-97
63
0
21
-49
-32
-56
-30
62
32
-26
84
-1
36
-10
49
-52
-27
106
11
-28
-33
-7
9
64
7
13
-48
18
9
4
47
-42
4
2
49
-49
-10
17
100
-22
42
-24
9
39
50
30
8
80
58
-18
-86
22
9
-5
-28
24
-19
73
23
-43
16
-7
53
-7
27
63
-12
13
0
22
40
-34
-15
-21
-68
34
65
-32
31
-11
23
-11
-51
33
41
40
-41
-36
-56
19
-40
-27
-7
-71
-74
-17
90
-40
-25
6
-21
18
-53
-19
39
-111
-1
-1
-18
-20
52
2
-46
-4
-31
-23
63
-60
-70
-24
-13
-42
10
39
-65
18
35
-23
16
7
4
22
-15
22
26
16
-94
46
-32
7
49
-57
44
69
-33
-28
-10
-45
7
-18
47
-19
-39
25
2
-16
-19
56
52
29
19
-50
-18
13
-14
-2
34
-41
13
-19
31
-30
51
1
-10
1
-37
1
-29
-19
58
31
30
44
29
100
30
-33
57
76
-11
-31
61
35
-62
11
-36
20
-96
-4
25
35
-113
25
-36
-33
-21
-42
-69
-2
19
-57
-68
64
115
-14
-42
8
-36
-5
-14
-26
8
-13
93
4
0
10
14
18
25
-33
-38
-26
56
-2
-30
-35
-59
69
63
21
-46
20
24
25
6
5
-108
-111
-84
27
-68
7
20
-28
-20
6
10
56
127
19
17
-14
-103
-11
50
0
-41
36
58
17
4
44
-56
51
-5
-27
-14
-45
22
8
-25
-39
14
-66
18
-28
46
14
47
-17
50
17
14
10
-31
34
-23
-24
60
36
-15
-18
-22
-30
-8
106
-22
-24
-70
79
26
29
27
-61
31
-49
23
30
-3
7
-43
-81
96
18
-24
9
58
-57
20
66
-113
8
8
-7
65
-69
21
-15
56
12
-21
-54
15
3
17
-7
-63
-1
-8
-50
20
-19
6
-2
21
15
40
-35
33
62
-9
-39
-55
-21
13
44
-97
-48
6
-4
-15
-8
70
-43
-6
7
-11
1
48
-11
-36
24
22
17
26
24
6
13
-23
5
-45
14
-7
-8
5
9
10
-49
-10
-17
-6
22
7
-17
-12
27
-12
-20
25
4
14
-11
-9
-2
-30
-10
4
14
35
4
2
36
103
-28
-63
-33
-24
-29
21
-10
-12
12
-27
0
-41
-63
-77
9
-15
30
-4
-10
46
-5
26
18
14
9
-21
-22
60
62
4
-14
10
43
55
-11
22
-5
-17
8
26
-20
14
4
12
16
-23
2
8
24
-19
37
-11
27
17
3
-9
17
16
-13
22
-28
14
-5
-1
37
26
18
12
54
30
-20
14
10
-19
36
26
14
3
23
-29
-20
-13
-8
-4
21
31
32
16
-37
-15
-13
0
13
-37
34
-41
81
38
16
-32
-47
-19
-30
-18
10
7
12
46
3
20
-42
-12
3
-38
4
28
-28
21
-5
-32
-16
0
8
13
11
8
0
8
-5
-12
6
2
-9
22
12
2
17
-20
39
30
-12
-25
29
-7
72
15
15
-7
-2
22
-6
2
-45
27
-28
-34
-40
-12
-2
5
-11
0
18
-15
4
-2
-8
39
7
19
-71
25
9
-19
3
15
-21
-7
-31
-6
1
76
70
28
46
25
7
-5
41
-31
16
19
24
7
-24
27
-16
-1
29
-14
8
127
-13
20
56
-19
-27
-85
13
-16
8
11
1
7
4
-5
-8
-17
-4
5
-10
2
-1
-26
0
-8
-1
-10
-2
-2
18
5
14
-3
-5
-9
-3
7
3
-3
-5
-17
-2
-4
0
-3
6
-3
-1
14
2
20
-1
-12
-22
-7
14
-9
1
-6
-4
127
0
4
5
0
8
-8
8
-15
-12
3
13
1
2
-3
-8
3
1
-30
0
-2
9
-14
-5
-18
-1
9
-18
-13
3
-5
0
1
-1
-7
-4
-8
-1
4
10
-4
20
3
-3
9
-1
-5
-5
-1
2
6
16
0
-2
-2
-1
12
-5
-1
1
-18
2
8
-16
-5
6
2
6
-1
-32
1
4
-1
45
-13
1
-3
-24
7
6
3
7
5
3
-20
0
3
-1
4
-3
-8
4
-20
-2
3
-2
-6
-16
-6
-9
0
7
1
6
9
8
-2
-1
16
-6
13
4
11
5
-3
-2
5
1
-9
-6
9
-3
10
0
-7
2
0
-8
1
-1
-18
8
3
-5
11
-1
-3
-9
1
11
-4
-1
8
3
-2
8
-2
2
-18
2
-6
8
5
-8
3
-3
14
-8
-1
8
2
4
-8
-9
12
-22
-7
2
12
4
-10
13
4
-10
1
5
-11
2
-26
-2
-9
-9
3
3
-9
2
8
-14
-4
-22
4
-8
0
0
-1
-2
-8
21
2
-5
3
5
24
4
1
-3
-11
-20
25
-32
-34
-20
-21
34
-30
-18
17
16
-69
-68
62
-49
-82
10
56
65
-10
-8
4
-45
34
-90
38
8
10
-9
-61
88
-6
-102
0
-11
-60
-17
-12
-12
-30
56
-2
-19
-17
-39
31
-37
2
51
-4
4
7
49
55
7
12
-110
19
-38
7
-57
-12
-7
-22
-34
4
85
40
-6
42
26
28
71
10
-11
2
-25
23
5
21
-38
3
32
18
3
-34
-52
-42
-30
28
-17
-10
-37
57
31
19
30
-38
-69
-33
42
28
5
46
20
3
27
-25
44
-25
-5
-74
39
14
-22
7
38
-41
2
-81
12
-24
19
-9
47
-22
17
15
-9
3
20
-62
24
-72
-32
35
-14
-30
93
-18
51
-42
22
9
-25
11
-78
6
-13
-60
-13
-29
-30
-55
-23
-13
-14
22
-28
32
2
20
25
20
-23
45
10
16
-34
-13
-7
-9
-84
10
-40
39
11
-7
5
-34
-36
39
-8
34
21
-32
-11
-33
-127
-39
21
-20
40
14
-71
-27
9
-25
-30
-14
89
-26
11
-56
25
42
-5
-30
-25
-11
-3
2
-38
-6
-24
22
32
29
53
-29
-2
23
51
-52
-2
34
68
-6
-2
31
5
-20
29
-19
37
-42
-2
36
-19
21
66
9
-5
-84
-52
-60
-37
25
35
12
-57
49
18
-16
56
22
-24
5
-86
28
-44
-18
-9
37
58
-15
-22
-25
30
34
-34
-34
45
-14
-84
2
-91
20
16
-33
3
-7
-75
-65
11
-28
-19
-85
59
-2
14
13
44
-59
-21
-52
19
-39
5
-46
-6
19
-57
42
-15
-2
-78
44
-14
16
30
22
26
-56
-41
-45
-25
5
-56
48
-51
48
33
21
-13
61
-17
-9
-53
114
6
-17
57
-5
11
-13
-4
-3
-3
1
-29
9
62
50
24
39
-29
-4
24
-27
72
-6
-86
4
-24
46
-70
-29
29
-57
-9
88
58
-32
66
-19
-20
34
98
37
58
-46
-14
-10
56
-3
-14
54
-50
26
-38
7
41
-15
23
6
48
56
-9
28
20
19
36
32
27
33
29
-57
-29
-3
13
24
46
-14
12
-40
-18
-104
-19
35
-8
21
0
40
-31
-5
78
-55
7
19
-65
-29
34
25
2
12
-39
-17
-13
-10
3
7
19
22
-16
101
32
6
47
4
32
4
62
-37
14
19
-16
17
23
-28
-11
51
32
-15
80
8
-46
79
8
20
13
-42
67
-55
78
-32
3
4
43
-50
-103
-45
10
30
86
-49
-7
20
80
38
-68
39
1
-17
-34
-78
-27
19
0
-30
38
-85
68
45
25
23
79
-101
-7
48
37
47
-18
-43
-28
39
-34
127
14
-44
-40
8
-2
30
74
79
10
-75
71
-71
52
3
23
-40
-59
29
27
-119
84
61
11
57
12
-27
-51
-49
-17
29
-88
16
-29
-74
23
8
-12
-37
-2
-36
123
-65
-28
34
-12
-49
24
-45
19
27
-58
-35
37
1
-9
29
-29
80
-24
65
24
25
-5
16
-26
-20
9
35
35
32
22
38
29
-30
-26
-69
29
-61
-76
1
-57
-57
-1
-45
-9
-49
-16
42
14
35
-55
-19
-27
-34
63
-39
18
4
15
-93
-20
-34
-4
-6
71
77
83
-12
9
-4
-20
9
-31
-40
-20
-59
32
71
-81
-23
-2
-7
-1
-52
115
-2
39
9
-13
-43
24
-28
68
-51
6
64
-13
18
-23
-58
66
24
-26
-1
56
-26
-11
-35
-49
-46
-29
-18
7
13
-42
-63
-49
-62
65
1
59
0
127
14
72
9
-70
30
25
-31
28
-48
39
45
-40
-20
-51
-12
30
-13
11
22
70
-35
14
65
21
2
38
-61
32
-49
39
-39
-77
47
-75
36
-14
5
-15
126
-4
103
73
18
62
-45
-14
32
-29
60
-39
0
6
-8
-3
14
-22
0
-19
61
35
-44
-57
25
-33
43
45
-53
-41
6
64
47
51
0
-26
59
-3
39
-42
44
-112
-32
-22
0
29
20
54
-35
-46
62
-63
43
27
24
44
-1
-11
36
20
-22
-1
-20
-27
73
9
75
59
-15
11
-14
9
-31
-8
11
-3
16
-88
60
-19
-44
-24
15
-32
32
28
-19
-17
28
-2
68
3
-21
-10
41
10
91
39
29
78
-5
-74
-36
48
-13
-37
-16
-42
41
-19
-12
-25
-10
-21
-38
42
-63
-5
14
7
-42
-35
-40
-28
9
5
-93
-15
52
-8
-37
23
-35
-6
47
-1
-46
10
4
13
-14
10
31
-8
-43
-12
34
-7
7
16
38
15
8
-31
-83
-20
8
16
-48
-26
-22
7
12
12
-33
-47
-8
-91
-21
-51
-53
-71
59
55
-37
7
-3
-47
2
53
-34
-22
21
41
2
-16
3
2
-14
-11
-13
63
-29
31
-19
-13
-37
41
-24
-12
-70
26
-25
-1
10
23
10
-34
-31
16
-14
30
4
15
9
20
13
-10
3
-8
17
28
-4
-39
17
-45
6
-24
-6
-7
-23
-10
40
19
0
2
68
5
60
8
39
-31
-5
14
-28
-27
5
-39
-42
61
-31
37
17
0
-26
-5
-16
-20
-24
-48
-45
40
-9
-5
-20
96
25
-41
-17
-5
56
-76
20
69
31
-1
-4
39
25
2
30
67
18
52
-62
22
10
-41
21
-49
45
-8
-13
-13
1
-127
68
-66
20
2
-10
8
5
-3
-7
-15
-38
15
35
-38
-31
37
-20
-55
-61
13
11
-3
-24
-24
36
42
-28
-26
-8
19
-13
54
-10
-33
49
-13
-89
-17
28
-34
-68
43
-27
-18
0
-43
14
-12
-42
-32
-30
-24
33
76
28
28
17
71
17
3
17
58
-35
-37
-13
-25
-100
-12
-9
-28
51
2
7
-17
-73
-11
47
-24
32
3
-29
23
-43
-18
-11
-7
-10
-13
-22
-52
72
-14
-51
-6
-52
29
-14
18
22
-17
16
12
47
5
-16
64
72
-34
32
89
13
61
2
-16
46
20
113
26
-9
10
-93
60
-11
3
22
-52
5
-5
96
-64
-45
-25
13
50
-33
72
-22
16
16
-28
-52
21
0
43
30
58
-15
16
-34
51
-23
34
-22
2
-87
7
-7
-37
-20
16
6
-34
32
3
-15
32
20
17
18
6
-14
111
5
27
-6
-3
7
17
-17
4
-32
-28
8
-23
16
18
-30
-19
-14
16
1
33
10
1
59
-5
-53
47
-27
-33
8
13
55
-43
7
60
16
-37
28
-33
-117
-26
35
-55
-58
-25
0
17
-9
-29
46
1
13
-26
-58
25
-65
-2
-43
85
38
46
55
-4
-5
-7
15
-63
-71
-10
-53
35
-2
12
9
35
-54
0
-30
-45
4
-65
41
-19
25
53
51
2
8
38
7
-31
-70
-41
18
-7
69
-127
88
-31
-36
76
19
17
-5
-21
-20
-36
25
127
12
4
11
-43
-8
22
-27
66
-94
1
-12
-6
0
-24
19
1
-47
48
19
-38
11
41
38
-56
30
34
-36
-45
12
3
32
19
-21
49
-34
-35
-28
-64
4
-64
-24
-72
50
-13
-5
-26
-36
-17
-67
-23
44
29
33
-19
55
42
-80
-34
48
-21
58
2
-8
8
-53
-12
10
-4
-59
-27
-19
29
-23
-41
0
10
-24
34
-13
15
-35
-43
-7
6
32
-10
81
12
-12
1
43
52
22
-8
-29
-17
-14
-11
-27
34
-27
-35
-35
34
82
-27
-57
50
8
50
10
41
29
-4
-24
19
15
48
30
23
18
69
-5
-87
10
-37
63
-73
-21
-26
-6
82
29
-47
-24
-18
-6
-46
-32
17
11
-4
-13
4
-49
21
-5
95
-25
86
24
29
15
-45
-78
38
11
27
15
38
-46
-40
-63
24
-34
-3
12
25
24
-6
8
-16
-39
-51
67
-87
13
-40
37
-47
-15
-30
-2
30
-35
-3
-11
95
18
-11
20
27
7
51
35
15
0
-7
-21
-15
8
5
51
-78
-21
5
-31
-21
-12
-2
4
70
-24
63
36
25
44
42
-33
-26
49
4
11
103
18
85
33
60
17
24
34
-43
54
-32
11
-1
23
-1
47
-3
54
-85
92
55
27
36
-25
-9
-8
62
23
24
14
44
-55
-29
13
-17
-28
27
20
-13
-44
-36
-35
-10
-52
25
68
3
41
32
-11
-21
24
25
-8
29
-45
6
2
-7
-9
-9
61
16
3
15
6
-19
-44
-34
-18
25
-23
39
40
10
-38
6
-5
-1
-33
-11
20
-4
6
-85
-20
44
4
-59
-2
-31
72
19
60
-4
-2
-26
-23
20
21
-51
22
-27
-8
-7
4
-9
-13
4
-9
46
-23
-4
-78
-30
45
-8
-27
-14
37
-26
-35
5
-51
36
15
1
-3
-72
48
21
-5
29
-2
-8
-13
-13
7
-4
-10
-11
-39
67
-6
7
20
-9
10
77
-64
22
21
19
-37
53
43
27
18
35
-3
14
13
6
-32
8
-23
-36
-53
-2
-44
13
10
13
13
15
12
-1
52
-14
-6
4
-47
74
18
16
5
9
-6
-40
-40
2
-31
-23
7
-40
40
7
49
11
2
33
19
16
7
15
30
-2
60
-31
33
-17
24
-32
-5
-6
-31
-33
11
40
1
36
-3
-30
21
53
-55
-55
-2
12
5
-6
25
-9
-19
127
52
-14
0
12
-26
-13
-4
50
49
-29
-33
-51
66
12
-59
42
24
-4
-51
-26
-9
-25
16
2
1
27
-19
0
-29
4
57
-36
-32
-23
9
-19
3
10
5
-7
18
2
-15
-7
18
13
36
34
-7
-27
7
-30
-22
49
-43
-13
20
-2
47
-26
20
1
-123
-23
7
-21
50
-3
-9
-64
39
-36
-80
-14
-24
-58
-60
-76
-30
0
-35
-13
46
-42
52
8
37
-49
-46
-39
-14
-97
-11
-12
-6
23
-29
-8
4
-3
-26
60
39
-2
-49
6
23
-32
8
51
30
-4
72
-1
40
24
3
1
49
13
-21
81
29
52
-3
43
-18
19
-2
10
51
-29
15
32
-1
-35
22
-29
40
-2
-56
91
-76
4
7
9
-14
-17
-36
104
-40
-59
34
-23
-27
-53
24
-8
79
-43
44
1
-19
27
-3
-68
-7
-2
-13
64
-8
23
-10
-27
15
-39
36
9
-41
12
71
-24
-68
-32
-17
-53
-3
97
-2
38
-4
39
46
15
-22
-47
4
38
0
14
-41
-28
-44
-55
101
-15
17
10
-21
45
1
50
65
20
-30
21
-47
-61
111
-14
127
41
21
-42
-41
-3
-24
-18
-42
-52
41
-16
68
26
11
-7
-71
37
76
4
-12
-32
-16
-4
38
24
11
34
122
2
54
66
51
13
-45
25
-20
-62
17
12
-55
-10
21
-36
9
-47
29
17
-12
1
-33
65
-19
13
42
-23
-41
-106
75
-17
10
44
-21
-30
53
18
-29
-55
-10
-40
-15
23
29
-49
-15
-36
-13
17
2
90
8
-37
52
-12
-66
-2
37
-18
-1
-35
9
-21
71
20
-14
-11
13
-111
26
-39
-10
18
-7
-20
51
-42
11
-31
25
-45
51
-42
16
-25
-17
61
25
-30
-10
17
48
-41
46
92
-74
-42
9
-4
9
31
-16
39
-35
-1
13
11
-19
-48
13
32
24
-36
-8
36
-5
16
1
64
-73
0
-16
-10
-45
21
91
30
20
-19
-4
-6
28
-41
-24
49
-68
-36
55
23
32
-43
-40
17
-27
-13
62
7
-30
-28
18
12
21
-20
-54
16
-36
-19
-24
0
-2
-47
-10
-59
23
-9
17
40
-19
4
-13
10
-4
15
19
-37
37
-12
-18
-7
-4
-19
-7
3
33
6
-29
-60
-41
59
24
35
-33
-42
-35
34
12
30
-12
34
63
-28
8
35
30
-13
15
-38
54
-30
5
86
19
-48
31
-20
29
-44
38
60
-26
6
22
-53
-13
-29
-14
21
-50
-35
-37
22
-9
-13
-32
-1
64
23
-13
-11
27
52
-46
21
45
-38
-60
-11
5
-1
-30
-39
-11
42
-30
-8
-1
17
0
19
-6
7
3
63
-13
2
-52
127
17
-14
27
-35
-15
4
-5
15
32
23
33
9
0
19
-44
-13
-22
-13
7
-23
8
41
13
-11
-57
14
1
-13
1
2
-49
-37
-14
38
-41
-21
-6
-11
-4
-35
41
5
17
0
15
-62
-10
3
-14
4
-16
26
36
-25
7
0
24
20
-22
42
-24
42
-54
-1
12
-9
-3
26
6
1
-26
4
6
-38
6
13
-40
14
-49
-20
8
5
-4
1
6
-20
5
-8
16
-25
56
-19
-28
37
-5
-13
11
-1
8
15
0
3
-43
12
-7
18
-4
-98
6
52
-39
-15
-34
5
14
27
68
-25
-7
-32
-25
-6
-5
-5
-34
30
-4
-14
-29
18
8
16
-17
44
1
-22
32
-2
-11
21
-5
-12
-75
-25
-10
20
2
-12
-12
28
1
-29
44
11
-49
53
-25
101
16
-5
10
13
-13
-7
-3
39
-37
18
13
5
-17
-71
-24
-13
58
-8
-6
1
-38
2
28
20
-2
35
86
37
-21
18
-14
23
2
-56
11
54
-26
17
25
-50
13
-1
6
-28
27
-22
54
9
-29
6
11
-27
6
-11
-49
28
7
6
-2
11
38
9
-4
37
-39
-36
-12
-7
-3
73
-27
34
39
-63
-38
-6
-39
-35
62
64
10
42
-19
32
-40
9
22
-14
-10
-16
10
89
-43
6
-127
55
-23
65
25
-15
3
17
8
7
-24
2
89
-29
-14
24
-20
-4
-23
9
7
4
38
-7
-56
9
-65
-4
23
65
-32
-9
-1
0
21
-14
-37
26
40
-5
52
-60
68
-17
24
-43
4
42
-59
-41
-45
-18
-32
66
-16
-31
-27
5
5
-51
-8
21
43
37
-12
7
-67
127
-50
-22
-16
19
-56
12
-28
4
8
-19
-38
-67
-6
-29
-5
34
17
30
-8
-17
-60
-91
66
-39
87
-29
37
28
-31
-25
14
-6
69
22
-7
56
-23
-11
2
78
-53
-11
0
23
-1
15
69
-28
3
-65
-62
-25
67
-46
-72
35
31
-58
-66
9
-15
-50
5
34
-43
20
-14
-22
-9
-42
-29
52
2
-43
-71
17
31
10
-33
55
10
8
62
23
-2
-18
-18
7
11
-41
-36
6
20
71
57
-14
-6
33
25
111
-38
-53
10
78
-20
-69
48
13
-4
11
-59
16
31
14
-9
7
-36
40
-42
16
-10
45
95
-1
13
-4
14
30
21
-40
-1
-4
7
-58
-47
75
-42
10
52
10
-6
-58
38
-5
77
9
-17
28
6
-3
14
24
-11
-76
-42
12
-18
-39
-36
-13
101
44
-33
-45
22
46
18
4
25
12
38
-46
-8
26
-25
54
-46
-11
-14
34
13
19
24
-35
40
6
22
55
14
38
22
22
-59
-9
-1
-44
-40
22
-21
28
43
-25
66
0
35
67
-55
0
-66
-68
-6
-40
-40
60
40
-52
-16
41
-53
20
-45
-47
49
-1
-65
-22
62
39
80
4
-53
8
-11
7
-35
48
5
6
4
2
5
2
3
1
-9
-1
17
-6
-4
-15
10
-1
5
-3
-10
-23
5
0
-4
-2
0
-9
12
-7
20
6
0
8
7
-3
8
-5
1
-2
-4
-6
-15
-6
10
-2
-2
6
11
0
8
-7
-7
5
-15
2
5
-19
-13
4
-5
-2
-15
-11
-16
-8
-8
-4
127
-3
8
5
7
-4
10
-4
-15
-8
-14
-1
3
-5
6
-28
0
-17
3
-1
0
6
-2
63
2
19
59
-6
7
8
6
6
1
6
2
2
-3
-10
6
-8
6
-8
-11
-1
-2
20
9
11
7
-9
-1
-10
-3
-2
-1
-13
2
2
-3
-3
-3
-3
-9
9
15
-6
4
-1
-11
-10
3
6
-6
3
-5
-5
3
22
14
-3
1
-13
15
-3
-10
-18
3
-7
-3
26
2
0
5
3
3
-2
-2
-8
-4
-8
5
0
-7
2
19
3
2
-14
-4
16
4
-9
-8
4
12
4
-11
2
5
3
0
-9
-1
11
-8
-4
-34
2
-4
-9
4
-5
6
3
8
4
18
-12
4
2
-4
-7
-3
-3
-14
-7
-6
0
1
-5
5
-1
8
-3
3
2
-4
12
-3
1
-1
-13
6
-6
7
3
0
11
-9
14
0
10
6
-20
-6
-15
-5
-2
6
9
-8
-26
-3
5
8
2
3
4
-9
-12
35
22
31
44
3
-10
-16
-100
4
87
-16
5
5
-18
10
26
9
-49
-16
-104
65
14
3
75
6
30
-36
49
-42
-70
-102
65
40
44
-4
-2
2
5
-36
17
88
-48
4
-47
25
27
112
-2
11
127
-17
-58
0
-19
-40
16
43
8
33
35
-20
6
-5
-33
35
14
-70
-8
-35
-28
38
-39
1
-32
-16
27
37
84
43
-111
65
-12
-41
-74
-75
-10
-28
-29
1
42
26
53
6
37
-37
77
-48
-8
19
2
30
4
28
-16
-43
13
35
25
-49
-56
-65
38
-8
-25
-33
11
-36
43
-96
18
-35
-30
-15
76
-37
-56
28
9
28
-12
-35
25
-20
13
-6
48
-24
-9
-37
-4
9
-42
7
30
34
11
22
43
-76
-6
-89
127
-40
13
-80
21
116
40
-19
51
7
-37
-49
-32
-5
6
21
-28
-42
55
110
-19
24
-21
7
47
32
-11
-55
61
65
21
-70
24
106
14
65
-21
43
-24
-60
41
-6
117
-10
-11
15
-89
-37
6
-39
-26
-41
13
94
14
-43
28
2
55
-66
25
-26
-89
32
-24
-48
118
-39
-34
-81
11
-21
-32
-35
-103
-25
31
-1
-26
0
-37
81
45
10
-85
-55
-28
-51
-68
-5
4
-59
5
-29
57
-18
-75
-26
22
-3
20
14
58
-60
0
-37
29
9
-41
-59
-11
-57
29
8
78
10
15
39
15
-15
-22
3
35
15
12
-14
-69
1
33
-38
-36
-27
21
4
7
-76
-11
28
-40
11
-38
-49
-19
-19
15
-39
20
6
-43
17
15
-10
40
-27
11
-10
36
-6
28
-16
-15
-17
15
-42
21
22
-5
-17
27
29
-21
12
11
-18
41
-14
3
4
13
23
11
12
-13
45
20
-38
-48
54
-22
18
-23
-31
0
40
3
32
-17
20
2
-39
10
57
4
-52
-18
46
-10
19
-27
6
-14
36
15
-18
27
38
-17
18
0
59
16
-4
12
-18
-6
-21
8
-5
13
19
-28
-12
26
5
-47
-13
56
-19
-5
-37
-13
-46
-21
-24
-16
13
1
15
-5
25
30
14
-2
-13
-9
-49
15
-25
-5
47
-15
-21
-15
27
7
20
17
59
15
6
40
-44
23
10
24
36
127
-30
44
0
-19
22
10
-36
-8
-40
-41
-6
0
-45
-38
93
-28
41
-48
-34
-26
0
-3
-7
-5
33
1
41
-84
42
26
-32
-68
34
17
-70
5
1
37
29
-21
-31
-3
35
-12
-20
32
2
-39
36
-60
-22
-25
31
-2
-8
-29
5
35
-62
-19
-19
31
0
-40
-36
-29
47
-51
-13
-3
-23
6
-3
-3
-20
15
4
-79
10
-1
-15
21
-13
-5
-77
-35
22
-18
-29
-34
25
-10
55
-16
-28
12
-61
-10
-10
35
-14
-80
15
29
-32
77
9
-5
-63
-36
15
38
42
-4
-28
27
-49
-23
-12
32
-10
-12
-21
46
33
-46
-29
-31
49
-18
-10
100
2
-37
15
-9
38
29
16
18
1
-51
-83
-18
7
-127
-30
23
-26
17
-6
-45
-36
6
38
17
9
-16
-5
-3
-66
18
20
1
20
-20
-54
-33
4
41
22
-5
-25
-21
26
-19
-18
-32
10
49
5
-15
48
-48
-18
-18
-25
15
-40
-20
1
-68
-22
-31
34
21
27
0
15
-35
2
-24
-18
-51
5
-2
36
-33
-22
-24
21
87
86
-48
3
19
20
7
-14
-31
20
16
-45
-44
-13
8
-16
-6
51
53
-15
13
8
-2
8
-14
-41
5
-48
3
-32
-8
-33
18
-30
-19
-57
7
42
16
-23
-32
27
-26
-59
17
24
8
5
6
14
5
40
38
79
-27
30
24
30
-31
-42
0
-13
-37
23
4
15
-47
-44
-69
7
-18
-33
-17
-6
-22
-41
1
26
18
9
35
-4
-1
-28
-19
23
-5
-28
-26
8
29
-31
-19
-30
14
-5
-2
2
33
-44
3
-32
7
55
-7
6
40
4
10
64
-10
30
-93
-42
21
-24
27
34
-12
21
-30
28
33
-28
-54
-38
-8
0
-21
-60
19
0
8
25
12
16
0
-22
-6
-1
15
13
1
18
-16
-28
10
16
-2
23
14
17
-20
1
-4
-1
2
-5
-18
-11
19
-7
25
-5
-11
0
-9
-3
-13
18
-5
2
19
6
20
-19
-6
5
-22
-15
-14
-39
-10
33
-15
-8
-18
-30
7
32
-6
-22
16
-28
29
4
-33
-39
-16
1
38
1
28
-5
-15
-29
13
7
3
32
-10
25
48
-24
3
28
-24
6
-9
31
-11
21
-26
17
-3
13
-41
18
-30
-25
9
-18
-18
-2
-13
27
6
9
-11
32
25
-19
-15
20
1
-27
-11
-1
-8
18
-18
-16
8
-7
0
-16
16
18
-32
4
3
7
16
-9
76
-28
12
17
19
-20
28
-4
10
0
8
37
-40
6
-20
-1
38
-11
13
-27
7
17
4
-61
-14
-8
-26
-22
3
8
11
15
21
7
24
-20
5
18
-12
-29
-23
21
-21
-30
1
31
0
13
0
5
18
6
-4
-8
-33
13
9
-12
-1
-4
-1
-10
0
18
9
2
20
0
19
10
31
-20
3
-4
-16
-30
2
37
-21
2
4
17
29
-6
12
-2
-31
-16
8
38
3
-38
127
-12
15
13
5
-2
-11
12
-8
21
10
-13
-6
16
-33
30
-31
-2
7
-59
-22
-10
-6
15
-16
8
-39
-3
-26
-46
56
33
13
-2
14
-14
44
18
-20
-17
9
-58
44
28
25
-90
-11
-18
-23
-37
-6
-17
-40
-3
-41
3
-4
48
-63
-46
-3
16
35
-5
-15
-40
-39
0
41
-53
49
0
-24
3
-25
-4
-39
13
-7
-6
47
-44
62
33
-9
57
9
-42
72
-51
2
-18
34
-74
-26
-18
-42
-57
-53
-36
-6
-29
13
57
-6
6
51
-28
-19
29
-21
-22
-33
4
6
59
45
19
24
-28
-19
21
-28
60
73
40
42
-107
-21
-11
-35
17
23
-14
57
-8
-13
-23
-11
23
-5
-20
-50
-22
-16
33
-22
10
5
-4
9
-7
23
19
41
-23
71
15
64
37
-46
-22
36
-25
4
17
-11
37
48
-26
-61
38
70
27
16
-24
-57
32
-47
-44
-47
2
22
42
60
23
40
-26
36
-66
-68
-40
13
-19
-5
-12
35
12
-3
7
38
-61
-37
41
-2
25
8
27
-41
-127
-71
4
1
10
-9
-30
-5
-19
23
31
-21
8
-29
8
109
-47
14
-75
-16
-42
-20
-58
18
-9
57
42
-21
-45
27
-27
51
-20
-10
61
20
-28
67
-52
-3
2
54
-3
-43
59
49
15
-14
81
30
-21
1
21
-24
18
-14
-27
-22
-29
-38
-8
41
-25
-22
17
-28
5
2
57
28
-7
45
-2
-26
32
-4
-19
-30
-11
23
33
37
-37
-1
127
36
-18
29
1
24
-1
29
-16
58
60
-82
-88
-23
-1
-57
-106
-45
21
-32
-25
-33
-2
60
-52
5
37
-13
-70
6
5
-3
44
69
-14
-25
27
53
-15
27
-10
9
-77
-4
-7
11
-43
3
-13
-14
-29
-26
-27
-2
3
-14
-41
3
40
34
18
-27
65
-17
-18
11
46
-18
2
54
9
56
-3
-50
-35
-19
105
10
11
7
33
-83
42
80
-5
-29
-3
17
26
23
-28
-1
57
-5
28
-20
16
-23
38
60
-83
-53
-38
5
-16
-40
62
37
-22
15
38
-28
8
-23
-27
-57
-11
11
41
39
76
-21
-7
-32
-18
4
-22
-25
-50
-14
11
8
23
79
-7
-16
52
-5
-23
3
31
38
-92
64
-48
-28
53
-11
-34
34
-1
-23
13
-76
27
34
-69
7
-23
-6
42
-17
11
37
-51
28
28
-5
-4
25
-14
-34
36
23
5
16
45
-1
-39
47
3
53
-82
-47
0
56
-101
-32
18
-23
-79
-30
-36
26
-54
5
-15
-40
-9
42
41
58
28
-46
-26
37
-32
-72
5
-12
6
-3
79
34
93
25
43
-24
-53
-10
-23
57
-32
37
-10
13
-4
-21
-40
31
22
-99
2
25
54
8
-22
-4
-9
-62
-4
-47
-22
61
92
0
23
-43
-11
22
-25
-30
15
15
-48
24
-63
12
-2
10
20
-17
89
12
-8
0
-127
41
18
6
-21
-18
-12
-22
-26
-7
-26
3
-17
33
16
40
-13
-21
0
-9
-21
36
-13
0
23
31
20
-23
-74
5
-6
25
35
-10
-34
-22
-36
12
-41
-43
12
43
-31
-13
-29
-8
-28
-29
-5
40
-10
-35
-6
6
36
53
-35
12
-71
51
19
26
-12
4
-8
-11
3
12
-10
-31
-9
-17
7
30
15
-20
-2
-10
8
-61
-36
52
0
-18
30
79
-40
-15
14
13
-16
14
38
-7
16
-10
-1
18
28
-54
29
-7
-16
-11
5
16
-17
2
10
-5
-5
-25
-14
13
-9
-29
-23
21
-35
-47
36
43
19
-1
80
-41
5
-60
-14
-37
10
-22
-14
23
-6
21
42
-8
-32
6
-15
35
-19
18
8
19
-2
25
9
34
35
38
-8
-30
15
-35
-4
-44
2
-4
-5
37
-19
63
-7
21
-38
45
18
34
-11
-12
-18
-16
10
22
-22
-12
-26
29
-37
-20
23
21
30
-32
-33
20
-13
-40
-23
22
18
3
-52
-5
-19
-24
-1
10
27
-18
-10
-1
-44
-15
1
-6
-47
4
-23
-1
9
-22
-51
-20
-20
8
-9
-7
2
-36
-16
13
-9
20
-69
-39
0
2
32
-26
15
51
-36
29
19
15
-60
-22
-3
11
11
-2
-18
-19
1
14
30
5
-24
-27
52
1
-32
4
1
21
110
-25
25
-60
40
-23
-52
-35
-44
-37
-47
49
7
-55
7
1
-22
3
2
-20
-36
-8
45
5
-127
36
46
25
8
13
-23
-7
-23
-26
-16
19
-49
27
38
-38
-60
-58
-22
16
41
51
33
-30
-38
-55
-17
-52
45
30
-15
-50
7
-7
-1
-62
53
-3
9
-41
-1
50
37
-3
35
-45
21
26
-20
6
44
-65
32
-6
-20
16
-30
34
6
-4
2
-36
-5
-24
-17
17
-51
36
-19
-51
3
12
-12
18
-9
-12
73
17
0
16
22
25
-28
21
-42
-3
5
16
33
24
-14
17
-12
-33
-4
43
9
-3
-56
-19
14
69
-1
-29
-22
-5
50
17
-17
5
84
40
-27
-36
9
-64
28
-31
-25
29
51
-19
21
-2
-45
-18
46
-9
-49
-82
-10
-1
55
-30
-1
-25
-34
5
16
29
-31
75
-35
-33
8
46
13
-10
31
8
17
-19
18
67
2
19
59
46
-16
16
48
64
-50
63
-8
-85
-74
-5
28
-6
-11
28
-32
25
14
34
21
79
26
-35
40
47
-12
-2
5
-32
-22
15
7
-13
-14
-34
32
27
1
-44
-21
-84
-26
18
-37
35
19
-49
-26
27
-38
23
-3
-50
-12
57
-18
-10
69
-54
-16
-4
41
18
15
-62
20
-26
54
-33
-11
23
1
24
15
30
-53
-38
-58
16
-43
-11
55
-68
-48
43
-88
-13
-27
-76
-7
19
-72
-22
22
-15
26
48
51
23
6
25
30
-27
58
2
-58
16
15
9
10
29
-45
-7
94
-5
44
-7
-14
-17
6
65
-18
-22
-3
-6
6
-29
-36
5
-8
-11
-89
0
-21
1
79
26
-39
23
-4
-35
55
-7
25
35
-25
-1
-12
-29
-23
-67
50
-43
41
38
42
-52
-2
38
-26
31
105
-94
-1
21
-24
23
55
27
34
11
-1
8
-64
60
8
-1
25
-29
-67
28
-21
60
-28
-51
-28
29
71
0
-61
-61
37
-33
-36
79
8
23
127
-18
40
-2
68
-26
5
-31
24
-41
32
-43
5
-23
-52
-60
14
30
-17
4
-27
-25
-53
20
-40
-14
-24
-50
24
1
43
-3
-33
-3
1
54
68
43
-30
70
-92
-63
-33
9
2
30
8
-10
9
9
18
-41
-51
-62
-91
18
1
-41
4
60
64
29
43
-61
28
69
-11
-5
5
-54
-33
59
-18
51
0
5
6
-2
-30
15
20
87
-71
-18
-26
-11
-74
53
19
-6
101
33
40
-22
48
5
-50
40
93
-66
55
57
-21
39
6
2
-48
-21
-43
37
24
4
7
25
-2
6
-9
4
11
-53
14
-36
15
27
34
9
13
49
-12
3
-3
-9
21
-21
-10
-13
-24
-16
-15
-27
-26
37
30
-3
28
26
-8
-49
-11
18
-17
-18
-3
16
-24
-22
-9
-11
4
-26
-11
-42
-7
-16
-11
1
-5
39
7
10
-9
20
-58
127
-43
66
-4
31
-27
-36
-41
6
-29
-40
-10
13
-56
27
-12
-24
-17
42
8
35
57
-36
-18
0
55
-1
30
-6
28
-6
0
2
24
12
15
86
-20
1
17
-35
-3
7
10
9
-31
20
-16
7
-20
9
0
31
30
2
0
-7
0
-11
2
21
28
-12
7
25
-47
-27
22
26
38
-10
40
-9
-42
-47
-50
-40
-14
-1
13
11
13
10
22
-42
-29
-9
-9
-5
39
-14
-6
-16
-3
29
-36
-1
6
-32
-30
3
-31
23
-20
36
30
9
8
16
4
44
-28
-17
-13
-24
-25
-3
-13
39
-5
-31
-7
-30
2
-12
-7
-34
-8
0
-39
-20
17
25
-1
14
-25
26
-40
1
-50
-13
30
8
54
-8
18
-15
2
10
6
-9
-5
18
5
-6
-34
-41
-25
-49
1
-23
-7
-33
-14
-13
35
-17
-21
-3
21
12
11
-59
7
16
-36
27
-32
9
45
-33
21
32
38
22
23
3
63
-37
-24
3
-7
-62
55
7
-22
-4
-63
-12
-16
28
112
3
-23
61
-31
-59
-33
-10
45
11
-1
-99
-38
-27
-56
-11
-62
-7
-8
-3
5
-78
46
-35
-17
3
81
-26
-32
13
-12
13
-57
56
25
-52
48
49
33
49
-43
77
53
67
-11
-3
-55
-33
-52
19
-66
-4
5
-66
-49
7
-105
-2
-25
33
-41
-14
-15
22
85
20
-4
9
6
40
-56
-36
-1
26
-74
8
38
-58
-28
-26
-39
39
-28
13
24
-60
25
-2
12
-14
-35
-88
15
56
-3
-69
8
55
-47
56
-16
84
-2
58
20
29
32
-66
24
60
60
53
35
4
-21
-49
-32
-8
0
-11
-59
14
-27
-15
28
0
20
31
-30
36
11
-57
-8
-25
57
-10
18
-22
95
-5
-42
47
6
-127
17
11
44
44
-15
-71
10
42
-48
38
12
-34
42
-19
-19
15
-90
-12
55
-4
-45
-12
3
-22
0
68
12
29
28
0
34
59
-55
-42
-34
-3
21
41
28
-58
5
66
26
3
52
18
-16
-14
-14
25
-31
-41
17
-46
58
17
-70
9
3
0
-30
32
-45
-35
55
-3
-4
-7
27
-54
-43
12
-74
26
0
-47
14
0
-36
-48
44
30
64
-46
0
43
-31
6
-17
7
-21
-104
-26
69
17
62
-63
22
12
-43
19
3
34
-44
-32
-49
-34
-1
72
-37
-93
6
13
-12
-20
12
-82
-41
29
5
-14
-56
-51
51
59
66
-13
-27
-58
61
-3
-3
8
-45
21
55
-7
52
-43
-66
-16
-22
6
-25
-27
-38
39
59
-39
48
-71
-30
-60
-22
-34
-31
-25
-24
-26
-25
-11
39
-56
0
-40
28
-2
-6
31
1
-8
27
-45
-4
44
-33
61
-22
31
62
-33
40
20
-27
-11
-17
77
41
-43
3
11
-73
-4
-112
-52
-3
2
-18
9
-33
-20
49
-15
-17
-12
111
41
-30
36
35
-12
97
23
-3
7
28
-43
-13
51
11
13
57
-35
-9
27
-25
26
-1
34
-19
39
52
7
-70
19
56
13
-38
36
-12
-104
25
-98
-64
-50
-15
-5
83
-3
-31
-44
34
59
22
-23
-19
15
-111
-66
23
25
-30
-64
-34
-75
127
-19
100
67
63
-39
46
-72
85
15
-46
39
21
39
43
56
13
6
-48
-107
12
13
46
-7
-34
20
22
11
-43
56
-7
12
0
39
-5
26
51
6
-20
-51
-4
-21
60
-21
-2
-39
-62
-26
26
-62
31
24
-28
37
-6
-18
72
32
-61
-61
-64
-15
-75
0
7
38
-28
68
3
12
-32
-10
18
-53
41
-39
-19
-1
-34
-16
10
-14
-45
-26
22
-61
-8
17
-35
0
-11
31
-94
2
16
51
9
-38
7
-5
-21
7
24
19
22
-2
-3
-6
-21
0
20
-3
-2
-16
11
10
35
-11
8
0
-28
-7
5
-5
-2
22
-5
27
22
-19
-4
19
-4
33
-25
23
-35
-10
24
8
-36
-9
-57
2
-17
1
-30
-31
-28
-21
4
127
7
5
-10
-16
24
-5
2
23
-6
-50
-33
1
-20
12
25
-1
38
-11
-32
16
-24
31
61
15
35
15
-15
-2
54
19
13
-11
-10
1
-28
-16
-40
17
22
-23
27
-14
-20
-3
-13
0
-51
20
-31
7
-8
32
2
-21
-24
21
-24
-85
-70
39
8
36
-28
28
-26
-60
-20
13
-14
-10
15
-11
40
-3
-35
15
22
38
-87
15
2
-16
-8
57
12
23
1
0
12
-26
7
-3
23
-15
-31
15
8
8
-13
18
-70
-28
-30
-6
38
-36
-52
33
13
41
6
5
21
35
16
7
15
11
4
23
-13
27
-12
-42
-24
-26
-19
-48
-3
-5
26
-33
-17
-22
-38
-6
-24
13
-17
-10
17
-18
-37
-10
9
-19
39
-28
12
29
12
36
-7
-28
-7
14
-29
21
-12
32
16
-17
-19
-24
0
9
33
-4
-3
13
-5
9
10
0
-13
-29
23
-23
55
8
-4
-8
26
-2
1
-23
-4
-12
-19
11
-20
-9
-35
7
-33
13
11
-102
-15
-21
-18
-33
-22
-13
-36
0
10
1
11
-25
20
-24
9
-18
5
-4
-18
2
-3
-6
15
-10
3
4
-1
-30
9
-11
-13
-4
-14
-9
6
8
-1
-40
32
-4
-5
-9
13
14
4
9
-13
35
6
8
14
9
14
-9
4
-5
2
5
-3
9
16
15
-2
19
4
-8
15
-3
-11
-8
-3
-11
-1
16
13
27
1
11
-18
-2
2
-7
13
-20
-32
-6
2
-31
8
-11
10
9
11
4
-1
11
-15
-6
5
26
2
-20
5
-22
2
-1
-18
-22
11
15
4
-12
4
6
12
-27
21
-2
0
-8
15
1
-51
-10
-14
14
-26
-15
17
-3
0
-5
-1
-24
-12
-9
10
-6
-10
-6
-2
14
-21
19
0
-30
-14
127
-2
-28
-34
-7
-1
-9
-10
11
15
7
20
-5
12
7
-12
1
-8
19
13
-13
11
16
-6
-14
-1
-11
6
-15
2
9
4
2
23
22
14
10
-19
-13
7
10
-14
-5
26
-10
55
-3
-3
7
-3
-18
5
10
33
0
-16
7
-18
6
-28
-10
-17
10
35
-14
-4
19
-12
4
16
8
10
-6
-17
-17
6
-4
1
-15
-3
-7
2
23
-6
-4
-3
-19
-21
8
-22
-2
5
-1
1
15
-29
-1
3
10
27
-21
15
1
-3
24
-1
-3
-4
22
12
10
7
40
-33
-19
0
36
-9
32
-33
-4
52
14
40
-106
-1
67
53
-74
-14
34
39
52
-38
-14
49
-1
-8
49
-38
-14
10
11
-38
-96
-42
10
-10
-15
-48
-25
7
-46
19
-3
-50
-75
45
-34
-77
9
-10
-49
-104
3
-25
22
-38
26
-21
-6
27
-33
38
11
39
-33
-23
7
3
1
26
48
36
10
-17
-31
2
-28
-49
-27
12
-31
47
38
20
-23
37
-38
15
79
35
-50
14
-44
22
1
-12
-63
22
-15
29
69
22
-31
23
1
21
13
-36
51
-27
-10
-6
5
38
23
1
-14
-8
-24
14
-33
-26
-14
12
-40
48
45
17
-26
19
15
38
28
-24
-40
-32
-3
21
-42
74
-3
0
-26
19
24
5
11
93
-3
-6
-6
92
-62
47
51
-21
1
2
-43
-13
0
-43
-11
5
64
24
-5
5
-34
-37
43
-40
29
-38
-41
1
47
47
37
-32
25
63
26
-16
-18
-17
-12
47
2
28
-33
-42
-54
32
38
13
-20
-9
-28
-45
48
-49
10
-33
-72
-52
-17
11
8
5
-47
-36
-6
-55
-61
27
-32
46
11
-25
-79
-6
-38
-80
-28
-31
-3
77
-46
-4
-14
-5
19
40
-7
57
-17
-22
20
25
-7
-36
127
-15
47
0
-41
7
8
-9
-35
15
30
25
57
-25
13
-40
-7
51
18
36
10
-23
38
-79
76
-39
-60
8
-55
-40
-11
69
-23
41
-2
-61
79
-19
-38
75
-36
-26
-52
49
16
43
-2
-20
40
15
-36
-65
40
31
-12
-33
-2
27
5
40
-65
4
-16
42
15
-52
15
-23
1
-19
59
-26
-18
-3
49
57
20
20
-85
-3
-54
-17
18
-25
-13
-21
-30
26
-11
-58
7
11
-3
-11
3
-21
-57
-12
15
42
51
-47
7
16
53
-52
-74
0
94
-28
80
-28
8
27
92
-59
-28
24
53
-58
-51
-5
-64
37
-120
39
-127
-52
28
-25
101
1
-51
-38
30
7
-5
31
-70
45
-31
36
25
-45
77
-28
-27
-2
17
19
56
-5
28
21
-12
60
29
-17
17
-15
-50
-28
9
-34
-87
-30
79
-11
-42
-100
-1
97
-36
-55
45
-51
-55
-8
11
43
-1
65
-47
60
33
44
107
54
26
-33
-14
-102
-23
9
7
3
32
28
20
35
97
-47
35
18
3
-110
-42
-23
-19
-32
-95
61
2
-1
-62
-27
4
-26
18
-11
-34
-43
-15
16
-20
-30
-47
23
53
21
81
4
3
22
-17
-19
39
57
-15
3
26
109
-46
47
54
14
-35
80
-20
58
19
-1
5
59
30
-20
-28
-9
-68
46
10
-41
-31
-42
12
-1
63
-18
-10
-8
-41
-82
-18
-9
-23
45
-47
-31
-21
18
-11
18
50
-2
18
-27
32
27
30
58
-9
-28
109
-14
-15
60
-60
3
15
-5
13
-11
-59
-4
-39
37
-28
-75
-92
4
-42
-14
-14
-65
2
-79
0
0
-8
6
-4
2
-1
16
7
105
21
-4
-19
-38
-5
-40
23
71
-54
8
-32
16
78
-3
-33
17
47
-23
-11
6
-51
71
41
56
-6
37
36
1
3
-56
71
-5
-2
-24
1
35
41
6
31
80
19
-22
-62
-19
6
1
9
30
20
-53
-15
-8
-31
-8
-18
14
-17
46
89
-78
-24
-3
-28
8
45
20
-25
-9
-14
24
46
7
-59
-21
26
-103
25
-25
31
-8
28
18
25
4
-33
26
54
70
-41
-19
7
9
1
5
-68
4
-88
-28
27
1
-13
25
85
8
9
-26
-6
-23
19
-26
-18
-16
-3
-14
41
21
16
5
19
-68
-39
43
27
-15
-72
-30
-50
42
98
22
29
51
7
-57
-7
18
9
16
61
-92
-26
19
-18
44
-102
-22
16
59
-25
-17
103
-45
-39
14
56
33
-87
66
-70
-10
14
-6
-32
6
-29
-5
-14
-33
55
0
-55
-9
-78
25
-18
-5
31
-12
-31
59
-44
36
1
-77
127
-49
-20
-45
9
1
-54
17
26
-48
-53
61
73
8
47
20
59
-27
-97
16
-36
-39
-9
-42
82
37
-94
0
-39
-14
33
-32
-7
31
-88
-74
-25
28
-35
31
-41
26
13
-50
4
-64
-13
12
-83
38
22
18
-2
27
-59
25
-72
14
-20
-7
-34
10
60
-82
36
-37
26
-26
10
34
42
-32
69
18
-15
-114
57
42
85
20
-19
-12
52
11
1
2
-65
-46
-25
-18
-24
-13
-19
-29
20
-43
-47
10
73
-12
10
4
-62
28
48
54
-58
-10
-60
20
18
-33
14
-31
25
36
21
-40
54
8
51
26
44
-1
16
67
-22
81
-21
-23
9
42
-56
-39
73
88
31
-10
-61
6
-27
63
52
56
-10
11
-8
5
57
-24
-40
58
5
-16
-32
61
-10
-44
-24
20
10
29
-71
-64
42
-16
70
-38
-4
-14
41
30
5
0
76
-2
-10
-49
-29
91
-14
-38
26
-9
1
-18
-67
-6
-22
0
-20
-61
38
-81
-45
-73
1
12
-14
14
30
26
-44
62
38
-11
-40
-51
-40
20
-5
-25
6
-11
13
-53
35
39
-3
49
-7
67
19
20
-26
-60
31
34
17
66
22
-2
-36
27
26
-85
19
127
-25
-27
31
-16
-43
-52
-41
31
-8
-26
-5
-14
15
6
-3
1
33
63
1
-1
-51
38
-23
48
-11
-30
-12
-25
-23
6
58
-76
54
7
30
-79
-10
28
-21
50
13
-30
-27
-35
52
37
28
-37
-36
25
-2
-72
-6
-12
88
-55
68
-82
25
-37
11
-14
-43
-60
37
-31
48
-5
-31
12
93
-11
25
14
-29
-47
65
3
-8
1
-62
-11
33
-10
-26
4
-7
19
77
6
7
-66
-28
1
5
11
36
45
-24
-51
24
16
9
-28
-7
26
13
96
-2
26
-17
-22
19
23
42
-11
-10
-25
40
30
-53
26
20
39
25
97
-22
77
30
-76
-35
35
-41
-35
-51
34
-48
95
25
-44
-20
5
60
-48
57
-18
69
62
-18
-28
14
35
19
14
-8
2
55
70
-57
25
70
0
37
-61
3
22
-36
-68
-13
3
-63
87
-31
-4
-7
35
-38
53
-34
-4
26
-35
-55
11
-28
79
-6
-59
19
-127
-20
-11
88
-16
-28
-12
-10
-38
-36
39
-25
53
-23
-23
39
32
60
23
25
-32
3
-27
-3
61
-2
-52
86
48
-73
22
-12
-63
-38
34
-7
25
-20
-117
-47
43
-1
11
-57
36
27
72
30
79
22
-25
-10
94
88
79
-77
12
-8
78
-27
11
9
-33
-13
-10
31
-8
-65
-41
44
-35
-17
9
0
-9
52
26
24
-67
-49
-50
-14
66
49
-34
11
29
-47
56
-28
41
-13
7
26
31
57
0
-28
-41
5
18
-5
-49
57
27
-37
-35
-40
82
34
-65
-29
-34
-17
-1
21
-30
31
-40
100
-1
28
-96
-25
-34
-66
-33
38
-14
68
6
-79
-88
29
32
78
30
-21
-27
-50
-58
-28
12
-64
-20
45
-76
30
-34
-41
69
8
37
-39
-20
-9
26
-16
-32
-4
-24
-31
13
-57
127
56
-27
11
53
-27
-68
-3
13
-30
-15
36
-15
58
-21
37
47
-43
52
-10
4
13
18
9
-33
-45
11
6
30
4
2
17
-28
-19
-30
0
45
38
-36
-42
-48
59
95
-11
36
-43
-29
62
20
-3
11
54
64
27
44
-32
49
9
14
1
-7
-19
20
34
9
47
89
-29
12
70
68
-48
-23
4
-20
31
52
55
10
35
25
-19
122
41
112
21
37
-7
-12
-64
33
42
-2
20
29
36
17
18
-57
-76
55
-54
-5
-17
11
-16
63
-15
2
-17
-74
-18
56
-14
2
-31
13
-25
14
-15
-87
-24
27
51
73
32
-98
20
-30
-43
38
-19
-20
-32
-22
-6
66
6
20
-2
68
-30
-24
-11
39
-11
-13
64
-34
56
-81
-92
-4
-30
10
1
-25
-19
-52
-10
8
27
49
-10
-11
20
46
-6
-33
0
-13
23
30
82
39
-40
-21
80
-36
-16
-81
43
-66
-8
-8
91
-25
5
-11
-48
73
-57
49
47
24
-63
14
-73
-80
-24
-34
-36
45
-16
36
73
17
35
27
-14
-11
-3
-39
1
-28
-87
-93
9
-49
-3
-37
-51
-22
-33
27
52
10
-105
29
28
-13
-121
51
36
25
102
-48
-65
35
-7
40
53
80
46
-15
-3
-35
46
9
67
10
-38
108
25
-72
-16
20
28
10
82
-26
70
29
23
40
43
16
24
-3
-30
8
-9
-62
-6
52
54
-3
32
34
28
24
-72
-9
1
16
81
-16
0
-57
83
-7
-5
-4
-85
68
2
19
39
-11
-24
28
11
-33
-10
-10
14
-11
-35
29
0
12
21
30
46
47
-6
-121
54
43
-43
-44
-104
-18
19
-46
-30
-22
33
85
26
-68
4
36
0
-29
18
16
-14
60
-9
-7
10
-57
-50
-28
3
67
-11
49
-31
43
58
-9
-52
-107
-94
76
-15
30
-20
4
94
-13
30
27
31
-49
42
26
-33
-33
3
-32
35
-11
-39
-93
85
23
-31
-12
-88
17
-105
-12
-21
-13
-14
37
27
-116
27
-127
-88
4
3
-71
-37
-106
9
10
11
-1
37
-124
-38
28
33
44
-49
-22
-18
50
-55
-6
42
-1
-19
-121
-17
-30
-55
13
17
-60
38
53
-48
27
-20
-53
18
-7
88
-120
69
74
-45
3
-85
-11
-28
-58
-76
82
57
42
-40
-64
-28
-95
-6
30
0
-13
-5
-3
-47
33
-73
-30
14
3
-48
28
19
37
-12
-23
29
27
31
-21
-19
-33
-21
-64
-14
-22
-51
38
12
-21
-38
12
1
13
42
-44
-19
-63
12
30
-35
-6
46
-46
2
53
127
25
-10
-2
-7
89
-11
-20
-32
-37
-44
-37
50
6
43
37
11
-34
-40
21
9
30
19
25
13
-34
8
9
-72
-45
4
-61
-19
14
10
-7
4
70
32
75
35
-38
50
36
-27
-70
100
22
73
97
-10
-58
52
-35
-35
-49
-30
-13
-6
28
32
-5
44
50
21
-96
-28
38
-9
43
16
31
19
-18
-35
24
-10
106
-70
-41
15
22
0
26
15
17
-51
-8
44
-37
-43
-29
-27
-14
62
-12
-8
8
-37
-14
-9
-24
35
5
-20
39
17
-101
-8
38
-11
103
-20
11
-5
-26
-10
17
23
14
-10
24
-42
32
34
-10
-23
9
2
102
63
19
42
-49
30
115
28
53
23
49
20
51
79
-6
8
-2
-37
1
-34
-21
-29
-25
44
0
-22
-56
-16
-27
29
40
-57
-48
0
14
-28
-34
39
14
-63
-6
-75
-29
43
-31
-15
-2
21
53
-37
-31
-95
12
-45
-15
-55
-46
19
16
13
41
-79
-18
54
-55
55
-4
18
45
-25
62
-36
-50
94
20
7
42
-61
-49
96
-20
-18
-17
-8
-79
-43
-50
-6
-42
-13
8
-11
4
-76
-14
26
4
41
-25
27
-52
13
-16
-38
-16
22
-44
-32
49
-55
18
2
-4
2
5
-41
-11
30
-12
-20
7
-79
-24
-36
-15
5
0
8
19
-19
-25
10
49
-34
-14
-35
45
-19
19
10
30
42
-1
33
-8
24
-4
-19
83
-16
79
-34
-16
35
-69
-1
41
-1
63
7
-12
-54
28
-39
30
-69
86
-4
-5
-26
-56
50
-18
78
-37
-70
74
23
-3
-24
12
29
-16
-9
-104
19
-54
54
30
-58
14
32
-8
2
21
15
-7
14
18
4
-34
34
6
0
-28
55
35
-7
-127
35
20
-56
-24
-30
53
8
-11
-25
-80
-19
-30
9
4
-4
-74
97
-34
-17
29
-17
-18
-48
-36
-21
-36
27
98
31
-44
-24
74
-33
-52
-72
9
11
48
37
-45
15
5
25
45
-69
-10
21
12
-8
30
32
-16
-16
-68
38
-25
28
-70
-7
-57
-28
-2
-53
-7
-87
-20
-59
-56
-6
-55
9
12
65
-19
-29
-15
-44
26
-47
-37
-15
-18
5
-60
-1
23
33
14
37
26
5
-9
12
35
-41
-5
-27
-8
-14
-3
-58
-74
68
7
1
32
18
-60
-49
-57
-25
25
-10
-35
20
22
15
-52
21
62
66
2
31
-2
-4
14
-49
69
12
14
-1
-19
-16
-2
-28
-12
38
2
11
7
-1
19
8
23
-5
31
-2
26
-3
41
-6
-15
1
-25
3
-1
-4
-10
2
9
-67
6
38
13
-26
31
-13
-37
23
11
9
-6
25
1
9
-22
-6
-8
8
11
7
39
38
14
31
2
-2
-25
37
-127
14
2
-15
-4
-16
-5
18
-32
20
7
8
1
7
-5
-45
2
13
-53
8
-7
4
8
-10
-10
9
11
4
-5
11
1
-21
29
3
-4
1
-13
17
-21
-3
13
14
-73
-22
-11
1
11
-13
25
-32
-13
-2
16
-6
26
-22
9
-24
-1
-51
21
-2
-15
13
42
-3
-26
-21
-11
-20
8
-11
-2
-11
-56
-7
12
-26
-13
17
29
-23
33
-33
8
-1
-32
13
-6
12
10
-3
25
-13
-22
10
11
-22
-7
-3
6
-14
-10
-16
9
-79
-3
1
-5
27
-4
-2
-34
-28
-4
16
1
12
-7
-4
-14
8
19
3
13
-37
14
23
-58
5
-20
14
-31
17
21
5
-2
5
-6
16
1
8
13
29
24
4
10
-3
25
12
37
51
8
-9
-15
9
-6
-19
-7
-20
5
-6
-16
-25
-6
27
-29
1
-28
15
18
1
6
-23
25
1
28
31
19
-11
32
-7
-4
7
13
-38
-29
30
-25
4
-26
-29
-1
-61
6
-24
-22
2
3
-34
1
-51
1
25
14
21
15
17
50
1
8
11
-12
-31
-2
6
-8
-17
-18
54
2
50
-16
-16
3
15
-12
-4
-24
45
10
-40
-5
5
-37
15
0
-29
-28
-27
-19
-21
-14
-33
11
-23
-1
-6
-26
-1
-10
21
15
-41
-10
10
-2
-3
1
11
11
25
9
53
-20
-24
27
-19
-17
2
0
-3
15
3
-14
45
16
17
56
-17
6
14
127
-6
38
-11
-9
33
6
1
-25
-31
-14
-16
29
9
-13
-13
-28
5
-29
27
21
-3
-8
-35
-7
-2
-12
-11
-26
-20
-26
6
-25
-18
38
-19
-14
33
-3
20
22
-60
11
-29
-35
17
3
-16
73
-41
24
5
0
-34
22
26
2
2
-34
-9
-17
10
-1
15
-52
-36
8
-31
0
3
31
-8
-26
0
12
-8
-13
-17
53
-49
0
-9
-26
43
-32
-16
5
-66
-28
9
40
18
-1
26
-15
-25
31
6
6
-13
-1
-19
-34
71
12
9
-6
-38
7
-4
1
24
-4
-5
47
-50
15
65
-26
-6
-30
27
-11
32
-31
25
4
-3
40
40
24
-10
-1
-22
-2
42
-5
-39
-9
-14
-48
-22
-28
-15
-13
-41
34
-14
0
39
-34
51
-2
20
55
-26
34
-1
-20
4
-32
-6
25
9
2
0
11
-9
57
26
-10
11
18
-42
20
28
-16
96
-2
38
17
-17
61
9
-11
-51
47
5
30
47
-16
6
-1
20
50
-28
11
-23
-37
36
-2
73
74
-63
20
3
91
-27
-2
33
3
-40
-5
18
-42
72
11
-6
-3
-36
57
18
-25
32
-13
-23
-9
18
34
46
48
-35
-25
-60
12
5
10
-25
49
-28
-14
33
-9
-2
9
-68
81
-30
56
22
-26
-17
32
22
12
18
-28
-10
24
-23
-70
4
27
-20
20
-3
38
-28
1
56
-38
-3
-32
-26
12
40
-35
65
-102
-38
-64
-77
-35
29
-12
-25
16
-62
-25
-29
28
3
-19
74
37
1
13
16
49
36
9
51
16
2
-108
-53
-13
53
-31
-29
33
-18
-2
0
17
-27
-13
-32
10
16
-22
-1
-27
-35
12
1
8
-31
-11
4
21
3
-11
11
-8
13
-56
-127
24
18
-6
-48
-15
-3
-60
29
5
-6
17
19
23
-45
11
-5
-35
-8
-12
23
61
2
-41
-11
-49
-29
-51
-6
4
60
-16
-78
-50
15
29
42
16
-86
-12
20
-92
39
11
47
6
28
38
-38
-8
-15
31
-70
-31
-3
1
-69
-13
38
71
-11
37
9
0
19
-8
-42
-13
-18
-42
0
-106
-28
-23
11
-17
6
-44
-56
-37
-6
5
25
3
50
36
-41
-58
-50
67
59
-34
-25
-35
-57
19
15
20
-86
-14
-42
-37
-52
-44
-4
38
16
2
-42
-7
-22
-24
47
14
15
23
-38
-1
15
27
-19
-14
-19
52
17
60
-27
50
-20
35
-26
10
49
18
41
-38
7
-7
-6
-56
2
-74
-33
-43
7
29
-4
7
35
-92
-53
9
-7
11
21
-20
-7
15
41
-3
-9
9
54
-62
-95
53
10
-68
39
-31
58
-39
-33
15
18
-54
-36
-44
15
-58
4
44
2
49
4
23
-12
42
24
35
-75
-41
-37
27
-20
2
-24
-8
27
-98
-12
18
-48
-93
-9
1
21
-4
9
25
10
43
-1
-56
12
-72
17
83
68
-32
2
-15
-26
41
83
36
-16
6
24
56
49
-6
0
-30
1
4
-66
110
-11
36
-3
-81
-22
15
-14
16
-11
51
51
35
-127
-29
-47
-31
-16
-1
-55
-18
-70
-11
-15
24
-15
-18
10
-26
-63
85
77
18
-8
-16
-23
-14
17
32
25
-101
-16
-21
-3
36
-14
-62
-50
-38
-8
-5
-56
36
-7
-27
11
-1
7
22
-35
-25
-18
37
-38
21
-26
-74
-29
-8
-10
21
37
-21
10
-44
-34
15
-6
-37
-23
11
26
-27
33
12
-31
9
-14
28
38
73
55
2
8
-8
66
18
49
-17
44
-37
12
-31
-15
2
27
11
12
13
9
-23
18
60
-30
0
-6
-5
-78
-47
14
20
-15
-25
-8
25
10
26
11
22
76
-5
-32
15
-36
3
-18
17
-64
25
5
-11
64
49
34
26
30
18
11
-39
-44
19
-15
-31
24
23
98
-9
-52
-50
-21
-2
-25
-22
-62
15
4
28
-35
36
-84
-15
5
-2
16
-14
-14
-16
12
-15
-73
21
-17
39
-55
-8
21
-4
16
-51
-28
-60
-7
27
21
32
-38
48
32
38
12
-27
-19
2
44
-4
6
16
-14
31
-37
-26
11
-21
24
-3
-1
-3
-48
10
46
68
-69
39
-1
-6
7
-35
65
-6
-20
8
-41
16
-11
0
-61
-3
-37
14
73
1
19
8
4
19
23
-30
2
7
-35
28
6
79
-37
-41
-11
21
-38
-4
-37
52
-21
24
5
54
18
-66
0
-57
-6
-9
-57
-10
-34
-4
-127
20
20
16
-47
78
24
2
0
-13
47
34
-28
15
11
11
0
25
-94
3
37
-3
41
35
80
18
41
-39
-33
-22
-7
5
3
56
12
20
25
-27
-4
-26
7
-36
48
0
26
40
9
-46
34
-71
35
-14
-27
-12
-2
59
21
-9
-8
5
6
4
-2
-75
22
-42
44
18
41
1
-56
44
7
7
-36
23
24
-83
14
8
-24
-10
53
61
-7
-10
-36
-55
15
-22
2
-32
17
-40
-78
-60
-31
33
8
-50
14
-38
40
28
-13
-22
-14
-21
28
-26
16
-27
25
33
-29
8
-28
12
-28
-31
-12
-2
-22
-2
-44
3
15
-30
31
40
-51
52
-49
-58
-27
-24
13
17
14
40
-35
7
8
18
34
127
-60
-34
-50
-9
-9
-4
55
-19
28
30
-73
-27
26
-56
-24
-11
-7
39
18
-35
24
-47
12
2
5
27
-2
-60
-6
44
52
-27
11
-26
61
-47
-11
3
19
-79
-57
-11
-7
-12
8
85
62
-31
16
-21
-7
-11
-21
-50
23
27
-19
-11
28
1
-16
6
-53
26
-51
-35
-19
-12
32
48
19
23
-61
-15
22
4
-26
-27
-1
41
23
33
-18
-19
-3
-33
-45
-15
-42
-40
-7
60
-11
-19
18
-10
1
1
26
-42
36
-12
17
-19
-5
46
-61
-29
-20
-33
-67
-52
12
-31
61
31
12
-9
-22
36
-16
-22
57
20
9
43
32
-11
-66
-67
16
-25
-9
32
60
-54
38
9
17
45
60
-26
13
-47
4
40
40
26
-9
-67
-78
11
4
-13
68
-22
-2
-6
-38
-11
-8
-54
-36
-6
-20
-57
-3
-9
12
2
-21
8
24
4
-54
0
118
-49
56
-54
40
-75
-24
-29
-46
-73
-20
-9
-11
36
-44
-2
78
-13
28
31
-9
24
-16
18
-12
-16
15
20
-18
13
9
-3
26
-35
22
-23
-2
-7
13
-16
-23
-1
-45
5
42
-18
39
-4
15
4
-4
7
7
-4
-2
-16
-7
-8
32
-58
-16
7
13
13
16
-25
-1
-47
5
-11
-41
4
-13
-16
-9
1
10
13
15
4
32
11
18
43
11
-30
-12
22
28
16
-37
-4
37
-5
-22
51
-7
-31
26
17
-22
15
16
-4
18
26
44
19
3
-4
-3
47
0
13
6
7
11
-4
24
-29
3
-6
-2
-12
-23
-9
21
-9
-21
2
-27
3
2
12
-40
-9
5
-5
-4
-7
-11
-25
-2
-3
8
-24
-2
-43
-12
18
-3
5
3
5
16
7
-17
-52
24
-5
3
10
-12
-9
8
4
-27
-2
-39
41
-7
-1
-9
10
15
-25
4
26
-18
21
22
-26
127
16
11
-28
-2
-7
24
7
9
45
39
-10
6
7
-32
29
25
-9
-8
-26
-29
4
-18
23
-43
16
26
-12
21
-43
-2
-9
14
-19
-2
-56
22
16
31
-2
5
4
16
17
-78
13
0
-17
-46
-21
-10
-15
-7
-11
22
-8
10
27
20
31
-10
20
-7
14
-12
-10
42
14
29
54
-2
37
-25
2
15
-26
-13
10
8
-8
5
62
-22
-14
7
-38
-9
13
-7
-20
-47
35
19
7
-33
11
9
26
7
-32
-35
36
-5
0
-17
8
-21
-12
-36
-9
-23
-35
-15
-24
30
-1
0
13
-75
2
66
-15
-29
-8
16
-8
-18
5
-13
-24
18
-10
65
-14
3
-26
-41
-62
-2
-33
-7
11
-25
49
-4
2
31
6
15
-19
18
-12
-41
21
-41
-65
4
-24
9
-23
127
11
7
-24
-2
-16
14
-28
5
-3
-9
-26
-9
-1
1
-10
-21
-10
12
-35
63
-5
-21
-51
22
36
43
7
19
7
31
-39
26
66
-17
-49
2
-12
-35
13
-22
6
7
-13
-2
12
-6
31
-46
33
8
45
-25
24
41
-10
2
-5
36
15
-70
-7
27
-15
-37
-17
2
3
2
43
68
33
4
-2
1
-23
42
5
14
6
45
-32
-27
9
-16
22
-14
-77
-13
83
8
9
-54
-36
21
35
30
31
-8
6
60
-39
-53
1
16
45
-85
25
-18
3
17
2
26
53
-9
8
-14
4
25
19
4
24
-41
-12
-11
86
7
-49
-21
-6
-7
-8
12
16
-54
-17
33
-12
-12
-28
127
-7
-37
-5
19
-2
-2
-14
35
26
7
-13
-14
-1
24
-35
-42
-9
11
0
-22
-23
-1
-17
-8
-27
5
-21
-22
-33
-5
11
24
18
27
-7
15
-22
-13
-29
-27
1
-65
-33
-17
17
-10
9
17
14
4
15
-2
-14
-11
7
-38
-2
38
2
-15
2
13
-35
-32
-18
-31
-5
-24
34
13
10
0
4
-19
-10
3
36
-17
-21
-30
-34
-33
-19
-10
9
-39
-14
-18
10
-31
-58
27
50
-8
-13
-12
-2
-12
-27
8
-8
26
-12
-2
7
6
-6
-12
-19
45
-41
27
-1
1
-2
8
-1
-13
12
26
-7
36
17
38
4
-10
44
18
-36
-35
-17
-2
-16
-55
25
7
7
-5
11
4
6
-18
-41
-4
8
25
-4
2
-7
-10
-18
-9
6
-17
41
-39
18
5
25
-74
41
-7
19
13
-14
2
20
-1
9
-14
25
3
10
-41
-33
-45
-63
3
-41
-6
0
-8
-19
-24
-16
32
-17
48
-8
-32
-26
4
28
42
-31
79
-1
29
-6
-30
28
-8
-66
13
8
22
-20
37
-10
-28
32
-23
-127
16
-45
11
25
28
-11
-26
21
-55
-6
11
2
-15
20
0
12
-30
19
-10
3
20
0
17
-6
-9
-32
-13
-10
-9
14
6
-7
8
-22
-5
59
-16
15
6
-11
-2
-9
-29
3
25
-18
-57
21
12
-39
-14
-12
45
-13
3
5
-13
-8
-8
-48
-19
12
28
73
1
13
-8
-13
14
33
-23
28
19
11
-26
-1
-15
-1
0
-4
15
6
-31
-2
-42
-12
1
-45
17
40
-35
-12
-10
24
-56
-27
-53
11
-8
18
5
19
40
20
8
14
66
-74
-30
81
-21
-52
9
37
41
-28
-8
-32
-20
32
-18
35
31
-58
9
-21
7
6
-83
-37
-23
-11
32
-15
2
-49
7
-50
3
16
-17
-11
10
13
20
-43
50
-4
11
44
-16
60
27
-47
14
-11
-37
27
-18
3
-17
47
64
26
-6
23
-34
-31
-29
127
-17
27
-40
-22
-23
-30
-26
-19
30
-30
-3
-24
42
39
27
70
34
35
-50
-49
51
23
-3
11
-33
94
10
24
-45
-83
-5
-28
-18
-27
-56
-10
-13
-3
-35
-42
-56
11
-52
53
0
16
-3
18
-7
-4
9
18
16
9
25
-33
25
-10
20
14
-32
16
17
-20
-17
19
-7
25
79
46
10
-4
-37
-62
21
12
-30
31
-82
-27
-33
8
35
-17
-19
56
88
87
-13
-34
40
-25
-30
26
47
-18
-42
6
-46
35
-9
26
88
19
17
-40
-59
-29
18
-18
-57
-17
-3
0
-3
5
-24
-18
0
23
38
-4
0
5
-95
-29
8
-18
-11
-19
32
-6
41
9
5
2
8
-22
-25
-33
1
16
-32
-48
-12
-46
-41
41
-56
-9
-16
0
54
23
6
17
-64
1
64
-10
-14
-60
11
23
71
-4
0
-63
-47
-25
-11
-23
-17
39
-13
-28
26
3
-55
-1
-29
-31
17
-34
-15
2
40
13
1
5
1
1
-7
-19
-10
13
-22
7
-8
-7
-22
10
-9
-17
8
-22
60
15
-6
-11
4
-6
-22
3
22
11
24
-16
13
4
-1
-25
1
12
-16
-19
-21
-21
-6
5
21
-4
16
13
19
-15
-8
-35
23
-54
9
21
-37
-9
-35
-17
-41
-6
-16
-67
71
-48
-8
-26
21
-14
-49
1
0
-4
-8
-22
3
-30
-1
-19
1
7
-4
-11
-14
-7
-8
29
20
1
55
17
-13
13
-22
-3
-22
-13
20
-23
-13
-20
26
29
-38
-50
-11
-4
17
-5
-48
-9
5
2
-28
-2
1
-4
-1
-19
-5
-9
29
-12
33
-2
1
39
3
55
-12
-22
-1
2
20
20
-32
5
-5
-38
-22
-10
17
-37
3
-2
7
-5
9
-24
-19
19
23
2
8
-27
-4
-24
5
35
11
-6
-33
-34
-13
22
2
-18
-2
18
-9
-21
25
-6
0
1
33
-36
-36
-22
-14
45
-35
1
15
8
-3
-62
19
-7
28
7
29
-24
-15
-5
-52
57
25
18
14
-40
10
-1
23
13
-14
-6
-6
21
23
15
4
-4
-29
12
9
-10
-4
-34
8
-10
4
7
-32
31
20
13
24
-127
31
-24
12
-5
0
-5
21
-25
24
5
-12
32
-46
-29
7
-7
22
-32
-1
6
-53
16
46
-31
-15
-17
70
78
42
3
31
-55
-74
-14
-24
-69
-25
-11
7
-35
18
-79
-115
-85
-16
35
25
-3
53
-51
92
15
-21
-29
74
45
-68
56
106
-21
30
-92
-68
97
-122
27
91
6
12
-1
15
28
-7
-53
-60
-31
-4
-66
29
-29
8
15
82
-35
54
-3
-51
69
-13
-78
4
53
-127
-34
28
25
33
-4
-38
13
-17
-84
-114
75
21
-111
-43
38
38
-8
24
90
-46
85
-48
-43
6
3
-41
8
45
-12
-58
54
30
-36
4
-4
33
-13
34
2
13
-40
-30
-57
13
-4
-15
-31
19
-40
-77
-14
-43
-37
-49
-6
-58
-32
87
-8
12
-120
1
8
-32
-20
9
-99
31
-100
36
44
6
-81
71
36
26
-66
1
-9
62
17
-49
37
25
29
-18
23
-45
-26
76
4
56
-44
34
-11
-6
-43
61
-19
-73
-61
2
-7
-45
-2
51
-107
-13
-39
-21
-3
73
-31
-1
93
-23
-56
56
25
4
15
-4
20
-51
-19
6
7
40
-6
14
-12
-3
15
18
-28
27
-63
-7
-69
30
56
-44
23
-13
-2
102
-31
0
23
101
-27
-10
33
-43
-11
-9
54
31
10
70
76
80
51
107
-1
-18
73
66
-54
42
3
6
-63
-14
-38
59
-33
-28
-86
-24
7
36
-10
-4
-2
8
0
13
-2
-29
41
-20
14
27
-13
-23
-38
-4
29
-1
-40
5
5
4
-46
124
-12
4
42
20
-8
60
8
-11
32
6
-63
-19
16
-59
42
15
24
10
-63
-102
-45
-1
-34
12
2
8
13
39
-18
37
-23
52
86
-46
22
32
26
10
-36
-35
3
18
-7
65
16
23
-15
-127
21
23
-87
-86
-23
18
7
-25
-13
-2
-50
11
91
33
0
-4
4
-40
29
-31
10
-52
-57
-63
-24
-5
36
18
-6
32
18
10
-29
-26
-40
36
-35
-40
-40
-6
3
4
-2
-56
29
-20
-15
-6
8
3
20
-17
7
-20
8
74
-45
-22
-9
-52
1
19
-25
37
44
-34
4
27
7
-102
28
-33
-17
70
-38
70
9
80
-22
-3
-4
-37
38
4
-19
-45
-49
0
4
-62
-26
17
17
12
-6
-3
-14
13
-47
6
11
48
-24
28
41
-12
0
-22
52
-40
19
9
9
20
-18
-13
-16
-21
61
-59
18
43
9
74
6
27
27
9
29
-14
12
-14
-6
-43
-22
20
-48
-30
-22
-21
-17
-13
-8
59
-32
-35
-68
24
-41
21
5
-23
53
-30
36
16
-28
74
-17
-56
33
-67
9
14
-14
10
14
-39
-20
-7
-16
-47
-25
8
-46
-65
21
-5
57
10
-24
-20
5
-20
58
-46
2
18
-33
-9
42
-96
-6
-9
14
-18
-11
5
13
36
-7
12
-6
-11
31
41
-71
30
1
-6
-40
43
-24
27
-2
-26
8
18
44
-23
-1
18
-23
0
11
11
45
35
-75
31
-3
10
5
3
0
90
-23
-18
-15
-12
-4
-30
1
-38
-25
34
36
-39
-8
-10
-7
9
-18
24
13
14
-37
-34
8
-82
3
-25
27
21
-30
-56
15
34
28
38
22
55
24
6
12
15
41
-17
54
-19
99
-71
-30
12
-60
45
-2
24
-31
-13
21
-8
-63
12
-9
15
25
8
16
-25
-6
-23
-2
8
-35
-39
-8
43
-9
-11
-46
-35
4
12
26
90
8
-35
0
-14
-20
16
-4
-48
0
-50
-6
-45
95
51
-36
-23
-7
27
28
-51
11
-80
13
2
10
35
-16
27
-17
23
-39
7
10
6
1
-17
-46
-7
-56
-10
-8
23
-85
3
59
-15
-11
-30
24
81
-53
-23
-28
1
27
-20
19
-31
-4
-50
-38
-36
-8
0
-2
-16
-11
45
-20
17
-95
27
20
4
29
-16
-19
-30
-19
-14
53
-27
-69
2
-67
30
82
-23
-2
49
2
-17
95
11
-17
-63
-22
-49
-38
-4
-13
48
-38
127
20
-15
-49
14
-8
-1
21
-35
-6
-21
-26
9
-7
31
21
8
14
-35
-6
-68
42
44
37
64
-21
3
56
-63
-21
112
8
-10
46
27
-65
-16
4
-4
24
-50
38
4
-26
-95
-91
-35
26
-41
6
-36
-2
-61
-14
-7
25
-19
-5
-50
-11
86
42
-9
-33
56
-43
69
12
-52
-47
3
-23
-40
-18
1
-15
43
-97
-3
34
23
6
44
33
127
10
27
28
-33
20
-3
-33
64
107
1
23
-30
-11
-62
7
-24
10
-81
22
-1
18
-14
89
39
-32
-12
-42
44
24
20
-39
-44
-99
-9
76
-36
39
4
-11
-77
-33
-70
-19
37
42
-19
-10
48
-30
-28
32
-57
5
-43
-23
35
21
27
44
66
-14
47
25
-33
8
-28
31
-11
42
65
-11
-38
-18
26
73
-11
-8
-47
49
38
-22
27
-8
-37
-10
66
29
-25
-5
-14
-16
98
19
-2
33
-55
-18
-35
-73
-66
48
9
32
-9
8
61
-51
-20
3
37
31
33
40
32
73
-61
-20
5
-18
-48
30
-28
26
33
-5
-12
48
-50
-33
56
52
-40
9
6
13
-29
104
11
-45
27
17
48
26
107
69
-9
-3
15
-50
-21
50
-43
-22
-25
45
-12
-16
49
5
37
56
-89
-54
16
-66
-7
34
27
6
47
-52
47
-44
-34
-48
44
-122
49
-4
-65
75
12
11
44
-29
27
3
-63
1
-65
-16
-34
-14
-3
-66
13
29
-34
-47
31
-2
15
-4
47
-12
53
-2
5
-8
-33
7
1
-16
16
-9
-87
-18
43
-44
-49
49
21
-20
-28
27
-14
53
-39
29
-6
76
41
-17
46
-27
-34
-19
-1
-66
15
5
-1
8
-3
-49
11
-15
75
-83
31
48
-18
7
7
-6
-42
52
102
-10
11
-14
-1
36
53
-20
-25
-64
-67
97
-68
102
79
-29
3
31
5
-5
38
25
59
-14
-84
-34
-51
-33
-28
-7
0
62
-4
-59
22
25
-1
-71
48
-127
22
16
-80
65
32
-37
-8
68
30
-59
-36
-42
-31
1
-4
-10
-32
5
-14
41
30
-22
31
-24
-109
14
-49
-4
4
-45
-29
38
18
20
-21
31
-27
-24
10
-3
-12
-70
15
7
7
9
-41
48
25
-42
8
31
5
-30
-2
-4
-61
-18
62
35
32
-26
-29
-38
27
-4
43
34
-50
51
-16
16
1
-35
20
20
-97
47
20
14
50
-26
64
-13
-47
18
1
11
-16
10
53
-39
23
-13
39
23
62
-25
36
-40
-23
1
35
-8
7
15
13
-52
10
-13
31
75
-3
122
-3
53
20
-18
-90
22
-41
-44
-45
-6
-36
-72
34
29
8
-35
31
-4
44
-67
-5
84
48
34
22
-30
31
-57
21
-49
20
-53
-16
72
-24
29
5
12
11
-122
34
-14
-89
-49
1
52
48
23
-3
-65
86
-64
-28
22
-13
21
-45
-13
31
-13
-50
-30
61
6
22
55
29
15
-67
6
-11
57
42
-11
6
30
20
-29
3
79
-85
-36
-60
39
-21
44
11
-10
-22
49
-20
14
27
-116
-55
-15
65
-74
26
-27
-20
-30
-8
36
64
19
-16
39
-55
-29
14
0
-91
40
-41
-38
-35
-20
-34
-29
-127
114
34
-102
21
-8
48
71
16
-8
28
-45
-56
5
40
-96
-85
32
-13
76
-17
25
76
-1
-19
-7
-80
-20
8
44
-32
4
36
95
76
25
22
-51
59
23
-27
-23
79
83
-40
11
55
2
-38
-14
-73
-38
7
-27
0
41
0
-51
-28
12
-33
50
4
-7
5
-23
48
17
31
-68
-3
-5
31
103
116
-49
68
-38
-42
20
-16
21
0
67
5
-96
-96
-67
-32
-127
-104
22
-31
0
-50
-8
102
-43
10
26
24
-4
-15
-4
-14
-32
7
3
41
-39
-73
-23
-25
3
-61
59
-49
-13
8
-6
-16
55
-17
31
16
-36
-53
26
31
-9
65
-36
-24
91
-36
80
35
71
105
37
36
13
-48
1
-51
-40
22
-12
87
-53
32
27
13
15
-20
-82
-34
28
-82
-44
42
-34
23
-76
34
23
11
24
-24
-17
0
-57
8
36
10
-27
-24
12
-59
-31
-50
58
55
24
8
-27
7
-53
1
-28
16
-93
-41
23
9
12
-92
-24
-28
22
120
-14
-31
4
-24
22
-20
-39
-37
65
-32
11
-3
55
81
-61
60
104
-10
21
8
-45
8
-49
-2
5
25
-84
29
-53
-47
-34
-18
66
-6
45
49
33
-41
-64
37
53
60
-38
22
29
-6
-42
4
39
-66
77
-14
-41
11
17
32
-47
34
50
-32
30
40
-15
-35
-7
-33
-34
23
-1
13
89
-19
79
-4
-23
-50
6
16
20
62
-19
-12
53
-6
-58
-32
-45
17
-53
5
-37
-6
-3
-34
12
34
-127
-22
6
45
7
32
-32
-96
-33
-13
-29
-35
13
-43
-60
24
-52
-29
0
-26
5
-26
-82
25
-32
-114
33
26
-34
-13
-25
-85
88
-94
-47
-11
-65
-44
-12
-22
87
-5
86
39
-45
49
-9
-3
-22
-68
11
8
34
-5
-13
55
-3
34
8
-42
-2
18
3
4
-11
4
88
15
-71
64
63
-2
-92
8
-26
-34
-8
4
23
14
22
-16
-32
-39
21
19
-35
-67
34
-11
-22
46
12
-20
-37
43
-98
17
33
-5
-14
-27
-22
46
29
-6
-47
-19
57
26
46
3
15
42
-48
-32
-49
13
19
33
5
-23
-27
-57
-2
-26
25
-9
53
2
-9
-4
-22
-42
-30
-3
42
62
-14
19
-12
18
34
27
-16
48
5
-23
-7
31
-8
-62
-69
-80
-9
-127
-29
90
-41
12
-55
2
34
-51
6
-38
-22
24
-11
-15
9
0
-22
22
30
-103
2
11
13
16
51
16
21
-46
-15
16
5
-13
13
64
-13
-51
1
22
-30
43
5
11
-19
32
-32
55
-58
6
-34
-1
-56
1
-13
-25
-15
70
2
-4
40
87
-25
20
28
0
16
-53
66
24
67
42
-68
-15
23
37
-22
29
-36
-20
-6
-5
10
-21
-43
-45
-8
-40
-15
-25
18
-22
8
-48
73
37
2
-30
-2
54
11
35
-50
-27
-58
28
-3
-13
13
-81
8
-42
-45
46
53
30
38
22
-3
-16
-20
-38
18
-13
-64
0
-14
0
6
-11
-7
18
-25
-11
2
40
27
22
-22
7
-49
32
-7
61
63
36
55
23
-3
-10
-33
-6
-8
-9
24
52
-8
-58
40
30
11
-38
-37
76
-36
-56
9
-7
-19
-24
54
6
-12
-43
-77
-21
5
2
50
-36
13
-9
-15
-28
23
18
30
-28
28
-52
-18
-37
51
23
-37
-35
49
-26
48
36
15
8
10
-17
-48
-21
-31
-22
-4
107
29
-38
-63
-38
-23
36
-32
8
-37
-5
54
43
32
46
-27
-59
-26
-37
51
18
-62
-3
-14
0
-35
1
16
6
-15
24
-10
33
-13
4
1
-41
42
-25
48
16
14
-1
-18
86
7
-3
1
-56
-22
-2
12
-31
65
-14
-26
-43
25
-26
33
-62
-29
0
48
14
-41
-21
24
-40
-14
-3
-50
-27
-74
-3
15
-35
39
-10
-7
19
-9
-36
2
22
5
-14
50
-9
74
17
-24
9
-10
-9
-26
-68
18
1
-20
-33
-26
-16
30
-7
-13
-7
27
-27
7
0
-1
28
-3
-26
62
43
-15
-10
23
-25
12
-20
-8
-16
10
17
-9
28
47
-113
-24
4
-38
41
1
1
36
17
-39
-44
15
-32
12
127
-13
17
19
21
-31
-56
2
19
-69
1
-14
21
28
26
110
-31
15
-27
-29
15
-19
-1
-14
8
19
37
-6
40
15
34
-23
19
-48
-32
-18
23
-16
-28
-71
3
42
-33
7
25
-18
5
-30
-34
19
-20
14
12
-6
-51
-2
-11
-48
-24
-3
-22
-19
18
-43
6
39
-52
-85
-9
-8
18
-37
-31
11
-54
-36
54
45
-7
33
-25
-54
3
-12
-5
-71
-9
-14
19
-22
-38
20
31
40
11
39
13
-1
-22
14
2
11
44
65
-48
13
-6
-11
-79
-22
-55
25
44
48
8
-22
49
-22
-14
-56
36
-44
-40
-25
-20
-8
-41
-30
7
25
-10
-19
-25
-28
12
3
16
73
-9
64
-30
47
-47
-3
38
-10
-28
-26
104
2
-38
99
15
26
-9
-59
-8
-51
5
-50
-37
10
16
-59
-57
-35
-51
-7
3
-40
-22
-23
-41
-68
127
-32
-98
45
-20
55
45
-9
-11
10
-29
85
-53
-3
-24
-49
-20
-8
78
11
-20
-18
21
62
-56
7
0
-11
0
-73
-57
7
17
24
-41
27
-20
-4
-100
-11
-32
-62
-38
-61
-34
-23
60
52
-54
-34
84
-35
-70
56
-9
54
-16
-61
-3
60
-32
59
-10
-37
-15
6
0
-38
-103
-4
108
-91
77
10
-61
13
2
-22
-43
-24
61
22
20
52
9
29
-1
-50
-76
-5
-45
17
5
-20
-35
60
-53
44
5
-3
-36
-29
60
-75
56
46
-37
15
32
-40
97
-39
-22
26
16
3
-20
-26
42
8
-4
67
29
-8
-8
58
-37
5
-15
-31
43
-12
-20
-18
7
-29
67
41
102
47
-89
-116
77
-42
-52
-45
-28
17
59
6
61
-9
-31
52
34
31
48
-30
15
37
24
-86
31
-4
74
-108
66
6
15
20
-22
7
27
22
13
45
26
-37
18
37
44
84
-17
0
2
44
-63
-70
38
-25
-25
82
-12
-10
57
18
9
-29
0
-28
37
0
21
-26
-31
-75
-21
36
-6
6
9
-46
-51
-37
-33
52
9
-24
40
17
50
41
-12
11
73
36
-78
-6
0
-40
23
-24
20
-95
11
3
3
-4
-14
-65
5
54
-46
39
30
-48
-22
24
26
-12
66
-30
-7
-26
-26
-8
18
37
-92
11
27
26
-33
-21
1
19
21
4
27
45
-18
-44
0
16
8
-7
21
-25
-7
102
-17
20
52
45
-23
5
-59
-29
-48
28
17
-31
-62
24
-63
68
59
-16
-38
8
-31
16
-16
11
17
28
20
-24
-33
-14
24
-37
-58
39
16
-28
-7
7
8
-39
-21
6
-2
37
-30
46
6
3
-5
68
-33
63
-13
4
8
-32
38
-98
11
25
51
-69
5
-25
-11
-25
-102
-83
-9
-16
-1
-39
-58
45
-14
9
2
-39
-9
-80
-16
-15
-46
-24
3
3
48
3
-83
5
68
-13
27
-30
3
-7
4
50
-32
-7
27
72
-1
22
22
-11
-19
17
54
-11
-17
17
8
-16
-41
32
22
-11
-8
-32
-11
14
-10
-3
6
-16
-35
10
-47
20
-5
1
-2
-18
-1
28
127
-9
38
8
-10
11
-5
24
-55
-8
-25
-27
22
19
13
-14
28
76
-44
-24
3
30
20
-18
7
36
-56
14
60
-28
-19
-26
-12
36
33
15
46
-21
29
33
-6
101
12
-27
-29
-34
-22
30
-4
0
-8
-1
6
9
28
1
-37
-13
-16
-4
-18
113
89
45
11
36
35
2
-32
7
54
47
21
-28
-5
5
106
-20
29
-77
28
114
-30
-50
31
-13
-9
3
-9
48
9
9
-7
-77
17
-40
22
-17
-3
-70
-35
-68
-15
-21
3
23
20
6
-18
17
44
5
-87
15
-3
16
-24
54
-42
38
31
22
24
16
-11
32
-7
-124
8
-13
-18
16
29
8
25
-6
-62
6
-56
-25
36
-7
15
-35
1
0
-2
-32
4
-58
42
10
53
14
-59
15
58
60
-42
74
49
-10
-54
-19
37
-36
54
11
10
-10
3
-13
11
-40
-45
-46
-18
-2
30
-16
38
49
-44
12
-36
26
9
-53
22
-21
5
7
30
11
-76
-27
26
-2
21
-18
5
-61
33
-90
8
47
92
30
-43
32
-1
-38
87
-24
52
13
-42
-7
73
-29
2
12
-15
85
15
-50
-1
31
-1
44
10
-39
29
-16
-25
30
-3
32
42
-17
-40
8
41
6
68
-113
-8
45
-30
33
-43
-67
-41
38
4
-39
-127
23
-14
98
3
62
-80
-44
-66
17
36
60
-20
-24
10
31
5
-12
-30
-43
14
0
-30
21
-33
-17
-12
-45
16
47
17
-27
-60
42
-63
-16
33
39
-34
-24
9
-26
-35
-32
-31
-45
-23
29
19
-35
-55
-19
18
27
-67
14
4
-70
-19
-23
-10
19
-1
-3
-35
-24
-8
12
0
13
26
-22
5
88
-27
17
-22
-58
-14
-46
-15
-14
-127
-38
-23
15
-27
13
-60
19
-37
8
-17
-6
-44
-10
-16
18
-1
-2
9
-22
-33
6
-11
7
20
-14
0
-29
22
39
-7
8
18
10
8
14
-16
-19
-6
-24
12
7
-39
3
-24
-13
48
-26
-56
-10
20
13
2
-14
-27
-29
8
-15
-16
38
28
26
28
-3
-14
-17
23
-21
21
-12
-2
-3
-7
-19
8
-4
20
-10
-3
16
1
35
26
3
38
15
19
-28
19
50
33
-47
0
2
-28
14
23
32
9
16
-19
-37
13
13
-15
-3
-37
11
-38
-21
9
-13
33
-24
11
0
-2
46
-19
11
-7
-49
25
-52
21
3
-8
16
-25
-6
1
31
51
47
-8
5
-57
9
17
-11
25
14
-24
-4
-33
-8
-16
0
18
14
6
28
10
7
31
47
-24
61
-16
1
-10
-4
1
6
-11
-10
6
15
-40
-50
-2
-18
3
-26
-86
6
30
7
-23
-1
-14
7
-27
42
21
13
33
13
-21
58
-30
-3
41
29
6
7
-31
-48
-29
33
-9
13
-6
11
-44
8
23
2
6
55
-15
9
-27
47
-71
-55
-66
16
-1
-14
-9
1
21
-55
-24
-13
19
22
11
-20
13
16
16
23
64
20
-7
25
-15
38
-53
-49
50
13
47
14
-9
-1
-5
23
-48
-43
-5
-18
-79
50
-48
-11
-50
-13
15
-24
-57
12
-15
44
7
-68
-38
13
13
-45
-59
50
50
31
-42
19
-41
60
-29
16
-12
3
15
2
-30
-15
-5
23
8
-32
69
28
1
43
9
0
-23
-35
26
71
5
-30
-48
14
-30
32
25
-127
18
2
-5
6
100
39
-25
110
81
16
35
19
40
-37
25
-4
-38
-22
-62
19
-83
-17
24
-40
7
27
27
-5
52
-31
-13
29
8
-1
-34
5
41
66
-15
9
74
2
18
-54
19
0
36
-24
2
5
-6
102
-22
31
13
-23
-39
-29
54
-18
14
4
25
1
-34
-34
59
-10
-44
11
31
-28
-23
30
-61
1
15
50
-17
115
-50
-26
3
44
13
79
20
-10
-15
16
-2
29
26
38
42
30
99
-21
13
-21
32
49
-44
17
25
25
-17
-18
-1
-24
8
-70
9
-18
-20
-32
9
-5
-22
25
11
-23
1
-16
18
-42
33
-7
-4
-20
-31
63
60
-20
24
92
29
-38
-7
-7
-11
49
-26
26
61
45
-26
-52
45
-21
-49
5
-20
-59
56
-72
11
-16
70
-23
50
-73
-4
-13
13
-4
-24
19
-52
-27
-26
-59
52
-44
70
40
-13
-16
16
47
36
27
-46
7
-54
-37
60
55
34
23
-6
24
51
19
29
72
-104
6
-22
-3
17
40
26
-33
-88
46
22
-2
31
52
42
45
4
-47
-32
-8
34
-5
-11
-10
25
33
53
19
-64
46
-71
34
-46
-26
-48
-80
-27
4
-41
-26
-4
-7
8
50
77
-4
0
-113
-11
-32
19
46
25
32
-25
18
-3
-2
-28
-10
-34
-48
-20
33
-43
16
18
37
14
-37
85
-14
48
-74
53
-50
-29
-67
-80
12
-6
-11
35
-24
38
13
-27
-49
65
-47
-116
0
127
-10
-7
-17
-51
40
37
-1
-62
47
18
-62
-20
2
93
113
-68
-72
3
-53
102
19
53
-36
-42
51
0
-31
81
6
-35
74
62
62
41
15
46
8
-19
-21
-60
14
-8
53
18
22
-23
51
-46
-22
-12
17
71
-44
14
14
-64
-37
-10
55
-39
-5
-7
-13
58
2
-38
-19
-47
-26
48
-46
-39
3
-85
97
8
-77
27
12
-2
28
-10
31
23
22
-70
-8
-29
-11
50
-16
56
35
-57
-92
46
19
54
56
-120
41
-82
-43
-65
-19
21
83
-45
21
26
28
98
-2
-26
-3
28
26
-47
24
36
29
-42
-66
-34
41
-7
23
-1
-10
10
-47
74
33
-29
-60
-33
-1
-6
47
-44
-4
42
0
33
0
-23
-69
-42
22
30
77
2
-39
12
21
15
-4
27
19
3
17
10
-24
2
-20
-16
-4
-23
-31
-19
-37
13
-62
51
45
6
27
-21
24
16
-66
-74
29
0
-11
-28
56
-116
55
-13
19
-35
-2
-7
96
-32
38
26
-1
-66
-2
36
5
126
32
-18
15
4
28
29
38
41
35
-9
-45
-25
-62
-37
-117
-4
-29
-17
-87
90
50
-4
-8
-10
64
12
-15
5
-56
20
59
-5
67
27
-94
53
-20
15
25
-59
-16
41
18
-57
-30
-65
52
50
46
44
21
-13
-9
24
35
27
-63
71
-77
-51
-6
5
18
-48
46
-1
44
51
15
23
-21
-11
10
20
-15
30
30
42
-59
-4
-28
-19
-42
16
2
-26
25
6
-21
69
99
-59
-45
61
-120
52
94
-69
50
-37
-8
-42
-9
-30
-2
39
-12
67
59
-74
73
-18
10
-43
-4
-12
-26
22
36
-14
9
7
-95
-14
-2
7
-31
-15
48
19
11
-65
-4
-68
-22
9
-24
4
-7
-1
79
21
6
-53
-86
-19
-47
121
30
-12
87
-21
-11
41
-127
-37
-25
-5
-22
-32
54
12
44
7
33
13
52
37
60
-41
60
26
53
48
51
-27
3
-4
-35
-2
-33
12
60
-29
-64
55
-17
-10
2
98
34
30
-86
-76
33
-26
3
46
24
57
-99
104
-56
-25
-22
49
-58
-102
-3
11
42
-19
-6
-36
-41
-25
8
-26
48
0
-6
58
-37
-15
-16
127
56
26
44
-7
56
-70
72
90
-65
26
-13
29
-41
-37
-38
-44
-11
-74
27
-17
-16
-59
10
60
62
-21
-29
-22
35
-65
-21
2
14
37
15
-55
26
20
-48
-4
-93
-21
26
-109
64
15
-111
39
34
-39
-17
86
-47
-49
-64
-39
-41
40
75
15
-22
-18
-44
22
-28
-1
-78
41
59
-90
-6
-19
-2
22
13
-42
6
101
17
14
-13
95
-27
-15
-43
60
-44
19
38
73
-19
-41
-9
-9
67
-37
-35
6
-48
3
-70
14
-16
-55
-29
-31
27
-4
-53
82
65
-77
-24
-1
44
-30
45
43
13
6
25
-30
-36
-9
-76
-18
52
-24
-21
-11
-31
19
72
9
5
25
33
-31
38
49
7
-104
-9
13
-18
-13
-122
74
42
-30
-29
35
21
-22
5
54
-87
25
38
8
-42
75
3
26
17
114
-8
38
8
-33
14
-81
20
-17
-7
4
20
3
58
-43
-6
-95
-15
-61
-7
-43
26
55
68
-36
-29
46
46
5
109
29
-57
9
49
71
-16
-56
74
101
-39
-3
75
-7
-36
-42
-11
5
-32
22
-64
55
-62
2
-72
37
29
15
-60
-23
58
38
2
-60
13
13
-10
-27
22
56
15
22
-7
-34
21
15
-32
24
11
-21
-20
16
14
57
-9
-22
2
-12
-6
-6
14
24
22
26
-11
39
22
96
-47
58
-42
-6
11
36
-27
-12
-39
-20
2
55
7
1
14
13
-15
58
-29
-14
0
14
13
14
10
-45
-49
-11
10
-1
23
58
13
8
40
-3
44
-18
-30
42
-32
-54
31
1
0
-29
-33
28
30
33
4
7
22
13
30
19
-51
28
26
-114
28
-4
6
57
-82
39
-123
-24
-25
37
-38
-25
-48
-37
-13
9
3
18
-127
-12
8
-43
2
80
35
1
-69
-63
25
23
-47
39
61
18
7
14
75
-15
-44
15
15
75
-1
-34
-10
57
-58
23
-15
-7
-11
25
13
4
7
11
24
23
39
32
28
24
39
-26
-6
-7
-38
49
20
3
34
50
-9
62
-12
-71
14
35
40
42
28
-39
61
31
15
-64
-106
14
70
-2
27
1
-22
18
-7
-32
65
12
-63
26
-9
-30
4
-15
11
17
1
-24
-32
32
9
-68
10
-32
-8
35
9
41
-6
24
36
-10
21
-6
95
63
-13
27
-5
11
25
5
-47
55
-22
15
-26
-54
-10
-17
4
-6
21
-6
5
37
28
21
-21
-8
39
10
25
11
20
3
-23
-29
46
-50
-24
-95
37
-16
4
-13
0
-23
3
-45
59
-28
26
24
-22
16
16
93
-76
-7
10
1
-21
-23
-40
-1
6
57
69
7
-39
24
-20
-24
-32
-13
-51
71
-51
-31
-47
-46
50
27
-3
17
-32
-12
-26
5
30
-30
19
-22
-57
7
8
1
-2
33
-1
32
-16
23
62
21
57
35
-12
-22
-8
-66
-39
8
-12
8
50
26
49
120
23
-13
45
-17
15
5
14
-17
-42
6
25
59
2
-14
3
-31
-22
40
-27
-3
-15
7
-6
-38
10
35
-15
17
15
-38
52
-23
7
-10
30
40
63
-69
22
53
-6
-15
4
26
-16
-6
-26
54
-91
15
-12
8
15
-12
10
-10
38
-58
-73
-15
-38
4
-2
34
-23
7
-18
-25
30
-1
1
2
-23
-43
10
-36
-11
53
23
-96
5
23
-23
83
-5
-26
-38
-1
18
-31
29
44
-12
42
-4
-20
56
-30
-8
12
1
-45
-13
-11
52
-79
85
5
-15
-72
16
-13
-5
-31
-18
-17
-96
30
-6
-28
6
78
0
-15
45
22
-42
-65
12
-9
13
2
-23
-18
-33
-50
23
-30
86
55
54
-20
54
-25
-17
67
-22
-6
76
42
127
44
-15
28
-44
99
-53
-46
-37
10
5
103
-38
17
6
-7
21
5
-6
15
-27
-71
-43
-49
-50
3
9
15
-25
-82
3
-28
-15
25
-29
-27
-24
-15
-7
13
-23
-85
-5
-8
14
-10
55
-20
-30
-54
15
22
-9
-30
68
-10
88
17
59
0
0
-23
-9
-13
41
26
-3
-30
-60
68
39
41
-29
11
-20
-4
-11
25
18
56
14
33
-38
40
24
6
22
0
-59
-20
76
41
4
12
-4
38
-4
50
-25
-9
9
52
-28
-4
15
-76
-61
0
-7
-6
39
24
44
1
-14
-21
-72
-1
12
-5
-7
3
-20
9
-10
-81
31
5
28
41
25
16
76
33
-66
81
-3
29
-26
-26
14
-54
-7
-20
-13
-58
-4
18
-30
8
33
10
44
-25
-48
-3
-18
-127
-12
-16
62
-13
-10
-11
53
36
-36
45
-68
0
13
9
-20
-32
-12
0
-110
-34
30
-4
-32
-4
-74
17
-41
41
-9
-20
-43
28
-81
9
-14
-34
-10
-56
-34
-49
7
-98
19
62
-9
-28
27
19
-56
-35
22
-20
-37
-8
-24
-22
-36
-23
31
-25
-28
-4
10
47
-41
42
0
19
15
-66
-30
35
12
-4
8
-52
3
41
-31
-11
-31
37
-55
10
-76
2
21
11
23
27
-17
15
10
2
39
6
-43
0
-4
-39
2
20
11
50
32
-34
-23
24
-27
31
-62
54
1
-54
0
32
-5
9
60
16
68
-32
38
23
-3
11
13
-24
15
-49
-10
-16
-4
-20
18
-35
-23
56
33
14
60
5
54
85
45
28
25
-17
-27
-29
-7
-7
10
-12
-5
7
-1
1
-15
-19
-9
-89
-32
9
-46
-61
127
-29
9
15
15
23
-22
-40
-27
11
3
-2
-31
-46
9
-28
-7
-15
-28
-17
-3
-38
-76
28
33
4
10
-44
-14
41
-32
21
-13
-12
-21
-17
-46
-30
-19
26
5
48
-7
38
-37
17
-71
-26
-45
23
-12
24
42
-7
49
42
-31
26
5
26
21
-4
-31
14
-40
58
-83
-26
-47
35
-64
-56
93
-51
-15
-8
-49
32
23
50
-8
3
30
16
-15
14
13
-49
-12
16
84
22
25
14
-8
47
-64
16
14
71
-11
45
-12
-4
-39
-47
-6
-6
-6
-69
-25
-12
-30
11
3
-25
7
-126
16
-43
37
38
-26
20
-50
-11
62
45
-55
-35
11
15
9
-43
11
-9
12
16
26
62
27
-1
32
25
-18
-18
52
-15
-9
-33
-11
-37
12
-19
-69
12
-31
1
18
1
10
-10
19
-31
-51
-6
23
-6
-10
-29
-32
-35
-16
-5
-54
-28
-4
-36
-119
85
-25
-51
4
-12
17
-38
9
-34
8
3
-30
-19
-1
48
-21
28
38
-14
-32
35
-27
5
48
-8
31
-7
28
79
8
0
-37
-12
20
-54
5
19
-5
6
-25
-22
3
10
3
14
-9
28
-21
-49
-35
29
42
-2
-27
3
-21
15
10
-24
21
6
-5
-5
65
3
1
5
-27
-48
25
4
1
-8
11
-10
28
-4
-8
-54
24
25
-67
-78
-39
12
-51
-2
-22
-13
-1
-14
3
19
-22
-42
-70
-18
-7
-16
-29
-4
-35
-9
-12
32
-42
-65
87
9
-1
-5
-10
-28
8
-9
44
47
29
-10
-25
54
-47
127
-54
39
16
-72
-22
13
8
-23
-4
53
-4
34
-18
41
6
15
-11
-17
-1
21
33
20
23
-17
6
28
39
12
-21
49
-36
-25
-33
58
12
27
15
50
-9
-48
-23
15
23
-24
-20
-18
-32
-58
-25
28
15
-55
-49
-41
-25
1
-5
-102
-27
70
-17
-5
19
-42
-41
43
28
13
14
14
-4
36
30
3
-12
12
-36
20
18
-9
-4
1
-18
-51
10
27
30
-26
29
25
20
19
-24
-18
-48
7
5
21
-7
-8
11
3
74
2
-4
-6
-29
-12
-7
-55
19
49
-2
-4
6
-12
9
-13
-35
-15
-31
11
-19
13
12
50
-29
14
-23
-33
-39
11
5
-7
16
-13
13
8
-41
-24
-16
-2
8
-49
-47
-16
-6
-50
-27
-10
23
47
34
-30
-46
-19
-10
-20
14
32
-27
12
6
-1
-5
23
11
-17
-25
13
76
-34
-11
32
44
-59
18
9
-1
7
5
-14
-13
-10
-18
26
31
59
-16
0
6
23
28
23
-32
-2
35
-22
7
-22
18
2
-11
-23
-4
-22
10
-22
9
28
-27
5
-8
-38
-57
12
-36
68
-17
-19
-15
-30
7
-14
12
-21
10
44
1
19
-9
40
6
-4
12
-14
-20
8
19
-2
-27
-23
-39
10
-32
26
-28
-16
-15
44
-14
2
-22
40
28
4
-7
-19
25
17
73
8
37
-9
11
5
14
-18
-4
-14
-57
34
-33
-9
54
-13
-14
-3
3
8
-10
-2
-33
-10
7
8
44
7
-1
-24
20
28
20
18
4
64
2
23
-3
-27
-9
19
32
-6
-1
-1
74
-2
-9
0
12
-22
-26
-12
7
-29
-5
-9
-5
-17
22
-10
-40
-16
25
-13
-19
5
-14
-8
6
-36
-39
-43
19
50
23
-1
18
0
5
54
-3
20
12
2
23
14
34
4
5
-89
-7
-49
9
9
-9
13
-11
-25
-24
127
60
21
33
32
7
4
6
25
3
41
7
-19
-16
43
4
-17
13
-44
-5
38
34
-8
-21
31
-6
-35
9
2
-33
-44
10
-8
32
29
14
27
3
-17
24
-32
-8
16
5
3
21
-9
-26
4
18
13
-14
-17
46
-37
-56
-11
30
38
6
-12
27
27
28
-3
-11
-20
15
1
3
1
33
4
-27
-43
-20
4
33
33
-10
-10
-9
-8
25
-1
8
2
-16
-23
-3
-36
34
10
-14
-33
47
-3
-25
-17
23
-7
24
18
18
-21
-32
-46
-35
1
-5
-4
41
-36
-29
-14
-14
10
-15
-4
8
-28
1
28
7
-1
3
-9
73
11
-25
30
-25
-7
18
-56
-9
-41
54
34
-11
3
-39
-101
27
-13
-19
3
10
20
-8
11
0
62
-2
-15
-15
11
-8
41
15
6
9
53
21
18
32
40
-42
-80
-10
24
22
18
-53
9
18
64
54
14
34
-4
51
5
38
-33
19
-28
-2
-40
6
-6
5
7
17
-28
4
0
7
-4
15
-41
31
-5
-41
-29
27
66
18
27
6
2
-6
12
-4
25
64
-52
-39
21
-69
5
-39
0
37
-62
44
-45
28
14
11
1
-14
-20
9
64
-31
13
-18
5
-26
2
28
32
7
-28
27
-31
-48
2
-51
-3
-18
-18
-25
127
13
37
-23
-8
33
-16
25
13
56
103
-27
0
-24
-1
13
-27
65
5
3
-11
-4
-17
-28
-77
-27
-3
-3
-9
-19
38
-14
56
60
-23
-12
-12
-9
-21
8
8
-63
17
-22
6
78
0
29
26
-18
-55
27
-30
67
-10
-10
35
-2
10
4
-23
58
-38
27
-3
-1
56
46
-49
105
6
64
25
68
-33
42
81
8
-23
-72
-22
-5
27
102
-15
-8
7
-45
123
-42
-47
-77
-36
-49
-20
77
5
60
32
27
72
-77
19
30
-7
26
89
73
17
-61
9
-79
37
34
66
-8
-24
-24
4
27
-28
11
44
36
5
27
45
95
51
-28
51
-87
68
-80
-50
6
21
-49
-30
-15
14
-10
37
-2
25
12
13
2
-26
60
-66
27
-54
22
-12
-11
13
12
4
-76
-30
48
-76
-85
-97
43
-24
-70
6
37
-13
18
68
-6
-37
-103
-9
-30
15
-25
-85
13
21
18
-54
-25
12
-11
-30
44
4
-39
18
-50
55
18
-3
-42
17
-35
-15
-17
23
8
-18
34
18
69
-23
-56
16
-27
10
39
114
36
-27
8
27
-27
-72
5
-55
-69
-32
11
33
57
19
70
17
31
4
-21
31
-19
-36
40
-15
-35
-65
-91
-60
8
-74
118
54
51
6
-62
3
-80
30
31
-13
-13
-13
-37
11
127
-89
2
24
-18
-52
-31
45
-20
-19
-10
6
-35
0
31
-67
5
-32
11
57
7
-15
-7
-49
-6
-66
19
54
-23
30
-29
-17
-17
-1
3
-63
8
14
-42
66
61
-60
-25
-13
33
46
-53
-35
-43
11
-32
11
5
1
-29
-25
-50
61
-35
37
4
39
-84
34
7
-63
1
17
5
41
-41
33
-28
-32
24
16
-6
0
-32
15
14
5
-1
-4
-22
-21
-41
31
-25
-39
0
2
7
-13
54
14
56
-4
8
-28
0
9
15
26
-3
21
48
12
-51
-5
22
44
-16
-42
10
6
-24
37
7
-14
31
29
70
3
-48
-3
-47
-19
-20
-5
17
27
61
-61
4
-75
9
19
-38
1
33
-7
-38
30
8
-45
-18
-20
20
-4
35
15
-8
66
-22
6
8
51
-35
-25
-6
13
-33
1
-12
-11
-19
6
-2
9
-19
-6
10
25
18
21
-28
-20
-11
8
-11
-5
-44
-21
22
-9
8
9
-24
-7
-27
-28
-4
-6
-6
15
-15
-32
42
8
23
14
39
22
-26
127
17
16
2
34
-14
14
-6
-26
-24
-17
49
-16
13
-23
-9
3
-20
-23
36
-47
-13
49
20
-21
11
22
29
7
10
26
38
-16
-14
50
40
-21
-31
13
54
-49
-4
-4
-14
2
9
-8
27
0
34
-2
-32
3
-5
-27
-12
-42
-32
31
9
-24
22
-27
-7
-31
-14
16
39
-56
-6
-86
16
11
-14
-9
-3
-41
14
-67
54
11
62
-5
-25
-61
33
-15
32
-3
-10
-16
-8
-32
0
32
-7
-22
-4
37
0
16
-7
12
3
-5
-48
24
20
26
-5
-20
10
8
-23
2
-48
-36
20
-38
21
-27
-35
40
0
-21
-3
-9
-35
25
47
17
-38
22
15
-19
8
-39
-4
-24
-5
54
-64
40
-27
59
-32
-15
-96
-7
-11
-84
-36
-1
10
10
52
-7
-11
8
-3
-91
-43
-41
-30
-34
-3
-6
-47
-62
-20
-21
35
-41
-73
-21
-44
-60
-45
12
-18
15
-27
49
22
30
30
22
14
-32
25
-10
17
28
2
-76
-1
-5
5
-15
77
6
-69
12
-1
3
-54
-33
7
-36
17
29
-26
-23
7
-1
14
-38
-1
56
42
53
-30
-33
-11
27
2
-37
48
-9
1
14
-21
-20
-13
-41
-38
-10
-5
-66
33
21
6
40
-29
-10
-1
6
104
-30
-19
-32
-16
127
-6
5
-49
-27
61
18
-34
4
-25
-5
14
22
14
-52
16
-24
7
-42
57
11
6
3
59
-40
-4
-5
28
64
23
-30
43
-16
20
-7
-15
9
15
11
-16
-9
-43
-31
-10
-23
-38
14
10
96
7
-21
-42
-2
7
11
-17
51
-53
42
-45
29
-17
4
-1
3
4
-4
-7
-23
-8
-48
50
-65
9
63
53
-13
-67
3
-1
20
-8
-27
33
32
38
55
43
-11
19
-52
-24
-62
-29
-36
-42
14
-59
-22
5
39
-22
33
-40
-23
-43
-31
-31
-44
23
-33
10
2
-34
28
-7
30
7
-4
51
15
26
4
-13
-44
34
-44
-66
-16
-4
18
-9
2
10
-21
8
37
79
-21
-84
31
-20
-39
16
8
4
5
-13
-19
11
-14
2
62
37
-72
109
-1
-127
-21
-53
-31
-12
25
5
50
-4
1
44
-1
75
26
15
-47
26
2
-12
15
4
-7
32
39
35
12
-3
-7
33
0
-3
34
-14
46
9
65
-3
-35
13
-1
-1
-8
10
-54
30
23
-22
-26
39
8
4
21
-60
-22
-4
-17
45
-39
12
-2
-66
17
3
29
12
-14
-28
-2
0
2
-22
39
-31
-36
14
6
-29
6
-16
-13
-6
1
30
55
17
-22
20
2
39
25
-23
-37
51
31
-20
29
-21
6
-7
-26
19
-72
-2
22
-2
18
-34
-7
-17
16
-5
-16
18
48
-19
9
-18
-5
-13
-7
12
-17
33
-19
13
45
6
-46
37
-29
-26
-50
30
-13
44
15
-84
-6
94
9
-25
72
23
18
37
3
14
29
21
32
-11
-6
4
5
5
1
-52
16
-15
22
-10
-5
-35
42
-28
-28
-13
33
-50
-38
37
11
-53
3
46
6
51
-42
-16
-11
59
-5
-5
-33
18
-2
-8
-38
-7
70
-20
-10
32
-6
-26
-49
-25
3
-53
20
25
30
-1
-17
-40
45
-55
5
28
10
-3
-11
-49
25
-29
33
17
-21
2
-52
-106
10
17
24
11
-89
-53
-14
35
25
22
-2
30
23
45
58
-17
25
4
-18
18
-10
11
-22
30
4
-63
-33
-3
-1
-20
30
27
11
-20
-71
35
-11
-52
4
-5
-45
-39
26
-11
1
-13
63
0
-7
-8
-92
10
-11
-39
20
46
-38
-91
-4
30
-20
25
-41
22
63
-2
-44
25
-14
2
-47
11
-21
-6
-29
16
65
-22
25
-3
-16
-10
46
51
10
-16
65
-13
21
38
-54
39
-1
-29
-46
-1
-33
27
-8
45
-30
-21
20
14
-4
-26
69
-25
39
11
7
-50
-31
-71
-13
-68
88
-23
-15
29
-26
12
13
24
29
3
8
11
33
-12
-9
-10
14
20
7
-12
41
26
127
42
-6
30
0
-74
-8
-28
20
67
-6
1
-43
12
-8
2
0
-25
30
-1
35
8
-31
-50
15
-3
28
22
34
-14
12
-29
-15
15
47
-20
20
-5
-78
-79
-13
-5
-11
-6
-5
-15
-46
21
-38
13
-66
-2
-48
-54
-63
28
-106
50
35
-28
42
20
-23
-38
-18
53
-32
-20
10
14
19
-69
1
25
-2
2
34
-50
-19
-38
23
-35
-21
4
-28
-54
-25
-19
62
-38
21
-5
-18
10
-43
19
-16
-65
9
-6
-33
-39
7
23
10
-47
23
22
-65
-15
8
-37
11
21
-52
-9
-51
81
-51
-11
-78
22
-127
19
-57
10
-70
-99
85
31
9
19
-51
-13
-44
-7
-19
-57
26
0
-67
11
57
30
52
59
-52
-26
24
14
-2
14
-2
-1
-5
83
31
29
31
-24
15
40
49
15
-33
-1
38
24
26
-48
2
1
-1
32
49
-71
11
32
-44
15
10
-26
6
-18
-83
40
44
3
-41
-27
-45
13
37
8
-14
27
45
-9
43
6
31
-66
16
-35
20
6
22
-51
-23
-83
-9
18
-23
-30
12
-31
-36
-58
-41
-31
-19
31
-15
-42
-4
-12
-34
53
7
17
21
47
50
