-13
-15
3
5
-3
3
-34
71
4
16
21
-120
-3
-2
-11
-9
-16
20
5
-17
25
-9
-43
2
-6
5
24
-3
6
19
-38
1
11
39
13
8
-47
2
57
-10
-1
-3
-13
-5
3
10
-14
-11
5
10
-11
-10
127
13
20
-1
1
-3
14
38
-8
2
-11
-13
-89
0
-5
-4
8
-13
87
-18
-14
24
-68
-85
20
-22
-1
-69
9
-9
-3
8
-40
44
127
13
-19
6
-7
10
14
25
35
10
34
64
-42
19
7
50
27
17
-7
29
-4
-49
7
12
22
-11
-20
42
-1
-47
-28
-18
33
-23
8
-10
30
106
-2
10
1
93
-12
-11
-6
4
-18
-16
57
-127
-3
18
-111
-37
22
6
-69
6
-44
-43
-7
22
27
-31
60
8
8
-26
-7
22
41
7
40
9
-3
-23
-13
-14
31
10
3
43
33
-9
17
0
20
25
13
-19
8
39
22
-29
16
-24
51
-20
0
-7
4
-31
-5
26
22
29
-8
-5
4
12
-14
-5
25
127
-1
4
22
-18
-13
0
-14
-12
3
13
3
13
8
13
17
3
5
25
-1
-9
39
-1
10
-1
-9
-6
-1
3
14
-4
-9
14
0
-12
-10
-4
3
18
-4
-4
0
12
-1
5
-2
-12
3
1
10
0
6
8
-1
-4
-9
-12
-11
6
3
11
-23
-77
9
31
78
-10
20
45
0
14
21
-6
19
4
-2
-14
-3
-75
21
6
6
7
13
-16
-18
-15
-44
-35
-13
-2
-32
6
-12
-38
2
-32
97
-25
-64
23
-16
-17
-127
2
3
-25
-26
102
23
-8
-9
-48
-4
-42
6
1
1
-36
76
-1
8
-3
2
-2
0
-2
5
-4
2
-8
-1
-6
-10
-7
1
9
8
-6
1
13
127
-3
-5
-1
3
7
-3
-1
3
5
3
4
0
-14
3
-16
17
-2
-6
4
-1
1
0
-2
2
3
-4
-7
-3
-1
1
2
5
-5
-17
-1
-5
2
0
-95
1
1
0
8
-81
-15
6
0
-1
-5
-5
21
-5
9
-2
-44
58
2
21
32
14
-54
1
33
-13
6
3
4
2
-23
-10
11
15
2
25
-1
-2
-1
-16
4
25
-6
-8
23
1
7
1
-34
8
6
6
-20
-20
30
12
0
7
-23
36
-12
11
-12
-4
-4
-9
-1
-5
127
-2
-16
-37
28
-5
1
73
-51
-36
-26
-71
39
-15
-6
-69
13
10
4
-9
6
-7
-127
54
17
45
-9
15
-11
-59
-5
-4
23
-3
-7
-28
-13
13
19
34
5
-3
-17
-32
16
-29
21
43
-21
-14
16
-7
-32
5
-19
29
-4
0
-10
10
-36
-15
-39
-31
-26
9
29
1
-67
104
35
-44
17
41
3
74
36
-92
-26
26
-26
30
50
-20
-15
21
116
-112
45
-74
34
-20
5
-96
48
15
14
42
-67
50
34
-14
26
29
10
-11
101
32
-71
27
-10
-23
45
10
14
-51
-3
-68
127
-99
18
33
24
58
9
13
-11
11
8
9
6
1
8
12
11
37
33
-3
-10
-13
-16
-4
21
25
13
22
-27
27
3
127
34
75
18
3
13
14
-6
-50
5
7
20
3
3
-11
-15
12
12
16
7
-7
-2
-4
-10
-12
12
8
7
-29
8
1
-2
27
1
46
-7
-32
-3
8
49
0
-6
-11
7
-6
28
5
0
3
12
90
-7
4
-1
15
1
4
-8
25
-9
105
-16
62
-1
-17
4
47
20
-10
12
-12
3
-66
7
0
-11
22
-11
9
4
4
9
10
4
-2
8
-1
-18
26
9
-5
-14
-21
-1
2
21
-1
1
127
1
-119
-2
4
10
26
-2
-8
-7
-3
-49
3
-5
1
-57
12
43
56
-6
-4
-26
21
12
-10
12
18
11
-9
28
-37
-127
-23
47
-8
-2
74
-3
-44
27
-3
-70
11
9
-80
6
13
-65
36
6
52
-19
-96
1
12
24
-80
14
-10
13
-14
93
57
1
-20
-69
-10
-77
56
-49
-53
-62
53
11
-19
-11
0
10
-15
-10
-1
-85
-12
2
-30
-50
0
15
-38
-19
-36
10
-23
68
-16
-127
-15
-2
26
-21
-2
11
-7
-15
-12
3
-25
-17
-1
4
-11
-11
-3
-26
16
-28
8
18
-19
-31
0
0
-1
63
27
6
121
-11
17
-2
-11
-12
1
-49
10
18
5
-12
10
10
10
-11
6
29
-5
-127
0
-34
-95
34
22
-5
39
2
24
-6
-2
2
8
-25
118
-15
-28
45
3
48
23
4
-28
-15
2
-20
61
0
-1
-4
9
-33
-45
12
-29
-23
14
-12
-41
9
-8
-24
-45
45
6
12
-67
14
5
6
-12
18
5
-39
-31
9
47
6
8
-35
71
91
10
22
-33
10
-29
-7
26
-17
99
10
25
-24
-7
-12
-24
38
18
-18
-31
6
16
-14
34
4
-4
-29
-1
-6
14
41
-11
-20
23
-1
-72
44
-71
12
8
5
-9
15
5
-10
-90
-3
10
45
-78
8
9
-17
-4
-29
5
-127
-98
7
-1
41
-9
39
-46
3
2
5
-8
-76
2
-17
-6
127
41
-53
-8
-30
1
0
-3
12
-4
2
-31
1
-5
-10
-2
12
20
-58
27
-19
4
-5
12
-44
-35
9
2
-3
0
61
74
8
-4
-8
3
6
-2
-75
13
7
24
4
2
3
13
-4
36
-3
1
14
1
2
127
0
1
1
-1
0
-1
0
1
0
-1
0
-1
1
8
0
40
-1
5
-2
0
-5
1
2
2
-2
-9
13
0
3
-5
1
0
-1
-1
2
5
-1
1
-1
-2
-1
0
0
3
-2
-6
0
-1
0
2
-1
7
-1
30
-1
8
-7
-1
-1
-1
-2
5
-32
19
5
5
-6
1
-19
-5
1
-5
12
4
-15
31
3
-39
8
-115
-2
-1
4
10
80
16
-5
5
0
27
-97
0
-17
116
9
-2
1
3
0
18
2
5
1
3
3
-1
6
2
-3
33
3
-3
-13
26
-1
59
2
-127
5
-89
27
-14
-2
1
-8
20
-15
-3
4
-7
4
15
-127
5
-14
57
12
7
0
-10
4
-28
-43
7
-3
-44
-18
-69
-3
2
53
0
-18
-18
2
5
-5
-2
12
-4
4
-2
-13
-22
9
9
0
4
11
-7
-1
1
25
6
2
8
-12
22
-6
-30
-3
1
-3
-14
5
-14
10
6
-4
-3
-3
-3
20
15
-4
-2
-2
-4
12
15
-31
1
-2
14
22
-2
-18
1
29
-36
-5
0
-6
-22
13
-3
-1
-11
2
-1
5
4
7
-16
-5
3
3
-15
1
2
-6
3
-4
-9
22
-2
-2
-14
-18
7
5
-127
-3
-23
6
-15
-1
-5
-21
0
-1
2
-16
-13
0
-23
-2
11
-19
33
42
-7
-13
-9
-127
-11
2
21
-9
32
-14
-5
10
14
10
12
43
-2
0
10
5
-48
23
-1
-3
25
-8
-22
13
-6
-2
116
-3
10
4
-26
-10
2
-4
-3
5
-22
22
-25
27
-36
13
7
-17
-20
-21
40
21
-8
-30
-10
1
29
-7
-6
8
25
-9
50
-10
-8
4
-43
47
-95
-5
-127
-89
-21
2
-2
-6
-4
-42
54
14
13
-8
4
-3
-39
3
-1
0
-11
-12
-14
-9
-13
-2
34
5
4
13
-11
-10
24
6
4
1
-11
12
0
2
1
66
-25
-21
-15
-18
13
2
-8
9
-1
-59
-3
-1
2
-4
32
32
2
-9
26
-7
20
14
40
-2
64
14
12
-23
-3
-7
-14
127
-53
-8
1
2
8
11
27
1
-3
-2
-7
-4
15
17
-10
-1
12
-7
-23
29
13
-29
15
-8
-14
7
13
0
-34
15
-3
40
-40
11
9
21
0
0
-2
-12
5
-6
22
-24
1
38
-24
-30
-23
24
-15
-3
-38
4
-15
1
48
-19
41
-127
26
24
-13
-38
-9
2
-19
84
-53
-6
7
-34
-12
-22
-13
3
32
-68
-4
-11
-69
-23
25
-10
-21
-6
3
-48
-9
-99
-13
-23
20
19
-42
-15
31
-3
13
-26
-10
-3
-31
23
-3
12
2
60
-22
-24
15
1
116
29
10
3
-9
3
-7
-15
4
12
127
-25
5
2
-66
-10
38
19
-19
25
3
3
-91
13
0
-12
40
-21
34
21
8
6
-11
-5
3
9
-1
-18
29
16
-19
-15
-41
-3
-1
46
9
-10
82
15
-16
4
-9
-50
54
2
-2
2
-4
42
-15
-5
-7
1
57
4
9
-2
11
-6
-6
-5
5
-8
127
-17
25
-3
-13
4
27
16
-16
1
-6
0
-44
10
-1
-6
18
-7
21
5
-3
2
-8
-3
8
1
5
-17
24
8
-10
-8
-47
2
4
29
-1
-2
83
6
-122
0
2
13
29
12
2
1
7
61
12
-2
-21
-3
4
-8
0
3
15
-7
-13
21
-16
-18
53
-18
-15
17
100
-23
-13
54
14
3
-11
-1
-36
39
3
73
-58
-70
24
2
18
-127
-29
-12
-8
-42
1
-13
18
-3
-28
-17
-37
-9
6
76
14
-6
40
7
-93
8
-85
-82
-29
-4
0
4
-11
8
-3
11
-27
45
3
35
-87
4
48
21
1
-3
7
-18
-2
-11
6
-10
10
-127
7
-33
25
3
-23
-49
-17
-23
-21
2
-9
-25
93
13
-11
-6
-28
-17
-72
1
101
-2
-15
-17
31
22
-5
-14
120
6
-6
4
-6
99
0
83
-25
-3
4
109
-113
3
7
6
44
30
-12
3
0
1
2
-72
-27
4
4
-82
1
1
-19
-5
32
-4
-35
6
18
53
-20
-3
17
11
-1
-26
-12
-20
-42
22
-9
20
22
-24
-24
15
5
-3
-2
0
3
23
8
-19
5
11
-5
-3
11
-6
42
-2
44
-6
59
127
-8
0
5
-1
-67
-9
11
75
0
-75
127
-30
-97
40
-14
-92
-21
17
-36
14
8
36
-12
48
-2
-8
32
67
59
2
29
-62
24
20
82
-46
5
22
-123
1
35
-39
20
74
37
-39
-30
-9
10
45
81
10
-23
98
-86
44
32
-5
-27
-11
-11
-12
86
6
-16
-106
-52
-98
-14
6
-5
-11
-5
-5
-12
-78
5
10
15
50
-1
-9
-60
-20
-13
8
-41
-16
-72
-57
-62
-5
-19
8
4
-7
31
-5
7
-13
-28
-25
23
1
-7
-46
9
2
7
6
10
-12
15
-19
-10
16
30
-15
8
5
42
5
-42
8
-47
2
-14
-127
4
17
8
4
14
0
6
16
-1
8
34
-127
5
11
49
5
0
5
27
8
12
-55
5
-4
17
-5
-68
10
16
23
18
-32
-19
-6
0
6
-8
5
-27
19
9
1
9
5
-1
3
9
12
-12
9
11
21
2
-9
-8
-22
21
-2
-20
4
0
4
1
17
-1
-9
6
11
23
-6
2
-113
-8
0
-6
22
0
59
0
-48
-4
-21
21
-9
8
-47
-1
18
-20
-20
39
-38
54
49
-6
-21
1
33
43
29
24
45
8
-127
15
13
-28
38
-12
7
4
3
-1
-16
-8
68
2
45
-5
27
-8
12
-10
-6
21
5
-42
9
-9
-8
1
22
0
1
1
4
8
9
-28
62
22
16
98
-25
19
-6
112
8
9
28
15
10
21
127
-85
8
4
23
17
3
33
16
-43
-1
9
5
18
-10
-12
0
40
-36
9
9
1
-14
9
12
-14
-8
13
-1
-24
-10
94
13
15
16
9
13
4
41
1
-9
16
-4
21
17
6
3
-31
-7
86
-127
-22
15
-72
-20
-58
32
-37
-34
-17
29
0
24
-3
2
85
9
4
10
-24
9
91
-7
42
42
-9
1
-3
12
33
25
-17
37
6
-12
22
10
3
34
20
15
-4
34
-1
-33
3
17
-2
2
0
14
4
13
13
14
-6
-79
8
64
5
0
-17
-2
9
-7
2
10
-1
8
21
67
-5
-13
9
-1
15
-1
8
-1
-7
-91
8
-1
2
8
-7
127
-1
-31
-36
-10
2
-3
-4
12
-20
2
-5
-1
-3
18
13
6
-10
-5
-2
1
-6
0
-12
13
-4
0
5
2
36
-1
-28
-5
-3
2
-25
-24
4
-11
-1
8
8
31
14
127
-3
-22
0
-108
34
17
25
-17
-15
-10
97
11
-46
-29
14
25
-15
-4
-10
-7
-9
41
-13
16
3
-11
-12
58
-8
-26
7
-15
-6
34
3
22
-12
0
8
15
-8
66
-10
1
-54
-1
51
3
-16
51
-29
1
7
-1
27
51
-11
-23
54
-32
-50
-24
9
-14
24
-3
33
-3
-12
34
5
22
3
-8
9
-1
-27
-57
-27
-3
-38
5
-79
-52
0
100
-28
-8
30
10
-16
71
-36
2
49
39
-23
29
-35
-7
44
6
1
3
-39
-127
-29
39
-1
7
-5
-9
-67
8
43
-25
58
18
-7
-1
-9
-17
14
-1
-11
1
-3
27
-9
-8
19
127
-19
3
9
15
-11
0
3
-3
-15
-48
1
6
26
10
-30
56
-6
-15
65
51
-3
-1
-13
-24
40
-4
-4
1
-1
80
51
2
-5
-20
3
0
-1
-43
-15
7
-35
-13
0
5
-35
0
5
3
1
8
9
3
-14
12
3
6
64
7
-5
1
-7
-6
2
1
7
11
21
-20
22
-4
127
15
40
4
-14
17
14
-3
-22
4
13
6
12
-10
3
-8
4
11
29
11
-15
-1
-5
2
-4
-3
12
24
-13
22
-3
7
17
0
18
-9
-32
-3
15
31
5
-7
-13
10
-4
2
-8
11
2
-12
-47
127
3
1
-60
7
9
-8
-9
-5
-37
35
-15
1
27
26
86
-8
-5
-31
-9
24
28
-9
-7
-4
-11
-8
10
-10
-4
-9
10
-7
4
-3
-5
1
11
0
-9
-15
-4
-11
7
12
-9
1
45
1
55
-3
-14
-16
3
7
0
-2
-1
2
-3
-85
-8
-3
20
0
6
-11
4
-6
13
7
4
-18
9
6
-4
-1
12
8
5
-4
127
-16
-10
6
-7
3
-14
3
0
20
-7
5
-2
3
-1
-1
12
-1
7
18
6
-6
5
18
-1
-4
8
10
-5
13
-9
2
-3
-1
-4
7
-1
11
10
2
10
-13
-6
-2
8
-7
3
23
-7
-9
-16
-18
-41
-12
61
13
20
-64
10
11
123
-28
13
24
-24
14
-1
12
3
-26
-1
-22
-17
-1
1
8
15
-6
-11
-6
-2
10
4
-26
14
20
9
-23
-13
-1
10
5
11
-12
-19
3
1
-11
19
-127
-2
4
12
7
4
11
-5
-8
13
10
-1
-28
4
-8
-3
12
5
0
11
18
11
-3
30
-4
12
6
-2
23
-1
2
4
1
-38
4
-5
12
7
20
-6
20
5
13
-2
5
-4
13
-2
-7
2
16
5
-2
-9
-4
-8
-19
11
2
25
-5
-63
-1
2
127
2
-5
-6
2
12
1
-3
-5
0
114
-9
21
75
-9
22
-4
-29
-9
-36
14
-11
11
3
0
-8
1
-12
-6
-28
8
-6
8
-1
13
-10
-19
11
-8
-77
-6
-1
-14
-16
-11
-110
5
-29
14
14
-4
-86
8
-4
-13
80
-16
-11
-25
11
-127
3
-91
-8
1
6
44
-57
1
5
1
-7
-15
6
13
-18
49
12
-13
104
-2
-2
-6
43
6
10
33
-9
-2
-45
23
-127
-6
-8
42
-7
-21
8
11
21
5
7
-2
12
-7
-7
2
-15
11
-8
2
0
6
-5
-15
-9
8
12
13
-10
-17
-17
0
-50
12
-2
18
-1
-17
4
-9
-1
-3
19
1
-2
8
2
-19
55
-127
-4
25
-95
-8
-24
13
-83
-7
-30
2
-3
12
18
-27
41
13
11
-2
-11
16
32
-6
33
11
0
-11
-15
-3
19
0
-2
28
24
-4
16
-16
8
14
13
-21
7
22
13
5
-10
25
25
-14
1
-7
14
0
-2
25
19
-29
-16
-3
-4
16
-8
-16
-46
127
4
3
-77
14
-14
11
-8
-33
-1
18
-38
-14
-48
23
75
-17
18
-39
-35
8
49
-1
-19
-20
-5
-28
27
1
-21
-13
-45
-19
15
-11
4
10
1
-19
-19
5
-6
-7
16
35
-35
0
17
0
38
-1
-9
-67
7
30
8
-20
-20
9
-13
18
8
1
-90
113
-10
-12
18
61
1
-17
41
2
31
51
10
-22
24
-127
23
25
62
-66
-36
-27
-38
32
-57
33
41
21
-31
21
-29
31
-30
-40
-7
2
-19
59
-48
-34
6
-27
2
-38
-5
-50
-40
0
12
-3
-1
-8
18
-1
19
-13
-12
-11
0
35
-39
-5
0
-2
9
-5
-1
-3
7
-2
2
-4
1
-2
13
-2
-127
-4
-13
0
2
16
-5
2
4
-4
10
13
-1
15
11
3
2
6
-5
-10
7
-2
1
1
0
-4
6
-3
0
-3
-10
0
-1
13
-7
0
22
2
-33
-2
-8
-8
25
5
-1
-3
-29
-1
-9
8
-1
60
17
-113
-31
36
80
-94
-50
-14
85
-30
-4
24
-3
42
-3
49
-56
68
68
-99
-63
-21
127
41
66
59
26
-28
-94
38
36
53
-72
72
-58
4
-46
25
-31
51
53
-78
6
90
-81
-108
-40
-15
-40
-51
18
-9
69
-39
20
-74
-43
-6
4
-10
-1
-9
21
-8
37
12
6
-8
-11
-13
-8
-3
-15
16
20
-16
6
9
127
3
51
25
-2
12
-17
-2
-63
11
10
22
-3
26
-3
0
18
12
35
8
6
4
-4
-25
2
9
0
32
2
5
2
-8
18
0
11
-3
-33
1
14
32
-11
-6
9
8
-31
42
5
27
-57
-50
39
30
2
-4
-15
-2
-31
29
-17
-57
13
-21
-3
8
12
-11
12
-63
29
1
-20
18
92
-127
-4
60
-114
-27
61
6
26
66
-28
-1
33
-44
-65
-49
26
13
22
-3
17
-9
-41
-23
11
-25
2
32
13
-9
-87
22
58
-51
26
-12
-15
-28
2
3
-16
-66
18
3
15
-2
45
33
6
3
18
2
13
-19
-7
-24
-30
-63
30
15
10
2
49
-14
-22
-3
-18
-24
-10
1
-64
12
-24
-33
36
-17
42
-23
-127
21
-22
-15
-30
19
3
-13
-68
46
26
-13
-34
-74
-6
-110
21
-10
-31
-101
28
-4
13
17
-15
-26
62
8
-63
41
4
7
-19
-27
62
-4
124
127
23
-12
-30
16
1
81
-48
3
-11
-1
1
-6
-40
47
4
10
42
-22
14
19
13
-5
-11
6
10
24
-4
-28
-11
14
-14
10
5
9
-12
-12
11
-18
8
1
48
2
1
-46
7
11
-8
-12
9
40
-14
-20
0
26
-42
-17
36
-25
-11
48
-25
1
-1
6
-3
-5
0
-42
2
32
-11
-121
-14
-9
-48
25
-62
-103
-57
48
-58
-17
16
10
-49
48
-81
-53
-29
2
-57
33
-19
-55
-38
24
1
-47
35
-40
-60
-14
70
-47
10
-38
-127
4
38
-7
20
20
-4
-26
1
4
11
-35
-71
59
46
-64
73
127
40
14
80
56
12
52
22
12
9
-4
9
9
18
11
25
-25
-55
33
-83
-18
46
-15
1
25
-36
-29
17
-40
42
-12
-56
35
-64
-75
-65
-35
11
-126
-64
65
36
-7
8
29
17
6
2
3
-38
-81
48
45
-8
4
3
10
4
102
1
-12
102
-13
-2
-8
33
-9
29
-8
1
-5
-3
7
10
-5
2
-12
6
-5
-23
14
-1
12
9
-10
9
-12
-41
17
10
-7
-11
6
-75
15
57
19
0
10
-127
-14
2
14
125
3
2
34
-17
-97
-1
-64
-10
10
9
121
9
-9
44
9
-10
-27
-19
39
-14
103
-74
12
112
45
-32
-5
127
-44
42
-40
-6
-7
-30
102
33
6
14
77
9
-37
-80
-8
-28
2
7
-25
-34
21
-12
15
19
-33
-57
5
-82
5
-8
-31
56
22
-1
-31
-22
17
-24
9
-19
-32
11
-48
0
-41
-6
-60
-73
36
-63
19
-4
23
-9
-6
0
5
-16
-45
6
-13
89
6
0
-52
12
-6
-4
-56
-41
-9
5
5
-28
-15
-1
-5
-4
-3
34
-17
1
-6
20
-70
-72
-10
6
19
-18
1
-27
6
12
-28
5
127
2
64
0
29
-31
74
-18
-5
2
-10
6
-32
15
-18
-22
-48
7
-7
38
-88
-10
-21
4
-22
17
-30
2
5
-10
10
-9
-9
-1
25
0
2
-7
-28
-23
9
104
-5
17
-6
-6
-1
2
27
3
6
-1
11
4
24
5
-1
10
-11
0
-83
-127
-8
-19
1
-5
3
7
-18
27
-6
-3
1
3
-2
6
21
-7
-1
17
8
-60
13
5
2
17
4
8
-16
-7
3
-43
41
-54
-15
-64
-110
-11
22
-9
-29
4
-36
-34
0
-2
-10
25
3
-25
-5
6
-4
-13
-8
9
1
3
10
34
12
-9
12
3
10
-7
30
8
25
-13
-20
-6
11
127
25
-22
-4
-3
-3
5
17
9
7
-8
74
-27
68
6
26
-1
53
74
24
57
-15
25
-50
3
12
-13
-15
20
-3
7
48
4
-29
4
-47
12
0
-39
-22
69
-78
44
87
-71
-19
-25
1
53
93
-21
42
-3
2
-41
-21
25
57
-37
-11
4
43
36
-127
3
13
-59
-35
-10
-29
-60
23
85
17
66
-32
26
-62
10
27
5
-32
35
46
24
20
23
-40
-6
5
24
20
15
5
-12
9
-20
-61
65
62
13
-2
27
-5
-33
76
-36
-67
51
30
-117
13
-5
-61
55
-29
31
-25
-127
40
-13
-13
-38
31
-10
-22
-38
41
17
-4
9
-87
9
-76
66
2
-70
-74
31
2
27
-4
6
17
-7
6
47
62
-7
-7
-46
3
-2
-3
15
4
18
-19
11
9
107
60
127
14
9
-7
2
1
-29
8
14
22
11
4
-20
-9
17
22
-3
12
-5
-5
-8
4
1
15
15
-21
-38
13
-5
-12
11
-3
80
-16
-16
-3
11
82
1
-5
-11
-27
19
31
7
-12
34
17
-20
27
10
7
28
70
-14
7
-3
-48
25
14
19
-6
16
45
-17
9
-4
38
-31
-3
-127
0
-10
14
3
-30
13
7
-11
13
-6
-8
2
26
-4
5
25
-1
-4
-6
-22
-12
-18
2
-24
48
-21
3
-3
1
5
39
25
-4
1
-20
-4
-1
7
7
-8
-8
6
127
1
-8
-58
1
-1
-1
16
-19
-6
18
9
2
29
50
74
-4
7
-19
0
14
28
-10
-4
0
-3
0
13
-14
5
5
2
-3
0
-5
-5
-6
5
6
-7
-12
-5
-9
1
17
-1
1
46
1
38
1
-10
7
0
4
-1
-7
20
-39
-4
10
1
-87
-88
43
-18
9
45
127
-7
22
16
-21
20
9
2
-48
-8
9
-38
41
-18
-25
53
2
-43
47
-53
-42
49
13
38
1
-17
-46
79
-40
72
-18
-51
27
-4
-13
12
23
-4
-44
-117
63
64
3
-17
48
-3
23
57
-13
-53
-110
31
0
5
61
-8
-36
-8
-6
54
11
11
-2
-4
5
-15
-20
-11
-22
127
-6
-17
-23
-11
-39
-27
19
-22
-6
-30
15
-33
23
8
-12
27
-50
70
19
-19
-30
-9
-2
21
10
-4
-12
17
17
-35
-53
-95
2
21
96
13
0
91
11
-15
10
-15
-31
41
25
3
15
0
8
-5
19
7
3
13
77
0
-19
-65
4
2
-6
61
7
23
-22
29
7
127
70
109
20
19
2
4
12
-29
-2
8
9
10
-4
-2
-6
9
20
8
6
-7
-1
-14
4
-10
-7
11
-16
-31
-2
-9
5
40
0
93
-2
-16
-2
8
125
5
-17
-14
-1
56
12
-23
-8
15
-1
-20
11
15
127
-39
51
26
27
26
9
2
-13
5
-97
106
20
19
20
-2
-14
28
-3
-19
17
24
8
6
-81
6
-29
70
-13
6
-27
3
21
4
-8
19
-16
-1
67
1
28
6
-38
83
10
8
2
-40
-6
-7
9
3
-3
-1
27
-6
-14
-10
0
-45
-3
5
6
12
-9
-3
-3
-2
-32
-3
-15
-7
-16
3
6
8
-4
-16
-11
-37
8
-5
10
-19
-11
10
16
-9
-24
29
12
3
17
-22
4
13
-14
-5
114
127
-3
-14
14
0
11
-13
19
-7
3
26
-5
-12
6
-11
12
-5
-5
-8
-5
20
-38
1
-25
-14
-92
-17
40
19
-5
76
56
-21
8
-9
5
36
-16
11
-31
-39
-19
-30
34
-4
-22
41
-13
-27
22
4
-19
17
3
38
23
-21
-17
19
3
46
-20
-48
-5
4
-30
-18
34
-1
-10
-106
38
-2
-15
-21
61
-2
37
35
-20
-48
-127
36
-17
11
-20
-9
3
-56
-67
-64
-1
31
-9
11
-60
-69
-21
-126
-42
-40
-9
24
-12
3
-127
-39
20
3
-36
-83
-4
50
23
4
17
15
-36
-16
-34
-20
1
-82
-13
46
-57
48
-40
38
-18
-27
-62
-9
-13
72
1
-70
-92
83
-4
-30
24
12
15
-5
71
35
14
-14
20
1
-2
-14
50
10
-11
-117
10
34
10
1
0
6
-2
-8
-20
1
-12
-13
-63
4
-30
21
11
-5
-23
-8
-27
-9
4
-26
-6
21
13
-11
4
-13
-11
-99
-7
28
6
-14
-12
76
33
3
-8
62
-11
-4
-8
-25
41
-1
18
-34
-4
22
36
-127
-10
17
3
-3
-39
6
34
-1
-7
-5
-127
-2
31
-9
-100
-32
24
-11
1
-15
-12
-24
-2
14
66
-11
17
1
9
-6
-85
-22
-14
-88
6
44
-17
11
-18
-9
13
-24
10
-3
-4
21
12
-10
19
-2
-30
22
-26
9
10
14
5
0
3
56
-4
6
13
-8
17
1
1
26
-2
1
-2
-7
-9
1
5
-5
2
0
-2
11
-2
-15
-9
-127
1
23
5
7
-6
-2
1
-3
1
0
2
0
0
-2
0
1
3
1
2
-5
1
1
4
-2
-2
4
3
-2
3
9
1
0
2
-4
2
28
1
-52
1
5
29
11
-2
0
3
10
4
-2
1
9
3
-41
-8
2
6
-118
14
10
-5
12
-5
-22
-50
6
-1
18
61
127
7
-6
-41
-20
28
-5
5
-12
5
5
4
9
21
-5
1
-21
-11
4
17
14
-3
6
-14
-1
-27
11
-6
-2
5
-15
20
30
-1
28
3
2
-18
2
12
13
30
-2
2
0
-10
-11
3
7
-96
0
-1
45
-4
9
-3
1
1
2
-19
-18
3
-53
-56
-127
-3
-2
18
5
-12
14
3
5
-6
-7
-1
-3
3
2
-11
10
3
0
4
6
5
-2
1
-3
15
13
5
5
-5
2
8
-43
4
-20
1
0
-40
2
-1
-3
-9
16
51
-4
23
-15
35
24
39
-121
12
-4
-13
-14
15
-1
-1
6
13
2
16
18
-79
51
-79
32
0
10
-21
-19
-111
-20
102
-78
-37
49
26
9
72
-66
-19
-75
7
41
19
-14
-7
114
28
-12
-10
60
-123
-15
-14
34
61
10
45
-104
14
60
34
-127
26
3
-39
10
-2
-4
4
18
-10
5
12
-5
15
10
52
-3
-11
-12
2
2
-1
16
3
-6
28
8
3
0
9
1
-36
-5
-7
127
-13
3
-2
1
-21
-4
2
-1
5
5
30
13
7
-6
-2
12
-6
-9
-10
-1
13
-6
-1
-11
4
-82
11
56
-2
-4
-6
3
10
-3
-5
-16
7
-7
-23
-2
69
1
16
4
60
4
-8
-3
6
35
3
127
-19
-9
-9
12
-8
5
-9
13
17
6
-8
12
19
-4
12
0
0
-8
7
6
-6
1
22
-2
-4
8
-10
16
11
-6
3
4
0
-2
4
16
-3
-9
-18
14
1
-2
-9
-20
-32
-11
-17
-10
-3
-78
-26
29
-1
35
-38
-9
-14
-29
-43
-77
-26
-21
-4
-93
29
-113
-25
-29
16
2
-9
21
-16
2
-16
-24
-17
25
-13
-12
0
-8
-8
21
4
46
-26
3
-22
-25
-3
4
-3
7
-3
-60
1
-127
24
30
29
0
-59
-20
30
46
0
5
-2
-3
-29
1
-8
7
-127
-30
18
-22
-77
5
-3
-24
-2
-17
20
-9
24
-14
25
36
-5
-20
37
0
-10
0
-2
83
0
0
-10
-29
14
24
-1
-12
71
18
2
-3
-12
10
48
41
12
2
80
7
-5
-4
6
4
-47
7
-26
-6
-10
-9
18
1
-4
1
86
6
8
9
-6
-3
-3
3
-55
5
-9
7
3
-12
6
-7
4
2
5
-6
-1
-1
127
11
2
-6
6
4
-99
19
-51
39
-28
-3
2
1
31
-10
7
-2
-4
-5
-9
2
-3
2
-6
-2
9
-3
-29
-8
0
0
-3
4
0
-37
5
-47
-3
0
-4
3
-11
33
-4
-2
2
2
2
0
7
4
-16
-2
-127
41
49
9
0
13
-1
-5
-11
16
7
-13
5
10
-2
-26
-10
13
34
-33
4
1
10
4
49
-10
7
6
-9
9
107
76
10
7
-20
-16
7
-1
-5
0
11
27
5
24
3
45
39
-33
-8
0
0
-6
-12
2
46
-2
12
11
-23
-13
76
15
-12
-35
127
-2
10
26
26
6
-5
36
3
-14
-37
-15
-9
-56
14
49
42
18
-35
73
3
4
30
-25
-61
-13
1
-34
7
-16
-112
-114
4
-3
-44
0
7
15
6
-24
-20
26
-8
-13
-4
-68
7
-6
-1
-5
-3
9
40
-13
-2
31
37
-123
45
-9
-11
89
-1
32
-19
127
56
36
-8
5
-30
39
44
-52
-42
6
-2
-27
-10
-47
6
-37
24
19
17
15
-6
-48
12
-47
-38
-48
23
3
45
-24
-75
1
27
6
-40
-7
-24
-38
16
21
13
16
17
-42
24
27
-9
-34
69
4
91
11
-17
2
10
13
2
6
57
-5
-9
8
-82
-13
10
17
-9
4
-1
0
-1
-3
-10
16
-4
11
5
-3
8
10
-55
-3
13
-3
-1
-7
127
16
8
-7
9
5
-18
-18
-2
6
-7
-8
11
0
52
-3
2
-17
2
-2
0
16
-1
-98
7
-4
-3
30
104
-5
-12
-5
95
44
12
-84
-8
-2
-102
-20
11
-16
-14
-18
-10
-3
-9
41
-20
20
-101
14
37
26
-3
-45
-127
-16
96
-76
-58
79
-1
-42
96
-23
-16
-118
3
86
-7
-9
4
80
-4
0
22
82
-108
-6
9
-11
59
5
42
-113
68
101
98
-109
-75
16
59
-3
-31
7
2
17
27
-10
-127
-18
-24
15
106
21
2
1
2
16
13
10
7
21
13
41
18
-17
4
5
-23
-6
-41
-8
19
-1
-22
30
-10
-21
-16
0
10
1
-27
-44
-6
4
9
-10
7
-2
-44
-25
2
7
5
29
3
1
0
52
-5
-19
-20
2
27
-31
-85
5
17
-41
5
-12
-127
-29
-34
5
-104
-42
7
-15
27
67
-5
-36
15
15
97
109
-6
0
-1
7
-98
-15
-9
-67
81
16
7
15
-18
13
7
3
-27
8
117
91
-23
11
22
-2
2
46
-10
-8
-14
-12
1
-76
13
50
-20
12
42
-13
3
-4
0
-2
22
-6
-3
22
-15
11
-27
-2
4
3
-10
18
-8
-7
8
15
-4
75
18
0
9
-19
11
-5
6
-32
-10
6
-7
-12
6
12
-64
-1
-3
-1
-2
16
-2
13
2
-11
-7
3
13
-1
-2
5
-9
4
7
-3
4
-5
0
9
127
-4
16
17
-1
6
1
1
9
6
15
35
-17
54
-11
127
-3
-2
6
5
-1
-7
14
-1
22
13
-44
50
2
2
23
-8
-79
15
8
-17
8
1
-1
17
-30
13
3
-7
-17
-13
1
29
5
-7
-10
-58
-24
-10
13
-11
12
5
-1
-46
63
-2
51
9
19
3
-19
8
4
1
7
13
13
-20
-6
-29
0
5
29
-4
41
9
8
-7
2
-2
28
-14
-26
-127
-41
-12
-32
6
-28
-37
2
31
-4
-10
-29
-4
55
-13
5
-9
-15
-50
-7
11
-12
1
6
-21
7
-12
-41
23
-10
10
4
21
-5
12
5
3
-3
-15
-30
8
14
10
-21
-12
16
-3
-27
-11
-29
-36
-127
-70
-5
34
-4
9
2
-41
-16
10
17
16
-16
61
45
-33
-15
-2
-56
-34
-16
14
-11
-27
-21
-5
-2
41
-16
-16
-11
-36
-27
-35
-2
-98
-59
64
-10
5
-6
-2
-34
-10
89
-7
3
9
-35
-5
-34
-20
71
1
-28
-88
-9
24
13
9
-38
46
37
-84
23
18
5
56
127
21
7
90
30
10
21
1
-13
15
126
-69
15
-21
66
-10
-4
-98
58
-6
2
63
-6
19
-16
-8
9
33
-14
-18
34
13
-13
22
-7
-8
1
2
-5
-29
-26
-28
22
-48
5
4
17
13
17
-3
5
-1
3
3
5
-68
-3
0
0
10
2
0
-4
3
7
1
13
3
-2
7
6
127
2
-8
2
3
-39
8
0
-3
-1
2
56
-2
6
-43
3
-2
-1
3
10
1
-1
-1
-1
-3
3
7
2
0
-3
10
-1
4
-3
4
3
9
-1
-4
2
34
-37
-16
-3
0
3
-8
0
5
11
13
37
19
-83
22
-13
-73
24
-8
-2
62
14
1
20
-1
-13
-3
-127
100
3
-3
3
2
33
38
9
-18
4
1
-15
24
-21
-19
1
15
-24
-20
2
11
29
-33
-2
-37
-16
7
-14
-33
-13
-7
-15
-66
37
-5
23
4
-4
3
-30
9
-2
5
-36
-15
2
11
-9
38
46
16
3
-16
54
6
-1
28
22
42
28
-27
-7
-29
-29
46
60
3
-19
94
9
-106
76
-12
-39
66
22
-39
3
-6
-33
127
-9
14
-1
-38
0
-5
-6
-19
3
-31
-11
-15
40
16
-5
4
-41
-15
-37
58
-18
-39
-37
15
12
8
-29
0
-3
-2
-9
-15
-1
8
-1
3
-4
1
12
-15
-1
8
-5
-25
4
9
-2
-12
-44
-11
0
-3
-1
-10
-25
3
-58
65
-1
7
12
1
127
2
4
7
13
3
-13
-2
-7
-3
8
0
6
1
-5
-6
1
-20
-3
-20
4
96
-3
53
8
-2
7
0
-5
-4
8
-8
-3
-38
127
-4
7
-62
3
3
-8
-1
-11
-26
19
-2
2
27
41
93
-10
-8
-22
14
17
33
-5
-6
-14
-5
-1
14
-10
-2
-18
20
-3
-6
-1
1
-4
15
-10
-5
-11
10
-13
9
23
-6
-3
41
3
56
1
-15
-17
-8
13
-9
-2
-1
-13
10
5
5
-5
-17
21
-3
127
-9
52
-11
-2
19
11
22
-8
5
-21
50
-23
-1
-2
3
-16
-7
-8
-14
-1
4
19
-6
-77
-7
15
14
6
-1
-35
4
0
3
-15
-3
0
-20
-37
16
7
4
-12
34
-5
-13
12
-11
11
5
-53
-10
3
5
1
-1
-9
-1
-11
-8
-1
1
-1
6
-19
-8
-8
-17
29
8
27
1
-9
-2
7
5
6
-28
-10
-39
5
1
7
-7
8
10
0
11
-18
24
16
7
7
-9
8
7
-14
-5
-127
-119
-5
-14
11
-6
13
10
13
-4
-20
18
9
6
-4
-3
10
-5
-2
-2
-3
-16
-26
1
62
21
14
3
-7
3
105
5
8
-5
-98
-11
38
-1
36
2
-7
-8
17
-9
-19
2
-11
2
4
-17
-20
16
127
-12
27
-13
-15
-12
48
-7
-11
-6
-19
-4
56
22
-17
2
31
6
18
30
53
1
-23
-24
4
17
12
-25
6
1
9
0
-15
17
-5
-5
127
-12
-5
8
-6
6
55
17
27
-2
11
23
-17
12
14
-5
-13
2
-9
-15
5
-60
-39
-6
6
10
7
-4
23
4
4
-7
19
-3
11
-16
-18
9
4
7
12
-8
-2
-4
5
-5
-16
12
-11
-9
6
15
0
1
-1
2
-13
-1
9
10
19
-22
-9
14
-34
13
-2
31
0
2
-9
-12
127
-2
-4
-3
4
4
32
-1
-30
-17
-57
24
25
1
37
-24
-14
-15
-20
31
-16
-21
-42
7
13
68
-26
-19
22
-2
0
-5
15
-17
-79
-4
-34
5
-76
-1
-17
33
-4
10
4
-4
1
20
-12
-8
-4
3
-11
-14
-19
1
22
-15
-8
59
-32
-22
10
-29
-127
-27
11
-18
18
-19
-47
-7
-5
22
-48
112
10
29
-21
36
4
-28
-7
-11
17
-8
15
-31
17
-11
13
47
-18
-7
-31
-30
12
-25
-2
15
6
4
0
3
-19
33
-31
54
-5
-10
-6
13
1
-17
-37
-22
-20
0
-5
-16
1
-1
-1
-4
0
-3
3
-2
1
2
4
-2
-5
-15
4
18
1
2
6
2
3
2
0
-2
1
2
-6
1
-1
1
8
-3
1
1
3
-6
2
0
0
0
2
-1
0
1
1
1
4
0
-5
-3
1
-9
-2
-127
0
-1
14
-8
-2
-2
0
11
-3
3
-10
25
-3
-21
-8
-4
7
30
-25
4
1
76
-34
8
0
49
5
-65
31
15
-10
-7
-8
-3
-6
-29
13
1
1
41
54
-15
31
5
30
-4
-13
-23
4
-4
39
10
-5
4
-18
-6
-8
-16
-39
-19
1
-16
-5
33
3
-4
127
6
-16
-14
10
7
-82
2
-15
2
7
-4
-8
-1
36
-11
-1
11
-56
-15
-5
0
-6
4
-1
10
-8
-20
1
10
0
21
12
10
17
9
104
27
2
4
-5
-7
-68
19
4
-7
4
1
-10
-11
-1
10
-12
-2
7
10
44
4
7
-22
9
-16
-1
14
13
127
-1
-9
8
-7
-31
8
-9
2
2
22
43
6
-109
-31
9
-20
-57
0
21
-32
-6
2
-5
39
6
3
48
24
22
9
-11
-11
-17
13
-6
-8
-127
-31
-10
15
9
-8
-12
-12
-11
-20
12
-23
-11
1
-24
5
11
-22
12
46
7
15
-16
9
-10
88
20
-13
-20
3
-4
17
72
-15
-7
62
88
-28
92
-70
0
62
34
5
24
72
21
32
-19
-15
2
0
-88
-29
-85
-14
8
-98
-23
-127
-82
-22
86
-55
-25
74
12
-1
86
-26
-18
-99
43
59
0
11
25
65
39
-10
-3
76
-94
-30
4
-20
63
23
30
-111
-22
86
60
-92
15
4
-11
-8
2
-9
-8
11
19
-7
22
-21
110
-5
10
-26
-12
5
34
-5
-24
-1
14
77
-37
-7
-14
-9
11
-16
38
33
15
47
127
21
-24
-51
22
-5
63
-7
-3
-17
8
-25
49
14
4
18
-75
-13
39
67
-8
1
-8
-5
6
-31
-7
-8
-8
-7
5
-11
-17
8
36
-16
10
127
-80
5
82
-69
125
-5
-32
-79
2
14
-17
-30
4
-26
42
29
-60
-57
33
-4
-3
25
25
62
11
5
57
-37
2
4
2
-35
121
10
5
20
5
35
68
31
5
2
-115
2
26
45
-7
-47
-29
0
-2
-42
-20
-19
29
25
15
-3
91
-32
-2
-1
2
16
4
3
23
-4
4
1
-16
8
-5
25
1
2
-1
6
2
13
-5
-5
-5
-10
6
-25
-18
8
-99
-19
-9
7
6
-10
67
-9
4
-5
-1
-1
5
7
-9
0
12
4
1
-5
-15
-12
8
3
0
15
4
-9
-10
-127
-1
7
10
8
57
2
1
-2
-3
-10
17
3
1
12
-5
1
12
-25
6
-11
-13
12
4
4
9
-11
98
-9
4
-2
0
-10
64
9
127
-38
-6
1
7
-1
-66
1
10
2
-6
-1
-9
1
0
-4
4
2
11
7
-9
-4
2
-27
-3
0
5
-36
8
-25
6
3
3
-4
18
0
-30
-8
2
-25
-127
-5
23
-63
-28
-32
-23
83
-12
-6
71
-1
0
11
21
49
-11
-51
105
-16
15
-28
-5
23
-24
16
-8
9
13
-15
-15
-3
31
63
-5
32
39
-42
19
19
7
-12
38
9
14
-22
-15
-14
-10
4
-23
-8
3
5
72
45
1
-19
49
0
11
-1
16
51
33
-126
-7
-34
-67
-2
62
-71
-29
-5
-27
-2
27
9
-127
-20
-70
7
1
-69
-3
-30
-111
26
83
-96
-29
86
17
43
92
-46
31
-74
2
74
-20
21
43
106
30
-7
18
55
-120
-22
19
-1
96
15
65
-98
-10
80
34
-101
32
6
11
-14
0
-4
15
26
-127
-5
-8
58
2
3
-5
59
4
-9
28
-8
2
10
29
-85
9
23
-16
0
3
-18
9
-6
16
13
16
-15
-9
11
21
-9
-5
-4
-3
0
33
-29
5
16
2
11
-12
-12
-17
12
6
-44
-5
17
-2
12
13
10
-8
2
8
69
23
-9
28
-7
-4
-16
-43
1
-30
-12
7
-23
5
-25
-10
-5
35
-11
111
-48
7
-24
10
-2
-32
21
11
19
7
-16
-17
11
23
12
-60
116
-7
9
-4
-7
3
14
14
0
-12
0
127
5
-45
-1
-5
10
-29
15
-1
-5
1
6
17
19
3
1
57
-9
52
18
3
27
-13
43
15
16
4
1
1
20
12
23
10
20
3
69
35
38
-5
-13
81
14
7
26
44
1
16
-6
49
30
12
20
25
37
15
9
4
-15
-6
-8
-18
19
25
-13
3
11
-17
4
11
25
-1
127
-3
56
15
-10
3
26
-9
0
-8
8
-13
-7
-55
14
-9
0
5
3
127
0
51
27
-123
-65
14
-7
28
6
-8
3
-47
0
-6
2
31
1
-13
-22
-12
45
47
-24
11
16
44
-34
12
-16
24
6
-12
-5
-43
-48
-18
6
-58
6
1
-1
40
-7
35
-39
24
-31
-1
-18
67
-17
-4
-3
-12
-7
-42
7
3
-6
14
-19
-12
11
0
9
-4
1
7
12
-2
124
-11
2
-8
-7
9
9
-15
3
-10
3
-13
25
-20
-4
-4
-24
3
-26
14
-11
-5
4
2
-1
-2
23
11
-7
-6
18
23
-127
0
-19
-40
-4
2
-12
-9
-9
5
-7
3
-39
3
21
-5
20
9
2
-13
15
-7
-20
37
-4
6
5
-6
23
4
-21
10
3
-127
2
12
17
-32
11
2
-24
93
16
-26
9
-1
5
-2
4
-5
13
98
8
1
17
6
-7
16
-17
-23
30
13
-13
27
-8
11
6
18
-2
15
-29
10
12
1
4
29
14
-17
-17
8
2
38
10
-18
-5
2
5
5
-4
78
10
-18
6
-1
-2
-5
0
6
0
-7
6
9
9
24
13
-3
20
1
4
-43
-9
-35
112
43
15
-18
4
60
24
3
-9
-3
5
19
-5
5
-2
-3
-5
-3
-15
28
22
5
-22
-3
-3
4
-127
10
-111
-6
-4
7
-1
5
-1
-47
-1
-2
-127
17
-8
4
15
49
-1
2
0
-1
-27
3
0
1
-11
7
-7
-18
-36
4
-13
2
16
3
-39
1
18
-18
49
-10
-40
3
-10
-33
10
-4
0
13
-12
-26
-12
-26
7
3
-6
20
-20
1
-15
3
21
-8
-12
-36
-5
11
6
-1
16
29
-5
-9
15
106
-52
82
15
-33
44
96
-7
-18
7
-4
8
-17
13
-20
24
-46
-40
-52
24
-19
-33
-12
-35
-26
-29
17
-6
-9
4
19
-24
27
-47
-18
-127
27
21
28
8
-35
-42
27
-10
-52
68
-53
-70
17
16
-16
11
-5
-59
35
37
57
-75
24