0
-7
-12
0
-2
6
18
-75
-1
-63
14
5
-70
-1
0
0
30
60
-127
-5
18
-3
11
14
-6
-33
27
-4
-75
1
-1
15
0
-4
-2
0
-6
-1
0
62
3
-4
0
1
-11
9
0
0
-7
-25
-127
-7
-17
1
-13
3
1
6
-2
0
63
4
0
4
1
6
5
0
2
-2
127
3
7
-2
17
-6
1
-3
0
0
5
2
-3
2
6
2
5
-16
-117
-7
11
-25
4
-6
7
56
6
43
51
0
15
-14
-91
-13
-7
-7
-1
24
-20
-16
0
0
16
4
11
13
1
-4
56
28
50
21
-20
-75
-9
-5
-60
-127
2
45
26
0
13
3
-14
-17
7
25
-9
26
-8
-19
0
0
25
-10
-7
19
15
-13
65
16
-11
-1
21
-127
2
-8
37
-25
-2
1
2
0
-40
28
-2
0
-1
-1
0
-2
1
-124
0
0
-2
0
-1
12
-1
-23
7
-3
1
1
2
13
1
127
0
-1
-2
1
2
0
23
8
-1
20
14
-48
8
-1
-10
-108
0
0
-10
4
0
35
3
127
-5
-2
0
0
-1
-2
-3
-41
-3
2
0
-3
0
0
3
14
1
1
-5
9
12
6
1
-2
0
0
15
-6
5
3
8
-3
-127
43
1
4
7
-14
6
-10
4
-6
0
-1
3
0
0
1
27
-8
10
0
3
0
2
1
0
0
1
-6
-2
0
127
-1
1
3
-13
-15
121
0
-14
0
11
31
0
0
0
0
0
0
0
0
0
0
0
0
0
0
0
0
0
0
0
0
0
0
0
0
0
0
0
0
0
0
0
0
8
0
0
0
18
-39
-1
-2
6
1
2
7
2
-15
0
0
-4
0
-3
127
2
-30
-1
-11
2
-1
2
21
2
62
-12
2
127
0
-1
0
-4
1
2
-1
2
0
-2
1
-4
-2
0
0
0
0
0
1
-2
0
1
-4
-7
-1
-1
0
-1
-4
3
2
0
-20
-14
0
-1
-20
55
1
3
-22
56
-18
-9
31
0
0
3
4
6
8
-94
8
-8
-57
-73
-4
-127
101
-27
10
6
47
7
-3
-2
0
127
-65
4
0
-21
-1
2
-2
0
0
0
0
4
2
0
-117
1
42
0
2
-1
1
3
-17
2
-25
1
2
-2
-2
1
0
-6
102
0
0
-4
0
-1
-2
1
10
0
0
0
1
1
14
1
127
-12
0
1
0
0
-5
0
-16
-2
1
7
-2
-1
0
-19
80
-1
-2
-14
4
-1
3
-4
-39
0
0
8
1
0
127
1
20
24
8
-2
0
0
-33
-1
103
4
-3
1
3
2
0
4
-4
-2
3
14
1
-11
5
2
6
0
0
-15
-1
-5
6
1
3
127
-13
2
0
3
10
-6
4
-2
-1
4
-91
65
0
-11
-14
8
0
-41
9
-38
92
38
1
0
0
113
-9
37
0
9
23
127
-22
4
-48
2
3
27
14
5
3
0
4
-9
0
3
3
1
14
-7
7
-1
11
3
12
0
0
17
5
4
4
-5
-7
127
-14
1
2
0
13
13
-1
1
0
0
4
-16
0
-12
-8
16
4
31
9
-3
13
-28
-22
0
0
2
10
13
16
118
10
127
74
40
10
125
-87
14
4
-31
-4
1
-7
-11
0
-1
-3
2
-50
7
3
-1
5
15
8
0
0
-4
21
127
-5
-22
4
4
-1
1
-6
-23
-3
-104
7
0
-1
0
0
0
0
0
0
0
0
0
0
0
0
0
0
0
0
0
0
0
0
0
0
0
0
0
0
0
0
0
0
0
0
-5
5
1
0
-16
-8
4
-8
11
11
3
2
16
6
0
0
-35
-5
9
-9
0
9
-127
-32
-2
-5
-5
69
-11
4
14
-1
5
4
1
0
87
48
1
0
4
0
-2
-2
-1
58
0
0
5
1
1
-28
-1
-127
-6
2
0
-1
-1
-15
-1
-39
-3
-1
9
18
-12
0
114
-127
-7
2
-3
-1
20
15
-9
1
0
0
13
4
3
61
4
77
50
25
-2
2
1
-92
2
27
-6
-4
-1
-114
72
0
-3
-6
25
-3
-36
-4
-62
48
-15
24
0
0
127
-2
-9
0
-1
5
112
-1
-6
29
-9
14
0
4
-1
15
3
72
-80
0
-2
-18
-4
-35
8
1
17
39
-25
1
0
0
12
-9
-17
9
-9
5
-3
14
1
127
-9
-10
-7
-2
-4
7
-5
5
-4
0
-67
53
-3
1
-17
-1
8
-7
0
-127
0
0
-6
-1
-2
76
8
-13
46
-12
6
-3
12
88
-4
113
5
0
0
0
0
0
0
0
0
0
0
0
0
0
0
0
0
0
0
0
0
0
0
0
0
0
0
0
0
0
0
0
0
0
2
-3
-2
0
127
-63
-1
0
5
-1
3
-2
0
18
0
0
-1
1
0
-78
1
44
1
2
1
-1
1
7
-1
-59
-1
0
-4
-95
99
0
-12
12
33
-54
-5
-127
-62
-14
-84
15
0
0
7
-109
-15
-9
-30
-19
-39
6
-1
108
50
-18
1
-18
10
-9
1
0
5
0
-2
1
-10
70
5
28
9
-12
-22
3
0
0
10
127
-71
-5
-8
-2
2
0
-17
-1
18
0
-40
4
0
-2
0
2
3
0
80
127
0
-1
10
1
4
-5
0
39
0
0
-4
-2
-5
-73
-1
52
1
6
0
-3
-1
-24
1
-30
-5
2
8
4
0
0
-116
-127
2
-4
2
4
-4
3
-5
-41
0
0
1
-1
1
121
1
-46
-5
4
2
-5
2
-16
-1
108
-10
1
-7
-3
-5
0
127
35
0
-4
16
10
-10
12
-3
59
0
0
-6
-5
-7
-55
-4
-52
5
4
-1
0
-3
-20
-4
-32
6
0
0
11
-9
0
7
-16
-13
4
-41
-10
13
127
4
-2
0
0
105
2
5
-1
7
4
5
-34
1
3
5
5
-4
11
-1
1
-2
2
2
0
-45
-6
-1
1
-4
-2
1
1
-2
-127
0
0
-1
0
-1
-8
2
30
4
-18
2
0
2
1
1
93
2
-2
1
2
-1
0
14
19
-3
-1
-7
3
0
8
-3
8
0
0
10
-3
-1
-6
3
-13
-127
27
3
-1
-2
-45
2
-9
3
-4
-1
-27
18
0
3
-3
1
12
-51
7
36
54
-48
-6
0
0
127
-1
-39
-4
1
-1
49
-12
5
67
-1
-1
21
1
2
-8
0
5
5
0
-2
-1
9
-57
5
-80
-8
10
-18
4
0
0
10
96
-127
1
4
1
16
1
19
-17
-7
-4
-77
0
-1
3
1
40
-34
0
2
-9
9
-127
0
6
-51
2
-50
4
0
0
21
-13
113
11
13
7
20
-4
-3
103
6
-11
-10
-2
-5
-7
-3
0
0
0
-29
127
0
1
25
0
-1
1
0
10
0
0
-4
0
-1
41
2
124
-3
-6
0
0
1
13
0
-10
0
2
0
3
2
0
-3
7
1
-2
9
2
-1
2
1
-1
0
0
-8
0
-1
7
6
2
-127
22
-1
-2
4
-37
7
-1
2
-1
3
-2
4
0
3
-2
116
2
-1
2
-11
-2
-4
-4
0
0
24
-1
4
-9
27
0
7
5
-24
-13
-47
0
1
7
-37
-127
0
36
-25
0
-4
-3
-6
24
56
-6
-10
-41
-33
0
0
0
-127
-1
-86
-9
-7
4
-46
11
7
84
-1
12
23
8
-5
-3
0
84
-86
0
1
-3
15
116
-1
51
-79
-22
80
10
0
0
92
4
-51
-21
-1
15
127
-25
4
-25
4
-42
78
16
-3
-24
12
-20
-2
0
113
-95
3
1
18
-6
-6
-7
5
61
0
0
-4
-1
-1
45
-5
127
-10
-36
6
1
-6
50
-11
49
7
-6
-3
0
0
0
-99
-127
1
1
-29
-2
-3
-1
0
-16
0
0
-3
1
0
55
1
-97
0
-7
-1
0
3
13
1
7
1
2
0
47
-127
0
0
-1
0
1
-4
-1
-2
-15
2
0
0
0
30
-2
-5
1
-13
0
5
1
-11
4
-13
0
-6
-1
-1
-7
2
44
-43
0
0
-5
-12
4
-32
-6
88
127
2
-3
0
0
55
1
-2
1
12
2
-8
4
4
9
14
13
-1
3
-2
6
1
-127
107
0
-1
2
-15
-4
-2
-1
-20
42
-9
1
0
0
0
-5
-4
-4
-27
-1
-4
5
-41
6
-23
0
-9
3
-18
-23
2
-58
46
0
-5
8
2
0
-23
7
-103
8
22
13
0
0
33
-7
-25
-5
16
6
5
76
10
15
13
-127
13
4
-10
-23
0
0
0
0
0
0
0
0
0
0
0
0
0
0
0
0
0
0
0
0
0
0
0
0
0
0
0
0
0
0
0
0
3
-10
4
0
0
6
5
49
1
-4
-3
0
64
-3
0
0
15
4
8
-6
-12
-5
4
3
-4
-127
-11
0
3
5
-5
3
-1
-21
26
0
0
0
85
-2
-8
-3
-11
10
4
1
0
0
18
4
-2
-4
7
-1
-1
1
127
22
-2
3
-5
3
-12
37
-1
9
-5
0
2
0
-9
-127
2
-121
11
-11
35
-6
0
0
15
15
-2
-2
13
-3
11
-1
-18
5
0
1
-8
2
0
-1
3
9
-10
0
5
-3
-127
-5
14
-13
39
-16
3
-1
0
0
-10
5
-2
5
-36
0
6
-7
115
5
-17
-43
-7
-6
-90
-114
-6
119
-102
0
-3
-2
0
34
57
-127
61
-20
125
-10
0
0
-61
-92
-10
6
-33
-13
-105
23
4
-108
54
41
-18
-1
1
-8
-1
0
1
0
-78
-127
0
1
0
-1
-2
-1
0
-15
0
0
1
0
0
35
0
-46
-7
-4
1
-1
0
-1
1
10
0
0
-3
2
1
0
-41
23
0
2
-2
-2
0
3
1
-16
0
0
2
2
2
6
1
127
-1
1
0
1
0
0
3
8
-3
1
11
-8
-5
0
-40
4
-4
1
10
-1
-1
0
1
95
0
0
-3
1
3
127
1
18
-9
-2
0
-1
1
31
1
-92
-4
-2
1
12
-6
0
2
-3
-2
-52
3
-14
12
2
127
-5
0
0
9
-17
33
2
3
3
10
1
7
-87
6
-6
20
1
-1
-3
-1
6
-22
0
4
-3
0
-24
0
2
4
15
-8
1
0
0
14
-5
60
1
-8
3
23
-22
0
6
-17
5
127
5
4
8
0
0
-2
0
5
10
-2
-1
-10
1
0
1
-1
-7
0
0
12
1
1
6
5
-6
-127
15
3
0
3
-9
6
0
-1
-4