-61
32
20
43
-65
1
2
4
-5
-1
1
-7
5
-3
-50
-2
115
-4
7
7
-60
-9
0
2
5
16
15
6
2
31
-1
-5
-5
15
-4
4
32
5
-31
-5
-7
8
-5
2
17
5
1
8
10
-4
117
-70
11
19
7
-120
0
-117
-1
18
59
-49
18
-14
-11
-1
-1
-3
11
24
-3
42
22
65
-1
-52
8
2
12
12
1
-2
29
-7
9
-31
0
-1
15
2
68
4
50
7
48
49
-19
10
27
29
25
0
-37
90
-1
24
-99
-44
-19
27
-57
-1
13
4
15
-16
11
11
-14
10
12
-2
-7
0
27
10
0
-51
-61
-110
-68
-4
31
1
68
108
-15
105
27
-15
14
3
19
6
-13
12
-21
-64
-9
43
27
16
12
-4
40
3
-29
-13
-1
8
-36
-7
2
-37
3
-2
57
22
61
6
0
4
6
-4
8
6
-59
30
1
18
0
13
-44
12
-27
2
-57
41
9
-21
-110
20
-71
-4
45
-15
-37
4
-1
-3
4
-2
-53
-28
-2
-10
1
-3
39
-9
5
25
5
-27
37
-5
-9
1
-33
9
-66
3
-11
0
-22
9
9
-5
2
13
-4
-14
7
6
6
-75
6
-127
-15
-32
14
5
11
6
25
-8
13
19
-2
27
10
5
3
22
-39
5
2
4
-7
15
-127
127
-52
-12
-15
-14
30
14
127
-17
95
4
42
-26
89
3
-6
-36
-2
16
35
-31
6
-4
82
-36
23
-28
4
-4
-12
16
127
-30
-38
-5
-6
8
-28
-3
15
-92
9
-19
-2
-26
-31
26
-3
-20
4
-38
25
-50
13
16
127
-73
28
51
-25
-19
-23
-45
-51
18
-24
127
36
30
0
-57
127
0
11
29
-4
-15
-4
18
32
-87
10
-17
54
-9
100
-17
127
-34
121
-32
-74
-3
127
-75
127
21
4
-33
-21
127
-90
-100
11
-34
-127
-23
13
-10
-3
-36
1
15
6
-12
0
-16
2
-9
28
-3
-4
-13
-88
-76
-127
7
-25
26
-2
98
9
-81
52
-39
23
-50
127
-40
-95
11
-49
-56
-14
-16
72
23
0
-32
75
-9
-24
-34
-5
-10
-81
-5
28
-126
-3
-9
63
127
127
-25
2
-17
27
-5
-18
-23
0
87
-27
52
-12
-32
-48
13
-127
-33
-103
-13
24
-57
-71
8
-31
56
70
30
-36
-21
29
-5
-4
-13
-99
-64
1
-28
11
-7
127
-10
-66
-116
2
-38
-18
-24
2
-127
-127
127
-68
-5
11
-4
-16
16
-8
-7
-42
20
-99
-105
49
-17
-14
-118
-12
21
12
-12
32
-8
13
7
42
-29
104
-21
-24
-57
77
-8
-4
-17
127
3
9
-81
17
-1
-74
-2
13
-1
-5
-3
3
-6
6
1
44
-2
35
-6
4
1
45
-12
-2
3
10
10
21
4
8
-21
-7
-6
-13
9
-5
5
35
10
37
13
-9
3
-7
2
42
6
1
0
7
-9
-61
7
81
-6
2
-80
1
-122
6
13
59
-45
13
-13
-4
-4
-3
-2
3
19
3
45
16
5
-2
41
-3
2
14
9
1
2
-13
-7
2
-19
1
-1
15
2
66
0
47
8
-120
-17
-24
6
31
-23
20
-7
31
-4
-1
19
-90
-72
45
-36
-61
-8
34
1
44
86
12
13
-14
11
11
-3
5
1
29
8
0
-48
-52
-43
-73
0
-3
-2
69
98
12
-44
20
-18
15
1
12
24
-14
8
-11
-66
-4
-13
18
14
10
-3
47
1
-17
49
0
-11
-24
-7
6
-41
3
-4
56
27
58
5
0
7
6
-5
3
5
127
14
36
17
2
20
-41
16
-22
4
-53
-41
7
-19
-97
-5
-76
-1
41
-12
-47
3
-2
-6
2
-4
-56
-26
-9
-8
3
-4
47
-9
49
36
3
-23
-58
17
-10
-115
13
14
17
2
-5
1
-22
4
9
19
6
14
-10
-15
2
10
2
-75
3
-114
8
-45
19
7
3
5
-19
-9
13
17
-3
-48
11
5
-7
63
-40
-1
-111
127
-4
127
-22
-16
55
-2
-7
-15
12
-1
-32
-1
127
23
78
-23
-12
37
-62
-15
2
26
82
95
18
-5
44
124
2
-9
11
3
-14
5
12
-10
-119
-127
-5
5
7
-14
15
54
1
-1
-12
4
127
127
-127
127
25
-81
-6
-17
-22
16
43
-57
22
-31
-40
-10
2
-59
-36
-35
6
25
47
66
-76
-47
17
-2
32
19
127
13
127
-22
17
-127
-4
-22
21
-7
19
-15
8
17
-7
127
-73
5
12
48
-35
11
-110
127
-6
-8
-127
-105
-127
90
-8
-62
-83
9
-15
-56
43
22
0
3
8
-8
127
-21
37
-2
0
-66
-97
-124
-31
-4
87
33
65
78
-72
125
69
-17
24
-22
-13
-120
-68
10
-41
-75
-27
127
31
41
-6
1
-127
16
-45
-68
-8
92
-54
-3
4
-4
-1
0
-66
13
25
-4
-1
-22
5
-27
21
-4
-31
-75
0
10
6
83
-43
37
-1
5
-33
127
15
23
-93
-59
-8
12
46
23
-53
-1
20
-13
5
-11
-66
-1
-7
40
8
-6
22
-9
-10
-10
3
-58
127
-89
3
40
-116
-19
-127
-6
25
0
-83
36
7
-8
-50
17
87
117
11
-25
-3
-69
-15
-64
-117
13
19
-15
-7
10
127
-5
-5
67
-30
77
78
2
-14
107
-59
127
-8
-21
-127
-27
-38
-66
127
127
127
127
-127
-127
-58
127
51
127
-107
127
-127
127
-47
127
127
127
127
127
127
127
127
9
127
127
127
127
-127
127
-88
-127
-17
0
127
127
127
127
127
-60
-127
127
127
127
-61
106
-64
-79
127
19
127
127
127
127
-33
-127
127
127
-127
127
127
-127
-127
127
-127
69
127
127
127
-127
116
127
127
127
91
127
-87
127
127
-120
-127
-127
127
-127
-127
127
-64
127
127
-45
-127
17
-55
-127
-40
127
-19
113
127
-53
-107
28
-8
104
105
127
127
127
39
127
-29
127
127
-127
127
127
-40
-127
127
127
-127
-96
-84
-120
97
-127
127
127
-1
127
-49
-68
127
-119
127
127
-20
-11
-127
127
-50
-127
-127
-19
127
127
127
127
65
127
-127
-74
127
-127
-127
127
127
127
127
127
-127
-52
-54
127
127
-105
-127
127
127
127
-71
116
127
127
-127
-82
127
127
-49
127
127
-17
127
127
13
127
-83
-89
127
127
-127
127
127
-127
-6
49
-127
127
127
-127
127
127
-6
-127
-89
-96
127
-127
-11
12
127
-122
-98
-36
12
127
127
-127
127
127
127
-25
-127
127
-104
127
127
-127
127
-127
127
-110
-23
8
127
-127
69
127
-52
127
127
127
127
-127
-127
127
127
23
46
-46
127
-124
13
-1
-27
-14
-35
1
-11
-12
8
-3
-30
-7
-37
29
-39
-22
-15
27
127
-14
2
20
-69
69
17
-5
45
-127
-32
-10
-37
23
-4
5
8
1
127
117
-10
5
6
-7
56
34
3
6
-18
6
12
-22
75
-48
19
-104
-8
-29
-45
12
53
-65
24
-30
-40
0
1
-64
-42
-30
10
29
42
5
-35
116
21
-1
27
18
95
12
-2
-13
11
-119
0
-21
19
-2
23
-11
3
25
109
-87
-67
2
11
6
-32
9
127
-50
-7
-10
-121
-70
96
-127
2
-22
79
11
127
119
43
11
-5
10
5
-10
-91
-22
33
-7
4
-67
-77
-36
-21
3
2
30
62
74
127
-107
54
-15
18
-22
-14
127
-76
13
-45
-81
-31
-20
20
33
-4
-5
85
12
-56
127
-7
-8
-57
-4
-1
-12
4
-3
-59
9
37
-8
2
127
8
-23
-16
-1
103
127
75
11
7
61
-47
-3
-1
5
-37
-86
14
18
-79
-10
-11
8
39
16
-57
-2
13
-11
4
-6
-52
2
-23
41
10
-9
17
-11
127
2
1
-54
-71
127
0
-46
101
-25
120
-8
17
3
-83
29
6
127
-45
22
-93
105
11
-33
-6
-80
-12
-58
127
-127
16
-17
127
6
-86
-4
-14
71
-22
-59
79
0
-18
127
-68
-73
8
6
63
54
-31
2
-23
5
-5
0
-4
-6
-36
30
68
1
127
4
-10
4
-64
1
4
19
17
14
8
-1
10
35
-19
-1
-13
13
-7
3
0
26
-7
-7
-9
8
24
-5
54
127
1
12
8
9
88
46
51
0
9
-120
-11
-4
4
15
45
-48
-15
-15
-15
-4
4
12
1
11
31
-8
21
-41
-12
29
44
1
37
6
19
0
48
-10
26
-16
0
2
-6
4
-16
-11
-27
-15
-4
8
-17
14
-8
33
-15
14
-30
-67
-5
-14
-59
-1
0
37
28
-11
-5
-6
10
64
24
13
16
27
4
-4
38
-6
28
-7
0
-127
-46
-127
38
-5
-119
6
68
-45
7
118
14
42
14
-1
-9
18
-31
14
32
-50
0
11
10
16
-15
2
-32
10
-39
-13
3
19
-30
0
9
1
0
0
-30
-32
28
18
1
1
-1
-4
-22
2
-66
-24
42
18
7
68
-33
12
-5
2
4
33
7
10
-127
-18
39
25
69
13
-25
5
4
-7
26
-3
-41
27
-11
32
11
-1
-15
-6
9
3
0
-38
51
-17
-6
-23
21
-9
-46
0
-7
3
-21
-4
15
-24
-28
4
87
68
-58
7
2
-72
-1
37
-28
-11
15
-7
1
4
52
4
13
18
0
16
-16
3
7
23
11
39
9
1
27
-12
102
-18
40
10
-1
6
-28
-22
-60
21
-48
21
38
-11
-48
15
-39
19
8
28
-25
-30
28
-10
40
-13
-55
4
-3
0
-20
6
-36
80
-4
-7
-25
19
70
-9
43
81
-4
33
-17
28
21
-25
56
18
22
-127
-26
15
17
17
31
-85
-56
21
-49
3
16
-52
-114
17
47
54
43
49
32
55
117
-7
119
4
-4
-10
37
-39
15
-126
-5
-11
-36
-2
0
-11
17
48
-38
-2
-72
127
-30
72
-109
15
-17
88
9
-51
-45
127
-14
-41
123
-14
48
34
-2
87
127
0
20
34
8
-6
-1
-11
28
-31
-10
-124
-127
-71
96
-15
70
38
127
34
-22
127
44
127
6
-2
-100
-43
-70
24
127
-55
-28
-9
-39
19
-57
18
-65
13
-48
1
-20
9
-75
4
3
-10
9
1
-29
-51
-16
11
-8
3
-7
-25
-31
-11
48
-28
73
-16
21
127
-57
19
56
-36
23
-19
3
16
-59
12
127
127
51
42
-44
-21
20
-1
127
-127
-88
126
-27
71
12
-3
-36
-16
49
-127
-2
-54
-39
6
5
108
104
5
-14
-8
25
9
-58
23
57
-23
-70
4
127
-41
-102
2
-2
-53
-5
-10
15
-26
41
-13
21
15
17
15
36
-5
-25
52
-120
-2
27
18
17
-10
12
17
57
5
-33
5
13
3
-6
-1
-4
-3
-46
19
-17
1
43
5
-13
5
57
-4
0
17
-12
9
12
-2
5
-8
-10
-2
-18
7
-5
5
0
19
42
16
-10
8
24
-7
-27
121
3
8
9
11
-79
5
96
-4
5
-118
-9
-7
-6
12
58
-45
-14
-18
-7
-5
0
15
-7
1
31
-6
17
53
-7
9
38
1
43
2
5
0
10
-13
19
-5
3
4
-11
-1
-17
-15
-29
-4
33
6
-12
19
-7
52
-8
8
34
67
-8
-10
-52
5
-4
-56
17
-24
25
-6
32
-63
22
17
9
27
0
-7
-33
-2
29
-9
3
-121
-40
6
32
-3
37
2
57
-99
22
89
9
35
15
-4
-6
33
-18
12
21
-47
3
6
6
19
-18
1
-5
9
-22
23
0
8
-21
-1
8
5
-1
-3
-28
-30
31
18
0
0
0
-6
15
0
71
38
-107
17
8
69
-26
17
-5
-2
-2
-28
6
10
-105
6
53
26
65
12
-21
2
3
-6
22
-3
-46
20
-13
33
7
-1
-11
-6
-79
12
0
-38
-63
14
-7
32
125
-6
31
0
-4
2
-24
-5
10
46
-17
8
2
73
-52
10
0
-70
-1
43
16
-50
14
-5
31
3
-53
5
6
10
-3
14
-13
2
-4
74
7
-9