82
59
-89
-72
41
68
-68
-66
79
92
80
66
76
-80
85
78
-73
77
-71
-92
-75
-82
74
80
70
102
-61
-110
64
85
-108
59
78
74
59
47
-61
76
77
75
65
-86
-62
45
63
37
-67
68
58
-66
62
70
-78
-7
72
47
48
84
-74
76
-79
-69
50
82
60
82
58
-68
72
-85
63
102
75
-65
69
-56
62
-71
71
-98
-99
-125
-83
65
73
64
-73
-70
104
115
-70
-110
-73
92
56
-68
-69
90
77
80
-64
-69
-71
-70
91
61
66
-62
-89
77
69
54
73
-71
64
-62
127
-57
-89
50
-90
41
70
77
127
123
-70
-36
107
75
-97
-98
83
86
-85
-95
81
112
104
90
96
-97
103
106
-90
90
-73
-109
-99
-92
94
95
92
111
-89
-127
91
101
-87
80
100
104
83
74
-97
98
96
102
83
-99
-92
87
96
58
-89
94
88
-96
86
99
-97
-13
76
99
82
94
-90
96
-101
-92
78
106
82
96
88
-95
96
-103
84
-37
103
-80
53
-127
84
-92
90
-127
-127
-127
-114
89
122
-94
-87
-94
-71
127
-110
-25
-98
107
38
-90
-87
108
95
81
-90
-91
-109
-94
-85
89
102
-93
-112
94
99
90
100
-92
87
-84
72
-82
-113
110
-91
80
89
97
46
127
-127
108
47
27
-40
-44
50
37
-40
-41
30
58
55
45
36
-57
42
44
-33
37
-23
-52
-41
-46
49
43
35
61
-42
-66
39
37
-26
43
43
48
41
47
-54
47
35
36
38
-46
-42
62
52
26
-40
44
42
-43
38
44
-37
-7
21
57
46
35
-35
43
-43
-39
40
45
35
46
42
-40
53
-46
35
-52
50
-46
2
-81
34
-38
43
-72
-55
-57
-54
42
64
-68
-30
-41
-16
53
-67
10
-43
46
-105
-48
-39
45
51
22
-36
-44
-57
-43
-39
40
47
-52
-37
43
53
45
46
-43
37
-34
15
-42
-55
52
-41
45
46
38
13
38
-68
-40
108
72
-109
-94
81
104
-97
-94
106
105
101
87
104
-105
98
93
-99
109
-101
-105
-94
-101
99
95
73
-22
-92
-100
87
95
-97
95
103
102
89
80
-73
98
78
98
84
-109
-88
69
98
82
-96
91
87
-89
90
91
-96
87
92
80
90
96
-92
95
-97
-95
76
100
95
105
84
-88
96
-111
92
127
97
-98
108
63
99
-98
99
47
69
23
114
90
-97
127
-90
-95
127
-6
-100
-28
-97
91
53
-93
-95
106
100
103
-88
-94
-82
-94
127
87
101
-103
-99
105
94
87
92
-102
94
-90
113
-100
-102
44
-100
100
100
102
80
-33
26
-90
127
127
-127
-127
127
127
-127
-127
127
127
127
127
127
-127
127
127
-127
127
-127
-127
-127
-127
127
127
127
-127
-127
-107
127
127
-127
127
127
127
127
127
-127
127
127
127
127
-127
-127
127
127
127
-127
127
127
-127
127
127
-127
127
127
127
127
127
-127
127
-127
-127
127
127
127
127
127
-127
127
-127
127
-85
127
-127
127
28
127
-127
127
61
87
74
127
127
-127
-45
-127
-127
-63
-50
-127
127
-127
127
97
-127
-127
127
127
127
-127
-127
-127
-127
-105
127
127
-127
-127
127
127
127
127
-127
127
-127
-18
-127
-127
127
-127
127
127
127
-80
-54
17
127
55
68
-46
-60
63
56
-56
-53
49
64
63
60
48
-64
57
53
-50
51
-49
-61
-53
-52
66
70
90
-96
-62
-45
56
54
-90
62
59
64
61
83
-74
58
71
48
69
-56
-60
84
63
58
-56
58
60
-60
64
51
-44
68
59
52
64
58
-54
58
-53
-54
62
57
60
62
64
-62
65
-54
51
-71
65
-69
47
3
51
-53
62
38
35
48
48
56
-54
-58
-56
-54
-20
-41
-73
116
-48
70
-127
-65
-53
56
67
45
-51
-59
-72
-59
-40
56
45
-52
-35
50
65
61
61
-64
55
-54
-92
-64
-53
92
-68
50
66
53
-89
-39
-3
-12
50
30
-47
-40
58
50
-44
-40
48
48
52
36
46
-47
34
33
-36
44
-63
-44
-42
-44
54
32
18
-46
-43
-38
42
32
-31
48
53
51
46
52
-25
46
20
44
38
-48
-42
46
52
71
-38
38
42
-39
45
41
-41
-86
40
46
51
36
-40
39
-43
-40
37
46
48
56
40
-36
50
-50
39
41
53
-58
49
37
60
-45
54
43
14
48
-14
42
-34
66
-33
-43
51
-44
-57
20
-35
46
5
-51
-38
43
51
29
-35
-44
-35
-44
59
42
51
-57
-29
51
48
39
44
-56
44
-39
26
-55
-42
9
-48
56
52
49
38
-20
41
-52
56
76
-50
-58
67
68
-57
-51
67
60
63
54
57
-62
53
49
-51
47
-84
-52
-58
-51
71
48
71
-119
-63
-30
62
50
-88
67
63
63
63
86
-48
59
57
51
73
-59
-61
71
64
94
-50
54
61
-59
62
49
-49
-116
79
48
61
63
-62
51
-55
-53
65
59
65
67
55
-58
62
-54
53
-42
67
-81
84
54
76
-62
69
61
11
80
-4
62
-42
7
-62
-59
-20
-87
-62
126
-43
70
50
-69
-49
60
66
60
-56
-61
-58
-59
-56
60
50
-56
-33
63
61
58
61
-72
61
-56
-68
-66
-49
47
-61
52
63
62
-107
-27
61
37
21
39
-18
-29
25
29
-25
-17
33
29
29
25
24
-42
24
22
-19
17
-34
-25
-24
-28
45
32
59
-71
-28
-13
30
25
-71
29
29
31
27
57
-23
28
42
22
44
-26
-28
40
26
42
-24
21
28
-27
33
13
-17
-61
46
4
22
30
-27
27
-24
-22
33
26
31
22
26
-33
29
-19
19
-30
32
-43
38
35
34
-27
36
30
5
33
-1
23
-20
-7
-27
-25
-17
-44
-20
67
-16
37
-47
-38
-21
24
40
32
-24
-26
-41
-29
-16
26
10
-11
-6
23
34
27
30
-35
32
-23
-68
-26
-19
47
-36
7
33
28
-54
-13
28
11