-18
-21
9
-2
2
-4
4
-26
-1
-97
-3
-66
51
-2
7
63
-5
35
-3
-2
-5
-18
-29
25
-9
-3
2
2
-38
4
-30
12
46
-25
-3
59
12
10
-8
15
-7
-6
-70
-4
0
-72
-7
14
-3
-44
4
38
46
-1
-4
0
33
34
-89
-2
0
8
39
7
-7
4
0
24
18
-10
-10
-62
-7
-10
-7
-12
-11
17
-2
5
-4
5
-19
-4
8
2
6
111
4
-3
30
-11
-13
-13
-1
3
12
-3
11
-16
12
11
13
28
6
-36
10
5
-6
6
-29
18
12
-22
7
3
-8
84
13
27
67
0
40
65
25
-4
40
-1
99
19
5
127
1
-5
6
75
-86
2
-16
18
29
127
-15
-13
-12
-68
-8
10
53
-21
-14
6
-6
-93
-16
-9
127
-18
6
-8
3
42
-9
-50
23
14
44
-1
21
3
20
67
-66
-25
-63
50
3
25
14
-33
-47
-14
-4
-4
2
36
-1
-33
6
21
-2
-7
14
-12
39
-13
-20
-31
26
-8
0
-3
11
-29
3
-31
1
-2
-4
17
-84
-6
4
4
19
-31
-8
0
-27
3
26
-116
48
34
-9
54
-42
-3
15
1
0
1
1
6
3
61
51
7
-24
34
2
-85
-2
12
-4
1
38
40
9
-22
31
1
15
-9
-17
2
1
-66
-34
-15
0
-6
13
-17
-34
-127
0
-75
127
-18
46
90
-39
-99
15
-30
-16
-68
-71
-48
-50
8
-37
27
-84
10
-28
11
127
-126
-21
3
-56
22
36
66
-27
-12
-124
0
15
-2
-24
22
-15
-92
-5
-18
127
-127
13
-3
16
-7
-97
-1
-10
-3
-5
-61
-12
-48
33
-127
56
42
15
-48
-19
127
-30
-3
34
127
1
9
6
9
-41
-22
-2
-72
-6
75
-7
-10
16
-42
19
55
-1
5
-64
9
127
-92
127
28
127
-69
-11
-37
127
-4
-14
-78
75
52
-24
-70
72
29
-6
127
15
64
127
-11
117
127
72
-15
-18
-2
73
-96
-122
-75
-13
9
-6
32
-66
-15
15
127
81
44
-4
7
-43
-66
18
29
81
-49
-2
3
-19
-89
-72
-31
-20
-127
-27
2
-12
127
11
-112
-56
-11
98
-9
-122
-20
-6
83
33
0
41
69
12
78
127
-127
-35
-28
64
-2
-14
65
-30
3
-3
-27
-66
-4
38
-3
17
62
127
-78
127
-1
24
-30
127
-95
-57
-52
46
-16
-8
85
-108
-49
-5
-10
-2
-96
-78
4
-57
-9
61
66
82
18
3
127
-74
-7
35
-16
-22
-3
33
-10
2
-19
-25
127
-112
127
127
-127
-3
-127
1
1
-47
-17
108
-48
-21
-14
-28
-37
-2
127
-14
-11
11
-3
4
-7
7
-27
52
-77
-3
-48
-124
-2
0
64
68
25
17
-4
-5
-4
-39
19
59
0
0
2
-41
5
71
10
44
-28
-5
-91
18
11
-9
24
-6
-6
-69
-6
3
53
-8
14
-5
-53
7
-6
31
1
-5
3
-1
26
-75
-2
-1
15
-39
5
-7
3
1
-4
19
-7
-5
-61
-6
-6
-4
-16
-10
11
-4
5
-2
5
-17
-5
4
5
4
25
6
-4
-73
-11
-10
-13
3
2
13
4
11
-15
12
7
15
25
5
-34
4
6
-5
7
107
24
11
-25
-127
6
-8
86
12
27
64
3
41
71
33
-5
-21
-1
-4
-34
-7
-91
-1
-4
4
-25
-14
1
-14
20
28
-105
-9
-12
-17
-53
-18
9
52
-24
-16
7
-6
-96
-96
-12
-11
-20
10
-6
-1
29
-5
-58
16
11
41
-2
17
2
28
65
127
11
94
52
3
15
8
-22
-58
-14
-5
-4
1
36
-2
39
4
-14
1
-7
33
-1
-12
79
-15
-27
33
-9
3
-7
6
-34
0
-33
6
-2
-5
19
-78
-6
2
5
12
-30
-14
-1
-33
1
33
4
40
-27
-6
52
-35
-2
12
5
-1
2
-9
5
3
-6
-8
5
-23
40
3
-86
1
20
-5
0
24
43
-5
-24
-20
3
16
-9
-20
5
-6
56
-31
27
-6
-14
14
117
-103
-99
4
-114
-41
-10
-127
29
-4
-27
-127
-23
-10
41
-127
-17
-67
-10
10
18
-15
24
-66
19
3
-85
-32
90
127
17
-5
-15
-35
-16
-127
-13
11
-67
-18
17
-16
-59
-25
127
53
-23
-10
-17
-91
103
-127
-12
-14
3
127
7
-12
15
31
33
25
-37
119
-19
-13
58
-2
-49
-3
-35
72
4
1
-15
-64
-22
6
-8
1
127
-10
-14
70
-17
-8
35
6
15
-16
9
-8
-93
-16
8
1
14
23
120
-20
12
-2
-20
-53
-4
47
-16
-40
10
-8
53
22
-7
2
3
-1
57
11
-21
127
16
113
-56
-126
120
61
-15
-34
127
-127
2
-10
-18
31
83
6
-14
-41
-70
-127
20
23
-40
-14
5
-23
-68
18
-16
115
45
-105
-7
5
33
-25
-61
59
-7
72
10
-44
-12
-1
21
-60
-127
-60
63
-10
-7
2
-87
-20
-12
-33
4
-3
3
-9
-89
-6
7
16
-16
99
-127
127
-68
-43
-42
-41
-8
17
-13
44
-16
-25
1
3
-21
-11
25
-42
11
4
-38
-53
-83
-38
16
-30
-12
-30
99
-2
51
0
9
-43
15
38
-10
-5
3
-22
-10
-21
127
94
-16
-83
14
-1
-125
-3
58
-19
-11
95
11
-11
-7
95
-17
12
17
4
-24
127
127
-127
-127
127
-127
127
105
-117
-37
-127
-96
-64
127
-106
-127
-120
-28
34
127
127
-39
-20
127
-58
127
127
127
127
127
-24
127
-17
-127
127
32
34
-127
127
92
127
127
-119
127
127
-62
127
-127
127
-62
127
-90
-49
-117
127
-21
-41
127
-117
127
60
127
-43
127
127
32
127
-87
127
127
26
-91
127
104
127
-127
127
95
127
127
127
127
127
127
5
-127
127
-82
127
127
71
-127
-127
127
127
127
-127
127
-19
42
-84
-127
-96
-127
127
-16
-32
-127
-2
-43
-127
-51
-127
127
109
127
-127
-69
127
127
-10
127
127
-52
127
127
-26
127
-127
-19
-112
-41
127
127
-20
-50
17
127
127
-96
-127
37
127
127
127
-127
33
127
127
32
127
127
127
-127
32
127
30
-60
-127
-127
127
-8
127
127
-127
2
66
127
-127
-127
127
-127
-4
39
31
-127
127
127
35
-54
-127
127
127
-127
127
127
127
-19
127
-20
125
127
-127
-97
-83
-28
-13
-127
-65
127
-127
-127
64
127
-127
-109
111
127
127
127
-127
127
127
127
-127
-127
-127
127
127
127
-99
127
127
127
127
-92
-127
-127
127
-127
127
127
127
-127
127
-38
-127
-24
-127
-46
77
-75
127
118
127
127
-127
-126
127
127
-127
-127
-127
127
127
-87
-8
52
-34
25
5
-16
17
127
127
-99
-1
-117
49
-2
-104
24
127
-15
62
-16
-4
-56
-118
-13
127
-6
10
21
-12
24
127
27
6
-87
-32
-127
99
10
2
-16
-36
-13
-107
-11
16
127
-12
15
-9
-64
-27
-26
30
-16
-10
-17
127
-6
-125
-7
-14
1
-61
5
-9
12
30
19
22
-31
-127
-21
-9
58
3
-46
0
-34
68
4
1
-10
-61
4
5
-15
3
-52
-2
-11
-127
-21
-13
34
6
26
-25
7
-10
-108
-13
16
0
10
24
127
-19
9
-3
-18
107
-1
60
-11
123
14
-14
49
20
-11
7
8
11
62
15
-19
-102
19
-71
36
-113
-72
64
-13
-37
-89
1
-3
-7
-20
31
-112
18
-13
-34
-88
102
20
20
-38
-9
2
-24
-65
-127
-10
84
46
-90
-6
4
38
-20
-61
66
-8
72
10
-41
-16
75
24
50
42
127
46
-2
-10
5
-82
-23
-12
-32
2
0
5
-3
127
1
127
16
-16
47
-107
-52
127
-46
-45
-44
-18
11
-14
42
-13
-29
-2
5
-15
-4
25
-34
12
4
-35
-64
-79
-37
17
-22
-7
127
-42
0
-86
4
8
-57
8
37
-12
-1
9
-45
-10
-19
-39
-66
-14
-75
15
-3
-116
0
63
-13
-11
61
2
-7
-3
-31
-18
12
13
10
-29
-12
86
6
21
9
1
-3
78
-21
-102
3
-56
-13
0
33
17
13
101
37
2
-1
1
-37
-3
14
1
-3
8
5
5
-10
11
-8
-18
-11
46
23
12
0
5
-10
-7
-62
-10
9
-54
-1
11
-1
-89
-5
31
-30
-2
-3
-4
-119
-69
-93
-4
28
18
67
6
-11
20
-1
28
10
1
47
52
-7
-2
1
-27
-8
-6
4
3
4
-8
-40
0
44
-10
5
69
3
-3
11
0
2
35
5
-6
-3
-1
-3
2
-12
3
-30
80
8
-37
-6
6
36
5
3
-52
14
5
-7
-8
-3
11
15
1
-19
5
2
-10
0
-5
52
-12
11
48
0
12
-11
-8
5
72
-45
7
-10
-18
3
-81
-1
-16
-7
-65
-87
9
-27
9
-15
-1
-12
-45
-23
-4
126
33
5
7
8
-10
-9
-18
17
-17
32
6
-2
0
22
10
-13
-73
-31
37
0
-35
-9
-41
-39
-7
2
-1
0
9
-3
-34
-5
31
16
-16
23
-4
58
-46
-1
-4
5
-26
4
16
2
1
7
29
5
-2
-4
-10
-10
24
5
8
-33
-55
-11
10
-6
-2
3
32
-5
26
-1
-34
-43
-4
16
1
7
-3
4
-8
-5
30
64
3
5
-9
-19
-79
5
54
-4
0
-3
-31
-26
-3
51
-2
24
22
36
-27
4
123
-23
86
16
-23
31
57
-13
-104
-3
-127
-70
15
-28
-25
3
127
49
-4
-9
127
-80
-70
-4
-3
-16
1
25
46
-27
36
9
94
-37
1
-40
1
-72
127
-33
-11
-39
-20
-3
28
9
-13
-2
-127
-8
-1
-21
-122
-14
127
9
39
-121
-16
127
63
3
69
-3
127
51
33
2
-34
-19
127
7
54
-15
-16
-10
-23
6
3
17
-51
95
-1
127
-40
18
-20
-6
-2
-17
-52
-23
9
5
37
-45
-48
-16
-127
-53
-18
-38
111
36
-98
-20
18
127
127
-57
-127
-22
24
-29
-19
17
-30
17
10
-122
14
2
0
-24
0
2
-22
-51
127
-127
38
52
22
127
-37
-60
38
-2
-10
-46
-43
22
-4
1
-72
-21
17
-41
127
-5
20
-15
-61
-69
8
-20
61
-23
-11
45
-5
-39
29
-16
127
-127
34
57
-29
30
-35
-19
10
4
47
-11
-38
-36
-20
-37
-3
-16
4
11
-2
13
1
-5
0
127
-12
-19
-73
-10
-28
-25
69
-31
-55
-1
85
-8
28
-76
127
-127
-17
3
-67
-47
112
5
5
34
-68
-40
-34
-1
-11
9
-29
-57
-5
26
-33
-31
-11
35
-18
29
15
37
34
-2
1
13
-2
-99
2
-35
-85
13
85
-18
-16
12
-127
-71
20
80
5
17
101
37
-23
-12
91
3
20
10
-1
-2
72
84
-86
3
-59
73
0
31
17
36
112
28
-1
-2
62
-39
-4
4
1
-2
6
5
6
41
12
-8
-10
-10
-52
23
12
-2
20
-7
-7
-86
-10
8
32
-1
10
-3
-89
-3
-11
-32
-2
-4
3
76
21
-81
-5
28
21
-59
5
-10
23
-4
37
13
2
-92
46
-6
-1
3
-29
-8
-7
6
3
5
-10
-38
6
44
-10
4
-51
3
-3
-37
-3
-1
33
7
-3
-2
1
-3
5
-12
-1
-26
90
9
-43
-3
7
31
5
-1
-50
18
8
38
-5
-2
7
12
0
-15
6
-4
-3
7
-8
-34
-14
-14
14
-17
47
-13
-5
10
-87
-11
10
-9
-15
2
-5
3
-15
-9
-47
42
9
-29
9
-15
-2
-9
-40
-55
-1
-11
35
7
6
9
-11
-11
-23
10
-10
40
5
0
1
-55
11
10
11
-1
38
0
-40
-6
-42
-45
-6
4
1
-2
8
-1
24
-7
77
16
-14
23
-13
-21
45
-6
-1
0
-21
2
16
-4
5
2
25
2
-3
-3
-8
-1
17
6
7
-34
-54
-10
8
-4
-1
55
-10
-10
-35
4
-32
-40
-2
18
4
12
0
-11
-9
-4
-5
-9
3
-7
-6
-21
-75
6
64
-4
1
-2
-46
-23
-1
29
-2
25
15
34
-28