-11
3
8
-11
-14
-8
127
-10
29
0
-56
12
17
7
29
-2
6
13
14
2
-9
19
-1
25
-17
-120
8
13
46
-13
-3
7
25
0
20
9
2
-9
-4
23
6
-3
23
-32
17
-7
-9
-11
10
-11
-9
4
25
2
2
-2
-4
3
3
0
4
-12
2
-1
-8
0
-24
69
13
28
3
-5
32
71
-39
24
0
-34
-17
2
-9
-9
15
-17
-16
-1
6
0
-16
2
12
-7
-3
13
-16
-10
-1
8
-9
46
-10
23
-2
18
7
-37
5
5
-7
8
14
12
-21
-23
9
19
-9
-1
0
-2
-6
-1
0
-4
-16
28
2
9
7
-2
-3
19
-3
26
2
7
8
-7
4
-1
-4
2
7
-33
8
-10
-8
-29
127
-78
0
2
-4
-8
-23
-3
-43
103
-30
26
3
2
-4
-10
-2
0
-7
3
-3
3
-4
4
-15
-10
-9
-89
-20
2
22
2
2
10
29
-108
6
-19
-6
3
4
-17
-8
87
22
10
-7
13
0
-1
3
8
8
22
14
-8
-1
22
3
12
-9
6
4
0
-6
-57
34
7
-27
28
0
-40
-5
-16
-5
-1
23
7
4
-30
-11
-20
30
-1
-2
1
-50
-14
-11
3
-4
-1
9
15
-9
19
2
-9
4
-12
-11
-49
14
-5
-5
4
-5
-5
5
10
-28
-11
-8
-11
8
-111
127
-33
-75
-20
-7
15
14
-22
25
-21
72
-18
20
-28
-18
112
15
-127
10
16
-56
80
-14
-10
-21
82
4
-10
18
-7
-11
52
13
2
-27
-127
-3
37
-19
20
-19
-24
-30
7
-87
0
-25
-27
6
40
-29
7
-32
-13
11
-5
-127
31
2
92
12
-35
-37
14
38
90
-12
1
-14
48
-1
-21
-2
-6
127
78
-84
-15
-18
0
23
6
127
-32
7
-24
-3
17
28
127
3
15
-15
-14
6
19
-33
-92
16
-7
18
-7
6
127
-76
-94
-115
127
21
31
-41
-23
-2
-73
-25
-12
-33
-30
-45
-11
-12
49
22
-41
0
-19
8
127
-35
-1
57
18
21
127
-13
-123
-21
-22
-10
-96
71
5
2
-34
26
-5
-116
14
-55
127
-48
127
6
-47
14
7
1
-89
30
-28
21
-8
-52
-31
-26
0
-10
101
88
23
127
-12
9
-10
-7
-127
-23
127
-25
16
-31
4
9
-127
-14
127
-58
66
-15
-18
-12
-16
-13
-36
-37
-11
-41
127
-2
-22
1
-18
-15
-27
-16
48
-27
-62
42
107
1
34
-7
-127
9
-11
6
-12
127
-50
-28
-115
-18
8
16
-11
-15
3
-101
23
-93
-16
127
43
-16
127
-113
127
-25
-12
-8
27
127
-7
-2
-30
13
-4
-8
-3
26
3
-8
-9
-25
-14
26
-19
-57
0
-10
5
13
-6
-14
-8
14
-2
-7
5
1
32
7
-76
-4
3
51
-18
3
7
-10
104
-9
2
2
-8
-5
21
10
-2
0
-5
-10
-9
-12
-2
7
-14
-13
9
13
-6
14
10
-3
-1
1
3
4
-11
5
0
5
-3
-19
72
-13
-1
8
-7
26
-28
5
-25
4
8
23
15
-8
-9
18
-14
-15
1
6
-3
-5
-2
17
2
-4
8
-13
-8
-1
-8
1
43
-8
-5
-4
17
9
-36
-5
1
-8
-3
11
9
-21
-34
11
28
-11
4
-2
-5
-6
-1
18
12
-19
1
4
3
5
-13
-3
-3
3
-5
3
9
2
7
-2
-4
-3
6
6
-34
6
-12
20
44
12
72
0
12
0
-5
-24
-8
-42
44
-32
25
0
-4
-1
-7
-1
-6
-7
1
-6
4
-1
1
-10
5
-10
-6
63
-3
24
5
2
18
-13
-101
-4
10
-4
-1
3
-20
-8
13
-6
17
-5
8
11
-1
-7
-5
11
4
-6
16
0
26
7
3
-10
1
6
-2
-9
-33
-9
-3
9
16
-3
-4
-3
-23
-5
-1
-19
6
5
78
-10
-16
-13
-2
0
1
22
-6
-10
-3
-10
6
8
7
-11
24
-66
-6
1
-11
17
55
1
-7
-3
17
-2
-6
13
-6
-37
127
-22
-22
124
-2
-37
-70
-39
-27
121
36
127
-26
-31
127
-1
-18
-42
127
-20
-18
29
-126
127
41
-22
3
-28
11
127
-80
-23
127
9
-24
-9
28
13
2
127
56
127
-12
-36
-15
-19
-37
-34
-12
3
1
-18
-22
11
27
1
127
-29
-24
-3
-5
-112
29
1
116
19
127
-22
14
32
127
35
-89
-13
-89
-109
-89
-3
-13
-5
-3
-65
127
-30
4
-10
-26
-23
-1
13
127
-50
17
11
-13
-127
12
-17
127
13
16
-20
-127
-13
-112
14
127
16
-27
13
-86
-11
-19
-92
-13
-20
8
-2
-13
-36
-99
-34
127
-23
-28
127
-4
7
-29
0
127
7
-16
-27
-127
0
37
127
1
127
2
-6
-32
-93
-60
21
127
-11
-31
-3
9
-3
9
-54
95
-42
-23
6
16
1
-4
-18
-16
12
-32
11
-10
-23
-30
-25
-127
-14
109
-127
22
-17
-17
5
12
127
-112
10
-5
-26
13
-23
-9
-3
-81
127
3
-10
14
127
-23
127
-23
16
127
127
-103
-22
-11
-2
-13
-7
-20
-15
-13
-19
-17
127
6
18
10
8
-42
-5
-4
6
-20
19
3
-7
-17
-18
-127
127
1
17
-3
127
-35
11
10
-10
-24
1
9
-14
-14
120
-16
-6
-18
-102
62
-23
-20
-6
-13
1
-9
127
127
-127
-58
127
127
-4
-7
-122
127
-127
-127
-2
127
-6
127
127
-69
69
127
127
-24
-127
34
127
-45
-14
127
-127
-127
127
127
-86
-91
127
-30
127
127
127
127
127
127
-92
110
-80
127
127
127
-127
127
127
-127
127
-127
-94
-70
127
127
127
36
-127
127
127
127
-43
127
-127
-5
127
-93
-127
127
127
-103
127
-44
-127
-127
-21
-26
127
127
-8
-43
-117
-75
-85
127
127
127
-82
127
127
-93
127
127
127
-89
16
-127
127
-57
127
127
-127
-86
127
-12
127
-102
-127
-71
127
-127
127
-43
127
127
-76
-127
127
-46
-85
-23
127
-95
-87
-96
-97
127
127
-127
127
-65
127
-90
-127
14
127
127
86
16
-37
-4
127
127
-33
-127
-102
0
-121
-127
127
-127
-14
127
-127
-126
127
-62
127
127
127
127
-112
-35
127
127
127
-127
-55
-64
-127
79
-127
127
116
127
-48
-96
-127
-127
-124
-100
127
-19
-73
127
-86
127
127
40
-48
-53
127
127
-76
127
-58
-93
-127
-99
-63
-21
-79
-20
-127
127
127
-127
-127
127
-108
127
-38
127
127
-127
127
127
127
19
127
-127
127
-127
33
-72
127
-95
-76
127
127
-127
22
-127
127
127
-22
-105
-31
127
127
-40
-127
-57
127
127
-24
-127
-64
127
127
-84
127
127
8
0
-41
-13
6
-16
-27
-9
-10
-27
-25
-35
-127
26
-10
-22
-18
-21
3
-1
-40
-84
-17
-20
12
-115
-48
19
-30
7
-20
20
-18
127
-89
-102
-6
-19
-4
25
13
-3
-27
-7
-59
-18
-44
5
-20
-36
-20
-19
9
-8
127
127
2
12
2
-10
-10
-23
-4
-4
-110
14
-6
95
18
-31
-11
2
19
-3
-15
127
-4
49
127
127
-4
-14
-5
1
-46
-22
127
4
-108
18
-11
5
8
-30
-1
4
10
-7
117
28
-14
-21
0
10
-19
-103
-30
127
6
-15
19
-27
18
-98
-13
-23
-54
16
-27
-8
-5
-17
127
127
-39
-28
-22
127
-25
-22
0
-14
-4
-54
4
-16
-18
119
3
26
-39
1
-86
14
-10
-9
127
19
-31
-127
127
-21
-4
10
-4
16
-46
13
-47
-22
11
-4
-3
-9
-7
-20
-4
-14
22
-4
-28
-41
-13
50
-10
-56
56
2
-17
127
8
8
12
-89
1
-16
-20
21
-25
-8
1
-14
-84
-3
-2
22
-55
-24
-3
127
7
-25
-15
127
-20
-9
3
-3
-15
-9
-10
-10
-17
18
-86
14
1
-18
6
-1
-12
-10
-2
-10
22
1
-4
127
-25
-88
-18
-7
8
-3
-7
-13
1
5
-9
-27
13
8
-24
-13
-99
-9
8
-14
127
-30
-22
-24
-6
127
-12
-16
-7
-5
36
-11
-1
-3
-25
13
-7
-5
-45
-8
25
8
15
-7
-14
23
-21
-9
2
20
-1
-16
10
-53
13
-7
35
-19
-8
5
21
-32
-10
20
7
-8
-5
7
12
-5
15
15
20
-14
-8
-17
16
-6
-18
2
6
7
-4
5
0
3
-2
16
10
-11
6
-2
-6
1
28
32
-11
13
7
-9
22
27
4
43
1
-75
-15
-1
-12
-2
-13
-52
-36
11
1
-1
10
4
-1
6
-2
14
-8
-10
0
-2
10
37
-10
20
-4
23
2
-41
-10
-10
-9
15
27
2
-18
2
-1
-6
-2
0
15
0
-12
15
-4
-13
-14
19
15
4
13
-50
-20
-8
4
17
2
2
-2
-11
5
-2
-61
-5
11
33
-2
-4
-12
13
-10
-6
3
19
10
13
24
-4
-11
15
-30
-11
-4
-8
-1
-13
17
11
-18
2
6
7
19
12
-3
-9
-2
-5
-29
-2
-11
1
1
11
29
-52
3
-3
20
-10
14
-16
-7
-4
21
-18
-6
-4
12
-2
-11
-3
4
13
6
-13
18
-14
4
7
-8
-10
5
-4
21
18
24
4
16
-19
-5
3
-6
21
-6
6
-16
4
3
-24
-13
-1
63
-2
-1
-3
-10
8
7
4
12
22
11
5
-12
-6
-5
-4
-5
-11
-17
36
5
-5
0
-6
-5
-10
11
-3
-50
-14
-14
-26
-49
127
-7
-9
-40
1
-6
-1
1
-19
46
-22
-127
-5
-1
-13
-10
-127
2
-111
10
-15
-47
-39
6
-1
-30
-103
31
-18
-28
-42
-5
14
13
-4
-19
53
-8
-100
4
-39
-11
-37
3
0
4
69
-30
5
0
10
-49
11
-34
-33
15
-4
-84
19
97
127
7
-21
-25
0
1
11
-19
10
-6
-61
-9
-17
-6
-15
-118
-127
-127
-21
-19
-1
13
7
-25
-35
3
-22
-42
6
15
-12
-3
17
-4
-5
-2
7
-20
-87
-66
-7
1
-17
45
-15
-9
-97
-2
-83
-2
-35
127
1
0
127
-34
-16
-32
-25
127
-11
-15
-77
-124
-19
1
-22
4
-30
-29
-7
14
13
-106
-14
-12
127
-21
14
-17
52
-30
-12
-8
-34
6
-63
127
5
-56
3
-44
-58
5
-28
0
-13
127
127
-5
-13
1
4
127
127
-9
5
2
-38
-21
-14
-78
-23
10
30
-36
-74
8
-4
127
27
127
-7
-3
-19
-18
-78
-29
17
-19
-23
-7
-22
27
-28
-2
-13
127
-107
14
3
-20
31
-4
-16
127
-51
-13
-11
16
3
-5
13
-17
115
-13
-26
43
17
-3
-50
-29
-107
127
-10
3
2
-66
-42
78
12
127
127
4
31
-24
-92
35
2
-54
-25
-9
19
-15
-29
-1
-26
2
-19
-6
-4
35
-8
-10
-4
-6
18
-15
-13
-52
0
-18
5
7
-11
-6
-10
-25
-1
-4
-5
-2
-22
-11
-46
-10
3
32
-38
1
3
-6
-21
-2
-5
8
-14
-4
6
8
-5
1
-10
-5
-16
-16
-15
14
-12
-23
10
9
12
17
-10
3
2
-6
-1
6
-7
6
-1
1
0
36
46
10
1
5
-9
17
-9
-16
-48
6
6
19
24
-10
-7
-14
-48
-53
-4
8
-1
-29
-2
-4
-8
-4
-2
-16
-10
1
-3
-9
42
-9
-8
-4
23
2
-33
-17
16
-5
1
30
0
-16
-13
-5
-9
5
2
19
-1
-12
15
32
24
-13
0
15
10
2
-46
-20
9
-7
-7
2
-2
26
13
9
1
2
-11
-5
24
-1
-6
21
-21
-10
17
5
2
11
13
23
0
-5
-15
-37
-9
-2
5
1
-12
9
20
-10
-2
3
7
23
25
-2
3
-3
6
-4
-1
-7
14
0
13
-17
-59
5
-2
11
-12
15
-18
-5
-6
-11
-19
6
-5
3
-4
-4
20
13
-6
2
21
19
-17
4
6
-6
-14
8
-5
18
6
-10
-1
-13
-11
-9
-9
-3
31
-3
3
3
4
-2
56
-14
7
31
-2
0
-3
21
3
7
-1
13
14
13
8
-18
-9
8
-4
-4
-14
18
-21
9
-7
-1
17
4
-10