12
4
14
7
-11
3
8
83
-126
-72
39
7
72
85
31
8
-16
15
2
-1
-8
-1
37
29
18
32
18
-24
-4
-32
-12
-49
-47
-1
11
-91
-21
-3
6
14
-2
-55
62
14
8
-62
26
-28
10
-39
-7
-3
22
10
25
7
-26
4
21
0
16
4
-3
13
7
-18
8
18
26
-33
-3
-20
14
22
6
10
7
38
14
18
27
-5
-6
-27
-21
5
-102
-32
40
38
-42
-1
1
9
-12
5
-8
6
3
6
0
-2
0
-6
4
4
4
-38
5
-34
2
-12
13
36
-16
18
-6
17
21
-36
17
17
4
-42
18
-14
-1
1
0
13
10
18
-12
-81
19
17
-18
-13
-1
-4
-12
7
11
48
12
16
-4
0
2
22
4
-23
-44
-6
8
11
15
-4
14
13
14
-31
18
55
-9
3
18
-27
-10
7
30
21
16
6
-43
12
23
-11
5
8
-19
27
79
37
1
7
6
8
10
6
18
4
-7
-8
18
-9
0
10
13
6
19
-50
-6
13
-11
8
-36
-15
26
21
-34
-3
-3
-7
127
-61
-20
-63
23
-38
40
2
51
-19
13
19
21
-64
-118
46
9
-1
-5
22
5
-18
-3
3
13
0
-4
34
22
5
-31
44
-7
24
14
78
6
-10
1
2
3
32
-23
54
9
25
7
1
-13
127
67
-116
127
1
11
34
69
-11
-4
50
10
-9
-78
-21
-22
7
18
43
40
26
-19
-3
-13
-98
-27
0
-12
-127
-12
2
0
23
0
-74
-38
24
-21
-55
127
-100
13
-92
-33
2
18
24
7
8
-55
-34
4
32
30
2
-1
34
6
-14
18
46
13
-35
-32
-33
43
23
13
-32
33
-39
28
29
36
1
41
-35
6
-5
122
-63
127
101
-14
14
22
18
-23
-3
-42
127
62
21
-15
-6
10
3
22
-11
-7
-104
0
-93
10
-18
127
34
-106
16
39
-21
127
-115
7
16
12
-16
-1
-24
0
117
4
-82
17
35
-11
-88
48
124
-10
-60
32
-11
-35
27
-8
127
-27
19
18
8
-78
-47
5
-14
15
23
8
8
-18
-12
21
5
18
-81
16
127
-43
5
63
-22
-21
-13
127
-6
11
3
102
40
33
-32
-6
22
15
127
23
94
1
9
11
36
21
127
127
23
-17
-37
20
-23
3
-9
1
4
10
-62
-36
5
-50
29
-76
-21
127
127
-127
-47
-13
5
-73
-92
-23
-120
109
-127
127
35
105
-45
17
4
-5
-42
-102
99
12
-13
20
60
21
-25
49
-1
12
-17
-7
16
45
6
-42
34
19
48
25
84
-20
-9
18
-7
-2
127
8
1
13
8
-16
6
-19
68
-120
-59
32
4
-65
-4
114
7
-38
12
2
-1
-1
-17
47
-35
18
32
14
-35
-1
-24
-3
-53
12
6
14
-87
-4
-5
3
14
-2
-68
-52
13
5
51
17
-21
2
-30
0
8
5
9
17
7
14
16
21
17
23
-4
15
12
-2
-14
1
15
29
-22
-6
-18
2
21
9
11
3
-20
11
12
38
5
-13
-23
-26
7
-8
-19
26
12
12
11
4
5
-22
6
-4
-2
11
10
-1
-2
4
-12
-13
1
4
-17
5
-38
1
-11
8
-9
-15
15
-5
5
16
-23
-5
19
6
-34
6
-12
-3
-127
10
17
8
13
26
-83
10
1
21
-14
7
0
-10
7
6
86
17
14
-1
-3
-119
29
3
1
32
27
9
5
0
-4
17
9
10
-32
17
51
-5
5
12
29
-11
-23
19
-35
10
8
-17
7
17
-6
-2
5
13
19
5
99
2
12
0
18
15
2
2
-9
-7
23
12
-6
-2
13
14
4
17
-55
1
-14
-3
19
-33
-13
18
14
-29
-3
-93
-7
-42
-65
-16
-61
11
-29
17
23
66
-11
10
2
15
-57
-116
39
10
1
-7
13
3
-11
-3
2
13
0
-7
30
23
5
60
34
5
25
17
58
7
23
-1
2
7
2
4
-4
21
28
-24
5
0
50
-87
-127
-20
-7
127
104
-24
10
6
22
9
-17
-38
-22
95
127
29
49
17
-43
3
-108
-6
-30
-127
-12
35
-61
127
-6
11
33
45
8
93
31
-55
-117
-21
-103
127
-96
-8
-20
-20
25
24
19
-32
-3
13
6
35
24
16
16
-13
-19
-17
47
36
6
31
-20
34
44
58
21
24
-31
18
26
42
-4
50
2
-9
1
127
-77
14
24
-31
23
22
20
55
8
9
9
21
40
-1
-14
-12
-16
28
-11
24
59
0
-59
10
-14
2
58
-73
31
-86
10
9
-82
127
27
28
-127
-40
-14
-18
-13
31
0
25
7
-7
-122
48
9
-34
-66
35
9
-20
27
-5
-51
65
28
14
6
7
69
3
-127
-116
-22
26
30
127
-5
17
41
17
-5
18
-6
-49
1
35
-38
-32
127
3
127
26
8
11
47
19
-11
-19
16
51
39
127
11
4
29
26
42
28
3
-21
16
-18
88
25
-2
-6
39
13
23
16
-75
45
38
-26
16
-71
-22
-8
-14
-9
-26
12
-10
83
-51
-101
-127
-17
-94
-43
14
-3
-50
35
127
13
-88
-80
29
13
-29
-60
11
15
-74
58
8
17
11
-19
7
53
23
82
49
-46
12
24
105
18
8
11
3
-3
-7
127
127
127
-127
-127
-25
-21
-64
-57
-114
-91
127
-32
127
-27
127
-43
127
127
-127
-127
-58
127
15
127
127
127
-127
127
-125
-28
-74
109
127
58
-110
-52
-127
127
127
127
127
-127
127
-127
67
-89
-127
-32
-83
-65
127
127
127
2
127
34
127
127
127
127
127
127
127
127
-127
127
127
127
-127
-127
-71
127
127
127
127
127
127
127
127
127
-127
127
127
-33
127
-101
-127
18
127
-127
127
127
127
-127
127
127
55
127
127
-127
-127
-127
-127
127
-127
127
35
127
-127
127
-127
-10
-127
15
127
-127
18
89
-127
72
127
127
-125
-127
-127
127
-94
36
-127
127
-127
-100
-46
127
-127
-69
-127
127
127
127
127
127
19
-84
127
127
-127
-127
107
127
64
-47
127
127
127
-78
127
127
127
127
33
127
-46
-32
127
127
127
-127
23
-78
-35
127
127
127
127
127
127
-127
127
127
-45
-47
40
127
127
127
127
127
-6
-26
127
-127
-127
127
127
127
127
127
127
127
-127
127
127
127
127
-127
127
-21
-58
-71
-127
42
-127
-27
-127
-127
-121
-127
-20
-86
127
-127
-127
127
-39
127
-127
-127
127
127
-127
127
127
127
-127
127
127
127
127
-127
-127
127
127
127
127
127
92
127
-127
127
127
-127
127
127
15
-2
-12
6
26
-10
127
127
46
-109
-104
-35
-15
-101
-24
127
18
-127
12
-7
-8
-33
127
68
-104
14
45
12
-20
-28
-127
127
-19
68
-21
39
-59
-13
5
-7
13
35
-62
-97
23
-56
127
-14
-110
8
-108
3
-38
7
23
25
11
94
-12
15
-105
23
-16
-7
9
-32
-11
44
36
25
0
25
-6
33
24
40
15
22
95
20
7
42
-93
36
-9
-11
-13
-1
-53
13
-8
26
11
7
15
-66
-9
-2
11
18
33
13
-3
-9
3
-1
-4
-10
62
-14
-35
4
-4
-1
-39
127
18
-84
127
6
-59
114
14
16
-120
9
2
-25
118
34
4
10
28
127
-112
27
28
127
-47
26
29
-26
12
-13
116
127
10
-1
13
-122
53
-11
20
127
20
8
3
-14
-12
17
31
14
-8
29
-10
-35
-9
20
116
-19
-34
11
-74
10
2
21
18
10
-20
93
29
29
50
-24
127
-12
25
30
23
21
4
-18
18
-10
-20
19
-15
-18
32
1
4
-6
-60
24
42
-35
-16
-52
-29
-1
-19
3
-28
-127
5
-23
-49
-85
-105
-2
86
-5
-38
118
-23
18
6
4
-67
-60
22
3
-5
-37
6
3
-81
54
-6
8
-4
-9
38
42
18
-27
35
-11
15
20
-31
4
-13
7
-8
-12
-13
0
12
5
12
-30
0
-3
33
-127
-69
-5
0
47
29
50
6
-22
8
0
-2
-2
-11
5
-9
9
12
7
-51
3
-44
-2
76
-41
6
31
-53
3
-8
3
20
24
-39
13
12
11
-35
-11
-39
14
-72
13
10
13
22
52
9
37
37
14
-9
23
11
3
11
4
-17
0
-4
-2
-40
26
39
5
13
12
-3
15
-3
17
15
15
-15
0
-5
33
4
-13
-41
28
-65
44
14
2
1
14
7
8
6
23
3
4
-3
3
-8
18
-1
13
29
3
-39
5
-8
4
-12
-11
11
14
13
21
-16
27
21
2
-45
-17
-1
2
-3
36
-2
9
2
-10
-84
13
23
-8
-16
13
48
-12
5
-2
-20
-1
6
9
1
-62
-1
5
-28
-11
12
4
24
3
-3
17
2
18
26
6
-3
55
6
21
12
-21
26
4
27
9
8
-42
14
10
2
-8
-3
9
13
75
-96
4
15
7
5
21
-1
1
-2
-5
-33
14
0
-2
33
11
13
25
-60
-4
-11
6
7
-44
-10
5
-15
1
-8
0
-7
67
-46
-34
-60
12
9
-19
11
8
-13
13
29
17
2
-108
11
12
10
-11
5
14
-27
-1
6
12
0
-7
37
22
16
110
1
16
18
21
71
9
4
-5
5
4
16
-25
31
-18
17
-7
0
-6
27
-15
-73
-22
-21
8
-40
94
15
4
9
-1
-14
-63
-23
7
-18
-3
48
4
-68
3
-9
-26
127
-39
2
127
-101
-17
-5
-16
13
-83
-14
22
15
-1
-42
-28
-75
5
-127
127
4
26
5
127
5
127
97
15
14
25
12
3
23
10
-8
17
37
-5
-73
65
127
12
-1
34
51
44
112
14
19
17
-51
31
-6
127
3
-20
-69
38
-64
12
7
-80
8
89
2
-4
15
-18
32
31
3
-5
-4
30
8
24
127
-15
-82
5
-5
16
-4
71
27
-41
6
16
-20
5
27
16
-16
-24
1
9
-18
127
-50
-2
4
19
-127
29
80
4
-44
26
97
-22
7
5
-6
-10
13
-7
9
51
127
-8
-25
7
15
12
29
1
-23
36
19
16
127
-6
-10
127
7
11
23
-24
-28
-8
-9
1
5
91
29
0
-6
-4
32
3
-15
37
-94
-9
30
9
11
26
-7
-11
22
-28
77
7
-10
-22
46
13
3
11
-61
-14
11
-88
35
-41
-22
19
-12
8
86
-7
-18
-24
-69
-22
-121
15
59
-28
47
-17
-38
14
5
12
-73
-99
-18
6
29
26
0
23
-23
22
-1
23
6
-20
52
38
13
126
20
2
127
25
9
-14
13
4
1
0
-14
3
5
6
8
-32
12
-3
25
-118
-61
-19
1
-54
28
76
2
-49
9
-2
-2
-7
12
8
-39
14
11
14
-35
1
-32
-8
62
11
-5
26
-68
-10
-6
3
21
30
-77
-13
12
13
50
-6
-48
0
-58
1
0
7
19
50
9
73
32
14
17
25
3
8
8
2
-15
25
3
4
-37
26
28
6
15
7
-1
2
127
17
10
21
-30
7
-8
35
1
-4
-38
18
-51
-30
15
9
12
2
7
8
4
17
2
2
-5
1
-14
-14
-4
8
14
4
-29
6
-9
2
4
47
11
16
-9
15
-3
15
24
8
-46
-9
0
-1
0
25
5
11
6
7
-69
13
12
15
-19
21
42
-6
6
3
15
3
7
6
2
42
-5
5
2
7
-19
-2
21
5
0
22
9
15
15
3
-11
42
6
19
54
-14
10
3
-22
5
10
-22
5
13
6
4
-5
0
15
15
75
6
16
12
9
24
1
-1
15
-7
-22
11
2
1
23
8
12
22
-67
3
2
13
5
-39
-7
6
-15
-5
-17
-63
-2
-54
-55
-24
-55
10
26
2
-62
50
-12
12
1
12
6
-103
11
10
0
-21
6
11
-25
2
7
24
2
-8
26
17
18
-35
0
11
12
22
-82
-3
-11
-10
3
5
11