-73
94
-66
-67
73
73
64
106
46
74
-63
-69
-69
-66
69
-74
64
52
-61
-127
78
-108
73
68
80
-96
69
-65
72
67
65
58
78
82
81
68
-96
69
-101
87
-77
-100
-66
-76
-83
92
-63
72
-73
-77
-6
102
69
71
67
-76
77
-99
-74
75
-68
-115
80
-63
-69
73
68
74
-97
67
-73
-70
-99
76
-72
-99
-118
-60
-66
75
77
113
73
-69
70
77
73
72
-69
78
81
-71
71
73
-78
65
-89
69
-69
-60
76
-70
75
78
64
74
-73
7
-66
-63
-65
81
65
-74
-75
65
-84
-64
-68
-82
74
78
104
-115
69
74
67
-59
48
-83
-71
84
-58
76
-79
82
-70
-68
63
-61
78
-100
98
70
76
69
64
98
84
70
-85
69
110
-72
68
-69
72
75
-72
73
-65
81
68
-69
70
74
-70
74
72
74
-78
72
-66
77
59
-69
80
105
35
75
-15
-42
-61
61
69
64
80
69
-96
-72
98
66
82
69
81
-89
-67
-71
-72
75
65
73
69
68
75
75
-66
36
-64
-70
85
67
-75
68
66
-101
82
60
71
-71
65
70
-68
66
-64
65
-97
76
-91
70
77
69
65
77
-66
74
60
-78
77
-125
74
-60
-59
74
-63
62
62
-117
73
-76
-72
76
-75
-74
-72
86
-93
111
-83
-90
90
92
86
127
61
93
-84
123
-87
-88
86
-97
84
72
-82
-116
94
-116
97
91
97
-127
90
-85
93
86
85
78
99
112
98
89
-127
93
-116
109
-100
-127
-86
-101
-97
109
-88
93
-92
-98
1
127
89
93
87
-97
99
-127
-93
101
-90
-127
100
-82
-82
92
85
94
-127
89
-95
-89
-118
101
-91
-108
-127
-80
-87
99
98
127
87
-88
93
88
95
91
-93
100
107
-95
88
95
-102
87
-102
92
-91
-80
103
-91
99
101
86
98
-95
4
-88
-84
-83
101
89
-97
-98
86
-101
-83
-85
116
95
104
125
-18
90
95
88
-79
65
-96
-88
100
-79
97
-105
106
-88
-89
80
-82
100
-127
127
93
99
88
87
127
111
89
-106
87
127
-95
94
-89
94
95
-92
93
-86
101
85
-91
92
93
-93
91
92
94
-105
87
-84
99
77
-93
99
125
41
95
-9
-54
-85
79
89
81
106
90
-116
-96
120
88
99
91
103
-101
-86
-93
-91
94
88
92
91
90
97
98
-86
39
-81
-90
103
87
-90
91
84
-126
102
78
91
-92
89
94
-88
87
-83
84
-108
96
-113
90
102
87
86
96
-90
95
80
-95
99
-65
95
-82
-84
92
-86
81
85
-123
94
-99
-90
98
-81
-96
-91
116
-27
38
-32
-40
35
40
33
52
28
37
-33
-4
-35
-37
31
-38
36
31
-35
-76
42
-74
44
40
42
-52
35
-31
37
36
29
30
41
54
34
36
-52
34
-53
51
-47
-41
-32
-40
-24
62
-44
40
-34
-34
-9
45
35
37
35
-40
44
-50
-38
51
-39
-59
36
-28
-29
34
34
42
-40
47
-33
-37
-41
40
-38
-32
-58
-29
-34
42
36
28
36
-35
40
47
44
42
-38
41
49
-37
36
40
-33
41
-35
36
-38
-32
48
-32
40
44
37
37
-37
0
-37
-34
-34
38
40
-35
-41
36
-37
-33
-33
-38
36
45
47
-127
39
40
37
-26
23
-40
-32
35
-34
41
-43
46
-34
-28
35
-32
40
-53
24
34
42
36
38
52
56
32
-41
32
39
-40
43
-33
38
42
-40
36
-33
45
35
-34
37
46
-41
36
35
38
-44
31
-30
43
33
-39
42
47
2
39
-7
-22
-30
32
37
34
47
39
-38
-41
37
37
36
40
44
-37
-30
-37
-38
39
39
39
43
38
46
42
-35
14
-31
-40
49
32
-25
36
32
-53
39
34
37
-34
35
42
-33
37
-34
31
-45
43
-41
37
43
33
39
39
-31
44
37
-33
37
-80
40
-35
-37
39
-31
34
38
-58
34
-42
-32
40
-28
-40
-33
47
-99
104
-96
-95
97
98
98
71
95
99
-93
-77
-100
-97
97
-96
98
93
-97
-127
104
-127
96
93
100
-40
98
-95
99
97
96
95
94
98
103
96
-95
97
-127
102
-97
-88
-99
-92
-104
111
-93
98
-99
-98
53
4
99
96
97
-107
101
-56
-97
100
-96
-34
96
-98
-99
100
101
98
-98
94
-96
-96
-127
97
-94
-103
-126
-92
-95
96
98
106
102
-96
98
107
94
97
-94
99
102
-93
99
99
-94
97
-105
98
-94
-95
95
-96
97
98
94
99
-94
71
-95
-96
-93
101
94
-96
-94
98
-102
-94
-99
-80
97
98
95
-22
98
99
97
-97
-28
-108
-98
105
-95
101
-96
101
-101
-98
99
-93
98
-89
34
94
95
96
94
69
98
100
-98
100
61
-96
95
-96
97
101
-100
98
-95
100
98
-98
98
98
-97
102
99
99
-96
101
-99
99
97
-94
102
106
112
100
-67
-92
-95
98
96
96
100
96
-103
-99
102
96
105
97
98
-105
-96
-98
-98
99
94
98
99
100
99
98
-96
88
-97
-100
100
100
-100
96
97
-105
100
93
98
-95
95
90
-96
93
-96
99
-108
100
-100
100
96
95
93
99
-97
97
97
-104
102
-76
98
-93
-93
97
-92
99
99
-99
95
-98
-98
96
-112
-96
-97
95
-127
127
-127
-127
127
127
127
87
124
127
-127
73
-127
-127
127
-127
127
127
-127
-71
127
-119
127
127
127
-51
127
-127
127
127
127
127
127
127
127
127
-124
127
-127
127
-127
-115
-127
-127
-127
127
-127
127
-127
-127
127
7
127
127
127
-127
127
-68
-127
127
-127
-24
127
-127
-127
127
127
127
-124
127
-127
-127
-122
127
-127
-127
-126
-127
-127
127
127
119
127
-127
127
127
127
127
-127
127
127
-127
127
127
-127
127
-127
127
-127
-127
127
-127
127
127
127
127
-127
91
-127
-127
-127
127
127
-127
-127
127
-127
-127
-127
127
127
127
127
79
127
127
127
-127
-40
-127
-127
127
-127
127
-127
127
-127
-127
127
-127
127
-112
49
127
127
127
127
84
127
127
-127
127
75
-127
127
-127
127
127
-127
127
-127
127
127
-127
127
127
-127
127
127
127
-127
127
-127
127
127
-127
127
127
127
127
-88
-127
-127
127
127
127
127
127
-127
-127
127
127
127
127
127
-127
-127
-127
-127
127
127
127
127
127
127
127
-127
117
-127
-127
127
127
-127
127
127
-127
127
127
127
-127
127
127
-127
127
-127
127
-127
127
-127
127
127
127
127
127
-127
127
127
-127
127
-19
127
-127
-127
127
-127
127
127
-127
127
-127
-127
127
-127
-127
-127
127
-47
56
-59
-59
60
59
55
53
62
57
-56
-51
-54
-55
55
-53
56
57
-53
-89
56
-79
57
63
57
-21
54
-53
57
59
59
55
51
52
45
56
-49
56
-86
52
-56
-42
-52
-50
-54
60
-63
58
-45
-53
-61
10
51
52
54
-63
56
-34
-61
55
-56
-24
50
-46
-56
52
51
59
-41
60
-51
-57
-84
55
-56
-53
-79
-50
-49
57
56
23
58
-59
57
64
57
52
-60
57
52
-51
52
58
-52
57
-54
55
-54
-55
58
-53
51
54
58
52
-58
42
-53
-55
-54
48
57
-44
-55
54
-42
-50
-50
-54
53
52
59
-28
59
56
56
-52
-15
-65
-51
29
-58
54
-59
49
-53
-51
58
-55
53
-51
7
56
59
56
58
34
59
50
-52
52
19
-55
57
-50
60
59
-52
53
-56
61
53
-54
62
64
-57
54
54
52
-52
57
-48
58
57
-54
52
44
16
54
-38
-56
-51
57
52
56
50
56
-40
-57
47
54
44
59
53
-60
-50
-53
-58
55
56
56
56
51
61
51
-52
32
-56
-52
56
50
-51
53
54
-58
57
58
54
-52
53
61
-52
59
-59
56
-57
61
-52
51
60
57
57
53
-48
62
64
-61
54
-63
52
-55
-63
56
-52
54
58
-41
55
-57
-53
54
-59
-56
-49
58
-49
46
-58
-50
59
51
59
10
97
51
-48
-127
-55
-52
56
-41
57
62
-56
-106
59
-97
40
54
55
22
52
-51
52
53
56
61
52
46
44
53
-17
50
-94
40
-51
-14
-55
-45
-51
77
-47
50
-46
-51
-14
-32
56
41
57
-58
53
13
-55
49
-49
32
42
-54
-58
48
58
49
-31
49
-47
-49
-107
53
-45
-44
-88
-48
-51
45
52
23
55
-54
51
69
36
43
-52
46
35
-43
54
57
-43
58
-51
57
-50
-57
43
-43
40
50
54
47
-45
99
-44
-55
-47
49
51
-37
-39
50
-47
-47
-47
-52
53
40
31
-109
55
51
51
-51
-96
-57
-45
31
-58
44
-45
48
-52
-46
60
-49
37
-22
36
57
43
49
49
-17
35
57
-42
57
-6
-46
48
-45
54
55
-51
50
-52
50
50
-54
55
52
-46
54
54
41
-49
55
-52
45
54
-45
43
35
-95
53
-99
-70
-52
53
46
51
45
48
-24
-60
32
52
44
53
42
-46
-53
-52
-57
48
52
54
52
51
52
44
-47
-93
-56
-45
48
53
-45
49
51
-49
44
59
46
-48
48
43
-48
57
-58
66
-57
50
-46
48
50
52
46
44
-46
54
60
-66
51
-127
43
-53
-54
48
-45
55
57
-70
46
-46
-50
45
-68
-47
-43
47
-65
59
-78
-69
76
69
76
11
127
66
-66
80
-74
-74
71
-57
74
86
-80
-110
71
-123
58
73
79
31
69
-70
66
72
75
81
66
62
51
71
-24
64
-108
48
-68
-15
-72
-64
-67
86
-67
65
-57
-63
-41
-31
71
55
74
-74
71
18
-76
66
-64
38
59
-71
-76
65
74
69
-44
70
-60
-63
-112
67
-62
-68
-89
-70
-69
59
66
24
72
-70
67
83
54
61
-71
59
44
-61
71
72
-58
78
-60
72
-70
-79
57
-58
55
64
74
58
-65
127
-61
-74
-67
65
71
-54
-51
69
-63
-65
-59
76
74
54
46
0
71
67
67
-71
-127
-71
-61
35
-79
59
-64
61
-68
-61
79
-69
51
-31
42
77
60
68
67
-20
42
70
-57
71
-9
-60
69
-59
73
73
-65
65
-75
66
68
-67
69
71
-61
73
68
56
-62
68
-70
58
70
-64
56
44
-94
66
-127
-96
-68
69
63
72
59
66
-41
-79
51
69
55
73
60
-63
-71
-67
-74
67
71
72
67
65
69
56
-66
-127
-76
-60
63
68
-61
64
69
-72
57
78
62
-65
62
61
-66
74
-79
88
-70
67
-64
61
65
71
67
66
-60
73
82
-80
63
-102
58
-71
-73
68
-65
71
74
-70
62
-62
-67
61
-86
-64
-62
62
-15
22
-39
-32
32
30
28
2
52
29
-28
-76
-30
-29
27
-20
30
41
-28
-55
31
-48
25
35
40
21
33
-28
26
29
40
37
36
23
18
34
-5
31
-52
24
-19
2
-29
-17
-21
63
-27
28
-15
-25
16
-30
27
20
31
-25
32
10
-32
18
-27
16
26
-24
-32
27
26
30
-17
26
-20
-27
-64
27
-25
-2
-42
-21
-25
22
27
-5
34
-29
26
37
20
17
-36
25
15
-22
29
32
-22
29
-14
28
-23
-35
22
-21
21
27
34
25
-30
42
-24
-34
-26
26
31
-17
-18
27
-16
-19
-19
-29
31
17
29
-97
31
27
32
-34
-56
-33
-24
-10
-35
24
-31
18
-27
-28
37
-30
20
-9
5
37
26
24
30
-7
19
28
-19
29
-22
-24
32
-16
29
27
-26
27
-31
26
28
-27
31
30
-23
29
28
22
-23
30
-26
24
32
-28
22
13
-24
25
-43
-44
-21
29
23
28
27
24
-3
-34
32
28
17
30
20
-12
-28
-24
-27
24
28
29
22
25
32
19
-25
-35
-29
-21
28
25
-19
28
31
3
26
30
29
-17
24
20
-25
31
-35
39
-18
35
-8
23
28
32
29
27
-14
30
38
-22
29
-80
21
-26
-32
28
-31
30
32
-20
27
-26
-28
28
-34
-28
-26
30