43
-79
30
78
44
27
48
-17
20
-104
12
-98
-38
65
-47
9
-22
26
-15
28
-59
16
-4
-33
-7
22
-17
55
24
49
4
-57
-15
-7
39
3
57
-6
-96
11
-88
-94
25
14
-49
19
-4
16
35
21
27
27
44
4
27
27
-26
-91
-65
-43
42
-25
-2
45
-11
1
20
33
-9
22
20
-25
-63
42
6
-2
9
-10
28
-38
-85
-7
31
-69
12
23
-68
-97
-45
-1
-63
9
49
-53
0
-38
11
33
4
62
10
-127
2
-4
35
21
22
-18
14
23
10
15
33
-3
32
30
-34
59
52
73
66
72
14
21
-42
2
14
29
-30
11
17
-3
-24
-77
37
-11
-36
7
26
8
-57
-53
111
-5
3
9
23
-62
-1
97
24
2
32
77
-21
9
-96
53
33
-78
22
54
-64
4
-47
-10
10
14
10
8
26
-33
-70
19
23
-89
14
38
-49
11
42
71
26
32
57
13
45
54
-85
77
19
31
42
-11
-1
45
7
-65
-7
40
37
6
-30
8
17
-127
20
61
33
53
-59
-3
-40
127
21
-35
-96
28
-66
0
-21
35
3
-82
0
0
23
-7
0
-4
7
-10
21
99
47
48
-44
46
4
51
-35
77
-33
34
6
-127
-7
-14
-9
12
47
34
0
1
76
-6
89
-86
46
118
111
59
-105
-58
53
-111
36
-127
-102
127
-95
60
-83
31
-66
30
-8
32
-49
-1
0
60
-56
127
127
-44
25
-74
-34
-18
127
49
127
-24
-111
53
-75
-127
127
35
-73
70
-11
54
59
44
-8
80
96
22
-27
64
6
-84
-93
-71
96
-39
-26
127
-37
3
48
127
-48
52
31
7
-73
116
95
-50
43
-5
30
6
-100
-35
127
-90
-39
47
-90
-125
-83
-3
-86
93
112
-55
75
-127
39
118
22
127
77
33
-92
10
127
32
66
-29
54
97
56
39
99
-36
127
105
-127
127
45
-4
38
93
-46
19
-68
-9
32
33
-69
28
3
-31
3
-118
68
8
-63
25
50
-65
-127
-108
55
18
-74
10
70
-59
-28
95
-22
1
29
34
-65
-58
-127
127
54
-23
75
54
-44
44
-124
-65
25
-25
50
5
-58
-78
-69
38
71
-115
56
127
-67
12
63
127
75
106
127
49
127
109
-127
103
49
50
78
-53
-4
73
21
44
11
46
-13
16
-14
38
-53
34
35
75
60
76
-88
11
-26
-56
77
-75
-117
29
-127
-25
-44
14
28
-91
-44
23
66
-1
3
30
11
-44
38
127
127
-7
-93
85
11
127
-41
112
-94
16
-33
-44
-45
-35
-65
86
72
127
-2
13
105
-8
-33
-57
20
50
13
-12
-95
-8
4
-80
3
-73
-13
36
-28
-2
-6
17
3
23
-70
7
7
-26
-78
-1
-4
-16
3
43
0
-41
-8
-7
9
7
25
-3
-67
-3
-89
-52
4
3
-27
3
0
0
22
13
25
-8
10
-1
-91
0
-32
-70
-41
-27
-21
-18
-4
22
47
0
3
-3
2
9
17
-29
-44
17
-21
9
3
-9
23
-27
-70
3
6
-59
12
19
-51
-51
-21
-3
-37
-22
26
-34
-13
-16
13
2
2
23
-11
38
16
-5
14
12
1
-7
-14
-16
-6
9
2
7
2
4
98
29
51
67
57
38
-74
19
-24
1
5
22
-14
9
14
2
-3
-32
22
-16
-18
13
15
20
-17
-22
-37
-8
8
9
-1
106
2
76
26
3
23
61
-10
23
-51
32
15
-76
-15
37
-51
-10
-23
5
5
20
0
12
33
-9
-50
8
11
-59
0
2
-36
12
26
38
-1
-6
30
-2
10
22
-40
58
13
21
15
2
0
23
2
101
-6
39
-55
2
-30
-12
17
64
11
38
19
37
-33
-3
-21
-35
-4
-13
-70
19
-33
3
-15
30
-3
-58
7
4
-9
-4
3
-18
8
-14
13
63
13
29
-32
-8
4
19
-19
42
-10
32
7
-118
4
-10
-2
-12
-5
-16
1
-5
28
-1
56
-72
68
127
11
70
127
-54
47
-122
42
-78
-71
-17
-94
13
18
43
-66
32
73
27
-24
-13
91
54
-21
116
-22
102
23
-90
-47
-17
11
53
-2
-26
-104
46
-92
-92
-27
45
-48
37
19
41
50
46
15
34
46
20
127
18
-70
-127
-66
-36
58
111
-26
-31
-26
20
46
120
1
-15
30
25
-55
92
98
-7
30
15
47
-64
-107
8
-15
-21
-33
45
23
-124
-101
-11
-77
102
127
-48
7
-41
33
48
29
83
44
-120
-48
17
-28
38
42
-1
32
51
50
30
53
2
-19
-40
75
-30
50
-30
53
78
127
45
-71
-18
-11
40
-90
39
62
-20
-67
-117
-4
-30
1
35
45
81
-97
-67
127
11
57
36
42
-56
-30
74
48
21
13
106
-65
85
-107
-21
64
-92
56
-6
-127
13
-127
-47
15
45
48
0
72
-93
-70
29
88
-111
42
-3
-91
27
55
80
51
75
41
32
-14
50
-110
35
63
22
44
-15
10
14
28
-127
1
42
127
39
4
36
83
-57
24
-3
40
53
-127
15
42
96
57
-64
-95
14
-82
-25
93
17
13
-127
35
52
62
-25
35
51
24
51
39
55
-1
62
-59
69
-51
38
92
14
-67
42
-16
-98
-10
47
-65
85
51
82
32
34
58
10
127
-127
127
-31
127
127
-67
-127
127
-127
127
-56
-127
-62
-127
127
89
127
-127
127
-44
127
-127
127
21
127
-127
78
-34
59
127
-127
-127
-127
-18
127
-21
-127
-127
127
-94
-104
-11
127
-127
127
127
127
127
127
-127
127
127
127
-4
127
-127
-120
-127
-127
127
127
-127
-20
-72
127
127
79
-127
-127
127
127
-22
127
127
-127
127
127
127
-127
-127
127
-48
127
-127
127
105
-127
-127
-127
-127
127
24
127
127
70
127
127
127
111
127
123
-127
127
-78
127
127
-8
127
127
127
127
127
127
77
-127
12
-17
127
-113
127
127
12
127
-127
-127
-127
127
-127
127
42
-127
-74
-127
-8
-127
-127
127
127
127
-95
-127
9
127
127
127
127
-120
-127
-127
-127
127
-127
127
-127
127
-17
-97
127
-127
127
127
-90
127
-118
-127
127
127
127
-127
-127
-127
-127
127
127
-127
127
-27
-127
127
127
120
127
127
14
127
29
127
-109
127
127
127
127
-37
127
127
127
9
127
127
-12
127
-118
127
-127
40
127
-127
127
127
-118
127
127
17
127
-127
-127
127
-125
-127
127
-127
127
-98
127
127
127
127
127
127
127
95
127
61
89
127
-127
127
-127
10
127
-74
-127
127
-127
-40
-127
127
-127
127
127
119
127
127
127
127
-47
-33
42
110
-16
51
-113
-29
11
-78
4
-63
-37
-1
-72
-17
2
4
-31
5
78
-3
7
-37
-127
9
6
112
-18
82
-7
-76
-17
9
11
15
3
-2
-67
8
-90
-65
-21
9
-18
10
-10
12
13
8
36
-2
13
-6
-61
-7
-39
-94
-36
-3
-11
68
-3
-22
127
-6
6
97
27
6
9
-1
-45
70
71
20
-2
-12
14
-32
-73
-18
-2
-32
-9
12
8
-85
-66
13
-46
67
106
-62
-20
-44
19
17
-7
54
11
37
-20
-1
-15
3
11
-3
-13
32
10
1
17
-20
-36
-13
81
-16
15
-10
26
65
-100
10
-45
6
14
7
-61
16
46
5
127
-81
1
-12
24
-7
5
51
-64
-32
-102
-17
33
-1
19
127
-11
84
55
-7
29
67
-30
54
-101
-5
15
-70
16
-25
-103
-14
-92
-20
-14
17
14
25
81
-56
-44
-7
54
-81
10
4
-56
-5
24
42
12
50
26
-4
-14
26
-81
-9
27
-2
6
-6
-16
-22
-4
124
-24
4
-87
4
15
6
86
50
28
18
17
24
-108
-8
-2
39
5
-37
-73
-13
-53
-3
60
36
-14
-94
6
5
12
-33
3
20
-4
26
10
53
-17
43
-32
-4
-24
33
50
26
-35
9
3
-100
18
16
-33
53
-59
51
-2
18
20
-16
-80
-48
12
15
-38
-1
70
-17
-1
-67
11
-41
-19
-18
-32
-19
39
-5
-25
15
92
-3
34
-30
59
0
5
45
-11
61
3
-44
4
-1
-17
5
-7
-1
-95
-3
-70
-10
-20
-7
-12
-9
2
-6
13
14
36
-7
-20
-2
32
26
-48
-86
54
-24
-1
65
3
-12
-29
5
-7
3
-5
-11
16
22
42
6
70
23
11
6
10
-63
-67
-1
-5
9
-2
19
77
-30
-58
4
-43
-25
32
-30
-32
2
16
19
5
24
-42
-116
-2
1
-10
-1
9
58
-6
22
4
-1
6
-1
-37
-19
-41
-37
27
85
21
19
41
21
-41
8
-9
18
-32
15
63
6
-50
-51
-34
24
44
-2
10
55
-10
-2
49
-7
31
13
10
-15
1
14
9
3
16
-26
-16
33
-71
-14
5
-84
-7
15
2
-19
-65
-20
-1
16
2
-1
31
-12
-69
2
-16
-48
13
2
-58
10
3
-31
-12
27
-49
-7
-6
8
-39
2
-5
4
-15
30
6
17
6
-55
-18
32
25
11
127
17
18
-79
19
5
8
-16
-68
1
54
117
4
-27
-70
-75
-35
-3
56
26
-5
-58
27
22
-16
-26
-5
0
3
44
18
22
-39
30
-33
-61
-13
-24
67
-43
36
20
0
-77
25
19
-27
-2
13
-1
2
36
14
-1
-68
-42
25
93
-81
22
98
-30
12
-104
28
-6
-39
-14
-59
-56
127
-13
-52
1
127
-15
59
-41
65
-17
36
90
-44
127
-6
-62
-37
7
-26
14
-10
7
-70
3
-127
-70
-58
-18
-37
-35
19
-12
29
0
62
-51
-34
-7
-37
13
-127
-99
75
-22
4
113
0
7
15
0
2
88
-6
-30
24
89
127
64
37
45
1
24
-2
-127
-91
17
-1
31
-10
23
127
-82
-34
11
-63
69
55
-45
-58
52
16
8
9
-17
-32
22
34
1
7
-7
-32
127
-19
10
2
-9
-4
15
-75
-34
-105
-52
42
127
-3
52
-74
52
-60
10
-12
8
-43
28
127
15
9
-25
-127
10
86
23
26
50
-38
-41
-95
-12
94
3
-31
-22
-4
-26
-3
10
11
-38
-28
101
-40
-33
10
-25
-8
57
-71
-40
-81
-11
-19
55
16
-8
-53
-41
-30
-16
4
-70
-18
-3
-42
24
-37
-79
-16
98
-75
-21
-59
-52
-100
-22
-9
-16
-14
127
-12
-2
1
29
-40
15
-13
12
106
-3
1
9
2
-62
-33
-24
-93
0
41
-92
-8
-50
-87
-84
-58
5
112
27
-20
-106
45
58
-1
-45
3
30
2
127
87
79
-76
119
-45
-29
-67
-51
92
-127
106
61
-19
-108
58
64
-73
35
26
5
8
61
-9
1
-53
-39
5
-35
-19
-16
-66
-9
-6
-48
5
-34
-7
-17
-18
-6
13
3
-12
17
64
-3
19
-18
-38
10
-4
0
-2
23
2
-33
10
-4
-15
8
-8
-5
-67
-1
-55
10
-11
-2
3
-3
0
-5
8
12
21
4
-11
-1
-67
16
-23
-54
37
-19
-11
43
2
-8
33
4
-6
-21
-7
-7
9
-3
17
-9
51
13
9
1
11
-30
-50
-2
-3
9
-5
18
40
3
-37
2
-24
-61
12
-19
-20
-3
19
16
3
18
-29
20
-9
2
-10
1
18
31
-2
5
0
3
1
-1
-20
-11
92
-30
32
55
19
-85
-71
8
-30
4
-8
18
-17
12
31
3
21
-34
-7
17
26
4
3
41
7
7
-50
-3
4
14
12
75
-2
14
9
1
13
-19
-14
15
-50
-8
11
-59
-8
-2
33
-12
-37
-15
1
5
-3
4
36
-1
-61
5
-17
-33
15
2
-49
7
7
-6
-8
-8
-32
-4
-1
10
-9
13
2
6
-11
5
6
22
8
46
-9
31
-44
7
105
16
17
40
12
14
15
-21
-54
1
51
-42
9
-17
-56
-66
-19
-5
20
20
-2
-29
11
14
-17
-21
-8
-16
5
12
0
10
-22
-36
-27
-61
0
-17
36
-20
12
12
0
-49
14
-2
-6
-16
-17
-8
0
25
22
0