88
-103
-45
-127
66
-95
120
-24
-93
-127
-121
127
-69
73
-120
-103
-66
45
117
127
60
31
-43
48
18
-118
-127
-127
-127
127
16
-127
-70
3
-16
-49
83
116
94
52
-35
-53
-47
-29
-28
94
70
127
64
87
127
114
127
-112
89
-106
106
-95
127
48
-19
-67
-55
77
-15
107
-122
90
-93
-31
20
88
-85
-56
106
-53
99
-74
113
84
43
-109
-84
-69
123
-85
-77
-80
123
-104
-40
-91
-57
-16
100
127
44
127
-123
7
43
102
-92
40
-24
88
-100
-104
48
37
-79
29
49
-66
97
-43
116
85
-54
29
-84
127
-127
-77
-67
10
24
127
-46
127
39
127
-127
-75
-46
-92
-65
-70
11
4
-119
-27
-126
37
-74
69
-70
-48
-112
-3
-46
37
126
-127
-121
-6
-127
127
-56
127
127
73
44
87
94
4
-2
127
100
108
-117
-19
127
-2
-51
55
87
-108
41
-116
96
127
-114
-122
127
-116
57
102
126
-95
92
-81
-29
110
-115
114
-44
-100
97
8
-56
121
127
-93
21
-83
127
87
49
-32
64
-127
-91
107
-44
91
-27
73
121
-114
81
-111
-21
-112
-62
-93
127
127
-68
-96
93
-72
-99
-23
-55
56
36
127
102
-127
-56
105
64
123
103
-90
-11
-51
124
45
5
1
-80
-110
-82
116
33
-102
-127
-127
127
-127
72
-67
-65
-122
127
-113
39
-79
62
119
85
120
-127
127
-108
-23
-110
127
-60
18
127
89
43
-88
72
102
85
41
103
66
109
12
73
49
24
91
127
-16
-32
-74
-32
37
60
-75
102
101
127
-121
77
-34
109
-83
47
72
52
74
127
9
-112
-127
127
103
-119
29
116
-67
80
-86
-28
69
-32
-75
-66
18
-26
-54
-127
127
-89
-45
-100
71
75
-106
-55
76
63
127
6
127
-109
-127
-78
-46
21
49
87
127
8
-119
112
-117
127
99
-87
-78
37
37
16
-127
60
-50
-91
-59
-29
127
103
127
-48
58
70
39
44
-104
127
-86
95
-5
92
13
117
127
-84
-127
-107
-31
90
-12
88
121
52
84
-42
-75
102
16
-127
51
62
-127
127
81
53
73
-12
-106
73
-114
42
101
-76
-74
90
-44
-32
90
-105
-43
68
100
59
-60
-100
-121
103
-79
44
127
101
-54
103
-77
73
55
127
-99
122
-2
72
-86
49
73
37
-127
66
95
-40
38
112
82
-117
101
71
-80
4
-42
-35
-34
56
-72
-92
-64
-74
107
16
127
-18
99
-98
-25
82
63
-69
114
-41
-89
-118
-57
18
57
96
105
-127
-49
127
59
-15
-89
77
127
123
18
6
-75
-100
105
-103
-74
69
-77
107
-95
-103
89
88
-112
122
74
-113
-95
-98
94
-100
125
-115
-100
127
120
109
114
105
111
-33
-52
95
-112
65
-104
-115
77
86
-106
-124
1
-89
-35
104
104
125
105
-43
-112
-111
-14
-91
15
127
68
127
109
87
114
90
-116
127
-99
106
-97
63
44
-90
-42
-55
127
57
87
-69
118
-107
-36
105
107
-109
19
48
-107
127
-104
104
85
52
-107
-77
34
122
-104
-121
-96
127
-75
-38
-107
-104
31
127
107
81
114
-127
109
-127
109
-102
-76
-114
105
-127
-127
109
102
-110
127
126
-101
121
-32
114
104
-41
99
-110
55
-96
-105
-112
13
126
117
-64
100
122
93
11
-108
-41
-48
-34
-118
105
119
-122
-23
-94
48
-97
127
-35
127
-127
127
-81
127
102
-122
-76
1
103
92
-115
88
108
94
127
114
112
28
-23
93
127
88
-120
-12
124
1
-103
117
112
-104
127
-127
87
84
-114
-79
104
-114
81
102
91
98
8
-87
3
127
-117
107
-62
-50
122
113
-113
73
94
-104
-75
-109
84
120
112
-107
99
-101
-111
77
-127
122
21
127
92
-76
127
-127
-99
-117
-110
-94
111
54
-24
-109
117
-108
-62
104
-57
111
127
98
91
-98
-59
102
-116
127
127
-67
-100
17
117
127
107
73
-106
-111
-116
102
99
-110
30
-39
85
-68
127
-68
-84
-104
101
-104
-74
-114
95
125
109
125
-108
74
-104
-117
-95
99
-109
-65
100
110
100
-91
123
88
120
127
113
127
113
12
121
112
9
127
103
-12
-51
-90
-22
18
125
-100
91
101
111
-99
127
-110
97
-57
60
127
93
-65
-23
61
-92
39
95
122
-122
100
127
-50
-79
-127
121
66
106
119
-120
107
-95
-99
-110
77
-92
30
-88
122
127
-99
-73
127
116
74
125
99
-110
106
-94
-99
86
100
126
67
-55
43
109
-115
119
123
-105
65
114
124
14
-87
126
-83
-103
-100
-39
11
82
116
-56
127
54
64
17
-112
107
-106
87
109
-3
67
116
109
-113
12
-127
-33
98
-82
92
104
127
127
64
-117
127
120
-125
127
100
-122
89
127
127
91
-46
27
-26
-127
98
127
-123
-78
88
-23
-35
127
-63
93
120
127
127
-96
-117
-117
89
-127
-80
92
83
-104
96
-118
113
107
109
-99
110
-15
87
-100
37
106
118
48
127
98
121
59
96
127
40
-10
127
28
-68
-115
6
-101
94
-108
-114
-119
98
98
57
-41
70
87
-120
-86
120
97
-111
119
92
-127
-93
-101
72
108
83
96
-94
-53
123
93
87
-117
121
106
127
123
-114
15
16
114
-107
-57
65
-51
70
-83
-31
74
45
-65
92
-14
-69
-108
-93
100
-60
46
-94
-84
-66
29
92
94
42
18
-35
-84
13
-101
55
-109
-85
103
-6
-112
-53
-23
-11
-42
52
105
67
35
-28
-25
-40
-28
-12
69
45
101
39
69
106
88
104
-86
75
-85
87
-73
113
-127
-16
-48
-42
57
-17
96
-97
67
-70
-25
-14
66
-67
-57
89
-33
78
-65
89
70
-127
-88
-61
-66
97
-64
-52
-64
107
-85
-38
-71
-44
-21
78
102
-3
63
-95
-6
54
80
-93
44
-3
61
-77
-74
28
11
-63
-6
-49
-46
74
-37
99
70
-47
13
-73
111
-112
-66
-51
7
6
100
-36
97
22
101
-108
-58
-38
-77
-50
-50
8
-14
-91
-22
-94
21
-54
48
-54
-61
-88
-24
-31
19
103
-93
-94
-8
-123
108
-36
104
99
57
31
57
78
5
4
105
79
90
-93
-21
98
-2
-36
33
73
-87
25
-98
80
101
-81
-92
103
-86
-127
87
100
-101
89
-67
-35
81
-83
80
-28
-84
65
-107
-127
92
87
-76
27
-60
106
64
35
-20
53
-95
-69
89
-52
61
-28
42
103
-89
62
-84
-8
-88
-45
-67
99
108
-57
-77
67
-57
68
-77
-43
40
25
103
81
-102
-45
84
74
104
68
-84
4
-53
107
19
-13
-6
-65
-78
-63
94
17
-83
-114
-112
107
-98
43
-49
-54
-76
105
-91
38
-53
45
89
54
94
-98
97
-83
-9
-83
103
-45
21
100
61
28
-63
65
84
65
25
84
47
83
10
-127
-3
23
63
102
-14
-23
-63
-28
29
41
-56
89
87
90
-93
60
-21
88
-68
41
-23
39
78
122
3
-91
35
97
72
-96
16
95
-55
-2
-61
59
57
41
49
-51
9
-8
66
-98
112
-73
-29
-81
53
47
-91
-34
51
40
105
-21
99
-85
-127
-127
-33
12
28
63
109
10
-109
94
-87
104
75
-71
-87
17
23
12
-100
42
-42
-67
-41
-33
123
82
116
-42
34
-77
-20
-127
-80
107
-69
76
-16
78
11
92
107
-58
-118
-81
-29
68
-6
79
107
33
65
-46
-58
78
22
-93
-102
42
-104
82
57
29
57
-9
-104
-103
-92
28
76
-62
-60
72
-30
-29
56
-121
-53
47
73
39
-39
-83
-96
87
-68
54
105
92
-40
82
-51
54
38
104
-77
92
-11
-114
-72
-127
-110
15
42
7
64
60
36
93
58
-110
93
49
-73
74
-23
-18
-20
38
-56
-66
-43
78
86
14
123
-16
90
-76
-9
60
-127
-49
82
-55
-51
-101
-127
12
37
84
87
-107
-39
101
40
-30
-65
49
103
99
7
10
40
45
84
-78
-60
58
-62
127
-127
-127
-120
127
-127
127
127
-127
-107
-127
-101
-127
123
-127
-127
-72
103
127
-115
127
124
-94
94
127
-120
-124
4
-120
15
127
-113
-127
127
-78
-35
127
64
127
127
-53
-127
-115
-31
-127
-127
107
-73
120
118
-62
127
-39
-127
-54
-127
127
-127
-9
48
-102
127
-96
114
34
127
-16
127
-127
-30
127
127
-127
95
-86
-127
120
-127
127
113
50
-127
73
45
127
-127
-127
-127
93
-50
39
-127
-127
111
120
104
45
-28
-124
121
49
127
-127
44
-123
127
-123
-108
127
127
-127
94
103
-127
127
-16
127
127
-44
125
-127
-53
-96
-127
-127
21
113
123
-18
108
127
85
85
-127
-114
-1
-47
-127
101
127
-127
-101
-124
127
-127
104
-31
106
-121
81
103
126
127
-119
-127
5
-74
11
-127
104
108
127
123
127
127
65
115
-35
120
77
-127
1
121
11
-127
127
117
-127
124
-117
127
-87
-127
-127
-54
-127
65
127
127
-59
127
-127
-22
118
-127
127
71
-116
127
127
-111
-127
-98
63
-64
-127
-28
127
127
-127
88
-111
-127
127
114
127
74
121
127
-101
124
-120
-84
-127
-124
-127
-53
-76
-47
-127
127
-127
-92
127
107
127
112
-38
127
-97
-115
120
127
112
120
110
-113
-56
127
126
127
70
-127
-127
-127
127
127
-127
10
32
58
37
105
-127
-127
-127
42
-127
30
-101
127
-127
127
127
-111
-110
-127
-127
-127
-25
-127
-7
-64
127
127
-127
127
127
120
123
127
127
127
18
111
121
10
103
-32
-8
-31
-127
8
11
127
-112
127
127
116
-127
114
-127
127
-31
54
81
127
-63
5
88
-48
-112
-67
127
-127
109
-25
-43
127
-112
-54
59
-127
127
-127
118
-122
-100
-87
-6
-118
101
-127
121
111
-127
-85
127
127
88
122
-112
-127
-72
-79
-98
104
127
127
-91
-99
34
70
-127
127
127
-127
65
127
117
16
-116
127
-97
-127
-127
54
4
127
98
-93
116
114
42
50
-127
117
-125
-121
127
95
79
127
85
-127
37
-114
-103
127
-86
127
119
119
119
60
-127
117
127
-127
116
127
-127
-45
100
116
111
84
57
124
-117
127
123
-121
44
-33
-15
-40
109
113
-30
127
111
122
-127
-127
-127
127
-119
-57
-97
127
-108
-58
-127
127
127
-2
-127
127
127
64
-127
57
74
127
-49
106
127
-90
127
20
123
70
3
119
31
-92
-122
44
-55
127
-127
-127
-127
-127
125
70
-50
108
127
-127
-58
127
72
-127
127
127
94
-127
-39
127
127
17
127
-120
-124
89
127
44
-127
127
31
126
109
-97
-127
-127
115
-127
-79
62
-70
47
-81
-105
81
73
-57
100
97
-71
-37
-56
-81
-116
57
-45
-56
35
127
53
-114
109
127
-93
14
100
-40
22
-7
-53
-46
89
-68
-94
115
-127
-52
72
11
74
85
-58
-101
-127
127
-72
-109
30
-93
89
55
-95
48
-58
-89
-63
-54
81
-43
-50
42
-127
32
-127
71
127
79
-96
103
-60
-53
73
68
-45
127
-127
-68
38
-70
55
127
47
-56
127
127
56
-79
-82
-95
-12
-32
21
-28
-67
96
42
-3
42
63
-66
127
-65
100
24
-127
-127
87
-39
-121
123
97
-96
104
68
-91
91
-81
61
61
-112
127
-41
-78
-70
-44
-19
127
127
89
-43
53
108
58
61
-46
-86
30
-82
-96
127
126
-63
-75
-107
92
-30
48
-101
83
-107
127
127
114
65
-36
-71
127
105
-86
-57
83
109
125
109
65
65
127
127
-109
56
41
-100
-95
33
127
-79
72
67
-63
115
-56
88
-111
-72
-101
-58
-44
47
47
42
127
41
-16
127
83
-58
68
127
-121
64
71
30
-118
92
-17
-127
-33
-103
38
86
-99
127
-89
-69
42
48
71
127
85
80
-102
91
-122
-127
-124
-127
-74
-68
-73
-112
-90
51
-32
-35
78
57
118
93
-90
61
-56
-108
127
-69
9
53
58
-127
127
112
120
101
127
-61
-63
-104
94
96
-98
125
38
-40
46
43
52
-86
-62
-14
-77
-127
-127
80
-111
58
49
-47
-124
-48
-96
-37
-63
-44
-67
-52
50
106
-46
57
79
67
87
60
95
89
127
94
60
127
32
-54
-87
-57
-62
127
127
124
-127
100
70
59
-55
78
-124
70
-27
-8
119
84
-127
-45
127
-81
17
-121
64
-47
127
12
-65
-72
-27
127
12
67
116
-122
127
-127
-39
-82
-56
-127
127
-105
127
62
-127
-127
39
72
31
127
-81
-56
85
90
-127
82
101
55
-84
-127
127
87
-58
96
79
-81
67
87
127
127
-75
100
-127
-66
-39
-25
-105
81
-40
-101
74
127
23
35
-33
96
-18
-127
98
127
127
107
-16
-46
54
-100
-127
66
-127
93
44
65
90
127
-31
70
84
-113
96
98
-102
88
54
106
61
-94
127
-23
-84
71
80
-108
-54
-92
-63
-35
33
127
127
67
56
82
-70
-48
-115
43
-112
-122
-101
49
-127
-28
-39
47
96
35
-50
77
106
67
-99
25
86
98
42
53
63
79
80
-88
83
116
-127
49
127
-36
-127
51
-45
52
-73
-74
-83
69
49
127
-105
77
59
-55
-127
59
50
-111
99
111
7
-82
47
101
57
-127
73
-93
-127
-39
97
127
-41
65
-6
86
127
-127
11
13
49
-42
-90
75
-79
114
-116
-110
72
126
-116
106
106
-107
-96
-116
-77
-112
127
-116
-116
-82
90
109
-79
116
95
-77
-127
100
-113
57
-1
-101
15
117
-97
-108
103
-64
-28
114
53
120
113
-40
-104
-99
-45
-117
-100
101
-49
100
108
-46
109
-31
-108
-43
-113
105
-116
-4
-98
-81
110
-67
96
24
112
-10
109
-113
-26
118
110
-114
79
-67
-111
106
-109
111
98
-101
-102
54
27
117
-109
-118
-110
89
-33
30
-121
-109
89
113
93
-127
78
-109
95
52
106
74
45
-95
110
-115
-97
108
105
-108
86
126
-108
126
-3
107
113
-22
101
-115
-41
-88
-108
-119
15
96
105
-14
107
99
70
72
-105
-83
-2
-34
-107
82
92
-110
-76
-101
105
-116
97
-24
98
-104
60
86
95
121
-111
-106
8
-87
19
-112
89
85
104
102
113
122
53
90
-13
106
71
-113
10
118
16
-109
100
103
-112
107
-117
110
-65
-105
-105
-30
-122
-109
118
112
-72
116
-119
-21
98
-111
116
56
-85
111
118
39
-96
72
-127
-42
-121
-5
117
110
-98
74
-98
-104
123
100
109
55
103
105
-86
112
-96
-79
-117
-106
-118
-32
-63
-21
-106
110
-115
127
123
95
108
95
-27
125
-83
-88
99
125
108
112
103
-99
-43
115
112
106
46
-111
-106
-100
115
106
-110
0
26
59
29
99
58
-108
-117
37
-108
37
-93
115
-96
111
126
-97
-79
-107
-103
-113
-15
-109
4
-46
117
107
-112
118
120
125
116
115
109
101
8
-95
127
9
106
-26
-10
-23
-110
5
4
107
-94
101
105
109
-109
105
-114
123
-25
44
-94
109
-45
-1
63
-29
59
-42
121
-122
85
-17
-35
-34
-101
54
52
65
84
-113
84
-103
127
-76
0
-97
75
-107
107
92
-102
-75
113
106
84
104
-95
-111
-78
62
-80
83
110
115
-66
-83
15
-70
-119
119
102
-113
64
107
97
3
-97
106
-87
-114
-125
48
20
106
88
-63
101
-70
-127
-100
-121
98
-127
-82
111
79
60
113
69
-117
37
-103
-72
114
-76
112
115
109
104
39
-116
107
105
-106
121
105
-110
77
102
96
96
73
41
-127
-106
112
102
-98
49
-24
-5
-26
102
-91
-39
115
106
115
-118
-122
-112
125
-101
-41
-69
104
-89
-47
-112
119
94
-10
-106
107
109
-104
-111
-102
-74
106
37
118
113
76
107
29
107
49
20
102
3
127
-106
41
-49
117
-113
-110
-112
65
125
50
-34
97
101
-107
-31
110
-125
-108
105
119
84
-112
33
107
117
11
111
-106
-87
83
103
31
-116
121
29
112
90
-73
41
58
109
-116
-61
49
-64
22
-64
-43
-96
50
-65
87
119
-89
-70
-77
-36
-46
82
-83
-113
-61
15
64
-45
75
10
127
54
59
-127
-50
-108
-79
-31
75
-63
-47
22
-11
127
40
127
68
57
127
-12
-66
-20
-103
-51
68
-51
37
16
-30
33
-33
-74
60
-84
36
-107
-32
-42
61
-64
107
47
0
13
127
47
-93
127
71
45
-59
96
-29
-40
72
-71
35
82
-94
-93
109
-52
97
-68
-87
-68
-68
127
127
-78
-98
122
50
-56
34
92
-87
-4
38
41
-116
42
13
59
-79
-76
63
37
-74
49
27
-39
32
127
14
59
127
87
-64
-48
-94
-54
-66
22
1
-18
127
78
41
-98
59
-73
127
127
127
-48
14
8
-52
127
-127
107
-65
72
127
75
-26
10
-81
-2
82
-91
-107
-10
-97
-38
-105
26
-92
79
49
80
49
8
92
-72
-7
-6
-106
127
46
1
-49
91
49
-53
9
-85
-18
-34
-100
85
-66
-51
-73
83
66
-73
103
-49
-24
-118
-77
90
-41
127
5
79
-70
-38
-2
47
78
-49
-47
37
17
-19
49
-88
-53
89
91
44
-59
45
61
-127
59
53
-8
-111
-61
-77
-34
-42
127
-56
83
-69
-54
106
127
107
-10
-71
37
-115
127
7
49
-53
59
66
17
-85
101
64
34
-2
-64
-92
81
1
65
-66
-113
60
-19
125
44
-95
-74
-93
-64
-38
33
-68
53
-9
56
59
-68
-33
-80
-17
-83
-33
-46
-2
-35
29
71
-76
43
36
59
37
48
55
17
24
44
26
23
54
-40
127
127
-37
-21
13
0
-42
-16
24
44
-106
44
-37
36
127
-25
48
71
108
-22
-29
127
-71
-52
55
-67
24
-32
127
67
-67
29
-36
24
-88
-96
-46
-8
-44
-89
-46
-78
116
-100
62
42
-40
-43
62
-16
85
26
-43
-84
-100
-49
-27
-127
64
63
-89
-26
-94
-127
-73
27
-2
-67
48
69
25
10
-114
20
-57
-41
-87
127
113
31
-71
114
75
85
20
25
-67
70
-65
10
104
74
24
3
-73
-70
-112
-77
87
45
-5
42
47
86
54
-104
-48
38
66
-91
0
11
-94
-75
59
41
47
127
-119
69
-127
35
-48
-69
127
-127
127
127
55
76
-20
60
62
88
-87
-93
-87
51
-87
127
-57
93
-60
-82
-53
88
104
-98
-86
-24
12
-127
-85
-24
-127
33
-99
50
58
-127
27
-127
-8
-127
27
56
-67
16
-42
127
87
48
-61
-70
-30
-92
50
11
85
127
26
-64
118
46
-65
-56
-37
69
93
33
97
103
72
-26
63
-85
125
-48
122
5
-64
64
-68
59
23
10
-78
-76
64
-91
127
-74
127
109
-102
-98
-48
105
-113
79
108
-102
-97
-113
-12
-92
97
-108
-99
116
92
115
-39
77
76
82
13
91
-113
-116
-102
-86
-22
88
-73
-110
118
-77
43
80
111
114
107
95
-86
-103
-11
-76
-62
78
-27
100
127
-83
93
-51
-85
112
-91
91
-114
-17
-48
8
-71
109
85
51
97
97
-96
-107
117
94
111
-108
93
-60
-96
78
-85
85
100
-68
-108
121
31
114
-98
-123
-88
-101
106
112
-99
-100
127
93
-90
56
107
-95
80
-114
70
71
-71
-65
101
-122
-96
99
102
-93
102
127
-87
110
94
-32
67
102
90
-111
-65
-81
-106
-103
15
104
73
120
85
104
-4
50
-106
74
98
56
-98
68
107
-92
125
-95
104
-103
69
91
79
-89
81
-24
41
108
-121
-91
4
75
-23
-116
82
55
123
94
108
81
57
93
-38
88
-127
-107
18
117
11
-97
78
127
-83
97
-125
103
-20
-101
2
-59
-110
-61
97
123
52
22
-107
-3
70
-103
86
-22
84
112
121
74
-50
123
77
-11
-112
-32
112
104
-88
66
-78
-88
62
103
95
-18
92
106
-77
120
-21
-81
-93
-113
-86
-25
-78
96
-113
109
-115
-52
102
104
89
84
-73
92
-85
70
78
-88
-116
120
127
-97
61
121
127
42
51
-101
-106
14
112
80
-91
7
66
-35
105
95
77
-102
-114
-51
-78
-39
-119
80
-39
125
125
-104
-47
-90
-85
-83
-17
-101
127
-21
93
87
-93
118
71
127
89
84
97
63
20
92
102
4
59
-15
122
66
-99
-28
0
103
-93
107
95
-59
-98
118
-101
118
78
-127
103
94
-19
-13
43
96
47
-24
113
-116
82
-7
104
-56
-86
-107
-127
79
103
-102
47
-81
-71
-64
-30
-97
110
-84
99
115
-93
-60
102
74
70
101
-57
-99
89
104
-77
-110
94
102
-117
-92
36
-84
-119
116
82
-100
-127
94
51
3
-94
92
-86
-85
-100
80
49
109
-72
127
111
91
62
26
-97
-123
-118
43
114
79
48
86
-58
-110
7
-94
40
104
-93
105
127
97
89
-5
-110
-115
102
-116
120
61
-63
93
105
79
127
127
9
-52
-109
97
43
-127
101
-65
64
100
90
120
81
93
82
95
-119
-118
-102
116
-111
-26
-17
83
-98
-127
-108
75
125
-92
-95
93
56
-66
-127
-73
-52
90
-37
101
72
80
88
-48
90
19
-40
84
-2
-62
-106
73
127
95
-102
-98
-102
-60
127
45
-61
95
103
-117
56
101
-56
-84
18
105
97
-115
76
119
87
-7
104
-107
39
-65
124
51
-107
118
-38
17
94
-99
11
-5
127
-103
55
36
93
-12
-44
-30
-61
32
-47
71
92
-61
-53
-52
-31
-33
54
-61
-87
-62
3
45
-43
58
-3
105
-95
43
-96
-77
-84
-57
-22
55
-60
-31
10
-7
115
21
116
40
37
107
-1
-50
-15
-77
-47
45
-45
14
-15
-22
12
-28
-59
53
-64
17
-82
-33
-26
55
-55
85
33
-4
-4
107
32
-68
115
50
23
-47
80
-24
-28
54
-55
16
65
-73
-77
93
-47
76
-47
-71
-54
-63
106
103
-51
-75
94
23
-49
39
37
-63
-11
45
30
42
41
19
42
-55
-57
52
25
-57
26
-4
-22
10
111
-2
52
102
69
-41
-37
-75
-36
-55
13
-10
-20
105
56
25
-61
48
-60
99
96
107
-23
12
-4
-30
97
-99
86
-50
56
107
56
-14
-1
-62
2
66
-71
-91
-13
-97
-32
-67
16
-111
59
37
58
30
11
76
-62
-17
-11
-88
111
31
-1
-26
74
33
-28
-9
-65
-46
-33
-75
78
-52
-34
-77
66
45
-79
93
-24
-27
-118
-57
73
-31
101
-16
67
38
-35
39
-91
76
-26
-43
22
7
-8
40
-64
-29
78
73
22
-49
31
40
-97
49
48
-4
-85
-45
-53
-25
-32
103
-34
55
-48
35
94
111
87
-19
-59
13
-92
104
3
56
-56
32
43
26
-94
89
43
17
-7
-49
-74
74
-22
48
-45
-98
47
-20
100
15
51
-59
-70
-49
-22
31
-55
44
-9
41
34
-43
-33
-63
3
-72
-30
-35
-18
-30
0
52
-57
5
20
38
28
31
37
0
19
-96
2
19
39
-39
108
110
-22
-22
11
-12
-33
-27
1
30
-81
21
-21
8
105
-24
-14
52
107
-12
-22
102
15
-42
35
-31
17
-25
105
2
-52
-44
-15
35
-15
-74
-47
-3
25
-73
-40
-66
94
-72
49
18
-17
-28
43
-27
79
16
-39
-53
-104
60
-24
-98
53
46
-74
-11
-88
-113
-48
-3
-14
-42
47
57
18
4
-90
2
-37
-20
-63
109
105
12
-65
89
53
-66
-6
-74
-46
54
-38
6
78
55
25
-10
-69
-50
-105
-63
67
21
2
20
-6
63
43
-92
-27
21
52
-75
-3
-1
-85
-53
47
34
26
112
-109
-96
-99
22
-45
-40
107
-101
108
104
43
-108
-21
49
45
64
-65
-70
-69
27
-70
120
-52
70
-49
-67
-37
68
77
-80
-63
-31
4
-90
-63
-41
-72
20
-56
32
38
-14
14
-118
-31
-117
26
46
-52
62
-42
108
70
23
-42
-53
-16
-77
22
10
89
110
12
-45
104
29
-91
-42
-39
57
78
43
69
81
53
-14
37
-68
99
-49
87
-1
-52
43
-53
45
19
13
15
38
32
-64
104
-127
98