21
-57
56
-127
-11
-47
-59
16
101
46
-18
83
-50
127
-91
-118
74
-34
-84
-46
48
31
-77
57
57
-102
16
-69
-47
-124
-62
-57
-109
73
-73
-89
39
47
-90
0
-73
127
-127
35
43
118
-24
-77
38
-57
-127
-4
72
-46
-70
104
85
127
25
-86
-74
-127
-102
-89
87
-19
22
-57
20
0
-38
12
-41
45
-28
40
-21
11
-5
-65
-51
-35
-34
44
26
1
-2
64
34
-1
7
-19
-15
-25
-58
-34
84
-95
95
-63
25
35
-75
-53
127
-72
-23
127
127
68
17
-80
127
65
85
29
97
-29
-127
86
85
2
95
-109
-38
-69
-96
-77
-26
127
-127
-84
127
-46
-127
-127
4
-120
-104
47
-17
28
-60
-127
9
127
122
117
127
85
-117
127
127
-93
127
-127
-51
-67
-127
-127
-57
-34
26
10
99
-107
-59
-26
14
-60
-46
38
10
-29
99
-98
-45
61
46
127
54
113
-19
59
55
7
48
-48
-32
1
-71
-59
-104
-16
21
15
26
19
-23
28
93
-15
1
54
-40
5
88
-6
38
-22
4
10
43
-24
-21
34
32
55
74
-49
81
-4
-57
-24
127
28
-31
-9
59
-54
-45
83
-19
-22
-43
13
-19
-29
127
21
13
-56
-2
101
66
127
-12
84
53
-30
105
-55
127
8
-83
-48
-23
-12
9
33
80
-127
-24
14
-10
4
-15
20
18
-42
100
108
-23
-30
-10
72
30
118
4
58
21
-2
41
-15
48
23
-39
-25