-7
-7
7
14
9
8
-14
4
-6
58
-81
-28
-8
127
54
-14
18
9
3
-5
-8
58
12
35
24
2
34
1
27
33
7
2
89
-69
-18
-1
-4
18
-11
2
-7
44
3
0
-10
49
-107
48
2
8
2
-31
58
-11
-2
-4
-15
5
53
32
-9
-14
-38
8
3
-11
1
8
31
-47
-7
-19
23
36
52
-12
37
89
-47
-9
-12
-127
-6
-37
-9
63
12
-35
105
-13
-127
-8
127
-43
-10
-1
50
-22
-95
22
12
127
10
-1
13
117
-40
5
20
-35
-62
111
-4
0
-14
31
81
-15
-59
-9
15
-10
-48
51
8
5
-127
-21
3
-5
3
9
-5
31
-3
3
-2
15
35
-28
-7
-12
-4
22
-7
94
3
2
-6
51
8
1
-97
15
8
8
125
14
5
1
-93
55
45
-22
-3
31
16
1
-2
4
4
-10
1
-7
74
3
5
14
9
-11
59
-7
2
-2
-16
3
-4
-64
-3
26
22
11
68
0
4
36
7
-13
-127
-25
9
127
-73
-14
57
-122
127
-127
-82
-3
-21
0
-7
49
-14
127
127
-7
-9
127
-42
127
2
-32
127
-78
-114
-5
-15
-28
12
-15
-127
-40
-44
15
23
-127
-127
-44
-21
18
-34
127
19
-11
-47
19
22
12
127
87
-91
-10
20
-74
-127
127
-127
-127
127
-79
-5
127
127
40
-120
-127
-127
-82
-70
-121
-47
83
-115
127
127
50
-127
-59
83
-126
126
-76
-110
-115
-109
-127
73
-127
-127
127
-127
-52
46
-127
52
-127
-69
127
45
59
-76
-127
-127
-127
-127
70
32
127
-127
127
127
-102
-103
127
127
-127
54
-50
15
-9
32
36
-9
-16
-1
-39
-9
-31
44
-5
42
-2
-60
71
127
-66
-4
-33
-18
32
-19
-68
-32
127
-3
-53
8
-16
9
-18
-42
52
7
-84
-17
-26
-127
-9
25
-6
-33
4
-127
31
32
1
-13
10
-12
-67
48
-1
-21
9
-4
10
-26
-80
-38
109
3
127
-2
-11
3
11
-3
4
1
-14
-2
44
127
-24
-9
-3
11
93
23
-1
18
-7
-8
100
-5
12
-93
0
-22
-1
-105
-10
-12
4
-125
62
44
-1
19
4
-5
1
30
-4
36
-9
-8
9
83
-5
5
5
3
-38
73
-13
-2
-7
-15
-10
4
-65
1
-8
5
1
-7
-17
29
36
12
127
2
-25
11
30
19
-8
38
-2
-26
0
-16
15
127
-38
-8
127
2
-23
-28
-8
33
-8
47
2
127
-6
-28
48
3
2
116
-57
-1
-2
-21
9
127
-2
-5
24
31
17
15
12
-16
-27
29
-7
-30
-5
-18
127
-5
-65
-15
-4
14
-20
6
-7
-6
1
-13
-14
3
14
-3
-33
-24
-10
-12
10
15
9
-5
-11
-8
0
-5
27
-13
10
-4
12
-16
8
26
9
-16
1
3
6
53
-17
21
-16
16
3
-5
1
20
-6
26
-2
1
-5
-1
8
10
-14
127
-9
2
-3
-10
-24
1
-4
13
18
-2
15