62
73
-70
62
45
57
108
75
-81
65
-94
63
-82
-73
-105
89
79
-60
29
14
60
86
79
69
57
67
127
75
-72
55
89
66
58
127
-73
68
80
66
-4
101
-65
-85
-56
59
-67
-68
64
74
-87
-15
-65
-55
-126
61
-86
-67
-45
-63
64
68
72
-64
-79
-86
-94
101
-99
88
-91
80
109
90
-95
66
-104
57
75
-112
-85
-37
98
-103
69
8
83
96
97
92
89
89
-28
104
-106
85
127
94
91
56
-94
103
127
100
127
127
-90
103
-86
96
-92
-103
90
94
-107
-16
-84
-90
-127
-112
-91
-85
-80
-97
90
97
94
-98
-97
57
16
48
-54
39
47
34
22
32
-35
7
-20
16
1
-72
-12
-24
38
-50
32
0
31
30
31
46
41
40
-29
38
-61
49
41
50
58
-21
-36
43
65
50
-3
44
-37
-48
-44
51
-41
-48
42
33
-61
-10
-32
-53
-19
34
-16
-37
-46
-51
47
41
53
-44
-38
13
84
73
-105
89
71
86
122
102
-101
107
-114
-40
-127
-83
-127
127
104
-76
70
-80
89
113
98
97
85
89
-21
93
-85
81
-83
99
86
66
-95
83
-87
87
100
-87
-84
-103
-88
88
-88
106
92
94
-102
84
-98
-96
35
98
-110
-96
-81
-91
90
91
74
-93
-93
-127
-127
127
-127
127
-127
127
127
127
-127
127
-127
-86
127
-127
-120
-38
127
-127
127
-127
127
127
127
127
127
127
-99
127
-127
127
-100
127
127
-15
-127
127
-98
127
10
-108
-127
127
-127
127
-127
127
127
127
-127
127
-127
-127
75
-127
-127
-127
-127
-127
127
127
127
-127
-127
72
29
79
-60
56
68
60
26
48
-54
39
-22
-51
-6
-96
-17
-28
44
-74
47
-70
58
41
45
62
61
60
32
48
-76
70
-54
61
77
-64
-57
56
-57
66
-102
-56
-64
-50
-60
66
-60
46
61
53
-76
49
-49
-59
49
31
-35
-55
-58
-60
64
59
93
-52
-61
21
38
24
-50
43
36
46
42
45
-39
54
-29
-79
-53
-23
-53
42
40
-33
43
74
36
50
34
40
44
41
-44
28
-32
39
-12
51
43
-22
-36
38
2
36
12
-14
-33
-63
-45
38
-36
-41
41
37
-37
-80
-49
-56
34
45
-38
-43
-40
-47
41
31
28
-42
-32
-70
-72
60
-60
61
-53
72
51
57
-57
77
-34
-127
59
-46
-47
-24
45
-59
60
97
63
58
51
55
66
59
18
38
-48
65
-8
60
62
-64
-53
60
0
57
-93
-14
-62
51
-61
54
-64
-42
55
61
-57
-112
-65
-58
43
-38
-65
-58
-62
-54
60
53
66
-52
-57
24
10
36
-20
24
15
34
15
22
-25
24
1
-68
-10
-29
0
-17
10
-33
23
56
31
17
19
23
28
25
38
18
-34
35
-10
22
34
-52
-25
25
-9
28
-26
-19
-35
-14
-24
25
-29
-10
25
23
-20
-59
-21
-15
13
-11
-21
-21
-19
-11
27
26
50
-17
-30
5