-23
59
29
-8
-11
-4
-5
-13
35
32
3
-16
50
6
7
-22
-6
-1
-107
24
127
-11
2
-28
0
-22
9
2
-11
-7
-6
-4
-12
4
26
4
-4
8
-12
67
25
-1
22
11
2
47
-2
17
14
0
5
-54
-2
4
-19
15
13
-4
-6
-20
39
13
17
24
3
127
29
-21
-34
-5
-41
9
-53
-16
1
4
-1
-9
31
99
12
-28
-15
-1
10
-41
-127
-58
-25
-99
10
0
3
-12
1
5
-127
-14
-1
-100
4
53
74
8
-24
-1
-19
7
-2
48
-29
-4
21
-29
4
16
4
-19
-11
-12
1
16
-17
-9
4
-23
17
-36
-60
-69
-37
14
-3
-4
29
-21
-31
-32
-127
-40
127
-33
-11
-41
-34
-81
127
81
-78
34
-18
-32
4
-6
31
-2
-68
-30
127
-1
-6
-26
-49
-35
-95
-25
18
127
-102
59
30
116
-37
127
-13
15
-16
10
-18
76
35
-19
30
32
127
45
24
-56
-127
-14
-43
39
-56
-117
127
-75
107
-12
-127
49
64
-19
-29
-47
8
10
-30
-16
-37
-28
32
-12
-24
38
-38
-73
-15
127
2
31
-1
10
44
41
91
-75
39
127
-35
79
127
74
-106
43
-87
127
27
-55
-15
-16
-2
-111
14
102
-37
82
-64
-31
-59
37
93
44
13
17
21
-127
-2
6
9
-13
-4
-4
-9
-5
-5
7
9
25
22
16
9
26
-12
7
8
5
-24
-21
7
-6
-1
-9
-10
-8
-8
18
-18
-6
-6
9
9
-1
-2
2
-3
-3
17
-9
-2
6
12
-4
10
9
20
-9
12
26
-22
2
-12
-24
-2
-12
-10
-2
-17
0
15
-107
51
3
12
25
-51
-6
-16
-39
-6
-5
12
-4
5
-10
-1
-29
-2
-5
-24
2
-1
3
-17
25
25
-14
-12
-22
4
-8
-5
-6
77
-2
-16
-26
11
-18
17
-24
38
-17
-9
-39
-1
4
21
15
-24
-11
4
-27
11
-40
-9
-7
15
2
-49
-21
-4
4
1
3
38
119
127
13
12
-22
-86
-15
127
127
95
0
-50
-34
-14
19
-39
-90
113
-26
-96
-13
-15
-121
1
-24
30
-4
-50
18
3
22
-30
-31
81
-51
39
-45
-3
-23
127
54
53
-2
-42
-48
-74
23
-23
5
-23
-17
28
-31
-27
50
-31
46
9
-48
74
-21
-22
-64
-19
-59
-53
127
124
-27
7
58
-35
-34
-25
-18
4
28
127
42
-50
-47
46
-18
-33
-113
-81
84
-26
87
-102
113
-3
27
110
59
79
-85
36
84
-38
108
-84
64
-54
48
33
9
23
119
-21
-24
-60
16
-46
-127
-37
60
78
-14
-32
36
-127
56
27
32
-17
-48
127
-127
-90
127
127
-127
127
127
-83
-105
53
127
-104
-127
-127
-127
127
127
-122
-127
-3
127
-127
-127
-127
127
127
127
127
-127
-113
127
-127
-91
-127
-127
127
-127
127
-118
-42
127
127
-127
-127
-108
-34
-127
-127
-127
-127
-127
127
-127
127
127
-89
127
127
-127
111
127
-127
127
-87
0
-97
-26
127
-101
111
127
127
127
-127
-127
-127
127
-108
-127
-127
127
-127
-127
-127
127
-38
29
-127
-73
127
-127
-127
127
-127
127
-98
127
127
-32
-127
-127
-106
127
-127
127
127
47
-127
-127
-127
127
127
127
-127
-24
-127
127
127
127
-127
127
3
127
127
127
-127
117
-7
8
-22
-27
-30
-1
3
-30
1
-23
-79
-31
-22
-3
1
-22
8
7
-7
3
61
-79
13
-3
32
-40
-7
-19
6
30
19
-25
13
-18
120
4
-55
1
-31
-28
-74
-12
-32
-6
4
-1
127
46
17
16
24
47
8
3
-19
-1
28
-4
-23
-9
-52
-39
3
-11
127
11
-9
-45
65
-21
-8
-17
-30
-58
-4
13
13
-21
-16
36
2
18
65
9
-1
-6
-125
103
-26
-4
-19
12
23
-27
-5
0
-60
13
-5
-36
6
-71
-20
-17
-52
-24
0
-13
13
9
-16
-64
-36
-7
-14
87
13
17
-54
-33
9
9
67
-2
-24
6
26
56
-16
1
-10
-11
-9
-9
-1
-4
11
9
-33
7
-1
13
6
3
-8
2
1
2
-4
-4
4
3
0
-10
8
-9
0
17
0
-1
5
18
-13
-5
-16
10
5
-19
14
-8
14
-8
12
2
11
8
21
-4
11
59
-10
9
-11
-28
32
-16
-7
5
-45
10
1
-62
5
-67
14
-10
-41
38
2
-3
45
-3
10
-5
-9
-16
5
-44
-5
-4
-28
4
-2
-26
-69
30
19
-3
14
-15
-4
-11
-1
-6
61
9
-15
17
10
4
13
-1
19
-19
2
-8
1
10
16
10
-11
3
27
1
7
-39
-49
-13
10
-3
-49
-14
-10
2
10
5
-24
-7
-5
-22
-24
-2
14
-21
-18
-18
49
-32
16
4
11
7
-11
5
-5
17
35
-1
20
-1
33
-53
-31
-17
-10
-21
-15
-26
9
127
-1
-4
-1
5
-15
-8
19
-25
-37
9
-3
-11
-18
41
25
2
21
-16
-12
3
6
4
16
0
-15
-6
52
-15
2
-8
-34
98
-30
44
67
127
3
-3
-46
-42
4
4
33
-27
-2
16
-12
-3
62
5
3
4
-126
-127
-19
-5
-43
2
33
-17
-8
2
-27
10
-9
-43
5
-72
13
-8
-16
-17
-15
0
15
-12
-17
-54
-30
-12
66
-78
15
40
-28
-37
5
-5
-81
-11
-26
11
40
38
-1
-2
7
-1
2
-9
-9
-9
-5
0
9
-5
-5
13
4
-2
11
-6
-4
-4
-13
7
2
-10
-8
-7
16
4
6
-1
0
4
2
2
4
3
9
6
0
-6
6
-5
13
-2
5
4
-1
-1
10
-5
3
-25
-12
4
-11
-16
-13
-8
4
2
9
-13
11
26
28
-15
4
1
-52
23
5
-10
-8
9
7
-2
-4
-2
-2
58
5
7
-33
-2
1
14
-16
-22
5
6
13
9
-6
-3
-5
1
-7
-1
-16
-1
5
32
-2
-3
10
4
7
5
-8
-8
-1
-2
24
8
13
2
-3
-49
26
-5
5
2
-20
-9
3
-10
1
-12